AB012207.1.1299 0.640168 -0.583455 0.806822 -1.669989 -0.052895 0.045191 -0.097300 -0.832437 -0.060581 0.225477 0.298432 2.192188 0.761366 0.190723 0.459907 -0.704111 0.576868 1.189276 0.571286 -0.049889 -0.038264 -1.089116 0.625477 0.460854 1.181257 0.520831 -0.065994 1.966783 0.567116 1.474661 1.855322 -0.921343 -1.787922 -0.656310 0.092962 1.066650 0.948561 0.598749 -0.001866 -0.311895 -1.887311 0.192461 -0.223243 0.829960 0.815221 -1.303839 0.103605 1.504387 -0.653921 0.487012 -0.121409 0.375189 -1.338504 -0.997196 1.460427 1.111736 2.070901 -0.509460 -0.233644 0.198402 1.904240 -0.429948 -0.085993 1.157526 0.344373 1.234786 -1.102748 -0.060186 -0.706692 -0.781717 -0.776896 -2.362737 -0.971736 -3.142435 -1.945027 -0.045562 -0.454699 0.254257 -1.445345 2.247786 -0.314105 0.848848 -0.373180 -1.460278 -1.066321 -0.323121 -0.981729 0.786349 0.344511 0.672956 -1.524563 -0.082619 -1.679128 0.552048 -2.225834 0.639466 -0.258564 -0.507602 0.959263 1.007706
AB022925.1.1450 1.218012 0.406820 0.596893 0.493501 -1.577070 0.813626 -0.343513 -0.704067 0.050171 -0.513654 1.318742 0.443536 1.458561 -0.292107 -0.210924 0.462065 -1.112420 -0.324919 -2.515856 0.196105 -0.330312 -1.355089 0.917562 -0.406641 1.014870 -0.210915 0.258491 0.214971 -0.688678 0.545949 0.135489 0.409519 -0.035313 -1.398498 -1.175730 -0.597952 0.587832 1.372991 -0.565510 1.252324 -0.949766 0.660212 -0.003374 -0.124332 0.687148 -0.083823 -1.090426 0.803782 -1.491657 0.205807 1.067295 0.834527 -0.203569 -0.462315 0.378671 -0.352388 1.097322 -0.350096 0.263007 0.250983 1.189639 -0.476870 0.143217 -0.431496 1.531133 -0.065000 -0.371314 0.820972 -1.158456 -0.853495 -0.208679 -1.256856 -0.578677 -0.365730 -0.634750 0.086156 -0.483719 -0.253268 0.024957 -0.142986 0.405061 0.273162 1.597989 -1.229449 1.058173 1.099070 -0.619069 -0.476069 0.093047 1.622062 -0.240752 0.145297 -0.219344 -0.494771 0.391520 -0.163100 -1.711574 0.471051 -0.634761 0.580447
AB023972.1.1377 0.328949 -0.023669 0.053861 -0.264427 -0.750437 -0.194802 -0.493789 -0.233274 -0.212729 0.227425 0.100264 0.253152 -0.150892 0.448907 0.533645 0.546840 -0.205471 -0.148012 -0.573283 0.144358 -0.135345 0.039877 -0.258802 -0.472330 0.123891 -0.213372 0.123485 -0.236982 -0.708772 -0.124858 -0.116756 -0.142167 0.542611 0.013500 -0.396204 -0.099272 0.337267 -0.698078 -0.355198 -0.485192 0.495821 -0.603528 -0.488762 -1.033565 -0.327324 0.230408 0.700790 0.480875 0.005723 0.571695 0.539074 0.841568 0.186194 -0.424920 0.084137 -0.196696 -0.659414 -0.683662 0.402689 -0.242532 -0.363475 -0.173250 -0.326501 0.046820 0.082203 -0.030880 -0.346685 -0.151008 -0.011699 0.498243 0.047204 -0.261995 -0.336190 0.132178 -0.014906 0.327236 0.771332 0.918215 0.217147 0.765522 -0.040214 0.183139 -0.190041 -0.400990 -0.036654 -0.914697 0.274030 -0.511157 0.385317 0.001100 0.264607 -0.586343 -0.573127 -0.211644 0.015148 -0.817406 -0.765992 -0.324834 -0.395754 -0.096849
AB027362.1.1386 0.616487 -0.441659 -0.825894 -0.398363 -0.578587 -0.238696 0.218115 0.069313 -1.351065 -0.679746 -0.257479 0.754918 0.727294 0.349086 0.073876 -0.517621 -1.165739 -0.154751 -0.388895 -0.783744 1.496775 -0.200187 0.146707 0.465377 0.540856 -0.693824 -0.374096 0.490595 -0.779722 0.822275 -0.076398 1.454269 -0.347580 -0.394144 -1.500494 -1.394915 0.099775 0.621110 -0.225232 0.781040 -0.132711 -0.192569 0.141585 1.232191 -1.314366 -1.218710 -2.855787 0.277288 -0.384482 0.847444 0.081303 -0.399254 0.949725 1.517754 1.692528 1.027296 -0.176467 0.291427 0.209254 0.318854 -0.686452 -0.335887 1.270125 -0.434889 -0.195239 -0.248719 0.184889 1.249285 1.094891 -1.643350 -1.544469 -0.159095 -0.223213 0.175371 -0.346106 -0.914098 1.953936 -0.268066 -0.997488 0.144435 1.814254 -0.076891 -0.706970 0.779788 0.354115 0.852388 0.908986 -0.615534 1.464362 0.885744 0.581243 -0.000602 0.366695 0.110496 1.377328 0.693407 -1.216288 -0.551450 -0.289128 -0.302037
AB071950.1.1341 -0.901996 -1.335524 0.865260 -1.258505 -0.393609 0.110858 -1.187121 -0.201786 -0.419258 1.019650 1.006126 0.911740 -0.495915 0.249309 -0.447921 -0.112854 -0.940611 0.219614 -0.613948 0.287707 1.109647 2.461540 -1.525407 -2.006408 1.675625 -1.137646 0.309132 0.290699 0.185521 0.195226 1.725497 -0.073656 -1.197876 -2.040207 -0.213501 0.183584 0.862839 -0.405979 -0.604036 1.054643 -0.662298 0.163433 1.346782 0.437316 -1.202377 -1.006084 -0.336360 -0.316816 -1.253377 1.596637 -0.546106 -0.650598 -0.784355 0.633027 0.777012 0.021861 0.975232 -0.472375 -0.819102 0.715264 -0.082273 0.452966 -0.282994 0.972914 0.436890 -1.039725 0.746509 -0.211452 0.581592 0.877485 0.262335 -0.216119 0.305959 -1.099449 -0.500207 0.821196 -2.165547 -0.090859 -1.569777 -0.239589 1.516550 2.003145 -0.063880 0.383683 0.455765 0.373876 1.815921 -0.888368 1.386259 -0.443645 -0.414387 -0.284402 -0.789671 -0.689219 -0.706370 -0.732617 0.388493 -1.683673 0.837691 0.149315
AB074617.1.1332 -0.233661 -0.528151 -1.326096 -2.146214 0.504476 1.074629 0.835554 -0.437472 -0.177473 -0.774375 1.710737 1.059215 0.063062 0.159409 1.048271 0.087917 0.781171 2.255160 1.031717 -1.414084 0.511694 2.187296 -0.697284 1.759973 -0.379897 2.169305 -0.049751 -2.495237 0.972752 2.534158 0.805665 -1.836189 1.158947 -1.613487 0.551271 0.770192 -0.742989 0.691907 -1.986997 0.302477 0.615418 -1.540868 2.384037 0.097677 0.274552 -0.327325 0.209341 1.169002 -1.754722 0.092670 -0.659227 1.295492 -2.017068 0.566394 0.118218 0.638771 0.654186 0.306546 -0.815999 -0.278444 -0.157257 -0.104200 0.261827 0.166176 1.051817 0.832047 -0.111185 -2.326338 -0.889571 0.430418 1.108702 -1.314181 0.966819 0.957531 0.389026 2.251067 -1.330769 -0.173102 -0.081302 1.866352 -0.064834 -1.444857 1.350740 -0.960715 1.463073 0.237995 0.124409 -2.562917 0.491618 -1.017397 -0.920221 -1.248923 -0.034828 0.735202 1.245231 0.237954 -0.531512 -1.104949 1.608355 0.455968
AB182483.1.1494 0.391319 -0.106426 -1.011211 -0.315117 -0.817126 -0.997876 -1.516113 0.611005 -0.471935 1.057777 1.052504 -0.247689 0.006134 -1.616228 -0.526441 -0.990139 -1.064114 0.025065 -0.340011 0.081417 1.042934 0.037276 -0.078468 -0.403094 0.782413 -0.853779 -0.655734 0.335158 1.769480 -0.147173 0.025965 1.787000 1.357167 -0.087909 -0.758437 1.072405 -0.802274 1.046481 -0.809326 -0.052219 -1.086086 1.039373 -1.209646 -0.660169 -0.214724 0.034040 -0.090244 0.624489 -0.802609 -0.423455 1.555802 0.326499 -0.518011 0.553518 -0.432311 -1.465448 0.764277 -1.265279 0.720446 -0.671084 -0.078593 0.077663 0.831114 -0.543393 0.607284 1.046803 -0.137921 0.760977 -0.806448 0.187323 -1.946161 1.551532 1.127327 0.531510 -0.347796 0.763379 1.417151 0.951807 0.670067 0.680530 1.155512 0.572796 -0.832776 -0.131549 0.633947 1.304534 0.849622 -0.684749 -1.342810 0.624076 -0.751098 -0.240369 0.392554 0.581226 -0.351154 0.214631 -0.103526 0.274678 -1.079942 0.788585
AB200414.1.1491 -0.416961 -1.148647 -1.171328 -0.380547 0.910936 -1.943201 -0.948442 0.394895 -0.023633 0.187907 -0.011617 -0.674886 0.077135 0.810139 -1.438727 0.412379 -0.373186 -1.786463 0.966550 0.106907 -0.356120 -0.113035 0.269127 -0.141374 1.972369 -1.460052 -0.012512 0.551868 -0.230674 0.601791 0.924758 -0.767045 0.894135 -1.509884 1.192816 0.894895 -0.671100 -1.033744 -1.698886 0.148693 0.128088 -1.326179 1.843495 0.947183 -1.514783 -0.731446 0.840488 1.923737 -1.135237 0.824857 0.542130 0.089366 -0.509490 -0.298040 0.475349 -0.365163 1.366207 0.233207 -1.141903 -1.075653 0.542747 -1.119307 -1.817777 2.357794 0.483028 0.466260 -0.907807 -0.334446 -0.374757 -0.416654 -0.302716 -0.625611 0.174674 1.236292 -1.517154 0.497636 -0.839305 0.149404 1.977666 0.319195 -0.715681 0.677154 0.913802 -0.182172 -0.028106 -0.338614 0.039650 -0.196511 -0.782725 1.824102 -1.600387 0.029605 -1.214792 0.519354 0.304189 -1.400013 1.024777 -0.415538 -1.800667 -0.154148
AB218288.1.1449 1.205566 -0.703420 -0.809857 0.118511 0.886217 0.819702 0.403688 0.350841 -0.851551 0.047708 0.232035 0.052557 0.929479 -1.478323 -0.314261 0.357496 1.513489 0.043812 0.285009 0.537086 0.343427 -0.859158 0.171757 0.251181 -0.152169 -1.080840 -1.264521 -0.864623 1.697554 -1.823415 0.672328 0.155965 -0.034280 -0.557209 -0.077265 0.581559 -1.439936 1.258460 -0.831925 0.448763 0.055460 0.630839 1.388128 -0.109896 0.340923 -0.545907 -1.433143 -0.193812 0.510526 1.696793 -0.390793 -0.104208 -1.268111 0.072894 0.163336 0.307631 0.436251 -1.758326 1.049441 0.994512 1.489891 0.798782 -0.951615 0.228035 0.619362 -1.280259 -0.052414 -1.214285 -0.857078 1.743014 -0.604651 -0.390660 1.688162 0.816545 0.736063 -0.524845 -1.004924 1.124547 0.544842 0.058854 -0.070604 0.852117 0.009047 -0.964209 -0.308674 0.335879 -0.466619 0.261236 -1.489211 1.732686 -1.053253 0.454091 0.200995 -0.609227 -0.472857 0.093830 0.080972 -0.832305 -0.284419 0.066439
AB218322.1.1456 -1.887492 -1.089473 -0.674412 0.024864 -0.569818 -0.451397 -1.606783 0.375224 0.288871 0.552764 0.136648 0.768948 -1.337985 0.323019 -0.148692 -2.188514 -0.567359 0.677295 0.371877 0.610824 0.210846 1.473838 -0.031615 -1.157262 0.350704 -1.041786 0.452361 -0.410999 -1.207405 -0.922108 0.480157 0.584992 0.406403 -0.014258 -0.584151 0.127218 0.639909 -1.065197 -0.891354 0.290774 0.525067 -0.212632 -1.029260 -0.291264 0.843389 0.698193 0.670967 -0.399858 0.611676 2.195727 1.030044 0.185385 -0.345971 -0.212798 1.167645 -0.475471 0.721103 -0.568333 0.855642 1.190066 -0.144721 0.406330 0.633765 0.174862 -0.898632 1.575376 -0.265828 0.654675 -0.390253 1.370081 0.420404 0.028773 1.174827 -0.329895 0.237259 0.551361 0.888430 -0.190091 -0.063717 -0.528920 0.299589 0.661689 0.074082 0.117494 0.818919 -0.437349 -0.232883 -0.177756 -0.195250 -0.052693 -0.304811 -0.168422 -0.980228 -2.054007 -1.229149 0.653281 -0.217637 0.075094 -0.299320 0.402893
AB218324.1.1551 -1.025760 -0.373249 0.982773 1.203649 -2.033216 0.698595 -0.137512 0.753579 -0.630425 -0.825202 0.973004 0.592365 -0.766145 0.346640 1.897293 -0.887464 -2.354145 0.346746 -0.982999 -0.159589 -0.486907 0.179359 -0.149145 0.252784 0.725454 -1.628200 0.434191 -1.790142 -0.145508 -0.574216 -0.510738 0.740374 -0.328031 -1.595740 1.051816 0.242963 1.079727 -0.788693 1.345076 -0.950379 0.301201 0.878435 1.563521 1.462909 0.340261 0.316388 -1.488588 1.979005 -1.966080 -0.520432 0.230253 0.192550 0.421923 -0.925328 0.351302 -1.568134 1.315434 -1.409568 1.809010 -0.240243 2.887610 -0.652591 2.120887 1.608248 0.772031 1.201130 -0.127434 -0.313125 1.015874 0.307569 1.188780 -0.811992 0.361413 0.627880 1.013975 -0.112659 -0.991706 1.391521 -1.054655 -0.372642 -1.180433 0.594368 -1.655681 -0.137873 0.610130 -0.431904 0.055960 -0.340418 0.660263 0.759893 -2.291823 -1.060611 0.574784 -0.082809 -0.050987 -1.275542 -0.520988 -1.693313 0.112819 -0.959429
AB218325.1.1438 0.223369 -0.436478 -0.734209 0.199462 -0.224875 0.221943 0.607092 -0.265221 0.345881 -0.550470 -0.132009 0.171390 0.204395 -0.333754 -0.676533 0.434777 -0.273532 1.096875 -0.354377 -0.127497 0.422978 -0.434609 -0.202925 -0.009703 -0.082884 0.261286 0.553017 -1.038232 -0.593063 -0.232674 -0.326964 0.475907 0.228856 -0.079507 0.008595 0.291524 0.065586 0.215689 -0.107593 -0.024796 -0.157275 0.249514 0.079751 -0.089986 -0.011177 0.484617 -0.466957 1.935708 0.175275 0.715507 0.308082 1.667183 0.132562 -0.227270 0.100863 0.206349 -0.219101 0.463563 0.219151 -0.103623 -0.272355 0.159837 -0.032469 0.018252 -0.262079 0.152494 -0.155470 0.039490 -0.199232 0.072414 -0.379837 0.703570 0.145053 -0.522220 -0.441369 -0.333075 0.605048 0.268156 -0.410226 -0.023556 0.216266 -0.273021 0.050621 -1.573909 -0.287787 -0.188044 0.462891 0.257094 0.574055 -0.581184 0.314654 -0.626275 -0.040107 -0.015155 -0.625173 -0.077712 -0.354757 -0.635623 -0.129594 -0.427728
AB218338.1.1457 0.753621 0.095272 -0.223910 0.121029 -0.535131 0.124248 0.841761 -0.084105 -0.227734 -0.250725 -0.453692 0.539620 0.329571 0.460773 0.445031 0.391081 -1.067554 0.572138 -0.963466 0.320852 -0.753137 -0.041138 1.086357 -0.328990 1.154337 -0.377226 0.429149 -0.416985 0.200664 1.145769 0.021206 -0.194878 0.511850 -0.533824 -1.124726 0.262320 -0.177800 0.203431 -0.423008 -0.145633 0.051825 0.439554 0.023904 0.018856 0.394950 -0.045185 -0.698048 -0.117094 -0.733487 0.708661 -0.381345 0.124124 -0.286309 -0.160084 0.901763 0.505545 -0.870317 -0.784191 0.086453 1.041891 0.005317 -1.018516 1.253597 1.214717 0.481192 0.255124 -0.216732 -0.471288 0.997005 0.221583 -1.128932 0.609524 0.670063 0.528564 -0.355699 0.499985 0.159851 1.044059 -0.532194 0.278333 0.320918 0.281921 -0.617635 -0.060070 0.125358 0.893351 -0.752985 -0.341648 0.019582 0.116937 0.107472 0.024220 0.037142 -0.065441 -0.065735 -0.352424 -0.677724 -0.155852 0.076918 -0.523888
AB264066.1.1465 0.169146 -0.857494 -1.496289 -0.204191 -1.083762 0.718572 0.147498 1.623535 0.013805 0.569956 -0.635712 1.518997 0.297313 0.576307 -0.631752 0.733067 -2.307121 0.384549 -1.778292 -0.442986 -0.012837 2.042043 0.513917 0.282362 -1.030416 -0.294449 -0.627204 0.612983 -0.504162 -0.829342 2.341390 0.094338 -0.032862 -0.305896 -1.120751 -1.985124 0.786233 -0.776299 -0.049652 -0.611026 -0.323385 0.039194 0.100555 -0.671439 0.126002 1.300085 -1.684328 1.298044 -2.003191 -1.200771 0.763133 0.380535 -1.184626 0.220060 -0.433783 0.202201 0.151593 2.022911 1.376620 -0.410203 0.831844 -0.079951 -0.770667 -0.247716 1.945000 1.053941 0.575585 0.480420 -1.737947 0.930558 0.606160 -0.981444 -0.754154 1.341371 -1.499841 1.099421 0.995741 0.777611 0.756224 1.040517 0.279994 -1.034612 -0.804411 0.162718 0.795926 -0.079227 -0.107386 1.577025 0.774705 0.213145 -0.618049 -0.050596 -1.259425 1.078255 0.348449 0.447382 0.172956 -1.124169 -1.880070 -0.661980
AB264073.1.1456 -0.776082 -0.934129 -0.551536 -1.171121 -1.918700 0.200599 -0.309886 -0.666316 0.776108 0.823854 -0.720675 0.611463 -0.642706 0.673239 -1.077450 -0.802327 -2.018206 -0.658357 -1.417419 0.315964 0.205425 0.236794 0.584001 -1.256317 0.428536 -0.902922 -0.222437 0.034576 -0.283841 0.492293 0.010379 -0.368106 0.207669 -0.844966 -0.417451 0.289537 -0.755785 -1.216301 -0.929775 -1.068966 -0.043637 0.528899 -0.248795 1.039567 0.796138 -0.581758 -0.116268 1.154762 -0.740067 0.168885 -0.367436 -0.812695 -0.482021 -0.445733 -0.448965 0.071723 0.448766 2.291856 0.518029 -0.701332 -0.084863 -0.065476 -0.443917 0.443574 1.093995 -0.051261 -1.001371 -0.552381 -0.084830 0.238946 -0.151997 -0.078274 -0.687665 -0.448526 -1.131754 0.437258 1.493097 1.623581 0.060693 -0.439652 0.234946 -0.431793 -1.107892 0.906417 1.518015 -0.924041 -0.963552 -0.290662 -0.200296 0.102163 1.226312 -0.422291 -0.934424 0.582212 0.554168 0.609645 0.246219 -0.007543 0.312281 -1.210898
AB264082.1.1445 -0.282934 -0.863094 -0.158880 -0.145183 0.058540 0.233966 -0.531148 0.089842 -1.010343 -0.934542 0.564470 0.416143 0.027679 0.344825 0.228127 0.075425 -0.599262 0.116673 0.381992 -0.571572 0.223781 -0.021850 -0.705375 0.349862 0.965606 0.071168 1.100890 0.117522 -0.039885 0.238257 0.657176 0.427066 0.193676 -0.180663 0.059263 -0.695981 0.066218 -0.025701 0.032119 0.628298 -0.158487 -0.273054 0.186252 0.315734 0.126838 0.177488 0.028078 0.999939 -0.242391 0.423548 -0.128478 0.136761 -0.356753 0.035405 -0.849053 0.438754 0.137669 0.553458 -0.027513 -0.387676 0.068064 0.104685 0.450015 0.085685 0.434708 0.123107 -0.254445 0.754979 0.017304 -0.087190 -0.183678 0.184478 0.207588 -0.327813 0.370655 0.379433 0.925216 0.483866 -0.469995 0.596686 0.082630 -0.593440 0.022885 -0.628745 -0.412838 0.610269 0.124918 -0.582517 0.058227 -0.032661 0.467993 -0.088058 0.675704 -0.071026 0.583268 -0.263537 0.052820 0.370993 -0.278411 -0.934867
AB267809.1.1461 -1.055901 -0.224602 1.214115 -0.014044 0.595948 0.773395 -0.281092 0.594836 2.123248 -0.193875 0.393366 0.854937 0.465818 1.455627 0.307556 0.753901 0.046794 0.189970 -1.521665 0.719841 -0.110702 1.607939 -0.748825 0.075149 0.106951 -0.397667 1.106157 -1.062816 -0.161220 -1.281204 1.317118 0.300054 1.857386 -1.339948 0.743791 0.466743 -0.412933 1.412197 -0.716540 0.248566 0.851005 -0.483935 -0.853410 0.057790 0.994701 -0.095488 -0.361947 -1.138937 -0.746357 -0.032308 -0.536377 0.310446 0.079789 0.770529 -1.703140 0.540175 0.704662 1.059424 0.509915 1.662814 -0.497600 0.513062 -1.548462 0.603682 -0.437004 1.192803 -1.287823 -0.878182 -0.534417 0.578063 0.065326 0.412983 -0.625620 1.842811 0.407501 -1.147582 -0.091753 0.614846 -0.839582 -0.682298 -0.484205 0.266118 0.938480 -1.285463 -1.523952 0.555982 1.351985 0.016681 0.110228 -1.099671 0.307871 -0.680663 -0.175788 -1.348543 0.129344 -0.651299 -0.645914 -1.007438 -0.249240 -0.120303
AB270083.1.1322 0.639345 -1.468860 2.286401 -0.113897 -2.060723 -0.903109 -0.656122 1.599508 0.703925 1.353358 1.853798 2.032810 1.977651 0.612891 -0.254607 -0.318358 0.342161 -0.456013 1.383723 -1.859550 1.280409 -0.058479 1.250227 0.116084 -0.024008 -0.911493 1.580492 -0.154346 -0.635832 1.060352 1.385138 0.447003 0.005165 1.343515 2.283500 -0.961811 -1.321212 2.482695 -0.082433 0.225718 0.184556 0.001395 -0.123312 0.845456 -0.169703 0.383364 -0.268136 1.837078 -0.407240 1.259364 -0.192022 -0.724727 0.097540 -0.007945 1.330048 -2.611076 -0.612913 -1.340698 -1.471644 0.837809 1.015353 -0.356648 0.848979 0.505763 1.459570 -0.287034 -0.004311 -1.849780 -0.267426 0.497361 1.572016 -1.554291 0.425852 1.301139 -1.769964 -2.986855 -0.784613 -0.169151 0.415335 0.115002 0.111250 1.683240 0.140696 -1.259514 -1.758731 0.720092 1.342901 -1.169224 -0.817808 0.682840 -0.740680 -0.550097 -1.463264 -0.781914 0.364057 0.379939 -0.938149 -0.019909 -0.088584 0.685571
AB272335.1.1200 0.369242 -0.378257 0.710909 -0.417277 -2.076223 0.390649 0.665302 0.265629 1.275470 0.755766 0.006867 -0.517901 0.256157 0.732615 -0.167201 -1.033313 -0.292544 0.064700 -0.621836 1.802275 0.749483 0.080951 0.288579 0.309294 0.100651 0.021545 0.654700 0.216527 0.245846 -0.433392 0.846115 0.201959 1.426180 -0.120898 0.419081 1.340504 -1.385297 0.424303 0.239003 -0.581821 0.361166 0.474663 0.150394 -0.762170 0.319023 -0.398819 -0.434809 1.753085 -0.249492 1.386758 0.557768 0.230254 -0.201545 0.536764 -0.282045 0.158744 0.421883 0.143529 0.070123 1.479790 1.940395 -0.255932 0.040469 -0.513916 0.457026 -0.000722 -0.690085 -0.320846 -0.314494 0.375684 -0.620085 -0.632787 0.378478 0.877014 -0.731897 0.270539 0.519007 1.481185 0.846863 -2.416631 1.052816 -0.231567 0.701738 1.419383 -0.934280 0.178637 0.200707 -0.131021 0.907762 0.570352 -1.360879 0.856247 -0.124731 -1.145941 0.556286 0.598704 0.023138 0.210933 -1.590279 -0.129602
AB294138.1.1215 0.181617 -0.426607 -0.534492 -0.557558 -2.000146 -0.683712 -0.250381 -0.225742 0.122380 -0.047204 -0.569693 -0.075116 0.649258 -0.264316 0.491361 0.016280 -0.666499 0.456427 -0.149991 0.275632 -0.546403 0.260499 1.636396 -0.248042 0.500986 -0.574471 -0.511185 0.257897 1.208217 0.430722 -0.060837 0.832198 -0.966084 -0.330206 -0.315665 -1.302122 0.138557 -1.039194 0.143710 0.897909 -1.013664 0.387963 -0.421048 -1.109566 -0.434184 -0.389492 -0.180473 0.088921 -0.878351 -0.167975 0.157593 0.610927 -0.331765 -0.744821 -0.462280 -0.084774 0.838276 -0.712159 0.158688 1.043553 -0.830023 -0.686326 -0.864249 -0.608326 0.864110 -0.910908 -0.008371 0.526826 -0.616884 -0.750607 0.185187 0.462852 -0.807472 0.245089 -0.056873 1.316949 0.125959 0.083798 0.199257 -0.781190 -0.284864 -0.413719 -0.326960 0.151195 0.222481 -0.841747 0.089582 -0.098148 0.216179 -1.075742 -0.502027 -0.725058 -0.480247 -0.531586 -0.189106 -0.730107 -0.313097 0.193032 1.013665 0.269573
AB300988.1.1342 0.406206 0.199519 0.158293 -0.061275 -0.452008 0.270709 -0.258165 0.184295 0.875221 0.183325 0.999776 -0.666105 0.242473 0.383224 -1.022281 0.443117 0.909941 -0.331946 -0.461398 0.229773 0.996329 -0.469383 -0.619186 0.656284 -0.804473 0.427496 0.401085 0.590512 -0.480870 0.161936 -0.534486 -0.539865 0.982952 -0.981510 -0.260212 0.608622 1.205864 0.402701 1.076378 0.114993 -0.031709 -0.222583 -0.484497 -0.315613 0.570564 0.086260 -0.396545 -0.210761 0.302526 -0.323108 -0.107011 -0.548622 0.498024 -0.636614 -0.242468 -0.640565 -0.021868 -0.001624 -0.686186 -0.040196 -0.460242 0.073000 0.040587 -0.049190 0.558016 -0.363475 -0.102094 0.144626 -0.655486 -0.196036 -0.081643 -0.296566 0.136437 0.637174 0.386564 -0.281652 -0.216007 0.204834 -0.348529 -0.022566 -0.419710 0.449570 -0.460558 -0.714679 -0.227612 0.489031 0.305304 0.385015 0.020996 -0.613042 -0.390012 0.798161 -0.023395 -0.337780 -0.126373 -0.415054 0.175322 0.368920 0.549592 -0.378675
AB300989.1.1489 -1.333978 0.818230 -1.280398 0.711893 -0.438746 -0.825596 0.177360 2.036008 0.784402 0.509886 -0.789271 0.764240 -0.911624 0.722911 -1.235917 0.686247 0.291734 0.706979 -1.088824 -1.013019 -0.728777 -0.343706 -1.148050 -0.664286 -0.299791 -1.097033 -0.950475 -2.849826 1.037969 -1.070332 -0.109921 1.299519 0.091391 0.915614 1.107648 1.175541 -0.464597 0.515802 -1.548825 -1.162052 -0.305848 -1.652654 0.183037 0.965157 1.114504 -0.224589 -1.315122 -0.799920 -0.943406 2.217117 -1.091769 -0.426977 0.549160 0.128203 1.346096 -0.843315 0.447847 -1.471240 0.778095 0.211142 -0.378967 0.309687 0.204629 0.973022 1.155645 -0.775822 -1.344902 -0.621394 1.136946 1.135408 -0.358701 -0.461411 1.554476 0.091533 -0.859815 0.460243 -0.966556 -0.465938 1.345425 -0.670730 -0.149341 1.087690 -0.621647 -0.682671 -0.223419 0.045488 -0.497099 0.980660 -0.568008 -0.141709 -0.487338 0.378219 -0.364006 1.033421 -1.060403 -1.299524 1.267800 0.103701 1.021335 -0.189244
AB331897.1.1481 0.022167 -0.027439 1.214780 -0.917969 -1.165911 -1.133061 -0.434451 0.351988 -0.184063 0.532423 -0.416738 -0.009557 -1.165011 1.006886 -0.694050 0.827203 0.545956 -1.387705 -0.214257 0.054214 -0.637576 -1.287504 -0.736868 0.814641 -0.640905 0.459466 1.058686 0.401954 -1.468903 -0.473980 0.578871 -0.961870 1.330771 -0.467403 0.039055 0.683146 0.735473 0.650221 0.025722 0.080192 0.724249 -0.082602 -0.265534 0.089991 0.748221 -0.961016 -0.047830 -0.605579 -0.191830 0.680034 0.266472 0.289876 -0.093494 -0.578062 0.638100 0.425793 0.246570 0.785475 -0.079545 -0.313799 -0.117124 -0.061950 0.212187 -0.154210 1.103307 0.073330 -2.124377 -0.289120 -0.605313 -0.261946 0.046713 0.393822 -1.405785 -0.263062 -0.829586 -0.019799 1.012440 0.201710 0.537277 0.843327 -0.513799 -0.973846 -0.038332 -0.126334 -0.196898 0.469975 0.481766 -0.143068 -1.481253 -0.697894 -0.735752 -0.536944 -0.701657 -0.537359 0.255370 -0.102538 -0.918080 -0.391286 0.277683 -0.062350
AB374136.1.1447 0.344089 1.782215 -1.498440 0.978819 0.191877 0.508778 -0.564035 0.095653 -0.383886 1.007929 -0.457533 1.372896 -0.602751 -0.599235 1.622807 0.792976 0.086103 -0.183885 -1.180707 -0.288532 0.294355 -0.054419 0.671655 0.292400 1.041402 -0.495392 -0.634513 -0.520690 -0.464274 0.070961 0.129654 0.734331 0.287477 -0.179794 -1.015436 2.157658 -0.154256 -0.180296 -2.095885 -0.247171 0.204557 -0.036043 -0.079897 0.228095 -0.003576 0.451722 -0.227762 0.186135 -0.889822 2.031289 -0.634314 -0.230307 -1.356394 1.138993 -0.408816 -0.498316 -0.456846 -0.743153 0.096594 -1.199054 1.995321 -0.901715 -0.237348 -0.315628 1.344598 -0.123493 0.841972 -0.267811 -0.675581 1.135653 0.124669 -2.585028 -0.967647 -0.499494 -1.593452 1.463231 -1.271201 0.822207 1.193943 -0.686217 0.761144 0.101812 -0.435283 -1.320186 0.211147 -1.301119 1.246913 -0.568801 -0.820199 -0.553250 -1.411228 0.455891 -1.265887 -0.381908 -1.662312 1.034493 -1.454216 1.720072 -0.608145 0.250833
AB443948.1.1484 0.543350 -0.882638 1.410149 1.538811 0.052714 -0.491601 -0.392300 0.621405 -0.367201 -0.323249 0.034124 0.541919 -0.925968 0.147980 -0.433196 1.229735 -0.250530 1.550002 0.416966 -1.398620 -0.410254 0.991652 0.506470 1.190254 0.741081 0.230585 -0.905301 0.275526 0.857925 0.568474 0.340988 0.788693 1.827328 -0.112171 -1.464045 -1.398076 -1.762588 -0.172320 -1.107220 0.866373 -1.980559 -0.181295 0.782523 -0.338751 -0.067925 -1.111898 0.576746 0.004808 -1.525570 1.073867 -0.257045 -0.764891 -1.308552 1.347399 -0.813280 -0.303609 -0.062984 -0.172007 0.535959 -0.384690 -0.566742 -0.226313 1.071235 1.224870 -0.448820 0.404597 -0.210902 -0.193962 0.340575 -0.649439 0.646675 0.669465 -0.970459 -1.398965 -0.154889 -1.105803 -0.190176 0.174228 1.137431 0.278444 0.191903 -0.475050 0.268697 0.377448 -0.321357 -0.690500 0.452692 -0.279797 1.327321 -2.960114 -0.273317 1.223540 0.206741 -0.085146 0.781753 -0.432211 0.578835 1.462432 0.868698 -0.659833
AB443949.1.1486 -0.152018 0.459896 -0.583371 0.386408 0.208726 0.236684 -0.121642 0.293944 0.925462 0.201707 -0.144017 0.406270 -0.585278 -0.154307 0.603265 0.338080 0.791389 -0.637492 0.672358 -0.285084 -0.105315 -0.057516 0.367065 0.076222 -0.525601 0.213992 0.497205 -0.083770 0.238803 0.267735 -0.317133 -0.215404 0.045520 -0.259591 -0.149135 0.124849 -0.368779 0.443415 -0.430204 -0.483216 0.016185 -0.457735 -0.349505 -0.299557 0.117052 -0.216522 0.001903 -0.077788 0.066560 0.496547 0.222889 -0.007653 -0.317637 -0.235067 -0.137684 0.127769 0.148959 -0.065857 0.172454 -0.548348 0.224186 0.396746 -0.135480 -0.045038 -0.581750 0.052388 -0.326721 0.346318 0.185855 0.768784 -0.024394 0.500813 -0.329014 -0.306840 -0.341073 -0.518683 -0.775606 -0.441971 0.254964 -0.535479 0.793678 -0.117967 0.312591 -0.050774 -0.073904 -0.382717 0.598950 -0.546313 -0.427954 -0.513199 -0.199065 -0.260880 0.127485 -0.404983 0.025363 0.094460 -0.332582 0.316675 0.459853 -0.409592
AB480534.1.1481 -0.075218 -0.611320 0.933426 -0.831954 -0.755027 0.095876 -1.056306 -0.171787 0.914127 0.563842 0.414912 -1.377058 -1.022210 0.197515 -0.717804 -0.704653 -0.722633 -0.151946 -0.519371 0.256077 -0.016723 2.122676 1.230917 -0.960882 -0.194021 -1.462214 1.616586 0.964882 -0.609604 1.523513 0.196179 -0.996600 -0.031385 -2.483991 -0.014745 1.274906 0.296685 -0.925867 -0.036898 0.583674 -0.802381 1.980154 0.850701 -0.460884 -0.616849 -0.422851 -0.248169 0.472564 -0.898262 0.468655 -1.791619 -0.606804 -1.647868 -1.496255 0.246713 0.889818 -1.900086 -0.020784 0.982837 -0.588389 -0.160413 -0.434494 -0.212085 -0.233120 1.311525 -0.379575 -0.623281 0.232792 0.752488 1.648092 -0.819889 -2.186915 -0.806605 -1.401483 -0.496785 0.306035 -1.493651 -0.333537 0.522912 -0.041390 -1.331309 1.374494 0.439343 -0.946885 1.595060 2.804058 0.004183 -1.573801 1.266990 -0.027801 -0.374396 -0.907420 -0.077933 -0.304217 -1.214277 -0.757770 0.162797 0.310173 1.342118 1.188708
AB487690.1.1322 0.088858 0.154430 -0.782019 -0.115461 -0.929631 1.908668 0.204958 0.768528 -1.602445 -0.539810 1.024763 1.657366 0.134315 0.486889 -0.964382 1.372650 -0.746650 0.743512 -0.553975 -0.680389 -1.918410 -0.562341 -1.114349 -0.325369 1.397956 0.002953 -1.450150 -1.391897 -1.156450 1.165240 0.624135 1.246573 -0.009520 -0.512956 0.912512 -0.641814 1.214822 0.409503 0.267060 -0.125130 -0.248066 -0.370122 0.487357 1.069481 0.116533 0.998612 -1.043984 -0.296721 -0.996719 1.037553 0.834052 0.420943 -0.652392 0.518044 1.226776 -0.079014 -0.156878 -0.394335 -0.102661 -0.570978 -0.197569 -0.650770 0.367594 0.231562 1.443344 -0.473273 0.845269 0.147380 -0.675436 -0.152170 1.588595 -2.087845 -0.888671 0.331205 -0.646395 0.792136 -0.926707 -0.828023 -0.088779 1.027937 1.124900 0.895800 -0.369132 -1.267129 1.085205 -0.899918 0.226983 -0.285889 0.258843 -0.091404 -0.692073 0.235255 0.452061 -0.298166 0.537940 0.228858 0.302417 -1.142997 -0.196900 -0.942496
AB490801.1.1479 -0.300241 -0.170315 -0.024212 -0.186016 0.395445 -0.394035 -0.048396 -0.047684 0.123352 0.065258 -0.495066 -0.709121 0.708668 -0.399333 0.488197 -0.037957 0.954020 0.436039 -0.246805 0.007113 0.058731 0.642010 -0.595448 -0.127362 0.075529 0.451315 0.510469 -0.166666 0.165681 -0.357462 0.141812 0.948811 0.511417 -0.318019 -0.281134 0.304558 -0.017539 0.632562 -1.180377 -0.164905 -0.176743 0.641827 -0.053113 -0.281620 -0.059099 -0.666404 -0.156807 -0.989785 0.067161 0.430891 0.459896 1.378063 -0.188392 -0.606954 -0.481075 -0.397256 0.187038 -0.207517 0.289656 -0.412056 0.110099 0.534296 -0.073661 -0.164250 -0.668392 -0.393540 0.170247 0.840914 0.614417 -1.213025 -0.467589 -0.080014 0.250733 -0.823405 -0.078836 -0.235205 0.071241 0.508366 -0.120144 0.123437 -0.198583 -0.167991 0.631822 0.040908 0.258148 0.468458 -0.474967 -0.141445 0.393855 0.263083 -0.615674 0.486907 0.307590 0.662407 -0.284755 0.108249 0.250853 0.020172 0.253107 0.148007
AB490809.1.1497 0.511866 1.056620 -0.491999 0.225562 0.401140 -0.123602 0.242855 0.074645 -1.178707 -0.969693 -0.665908 0.295309 -0.747555 -0.111125 -0.026615 0.131546 -0.512912 -0.006479 -0.268230 0.296626 0.503681 0.353769 0.485721 -0.172080 1.442446 0.349428 0.141699 -0.316025 -0.660834 -0.482013 0.141715 0.329234 0.343152 -0.154851 -0.104367 0.648965 0.568237 -0.325368 -0.492750 1.325807 -0.097562 0.164052 0.354887 0.421467 -0.117413 0.558978 0.378552 0.236607 -0.783121 0.817864 0.326068 0.413431 -0.242004 -0.210428 0.129306 -0.041542 -0.671524 -0.412189 -0.179951 -0.332985 -0.140248 0.293829 -0.513423 -0.205246 0.683869 0.306986 -0.206295 -0.147903 0.080513 0.813806 -0.209554 0.012972 0.470041 -0.515170 0.698261 -0.764168 0.248917 -0.123184 0.056053 -0.372562 -0.140585 0.210308 0.311255 0.408117 -0.458263 0.142188 -0.001056 -0.449943 -0.310209 0.393597 -0.289166 -0.624676 0.075390 0.299663 0.087080 0.044481 -0.202469 -0.427456 -0.065322 -0.596296
AB490810.1.1469 -0.816180 -0.497013 0.231424 -0.132128 -1.045066 0.504598 1.173570 0.043878 2.296623 0.521442 0.799517 0.730493 -0.895790 -0.377206 -1.088291 0.233112 -0.227355 -0.596245 0.366974 0.277621 -0.976014 -0.786868 -0.433659 -0.631758 1.821783 -1.368506 -0.987012 1.371718 -0.195254 0.127270 -0.227709 1.053648 1.298088 -0.325621 -1.340487 -0.295617 1.142998 1.289525 -0.581520 0.092422 -2.004937 -0.468848 0.092917 0.299436 2.227124 -0.168073 -0.402914 -0.195163 0.090495 -0.035033 -0.379647 1.696450 1.016587 0.954963 1.688163 -1.038925 1.739185 2.505227 0.127962 2.307152 -0.338702 -1.574227 0.952099 0.536726 0.485843 -0.456508 1.068641 -0.230003 -0.228656 -0.210911 1.330715 -0.109294 -0.940358 1.010859 0.291631 0.012947 1.264779 -0.538232 -0.564098 -2.039776 0.650590 1.832642 -1.338262 0.165701 -0.817771 1.147293 -0.509962 -2.464287 0.271207 -0.241696 0.121300 -0.195535 -0.541475 1.228437 0.075798 -1.259175 1.439459 -0.501500 0.682451 1.019799
AB490811.1.1610 -0.860878 -0.383939 2.081641 -0.667229 -1.803091 1.259145 0.563022 1.880073 0.931027 -0.610502 -0.559633 0.918609 -1.078543 0.340603 0.777651 -0.455369 0.188319 -0.084790 0.213485 1.096521 0.260055 0.746261 -1.399167 -0.631862 0.032340 -1.202708 0.166558 1.293350 -0.883578 0.182980 0.659109 -1.885766 -0.375119 -1.227651 -0.634365 0.496172 -1.032199 -0.174248 0.112188 1.307935 0.577827 0.894228 -1.952002 0.297540 0.915785 -1.612875 -0.164264 0.373646 0.117422 0.770363 1.291653 -0.557320 -0.617566 1.652263 0.657839 1.551039 0.425257 -2.232469 0.922012 0.733859 -0.477342 -1.481397 -1.400615 -0.426568 0.727539 0.433689 1.444944 1.139614 -1.250382 -0.137123 0.671704 -0.031541 -0.224296 0.476535 -1.527041 -1.289177 -0.160886 1.204085 -1.777691 0.914267 -0.293010 0.816214 0.302183 0.874939 -1.083556 0.399693 0.402239 1.960630 -1.364541 1.301723 0.487586 1.917881 0.328508 -0.561396 1.719504 -0.605874 -0.323002 -0.775187 1.880750 0.462853
AB491210.1.1485 0.220186 0.611643 0.397798 0.101912 -0.015883 -0.852425 0.194990 -0.195822 -0.139816 0.172338 0.348014 0.152096 -0.442736 0.070672 0.203271 0.548946 0.590673 -0.625870 0.051052 -0.256568 0.013045 0.416894 -0.796834 0.228218 -0.059842 -0.487933 0.221608 0.261742 0.257103 0.400031 -0.337086 -0.022967 -0.881423 -1.442364 0.341956 0.727569 -0.807563 0.383996 -1.095319 -0.270883 0.297208 -0.507699 0.486663 -0.662118 0.066641 0.255600 0.602307 0.402877 0.308079 1.114942 1.489441 -1.445590 -0.506963 -0.517553 0.547597 0.346715 -0.122155 0.250854 -0.477923 -0.069380 -0.756391 0.107963 1.158266 0.158223 -0.344312 -0.097492 0.513056 -0.151184 -0.500865 -0.080606 -0.048706 0.585967 0.593945 0.919000 -0.266078 0.402507 -0.435625 0.090978 0.008824 -0.498649 0.480943 -0.847738 -1.286733 -0.487286 -0.683119 -0.145373 0.017207 -0.052172 0.244349 -0.633845 -1.554262 0.254086 -0.177698 -0.455306 -0.448788 0.232533 0.305226 1.102468 0.682469 0.575658
AB491723.1.1422 0.128038 0.565132 -0.299195 0.093536 -0.135470 0.205377 0.015321 1.050833 0.631785 -0.640842 -0.902897 2.612474 -1.481572 -0.413630 -0.296910 0.056065 -1.689455 -0.339454 -0.018336 0.095122 -0.014839 0.497780 -0.646992 0.312253 0.464202 -0.556718 -1.102531 -1.620788 0.055344 2.711863 1.473475 0.776874 -0.904764 -0.218743 0.110044 -0.242553 -0.596012 -0.854560 -0.791952 0.048938 -1.246407 -0.291580 0.413162 -0.122567 -1.504097 -0.349415 0.557960 -1.061682 -1.047911 0.602528 -0.397672 -0.326402 0.405267 -0.113449 1.203333 0.067328 0.256128 -0.855762 -0.131449 0.800153 -0.507786 -1.213647 -0.972411 -1.668434 0.170600 -0.418787 0.301748 0.886555 -1.369530 1.782394 0.932956 -1.310580 0.686556 2.085083 0.148083 -1.040722 0.268145 -0.029789 -0.741843 -0.185342 0.247083 0.745244 0.427969 -1.606365 1.182061 -2.491874 -0.342563 1.181436 0.818553 -0.018722 -1.705702 -0.902281 0.129349 1.574720 1.209490 0.735696 0.402747 -0.722786 0.088498 -1.409937
AB506166.1.1495 0.507605 -0.564149 0.675402 -1.814467 0.062590 0.293046 0.071360 0.084515 1.906062 0.397508 0.503867 -0.246211 -0.074014 -0.440274 1.209750 1.355054 -1.831858 -0.068688 0.804874 0.869309 0.094426 0.550923 0.064425 0.036826 0.145446 -0.610293 -0.146400 1.520774 -0.795276 -0.148961 0.468203 -0.059817 -1.226364 -0.271232 -0.979844 -0.955939 0.792874 0.175221 0.083255 0.063365 -0.068565 1.159676 0.057203 -0.317771 0.092689 0.531118 -0.107733 0.007050 -1.218419 0.023166 1.116997 -0.197342 -0.556120 0.980381 -0.474274 0.894054 -0.581381 -1.387701 -0.204263 0.423120 1.045435 0.594467 -0.866361 0.503699 1.627587 -0.476865 0.522019 0.709370 -0.157932 -0.276530 0.759999 -0.454401 0.301411 1.298195 -0.313488 0.125334 -0.694302 0.816390 -1.140053 -0.317923 -0.134922 -0.202974 0.710971 -0.644547 0.476657 -1.516943 -0.176591 0.965855 -0.806658 -0.696694 -1.364879 0.261872 -0.499451 -0.791881 0.317657 -1.055757 -0.695594 0.271950 0.693355 -0.350011
AB506185.1.1506 -0.618524 -1.318994 -0.340170 -0.253642 -0.935599 0.764365 -0.089571 0.959363 -0.245316 0.388644 -0.811987 0.756479 0.079610 -0.053059 -1.520514 -0.001319 -1.168956 -0.804612 -0.806137 0.676254 -0.460170 0.223626 0.204982 -0.148518 0.883990 -0.792554 -0.032100 -1.280777 -1.072860 0.016161 1.031539 1.477844 0.573556 -0.558386 0.454794 1.376756 -0.176462 -1.239634 -0.049192 0.778962 0.020112 -1.822894 1.539865 0.600665 0.302770 1.076865 -0.252411 0.343914 -0.130219 1.412375 0.564186 -0.044989 -0.583176 -0.593793 0.563113 0.670426 -0.476691 1.492600 0.099149 0.809055 -0.211530 -0.146106 -0.914548 0.992195 2.084184 0.534698 -0.907435 -0.226793 -0.154190 -1.306801 0.055771 -0.668210 0.671950 -0.670396 -1.247344 -0.058574 -0.759432 -0.003224 -1.060392 1.400301 -0.664774 -1.486433 -0.902052 -0.725534 1.341635 0.391044 -1.319299 -0.991682 1.414334 0.634126 -0.123234 0.443403 1.407009 0.045581 -0.181038 0.457762 -0.846606 -0.146162 -0.079373 -0.001057
AB506188.1.1515 -0.801123 -0.182463 -1.238257 1.314693 -0.241030 -0.057035 -0.289122 -0.071184 0.373083 -0.677766 1.262678 0.563955 -0.223593 -1.685078 -0.669066 0.481010 -0.267545 -0.236205 0.200259 -0.100180 -0.558745 1.393710 0.535490 0.398413 0.692318 1.152319 -0.504276 -1.142681 -0.213632 0.657912 0.901322 0.386921 0.149729 -0.855614 0.910833 0.176926 0.386603 -0.530642 -1.064721 -1.105674 0.610169 -0.979209 0.726869 -0.157173 0.165022 -0.983491 -1.290033 1.191518 -0.760429 0.606824 0.758057 1.321641 -0.752276 0.745993 1.000534 -0.645316 -0.755986 0.753251 -0.873082 -0.145479 -0.842647 -0.993027 0.746048 0.523008 0.927503 -0.189365 0.099296 -0.042491 -0.552369 0.349753 -0.663523 -1.253038 0.349342 0.126575 -0.727626 0.401383 -0.336251 1.034723 -0.985619 -0.634163 2.217246 -0.456380 0.577469 -1.401692 1.193712 0.781713 -1.281406 0.110210 1.366675 -0.891430 -1.145549 -0.567726 -1.018465 -0.456942 0.897594 -0.833837 -0.352599 0.765362 -0.665038 -0.309642
AB506192.1.1523 0.972002 -0.763369 -1.532921 0.957434 -1.255470 -0.558814 -0.385415 0.140759 -1.066988 -0.457789 0.040793 0.511180 -1.442579 0.866106 0.944510 -0.310360 -1.307778 -0.389066 0.122390 -0.699995 -0.157322 0.120044 -0.951898 -0.584501 -0.587384 0.316711 -1.465197 -0.106016 1.281302 0.380860 1.147171 -0.005580 1.563629 -0.809934 -0.547185 -0.215401 -1.077188 -1.394288 0.356448 -2.426605 1.268990 -0.632252 0.626856 1.226011 -0.815453 0.646211 0.358856 -0.097753 -1.525289 1.443317 0.202123 -1.352592 -3.101689 0.391622 1.692217 -0.866623 1.855552 0.882796 0.022181 0.602702 -0.311089 0.188997 0.021673 0.397600 0.363045 -0.361711 -0.675877 0.588753 0.858503 0.607218 0.338126 0.351224 -0.140969 -0.458546 -0.366348 -0.683074 1.557612 -0.700797 0.365973 -1.047882 0.531737 0.592954 -0.455274 -1.550719 0.337007 0.495273 0.167399 0.214019 -0.538837 -0.391973 0.132603 -1.251941 1.269495 0.921832 -0.120416 0.010745 -0.432401 0.534083 -0.213776 0.531551
AB506227.1.1518 0.661684 0.992064 -2.059181 0.077323 -0.725014 0.198467 0.277947 0.287593 -1.141280 -0.741067 1.177051 -0.466286 0.081297 1.054266 0.606335 0.881878 0.098507 0.729769 0.242962 -1.076632 -0.328490 0.498044 -0.371984 -0.718008 2.053701 -1.082869 0.138041 1.406601 -0.955496 1.792645 0.641989 -0.141485 -0.128718 0.039781 0.579935 -0.277491 -0.334560 0.745542 -0.703009 -0.745971 0.233655 -0.712528 -0.535204 0.157146 1.337358 1.585610 0.208467 -0.547627 -1.115408 1.054472 -0.470754 -1.103817 -0.964539 -0.810131 -1.247380 0.034816 0.623689 -0.128390 0.143993 -0.539852 -1.183600 1.243113 -1.080259 1.871026 1.826626 0.428745 -0.995330 1.235956 -1.356371 -0.124043 1.845833 -0.282248 -0.187272 -0.390652 -0.079688 -0.241893 -0.836479 0.230785 -0.595388 1.440592 1.371508 -0.287846 -0.525994 0.694728 1.202388 -0.629976 -0.617523 -0.687848 -0.212886 1.380916 0.175991 0.048897 -0.083427 0.585262 -1.496008 1.322976 0.970030 1.299935 0.406612 -0.888374
AB506253.1.1527 0.167091 0.083409 0.579020 -1.355646 0.247177 -0.619177 -0.342377 0.577007 -0.352976 -0.104470 -0.026752 0.535781 -0.213579 -1.648884 0.079338 0.682352 -1.899114 -0.388395 -0.792281 0.929660 0.169751 -0.781537 -0.546445 0.439315 0.152119 -1.646963 -0.397061 0.020253 0.712388 0.633735 1.157597 0.471145 1.763720 -0.235701 -0.583163 -0.406092 0.456011 0.830594 -0.314365 -0.589195 -0.375040 -0.624364 -0.569799 -0.089250 -0.568915 -0.113346 -0.761072 0.282656 -0.712517 1.418684 0.049110 -0.646983 0.304331 -0.152387 0.130548 -0.897455 0.243035 0.137547 0.623817 0.517856 0.216784 0.065519 -1.083572 -0.949822 1.539167 2.398255 -0.415041 -0.459956 -0.887620 -0.628335 1.375355 -1.348949 -0.940930 -1.020224 -0.611804 0.406115 -0.379978 0.145830 -1.198212 0.259603 0.239022 0.267776 1.064542 0.352947 -0.755769 -1.240562 0.743362 0.222328 0.273960 -0.294419 -0.721254 -0.105705 -0.182692 0.090595 -0.779410 0.948964 0.331249 0.925141 -0.344210 -0.283240
AB506279.1.1563 0.214860 -0.205540 1.824334 -0.850366 -0.026179 1.147428 -0.658610 0.227914 0.350228 0.186918 0.375380 0.143302 0.567381 0.715370 0.565447 -0.648927 0.228733 1.392674 0.540476 0.033711 -0.259986 2.216223 0.269549 -0.981797 1.807507 -1.190802 -0.392889 -0.625302 -0.815532 0.353783 1.121831 -1.372495 0.197794 -0.306753 0.869236 -0.622097 0.377433 0.479694 -0.377296 0.203265 0.299202 -0.534329 -0.167237 1.450321 0.143567 0.003090 0.094774 -0.762115 -1.695724 0.739055 0.245723 0.712120 1.379384 -0.466764 1.290823 -0.226157 -0.222710 0.087462 1.020415 -0.676560 0.640131 -0.098270 -1.053026 -0.072243 0.390697 -0.198305 0.212632 -0.728831 0.268661 -0.557890 0.420079 -1.411023 -0.293080 -0.571996 0.043097 0.470556 0.295504 -0.101004 0.460837 1.413460 0.788879 -0.510053 -1.033131 0.193907 0.035008 0.129685 0.083625 -0.122297 -0.800323 -0.456732 -0.925617 -1.038750 -0.938908 0.404708 -0.687331 -0.103594 0.306874 0.367408 1.727999 -0.717909
AB506348.1.1522 1.704381 0.967953 0.356345 0.161523 -0.906827 -0.649526 -0.385173 -0.422739 -0.210825 0.666289 0.884625 -0.211736 0.368431 -0.965322 -0.202158 0.575698 -0.225815 0.064673 -0.743369 1.351021 -1.199224 0.419594 -0.056269 -1.259621 1.567889 0.401058 1.035618 0.054662 0.028585 1.210778 0.902090 -0.018311 0.848421 1.178461 -0.561224 0.543034 0.543263 -1.281654 -0.400579 0.548475 0.458015 -0.521793 -0.741132 -0.222259 -0.062977 -0.283405 -0.320768 -0.886969 -1.397049 0.888019 1.546987 0.824496 -0.289086 0.859122 0.190757 -0.858495 0.885522 0.363859 1.281812 -0.950499 0.685876 0.445916 -0.340242 -0.015571 1.191483 -0.711733 -0.630326 -0.540682 -1.482513 -0.465181 -0.800543 -1.441834 -0.465374 -0.229215 -1.140507 -0.663625 -0.238795 -0.468435 -0.388738 0.545882 0.377009 -0.351606 -0.966329 0.772881 0.699719 0.141988 0.177287 0.610013 1.466094 0.022874 -0.162356 -1.840142 -0.379790 -0.893350 -0.702177 -0.103534 -1.031423 1.129767 -0.114173 -1.085806
AB506381.1.1523 -0.022618 0.792135 0.266149 0.032691 0.264385 0.255337 -1.222409 -0.524963 -0.039302 0.650654 0.671072 -0.413886 -0.482305 -0.208228 0.907818 -0.694171 -1.813664 0.324290 0.671188 0.015094 0.283544 0.244557 -1.032258 -0.003766 0.051736 0.170275 -0.735159 -1.035296 -1.972120 0.497040 0.476946 -1.193403 -1.016562 -1.025662 -1.224499 1.097347 0.651938 0.314356 -0.264514 1.590161 -0.750530 0.372016 -0.230474 0.011934 -0.278508 0.277403 -0.621004 -0.490381 0.250644 0.630357 -1.209609 0.795737 -0.132064 0.197243 -0.805001 -0.137687 -0.128009 -0.317907 -0.045572 0.707497 -0.738741 -0.228668 -0.926180 -0.937031 1.337140 0.685981 0.270456 -2.041370 -0.776450 -0.163557 -0.747202 -2.690212 2.243460 -0.413895 -1.109125 -0.687821 -0.729315 -0.344343 0.098960 -0.345192 -0.346114 0.444926 0.622570 0.337567 0.525246 0.907402 0.215899 -0.853593 1.165288 -1.335152 0.082138 0.647935 0.495904 -0.578791 1.201813 0.924048 0.917857 2.141796 -0.915451 -0.406365
AB506382.1.1509 -0.006301 -2.157285 -0.268602 -0.325155 -0.855245 -0.186512 0.466993 0.921631 -0.885051 -0.551097 0.093944 -0.840615 -0.462387 0.467616 1.304900 -0.154707 -1.409521 -0.683570 -1.465906 1.834602 -0.276354 1.133406 0.492413 0.301595 -0.058016 0.041184 -0.580847 -1.374079 -1.310449 3.184750 -0.688753 0.241793 -0.089308 -1.856346 -0.840510 0.343453 -0.925576 1.799503 -0.076498 1.109719 -0.691355 -0.400861 1.923352 -0.946408 0.057311 0.262228 -0.490548 0.363284 -0.027856 0.414987 1.701529 -0.477230 2.273613 -1.880288 -1.046701 -0.196942 0.273900 1.463409 -0.288754 -0.089655 -1.006923 -1.945289 -0.767366 0.156932 -0.997944 0.569446 0.812013 1.872072 -1.847950 -0.213892 -0.171094 -0.229285 0.128044 0.627194 -0.062148 0.846156 0.473298 0.910505 -0.342516 0.773838 0.851312 0.111619 -1.725280 0.363776 0.034265 -0.312273 -0.285068 -1.752592 -0.747521 0.841663 -1.242671 0.287758 0.117672 -0.341932 0.274990 0.544515 0.429187 -1.543973 -0.881784 -0.799252
AB506413.1.1616 -1.478499 -1.653198 -0.030862 -0.378391 -0.446560 -0.737891 -1.274058 -0.195587 -0.820370 1.529320 1.279431 1.924564 0.282461 0.209427 0.269468 2.342459 -0.719805 -1.324868 -1.007001 -1.374216 -2.810274 -0.024950 -1.910333 0.963200 -0.594537 0.391087 -0.139195 -0.068070 0.089774 1.540796 0.923082 -0.636046 1.131060 -2.296996 0.660189 -0.807064 -0.538251 0.713887 -0.894066 0.793110 0.368518 -1.179041 -1.760192 1.913229 1.244516 -1.627633 0.597522 0.163833 -0.914025 0.022163 -2.311545 0.936420 0.840610 -1.368267 -0.727040 -0.222035 -0.913680 -0.269635 0.456791 -0.450774 0.396334 0.914410 0.335310 0.353761 1.585763 -1.135523 -0.604182 -0.405793 -0.785829 0.118219 -0.376622 -0.802026 -0.619379 0.630589 -0.160768 2.015155 -0.878190 1.041718 0.204267 -0.342350 -0.099076 0.606625 1.373806 -0.316527 -0.603707 -0.190475 1.716828 -0.896079 -1.796600 0.930690 -0.611045 -0.938521 -1.687947 1.563930 2.889714 -0.755296 -0.368600 1.225175 0.781713 1.698594
AB512047.1.1509 -0.530271 0.069711 0.023423 0.683374 -0.023426 1.161596 -0.587931 0.791944 -0.981625 -1.552264 0.452133 0.057462 -0.209346 0.672557 2.258255 -0.866295 0.168358 0.310944 -0.814693 -0.602012 -0.476639 -0.154371 1.316000 -0.490146 -0.052257 0.043214 -0.216135 1.088663 0.182246 -0.481058 1.238698 -0.790640 -0.625431 0.665377 -1.144682 0.782633 -0.446932 -1.001183 -0.685983 0.618905 -0.289022 -1.389664 0.585959 -0.100695 -0.177807 1.244835 0.076780 0.659971 -0.867071 1.219441 0.909683 -1.348979 -0.227183 1.095077 0.474399 0.970927 0.603883 -1.314916 -0.272923 -1.211242 -0.582152 -0.224415 -1.542000 -0.040372 0.896165 0.339614 -0.279713 -0.673003 -2.004132 2.475515 -1.080180 -0.642972 0.724027 -0.783644 -0.496465 0.386883 -1.276181 1.504763 -0.605254 -0.543719 1.436977 0.248167 -0.395665 0.034895 0.272354 -0.538041 -1.418467 -0.645358 0.449017 0.253584 -1.083206 -1.168079 0.692980 0.007240 -0.480055 1.502347 0.740740 0.484727 1.190209 -0.858339
AB525415.1.1503 -0.232422 0.447373 -0.217943 -0.315901 -0.540164 -0.060461 0.538688 0.276491 -0.379531 -0.112759 -0.354792 -0.248490 0.581349 0.172450 -0.465019 -0.342580 0.008771 -0.260838 0.077803 0.015047 -0.293973 -0.722832 0.680573 0.080200 -0.235447 0.077088 -0.908365 0.073072 -0.023270 0.910007 -0.399759 0.221906 0.119083 -0.005438 0.568552 0.311661 0.117213 -0.280733 -0.152392 -0.349069 -0.069223 0.389869 -0.213950 -0.513563 -0.076573 0.957935 -0.159163 0.584439 0.481529 0.097326 -0.518495 0.393281 -0.617811 -0.488749 0.599222 -0.410531 -0.788200 -0.457664 -0.205920 0.388285 -0.268910 0.438066 -0.059373 0.143524 0.481790 -0.188674 0.272903 0.382691 -1.231693 0.015481 0.195320 -0.123634 0.322166 0.009279 0.263999 0.142908 -0.211141 0.560637 -0.196435 0.062016 -0.472862 0.141115 0.140212 0.092351 0.607339 -0.141354 -0.098020 0.542096 -0.438218 0.829425 -0.616967 0.474906 -0.322652 -0.350040 -0.126335 0.344758 0.072584 0.634288 0.048096 0.488643
AB538433.1.1488 -0.253446 0.435247 0.059519 -0.851381 1.148707 -0.127032 0.871001 -0.535156 -0.660057 0.022967 0.521848 2.304214 -1.224702 0.128706 0.569664 -1.745199 -1.297649 -0.083463 0.364764 0.949930 -0.624345 1.165712 1.359348 1.573426 -0.217700 -0.811085 -0.411628 -0.043956 -0.003694 -0.415384 0.222313 0.027858 -1.024543 -1.712549 0.710599 -0.119430 -1.451128 0.661010 -0.519277 -0.919401 0.534113 0.982119 -0.911842 2.065548 -0.108728 1.103954 -1.420769 1.348778 -1.046505 1.472940 -0.462967 -1.380293 0.143243 -1.101530 0.205548 1.213705 1.769707 0.277361 0.738522 0.745404 -0.355521 -1.089542 -0.487307 0.240958 -0.142622 -0.461633 -0.148540 1.133244 0.423896 -1.421001 0.217300 -1.722896 1.110035 0.273349 -0.976277 -0.120013 -0.368385 0.925140 -0.049421 -1.573196 -1.964307 1.089864 1.518790 -0.024480 1.054637 -1.751585 -0.632772 -0.651293 0.269606 0.316942 -0.044957 0.207496 0.550867 -0.950368 2.482057 1.380756 0.263039 0.951891 1.206970 -1.195198
AB547670.1.1491 -0.234342 -1.271543 -0.724030 -0.050441 -0.007607 0.800164 -0.404542 2.410590 -1.756520 -0.995269 -0.168214 0.362051 -0.561036 1.552473 -0.580010 -1.322171 -0.231427 -0.384031 -1.251749 0.197052 -0.584252 0.642056 0.207516 -0.608210 -0.144243 -0.383632 -0.635259 0.242729 0.015301 0.915050 -0.582321 -0.391584 0.358576 0.286578 0.315697 0.209037 0.560566 1.075721 -0.236134 -0.460298 0.664576 0.470278 0.193379 -0.898134 0.095012 0.605672 -0.613344 0.127401 -1.262203 0.981189 -0.860100 0.578545 1.690347 0.797535 0.318440 -0.577667 -0.203804 1.293918 0.845956 -0.239733 0.699727 -0.105946 -0.132988 -0.896853 -0.210926 -0.187073 -1.871596 -0.860000 0.314160 -0.110029 -1.811284 -1.583315 -0.425763 0.679880 -2.403672 0.432924 -0.553608 0.610292 -0.178076 0.757573 -1.475751 -0.237373 -0.079728 -0.330264 1.047419 1.948249 -0.000018 1.270556 1.248834 -1.391994 -0.689955 0.376242 0.305015 0.179804 1.643811 -0.615209 -0.652762 -0.046988 -1.725981 0.160857
AB547672.1.1495 -0.298413 0.820713 1.373809 -0.421629 -0.766927 -0.017862 -0.482010 0.346492 0.335407 -0.102313 -0.213487 0.662774 0.137617 0.172374 -0.473216 -0.179295 -0.385677 -0.298042 -0.037725 -0.029573 -0.601002 -0.063952 -0.508975 0.360026 -0.412520 0.712487 -0.468207 -0.101782 -0.124613 0.620694 -0.268480 -0.648393 0.274434 -1.339249 -0.519313 -0.760149 -0.754543 -0.622702 -0.883614 -0.285099 -0.837682 -0.596882 -1.244991 -0.105751 -0.388780 0.125383 -0.028223 0.413410 -0.236483 1.057978 -0.423923 0.891104 -0.918827 -0.014557 0.381540 -0.095043 0.765258 0.426879 1.152522 -0.322398 -0.002167 -0.599883 0.222397 0.478537 0.579931 -1.156369 0.276397 1.151630 -0.664251 -0.763677 -0.100883 0.398462 -0.112075 -0.462500 -0.727110 0.134293 1.106883 0.636058 0.484652 0.279581 -0.948817 -0.065052 -0.983083 -0.069869 -0.517175 -0.756356 -0.014542 0.383909 0.946024 0.366989 0.132608 0.145751 -0.003012 0.096635 0.572302 0.745314 0.421423 0.397290 -0.537696 0.674910
AB547676.1.1493 -0.479647 0.069868 0.149347 -0.263881 -0.705643 -0.346637 -0.423288 0.255765 0.095147 -0.611193 -1.026362 0.213258 0.518778 0.408816 -0.211319 -0.371358 0.019533 -0.074385 0.277028 0.577005 -0.242925 0.036710 -0.470759 0.078613 0.285091 -0.034903 -0.607824 -0.359211 0.579420 0.788950 -0.219431 -0.937179 0.222416 -0.404200 0.472515 0.160747 -0.478663 -0.064109 -0.272208 0.188792 -0.388179 -0.408296 -0.360387 -0.073370 0.121611 0.220891 0.034448 0.351313 -0.262256 -0.615516 -0.264176 -0.470120 0.467880 0.034698 -0.322526 0.543187 0.075381 0.482923 0.278817 0.443630 0.110279 -0.508563 -0.196677 -0.329895 -0.100930 0.173717 -0.738422 -0.028304 -0.515024 -0.592233 -0.398142 -0.892867 -0.140161 0.011299 -0.118136 0.000844 0.162774 0.519460 0.103765 -0.194261 0.103544 -0.531973 -0.485758 -0.161986 0.392974 -0.600892 -0.928868 -0.000510 0.564392 0.698500 0.735591 0.164742 0.367768 -1.130469 -0.373016 0.725224 -0.315892 0.590104 -0.486188 0.585093
AB547696.1.1280 -0.103048 0.597984 0.112308 0.196381 0.343741 0.697448 0.247260 -0.265449 -0.087142 -0.233907 0.273518 0.496500 0.039227 -0.611388 0.149146 -0.205362 0.482433 -0.381412 0.252713 0.377708 0.861543 0.484143 -0.334213 0.214884 -0.339824 -0.280478 -0.637638 0.217278 0.744160 0.836585 -0.573928 0.674976 -0.807065 -0.563264 0.565450 -0.120803 0.125866 -0.053372 -0.814470 0.165357 -0.843811 0.248866 -0.096728 -0.073535 -0.178701 0.006812 -0.057904 0.527278 -0.358633 -0.039473 -0.750210 0.900349 -0.084567 0.301655 0.275306 0.464624 -1.248922 0.005128 0.305120 -0.090281 0.187337 0.635447 0.926345 0.076785 -0.004380 -0.324989 -0.520172 0.434152 -1.296133 -0.604510 0.487924 -0.297197 -0.168694 -0.641240 -0.311555 0.390045 0.812932 0.023944 -1.075659 0.589745 -0.522945 0.256437 -0.064507 -0.185623 -0.214956 0.455999 -0.080928 0.106466 -0.097994 0.865983 0.299910 -0.110523 0.806341 0.216279 -0.180358 -0.025641 -0.206485 -0.309990 0.231592 -0.201424
AB558171.1.1473 0.633690 -0.112820 1.718284 -0.093172 -1.276870 -1.680362 0.206877 0.795743 -0.163420 1.016053 -0.985601 -0.038248 0.098400 -0.525639 -1.085751 0.795128 0.642707 0.232276 -0.526702 -0.659123 -0.307414 0.822598 0.710520 0.973109 1.559053 0.238122 0.422416 -0.158594 1.135003 -0.052333 1.406791 -0.511478 1.148593 -1.522385 -0.155170 -0.611423 -0.537235 -0.260173 -1.760562 0.132618 0.554886 -0.620207 -0.444545 0.469461 0.983473 -0.579983 -1.484521 -0.107988 -1.214075 0.478787 0.871180 0.573147 -0.610582 -0.516433 -0.540517 -0.499176 -0.490160 -0.223445 -0.976864 0.888733 1.195768 1.332909 0.230004 0.824311 1.425061 0.265109 0.159672 0.356425 -1.583789 0.376076 -0.023701 -0.252841 0.116496 0.306925 -0.964284 0.539638 1.226012 1.102109 -0.823844 0.556822 -0.238143 -0.895140 0.061137 0.769416 0.285753 -0.033515 0.186224 -0.569506 0.200656 -0.177713 -0.402769 -0.038828 -0.477589 -0.402279 0.171054 -0.122619 0.490554 0.467419 0.409939 0.608025
AB574482.1.1489 -0.162802 -1.315226 -0.297689 -0.224518 -2.244781 -0.603946 0.228716 0.496296 -1.169140 -0.537857 0.872842 0.828280 0.320878 -0.519860 -0.845400 -1.101449 0.202472 -0.270259 0.316623 -0.062866 -0.558700 0.442090 -0.582901 -0.371002 0.353340 -0.257078 0.283693 0.201789 -0.035034 0.295063 0.793500 0.191700 1.039948 -0.299371 -0.349595 0.133792 -0.933724 -0.107226 -1.130362 0.629112 -0.683486 -1.123856 0.325876 0.675872 -0.652763 1.410515 -0.790482 -0.141403 -0.249461 1.065769 0.663469 -1.009867 1.295646 -0.063551 0.421518 1.106893 0.245112 0.529272 0.618725 0.826083 0.080211 -0.934420 -1.138823 -0.462215 -0.451408 0.089720 -0.079276 -1.220939 -0.043848 0.099288 -0.875262 -0.563137 1.079083 -1.155562 0.150052 -1.145674 0.030996 -0.008048 -0.553001 -0.029667 -0.185313 0.127174 0.191841 0.361429 -0.904088 -0.003247 -0.022011 -0.213676 0.384934 -0.334843 -0.875673 0.205430 -0.279688 0.471002 0.616181 -0.236364 0.435409 -0.390276 -0.238325 -1.432248
AB595138.1.1492 -0.018087 0.583150 -0.011050 0.736491 -0.789511 -0.431015 -0.025025 -0.153821 0.589804 -0.045832 -0.993176 0.417435 -0.459382 -0.066166 -0.344474 0.221493 -0.202270 0.438861 -0.301839 -0.470544 -0.602965 0.165443 0.858630 -1.387757 0.906094 -0.745158 -0.689004 -0.275912 -1.352337 0.319846 0.031310 0.501177 0.002364 -1.460005 0.742247 0.094409 -0.657224 0.280819 -0.527579 0.370843 0.067660 0.747157 -0.020089 -0.997142 -0.107911 -1.002978 0.249635 1.053031 -0.759720 -0.581228 1.100482 0.746394 -0.469163 0.914389 0.146860 0.668703 -0.842818 0.059155 -1.069682 -0.258852 0.072816 -0.261095 -0.703355 0.082294 0.503065 0.554387 -0.022208 -0.296774 0.103119 0.149668 0.287308 0.707812 0.195774 -0.156020 -0.682954 -1.292877 0.762792 1.086522 -1.603698 -0.052918 -0.226781 1.349415 -0.124818 -0.464660 -0.185346 1.146429 0.158242 0.836111 -0.083657 0.551967 -0.501662 -0.314077 0.447239 0.418124 0.266312 0.545644 -0.141997 1.015953 -0.213862 -1.150212
AB606256.1.1495 -0.351845 0.053751 0.229404 -1.557383 0.246751 -1.187192 0.715811 -0.629461 -0.344237 0.253402 0.551032 0.044005 -0.605861 -0.021882 0.107337 -0.530240 -0.756771 1.238698 -0.595346 -1.056883 -0.910573 -0.471653 -0.396592 0.157284 0.625416 -0.084305 -0.170494 0.200125 0.655543 0.030786 1.091540 -0.416489 0.497213 0.078381 0.832396 -0.418592 0.131023 0.495078 -0.032968 1.240077 -0.422837 -0.019400 0.534544 0.361197 0.067116 -0.195588 -0.118153 -0.069564 0.413845 1.010820 0.367618 0.675598 -0.867710 0.066029 -0.336191 -0.093725 0.353774 0.640862 1.217190 0.610574 0.588204 0.051138 -0.255851 0.273345 -0.082076 0.055572 0.043712 -0.132569 -0.821801 -0.556846 0.604626 -0.201909 0.186002 -0.678423 -0.141111 0.088258 0.777905 -0.698781 0.680861 -1.168509 -0.070993 0.018207 -0.287849 1.126510 1.161814 0.051016 -0.604243 -0.246451 -0.210161 0.644535 -0.891595 -0.600789 -0.417128 0.860589 -0.552602 0.122389 -0.469575 -0.378090 -0.732945 -0.477949
AB606284.1.1481 0.402854 0.478043 -0.652100 0.554691 1.239468 -0.118863 0.638253 -0.466787 1.656475 -0.607392 -0.217155 0.407511 0.956965 -0.449022 0.205294 -0.532703 1.500833 0.318483 -0.372789 -0.949978 -0.005942 0.201649 1.028976 0.413245 -1.851335 -0.985487 2.172390 0.857095 -0.967693 -1.009220 0.155309 0.192486 3.712288 -0.360406 0.120396 -0.386845 -0.074777 0.331808 -0.200198 -0.231771 -1.194197 -0.337415 -0.269862 -0.137612 -1.991969 0.080648 -0.933371 -1.967807 -1.535236 2.089803 -0.031000 -0.002509 0.152470 0.672854 0.690818 -0.476190 -1.741870 0.597832 -1.871066 0.411417 -0.117133 -1.246138 -0.098950 -2.026720 1.564075 -0.972725 0.633174 -2.023185 -0.044517 -0.500637 1.276091 -1.451549 0.014129 -0.535691 0.282425 0.281940 -0.865875 0.911047 -0.574733 -0.239279 -0.425235 0.307687 0.497221 0.581313 1.231020 -2.253988 -1.924002 0.652080 2.995157 0.126706 -2.208259 -0.738494 1.151115 -0.293195 1.191648 1.638899 2.073691 -1.090700 -0.343181 -0.305729
AB606378.1.1511 1.360022 -0.120228 0.563631 0.672029 -1.491074 1.630746 0.185316 1.671246 -0.519473 0.175332 -0.925764 0.001351 -0.026489 0.380053 -1.855751 2.181140 0.556137 -0.108163 -1.003956 -0.254853 0.255331 0.418356 0.071902 -1.330500 0.301902 -0.125709 -1.164901 -1.001873 1.444279 -0.051318 1.715649 0.209099 -0.010272 0.420652 -0.419264 1.419881 -0.116315 0.912353 -1.298895 0.442503 0.406489 -0.642463 -0.332460 1.866507 0.463250 1.031265 0.031088 -1.416050 -1.406746 0.481324 -0.339608 0.072116 -0.439500 -0.505327 -0.438145 -1.742028 -0.658858 0.664258 -0.794842 1.487952 -1.742585 -0.208288 0.226977 -0.333563 -0.486376 0.111114 -1.278457 -0.637004 0.667970 -1.849042 0.068970 -0.899620 1.628613 -0.764030 -1.179850 1.391047 0.291031 0.006281 1.265110 0.668049 2.443022 -0.492786 0.025323 -1.273888 0.416015 0.312114 0.463010 0.080890 0.636630 0.517019 -0.436949 0.484229 -0.370919 -0.263477 1.838229 0.891241 -1.652063 -0.184578 0.255296 0.946903
AB606384.1.1479 0.502033 -2.291623 1.850426 -0.435316 -0.600544 0.351457 1.102139 0.356431 -0.782293 1.059372 1.676085 0.967667 -1.886438 0.060026 0.373858 0.480926 0.414505 -0.597314 -0.618049 -0.301834 -0.890425 0.387170 -0.661340 -0.084797 1.602799 0.448844 1.563789 -0.704176 -1.229394 -0.229483 0.579924 0.031868 -2.430409 -1.370583 -0.528670 0.216897 -0.758359 0.778516 -1.163048 0.540333 -0.834131 -2.086534 1.291381 2.726202 0.265114 1.332940 0.305236 -0.642779 -0.025112 -1.066172 1.241835 0.659178 0.411532 0.031792 -0.696102 -0.547747 1.409198 -0.993543 -0.622442 -0.586037 -0.545829 -0.228084 -0.571996 1.557036 0.920828 -0.094605 0.434002 0.706134 -0.665627 0.479566 2.278144 0.127722 1.467211 1.033586 -0.605258 0.859970 0.067771 0.300074 1.484119 -0.304573 0.448960 0.644386 0.226990 -1.909826 -1.251909 -0.651156 0.757763 -0.538723 -1.282286 0.453693 -1.298027 0.374914 -1.037019 0.066593 -0.207466 -0.112794 -0.624974 -0.874812 -0.516849 0.048492
AB606399.1.1479 -1.038516 -0.241279 -1.704887 -0.696539 -0.524324 0.446238 -1.037105 0.827690 0.988136 0.627721 0.141625 0.997390 0.010240 0.086103 0.220860 -0.755607 -1.010019 0.357543 0.989025 -0.275681 -1.084753 0.672657 0.188314 -0.540480 1.060838 -0.913711 -1.257660 0.238890 -1.692573 -0.533776 0.619195 0.824718 -0.736324 -0.468911 -0.102251 1.046174 -0.255712 -0.944859 -0.558068 -0.556867 1.206796 0.899065 0.610606 -0.315558 -2.224754 -0.248986 0.530271 -0.571296 -0.867432 0.338983 1.193028 -0.160045 -0.283953 0.996890 -0.185414 -0.509815 -0.238615 -0.309810 0.709101 0.391829 -0.854397 -0.857467 -0.801632 0.443537 0.957522 1.536988 -0.781665 0.579858 0.842963 0.194903 -0.094460 0.210972 -0.100203 -1.969385 1.078915 0.359179 0.772754 -0.075986 -1.771855 -0.101216 -0.754120 0.936761 -0.943755 -0.029735 0.239460 0.286893 1.905243 -0.136247 2.245326 -0.929151 0.009987 0.356985 0.355366 0.936075 -0.130709 -0.240431 1.146776 -0.474642 -0.269254 -0.260225
AB616155.1.1470 -0.315731 0.192975 0.303764 -0.083130 0.395938 -0.253580 -0.394508 0.063297 -0.446958 0.657935 -0.137461 1.212384 -0.288526 -0.900488 0.778675 -0.461107 0.443561 0.198063 -0.492908 -0.939896 0.626545 0.379608 0.669784 -0.242972 0.480154 -0.010321 -0.069465 0.706263 -0.405898 0.259551 -0.080973 -0.587892 -0.204168 -0.829902 -0.615556 -0.047193 -0.240689 0.592190 -0.474178 1.080766 -0.344197 -1.395070 -0.194253 0.612836 0.486649 -0.414720 -0.488982 0.215524 0.915047 0.706602 -0.321412 -1.238159 -0.188661 0.411538 0.389268 0.262555 0.297367 0.015854 0.025871 0.191329 -0.440125 0.380953 0.240674 -0.006754 0.821640 -0.359064 -0.079973 0.890432 0.442394 -0.431195 0.802221 0.640723 0.085277 -0.365447 -0.899240 -0.041432 0.998825 0.421340 -0.213883 -0.671327 0.742448 0.105651 -0.247545 0.028201 0.978539 0.042683 -0.204286 -0.298133 -0.821208 -0.667586 -0.127270 -0.048108 -0.863623 0.383576 -0.666816 0.325642 0.117223 0.127185 -0.178731 -1.027719
AB626897.1.1485 -0.413351 -1.204717 -0.412796 -1.336123 -0.674202 0.387091 -0.423044 -0.035847 -0.072181 -0.803511 -0.564784 0.352586 0.851612 0.274002 -0.630727 0.054798 -1.336156 -0.655906 0.118902 1.035458 -1.465892 -0.199821 1.095740 0.146214 0.850046 -0.608254 -0.951924 -0.035977 -0.371668 0.291876 0.942864 -0.339602 1.375749 -0.437072 -0.322803 0.195126 -0.571194 -0.384755 -0.564458 0.838578 -0.160097 0.012422 0.243308 0.744079 -0.291478 -0.067918 -1.832543 0.098356 -0.471592 0.736108 0.001550 -0.599536 -0.268990 0.277851 0.119750 0.325076 0.729009 0.948519 -0.570808 -0.707079 -0.829333 -1.426436 -0.941245 0.266719 1.684414 0.271771 -0.711757 0.084915 -1.621363 0.156693 0.244658 -1.142782 0.184276 -0.337016 -0.637496 0.578930 0.721912 -0.812374 -0.195520 -0.151562 0.428480 -0.130154 0.450719 -0.274129 0.894223 -0.408062 0.042015 -0.530603 0.656708 0.253068 -0.361511 -0.181643 0.444313 -0.073567 0.018859 0.850465 0.634142 -0.059013 0.444719 0.075994
AB626907.1.1496 0.553177 0.069055 0.051093 -0.754771 -0.399673 0.225273 -0.416423 -0.434393 0.343003 -0.043646 0.126790 0.024739 0.551887 0.204483 -0.523718 -0.881033 -1.452017 -0.357880 -0.237267 -0.049213 0.343388 0.903872 0.435956 -1.137842 0.796917 0.843219 -0.069439 -0.321519 0.504659 0.059302 -0.032121 -0.086582 1.073712 -0.816374 0.324541 0.510227 -0.243775 0.473511 -0.570870 0.022977 -1.122351 -0.240888 -0.194757 0.076032 -0.582798 -0.734456 -0.047693 0.351470 0.072066 1.286035 -0.123107 -0.133394 -0.721758 -0.182003 0.608201 -1.104445 0.468712 0.577812 -0.345838 0.430328 0.596369 -0.245762 1.491094 0.138788 0.654578 -0.249493 0.192767 0.382231 0.869157 -0.789536 0.849495 -0.149221 -0.472521 -0.093758 0.587208 0.520510 -0.155669 -0.263868 -0.560244 -0.090648 -0.788947 -0.010039 -0.600965 -0.808320 0.188377 0.310313 -0.624927 1.020236 -0.094726 1.017783 0.335788 -0.373895 0.015585 -0.558885 1.322579 0.432784 -0.850074 0.008746 -0.004031 0.513357
AB626919.1.1479 0.110367 0.739879 -0.212910 0.271072 0.801410 -0.528897 0.088535 0.012862 0.400823 0.186683 -0.233815 -0.346707 0.630748 0.347102 0.549355 0.471093 -0.158686 -0.371499 -0.242249 -0.077430 -0.484609 0.379905 -0.405394 -0.378481 0.333232 -0.127218 0.014518 0.055947 0.164599 -0.099724 0.257131 0.229239 0.059745 0.445754 -0.232495 -0.096986 -0.210261 0.482578 -0.107647 -0.079162 0.420364 -0.190982 0.305187 0.713017 0.532140 -0.027784 -0.191717 -0.129164 -0.477910 0.586629 -0.113832 0.301687 0.105106 0.559364 0.576465 0.449758 -0.049913 0.244219 0.299306 0.025615 0.115497 -0.138447 0.547996 0.603861 0.348396 0.081083 0.723403 -0.481823 0.278905 0.629176 0.021306 0.033496 0.192907 0.020746 0.292284 0.211897 -0.138006 0.083918 -0.440653 0.061367 -0.510303 -0.059168 0.072010 -0.123017 0.316463 0.328120 -0.002778 0.649384 -0.190642 -0.338734 0.720840 0.628601 0.002521 -0.117963 -1.013725 0.314407 0.422043 -0.306107 -0.340284 -0.282039
AB627687.1.1526 0.309420 -0.862806 -0.644055 0.247268 -1.969030 2.209610 -0.651800 -1.901981 1.534139 1.655735 1.965227 -0.247718 2.597239 -1.313568 0.674576 0.718368 0.793188 1.092312 -0.378687 1.529664 0.676103 -1.443251 -0.275779 -0.095358 0.399888 0.130098 -0.970901 0.363975 0.393256 -0.397608 1.431418 -0.479534 1.245885 -1.089561 -1.836124 -0.852288 -0.835842 -0.279963 1.791575 1.026226 0.417989 -1.757885 -1.486192 0.601459 0.481639 0.846057 0.531872 -1.375457 -1.101848 1.764872 0.859029 0.054489 0.236788 0.179098 0.936500 0.386898 2.688374 1.042612 1.804700 2.022555 -0.169270 1.487253 -0.402044 -0.913292 4.109306 1.705354 -1.342367 -1.998169 0.166283 0.101799 -1.292133 0.026024 0.301978 -0.619044 -0.442581 -0.317996 -0.679367 0.592938 0.439380 -0.846123 1.475932 1.511966 -0.272558 -0.290338 -0.538165 -0.725118 0.176777 -2.189951 -0.758050 -0.669474 -1.000923 -0.744147 0.667498 0.309077 0.859109 0.050657 -0.216601 1.236112 -0.876422 -0.457457
AB636945.1.1426 -0.547510 -0.695612 -0.301335 0.049736 -0.394142 -0.423757 0.780871 -0.202291 -1.086580 -0.194456 0.392509 0.653709 -0.310067 -0.535145 -0.443963 1.028514 -0.863556 0.625326 -1.005265 -0.366472 -0.298687 0.321866 1.094386 0.077898 0.599721 0.096570 -0.186577 0.171112 -0.237351 0.300014 0.617522 1.284848 -0.423199 -0.021357 0.140306 0.280181 -0.094606 -0.048435 -1.172863 0.071146 -0.220615 -0.403284 0.250505 0.239915 -1.445980 0.257097 -1.821988 -0.221544 0.353150 0.006705 0.259580 0.719105 -0.048551 0.660269 0.949690 0.055635 -0.758530 -0.535848 0.780203 0.375762 -0.180215 -0.099739 -0.814424 -0.324607 0.355463 0.117289 0.200342 0.304814 -1.635161 -0.498472 -0.210172 -0.028758 -0.290193 0.695352 -0.815907 0.061459 -0.673616 -0.942854 -1.094405 1.261845 -0.119969 0.547521 -0.506449 0.033089 -0.704002 0.210118 -0.537033 0.132924 1.199110 -0.317807 -1.452569 -0.200672 0.897772 0.043185 -0.216921 -0.441661 0.150853 -0.222199 0.791803 0.637462
AB639144.1.1469 0.041552 -0.446138 0.282172 0.712246 0.085480 1.190848 0.038389 -0.441680 1.890426 -1.284910 0.616965 0.942695 0.297791 -0.755358 -0.535320 1.166612 -0.742731 -0.345504 -0.313111 0.499133 -0.972441 0.749172 -0.312603 -0.018593 0.367046 1.491058 -0.410238 0.074959 0.095457 -0.272330 -0.753102 0.254038 -0.393444 -0.267729 -0.350717 -0.395646 -0.816027 -0.013400 -0.134018 0.242734 0.674936 0.300801 -0.632100 0.416540 -0.747682 -1.330999 -0.559352 0.386540 -0.698997 0.543403 -0.321946 -0.150816 -0.251028 0.463419 1.204487 1.374232 -0.883550 0.021097 -0.069129 -0.340484 -1.962652 -0.220390 -0.573656 -0.842701 1.189235 0.491345 0.194649 -0.121203 0.171730 -0.996275 -1.078810 0.201504 0.166581 0.426996 0.886904 0.038329 -0.343004 0.166084 0.107353 1.639426 0.275573 -0.041241 0.045717 0.056052 -0.630229 0.780686 0.986421 0.890694 0.353435 -0.597497 -0.955817 -0.665982 -1.441631 -0.921556 -0.346929 -0.866598 0.821215 0.359915 1.045328 0.071222
AB680625.1.1447 -0.777772 -0.164183 0.174744 0.937401 -0.506984 -0.146955 0.708622 -0.380120 0.279111 -0.570149 0.336741 0.355825 0.834034 -0.081901 -1.008192 -0.258188 0.261894 -0.599975 0.043481 -0.337160 0.088858 1.299790 -0.034018 0.749285 0.524054 0.466398 -2.337418 1.289035 0.582505 0.943161 -0.234953 -0.840072 0.977596 -0.180110 -0.100448 0.519814 1.016602 -0.034138 -0.210812 0.441258 0.061972 -0.408965 -0.453236 -0.047920 0.572532 0.076335 -1.554354 -0.139857 0.211258 1.437349 -0.251362 0.284936 0.167729 0.666989 0.753142 0.668622 -0.525309 -0.642277 0.213930 0.330368 -0.745132 1.096807 0.536671 0.620877 0.435675 2.020521 0.414116 -0.083560 -0.660278 -0.154710 -0.246186 -1.031785 -0.287007 -0.495312 0.391223 -0.141870 0.599965 0.715739 -1.250889 -0.906808 0.089099 -0.304880 0.678893 -0.419136 0.470681 -0.122278 -0.143914 -0.776682 -0.671620 -0.047467 0.564561 0.231673 0.927448 0.051813 -1.025599 -0.090482 0.950046 -0.511056 -0.319534 0.210492
AB680681.1.1443 -0.805587 1.810768 -0.190991 0.953527 -0.377337 -0.242067 -1.085927 0.331353 -0.048426 0.505741 0.103569 0.491883 0.926512 1.680315 -0.521611 -0.438564 -1.958380 0.115733 1.213271 -0.025243 0.221595 0.933895 -1.163534 0.290944 0.899675 1.084102 0.615624 -0.243071 -0.546677 -1.256420 1.183444 -2.794529 -0.641762 -1.304333 2.384696 1.258105 0.161233 -1.644021 0.288759 0.408433 -1.235743 1.938135 -0.331187 0.474672 -1.003975 0.616825 -2.145469 -1.205010 -0.694618 1.608160 -0.067245 0.249427 -0.723587 1.559011 -0.391908 -0.303027 -0.690062 -1.344556 0.439978 0.909842 1.011282 -0.732971 0.902676 0.424320 2.803856 -0.863766 0.533614 0.299886 -0.488908 1.284007 0.046847 -0.871895 1.535668 -0.936298 0.203558 0.462289 0.155213 -0.261152 1.914011 -0.154910 2.321155 0.245969 0.925483 0.508214 -1.000420 0.950871 0.790153 -0.326603 0.616908 -1.708904 0.917040 -0.226416 -0.378549 -0.641192 -0.632176 0.067735 -0.252971 -0.230413 -1.976848 0.857371
AB681369.1.1472 -0.530173 -1.062995 0.852381 -1.001476 -0.167978 -0.531013 0.571500 0.878894 0.432382 -0.386455 -1.471226 0.175370 -0.179573 0.823722 -1.409910 1.608314 -1.270517 -0.595045 -0.424485 1.936653 -1.082244 0.664358 2.420416 -2.017258 0.486983 0.798970 0.326157 0.977245 0.089133 0.750645 -0.438391 0.167742 -0.144580 -0.872987 -0.395544 -0.579308 -1.406597 -1.237550 -1.355984 0.389251 -0.180646 -0.070821 -0.426210 -0.137381 0.374923 -0.740890 0.196983 1.701264 -0.699279 1.416104 1.062124 1.327907 -1.289119 -0.867822 -0.067612 1.180909 0.210857 1.616357 -0.793025 0.055831 -2.085939 0.690002 0.902067 -0.087333 0.990933 0.274996 0.621319 0.905629 0.366679 -0.042741 0.046371 -1.721704 0.079117 -0.813660 -0.589819 1.644799 -0.152913 1.190279 -2.367093 0.467501 2.037069 -0.543741 0.707085 -0.752739 -0.530356 -0.269960 -0.790786 -1.309924 1.470629 -0.441630 -0.673071 -0.350341 -1.047071 0.589289 0.571041 2.339300 0.874432 -1.239119 -1.619230 0.245107
AB702765.1.1492 -1.223363 0.833040 0.276657 -0.750079 -1.700899 0.717865 -0.516710 -0.963999 -0.734434 -0.230008 -0.067735 -0.091604 0.380165 -0.005133 -0.677155 -0.385253 -1.315185 -0.574720 -0.329340 0.463873 0.159337 2.990101 -0.874221 0.410486 2.031623 1.375591 -0.972911 -0.532041 0.828449 -1.276109 -0.862469 1.044412 0.099631 -2.336850 -0.904024 1.067112 0.339972 0.715596 1.035446 -0.276706 -1.027009 -0.321953 -0.366680 0.426872 -1.019690 -0.086474 -1.163084 0.741249 0.113731 1.209007 0.379534 -0.815226 -0.452178 1.207074 -1.406589 0.664037 0.688072 0.041343 1.036647 -1.497702 0.295614 1.554166 1.800515 2.610648 0.934037 0.536246 -1.490050 0.480830 0.809524 0.646433 -1.367881 -0.218634 -0.173977 -0.027178 -0.801256 0.532444 -0.218954 0.662372 -0.532759 -1.283386 0.137722 2.189072 0.253418 -0.117544 0.619927 0.388118 -0.121450 0.974842 1.251220 1.226666 0.403252 1.494379 -0.177003 1.089838 0.667960 0.125766 0.055987 -0.058844 0.715550 -0.261270
AB702766.1.1491 -1.668068 -0.324798 -0.495093 0.294233 0.241515 -0.156965 -0.377642 0.042725 0.100000 0.384572 -0.007797 0.739338 0.624751 -0.163646 -0.792010 -1.374474 -0.065397 -0.017123 -0.046084 1.378023 -0.481341 1.711256 0.441790 -0.961265 -0.331737 0.731985 1.533913 0.934291 -0.944144 0.494231 1.587135 -0.853992 0.778456 -1.500875 0.077028 0.500412 -0.691965 0.070943 -1.157228 1.690024 0.919770 -0.681626 0.043195 0.540085 0.035875 0.087118 -0.405449 1.557000 -0.312119 2.067171 1.840536 -0.588576 0.869927 0.578313 0.793400 1.166180 -0.147223 0.154562 0.843663 -0.484691 -0.157828 -2.010389 -0.510919 0.899414 1.314728 0.434580 -0.235086 -0.219226 0.043079 0.645370 -1.251196 1.887441 0.135647 -1.823789 -1.186875 -0.394426 -0.244010 0.590596 -1.060292 -0.323400 0.198380 0.067141 -0.471086 -0.479358 1.303092 0.246539 0.268598 1.158001 -1.304401 1.973891 -0.318228 0.539475 -0.376789 1.754854 -1.411774 0.140338 0.628979 -0.020563 -0.558696 0.009878
AB702771.1.1395 -0.324258 -0.345760 -0.748254 -0.968614 -0.121258 1.352520 -0.361701 0.945185 0.669201 0.639072 0.281113 -0.017238 -0.075194 -0.160396 0.412715 1.467807 -0.260182 -0.271519 -1.679856 -0.413506 -0.164209 0.715767 -0.946321 -0.344459 0.083322 -0.091290 -0.021933 -0.383224 0.560461 0.412107 1.979824 0.144026 0.973243 -0.410291 -0.506193 0.329537 0.209316 -0.019895 -0.616406 -0.244114 -0.895139 -0.462590 0.145116 1.060546 0.091040 1.088653 -0.752723 0.761438 -0.237523 1.007889 0.193007 0.237565 -0.010363 -0.466125 -0.240707 0.005784 0.100693 0.173365 0.342994 -0.115142 0.018259 -0.358785 0.099800 0.730701 0.670999 1.212961 0.354177 -0.420046 -0.629885 -0.184087 -0.989026 0.181616 -1.098589 0.812066 -1.441490 0.660411 0.361714 -0.146320 -1.227949 0.227079 0.197815 0.625586 -0.827249 0.048107 0.190571 0.362584 0.649597 0.034872 1.033787 -0.850131 -0.193447 0.442391 0.922176 -0.613605 -0.000940 0.105691 -0.363604 0.596652 0.537895 -0.888854
AB702802.1.1393 0.378276 -0.838775 -0.716764 -0.922517 -0.850769 0.434347 -1.125992 0.170880 -0.690080 -0.491086 0.784674 -0.632000 0.884183 -0.219711 0.824889 0.275204 -1.499646 1.835797 -0.691037 -0.354249 -0.729415 0.075901 -0.231735 -0.274377 0.398667 -0.300310 -0.426286 1.528975 1.179662 1.590597 0.684621 0.218461 -1.309739 -0.767535 -0.965822 0.486921 -0.270283 -0.191015 -0.958561 -0.084125 0.453834 0.055102 -0.110378 0.215992 1.492213 1.275392 -1.056840 0.981134 -1.641169 -0.645298 0.437713 0.486722 0.661628 0.470291 0.256315 0.823327 -0.257242 0.875921 0.219765 1.395534 -0.250383 -1.925643 0.683265 0.531356 -0.396521 1.137954 -0.637568 -0.643193 0.642978 -0.575452 0.345713 -0.959756 0.728533 0.279239 -0.557804 -0.013077 0.013994 0.401426 -0.503538 0.398184 0.219028 0.365519 0.421164 1.275221 1.187261 1.508377 0.051678 -0.368384 0.704177 0.420544 -0.479688 -1.738694 -0.984009 -0.242726 -0.818114 -1.418274 -0.520149 -0.339824 0.203722 0.493379
AB702870.1.1395 0.325550 -0.825394 1.213037 -0.132843 -0.156492 0.610678 0.062926 1.192590 0.765989 0.628223 1.216091 0.909561 -0.675829 0.209319 0.725761 1.704661 0.551349 -0.117119 0.823144 -1.042975 -0.586885 -0.900483 0.590231 0.978245 -1.235631 -1.855784 -1.206950 0.256830 -0.954320 0.534205 0.177360 2.032654 0.568494 0.304683 0.004241 -0.099352 -1.803897 0.834423 -0.240473 0.855740 -0.461015 0.968455 0.687283 -0.288198 -1.152738 -0.161129 -0.288554 2.320135 0.143314 3.006106 0.195216 -0.290434 -0.756923 0.406380 -0.692730 1.068661 0.736636 0.350514 0.583746 -0.965702 -1.004985 -0.319335 -0.375066 0.221381 -0.538425 0.211348 0.352314 0.586360 -1.384608 -0.731302 1.001893 0.573768 -1.640070 -1.101691 -0.663348 0.782795 -0.489129 -0.358230 -0.372872 0.022543 0.572933 0.876015 1.246173 -1.663810 1.182656 -1.053801 0.591244 -0.701918 -0.933802 -0.820736 -1.107146 0.214423 -0.161988 1.827607 0.673156 1.938609 0.986750 0.204284 0.662599 -1.313254
AB733112.1.1328 -0.260492 -0.078560 0.203309 0.358683 0.332392 -0.138659 0.217204 0.305057 -0.326848 0.214411 0.356461 -0.225269 -0.316593 0.235777 0.212592 -0.268536 -0.022564 0.103795 0.140194 0.419759 -0.156673 -0.172871 -0.197087 -0.177775 -0.363053 0.264707 -0.310506 0.121748 0.051749 -0.440568 -0.651406 0.125933 -0.252876 0.255925 0.239437 0.161527 0.264979 -0.140612 0.398417 -0.038190 -0.251452 0.436355 -0.488360 0.369542 -0.237839 0.248249 -0.245268 0.293797 0.321194 -0.522352 0.211466 -0.420125 -0.002894 -0.063638 0.019009 -0.314354 -0.264563 0.183833 -0.203051 -0.016533 0.230275 -0.222150 -0.208329 -0.121456 0.060974 0.706307 -0.031561 -0.510419 0.516779 -0.238470 0.132887 -0.254585 0.066447 0.188562 0.170871 0.421178 0.078643 0.423039 0.528952 0.218402 0.133960 0.289065 -0.104233 0.286771 0.046405 -0.396048 0.169947 0.498935 0.098045 0.525312 -0.155103 -0.246940 -0.242411 0.070337 0.425302 -0.336995 0.712248 -0.489440 0.632650 -0.096272
AB735688.1.1201 0.618337 0.667405 -0.090066 -0.436790 -0.080565 0.748210 -0.734746 -0.635978 -0.334505 -0.490631 0.045457 0.082460 -0.364999 -0.793129 0.108400 0.256705 -1.374157 0.429679 0.920246 -1.023089 -1.212008 0.338860 -1.093857 -0.347192 1.185640 0.603439 0.043443 0.183233 0.276832 0.236604 1.360894 -0.193290 0.371995 -1.044246 1.700464 0.428209 1.399549 1.549692 0.700971 -0.706784 0.229272 -0.099916 0.189235 1.645513 -1.132423 -2.296517 -1.841099 -0.285899 0.425386 0.729656 0.314502 -1.083933 0.303807 1.533087 0.601229 1.272838 0.672964 0.754061 -0.040115 0.925489 0.050675 -0.138366 1.043325 -0.229962 0.671026 -0.319218 0.134741 0.640130 0.168231 -0.605077 0.967814 -0.745149 0.983858 1.309735 0.061840 1.342736 -0.015447 0.016633 -1.929267 0.047131 0.838010 0.973106 -0.640874 -0.437595 1.356256 0.680013 -0.205332 -0.217853 0.146756 0.831284 -1.107401 0.017983 -0.527136 1.589773 1.366953 1.196914 -0.708083 0.849974 1.119420 0.062178
AB739697.1.1442 -0.125853 0.561258 -0.022369 0.702796 -0.570305 -0.084916 0.040835 0.755707 0.629152 0.232812 -0.978582 -0.371215 -0.084036 0.227613 0.346299 0.001616 0.600160 0.474139 0.149109 -0.607748 -0.723025 1.146175 -0.081090 1.181192 -0.346142 -0.312403 0.279394 0.566270 0.295388 0.045859 0.376689 -0.372277 -0.281079 -1.123687 -0.858383 -0.480535 0.315506 0.111470 -0.207067 -0.450628 0.118338 0.169363 0.760514 0.273684 0.778876 -0.876435 0.260377 0.191307 0.601533 -0.050096 -0.724326 0.202971 -0.130334 -0.132718 0.580808 -0.124228 -0.200740 -0.034338 0.392017 1.028460 0.196724 0.143559 -0.070818 -0.718715 0.296235 1.085212 -0.600700 -0.648646 0.246362 0.344231 0.764298 -1.100682 -0.435970 -0.681775 0.228982 -0.057011 0.450090 0.687636 0.241060 -0.071445 0.148583 0.722113 0.000054 0.345326 0.292883 -0.752717 0.438004 0.231417 0.187237 0.091877 -0.146882 0.057992 0.644010 0.366367 0.077418 -0.044783 0.512932 -0.638047 -1.113484 -0.383420
AB742106.1.1431 0.821484 -0.730893 -0.239812 -0.812321 -0.680338 0.024639 0.935794 1.557794 0.352708 0.435222 0.870490 0.925188 0.235337 -0.667526 0.748436 -0.135691 -1.200287 -0.882146 -0.861881 0.468954 -0.323737 1.024120 -0.570428 -0.417327 0.278066 -0.298888 -0.940504 -0.711022 -0.105387 -0.343729 2.199842 -0.566000 0.483331 -0.239690 0.875845 0.741939 -1.353883 -0.592362 -0.546129 1.103033 0.504425 -0.424077 0.128891 0.189530 0.228825 0.624506 -0.369442 1.815702 -0.656373 1.290658 0.532743 -0.048445 -0.119565 -0.076414 0.167643 -0.821413 0.944070 0.300377 1.322506 0.785915 0.180982 0.685166 -1.712363 0.087164 1.855449 0.127571 0.887472 -0.119988 -0.756513 0.254877 -0.555647 -0.810192 -0.091434 -0.347917 0.692897 -0.297348 -0.703630 0.244739 -0.394895 -0.097474 -0.346614 -0.219765 -1.273884 0.114422 -0.361839 -1.480237 0.718154 -0.769022 -0.488911 -0.474785 -0.729101 -0.339074 0.879068 0.004579 0.704644 0.599463 0.140477 -1.093605 -0.536253 -0.170504
AB746810.1.1518 1.095700 -0.286439 0.383652 -0.264665 0.286122 -0.755758 -0.214300 -1.167658 -0.733925 0.039261 -0.146406 0.379359 -2.029608 1.103112 0.938237 -1.534370 1.009038 0.109285 -0.904808 1.769243 0.031047 0.261257 1.176644 -1.738480 1.341537 -0.743181 -1.689781 1.184644 -0.134454 0.639501 0.788628 1.814750 0.076698 -1.126255 -0.248228 0.236168 -0.037382 -0.636006 -1.656131 0.822840 0.535158 -1.112881 -0.375919 0.677269 0.057995 -0.662556 -1.290399 2.739879 0.276910 -0.192045 0.135671 -1.061645 1.091082 -1.786671 -0.992806 0.014819 0.046870 -1.307614 0.145025 0.856896 0.018832 -1.029726 -0.956820 -0.332708 1.190043 -0.008172 1.007811 -0.429300 -1.674432 -0.761557 0.642771 1.600215 -0.066271 0.866496 -0.469679 -0.073529 0.224478 -0.346727 -0.235721 -0.521494 0.110182 -0.956347 1.330641 -0.130868 0.564779 -0.653127 2.710741 1.825311 0.497252 -1.343590 -0.569392 -0.881700 0.382030 1.290832 0.373998 -0.144322 0.770185 1.253149 0.600689 -0.494415
AB749382.1.1389 0.883406 0.838420 -0.231129 -0.346481 1.200157 -1.027810 -0.482260 -0.043831 0.901311 2.109956 0.045094 -0.667234 0.394930 0.251814 -1.251782 -0.408251 -0.924728 -0.700393 -0.713597 -0.816834 0.739525 -0.629897 1.531661 0.126784 0.966071 -2.898658 -0.676887 0.439430 1.800864 -1.170660 0.372168 1.857925 -0.795337 -0.631041 0.753717 0.644448 0.404660 1.162082 -0.417046 -0.021968 -2.855491 -0.959340 0.343751 -1.768868 0.713671 -1.418161 -0.004993 0.070343 -1.306759 -0.075771 -2.386263 -0.403100 0.611201 0.158142 1.080497 0.433301 0.990116 0.394191 0.832372 0.640605 -0.783936 -0.205782 -0.272389 -0.292712 2.349491 -0.676844 1.000565 0.749483 0.347673 -0.407929 -2.388669 -0.168978 0.563489 -0.354505 -0.088951 0.802402 -1.471935 -0.360254 -0.960279 -0.799706 -0.620474 1.150767 -1.631637 -1.086937 2.559758 0.653452 -1.080974 -0.628232 1.193408 0.423163 -0.764374 -1.915916 -0.582635 1.778076 -0.227528 -0.385208 -0.534083 2.716579 1.037940 0.794101
AB772259.1.1253 -0.394299 0.216858 0.453885 -0.060887 0.920864 -0.907064 -1.989247 -1.026851 0.480234 0.683966 1.910734 0.111108 0.676813 0.786366 0.763125 -1.303239 -0.938253 -1.796150 -0.706385 0.567287 0.376322 -0.717990 0.208303 -1.084251 -0.080251 -0.654528 -0.182435 0.560236 -0.466886 -1.685057 0.604921 -0.587678 -0.872989 -2.180524 0.301033 -0.283070 1.222608 -0.755727 -0.069599 0.887506 -0.760931 0.557065 -1.410982 0.638891 -0.755918 1.486840 -0.767464 0.177321 -1.148538 0.766146 0.542087 0.615280 0.757353 -0.215702 0.623794 0.161209 -0.585183 -0.360904 -0.599631 1.064207 -2.039195 -0.577485 -0.024848 -0.828291 0.909526 -0.465526 -0.466445 -0.444205 -0.698974 -0.024420 -0.347708 -0.289922 -1.063241 -1.831270 -1.194329 1.942142 0.288300 -1.488716 -0.255670 -0.745935 -0.147483 0.221638 0.949524 -1.154262 -0.892296 -0.466822 0.064486 0.051630 -0.678219 -0.215219 -1.376230 -0.791096 0.735254 -0.005253 0.023568 -0.189330 -0.175175 -0.421402 -1.098135 -1.029616
AB775005.1.1253 0.155935 0.348102 -0.264571 0.290357 -0.149807 0.887915 -0.308681 0.192194 -0.683875 -0.091011 0.259033 0.074707 0.154987 -0.293009 -0.295926 0.138540 0.598481 0.138673 0.604656 -0.149042 0.347371 -0.024776 0.090168 0.026793 -0.192096 -0.704867 -0.041431 -0.002535 -0.041282 -0.192675 -0.074821 -0.360706 0.137778 0.296092 -0.209319 0.239397 -0.252127 -0.702646 0.516789 0.592454 -0.881172 0.891908 -0.195230 -0.321282 -0.076064 -0.316337 -0.271225 0.287973 0.224651 -0.300345 -0.412401 -0.240706 0.144056 0.548051 0.283910 -0.134699 0.077441 -0.220822 0.124976 0.932771 -0.643926 0.396870 -0.621709 0.019104 0.044419 -0.210451 -0.318303 -0.292044 -1.397269 0.192371 -0.040356 -1.250671 -0.615780 -0.176603 0.691814 0.606845 -0.205319 -0.044094 -0.024300 0.412442 -0.909609 -0.506713 0.062931 0.655181 -0.684424 -1.071903 0.248956 0.174837 0.274925 -0.850977 -0.263535 0.166439 0.071979 0.004166 0.792470 0.467576 0.577868 0.290367 0.335355 -0.617249
AB826025.1.1593 0.392266 -0.783755 0.539602 -1.622665 -1.115023 0.955826 1.312794 0.676680 -0.474346 0.064611 1.430466 -0.398114 0.284774 -0.101556 -1.048540 -0.120427 -1.115893 1.239977 -1.204881 -0.187566 -0.750076 0.727426 1.414404 0.452219 1.083771 0.429302 0.624361 -0.748182 -1.025358 0.527961 1.271690 0.363789 0.776450 -1.121902 0.534250 1.187789 -0.014655 0.034454 -0.276463 -0.610956 -0.025392 -0.392054 0.827840 0.540595 -0.194705 -0.495985 -0.967475 1.179693 -0.425924 0.584690 0.181060 -0.011368 0.120258 0.084807 0.318298 0.111281 0.518250 0.381419 -0.786761 -0.797275 -0.351768 0.256010 -0.616302 0.302140 0.058377 -0.564514 1.571880 1.526523 -1.622569 0.719183 -1.691319 -0.853533 -0.531214 0.209975 -0.341579 0.122357 -1.045014 0.423964 -0.500969 0.408883 0.242984 -0.563499 -0.212357 -0.330737 0.040525 -0.435325 -0.089706 0.264300 0.678761 -0.931640 -0.977974 0.100869 0.219265 -0.041576 0.260636 0.491794 0.315409 1.073317 -1.386082 -0.308889
AB910337.1.1492 -0.042276 -0.362048 0.228074 -0.119067 0.477188 0.692508 -0.832062 -0.181853 -0.644904 -0.288491 0.058799 0.379891 0.743026 0.324326 0.235568 0.680832 0.152431 -1.191540 -0.086137 1.113758 1.014466 0.323418 0.332912 0.989374 0.028552 0.478634 0.776962 1.014452 -1.002152 1.311570 2.663724 0.148008 -1.049572 0.550158 -0.565762 0.253013 0.236331 -0.611508 -1.385979 0.369750 -0.766762 -0.906048 0.325287 0.373537 -0.683300 -1.103320 -0.219576 1.983552 -0.125534 1.981330 1.363470 0.625176 1.080132 -0.931580 -0.417569 -1.212369 0.773046 -1.243694 1.036559 0.685110 -0.143767 -1.005588 -0.540790 -0.311590 0.713062 0.548288 1.451947 -0.623613 -0.677533 0.831709 -0.563547 2.441965 0.444499 -1.424893 -1.094486 0.318854 0.232992 0.649080 0.207068 1.227154 1.281935 0.547555 -0.679980 0.071469 1.457377 0.935321 -0.978277 -0.673930 0.409916 -1.848193 -0.244401 0.345587 0.502809 0.767060 0.019775 -0.470014 1.090438 0.151665 0.095606 1.143298
AB930590.1.1483 -0.153230 -0.188659 0.192324 -0.604742 -1.626322 0.443495 -1.025569 -1.169326 0.052417 -0.095822 -0.811646 0.683167 -0.407959 -0.246510 -1.143879 0.199834 -0.615536 0.250959 -0.586567 0.197760 -0.243291 0.294456 1.032686 -1.100272 1.425140 -0.180795 0.547233 -0.473550 0.260809 0.110074 0.568417 0.435233 0.690201 -1.547882 0.270335 0.619901 -0.857107 -0.324666 -1.548085 0.101983 0.106715 0.562959 0.627705 0.177990 0.118345 0.012754 -0.198577 1.101291 -1.496052 0.643295 0.265644 -0.014246 -0.562432 -0.790062 -0.019378 0.630351 -0.326784 0.262088 -0.845791 -0.446963 -0.372570 -0.370301 0.193260 0.309829 -0.198044 0.193688 0.132204 0.408319 -0.416447 -0.107296 -0.549256 -0.478829 0.452474 0.225536 -1.064914 -0.165879 0.323081 1.488209 -0.588617 0.179078 -0.135865 0.079949 -0.597515 -1.032793 0.154643 -0.211822 0.622492 -0.716893 0.275633 0.674758 -1.253474 -0.238177 -0.158930 -0.108485 0.330339 0.303962 -0.584336 0.277609 -0.541468 -0.193171
AB934632.1.1349 -0.062235 0.016851 0.666130 -0.146002 0.332907 0.143207 0.369890 0.426760 -0.095962 0.161434 -0.444647 -0.244762 -0.124722 0.174101 0.222598 0.551605 -0.657980 -0.529052 -0.165992 0.656745 -0.219936 -0.523046 0.055281 0.003856 0.366355 -0.176248 0.551616 -0.147085 0.557821 0.118147 0.073276 -0.349287 -0.305392 1.038325 -0.161236 -0.036359 -0.636875 0.232959 0.192464 0.654975 0.067782 -0.486768 -0.175721 -0.193113 -0.715212 -0.220792 -0.387883 0.306996 -0.131812 0.403462 -0.334745 -0.534836 -0.061907 -0.354361 0.418105 -0.190244 0.149359 -0.483147 -0.009979 0.163170 -0.151834 -0.152187 -0.590985 0.019998 -0.337277 -0.737294 0.160354 -0.471632 0.532651 -0.015401 -0.033665 -0.080095 0.106649 -0.167191 -0.010469 -0.121699 -0.267601 -0.181693 0.094773 -0.334824 0.017222 -0.352086 0.495896 0.049492 0.368292 0.108030 -0.429347 -0.084616 0.138149 -0.165938 0.657963 -0.059735 -0.184642 -0.116635 0.089935 0.111385 0.466403 -0.179955 0.438943 -0.120565
AB934715.1.1349 0.353548 0.130497 -0.677482 0.318560 -1.126205 0.658280 -0.525589 0.477362 -0.222497 0.591060 0.290729 1.701776 0.160532 -1.556585 0.131664 0.640032 -0.225099 0.482716 -0.382957 -0.532309 0.619756 0.669858 -1.272258 -0.261766 0.150906 0.181520 0.398955 0.008526 0.079576 -0.433877 -0.513328 0.661030 1.532181 -0.482106 0.200041 0.211903 0.819925 1.167791 -1.204585 -0.345818 -0.055649 -0.006991 -0.087365 -0.112086 0.409330 0.466927 -0.000454 -0.098348 -0.443818 0.333727 -0.151887 0.194056 -0.428756 -0.152821 0.121329 -0.210050 0.608063 0.768983 0.150550 -0.547410 -0.021683 0.171417 -0.426582 -0.000015 0.753325 0.690616 -1.072591 -0.414846 0.488524 -1.018942 -0.098636 -2.049130 0.034838 -0.164597 1.315029 0.198963 -0.380977 0.082119 -0.970063 -0.828217 -0.581312 0.333546 0.129764 -0.746749 0.155333 -0.494016 -0.911891 -0.053234 0.436627 -0.489839 -0.638077 -0.613050 0.017471 -0.590104 -0.084814 -1.209104 0.157835 -0.584984 -0.037661 0.144535
AB934730.1.1351 -1.051148 -1.255182 0.456096 -0.606213 0.303524 -1.580052 0.108154 0.858038 0.224699 0.552576 0.007537 1.448969 -0.629043 -0.112579 -0.823384 -1.039030 0.012013 0.839094 0.235477 -0.846854 -0.529171 1.705786 1.800532 -1.164034 -0.488714 -0.129987 0.362257 -0.091935 0.000172 -0.238607 1.102262 0.728248 -0.635116 -0.898463 -0.285655 0.841192 -0.221011 0.383679 -1.198863 -0.558619 -0.209687 -0.044286 -0.555400 0.295981 0.339747 -0.314396 1.114590 -0.546223 -0.455166 1.832418 -0.674309 0.593387 -0.008460 -1.163373 1.253590 0.493335 -0.273512 -0.630416 -1.468501 0.013016 1.485946 -0.345236 -0.397696 -0.455304 0.104551 1.107891 -1.678073 0.534695 -0.208077 0.956452 -0.231557 -0.479618 0.442654 0.271637 -0.971914 -1.146842 -0.522982 -0.649021 -0.941853 0.181534 -1.122853 1.140595 -0.301556 0.210175 0.056932 3.061772 -0.548935 0.703806 0.197843 -1.005440 -0.442678 -0.079032 -0.746842 -0.244877 0.009587 2.098689 0.406705 -0.604458 -0.007532 0.980345
AB934731.1.1350 -2.573095 0.149717 -2.109591 0.192176 -0.293861 -1.414239 -1.493972 -1.179540 -3.257427 -0.543668 -1.811064 0.195923 0.715789 0.594099 0.252847 -1.336194 -0.780827 -1.476555 -0.073274 -0.223309 0.355248 0.730691 -0.596836 -2.207532 -1.872357 1.327472 0.669539 1.062211 -0.723281 0.386267 0.507770 0.324937 0.052763 -1.521990 -0.496351 -0.346639 0.364922 2.492586 -1.743192 1.602467 0.152813 -0.878531 1.580737 -0.758919 -0.551613 -1.230723 -1.521663 0.654051 0.631534 1.868556 0.075537 1.659887 1.294621 0.391323 -0.987367 -0.525738 0.901049 0.900601 0.222092 -0.879476 -0.024941 0.251864 -0.236214 0.234750 -1.418607 -1.724860 1.116387 -0.708118 0.847375 1.701473 0.480641 0.024447 0.360198 0.320428 -1.649517 0.533246 0.498689 0.343269 -2.088120 0.286016 -1.135457 0.117295 1.030304 0.155103 0.015559 0.560802 0.994867 -1.140819 -1.653302 -0.144397 -1.631000 -0.086275 0.170105 -0.144360 -1.225140 0.323706 -0.589223 -1.627898 -1.497807 -0.417380
AB934779.1.1351 0.486256 0.625951 1.478475 -0.490134 -1.549479 -0.441693 0.732211 0.558807 0.851493 -0.230728 0.269586 0.559548 -0.696008 -0.751619 0.750622 0.276797 -0.902083 1.101555 0.588427 0.193710 0.330789 0.652978 0.140621 -0.600268 -0.140685 -0.950546 -0.376616 -0.356272 0.817282 3.008143 -0.278244 1.707483 -1.290169 -0.297052 1.677264 0.572759 1.171990 1.755883 -0.275677 -0.237195 0.943476 1.098471 1.115388 1.566661 0.048321 -0.014961 -1.674436 0.538343 0.696147 0.321186 1.192902 -0.628125 -0.406528 0.369485 -1.537243 -0.623046 1.884837 0.371485 0.547890 0.221011 0.058321 -1.344164 -1.234245 -0.456616 0.690632 -0.781054 0.373443 -0.561647 -2.595094 0.762388 1.321299 -2.076431 0.293327 1.340653 -0.413677 -0.987422 -0.197989 1.149776 -0.622821 -0.162477 -1.055862 0.242224 -0.648748 0.072309 0.335730 -0.385791 0.284958 -1.229814 -0.873115 -0.888683 0.449525 -0.444088 -0.919466 0.034345 -1.051358 -0.278755 -1.269740 -0.067665 1.800183 0.031738
AB934798.1.1350 1.011518 -0.199820 -0.569327 -1.349622 -1.568353 -0.004686 0.380208 -1.039798 -0.124225 -0.416824 0.154895 1.182013 0.270478 -1.988763 0.457719 1.304645 -0.890708 -0.971896 -0.003801 -0.804464 0.354062 1.543846 0.863182 -0.384609 1.602046 -0.686841 -0.348488 -0.626928 1.266312 0.160163 -1.447956 -1.404941 0.466796 -0.389075 0.298110 1.947530 -0.186285 -0.719944 -1.399032 0.013145 -1.511641 -0.681868 -0.944486 0.137049 0.132294 -0.297183 -1.068782 0.118573 -1.120127 0.964124 0.998743 0.665552 -1.414317 -0.151551 0.367430 0.777736 0.064796 0.308634 -0.761241 -0.132981 -0.744460 1.269501 -0.136922 -0.880339 1.672065 1.126594 -0.366221 0.162118 0.792208 0.436186 -0.952776 1.159229 -0.005249 -0.272716 -0.363233 -0.326957 1.048449 -0.380054 -0.290600 0.174019 -0.230284 0.241174 -0.175710 -1.164480 -0.256047 0.450967 -0.440383 0.011916 0.541786 -0.909257 -1.811154 0.981292 0.602324 -0.223002 -0.564894 -1.360476 -0.903187 0.398496 -0.419819 -1.206433
AB934801.1.1351 -0.681553 -0.008892 0.970641 0.638567 0.452181 0.037328 0.135248 -2.286408 -0.610291 0.202912 -0.580340 -2.111011 0.297926 -0.104328 -0.326272 -0.334710 -2.448750 0.202747 0.174365 -0.817823 -1.847034 -0.404683 -0.431072 -0.435254 -0.120481 -0.023186 0.167090 0.575614 1.028098 -0.344932 0.574566 -0.372100 -0.869700 -0.015474 -0.611648 -0.635660 -0.855558 -1.344527 -0.629535 -0.137520 0.318760 -0.168950 1.945151 0.374058 0.003967 0.379231 -2.103657 -0.758873 -1.160003 3.037267 -1.027872 1.166863 0.204588 1.290986 0.684744 0.880418 -2.255240 -0.528918 0.284345 0.895036 0.191789 -0.800242 -0.312491 0.206325 0.366054 -0.025886 0.663735 1.158426 -0.655422 -1.246382 -1.273047 1.269642 1.175874 0.605308 -0.822152 0.504845 0.434713 1.099446 -0.516870 0.699071 -0.437046 -1.279365 -1.199664 -0.290712 0.583170 1.330124 1.329562 -0.490224 1.842154 1.251752 -0.669726 0.598416 -0.533507 0.263273 -0.062746 -0.021445 1.110053 1.166443 1.177919 0.951815
AB934852.1.1327 -0.975886 0.583157 -0.520671 -0.513814 -0.120038 0.132480 0.124055 1.066039 -0.430726 -0.797975 0.104289 1.204985 0.327598 -0.593959 -0.655120 -0.221259 -0.781906 -0.561053 -0.148438 0.062342 -0.208440 -1.332584 -0.316202 -0.792267 0.328722 -0.978987 0.100247 -0.234936 0.156551 1.051562 0.187299 0.198111 -0.431801 -0.109573 -0.949217 0.459467 0.026654 0.035712 -0.734651 0.225971 -0.178222 -0.410667 -0.374598 -0.586913 0.683019 -0.508455 -0.878883 0.472004 -0.697231 0.490356 0.089579 0.775077 0.687626 -0.095248 -0.110064 -0.442320 0.079782 0.741850 0.324836 0.439920 -0.528492 -0.924926 0.653120 0.012342 0.916456 -0.810440 0.127014 0.135270 1.382541 -0.652297 -0.731699 0.045200 0.243638 0.465992 -0.355278 0.352493 1.032076 0.321811 1.016500 -0.369281 -0.534107 -0.787183 -0.469604 0.247554 -0.132170 0.089782 -0.306806 0.401130 0.275461 -0.485332 -0.675529 -0.405966 0.150947 0.421776 -1.015982 0.080788 0.590312 0.168086 0.978468 -0.214798
AB934872.1.1350 0.296952 0.424436 0.675205 0.220995 -0.998869 -0.921040 0.195313 0.212874 -0.495594 1.357477 0.292726 0.333261 0.716558 0.580283 -1.070659 0.576543 -0.685326 0.287171 -1.043737 -0.556551 -0.590174 0.924386 -0.117908 -1.005175 1.114347 0.604502 -0.566454 -1.042702 0.016065 -0.407162 0.322275 -0.203656 -0.432309 0.252636 -0.133709 0.505902 -0.120762 -0.295079 -2.448974 1.106171 0.396758 -0.896097 0.606278 0.189814 -0.818060 0.721409 -1.815069 -1.144044 -0.052573 1.309277 0.363599 0.216026 -0.241504 0.598201 1.059039 0.254184 0.084008 0.616564 -0.402939 0.193862 -0.378299 -0.554704 0.046594 0.339853 -0.050773 0.152621 0.053790 -2.179947 -1.048498 -0.849133 0.117571 -0.932595 -0.737823 1.325996 -1.740867 0.277589 -0.098618 -0.750001 -1.428945 0.323866 0.513743 0.258342 0.066431 -0.001893 0.105148 -0.428553 0.988785 -0.949246 -0.238479 -0.796004 -1.802802 -0.261416 -0.276170 -0.355248 0.017456 0.065225 -0.504391 -0.930229 -0.646190 -0.280473
AB969596.1.1523 1.427029 -1.365395 -0.620994 -0.198847 -1.566499 0.331201 -0.353154 -0.047065 -0.325167 1.444112 -0.470140 -0.762130 0.084701 1.038869 -2.580167 2.510339 -1.127546 0.806343 -0.519471 2.715767 0.139826 1.873377 0.004031 -0.791677 0.054091 0.123707 -0.250816 -0.082399 -0.840302 1.288304 1.100713 -0.670325 1.374129 0.272977 -0.424314 0.586874 0.193709 -0.695098 -1.517651 -0.107338 -1.478472 -0.028762 -0.058748 -0.314196 0.336905 0.026246 0.255586 0.487769 -0.157923 0.862123 0.973194 -2.392872 -0.680560 0.390696 0.390073 1.150836 1.217307 0.466625 1.372207 0.780445 0.034615 -2.195981 -1.321499 0.171968 0.067684 1.801688 1.220968 0.004561 -1.455928 0.012934 1.354039 0.194719 -0.047121 0.371137 0.790849 -0.005517 -0.995270 -1.127424 0.319840 -1.292853 -0.510836 1.245248 0.388809 -0.422252 1.397509 -0.589744 1.254827 -1.174427 0.781095 0.789118 -0.234917 0.159067 -0.852743 0.770917 -1.586075 0.179159 -1.553032 -0.768809 -0.053203 1.032978
AB969601.1.1522 0.502778 -0.816047 0.430540 -1.511522 0.570419 -0.050489 -0.751548 0.377463 -1.325663 -0.922722 -0.602272 -0.538982 -0.299125 0.856517 -1.124783 0.311268 0.174698 0.988023 -0.694879 -0.656056 0.809882 1.031420 -0.329166 -0.694819 -0.661835 -1.189266 -0.433290 0.308627 -1.044089 0.485724 0.631398 0.259478 1.036496 0.112931 -0.588541 -1.373128 -0.167654 0.464609 0.225983 -0.574205 1.499248 0.184508 -1.026337 -0.123612 -2.362064 -0.353123 -0.089976 0.347155 -0.321478 1.658886 0.183701 -0.740438 -0.740794 -0.216574 0.855928 -0.791001 -0.055169 0.320355 1.007887 0.292106 -0.458187 -0.603006 -0.638539 0.648636 -0.503420 0.436039 -0.086435 0.086160 0.437963 -0.345625 -0.813830 -0.385480 0.624401 -2.378126 0.464358 -1.232930 -0.227226 -0.524958 -0.416414 -0.316240 1.620578 0.715660 1.049636 -1.351919 0.399168 -0.651530 -0.697768 -1.030697 0.592446 -0.728283 -0.296941 -1.743157 -0.065934 0.192447 1.214633 0.844780 1.412852 -0.098779 -0.768454 -0.877492
ABDV01000025.23975.25492 -1.861578 0.628617 1.970431 -1.050171 -1.364885 0.091434 -2.358050 -1.508050 -0.720152 0.177702 0.342919 0.670310 0.907045 0.483941 0.520069 -0.094936 0.813394 0.814500 -0.158436 0.394722 -1.825963 0.857876 1.580642 -0.907183 0.002050 -0.721727 -0.913559 -0.539192 -1.206598 -0.239053 -0.441008 -0.521605 0.535158 0.657378 -0.516377 0.086921 0.170004 -0.628359 -0.585308 -0.782720 -0.511497 0.639732 -0.297643 -0.408529 -1.456616 -0.307063 -2.048114 0.656015 -0.377947 0.564162 2.948441 0.050029 0.958118 -2.169478 -1.044106 0.402443 0.331621 -0.499464 -0.414287 -0.090548 1.074447 2.247508 0.998252 0.909621 0.044538 1.161334 -0.575028 1.186454 -1.962950 1.703868 -0.287783 0.705826 1.481615 0.022406 -0.247089 0.678903 -0.661621 0.555589 -0.166483 0.185111 -0.489374 1.077043 -0.726905 -0.216688 -0.656571 0.691459 -0.343955 0.154159 -0.487545 -1.028862 -1.373608 -0.329342 -0.048067 -0.104586 0.192511 0.497726 0.432352 -0.668505 -0.917887 -0.473243
ABEZ02000015.506.1996 0.512126 -1.127210 0.902389 1.130638 1.066812 1.233932 -2.603585 -0.129843 0.184574 0.075814 -0.120504 0.188227 -0.623145 -1.182094 1.117995 0.558317 2.052116 -1.046573 -1.298840 0.782041 -0.031840 1.945262 0.802875 -0.052199 0.628949 -0.782845 -1.693557 -0.499601 -0.878471 0.544962 -0.862380 1.223472 1.931823 -0.945712 -1.736137 1.163032 0.332983 0.588229 -0.108512 -0.147673 2.198321 -0.563132 -1.048416 0.976172 -0.246406 2.054632 -2.216977 0.065639 -1.295112 2.172562 0.118566 0.073251 1.409804 -1.468394 -0.517642 0.949106 0.361506 1.512831 -0.945330 -0.787250 -0.426336 0.800955 -0.233941 1.658712 0.235850 0.432583 1.846745 0.923929 -1.481368 0.813424 -1.150408 -1.838303 1.357174 -1.938117 -1.777375 -0.915481 0.038521 0.418801 0.678017 -1.149432 1.096249 0.220666 0.562400 -0.136211 -0.098105 -0.431624 -0.465665 1.310896 0.276018 0.105758 -1.343909 -0.507696 -1.738742 1.369174 0.918495 1.208382 0.859516 -0.449049 -0.054450 1.911471
ABIK02000013.103269.104574 -0.153927 -0.073359 0.108214 0.163225 0.376262 0.465207 -0.201690 -0.143887 -0.426382 -0.311287 -0.312892 -0.609378 0.468728 0.090516 -0.347043 -0.509775 -0.484872 -0.468733 0.145789 0.473347 -0.242130 -0.702128 0.128398 0.099442 0.341062 0.158631 -0.172447 0.282724 0.078323 0.223120 0.231303 -0.262746 0.362928 0.594512 0.131689 0.471259 -0.070306 -0.207817 0.610282 0.548349 0.027375 -0.356692 -0.376363 0.288644 -0.014364 -0.138207 0.383173 0.320493 -0.037682 -0.710756 0.268286 -0.382529 0.192876 0.310938 -0.150921 -0.092977 -0.412866 0.286347 -0.360227 -0.327900 -0.128254 -0.291094 0.023097 0.226880 0.161803 0.117863 -0.059341 0.105606 -0.826564 -0.226102 -0.111868 -0.427338 0.250019 0.157211 0.329374 0.006338 0.627592 0.080415 0.336157 -0.370147 0.055486 -0.477721 0.774057 -0.362345 -0.014196 -0.050182 -0.295281 -0.282997 0.536702 0.239396 0.526453 -0.315937 -0.117254 -0.334539 -0.089855 0.226930 0.024950 -0.051408 0.488202 0.360597
ABIY02000114.1.1263 -0.181342 0.219536 0.344275 0.292574 -0.307466 -0.365771 0.216294 0.269710 0.606112 0.129076 -0.238257 0.300867 -0.082277 0.025858 -0.804496 0.597942 0.553139 -0.803538 0.403957 0.517589 0.243463 0.438597 -0.635006 -0.079959 0.245310 -0.019597 -0.096895 -0.274601 0.010114 0.126048 -0.737927 -0.172436 0.989644 -0.849348 0.257459 0.414365 -0.066823 0.137280 0.523879 0.052408 0.028293 0.032133 0.237604 -0.588671 0.096307 0.047843 0.211002 -0.353463 0.030468 -0.646813 0.367110 -0.941900 0.295434 -0.073190 0.646756 0.004916 -0.390749 -0.483753 -0.352096 0.259246 0.266386 -0.646172 -0.176393 -0.389077 0.283260 -0.775688 -0.448579 0.214493 -0.104791 -0.415279 0.237567 0.293289 -0.331906 0.534651 0.180741 -0.176426 -0.553535 -0.096544 -0.024071 0.765764 -0.629545 -0.040551 -0.249046 0.702417 0.087337 0.404889 -0.191433 0.288213 -0.241902 0.390459 -0.375321 0.031436 0.245066 -0.281971 -0.305803 -0.580343 -0.018113 0.596333 0.449952 -0.015968
ABQC02000019.758957.760260 1.275420 0.109352 -0.178869 0.244188 -0.406216 -0.474837 -0.287380 0.035923 1.530287 -0.555082 0.099507 -0.798381 -0.785079 -0.115599 0.132294 0.265374 0.554019 0.043619 0.785702 0.010346 0.732671 0.083655 -0.973410 1.081839 0.047276 -0.256945 -0.753556 0.048721 0.263682 -0.043251 -0.193332 -0.294649 1.042105 -0.286376 0.482415 -0.095174 -0.055174 1.336346 0.151134 -0.314395 -0.114273 0.479505 0.812774 -0.972549 -0.493784 -0.044204 0.080481 -0.587361 0.033113 0.072872 0.892998 -0.816567 -0.351475 -0.454563 -0.287493 0.328263 -0.730506 -0.456415 -0.112022 0.016254 0.387275 0.140877 0.389625 -0.208030 0.410549 -0.417711 -0.182375 1.315220 -0.137348 -0.137935 -0.156275 0.268936 -0.417516 0.027776 -0.377929 0.442557 0.780850 0.133349 -0.151752 0.610286 0.061161 -0.443928 -0.644867 0.091138 0.203524 0.358038 0.143245 0.168961 0.231431 -0.074476 -0.624021 0.895575 0.286941 -0.470423 -0.052179 -1.294602 0.609856 0.411637 0.685160 -0.406025
ABWL02000011.84303.85559 0.742860 -1.163764 2.506948 -0.962982 -0.722346 -0.272928 0.039789 -1.695226 0.048100 0.524446 -0.338605 1.051169 -2.691063 0.101568 -1.076491 -0.330746 -0.281589 -1.074050 0.532431 -1.482285 -0.160997 0.221255 -0.497460 -0.653950 0.960050 0.173030 -0.014452 0.351470 -0.908791 1.314934 -1.020803 -1.104058 -0.459167 -0.028990 -0.042695 1.297698 -0.002169 0.862111 0.155624 -0.372369 -0.375444 0.040446 -0.625301 0.191355 -1.359974 -0.531320 -0.771046 -1.095224 0.616800 0.531205 -0.094812 -0.239665 0.428141 0.976836 -0.225473 1.583031 -0.481791 1.085648 -0.209708 1.271259 -0.074194 0.939660 0.049208 0.906004 -0.038483 0.392728 -0.299321 -0.179125 -1.444788 0.048266 -0.297844 -0.556805 0.067553 -0.644666 0.932092 0.686055 1.179524 -1.044961 -1.162750 2.113778 -1.741649 -0.104499 -0.124796 -1.366532 1.156418 -0.325694 0.504428 -1.322671 0.588425 -1.656874 -1.498631 -0.607148 0.232942 0.679826 -0.862131 1.138596 0.149657 0.545325 -0.227514 0.857468
