AAXA02000007.1.1294 0.062911 0.090495 0.141122 -0.015376 -0.209865 0.486423 -1.029565 0.251808 -0.869672 0.316181 -0.151808 0.067043 -0.370725 0.176584 -0.274699 -0.447909 -0.158890 -0.058536 0.063642 0.059929 0.250274 -0.134139 0.075582 0.214762 0.488573 0.278819 -0.143710 0.686294 0.357398 0.066411 0.109571 -0.057237 -0.156969 0.143322 -0.626410 0.528031 -0.349862 0.775796 0.254638 0.412622 0.985447 -0.286519 -0.438895 0.516963 0.166674 -0.455239 -0.285673 0.157902 0.116950 0.012913 -0.462109 0.085734 -0.207156 0.064785 -0.186952 0.161760 0.389209 0.364446 -0.293962 0.238784 -0.183415 0.186816 0.940817 -0.451695 0.142188 0.309608 -0.021794 -0.117645 -0.183632 -0.906585 0.078864 0.545918 0.484939 -0.114661 -0.687520 0.263069 0.042187 -0.468391 -0.449127 -0.574841 0.290907 -0.318954 -0.085901 -0.045167 0.201605 -0.341288 -0.076082 -0.504962 -0.192094 0.302198 -0.094475 0.164718 -1.015611 0.242074 0.176743 -0.028239 0.288145 -0.189229 0.159884 0.132659
AB002518.1.1416 -0.176564 -0.895156 -0.983838 0.903213 1.016648 -1.115797 0.404602 -0.973342 0.148387 -0.282632 0.192066 -0.477527 -0.038896 -0.668867 0.534770 1.429805 0.416620 0.027054 -0.320089 0.097081 0.214955 0.182344 -0.127806 -0.836356 0.457179 -0.806682 0.249547 -0.114865 0.633244 0.190939 0.278651 -0.308198 0.046490 0.668434 -0.272418 -0.726523 0.363429 0.366214 -0.065906 -0.413583 0.146065 1.241912 -0.205662 -0.856525 0.022974 -0.089429 0.650902 -0.914707 -0.772931 -1.206607 -0.291119 -0.593004 0.454706 -1.209416 -0.018802 -0.837885 0.418827 0.143084 0.421445 -0.990427 -0.226439 -0.066512 0.224691 0.250488 -0.610917 0.304944 -0.499066 -0.287163 0.432751 0.210674 0.344595 0.077775 -0.049128 -1.153706 -0.575003 0.881895 0.236752 1.284511 0.460353 0.260927 0.124351 0.955654 -0.581806 0.190418 0.823846 -0.360773 -0.466979 -0.979534 -0.292749 0.741043 -0.531013 0.208609 0.506569 0.568736 -0.909543 -0.666329 0.512178 0.376668 0.277532 0.447480
AB022925.1.1450 -0.174405 0.760477 0.127190 -0.142269 -0.646555 0.442756 -0.470653 -0.322196 -0.109967 0.207860 -0.560684 -0.112653 -0.197883 -0.657790 0.942016 0.579237 -0.259285 -0.168698 -0.572629 0.143198 -0.711363 0.795595 0.254109 0.200560 -0.253185 -0.011538 -0.506318 -0.492601 -0.176595 0.342846 0.223155 -0.338461 -0.084874 -0.099943 0.706565 0.112131 0.625125 -0.696235 -0.183444 -0.366266 0.105672 0.041949 0.680074 -0.852068 0.331646 0.011235 0.076860 0.245029 0.103191 -0.284651 -0.321937 -0.317569 0.172434 -0.233918 0.248037 -0.070345 0.148110 -1.714890 0.293886 -0.472162 -0.231918 -0.199188 -0.574662 0.466287 -0.089788 1.053978 -0.114532 0.193838 0.355862 0.677463 0.416505 0.100076 0.175831 -0.272034 -0.088571 0.181423 0.879134 0.243645 -0.250642 0.349841 -0.219652 -0.001144 -0.137211 -0.032934 -0.333957 0.310514 0.244743 -0.187038 -0.595814 0.041826 -0.336160 0.438968 0.243853 -0.742758 -0.001836 1.086386 -0.840130 0.637633 -0.019714 0.817747
AB036759.1.1480 -0.072842 -0.480164 -0.382107 0.333754 -0.054520 -0.467713 0.051507 0.151380 0.239983 -0.144915 -0.175168 -0.505236 0.059691 -0.504623 -0.564263 0.292814 -0.161197 0.208924 -1.084638 0.025961 -0.061097 -0.253627 1.349136 0.083724 -0.750122 -0.593888 0.466513 -0.910629 -0.638254 -0.282908 0.372233 -0.512513 -0.305988 -0.403514 -0.467095 0.215913 0.114048 0.076709 0.084103 -0.091858 -0.117016 0.056911 -0.397766 -0.205547 -0.393681 0.329310 0.469628 -0.663198 -0.920515 -0.474902 0.026849 -0.241673 -0.459972 0.035199 0.250554 -0.195299 -0.405097 0.012659 0.329422 0.149899 0.268338 -0.165398 0.541772 -0.686884 0.584723 -0.876166 0.265820 0.690807 0.063965 0.046314 0.162960 -0.738483 -0.212045 0.023492 0.541658 0.442850 -0.036248 -0.302369 0.223128 -0.176490 -0.497587 -0.089155 -0.563144 0.066845 -0.094511 0.169198 0.261037 -0.287546 0.405294 0.670232 1.116595 -0.594410 -0.762085 0.053760 -0.427134 -0.451891 -0.019718 0.540963 -0.237474 0.617269
AB064919.1.1492 -0.481483 -0.738392 0.185273 -1.251998 -1.628762 -0.955464 0.459356 -0.628553 0.509571 -1.702765 -0.697926 -0.890789 -1.105562 -1.177627 0.337684 0.169292 0.141584 0.444547 -0.300814 1.622595 0.207667 -0.356441 -1.994094 1.613415 0.511184 0.028555 1.763378 -0.785686 0.473678 0.429891 -1.644530 0.047704 -1.141098 1.495707 0.338928 -1.392107 -0.029580 -0.047566 0.886683 -1.417761 -0.303310 -0.424569 0.791846 0.399032 1.601926 0.682308 0.378391 -0.374364 -0.815058 0.382368 -1.109047 0.415283 -1.081755 -0.095287 1.426318 0.358823 -0.568203 0.039184 -0.189238 -0.809325 0.254753 -1.344175 0.886893 0.518109 0.697952 0.175208 -1.190972 0.240314 -0.235966 0.878613 0.701852 -0.486933 -1.184504 1.678022 -0.054854 -0.870122 -0.155297 -1.353876 0.556896 -0.739056 0.775127 -0.470545 0.401544 -0.592922 1.727412 1.037033 -0.311041 -0.009179 0.769650 -0.880733 1.279656 0.128434 -0.346217 0.417947 0.934137 -0.774354 0.704413 -0.838444 0.365435 0.016766
AB218322.1.1456 1.672627 1.384657 0.182012 -0.791686 0.360230 0.682463 0.200987 -2.735957 -0.421479 0.686677 1.347684 -1.469345 0.376571 -1.039301 1.021394 0.041174 0.841433 -0.321105 0.409079 -0.202111 -0.534872 0.656598 -1.144132 0.842226 -0.436690 -0.094523 0.110336 -1.551848 0.876532 0.703378 0.504429 1.357581 -0.491278 -0.525822 1.920153 -0.591830 1.017732 1.640074 -0.557525 1.419951 -0.450301 0.833156 -0.085171 -0.106853 0.225581 1.751225 -0.171109 1.913802 -0.663964 0.194857 -0.443607 0.417583 0.397524 -1.988976 0.420920 0.014596 0.924114 -0.323009 -0.786738 -0.818157 2.879951 -2.165851 0.447652 1.283617 1.240254 1.212271 0.555575 0.291826 -0.169380 0.358406 0.864219 -0.065023 -0.008961 0.344103 -1.608884 -0.809281 -0.427771 0.788362 -1.496708 -0.961008 -0.528922 0.898307 -0.621108 1.056581 -0.362839 0.952819 0.997679 -0.670957 -0.106540 -1.243112 0.027387 -0.587248 -0.413694 -1.112700 -0.010296 0.923421 0.231524 0.055202 0.173503 -0.551627
AB218324.1.1551 0.321964 1.317046 -0.454770 1.098352 -0.978697 -1.116554 0.276779 0.412753 1.290184 -0.013892 -0.755367 0.009766 -0.399091 -0.612295 0.000497 0.785972 -0.150500 -0.770912 -0.784596 -0.873032 -0.326465 0.014472 -1.308164 0.790422 -2.212513 -0.350310 -0.952473 -0.083824 -0.324647 0.429944 1.338771 -0.398875 -0.823526 -0.459109 1.605456 -0.324463 -0.818459 1.393044 -0.947394 -1.096011 -0.943395 0.305752 -0.407894 0.784489 0.051724 0.270483 0.147287 -0.182639 -0.654564 -0.380810 -0.823956 1.316962 0.180639 0.222876 -0.230765 0.300949 -1.716567 -0.085601 -0.866388 -1.066637 -0.015043 -0.313405 -0.399123 -0.240987 1.273243 0.703993 0.923089 0.588390 0.951396 -0.281345 0.670211 1.136643 -0.491987 -0.061389 0.062628 -0.938127 -0.401381 0.005555 0.528395 -0.992546 1.158915 -0.090442 -0.189023 -1.610131 -0.678626 -0.298424 -0.354134 0.563842 1.693174 -0.926976 -0.630783 -1.074812 0.479941 -0.526341 -1.078387 0.232148 -0.376410 -0.662376 0.414145 -0.861522
AB218325.1.1438 0.325477 0.509988 0.645772 -0.019628 0.006203 -0.579135 -0.909289 -0.209403 0.134301 -0.487605 -0.607370 -0.482554 -0.443256 0.294390 -0.784642 0.150702 -0.176525 0.303945 -0.367665 -0.419148 0.033076 -0.128090 0.938226 -0.269253 -0.185894 0.049219 0.298762 0.353131 -0.274754 0.904292 0.280810 -0.432331 0.102100 0.143769 0.127264 0.135089 0.393666 -0.080552 -0.497284 0.138023 -0.272299 -0.403978 -0.153149 0.549225 -0.511448 -0.283743 0.203584 -0.105515 -0.265662 0.471742 -0.633182 0.204326 -0.568408 -0.929926 0.338052 -0.192401 0.173758 0.492231 0.065064 -0.214738 -0.692079 -0.298343 0.104231 0.299495 0.034474 -0.034163 0.023993 0.137367 -0.585592 0.575380 0.342765 -0.090956 0.283011 0.723843 0.455920 -0.367026 -0.264539 0.267245 0.158612 0.356763 0.560230 -0.488777 0.199984 0.729460 0.298231 0.107799 -0.490228 0.418094 0.665473 0.833121 -0.202629 0.378384 -0.347514 -0.427150 0.135812 -0.140857 -1.063727 -0.103501 -0.200894 -1.012442
AB218332.1.1445 1.015347 0.552603 -0.146904 -0.197619 0.314442 -1.066293 -0.894641 1.370890 1.478104 1.234185 1.872889 0.699898 0.543719 0.277791 -0.835130 0.695096 -0.655258 -0.102407 0.611583 1.198583 -0.666086 0.661495 -0.088076 -1.216142 -0.694645 0.388970 0.032273 -1.758504 -0.224141 1.232024 1.111236 0.658636 -1.077283 -0.653922 1.276591 0.058439 -0.007506 -0.318370 -0.288439 1.272621 -2.467346 -0.019639 -0.265771 1.339615 0.154296 -0.064890 0.816043 0.442741 -1.122547 0.426588 0.224275 0.731438 1.310488 -0.169861 1.611950 0.720117 0.132240 0.051838 1.133358 1.066526 -0.084178 0.677401 -0.521198 -1.383703 1.676526 -1.994354 -0.565633 -0.492735 -0.430114 -0.597367 -1.001945 -0.777461 -0.202978 2.541063 -0.647246 -0.290638 0.135488 -0.894548 1.138122 0.496529 -0.045972 0.614593 -0.576830 -1.287580 -0.761239 -1.801802 1.225778 -2.278802 1.341838 -0.798559 -0.673487 -1.599160 -0.662353 0.019431 -1.354044 1.852438 -0.025186 1.537083 0.412202 -0.436643
AB218338.1.1457 1.067493 0.627997 -1.007922 -1.695929 0.067674 -0.619712 1.582167 -0.500306 1.544328 0.457669 -1.552214 0.611962 -0.299286 1.648435 -0.274903 0.597768 -1.267357 -0.634599 1.361331 -0.293441 0.322968 -1.238948 0.566406 -0.819781 1.126554 -1.334517 1.196455 0.974160 -0.784076 2.231521 0.543458 -0.984718 -0.011735 0.294378 -0.203357 -0.754366 1.924326 -1.402582 1.678799 1.707028 -0.267173 0.553921 0.798797 -0.583214 -0.853860 -0.232579 0.488017 -0.845820 -1.606650 -1.171125 -0.085468 -0.401436 -0.750042 1.673288 0.844545 -0.882536 -0.076007 0.446101 1.535669 0.361860 0.846587 0.196616 1.618470 -2.071114 0.280826 -1.114582 -0.384833 0.114297 1.667205 -0.629575 1.607776 -1.034652 -0.113108 1.546517 0.378553 -0.981372 0.996116 -0.969215 0.877874 0.496834 -0.367916 0.396767 -0.454028 -0.107767 0.111203 0.728547 0.582699 -1.570260 -1.148391 1.013654 0.554624 -0.590832 0.005834 0.263711 0.080887 -0.424863 1.031606 0.019142 -0.033626 -0.869513
AB264066.1.1465 -1.150201 1.200394 0.315401 0.316406 -1.558099 -0.821307 1.375536 -0.838233 0.003364 0.291231 0.302226 -0.069469 0.869560 -0.897292 0.095003 0.873506 -0.088796 0.049775 -0.205928 -0.182308 -0.172167 -1.020944 0.629201 0.948806 0.190402 0.443258 -0.152944 0.703726 -0.324452 -0.417050 0.430110 -0.121710 -0.191117 -1.023751 -0.235898 -0.394417 1.468523 0.080143 -0.690068 -1.242714 -1.283096 0.680836 -0.720817 0.862126 -0.025429 0.230204 0.944139 -0.713837 0.630116 1.766800 0.114784 -0.367110 0.076443 -0.531445 -0.634810 -0.278208 0.532199 -0.751589 -0.379654 -0.815769 1.135016 0.303387 1.584776 1.583205 -0.123779 0.243148 0.134855 -0.086211 2.147478 0.141599 0.800937 0.102959 -1.178260 1.027312 -0.027585 -0.387236 0.876666 -0.664102 -0.265536 0.001659 0.735561 1.478540 0.504329 1.420617 0.008572 0.115284 -0.651453 0.576588 -0.310890 0.992523 0.219436 0.481502 1.876496 -0.077376 -0.475669 0.443605 1.642212 0.311444 1.725340 0.905876
AB264082.1.1445 -0.074323 -0.053729 -1.072828 -0.635378 -0.397746 0.159294 -0.350574 0.463051 0.126421 -0.306505 0.186159 0.480462 0.342935 -0.107579 -0.370719 -0.415601 -0.568117 -0.080293 -0.481899 -0.409795 -0.281131 0.486143 0.234794 0.307633 0.205361 0.211147 -0.897112 -0.775952 0.076673 0.548105 -0.280374 0.302519 -0.723198 0.114530 -0.052224 -0.846770 -0.273750 -0.023138 0.483287 0.104978 -0.465606 -0.185163 0.389496 -0.311258 0.438028 0.198218 0.240321 0.255360 0.834219 -0.207372 0.312224 0.199649 -0.264681 0.173757 -0.414410 0.899362 -0.135503 0.827562 0.029669 0.042712 -0.823769 0.023429 1.308872 0.845318 0.518344 -0.397298 0.686755 -0.150926 0.508873 0.154380 0.079199 -0.564112 -0.016142 0.163060 0.515486 0.121253 -0.198773 0.116836 -0.767199 0.174678 -0.039476 -0.117700 -0.435504 0.370340 -0.297309 -0.041626 0.614754 0.772910 0.499888 -0.016052 -0.100220 0.056018 -0.362288 -0.120746 0.022502 0.240802 -0.015851 0.957736 0.144284 -0.749054
AB272335.1.1200 2.818743 0.457310 1.150421 0.349076 0.476493 1.826468 0.771469 -0.975102 -0.470678 0.419986 -0.677761 -0.998765 -0.602572 -0.562834 -0.871547 1.498240 0.617408 0.845557 0.140806 -0.009398 -0.454038 0.399305 -0.974023 -1.334843 0.797101 0.691180 1.165378 -0.277757 0.020079 0.403946 -1.715744 0.731533 0.638963 -1.568596 0.091133 -0.679250 1.341738 0.136287 -0.379811 2.213026 -0.872936 1.683687 -0.191480 -0.093776 0.020244 1.324511 0.188979 -2.201570 -0.626430 -0.443994 0.953774 0.942377 0.544473 -1.282205 -0.137181 0.182888 -1.551179 -0.331239 0.431187 -0.997023 1.118615 -0.913200 0.692730 0.125966 0.968389 0.117279 0.474857 0.911312 0.655374 0.657884 0.039665 1.839454 -1.012170 1.058928 -0.855572 1.089734 -0.210284 -0.802065 0.712447 -0.675223 -0.284218 -1.669423 0.779742 -0.720720 -2.118250 0.421218 -1.549919 -0.928217 -0.465554 -0.961692 -1.026179 0.778665 -0.136232 -0.205734 -1.297815 1.597540 -0.224216 0.209508 0.156906 -1.014334
AB272364.1.1268 0.658210 0.691682 0.330688 0.963183 -0.124798 -0.752604 0.431506 -1.048210 0.815278 -0.265254 0.701920 0.004564 0.224940 0.869368 -0.315259 0.572782 0.130038 -0.327438 0.739422 0.277948 -0.490806 -0.276683 0.999793 -0.069981 0.135692 -0.226228 0.059969 -0.060154 0.048386 -0.575608 -0.377080 -0.146282 0.439752 -0.037858 0.740359 -0.879587 0.796784 0.320188 0.024209 0.056644 -0.512174 0.323643 0.385475 -0.306268 0.556062 0.460487 0.043961 -0.164712 -1.062154 -0.442477 0.169618 -0.238444 -0.219602 0.160401 0.039317 0.167211 0.020965 -0.509569 0.524531 0.252957 -0.323771 0.071306 1.108355 -0.522794 0.280230 -0.376094 -0.284216 0.771159 0.075618 -0.324510 -0.356499 0.515209 -0.004813 -0.577633 -0.358824 -0.115978 -0.112272 0.533827 0.148674 0.251168 0.742085 0.377854 -0.548658 -0.128545 0.232663 0.611433 0.061020 0.207296 1.080159 -0.375126 0.383154 -0.357361 0.192218 0.225205 -0.371995 0.023295 -0.544961 0.079753 0.002185 0.374847
AB300988.1.1342 -1.528649 -1.426578 -0.342923 0.436365 0.636640 0.541505 -0.286830 -0.733689 0.702537 -0.779973 -1.414418 -0.261707 -2.011923 -1.111299 -0.091665 0.508028 -0.332020 -0.342788 1.125502 0.061573 -1.669513 -1.420968 1.033295 0.433517 0.905233 1.120538 0.433958 -1.233717 -0.242734 0.404370 0.608039 0.431349 -0.130163 0.065759 -1.304970 -2.623351 -0.049776 -1.057027 -0.558381 -0.801772 -1.233292 0.092958 -0.587805 0.306897 -2.017676 0.470157 -1.183524 0.732857 -0.419252 -1.562868 0.791459 1.434511 0.452329 0.917030 1.301728 0.250453 -0.848963 -0.814080 0.097087 -0.792260 -0.676301 -0.784408 -0.030437 -0.199592 -0.233917 -0.288447 0.328350 -1.690876 0.312056 -0.801371 1.158041 -0.731996 1.791359 -0.647068 -2.453951 -1.392277 -0.368738 -1.648146 0.519857 -0.710744 0.638297 1.200380 -0.249575 0.027518 1.042915 0.730534 -1.745910 -1.405843 -0.141313 -0.633873 0.448942 0.527567 0.326716 -0.666923 -1.746491 -0.742566 -0.300471 1.557853 -1.357779 -1.039796
AB331897.1.1481 0.676613 0.258934 0.175382 0.571058 0.989926 -0.209626 0.351838 0.000510 0.893174 -0.108355 0.752696 1.332380 0.512175 1.541194 -0.744029 -0.329803 -1.306207 1.983934 0.104754 -1.634588 -0.673498 -0.106835 -0.991029 -0.941645 -0.125622 -1.077490 0.271706 -0.499200 -0.499207 -0.176049 0.752770 -0.007461 0.228553 0.915159 -1.440219 -1.463064 1.332192 -0.705551 0.539344 0.024981 -1.126157 -1.056315 0.400249 0.597077 -0.434416 0.926161 1.502354 0.018906 -0.447942 0.149389 0.967742 0.062892 -1.217693 -0.820370 -0.010717 -0.236196 -0.092253 -0.122824 -0.224932 -0.650589 -0.378795 -0.630627 -0.531717 -0.374488 0.673035 -0.888321 -0.775475 1.347061 -0.046295 -0.624963 1.765361 -0.013092 0.565766 0.596918 -1.026990 0.081114 -0.627515 0.445669 0.173412 0.354516 1.271704 -1.690937 -0.776248 0.336519 -0.215786 -0.372494 -0.211425 -1.440132 2.245248 -1.349115 0.502886 -1.275791 0.993778 0.485976 -0.029230 -0.157508 1.062694 -1.678670 -0.468797 0.066518
AB365975.1.1498 -1.230939 0.142468 -0.053471 0.234383 0.900805 0.794021 0.288543 -0.469346 0.080142 -0.918360 0.439971 -0.141856 0.025916 -0.822252 -0.611683 -0.171366 -0.721320 -0.702593 -0.336361 -0.430730 0.800166 0.084256 0.769667 -0.385307 -0.630275 0.238280 0.603750 0.085807 -0.017676 0.159176 -0.180487 -0.179262 0.214616 -0.546581 0.015764 -0.438056 0.359006 0.624253 -0.259725 0.106429 -0.492258 1.040291 0.445317 0.243966 0.061821 0.435181 0.002857 0.251438 -0.545867 -1.074649 0.076185 -0.491463 -0.278494 -0.397982 0.312967 -0.384874 -0.108243 0.549208 0.494531 0.470724 -0.025061 0.011476 -0.616213 -1.020089 -0.456848 -0.030617 0.307920 0.663073 0.267014 0.716016 -0.105157 -0.322790 -0.050892 -0.865401 0.056913 0.242407 -0.080194 0.276448 0.275587 -0.264390 -0.272738 -0.068296 0.065107 0.011003 0.308861 -0.519991 -0.682302 -0.029694 0.811919 -0.437065 0.737114 -0.216080 0.592575 -0.236908 0.437988 -0.282129 0.097401 -0.185711 -0.419002 0.408691
AB443949.1.1486 0.773591 0.055597 1.638341 -0.506994 -0.019111 -0.605705 -1.359129 -0.155813 0.523104 -0.012679 -0.274949 -0.137462 0.492975 0.630950 -0.541694 0.234736 0.744300 0.386162 0.186452 -0.878102 -0.375088 0.005936 -0.725534 -0.251317 0.010361 0.533399 0.522961 0.607598 0.524389 0.759018 0.490169 0.001769 0.570262 0.983651 1.367096 0.669585 -0.233918 0.822450 -0.443665 -0.552306 -0.621786 -0.484777 0.899161 1.193683 0.843341 0.198696 1.499143 -0.026445 0.311444 1.179742 -0.736089 0.080957 -1.472667 0.958617 0.229701 -0.135964 -0.146448 0.262136 -0.138637 0.481653 0.412005 -0.923950 0.534247 0.579854 -0.072541 1.477737 -1.858882 -0.340133 -0.227754 -1.467569 -0.092152 -0.947964 0.480293 1.529620 -0.588582 -0.291275 0.384720 0.448657 0.833594 1.350012 -0.499409 -0.682401 0.158789 -0.074202 0.382587 1.270276 0.425465 -0.687327 -0.756328 0.123628 -1.556592 -0.659435 0.928866 0.870523 -0.973118 0.170497 0.088946 -0.334485 0.538244 0.594892
AB470343.1.1485 0.438649 -0.083900 0.659248 -1.198638 -1.322545 -1.066568 0.073096 0.271803 0.021977 -0.228246 0.343270 -0.656301 0.326116 0.841571 0.927740 0.683249 -0.460672 0.249139 -0.586716 0.122553 -1.224374 -0.396866 -0.357565 0.207893 0.622253 -0.249719 0.201304 -0.401101 -0.502131 -0.809792 -0.065537 -0.029300 0.198337 -0.495747 0.818319 -1.291441 1.248082 0.375314 0.812813 1.018880 0.707509 0.262008 -0.208324 -1.989182 -0.418704 -0.080270 0.867955 0.490783 -0.437525 -0.001529 -0.180530 1.252122 -0.464716 -0.860939 1.114722 -0.160473 -0.706948 0.589887 0.495816 0.413474 -0.064502 0.231646 0.202536 0.074314 -0.287965 0.855800 -2.124512 1.243172 0.621858 0.219212 -0.168181 -0.071673 -0.422988 0.149915 -0.203095 0.152618 -0.313997 0.341808 1.022097 -0.018447 -0.930387 -0.215695 0.271416 -1.152117 -0.754809 -0.762979 -0.388336 0.153170 -1.144567 -0.774994 -0.023566 -0.592171 0.608586 -0.361237 0.240421 -0.545520 -0.427107 -0.012827 0.825679 0.211999
AB480534.1.1481 0.727752 0.571826 0.682697 0.007361 0.243126 -0.272928 0.741971 -1.394880 0.788680 -0.551395 -0.687721 -0.371889 -0.571713 1.795886 1.152896 -0.025932 0.254353 -0.194087 -0.734443 -0.651801 0.223967 0.815709 -0.610757 0.988709 -0.684787 0.182540 1.587937 -0.742526 0.336664 -0.908089 1.871609 -0.741317 -0.456381 -0.828249 0.560118 -1.136997 1.363314 -0.612731 0.327520 -0.118214 -1.078838 -0.537086 1.247560 -0.934715 -0.788017 1.147233 -0.179654 -0.720796 -1.655906 -0.064866 1.625842 0.709404 -0.077765 0.243161 1.241257 0.179693 -0.901480 -0.904058 0.024616 -0.896117 0.842102 0.186269 -0.255743 -0.145463 0.191816 0.306385 0.785374 1.639680 1.957105 -1.285377 1.252280 1.277315 -0.114278 -0.464626 0.353186 -0.465316 -2.127656 0.554166 -1.466491 -0.750204 1.221799 -0.668928 -1.167425 0.032064 0.632254 0.845933 -0.081276 -0.626116 -0.382784 0.631032 -0.093675 0.032534 2.251204 0.266599 1.410958 0.429644 1.460967 -0.865086 0.949801 -0.140563
AB490809.1.1497 0.165593 0.398077 -0.291478 -0.468229 0.304669 -0.154783 -0.211194 -0.525983 0.122098 0.258607 -0.378830 0.016464 -0.502349 0.349294 -0.081399 -0.431888 0.336186 -0.525598 -0.478519 -0.143753 -0.646461 -0.395089 -0.847538 -0.155409 0.074647 0.013761 0.203532 0.556067 -0.375545 0.685095 -0.593439 -0.775756 -0.156824 -0.150080 0.348861 -0.238609 -0.134804 -0.088195 -0.000665 0.238984 -0.071101 -0.641373 -0.205972 0.005840 0.151773 -0.183251 0.104462 0.469598 0.300667 0.261492 0.129120 -0.227691 -0.016065 -0.394347 -0.250482 -0.728161 0.273072 0.612130 -0.103460 0.335364 -0.122774 -0.325326 0.810269 -0.048410 -0.054332 -1.030242 0.058692 0.361419 0.922514 0.135220 0.781311 0.074284 0.117175 0.874707 0.492916 -0.342248 -0.552395 0.291982 -0.145378 -0.141379 0.090051 0.690400 0.375898 -0.482640 -0.293829 0.272990 0.316497 0.485031 0.162777 -0.099113 0.565213 0.466262 0.056274 0.115875 -0.010499 0.123905 0.119449 0.210823 -0.142188 -1.210135
AB491210.1.1485 -0.340632 -1.373610 -0.846973 -2.171618 -0.940052 0.127414 0.677680 -0.152407 -0.597056 -0.071795 0.594678 0.797735 -1.689809 0.588503 0.937802 -0.066250 0.611594 -0.577903 0.594263 -0.040900 -0.917143 0.803849 2.275262 0.808315 -0.919867 0.390875 -0.838739 0.340737 0.263539 0.727857 -0.123300 0.199645 -0.079292 -0.820423 -0.820596 -1.230161 1.772368 0.949334 1.725166 1.012635 0.070931 1.109017 1.407173 0.780730 -0.742593 -0.784068 -1.377722 -1.531340 -2.329661 0.223266 -0.348196 -0.225744 -0.000187 -0.814254 1.226820 -0.549511 0.879825 -0.999940 0.600746 0.159886 0.580700 -1.176863 0.666761 -1.133620 0.771173 0.851461 0.036303 -0.277953 1.182875 0.777327 0.370224 -0.201003 -0.014100 2.357696 -0.440901 0.589966 0.355984 0.887941 0.257216 -0.325174 -0.030188 -1.450816 1.455978 -0.957554 0.384953 1.812614 0.860508 -0.126085 1.799678 -0.519957 1.817482 1.088997 1.009959 -0.232134 -0.846738 -1.533067 0.941540 0.056593 1.186828 0.682623
AB505075.1.1496 -0.032151 0.749888 -1.109094 0.870796 0.110465 -0.697051 -1.133490 -1.530245 -0.698978 0.434146 1.298043 0.698949 -0.062845 0.659302 0.067181 0.002249 -0.024714 -0.044324 0.292589 0.059951 -0.715685 -1.396617 -0.487895 0.218585 0.410506 0.657609 1.145762 0.607511 -0.648499 0.550828 -0.815597 -0.046459 -0.115117 -0.684530 -0.590553 -0.538038 0.174833 0.423771 -0.921201 -0.794742 0.714770 -0.115808 -0.572381 0.430599 0.201821 -0.030919 0.384230 -0.286652 0.461892 0.309421 -0.849134 0.201864 -0.052744 0.287699 1.228067 -0.584626 0.070274 0.656768 -1.269619 -1.777997 0.121278 -0.921311 1.215552 0.885548 -0.313189 0.201590 0.015175 1.033827 0.532739 -0.805062 0.336911 -0.235268 0.699728 0.373496 0.374536 0.280572 -0.492751 -0.391378 0.225581 1.214200 0.162444 -0.823167 -0.139331 -1.064582 1.487237 -0.945425 -0.985469 0.023236 -0.181162 -0.704745 -0.999155 0.430582 1.243353 -0.870401 1.915385 -0.716062 -1.556953 0.125096 0.209023 0.153358
AB506166.1.1495 -0.458632 0.026378 0.375631 -0.706503 -1.009656 0.303096 -0.193379 0.172763 0.539727 0.252279 -0.270917 0.259318 0.914281 -0.417384 0.704029 0.423732 -1.216695 -0.466599 0.024471 -1.223473 -0.358000 -0.821488 0.178929 -0.861567 0.385002 -0.319865 0.431865 -1.237221 -0.824338 0.255039 0.184906 -0.008033 -0.470437 0.276544 0.208130 -0.204076 0.425795 0.088679 0.391431 -0.034601 -0.811028 0.384388 0.397825 0.323853 0.842889 -0.512249 0.755253 0.129208 -0.652363 -0.519790 0.722728 0.320018 -0.145071 -0.657385 -0.247469 1.280146 -0.293233 -0.091275 0.406784 0.867761 -1.052312 -0.146206 0.604216 -0.675018 0.431234 -0.593554 0.946832 -0.453236 -0.348872 0.330660 0.241809 -0.593312 0.388559 -0.507064 1.077921 -0.480141 1.123558 -0.043993 -0.269421 0.267692 -0.111043 0.255631 -0.720683 -0.340538 0.033197 0.082748 -0.852313 -0.255646 0.317882 -1.370475 0.078651 -0.187406 -0.344937 0.263230 0.108673 -0.526992 0.844741 1.245257 -0.684086 0.458785
AB506185.1.1506 0.004760 0.059682 -0.140684 -0.363815 -0.469672 -0.616680 0.072535 -0.197850 -0.527558 -0.569555 -0.785520 0.204405 -0.563089 0.005974 -0.503636 -0.128080 0.084996 0.075770 0.274614 -0.017000 0.275400 0.209163 0.738199 0.965115 -1.156121 -0.319292 0.366182 -0.623732 0.510891 0.652733 -0.639873 -0.208124 0.433473 -0.436867 0.838941 -0.668955 0.521368 0.071546 0.607242 0.216947 0.321008 -0.126593 -0.035928 0.444341 0.997467 -0.147105 0.474555 0.297972 -0.442578 0.844204 0.912963 0.485751 0.898090 -0.915800 0.070136 -0.086012 -0.463563 0.986600 -1.121373 0.357254 -0.509269 0.250501 1.175207 0.236596 -0.486204 -0.278296 0.085915 0.038036 1.020206 -0.390808 0.121147 -0.542501 -0.831271 0.542898 0.592534 -0.371001 -0.246738 -0.286521 -0.245969 0.722837 -0.485936 0.446294 -0.647397 -0.272878 -0.045759 0.517387 0.669876 0.350194 -0.597871 0.094790 -0.006199 0.374396 -0.113082 0.345244 -1.364767 0.614364 0.037440 -1.264087 -0.509505 0.234897
AB506188.1.1515 -0.101547 -0.231329 -0.437837 0.063124 0.519468 0.218930 0.547704 -1.222348 1.093079 -0.481582 0.189780 -1.703843 -0.644086 0.164287 0.323911 1.117957 -0.962620 0.554300 -1.081427 -0.348306 -2.271927 0.195227 -0.180488 -1.648871 -0.366118 -1.702620 1.009351 0.379730 -0.590425 0.276369 -0.095775 -0.033804 -0.221570 -0.326686 -0.450242 -0.325166 0.892075 1.209998 -0.609929 0.795735 -0.706497 -1.784226 0.764495 0.532800 -0.274228 1.071166 -0.695226 1.046794 -0.392248 1.095982 -1.119852 1.015811 -0.469194 -0.634697 1.428101 -0.144354 0.354700 0.310077 1.129344 -0.747676 0.521236 -1.204001 1.198805 0.739562 -0.643597 -0.369581 1.263846 0.366716 -0.390908 -1.249318 0.968232 -0.247774 0.519257 0.464787 0.200847 -0.628301 0.533557 -1.481715 0.368590 -0.313699 1.502349 -0.481289 0.621629 0.480353 0.484322 1.721961 0.300244 -0.456918 -0.085568 -0.014363 -1.873030 -0.763113 -0.350834 -0.623112 -0.232542 -0.032700 -0.713044 0.286014 -0.682836 0.378661
AB506199.1.1508 0.583890 -0.867450 0.333966 -0.698843 0.014972 -0.105179 -0.724580 0.344231 -0.434433 -0.547947 0.226412 -1.362141 0.102263 -0.176175 0.012753 0.495952 -1.511656 0.438917 -0.127860 0.751360 -0.617406 0.505256 -0.762233 -0.013570 0.608491 -0.331084 0.602627 -0.468979 -0.418563 -0.169065 0.307215 -0.866641 0.452210 -0.397177 0.101794 -0.730150 0.672698 0.657289 -1.007301 1.100469 1.132120 0.674261 0.302361 0.071615 0.215779 -1.377602 -0.334300 -0.618042 -1.065009 0.081987 -0.866550 0.295689 0.239478 0.643270 -1.443458 0.038988 0.254438 0.286935 -0.663779 -1.198985 0.358150 0.492090 0.185543 -0.614018 -0.307196 -0.000519 0.544530 -0.352690 -0.255115 0.228500 -0.413284 -0.933745 -0.258364 -0.518298 -0.613598 -0.736529 -0.532023 1.206913 0.289629 0.732833 -0.609984 -0.169135 -0.536603 0.103075 -0.437832 -0.626232 -0.045751 -0.102756 0.520364 -1.721956 0.892273 -0.802914 0.193416 0.137899 0.476921 1.610772 -0.233765 0.150591 -1.224743 0.618551
AB506227.1.1518 0.495668 0.372500 -0.960973 0.613280 -1.390272 -0.466477 0.913080 -0.728376 1.943749 -1.232174 -1.406980 0.419922 0.586154 0.137508 0.083580 -0.153915 -0.710173 -0.700415 -0.583155 -0.781986 0.318679 1.112098 0.509107 -0.975020 0.157787 0.865840 -0.263790 1.420402 0.149530 0.111889 -0.743275 0.816635 -2.411896 -0.426310 0.496006 -0.962762 0.765575 1.591364 -1.101087 0.495506 -1.768757 -0.366446 0.257006 -0.889207 0.678009 0.778071 -0.259550 -0.842754 -1.279337 -0.972807 -0.562980 -0.343389 -0.355411 1.134348 -1.385602 -0.304803 0.837878 -1.965081 0.247941 0.773921 0.075079 -0.517680 -0.664292 1.144804 -0.043997 0.318492 -0.210533 -0.200290 0.971956 -2.074315 -1.993981 -0.827488 1.471056 0.353954 1.265891 1.228765 0.216272 -0.603805 -0.242779 1.430089 0.369614 1.159762 1.013400 -0.578647 -0.071097 0.248042 -0.776604 -0.299966 0.203814 0.469984 0.442116 -1.076794 0.709995 0.414340 -0.991618 -1.049204 -0.279797 -0.316071 -0.637119 -1.111039
AB506279.1.1563 1.040837 0.232277 -0.663352 -0.293256 0.692660 0.301977 0.275894 -0.955973 -0.487705 2.247539 1.098143 -0.090573 -0.055779 1.319373 0.407378 -1.334065 -0.735652 1.226986 0.888906 0.457324 -0.267425 0.776197 1.344275 -1.225977 0.805880 0.703742 0.617784 0.353805 -0.098101 0.067912 0.693680 -0.910241 -1.684382 -0.430341 0.481744 -0.743219 0.923459 0.936689 -0.135285 -0.601678 0.759902 0.525405 -0.077917 0.601065 1.052891 -1.510685 -0.315825 -0.381047 0.352927 0.191938 -0.310197 -0.223432 -1.277246 1.687389 2.267132 0.643601 -0.115762 -0.839143 -0.417633 -0.638203 0.945982 -0.060611 -0.088037 0.043841 -0.975765 0.201627 -0.638000 0.261177 -0.085250 -0.359668 0.310151 0.499777 0.406155 0.960073 0.034164 -0.146978 -0.179472 -1.148805 -0.802876 -0.803785 0.774591 -1.171443 -0.131570 -0.629039 0.710833 -0.934473 0.071933 0.539893 0.586151 0.247489 -0.905663 1.204645 -0.252474 0.714710 -0.524433 -0.314900 -0.131418 -0.276818 0.811904 -1.526670
AB506382.1.1509 0.588469 1.860281 0.224631 1.803992 -2.328621 -0.853115 0.829215 -0.272494 2.018730 -0.501589 -1.594893 -0.290823 0.729826 -0.437606 0.801639 1.455272 -1.005653 -0.232795 0.606110 -0.601401 -2.934441 -0.172393 -0.619882 -0.470056 0.611062 1.517860 -1.352138 -1.292204 0.328048 -0.449750 -0.488187 -0.865063 -1.262627 0.645785 0.621059 -0.413465 -0.443789 -0.982211 0.176725 -0.135198 0.645160 -2.116921 -0.150610 -0.054355 1.293833 -0.997418 1.536057 0.407559 0.545837 0.563342 0.546034 -0.074290 0.272729 -0.683710 0.228194 0.411810 -0.832906 -1.553275 0.567133 0.077935 -0.006361 -0.122210 0.071735 0.758413 -1.849607 -0.350482 1.982198 -0.838293 -0.054188 -0.656698 0.547436 -1.002166 -1.328480 -0.816359 0.812586 1.486639 -0.293580 -0.066585 -1.216545 2.275324 0.258150 1.847960 -1.035504 -1.825944 -0.384987 -0.068121 -2.638416 -0.280210 -0.379835 -0.751817 -1.774609 -0.663552 0.951201 0.008898 -1.581062 0.323551 -0.643020 1.437289 -0.487969 1.470360
AB506413.1.1616 0.081361 -0.298733 0.213580 0.139214 -0.219008 1.304805 0.053251 -0.800559 2.516649 0.373675 -0.446708 -0.096478 0.683299 0.570509 -0.915405 1.188429 -1.576155 -1.626324 -0.095960 0.458532 -0.162920 1.115044 -2.147511 -0.264498 -0.917746 -0.093186 0.983276 0.754203 0.285864 0.096586 0.975421 0.176759 0.078208 -0.509023 -0.162174 0.309214 0.363179 1.998638 -0.999160 -0.832388 0.323796 0.480335 -0.062813 0.434369 1.067073 -0.640380 0.552847 1.141064 0.055086 0.329056 -0.028591 0.802637 1.425045 0.779082 0.436025 -0.166170 -2.221934 -1.057161 -0.456944 0.131532 -0.782561 1.515772 0.746766 1.083626 -1.998708 -0.418452 1.269565 -0.112255 1.391257 -1.326839 -0.732024 1.564955 -0.056709 1.424912 0.465203 -1.770156 -0.080360 0.345400 -0.267832 -0.179844 0.593163 0.952936 -0.731212 -2.028659 -0.269338 -1.574999 -0.523695 -0.076788 -0.586678 -0.526227 0.170431 -0.535070 -0.148692 -0.129844 -1.465232 -0.582569 -1.364899 -1.526273 -0.809413 -1.459236
AB512047.1.1509 0.028796 -1.379078 -1.005878 0.290824 -0.591432 1.277003 0.416864 0.372124 0.943337 0.849508 -1.003130 0.361572 -1.739551 1.462125 -0.108451 1.400880 -1.407680 -0.751816 2.159434 0.015250 -0.075694 0.596434 1.436189 -1.441552 -1.297173 0.548248 -0.106018 1.223708 1.470312 -0.899938 1.071230 -0.648022 -1.688386 -0.645395 1.085547 -2.496295 2.343480 1.176354 0.305548 1.940651 -0.621935 0.042514 0.690165 0.487052 -0.618181 -0.781476 1.022732 0.929329 -0.581368 0.129586 0.890316 1.013031 -0.407559 -0.009434 0.854435 -1.236358 -0.058414 0.877494 -0.277585 -1.090926 -0.219777 0.909194 0.671791 0.847900 0.517864 -1.804305 0.140585 0.383309 -0.829473 -0.022451 0.002865 -2.014530 -0.707088 0.839236 0.330710 -1.988078 0.695063 0.403378 1.380763 0.252469 -0.607771 -0.119587 0.747369 -0.936581 -2.439156 1.204325 0.430162 1.742382 1.160858 -0.733965 -0.715827 -0.243890 -2.192284 -0.798790 -0.943634 0.421669 0.389503 -0.367785 -0.237397 -1.148312
AB525415.1.1503 0.227237 -0.751032 -0.556799 0.930022 -1.265153 0.646157 0.467083 -0.140665 2.267477 0.526131 1.708334 -0.624317 -0.039848 1.812465 0.412115 0.854502 1.746737 -0.693420 -0.534869 0.606871 -0.063777 0.602453 0.289555 -0.964732 -1.291617 1.289471 -0.339910 -1.416680 -1.414574 -0.027290 2.405812 -0.194226 -1.633012 1.798176 0.155259 -1.227578 -0.632200 -0.456546 -0.133968 -0.245662 0.205898 1.681008 0.599293 -0.540422 0.215059 0.501116 0.751505 -0.928134 -3.201890 -0.641740 0.847266 0.080644 -0.564347 -0.906300 2.540387 0.471754 -0.959115 -1.617009 0.152253 0.696537 -1.278746 0.058704 -1.481543 1.090329 -1.764288 0.897233 -0.462109 0.011295 -0.352545 1.441845 -0.414373 -2.075795 2.150165 -1.081361 -1.049312 -0.439025 -1.086510 0.615658 -1.623175 0.270711 0.894477 -0.123539 -0.057170 -0.305720 0.762530 0.477858 -0.193340 -0.080753 -0.075698 1.343855 0.516053 0.037257 1.209383 0.345738 -0.799577 -0.189879 1.281176 -1.653696 -0.797812 -0.348338
AB538433.1.1488 0.141583 -0.117673 0.673467 -0.122954 0.160622 0.888168 0.650332 -0.436368 1.163069 -1.336540 -0.967454 0.480056 -1.935261 0.898147 0.489919 -0.831770 -0.170155 -0.489922 0.302193 0.311182 -0.809451 0.281078 -0.984246 -0.161091 -0.198602 0.682346 -0.003750 -0.235089 0.465429 -0.611259 -0.558509 -0.670703 -0.343193 2.116401 0.592600 -0.456715 1.732038 0.034624 -0.210341 -0.650580 -1.069031 -0.977840 -0.910702 -0.753269 -0.040124 -0.732227 1.208592 0.267718 0.832473 0.801508 -0.173284 0.210445 -1.203952 0.826294 1.102699 -0.709586 0.501351 -0.966635 1.699289 -0.546424 0.195440 0.142785 0.818248 -1.219851 -0.543976 0.059893 -0.373550 -0.284945 0.730892 -0.258059 -0.003065 0.536541 -0.617985 -0.338671 0.269121 -0.477934 -0.627977 -1.170232 0.687978 0.312823 0.101702 -0.711544 -0.804591 0.599830 -0.102325 0.938036 1.084504 -0.203085 0.354565 -0.046346 -0.710760 0.556621 0.926649 0.313168 0.305813 0.164326 -1.334868 1.774484 1.241913 0.575572
AB547670.1.1491 -0.725296 -0.794068 -0.649249 0.343210 -0.359372 0.321848 0.095336 -0.032870 0.313889 -1.535171 -0.120448 -1.514135 -1.291757 0.809800 0.698362 0.634837 0.719200 -0.969702 0.860941 0.894588 -0.324356 0.666638 0.307525 0.388644 -0.519603 -0.783004 -0.952406 0.937696 1.695170 0.171441 -0.449069 0.362407 0.073902 -0.192542 1.505156 0.691766 1.096477 -0.704355 0.870826 0.425698 1.160431 0.476418 0.320665 -1.349871 1.005297 -0.112973 -1.022824 0.252138 -0.501349 -0.945368 0.142161 -0.070552 -0.725561 0.872773 0.811760 -0.766548 -0.324583 1.225150 -0.787789 -0.034355 -0.140213 -0.225870 0.129182 -1.199137 0.082607 0.633967 -0.572064 -0.194587 -0.531536 -0.135778 -0.621433 1.112032 -0.713822 0.017189 0.107255 0.672310 -1.100815 -1.018314 0.583207 -0.287422 1.299962 -0.163622 0.463949 -1.188084 -0.242214 0.118706 0.264025 -0.642476 0.237755 1.470622 -0.252890 -1.453243 0.168733 0.075379 -1.828842 -0.407297 -0.241041 0.039238 -0.061572 1.363408
AB547676.1.1493 1.317927 0.203072 0.158734 -1.505172 -1.746526 0.962496 -0.312827 -0.211184 0.247533 -0.265120 0.420353 -0.528987 1.062915 0.242330 0.197235 0.429391 -1.287741 -1.248510 -1.459596 -0.589723 -0.937173 -0.661849 1.041587 -0.327230 0.941501 -1.664874 -0.722283 -0.732955 0.295195 -0.120392 -0.612391 -0.604532 0.193715 -0.459811 0.824663 -1.057387 1.618414 -0.839516 0.554716 1.531241 -0.408066 -0.905692 1.581471 -0.587058 0.239402 1.333145 -0.464766 -1.010557 -0.043064 -0.562706 -0.502620 -1.325605 -0.301896 -0.038878 -0.931251 -1.130431 -0.576691 -0.661780 -1.029650 0.635814 0.893853 -1.278621 0.748171 -0.174451 -1.631044 1.588168 -0.252808 -0.437633 1.095512 -0.053924 -0.766851 1.254990 0.056898 -0.922562 -1.011514 -0.325437 -0.733689 -0.708474 -0.047577 0.797551 0.019633 0.263421 -0.104289 0.097428 0.281249 -0.129318 -1.869639 -0.104168 0.098513 0.547943 -0.354311 0.203405 1.214120 1.560245 -0.103809 1.091531 0.128233 -0.036931 -1.597652 0.193750
AB547696.1.1280 0.765011 1.116723 0.118067 0.256830 -2.104769 -0.761710 1.916713 0.235653 1.685734 -0.089940 -0.055561 0.675431 0.300828 0.147795 0.144057 -0.503427 -0.246023 0.959121 0.465091 -0.769131 0.396552 0.369574 1.759531 1.040865 0.167514 -0.908152 1.981361 -0.583872 0.421754 1.633401 -0.057059 1.172080 -0.689881 -0.383122 0.872279 0.758109 1.660360 -1.036700 1.814647 0.784145 -1.184805 0.853297 0.508928 -0.400028 0.436609 1.885299 -0.380950 -1.779050 0.093036 -0.421861 -0.099906 0.044551 -1.242845 0.197747 -0.335531 -1.063871 -0.216009 0.729503 -0.892764 0.472719 0.836601 -0.239648 0.356721 -0.419455 -1.320207 -0.102941 0.216435 -1.144952 -0.353259 0.322174 1.212681 -0.149148 -0.463236 -0.468385 -0.228260 -0.087648 0.586720 0.011622 1.845796 -1.046121 0.884135 1.082657 -1.031897 -0.348890 1.058297 0.038887 -0.161708 -1.573553 1.487564 -0.144675 -2.236738 -0.604034 0.356857 0.363803 -0.559219 1.829266 -0.710864 0.051940 -0.341080 0.319367
AB548674.1.1491 -1.124356 -0.039480 -0.676236 0.304844 -0.419861 0.032348 1.261603 0.155481 0.493796 -0.658036 -0.254593 0.752846 0.984791 -1.039735 -0.121843 1.089831 0.193305 0.500542 -0.292904 0.087439 -0.641702 -0.428343 -0.114520 0.885445 -0.051565 0.132582 0.669792 0.584951 1.294626 -0.352333 0.138776 0.244897 0.773621 0.644180 -0.115217 -1.045154 0.856407 0.588476 -0.878317 -0.890302 -0.978057 1.048540 -0.206435 -0.039574 0.238885 0.145976 -0.919948 0.399272 -0.226672 0.231574 0.021628 -0.750107 0.878892 -0.306160 0.496681 0.858815 -0.436375 1.538768 0.535697 0.137871 1.191209 1.567454 -1.029849 0.261990 -0.363201 1.445119 0.393417 -0.114031 -0.925197 0.466561 -0.204269 0.340864 0.116946 0.655514 -1.060354 0.326675 1.152876 0.391276 0.635502 1.023348 -0.530060 0.433203 0.279517 0.639230 0.731239 0.292641 -0.186125 -0.536006 0.325046 0.397478 -0.701195 -0.169631 0.640571 0.444785 0.012593 0.047236 0.790886 0.966287 0.172094 0.958545
AB558171.1.1473 0.312430 -0.463077 -0.295622 -0.311074 0.268707 0.895916 -0.427149 -0.792363 0.795485 -0.285912 0.743963 -1.029358 -0.360743 0.903927 0.371729 -0.941957 -0.199438 -1.430325 0.221936 0.321226 0.077978 0.822733 1.048867 -0.223869 -0.260144 -0.061947 0.148516 -0.819261 0.729508 -0.039754 -0.005161 -0.721377 -0.900409 -0.655154 0.529500 -0.123663 0.220778 0.118542 -0.227316 -0.048367 0.031727 1.018838 0.784072 0.992220 -0.855842 -0.239214 0.112783 -0.508242 -0.544705 -0.662514 0.313119 1.341152 0.340398 0.744944 -0.860919 -1.315682 -0.586754 0.283515 0.077076 -0.153798 -0.221054 1.081426 -0.180051 0.018030 0.077724 0.070641 0.243746 -0.184101 -0.860890 -0.057074 1.233899 -0.394310 -0.211701 0.711953 0.290945 -0.475900 0.394209 1.175705 0.406051 -0.233891 1.307983 -0.229344 0.395122 -0.234554 0.246791 -1.342374 -0.531218 -0.583108 0.160488 0.678583 0.483111 0.054442 0.897154 -0.255701 -1.129381 -1.342802 -0.369391 -0.097664 1.140350 0.459343
AB558487.1.1504 -0.292106 -0.076015 0.339166 -0.565348 -0.273657 0.212291 -0.117847 -0.166455 -0.378665 0.733885 1.110856 -0.768348 -0.337928 0.790953 0.615340 -0.011259 -0.477957 -0.299864 -0.238044 0.295007 -1.322484 0.052419 0.173266 -0.174250 0.627537 0.448978 0.474203 -0.060651 0.047328 0.475818 -0.452878 0.437673 -0.102012 0.196494 -0.588907 0.339326 -0.023382 0.030314 0.513031 0.339492 1.107814 0.329317 -0.046841 -0.079158 -0.152379 -0.261752 -0.374269 0.590516 0.103633 -0.493928 -0.393632 -0.074114 -1.649485 -0.592724 0.318376 0.501822 -0.204647 -0.667736 -0.491671 -0.125649 -0.488649 -0.744793 1.353235 -0.160010 0.512967 -0.797587 -0.471297 -0.102021 0.458923 -0.614072 -0.158198 -0.853575 0.104336 -0.218214 -0.505864 0.046838 -0.004807 0.036681 -0.247685 -0.154931 0.099347 -0.711293 0.302258 -0.244381 -0.138727 -0.296178 -0.082256 0.053638 0.010440 0.212399 -0.607150 0.378711 -0.555742 -0.592224 -0.696285 -0.044926 -0.011957 -0.383880 0.014711 -0.147658
AB559618.1.1515 0.482946 -0.205290 -1.314067 1.807911 -1.442224 -0.506676 1.898058 0.312612 1.432783 0.081550 0.368976 -1.151920 -2.329809 -0.234637 -0.086005 0.660950 0.408638 0.869848 -0.026016 -1.010208 -0.831286 -1.445881 -0.309219 -1.327311 0.080022 2.413786 -0.178439 -0.812994 -1.048734 0.057890 -0.256951 -0.158469 -0.882356 -0.357276 -0.849866 0.544612 1.212005 0.166508 0.334776 -0.823187 -1.015441 1.564183 1.504259 2.064930 -0.437911 -1.546206 1.771439 -0.458182 2.219627 -1.461927 -0.645579 0.123559 -1.036808 1.398896 0.177364 0.585141 -1.524613 -0.924370 1.861413 -2.134592 1.149596 1.690016 0.788469 -0.493467 0.673007 0.104234 -0.030084 -0.406750 -0.258708 -0.735633 1.398804 -1.512672 -0.279185 2.386613 0.668478 -0.984486 -0.398460 -0.233407 -0.187951 1.795975 1.827751 1.743142 -1.341207 1.287824 1.229875 -0.581678 -1.035665 -2.271663 0.018138 -1.179727 0.014210 -2.457679 -1.541479 -0.436508 0.893574 -0.004002 0.010997 0.230806 0.191056 0.854973
AB595138.1.1492 0.797559 -0.038727 0.199293 1.008178 -0.173924 -0.284869 -0.534781 -0.862341 1.434461 1.082411 1.206384 0.537541 0.739572 -0.395243 0.785658 0.940668 1.631451 -0.148326 -0.720948 -0.752673 -0.363440 0.327979 1.293613 0.021014 0.238420 -0.064748 -0.430412 -0.218029 -0.742048 1.128687 -0.592908 -0.315724 -0.608050 -0.183204 -0.378934 0.182777 1.042232 -0.488512 -0.273979 -0.312227 -1.045211 1.031637 0.392809 0.434298 -0.489076 -0.028544 0.638499 0.379747 0.887270 -0.660075 0.909683 -0.913634 -0.615033 -0.395168 0.291964 0.636822 -0.979434 0.426987 -0.253115 -0.430794 -0.567023 0.663148 0.232693 0.023986 -0.541367 1.107955 0.166970 -0.435825 -0.364943 -0.692573 0.891585 -0.613776 -0.354052 -0.643507 1.828061 0.245756 -0.161831 -2.055677 1.132306 -0.896328 -1.234196 0.922271 -0.170070 -0.957019 1.597415 1.020701 -1.158652 1.223982 -0.025577 1.736845 -0.706784 1.140010 0.513784 -0.195820 -1.266089 0.527690 0.541013 -0.088388 -0.223522 0.208895
AB601001.1.1469 -0.071681 0.363699 1.609453 0.012188 -0.357241 0.582230 0.460433 0.285699 0.755708 -0.356138 0.253684 0.889285 0.572332 1.332258 -1.088828 -0.047372 -0.250155 -0.871966 1.079805 0.715596 -1.044465 0.637033 -1.200361 -0.038083 -0.750026 -0.262294 -0.154158 -1.031649 -0.502487 -0.118078 -1.194234 0.807917 -0.494371 -0.414781 -0.603376 -0.566231 -1.018786 -0.639738 0.657470 0.068394 -0.258249 0.331679 0.429592 0.962395 1.204497 -0.201915 -0.001523 0.145272 0.522277 0.341481 -0.625756 -0.142319 -0.338424 0.234499 -0.700397 -0.251627 0.278193 -1.405292 -0.201848 -0.137527 0.529061 -0.671935 0.036711 -0.188759 -0.040956 0.140978 0.825224 -0.548574 -0.543659 -0.974083 -0.920087 0.577749 0.189597 0.735318 -0.877528 0.462403 1.215464 -0.118841 1.114985 0.186313 -0.592099 -1.100855 0.027245 -0.647229 0.450839 -0.845004 -0.552252 -0.848096 -1.241103 -1.121001 0.303414 0.768238 0.211942 0.333967 -0.175915 -0.396732 -0.231419 0.733571 -1.238108 -1.078200
AB606256.1.1495 -0.458818 0.453250 0.321627 -1.097964 -1.197472 0.479638 1.071485 0.348272 0.114858 0.294997 0.131278 0.408441 -0.675584 0.906086 0.450335 0.720742 -1.923429 0.600625 0.662090 0.528203 -0.242953 0.261230 -1.033465 -0.322824 -0.634458 -1.308558 -0.427693 -1.612761 0.472794 1.210525 -0.401300 -1.248093 0.154004 -0.798443 1.681917 -0.860686 1.061340 0.448809 -1.594497 0.800013 1.105219 -0.336952 1.562239 0.806551 0.117850 -1.335501 -0.146205 -1.047883 -0.712694 -0.106980 -1.005156 -0.397391 0.690471 1.207223 0.596540 -0.742922 0.706560 2.293366 -0.454405 -1.274588 0.011182 -0.603243 2.272746 -0.217077 0.319588 0.447744 1.657293 1.503030 -0.127316 -0.251703 1.382837 0.455543 1.415666 0.850921 0.434152 -1.748795 -0.482243 0.005921 1.423630 -1.292659 -1.482999 -0.121025 0.146751 0.963760 -0.587804 0.155995 0.882682 0.068078 0.779898 0.432557 -1.496734 -0.497157 2.155906 -1.370249 0.758662 -1.127823 1.092319 1.057550 -0.816616 -0.311071
AB606284.1.1481 0.852925 0.226828 -0.338905 0.555042 -0.180636 0.196306 0.664002 -0.356015 0.055058 0.507411 0.488618 0.107273 0.131929 0.158488 -0.934172 -0.572182 -0.560995 -1.159331 0.645545 -0.409361 -0.924835 0.354958 0.009212 -0.556833 0.360418 0.342798 0.253646 0.334520 0.032681 -0.318231 0.156279 0.184200 1.008629 0.190919 0.176700 0.400811 1.027316 -0.747273 0.014971 1.252530 -0.840398 -0.119133 1.441834 -0.312627 1.083900 -0.723857 -0.234877 0.733349 -0.188115 -1.081715 0.230071 -0.414496 1.302253 -0.198165 -0.686186 -0.330730 0.302856 0.536445 0.313716 -0.080905 -0.060640 0.170981 0.443091 0.067652 -0.169305 -0.111798 0.054370 0.398363 0.342180 -0.034374 -1.203661 0.168797 0.458753 -1.090384 -0.418239 0.664676 -0.091620 0.594048 0.835637 1.006603 -0.300281 -0.306416 -0.600789 -0.191321 0.172947 0.410153 -0.209193 -0.782550 0.017483 -0.552272 0.507879 0.066562 0.734673 -0.796832 0.147732 -0.579195 0.490161 -0.116232 -0.718160 0.293041
AB606352.1.1486 1.090780 -1.360010 0.419958 -0.636282 -0.022772 -0.054528 -1.446286 -0.474182 0.136844 -1.058458 0.733587 -0.546887 -1.473122 -0.082741 -0.527588 -0.271475 -0.664512 1.053147 1.089072 -0.837172 -0.228573 0.785599 0.037468 -0.410746 1.208292 -0.181034 -1.037450 0.202146 -0.436389 0.794364 1.613955 -0.635984 0.716514 1.487737 -0.034564 0.133328 0.175723 -0.451167 0.493092 0.645838 -0.684975 0.423551 -0.647607 -0.366882 -0.263673 -0.404203 -0.226486 -0.385388 0.513026 -2.025639 0.986536 0.887394 -0.155136 -0.121784 -0.235560 0.237926 -0.080239 0.593109 -0.237095 0.485912 0.803258 -0.173518 0.607127 0.153558 -1.093516 0.753253 0.386151 1.283430 0.838500 -0.653374 0.093530 0.421679 0.886991 -0.119561 -0.112298 -1.328782 -0.422892 -0.313297 -0.585814 -0.708808 0.217371 0.741863 0.275052 -0.070387 -0.472317 0.569097 -0.202858 -0.661335 0.642199 -0.880484 -0.665473 0.291233 1.216982 0.192115 -0.996408 0.901649 1.325072 0.661500 -0.572603 1.582401
AB606383.1.1494 0.192453 1.050982 -0.553662 -0.482022 0.017563 -0.200470 0.184530 0.460890 1.157383 -1.216525 1.554964 0.733768 -0.596030 0.670524 -0.289143 -0.424301 -0.778680 1.144230 0.162650 -0.517633 -1.280405 0.239661 1.682803 1.069040 0.315938 0.422512 0.168711 -1.567861 0.153560 1.028649 -0.461486 -0.206684 -1.303963 0.690136 0.538215 -0.896086 0.353438 -1.337709 -0.699213 -0.069739 -0.384138 0.261045 -0.251040 -0.063094 -0.916085 -0.198902 -0.538036 -0.208138 -0.497598 -1.016066 -0.739392 -0.115388 -0.595239 0.762790 -0.360413 0.641592 -0.588880 -0.276554 0.153135 -0.550709 -0.113004 -1.028366 0.080889 0.059944 0.714869 -0.728436 0.058370 1.328965 -0.008294 -0.207091 0.356890 -0.476595 1.061279 0.435071 0.355047 0.058883 0.243990 0.178563 -1.105275 1.417965 1.931767 1.465299 0.156526 0.090668 0.511470 0.477704 1.060258 -0.085050 0.037385 -0.864382 -0.893424 0.893787 0.148303 -0.582537 0.231411 -1.094508 -1.090773 0.529235 -0.333938 -0.874933
AB606384.1.1479 0.475936 -0.115721 -0.712135 -1.162593 -2.052788 -0.009783 -0.531316 1.672372 1.872929 -1.295588 0.260010 -0.253419 -0.892561 0.256192 0.124412 0.585768 0.044305 -0.766670 -0.238127 0.092175 -0.130316 0.598050 1.207144 -0.467546 0.127010 0.947144 -0.179738 0.121364 0.269225 -1.576954 2.277859 -0.792337 0.119052 0.258450 -0.419258 0.438369 1.024110 -2.071471 -1.447669 0.330797 -1.883343 0.810010 1.442105 0.487889 -0.152245 0.338410 -0.399214 -0.387380 -1.171199 -0.548206 1.191528 -1.284021 0.415280 1.298160 0.468987 -0.614749 -0.411138 -0.845008 -0.079611 1.138059 -0.785793 -0.274788 0.960552 1.461252 1.010808 1.233014 -1.717511 -0.425991 -0.161958 0.809818 -0.671596 0.129508 1.708878 1.996076 0.336146 -1.407332 0.245059 -1.985430 1.725333 0.451753 0.199779 -1.110295 -0.130976 0.141828 0.212707 0.574116 -0.006328 0.507999 0.931218 -1.921342 -0.842007 0.391390 1.809014 -0.907352 -1.990892 0.678878 0.364420 0.463870 -0.365115 0.223972
AB606399.1.1479 0.188428 -0.350310 -0.000552 -1.224816 -2.068461 -1.358194 2.217953 -1.022714 1.061219 -1.631865 1.092752 -0.163791 0.052745 -1.312624 0.256024 0.734299 0.226860 -0.733096 -0.118689 0.454174 -0.964535 0.787773 1.116444 0.704024 0.395780 -0.012271 -0.494975 -0.049970 -0.520524 -1.178611 0.081938 0.205072 -0.055194 -0.378959 0.243977 -0.849122 1.631694 0.237034 -0.142457 2.050620 0.150852 -0.295116 0.806988 1.179494 -0.010423 0.877552 -0.072341 -0.608609 -1.026420 -0.855614 -0.788365 -0.786219 -0.330386 0.827362 0.332668 -1.129851 -1.473098 -1.097729 0.209696 0.813636 -0.429564 -0.936851 1.829425 -0.373686 -0.566707 -0.318861 0.223476 0.790085 -0.070919 0.923925 -0.620766 -0.561805 -0.489024 0.777701 -0.176296 -0.677595 -0.039491 1.594515 -0.527239 1.191874 -0.006584 -0.934835 0.030711 -0.374416 0.058075 -0.008441 0.153228 -0.742717 -0.869818 -0.609354 -0.254824 -0.672668 1.523127 0.103222 0.378726 -1.704750 0.277302 -0.446271 1.099482 -0.805494
AB608051.1.1488 0.619644 -0.035982 0.396808 -0.510903 -0.231654 -0.311858 0.215469 -1.037801 0.490489 -0.780844 1.008824 0.227940 0.334276 0.359836 0.157286 0.478719 0.427744 0.474401 0.482777 0.172711 -0.525060 -0.135543 0.465278 -0.289028 -0.172677 -0.506466 -0.539894 -0.551722 0.247910 0.030261 -0.305901 0.094725 -0.054035 0.323174 0.353033 -0.647259 0.747764 -0.255038 -0.261418 -0.578157 -0.313918 0.315843 -0.052258 -0.345738 0.497553 0.685002 0.119769 0.087156 -0.970071 -0.053454 -0.676596 -0.001416 -0.140120 0.052585 0.288598 0.792134 -0.435877 -0.219081 0.140230 -0.339126 -0.245010 -0.353438 0.802950 -0.746479 0.655352 0.333628 0.624004 0.439738 -0.339960 -0.734834 0.063798 -0.009834 -0.270267 0.204636 0.277667 0.728464 0.035116 -0.055977 0.116847 -0.059461 0.325502 -0.413226 0.199691 -0.098945 0.078349 -0.276480 -0.171955 -0.351095 0.320542 -0.241139 0.538573 0.214362 0.694049 0.157495 -0.252083 -0.318720 -0.033866 -0.856764 -0.097897 0.252677
AB626897.1.1485 0.525928 -1.018745 0.122057 -0.269595 -0.297163 -1.251285 0.278061 -0.704618 1.002768 -0.090068 -0.674971 -0.943358 -1.298524 1.091105 -0.672425 0.336275 -1.102896 0.468039 1.393825 -0.847752 -0.550430 0.553852 0.608392 0.691648 0.206151 0.653470 -0.560065 -0.592471 -0.775863 1.060948 0.665155 -1.312404 0.744472 0.701845 -0.340333 -0.686580 0.261323 -0.034703 1.127094 0.928872 -0.322455 0.350253 -0.322082 -1.385631 0.368048 0.478849 0.171531 0.378399 0.394462 -0.058951 0.194749 1.199801 0.112572 0.798745 -0.518976 -0.317873 0.524423 1.215224 0.041499 -0.496425 0.399586 -0.350576 0.445759 -0.984823 -0.097424 0.509428 0.161008 0.932490 1.225491 -0.515854 -0.050753 0.488029 1.047836 0.151147 -0.014116 -1.131209 0.116619 -0.345345 0.288595 -1.125935 0.304348 0.631931 1.785109 0.287152 -0.042179 0.022994 -0.836963 -1.176251 -0.246422 -0.889135 -0.015621 0.062917 -0.253044 -0.302074 -0.650983 0.408598 1.800732 0.546354 0.120878 0.349636
AB626907.1.1496 0.487603 -0.267496 -0.200406 -0.488702 -0.066706 -0.319656 0.624105 -0.218986 0.647520 -0.143565 0.027481 0.727330 -0.512084 -0.624875 -0.429494 0.653894 0.129614 0.327135 -0.148045 0.348930 -0.321007 0.379719 -1.184876 0.652727 0.560146 0.095819 -0.144262 -0.307296 -0.432004 -0.053839 -0.075047 0.104546 -0.095515 -0.107053 0.617206 -0.702375 0.349746 -0.204222 0.093208 0.602716 -0.122736 0.639671 -0.385166 -0.358403 -0.387256 0.156924 -0.354032 0.571806 -0.269625 -0.118175 -0.124479 0.262957 -0.293966 -0.602877 -0.953078 -0.121992 0.112660 0.385297 -0.135601 -0.234606 0.030263 -0.304218 0.036788 0.363205 -0.259908 0.399325 0.437776 -0.072688 0.567403 -0.699225 0.079264 -0.225824 -0.669520 0.538791 0.489392 0.570654 0.473896 -0.048248 -0.183309 0.323414 0.676688 0.184589 0.489092 0.951859 0.734480 0.743791 0.153063 -0.129564 -0.110806 0.253808 0.457776 -0.119397 0.167090 0.274841 0.057897 0.442912 0.438519 0.284417 -0.770134 -1.124880
AB626919.1.1479 0.541647 0.258062 -0.185227 -0.225461 -1.152702 0.672416 0.088150 0.532410 0.326508 -0.329607 -0.098111 -0.310940 -0.239419 -0.163769 -0.903480 -0.630017 -0.333628 -0.479128 -0.451851 0.717270 -0.477226 -0.011245 0.284332 0.345357 0.715381 -0.685484 0.357635 1.014858 0.602706 0.376576 -0.392088 -1.125239 0.116203 1.317502 0.511145 -0.478723 1.252741 0.625220 -0.349102 -0.972418 -0.692997 -0.250205 -1.006325 -0.262288 0.765286 0.241982 0.909426 0.135562 -1.168889 -0.702955 -0.422509 -0.621083 -0.281601 -0.309533 -0.194497 0.290581 0.129862 -0.336595 0.127534 0.043926 -0.628145 0.004191 1.670113 0.537723 -0.924734 -1.485678 0.971618 1.452386 0.741088 0.811861 -0.044790 0.722652 0.314066 0.297857 0.956939 -0.353605 -0.688383 -0.035328 -0.018153 0.175502 -0.144285 -0.472968 -0.384138 -0.641114 -0.693080 0.300463 0.973305 0.118894 0.091803 -0.171607 -0.039161 0.778963 0.380815 -0.450113 0.964066 0.405382 0.271675 1.054355 -1.070311 -0.274815
AB627687.1.1526 0.027458 1.170353 -0.719471 0.376394 -1.247995 -1.287003 1.128855 0.906433 0.186312 0.185122 -0.915865 -0.303626 0.453195 0.029674 0.123962 0.245369 -0.367736 -1.835988 -0.582559 -0.374698 -1.321204 -0.876277 -0.426880 0.220381 1.077665 -0.138399 1.290844 0.299874 -0.689989 1.481247 1.296583 0.048039 -0.312173 0.444164 2.405433 -0.869849 0.980609 -0.154812 -0.979923 0.725901 1.149133 1.586021 -0.824256 0.460977 0.154204 0.255299 0.814006 -0.493988 0.544476 -0.154595 -0.178543 -1.819891 -0.430099 -0.003366 -0.416419 2.078943 0.224383 0.079635 -0.664782 0.371188 0.809813 0.897369 0.974482 0.066476 0.250280 -0.580859 0.082104 -0.041063 -0.281942 -1.095782 -1.300655 0.137309 -0.520905 0.552397 -0.371047 0.065974 1.428248 -0.195926 1.136053 1.941171 -0.369850 -0.183097 0.035679 -0.123452 0.692784 0.430242 -0.916269 0.158648 -1.464706 -2.753585 -0.575988 -1.410563 -0.354395 -0.447531 -0.917892 0.341429 1.483317 -0.370519 0.441228 1.429357
AB680625.1.1447 0.511372 0.375862 0.360848 -0.539496 -0.532517 -0.442553 0.046991 0.326638 -0.313760 -0.300187 -0.044570 1.224923 -1.019475 0.215521 0.017566 -0.764342 -0.658960 0.837658 -0.196134 1.453785 -1.404327 0.137343 0.777532 -0.958716 0.190061 -0.218805 1.095920 -0.423577 -0.132013 -0.956023 0.643396 -0.656353 -0.464379 -1.698692 0.033330 0.496273 0.079665 -1.555947 0.651581 0.013596 0.072273 0.508747 -0.800430 -0.382015 -0.585678 0.816029 1.217043 0.272961 -1.025451 1.194317 0.848087 -0.753495 -0.588593 -0.048602 0.896295 -0.523352 0.281858 0.001933 0.882424 0.100556 0.388506 -0.737212 1.257466 0.214274 0.886757 0.574976 0.381523 1.029951 0.681212 0.480816 -0.611974 -0.644471 -0.221156 0.581790 0.107349 -0.706403 -1.410229 -0.854898 0.505554 0.231861 0.695918 1.305936 -0.528528 -1.121136 -0.083499 -0.929260 0.365111 -0.294708 -0.275475 0.115612 0.249946 0.159186 -0.229500 -0.459039 0.460891 0.889847 -0.013932 -0.186527 0.209220 0.989162
AB696394.1.1357 0.768023 -0.044407 0.606809 -0.058454 0.043333 -0.185143 -0.024633 0.299993 0.440276 0.240114 -0.376936 -0.066010 -0.614222 -0.239449 0.345063 0.806272 0.057182 -0.016812 0.361267 0.298918 -1.073424 -0.395428 -0.735605 0.191111 0.216164 0.424492 0.708392 -0.205819 1.176275 0.696690 -0.213431 0.192445 -0.625209 -0.232520 0.797720 -0.451745 0.256324 0.987416 0.482024 -0.242537 -0.344096 0.431169 0.387908 0.220452 0.175074 0.292915 0.466744 0.133074 0.227868 0.633983 0.612001 -0.014400 -0.258439 -0.050040 -0.191503 0.181410 0.179294 0.302102 0.347152 -0.322781 0.318409 0.246220 0.329629 0.900979 -0.028965 -0.837637 -0.259056 0.051474 -0.626245 0.899322 0.673172 -0.921752 0.125813 1.740414 -0.312513 -0.631266 0.649326 -0.567455 0.610464 0.389119 -0.846960 -0.505027 -0.091590 0.359807 -0.016940 -0.496846 0.288864 0.170429 -0.470454 -0.108959 -0.312797 -0.116145 0.310009 -0.400890 -0.489853 -0.291394 -0.215676 -0.315023 -0.224678 -0.376070
AB702753.1.1392 -1.064529 1.176520 0.174733 0.736403 -0.622363 -1.485568 1.669660 -0.988694 1.914390 0.612101 0.620778 1.214445 -0.314570 0.880975 -0.483088 -1.400798 -0.123460 0.208150 -0.550266 -1.549848 -0.577159 -0.217504 0.023691 -0.884581 0.682231 -0.165696 -1.254637 1.328425 -0.841119 -0.457087 -0.527099 0.147337 -0.522176 0.793700 0.906916 -1.144280 1.284086 0.505341 -0.094310 0.270027 -1.178499 0.889404 -0.113061 2.065341 -0.771928 -0.079119 1.078493 -0.325691 -0.470138 0.384280 0.936092 0.920912 0.066614 -1.029271 0.707395 -0.153911 -0.716605 0.201539 0.897212 -0.000679 -0.302900 -0.932793 2.339432 0.006090 1.071934 1.446769 -0.652264 1.267490 1.407311 1.083202 -1.055127 -0.559284 -0.739853 0.466795 -0.830684 -0.212199 0.284231 -0.491596 0.609168 0.252877 1.459315 -0.388413 0.416560 -0.845319 0.872219 1.409150 -0.482016 -0.776470 0.021922 1.144922 -0.622561 -0.751917 0.108064 0.798642 -0.454557 -0.025813 0.857274 -0.169840 0.262253 0.745837
AB702756.1.1405 0.291927 0.313083 0.727293 -1.399819 -1.576613 -0.475769 -0.929723 0.149112 1.068181 -0.740887 0.527575 0.626734 -0.395613 0.419348 1.160544 -0.026784 0.160440 0.997616 0.416369 -0.977203 -0.036583 0.874392 -0.831881 0.311115 1.119268 -0.613337 -0.795002 -0.383384 0.412110 -0.142220 0.688446 -0.100664 -0.823055 1.048023 0.131178 0.531622 1.276465 -0.418130 0.605300 -0.804488 -0.657647 1.683619 0.068164 -0.802522 0.710569 0.476623 0.294943 -1.168649 -0.056515 -1.190437 -0.801417 1.265160 0.508810 -0.770688 0.275263 0.333577 -0.225517 0.829382 0.224085 -0.192801 0.128115 -1.153323 0.811645 -0.425244 -0.011422 0.572371 0.539700 0.218355 0.046500 -1.084362 1.234215 0.085643 1.316335 0.231834 -0.954104 -0.475252 -0.663543 -0.180968 -0.184910 1.052313 0.118977 0.766362 0.491773 0.110001 -0.811674 0.386635 0.307299 -0.404240 0.155613 -0.217559 -1.308881 -0.542274 0.082535 1.155550 -0.211521 0.916553 0.236363 -0.068622 -0.709149 0.010870
AB702765.1.1492 2.068212 0.294849 -0.147298 0.862778 0.624597 -0.588753 0.771052 -0.035644 0.081769 -1.527188 -0.332391 -0.053802 -0.969636 1.530733 -0.728964 0.924611 0.755526 1.679720 -0.146997 -0.914629 -2.048845 -0.580702 0.994172 -1.301559 -2.141094 -0.002752 -0.519113 -0.044718 -0.374447 0.269286 -1.017715 1.081327 -0.231648 0.677517 -0.267082 -2.581628 0.121855 -0.052760 1.007939 -1.160493 -1.951463 -0.080679 1.745568 0.212663 -0.032658 0.632105 0.146103 -1.578352 -0.163972 0.267382 -0.860548 0.082597 -0.787431 -0.848090 -1.055217 -0.107656 -0.053931 -1.010702 0.000720 0.360378 -0.810148 -1.185601 0.520048 -1.481903 0.344040 0.035281 0.984158 -0.697566 2.225418 0.764370 -1.033654 -0.473315 0.781909 -0.363444 0.384772 0.381207 -0.944528 1.266705 -0.450161 0.381218 0.414599 -0.255871 0.088655 -1.267688 0.629844 0.649806 -0.598875 0.093039 0.415429 -2.305784 -0.786906 0.198209 1.853459 -0.541187 -0.489933 0.293769 -0.446759 -0.217557 -1.137510 -0.453142
AB702839.1.1406 0.221048 -0.380773 0.348901 -0.477627 -0.121677 -0.394364 -0.214297 -0.275858 1.283645 0.569539 -0.484530 -1.112598 -0.164003 -0.451062 -0.820780 1.080719 -0.257541 0.869535 0.210633 -1.275723 -0.321517 0.079083 0.133246 0.092427 0.948602 -0.243488 -0.412171 -0.315817 -0.016306 0.248954 1.237517 -0.201842 0.604009 0.919049 0.022033 0.692768 0.419638 -0.831640 -0.608964 -0.166259 -0.994761 -0.102398 -0.643301 -1.129708 0.252781 -0.254167 -0.681920 0.478551 -0.688449 -0.840364 -0.546329 -0.356095 -0.139417 0.563589 -0.236051 0.367126 0.149317 -0.146834 0.415176 0.652449 -0.103662 -0.606429 0.938969 0.448739 -0.314362 0.053294 -0.504289 0.868193 0.063229 0.490575 0.479228 0.092587 0.050888 0.578802 -0.184411 -0.507613 0.445508 -1.089172 -0.098781 0.504794 -0.115418 -0.324944 -0.830001 0.013140 0.245741 -0.007676 -0.777900 -0.109971 -0.023559 -0.350462 -1.027889 0.326782 -1.277360 -0.961587 -0.723794 -0.692203 0.648652 0.874359 -0.257503 0.453938
AB702870.1.1395 0.157063 0.265454 -0.715025 -0.072185 0.128538 0.190626 0.867478 -0.657920 1.242036 0.150776 -0.608555 -0.732810 -0.512787 0.236841 -0.029222 0.027718 -0.603739 0.153166 0.491524 -1.133687 -0.709994 -0.246451 -0.552591 -0.021671 1.399461 -0.373460 -0.403957 -0.892214 -0.770339 0.491000 -0.158566 0.147047 -0.305923 0.757315 0.768750 -0.885025 1.094412 0.222499 -0.080523 0.278013 -0.543288 0.344873 -0.398135 -0.116539 -0.354327 0.905716 1.270775 -1.210142 0.452098 -1.248437 -0.897287 -1.299041 0.190373 -0.963036 -0.672428 -0.038983 0.371599 1.236600 -0.314411 -0.694523 0.755869 0.000416 0.099082 -0.173410 -1.422614 0.065145 -1.418882 0.134413 0.429559 0.677993 0.837724 -0.791253 0.742738 -0.587805 -1.854754 1.523922 -1.279236 -0.364423 0.281414 -0.314435 0.127976 -0.347817 -0.083291 1.202849 1.369232 -0.276757 0.885795 -0.231301 -0.434128 -0.124959 -0.141271 0.536557 0.389854 -1.581104 -1.870592 -0.771395 -0.505096 -0.281283 -1.039967 -0.187545
AB702916.1.1364 -0.131289 0.908931 -0.732111 -0.690804 0.046860 0.593963 0.392032 -0.273375 1.012040 0.869372 0.868283 -0.263077 -0.161519 1.161934 -1.003079 -0.654693 0.018781 -0.489643 -0.293600 -0.499457 -1.452671 0.481566 -0.404156 0.393766 0.309756 -1.005593 -0.355627 -0.417417 0.653108 -0.201165 -1.118318 0.578840 -1.626551 -0.390713 1.363085 -1.202087 0.897207 -0.561309 -0.408992 -0.825807 -0.974622 0.525537 0.303990 0.364774 0.478099 -0.123884 0.504704 -1.235256 -3.115053 -1.315942 0.237805 1.197516 1.126771 0.208800 0.641364 -0.013569 -1.013774 -0.754418 -1.333984 0.021855 0.025511 0.034120 0.849013 1.163994 0.778763 -1.015578 1.246641 -0.245633 0.950008 -0.299111 -0.679224 -0.480368 0.483472 -1.068575 -0.568366 -1.551277 0.127198 -0.619701 -1.208839 0.058037 1.253628 -0.120803 1.465229 -0.178450 -0.707207 -0.655107 -0.766727 -0.767196 -1.008357 0.335512 -0.512055 -0.926842 2.714449 -0.825837 -1.908966 -0.338826 -0.261380 -0.260531 -0.348935 1.481169
AB733112.1.1328 -0.101163 -1.026974 0.392101 -0.299517 0.066084 0.652933 -0.377626 0.030419 -0.363620 -0.154266 -0.217355 0.471495 -0.199174 -0.293918 0.464356 -0.293925 -0.024282 -0.272369 -0.452993 -0.404250 -0.083807 -0.149881 -0.360507 0.203212 0.685878 0.670801 0.226466 0.923521 0.647579 0.399185 -0.052626 -0.247649 -0.113442 -0.245424 -0.771179 0.070563 0.282386 0.488266 0.268552 -0.652446 0.489065 0.654399 0.406958 0.387356 -0.124659 0.176984 -0.591018 0.143906 0.141256 -0.337818 0.199655 0.006575 -0.029722 0.736828 0.040112 -0.577801 -0.258008 0.006753 0.038226 -0.388437 0.540592 0.182770 0.559563 0.229622 -0.190264 -0.272993 0.136507 -0.003450 -0.361912 -0.564686 0.552968 -0.619141 0.848908 -0.289363 -0.133357 -0.131820 0.291063 -0.320285 -1.004397 -0.690656 -0.466173 -0.388494 -0.645803 0.280902 -0.047252 -0.203075 0.472620 0.671344 -0.103851 -0.292303 0.300825 0.237768 -0.516998 0.095890 0.057785 0.286161 -0.207368 -0.709672 0.341363 0.008192
AB739697.1.1442 0.251421 -0.600827 0.630977 1.101694 -0.148265 -0.176100 -0.876048 -0.429562 1.673241 -0.039826 -0.496111 -1.340454 1.359923 1.630888 -0.068454 -1.694557 0.660461 0.685579 0.250149 0.314615 0.255718 1.562590 1.423245 0.136650 -1.465614 0.684393 -1.201826 -0.590269 -0.211631 1.283479 0.046538 -1.028489 -0.392928 0.550398 -1.248530 -0.932839 0.822020 1.218575 -0.569525 0.051312 -0.184505 0.882268 -0.321636 -1.973568 -0.465188 -0.426282 0.483987 0.936199 -1.144927 -0.776188 -0.506245 -2.266787 -0.714559 0.338764 1.156158 0.843865 0.404532 -0.284795 0.355701 1.956809 0.992536 0.212329 -0.239916 -0.502470 0.542325 1.123380 0.445066 0.617799 1.897873 1.393798 -0.849704 0.657646 -0.399014 -0.976705 0.248592 -0.055385 1.540998 0.171263 0.566340 0.466923 -0.086284 0.626080 0.817858 0.564722 -1.232846 0.308795 -0.051442 -1.389817 -0.200349 0.198802 0.461876 -1.383076 0.010570 0.214496 -0.393420 1.438764 -0.873843 -0.703262 -0.166543 1.094598
AB741690.1.1324 -1.211977 -0.479060 0.534443 -1.920629 -0.301429 -0.018919 -1.641996 -0.121021 0.952859 0.006216 -0.312713 -1.551322 0.591492 1.420697 -0.399421 1.773456 -0.074128 1.246613 -0.522036 0.515910 -1.357487 1.080087 -1.016352 -0.847941 1.388183 -1.466999 1.723925 -0.584150 1.422013 2.653352 0.500635 0.415297 -0.814973 2.115261 0.554531 -0.874171 1.243272 -0.855326 -1.499556 -0.651512 0.792641 -0.382086 0.797868 -1.842159 0.866966 0.677768 0.933509 -0.970742 -0.070412 0.742478 0.368947 -0.003493 -0.972418 0.492258 1.446591 1.301247 -1.540276 -0.934726 0.282218 0.374738 -0.332433 0.870811 0.366915 0.359573 -0.325837 -1.556704 1.451161 1.025378 0.858960 0.469406 -1.509745 -1.515217 0.497809 0.780472 -0.147829 -0.627367 0.405572 -0.368528 -1.091694 1.735869 -0.310178 -0.742123 2.221006 -0.670983 0.596360 0.666803 -0.550541 0.665914 -0.327064 -0.025145 -0.344148 -0.214481 1.716526 -0.995700 1.275787 -0.168038 0.019453 0.593262 1.245093 -1.491899
AB742106.1.1431 0.591274 1.491833 0.023165 0.173943 -0.826619 -0.383256 1.874543 -0.359934 -0.355603 1.294932 -0.605321 1.067323 1.517846 -0.723639 1.771498 -0.101321 0.069500 -0.441925 -0.210999 0.657559 -0.915177 -1.667585 -0.695672 0.250079 -1.442375 -0.300198 0.699570 -1.613659 -0.678952 -1.094804 -0.168301 -0.474268 -0.299988 -0.604267 0.620700 -1.969821 0.744635 -1.308967 -1.030393 -1.332457 0.487208 0.189410 0.831523 -1.731230 0.122012 -0.562852 -0.150531 0.395177 -2.143353 -1.484969 0.536119 0.852253 -0.418265 -0.253966 2.125075 -1.211176 -2.635436 -0.818817 -0.341189 1.108269 1.401251 -2.542578 1.517300 0.742919 -1.977553 0.985426 0.282582 -0.536058 -1.266873 1.443557 0.076023 -0.660136 -0.505002 0.759479 0.134734 0.282887 -0.789600 1.069766 0.524414 1.245662 -0.374759 -0.215098 0.343350 1.081171 -0.320329 0.881089 0.373285 -2.599612 -1.367968 1.659974 -1.697021 0.026832 0.300890 0.185766 -1.729019 -0.865827 0.432888 2.047972 1.590403 0.993412
AB746750.1.1530 0.542487 -0.295637 0.210778 -1.013935 0.246432 -0.803759 0.417744 0.221690 -0.214688 -0.334314 -0.334478 -0.001657 0.126551 0.028688 0.044361 0.367575 -0.233770 0.321667 -0.193147 -0.029553 0.045653 0.067990 -0.730798 -0.701303 0.139056 0.657416 0.064151 0.144929 -0.278772 -0.369996 0.400913 0.806620 0.452515 -0.174378 0.114330 -0.548055 0.015063 -0.384433 0.383771 -0.355684 0.967164 -0.080586 0.038853 0.450596 0.181407 -0.388087 0.881268 0.478090 -0.409375 -0.050460 -0.129848 -0.196276 0.056829 -0.529000 0.062392 0.143025 -0.938096 0.121437 -0.418974 0.617691 0.653993 -0.109370 2.135153 0.445036 0.194364 -0.700199 0.612578 -0.205744 0.549616 -0.171548 1.206866 0.148964 -0.546442 0.965951 0.173558 0.405021 -0.394608 0.156455 -0.471446 0.445264 -0.777660 -0.055001 -0.049436 0.080321 0.404642 0.009600 -0.323372 0.616356 0.129765 0.452937 0.662947 -0.785645 0.114739 0.607785 0.099423 0.505666 -0.838859 -0.503266 0.773200 -0.420550
AB775005.1.1253 -0.325968 0.557389 0.401451 0.083850 -0.583758 -0.652918 0.651336 -0.005418 1.022991 -0.356004 0.200429 -0.579111 -0.170455 -0.788305 1.080595 -1.174949 -0.547085 0.805534 0.542337 -1.005771 -0.450068 -0.587560 -1.378487 -0.009338 -0.263330 -0.622362 -0.091160 -1.051697 -1.779801 -0.185020 0.300224 -0.309648 -1.504825 -0.466750 0.580679 -0.877103 0.824748 1.548533 -0.568220 0.442820 -0.205738 -1.550023 0.758825 -0.447722 -0.599342 -0.913305 0.641142 0.149073 0.185429 -0.080196 -0.638591 0.772138 0.925831 0.322995 1.982339 1.056109 -1.084777 -0.918005 0.768066 0.386962 -0.199973 1.042069 0.389236 0.982061 1.383931 0.263506 -1.014913 -0.217356 1.829333 0.556209 1.355292 -0.480789 -1.082932 0.492852 -0.204963 0.739367 0.912115 0.069299 -0.414713 3.317273 -1.012500 0.236435 0.283981 1.103182 1.631935 0.467172 0.149492 -0.364589 -0.172837 -0.690160 -0.491730 -0.555223 -0.251781 0.983847 0.122990 1.625294 1.087114 -1.093066 0.810169 0.588886
AB780934.1.1454 0.407209 0.335807 0.040232 -0.206395 0.015581 -0.129468 -0.201282 0.371157 -0.388275 -0.032628 -0.310571 0.273472 -0.086253 0.149770 0.353409 0.517383 0.083648 -0.168207 0.235527 0.370357 -0.070168 0.822052 -0.065672 0.011832 -0.622903 -0.482269 -0.168330 0.043120 -0.610105 0.387951 -0.289225 -0.554276 -0.217441 -0.579694 0.340924 -0.479846 0.165186 -0.010484 0.016198 0.007256 0.771765 -0.079211 -0.219866 0.378804 -0.134175 -0.326429 0.009449 0.575518 0.023388 0.754251 -0.466028 0.465809 -0.143990 -0.293892 0.158979 0.652611 0.696355 -0.571866 0.111361 0.312717 -0.721474 -0.370791 0.979295 0.082594 0.243415 -0.972782 0.177786 1.022432 -0.675351 0.485503 -0.301501 0.227011 0.044598 -0.324724 -0.103090 -0.084747 -0.335470 0.481107 0.229542 0.092363 0.207286 0.777461 -0.507106 -0.146012 -0.108470 -0.248482 -0.170238 0.441205 -0.417801 0.081944 -0.020290 0.953800 -0.340246 -0.160493 -0.232887 0.291154 0.104730 0.013822 0.330573 -0.270947
AB874571.1.1447 -0.318348 0.533887 -1.566202 -1.241512 0.902880 -0.548375 0.773071 -1.766451 1.131767 -1.832721 -1.157947 -1.091586 0.556839 0.408756 -0.329003 -0.092623 -1.104035 0.517853 0.229457 -0.002113 0.770961 -0.553039 -0.644564 -0.545135 1.050576 -0.594102 2.078346 -1.207234 0.126893 0.735483 0.161496 0.081679 0.645862 -0.735927 0.365940 -0.498423 0.736607 0.859042 0.439080 -1.646428 -1.425637 -0.240321 0.956151 -0.505492 1.013335 -0.274357 -1.013355 -1.862450 -1.466336 0.446949 1.680117 -0.787644 -1.138631 -0.189219 0.665726 0.563759 -0.991977 -1.449078 -1.680442 0.137628 0.514130 1.569347 3.468218 -0.747066 0.962682 0.419415 -1.918469 -0.267167 -1.163667 0.449681 1.584592 0.610847 -1.906827 1.399832 0.960598 -0.920002 -0.342627 -1.193648 -0.936622 0.125511 0.990113 0.386356 -1.858610 -1.705808 -0.490463 -1.745856 -0.105299 -0.776391 0.787967 0.769786 -0.329120 0.967237 0.500851 -0.458957 -0.934080 -0.435431 0.427012 0.400393 -0.698183 0.076357
AB934730.1.1351 0.289437 -0.217952 -0.594511 -0.193555 -0.860229 -0.051395 0.637726 -1.255045 1.603081 0.055050 0.011376 -0.214536 -1.836702 0.338149 0.622900 0.129026 -0.329384 0.760445 1.292923 -0.334967 -1.221228 0.698895 0.126127 0.576517 0.254367 0.421999 -0.794442 -0.954904 -0.636137 -0.228273 0.606459 -0.460412 0.167903 0.579566 -0.214692 0.649671 0.884062 0.096618 -0.048211 0.301119 -0.631237 -0.163448 -0.315015 -0.474547 -0.089861 0.786025 -1.474819 -0.265674 0.255182 0.309342 -1.333668 1.263562 0.681629 -0.419199 0.148457 0.331099 0.137943 1.087546 0.763577 1.609614 1.100702 -0.308102 1.338295 -0.010695 -0.545587 0.845388 0.629929 1.179448 0.625458 0.314483 -0.216567 0.468929 0.770143 0.351398 0.073843 -0.298327 0.278270 -2.106768 -0.529591 -0.807559 -0.722900 0.072234 0.980370 0.600027 0.546015 0.328236 -0.117011 -1.655800 0.102686 -0.979412 -0.028919 -0.604996 -0.042209 0.037263 -0.699881 0.185946 0.821812 0.187687 -0.226228 0.392581
AB934732.1.1349 -0.215912 -0.023851 0.128407 -0.410282 -2.100620 0.483685 0.306814 -0.749584 1.454769 0.496007 -0.862207 -0.546080 -0.916320 -0.700392 -1.059648 0.099430 -0.924404 1.060539 0.138934 -1.131327 -1.157555 0.832369 0.084663 0.193841 0.369746 -0.437270 -0.266215 -0.264155 0.001946 0.372125 0.907004 0.303156 -0.575217 1.339222 1.890394 -0.294052 1.168896 -0.350887 -0.614034 -1.203622 0.109122 -0.769703 0.293544 0.516264 0.518705 -0.608977 0.783812 -0.830302 0.564435 0.229414 -1.877965 -2.305051 0.543683 -0.160496 -0.388068 -0.002551 -0.492041 0.296079 0.484591 0.335626 0.216357 -0.193347 1.194984 -0.669647 0.032604 0.955836 0.888792 1.591812 -0.465786 0.230660 0.599034 0.018537 0.135604 0.862868 -0.966427 1.399004 -0.900338 -0.620443 -0.205399 1.231708 0.835764 0.328640 0.603485 0.242476 -0.521312 -0.711344 -0.414638 -0.058126 -0.457695 -0.296674 -0.387696 0.580794 -1.112626 0.376182 -0.488220 -0.548272 0.826104 -0.250911 -0.870048 -0.218266
AB934779.1.1351 -0.799780 -0.676718 0.205908 0.341327 -0.261466 -0.753479 -0.009306 -0.037570 1.074295 -0.527276 0.114169 -0.213495 0.367655 -1.093838 0.739284 -0.059473 1.408476 0.187555 1.337920 -0.043009 -0.045395 0.317032 0.597805 -0.536341 0.304254 0.246900 0.317089 -0.609329 -0.608873 1.641017 -0.969647 0.329116 -0.489618 0.133887 1.229441 -0.986946 0.742945 0.764489 0.303396 -0.209810 -0.220434 -0.131801 -1.189011 0.597483 0.283167 0.240609 -0.176768 -0.101146 -0.248427 -0.312338 -1.223187 0.096398 -0.134453 -0.575179 -0.304775 -0.336903 -1.811987 -1.048562 -0.345283 -1.123430 -0.582778 -0.125856 1.486462 -1.013550 0.001163 1.213756 -0.283681 0.396796 -0.043191 0.083637 0.693354 -0.963896 0.742876 0.177954 0.046925 0.107151 -0.191779 -0.817669 0.940421 1.313159 0.127361 0.779246 -0.226365 0.863502 0.648094 -0.101074 0.794921 -0.279167 0.352507 0.118272 0.316154 0.207609 1.582917 -0.914486 0.496873 0.763252 0.271750 0.063601 -0.450357 -0.760726
AB934798.1.1350 -0.648153 0.399678 -0.981262 -0.441145 -0.503904 -0.133420 1.876716 -0.929417 1.250184 -0.317915 0.209128 0.987331 0.116314 0.855846 -0.697741 -0.092602 0.459355 -0.490926 0.910056 -0.429657 -0.246699 -0.233848 -0.518170 0.272222 0.033516 -0.298592 0.802276 -1.040233 0.313565 0.979621 0.641106 1.277190 -1.791040 -1.135667 1.579012 -1.242575 0.861686 0.475904 -0.273872 -0.603808 -0.825704 0.427520 -0.455999 -0.293955 0.927564 0.147034 -0.419765 -0.129183 0.239334 1.035700 -0.515572 -0.753410 -0.681267 0.290146 0.190897 0.017884 0.341601 -0.169594 -0.636194 -0.445024 1.090560 -0.098469 1.598598 -0.498600 0.224676 -0.729946 -0.157885 0.188694 0.156851 0.364721 -0.149751 -0.375925 0.482535 -0.320167 -0.165667 0.362093 -0.135339 0.709586 1.560835 -0.058593 0.824261 1.155908 -0.483403 -0.667025 0.120780 -0.687787 -1.176631 0.645077 0.247055 -0.688342 -0.226554 0.365302 -0.797155 -0.435571 -0.024029 0.105721 -1.044415 -0.034306 0.819406 0.990740
AB934822.1.1349 0.206804 -0.148907 1.245515 0.352772 -1.192700 -0.064261 0.134757 -1.235552 2.201828 1.263960 1.283965 -1.350387 0.676959 1.149102 -1.016619 1.617882 -1.450222 -1.422931 -0.844813 -0.835806 -0.879497 -1.660398 -0.758104 -0.697050 0.268342 0.382693 0.663257 0.365771 1.054766 0.775607 1.998236 -1.255103 -1.202379 -0.606924 0.969275 -1.219316 1.263580 -0.577940 0.044289 0.962774 -0.617684 0.406027 0.101660 -0.426042 -0.373293 0.722598 2.198029 0.605227 -1.623476 -0.468884 0.697065 1.920046 1.836889 0.407393 0.418673 0.267319 -1.163018 -1.537409 -0.260476 -1.354450 0.702045 0.799363 1.061464 0.344211 -0.020744 0.545157 -0.222852 -0.258723 1.794136 -0.425650 2.011454 -0.537696 0.987284 0.788538 0.479590 0.040032 -1.922487 -0.373767 0.597064 0.022915 0.164180 0.121812 -0.371046 -0.476129 -1.208816 -0.252365 1.413983 1.105955 0.686000 2.294028 -0.003002 1.954541 -0.298535 0.302259 -0.467204 -1.919078 -0.074929 0.622870 -0.584846 0.177020
AB934852.1.1327 -0.820330 -0.219855 1.126052 0.189408 0.049913 0.276622 0.073071 -0.500604 0.498376 -0.098135 1.579626 0.331877 -0.518713 0.458825 -0.363114 -1.436968 0.733089 0.173522 0.735006 -1.128948 -1.186406 0.011901 0.739119 -0.174430 -0.540413 -0.614170 -0.164281 0.058449 -0.616600 0.505107 -0.869513 -0.115183 -0.054941 0.149575 -0.231135 0.221517 0.421040 0.450434 -0.188066 0.557801 -0.060481 0.565294 1.327116 1.457645 -0.323932 1.014874 -0.147813 -0.370890 -0.922402 -1.184205 -0.646271 0.305699 0.087588 -0.424839 -0.060110 -0.920418 0.198825 0.005341 0.458396 0.223380 0.312785 -0.765434 0.639134 -0.175984 -0.561744 -1.084362 0.761032 -0.538766 -0.541701 -0.248990 -0.749152 -1.353090 0.051998 -0.004271 -1.168469 0.056440 -0.107455 -0.649781 0.810458 -1.757601 -0.721392 0.625698 0.199902 0.043249 -0.732190 -0.652109 -0.108807 0.017115 0.424036 0.051210 -0.459808 -0.022953 1.664918 0.208090 -1.104050 -0.119245 0.940976 0.284952 -0.622992 0.615578
AB934882.1.1351 -0.147189 -1.618071 -0.534867 -0.088563 -0.785319 -0.489341 -0.446839 -0.730115 1.257931 -0.207006 -0.497995 -0.250066 -1.482433 0.187422 0.521574 0.228419 -1.153169 0.508771 -0.423457 -0.087839 -0.018850 1.150910 0.000687 -0.625466 0.617361 0.128395 0.612612 -0.809455 0.825572 0.395570 0.282487 -0.157079 0.803815 1.190328 -0.087309 0.017640 1.896019 0.119125 0.783347 0.109896 0.002211 0.396716 -0.510392 -0.589371 -1.565708 0.741624 -0.207828 -1.268082 -0.387980 -0.306757 0.088089 -0.312324 -0.705036 -0.509727 -0.869104 0.346089 1.154839 -0.171605 0.110040 0.675037 0.290974 0.059500 0.600162 1.125480 -0.864808 0.173535 -0.010689 0.970493 -0.443037 0.070745 -1.052643 -0.684578 0.358652 0.519826 -0.344002 -0.834184 0.651985 -1.758255 -0.029549 -0.257460 0.603035 0.327035 0.089592 0.573741 -0.352280 0.678047 -0.235809 -0.909177 -0.794090 -1.332202 -0.161271 0.675072 0.001750 0.077398 -2.057585 -0.292422 1.812983 -0.389646 -0.392444 0.093945
AB969320.1.1524 0.208733 -0.503654 -0.032285 -0.287827 0.432950 0.039096 0.246601 0.122180 0.338477 0.299460 0.017213 -0.131301 0.384326 0.588908 0.165595 -0.042940 0.802402 -0.523773 -0.249503 0.386407 0.456497 0.083164 -0.254015 -0.001931 0.021676 -0.425893 -0.464096 0.435841 -0.427007 -0.244733 0.039495 0.067730 -0.323665 0.040704 0.461115 0.365054 -0.314345 0.136551 -0.619458 -0.099466 0.219749 0.401078 -0.265265 0.057327 -0.014570 -0.555214 0.434913 0.192635 -0.098609 0.005931 -0.117324 0.317714 0.025002 -0.303450 0.123521 -0.534516 0.570374 -0.210507 0.089619 1.042273 0.340089 -0.276844 -1.064809 0.477501 0.036507 -0.023099 -0.646318 0.116612 -0.295695 0.021574 0.324345 0.827283 -0.153312 0.036838 0.144248 0.118419 0.429923 0.242624 0.232676 -0.358361 0.556704 0.087754 -0.246359 0.017445 0.113614 0.635814 -0.092078 0.371263 0.067882 0.337686 0.032002 0.295466 0.165633 0.452977 0.061056 -0.502157 -0.341453 -0.504801 -0.051440 0.083289
AB969399.1.1506 1.714056 1.329971 0.699469 0.696808 0.506863 0.223422 -0.782226 0.965933 -0.038867 -0.154637 -0.024969 -0.691017 -0.494166 1.554696 -0.475005 -0.658095 0.134630 0.075379 0.675923 0.272459 -0.351280 2.137546 -0.199756 1.336206 0.316156 0.390339 -1.512870 -0.523540 0.212867 1.531326 0.042440 0.201453 0.093697 0.725503 0.302800 1.116125 1.485793 -0.596634 -0.892382 1.072448 -0.998298 0.562116 -0.252285 0.304929 0.557109 0.136537 1.080192 -1.128051 -1.585928 -1.053750 0.693838 -0.450073 -1.207707 -0.103514 0.705267 0.785769 0.998414 -0.022183 0.084510 -0.928380 -1.711257 0.405804 0.574550 -0.964217 -1.238252 1.648964 -0.594986 0.309761 0.929392 -0.581845 0.109146 -1.034347 -0.229835 1.191025 1.401171 -0.514617 1.367819 -1.550461 -1.154550 -0.723310 -0.021421 0.299619 -0.010777 0.090180 0.955434 -0.561599 -0.641459 -0.887710 0.384301 0.392901 -0.297223 0.119382 1.389009 1.350544 -0.641099 -0.805399 0.005878 1.276438 -1.350417 1.196706
AB969601.1.1522 0.547163 -1.067031 0.678883 0.167809 -1.165999 0.105816 0.696689 -0.020320 0.169085 -0.015198 0.720311 0.899579 -0.464592 -0.710307 -0.889279 0.110306 0.923701 0.030315 0.165607 0.682637 0.064621 -0.917299 -0.338074 -0.205389 -0.551813 -0.557035 0.373252 -0.194794 1.083658 0.216979 -0.886662 0.577571 0.308214 -0.986453 1.150641 -1.012663 -0.699021 0.440140 -0.124266 -0.005885 -0.335881 0.963759 -0.491753 0.722323 -0.597036 0.148637 0.171376 -1.150121 -0.565281 -0.471819 1.647744 0.276969 -1.298528 0.949112 0.058378 1.163838 -0.682679 -0.203623 0.163267 -0.575826 -1.000547 -1.314025 0.487299 -0.494535 -0.655033 -0.667031 -0.032306 0.992216 1.070085 0.240264 1.678587 0.194550 0.287819 0.001082 1.883604 -0.520998 -0.307628 -0.472279 -0.621527 0.441673 -0.095072 -0.621764 -0.180577 0.450882 -0.598233 -0.262729 -0.562724 0.461184 0.167334 -0.666231 0.100786 -0.319942 -0.370231 0.145592 -1.265251 1.229061 -0.437153 -1.138735 0.540042 0.166631
ABEZ02000015.506.1996 -1.115211 -0.457383 -0.717742 0.176313 -0.645260 -0.000685 1.035718 1.301079 -0.292624 0.680553 0.726590 0.625212 0.485588 -0.675714 0.051208 0.124619 -0.699757 0.659853 0.039550 0.010013 -0.263981 0.102504 0.166488 -1.093868 -0.664872 -0.093221 1.006190 -0.340876 -0.977994 -0.540356 0.344252 0.336662 -0.304581 1.015494 -0.546438 0.228664 0.370508 -0.459833 0.093187 -0.518847 0.539092 -0.518571 0.066869 -0.548157 -0.257750 -0.227218 -0.295981 -1.144226 -0.671212 -0.217192 -0.858467 0.283194 1.095862 0.106314 -0.449771 0.521219 -0.853812 -0.307743 -0.110375 -0.136459 0.846747 0.620871 0.808632 -0.635568 0.355147 0.205446 -0.331341 -0.051574 -0.138908 0.459756 1.270168 -0.032544 -0.325854 1.336821 0.449021 -0.335518 0.124994 -0.542491 0.557442 0.341759 -0.717972 0.101592 0.293577 -0.153892 0.637132 0.272037 -0.500447 -0.471118 0.567274 -0.530683 -1.228967 -0.179005 -0.037605 0.073206 0.080649 -1.556039 -0.568979 -0.688671 -0.060452 0.202091
ABIK02000013.103269.104574 -0.701446 -0.262740 -0.401654 0.246383 0.055237 0.368802 -0.209461 0.611873 -0.776459 -0.450503 -0.268586 0.345565 0.165844 -0.519456 -0.260660 0.174004 -0.337678 -0.551664 0.102397 -0.684630 -0.418354 -0.062423 -0.822704 0.101713 0.255696 0.249526 -0.141945 0.069369 -0.008869 -0.104644 -0.309744 -0.080722 0.146309 0.027298 0.116519 0.443183 -0.526056 0.181635 -0.405741 0.009097 0.650278 -0.113289 -0.564930 -0.154899 -0.281664 -0.085765 0.223544 0.017431 -0.107343 0.140227 0.198466 -0.196834 -0.210889 -0.210634 0.107137 0.765449 0.333291 0.391379 -0.128718 -0.183956 0.360911 -0.252902 0.283870 -0.185110 -0.344645 -0.346023 -0.103776 -0.085797 -0.142839 -0.122797 0.048647 0.166926 -0.007565 -0.053123 0.107834 0.401932 0.300699 -0.533906 -0.526934 0.440190 -0.453963 -0.427189 0.089091 -0.045425 0.023145 0.117004 -0.066297 0.207458 -0.633430 -0.252135 0.064611 -0.166313 -1.056340 0.048611 0.401200 -0.314106 -0.101642 -0.283793 -0.312559 0.192512
ABIY02000114.1.1263 -0.287842 -0.313286 -0.262956 0.231324 0.438177 0.713015 -0.052679 0.170438 0.097260 -0.416465 0.020585 -0.218132 -0.679883 0.862011 0.248662 0.026236 -0.239847 0.460115 0.578618 0.806601 0.546015 -0.300500 0.808557 0.711476 0.687260 0.471397 -0.302160 -0.193055 0.632319 -0.034684 0.754290 1.389827 0.589238 -0.521029 -0.378316 -0.652348 0.759401 0.062828 -0.927397 0.885223 -0.945646 0.165029 0.365501 0.593076 -0.102870 0.838531 0.052498 -0.843147 0.281893 -0.738142 0.345895 -0.397370 -0.145544 -0.333122 0.565696 -0.949729 0.566662 -0.383944 0.314090 0.346844 -1.273382 -0.410531 0.221270 -0.920151 0.194187 0.393579 -0.255195 0.217048 0.710983 -0.970699 -0.967566 -0.140290 -0.806734 -1.074387 0.546586 -0.310334 0.218371 -0.473843 0.402990 0.141010 0.371372 1.294234 0.397354 0.862777 0.660408 0.222142 0.134413 -0.009770 0.397677 -0.251911 0.148620 0.524209 -0.541230 0.185565 -0.386452 0.302601 -0.402692 0.151574 -0.466521 0.000163
ABQC02000019.758957.760260 -1.116278 -1.036258 0.000728 0.030175 0.035127 0.128827 -0.175792 0.950217 0.329158 0.966871 0.188351 0.190881 1.380350 1.262690 2.026688 0.606150 -0.330589 1.775827 -0.358515 0.277714 -0.111919 -1.412621 -0.356152 -1.079192 -0.697318 1.367545 -1.014392 -0.174637 0.000960 0.593330 -0.276196 -0.635387 -0.919613 0.063490 -0.846513 -1.071685 1.949621 -0.419371 0.068069 -1.990039 0.223294 1.202014 -0.390327 0.105144 0.851167 0.871314 -0.720172 -1.737567 -0.365454 -0.024953 -0.525179 -0.166642 1.090696 -1.052683 -0.026252 1.011454 0.904619 0.221422 0.674208 0.883658 1.076892 0.553496 1.144762 0.817110 -0.059572 -0.344939 -1.352302 -0.559712 -0.554919 0.113916 0.119795 0.633963 -1.073735 -1.093842 0.203509 -0.718497 -0.343553 0.487172 -0.758766 -1.473979 0.814111 -0.902160 1.228890 0.397954 0.985820 -1.634093 1.263079 0.090552 1.362884 0.679167 1.403485 -1.113767 0.683535 0.543842 0.041337 0.682029 1.290796 1.128160 -2.261416 -0.443671
ABXI02000116.1.1285 -0.611575 0.309937 0.896992 0.249924 -0.949628 -0.417315 0.238159 -0.196696 0.935989 -0.117615 0.023126 -0.324780 0.394857 0.961138 0.193035 -0.190536 0.025624 -0.149444 0.036872 -0.321378 -0.063086 0.278277 -0.606201 -0.535022 0.349067 0.349493 0.124597 -0.002729 0.221062 -0.037231 -0.643859 -0.092334 0.027380 0.497397 0.528344 0.044721 0.463969 0.897342 -0.325891 -0.533583 0.505982 0.074030 -0.046229 0.398151 0.265143 -0.237841 0.263298 0.150912 0.921086 0.106599 0.406033 1.067453 0.393950 -0.915178 0.952657 -0.268398 -0.579137 -0.352083 0.132834 0.313461 -0.642496 0.650380 -0.520123 0.396605 -0.000305 -0.569581 0.168514 -0.484005 -0.632762 0.128299 -0.537085 -0.088411 0.004033 0.436607 0.220911 -0.003765 -0.427570 -0.198057 0.709698 0.334454 -0.162029 0.112214 0.619815 -0.079016 0.115196 0.358139 -0.213207 0.177656 -0.610970 -0.188836 0.246299 -0.364924 -0.100118 0.823439 -0.971961 0.388372 -0.448085 0.599317 0.812108 -0.160404
ACBZ01000217.267.1788 -0.056319 -0.241113 -0.073948 -0.143402 -0.317589 -0.272140 -0.336150 0.355391 -1.238159 0.514781 -0.077676 0.122833 0.260627 0.391008 -0.263991 0.211692 0.098487 0.075087 0.085164 0.564637 0.448855 -0.590460 -0.402955 -0.011831 0.175257 0.585721 0.252248 0.518364 0.426765 -0.422152 -0.392168 -0.368138 -0.411192 0.286787 -0.136825 0.433808 -0.358570 -0.102002 -0.166989 0.190204 0.164219 -0.538451 -0.036248 -0.070213 -0.218596 -0.136384 0.219981 0.145009 0.438187 0.286863 -0.027788 -0.302363 -0.289250 -0.131071 -0.512233 0.596360 0.616399 -0.011963 -0.192001 -0.074222 -0.163141 -0.196164 0.357159 0.781548 0.228279 -0.216656 0.304179 0.337397 -0.313307 0.094682 -0.118318 0.437945 0.205998 0.096433 -0.139451 0.358016 0.095407 0.003727 0.036171 -0.171675 0.173690 0.096459 0.013394 -0.188628 -0.456325 -0.169467 0.493515 0.021887 -0.620786 0.003517 0.175878 0.297095 -0.801911 0.226852 -0.271740 0.121775 0.212053 -0.211308 0.155674 -0.581507
ACCF01000268.3369.4627 -0.050822 -0.141186 -0.798753 -0.030429 -0.204885 -0.419168 0.184578 0.587528 -0.691004 -0.198165 0.231577 -0.102851 -0.363633 0.012424 -0.472377 -0.267526 0.157203 0.116877 0.248247 -0.082866 0.463402 -0.039932 -0.148896 0.053495 0.339073 -0.068225 -0.125526 0.175385 0.020865 0.007544 0.307862 0.062829 0.085107 -0.455438 0.017909 0.038368 -0.224973 -0.132623 -0.115745 0.174989 -0.088681 -0.218919 -0.229647 -0.381304 -0.067799 0.003304 0.177320 0.216222 0.322317 0.414865 -0.106175 0.373139 -0.312241 -0.310416 -0.452768 0.449044 0.181415 0.658055 0.028576 0.509544 0.071283 -0.395445 0.277275 0.553081 -0.135710 -0.614012 -0.157031 0.152140 -0.114322 0.043854 -0.105600 0.069924 -0.082464 0.347218 0.296275 0.380193 -0.132081 0.410895 0.428652 0.788127 -0.343836 -0.272638 0.634009 -0.109072 0.089863 0.651963 -0.244443 0.174061 -0.278556 0.570279 0.178660 -0.268312 -0.470302 -0.366093 0.136988 0.040391 -0.248980 -0.237114 0.193887 -0.705318
ACCK01000460.1.1313 0.522971 -0.999784 0.768373 -1.736972 -1.886035 -0.984441 -0.564552 0.621998 1.266454 1.064462 -0.500764 -0.644084 -0.218622 0.940405 0.462937 2.970007 -0.445750 -0.686081 -0.519800 0.738992 -1.979749 0.083854 0.701282 0.607017 0.897323 -0.776010 0.066882 0.239752 -0.286052 0.323602 0.834236 -0.311696 -0.367963 -0.363394 0.153876 0.015567 -0.343008 -1.150714 -0.180137 -0.032782 1.081805 0.248983 -0.609740 0.313709 -0.572004 1.028859 1.045647 -0.393361 -0.031598 0.581770 -0.290459 -0.462140 -0.753862 -0.563893 0.447198 1.211781 -1.368431 -0.682309 0.843282 -2.320886 -0.030717 -0.645801 1.620875 0.556162 -0.244100 0.695318 -0.207574 1.034263 -0.572141 0.085680 0.201776 -0.540855 1.127524 0.815163 -0.493988 -0.568411 -0.475515 1.083135 0.138915 -0.094806 -0.265126 0.516804 0.694652 0.436588 0.418455 -0.025119 -0.883554 0.371266 -0.574015 -0.354331 1.151283 0.095925 -0.603008 0.565798 0.101437 0.668052 0.614136 0.501415 -0.140703 -0.910300
ACDP02000005.388.1906 0.539460 0.767725 -0.167636 1.173659 0.158375 -0.095262 -0.250199 -0.461997 -0.219937 -1.872777 0.086069 -0.387737 -0.646350 0.723283 -0.321470 -0.374889 0.351578 -1.328958 0.484622 -0.243953 -1.200920 0.466656 1.524020 0.238059 1.309187 -0.088443 0.735879 -1.321693 0.425467 -0.532054 -0.869068 1.082289 -0.735003 0.305185 0.880291 -0.404089 0.018762 -0.093580 -0.764966 -0.075120 -2.389686 -0.035650 1.969803 0.770978 -0.059812 1.068767 -0.783638 0.374019 -1.540655 -1.302517 -0.344715 -0.453184 -0.426043 1.479039 -0.251888 -0.910378 -1.838685 -0.427860 -0.477736 0.423070 0.472840 -0.037252 -0.195497 0.063727 0.976341 0.071177 -0.686223 -0.284447 -0.276658 0.631343 -0.204306 -0.698446 -1.931017 -0.245645 -0.975265 0.578344 0.268193 -0.215103 0.454350 -0.201673 -0.046335 1.502373 -0.141385 0.556339 -0.108570 -1.179725 -0.278683 -0.730529 -0.280729 0.530360 0.068280 -0.185718 1.228252 0.117455 0.208051 0.292254 -0.211013 -0.388703 -0.396278 0.841088
ACFE01000007.338.1763 0.685909 0.407771 -0.120295 0.039250 -0.353201 0.301580 0.200669 -0.792686 0.756867 0.502959 0.935713 0.413613 -0.251914 0.363762 -0.068720 -0.463242 0.893886 0.784938 -0.808770 0.008504 -0.037502 0.249165 0.732747 0.885614 0.231224 -0.365475 -0.157370 -0.580274 0.058942 -0.229403 0.230316 0.943503 -0.434540 0.406146 0.040953 1.347999 -0.101575 0.309114 0.417577 -0.829558 0.006849 -0.314716 0.319293 -0.068489 -0.490244 0.970891 -0.159826 -0.215439 -0.468492 -0.461629 0.636740 -0.267642 -0.357854 0.449088 0.593108 -0.480622 0.935248 -0.192083 0.354231 -0.099827 0.097576 1.047822 -1.230937 0.036093 0.270605 0.484178 -0.237862 -0.102449 -0.018155 0.606419 -0.465345 -0.139255 0.150273 -0.180172 0.281752 0.460063 0.175297 0.134683 0.395099 -0.505310 0.691475 0.436698 -0.000283 -1.041412 0.224187 -0.031336 -0.199727 0.042118 -0.370080 -0.662185 0.484366 -0.573370 0.437289 -0.114787 0.288274 0.838319 -0.339703 -0.343807 -0.109650 0.919097
ACGV01000168.71.1473 -0.154073 -0.264173 0.331709 0.502870 0.518580 0.273878 -0.248269 0.029352 -0.150628 -0.355369 -0.175971 -0.384187 0.205478 0.661347 0.439208 0.492222 -0.160985 -0.310863 0.386333 -0.305555 0.077682 -0.251689 0.812928 0.573470 0.047187 -0.525873 0.304158 0.411692 -0.360596 0.233804 0.457887 -0.311196 -0.732416 -0.532776 0.077657 0.879184 0.505193 0.088381 0.245051 -0.379888 0.850270 -0.980033 0.122707 0.278361 -0.927629 0.395114 -0.062422 -0.308833 0.054533 -0.547983 0.176563 0.615306 0.071461 -0.062639 -0.197571 0.206929 -0.034820 0.228729 0.669005 -0.686775 -0.954459 0.269379 0.158302 -0.141379 0.393822 0.713851 0.375423 -0.219038 -0.194175 -0.465697 -0.182349 -0.124368 -0.062037 0.264098 0.736842 -0.321324 0.073578 1.063850 -0.078505 0.089238 0.850165 0.351860 -0.163874 -0.759304 0.247549 0.199185 -0.421413 0.216619 0.044255 -0.383112 -0.342088 0.063291 -0.276219 -0.301960 -0.340110 -0.050273 -0.662686 -0.545847 -0.263672 0.676322
ACIP02000003.114175.115697 -0.206210 1.117787 0.234617 0.070127 -0.393897 0.086529 0.013313 -0.917984 0.403985 -0.978189 0.427455 0.492422 0.599381 -0.153509 -0.552303 -0.194162 -0.574691 -0.249363 -1.347778 -0.252924 -0.352531 -0.546524 0.468882 0.739282 0.707682 -0.496589 -0.725072 -0.842430 0.117712 0.239369 0.202119 -0.855939 -0.903166 -0.004772 0.717138 -0.068982 0.911620 0.525295 0.005208 -0.815874 -0.221832 0.260281 0.005663 0.882926 -0.842788 -0.400603 -0.330752 -0.275505 0.577338 -0.860680 0.217689 0.659662 0.536943 0.437294 1.806452 -0.159577 -0.548544 0.270461 0.692102 -0.234866 -0.751037 0.319609 -0.019500 0.025121 0.035336 -0.232102 -0.194296 -0.121329 0.433447 -0.144662 0.344002 -0.240732 -0.492997 -0.207488 0.610400 0.281029 -0.086945 -0.028275 0.977955 0.376295 0.058132 0.088881 0.224369 -0.691423 0.336332 -0.856750 0.887953 -0.769547 0.181953 -1.098695 0.264634 0.422201 0.219682 -0.028221 0.245101 1.198524 -0.390197 -0.123249 0.519448 0.237764
ACKT01000055.15.1310 -0.275339 -0.214452 -0.320743 -1.488742 0.353549 0.100469 0.183153 -0.687765 0.041147 0.210953 -0.621922 -0.424561 0.320125 0.589710 -1.098038 -0.633458 -0.944888 0.394398 0.311334 -0.039529 0.038030 0.158066 0.949946 0.597465 -0.452799 -1.260789 -1.121534 -0.649744 -0.391717 -1.508144 1.406997 -0.584838 -1.990979 0.534556 -0.829866 -0.860349 1.048497 -0.549718 -1.268720 -0.377283 -1.250069 1.363645 0.055460 0.317286 1.480522 1.482818 -0.280947 -1.046013 -0.928816 0.208905 0.019733 -0.613535 0.416128 0.909110 0.871536 -0.647882 -1.116969 -0.807017 0.703310 0.934789 0.774537 -0.543123 -0.038971 -0.041945 0.572612 0.144014 -0.081926 -0.885150 -0.089154 -0.657265 0.728008 -0.851954 0.054131 -0.748754 0.850640 1.059059 0.100517 0.478110 -0.559073 -0.301285 1.200469 -0.543444 0.714566 -0.238384 0.120912 0.342840 -0.220787 -1.262295 -0.204431 -0.459415 -0.539354 1.842085 -0.426981 -0.073836 -1.158902 -0.028751 0.187895 1.560448 -0.437181 1.612064
ACLA01000028.1.1216 1.486755 0.933678 0.230108 0.850078 0.604979 -0.857720 0.573833 -0.602382 -0.462506 -1.076198 1.202879 0.606529 -1.110295 1.236045 0.130384 0.356344 -0.860562 0.397632 -2.488544 0.766169 0.048081 0.871269 -0.371532 0.337483 0.484268 0.247813 -0.674630 -0.170671 -0.362990 -0.421751 0.173554 -0.014967 0.232376 -0.976127 -0.144632 -0.458885 -0.322157 -0.022287 0.981257 0.436711 -0.837041 0.968548 -1.071684 -1.355964 0.672170 1.192235 -0.069384 -1.104700 -0.723549 -2.087996 -2.582845 1.123613 0.892956 -0.062018 -1.376687 -0.119751 0.147069 -0.986122 1.112276 -0.725844 -0.560733 0.066073 0.302940 -0.186221 0.707542 -1.733500 1.777802 0.451283 0.254091 -0.157923 0.571689 0.118166 -0.944122 -0.325905 -0.345327 0.965459 -0.447703 0.265726 -0.810065 1.273075 0.439942 -0.470318 -0.756088 0.845823 1.843454 -0.143872 -0.443471 -0.923621 0.020357 -0.613185 -0.533632 -0.766620 0.372082 1.123469 0.120933 1.136262 -0.362006 -0.251185 -1.354304 1.813860
ACON01000003.712136.713636 0.501337 0.191660 0.616181 -1.425899 -0.589265 0.018889 0.751516 -0.766923 0.742541 -0.106722 0.722498 -1.006885 -0.430988 0.353505 0.941836 0.423705 0.779032 -0.746947 -0.681857 1.461795 0.160543 -0.014483 0.342425 0.685994 -0.576653 -0.477264 -0.936081 -1.429442 -0.218508 0.392697 -0.888422 0.942248 -1.020710 -0.212696 -0.655082 -0.590477 1.653585 -1.056816 0.716917 -0.205457 -0.911889 0.492260 0.600168 -0.487345 -0.184921 -0.032113 0.402692 -0.104321 0.632327 -0.511321 -0.138115 0.313748 0.650699 0.178102 -0.414770 0.333465 0.037192 -0.180176 2.083089 0.216529 0.342584 1.095341 0.545286 0.613481 0.075596 -0.032349 0.363503 -0.722258 0.786440 -0.398983 -1.235349 -1.230895 -0.080064 1.870728 -0.035866 -1.128234 -0.372422 -0.368066 -1.024653 0.171418 -1.772966 0.963128 -1.271949 -0.533826 1.466207 0.044595 0.768150 -1.269635 -0.993332 0.806444 1.279519 -0.321281 -0.791799 0.174956 -0.573065 0.186466 1.049253 -0.530374 0.055680 0.369519
ACTH01000059.589.2110 -0.385091 0.322742 -0.004013 -0.284549 -0.170403 -0.046530 0.052494 0.015517 0.125144 -0.298319 0.662766 -0.204984 -0.244512 0.673129 0.277139 0.383971 1.134266 -0.752599 -0.473935 0.147897 -0.335406 -0.109101 0.013860 -0.271017 -0.096725 -0.002640 -0.127601 0.084261 -0.092139 0.234770 0.636617 -0.290186 -1.994604 -0.099075 -0.683227 0.138789 0.844715 -0.011597 0.681371 0.378818 -0.327933 0.293659 0.037584 0.744218 -0.737560 0.460464 -0.867707 1.139546 -0.000196 0.444006 0.602294 1.280140 0.300776 -0.757129 0.207376 -0.779289 0.226433 -0.123565 -1.109954 -0.421657 0.642125 -0.131241 -0.413857 -0.057526 -0.433447 -0.290253 0.169548 -0.079212 -0.292148 1.732030 -0.131552 -0.818109 0.613711 0.205268 -0.157578 0.319680 0.314049 -0.173788 -0.598299 -0.102026 1.194573 -0.431713 -0.965223 0.047653 0.271431 0.699146 0.788508 -0.242966 0.874270 -0.258011 -0.850001 0.113182 -0.445515 -0.214069 -0.361565 -0.188128 0.867322 0.459037 1.025896 -0.494208
ACUX02000006.1.1301 -0.199431 -0.591943 -1.347686 0.347096 -0.659767 1.938170 0.850325 -0.888058 -0.028733 -0.416989 0.080915 -2.725335 -0.152517 0.964222 0.212690 2.213624 0.271670 -0.309552 0.473616 -0.181470 -1.360174 2.766235 -0.365805 0.191257 1.019555 -0.238555 0.598745 -1.199093 1.054228 -0.266488 0.315896 -0.640345 0.977259 0.312078 0.176740 -0.859461 2.064562 0.408834 -0.959435 -0.418340 -1.410637 0.747732 -0.410551 2.550578 -2.053215 0.804870 -0.129291 -1.573432 -0.555585 1.742953 1.892477 0.951503 0.169285 -1.556637 -0.655964 -1.886790 -0.310455 0.368185 -1.116224 -0.065124 -1.650405 -0.215893 0.908885 0.232444 1.050597 -0.068100 -0.855464 -0.394245 1.873694 0.784736 -0.032815 -2.634463 0.572328 1.215095 0.289580 1.385156 -0.773674 -0.649903 0.477316 -1.368857 1.006481 -1.028170 1.264591 0.142093 0.275006 -0.363967 -0.215262 -0.006373 0.011972 1.588015 -0.183620 0.643012 -0.409529 -0.940885 -0.550004 0.142676 0.474083 1.157533 0.313697 0.006635
ADFR01000011.3460.4852 0.681286 -0.934034 0.702463 -0.417638 -2.108977 -1.466954 0.239374 -0.759384 0.648928 -0.570626 -0.332107 -1.087237 -0.388613 -0.631287 0.375869 -0.117099 -0.043199 0.155138 0.997405 0.636197 -0.523918 -0.847459 0.110100 -0.819322 -1.250687 0.025392 -0.543981 -0.256426 2.240016 -0.361685 0.375633 1.169509 -0.163665 0.003497 0.334087 -0.547099 -0.747689 -0.087114 0.669326 0.833644 0.346415 -0.480897 -0.818540 1.231267 -0.808732 0.608020 -0.007392 -0.049526 -1.182209 -0.813354 0.550282 0.598564 0.992720 -0.430617 -0.133350 -1.147513 -0.818169 -0.433510 1.341650 -0.812139 -0.471342 -0.453221 -0.090337 0.811561 0.465635 0.161909 -0.572770 0.276444 0.423544 -0.466760 -0.029581 -0.549821 -0.208444 -0.012707 1.067042 -0.505680 -0.563167 0.050841 -0.756230 0.038281 1.140199 -0.466042 0.823234 -1.113559 0.640035 -0.206880 0.129512 0.991974 0.416429 -1.403788 0.791420 -0.735555 0.849031 -0.953066 -0.048212 0.917990 0.624232 -0.559688 0.517571 -0.706401
ADLN01000129.202.1639 -0.723053 0.001350 -0.491536 -1.518685 -0.723575 0.930506 -0.384819 0.014432 0.366567 -0.582370 -0.677314 0.055279 1.158189 0.562696 0.554838 -0.468532 -0.527880 0.137390 -1.113017 -0.012889 -1.139388 -0.474796 -1.014545 -0.617739 0.363064 0.618554 0.908839 0.845250 -0.230852 0.928898 -0.485846 -0.998330 -1.068481 0.050002 0.905670 -0.592452 0.632076 1.487624 -1.021200 -0.378537 -0.161591 0.076907 0.635616 -0.016224 0.362193 0.097540 0.197625 0.481329 -1.162753 -0.525313 -0.249905 0.139151 1.375025 -0.397357 -0.342627 0.327484 0.367364 0.217525 -0.266659 -0.604052 0.171816 -0.306141 0.879127 -0.339726 0.531233 0.633542 -0.455808 1.500936 0.336202 -0.917961 -0.116325 -0.003834 1.302518 1.002117 -0.092323 -0.658138 0.464192 0.113451 0.244576 -0.080994 0.210649 1.248975 0.657287 -0.696384 1.830494 0.643649 -0.197823 -0.106932 -0.026161 0.591092 0.428623 0.372242 0.114206 1.558845 -0.206885 0.557015 -0.405873 -0.255687 -0.044801 -0.505598
AEON01000002.393494.395009 -0.843721 0.231410 0.174666 0.014257 -0.238015 0.279762 -0.603792 -1.187191 0.330809 0.171893 0.630419 0.465862 0.032938 -0.098723 -0.248096 0.646924 0.049053 0.388624 0.023081 0.398265 0.117142 0.503980 0.104725 0.420310 -0.257564 -0.698938 -0.048833 -0.214948 -0.790348 -0.087996 0.138243 -0.058902 -0.241832 0.372028 0.728152 0.684392 0.019969 0.341563 0.168249 -0.160317 0.848209 -0.406625 -0.208663 -0.344285 0.106471 -0.385196 0.146864 0.083254 -0.272512 -0.413993 -0.033689 0.329485 0.627765 0.198263 -0.750121 -0.635113 -0.345052 -0.203874 0.171574 0.089819 -0.187055 0.423192 -1.095292 -0.063858 0.082813 0.005120 -0.128590 1.174585 0.108923 -0.008777 0.209381 -0.207849 -0.276007 -0.034864 0.794356 0.267499 -0.065687 0.244886 -0.437902 0.146002 0.239936 0.260871 -0.058105 -0.412919 -0.561516 -0.202820 -0.316975 0.060135 -0.256375 -0.468610 0.609057 0.254847 0.094815 -0.321326 -0.529766 0.441804 -0.249581 -0.343292 -0.137453 0.296543
AF101240.1.1465 0.282483 0.226691 -0.024636 -0.038254 -0.403643 0.978744 0.322028 -0.619657 1.477548 0.286544 -0.808122 -0.626664 -0.147130 0.110493 -0.304121 -0.262243 0.182606 1.195527 -0.342572 -0.750058 -0.648133 -0.013260 -0.022021 1.334908 0.179343 0.336226 -0.153089 -0.568614 -0.408265 0.068114 -0.349257 -0.004477 0.485421 -0.936625 -0.280182 -0.417508 0.021904 -0.317547 -0.183414 -0.299146 -0.343839 0.604053 -0.020389 -0.198259 -0.159321 0.491486 -0.028153 -1.287851 -0.977423 0.104591 0.691649 -0.657989 0.550983 0.732111 -0.004198 -0.896730 0.428848 0.662510 0.822616 -0.341383 -0.367251 -0.191094 0.416169 -0.646103 0.532828 -0.525952 -0.093200 0.764046 0.205656 0.794856 -0.502706 -1.233587 -0.598422 -1.461914 0.519273 0.174593 0.625497 0.102981 -0.395745 -0.535494 0.440844 -0.219218 -0.488278 0.115543 0.518178 0.659957 -0.567858 -0.477958 0.627212 -0.395203 -0.360956 0.188946 0.528203 0.309514 -0.704666 0.754856 0.570939 0.818236 -0.138569 0.762092
AF132270.1.1279 0.941190 1.409690 0.052407 -0.267066 -0.690124 -2.572755 0.575391 -0.086420 1.607670 -0.307544 0.557743 0.078084 0.584578 -1.005538 -0.010524 -0.624045 1.572251 0.830675 0.146482 0.702828 0.211859 -0.839849 -0.089021 0.351417 -0.346356 -0.223119 -0.359505 -0.804449 -0.213957 1.123598 1.286804 0.763359 0.099878 0.541455 0.006376 -0.326540 1.948018 0.254727 1.116842 -0.544124 -0.791461 0.306008 -0.632425 0.278429 0.914886 0.402415 1.602420 -0.247498 0.160567 -0.792116 0.705074 -1.125396 1.240312 0.309268 0.871606 -2.120123 -0.694264 -0.227014 -1.323597 -0.307522 -0.786463 -1.195460 1.362428 -0.674864 1.002075 -0.078125 0.925800 0.236421 0.541776 -0.365885 1.363974 -2.039437 1.491653 1.587634 -0.165356 -1.864391 -0.060970 -0.778019 0.456355 -0.202419 0.068831 0.812738 0.159529 -0.880109 0.427569 0.372440 -1.468289 -0.108826 -0.730269 -0.657475 0.257476 -0.567121 1.570707 0.910300 -1.289591 0.030623 -0.517422 0.278114 0.120980 0.723378
AF153858.1.1349 0.208475 0.095879 0.280866 0.574704 -0.617064 -0.200715 -0.746308 0.484458 -0.621595 0.418448 0.028596 -0.080931 0.249560 -0.064559 -0.131961 0.288514 -0.011696 -0.124413 -0.401310 0.113655 0.601771 -0.174722 -0.216030 0.095562 -0.220953 0.195043 -0.157561 -0.369940 0.006650 0.547642 -0.133471 0.487911 -0.251475 0.276021 0.008294 0.429632 -0.354792 0.150151 -0.021132 0.364653 0.234044 0.014312 -0.012676 0.131374 0.293233 -0.110754 -0.034718 -0.208479 0.290548 0.838175 -0.207322 -0.168263 0.165357 0.384757 -0.150151 -0.097543 -0.143002 0.074723 0.443305 -0.496772 0.376231 0.065790 0.638146 0.150348 -0.063529 0.207187 0.774416 -0.054920 -0.430755 -0.950828 -0.554248 0.084688 -0.183251 0.250722 -0.240534 0.084980 -0.269776 -0.007931 -0.564384 -0.589241 -0.055453 -0.213207 -0.197458 0.479360 0.540734 -0.293824 -0.252133 0.271460 -0.025162 0.550826 -0.046856 -0.621131 -0.652754 -0.159540 0.322083 -0.147627 0.555833 0.463694 0.334964 -0.433898
