AAAA02020714.1.1202 0.748090 -0.165747 0.576670 -1.036156 0.585368 1.017838 0.385766 -0.131702 0.094946 -0.764131 0.881904 2.452559 -0.315074 0.101084 0.026293 1.474176 -0.564152 -0.175470 -2.011711 1.182324 -1.199089 -0.063116 -0.588751 -0.506559 -2.580627 1.599189 -0.592408 0.044135 0.290032 1.869543 0.855191 1.623092 0.862155 -1.135932 0.889429 0.568199 -0.818099 -0.795167 -0.929241 0.484087 -0.487346 0.640894 -2.191032 -0.925961 -0.272421 0.139936 0.288196 0.219628 0.383056 -1.073732 -0.629106 -0.498750 1.046083 -0.293554 1.353801 0.635407 0.500041 -0.426785 0.506737 0.207489 -0.551264 0.732275 0.381495 -0.529793 -0.795126 -2.452045 0.482684 -0.019203 1.187008 -0.203133 -1.120003 0.968464 0.274277 -1.275243 -1.559610 -0.032039 1.380558 -0.087691 -0.488381 -2.130406 -1.101039 1.133336 0.845383 0.104277 -0.717829 -0.367861 -0.593462 1.052901 -0.181139 -0.251270 -0.896098 -0.492526 -1.596183 0.279837 1.336052 -0.979129 1.344046 0.520973 0.459403 -0.558321
AATC01000018.2.1513 0.118326 1.077146 -0.018729 1.400269 -0.786418 0.153538 -0.338175 -0.274867 0.932115 0.071397 -0.363609 -1.510928 1.556881 -0.661873 -0.170528 0.206532 -0.777790 0.352374 1.840169 -0.266299 -1.221384 0.309585 0.833518 -0.464990 0.482635 0.056235 -0.249822 0.005237 1.080430 0.610788 -0.477073 0.491981 -0.580912 -0.150473 0.072723 -0.328117 0.334137 -0.600911 0.612539 0.818511 0.531193 -0.171421 -0.814888 -0.346389 0.137949 0.222489 -0.756601 0.011609 -1.617752 -0.076581 0.250584 -0.218392 0.345578 -0.425645 1.745411 0.389322 0.788736 0.592792 -0.553343 -0.280643 2.343932 -0.265461 -0.791476 0.076138 -0.208129 -0.075768 -2.301405 0.638350 -0.699722 -1.568989 0.058390 0.326456 1.541476 0.886692 0.139223 -0.209773 -0.626410 0.476656 1.013196 -0.189515 1.047273 0.497146 -0.214582 1.320544 0.085352 0.071265 0.762580 1.134778 -1.262074 0.115223 -0.438281 -0.870094 1.222054 1.934566 -0.352576 2.743930 1.559971 1.615592 0.741858 0.950864
AAXA02000007.1.1294 -0.146740 0.154856 -0.182631 0.136037 0.573185 0.045208 -0.558088 -0.822080 -0.136617 0.203667 0.057222 -0.113251 -0.400989 -0.039759 -0.030617 -0.627117 -0.410676 -0.321487 0.166964 0.366881 0.292908 0.170191 -0.026473 -0.668849 -0.374641 0.484039 -0.099555 0.240127 -0.193192 0.811449 -0.150890 -0.278173 -0.263974 -0.123137 0.258841 0.464027 0.542738 -0.088631 0.203470 0.046291 -0.647408 -0.198724 0.565450 -0.228286 0.089126 0.224393 0.017106 -0.508248 0.578248 0.020381 -0.289331 0.655782 0.486771 0.119758 0.202301 -0.744847 -0.779899 -0.072590 -0.257824 -0.230988 -0.030345 0.741487 -0.195433 -0.002458 -0.355385 -0.080298 -0.964446 0.577353 0.269866 0.167202 0.597403 1.052422 -0.535108 -0.492612 0.214314 -0.456094 -0.051342 -0.087540 -0.524174 -0.780886 -0.069164 -0.129298 -0.814377 -0.628494 -0.645146 0.622550 -0.082586 -0.118401 0.228817 0.437425 -0.108184 -0.538197 0.576335 -0.355494 0.356112 -0.023860 -0.124167 0.170601 -0.486030 0.774675
AB012207.1.1299 0.578147 -1.006778 0.362011 0.968729 -2.854000 0.386245 -0.176519 0.012730 0.473048 -1.131502 -0.286134 0.087722 -0.044022 1.069946 -1.812770 0.096954 -1.363082 -0.583412 0.487093 -0.355205 -0.433960 -0.037992 1.234974 0.818123 -2.097054 1.768402 -0.616770 -1.003522 1.453807 0.320589 0.385613 0.040265 0.887247 -1.096529 0.273639 2.385338 -0.657167 -0.013604 0.853392 0.378944 0.679269 -0.761869 0.147324 1.163937 1.095167 0.339090 -0.323176 0.667650 -0.592230 -1.331351 -1.755940 0.536107 -0.783041 -0.467544 0.508832 0.187412 0.912114 0.249383 -0.290881 -0.010211 0.181132 -0.259057 0.769954 -0.202342 2.226581 0.352195 0.283624 -0.012801 1.055577 -0.073760 -0.857381 -1.158580 0.161980 0.706109 -0.619685 1.420447 0.876618 1.107750 -1.035901 -0.885955 -0.336517 0.179886 -1.045469 0.075956 -0.801382 0.054684 1.448467 -0.152658 -0.236610 -0.648565 1.234532 1.282399 0.669712 -0.760229 -1.152263 -0.917697 1.923223 -0.022693 0.490900 0.627482
AB022925.1.1450 0.764773 -0.873808 -0.058322 -0.528115 0.548598 -0.195438 -0.362412 -0.162958 0.111198 -0.007130 -0.516445 -0.459918 0.154877 0.605859 0.333782 0.419422 0.059233 0.075955 -0.384630 0.167390 -0.439785 0.058286 -0.705172 -0.214488 0.855375 0.440804 -0.577702 -0.031298 -0.152415 0.203309 0.083137 -1.157963 0.403104 -0.825527 -1.306421 -0.074291 -0.500230 -0.376806 0.143942 -0.889449 -0.078736 0.300560 -0.070281 0.788281 0.215185 -0.260738 -0.604102 0.030167 -0.028688 -0.603605 0.449900 -0.456798 -0.291635 -0.107387 0.570129 -0.587357 0.256989 0.278055 -0.267787 0.357152 0.729687 0.058669 0.314761 0.342509 0.040373 0.165083 0.277707 -0.497806 -0.052264 0.437526 -0.173212 -0.342300 -0.059887 0.417377 -1.313591 -0.119045 0.571498 0.644587 -0.387491 0.066287 -0.191995 0.327518 0.131483 0.099458 -0.338588 -0.095826 -1.032088 -0.267809 0.327618 -0.509510 0.032006 0.091438 -0.278623 -0.522194 -0.433040 -0.577255 0.026502 0.507378 -0.558257 -0.388640
AB036759.1.1480 -0.473003 -0.617875 0.054874 -0.092231 0.117043 0.858134 1.244485 -0.027248 -0.438236 -0.893198 0.262905 0.253378 0.239720 -0.494846 0.143871 0.472440 -0.115684 -0.025361 0.266552 -0.634075 0.547708 -0.587913 -0.313696 0.450348 -0.334148 -0.286345 -0.137118 -1.066764 0.679267 0.028062 0.329695 0.149642 0.563139 0.272803 -0.104942 -0.403704 0.180997 -0.913836 0.512883 0.574767 0.874673 0.629079 0.045454 0.388005 0.666429 -0.039897 0.640361 0.042529 0.008438 0.397279 -0.255600 0.280932 -0.183765 -0.549721 0.275724 -0.185286 0.272750 -0.322233 -0.168425 0.133017 0.125377 0.197421 0.108790 -0.235275 0.052162 0.355630 0.115012 -0.167236 0.067808 -0.583030 -0.009384 -0.761193 -0.716676 1.328043 0.259298 0.696929 0.439366 -0.101776 0.355785 -0.731809 0.092233 -0.189852 -0.310065 0.618352 -1.069311 -0.325196 0.115598 -0.486731 0.154370 0.600634 0.397317 -0.089570 -0.076657 -0.473524 0.023962 0.240972 -0.434651 0.833610 0.342263 0.618380
AB185810.1.1527 0.213477 -0.298511 -0.171241 -0.252689 0.247704 0.517999 -0.103738 -0.146746 0.714922 -0.519082 -0.317599 0.620868 -0.765434 0.172365 -0.265832 0.334305 -0.104638 -0.148547 0.400015 -0.154227 0.822220 0.091048 -0.057189 -0.467359 -0.024488 0.355516 0.462497 0.556802 -0.317823 -0.839391 0.714780 0.255160 -0.075113 -0.566797 0.532860 0.112715 0.814527 0.184961 1.285603 0.512424 -0.308452 -0.685115 0.011567 -0.938106 0.051884 0.773174 -0.318815 0.280077 0.255133 -0.000619 0.234501 -0.306059 -0.652625 0.400872 0.112346 -0.083070 -0.686758 -0.658917 0.381514 -0.292323 0.149795 -0.674429 0.051730 0.343380 0.301931 0.373445 0.537869 -0.613996 -0.182357 -0.062172 -0.470554 -0.384841 -0.539320 0.724474 -0.662118 -0.437623 0.639898 -0.686709 -0.484923 0.130736 0.063050 -0.142942 -0.031137 -0.278628 -0.568166 0.496862 0.608456 0.254678 -0.627217 0.926396 0.185585 -0.114657 0.230076 0.072229 0.135301 -0.176454 0.231753 -0.208912 -0.545170 0.859697
AB200414.1.1491 0.244493 -0.327216 0.542402 -0.067858 0.037378 -0.197458 0.099723 0.216945 0.264907 -0.230253 0.798235 0.079682 0.838316 -0.047981 0.188814 1.040945 -0.442021 0.012441 -0.372024 0.698385 -0.427572 0.116149 0.378897 -0.425546 0.691268 0.767660 0.342153 -0.295471 -0.001990 0.180174 0.400556 -0.132985 -0.225450 -1.551526 0.411075 0.083561 -0.069565 -0.288147 -0.206246 0.007395 1.091984 0.423774 0.014362 0.109890 -0.706120 -0.076143 0.524815 -0.302204 -0.081702 0.035818 -0.203720 0.215869 0.004278 -0.181160 0.206458 0.408963 0.180544 -0.006951 -0.664555 -0.081459 0.233530 1.039672 -0.209087 0.234746 0.254128 -0.770157 0.107286 -0.506357 0.123130 -1.091730 -0.018567 -0.454047 0.829989 0.053896 -0.122817 0.161840 0.369675 -0.373833 0.443148 -0.972623 -0.908151 -0.552726 0.717708 0.604594 0.135903 0.353544 -0.257027 0.289565 -0.118229 -0.046966 0.303136 -0.636007 -0.131130 0.508586 -0.504638 -0.009386 0.690201 -0.591401 -0.292060 0.871488
AB218322.1.1456 -0.004488 1.844675 0.737659 -0.300975 -0.384124 0.863793 0.049629 -0.844520 0.654648 -0.598866 -2.008247 -0.167801 2.263374 -0.725581 1.561640 0.290072 -0.608712 -0.384856 2.436725 -0.510400 -0.963112 0.012829 -0.792741 0.335116 -0.343629 0.848680 -0.296827 -0.281214 -1.142582 0.381603 -0.208423 1.330240 -0.812044 -0.528238 -0.532646 -1.124893 -2.082874 -2.027491 -1.428040 0.136127 0.831366 1.234208 0.022828 0.350301 0.962684 0.121471 -0.467804 -1.240375 -1.166959 -0.708317 -1.892123 -0.150222 0.725353 0.746605 1.736725 0.538306 0.167273 1.161512 -2.645901 -0.430042 0.159745 -0.693587 -0.792476 1.021587 0.914328 -0.905958 0.593406 -1.754015 1.582931 0.848574 0.917110 1.407360 -0.486619 -0.823528 -0.890275 0.465853 -0.713510 0.857072 0.127016 -0.202271 -0.166979 -0.173938 -0.656010 1.299090 -2.233125 -1.374908 1.230288 0.232365 -0.722750 0.089557 1.148191 0.976605 0.512442 -0.340099 -0.744440 -0.148694 1.054607 -1.254389 0.146891 0.292235
AB218324.1.1551 0.477715 -1.220389 -0.145928 -0.247349 0.605362 0.509550 -0.545410 0.378779 -0.640165 -1.075228 0.080322 0.443730 0.406347 0.358131 0.358211 -0.127101 -0.198450 -1.092736 -0.040940 -0.247260 0.397101 1.627716 1.158156 1.763592 0.514938 0.455812 -0.375035 0.052975 -0.488102 -0.126737 0.500716 1.137905 -0.372639 0.229274 -0.991714 0.207458 -1.700319 0.059860 -0.194848 1.446925 0.623203 -0.469770 0.291562 -0.283210 0.319063 0.005499 0.556841 -0.530135 -0.153689 1.487777 -0.917547 -0.110025 0.154107 0.147116 0.805950 0.633042 1.013544 0.012093 -1.062630 -0.315541 -0.318858 0.406267 -0.024205 -0.508725 0.351680 -0.422678 -0.880060 -0.675263 -0.380069 -0.814116 -0.619106 -0.006931 1.165581 -0.767000 -0.035587 0.338272 -0.418709 -1.298810 -0.119111 -0.330686 -0.153367 0.017908 1.076006 0.715470 -0.585922 0.852229 0.793931 0.747115 1.092996 -0.744246 0.534974 -0.177182 0.103384 0.656300 -0.309366 -0.241560 1.311671 -1.407025 -0.154361 0.556623
AB218325.1.1438 0.805300 0.533761 -0.154657 -0.332574 0.169761 0.077702 0.074005 -0.445961 0.309822 -0.399492 0.160428 -0.023349 -0.216288 -0.749969 -0.726131 0.409271 -0.092057 -0.026442 0.810516 0.461928 0.153983 -0.168815 0.739268 0.373601 0.388036 -0.152788 0.509895 0.104821 -0.089768 -0.487158 0.327056 0.455372 -0.552677 0.020568 0.479774 0.014773 0.123293 0.097061 0.619761 -0.351098 0.363650 -0.567845 -0.055441 -0.188238 -0.091615 -0.254850 0.753826 0.231370 -0.137520 0.024699 0.323689 -0.107232 0.176230 -0.321090 -0.141807 -0.169631 0.906031 -0.475138 0.430918 -0.635643 0.330545 -0.408799 -0.726551 -0.484614 0.039155 -0.539543 -0.146021 -0.426241 -0.412745 -0.078615 -0.476157 0.297065 0.112744 -0.111437 -0.067117 0.434920 0.070495 0.270240 -0.397366 0.212726 0.774117 0.110216 0.392479 -0.356091 0.380406 -1.084432 -0.004204 -0.395411 -0.312673 -0.268631 -0.050316 -0.464757 -0.443975 0.498098 -0.343297 -0.353324 -0.019023 -0.503288 0.272674 0.810698
AB218338.1.1457 1.032147 -0.300624 -1.421709 2.391588 -0.664003 -0.003289 0.919381 0.497032 -0.689521 -1.016724 -0.231391 -0.636189 1.358965 0.585138 0.628679 0.085990 0.524802 -0.757118 -1.136686 0.342504 -0.055262 1.019925 0.184862 1.350175 0.834352 -0.810699 -1.083039 1.145270 -1.210984 0.378740 -1.007153 -0.320358 -0.297806 -1.015709 -0.990193 0.708259 0.935284 -1.084116 -1.068806 0.205716 1.049737 -0.301867 -0.974509 -0.608035 0.687388 0.101233 0.291963 -0.303524 -0.615974 0.414551 1.839915 1.197649 1.314601 -0.747618 -0.477185 -0.749214 0.912733 -0.590196 -0.559176 -1.414731 -1.031746 -1.038974 0.739159 -0.032794 0.745590 -0.251041 -1.424657 0.157721 0.288821 -0.647418 -0.741325 0.768426 1.558081 1.392929 -0.145605 -0.549959 1.238367 0.991458 0.794780 -0.628441 -0.630347 0.724537 0.041581 -0.270256 0.775612 1.813803 0.223518 1.544635 1.245128 0.026964 1.140207 -0.632826 -0.009937 -1.619547 0.084444 -0.079743 -0.202363 -0.107236 -0.611034 0.596135
AB234447.1.1351 0.538329 -0.183483 0.057987 0.429056 0.175519 1.723996 0.071215 -0.166466 1.077979 -0.239524 -1.216527 0.721899 -0.427810 0.387216 -0.318099 0.118470 0.499373 -0.786133 0.038918 0.414855 -0.727554 1.001498 0.126865 -2.104876 0.284178 0.330339 -0.330004 0.314081 0.861735 1.194682 0.786876 0.810293 0.045681 -0.412224 1.096673 0.268890 0.012361 -1.027390 -0.738361 -0.173366 0.548250 -0.467027 -1.146079 -0.597196 0.068447 -0.128061 -0.313859 -0.688211 0.665947 -0.645436 -0.712328 0.054027 1.286714 -1.186506 1.264452 -0.369627 0.949020 1.335947 -0.130391 -1.081258 0.658246 0.342745 0.738752 -0.266496 -0.398894 -0.161175 -0.044888 -1.253191 -0.418972 -1.475765 -0.770296 -0.456456 0.349591 -1.319432 0.345820 0.651853 -0.228012 0.218546 0.912166 -0.467712 -1.338966 1.491948 -0.856811 0.562294 1.001671 -0.302979 -0.098106 -0.567499 0.352306 -0.678269 0.504088 -0.410011 -0.446732 1.206706 -1.167670 -1.446514 0.775419 -0.525646 -0.890295 0.968807
AB264082.1.1445 0.555483 0.222267 -0.379199 -0.257315 -0.081225 -0.534173 -0.020530 -1.114584 -0.043821 -0.944860 0.276814 -0.285499 -0.237804 1.546548 0.344022 -0.367298 -0.166911 -0.557783 0.317407 0.186595 1.224751 -0.947500 0.949856 0.115080 0.181299 0.165522 0.465470 -0.406422 0.062614 -0.384436 0.562038 0.235840 -0.065774 -0.863390 0.324941 -0.807468 -0.172734 -0.692067 0.475475 0.081966 0.081281 0.289359 0.716627 0.604854 0.193566 0.620642 -0.504481 0.313092 -0.586096 0.175791 0.121988 -0.056323 0.268441 0.250819 0.315119 0.240516 1.145532 -0.511749 0.063892 0.189737 0.680691 -0.222112 0.206643 -0.260221 -0.362249 -0.514453 -0.215455 0.032311 1.157791 -0.371654 0.360474 0.750281 1.443427 -1.086159 0.675985 -0.021913 -0.861618 0.755690 -0.552171 0.180172 -0.221555 -0.812688 -0.276774 -1.346211 0.042377 0.441084 -0.041794 0.367779 0.279667 0.379697 0.658684 -0.562960 0.548991 -1.178270 -0.447951 -0.466118 0.353438 -0.951362 -0.087600 0.874417
AB264126.1.1422 0.221103 -0.786409 -0.372848 -0.506186 -0.690614 0.151113 -0.094325 0.399848 -0.354397 0.005735 0.511743 -0.098283 0.826300 1.786033 0.702921 -0.092784 -0.958383 -0.425846 0.597252 0.413650 -0.711420 -0.015234 0.629362 -0.823893 0.877390 0.007730 0.034010 -0.387007 0.131482 0.992674 0.622129 -0.273529 0.471153 -0.854314 -0.620578 0.084649 -0.792870 -0.426790 -0.190330 -0.914146 2.052110 1.389451 -0.308384 0.888817 -1.480912 0.837196 -0.821960 -0.256819 0.999533 -0.140332 -1.267288 1.025712 0.875695 -1.433987 -0.362761 -0.055457 0.509213 0.929151 -0.316508 -0.734396 0.024382 -0.986687 1.051668 -0.273249 -0.111032 0.049571 0.118919 0.216547 -0.424164 -1.318226 -0.977032 -0.932563 0.664567 0.580647 -0.487044 -0.018942 0.633224 0.533517 -0.019599 0.150466 -0.647470 -0.037483 0.077349 0.661054 -0.289511 1.200396 0.066761 0.233081 0.418108 0.102985 -0.298644 -0.264963 -0.644904 -0.421374 0.074295 -0.301730 1.762305 -0.635529 0.016991 0.785625
AB267809.1.1461 0.400839 0.595080 0.757181 0.108474 0.970515 -0.722947 0.081949 -0.215188 -1.994985 -0.743056 1.383431 -0.105136 -0.475393 1.592125 -1.347668 -1.208870 2.519067 0.665864 0.086948 1.148862 -0.179547 0.223376 -1.564356 1.102942 1.298087 0.005377 -0.307157 -0.867684 -1.333859 0.851204 1.170164 1.095427 0.711168 -0.016220 0.159790 -0.088157 -0.207537 -1.185002 -0.437464 0.448981 0.971181 1.095441 1.162125 1.056772 0.760083 -0.626051 0.696404 -0.836846 -1.913426 0.864346 0.561438 0.346556 0.339368 -0.198033 0.365114 -0.365928 0.007473 -1.650622 -0.699322 -2.207991 1.075581 0.156996 0.960148 0.086812 1.381119 0.093513 -0.438362 -1.142665 0.369795 0.486159 -0.025747 -0.630482 -0.932040 0.241086 -0.498829 0.293449 0.910691 -1.397649 -0.079310 -0.581482 -0.734342 -1.744899 1.058025 -0.208298 0.781483 -0.363072 -0.582289 0.029730 0.008911 -0.629955 0.926133 -0.968148 -0.669180 0.482328 0.877677 0.351612 1.733102 0.152279 0.128711 0.203325
AB270083.1.1322 -0.238788 0.113989 -0.693305 -0.988901 0.470161 1.418863 -1.004510 1.414692 -0.300131 -0.966118 -0.736937 -0.036183 0.865477 0.738089 0.303289 -0.636965 -0.632847 0.263643 0.025796 0.215054 -0.048822 0.271701 0.250563 0.271605 -0.455765 1.547527 -0.035266 -0.377681 -0.742904 -0.546335 0.701378 -2.275427 -0.370388 0.255853 0.457592 -0.548497 0.239888 1.585487 0.582054 -0.781062 0.414714 0.527360 0.550121 -0.033137 0.828924 -0.286027 -0.541546 -0.481324 -0.021957 0.260723 0.040423 0.164592 -0.070717 -0.036969 -0.058347 1.193624 0.808302 0.162065 -0.328030 0.621263 0.576204 0.544414 -0.349821 -0.407979 -0.272200 0.703171 -0.197347 -0.331204 0.935239 0.012910 -0.188135 0.399127 0.285109 -0.172792 0.112554 0.426797 -0.112398 -0.696973 -0.661016 -0.688615 -0.339885 0.308830 0.815402 0.578855 0.176425 -0.336440 -0.270321 0.364529 0.219440 -0.609801 -0.270881 0.209838 1.067649 1.591783 -0.128652 0.467255 1.133850 -0.047276 -0.212812 -0.580041
AB272322.1.1204 0.231137 0.138858 0.448805 0.145891 0.253558 0.566791 -1.212001 0.955219 0.657600 -1.590313 -0.156899 0.400587 -0.420543 0.471050 -1.095779 0.287763 0.623995 0.484634 -1.031664 -0.428780 -0.794314 -0.246813 -0.524987 2.024847 -1.067804 -0.103290 -0.665709 0.284048 1.082468 -1.830384 0.297886 -0.226979 -0.471250 -0.674027 0.445494 -0.101956 -1.169674 0.628304 -0.245350 -0.216908 0.724405 0.492692 0.592634 0.828261 -0.412996 -1.477208 -0.610007 0.145514 -0.016917 -1.931414 -0.960614 0.733668 0.870827 1.664891 -0.574798 -0.284962 -0.803081 -1.822559 -0.235146 0.728687 0.322917 -0.218744 -0.676486 -1.279036 0.260091 -0.044027 -0.631931 -0.579240 -1.463652 -1.399466 -0.385067 0.092691 -0.972675 0.424577 -0.378689 -0.074593 1.682566 -1.429487 0.340030 0.478573 -0.620118 0.099497 -1.104041 -0.064159 -0.485372 -1.545663 -0.445576 0.482344 0.189986 0.826885 0.056980 0.460908 -0.407754 -0.159805 -0.324001 0.581862 0.075340 0.331224 -0.805907 -0.598991
AB272335.1.1200 -0.072506 0.405771 -0.328370 -0.208554 0.188106 -0.424022 0.231077 1.245143 -0.176617 1.272868 0.035861 -0.660224 -0.988254 0.236481 0.872080 -1.165578 0.138006 -0.659943 0.032387 -1.290073 0.822095 -1.186018 -0.111511 -0.064465 -0.824375 0.515802 -0.070470 -1.253295 -0.734057 0.610143 -0.124726 -1.021812 0.688839 1.006804 -0.606815 0.855634 -0.876250 -0.040676 -0.047030 0.282647 0.907693 0.946559 -0.052956 0.506644 0.368192 0.433735 0.094071 0.635498 0.330152 0.110393 0.086547 -0.835010 0.287240 -0.807379 0.160789 -0.221529 0.410378 -0.117361 -0.602922 0.311312 -0.015403 -0.655574 0.171377 0.112066 0.493911 -0.137243 -0.432002 -0.464920 -0.009140 0.590515 0.051554 0.700266 0.084570 -0.490474 0.147911 0.079347 0.171094 0.067701 -0.254835 0.705253 -0.151134 -0.131644 -0.216176 0.864898 0.795005 -0.832961 0.269998 -0.311574 0.559958 0.137544 -0.930388 -1.118951 -0.256710 0.002945 -0.107537 -0.349755 0.501108 -0.024692 -0.063784 0.194618
AB272364.1.1268 0.620266 -0.592214 1.076217 0.181762 1.012075 -0.062223 -0.003511 0.929040 -0.500103 -1.979216 0.613607 -0.658513 0.146420 -0.596530 0.542519 -0.046932 0.488392 0.190091 -0.619364 0.179440 -0.059731 -1.498657 -1.299369 1.409741 0.618320 1.054425 -0.435875 -0.418893 -1.181778 -0.713898 -0.372046 0.754349 -0.447281 -0.710232 -0.108761 -0.351745 -0.252886 -0.629882 0.928872 1.074657 1.544165 -0.921464 0.763783 1.366374 0.835383 -0.505885 -1.219993 0.232699 -1.190602 0.621328 -1.627701 -0.883380 -0.533034 -0.239712 0.864980 1.054557 1.508163 -0.466322 -0.593206 1.590329 -0.351610 -0.017313 0.081557 0.858726 -0.193777 1.911150 0.395438 0.968685 0.759096 -1.186023 0.787132 0.908891 0.974524 1.316350 -0.204542 0.488874 -0.017776 -0.877448 0.765448 -0.902360 -0.257482 0.696059 -0.655273 -0.287857 0.378123 -0.772569 0.007216 0.350312 -0.553730 -0.821543 1.149762 0.163524 1.614803 1.389011 0.275801 -0.435792 1.042060 -0.221845 0.057471 0.490867
AB294138.1.1215 -0.517540 -0.152164 -0.810479 0.420091 -0.363089 0.650260 0.761598 -0.545793 0.789902 -1.503719 -0.021338 -0.624439 0.369645 0.312708 -0.702896 -0.487918 -0.793912 0.033676 -0.299195 0.049435 0.348109 -0.781386 0.803356 0.629409 -0.586906 -0.440063 1.414445 0.608208 0.304868 0.082029 1.158841 0.053231 0.965920 0.236091 -0.069958 -0.442678 -0.671710 1.132229 -0.534434 0.221192 0.252304 0.485511 0.902258 1.026645 -0.091320 0.678253 0.360798 0.445775 -1.432291 -0.659959 -1.190542 0.036604 -0.618538 -0.644636 -0.067090 0.845388 -1.010108 -0.722946 0.149649 1.093859 0.838609 -0.459105 0.456722 -0.784647 1.780174 -0.056589 -0.904153 0.936710 -0.238032 -1.988615 -0.068218 -1.515550 1.494498 -0.373916 -0.029351 -0.248481 0.162030 -0.417224 -0.297870 -1.082750 -0.738016 0.011515 0.146298 0.064766 1.369614 0.275795 -0.489021 1.256387 -0.092427 0.384152 -1.123174 -1.308265 0.523396 0.230116 -0.345089 0.519339 0.028455 0.844875 0.335083 0.635177
AB300988.1.1342 -0.367680 -0.333205 -0.557747 0.145619 0.079984 0.283053 0.735811 0.813329 -0.481649 0.500425 -0.159817 0.299375 -1.364407 -0.566131 0.181892 0.433947 -0.978865 -0.192934 0.282514 -0.376078 -0.592987 -0.200253 -0.364775 -0.294164 -0.217443 -0.240408 0.010620 -0.032803 0.226661 -0.266569 0.253874 -0.102681 0.259715 -0.358482 -0.071184 0.580933 -0.027556 0.288299 0.042621 -0.385328 0.433027 -0.257002 -0.157775 0.404090 1.489026 -0.744062 0.568113 0.225997 0.377913 0.739224 0.715226 -1.003496 -0.109647 -0.131012 -0.388518 0.575384 0.614545 -0.153574 -0.000682 0.863215 0.016344 -0.091377 -0.179417 0.859054 -0.321618 -0.709985 0.350602 0.337502 0.140785 0.603356 -1.253138 0.218390 0.293421 -0.320492 0.744429 -0.465262 0.314060 -0.252320 1.188106 -0.868006 -1.055512 0.342390 -0.081258 0.490132 1.195163 -0.737683 -0.256471 -0.529895 -0.267937 0.230170 -0.756216 -0.069133 0.383447 -0.385644 -0.064598 0.413236 0.867278 -0.241568 0.069181 0.045521
AB300989.1.1489 0.118887 -0.276984 0.840312 -0.025258 0.866640 -1.256608 1.629366 -0.047677 -0.679396 1.727605 0.841131 -1.028124 0.847537 2.138003 -0.873860 -0.273640 -1.013696 -1.204069 0.356843 -0.135490 -0.874629 0.082150 -1.589609 -0.162518 0.771370 0.324198 0.066501 -0.799446 -0.680368 1.518424 1.188505 -2.641384 0.285574 -0.553574 -1.017153 -1.218926 1.043762 -0.495590 -1.310309 0.405476 0.298368 1.350599 -0.211391 0.814110 -0.294259 -1.613935 -1.549379 0.282899 1.991681 1.620187 -0.526748 -1.247707 0.045981 0.663479 -0.713878 -0.966631 -2.616845 0.201582 0.663770 0.125847 -0.481636 0.544111 0.004930 1.610626 -1.242922 -0.615747 0.475636 0.713413 1.163529 -0.108919 -0.781387 -0.886160 1.303949 0.576673 0.687689 1.203868 1.379136 -0.358043 0.504759 -0.294126 -2.158162 -1.702614 1.266545 0.390747 0.228056 -1.896323 -1.163832 -0.622017 -0.593879 -0.680887 1.636604 -1.732253 0.521407 1.116349 -0.185409 -0.674991 0.154609 0.385939 -0.350335 -1.234605
AB331897.1.1481 0.453819 0.715212 -0.493263 -1.550185 0.951502 -0.873928 0.430144 0.068198 -0.419920 0.055882 -0.383201 0.741208 0.639623 0.675810 -1.202966 -0.555286 -0.970524 -1.236878 -0.905031 -0.575446 0.254554 0.284978 -1.777717 0.710902 0.630943 1.423587 -0.830553 -0.729066 -0.269551 0.397239 0.265746 -1.217506 -0.950960 -1.396138 -0.122357 -0.538589 0.651706 -0.688920 0.361822 -0.683441 0.429125 0.937344 0.146039 -0.579211 -0.185272 -0.102528 -0.692062 -0.471023 -1.476927 -1.154195 0.428341 0.419277 0.535381 -0.379872 1.411001 0.205103 0.277031 0.067236 -0.383173 -0.170082 -0.511055 0.090475 -0.160033 0.238465 -0.580167 0.704114 -0.418830 -0.174099 0.309427 0.380584 0.349413 0.782268 -0.132360 0.354177 0.461651 -0.638797 0.443672 -0.048040 0.060996 0.639089 -0.880728 0.377389 1.143811 0.352228 -0.193667 -1.541295 0.235903 -0.349243 0.918755 -0.292999 0.171937 0.167471 -0.632100 -0.068343 -1.506313 -0.229998 1.038230 0.477780 -0.982431 -0.537001
AB425929.1.1502 -0.076456 -0.428306 1.123013 0.102257 0.273937 0.662516 0.525908 0.157015 1.140455 -0.391740 -0.389910 0.339013 0.216706 0.182713 1.203625 -0.798459 0.767697 0.292921 -0.762910 0.828699 0.178275 0.669875 0.362231 1.108424 0.238202 0.865169 -0.187800 -0.509153 1.578418 -0.342848 -0.946883 0.443708 -0.338451 0.199315 0.068758 1.148759 -0.160916 -0.470601 -0.016026 0.603269 0.154682 0.580229 -0.523235 0.829315 -1.090093 0.084398 0.210635 -1.432343 -0.440581 -0.606060 0.483657 0.031950 0.061493 -0.135771 -0.003936 -0.222401 -0.598138 -1.186268 0.504148 0.278082 0.245899 0.093143 -0.199846 0.260399 1.779757 0.127552 -0.716832 -0.156552 -1.096389 -0.771324 -0.319260 -0.122175 -0.010287 0.316093 -0.357601 0.887355 -0.048477 0.065095 -0.921599 -0.107769 0.369855 -0.521477 0.079320 0.318151 -0.699322 0.143357 0.872882 0.988557 0.011533 -1.008283 0.254289 -0.612580 -0.335750 0.244686 -0.144381 -0.169973 0.019199 -0.751590 0.025766 -0.081894
AB443949.1.1486 1.490017 0.688894 0.555277 -0.515965 0.233359 -0.621262 0.754028 -0.008430 -1.242304 0.286448 -0.614674 0.777056 0.556407 1.453417 0.872682 0.186430 -0.968349 0.595634 -0.140961 -0.029512 -0.309354 -0.706255 -0.316490 0.130711 1.355312 0.379522 -0.440056 -1.152540 -1.203468 -0.303550 -0.852232 0.072520 0.106289 0.037462 -0.366753 -1.066502 -1.254192 -0.299135 -1.008751 1.141095 0.360095 0.817148 -0.127165 -0.607702 -0.663818 -0.270824 0.736148 0.558475 0.165546 -2.283765 0.104558 -0.317054 -0.676649 0.091371 0.090583 0.572668 1.689544 -0.337123 0.332843 -0.334078 -1.718397 0.455005 0.703557 1.135326 0.662067 -0.496776 0.270217 -1.545392 -0.904350 0.188204 -0.831982 1.008149 0.805167 0.483992 -0.118415 0.611972 0.164726 -0.402811 1.059588 -0.238203 0.931720 1.036096 -0.286123 0.197357 0.610664 0.174182 -0.662317 0.902139 1.212402 0.086076 0.861015 1.070640 -0.509440 0.236504 0.464389 0.056723 0.553562 0.131956 -0.230215 0.249932
AB470343.1.1485 1.510309 -0.092469 0.557024 0.217589 -1.325980 -0.056700 0.118362 0.314557 -0.034202 -0.753634 0.385989 -0.143644 0.035173 1.614850 0.225216 -0.609558 1.424935 -0.256388 0.218085 -0.417835 -1.324175 0.555967 0.175141 -0.156235 -0.838043 0.854810 -0.454271 -0.288753 -0.397023 0.526041 -0.530562 -0.245959 0.186798 -0.580855 0.545502 -1.478192 -0.093416 -0.535543 -0.090264 -0.541960 -0.789320 0.299386 0.616831 0.018318 0.796381 -0.090187 0.271919 -0.494230 -0.026500 0.512929 0.670918 -1.252749 -0.079220 -0.387251 0.586513 0.285301 0.799877 -1.039518 0.105546 0.226024 0.203193 0.175150 0.135118 0.457689 0.050783 -0.403131 -0.396465 -1.089847 -0.614390 0.929175 0.131516 0.419272 1.767683 0.082622 0.199435 -1.302342 1.340499 -0.300888 0.087305 -0.437623 0.626925 -0.178342 0.760919 -0.296038 0.269135 0.456997 -0.823621 1.936930 -0.149143 -0.373896 0.400535 -1.259000 -1.409725 -1.108165 0.274981 0.209513 -0.527100 -0.056525 -0.621716 -0.218247
AB480534.1.1481 0.004067 0.346281 0.167779 -0.078457 -1.412914 -0.425134 0.666468 0.891509 0.385779 -0.495673 0.414871 -0.409061 1.482256 -0.614843 -0.378559 -1.168033 -0.384694 1.271579 0.397083 0.315236 0.101171 -0.380488 0.638478 -1.649457 0.706686 0.382673 -0.510053 -0.118741 0.430804 0.512195 0.351391 1.545628 0.272810 -0.125664 0.690466 -1.106006 -1.341383 -0.048693 -0.062727 -0.542740 -0.132363 1.436727 -1.453247 -0.307876 1.231041 0.034555 -0.475146 0.414449 0.139626 -0.151860 1.057550 0.629497 1.482007 -1.085659 -0.098904 1.049847 -0.423186 0.256476 -0.097472 0.529233 0.758557 0.981073 0.196220 0.261799 0.402226 -0.448363 0.536947 -0.535582 0.675915 -0.760668 -1.103396 0.374122 -0.180882 0.019281 -0.574177 0.352071 0.964063 -0.618996 -0.466588 -0.918795 0.091644 -0.797122 1.197237 1.103416 0.121616 -0.717790 -0.512350 1.209121 0.161801 1.908956 0.505839 -0.456195 -0.678433 0.463545 0.173434 0.534373 1.951412 -0.617068 -0.016407 0.492781
AB490809.1.1497 0.406671 0.067873 -0.748617 -0.035790 -0.153815 -0.116998 0.517852 0.367636 -0.107667 -0.251749 -0.214412 -1.234401 0.464684 -0.432074 -0.185141 0.011916 0.121218 -0.325556 0.099941 -0.893648 0.165326 -0.129535 -0.069012 0.071837 -0.084181 0.820395 -0.280914 -0.134344 0.782624 0.705509 0.441008 0.424331 0.520616 0.018636 -0.274262 -0.414965 -0.584364 0.202951 0.794653 0.451789 -0.200542 0.447714 -1.597746 0.140477 -0.684321 -0.641711 -0.913251 0.125440 -0.188317 -0.519157 0.295555 0.153995 0.633098 0.322384 -0.600794 -0.154147 0.165903 0.081834 0.414952 0.130643 0.311749 0.371109 0.628718 -0.421234 -0.150294 -0.436327 -0.450197 -0.399119 -0.655756 -0.239294 -0.939566 -0.021306 -0.106926 -0.527472 0.845953 -0.350708 0.229847 0.053903 0.184015 -0.147354 0.617855 -0.381017 0.077226 -0.392205 0.005527 -0.973621 -0.119955 0.000932 -0.749663 -1.188582 -0.108945 -0.594773 -1.010899 -0.379987 -0.116089 -0.058169 -0.063860 0.010792 0.436223 -0.038484
AB490810.1.1469 -0.496637 0.386757 -0.248827 0.295964 -0.788301 1.037569 -0.242306 -0.394307 0.280014 0.623006 0.619870 -1.523064 -0.056321 0.204749 -0.567427 -0.476714 0.728179 0.048116 -0.800918 0.839011 0.150367 -0.932222 0.548636 -0.043701 0.259199 1.010466 -0.055170 -0.166389 -0.400940 0.030462 -0.823843 -1.256737 1.597381 1.506142 0.336313 0.657796 0.773921 0.535927 -0.455876 -0.245396 0.797277 -0.283284 -0.825375 -0.200355 0.158439 0.684697 -0.741563 0.086653 -1.273706 -0.796796 -0.992459 0.933131 0.974298 0.438395 0.156460 0.471596 0.761136 -0.215248 -0.048320 0.078586 -0.278191 0.884050 -1.616009 1.560139 2.818234 -1.400344 0.209556 0.284033 -1.652996 -0.635024 -1.001653 0.006215 1.500253 -0.234529 0.226736 -0.144680 0.837289 -0.185238 -0.142285 0.325357 -1.265117 -0.716126 -0.644033 0.035208 1.015621 1.218101 -0.324900 -0.181128 1.661496 0.440847 -0.837883 -1.424171 0.437079 0.216700 -1.783912 0.444978 2.182515 1.060439 1.737640 0.399343
AB491210.1.1485 0.977674 -0.773266 -0.256450 -0.005325 -0.468205 0.715979 -1.285835 1.623060 -0.358747 0.419320 0.640832 -0.388779 -0.988652 0.976326 -1.079263 1.193790 -0.395310 -2.182231 -0.714233 0.484091 -0.972184 0.007156 0.854307 -0.443163 1.396135 -0.650332 -1.339148 1.006662 0.524466 1.003530 0.034387 -0.251236 -0.308260 -0.277521 -0.116294 -0.566373 1.029982 0.864857 -0.634475 0.738466 1.450589 0.040066 -0.632101 0.545779 -1.561723 0.769296 0.425996 -0.061784 -1.865271 1.075068 0.258844 0.981257 0.293914 -0.273645 1.429930 -0.093223 -1.706373 -0.320516 0.772164 -0.943413 0.506119 0.769519 -0.015810 0.349191 1.475193 1.348237 0.487492 0.007159 -0.377866 -1.922394 0.499426 0.601141 0.106269 -0.336004 -1.040186 0.431458 -0.282755 0.860235 -0.728465 -1.216395 -0.161316 -0.773462 -0.988086 0.983316 -0.973994 -0.285385 0.148889 -0.516740 -0.125233 -1.101555 -0.935309 -1.086210 -1.442632 0.726627 0.529907 -0.356129 -0.367209 -0.643811 -1.019301 1.518853
AB506166.1.1495 0.886462 -0.168957 0.010196 0.795890 -0.109650 -1.587889 0.793512 -0.974105 0.204632 -1.314806 -0.695142 -1.021961 0.923082 1.648614 -0.802097 0.241034 0.052061 -0.823316 0.304183 1.205982 -0.250769 -0.477373 -0.055280 0.652601 -1.117710 0.064711 -0.743575 0.562853 0.113657 -0.871480 1.199302 0.746491 0.665149 -0.526483 -0.089276 -0.284576 -0.338998 0.215659 1.104580 0.417598 1.401488 0.384444 -1.082115 -0.268367 0.179892 -0.600255 0.636626 -0.314632 -0.825523 -0.278749 -0.859752 -0.647360 0.816292 -1.139351 0.317517 0.164052 1.246089 1.507483 -0.511675 0.731283 0.803029 0.512215 -0.277483 1.329128 1.521956 -0.769558 -1.176840 0.946678 -0.089023 -0.687266 0.871186 -0.930101 -0.741857 -1.052880 2.090903 -0.428832 1.197266 -0.725064 0.623670 0.173120 0.635110 0.186874 0.716228 -1.964739 0.060095 0.405125 0.115150 -0.290161 0.084105 0.064349 0.858801 -0.124715 0.609843 0.676293 0.289496 -0.164000 0.985325 1.306854 -0.425791 0.007427
AB506185.1.1506 0.648845 -0.082258 1.130716 0.412544 -0.544873 -0.370243 -0.718102 0.941308 -1.012617 1.161094 -0.467929 0.722906 -0.390031 -0.915146 1.420577 0.710836 0.726852 0.222864 0.422161 0.491398 -0.330646 -0.152249 0.244974 0.509422 -1.493120 1.388909 0.158276 0.062386 0.421966 -0.758583 0.569783 0.380988 -0.841212 -0.425579 -1.117070 0.952752 0.968523 0.269803 -1.313890 -0.853283 1.642049 -1.210842 -0.361054 0.648152 0.443082 0.682964 -0.741600 -0.542623 -0.135106 1.274780 0.320957 1.497644 1.073591 -1.275750 1.397059 0.120277 1.013671 -0.563238 0.232786 1.557823 -0.130517 -0.728235 0.361034 0.783728 -1.343083 -2.323004 0.337278 -0.650139 -0.432887 0.429635 -0.798828 -0.284357 1.058648 -0.576753 0.189728 -0.460289 0.558549 -0.022762 0.193074 -1.117887 -0.650116 0.105871 -0.033850 1.610083 -0.786288 0.400892 -0.286489 -0.248809 1.262510 -0.755232 1.479442 -0.159029 0.855821 -0.783738 -1.663242 0.024220 0.194809 1.019467 -0.866943 0.655216
AB506188.1.1515 0.595706 -0.368437 1.062616 -0.914758 0.141971 0.060871 -0.824915 1.233582 -0.465173 0.840145 1.135257 -0.339404 1.540781 0.572116 1.168095 -0.161334 0.799128 0.518810 -0.208575 0.141424 0.136801 0.000766 0.226229 1.527546 -0.192217 -0.968884 0.635223 0.728754 -0.924463 0.513160 -0.137624 -2.113224 0.533611 0.395360 -1.258937 0.195504 -0.606934 -0.821341 -0.873898 -0.438813 -0.360230 0.333563 -1.079682 0.361073 -0.201087 -0.169349 -0.766604 0.518467 -0.260380 -0.447921 0.302624 0.840372 -0.545600 0.375145 0.636776 0.373829 -0.729176 -1.812814 -0.894134 0.249852 -0.444928 -0.260374 0.583968 0.965505 2.637553 1.102525 -0.849394 -0.872681 -0.080640 -1.406101 -1.590088 1.444013 0.728326 0.738897 -0.173797 0.403478 -1.145375 -2.049003 -0.470335 -0.720599 -0.941871 0.441632 0.387420 0.990876 -1.109099 0.303895 -0.381150 2.318547 -1.029825 -0.337631 0.592307 -0.415722 -0.578646 0.588885 -0.406818 -0.987071 0.303076 -0.561024 0.048603 2.295454
AB506192.1.1523 0.155623 0.033947 0.156642 0.076068 -0.708355 0.743283 -1.272672 1.010609 -0.350770 -1.181477 0.094074 -0.875488 -0.410240 -0.058002 0.316739 -0.433816 -1.200420 0.059541 -0.730994 0.037591 0.388487 0.262161 -0.412506 -0.418303 -0.572836 -1.019152 -0.328499 -0.213128 0.200022 1.379099 -0.007446 0.590283 0.159993 -0.411202 -0.326101 0.679294 -0.779863 0.936618 -2.097829 0.590378 0.481382 -1.044030 -1.053451 0.347195 -1.043370 0.108340 0.799207 0.419315 1.183591 -0.746454 0.681774 -0.464906 0.845601 -0.086200 1.652622 -1.105999 0.201116 -0.562259 0.108390 -0.187448 -0.318139 0.141136 0.245347 -0.020274 0.126876 -0.894161 -0.642084 0.609305 -0.411365 -0.001157 -0.268302 1.050979 1.015831 -0.420569 -0.786710 -0.450873 0.420731 0.855524 0.387617 -0.040647 -0.634650 1.144804 0.186585 -0.048467 0.579531 1.323045 0.243533 0.428044 0.628081 -0.044985 0.319864 -2.028218 1.055607 1.532927 -0.028029 -0.438136 -0.083789 -0.489142 1.171880 -0.608486
AB506199.1.1508 1.406353 -0.346352 0.405966 -0.154115 -0.133848 0.890769 -0.143882 0.370803 0.622054 -0.668126 0.721373 0.549764 -0.141484 -0.589161 1.037216 -1.143511 -0.720758 -0.313213 -0.411357 -0.022460 0.189178 -0.746859 0.860190 0.906191 -0.339062 1.258710 -0.110198 -1.049541 -0.590505 0.250030 1.320661 -0.235704 -0.048988 0.459371 0.046993 0.421037 -0.207209 -0.414825 0.148202 0.185181 0.093091 0.863319 -0.209317 0.236410 0.638064 -0.061810 -0.673617 -0.355848 -1.248905 0.734049 -0.019118 -0.057179 0.033152 -0.189002 0.872035 1.749355 -0.987695 0.434926 0.683294 -1.009092 0.934583 -0.055396 -0.541708 -0.430809 0.199862 -0.749706 -0.943004 -0.060569 0.033315 -1.527063 0.068729 1.470238 -0.829818 0.109558 0.510228 -0.036862 -0.276325 -1.020342 -0.619226 -0.752638 0.354758 0.895013 1.103103 0.922191 -0.008614 0.566459 0.466721 1.626402 0.022514 -0.812413 0.627173 -0.959757 0.363845 0.205675 0.461767 0.178953 0.312086 0.424211 0.338910 1.024517
AB506227.1.1518 -0.103045 1.794951 -0.181384 0.560484 -0.694272 0.030000 -1.108789 0.553180 0.113208 0.177176 -0.012944 -0.027043 1.143730 0.349443 -0.347404 -1.395525 -0.156028 0.456703 0.048867 -0.875193 -0.314856 0.012125 0.760819 -0.406160 -0.084664 0.072123 0.647492 -0.581730 0.143978 0.765809 -1.003688 0.076686 0.265109 -1.220759 -0.173270 0.794977 0.054599 0.867800 -0.965088 -0.377887 -0.257897 -0.334963 -0.022174 -0.027109 0.816856 0.626870 -1.060851 0.376727 0.731574 -0.373773 -0.098253 0.406017 -0.552852 -0.546244 -0.322617 0.948673 0.403859 0.060034 -0.311976 0.523445 -0.049250 0.568737 0.456386 -0.084664 -0.356794 -0.238631 -0.954286 -0.790459 -0.690303 -0.892609 -0.845986 0.884706 2.012726 -0.292334 -1.341155 0.337819 1.386083 0.269373 1.355575 -0.337657 -0.441769 -0.436042 0.200303 -0.601556 0.100783 0.171346 0.259198 1.037745 0.274614 -1.529393 0.914466 -0.112977 -1.051947 -0.154231 -0.687855 -0.764825 1.374544 0.557301 -0.587585 -0.364117
AB506372.1.1510 0.017869 0.638300 -0.251780 -0.053467 -0.935133 -0.325256 -0.303119 0.197430 -0.108427 -0.836711 -0.814077 -0.705720 0.135619 0.470475 0.108304 -0.662570 -0.919713 0.274183 -0.837460 -0.471301 -0.657842 -0.273778 0.599944 0.765539 -0.118108 0.061719 0.190234 0.092721 -0.399599 -0.582650 -0.107323 0.085882 -0.375065 -0.512945 -0.141529 0.444061 -0.778688 -0.311348 -1.106902 -0.395264 0.787238 0.895532 -0.526794 0.869983 0.609373 1.125591 -0.500577 1.040607 0.516975 0.630815 -0.215091 0.549458 0.222502 0.428374 0.183021 -0.212062 0.486976 -0.696513 -0.212714 0.441811 1.114647 -0.139315 0.282008 -0.269823 0.799951 -1.361528 -0.856203 0.458468 0.220511 -0.121305 0.730405 0.636363 -0.932690 0.267512 -0.383396 0.937411 -0.088428 0.091883 -0.371854 -2.031103 0.019152 0.395649 0.248862 -0.418491 -0.799029 0.742918 1.646417 -0.155136 0.549424 -0.673675 0.506638 1.288767 -0.253421 1.405209 -1.369309 0.623884 0.537085 -0.782726 -0.506114 0.760437
AB506382.1.1509 -0.518116 -0.475693 -0.439307 1.143048 -0.819708 -0.185402 0.817515 0.752265 -0.986461 -0.279310 0.406879 0.163728 1.088666 0.748484 1.398630 1.140368 -1.330465 -0.332792 -0.299425 0.283259 -0.802098 -0.571542 0.155039 -1.375223 -0.108805 -0.026995 -0.595102 0.811421 0.388799 0.895730 -0.396211 -2.089465 0.126552 0.030550 1.320052 -0.776999 1.622287 1.126717 0.838152 0.934918 1.402395 -0.599467 -2.057151 -0.801867 1.145698 0.316934 -1.322236 -1.068957 1.855623 -0.715841 -0.641882 0.919535 1.753877 -0.320361 -0.150562 -0.681145 -1.258797 -2.185751 -0.125079 0.226045 0.938410 0.904293 0.705026 0.427199 1.617397 -0.418036 -1.497456 -1.335606 -2.054141 0.760513 -0.951516 0.263422 0.082961 0.950389 -0.066731 -1.376605 1.220045 0.809677 1.343395 1.264167 -0.295838 -1.431383 -0.605572 -0.392558 0.464215 1.240745 0.328748 2.350312 1.975170 -0.006403 -0.796542 0.607621 -0.867006 -0.800402 -0.576272 -0.137184 0.067786 -0.543615 -0.701131 1.666628
AB506413.1.1616 1.003032 0.714344 -0.002578 0.732083 0.180096 0.161408 0.882136 0.572972 -0.867254 -0.348804 -0.159351 0.678993 -0.704924 -1.568960 0.800872 1.091395 -1.245474 -0.735125 0.999912 0.434460 -0.384637 -0.039348 -0.104672 0.639191 -0.658619 1.038648 -0.582664 0.641872 0.992725 1.024197 -0.231899 -0.641009 0.093402 0.144030 -1.112572 0.249720 1.198037 -0.281092 -1.130526 0.786857 -0.096903 0.585766 -0.003033 1.096512 0.217348 -0.007746 -0.396911 -1.060573 -0.915970 -0.304839 -0.898072 0.931115 0.768822 -0.722479 1.739995 -0.420868 -0.053871 0.156980 -0.549646 -0.363099 0.723897 -0.232457 0.176056 0.147041 -0.058866 -0.447517 -0.111671 -0.724294 -0.526387 -0.514790 -0.204679 1.327438 0.263533 -0.551526 -0.535213 1.183443 1.134804 -0.656211 -0.849640 -0.852444 -0.061093 0.712484 0.037130 0.612742 -0.308582 0.715133 0.663301 1.326463 0.224896 -0.040866 -0.514038 -0.296768 0.049884 0.157597 0.198126 -0.237364 -0.602745 0.753277 -0.418306 0.758900
AB538433.1.1488 0.812940 -0.886009 -0.616659 1.152998 -1.652298 0.185661 0.235549 0.708889 0.742143 -0.092818 0.268547 0.300996 -1.381816 0.760367 0.707913 -1.697435 -0.603556 0.922623 -0.217325 -0.204036 0.354179 0.319630 -0.235428 0.094814 0.758849 0.361570 0.169549 0.361121 1.272806 -0.119751 0.203818 0.825485 0.373188 -0.039098 -1.968463 -0.053915 -0.542327 -2.133728 0.361486 0.576605 -0.377460 0.112147 -1.027463 0.528845 -1.372391 1.483942 -1.731657 0.633401 1.347408 1.487072 -0.813722 0.983213 -0.605484 -0.683765 0.896781 1.770897 -1.572286 -1.514778 -1.329295 -1.315033 1.899214 1.157191 -0.308994 0.003718 0.464965 -0.009340 0.675385 1.092031 1.168000 -0.337840 0.337797 0.739401 1.447232 0.889754 0.312350 0.547234 2.364206 0.765784 -0.143693 0.172172 -1.113338 -0.533198 0.830939 1.681415 -0.476870 0.196560 -0.250572 0.156531 0.792068 -1.151454 -1.241387 0.626872 0.413055 1.739526 -1.188435 -0.333330 -0.009737 -2.196638 0.790470 -0.862505
AB547672.1.1495 0.832057 -0.033664 0.944147 0.718006 -1.028806 -0.206025 0.919637 -1.194427 0.389565 -1.618365 0.130295 -0.110010 -0.640798 0.794719 0.744875 -1.010511 0.773331 -0.405406 0.722587 -0.526683 -0.117667 1.259099 0.781193 1.593659 1.264047 1.126174 -0.098071 0.244728 -1.067886 1.588455 1.132689 -0.845078 -0.745924 -0.157035 0.416499 0.797724 1.731336 -0.512496 0.811668 -0.464111 2.261330 -0.189929 1.538131 -0.447816 -0.798477 0.856710 1.050903 0.325844 -0.085779 1.689052 0.591429 0.522620 -0.002879 -1.135050 0.565589 1.166789 -0.307269 0.087653 -0.030587 0.815726 0.116518 -0.505098 -0.677831 0.087595 0.104473 -0.118997 -0.999882 -0.054668 -0.290995 0.579942 -0.557218 0.068937 0.584257 1.126472 -0.568268 0.747825 0.407149 0.305924 0.056024 -1.802895 0.160144 -0.404052 -0.242693 -0.536043 -0.470422 -0.773666 0.274230 1.351196 0.923093 1.925274 0.280642 -1.863903 0.492633 -0.716030 -0.456678 0.072416 1.078213 0.000653 -0.358396 -0.895509
AB547676.1.1493 0.168401 0.008454 -0.769005 -0.964664 -0.553340 -0.582009 0.202176 -0.175407 -0.529753 -0.391220 0.161291 0.106763 0.166876 0.882644 0.846135 0.803419 0.264360 0.390317 -1.185978 1.745743 -0.131211 -0.089229 -0.326059 -0.397757 1.347634 0.290102 0.342517 0.767149 0.548316 1.284854 -0.345310 0.865421 0.857236 -0.705997 -0.503815 -0.307075 -2.529736 -0.653688 1.031095 0.231516 0.082820 1.574674 -0.092870 0.178865 0.994165 0.817326 -0.257766 -0.136109 -0.390430 -0.873178 0.541154 0.303151 -0.299145 -1.830258 0.922245 0.080802 0.458122 -0.355757 0.646146 -0.948800 -1.236979 -0.283457 -0.316379 0.503047 -0.381747 0.541700 0.276867 -0.145545 -0.449014 -0.188723 -0.040304 -1.164122 -0.207909 0.013938 0.228908 -0.691728 0.767817 0.287467 0.158832 -1.962486 1.044109 1.055172 0.002696 0.213644 0.073517 -0.343745 0.603654 0.919391 0.907610 -0.172636 -0.236496 -0.603657 -0.208060 -1.056927 -0.865889 0.619946 0.589433 -0.595678 -0.382017 -0.793670
AB547696.1.1280 0.123031 0.634897 -1.205646 0.132051 0.481449 -0.778053 1.735513 -0.677774 -0.265105 0.142592 0.774327 0.328247 0.404718 0.465663 -0.225016 -0.327615 0.257731 -0.141407 -0.224394 -1.373743 -0.689497 -0.095717 -0.605277 0.061001 -0.003279 -0.926434 -0.109268 0.965721 0.599111 1.788148 1.184987 0.807945 0.527763 -0.439264 -0.482870 0.573563 -0.060007 -1.190635 -0.785926 -0.139985 0.208445 0.776847 -0.778427 -0.382580 1.386969 0.473556 -0.565865 -0.030153 -0.635841 1.007401 -0.919658 0.157974 0.300713 -1.513788 0.893346 -0.300226 -0.956840 -0.966207 0.278089 -0.643348 1.103694 -0.374588 0.335848 -1.496441 0.795995 0.168093 -0.705526 -0.051712 -0.362548 -1.341552 -1.160334 -0.662716 -0.285876 0.745850 1.101666 -0.790969 1.184784 -0.281854 -0.526213 -0.870185 -0.668733 0.486332 -0.813788 0.925471 0.991664 0.675365 -0.982287 0.459620 0.047077 0.515286 1.781033 -0.730373 -0.950303 0.091603 -0.954449 0.536916 0.288260 0.520331 -1.881497 -0.915352
AB558171.1.1473 -1.067349 -0.037874 -0.363133 -0.384807 -0.627101 -0.989600 0.503735 -0.641203 0.398538 -0.347457 0.851771 0.357619 0.311119 0.027058 0.383746 0.353701 -0.124275 -0.163081 -0.314837 -0.192157 -0.660475 0.482141 0.490127 -0.515259 -0.610908 -0.030803 0.040762 0.144374 1.451128 -0.279919 0.867246 0.378566 0.223158 -0.058905 -0.426414 0.238610 0.434324 -0.226150 0.070692 0.848506 1.077267 -0.074151 -0.152578 0.346920 -0.660674 0.688094 -1.627599 0.295750 0.405874 -0.414842 0.030337 -0.439441 0.525728 -0.599922 0.873905 0.637452 -0.491901 -0.502654 -0.725383 -0.710122 0.044449 0.142801 -0.031482 -0.278118 -0.291185 -0.498114 -0.291537 -0.276793 0.177512 0.166742 0.171202 -0.959164 -0.662796 0.571669 0.166205 -0.174174 -0.901728 0.625843 0.558583 -1.349561 -0.051676 -0.552618 -0.644195 -0.291489 0.668033 0.033575 0.014731 0.382248 0.654564 -0.116321 0.433979 0.426279 -0.896596 -0.317243 -0.624514 0.220032 0.113115 -0.939716 -0.409550 -1.094632
AB558487.1.1504 0.072172 0.809250 -0.474263 -0.592056 -0.125656 0.151491 0.407040 0.024437 -0.344413 -0.005200 0.216662 0.543983 -0.848547 -0.322619 0.148801 -0.084815 -0.218062 0.459874 0.571479 -0.369415 0.111214 0.191722 0.554133 0.804959 0.063812 0.555793 -0.141989 -0.463321 -0.729562 -0.406254 1.226904 -0.117708 1.005610 -0.514658 -0.076239 0.767756 0.063162 -0.124876 0.436938 0.044216 0.345835 -0.883921 -0.234459 0.081853 1.031939 -0.087525 0.484827 -0.740697 0.727895 -0.372336 0.101576 0.016741 -0.194145 -0.269331 -0.481883 -0.492808 0.056382 0.127226 0.199365 -0.654825 -0.232726 -0.146595 -0.162513 0.454966 -0.224865 0.970825 -0.175356 0.023244 0.268464 -0.585120 -0.794858 -0.305547 -0.893041 0.283989 -0.704456 -0.245761 -0.049654 0.055277 -0.083245 -0.187701 0.665383 0.675838 0.193914 -0.995268 0.690103 -0.321794 0.493481 0.461584 -0.455405 0.538680 -0.684165 0.628948 0.593692 -0.476076 -0.102558 -0.264794 0.051121 0.062282 -0.068727 -0.089516
AB559618.1.1515 1.482831 -0.704645 0.782774 -0.002042 0.112870 0.753184 -0.114902 0.879552 -0.247698 -1.167206 -0.352326 -0.025451 0.488745 1.338319 -0.292444 1.171963 -0.989549 -0.357945 0.805884 -0.874500 0.062979 -0.248578 0.153808 1.081279 1.250001 1.304952 -0.469800 0.532798 -0.212864 0.555123 0.397670 -0.765520 -0.525577 -1.574490 -0.238003 0.747538 -1.629820 -0.275556 -0.697245 -0.461402 1.517629 1.711660 -0.447184 -0.733775 -0.063023 -0.757180 -0.326343 0.000945 -0.554069 0.568694 0.140258 0.295228 0.145667 0.525857 1.093474 0.495763 0.790537 -1.422397 -0.841852 -0.469422 0.167346 -0.344510 0.918456 0.348292 0.439256 -1.470004 -0.079814 -0.446402 -0.221824 -0.263956 -0.556340 -0.628616 1.339360 0.358432 -0.076438 -0.267939 0.769717 -0.122999 0.435132 0.021270 -0.801042 0.405023 -0.767174 0.375110 -0.186938 -0.097826 0.179889 0.949432 0.721607 -0.725819 0.261310 -0.582486 0.532905 -0.270282 -1.033448 -0.020562 0.489436 -0.408929 -0.513974 0.565191
AB595138.1.1492 0.028534 1.009419 0.545969 0.133026 0.985117 -0.095799 0.340558 0.749596 0.812912 -0.475593 0.077860 0.848297 -1.147358 0.533584 -0.836187 -0.393399 0.563383 0.102665 -0.460026 -0.498845 0.386188 0.856379 -0.950076 -0.272232 -0.557402 0.095335 0.233547 -0.292029 0.644991 0.890954 -0.071495 -0.981441 0.632225 -0.245688 -0.311211 -0.328112 -0.606897 0.316771 -0.456920 0.985548 1.109025 0.163252 -0.539580 0.122104 -0.204751 0.128632 -0.659150 0.704853 -0.071545 0.612503 -0.560436 -0.667472 0.561737 -0.237851 1.075443 -0.256775 0.606262 0.185037 -0.317603 0.578474 0.121725 0.392778 0.144811 0.278922 -0.344130 -0.455063 -0.167775 -0.587805 0.766505 -0.094127 0.442362 0.109922 0.097763 0.432285 -0.825086 0.173841 -1.312429 0.169007 -0.846134 -0.851774 0.084666 -0.143882 0.003480 0.416001 -0.055560 -0.503284 -1.013508 0.565067 -0.178312 0.050686 -0.238541 0.042205 0.952241 0.099460 0.461618 0.103502 -0.006670 -0.432264 -0.805854 0.230292
AB606256.1.1495 -0.308314 -0.247432 1.008250 -0.011545 -0.681390 -0.179124 1.315801 0.505445 -0.795232 -1.160359 0.417883 0.560674 -0.314313 1.636001 0.615396 0.309579 -0.664724 -0.588837 -1.022538 0.160167 -0.031085 -1.094973 -0.131784 -0.756560 0.596710 0.894781 0.085461 0.115681 -0.073159 1.124432 -0.311504 -1.389186 0.389499 0.534051 -0.200622 -0.422559 0.060521 -0.997215 0.006988 -0.878113 0.535160 0.502926 0.245352 -1.883102 -2.298159 0.157017 0.061906 -0.698609 -0.556699 -0.238910 1.078960 0.112326 -0.001516 -0.403607 0.460586 0.058906 0.353016 0.440069 -1.822056 0.225610 -0.035635 -0.197428 -0.236146 -0.526478 1.753639 -1.349531 -1.076630 0.070975 0.248254 -0.535807 -0.705771 0.432602 1.689052 0.705608 -1.076901 -0.134915 0.534607 0.261749 0.713609 0.235392 -0.262688 -0.250568 0.739206 0.374459 -0.641902 1.579956 -1.706234 1.307387 0.284841 -1.193238 -0.339362 0.410289 0.376198 1.119173 0.814902 0.046739 0.640049 -0.574919 0.063783 1.237569
AB606308.1.1509 -0.160563 -1.258599 0.608404 -0.820521 0.355667 -0.339918 1.305039 -0.909108 0.218933 -0.823050 -1.438088 0.749319 0.555849 1.662464 -0.156501 -0.937322 -0.190273 0.480740 -0.966161 1.514892 -1.134943 -0.137761 0.362767 0.083862 -0.607353 2.127945 -0.065168 -2.096413 1.588329 0.545274 0.532927 1.012040 -1.239622 0.020818 0.737869 -0.246481 -0.872898 0.598204 -0.173921 0.243602 1.213581 -0.031918 0.255947 1.280765 0.370989 1.323297 -0.277789 1.106162 -1.172140 -0.393377 1.220152 0.112866 1.457424 0.857765 1.345871 -1.774818 1.685974 0.920679 -0.146433 0.765083 0.851617 -0.729243 -0.175086 0.383094 -0.242348 -0.477258 -0.283143 -0.149369 -0.337725 -1.125577 0.646482 0.100512 0.179309 -0.246300 -0.149330 0.468382 -1.081571 -2.112530 -0.310952 0.480811 1.197809 -0.992181 0.064246 0.454700 -0.125240 -1.001311 -0.005735 0.952016 -0.182219 -0.550898 -0.594963 -0.195945 0.653079 -0.107515 -0.776708 -0.860964 1.781919 -0.208040 0.530253 1.785741
AB606352.1.1486 0.506290 -0.667330 1.405411 0.415198 0.222058 -0.266924 -0.117835 1.285537 -0.742850 -0.705811 -0.275481 1.262136 0.527679 -0.602570 -0.015752 1.440873 -0.549290 0.375217 0.442504 -0.758179 0.750705 1.952161 -0.560223 0.469361 0.207358 -0.162328 0.039671 0.057720 -0.559740 0.830655 0.219327 -0.257239 1.648471 -0.918889 0.342889 -1.391989 0.386713 0.167013 -0.051473 -0.123780 0.619390 1.548583 -0.725406 0.698974 0.743227 -0.847604 1.511013 -0.080169 0.251084 0.350396 0.052165 -0.863804 -1.024410 -0.258470 0.804087 -0.493203 0.801073 -0.252451 -1.171872 -0.410251 -0.599145 1.448454 0.393168 1.296553 1.424569 -0.104430 0.526380 0.379893 -0.127643 -1.108318 0.406443 0.778448 -0.081321 -0.473552 -0.239342 1.586659 -1.282595 0.279098 -0.246718 -0.509931 0.809521 0.355387 0.791187 0.844366 0.106176 -0.183501 -0.020790 0.418370 0.104824 0.344788 -0.197864 -0.607032 0.011439 0.638981 0.126951 -0.684811 1.061803 -1.135681 -0.525692 -0.718059
AB606378.1.1511 1.780182 0.864598 -0.812864 -1.084644 -0.138553 1.160960 -1.417693 0.546291 0.458860 -1.713046 0.676842 -0.551255 1.016968 0.744641 0.560784 -0.346950 0.871861 -0.738713 -0.431449 0.289779 0.570579 0.536495 0.369820 -0.964812 -0.425576 0.135577 1.438740 -0.245482 1.202023 -0.863652 -0.718084 1.038458 0.112200 0.477951 -0.882099 -0.067842 -0.282186 -1.631874 0.713870 -1.100696 0.137235 1.602281 -0.430105 -0.822615 -0.985266 -1.598264 0.005092 0.754201 -1.229054 2.221310 -0.087433 -0.297338 -0.676580 -1.007163 0.890345 2.471086 0.016354 -2.199636 0.732278 -0.463869 1.342094 -1.772970 -0.999162 0.747477 -1.100676 -1.892332 -0.035784 -1.413149 -1.019630 -0.207636 -0.101963 0.169189 0.087842 -0.663696 -0.117341 0.049283 -0.121548 -1.051476 -1.020936 -0.758909 -0.293642 0.375240 2.246868 -0.685693 0.650113 0.260368 -0.114185 -0.375726 -1.324876 0.166678 -0.388516 -1.031602 -0.879099 -0.048355 -1.077076 0.203756 -0.029568 -2.023840 0.240463 -0.896476
AB606383.1.1494 -0.730145 0.392438 -0.984197 -0.085778 0.337518 -0.751974 -0.688006 0.121373 0.948586 -0.704328 -0.299664 -0.811354 0.079982 -1.160035 -0.329088 0.122724 0.366489 -0.470020 -1.383369 -0.807786 -0.356815 0.332892 -0.930583 0.400803 -1.057512 0.303906 0.555103 0.975423 0.990800 0.757679 -0.381784 0.034714 -0.312658 -0.873389 -0.664920 -0.314794 -0.666126 0.274938 0.633486 -0.466229 0.898831 0.280078 -0.095633 -0.765078 -0.559073 0.371940 -1.116536 0.236996 -0.477799 0.263535 -0.171262 1.441837 -0.621440 -0.305734 0.435732 0.671765 -0.614099 0.637727 0.096199 0.045634 -0.536999 -0.441531 -0.407807 1.455247 -0.007466 -0.482707 -0.127022 -0.134424 0.968835 -0.371128 0.184494 0.293747 0.055606 -0.238569 0.780734 0.811223 0.809312 0.492087 -0.121950 -1.331717 0.396276 -0.834467 0.586960 0.052785 -0.207136 -0.461730 0.830907 1.071032 0.455796 -0.237414 0.423923 0.159650 0.172316 -0.220624 0.450856 0.776708 0.756367 0.018380 -0.172374 0.234000
AB606399.1.1479 -0.457181 -0.889079 1.054009 -0.120123 -0.221205 -0.042092 1.011106 -0.480017 -0.691779 0.795950 -0.476566 -0.962607 0.352934 1.048718 0.672409 0.909365 0.160177 0.299613 -0.201507 -0.004231 -1.749735 -0.168493 0.454633 -0.534590 -0.298921 0.286393 0.126832 0.104837 -0.772510 -0.143759 -0.225590 0.522066 -0.822082 -1.370291 0.627326 -0.229294 -0.798088 -0.330740 0.612025 0.733373 1.443649 -0.844013 -0.651477 -1.487496 0.191354 -0.158372 -1.531554 0.203010 -0.903371 -0.872238 -0.812624 -0.431518 -0.238526 0.311854 0.606293 0.686064 0.018664 -1.237433 -0.416933 -1.079964 -0.148746 -0.837678 0.054651 0.514838 0.050862 -1.685118 0.487228 -1.585597 1.106829 -0.528104 -0.973492 -0.636243 0.215390 0.062335 0.360880 0.339141 0.564972 1.334323 1.186434 -0.058937 -0.666384 0.032304 -0.477970 0.075641 -0.329754 -1.891581 1.812054 0.276236 1.935451 0.041258 0.125355 -0.729820 -0.513200 0.751527 -1.028806 0.420785 1.010181 0.157073 0.806859 0.711192
AB616155.1.1470 -1.410526 0.166022 0.829055 -0.581057 0.483830 -0.456170 0.829130 -0.321594 -0.291726 -1.463574 0.136817 -0.973580 -0.955639 2.624899 0.438723 -0.669042 0.765765 -0.707186 -0.367021 -0.220815 -0.311944 0.501016 1.010792 1.044395 0.587421 1.759387 0.162448 -0.072528 1.074589 0.056144 0.464075 -0.790294 0.622918 0.443492 0.501011 1.416929 -0.758405 0.754634 0.307272 0.607903 0.487694 0.587986 -0.507124 1.015014 0.445819 0.641371 0.073061 1.013896 -0.801300 1.531899 -0.646525 0.468856 1.102673 -0.425243 0.257714 -0.509985 -0.190581 -1.232164 -1.627354 0.392596 0.235609 0.019041 -0.052317 -0.105794 -1.476237 -0.637476 -0.647585 -1.438646 -0.483366 -0.419524 0.086328 -1.302839 0.602701 -0.140500 -0.477243 0.707158 -0.823467 -1.645390 -0.848115 -1.155662 -0.218602 -0.965531 0.934744 -0.146808 0.497639 -0.500079 -0.393919 0.185038 0.603234 -1.311137 0.951277 -0.273431 0.122868 -1.304357 -0.588889 -0.972829 0.700212 -0.995413 0.227286 0.559442
AB626897.1.1485 -1.157895 0.105330 0.138790 -0.409827 -0.450030 -0.425316 -0.675871 1.084563 -0.470430 -1.966623 -1.012190 -1.654394 1.424650 1.405711 -0.147840 0.500874 0.057364 0.999543 0.411585 -1.954503 -0.755341 -0.737028 0.477512 -0.054730 -2.428888 0.442657 0.136712 -0.455415 1.542405 0.867773 -0.924587 -0.194837 0.029090 1.447224 0.000701 -0.126289 -0.293380 -0.085414 -1.002748 0.295164 -0.332269 0.725046 0.288642 -0.841499 0.881334 0.712266 -0.248272 -0.659941 0.214638 -0.470560 -0.820817 0.292210 0.647852 0.283164 1.519398 0.993610 0.292210 -1.933680 0.088937 0.114564 -0.167910 -1.192501 0.586014 -0.253456 1.028948 -0.728755 -1.559013 0.413768 -0.873525 -0.255145 -0.817556 1.436279 -0.688115 -0.893393 -0.422663 -0.361037 -0.370183 -0.319080 0.444789 0.052474 -0.241871 -0.526033 1.334619 0.288230 0.271460 -0.195442 0.481493 0.670612 0.152192 -0.588382 0.233286 0.833473 -0.569601 0.437356 -0.858007 -0.322520 -0.140957 -0.299736 -0.711283 1.048515
AB626907.1.1496 1.369939 1.578441 -0.202815 0.412096 0.956597 -0.308208 1.760645 0.576432 -0.580199 -1.737381 0.642173 1.228749 -0.748541 0.072764 0.947701 0.823198 -1.256721 -0.770942 -0.738686 -0.884836 -0.151008 1.200805 -0.357376 -2.485887 1.166174 1.093719 -0.176763 -0.804558 1.156500 -0.503642 0.083051 0.238903 0.796879 -1.876928 -0.064669 -0.432460 1.198003 0.497963 -0.421727 2.306843 -0.183490 3.564581 -0.386164 -1.253423 0.382050 -0.391551 -0.898923 -0.624733 -0.754655 0.840955 0.081019 -0.723751 0.550403 -0.899265 -1.453320 1.496923 1.183012 0.929360 -0.839960 -0.737821 0.517164 -0.649119 0.390014 0.626855 1.292781 0.791999 1.912593 -0.218565 0.388140 -1.582913 -2.144252 -0.071219 0.663407 0.826650 -2.741077 0.305034 0.597358 -0.561860 1.096317 0.410324 -0.835076 1.483260 -0.890221 0.283437 -1.992975 1.102375 -1.132516 0.302730 -1.413504 1.095336 1.494543 -0.877806 0.000820 -0.042553 -1.014145 -1.444354 -0.388195 0.282653 0.603551 -1.392613
AB626919.1.1479 0.624817 0.665188 0.350063 -0.970588 -1.249502 0.744739 0.476255 -1.205623 0.017385 -1.066770 -0.847136 -0.327335 -0.735074 1.117987 0.876899 0.218754 -0.719465 -0.174657 -0.395251 -0.046897 1.240781 -0.797355 0.807216 0.304775 1.219014 0.154244 0.168403 0.120739 0.860110 0.856430 -0.314361 -0.149093 0.029163 -0.539873 0.251699 -0.370357 -0.859366 0.350963 -0.619092 -0.269393 0.366249 -0.042845 -0.295884 0.334999 1.001354 1.101282 0.235764 -1.213417 0.949750 -0.040676 -0.418232 0.285731 -0.363000 0.093764 -0.477987 -0.240885 -0.064676 -0.630199 -0.065240 -1.107721 -0.841410 0.451695 -0.117560 -0.699611 1.162420 -0.395475 -0.026480 -0.654649 -0.059308 -0.242731 -1.091044 -0.737146 1.115326 0.294974 0.738743 0.005103 -0.409904 0.283611 0.214937 1.074795 -0.073784 0.824851 -0.305214 -0.887704 0.360756 0.468706 0.102480 0.484319 -0.126294 -0.864274 -0.263740 -0.026497 -0.308385 0.468566 -0.705334 -0.041407 1.256911 -0.328935 -0.376107 -0.051115
AB680625.1.1447 0.066011 0.075088 0.646905 -0.330424 -0.095048 0.268787 0.188173 0.203154 -0.783848 0.402808 1.203909 0.477566 -0.738605 0.878189 0.178946 0.461015 -0.249784 0.594378 -0.057099 0.543471 -0.085272 -0.015436 0.004514 0.745040 0.350402 -0.096912 -0.270176 -0.612469 0.968721 1.201442 1.540030 -0.205634 -0.100749 0.334139 0.324329 -0.759710 -0.010842 1.154908 0.263658 0.418736 0.961887 -0.468799 -0.793039 0.446445 -1.164981 0.820079 0.646975 0.373743 -1.019990 0.288796 1.890419 -0.098117 -1.527579 1.123925 0.547823 -0.798271 -0.727712 -0.793915 -0.544820 0.626917 -0.349933 0.486464 -1.127233 0.055587 0.344126 -0.094696 -0.501723 -0.515960 0.695075 -0.457035 -0.163313 0.742859 0.573477 0.311917 -0.050533 0.671781 -0.975849 0.363583 0.043021 -1.030109 -0.714347 -0.089712 -0.468463 0.383701 0.189123 -0.168142 -0.533832 0.266203 1.199692 -0.466679 -0.169554 0.602174 1.010988 -0.504822 -0.232403 -0.058786 0.634592 0.073853 -0.278863 0.931492
AB700379.1.1452 0.130328 0.258542 0.614653 0.055421 0.309611 0.171873 -0.443287 0.503253 1.475621 0.502150 0.352370 -0.477794 -0.889341 0.446421 -0.509419 0.762713 0.024407 -0.699437 -0.792976 0.311590 -0.863958 -0.431879 1.383616 0.052792 -0.130324 1.102823 -0.581117 0.708648 0.203161 -0.161135 1.228571 2.003196 0.286599 0.905931 0.347213 0.547273 -0.256853 0.867785 0.155310 0.557438 -0.394848 1.670201 -0.142588 -0.869192 1.362976 1.042288 0.879946 0.575261 0.814684 -0.266175 -0.311971 0.184674 0.019182 1.232531 1.144354 1.400968 1.105042 1.351974 -0.133081 -0.921910 -0.884766 0.256586 -0.800017 0.422461 0.630115 -1.649077 -0.079983 0.939069 -0.844730 -0.345615 -0.551320 -0.656667 -0.833011 0.034251 -0.211227 -0.594149 0.786194 -0.453573 -1.620547 -0.149781 -0.070555 -0.489595 -0.201425 1.068757 -0.750782 0.004248 -1.540912 -0.284838 0.119016 -1.579858 -0.821754 -0.150793 0.658508 0.858780 -2.557888 1.048197 0.208164 0.218508 -0.326379 0.664777
AB702753.1.1392 -0.385505 -1.739731 1.205080 1.048029 -1.840778 -0.968365 0.987692 -0.260047 2.106132 -0.653393 -0.908675 1.552925 0.027113 -0.246483 0.370484 1.397369 -0.831354 -0.006034 0.635069 -2.474557 0.403813 1.214406 1.404519 1.714187 -0.473550 -0.067501 -0.568264 1.512949 1.252941 -0.411705 0.882732 1.515909 0.348255 -0.130363 1.439577 -0.941924 0.408084 0.044742 0.033421 1.064110 1.451046 0.211054 -1.292986 -0.705792 -0.344193 1.172363 -0.211337 -0.217925 -1.017384 0.064883 1.102312 -0.765128 0.251101 0.884968 0.004179 0.557643 0.294714 -1.772298 -0.776080 1.153287 1.849028 -0.269295 -0.163252 -0.588531 1.522662 -0.570152 -0.969663 0.175345 1.412114 0.329906 -1.471793 -0.708046 0.217147 -1.591129 -1.619024 0.117738 0.529878 1.363634 2.065148 0.591330 0.313890 -1.319317 0.116913 0.567477 -0.219583 -2.016874 0.516191 0.664442 1.000732 -0.342008 0.601638 0.476636 -0.972680 -0.517575 -0.841620 0.055615 0.091229 -0.754826 0.337193 -0.460980
AB702756.1.1405 -0.457130 0.528769 -0.201192 -0.381012 -0.094836 0.486434 -0.046692 -0.347299 0.537231 -1.238005 -0.669233 -0.643312 0.116533 0.345026 0.761964 -0.126513 -1.494757 -0.720176 1.274327 0.406046 -1.201843 -1.548535 0.658008 0.096447 0.332354 0.679136 -0.215540 -0.255261 0.267612 -0.336206 1.314147 0.558630 -0.451602 -0.506799 -0.040136 0.263800 -0.624006 0.154839 1.145551 0.382111 -0.250550 1.742619 -0.390350 0.576116 -0.205067 -0.161705 0.131109 -0.992946 -0.414100 -0.219418 0.269473 0.865037 0.487629 -1.505905 0.873117 0.002369 -0.666427 -0.464478 -0.985532 -0.488900 -0.779702 0.705141 -0.095763 0.036494 0.532329 -0.507876 0.039078 0.661317 -0.121348 0.035628 -0.384280 -0.384565 -0.632345 -0.374731 -0.469882 -0.539902 0.990339 -0.549058 0.447316 -1.215188 0.125830 0.956542 0.084806 0.695949 0.221168 1.137483 -0.279018 0.556339 0.425593 -1.066888 0.202455 -0.243507 0.438935 0.690289 -0.108998 -0.072113 -0.326728 -1.539712 0.978945 -0.390400
AB702765.1.1492 0.147623 -0.053924 -1.052275 -0.260678 -0.592396 1.410502 -0.096003 0.635541 -0.276538 -0.968774 -0.617697 0.698204 -0.788071 0.020856 -1.324670 1.472500 -0.104117 0.029372 0.758030 -1.164959 -0.915458 -0.045564 0.788670 1.285906 1.705933 -1.951435 -1.900076 -1.553612 -0.308324 1.011751 0.496764 0.727072 0.711489 -1.804874 0.137335 0.654995 -0.124584 -0.830846 0.693582 0.198540 0.813359 -0.712951 -0.768428 0.770068 0.885582 0.349270 0.683236 -2.090802 0.875601 0.005789 0.335168 -1.746033 0.051396 0.158494 0.820805 0.278247 -0.342698 -0.164542 -0.907761 0.103199 0.070332 1.905072 0.511719 0.336838 1.059796 -0.188352 0.935109 -0.414060 -1.194197 -0.855684 -1.361488 0.211851 0.588496 -0.638036 -0.502504 -0.135362 1.112949 -0.450950 0.258853 -0.554240 -0.731417 -0.707335 -0.256846 -0.262146 -0.286154 0.656027 -0.486086 0.317774 0.875621 0.419490 -0.614167 -1.692982 -0.056475 1.497162 -1.572102 1.268236 1.058682 0.554703 -0.687739 1.723934
AB702766.1.1491 0.009002 0.502820 0.142892 -0.928782 -0.425264 -0.598501 -0.336085 0.611017 -0.465428 -0.562878 0.701586 -0.321241 -0.003849 -0.501826 1.408912 -1.270449 -0.704153 -0.771042 -0.039838 -0.087591 -0.414780 0.115978 -0.625116 0.915126 -0.797147 -0.007915 1.481513 0.124085 -0.596226 -0.407949 -1.307922 -0.454804 0.522838 -0.623802 1.225109 -0.084574 -0.656669 0.287541 -0.259791 -0.237860 0.960099 0.433560 -0.436762 -0.589641 -0.117720 0.215141 -0.725991 -0.201163 0.183167 -0.168112 0.574284 -0.076621 0.877107 1.046442 0.450083 0.256428 0.223670 -1.564248 -0.126834 0.543084 0.431802 0.669431 0.638970 -0.519745 0.343666 -0.230355 -0.511495 -0.938031 -0.096106 -1.054956 -0.702979 0.474493 0.223299 0.030076 0.053434 1.346944 0.445559 -1.278658 -0.776362 -0.422237 0.048119 -1.490179 -0.319568 0.604376 0.867348 0.721750 -0.295647 0.418332 0.735669 0.725121 1.971484 0.183211 -0.905252 0.569307 -0.566375 0.467773 1.106139 -0.924104 0.033735 0.953374
AB702771.1.1395 -1.533080 -0.264584 -1.144107 0.167981 1.240492 0.857640 1.088684 1.092259 1.639894 -0.989397 -1.070675 0.570796 -0.696574 0.591620 0.246828 0.520670 -0.620639 0.371276 -0.909726 -0.809369 -0.958961 -0.156327 0.440510 1.019579 1.304507 0.623353 0.479587 -0.912625 0.888987 -0.001512 0.246164 -0.892565 1.321451 -0.621694 -1.268417 0.039899 -0.230864 -1.679240 0.708732 0.659599 0.887279 -0.328806 -1.227214 0.619903 -1.222241 -0.034454 0.387711 -0.435223 -0.476721 0.780951 0.900466 0.876206 -0.170189 -1.024598 -0.935875 -0.196989 -0.448221 -1.289630 -0.009178 1.173359 0.516334 0.697925 -0.132472 -0.061074 1.524766 -0.062479 -0.444450 0.080821 -0.906854 -0.834010 -0.014220 -0.505090 0.434783 -0.235915 0.444751 1.406461 0.970109 -1.340729 -0.231478 -1.137415 -1.537459 -0.612096 0.182387 0.309491 -0.904702 -0.522990 0.525583 -1.014466 -0.409661 -0.020142 -0.792246 0.217619 -1.458765 -0.149621 0.273115 -1.137295 0.274708 -0.919858 -0.332982 0.622622
AB702839.1.1406 0.568126 0.670504 -0.269983 0.080610 0.159772 1.508592 0.618602 0.404428 -1.331808 -0.522810 0.483326 -0.313301 0.199982 1.632921 -1.351311 -0.734040 -0.228632 0.876679 -2.347144 0.315785 -0.388281 -1.060983 0.789933 -0.234200 1.581040 0.675922 0.064899 -0.218813 1.227926 1.365086 -0.670937 -0.184619 0.237550 -1.946495 0.308091 0.613080 0.662421 0.361960 0.638168 -0.487993 0.173623 1.180409 1.053221 0.424852 0.213641 -0.388906 -0.300827 -0.942264 -0.619176 -0.172267 0.359891 0.058311 -0.502823 -1.455251 0.392231 0.734296 -0.133381 1.576900 0.531240 -0.953567 -0.318542 -0.262766 0.820484 0.624983 1.071704 -1.621203 -0.125636 -0.428683 2.074585 0.903322 0.924403 0.898206 -0.183777 -0.923212 0.090719 0.447657 1.060036 0.209940 0.507849 -0.817560 0.540477 -0.687082 -0.365808 0.101393 0.811604 0.596439 0.054505 0.409892 -0.136409 -1.853412 0.013725 -1.121112 -0.826007 0.821956 0.215066 0.085452 0.555103 -2.185785 -0.259883 1.214131
AB702870.1.1395 0.701037 0.092441 -1.788652 -0.699853 -0.683035 -0.087654 -0.238399 -0.744329 -0.463070 0.188891 0.285934 0.182242 1.143434 0.760762 0.430913 -0.900298 -0.016842 0.912480 -0.342926 -0.842968 -1.080248 -0.204951 0.459448 0.194564 -0.457411 -0.709537 1.207543 -0.378832 0.211471 0.145213 0.090056 1.223135 -1.057709 -1.400593 -0.345549 -0.658160 -0.480093 0.369004 -0.129523 -1.654671 0.384009 -0.415317 -1.256316 -0.302769 -0.539972 -0.341312 -1.344223 -0.219787 0.410675 -1.004887 0.527234 1.597612 -0.170757 -0.278053 1.160980 -0.654122 0.261587 -0.173817 -0.183381 -0.951879 1.344317 0.341838 0.716486 0.670804 -0.460187 -1.271982 0.053520 -0.712781 -0.779942 0.131995 -1.156560 -0.052988 0.664011 0.162708 0.073843 0.139848 -0.109582 -0.502569 0.676307 -0.526482 0.384329 0.020864 -1.548428 -0.198353 -0.030409 0.745085 -0.418508 0.524748 -0.094559 -0.119878 1.158892 -1.448455 0.502296 0.015890 -0.358561 -0.341628 1.068023 -1.030890 1.014679 1.382322
AB733112.1.1328 -0.480170 -0.721991 -0.303888 0.371589 -0.104649 0.029241 -0.824109 -0.263059 0.621876 -0.353143 -0.017232 0.735969 -0.722202 0.139498 -0.861038 -0.330863 -1.156954 0.045465 0.282539 -0.428310 -0.025254 0.032986 1.045364 0.255335 0.280117 -0.180698 -0.435415 0.152929 -0.148309 -0.731974 -0.185832 -0.186472 -0.211444 0.163177 0.748425 0.460322 -0.220303 0.094936 -0.043015 0.122868 0.047001 -0.271640 0.599728 0.279628 -0.363765 -0.443829 -0.074181 0.478505 0.031667 -0.141472 0.096960 0.354335 -0.390468 -0.226363 0.047000 0.232020 0.154042 0.597153 -0.942947 -0.011531 0.275137 -0.148004 -0.244469 0.061663 -0.351480 0.244349 0.188536 0.288836 -0.060461 -0.400108 0.273948 0.168976 -0.748284 0.250149 0.148056 -0.481663 -0.495070 -0.148361 -0.442233 -0.502366 -0.007237 -0.241051 -0.425192 -0.146734 0.068303 -0.692104 0.603713 -0.520376 0.173923 1.072452 0.487847 0.731650 -0.241309 0.230475 -0.482293 0.203107 0.173878 0.615176 -0.259894 -0.404624
AB735688.1.1201 0.207498 -0.225130 -1.995494 0.162427 -0.108069 0.038688 1.699003 0.368243 0.211683 -0.207868 0.236825 -0.341169 1.421463 1.211914 0.181138 -0.549548 -0.150845 -0.554988 -1.455626 -0.073921 0.707944 0.164791 -0.441974 -0.035275 0.557306 0.475260 0.254371 0.125306 -0.060843 0.236249 -0.276291 0.575731 -0.172221 -0.426480 0.551772 0.912376 -0.717132 -0.242672 -0.168283 -0.427946 0.300151 1.556603 -0.562822 -0.474710 -0.845941 -0.349426 0.340522 -0.004180 -0.480145 0.293846 0.813988 0.607334 1.205225 -0.483524 0.633138 0.020487 0.668577 -0.944527 -0.957789 -0.228468 -0.710262 0.254582 0.861608 0.999404 0.494401 -0.936200 -1.152713 -0.602813 0.179130 -0.624347 -0.630332 0.255948 0.983515 -0.446559 -0.214109 -0.136150 1.207571 -0.277391 -0.117723 -0.316290 -0.208522 1.306250 0.386691 1.266986 0.451077 -0.497982 -0.164273 0.129981 0.362114 -0.318375 0.613761 -0.886285 -0.560556 0.053857 -0.057494 0.269258 -0.582520 0.606222 -0.703300 1.451178
AB739697.1.1442 1.103924 -0.828868 -1.116336 -1.085157 -0.370210 -0.422672 0.382088 -0.596032 0.298522 -0.308682 0.255683 0.166057 0.553154 0.505360 0.455181 -0.505012 0.489384 0.198911 -0.059740 -0.206155 -0.975289 0.061260 -0.774459 1.103184 0.938108 0.892320 -0.088856 -0.204141 -0.899695 0.453904 1.434501 0.857949 0.605005 -0.066773 0.070439 -0.982263 0.656719 0.874165 -1.488368 0.609722 0.076488 0.783677 -1.030916 -0.393193 0.121338 -0.692752 -0.913869 0.477290 -0.536711 0.478386 0.716924 -0.201762 1.018248 0.328552 0.433638 0.115045 0.602013 1.386685 -0.861815 0.849476 -1.043742 -0.914353 0.693320 1.166837 1.334585 -0.435627 1.038191 0.879611 -0.131779 -0.953151 0.156773 0.043793 -0.208031 -0.748424 0.591362 -1.835775 0.871530 0.011709 0.126469 0.552584 -0.754852 -0.553906 -1.011119 -0.950207 1.368420 -0.228653 0.769081 -0.551913 0.018796 -0.725727 0.692542 -0.898698 0.155276 0.137811 0.400842 0.522001 0.322729 -0.379197 0.708561 0.562483
AB742106.1.1431 -0.030347 -0.767526 1.826046 0.626744 1.713927 0.390686 -0.965968 0.727222 0.183926 -0.074702 0.173713 2.109851 1.568210 0.707053 -0.502695 -1.007346 -0.582691 1.898471 -0.009586 -2.148640 -0.897276 -0.207834 -0.187559 -0.362528 -0.974306 1.072541 1.042867 0.011410 1.240675 0.226781 0.877256 0.350689 -1.262139 -1.426210 -0.959213 1.207410 -1.033974 0.178386 0.254145 0.417632 1.034314 0.242375 0.442395 -0.384012 0.059882 0.709477 -0.400025 -0.200913 -1.097678 0.654804 0.342954 0.231610 1.089323 -0.214114 0.140728 0.094441 0.967918 -1.140464 -0.810705 0.124490 -0.958377 -0.452294 -0.480049 -1.372309 -0.035850 -0.471085 -0.767465 -0.027016 -0.657339 -0.976947 -0.364918 -1.221277 2.046237 -1.973288 0.019552 0.132012 0.481368 0.195652 0.390673 -0.618454 -1.500185 -0.653434 1.842907 0.184116 0.653374 0.470079 0.657940 1.256364 0.343781 0.732297 -0.299102 -1.702573 0.924826 -0.391256 0.231164 -0.295552 1.170181 -1.262480 -1.132622 -0.467367
AB746750.1.1530 -0.227191 0.926134 1.026725 -0.117718 -0.293191 0.101861 -0.271575 -0.220060 0.005546 -0.055122 0.541657 0.875365 0.461550 0.126917 1.390353 -0.560341 0.127343 0.120523 -0.262167 -0.296287 -0.414874 -0.241861 0.449992 0.158136 0.233571 1.174221 0.612836 -0.227439 -0.111064 0.264417 0.417588 0.690349 -0.549964 0.409045 0.237276 0.259616 0.274184 0.289407 -1.847308 -0.805929 0.906136 -0.599037 -1.052153 1.104930 0.062509 0.404626 -0.044137 -0.119109 0.103344 0.386595 0.182647 -0.421037 0.921593 -0.918406 0.903439 -0.143200 0.707483 -0.888146 -0.116253 -0.163206 -0.225722 0.008806 0.111350 0.837468 -0.635673 -1.202975 0.341054 -0.465333 -0.194773 -0.228292 -0.664388 0.205210 0.415727 0.053681 -0.548585 -0.476470 1.054034 -0.141123 0.170698 -1.170416 -0.594380 -0.028957 0.246485 0.631697 -0.912258 0.252676 -0.349213 0.359986 0.186765 -0.455045 0.266233 -0.188231 0.164895 0.228753 -0.343970 -0.398047 0.811169 -1.000832 -1.124236 0.780675
AB749382.1.1389 0.257883 -0.131086 -0.678762 -1.074558 0.645171 0.883627 -0.368968 0.839537 0.369343 -0.160850 -0.205605 0.028602 -0.228194 1.466611 0.415539 0.981404 -0.917853 -0.743838 -0.571524 0.179120 -0.739721 1.691324 1.112900 -0.369026 -0.693751 -0.711508 -0.960077 -0.511430 0.416378 -0.124231 -0.762732 1.106474 -1.772181 0.256160 -0.771253 -0.322381 0.206596 1.031975 -0.470447 -0.372317 1.380511 0.103390 0.791585 0.896676 -0.690473 0.835392 -0.600448 -0.877803 0.508642 0.274662 -0.826502 0.108754 0.037015 0.297074 1.507982 0.246858 -0.222750 -0.165164 1.249747 -0.652139 -0.185513 0.171810 -0.184614 0.375954 -1.627670 -0.526952 0.634967 0.671901 0.726044 0.404956 -1.055204 -0.487619 0.037756 -0.525922 0.316922 0.226436 -0.819716 0.352836 0.449313 -0.575214 0.288737 -1.329723 0.019156 -0.495848 -0.938645 -0.350929 -0.725952 -0.485373 -0.512867 0.740496 0.001501 0.628230 -0.365013 -0.601619 0.340754 -1.178439 1.626509 -0.576547 0.531037 -0.772974
AB775005.1.1253 0.535466 -1.966887 -1.551787 -1.022091 -0.012209 1.042166 1.025793 1.104972 -0.183060 0.851933 -0.111829 -2.099986 2.317719 1.000130 -0.730868 -0.956200 1.047449 0.503915 -0.932472 -0.326184 -0.324849 0.090759 -1.746475 -1.474156 1.119849 2.175330 0.268698 0.572758 1.244898 1.037366 -0.748901 -0.350967 0.964564 -1.301306 0.004385 -0.441138 -0.206308 -0.510766 -1.085849 2.106887 0.580467 1.149044 0.731259 -0.126602 -0.459675 0.376935 1.267082 1.329543 -0.291446 -0.823887 0.768432 -0.272693 -0.847757 0.583796 -0.534051 -0.307366 1.013372 1.402869 -0.013609 -0.529141 -1.348000 0.675030 -0.293147 -1.171680 -0.365782 1.117723 0.615674 -0.127393 0.786017 -2.379157 -0.711255 -0.317118 -0.423178 -0.076039 -0.976429 -0.727979 0.729769 0.866059 -0.183149 0.241723 -0.908215 0.927919 1.190660 -0.393235 -0.856256 -1.140105 0.424073 -1.247009 0.023909 0.725175 0.876587 -2.468736 -0.085181 -0.216183 -2.611576 -0.424124 0.131070 -0.873178 -0.552056 1.340367
AB780934.1.1454 0.291375 0.516427 -0.028239 0.511008 0.692004 -0.412900 0.072858 0.033585 0.207277 -0.100555 0.149886 0.841913 0.245600 0.839419 0.443966 0.039767 -0.078475 -1.104576 0.216623 -0.284745 0.211901 0.463034 0.053416 0.019457 0.065345 0.235794 0.777001 -0.337270 0.460848 0.745950 -0.250856 0.963346 0.160603 0.137315 1.399411 0.247138 0.126804 -0.195884 0.503509 -0.311751 1.106216 0.009857 -0.731861 -0.928765 -0.523081 0.323050 -0.361089 0.564296 -0.161952 -0.403030 -0.315256 -0.290999 0.713479 -0.014381 -0.340637 -0.956806 0.250183 -0.090266 0.082830 0.713422 0.071034 0.217683 0.384835 -0.211821 -0.177520 -0.485133 -0.648919 -0.152143 0.763528 0.403348 0.334483 0.226257 0.201745 -0.537374 0.153465 -0.102256 -0.148603 0.468219 0.063626 0.609102 0.915066 -0.629840 0.070573 -0.500533 -0.118789 -0.870489 1.221257 1.088006 0.248895 -0.191823 -0.500897 -0.364374 0.323776 0.752351 -0.296914 0.313338 -0.617811 -0.135537 0.039159 0.933241
AB861981.1.1489 0.193867 -0.425753 -0.913197 0.926562 0.137682 -1.242088 -0.216076 -0.597717 0.636742 -0.103265 -0.318345 0.727206 -0.331879 -1.238064 0.885887 0.087476 -0.492304 0.409876 -1.353817 -0.992551 -0.055010 -0.827479 -1.582119 0.456355 0.360869 1.211281 0.214404 -1.027565 0.717999 -1.055097 -0.200674 -0.434065 -1.489614 -1.045490 -0.118563 -0.911291 -1.492837 -0.430307 1.174541 0.334996 1.140717 -0.168412 -0.389135 1.761587 -0.343568 0.595001 0.621677 0.346804 0.997258 0.725810 -0.266460 0.263882 0.642630 -0.674785 0.036788 1.330851 -0.097318 -0.987318 -0.215665 -0.446321 0.090416 0.133977 -0.197362 -0.182664 1.521697 -1.702690 -1.191995 1.384570 -0.887538 -1.200768 -0.675866 0.836937 0.609041 0.416779 0.463785 -0.733595 0.333538 -0.681098 0.155952 -1.583854 0.195687 1.166942 0.299986 1.073348 -1.921416 0.055679 0.840958 1.690975 -0.522309 1.082447 -0.068451 0.046216 1.043197 0.157960 0.026245 1.208356 0.712195 -0.751811 0.483605 1.050694
AB874571.1.1447 -0.797482 0.524232 -1.413228 -1.123963 0.584196 0.520737 0.716357 1.478393 0.231350 0.250768 0.334413 -0.687239 -0.336511 -0.557634 -0.268245 -0.425655 -0.598211 -1.166193 -1.285441 0.261143 -0.208766 2.831847 0.003710 0.466417 0.200743 0.653935 0.271124 1.547347 0.354792 2.583761 0.988346 -0.809391 0.668613 1.174227 0.102999 -2.113834 0.368732 0.022224 -0.514793 -0.216676 0.833851 -0.476955 -1.625163 1.749137 1.336376 -0.133998 0.088015 0.931549 -0.405779 1.204361 0.939569 -0.838426 1.101652 -0.634515 1.333375 0.999112 0.770220 -1.737983 -0.801088 -0.294308 -0.845510 0.877859 0.427567 0.694774 1.373187 -0.502621 -0.646171 0.021960 0.110618 -0.696164 -0.485890 0.753491 0.592124 0.303492 -0.488856 0.234041 0.940429 -0.360386 1.243820 -2.029319 0.325376 -0.642379 -0.602179 0.252276 -1.980478 0.714501 -0.696797 -0.552280 -0.397189 -0.347228 -1.175261 -1.628735 -1.942135 0.588733 -0.272681 -0.959611 -0.241283 0.114824 -1.472235 1.364468
AB934533.1.1365 -0.219076 -0.708492 0.718643 0.662094 -0.595384 -0.607240 0.025189 0.383265 0.145883 1.204622 -1.511308 0.589457 0.658562 0.937523 -0.216905 1.986413 0.005362 0.819140 -0.618123 -0.889644 -0.537158 -0.464670 0.167421 -0.227711 -1.918332 0.099139 -0.570436 -0.121103 1.457244 1.095221 -0.941177 -0.234710 -0.690954 -0.231381 1.024399 0.822416 -0.214110 -0.541128 -1.302349 -0.487736 0.596824 1.308492 -0.573214 1.483000 -0.352315 -0.346667 1.055038 0.487904 0.949098 -0.952599 -1.016120 -1.032045 0.982505 -0.372877 -0.960821 -0.909764 0.761272 -0.516365 -1.017373 0.163873 1.256200 -0.775050 1.417982 -0.146396 -0.452178 -0.493229 -1.536355 1.038760 0.772801 0.344476 -1.041183 -0.013437 1.615381 0.617618 0.790329 2.257614 0.598920 0.039409 -0.845087 -0.234869 -0.032057 -0.616698 0.363605 0.665552 -1.515971 -1.641651 -0.903141 0.885761 0.906439 -0.079305 0.398930 -1.000824 -1.972408 0.304288 -1.684974 -0.173785 1.527211 -1.164908 0.115833 -0.139814
AB934596.1.1362 -0.382150 1.795642 1.214503 1.308013 -1.582774 -1.671435 -0.943121 -0.158886 -0.548228 -0.494274 0.326417 -0.569271 0.177358 -0.233312 -0.519837 0.717825 -0.035694 -2.983167 1.081609 0.218936 -2.119087 -0.230342 -1.148238 -0.865908 1.518815 -0.824503 0.417510 -0.367833 0.449061 1.292425 -0.152015 0.885029 -1.314631 -1.170096 -0.534298 -2.313003 0.905779 -0.712441 0.309610 -0.140289 1.561899 0.998029 -0.941110 0.096078 0.687779 -1.076369 0.031573 -0.505890 -1.104745 1.220451 -1.866987 1.046340 -0.087379 1.027558 0.673965 -0.902702 2.818925 0.166972 0.176931 0.675802 -0.032439 -0.288204 -0.313105 -1.859268 0.989927 -1.972733 -0.431767 -1.203037 -1.188344 0.067921 1.013022 0.161094 -0.392584 1.295138 0.134129 0.576875 1.080624 1.650319 1.274586 -0.191033 -1.947779 0.167968 1.029807 -0.424037 -1.699481 1.464482 -1.020980 -0.818271 -0.920519 -0.516470 -0.900227 -0.893744 1.423757 0.532290 -0.308397 0.717129 0.836190 -0.547407 -0.310669 0.523735
AB934611.1.1394 -0.010880 -0.354650 0.032068 0.021480 -0.583223 -0.001359 -0.428577 0.233132 -0.860033 -0.051614 0.389708 0.160737 0.347982 -0.234885 -0.481950 0.362156 0.035267 0.965860 -0.367784 -0.347804 0.066246 0.336763 0.227675 0.191414 -0.227049 0.445462 -0.144324 -1.477502 -0.364162 0.199328 0.293409 -0.245619 0.270515 -0.435340 1.139856 0.849482 0.329372 -0.152528 -0.589266 -0.284426 0.363245 -0.300992 0.382359 -0.113368 0.117218 0.183497 0.152317 0.453117 -0.356265 -1.331706 -0.238557 0.389670 -0.407939 1.132884 0.463561 0.896218 0.698178 0.609338 -0.169111 -0.359774 0.387767 0.887521 -0.763126 -0.155355 0.439406 -0.755135 -0.111627 0.227058 -0.404307 0.506231 0.390404 -0.906828 -0.760172 -0.536792 0.207620 -1.566884 0.347345 -0.369981 0.840042 -0.378384 -0.552556 -0.071888 -0.613151 0.714154 -0.944214 -0.115791 -0.314308 0.170108 0.744782 -0.397263 0.217914 -0.378751 0.265598 -0.884755 -0.694615 -0.441518 0.392061 -0.696217 -0.341440 -0.130029
AB934632.1.1349 0.224523 0.969902 0.118747 -0.581273 -0.280070 0.464358 -0.394766 1.209458 0.121292 -0.338818 0.199097 -0.271094 0.965016 -0.247319 0.519357 -0.255073 0.260373 0.313295 -0.125283 0.090386 -1.248542 -0.572031 -0.147341 0.573172 0.720022 -0.191409 0.121573 0.279421 -0.572543 -0.125232 -0.006133 0.257177 0.441153 -0.398847 -0.264618 -0.204781 -0.389600 -0.057497 0.440565 -0.458607 -0.799607 -0.332883 -0.417006 0.745383 0.737779 -0.603118 -0.482641 0.228211 -0.104882 -0.159066 -0.169612 0.175313 -0.101998 -0.235817 -0.811321 -0.060992 -0.048588 0.313545 -0.297254 0.011755 0.438456 -0.139818 -0.170601 -0.271765 -0.647195 -0.199355 0.216666 0.146705 0.094250 -0.147140 0.142916 1.008617 0.074386 -0.256624 -0.244598 0.164813 -0.098292 0.283223 -0.828427 0.818303 0.318238 0.416643 -0.454981 0.228135 -0.261072 0.036233 -0.395296 -0.040480 -0.760157 0.038523 -0.298620 0.978226 -0.246451 0.137672 0.060912 0.116350 0.157388 0.116781 -0.288627 0.587876
AB934716.1.1353 0.175221 -0.469173 1.215867 -0.236381 0.370958 0.866903 0.342324 -0.714272 0.757990 0.080875 -0.330335 -0.116473 0.830057 0.250475 0.876070 0.233696 -0.403482 0.729555 0.363333 0.427906 0.743539 0.457148 -0.091926 0.432915 0.274980 0.952903 0.559922 0.296489 0.794035 0.776441 -0.535980 -0.026768 -0.665180 -1.193129 0.520585 -0.444320 0.005981 0.647572 -0.257909 0.022143 0.418694 -0.096743 0.072574 -1.082258 -0.249696 0.186670 0.426446 -0.554459 -0.027256 0.139630 0.824444 -0.662420 0.308065 -0.104365 0.297668 0.221947 0.439631 0.076715 -0.499529 -0.196479 -0.543691 0.920051 0.790831 -0.354407 -0.358212 -0.504721 -0.045865 0.279115 0.092829 -0.006673 1.094258 -0.507157 0.449142 0.519748 -0.130173 -0.171627 0.134028 -0.170318 0.881428 -0.811205 0.565110 -0.769844 -0.176532 0.193078 0.250321 -0.803216 0.543929 0.577114 -0.551803 -0.401553 -0.317801 -0.836471 -0.377437 0.869097 0.197472 0.045492 -0.198388 -0.885207 1.102681 0.149130
AB934730.1.1351 -0.468899 1.041213 -0.640048 0.789562 -0.054993 -0.377758 0.699806 -0.402290 -0.017791 -0.433519 -0.012355 -0.716219 1.566125 0.688227 -1.337106 0.628639 0.301440 0.388147 0.251739 -0.178690 -1.647652 -0.389366 -0.244072 -0.493939 0.389167 0.091709 -0.372077 -0.480354 1.199857 -0.168688 -0.185143 -0.310134 0.624214 0.490736 -0.766310 0.591066 0.364365 0.605283 0.637512 0.121702 0.316919 1.219442 -0.039184 0.974546 -0.575938 1.425632 -0.503349 0.458195 -1.873337 0.517838 0.142289 -0.002485 0.747228 -0.270884 0.280072 0.666282 0.152111 -0.591664 1.094042 0.017642 0.436488 0.648778 0.080603 0.355482 1.818580 -1.261794 -0.346450 0.465762 -0.600785 -1.447014 -0.063979 0.440340 2.141620 0.377634 -0.161690 -0.570479 0.377928 0.897741 0.662452 -0.417162 -0.606600 -0.114148 -0.084763 1.354804 -0.642273 -0.875549 0.859984 0.908036 -0.083758 -0.358798 0.396683 -0.729558 -1.354728 0.218756 -0.635903 -0.376080 0.241037 0.598679 -0.041495 -0.248493
AB934731.1.1350 -0.375028 -0.986534 -0.127746 -0.076173 0.374978 0.079612 0.060383 0.554816 0.493974 -0.059662 0.719083 1.777625 0.789264 1.374953 0.134780 0.264628 -0.848393 0.230815 0.084637 -0.112042 -0.222458 -0.190814 -0.414929 -0.151729 1.789220 0.065134 0.312020 -0.116827 0.256294 0.244348 1.684891 0.435803 -0.134744 -0.872634 0.253722 1.296939 -0.660008 0.000574 0.477928 -1.026547 0.635481 -0.160059 0.027907 -1.721973 -0.787511 1.114863 -0.025020 1.805042 -0.405925 1.259215 -1.503620 1.743971 0.387850 -0.441018 -0.217948 0.100468 -0.189378 -0.256308 -0.747061 0.316092 -0.164378 0.597491 -0.998613 -0.615416 -0.294888 -1.079385 0.153536 -0.092775 0.047814 -1.610653 -0.513062 -0.842764 0.384766 -0.631348 0.253888 -0.100660 0.600827 0.676042 0.975555 -0.422436 0.365679 0.203634 -0.191431 -0.374316 0.431908 -0.504076 -0.812757 -0.011414 0.749310 1.149528 1.107002 -1.834851 0.193266 -2.003867 0.108109 -0.073347 1.352483 -0.252303 -0.041249 -0.378637
AB934732.1.1349 -0.045754 -0.507106 0.570317 0.203413 0.677949 -0.097586 0.216598 -0.894205 0.365096 0.839367 0.246173 -0.049898 -0.092561 0.129325 0.182432 0.102260 0.046291 -0.569909 0.155011 0.945992 1.000028 0.380235 0.208788 -0.402446 -0.244032 0.329491 0.475334 -0.137488 -0.099272 0.157957 0.553986 -0.050493 -0.637645 0.254039 0.302078 0.215003 0.299016 0.028643 -0.029523 0.042636 -0.524084 0.625756 -0.878090 -0.943389 -0.134757 -0.319100 -0.301398 -0.041933 -0.106196 -1.274503 0.329653 -0.223421 0.539675 -0.071030 1.027096 -0.056346 -0.053395 -0.839355 -0.062256 -0.114675 -0.245756 0.849484 0.304862 0.155100 -0.134399 -0.201448 -0.006751 -0.025823 1.054565 -0.216270 -0.016283 1.077653 0.658602 0.500411 -0.586838 0.774486 -0.289814 -0.133664 0.498055 -0.571763 -0.076257 -0.353233 -0.522480 -0.147406 0.099843 -0.123224 0.435913 -0.038237 -0.305787 0.594102 -0.537128 -0.194111 -0.702433 -0.588204 -0.171195 -0.591909 0.520445 -0.444889 -0.206368 -0.534414
AB934779.1.1351 0.676523 1.046883 0.108045 -1.169414 -0.413912 0.926839 -0.085616 -0.123223 1.195093 -0.470227 -0.191586 -0.264518 0.939519 -0.098276 -0.102096 -0.316872 -0.483494 -0.667004 -0.913684 0.377618 -0.438557 0.127599 0.079577 0.027486 1.212914 0.302978 0.971969 0.104493 -0.146597 0.254291 -0.318199 -0.493022 0.522023 0.187012 -0.980986 -0.116493 -0.422777 -0.628005 0.271646 -0.031853 1.140098 0.331177 1.166221 0.140275 -0.828367 1.855594 -0.429384 0.152040 1.093930 0.525020 -0.635638 0.149846 0.562844 0.559412 0.245412 0.105986 0.342800 0.164438 -0.481727 -0.838831 0.483293 0.781272 -0.995387 0.281452 0.638181 0.274206 0.507975 -0.253616 -0.390084 -1.206371 -0.839775 -0.779770 0.123230 -0.926809 -1.678004 -0.565460 0.269829 0.116557 1.092131 -0.562855 0.071459 -0.449436 -0.411582 0.801187 0.765768 -0.627026 -0.377307 0.137051 1.879657 0.452446 1.278751 -0.075288 0.622040 -1.209286 -1.292322 -1.768585 1.008623 -0.908925 0.765260 -0.500900
AB934822.1.1349 1.711411 -0.135292 0.373015 1.634034 -0.595282 -0.528127 -0.508272 0.202972 1.397106 0.320739 1.230393 0.731948 0.319522 -0.284933 -0.476486 -0.654656 -2.140482 -1.325021 -0.673457 -0.272996 0.164168 -0.640279 0.105482 0.632598 0.823937 2.008314 0.162551 -0.489831 0.306739 -0.006411 -0.117378 0.091716 2.053676 0.376438 -0.865186 -0.109879 -0.174076 1.211996 -0.115624 -0.679650 1.365598 1.011932 -0.203699 0.708224 -0.303821 0.982461 0.134113 -0.538542 1.028319 -1.225712 1.269163 1.593644 1.918033 -1.616113 0.717449 1.307286 0.052818 0.386786 -0.254142 -0.320235 -0.735011 -0.183189 -0.943786 0.939889 1.622565 -0.365397 -0.996003 0.543016 0.331856 -1.067064 1.442243 -1.194007 1.073521 1.335790 0.167607 -0.115985 -0.598886 1.718735 -0.510469 -0.136884 -1.840453 -0.776702 -0.318710 0.053593 -0.479689 0.132463 -0.587936 0.664174 -1.591022 1.566231 -0.916858 -0.776033 1.023133 -0.261440 -0.399293 -0.750352 0.331806 1.133612 -0.345602 0.473355
AB934839.1.1350 0.780507 -1.082183 0.988163 0.999029 -0.474067 -0.248357 0.181405 -0.484292 -0.133774 -0.315016 -0.685683 -1.336264 0.779194 -0.588743 0.158516 0.106175 0.057127 0.306741 -0.083132 -0.257994 -0.075377 -0.449512 0.961841 0.200785 1.178012 0.598170 0.022053 -0.471740 -0.596093 -1.181899 -0.523662 -0.665719 -0.462992 1.018110 -0.272453 0.304722 -0.024073 0.151268 0.783699 0.418740 -0.523388 0.461065 -0.761069 -0.129857 -0.794747 0.365394 -0.822490 0.417035 0.171955 1.051474 1.260238 0.117884 0.046343 -0.202317 0.920156 0.044763 -0.074869 -0.358623 -0.065864 -0.258658 -0.540241 -1.163037 -0.440653 0.176628 -0.075873 -1.038536 0.423967 -0.540247 -0.204192 -0.145183 -0.360269 0.923995 -0.116455 0.421925 0.268625 0.183110 -0.132515 0.803296 0.306086 0.867955 -0.287536 0.010230 -0.142934 -0.389595 0.184919 -0.606341 0.688362 0.092504 0.653312 -0.067472 1.242722 -0.064400 -1.258461 0.575508 -0.791220 -1.209109 0.016930 -0.561760 -0.189654 0.582647
AB934852.1.1327 0.744734 0.694011 -1.445726 -0.642298 -0.398383 0.655919 1.067834 -0.091297 -0.317635 1.291588 0.068197 -0.201107 1.186421 -1.706251 0.076458 0.133071 -0.056080 -1.942827 -1.848701 0.499447 -0.756338 0.510466 -0.789554 -0.239103 0.351403 -0.495517 0.902039 -2.247423 -0.566386 -1.768400 1.484137 -0.468894 0.601092 -0.803068 1.212003 -1.937378 -1.841754 -1.962879 -1.170765 1.612737 1.415259 -1.126099 -1.233311 -0.038766 1.020520 0.342402 -0.497581 0.565967 0.190966 1.433734 -1.497551 -1.221560 -0.012974 0.018332 -0.086345 0.301389 0.091327 -1.321388 -0.632600 -1.629936 -0.885092 0.433693 0.052426 0.574961 -1.058320 -0.120477 0.854327 -0.659187 1.868183 -0.350906 1.424789 1.344577 2.169826 0.438389 -1.009363 -0.357365 -1.209815 0.650045 -0.778503 -2.029712 -0.049821 -0.359789 0.140040 -0.574130 0.563881 1.235560 -0.434668 0.955960 0.311907 -0.900018 -0.365383 0.268669 0.886280 -1.519471 -0.250350 0.887408 0.227682 1.211384 0.729321 -0.877267
AB934872.1.1350 0.550164 -0.366999 -0.507244 0.719521 0.217524 0.562761 0.759985 -0.593848 1.018520 0.203962 0.512432 -0.645317 1.076876 -0.249324 -0.321184 0.071338 0.049862 0.428639 -0.768637 0.201970 0.240787 -0.046642 0.287988 -0.546838 0.664995 1.297165 0.964718 -1.059025 0.884884 -0.726429 -0.222145 1.213072 -0.015881 -0.151889 -0.795999 -0.036212 -0.629221 0.501412 -1.862858 0.022829 0.596112 0.423296 -0.598800 1.120983 -1.012121 -0.561171 -0.877290 -0.034499 1.051417 0.068452 -1.197223 0.396178 -1.043514 -0.112921 -0.048294 0.274099 1.293518 -0.726172 0.329096 0.775197 -0.004690 1.347977 -0.054102 -0.057282 -0.522130 -0.361148 -0.423993 0.264422 -0.679520 -0.475678 0.648936 0.712637 -0.022911 0.733587 -0.423000 -0.509808 -0.069586 -0.132717 -0.238937 -1.620105 -0.715023 -0.603220 0.564413 -0.416139 -0.494295 -0.236914 0.445236 -0.126555 -0.474844 1.175517 -1.391241 -0.203203 0.009851 1.164652 -0.171414 0.056612 0.823743 1.125622 -1.224196 -0.892846
AB969320.1.1524 0.508259 -0.496500 -1.686404 0.258056 -1.196219 -0.181726 -0.961128 0.653551 -0.307981 0.020038 0.280094 -0.474236 0.677420 -0.855623 0.719182 1.405852 -1.232691 -0.698300 0.621877 -0.843041 -1.531696 -0.403150 -0.048129 0.092822 -1.290842 -1.509321 0.351299 0.340533 0.294196 -0.380576 0.784152 -0.921015 -0.644983 -0.336929 0.491715 -1.409302 -0.044136 -0.518392 -0.444292 0.019836 0.873707 0.947656 0.524123 -0.588087 -2.006956 0.503096 1.319102 0.199098 -0.224700 0.904041 0.584838 0.052975 -0.535588 0.224576 1.049080 -1.148968 -1.355087 0.031749 -0.783505 -0.391370 0.255327 -0.530489 0.274121 0.608834 2.340373 -0.750048 -0.285435 -0.327778 -1.889717 0.137386 1.391128 -0.701916 0.241457 0.752897 1.473052 0.973747 1.040757 -0.533912 0.364029 0.758094 -1.292209 -0.631852 -0.015968 0.000955 0.604566 0.668226 0.278306 0.422926 -1.237143 -1.242108 -1.412637 0.183362 -0.346052 0.079023 0.610664 -1.620664 1.900796 -0.504958 -0.408766 3.235770
AB969372.1.1521 0.390706 0.387444 0.533002 -0.482328 -0.742880 -0.117563 0.856843 0.524448 0.076260 -2.278063 -1.067456 1.945458 0.874253 -0.743909 -0.944823 -0.808005 -0.432485 -0.874928 0.190281 1.086269 -0.257667 0.272577 0.408238 -1.406360 0.871552 2.145871 0.929706 0.018563 -0.197939 0.442825 0.658205 -1.490736 1.232179 0.549986 -0.533718 0.343907 -1.566380 0.081102 -0.114220 0.897894 -0.407257 0.455819 -0.146007 0.642196 -1.767858 1.386929 0.403449 -1.300981 -1.542600 -1.038325 -0.259964 1.540299 0.798915 -0.407375 0.328861 -0.934139 0.098478 1.245057 0.168882 0.601748 0.836101 1.495615 0.653283 -0.836694 0.622804 0.400966 -0.531405 0.182904 -0.960445 -1.492491 0.118781 -1.043924 1.015853 -1.019606 -0.783771 0.944125 -0.126550 0.840905 -0.240824 -0.866003 -1.496605 0.626656 0.130639 1.358785 0.874240 -0.143242 1.156164 0.520967 0.633657 -0.210249 1.514609 -1.329462 0.477962 0.470766 -0.360925 -1.358162 0.403981 -0.393143 -1.403486 0.290842
AB969399.1.1506 -0.343362 0.172717 -0.305950 -0.586281 0.352530 -0.591791 0.992788 -0.137893 1.221230 0.398982 -0.193036 0.824483 0.320130 -0.084069 0.656861 -0.303589 -0.477963 -0.835427 -0.555729 1.171272 -0.376060 0.310949 -0.625006 -0.219250 -0.969133 -0.150462 0.809352 0.398733 0.869043 0.240062 -0.317480 -0.430580 0.335620 -0.949341 0.836515 -0.642249 -0.313846 -0.287038 -0.299927 -0.731627 0.372567 -0.806606 0.418142 0.032729 0.528304 0.523249 0.749573 -0.129683 0.481247 0.729373 -0.128119 -0.074255 -0.660096 0.137668 -0.314047 -0.031596 0.212924 0.290834 0.808596 -0.559070 0.760240 -0.165654 0.959704 0.338059 0.910918 0.282812 -0.852998 0.458545 0.922839 -1.973067 0.367352 0.200527 0.065071 0.273200 -0.436063 -0.713578 0.479488 0.053887 0.366727 -0.936908 -0.709588 -1.250446 0.558974 -0.213544 -0.517208 -0.248755 0.456406 -0.107898 0.474506 -0.256080 -0.635933 -1.069764 1.085967 -0.003378 -0.864789 0.018400 0.836055 -0.766449 0.693537 0.081321
AB969601.1.1522 0.475293 -2.692475 -0.291939 -0.457752 0.627048 -1.235958 -0.908670 0.429894 -0.204023 1.540994 -0.279493 0.179387 -1.669668 0.453096 -0.931395 -1.313598 -1.525437 2.090337 0.221600 -0.849018 -1.494075 -0.220485 0.055712 -0.228495 1.660084 0.955577 0.000969 -0.430843 1.228713 0.138187 0.083617 0.706763 -1.497962 0.670249 -0.520871 0.339478 0.002858 0.719403 0.012878 -0.351007 0.523246 0.265642 0.115247 0.133092 0.309652 1.544475 -0.047131 1.524516 -1.378843 -1.493630 0.343448 1.053294 0.332424 0.643129 0.321428 1.213591 1.497926 0.170892 0.301874 1.095448 2.253917 1.714982 -0.748950 -0.322870 -0.578325 0.650429 0.282233 0.709200 1.209246 0.224060 -0.506433 0.187992 -0.398460 0.257602 0.278142 -0.441192 0.554659 1.074240 1.297264 -1.987330 -1.269939 0.449525 0.242844 1.088443 -1.228501 -0.523774 -0.144670 2.247858 0.423405 0.214475 0.869283 -0.370200 -0.122380 0.375195 -0.584428 -0.070340 0.473683 0.758437 0.052100 -0.398202
AB969619.1.1529 0.116026 -1.381273 -0.245692 -0.465686 -0.185543 1.412967 -0.313605 0.324511 -0.196485 -0.392963 -0.154474 -0.006110 0.730420 0.677695 -0.651101 -0.788797 0.725494 -0.390564 -0.317177 -0.107304 -1.228214 1.299922 0.372321 0.003133 0.042630 1.051812 -0.840979 -0.484296 0.749595 0.274884 -0.404488 -0.238824 -1.040683 0.281628 0.064176 -0.369416 -0.942962 -0.124483 -0.401193 1.490113 0.692436 -0.449397 -0.118996 0.793428 -0.120634 -0.163746 -0.592608 -0.338842 -1.886323 2.577042 -0.522609 -0.014310 1.375772 -0.440724 0.043076 0.891108 0.105247 -0.319797 -0.176066 -0.978391 0.983077 0.077011 1.676683 0.515637 0.465106 1.391109 -0.267704 -0.660985 1.320194 -1.779636 -1.041922 0.563033 -0.407794 -0.669990 -0.765284 1.556067 1.907761 -0.038261 -0.228088 0.315711 -1.022862 -0.501198 -1.054841 -0.357948 -0.990026 0.197677 -0.785231 -0.124790 1.186641 0.978594 -0.306749 -0.020725 -0.481261 -0.023151 -0.138232 0.841478 1.745967 0.572008 0.697234 0.091604
ABDV01000025.23975.25492 0.080242 -0.613896 0.833330 -2.049537 -1.276481 -0.400963 -0.432002 0.615279 -1.331437 0.612882 0.086002 0.149257 -1.550106 0.936670 0.503798 -0.393779 -0.313755 -2.180877 0.052187 -0.504116 -0.697153 2.843208 -0.564271 -1.275987 0.165366 0.488312 -0.351572 -1.038097 -1.896619 -0.108204 -0.090841 -0.562037 0.461158 -0.632614 -0.004518 -0.137084 0.719239 0.232997 -0.475621 -0.518474 -0.341758 1.215419 -0.264298 -1.404104 -1.758723 1.177991 1.305359 -0.743827 1.303513 1.317316 0.696665 2.188468 -1.167563 -1.613406 0.952285 1.092519 -0.067719 0.729090 0.252762 -0.357116 -0.010532 -2.110130 -0.328555 0.651673 0.033767 -1.266658 0.390076 1.182235 0.446084 -0.533579 -0.765084 -0.045268 0.568053 -0.125798 -0.769698 -0.821802 0.568142 -0.185335 0.171742 -1.441762 -0.725032 -0.038180 1.258227 1.359977 0.667876 0.444085 0.380613 1.698130 1.591947 0.088628 0.324900 -0.259116 -2.323244 0.119625 -0.472555 -2.041042 0.044578 0.668562 1.148124 0.009969
ABEZ02000015.506.1996 0.186817 -0.033832 -0.199414 -0.709419 -0.442074 0.880807 0.786323 0.799798 0.026978 -0.806050 -0.549209 -0.039549 1.263254 0.643411 -0.738274 -1.615265 0.487117 -0.562946 0.414546 2.060639 0.053723 -0.037928 0.738859 1.464106 1.788834 0.258582 0.467081 -0.177586 -0.442474 0.165627 0.208757 -0.215390 0.028357 0.300330 -0.126815 -0.363131 -0.275866 0.614166 -0.686862 0.203759 -0.182417 0.020030 -0.031226 1.231323 -0.450330 -0.460868 0.501300 -0.472721 -1.202693 -0.047929 -1.023978 0.414662 -0.801998 0.650949 -1.667153 0.720690 0.461355 0.694611 0.145731 0.248290 0.392510 -0.052974 -0.989430 0.409449 0.168859 -0.576776 0.162300 -0.286133 -0.514304 -0.388239 0.413957 0.879507 -0.574016 -0.325239 -1.137469 0.361052 -0.759947 -0.101964 -0.121297 -0.471743 -0.135246 -0.240007 -0.208610 1.002254 0.476105 0.807811 -0.551804 0.497879 -0.562584 -0.489532 -0.054733 -0.732388 -0.796712 0.107781 -0.315342 0.435111 -0.209382 0.879990 -0.695466 1.853505
ABIK02000013.103269.104574 -0.400440 0.200755 0.138654 0.601350 0.043213 -0.509387 -0.344019 -0.390049 -0.655787 -0.155785 0.016615 0.226129 -0.061090 -0.486373 0.381869 -0.192614 0.026896 0.213634 -0.213091 -0.021894 0.060731 -0.704515 0.355918 0.578378 0.102673 -0.356133 -0.300442 0.345267 -0.301893 0.357612 -0.496217 0.274250 0.195543 0.344002 0.629397 -0.131914 0.601712 0.107010 0.345386 -0.270133 -0.680021 -0.100680 0.129283 -0.142976 -0.198157 0.226974 0.142964 -0.108889 -0.198347 0.110613 -0.020117 0.280821 -0.434906 0.007088 -0.320538 -0.257664 -0.412706 0.830054 0.333234 0.464578 0.233782 0.467428 0.049434 0.101497 -0.676045 -0.035000 -0.017023 0.237151 -0.248602 -0.065071 0.482693 -0.617477 -0.526975 0.105098 0.597633 0.108735 -0.555701 -0.245457 -0.347126 0.277842 0.119125 -0.409017 -0.691739 -0.554572 -0.166451 0.120922 -0.304462 -0.164384 -0.605195 0.361173 0.371992 0.721467 -0.104247 0.175318 0.319027 0.299461 -0.331456 0.320680 -0.042879 -0.331041
ABIY02000114.1.1263 0.070856 0.166703 -0.071443 -0.230798 0.704845 -0.401879 0.044450 0.021901 -0.587298 -0.277412 -0.635973 0.824121 -0.321739 0.057297 -0.591110 -0.071555 -0.651292 0.104185 0.267334 0.259013 0.307203 -0.852870 -0.876467 -0.527403 -0.629199 -0.103536 -0.222409 -0.447720 0.311915 0.142501 -0.129850 0.164743 0.141314 -0.292341 1.007405 0.487740 -0.285893 -0.141611 -0.552532 -0.243692 -0.088509 1.122468 1.039890 0.336091 -1.095919 -0.713694 0.319725 0.169703 0.404239 -0.181484 0.960503 0.597399 0.203230 1.346492 -0.012626 0.042701 0.382516 -0.625901 -0.975891 -0.214544 0.254259 0.380886 0.551942 -0.099192 0.087365 -0.469643 0.526172 0.297482 0.924936 -0.659395 0.089792 -0.179260 0.414157 0.495479 0.087485 -0.437715 0.027264 -0.527954 -0.259551 0.586901 -0.080570 -0.580969 -0.692746 0.326807 0.196128 -0.049365 0.068871 -0.163587 0.172510 -0.386294 0.144817 0.320522 -0.520816 0.133916 0.468843 0.121567 -0.096878 0.500687 0.108063 0.354496
ABQC02000019.758957.760260 -0.017615 0.021698 0.699374 0.050746 0.686087 -0.782801 0.905670 0.613580 0.827935 -0.405392 -0.567955 0.181664 -0.749496 -0.052513 -0.173247 -0.601394 -1.376823 -0.416541 -0.059338 -0.426739 0.008232 -0.795050 -0.235833 0.409595 0.177036 -0.292893 1.080480 -0.412506 0.629504 0.493666 0.225894 0.583618 0.192634 -0.207256 -0.378913 0.199892 -0.183385 0.083032 -0.401365 0.236650 0.871114 0.359771 -0.116600 0.391425 0.725890 -0.398392 1.075853 0.080777 0.986585 0.683266 0.577240 0.449488 -0.890911 -0.352052 0.567431 0.606350 -0.118123 -0.978865 -0.189150 0.232229 -0.657625 0.475088 0.090031 -0.068635 0.194890 -0.531804 0.787454 -0.061874 1.429803 -0.012015 -1.112511 0.764282 0.049013 -1.201532 -0.233544 -0.762314 -1.161722 -0.130529 -0.906184 0.280151 0.264216 0.003400 0.169804 -0.236133 -0.324137 0.100719 0.078021 0.031413 0.123346 -0.425327 0.129464 0.336142 -0.326824 -0.725239 -0.076963 -0.272287 0.348406 -0.310684 -0.104419 0.101000
ABWL02000011.84303.85559 0.660408 -0.278012 -0.519722 0.908679 -0.467064 -0.049343 -0.306517 0.184709 0.688958 0.052222 -0.196558 0.303334 -0.247047 0.963307 0.106310 1.758345 0.322856 -0.087307 0.243833 -0.450143 0.622491 0.588850 -1.271553 0.092222 1.217426 0.513311 -0.002063 -1.277712 0.664030 -1.410292 -1.027434 -0.341432 0.221940 -0.447765 0.027124 0.531075 0.670411 -0.297820 -0.520746 -0.402874 -0.623757 -0.179244 -0.275616 -0.144471 -0.797218 0.863822 0.089535 -0.159160 -0.082386 0.236135 -0.807302 -0.169046 -0.419414 -0.727834 0.567878 0.889129 0.474893 0.734797 1.104369 -0.147865 -0.451985 -0.738352 -0.453664 -0.213940 0.282055 -1.038716 0.287883 0.805332 -0.120213 0.179685 0.563084 0.708275 -0.273195 1.282254 0.492679 -0.976126 -0.003983 -0.012502 -0.217243 -1.049221 -0.618879 -0.504638 -0.277479 0.445454 0.909260 1.011363 0.673936 0.190340 -0.070581 -0.975054 -0.345752 -1.150456 0.133215 0.386858 -0.336787 0.488646 1.423456 -0.248312 0.155906 -0.033234
ABXI02000116.1.1285 -0.394474 -0.127825 -0.384807 -0.083354 0.810312 -0.510932 -0.545489 0.395174 0.100127 0.065228 0.018001 -0.054285 -0.087573 -0.123426 -0.265084 -0.238449 -0.049992 -0.380152 0.472373 0.176757 0.212997 -0.371984 -0.828906 -0.231402 -0.176312 -0.258735 0.075397 0.417548 0.589080 -0.101584 -0.260042 0.436366 -0.244688 0.350154 -0.309378 0.364628 0.261338 0.181838 -0.196153 -0.254313 -0.022256 0.850671 0.330203 -0.511729 -0.214316 -0.302447 -0.417727 0.370294 -0.235941 -0.816874 0.581382 0.336725 0.478984 0.463331 -0.298555 -0.003003 0.448187 0.535469 -0.573527 -0.270648 0.062119 0.005182 0.208851 0.085542 0.384705 0.210082 -0.777822 0.028856 0.515359 -0.084052 0.021850 0.116856 0.611607 0.012506 -0.355026 -0.485054 0.460732 0.105398 0.183641 -0.176703 -0.110987 0.102968 -0.125565 0.922208 -0.063932 0.503288 -0.369426 0.612521 0.369507 0.034966 0.075041 -0.127480 0.458094 -0.171762 0.961374 -0.575052 -1.247268 0.789994 0.809303 -0.334278
ACBZ01000217.267.1788 -0.115595 0.797232 -0.172023 -0.847635 -0.123860 0.431041 -0.745789 -1.537356 -0.706934 -0.079136 -0.136349 0.501539 -0.048730 -0.257969 -0.052724 -0.107873 -0.083838 -0.489029 0.228420 0.171319 0.763367 0.154636 -0.035862 0.099034 -0.233485 -0.289998 0.317028 -0.298895 -0.346888 -0.516958 0.192194 0.919182 -0.493729 0.190683 1.146184 0.702121 -0.010550 0.072777 0.141098 -0.346695 -0.190611 0.052139 -0.406114 -0.506620 0.502462 0.146626 -0.081657 0.983875 -0.154754 0.136671 -0.118660 0.348839 -0.146313 -0.155471 0.204666 0.247660 -0.718480 -0.461162 0.111469 0.695631 -0.070326 0.496426 -0.245247 -0.268965 -0.109797 -0.154596 -0.632308 -0.045354 0.170714 0.657616 0.446757 0.147119 -0.000836 -0.276850 -0.575225 -0.034051 -0.045553 -0.063000 -0.368400 0.744494 -0.145501 -0.032479 -0.109511 0.003459 -0.381168 -0.080827 0.993488 0.056099 -0.171203 0.531761 0.249632 -0.406785 -0.277580 -0.646903 0.313959 0.217629 -0.115589 0.486590 0.520137 0.501952
