AAXA02000007.1.1294 -0.576957 -0.690900 0.322353 -0.235685 -0.013709 -0.079661 0.310415 -0.142846 0.699234 -0.167211 0.389862 -0.110110 0.969211 -0.418642 -0.392910 -0.681001 -0.019145 -0.155770 -0.660327 0.275829 0.172859 -0.762435 -0.371958 -0.242390 0.595951 0.120872 -0.242616 -0.275884 0.140631 -0.047276 -0.063135 -0.287327 -0.183132 2.751509 0.722500 -0.693006 0.006578 0.249255 -0.033194 0.021551 -0.677854 0.045531 -0.163568 -0.343500 -1.107613 -0.163550 -0.172089 0.407878 0.005638 -0.651319 -0.038654 -0.182374 0.232422 0.477775 0.539688 0.114962 -0.379891 -0.798638 0.684540 -0.202004 0.197488 0.152456 -0.772425 0.135323 0.555537 -0.361309 -0.558301 -0.100622 0.255250 0.336115 -0.234744 -0.545256 0.491551 -0.012064 -0.348448 0.399749 0.141348 -0.018186 0.780248 0.121846 0.447596 -0.060170 0.042972 0.032492 0.009713 0.501822 0.013547 0.677676 -0.175580 0.024184 0.176521 -0.298379 0.075608 0.071571 -0.272248 0.379378 0.289636 -0.024517 0.436183 0.498316
AB008514.1.1214 0.270965 0.521477 2.230684 -1.795799 -0.623316 -0.287624 0.193329 -0.114098 1.274138 0.690386 0.693801 -1.054273 0.083113 0.326044 -1.239359 1.141945 0.093152 0.398194 -0.379877 -0.343192 -2.007617 -1.493156 -0.550864 0.022260 -0.200711 -0.223588 1.480169 -0.343006 -1.557399 1.594796 0.125006 0.507328 0.368627 0.307334 -0.601722 0.364118 0.572541 -0.716582 -1.756169 0.676375 -0.268886 0.154554 0.565649 1.801938 1.897776 -0.470612 0.974059 -0.485201 0.924981 1.471567 -1.215211 -1.480775 -0.353807 1.347030 0.915461 0.107284 -0.755253 -0.839662 -0.775220 -0.149990 -0.940608 0.019981 -0.215154 0.367092 -0.683874 1.393268 -0.088191 0.240952 1.496316 0.398278 0.807952 -0.065119 -1.542245 0.877837 0.510792 0.363065 0.248727 0.316283 -0.620128 -0.496992 -1.347940 -1.076812 0.279314 0.847639 -0.809424 0.039968 -0.712680 -0.505239 0.546110 0.103308 0.284877 -0.636290 -0.053554 -0.318551 0.045075 -1.130536 -0.279748 1.584194 1.224117 -1.640384
AB012207.1.1299 -0.560370 -1.697558 -0.358011 -0.500387 -0.047520 -1.481779 0.845881 -0.342139 0.050272 0.567223 -0.965816 0.221049 0.720644 -0.245610 -0.705185 0.273751 1.951361 -0.229503 -0.973080 -0.007767 1.199529 -0.541316 -0.478242 0.632124 -0.562706 -0.782045 -0.280654 0.950503 0.199331 0.284328 0.493102 -0.205790 -0.272242 -0.544073 0.711840 -0.893559 0.719394 -0.001136 -0.728579 1.159988 -0.078302 -0.005240 -0.208599 1.098942 0.544648 0.286085 0.687509 -0.344377 0.488975 -0.475721 -0.395959 0.662681 0.491848 -0.757131 1.179742 0.195433 0.123607 -1.030214 -0.924591 0.847029 0.040462 0.131661 0.447749 -1.256709 -0.632817 -0.250048 -0.032537 -0.910089 0.180917 0.400784 0.769919 0.443456 -0.516582 0.153201 0.055083 -0.620551 0.343590 -0.648814 -1.325561 -1.123098 -0.448258 0.488041 -0.395156 0.191112 0.174888 0.366678 0.100712 -0.465246 1.014682 -0.146467 -0.795029 -0.599180 1.133936 -0.669328 -0.141522 -0.132837 -0.730320 -0.153160 1.440290 1.220405
AB012589.1.1484 0.860790 0.844209 1.668240 -0.243953 -0.454181 -0.622145 1.072642 0.222453 -0.066735 -0.701215 0.237260 0.963154 1.529425 0.784343 -0.570519 0.595449 1.096737 0.410494 -0.303819 0.946895 -0.442079 0.439929 -0.256078 0.167655 0.610837 -0.303924 -1.417712 0.912946 0.925530 1.713947 1.667692 0.459324 0.380910 0.644505 -0.057592 1.267505 -0.652781 -0.135863 0.049443 0.341873 -1.047485 -0.362698 -1.709227 1.138996 -0.345551 -0.154823 -0.335916 1.320669 1.708506 -1.022602 -0.741553 -1.146738 -0.665166 -1.768654 0.554155 0.067459 -0.840123 -0.365482 0.866341 -1.125890 1.093470 0.641235 0.169412 -0.740565 -0.350113 0.839144 0.891047 -0.907685 0.115648 -1.462482 -0.455395 0.493965 1.211562 0.134785 1.284169 -0.086807 0.545108 -0.383323 -0.744648 1.072214 -0.763177 -0.395781 0.159646 -0.011844 -1.294287 0.950386 -0.410406 0.387506 -0.481852 -0.419698 1.629104 -1.340229 -0.331222 -0.126869 -0.965805 -0.884022 -0.146937 -1.461340 -0.521554 0.333765
AB022925.1.1450 0.456941 -0.127906 -0.432299 0.876946 0.851982 0.127526 -0.178720 -0.004358 0.077929 -0.393876 0.199913 0.237333 -0.181170 0.273400 -0.464837 -0.174575 0.387835 -0.233579 0.876805 0.396766 0.117524 -0.422826 -0.265398 0.455497 1.317245 -1.001679 -0.590748 -0.515226 0.218342 0.048031 0.201075 -0.228475 -0.119789 -1.323417 0.494178 -0.269428 -0.471543 -0.496145 0.110249 -1.208874 -0.415373 0.813073 -0.342401 -0.278432 0.394604 0.449659 0.514666 1.267461 0.720844 0.293425 0.327318 -0.395306 -0.038964 -0.288185 -1.314590 0.163864 -0.326136 -0.058515 0.297702 -0.634731 0.005993 -0.035092 0.059394 -0.319062 -0.230820 -0.560137 -0.212917 0.836881 -0.052136 -0.305721 0.324697 -0.406097 0.380883 0.912890 -0.237440 -0.693577 -0.919121 -0.022403 -0.850827 0.266511 0.098197 0.281775 0.444431 -0.414002 0.232749 -0.026955 -0.081646 -0.918527 0.077356 -0.207737 -1.084230 -0.420596 0.436613 -0.107905 0.557510 -0.364281 -0.438726 0.165941 -0.666056 -0.831544
AB023972.1.1377 -0.720802 -1.396284 -0.343721 -0.355043 -0.300699 1.447907 -0.203168 1.188484 -1.630970 -0.417535 -1.632773 -0.258057 0.400212 -0.311555 1.456177 -0.916138 -1.127799 -1.797996 -0.788022 0.635156 -1.043398 -1.157666 -0.288279 -0.016692 -0.800695 -1.645290 1.013740 -0.736073 -1.132284 0.474853 1.307227 0.678056 -0.126808 -0.094148 -0.178474 -0.112000 -1.118658 -0.063421 -1.013787 -0.115407 -0.002178 -0.508148 0.821082 1.196503 1.566396 -1.824844 0.534059 -0.591519 -0.770893 -0.868917 -0.670221 -1.631013 0.452510 -1.220734 -0.879523 -0.429584 -0.355586 -0.299216 1.021894 -0.274361 0.230710 -0.821147 -0.036784 -0.500289 0.282392 -0.572185 -2.288696 0.515058 -0.407998 0.246145 -1.028679 0.588478 0.539614 0.600300 -0.828145 1.054871 -0.719518 1.280511 -1.111213 -0.187705 0.681750 -0.738580 -0.626420 -0.667073 -1.177466 1.378552 -0.257814 0.269711 0.816326 -1.266305 -0.466960 -0.473666 -0.821637 1.273884 0.558741 1.311534 0.201370 1.515950 0.385545 0.532445
AB036759.1.1480 -0.261155 -0.441387 -0.040812 -0.109293 0.260092 -0.453743 -0.171540 -0.941398 0.558641 -0.714608 0.065908 0.325254 0.146969 -0.210497 -0.312337 0.507191 0.049377 -0.832781 -0.277514 -0.071614 -0.095122 -0.065674 -0.173129 0.941992 0.306819 0.664929 -0.178714 0.290165 -0.630146 0.275206 0.195145 0.409390 0.946627 -0.751701 0.291141 -0.133938 -0.787996 0.640366 -0.002182 -0.019190 -0.366782 0.082423 0.763230 1.086667 -0.590370 0.035448 -0.586795 0.330915 -0.074177 0.393839 0.641520 -1.010848 -0.041822 -0.094141 -0.353178 -0.250021 0.628304 0.105787 -0.553749 0.334081 0.599349 0.289985 -1.164834 0.171873 0.584764 0.362601 0.466451 0.869537 -0.133797 0.019203 0.228076 -0.005749 -1.039911 0.683508 0.193167 -0.140886 0.231105 0.310328 0.008575 0.054868 0.029553 -0.461364 -0.255540 -0.183083 0.590558 -0.060756 0.396161 -0.476285 -0.080439 -0.009307 0.300389 0.008318 -0.120666 0.272330 0.020496 -0.657628 -0.386913 0.387315 0.558655 0.127437
AB064919.1.1492 -1.133717 0.415726 -1.109551 0.444843 0.265624 -2.283004 0.010403 -1.304185 -0.714169 -0.109387 -0.557634 -0.331840 1.213467 0.611630 0.605420 0.473860 0.699748 1.159630 -1.058172 -0.809154 -1.929067 -0.187823 -0.922463 1.724724 0.902380 0.724886 1.252510 -0.003565 0.386653 0.763326 -0.226500 -1.362669 -0.777933 0.697746 0.139203 -0.863171 -0.712890 0.287519 -1.082441 -1.232175 -0.357246 0.519965 0.428461 -0.846449 0.504854 0.399198 0.709625 -1.096858 -0.195824 -1.820913 -0.094881 0.949837 -0.621950 -0.825143 0.793956 -0.047931 1.085188 0.746609 -0.284232 0.558103 1.043456 0.121545 -0.483647 -1.049542 -0.179147 -0.222219 1.343504 0.963274 0.429987 1.052323 0.670246 -0.271788 0.184926 -0.051012 -0.416586 -0.961794 0.958297 0.537251 -0.050232 -0.242842 0.176532 0.173658 -1.275752 0.328919 -1.954736 0.874204 0.518622 -0.173785 -0.253323 0.270259 -0.071233 -0.230691 0.688714 -0.219472 -0.952297 -0.396550 -0.478982 0.299497 -0.695006 0.074810
AB108825.1.1490 0.054048 -0.444581 -0.577194 0.459406 0.044193 0.179047 1.564692 -0.689123 0.273660 0.157198 -0.847128 -0.084435 1.553102 0.886148 0.639763 -0.249286 0.712363 0.938762 -0.084814 -0.732050 -0.497108 -0.783186 -0.098465 1.771849 -0.447816 0.197817 0.966929 0.171958 -0.796514 1.320198 -1.127382 0.379893 -1.544915 0.255306 -0.353023 1.226345 0.650017 0.858078 -0.526661 -0.933083 -1.150037 1.313128 -1.055351 0.973363 0.814498 -0.418641 1.000403 0.406532 -0.746990 0.707879 -1.333417 0.907754 -0.142136 0.826878 0.501836 0.166023 0.123457 0.129892 0.099418 1.141936 0.069747 0.319594 -0.079550 -0.830048 -0.840033 0.942890 0.555712 0.282270 0.868204 0.366555 0.762722 -0.091250 -0.151360 1.834912 0.216179 -0.391841 -0.524574 0.873236 -1.226433 -0.515857 -0.826350 0.924588 -0.268005 0.364686 -0.374840 -0.857197 0.639108 1.639434 -0.112827 -0.702456 -0.176801 -1.459096 0.348720 -0.083723 -0.883067 -1.015899 -0.780055 0.352366 0.239820 -0.370786
AB182483.1.1494 0.212643 1.092065 1.556538 0.703271 0.383751 0.310606 -0.016272 -0.014762 0.453334 0.111696 -1.667392 -0.322096 0.067765 -0.336487 0.594041 -1.358869 -0.279773 -0.315978 -1.276224 -0.688831 -1.795598 -0.617331 -0.468617 0.640613 0.154709 -1.096751 1.676853 -0.382781 -0.392488 0.692105 1.342687 1.160183 -1.043944 -0.994791 0.228009 0.857567 -1.422642 -0.976875 0.682968 0.152288 -0.307621 1.140973 0.616393 -0.688013 -0.688188 -1.779770 -0.439843 -0.796886 0.291981 0.549132 -0.518763 -2.354178 -0.661747 -0.459448 -0.055129 -0.348318 0.769679 -0.908277 0.059236 1.149071 0.693113 -1.732251 0.885684 -0.947386 -0.390373 0.839362 1.167558 -0.066202 -0.746349 -1.470748 -0.074770 -2.218960 0.666806 -0.096183 0.551343 -1.654378 0.185984 -0.341770 0.293843 1.782485 0.007863 -1.747460 -0.427058 0.392784 -0.672607 0.141856 1.197100 0.134458 -0.644796 -1.136816 -1.004817 0.728006 -0.283315 0.249199 0.024027 0.183863 0.005026 -0.327027 -1.500487 0.729988
AB200414.1.1491 -0.564062 -0.650939 0.722309 0.719774 0.095446 0.996660 0.747641 -0.066605 0.288192 -1.071363 -1.280855 0.784410 -0.252809 -0.479819 -0.193383 0.428397 -0.353649 -0.542734 -0.507825 -1.189450 -0.562796 -0.770348 -0.118563 0.172779 -0.230915 0.111820 -0.065000 -0.532623 -1.363806 0.737117 -0.123347 0.289420 -0.293001 0.813005 1.732690 -0.038557 0.120354 -0.110819 0.204982 0.116861 -0.966029 -0.040049 -0.652008 -0.041412 -1.003662 -0.143066 -0.474721 -0.667019 -0.914539 1.296726 -0.088957 0.425404 -0.332965 0.518687 -0.055278 -0.022407 0.659050 -0.819609 0.229951 -0.216884 -1.429749 0.922105 -1.306832 -1.180602 -0.738730 -0.072642 -0.727501 0.146092 -0.222312 0.970484 -0.149435 -0.328879 -0.401366 1.149733 0.180467 -1.413240 0.569021 -0.144131 0.614120 -0.936722 -0.034371 -1.221536 0.258160 0.459284 -0.179136 -0.745599 0.659706 -0.170376 0.699491 -1.130589 -0.041054 0.160129 -1.322444 -0.827938 -0.366204 0.436684 -0.492774 0.303817 0.154994 0.169887
AB218322.1.1456 -0.182749 0.194070 0.671935 0.042203 0.789327 0.511593 -0.589872 -0.371939 0.606648 0.586982 -0.819076 0.205347 0.286474 -1.018045 -0.128560 0.090337 -0.133798 0.828859 0.183837 -0.286058 -0.788176 -0.513768 0.822888 1.214973 -1.520353 -0.504932 -1.266002 -0.008066 -0.404261 1.149173 -0.520799 -0.305614 -1.813912 -0.117194 0.164790 1.946883 0.903453 -0.088148 -0.263600 -0.038098 -1.112172 -0.379106 -0.700383 0.191315 -0.492191 -0.364567 0.374143 0.053989 0.984008 0.024191 0.676443 0.509393 -0.054086 1.361733 0.298418 0.110440 1.404579 0.137368 -0.152392 -0.936798 0.896165 -1.184201 0.655854 -1.060192 -0.970348 0.105218 -0.270820 0.332242 -0.010619 -0.432573 -0.341595 0.199234 0.268706 -0.160133 1.601132 -0.819048 -1.391837 1.119273 1.272094 -0.873880 0.535295 -0.335713 0.063226 1.240343 -0.488039 -0.950115 -0.338083 -2.436344 -0.067992 -1.605448 -0.235269 0.007306 -0.190052 0.865849 -0.316089 0.593743 -1.018368 -0.714622 1.519551 -1.864965
AB218324.1.1551 0.023655 -1.784370 0.464793 -0.366614 1.517236 -0.297843 0.108697 -0.432235 -1.713342 -0.343784 0.164443 0.499694 -0.064083 -0.265434 1.378826 1.316142 0.638215 -1.245777 1.007079 0.119587 -1.355107 0.889443 0.520655 -0.105962 -0.498273 1.125379 -1.077980 1.255461 0.304848 1.432264 -0.357370 0.691345 -1.503496 -0.806538 1.373231 -0.335932 -0.900713 -1.229387 -0.005154 -0.630117 -0.561579 0.391906 0.363783 -0.690917 1.038032 0.691677 -0.573379 1.509680 0.706184 -0.796292 -0.058106 0.480840 -0.613936 -0.438670 -1.127730 0.678372 -0.199394 -1.002562 -0.507973 -0.343459 -0.461231 0.239045 -0.855209 -1.971030 -0.371670 -1.057592 -0.625991 0.236873 -0.179236 0.629354 0.956512 0.472459 0.873407 0.084843 -0.179287 0.545841 0.522531 1.531620 0.023349 0.144367 -1.452545 -3.135918 0.819718 0.557461 1.211355 0.256887 0.768548 -1.437804 -0.109161 -0.470174 0.674259 -0.011345 0.297479 0.484268 -0.611306 2.074183 -0.142076 -0.797931 0.682470 0.687646
AB218325.1.1438 0.870273 -0.445455 -0.450557 -0.264187 0.217072 0.252306 -0.400289 -0.231003 -0.022746 -0.260087 -0.180179 0.523938 -0.629058 0.173042 0.199775 0.306728 -0.319253 0.295571 -0.430227 0.159385 0.228218 -0.044469 -0.582203 0.395541 -0.146876 0.277698 0.565023 -0.478777 -0.803693 0.349963 -0.560818 -0.088231 -0.109683 0.211644 -0.095023 -0.112867 0.594799 -0.520850 0.013853 0.040730 0.224702 -0.542630 -0.561979 -0.379583 0.299752 0.500597 -0.361934 -0.307087 0.326800 0.027403 -0.170474 0.022143 -0.320522 0.542584 0.041640 0.185878 -0.023348 0.174464 -0.881937 -0.068150 -0.374517 -0.275999 -0.254011 -0.228931 0.457704 -0.060504 0.387114 0.814308 -0.041094 0.066917 -0.423315 -0.202533 -0.407843 0.038232 -0.042428 0.289352 0.344143 -0.369599 -0.091457 0.279232 -0.685473 -0.020319 0.109925 0.220951 -0.517974 0.006207 -0.108219 0.297716 0.270540 0.003513 -0.061617 0.454715 -0.794452 0.331604 -0.398392 -0.680880 -0.559179 -0.199123 -0.389174 -0.413468
AB231038.1.1365 0.462147 1.487674 -0.525419 -0.112360 -0.528515 0.991177 -0.326606 0.153671 0.349303 0.548072 -1.140635 0.059582 1.180937 0.218973 0.899672 -0.371004 -0.275173 -0.145296 0.067056 0.288616 -1.185088 -0.073258 0.615577 1.242459 -0.592128 0.227277 0.330793 -0.256939 -1.506749 0.784487 -0.885194 0.972278 -0.546816 0.082884 0.433302 0.461588 -1.062446 0.364326 -0.226649 -0.370537 -1.140559 0.110551 -0.387261 -0.145510 1.201234 0.678087 0.686715 -1.106378 -0.382690 0.482515 0.669664 0.027293 -0.324767 -1.325708 0.830428 0.161164 0.481575 -0.767194 -0.579366 -0.057016 0.253363 0.429392 -0.455802 -0.128069 0.031031 0.225353 0.241488 -0.652125 0.305252 -0.697561 0.419487 -0.239450 0.565588 -0.009419 0.478095 -0.221720 0.653894 1.296006 -0.563274 0.387912 -0.156126 0.545316 0.431227 0.651524 0.791401 0.091395 0.646998 -1.460377 0.052207 -1.229229 0.391478 -0.480684 -0.398621 -0.123403 -0.135048 0.834150 -1.144193 -0.146414 -0.087749 0.034385
AB264082.1.1445 -0.239320 0.007810 -0.463136 -0.310198 0.517973 0.134495 0.323582 -0.862091 -0.148085 -0.030852 0.057458 0.083772 -0.765118 0.712029 -0.648530 0.582099 -0.712309 -1.070130 0.273170 -0.135456 -0.792747 -0.119021 0.230475 -0.011335 -0.746694 1.160324 -0.647974 0.009478 -0.181949 0.497740 -0.257594 0.242421 -0.494144 1.322367 -0.035812 -0.036983 0.763531 -0.714409 0.179644 0.298921 -0.101981 -0.120879 -0.049020 0.184129 -0.407890 -0.724940 -0.319357 0.476336 -0.548757 0.196112 0.470350 -0.772251 0.448795 0.523828 -0.452607 -0.341787 0.147953 -0.095741 -0.139891 -0.320878 -0.936105 0.672370 -0.669870 -0.372765 -0.272458 1.104109 -0.959156 0.183734 0.494944 0.247282 0.810475 -0.391831 0.065955 0.943235 -0.318971 0.069614 -0.054865 -0.521088 -0.319564 0.143192 -0.466447 -0.214014 0.760421 -0.218902 -0.655254 0.086505 -0.042742 0.849541 0.201154 -0.058850 -0.365060 -0.733241 0.303821 -0.216863 0.472021 -0.175270 0.012421 0.108720 -1.105889 1.194090
AB267809.1.1461 -0.370669 0.021719 0.824959 2.380896 -0.574022 1.565155 -0.350414 -1.251645 -0.567838 -0.129238 -0.415534 1.332963 1.948671 -0.411878 0.378104 0.010105 1.613252 0.484823 -0.024207 -1.950788 -1.019416 0.485325 -0.754247 0.837726 2.705324 1.176831 -0.889364 0.139978 -0.124900 -1.181941 0.199934 0.056755 0.332693 1.936192 0.869654 -1.814662 0.150587 1.070357 -0.346313 0.471032 -0.088945 -0.204635 -0.544268 1.570567 -0.852149 -2.201723 -0.220471 0.262259 0.242487 -1.125613 -1.528239 -0.502410 1.290209 0.638286 1.236967 0.744360 -0.916773 0.267538 -1.594119 -0.549267 0.218282 1.234109 0.989958 0.469633 -1.520765 -0.483796 0.598333 -1.814873 -0.579519 -1.331105 0.877251 -0.154697 -0.114637 1.314493 0.109374 -0.789558 0.576754 0.014097 1.166419 1.275911 0.181444 -1.041694 1.774610 -0.082291 0.566150 -0.110941 -0.947758 -1.538753 0.827197 -2.745137 0.782986 0.248812 1.470628 0.379026 0.818628 -0.407760 -0.227191 0.133253 0.145905 0.267855
AB270083.1.1322 0.308013 -0.359094 -0.496069 0.933754 0.249272 1.616943 1.493658 1.059647 -0.799822 -0.701157 0.629693 0.997318 1.862772 0.836311 -1.607815 -2.887240 -0.437831 -0.812926 0.260584 0.000303 0.138818 -0.652900 0.881716 -0.639827 -0.773008 0.487274 -0.256030 0.252933 -2.566341 -0.919274 1.332984 -0.831447 -0.408020 0.075745 1.308001 1.824170 -0.677310 0.587358 -0.530869 0.877491 0.433075 -0.053170 -0.147185 1.406789 -0.558985 1.758051 0.542977 -0.023408 -0.024947 0.598774 -2.129771 -1.401353 0.649142 0.183771 -0.563814 1.110821 1.396367 -0.663297 -1.327713 -1.295292 1.132051 -0.311752 -0.352429 0.426122 -1.728654 1.356230 0.251217 0.917718 -0.719402 0.404102 0.994812 0.042669 0.356918 0.962932 -0.867656 -0.241532 -1.161442 0.806705 -0.919342 -0.652593 0.864035 0.394957 1.513646 -0.212798 -1.221779 0.030866 0.807803 0.560782 0.478347 -0.365480 -0.798142 0.071159 -0.078611 -0.889644 -1.295542 0.421503 0.020281 -0.158658 -0.206340 1.493574
AB272322.1.1204 0.064502 -0.731248 1.087905 -0.329151 -0.525289 0.492253 0.855430 -0.310250 -0.918220 -0.543489 -0.208427 -1.235211 0.166354 -0.304584 0.217863 1.354772 0.965444 -0.430897 0.337837 -0.419158 0.050736 -0.035181 -0.398293 -1.422870 0.010671 0.269836 -0.299497 -0.279376 -0.636234 0.585261 1.993491 1.097740 -0.323721 -0.426510 -1.086914 -0.536116 0.054559 0.189006 -0.956235 -0.069769 -1.458077 -0.286439 -0.960754 0.211241 0.135156 0.345970 1.843626 -0.504420 0.887179 -0.001356 0.203034 -0.188637 0.269034 -0.313793 0.125870 0.430693 -1.382846 -1.247136 0.601700 0.328597 0.445412 1.103621 -0.435583 -0.220441 0.701873 0.046039 -0.627900 0.440509 -1.350623 -0.239609 0.015662 0.318400 0.097618 0.023535 -0.091847 -0.263349 -0.212977 0.106695 -0.145579 1.178420 -0.749336 1.492002 0.152226 0.986978 -0.182774 -0.374770 0.031853 -0.588999 -0.105971 -1.205588 0.451081 -1.294343 0.755870 0.143691 -0.096998 -0.022180 1.208593 -0.829644 -0.419655 0.422596
AB272335.1.1200 0.294229 0.808689 -0.249585 0.035571 -1.380634 0.211072 0.804720 -0.465090 0.968577 -0.069546 1.094989 0.590978 1.032753 -1.081190 -0.046711 1.036389 0.686694 0.943100 -0.221841 -0.545316 -1.818426 -1.648764 -0.029635 -1.754607 0.489258 0.977862 -1.683220 -0.736142 -1.159562 -2.128903 0.364926 0.373640 -1.914514 -0.160090 0.917708 -1.031292 1.082978 0.158075 -1.402687 -1.440426 -0.138999 0.251341 0.114049 1.392736 -0.301184 -1.843057 0.570236 -0.566153 0.450133 0.320587 1.533948 0.666334 -0.330184 0.091024 -0.081496 0.271314 -0.413749 -0.589162 1.154487 -0.334946 -1.382321 -0.327680 -0.611050 -0.545907 0.022574 1.269400 0.567729 -1.070978 1.670548 -0.456300 0.161766 -0.174945 -1.207941 1.460219 0.522494 1.226774 0.081767 0.794869 1.045925 0.368564 0.383688 1.237908 0.613121 -0.652733 -0.160990 -0.840002 -0.737560 0.842929 -0.928227 -1.213036 3.283338 0.317748 -0.013046 0.110504 1.244198 -1.754998 -0.721244 -0.583245 -1.196577 -0.321381
AB272364.1.1268 -1.302358 -1.936737 0.071619 0.245929 0.613550 2.273316 -0.671825 -0.894633 -0.354897 0.310574 1.238280 -0.079985 1.641634 1.349129 -0.303113 -0.184803 -2.185071 -1.403426 0.439656 0.717264 0.511991 0.440358 -0.405136 1.498792 0.451507 0.424906 0.801659 0.131346 -0.538574 0.537418 -0.813832 -1.317925 -0.555984 -0.002234 0.503340 0.933938 -0.518640 -0.346687 -0.801682 -0.963629 -0.402169 -0.258419 -0.158537 -0.763972 -0.796268 -0.385526 0.731222 -0.400894 -0.259626 1.598386 -2.700450 -0.831362 1.037226 1.096837 -0.479319 0.919128 -0.849624 -0.768635 -0.698070 0.620344 0.377745 0.280354 -1.488574 -0.528276 1.067862 -0.686736 -0.507908 1.609443 -0.640094 -0.234335 0.228177 0.736376 -0.072714 0.683978 0.118757 -0.170241 -1.860844 1.230238 -0.092574 1.477576 0.262093 0.639465 -1.243861 -0.403782 -0.900631 -1.455135 1.855603 0.676680 -0.061876 -1.408680 -0.527459 0.122675 0.692441 -0.063229 -0.123150 -0.587658 -1.082189 0.778772 -0.347773 -1.126884
AB294138.1.1215 1.379834 -0.062256 0.009867 0.978474 -0.575564 -0.338234 -1.046261 -0.047899 -0.346691 1.114137 0.406483 1.044247 1.076485 -0.626949 0.555440 -0.885210 1.341871 0.548400 -0.323433 0.340694 -2.350313 -0.245714 0.407560 -0.453885 0.232550 0.293055 0.800065 -0.285969 0.112648 1.048109 0.145595 -0.440984 -0.861659 -0.732658 0.056619 0.552365 0.229608 0.212556 -0.348661 0.432918 -0.613346 -0.029205 -0.412818 0.957858 0.413032 -1.148687 -0.380474 -0.093571 1.096079 0.724650 -0.180666 -0.044314 0.709992 -0.829017 -0.316995 -0.477898 0.069030 0.682509 -0.158380 0.017199 -0.226944 -1.038353 -0.236172 -1.086368 -0.030806 -0.141236 0.561034 0.343412 -0.894010 -1.456842 -0.750514 -0.413665 -0.287792 -0.498873 0.471499 1.017640 -0.000299 -0.304308 -0.203974 -0.686709 -1.340492 1.570200 -0.374261 0.139326 -0.149023 1.037755 -0.011752 -0.254912 1.020177 1.123601 0.388903 -0.325011 0.577384 -0.550318 -0.500224 -0.777415 -0.047648 0.330137 -0.135682 0.932940
AB300988.1.1342 -0.172037 -0.261318 -0.689583 0.990413 0.784587 0.092111 0.677699 -0.073475 -0.001760 0.536841 -1.740579 0.378020 -0.249573 -0.001677 -0.172510 -0.965003 -0.092306 -0.550610 -0.020610 -0.912858 -0.280914 -0.480640 0.000491 -0.778973 0.131270 -0.062786 0.459730 -0.173141 1.484247 0.314916 0.258407 0.017602 -1.173143 -0.130202 -0.044420 0.432785 0.560841 -0.099107 0.996439 0.203353 0.741314 0.626289 0.351644 0.300438 -0.022124 0.051333 -0.218536 -0.325282 0.500210 0.827759 -0.646826 0.143952 0.658147 -0.758023 -0.252324 0.017364 0.896724 0.184279 0.069493 0.847454 -0.376619 -0.586186 0.511039 0.558487 -0.003197 0.802054 0.934034 -0.041201 -0.371867 -0.606525 -0.155216 -0.002697 0.724084 -0.473187 -0.874365 0.022129 0.047573 -0.776595 0.854821 0.252838 0.106232 1.461339 -0.078064 0.138297 0.225228 0.959346 0.228677 -0.693776 -0.154215 -0.373701 -0.818646 -0.572081 -0.789988 -0.905322 -0.288867 0.295322 0.431866 0.620793 0.372285 -0.566039
AB331897.1.1481 0.654346 -0.107327 -0.382628 0.837945 -0.053074 -0.168421 -0.020983 0.031371 0.098719 -0.481514 -0.424284 0.361246 0.594344 -1.057848 -0.062730 0.038345 -0.035655 0.213909 -0.542562 -0.901671 -1.640834 -1.079054 -0.432700 0.672370 -0.494924 1.060128 -0.042444 1.212520 -0.493351 0.711186 1.609685 0.749491 0.238350 -0.553620 -0.207974 -0.423692 -0.209275 0.318224 0.353415 -0.860857 -0.313129 -0.307408 0.434253 0.312917 -0.593182 0.476936 0.481885 -1.445809 0.537833 0.204867 -0.699623 -0.463253 -0.141864 1.227048 0.765482 0.623746 0.299656 0.985672 -0.431572 0.955508 0.218500 -0.239856 1.228698 0.074030 -0.223911 0.090364 0.555860 0.504425 -0.730468 0.241345 -0.485557 -0.900334 0.715589 -0.260780 0.149902 0.026122 0.116289 0.120051 0.322882 0.006455 -0.111892 0.080400 -0.114569 -0.277935 -0.305960 0.579749 -0.131919 0.040924 -0.198730 0.194141 0.176550 -1.403867 -0.632616 1.623200 0.161157 0.098067 -1.198914 -0.755668 -1.196101 -0.002267
AB443949.1.1486 -0.411992 -1.001656 0.080074 0.207406 0.091097 -0.750698 -0.183136 -1.926641 -1.398656 -0.416786 -0.999417 0.120578 0.288137 -0.843904 1.144061 -0.596811 -0.169104 -1.727972 0.286816 0.218767 0.008384 -0.580374 -0.752404 -0.120666 -0.714677 0.474950 0.189587 0.524532 0.620445 0.426061 -0.174880 -1.015965 -0.606507 0.110721 0.760043 -0.286729 -0.661317 0.224642 0.272124 0.446336 -0.511126 -0.546003 -0.840419 -0.970392 -0.408970 0.105721 0.615889 -0.463039 -0.820173 0.316717 0.592105 0.190646 -0.281296 0.048591 -0.864122 0.368029 0.560638 -0.601240 -1.200382 0.495276 0.140166 -0.974765 1.659633 0.604309 -0.121715 -1.199546 0.711719 -0.458612 0.054005 0.538048 0.144419 -0.319066 0.509473 0.277543 1.191632 -0.740147 -0.136952 0.274496 0.531175 -0.688492 0.316767 -1.259840 0.589227 0.166891 -1.510610 0.327352 -0.174068 0.510071 -0.388200 -0.269887 0.299023 1.057346 1.140779 0.307696 -0.992519 0.537896 0.546905 0.323522 0.160755 -0.732431
AB480534.1.1481 -1.576877 -0.494907 -0.588274 0.260861 0.628718 0.748761 0.358205 0.693751 -1.014424 -0.028544 0.336708 -0.026528 0.473947 0.158842 0.673008 -0.379171 -1.187753 0.232983 -0.724504 0.505254 -2.330874 -0.199296 0.982337 -0.947943 -0.699205 0.349039 -0.626915 -0.685243 0.020509 -1.677735 -0.338307 0.497299 -0.492854 0.026729 -0.002656 -0.886163 0.138377 0.931840 -0.344800 0.000915 -0.382180 1.141077 -0.924536 -0.125547 -0.778105 -0.672228 -0.220835 0.119643 1.330350 -0.193101 -0.721716 -0.220516 0.266669 0.661399 -0.870791 0.777083 -0.805658 0.202374 -1.070074 -0.052301 1.557502 0.222937 0.141997 -1.179729 -0.060889 -0.273718 0.289507 -0.561063 -0.405482 -0.015903 1.006694 1.982696 0.722312 1.565364 0.880987 -0.918214 0.134148 0.697296 1.068837 -0.581782 -0.170699 -0.233222 -0.632136 -0.006605 0.759190 -0.425062 0.435565 -0.018822 0.500643 -0.517062 -0.120742 -0.680576 -0.471857 0.138161 -0.968043 0.612770 -0.949989 0.479748 1.053084 -0.808566
AB490809.1.1497 0.652100 0.463351 -0.033466 -0.390212 -0.267271 -0.662089 -0.428541 -0.347060 -0.907824 0.216337 -0.361140 0.300444 -0.790181 -0.219254 0.461030 -1.027339 0.726576 0.561691 -0.057031 0.108799 0.084957 -0.394478 0.225629 -0.291765 -0.772989 -0.011540 0.396034 -0.187261 0.011363 0.228664 0.267021 0.979866 -0.476111 -0.680822 -1.020088 0.950355 0.148515 0.580962 0.821580 -0.141947 -0.488383 0.360076 0.207136 -0.171095 -0.266212 0.294430 0.969516 -0.140003 -0.565145 0.752501 -1.022030 0.010557 0.493890 0.498445 0.275784 -0.716319 -0.525338 0.163414 -0.184997 -0.866484 -0.379531 0.080783 0.180599 -0.632381 -0.109573 -0.263677 0.345171 -0.486438 0.097714 -0.290426 0.050149 1.118254 -0.267971 0.112360 -0.042264 0.568518 0.134808 -0.286521 -0.176065 -0.336010 -0.334620 -0.384764 0.604642 0.001294 -0.403366 0.953637 -0.010923 0.490664 -0.193471 -0.784703 -0.175051 0.049543 -0.313266 0.257448 -0.687510 0.191032 0.051191 0.465771 -0.774792 0.024821
AB491210.1.1485 -0.565079 -0.508817 0.143886 0.485792 -0.327284 0.219145 0.658359 0.102328 0.985442 0.698769 0.157128 0.289769 0.280768 -0.568042 -0.537929 0.831476 0.691190 -0.127384 -0.067708 -0.484991 -1.653752 -0.665615 0.088380 0.515039 0.779663 0.880033 -0.177406 -0.004308 -0.447757 1.011312 0.069304 -0.005040 -0.465041 -0.557159 0.841296 0.384651 -0.389871 -0.122078 0.373352 -0.570985 -0.420356 0.565043 0.724822 -0.097126 0.814888 -1.145850 -0.423060 -0.398876 -0.295437 -0.007147 -0.153866 -0.023498 -0.333039 -0.017506 0.357574 0.647683 -0.673338 0.862425 -0.202804 -0.051885 0.579047 0.943581 -0.269993 -0.699539 -1.603047 0.235484 -0.859682 0.870830 0.316445 -0.482128 0.308774 0.199565 -0.066850 1.423595 0.503205 0.299766 -0.921413 0.235200 1.247992 -0.617450 -0.120273 0.585014 -0.428867 1.346875 -0.625744 0.239089 0.374439 -0.692538 -1.256902 0.094152 0.111034 -0.168008 0.713213 -0.350598 -0.862525 -0.007771 -0.098482 -0.949011 0.776095 0.045785
AB506166.1.1495 0.123711 0.061974 -0.352428 0.558462 -0.968365 0.256936 -0.053007 -0.470839 0.444795 -0.069261 -0.518153 0.275283 -0.662371 0.359879 0.602257 0.293433 0.399866 0.532922 -1.345978 -0.321875 -0.025609 1.425175 -0.381728 -0.015640 0.316083 -0.356394 0.518604 -0.371102 -0.871555 -0.408081 -1.114788 0.056622 -0.593553 -0.092387 0.421826 0.600133 0.889166 0.437565 -0.223775 -0.114175 0.212078 -0.604887 0.666685 0.673830 -0.004325 -0.002002 0.140844 -0.210308 1.028657 -0.683889 -1.725010 -0.916907 0.471703 -0.712722 0.517954 -0.198300 -0.451041 0.842075 -0.524314 0.497903 -0.168489 -0.307860 0.500884 -0.070222 -0.715032 -0.945260 0.448459 -0.348737 -0.164772 -0.057232 -0.015884 0.270713 -0.070001 0.428232 -0.180835 1.494680 0.754873 -0.496255 0.400949 0.172022 0.392580 -0.581810 -0.011928 0.091416 0.290798 0.326464 -1.109040 -1.238199 0.423580 -0.783059 -0.851966 0.519095 0.093054 -1.124090 -0.332514 0.825185 0.410092 0.448904 -0.616275 0.244602
AB506188.1.1515 0.098910 -0.274768 0.287579 -0.096986 1.223970 -0.225694 -0.107101 0.786227 0.180801 -0.797467 0.247911 0.008512 1.160061 1.313976 -0.102508 0.056988 -0.609348 -1.200243 1.258827 1.710819 -0.594609 0.040607 1.065198 1.171543 -1.356576 0.607197 0.009951 0.731017 0.283755 0.495178 -0.507795 0.725655 0.319596 0.302596 0.604244 -0.278503 0.094412 -0.470697 -2.021739 0.398527 -0.486039 0.100838 -0.698667 -0.098464 0.172147 0.991675 -0.833398 0.213731 0.804508 -0.781029 -0.397312 -0.350671 -1.511831 -0.998406 1.295744 0.694480 -0.153816 0.795734 0.630595 0.010711 1.600433 0.029450 -1.114817 1.007489 -0.986299 -0.034637 0.656131 -1.264197 -0.219733 1.236888 -0.003630 0.185035 -1.028830 0.247398 0.177183 -0.977588 -0.714907 0.572436 -0.178655 0.841848 0.309552 1.025148 -0.491050 0.141848 -1.598078 0.003601 1.908880 -0.332946 1.111207 -0.246891 0.021247 -1.669808 -1.179623 -0.237204 -0.183355 -0.361449 0.168918 0.147912 0.764895 -0.752933
AB506192.1.1523 0.415605 1.949372 -0.073264 -0.073157 0.610108 0.187788 0.058553 0.110620 0.311006 0.889864 0.727584 0.322492 -0.453031 -0.158673 1.255622 0.467431 0.178518 0.357476 -0.567549 0.929129 -1.446573 0.128348 -0.629200 1.688949 -1.688036 0.786487 -0.042857 0.289925 -0.636446 2.157680 -0.097922 -0.525296 -0.578751 -0.287433 -0.048249 1.336453 -0.202181 0.422046 -0.795858 0.658988 0.076013 0.682168 0.509990 1.608914 -0.562240 0.598771 0.302840 -1.147607 1.198687 -0.997347 0.497570 -1.018663 0.594295 -0.583470 1.185753 0.585721 0.190849 -0.817003 0.473870 -0.617200 0.608354 -0.510295 1.560656 -1.447907 -0.120296 0.373220 -0.146936 -1.326014 -0.519026 0.781443 -0.696809 1.464758 0.688695 0.613598 -0.262240 -0.079434 -0.132405 0.817904 -0.602197 0.324586 0.079560 -0.359359 -0.186506 -1.341228 -1.183661 1.624757 -0.500249 -0.504549 -0.062764 -0.544285 -0.378587 -0.977872 0.332486 0.291065 -1.344659 -0.698932 -0.103978 1.290102 -0.040873 0.709380
AB506227.1.1518 -0.414274 -0.004448 1.281633 0.456475 -0.881747 1.050045 0.083073 -0.328584 0.430607 -1.392825 -0.592461 -0.330162 -0.188491 -0.548436 0.885611 -0.049069 -1.139190 -0.246860 0.050153 -0.408732 -1.814303 -0.472983 -1.172790 -0.463753 -1.144179 0.588184 0.198993 -0.474768 -0.331277 0.747229 0.534383 0.062271 0.075338 -0.625104 0.419076 2.223935 -0.710350 0.632762 -0.313633 1.504687 -0.920024 -0.628535 -0.412502 0.797015 -0.302788 -0.183723 1.629576 -0.696904 -0.611044 -0.251905 -0.649541 -0.220153 0.522022 -0.002586 0.354731 0.437603 1.424488 0.547916 -1.450489 0.100493 0.865678 -0.712141 0.356867 0.668899 -0.608281 0.669263 0.447730 -0.869109 0.682721 0.634652 -0.170139 0.147363 -0.189081 -0.181425 0.943527 -0.149161 -0.055140 0.269551 0.398561 -0.495474 0.099504 -0.398104 0.967826 0.583122 0.820144 0.121313 -1.318259 0.914629 1.136450 -0.664741 -0.134809 -1.325223 0.244881 0.559262 1.507479 -0.397360 -0.221847 -0.303137 -0.323994 -0.318585
AB506372.1.1510 -1.066691 0.005348 0.795170 0.575987 0.207157 -0.961059 -0.067106 -0.079857 -0.754377 -0.586855 0.104906 -0.174984 0.343166 0.255009 0.990273 -0.348367 -0.025034 -0.226389 -1.263799 -0.522701 -0.825422 -1.370318 0.681170 0.238541 0.815954 0.890245 -0.300586 -0.124726 -0.298084 1.414494 -0.626718 -0.173760 0.380409 -0.460513 -0.767043 0.827787 1.355093 -0.396047 0.359712 0.895167 0.334561 -0.438470 -0.736414 1.090697 -0.749477 -0.638941 1.032005 0.432493 2.275368 0.212111 -0.026993 -0.228758 -0.449761 -0.728306 -0.586418 0.922057 -0.722190 -0.371372 -0.071123 0.092608 0.750227 0.753135 -1.239576 -0.693025 0.996616 0.553903 0.284826 -0.518193 0.528050 -0.589853 0.032483 0.202740 0.981702 0.458882 0.173167 0.002159 -0.021267 -0.992274 -0.254340 -0.661212 -0.369578 -0.375131 0.558489 -0.562783 0.904420 0.445074 0.172387 -1.526815 0.154057 -0.447124 0.132215 0.086909 0.043640 -0.318098 -0.105315 -1.598381 -0.297581 0.210770 -1.138738 0.592563
AB506381.1.1523 -1.038224 0.638862 0.382371 0.729887 0.791134 -1.636351 -0.154971 -0.760325 0.343270 -1.168266 -0.440505 -1.290897 0.523485 0.213119 -0.659117 -0.694671 -0.438816 -2.132621 0.125642 0.853962 -0.931462 -0.242458 -0.297561 0.199951 -0.405265 -0.462189 -0.115894 -2.182570 0.085522 0.182019 -0.264055 0.550437 -1.696634 0.384382 0.887975 -1.150391 -0.700304 1.051022 -0.851255 -0.272853 -0.243481 0.924313 0.484934 0.472055 -1.329244 -1.281300 -0.576019 0.849817 0.947647 -0.460556 -0.489956 0.166744 0.759929 0.088830 0.675793 -0.280495 -0.893103 -0.191757 -0.633851 1.033340 -0.606705 1.341857 -0.293419 -1.300309 -0.325699 -0.431402 1.204046 -0.582037 -1.093278 0.694971 -0.581791 -0.439921 -0.380722 0.075190 0.790992 -2.149519 -0.413257 -0.128211 -0.471235 -0.945651 1.337285 0.071045 -0.382616 0.667300 0.030052 1.022127 0.732073 -0.647909 0.547672 -1.169275 -0.283384 0.935524 -2.607637 -0.596491 -0.243736 -1.429341 -0.352634 -0.571866 1.263929 -0.685435
AB506413.1.1616 0.566323 1.514370 0.227131 -0.173444 0.262584 -0.789493 -0.415662 0.712626 1.012804 0.058160 -0.085454 0.333842 0.431835 -1.651910 -0.243353 0.216256 0.537150 -0.373162 0.030296 0.835435 -0.422707 -1.851473 -1.271327 1.554270 0.129236 1.193133 0.302991 1.115064 -0.224507 1.006332 -1.629644 -0.109958 0.890580 1.653492 1.528259 0.675546 -0.284460 0.093910 -0.724714 -0.413074 -0.275036 -0.571732 -0.173722 1.251468 0.212565 -1.199474 0.461437 0.482828 -0.955512 0.704079 -0.070185 0.415305 0.437996 -0.690983 -0.950091 2.446575 -0.111451 0.702045 0.148785 -0.128094 -0.375068 -1.783023 -0.401874 0.971984 -0.244938 1.007401 0.087729 -0.377071 0.895701 -0.339577 -1.107928 -1.121924 0.232200 2.168537 0.559584 0.649170 0.768604 -1.076475 -0.045710 -0.193870 -0.341496 -0.628896 -1.024269 0.159257 -1.095756 0.543900 -1.226446 -1.486461 0.568251 -0.397236 1.209777 0.319774 0.383077 1.417675 -0.087395 -1.478241 0.485258 1.046485 -0.670556 -0.932369
AB525415.1.1503 0.016822 -0.063161 0.161365 0.870052 -0.182889 -0.236895 0.413602 -1.463972 -1.478959 0.361383 -0.248881 -0.026889 0.210584 0.564596 -0.328282 -0.227194 -0.109580 -0.899528 -0.932574 -0.549505 -0.170900 -0.886647 -0.997500 -0.907236 -0.130933 1.260284 1.255289 0.441244 -0.997187 -0.492296 -1.190321 0.386336 -1.156267 0.056356 0.820161 0.107406 -0.272160 1.791448 0.287723 -0.361232 -0.814968 0.356967 0.717802 0.772857 1.596379 0.376871 -0.126039 1.268209 -0.271320 0.952724 -1.253148 -0.379845 -0.834841 -0.249804 -1.211750 0.370642 -1.714179 0.465966 -1.075383 1.480412 0.189216 0.366626 -0.499850 -0.464636 -1.976051 -1.338719 -0.418176 -0.051143 -0.277743 -0.128958 0.737407 -0.027015 0.322665 0.056107 -0.363591 -0.315453 0.740553 -0.744384 2.058199 -0.464534 -1.663468 -0.380773 0.121627 -0.737974 -0.105265 0.907667 0.458315 -0.837018 -1.087747 -0.887151 -1.057751 0.026478 0.434052 0.445041 0.265457 0.816137 -1.654547 -0.843344 0.507897 -0.681447
AB538433.1.1488 0.401856 1.191132 -1.127216 -0.375908 -0.181724 -0.521094 -0.720511 -0.393000 -0.624915 -0.796365 -0.482089 -0.350410 1.342128 -0.304432 -1.909111 1.316343 0.340231 0.604442 -2.452179 -0.975583 -0.189963 -0.798245 -0.263044 1.401192 -0.296671 0.375899 0.127090 -0.657732 -0.171834 -0.444917 -0.264112 -1.184636 -0.650122 0.406389 1.498307 0.934621 -0.579442 0.372738 -1.554025 1.008869 0.009814 -0.442018 -1.274103 -2.197811 0.131854 0.941819 2.269318 0.725152 0.722384 0.752726 0.099851 0.597888 0.555578 0.022201 -0.146859 0.072972 2.258832 -1.192236 -1.930522 -0.371468 -0.253129 -2.108362 -1.842262 0.742993 -0.114981 -1.027977 1.519810 0.476278 -0.529375 -0.723080 -0.370750 -0.823427 1.091762 0.540029 -0.850373 -0.070679 -1.796753 0.266303 -1.507614 -0.069290 -0.965883 -0.229794 -0.656720 0.853809 -0.265901 1.121824 -1.183879 -0.306086 0.079047 -0.935323 0.953234 -0.600369 1.624781 0.202691 -1.951078 -0.890551 -0.253267 -0.026085 -0.226980 1.044706
AB547676.1.1493 0.212692 -0.843567 0.103528 1.261300 0.461745 0.149791 -0.419871 -0.949675 -0.696038 -0.951220 -0.466930 -1.337169 -0.066644 0.468791 0.946084 -0.975162 -0.815298 -0.131448 -0.219549 -1.725341 0.062588 -1.045557 -0.076906 -0.438605 -0.286555 -0.029771 -0.579738 0.054765 -0.630263 1.388452 0.086436 -0.386128 -0.018072 -0.321181 0.777792 -0.147235 -0.791166 0.804032 -0.047087 -0.726398 -0.617361 1.070832 -0.459036 -0.129118 0.075157 -0.810301 0.466147 2.265435 0.341714 -0.155965 0.105531 0.382487 -0.002525 -0.550247 -0.572556 -0.687320 -0.209306 0.387144 -1.703309 -0.513082 0.558594 -0.152057 0.078959 -0.255422 -0.345963 -1.038450 0.616180 1.073852 -0.135123 0.909533 0.136882 0.901856 -0.884152 -1.023585 -0.264784 0.892131 1.006639 -0.139999 -0.038478 0.621191 -0.357102 0.401603 -0.355652 0.519797 0.029513 -0.185030 1.218146 -0.774448 0.459985 -0.528738 -0.486527 0.251461 1.434623 0.416994 0.115007 0.030436 -0.735977 -0.166222 0.232750 -0.339594
AB547696.1.1280 -0.502660 0.911883 -0.359555 0.709340 -0.398437 -1.150806 0.720382 -1.216964 0.591473 0.245066 -0.532477 0.816325 1.159175 -0.629994 0.123769 0.031927 0.222208 -0.852698 0.576867 -0.082924 -1.854379 0.335747 -1.037057 1.096243 -0.277293 -0.810604 -0.421234 -1.090887 -0.263550 -0.049202 0.564212 -0.089999 -0.920826 -0.392080 -0.246107 0.678749 -0.159166 -0.186428 0.475207 0.104478 -0.703803 -0.197512 0.149291 0.668887 -0.457459 0.591862 -0.119482 0.494613 0.368034 0.341441 -0.490306 0.163318 -0.236511 -0.275733 -0.120117 0.809697 -0.974321 -0.606684 0.133463 -0.970569 -0.530631 0.947311 -0.295246 0.189166 1.282272 -0.518733 0.185918 -1.207812 0.819628 0.452693 0.100973 0.291836 -0.330699 0.720771 0.874956 0.593948 -0.064414 -0.085170 0.047979 -0.439654 0.531797 -0.788239 0.107768 0.450588 -0.125766 -0.780795 -0.373677 -0.424925 -0.362915 0.064389 0.946613 -0.211372 0.049796 0.244582 0.161939 0.789906 -0.147298 0.644852 -0.183944 -0.020758
AB558171.1.1473 0.204339 0.125154 -0.011148 0.307310 0.503681 -0.676526 -0.714192 -0.718481 1.097824 0.018803 -0.334753 0.529022 0.144649 -0.629295 0.245767 -0.238998 -0.595662 -0.085012 0.526069 0.033245 -1.609541 0.807309 0.331269 -0.361673 0.115142 -0.744167 -0.752992 0.685707 -0.917287 -0.671651 -0.840286 -0.662453 0.512138 -1.116611 -0.062138 0.321794 0.191096 1.244328 -0.448502 0.694851 0.021655 -0.427624 -0.328380 0.566892 0.606656 -0.491745 -0.210157 -0.500784 0.208978 0.072759 -0.179144 0.622545 -0.286081 0.003021 -0.954908 -0.143223 -0.045162 -1.363744 0.609947 -0.476735 -0.247755 -0.570255 0.128581 -0.294063 0.811358 0.862492 0.059370 -0.351520 0.256817 0.608592 0.191312 -0.430519 0.843306 0.382256 -0.139094 0.755417 -0.173348 0.098664 0.080087 0.153303 0.276726 -0.917693 0.814095 -0.700246 0.934604 -0.063972 0.263372 -0.540767 0.395608 0.296395 0.694640 -0.615936 0.677387 -0.636473 0.835713 0.469075 -0.574009 -0.321220 0.192953 0.764205
AB558487.1.1504 -0.027498 0.426887 0.172557 0.180955 -0.157490 -0.070423 -0.080709 0.234013 0.146894 -0.318146 0.510413 0.369865 0.858735 -0.134968 -0.613506 -0.601495 0.105959 -0.323075 -0.494002 -0.061279 0.510011 0.178491 0.274436 -0.029453 -0.285275 0.279138 -0.626398 -0.559516 -0.247100 -0.948694 -0.375813 0.065295 -0.696991 0.539932 0.070827 -0.647153 -0.156890 -0.713159 -0.213522 -0.264034 0.364731 -0.382873 0.749063 0.465272 0.206305 0.570637 0.087027 0.106151 0.555052 0.240354 -0.506933 -0.822666 -0.302135 0.644532 1.034578 0.102103 -0.383775 -0.077931 0.421518 -0.411069 -0.145058 0.022259 -0.164383 -0.466507 -0.502413 -0.279061 0.127923 -0.008033 -0.408741 0.482980 -0.485948 -0.612727 -0.304361 0.285370 -0.073407 0.171083 -0.120865 -0.165439 1.041556 -0.340084 0.138391 -0.536620 -0.337769 -0.146761 0.409331 0.216223 -0.197692 0.186514 -0.678173 -0.364230 0.709769 0.904373 0.482686 -0.556552 0.636959 -0.394932 0.148990 0.161288 0.285843 -0.371531
AB559618.1.1515 0.623603 -0.676981 0.177049 -0.138027 0.076589 0.000609 -0.177011 -0.516266 0.049687 0.090888 -0.936004 -0.154648 -0.746431 -0.434395 0.296006 -0.298245 0.015676 -0.390904 -0.203451 0.240020 -0.992896 0.274353 -0.358059 -0.636146 0.426597 1.170337 0.963902 0.598799 0.425224 0.811768 0.118940 -0.196367 -0.278376 -0.173667 1.342895 0.987596 -0.871455 1.185810 0.673425 -0.035439 -0.475189 -0.583021 -0.774622 0.656384 0.614207 -0.037893 -0.440683 -0.536859 -0.670402 0.174165 0.504396 -0.524155 -0.122830 -0.565191 0.813500 0.135013 0.849609 -0.246594 -0.662903 0.255066 -0.090366 0.041890 0.712062 -0.431210 -0.146500 -0.327488 0.363152 -0.372312 1.205499 -0.774060 0.972620 -0.468758 -0.049613 0.393834 0.079973 0.149647 -0.215218 0.522977 -0.728623 1.130165 0.482087 0.389887 -0.297278 1.204362 0.021489 0.022995 0.860066 -0.617791 0.624955 -0.530624 0.779103 0.005344 0.085463 -0.114318 -0.575442 -0.434119 -0.432021 0.213570 -0.857358 0.158736
AB595138.1.1492 -0.851112 -0.432388 -0.810782 0.065389 0.598786 -0.271029 0.418435 -0.263534 0.718077 0.033404 0.545629 -0.496935 0.337290 -0.016713 0.005309 -0.128438 -0.002622 -0.714611 -1.005013 0.335025 -1.233679 0.055061 0.029497 0.013875 0.166207 -0.683749 0.295269 0.230822 -0.659618 -0.982339 -0.161997 -0.077206 0.099601 -1.007495 -0.989459 0.285584 -0.232185 0.084048 0.210880 -0.219638 -0.051092 0.252664 0.258349 0.116584 -0.090902 0.861897 0.609954 0.631204 0.674963 0.014985 0.534598 -0.360614 0.063010 0.217901 -0.526735 -0.696808 -0.605309 0.037622 -1.269974 0.576876 0.243149 -0.788862 -0.048950 -0.011027 -0.178386 -0.533632 0.610944 -0.225378 0.454129 1.027155 -0.102738 0.948515 0.103603 0.871974 0.047028 -0.186796 0.492704 0.027071 0.214563 -0.293694 0.099999 0.094820 -0.881233 0.284194 -0.140994 -0.323289 0.340365 -0.940819 -0.150184 -0.452509 0.108851 -0.489966 0.403194 0.763938 -1.242348 -0.112876 0.062177 0.580289 0.768028 0.350532
AB606256.1.1495 -0.184093 -0.370069 0.195141 -0.533224 -0.516783 0.353675 0.467884 -0.832725 -1.370475 -0.052670 -0.604614 0.453718 -0.892778 -0.360540 -0.315196 0.849869 0.134352 -0.999076 -0.682426 -0.014980 -0.248895 -1.421459 -1.144268 -0.979411 0.530100 0.148376 -0.223881 -0.535267 1.206219 -0.673617 -0.418289 0.412737 0.127741 -0.207703 0.070234 0.137345 -0.299799 0.483046 -0.028202 0.715166 -1.130045 -0.458230 -0.435696 0.441296 0.167664 -0.712556 0.268740 -1.585522 -0.710176 -0.057691 -0.386151 -0.158928 0.741740 -0.253374 0.930731 -0.500612 -0.507044 -1.343659 -0.438906 0.732138 0.862508 0.400225 0.513308 1.092325 0.350645 0.966711 -0.222138 -0.648273 -0.030700 -0.319136 -0.160890 0.336622 0.069410 1.063801 0.440483 -0.185466 0.098364 0.781226 -0.818414 -0.568827 0.180759 0.070071 -0.057654 0.536814 -0.443482 0.601275 0.389178 1.191960 1.179571 -0.906843 0.819530 -0.673845 0.409334 -0.442885 -1.228054 -1.018841 0.762445 -1.005159 0.398538 0.406364
AB606284.1.1481 -0.540615 0.593427 -0.350901 -0.188704 0.999798 -1.677732 -1.839440 -1.146242 -0.580225 -0.007353 0.196739 -0.141095 1.509064 0.039166 -0.689800 -0.149674 -0.228327 0.496657 -0.669601 -1.017641 -0.995234 -1.326897 -0.303362 0.209832 0.231712 -1.041261 -0.059211 -0.205762 1.155435 0.995134 -0.515358 0.311797 -0.931657 0.635670 1.528052 1.183151 -0.174049 0.475534 1.253435 -0.467135 0.684174 0.561449 1.265284 -0.659544 0.343984 0.173109 -0.592568 0.588091 0.196236 0.495445 -1.747493 -0.286865 -0.451561 -0.177254 0.761384 -1.233813 0.352660 0.378255 1.432550 -0.101443 -0.151400 -0.088382 -0.617694 -0.634178 0.090307 0.510559 -0.294547 0.316788 -0.221289 1.121016 -0.231150 -0.632396 -0.328307 0.909087 0.401566 -0.177896 -0.365705 -0.891562 0.478115 -1.347768 0.789477 1.672889 -0.074568 0.876095 0.775200 -0.319920 1.558867 -0.959416 0.692758 1.194503 -1.578590 -0.568921 0.725033 -0.253444 -0.692476 -0.019208 -0.445290 0.626832 -0.692571 1.023066
AB606308.1.1509 0.230385 -0.438198 -0.263736 -0.180636 -0.213489 -0.769372 -1.432432 0.203969 0.229096 -0.347646 0.329199 -0.837915 0.686544 -0.356377 -0.368818 0.515765 0.239641 -0.563786 -0.943968 -0.048301 -0.950746 -1.843561 0.623456 0.587978 0.959427 -0.662871 -0.247999 -0.200836 -0.843066 1.437994 0.624212 0.571332 -0.812872 -0.000313 0.194965 1.241238 -0.957813 0.044738 -0.227725 0.706047 -1.717515 1.466560 -0.794519 -0.043026 1.343496 0.171469 0.235186 -0.767441 0.839096 0.871326 -1.049842 -1.215946 0.594708 -0.562176 -0.587100 0.107096 0.075161 -0.007357 0.252021 -0.966208 1.291070 -0.739340 0.059601 -1.528989 -0.305194 -0.589497 -0.095871 0.489246 0.489442 -0.288690 0.828533 0.202052 0.073890 -0.038246 -0.687956 -0.397910 0.835541 0.438525 0.036943 -0.388378 0.508292 -0.916972 0.708282 -0.737838 -0.255055 0.313933 0.089975 -0.485397 -0.119068 0.022313 -0.488347 0.269570 -0.245694 -1.206590 -0.823220 -0.265578 -0.793948 -0.313075 -0.588579 -0.489814
AB606352.1.1486 0.925571 -1.263597 -0.718830 -0.365787 1.140197 -1.548637 -0.174518 0.263488 -0.596241 1.101067 -0.119890 0.235942 -0.263437 0.450379 -1.534039 -0.178762 0.825386 -1.001665 0.485289 -0.448915 0.497645 -2.013720 0.441214 -0.745950 -0.551839 0.106361 0.044299 -0.221508 -0.055818 1.572165 0.172891 -0.342123 0.379004 0.714665 -1.367721 -0.775265 0.033722 1.189937 -0.731765 0.607798 -0.663815 0.012198 0.300722 1.409444 0.222382 0.146470 -1.833996 -0.974733 1.661803 -0.861773 -0.850121 1.392147 0.482851 1.495222 -0.906441 0.594848 1.031395 0.287700 -1.553094 1.264457 1.006860 -0.466253 0.383805 -1.649388 -1.365059 1.387857 1.376985 -1.105256 1.450570 0.857197 1.044552 -0.137505 0.564652 2.093959 -0.336695 0.131355 -0.572473 0.568998 0.167801 -0.297022 -0.817838 -0.338510 -0.094002 -0.762215 -0.191354 -0.476416 -0.946963 -0.850330 0.741717 -1.390172 0.276751 -0.383962 -0.016504 -0.222455 -2.371033 -1.529408 0.685887 0.095191 0.490762 -1.173677
AB606378.1.1511 -0.108482 0.084740 -0.372897 0.161268 0.639076 0.493935 -0.328094 -0.628129 0.537590 -0.174944 -1.292600 -0.172774 0.218709 -0.595313 1.592015 1.118161 1.044506 -0.897133 -1.370454 -0.336632 -1.482708 0.969127 0.481630 -0.202765 -0.978019 0.096496 0.369569 -0.340388 -0.069529 0.149204 -1.261443 0.884401 0.652799 0.685317 -0.345673 1.148087 -1.119282 0.853621 -1.016570 0.254188 -0.637207 1.615696 -1.714132 1.814423 0.177622 -0.291302 0.659874 -0.556854 -0.590251 0.414401 -0.998766 -0.951357 -0.748810 -0.753424 -0.579882 1.648647 1.338913 0.481181 -0.297569 0.259494 0.073225 -2.069632 -0.105797 -2.159345 -1.211521 -0.473468 -0.100207 -0.027888 -0.280243 -0.743315 0.555068 -0.813483 -0.044577 0.787954 0.023752 0.365216 0.585422 0.092528 -0.829066 0.592039 -0.140383 0.173633 -0.598911 -1.135762 0.077200 -0.870482 -0.777376 -0.083144 0.953114 -1.338273 0.514457 -0.741846 0.241484 0.459033 0.449499 -0.803883 -1.564477 -0.039486 -0.200672 0.262921
AB606383.1.1494 -1.089155 0.102157 0.407795 -0.173946 0.002095 -2.172759 -0.722770 1.054392 0.179261 0.378012 -1.064843 -0.336312 0.825170 -0.533427 0.159779 0.799602 -0.512113 0.431904 0.794229 0.355765 -0.105390 -0.275118 -0.368078 1.044218 -0.107205 0.028990 0.847893 -0.628899 0.048427 -0.561982 0.093280 0.289387 -0.134882 0.663323 1.269835 1.111804 -0.442494 -0.925357 0.290080 -0.118919 -1.401355 0.333373 0.505979 0.628388 1.038925 -0.833067 -0.537906 0.566931 -0.030111 -0.033545 0.543510 -0.129715 -0.209060 1.142688 -0.749375 0.497736 -0.496194 0.293281 0.286164 0.483235 -0.686050 1.142637 1.516509 -0.211845 -0.465908 -0.155066 -0.970916 0.515279 -0.390295 0.923975 0.839624 2.449119 0.263080 -0.034082 0.619200 -0.506380 -1.315355 0.770252 0.574423 -0.050518 0.334550 0.307502 0.575912 2.036446 -0.634582 1.656098 -0.159166 -0.495356 -0.178077 0.915239 0.592118 1.570759 1.785432 -1.488553 -0.863578 -0.095846 -0.222900 0.074613 0.283241 -0.859784
AB626897.1.1485 1.130802 0.598777 0.257466 -0.468312 -0.298458 -0.753107 1.576590 0.857233 -0.536301 1.201627 -1.540462 -1.693630 0.959157 0.293249 -0.205603 1.047860 0.245222 0.118294 -0.338748 -0.966232 -2.083323 -1.021492 -0.094901 0.139059 -1.347156 1.555144 -0.540188 0.677894 0.693800 -0.861238 -0.403233 1.054759 0.355161 -1.180491 -0.620748 -0.632946 -0.890875 0.212816 0.289918 0.099494 -0.221239 -1.363594 -1.207401 -0.739220 0.399998 -0.447229 1.955743 1.465125 0.409986 0.064120 -2.369592 -1.444393 0.394569 -1.126168 0.549482 1.485894 0.993480 0.293383 -0.666585 -1.541684 0.537973 -0.985980 -0.481905 -0.355606 -0.291907 1.171319 1.308094 0.230422 -0.212290 0.199169 1.536312 0.248939 0.971047 0.394559 -0.097973 0.133007 -0.805611 0.172578 0.841291 0.067017 -0.228949 -0.064635 0.350464 1.202810 -0.741498 0.152650 0.950917 0.610215 0.018030 0.382890 2.178927 -1.349215 -0.097033 -0.926142 -0.812570 0.595888 -0.442676 -0.706445 -0.411018 0.697206
AB626907.1.1496 -1.408694 -0.190190 1.096369 0.229588 -0.146777 -1.049429 0.810956 2.281899 0.331826 -1.418899 0.147681 -0.421992 0.121801 1.496093 -0.389500 0.677440 0.289403 -0.991425 -0.696090 -0.768007 0.432046 -0.634861 0.720047 2.124889 -0.234921 0.719064 0.773793 0.000394 0.267571 0.158489 -0.499821 0.768651 1.537901 -1.333678 1.114487 1.899203 -0.753857 0.740764 -0.855373 -0.614798 -1.149093 0.450180 -0.017310 0.025354 0.342163 0.067451 -0.588220 -1.216459 -0.152731 -1.412357 -0.064307 2.002259 0.247412 -0.291318 0.413199 -0.021150 -0.720365 1.789762 -0.993674 0.293123 -0.388625 0.527725 -1.430757 -0.955898 0.281483 -0.379746 0.466262 0.910336 0.007326 -1.177509 0.609691 0.334723 1.622496 -0.695471 1.428569 -0.551672 -0.253864 0.332177 0.762409 1.799058 0.875879 0.060515 0.044305 -0.812341 1.093907 -0.228098 -0.897085 -0.907882 0.240609 0.759290 -1.458244 0.086707 -0.092995 0.516613 0.206818 -0.952139 -0.832092 0.890922 0.669902 -1.165809
AB626919.1.1479 -0.173328 -0.395002 -0.502846 -0.680550 -0.500823 0.514024 -1.075577 -1.543397 -0.672301 -0.179579 -0.591836 -0.098607 0.149753 0.296909 0.091498 0.953545 0.060902 2.028839 0.420420 -0.627572 -0.314680 0.174307 -1.151676 0.189912 -0.977442 -0.174555 -1.861069 -0.865066 -1.001513 0.352906 1.455681 -0.417523 -1.510573 1.163982 -0.328458 -0.193019 -0.806285 -1.303099 -0.488797 -0.500323 -0.914071 -1.068937 -1.353097 -1.034165 0.278451 0.178254 1.082010 -0.409732 -1.099280 0.711386 -0.410106 -0.171770 1.132979 0.054118 -0.613008 0.811620 -1.655389 -0.974624 -0.558507 -0.040269 -1.194666 -0.553984 -0.869800 -1.261057 -0.516773 -0.510432 0.673899 0.127306 -0.712400 -0.453292 -1.045197 -0.873615 0.695918 -0.905713 0.926967 0.258859 -0.851275 1.433695 0.008598 0.143511 -0.188191 0.599126 -0.236721 1.017939 0.333098 -0.833368 -1.000271 0.286157 0.855367 0.152083 -0.578114 -0.986085 -0.934324 -0.432657 -0.418595 -1.437468 -0.976274 -0.187900 -0.455251 -1.806178
AB639144.1.1469 -1.108543 -0.152343 -0.182767 1.338927 0.698498 0.565681 -0.352271 -1.588341 -1.241350 0.121499 -0.423667 -0.311356 -1.225169 0.341590 -1.007249 0.116545 -0.267928 -0.660987 1.495237 0.475048 -0.704680 -0.756289 1.084892 -0.638988 -0.140871 -0.682217 -0.951866 -1.773117 0.549546 0.200752 0.778570 1.471053 -0.444699 -1.545739 1.224680 1.415492 -0.165556 0.195770 -0.735365 1.067935 -1.519404 0.653505 -0.149781 0.027378 -0.304901 0.097170 -1.467051 0.179680 -1.090980 -0.793621 -1.170744 -0.521799 0.447038 1.094186 -0.025565 0.966654 1.175726 0.634930 -0.645698 0.889799 0.700554 -0.102261 -0.291289 -2.654063 0.178941 -0.090324 -0.304556 0.923863 0.536337 0.944651 -0.730259 -0.875934 0.258379 -0.403796 1.518688 -0.396371 -1.002544 0.312355 0.676767 -0.426794 0.954473 0.030287 0.635611 0.550753 1.105815 0.019345 1.038426 -0.309101 2.011975 -1.514364 1.175198 0.428236 -0.736645 0.842853 0.497681 -0.666357 -0.891607 0.600228 0.073370 -0.392005
AB680625.1.1447 0.329128 0.223108 0.060739 -0.350550 -0.086302 -0.385486 -0.021178 -1.058815 1.188231 -0.816846 -0.237507 -0.736484 0.938649 -0.079956 0.074929 0.385004 -0.389993 -0.497866 -1.415112 -0.528133 -1.265385 -0.069908 -0.206909 -0.434298 -0.988609 -0.622487 -0.328571 0.076570 -0.711667 0.297337 0.714245 0.047998 0.867949 -0.196396 -0.234734 -0.569059 -0.227925 -0.366792 -0.371915 -0.058881 -0.472909 0.142189 0.316993 -0.553035 0.511058 -0.394483 0.398173 0.435534 0.624388 -0.031906 1.027940 0.116241 0.265957 0.604132 0.642233 0.292580 -0.491948 0.366236 0.179616 1.283364 0.267281 0.293985 0.005430 1.318187 0.355448 -0.717166 -0.162464 0.136679 -0.051049 0.086108 -0.571741 0.302534 0.858497 0.703711 1.434078 0.354880 -0.300030 0.174294 -0.449888 0.651078 -0.139646 -0.334884 0.057156 -0.259462 0.427312 -0.247501 -0.351369 -1.799508 0.276461 -0.820358 -0.383007 0.599425 1.161170 0.800420 -1.145637 -0.255533 0.030791 -0.738291 0.120581 -0.415692
AB680681.1.1443 -1.162047 0.194489 0.787347 -0.179739 0.706350 -0.575678 0.956431 0.125474 -1.270903 0.466476 -1.088962 0.675835 -0.670826 -0.119334 0.435698 -0.232264 -0.483763 -1.017040 0.054023 -0.093904 -0.543264 -1.063058 1.246435 -0.982437 0.484872 -0.319389 -0.245145 0.315922 -1.419742 -0.018922 0.494665 0.917982 -0.739813 0.196480 1.202597 0.528545 0.618007 -0.096293 0.715593 1.749928 -0.834694 0.026488 0.601490 1.411587 0.522747 0.175694 0.795922 0.102762 -0.235697 -0.053158 -0.966030 -0.760925 0.764918 0.446372 -0.786898 -0.331312 -0.334115 -0.777443 -0.460232 0.028725 -0.218455 1.073156 -0.790576 -1.531588 -0.127762 0.611729 -0.528117 0.119899 0.449804 0.918196 0.193588 0.269821 0.486848 0.521690 0.096742 0.135222 -0.234366 0.250600 -1.442749 0.250767 0.174095 -1.192252 0.115945 0.110088 -0.293684 -0.995071 -0.291345 -0.736034 0.002563 1.206971 0.237249 -1.031114 0.353548 0.561614 0.527444 0.634244 -0.884843 -0.433427 -0.068951 -0.467421
AB681369.1.1472 -0.971552 0.402403 0.615549 0.920162 -0.310065 -0.042565 -0.407995 0.049259 -1.603403 -0.432273 -0.333703 0.954522 -0.200429 -0.245135 0.034988 -0.675725 0.290277 -0.505401 0.509330 0.333317 -1.287700 -0.539825 -0.525327 -0.220029 -0.606754 1.034019 1.270817 -0.234004 0.077037 -0.629787 -0.779278 1.394106 0.525528 0.030342 -0.083860 0.096109 -0.271123 0.751200 -0.686942 0.800561 -0.755580 -0.122282 -0.310567 1.484683 -0.014435 0.346553 -0.363913 -0.170242 -1.049141 0.065857 -0.866555 -1.319505 0.278552 -1.564300 -0.698513 -0.186257 0.873841 -0.193520 -1.551857 -0.322279 1.009377 -0.513336 0.598516 -0.571134 -0.110745 -0.410795 0.251090 -0.749738 0.403866 -0.370887 1.005965 -0.585391 -0.038604 0.030132 -0.462261 -0.411572 -0.136743 0.085004 1.306090 -1.162424 -0.488042 -1.256624 0.478363 -0.686032 0.187712 0.700090 0.485029 -0.142923 0.595430 0.044980 -0.620317 -0.152834 -0.659632 0.284398 0.167417 0.213894 0.523408 -0.739596 0.237890 0.901502
AB702753.1.1392 0.253560 -0.194839 0.158662 1.116356 0.707334 0.780962 -0.019397 0.374497 0.558824 -0.450639 1.017339 0.362341 0.039962 0.853061 -1.735021 1.057369 0.383453 0.406876 -1.439289 -0.287957 -1.008281 0.608954 -0.263890 0.704384 0.641291 0.607031 0.128095 -0.614242 0.202143 2.331449 0.307604 1.314826 -0.989466 0.158233 -0.140227 0.723864 -0.452289 0.144839 -0.159193 -0.719858 1.655212 0.663128 -0.689502 -0.502194 -0.380075 -1.280780 -1.381331 0.177592 2.243751 -1.301365 -0.368949 -0.885771 -1.317790 0.142850 -0.030673 0.311606 -0.607615 -0.315252 -1.186514 0.944599 -0.018468 0.889789 -0.990443 -1.219418 0.552908 0.477592 -0.248977 -1.228289 0.594735 -1.192096 1.960902 0.683855 0.245986 1.393837 -0.441446 -1.112712 1.831252 0.703635 0.774278 -0.390468 -0.973181 -0.681621 -0.611001 -0.174358 -0.199119 -0.371507 0.139005 -0.804171 1.738322 -1.695241 -0.291856 1.454950 1.304559 0.527999 0.202724 -2.235706 1.633334 -1.335072 -0.248799 -1.149463
AB702802.1.1393 0.098928 -0.530157 0.220496 0.388848 0.750209 -0.022566 -0.103737 -1.328599 0.685580 0.033719 -0.057933 -0.763639 1.098065 -0.258575 0.107533 -0.584523 -0.676817 0.474895 0.289602 0.970467 -1.147245 -0.361962 -0.872546 0.286145 -0.364558 1.166378 0.206020 0.138247 -0.039298 0.577347 -0.060052 -1.646564 -0.112190 -1.911560 0.615992 0.931736 0.346612 1.264071 -0.397538 0.209105 -0.442976 0.485892 -0.068674 0.159327 0.137894 0.215706 -0.535402 1.056772 -0.134825 -0.727856 -0.693325 0.475183 0.602200 -0.087708 0.906179 0.698826 0.319320 -0.012775 0.867714 0.160061 -0.297402 -1.027403 -0.166428 0.529061 0.548971 0.070610 2.023872 -0.692797 0.137885 -0.188497 1.110948 0.163205 -0.102387 0.782604 0.246035 0.088425 0.724458 0.078656 -0.358143 0.302599 -0.371927 -0.981434 -0.369242 0.398597 0.068807 0.776587 -0.044197 -0.533116 0.268802 -1.182626 -0.609203 0.151222 1.487420 0.365807 0.367967 -1.310614 -1.264098 -0.680991 -1.132462 -0.885180
AB702839.1.1406 -0.035459 -1.329172 -0.431040 1.305667 -0.743319 -0.581641 -0.601123 -1.628194 -0.451101 0.135093 -0.696789 0.473845 1.344301 -0.118281 0.571293 1.083481 0.194089 0.771301 -0.734234 1.254984 -2.159085 -0.111133 -0.136604 0.764014 -0.124730 1.058375 0.727784 -0.604262 -0.241480 0.195809 -0.692229 -0.137281 -0.549006 -1.233684 -0.314412 1.148963 0.087862 -0.555249 0.056337 1.349809 -0.633522 0.056958 0.548836 0.339458 0.279188 0.150007 0.104069 0.144674 -0.042465 -0.481003 0.428759 -0.492292 0.587304 -0.689867 -0.301304 1.501036 0.365003 0.409502 0.158231 -0.040958 0.774399 -1.153015 -0.170388 -0.545926 0.144002 0.235761 0.891314 -0.354246 -0.465273 -0.180965 0.132874 1.162462 0.881927 0.491958 0.208708 -0.008876 0.249788 0.376309 -0.148024 0.477339 0.611345 -0.050066 -0.495406 -0.097504 -0.100477 -0.082090 0.183079 0.533272 -0.008506 -0.186127 -0.966653 -0.862110 0.286472 -0.282257 -0.842081 -0.643839 -0.734976 -0.931267 -0.870241 -0.029467
AB733112.1.1328 -0.897440 0.372720 -0.323166 0.405655 1.431978 0.279465 -0.163831 -0.042129 -0.181894 0.846767 0.837537 -0.001081 -0.022983 0.312402 0.116680 -0.305666 0.237974 -0.061955 0.480327 0.402204 0.477024 -0.594476 0.315323 -0.660084 0.132915 -0.194393 -0.490671 -0.826117 0.274626 -0.126272 0.070021 -0.226839 -0.817602 0.832034 0.395402 -0.884216 0.114636 -0.439577 -0.297244 -0.057635 0.175887 -0.406921 0.534056 0.002908 -0.510556 0.120241 -0.182630 -0.198493 -0.554082 0.654818 0.160939 0.457579 0.221701 0.210064 0.305846 -0.299086 -0.343918 0.134322 0.185652 -0.192479 0.404603 -0.179075 -0.830030 0.281040 0.432475 -0.004754 -0.822919 -0.168559 -0.154651 0.110888 -0.443816 0.801185 0.372453 0.205649 -0.239699 -0.307660 0.140776 0.352112 0.700864 0.236569 -0.572987 0.176349 -0.149373 0.090054 0.610767 0.501979 0.048797 0.100959 -0.369104 -0.041039 -0.232234 0.082689 -0.050203 0.218721 -0.533363 0.224308 -0.156370 0.303724 0.472686 0.266301
AB735688.1.1201 -0.324740 0.836346 1.059769 0.134051 0.291209 -1.240412 0.210266 -0.078346 -0.554620 0.390387 0.425960 0.707942 1.315460 0.456147 -1.380638 -0.062551 0.805560 0.964455 -0.989050 -0.693831 -0.704757 0.658308 -0.936517 -0.914996 -0.722591 1.058659 -0.637628 0.089687 -1.553679 0.018574 0.824998 -0.296594 -0.450420 0.585461 1.691473 -0.056100 -0.635774 0.643176 -1.158159 0.866140 0.694196 -0.457090 0.150298 0.505597 1.035066 0.083085 0.368442 -0.418772 -0.728270 0.095251 0.808649 -0.593014 0.357839 -0.297598 -0.053067 1.133461 0.371630 0.568584 0.252569 0.273640 -1.121515 -1.079569 0.356235 -0.205296 -0.562921 0.914815 1.292009 -0.937248 -0.024441 -0.651058 0.115004 -0.749929 1.473037 0.231636 -1.863883 0.486191 -0.317598 1.028753 -0.886048 -0.380318 1.032196 -0.445327 0.673567 -0.310145 -0.352368 0.444898 -0.199845 -1.512897 -0.010272 -0.579287 -0.627373 -0.181734 0.033582 -1.182158 -0.068477 -0.789967 0.488070 -0.003172 -1.135346 0.042930
AB739697.1.1442 -0.849130 0.286520 0.300188 0.333389 -0.517443 -0.602133 0.355741 0.164628 -0.299935 -0.081878 -1.374927 -0.884499 0.783883 0.864170 -0.186879 -0.843533 -0.937650 -0.582680 0.201062 0.166312 -0.864289 -0.716777 0.401095 -0.219360 0.696387 1.273053 0.104708 -0.698462 0.711956 0.624803 0.801066 -0.336852 -0.346187 -0.949483 -0.719774 -0.860567 -0.417098 0.115967 0.406319 -0.790519 -0.695147 -0.618894 0.597367 -0.167731 -0.865777 0.662665 0.279237 -0.464020 -0.800381 0.671524 -2.269565 0.472335 -0.318201 2.022124 1.190180 1.152241 0.491960 0.528298 -0.553851 0.508184 0.118848 -0.174983 0.042879 -0.440735 -0.270561 0.283285 0.812116 0.446356 -0.099376 -0.652771 0.869257 -0.110107 1.707963 -0.239339 0.647359 0.258520 -0.838171 -0.468510 0.074674 -1.121341 -0.208721 1.751429 -1.081706 -1.279858 -0.804726 -0.892288 -0.088374 -1.237622 -0.383833 -0.259979 0.368044 0.604569 1.922469 0.453922 0.178616 1.934359 0.135366 0.728315 -0.751945 -0.133702
AB749382.1.1389 0.684408 -1.308025 -1.422726 0.582452 -0.523630 -1.339245 0.119322 -0.635779 -1.379458 -0.501350 -1.456882 -0.463909 -0.428010 -0.929006 0.527608 0.320276 -0.907651 0.428556 -0.818462 -0.141158 -0.924535 0.688832 0.361019 -1.572072 0.426584 -0.385007 0.245398 -0.409689 1.922404 1.316953 0.023173 0.261186 0.100570 -0.764188 0.057424 1.017982 0.061251 0.177343 0.359064 -1.326454 -0.174066 -0.176278 0.455164 0.276259 1.605012 -0.160155 0.374373 -0.428713 0.988058 0.664003 0.747327 -1.223634 -0.763415 0.219305 -0.848736 0.186351 0.443192 -0.565830 0.292167 -0.485493 0.802150 -0.030912 0.494246 0.436531 -0.333241 -0.434799 -0.300584 0.208796 -0.243436 -1.551917 0.495269 -0.166746 0.168997 -0.749473 0.521011 0.803699 -0.825667 1.080793 -1.197810 -1.150283 -0.433772 0.474596 0.941274 -0.329118 0.076383 0.185367 0.289283 -1.083823 -0.020993 0.016246 -1.672859 -0.824216 -0.510807 -0.381287 -0.475941 -0.226254 0.984301 -1.116024 -0.472082 -0.012008
AB775005.1.1253 0.580949 0.191841 -2.274650 -0.239502 0.841567 -1.312018 -0.133805 1.461367 -1.095125 -0.225586 0.406254 -0.441310 -0.913776 -0.600297 -0.744019 -0.066670 0.437742 -0.820522 -1.243405 -0.012338 -1.613117 0.969171 1.147624 2.026509 -0.328228 1.646718 0.021432 0.589867 -0.749843 -0.243728 0.963181 -2.551573 0.413392 0.864015 0.337557 0.670579 0.234220 1.027192 0.134199 0.200981 -0.755721 -0.971840 1.114907 -0.129382 -0.374502 1.078784 0.449360 0.046513 0.792600 1.036037 0.497146 -0.326400 1.746370 -0.307434 -0.867857 -0.108415 1.235168 -1.300943 -1.757505 1.792995 0.243458 -0.661718 1.196267 -0.657536 0.710944 -0.125331 -0.353473 1.297174 -2.094159 1.168798 -0.864591 0.703022 0.270392 -0.271767 1.189857 -0.327566 -0.233726 1.746746 -0.274202 1.071168 0.895994 -0.771607 -0.470125 0.834640 -0.106234 -0.039050 -0.709931 0.827359 0.912946 0.074765 0.060383 1.224697 -0.576119 1.113411 -0.379741 -1.603580 -1.494323 -0.551292 1.128244 -0.009257
AB780934.1.1454 1.470470 -0.526678 -0.093171 -0.042013 -0.613846 -0.393798 -0.251459 -0.581944 1.464064 0.136746 -0.187375 -0.421067 -0.069280 0.152635 0.110772 -0.025119 -0.180068 -0.818640 -0.062601 -0.207716 -0.746937 0.315345 -0.308235 -0.010872 -0.552834 -0.159001 0.538380 0.230147 0.278571 0.209683 0.717742 -0.774291 -0.228791 1.543362 0.426715 0.593656 -0.516038 0.604505 -0.215894 0.527940 -0.607800 0.136935 0.149002 0.104130 0.160230 -0.599741 -0.255237 0.190892 -0.058122 0.457547 -0.598903 -0.096038 -0.348643 0.395356 -0.602682 0.376355 -0.565570 0.297790 -0.423172 0.886228 0.291752 -0.538723 0.216442 0.829891 0.040812 0.345421 -0.248913 0.796209 0.466400 -0.169139 0.152928 0.942843 0.771149 0.348361 -0.926670 0.023774 0.695244 -0.504171 0.343569 -0.940445 0.200934 0.186089 0.614074 0.119969 -1.074052 0.295365 0.116986 -0.138199 0.015609 -0.174250 -0.657659 0.438165 -0.781353 0.347493 0.587213 -0.330018 -0.038841 -0.048812 -0.138575 0.063993
AB934596.1.1362 -0.144313 0.003795 -1.693366 -0.662188 0.713659 -0.252936 -1.426938 0.407237 -1.867105 -0.241230 0.281197 -1.012925 0.705744 -1.173583 -0.318861 0.327009 -1.383493 0.691460 -0.627852 -0.792982 -0.368817 1.548452 -1.788394 -1.388323 -1.255277 -0.317379 -0.346010 1.061706 -0.262181 -0.937760 1.625358 0.381706 -0.106385 0.627625 -0.353169 -1.023276 -1.135101 0.973932 0.334251 -0.412909 -1.395079 0.829573 1.616480 -0.345566 0.965879 -0.237388 0.408513 -0.849368 0.161416 0.473143 -0.503706 -1.165299 -0.383380 -1.089857 -0.631610 1.285958 0.826708 1.111489 -0.159440 0.167293 1.902260 -0.727254 2.731981 1.059721 -1.467633 0.989731 1.374558 1.413091 -0.342223 0.013583 0.485017 -0.373225 0.587963 1.106280 0.187972 0.844853 -1.226682 0.792041 -0.735290 0.803495 0.847620 1.649050 -2.149405 2.695892 0.372311 -0.080412 1.161477 0.856136 1.418285 -0.808370 -0.079587 1.273805 -0.781815 -0.052442 -0.412512 -2.790397 -1.045534 0.002664 -1.317309 0.348715
AB934611.1.1394 0.297209 -1.878873 -0.114430 1.013803 -0.238027 -0.139823 -1.293947 0.995590 0.527547 0.283756 -0.247429 -0.107061 0.376842 -0.992877 1.408562 -0.894874 0.039295 -0.029009 0.266334 -0.411228 -0.266101 0.153343 0.230688 -0.286252 0.469917 1.039692 -1.683277 0.789842 -0.011946 0.599214 0.437021 0.621669 0.097659 0.595580 0.638308 0.435397 -0.992437 -0.860290 -0.164497 -0.744336 0.471836 -0.486863 -0.851068 0.009772 0.162508 0.196450 -1.048236 -1.186620 -0.211215 1.063329 -0.857892 0.148808 0.637481 0.272918 -0.598544 1.405517 0.060611 -0.181936 -0.150081 -0.101028 1.142904 -0.674198 0.033045 -0.599043 -0.274987 -0.196152 -0.651216 -0.697825 -0.602576 0.155912 -1.228484 -1.039817 0.403720 0.638820 -0.563123 -0.212581 0.954082 0.454213 0.113794 0.952815 1.705265 0.282221 0.871373 -0.343482 0.182182 0.893197 -0.046441 -0.410562 -0.597742 1.065309 0.808347 -0.437192 0.157101 -0.816394 -0.105578 0.749276 0.670210 -0.163158 0.585847 0.034315
AB934632.1.1349 -0.527721 1.202476 0.362839 -0.157947 0.215350 -0.028292 -0.273309 0.030540 -0.036392 -0.286307 0.216894 0.247135 0.175741 0.308151 -0.063205 0.282848 0.002130 -0.134081 0.283585 0.041002 1.165395 -0.061739 0.356709 -0.133215 0.015711 0.046457 0.441412 -0.503834 -0.450859 0.055116 0.529098 0.494371 -0.364627 -0.566611 0.189109 -0.101437 0.761989 -0.159381 -0.292328 -0.067814 0.259460 -0.214228 0.885107 0.069829 -0.003781 0.109880 0.503733 -0.241945 0.211325 -0.563369 -0.220736 0.981133 -0.226231 0.247559 0.386467 0.238886 -0.407610 0.122937 0.253444 0.701618 -0.148591 -0.174330 -0.458360 -0.532853 0.081487 -0.054266 -0.227636 0.277671 -0.309992 0.555352 0.469759 0.176455 -0.261358 -0.506054 0.061015 0.003442 -0.102420 -0.518446 0.342593 0.501239 -0.285018 -0.023910 0.768400 0.032995 -0.022320 -0.371766 0.038139 -0.292255 0.486073 -0.636532 0.512737 0.413355 -0.002621 0.034487 -0.214386 0.984269 1.133419 -0.382423 -0.103029 0.519079
AB934716.1.1353 0.005379 -1.208094 -0.316563 -0.123541 -0.244863 -1.578111 0.115901 -0.505108 -0.242163 -0.745945 -0.898731 0.850386 0.322231 0.383168 0.569487 -0.354238 0.811249 0.129580 -0.195159 0.795858 -0.179521 1.233791 0.374343 -0.600835 -0.702146 -0.618260 -0.802731 0.259361 -0.431361 0.208214 0.289227 -0.897454 -0.300913 0.864480 -0.169246 0.230717 -0.813739 0.604347 0.218744 -0.768986 -0.420951 0.355621 0.291182 -1.131396 -0.436545 0.286267 -0.097181 0.341032 -0.201505 -0.192866 -1.416363 -1.593581 -0.586431 -1.390431 -0.218401 -0.794575 0.263413 0.064235 0.041642 0.568486 -0.444592 0.774183 0.636563 -1.238657 0.127412 -0.239379 -0.018837 0.327448 0.722573 -0.019277 -1.333965 1.000779 0.844863 0.372788 0.957240 -0.031902 0.335847 -0.425384 -0.029854 0.067945 0.407638 0.003360 0.573054 0.230625 -0.797044 -0.183993 -0.545693 0.842103 -0.507058 -0.256982 -0.233780 0.603515 1.233653 -0.240519 -0.868035 1.074514 0.345446 0.726650 0.078332 0.456682
AB934730.1.1351 -0.643494 0.542904 0.212523 0.590581 0.401942 -0.948990 0.350578 1.019270 -0.614778 0.404288 -0.040085 0.589419 0.215250 -0.314878 -0.923259 0.175711 -0.413978 0.504034 0.323838 0.089234 -1.717929 -1.236503 -1.827165 1.084364 -1.316769 -0.027351 0.058515 -0.596787 -0.940604 0.348169 -0.353895 0.889975 -0.296163 1.268808 -0.119745 0.993871 1.363871 -0.845377 -0.999836 0.349509 -0.697774 0.515178 -0.331955 0.220809 1.486218 -0.617404 1.048123 -0.629348 -0.280603 1.333535 -0.825506 -0.512688 -0.185793 -0.361856 -0.302870 1.458836 0.193226 -0.909566 -1.962628 -1.121488 0.641976 -0.192131 -0.121771 0.304906 1.721921 1.121401 -0.347347 -0.494642 0.399949 -1.228797 -0.032687 -0.562346 -0.923339 0.437781 0.054519 0.557152 0.420729 -0.214060 -0.001286 -0.511222 0.133204 0.990401 0.288977 -0.529483 -0.484717 1.161037 -0.733516 0.207016 -0.659891 -0.388242 0.054059 -0.089440 0.593325 0.541810 0.069581 -0.203822 -1.470215 -0.626109 -0.592412 -0.739907
AB934732.1.1349 0.372098 -0.890063 0.443195 -0.640017 -0.347073 -0.305012 0.661719 0.304626 0.426241 0.314297 0.646641 -0.496146 -0.226488 0.450375 -0.716575 -0.596924 0.559337 -0.387620 -0.352920 0.730257 -0.729478 0.531471 0.736431 -0.436989 -0.853622 0.161606 -0.204166 -0.106013 -0.874496 -0.086962 -0.871625 -0.371635 -0.403751 0.958789 -0.400259 1.070249 0.665224 -0.458207 0.512223 0.018745 -0.677709 0.292141 -0.076737 0.308844 0.764969 -0.100104 -0.707843 0.378343 -0.318427 0.821424 -0.202973 -0.345657 -0.023047 0.082701 0.137541 0.419213 0.817891 0.053440 -0.030842 -0.511264 0.148024 0.321903 0.634701 -1.030043 0.293300 -0.371061 -0.291363 0.351932 0.628368 -0.260498 -0.295054 0.655881 0.500039 -0.226165 -0.871808 0.039081 -0.164174 0.024972 -0.550540 -0.642106 0.175892 -0.039703 -0.311370 -0.125576 -0.319068 1.510645 0.458976 0.541698 0.135276 -0.801916 0.089777 -0.492012 -0.179309 -0.705109 -0.582550 0.009365 0.471854 -0.055009 -0.116846 -0.284786
AB934779.1.1351 0.087732 1.287645 -1.220702 -0.916546 -0.343741 -0.030780 -0.649833 0.071285 1.090477 0.661936 0.830825 -0.904979 0.562275 0.578642 -1.621307 -0.862185 -0.881337 -0.865788 0.445272 0.156227 -0.882957 -0.906237 -1.364980 1.510703 1.106924 -1.068859 -1.670259 0.215224 0.106983 0.341370 -1.435070 1.292748 0.411351 -0.796943 -0.094193 1.199668 -0.553963 0.725611 -1.234270 -0.424430 -1.670267 1.838113 0.115663 0.131871 -0.126569 -0.584389 -0.203917 0.374824 0.600000 -0.398451 0.404029 0.436757 -0.863225 0.535859 0.028832 0.677723 1.179624 1.049746 -0.477928 -1.369748 -0.104502 -0.098456 1.441109 -0.847860 -1.388399 0.761050 0.948661 1.501674 -0.131092 -1.489501 -0.254202 0.420882 0.689015 -0.569219 -0.787586 0.194590 -1.413842 0.027405 -0.598714 -0.168449 0.416653 0.821671 0.666707 0.823924 0.402958 0.779768 0.540471 -1.668709 1.209656 -0.512186 -0.974687 -1.030827 -0.739086 0.155193 -0.770540 -0.399065 0.617400 0.524505 -0.129017 1.016598
AB934798.1.1350 -0.036640 -0.587926 -0.593609 0.317485 -0.432534 -1.051267 0.021828 -0.359523 -0.756428 -0.035436 -0.266133 0.129597 0.321407 -0.423255 0.148553 0.722733 0.479420 0.092929 -0.047340 0.631320 -1.613454 -0.836297 -0.123775 1.445462 -0.430173 -0.018708 0.681009 1.141319 -0.638457 0.059037 -0.154159 0.542506 -0.791547 -0.330194 0.910904 0.961053 0.144183 -0.498990 -0.387699 0.023458 -0.457626 -0.709404 -0.104018 1.929799 -0.306507 0.177575 0.448786 0.565822 -1.086283 0.792017 -1.220708 1.014666 1.160873 -0.474942 -0.472125 0.160026 0.863873 -0.045882 0.188754 0.728059 0.752960 -0.258596 -0.124703 -0.787616 -0.683153 0.368001 0.610028 0.041676 -1.189631 -0.128889 2.032007 0.595075 0.109907 1.843359 0.096563 -1.320098 -0.832491 0.411333 0.134348 0.060557 0.097499 -1.025422 0.492277 0.646424 -0.373138 0.810592 1.427708 -0.080908 1.199310 -0.121090 -0.415311 -0.297739 0.064179 -1.055468 -0.326930 -0.710985 -0.569858 -0.714967 -0.297396 -0.418087
AB934822.1.1349 0.079483 -0.029439 -0.281297 0.058027 -1.098989 0.212938 0.499324 0.402254 -0.613451 -0.726437 -1.094775 0.358765 0.058456 -1.497543 0.246837 -0.136386 -0.047077 -0.313879 -2.252785 -0.476454 -1.640099 0.090217 0.801680 -0.682774 0.215987 -0.378755 -0.193573 -0.374533 -0.107645 0.011621 -0.150737 -0.444115 -0.182014 -0.516815 0.649043 1.956096 -0.105729 0.493284 -1.434455 0.620233 -0.885540 0.075514 -1.149799 1.059561 0.398312 -0.154455 0.044342 1.083546 0.289877 0.491699 -0.292070 0.336503 0.604688 -0.807552 0.282327 0.335469 -0.746491 -0.510116 0.251875 0.016769 -0.227533 -0.883618 -0.084735 -0.299920 -0.272371 -0.231956 -1.253553 0.608780 -0.540147 1.129836 0.685081 -0.230659 0.309072 -0.692362 -0.291727 0.343864 1.105481 -0.292481 -0.549820 -0.445390 -0.065993 -0.183356 -0.000234 0.318559 -0.132673 0.522967 0.457231 -0.344974 -0.492341 -0.797550 0.190973 -0.989389 -0.376956 -1.257527 -0.861228 -0.537679 0.436086 -0.608328 -0.409894 0.137489
AB934839.1.1350 0.345026 -0.033668 1.145457 -0.266863 0.262788 0.167279 -0.036292 -0.476894 -0.727427 0.388129 -0.651951 -0.255014 0.252139 0.307935 -0.200943 -1.612947 0.992537 -0.420586 -0.176358 -0.362865 -0.792369 0.707776 -0.632596 0.149251 1.004702 -0.967579 0.247380 0.900713 0.223945 -0.055918 -0.720471 0.197091 -0.506010 -0.389870 0.865777 0.821188 -0.478349 1.161837 -0.244015 1.559548 -0.468252 -1.048282 0.551386 -0.540573 0.051263 -1.051947 -0.080474 1.106428 -0.491159 -0.074231 0.508300 -0.960362 -0.264367 -0.900774 -0.585529 0.344381 1.173226 1.010195 -0.469774 1.177883 -0.544240 0.769296 -0.796352 -0.426386 -0.326717 0.148209 0.353851 0.428693 -0.482414 -0.593529 -0.193055 -0.153110 0.156091 -0.526677 0.762171 -0.772048 0.101001 -0.789001 -0.246033 -0.167528 -0.527037 -0.261760 0.090794 0.108837 -0.010890 0.269470 0.599131 -0.716446 -0.254756 1.305904 -0.111042 0.428367 -0.173086 0.164893 -0.230265 -0.530200 -0.320466 0.889764 -0.091940 -0.438587
AB934852.1.1327 0.285060 0.238468 -0.126424 1.072638 0.973271 -1.293145 0.293589 -0.202732 1.328496 2.829980 0.094969 1.411813 0.470787 0.327203 -0.783680 -0.235519 -0.045482 -1.348719 -0.043232 -1.578259 -1.975390 -2.143996 2.665581 -1.138025 -0.391771 1.000072 -0.169129 -0.288745 -0.313732 0.885633 0.459693 -0.813713 1.122704 0.774691 0.578743 1.613832 0.435893 -0.582941 -1.055377 -1.182968 -1.165376 0.333829 1.245393 0.725955 -0.586462 0.338237 -0.303234 0.455669 -0.911330 -0.098668 0.639561 -0.374007 -0.332433 0.838347 0.911527 2.627997 -0.930415 -1.029669 0.344851 0.601033 0.515757 -0.287939 -0.118444 0.121479 -0.191379 0.045681 -0.703785 -0.907546 0.479356 1.168689 0.831777 0.471614 1.237721 0.242848 -0.133557 0.234963 -0.457006 -2.212739 -1.287471 0.315725 -0.099749 -0.577995 -1.741551 -0.237859 0.390754 -1.624429 0.777063 2.563816 0.900235 0.249742 -1.480866 -1.014344 0.895557 -1.032443 0.129205 -0.261950 0.461922 0.125117 -1.921399 0.448569
AB969372.1.1521 -0.605243 0.428466 -1.294358 0.383108 0.001547 0.998705 -0.404360 1.597348 0.758091 -0.196426 0.502508 -0.543467 -0.372409 0.382834 -1.008181 -0.721064 0.384027 0.163493 2.398244 -0.844608 -0.222015 -0.271593 -0.916720 -0.261869 -0.278002 0.289455 -0.604220 0.285200 0.191599 -0.232249 0.467857 0.783698 -1.348244 1.240366 1.815050 1.742082 -0.320859 -1.114076 -1.255716 -0.124601 -0.629479 -2.597040 1.520870 0.805008 0.975303 -0.845432 -1.335109 0.721164 0.438336 -1.823843 -0.632383 0.173577 1.570281 1.467518 0.443559 0.395790 -1.340094 -0.254209 0.545574 0.360414 0.172225 -0.200361 1.038614 -0.490778 -0.173611 0.194175 0.075847 0.890431 0.311049 0.099996 -0.413967 0.067345 0.322991 -0.863237 -0.400931 0.904785 -0.301411 -0.409213 0.420917 0.482352 -1.201437 1.148093 1.692949 0.323892 -0.218337 1.888093 -1.348588 -1.120018 -0.642431 -1.173504 -1.273690 -0.665927 0.980462 0.021353 -2.287025 0.742432 0.863917 -0.317134 -0.505749 -0.177174
AB969399.1.1506 -0.782495 0.273959 0.403985 0.321713 0.657076 -0.949322 -0.355626 0.325756 -0.577081 0.539557 -0.556848 0.288213 0.786297 -0.079499 0.136088 -0.146551 0.648405 0.388012 -0.792676 -0.087356 -0.588292 0.016607 0.111506 -0.693825 -0.353945 0.634972 0.843890 0.676972 -0.080096 -0.430767 0.369579 -0.164211 -0.649167 1.977876 -0.337257 -1.260170 0.482842 1.151986 -0.361717 -0.925425 -1.110231 -0.864042 0.402326 -0.438453 -1.345686 -1.119795 0.885919 0.338053 -0.447025 -0.144645 1.366278 0.115503 -0.031525 0.361710 0.506810 -0.980996 -1.077869 0.573345 -1.357252 -0.720566 0.176982 -0.963040 1.421347 -1.630483 -1.960836 1.052617 -0.539046 -1.121634 0.416285 0.042382 -0.074412 1.007802 0.388060 -0.633716 -0.118375 -2.077294 -0.525298 -0.769508 0.552207 -0.660294 1.037304 -0.565739 0.159856 0.112894 0.013475 0.008650 -0.578210 -0.205776 -0.198116 0.182007 -1.550621 -0.031753 -0.067336 -1.381478 0.114127 0.523358 0.730321 0.079563 0.974616 0.298170
AB969601.1.1522 1.456943 -0.777200 -0.314755 1.431167 0.129582 0.157595 -0.631921 0.951973 1.443483 0.023663 0.786191 1.358096 0.374581 -0.371221 0.308563 -0.331208 -1.355466 0.456731 -0.502618 0.446714 -0.587306 -0.939286 -0.672853 -1.033761 -0.171207 -0.014121 -0.227606 -0.480669 -1.375893 -0.499358 0.105237 1.448793 -1.275441 -0.744442 -0.151724 0.059112 0.761687 -0.007206 0.036297 -0.174022 0.111047 -1.422174 -1.360266 -0.729391 0.183247 -0.335456 -1.247088 0.649286 1.533593 -0.369144 0.035308 -0.143809 1.071458 -2.289863 1.466228 1.144121 -0.291757 1.108983 -0.263995 0.352728 -0.026720 -1.234838 0.102248 -1.187220 -1.076236 -0.322229 -0.453033 -0.232589 0.776086 -0.656592 0.445236 -0.755094 -0.810871 0.031777 0.381507 -0.800070 0.943127 -0.520893 0.476973 -0.081299 1.233549 1.480016 -1.943521 -0.933859 -0.623648 0.680145 -1.048890 0.336620 0.769733 1.245620 0.007283 -0.306045 -0.502301 1.325493 -0.814574 0.047597 -0.902047 0.376325 -0.385959 1.338414
ABEZ02000015.506.1996 -0.053010 0.211054 0.420018 -0.790135 1.002994 0.676009 -1.364617 -0.403757 0.094269 -0.280873 -0.265297 -0.998467 -1.720933 0.228823 1.426433 -0.165165 -0.399702 -0.595659 -0.648973 -0.729960 0.126497 -0.507083 -0.110549 -0.328034 0.709032 1.008191 -0.546589 0.213222 -0.552407 0.022584 0.399132 0.554434 -1.966804 0.016286 0.081543 0.607567 0.152773 0.163962 -0.049091 -1.581881 0.296677 -0.483286 0.180036 0.169231 0.529126 -1.200668 0.143346 -0.094383 1.031468 1.254386 -0.406778 0.228907 -0.139086 -0.336943 0.156131 0.374623 -0.133308 -0.152062 -1.029362 -1.449055 -0.420554 -0.192182 -0.926862 0.315516 -0.524594 0.681923 -0.856522 -0.233892 -0.492408 0.265601 0.056627 -0.782305 -0.811038 0.293385 -0.628536 0.722259 -1.026252 0.431446 -1.404461 -0.922940 -0.089285 0.598782 -0.372154 0.082048 -0.670153 -0.775998 -0.538987 -0.033380 0.961328 -0.043135 0.823435 -0.745012 -0.427802 -0.707773 -0.610699 1.362250 0.728170 -0.036480 1.274986 0.125549
ABIK02000013.103269.104574 -0.051860 0.170536 -0.124238 -0.399211 -0.467183 0.587768 -0.244788 -0.246554 0.334666 0.266348 0.323674 -0.302982 -0.465092 -0.862446 -0.131848 0.419859 0.342415 0.015164 0.392184 -0.280939 1.403118 -0.081084 0.494941 0.246693 0.241783 -0.082502 0.085018 -0.525925 0.049027 -0.286400 -0.022284 0.532073 -0.218620 0.952512 -0.282969 -0.721018 0.382884 -0.038951 -0.014075 0.165586 0.367791 0.472259 0.418543 -0.236792 -0.596116 -0.242345 -0.030716 0.032567 -0.341288 -0.571348 0.483297 0.459814 0.124113 -0.273396 -0.247376 -0.286402 -0.501505 -0.667965 0.244238 0.269654 0.079091 0.229786 -0.224274 0.666707 0.377076 -0.268154 -0.076149 0.575769 0.238616 0.233583 -0.459223 0.267768 -0.066558 -0.193166 0.264509 -0.121850 -0.302707 -0.035271 0.577353 -0.220137 0.314809 -0.209775 0.410238 -0.040692 -0.598761 -0.342418 -0.016895 -0.057884 0.060166 0.684873 0.157251 0.748301 -0.607198 -0.724258 -0.049817 -0.048491 -0.013351 -0.209402 0.273976 0.030756
ABIY02000114.1.1263 0.502499 -0.441007 -0.110667 0.829544 0.608661 -0.758640 0.322349 0.231345 0.402452 0.442339 -0.953157 0.275780 0.113084 -0.069861 -0.095291 -0.228295 1.045919 0.524942 -0.541855 -0.021164 -0.340139 -0.431120 -0.057574 -0.113326 0.254580 0.333829 -0.709366 0.648948 0.403059 -0.376244 0.782868 -0.770651 -0.202739 0.256166 -0.563917 -0.581090 -0.132613 0.280463 0.388269 0.173208 -0.594801 0.256560 -0.261075 -0.216834 1.327150 0.829890 -0.480982 0.309771 0.654803 0.390125 -1.501645 1.454418 0.502996 -0.325892 -0.214530 0.357910 0.311288 -0.661341 -0.079176 -0.003944 0.032031 -0.344060 0.195919 -0.214245 -0.330873 1.496032 -0.860665 1.049833 -0.018937 -0.249611 0.479047 0.399080 0.004877 0.124423 -0.379842 0.131820 -0.005033 -0.836469 0.423823 0.574061 -0.592942 0.213111 0.408299 -0.170745 0.032403 -0.218918 -0.519532 -0.141833 0.369898 1.534934 0.081693 0.883030 -0.582853 -0.425325 -1.305564 -1.266123 -0.431749 -0.362385 -0.324219 0.209679
ABQC02000019.758957.760260 -0.793105 0.100995 0.558288 0.584703 0.398199 0.391129 0.294296 0.151939 0.452851 0.178238 -0.754316 0.018789 0.340457 0.116501 -0.257239 -0.200254 0.200221 -0.847679 -0.603459 0.110069 -0.129543 -0.339699 0.150193 -0.680028 0.768425 0.776420 0.360300 0.421541 0.386334 -0.575570 0.025320 0.388434 0.253694 -1.287014 0.651585 -0.218735 0.895652 -0.775014 -0.508208 -0.249349 0.097382 0.661106 0.234137 0.861423 0.695283 0.210138 -0.665115 -0.545423 0.486912 0.574131 -0.236485 0.285311 0.116676 0.482359 -0.293284 -0.289835 0.408086 -0.525054 0.649285 -0.212376 0.673863 0.814604 1.248702 -0.749941 0.711645 0.010895 -0.398878 0.537297 -0.396657 -0.504888 -0.420055 0.584766 0.170059 0.134913 0.124056 -0.780656 -0.782448 0.512981 0.357517 -0.173041 0.754837 0.153855 0.688257 -0.166767 -0.104538 0.172069 0.819769 0.328537 0.430315 -0.173004 -0.394682 0.766052 -0.329734 -0.269978 -0.076585 -0.309696 -0.261573 -1.047939 -0.888216 -0.369284
ABWL02000011.84303.85559 -0.134563 0.249907 -0.832552 0.468138 0.238335 -0.377388 0.625571 -0.001387 1.028549 1.327404 0.455248 -0.423269 0.481487 -1.268581 1.884334 -1.152606 1.064952 -0.707492 -0.996042 0.016621 -0.449795 -1.442275 -0.704484 -0.036414 -0.035142 0.127602 -0.991973 -0.697155 0.691805 -0.045048 -0.900412 0.022682 -1.226118 1.254591 0.781555 0.866390 -0.530980 -0.691846 -0.295420 0.436158 0.204464 -0.322983 -1.159378 0.054559 -0.487181 -0.178781 0.617958 0.703902 -1.014272 1.190313 -2.018705 0.866961 -1.470090 -2.084103 -0.347184 -0.088161 -0.306010 0.350451 -0.310106 0.031346 -0.000543 0.513593 -0.012404 -0.154668 -0.333643 -0.129311 0.736786 0.776857 1.313259 -1.582685 1.036779 -0.220803 0.125452 -0.348748 -0.255158 -0.763701 0.862437 -0.649967 -0.783959 -0.234644 -0.701630 0.972001 -0.441383 -1.244090 -0.508281 -0.611889 1.598761 -0.352312 -0.623106 0.863487 1.149945 -0.794096 0.311422 -0.884860 -0.311732 0.105734 0.461527 -0.321737 0.547800 -0.705239
ABXI02000116.1.1285 -0.198893 0.218462 -0.621858 -0.167475 0.423569 -0.367764 -0.100658 -0.259765 0.042880 1.039578 0.175874 0.328251 0.001215 -0.057014 0.349031 0.903124 0.511930 1.239746 0.820614 1.152838 -0.339108 -0.240121 -0.642274 0.938324 0.385819 -0.427715 0.157380 -0.111028 0.372036 0.004794 0.373434 -0.898797 -0.484504 0.042250 -0.102662 0.502551 -0.144483 0.286843 0.136467 0.114373 -0.988513 0.122450 0.326234 0.124659 0.246549 0.336437 -0.539032 -0.721063 -0.022941 -0.571202 0.700139 -0.343665 0.034323 0.680846 0.615789 0.230113 0.200357 -0.449177 0.525295 0.327100 0.365183 0.143295 1.338170 0.352525 1.067036 0.367527 -0.597000 0.033248 0.112072 0.149331 -0.019399 0.698370 0.485084 -0.402098 -0.092205 -0.535626 0.130397 0.574814 -0.213703 0.668728 0.371869 0.225872 0.275071 -0.606187 0.031765 -0.041739 -0.374172 0.667496 0.675384 -0.582917 -0.279514 0.850806 0.399340 0.984485 0.022647 -0.385904 -0.641042 0.080539 1.055464 0.266859
AC145820.26622.28093 -0.063013 0.947269 0.372129 -0.017772 0.115038 -0.774475 0.584711 1.858890 -1.299399 0.256302 2.095768 0.901572 1.577622 -0.076812 -2.862759 0.614981 0.846324 -0.585377 -0.590906 -1.235168 -0.909035 -1.016186 0.254569 -0.204603 0.189888 0.685921 -0.239553 -0.688316 -0.001437 -0.009003 1.128997 -0.651111 1.268120 -0.555123 1.398114 1.987742 0.984161 -0.967800 -1.025961 0.340011 -1.451643 -0.355250 -0.962353 2.115579 0.075753 -0.450636 -0.106242 0.063425 -0.683429 0.034311 -0.255568 1.463959 1.076924 -0.631127 2.442587 -0.882367 -0.705619 0.457040 -1.345931 0.753739 0.343974 -0.444546 -0.692736 -0.593872 -1.081589 0.344351 0.054805 0.777185 2.424382 -0.279844 -0.713164 -0.598704 -0.482879 0.894934 0.878468 1.322357 -0.138930 0.497196 -0.316833 0.939844 -1.111300 0.208059 0.857789 -1.034356 0.492552 -0.707699 -0.988160 -1.346063 0.780912 -2.202059 -2.020419 0.604634 -1.787803 -0.061715 0.311108 -0.514321 1.320903 0.624667 0.210530 -2.520180
ACBZ01000217.267.1788 -0.384461 -0.277860 0.104901 0.351429 0.285544 0.228493 0.408885 -0.059762 0.981459 0.207961 0.400166 -0.129270 0.319834 0.340158 -0.866931 0.336071 0.268851 -0.002785 -0.117117 -0.057451 -0.065382 0.087328 -0.910812 -0.443311 -0.302124 0.253453 -0.287597 -0.212098 0.072521 0.241880 -0.311984 -0.355376 -0.149067 2.828205 -0.398363 -0.131797 0.293210 0.397434 0.364807 -0.071211 -0.780780 -0.363372 -0.150792 -0.351898 -0.873452 -0.721461 0.072754 -0.744479 -0.109955 0.351668 0.023504 0.420880 -0.102967 -0.412107 0.048968 0.021753 0.482586 -0.047004 -0.777117 -0.535098 -0.005420 0.635834 0.242097 0.051658 0.937266 0.388282 -0.137362 0.475896 0.054110 0.056494 -0.288913 -0.383824 -0.469376 -0.173958 0.538050 -0.290257 0.103688 -0.380020 -0.208086 -0.643992 -0.183781 -0.437503 0.476414 0.406126 0.382543 -0.081480 -0.415966 0.249076 -0.330036 0.048142 -0.352816 -0.442914 -1.185668 -0.132595 0.188907 -0.048589 0.185878 -0.226925 0.019546 0.616823
ACCF01000268.3369.4627 -0.227942 0.239349 -0.175255 0.050374 -0.348356 0.702619 0.166064 -0.464962 0.261069 -0.013950 -0.004627 -0.341512 -0.805760 0.088494 -0.411472 -0.640643 0.024821 -0.082825 -0.198545 -0.247362 0.461408 0.217238 0.326562 0.166894 -0.070780 0.427284 -0.060023 0.449559 -0.272392 0.447137 0.521529 0.257335 -0.405346 0.777478 -0.404453 0.765545 0.473067 0.117039 0.225013 -0.228051 -0.282463 0.256961 0.444143 0.164183 0.060126 0.140035 0.325972 0.205698 -0.204340 -0.024958 0.976691 -0.135275 -0.042237 -0.053040 0.613318 0.377550 -0.054676 -0.286109 -0.323190 -0.290625 0.145731 0.127293 0.450772 0.036342 0.223262 0.154356 -0.424983 0.754179 0.251473 -0.303629 0.260176 -0.433245 -0.426297 -0.517734 0.014594 -0.074614 0.075172 -1.155506 -0.347779 0.676880 0.788044 -0.689634 -0.375303 0.218615 0.074772 -0.193863 -0.185722 0.781792 -0.774120 -0.202827 -0.767077 0.341620 -0.460238 0.018014 0.390248 0.108995 0.104889 0.040937 -0.512637 0.026505
ACDP02000005.388.1906 0.799736 -1.419880 0.732497 1.310273 1.383782 0.484487 -0.345067 1.358215 0.563636 0.301007 0.277926 1.693326 -0.528388 0.718089 -0.569661 0.419062 0.260964 -0.677363 -0.487004 -0.983678 -1.208813 -0.336526 0.341485 0.484350 0.968524 0.615957 0.206414 -1.385667 -0.373031 1.046650 -0.820151 1.001486 -0.753912 0.260404 0.732609 1.424650 -0.438886 -0.203660 -0.021083 0.633678 -0.670253 0.475281 -0.924826 1.205763 0.904937 -0.734348 -0.734936 -0.992174 1.201980 -0.069249 0.439788 0.321573 0.217028 -0.381125 -1.445214 0.695023 -0.475905 -0.559012 -0.852926 -0.970670 0.543211 0.954807 -0.257200 -0.867111 -0.433858 -1.381467 0.081646 -0.331707 -0.581060 0.211051 1.274128 -1.935356 -0.299018 0.280921 0.051389 0.342519 -0.516842 0.589236 -0.702889 0.767625 -0.864055 -0.168327 1.114791 -0.010680 0.840585 0.306810 0.552342 -0.515986 0.216001 -0.883007 -1.277293 -0.672569 -0.040164 -0.350117 0.094138 0.746031 -0.316425 -0.097021 -1.009089 -0.490749
ACFE01000007.338.1763 -1.792709 -0.358235 -0.028268 -0.322379 0.299281 -1.801730 0.150603 0.374661 -0.003154 -0.039161 -0.578151 -0.568745 0.157654 -1.150014 1.728121 -0.807436 -1.186043 -0.536061 0.695714 -0.105764 -0.974359 -1.257058 -1.382903 0.464237 -0.006096 0.116279 0.850067 1.193374 -0.783707 0.676745 -0.213476 -0.695178 -1.370132 -0.444759 1.242262 2.559625 -0.706712 0.239562 -0.045964 0.509354 -0.967689 0.192278 -0.291162 0.667645 -0.285125 -0.077328 -0.411218 0.033692 -0.935207 0.062361 0.297277 0.228853 -1.135195 -0.099373 0.816714 0.530940 -1.426066 0.289820 -1.553915 1.652077 0.186199 -0.435619 0.568788 -0.376905 -0.911072 -1.305419 0.697923 0.285297 -0.189548 -1.626403 0.683694 -0.058186 0.505017 -0.236263 0.154474 -0.277942 -0.657986 0.643099 -0.036731 -0.185364 -1.189559 -1.106757 1.053611 0.312824 -0.582962 0.170455 0.202703 -0.352099 -0.143973 -0.801282 -0.241339 -0.550307 -0.474819 -0.744779 0.027510 -0.288182 0.535288 -0.244039 -0.081962 -0.442684
ACIP02000003.114175.115697 -0.507006 0.285871 -0.356394 -0.393971 0.248983 -0.108083 0.184589 -0.459944 -0.349211 0.293818 -0.879166 -0.749012 0.926366 -0.212966 -0.093370 -0.729548 -0.152448 0.570523 0.768957 0.160914 -1.109962 0.183423 -0.236018 0.176368 0.319573 -0.865647 0.228960 0.171663 0.351780 -0.214483 0.446846 -0.324610 -0.170697 -1.979430 -0.498613 -0.380962 -0.498317 -0.585856 -0.374413 -0.406376 0.038738 0.302865 -0.316741 -0.047019 0.197597 -1.000283 0.005235 -0.120553 -0.052678 0.125235 0.017084 0.188070 0.086046 -0.513787 -0.460965 -0.272718 0.858973 -0.141867 -0.035549 -0.453316 -0.100340 -0.536866 -0.143169 -0.491168 0.804562 -0.522708 0.456259 -0.360588 -1.025450 0.676841 0.059953 0.540246 -0.031059 -0.693088 0.268960 0.812906 0.107475 0.319139 0.710933 -0.171726 -0.369244 -0.218990 -0.184483 0.794163 0.483665 0.320187 0.436934 -0.810234 0.179098 0.028415 0.002857 -0.601530 0.457021 0.549244 -0.055504 -0.193214 -0.102153 0.427602 0.695520 0.167547
ACKT01000055.15.1310 -1.207768 0.248527 -1.151501 0.621039 0.308768 -0.394604 0.900869 -0.042475 0.813572 -0.158456 -1.138157 0.492848 0.804204 -0.066894 -0.468024 -1.090101 0.051416 -1.195630 1.023735 0.362808 -0.670909 -0.214365 -0.242379 -0.377615 -0.013782 -0.945140 -0.662276 -0.050924 0.068510 -1.487008 -0.278845 -0.795832 0.000588 -1.167207 0.297665 -0.186360 0.025824 0.732870 0.904271 0.137494 -0.894256 0.552052 0.026568 -0.321288 0.343900 0.337868 -0.613956 -0.237123 -0.046130 -0.362003 -1.122029 -0.517875 -0.550807 0.341963 -1.318565 0.512309 -0.538090 -0.120542 0.122833 -0.224993 -0.166549 0.358795 -0.284048 -0.137465 0.264235 -0.208478 0.559269 -0.199573 -0.200336 0.178907 0.323624 0.618879 0.721112 0.139062 0.070497 -0.761325 1.096041 -0.070904 -0.146274 -0.840408 0.728525 -0.157211 0.000407 0.974697 0.623272 -0.792193 -0.148365 -0.357543 0.577975 -0.801265 -1.084122 -0.827868 -0.202256 -0.412866 -0.355533 0.403576 -0.211275 -0.408656 -1.358123 0.886030
ACLA01000028.1.1216 -0.189152 -0.419554 -0.173666 -0.467777 0.581604 -0.728664 -0.609900 -0.698883 0.328979 -0.862151 0.924016 -0.101272 0.303880 -0.500031 0.974621 -0.733723 -0.543532 0.504977 0.176385 0.075524 -1.955731 0.134052 0.179295 -0.354710 -0.062804 -0.649298 -0.573926 -0.299046 -0.319551 -0.628102 -0.568866 0.558088 0.424908 0.580673 -0.147651 -0.279913 -0.085170 -0.081140 -1.408661 0.190471 -0.873694 1.272278 0.417927 0.508114 -0.743697 0.896349 0.121379 0.073435 0.390569 -0.119419 1.040036 -0.239361 -0.195943 0.065555 -0.324111 -0.005247 -0.318868 1.086074 -0.306100 -1.185651 -0.489692 -0.505860 0.500662 -0.888796 0.144866 -0.084869 -0.217966 0.338182 0.009646 -0.615046 0.393710 0.233599 -0.197475 0.705069 0.466890 0.227027 0.424841 -0.521309 -0.025189 -0.336070 0.677930 -0.170943 -0.110270 0.026862 0.433461 0.935366 0.062564 -0.621172 -1.518139 -0.367338 -0.022267 -0.654465 0.576863 -0.734311 0.879844 -0.019234 -0.404691 -0.310850 0.197499 0.733259
ACON01000003.712136.713636 0.073934 0.124312 0.691681 0.455262 -0.888933 -0.419442 0.612151 -0.207464 0.352758 0.611276 -0.177498 0.187663 0.626684 0.189297 -1.214121 1.607358 0.793986 0.572166 0.131367 -0.667535 -0.852756 -0.206084 0.391786 0.891924 0.460015 0.550856 0.812573 -0.470716 1.063071 0.959664 -0.156619 -0.135695 -0.674308 -0.845948 0.046337 0.891332 0.215349 0.122961 0.106990 1.061734 -0.053861 0.044219 0.203713 1.069680 1.144229 -0.302038 0.393900 -0.561713 -0.739681 0.177072 0.410663 -0.247346 0.010178 -1.506670 -0.509704 -0.192335 -1.039001 -0.165544 -0.087005 0.367992 0.766342 0.753641 -0.829235 0.326491 -0.017947 0.331892 0.647832 0.470957 -1.178066 1.142787 0.535812 0.239812 -0.218704 -0.123302 -0.608031 0.132139 -0.681152 0.661666 -0.595289 0.072067 0.267462 0.816044 -0.075552 0.015671 0.485204 -0.624591 0.356671 0.481030 -0.173578 -0.211242 -1.009611 -1.868083 -0.213007 -0.561058 -1.106303 -0.843464 -1.485029 0.488626 0.351443 -0.852783
ACUX02000006.1.1301 -0.254129 -0.423905 0.239426 0.108885 -0.037791 -0.400778 0.722172 0.515808 -0.301794 -0.103506 -0.206740 -0.087446 1.386426 0.359773 0.436748 -0.433707 0.289389 -0.694089 0.183704 -0.344733 -0.764070 -0.806768 -0.642449 0.058948 -0.164151 -1.235235 -0.478662 0.394701 -0.121743 0.027820 -0.264491 -0.239725 0.215220 -0.429309 -0.100953 0.295760 -0.709622 -0.064362 0.167844 0.537238 -0.194756 1.197525 -0.487896 0.564822 0.581127 -0.274144 -0.148555 0.924414 0.284416 0.506144 0.449406 -0.157561 -0.362417 -0.093407 -0.277653 -0.335787 0.083492 0.999171 0.194869 -0.178973 -0.347135 0.637862 -0.571753 0.754542 -0.065022 0.165311 0.495437 -0.890370 -0.177608 0.039893 -0.324145 -0.102129 0.360817 -0.816012 0.124215 0.211290 0.547401 -0.233107 -0.876376 0.301053 0.119139 0.492388 -0.722185 -0.433605 0.946745 0.637854 0.504897 -0.656311 0.063687 -0.054534 -0.707098 -0.317416 -0.343961 0.160719 -0.095871 -0.153601 -0.245145 -0.511956 1.111552 -0.273004
ADBC01000153.367.1631 -2.290253 -0.087576 0.004414 -0.090227 0.159533 -1.234978 -1.683476 -2.273607 -1.600817 -0.981332 0.919200 -1.004205 0.622821 -0.277291 -0.084879 0.845542 -0.756314 -0.798011 -0.247397 -0.242834 -0.500260 -0.038940 -0.688685 1.212511 -0.541756 0.126178 0.670753 -0.248140 1.503621 -0.202388 0.513363 0.798061 -0.363756 -0.191100 1.075630 0.306594 0.110892 0.325961 -0.684454 -0.491831 1.341294 -0.638841 0.131529 -0.066042 0.010794 0.266685 -0.350916 -0.091301 0.580837 -1.132581 0.019532 -0.353775 -0.062981 -0.257999 -1.896535 1.137869 -0.090054 -0.894146 0.703493 0.171903 0.307210 0.724581 0.703418 1.026238 0.865008 0.171192 -0.308073 -0.446530 -0.014275 -1.093791 -1.531308 -0.989056 1.285540 -0.085298 0.583800 0.053038 -0.403971 1.445023 0.746158 -0.712319 0.924335 0.204948 -0.229764 3.068520 1.308547 0.484984 -0.830922 -0.887749 0.785964 -0.230878 0.990155 -0.234306 -1.001991 1.564923 -2.680916 -0.695304 -0.117373 -1.444526 -0.916004 0.829428
ADFR01000011.3460.4852 0.059531 -0.257791 -0.829423 -0.157591 -1.334978 -0.266697 -0.504142 -0.282017 0.505973 -0.448262 0.283993 0.153196 0.644398 0.332901 1.431376 0.100209 0.007667 0.164347 0.072900 0.273726 -1.318197 0.273532 0.307162 0.442386 0.374287 -1.062357 -0.309615 0.232039 -0.254148 -0.398832 -0.083678 0.445879 -0.843035 -0.064035 0.549384 0.389055 -0.660147 -0.066158 -0.265957 0.083801 -0.800519 -0.373064 -0.592369 0.463958 -0.367099 -0.142672 0.649661 -0.930924 -0.149530 0.412280 -0.138949 0.640257 0.695535 -0.025947 0.863338 -0.854528 -0.464389 -0.196068 -0.523837 -0.218858 0.283816 -0.652755 -0.553642 -0.657932 -0.186752 0.649722 0.800137 -0.066586 0.819380 0.402541 0.104963 0.772906 -0.031718 0.424506 -0.387322 0.611456 -0.091571 -0.394144 -0.057495 -0.127819 0.271920 0.175580 -0.256197 -0.236283 0.593909 0.517202 0.128361 0.446710 0.245832 0.988494 -0.548259 -0.485791 0.143948 0.894735 -0.533839 -0.490235 0.231679 0.279825 0.080238 0.264346
ADLN01000129.202.1639 -0.178980 0.405651 -1.850416 0.947118 -0.415279 0.916836 1.037813 -1.425672 -0.045394 0.181333 -0.861629 -0.102812 0.408162 1.500435 -0.503265 -1.295934 -0.198675 -0.520828 -0.300975 0.372023 -0.658176 1.304861 0.399952 0.073660 -0.200069 0.601378 0.456972 -0.656177 0.191683 -0.219625 -0.357161 0.667349 -0.444641 -0.111916 0.983274 0.387313 -0.044003 -0.581278 -0.984052 1.399161 -0.421041 -0.019645 -0.593564 -0.792987 -0.585373 -0.760011 -0.303166 -0.197719 -0.146778 0.780105 -0.983206 0.384912 1.071690 -1.175650 1.187106 0.523038 0.888661 -1.029506 0.297431 0.300842 -0.063664 0.394768 -1.493489 -0.504773 -1.111404 1.541315 0.516027 -0.482999 0.236109 -0.257463 0.428082 -1.416688 0.866439 0.489666 0.876483 0.419897 0.544449 1.298680 -1.147351 1.410322 -0.603899 -0.003878 -0.990986 0.965392 0.802783 1.109887 0.496674 -1.698434 0.759130 0.332643 0.180832 -0.357840 -0.512229 0.161935 -1.487151 0.503488 0.376843 -0.679478 -0.390008 -0.450870
AEON01000002.393494.395009 -0.226013 -0.058121 -0.398796 -0.091105 -0.262331 -0.340028 0.335397 0.529097 0.373286 -0.363972 0.023036 0.298337 -0.001746 0.355662 -0.160729 0.654446 -0.340561 -0.085871 -0.003681 0.007960 -0.270643 0.753016 0.324504 -0.398761 0.208733 -0.992103 -0.224634 0.230884 -0.032185 -0.725382 0.261618 -0.281708 0.457517 -0.747424 -0.631296 -0.297139 0.446802 0.295268 0.348917 -0.427710 0.006596 -0.297021 -1.128543 -0.287157 0.247650 -0.196205 -0.094996 -0.464339 0.100212 -0.113768 -0.079876 0.025384 -0.058989 0.510128 -0.548974 -0.164801 -0.069660 -0.051432 0.861118 -0.150051 0.594526 -0.526320 -0.043373 0.492471 0.624317 -0.080267 0.534166 -0.100812 -0.581018 0.724026 0.783726 -0.369430 -0.207026 -0.002341 -0.332386 0.034538 0.084132 -0.073156 -0.540816 -0.197322 0.065760 -0.006982 -0.213250 -0.674229 0.046809 -0.417405 0.245763 -1.189372 -0.324156 -0.009395 0.436474 -0.511332 -0.082679 -0.211201 -0.415477 -0.318645 0.259977 0.743150 0.152769 0.019936
AF101240.1.1465 -0.610143 -1.449093 -0.342403 0.002552 0.303982 -0.186569 1.011730 -0.367620 1.257438 -0.986349 0.480507 0.347436 1.236402 -0.362871 0.981449 0.942272 0.979189 -0.460612 -0.033386 -0.469878 -0.770470 -0.570912 0.121885 -0.837496 0.037844 0.355865 1.206417 -0.115769 0.432955 0.009891 1.109097 0.228811 0.255338 -0.108803 0.597189 1.236353 -0.314652 0.475958 -0.064124 -0.003352 -0.763838 0.818548 0.626344 0.711878 1.204509 -0.508332 -1.127862 0.164078 -0.063495 -1.520105 0.876532 -1.175040 -0.062948 0.264211 0.430268 0.379842 -0.482442 0.051548 0.229248 0.711411 0.779398 -0.341201 -0.699443 -1.276493 -0.450311 0.013427 0.456347 -0.134272 -1.062592 -0.530293 -0.198284 0.771145 -0.250471 -0.467474 1.384347 0.874375 -0.293176 0.879985 -0.499723 0.610456 0.436609 0.040786 -0.824770 -0.785799 1.336551 -0.905839 -0.337158 -0.305575 -1.144063 -0.722977 -0.663886 0.133728 -0.091107 -0.447808 0.164948 -1.144160 -0.074702 0.067580 -0.123526 -0.443453
AF132232.1.1493 -0.070526 0.385628 -0.151403 0.347481 -0.234688 0.019507 -0.706043 -1.360856 0.729441 -0.330093 1.063066 -0.578576 0.267155 1.133513 -0.527843 1.258030 -0.201561 -0.320570 -2.906766 -0.998922 -0.505035 -0.943500 -0.275236 -0.736404 1.634405 1.314382 0.585501 -0.783694 -0.369434 0.435851 -1.114069 0.071497 -0.432013 -0.520770 -0.200052 -0.304266 -0.609296 0.405994 -0.599341 -1.529021 0.777087 -0.042779 -1.181758 0.471996 -0.547866 0.539699 0.877617 0.874767 -0.382541 0.097764 0.194285 -0.382302 0.134290 -0.615793 -0.360304 -1.337780 0.919519 -0.691601 1.018523 -0.755835 -1.352175 -0.627153 -0.257819 -1.498960 -0.718066 0.531460 -0.592911 -0.221482 -1.054818 0.587436 -1.728955 -0.887079 1.653612 -0.310767 1.470545 0.319891 0.186283 0.676795 0.762967 -2.114243 -0.514671 0.390637 0.093001 1.376662 0.129055 0.764052 -0.785712 -0.556234 0.159163 -0.178822 -0.045345 -0.094097 0.640334 0.515693 -0.668076 -1.845880 0.320248 -0.309815 -0.131095 -0.280353
AF132270.1.1279 0.266630 0.355553 -0.037257 -0.701116 -0.095491 0.356126 -0.023429 0.117150 -0.089731 0.123046 -1.073383 0.046657 0.862719 0.650623 0.111464 0.011176 0.418860 0.623183 -0.633644 0.627209 -0.341351 0.055270 -0.181882 0.314484 -0.100443 0.597412 0.140613 -0.989523 -0.647980 -0.012499 0.162470 0.292089 -0.923503 0.128711 1.221454 -0.063037 0.228168 0.038623 -0.253079 0.202865 -0.046288 0.516202 1.055891 0.737277 0.532568 0.717682 -0.970504 0.323944 -0.069436 0.278900 0.433287 -0.643382 0.157030 1.168368 0.254302 -0.453240 0.469109 0.336100 0.226469 -0.460430 0.151205 0.738849 -0.359937 -0.121459 -0.777499 0.269608 -0.300245 -0.477567 0.431164 0.185029 0.333503 -0.212498 -0.380753 0.043600 -0.126272 -0.069551 0.326997 0.218564 -0.839200 0.678626 0.215031 0.230743 -0.602036 0.185674 -0.704743 -0.191304 0.202459 0.239281 0.032983 -0.451268 -0.412293 0.377511 -0.131782 -0.079953 0.874177 0.296304 0.401892 -0.321034 -0.166997 -0.521752
AF132280.1.1277 -0.045479 -0.008388 0.002306 -0.211801 0.049890 0.233960 -0.075662 -0.169029 0.166718 -0.408805 -0.620693 -0.428033 -0.516921 0.457045 0.632239 0.172418 -0.050956 0.450762 -0.309843 -0.122417 0.849492 -0.513149 0.268102 0.024868 0.108811 0.238440 -0.501674 0.303897 -0.496863 0.204849 0.125810 0.182670 0.172580 0.136249 0.540416 0.703327 0.442522 0.898036 -0.045305 0.028005 0.777264 0.299581 0.510816 -0.107506 0.902470 0.385057 -0.155772 -0.086561 -0.060953 0.258415 0.016599 -0.001744 0.356533 0.586419 -0.176359 -0.083049 0.182276 0.187322 -0.156502 -0.094230 -0.380343 0.360423 0.270598 -0.538738 -0.861838 0.411836 0.033533 -0.658860 -0.302146 -0.089626 0.116687 0.329771 -0.124397 0.701072 0.201024 0.681707 -0.138956 -0.512329 0.133347 -0.412206 -0.142884 0.120429 0.782838 -0.477303 -0.580949 0.467837 0.018843 0.462707 1.069518 -0.030074 0.871767 -0.487603 -0.420809 0.129638 0.631782 0.271178 -0.053976 -0.230359 0.108424 -0.021157
