AAQK01001555.694.2198 1.002182 -0.463229 0.764117 -1.649104 -0.380225 1.515519 0.092791 -0.565810 -0.207544 -0.583443 0.933314 -0.446466 -1.481834 -0.349711 -0.506981 -0.977099 -0.936167 1.670740 -0.088450 0.152640 -0.398167 0.469021 0.784074 -0.300745 -1.294656 -0.359563 0.062469 0.321808 0.462373 1.830007 1.212357 0.180276 -0.382874 1.396303 -0.749803 0.454198 0.000341 -0.749490 -0.714618 0.599954 -0.189993 0.911076 1.185129 0.382266 1.676368 0.003208 0.802259 -1.349807 -0.380186 1.204464 0.374101 -0.310567 -0.978411 -0.398127 -1.084394 0.731441 -1.589775 -1.599544 0.672688 -0.428776 -0.946326 -0.368208 0.404578 -1.103208 -0.112995 -0.954047 0.524261 -0.528158 -0.117549 0.465691 -0.085507 0.766062 -1.387501 -1.359516 0.284477 -1.328492 0.289054 -1.261965 0.106688 0.598012 -0.982511 0.027871 -0.888053 1.743766 -0.073189 0.268478 0.525311 -0.560773 0.054671 -0.087296 -0.326507 1.039516 0.514200 0.031865 0.117002 -0.412957 0.903424 -1.089969 1.069243 -1.228461
AAXA02000007.1.1294 0.655138 0.593094 1.126015 0.220495 -0.529327 0.001566 0.253889 -0.471375 0.649817 0.089677 -0.909373 0.511924 -0.298383 0.348728 -1.667118 -1.027601 0.238026 0.518666 -0.033958 0.292995 -1.351488 0.578727 -0.267151 -0.928071 0.535766 -1.638888 0.890166 -0.360998 0.237564 -0.353291 -0.704866 0.669366 -1.295139 0.192583 -0.480364 1.500347 -0.712567 0.058762 -0.672666 0.209087 0.945036 -1.058291 1.398434 0.078432 -0.946388 0.138395 0.395718 0.223309 -0.521187 0.620540 -0.220945 -0.637078 0.484359 -0.471973 0.555178 0.614667 1.110089 -0.244825 0.293835 1.233395 -0.126281 -0.918101 -1.636577 0.437160 -0.686780 0.764321 0.429610 1.016284 0.782805 0.139394 1.130740 1.089719 -0.939853 1.381344 0.509319 -0.148368 0.369058 -0.387966 0.299759 -1.093411 -0.884455 -0.279797 1.150342 -0.115707 -0.288785 0.466624 0.262584 0.138113 0.741545 0.417134 0.141428 -0.397655 -0.892094 0.715462 0.218119 -1.252308 0.054131 -1.417935 0.972199 -0.169371
AB002518.1.1416 0.266575 -0.823051 1.139147 0.259388 -0.742538 0.120902 0.150667 -0.167297 -0.689224 1.920143 -0.370051 -0.549219 0.605267 0.494391 -0.676737 0.892620 -1.149173 0.586021 1.411512 -0.968797 -1.672980 -0.353927 -0.839691 -0.904723 -1.492272 -1.254632 -1.351241 -0.274925 0.208371 -0.620989 0.395083 0.933778 2.152984 -0.561612 0.420510 0.778421 1.863520 -1.227100 -1.580902 1.053241 0.968366 -0.824951 -0.396066 0.676685 1.494508 1.426046 0.961310 -1.677895 1.201448 -0.978430 -1.294068 0.444447 -0.612551 0.226902 -1.647665 0.500957 -1.293950 0.726590 -0.371439 -2.575585 -1.039428 -0.903231 -0.454971 -0.561702 -0.165074 0.578223 -0.282757 1.054467 0.532328 0.934575 0.327541 1.189926 -0.087491 1.635329 -1.356634 -0.206787 -1.238220 -2.890857 0.338259 -0.640763 -0.261720 1.222967 -0.647106 0.628264 0.516818 -1.155722 -0.017623 1.524001 -0.846601 0.752046 -0.652843 0.408650 -0.543313 0.406287 -0.412931 1.865713 1.144717 -0.630412 0.280304 1.058442
AB012207.1.1299 -0.940839 1.018086 0.573136 1.070209 -1.017479 0.572763 -0.136421 -1.740672 0.174009 1.608449 0.018046 -0.882433 0.723706 0.959088 -1.205551 -1.249434 -0.189582 -0.674829 1.755097 -1.077752 -0.218827 0.183768 0.261185 0.381919 -1.311104 -0.260468 0.677273 0.068669 -0.371692 0.297735 0.497051 -1.116900 -0.981488 0.186348 0.962980 1.053220 0.110080 -0.836748 -1.408989 0.942366 -0.201561 0.352454 1.396615 -1.134070 -0.311314 -0.098103 -1.013804 -0.437370 -0.437171 0.868598 -0.360663 -1.564308 -0.882989 -0.508725 -0.843213 0.039297 -0.474399 1.216603 -0.728775 -0.932529 0.038603 0.027916 -0.665943 -0.427309 0.539067 1.679779 0.208056 1.004633 -0.129903 -0.002304 -0.339772 0.418241 -0.953528 -0.204373 -0.300928 -0.766400 -1.710707 0.628690 -0.464350 0.257104 -0.841151 -1.397815 0.660334 1.148077 -0.101503 0.036292 -0.143612 -0.682836 0.367226 0.205764 0.334882 0.615866 1.301604 0.329855 0.113586 -1.643333 1.118860 -0.611614 0.434534 0.265577
AB218325.1.1438 0.504170 0.099618 -0.282776 0.453989 -0.006079 0.872312 0.088589 -0.504150 0.917501 -0.586138 -0.677335 -1.036156 -1.063374 0.344179 -0.414959 0.314746 0.830981 -0.383972 -0.051623 1.853872 -0.177389 1.108190 -0.194001 -0.254047 1.021245 -1.670918 -0.175188 0.238370 -0.323619 0.099527 1.166891 0.651690 0.679376 -1.004519 -0.164861 0.212100 -0.772548 0.920480 -0.059137 0.233701 0.272226 0.232083 -0.557132 -0.365153 1.264125 -0.345505 1.330599 -1.888833 -0.428416 -0.464418 1.479559 -0.385417 0.192756 -0.664095 0.805204 -0.767245 -1.628498 -0.206023 0.944098 0.021770 -0.561213 -0.444127 0.694115 0.447372 0.739545 -0.517342 -0.170642 0.359434 0.779755 0.851890 0.279727 -1.094968 -0.634148 1.132957 1.208087 -1.791542 -0.438833 -1.514398 0.980652 0.313109 -0.503618 -0.469079 0.419795 0.951893 0.551537 0.892783 -0.020615 -1.085555 -1.542461 0.724543 -1.268817 1.009940 -0.936789 0.232496 0.000394 -0.724552 -0.110591 -0.348872 0.916040 0.100185
AB266102.1.1428 -0.258311 -0.445508 -0.301391 -0.168343 -0.785027 0.723173 0.251555 -0.242529 -0.219485 -0.487601 0.188651 -0.542435 -0.354979 -1.066941 -0.103767 0.694365 -0.076940 0.141560 0.679889 0.442336 -0.478802 -1.032890 -0.077025 0.121788 -0.421054 -2.190737 -0.455877 -0.484299 0.503201 0.349114 1.149099 -0.183837 -0.142825 0.833703 -0.402415 0.048654 -0.983252 -0.582084 0.282493 -0.132559 -0.273665 -0.030132 -1.330140 0.836707 1.068431 0.100204 0.589807 -0.423051 -0.564831 0.283827 0.204600 -0.038222 -0.384504 -1.371105 -0.469037 -0.434344 -0.762737 0.078044 0.073534 -0.027193 -1.176376 -0.623871 -0.237791 0.339932 -0.276331 0.714833 0.177277 -0.328729 0.199773 0.215986 -0.045759 0.797444 -0.263679 0.852439 -0.021669 -0.835727 -0.070595 -0.188412 -0.264683 0.617731 -1.731788 -0.591048 -0.435937 -0.962378 -0.569383 0.331017 -0.179292 -1.473371 0.113829 0.590685 0.131775 0.243930 1.397839 0.016884 0.281852 -0.784350 0.868149 -0.534253 0.180497 0.948821
AB272364.1.1268 1.154087 0.647491 -0.861780 0.534181 0.390049 -0.118627 0.605254 1.706884 0.264494 -0.126166 1.888243 -0.444751 -0.365070 0.066816 0.343179 0.574631 0.111452 -0.221196 -0.630701 -1.781294 -0.739260 -0.167237 -0.891093 0.716293 0.238101 -0.171590 -0.369304 0.796024 0.271567 0.500778 -1.049450 -0.458090 0.833927 0.760640 -0.146340 0.322393 -0.268824 -0.454403 -0.836233 0.551142 -1.337567 -0.830243 0.419390 0.259576 0.393352 0.484029 0.566328 -1.239669 -0.885886 0.329545 -0.897870 0.000773 1.289359 -1.536012 -0.276286 0.203701 0.911807 1.195549 -0.026555 0.873486 -0.133973 0.941777 -0.601632 1.156998 -0.386265 -0.419356 0.023962 0.679064 0.866009 0.443648 -2.220341 -0.018748 -0.922903 -0.631735 0.108493 -1.440749 0.078782 -0.563273 0.571219 -0.431034 0.301590 -1.660963 0.669675 -0.112690 0.396950 0.063039 1.026411 -1.471006 1.334822 0.005353 0.044372 0.180216 0.019519 0.707564 1.958987 -1.188837 1.363410 -1.390998 0.896904 -0.688615
AB272373.1.1283 0.354742 -0.916088 0.385964 0.365354 -0.017187 0.178942 -0.410284 1.289105 -0.969291 1.387734 0.786520 -0.243753 -0.033951 -0.544960 -0.504607 -1.685729 0.600465 0.145576 -0.416749 -0.224977 -0.233205 0.327006 -0.163407 0.063141 -0.386982 -1.891121 0.539596 -0.766620 -0.184448 -0.761295 1.449502 0.071841 -0.531499 0.699939 -0.917870 0.694869 -0.487862 0.228321 0.848720 0.030153 0.500970 -0.002292 0.568496 -1.495371 0.451017 0.873266 0.072358 -0.989063 -0.946422 0.371468 -0.167282 -0.014740 0.099737 -1.225674 -1.592018 -0.276382 0.540330 -0.950660 -1.015060 -0.949783 -1.434218 -1.338627 -1.193871 0.150309 -0.545992 1.026970 1.073128 -0.431182 0.161229 0.379916 -0.464898 0.099641 0.559777 1.701002 -0.250844 -2.326192 -0.481755 -0.039255 -1.052676 -0.399815 -0.137163 -0.783107 -0.038834 -1.613294 -0.594204 0.162224 -0.253096 0.461911 -0.545110 0.216694 0.079736 1.568301 1.455441 -0.001373 0.449601 -0.578600 1.138078 -1.076722 -0.290995 0.071880
AB294138.1.1215 0.552726 -0.017278 0.620723 -0.888073 -0.018417 -0.306284 -0.001949 -0.058067 -1.028203 -0.015585 -0.889185 -0.246514 -0.328474 0.039536 -0.381789 -0.295124 0.701210 0.127261 1.092788 -0.227602 1.569547 -0.371741 0.141079 -0.693867 0.127828 -1.339421 -0.454468 -0.010412 0.738215 0.282697 0.141781 -1.137424 0.469829 -0.622657 0.526263 0.471166 -0.255900 -0.769818 -1.141893 0.218803 0.864902 0.395908 0.571259 0.206286 0.550768 -0.602150 -0.349212 0.684224 -0.063795 -0.613872 0.330283 0.399879 -0.597060 -0.092230 -0.064148 0.031533 -0.793590 0.226389 -0.291101 -0.746799 -0.507897 0.005532 -0.029570 -0.625810 -0.440278 0.308415 0.335272 0.458938 -0.189188 0.530098 0.232587 0.274915 0.538297 0.297082 -0.477703 -0.798422 0.123968 0.077915 -0.925540 0.648511 -1.516107 -0.013989 0.902982 0.042941 -0.701301 0.184760 0.149144 0.139210 0.471916 0.791313 1.109535 0.246976 1.326673 0.694244 0.145786 -0.783114 0.549877 -0.418697 0.085954 0.776688
AB300988.1.1342 -0.026427 0.536883 -0.269519 0.280561 -0.652222 -0.142042 0.315672 0.494406 0.235539 0.123040 -0.119096 0.406170 0.630310 0.088420 -0.376126 0.266979 0.083927 0.297125 -0.893978 -0.299703 -0.220078 0.011252 -0.249936 -0.166609 0.262073 0.593761 0.060636 -0.854687 0.017079 -0.278900 -0.184097 0.468146 -0.290496 0.033444 0.073213 -0.227731 0.628543 0.505422 -0.167670 0.288997 -0.052271 -0.003438 -0.425049 -0.167646 -0.109776 0.301704 -0.023903 0.503254 0.067120 -0.132528 -0.452868 0.355611 -0.227567 -0.048075 0.211943 -0.305861 0.546644 -0.613030 0.214714 0.108043 -0.465769 -0.013562 -0.319214 0.212992 -0.417297 -0.279967 0.112642 -0.146596 -0.922621 -0.116426 -0.597952 0.282703 -0.134915 0.355927 0.053981 1.143293 -0.172105 -0.302501 0.961608 0.070645 -0.484686 0.185358 0.049051 -0.253787 -0.788935 0.189761 -0.051882 0.464021 -0.224303 -0.148003 -0.528159 -1.101185 -0.256137 -0.705560 -0.222649 0.061958 -0.521778 0.774471 -0.174982 -0.399058
AB331897.1.1481 -0.715561 -0.814475 -0.018362 -0.196411 -0.860962 -0.821816 -0.044452 -0.236769 -0.016147 -0.541587 0.689976 -0.166573 0.046449 0.092428 0.608119 -1.102205 -0.886441 -0.181436 -0.104375 0.077324 1.097540 -2.433595 -0.411544 -1.690573 -0.357859 -1.180364 0.289330 1.169050 -1.040292 -0.261960 0.469903 0.159660 -1.521833 1.109868 -0.203103 0.787077 -0.538478 -0.644926 -0.743329 0.167787 0.660305 -1.106790 -0.455281 -0.535247 0.006029 0.412641 -0.583021 -0.681928 0.396482 -0.111034 0.023493 -0.124351 -2.251340 -1.511457 -1.023004 -0.945666 0.138257 -0.544900 1.107590 0.964354 -0.972199 -1.154181 -0.339573 -0.718088 -0.067830 -0.396602 -0.731809 0.269646 -0.380503 -1.323665 0.336470 1.114665 1.189172 0.280281 -0.594601 -1.001322 -0.275147 -0.255807 0.616415 -1.020978 -1.139555 -0.918972 0.312743 -0.864288 -0.771059 1.124493 -0.231262 0.288879 -1.097871 -1.034473 0.870450 -0.344831 0.453182 -0.293545 0.251825 -0.646628 -0.000022 0.701790 -0.320274 1.155056
AB443948.1.1484 0.777863 -0.094534 -0.284844 -0.066691 -0.066979 0.079160 -0.165569 -0.187886 -0.662262 0.558556 0.234004 -0.409509 -0.519688 -0.651662 -0.450519 -0.962551 0.803154 -0.709946 1.043025 0.322595 0.553587 -0.475576 -0.393553 -1.410798 0.152316 -1.651435 -0.766660 0.619974 -0.304683 -0.439664 1.119456 -1.574715 0.940725 0.441209 -1.078326 0.962813 -0.999797 -0.607126 -0.178541 0.588354 -0.486023 0.757885 0.493798 0.454800 0.202990 0.006161 -0.113761 -0.128275 -0.847793 0.548007 0.580862 0.775422 0.452440 -0.215732 -0.900069 -0.653965 -0.484835 0.250115 0.496669 0.075457 -0.939280 -0.402979 -0.330232 -0.396949 -0.441000 1.241402 -0.053301 -0.211061 0.078018 -0.182734 -0.707186 -0.212349 -0.174235 0.145820 -0.592061 -1.311525 -0.111901 -0.145590 0.467367 -0.691466 -0.540274 -1.235200 1.214816 -0.916296 -0.500364 0.942029 0.513388 -0.185815 -0.211920 1.055255 -0.781452 0.506727 1.285373 1.027207 0.198414 0.770950 1.357148 -0.264577 1.121309 0.247413
AB443949.1.1486 -0.167774 -0.528392 0.032721 0.056394 0.881531 -1.496520 -0.318630 -0.697158 0.202052 0.439614 -0.366396 -1.192060 0.314485 -0.369368 0.080192 -0.340560 0.561796 -0.523712 0.777551 -0.235480 1.296565 -0.802659 -1.215452 0.670438 -0.228178 -0.305310 0.639377 -0.801804 -0.284441 0.867934 0.685440 -0.751137 -0.531463 -0.346423 -1.385606 -0.025417 -1.022987 -1.183438 0.434902 0.280115 -0.813057 -0.797314 0.314923 -0.868787 -0.502411 1.080871 -1.933728 -0.220254 -0.104342 0.480084 -0.080807 -0.996915 0.202386 1.175880 0.134674 -2.048876 -1.584623 0.653234 -0.399137 0.067266 0.673732 0.699827 0.601179 -0.187051 -1.060532 0.612511 0.268092 0.342376 0.267459 -0.165818 0.873531 0.003545 -0.521533 -1.423678 0.342204 -0.867653 0.226730 -0.240736 -1.067280 -0.813924 -0.815395 -1.002290 0.875837 -0.139636 -0.713261 1.240196 0.602013 0.747114 -0.226152 -0.438781 1.934976 0.961610 1.943810 -0.042129 0.461484 -1.472081 0.953712 -1.065349 0.234295 -0.870540
AB490801.1.1479 0.859364 -0.115894 -0.237399 -0.358459 0.370810 1.014698 -1.196231 0.151145 -0.096143 -0.349941 0.113491 0.672411 -0.042949 0.021863 -0.010536 -1.345138 -0.315493 -0.529479 0.737727 0.307290 -0.464664 -0.543079 -0.218521 -1.489238 -0.791052 -0.445409 -0.029698 0.963412 0.210451 -1.345935 -0.241911 -0.120666 0.412866 1.010711 -1.590975 -0.024024 0.191484 1.081574 -0.163360 -0.993000 0.218026 -0.061444 0.379160 0.113066 -1.050661 0.967568 -0.719369 -0.169674 -1.152461 -0.555358 -0.483154 -0.456192 0.229224 -0.644970 0.320392 0.217632 0.215722 0.411863 -0.066537 -0.387461 -0.433919 0.437446 0.183874 -0.250726 -0.178460 0.669762 1.235245 -0.063364 0.295844 -1.028889 0.121606 0.934492 -0.033950 0.119785 -1.945426 0.000242 -0.487190 -0.817141 0.862607 -0.497281 -0.608470 -0.322173 -0.236752 -0.246188 0.034193 1.067781 -0.607532 0.369321 -0.085214 -0.643366 -0.414788 0.848148 -0.387376 0.573247 -0.305102 0.536304 0.270820 -0.213464 0.887187 0.885240
AB490809.1.1497 0.624614 0.135689 -0.295882 0.100308 0.770968 0.444042 0.673450 0.584968 0.606639 -0.497195 1.082649 -0.787557 -1.008796 0.086287 -0.964012 0.235539 -0.345954 -0.915408 -0.651137 -0.238023 -1.040987 0.602790 -0.092131 -0.171824 -0.501242 -0.277165 -0.048423 0.584762 -0.523730 0.962961 0.914494 0.160107 1.163043 0.547825 -0.281845 0.693375 -0.879926 -0.569182 -0.229282 -0.083955 0.168104 -0.789981 0.205622 -0.750533 0.798720 -0.073527 0.535432 0.616048 -1.046880 0.431586 0.383291 -0.023254 0.323390 0.285860 -1.067518 -0.074079 0.140979 0.585935 1.270447 -0.630051 -0.917866 0.687244 0.693153 0.791874 -0.797563 0.091688 0.039704 -1.087460 -0.326958 -0.012169 0.315907 0.044467 0.658277 0.169606 -0.210220 0.079704 0.005859 -1.205906 0.118202 0.005153 -0.581704 -0.720581 -0.843816 0.056410 -0.902149 -0.674632 0.235300 -0.050658 0.428938 -0.239646 -0.055768 1.564536 -0.476228 -0.585188 0.944673 0.565503 -0.039690 -0.326804 -0.326645 0.958672
AB490810.1.1469 0.312070 -0.617946 1.233660 -0.847853 -0.496022 -0.026067 -0.203009 -1.320856 -0.129067 1.083786 0.310244 0.742669 -0.164381 0.590281 -1.428907 0.225562 -0.355186 -0.020169 -0.221867 -0.403669 0.575491 0.834684 -0.612771 -0.199933 0.458455 -0.752978 0.587971 -1.086063 -0.050629 -1.278703 0.832650 -0.669867 -0.165244 1.077071 0.918625 0.334868 0.352184 0.795532 0.165352 1.048980 0.274533 -0.079381 -0.910662 0.017913 0.431712 0.398939 -0.248538 1.985846 -0.351586 1.814854 -1.204323 1.358285 1.146535 -1.598455 -0.602237 -0.552067 -0.179779 -0.347292 -0.165097 0.699275 -0.869406 0.523530 -1.039124 0.126623 -0.779279 0.300218 -0.344997 -0.737773 -0.495354 -0.095945 -0.435688 0.691253 -0.335889 -1.070691 0.926808 -1.304432 0.045103 0.180005 1.108745 -0.665475 -1.730720 -0.441422 1.306317 -0.087090 -0.147834 0.049004 0.313699 -0.444888 -0.808779 -0.320408 0.150918 1.750439 -0.819923 -0.497681 0.411088 -1.105705 -0.498404 -0.278820 0.330044 0.869377
AB491210.1.1485 -0.834678 0.277393 -0.203005 -0.505632 0.658966 -0.252915 0.025684 1.034786 -1.241758 0.407432 0.150237 0.638629 0.585373 -0.093649 0.266666 -0.507375 0.166781 -0.508731 -0.107129 0.123347 0.156488 -0.508998 -0.002096 0.769944 -1.020249 -0.512550 -0.721708 -0.237445 0.772380 0.156265 0.835795 -0.530513 -0.654945 0.157794 0.642194 -0.410320 -0.346564 0.476503 0.700440 -0.074754 0.011635 -0.684348 0.239955 -0.304574 0.434338 -0.203155 -0.199478 -0.060629 0.129581 -0.702506 -0.224464 0.488440 -0.324612 0.423893 0.443433 -0.330713 -0.203599 -0.303626 -0.091753 -0.216298 -0.500294 -0.337703 0.122500 0.072276 -0.798123 -0.041903 -0.140009 -0.584190 -0.578709 0.277826 -0.466169 -0.074902 0.764132 -0.320234 0.020978 0.192925 -0.426859 -0.179157 -0.787624 0.529712 -0.492006 0.375422 0.087141 -0.052513 -0.110086 -0.363807 0.619226 0.254497 1.060159 -1.127883 -0.506031 0.110913 0.011361 0.966260 0.292069 -0.222734 0.264630 -0.254851 0.407810 -0.836671
AB506166.1.1495 -0.108622 -0.800431 -0.040633 0.213220 -1.143910 -0.829115 -0.511999 -0.456681 0.531987 0.719047 -0.499092 -1.428190 -0.440013 1.228171 -0.702278 -0.021378 0.301766 -1.199914 1.305980 0.598990 -0.420824 0.348915 0.833064 -0.379920 -1.036459 -0.835920 0.282762 0.652393 0.908047 -0.056960 0.671922 -0.002246 -0.771611 -0.571823 0.322722 0.110008 0.313198 0.056698 -0.883603 0.300511 -0.041262 0.784800 -0.905334 0.555600 0.203574 -0.225067 -0.117486 -0.545064 -0.101917 0.523059 -0.700452 -0.429220 0.082034 -1.151138 0.064444 -1.329791 -0.968900 1.112602 0.537195 0.158503 -0.302287 0.055933 0.738937 0.939137 0.774964 -0.178720 1.178270 0.284069 0.006562 -1.614585 0.658346 1.311644 0.056739 0.944711 -0.566027 -1.433239 0.444891 -0.256900 0.110749 -0.593273 -0.298809 0.063879 0.631770 -1.066906 -0.678852 0.558090 -0.383964 0.516782 -1.080086 -0.496873 0.803669 0.959442 0.208532 -0.073761 0.856484 -0.362520 0.202352 -1.481779 -0.259980 -0.166161
AB506192.1.1523 0.706123 -0.450867 -1.076231 -0.898754 0.379009 -1.409709 0.135403 -1.261010 -2.502981 1.076622 -1.375353 -0.222693 -0.726245 0.507239 -1.827448 -0.811673 1.882822 -1.300661 0.458898 -0.110436 -1.220366 0.506182 -0.064046 -0.708453 0.477453 -1.192802 0.420380 0.061990 1.243249 0.257648 -1.433544 -1.649516 -0.038433 0.229933 -0.178510 1.090504 -2.344546 0.373532 -0.016239 1.771053 -1.149805 0.834107 0.376058 -1.608928 -0.116054 0.664328 -0.917591 0.749359 -0.217518 1.235238 -1.118642 0.343503 1.130245 0.912717 -1.218036 -0.708589 0.264340 0.404906 0.114058 -0.537932 -1.388155 -0.092131 0.622863 -0.249259 0.854812 -0.307975 -1.136431 0.573970 0.773526 0.634599 -0.406497 1.705770 0.488292 0.731507 -0.762441 0.116023 0.345525 0.275245 -1.282343 0.044265 -1.963218 -0.087805 1.148176 0.464107 1.022399 -1.047026 -0.822756 -0.325297 -0.680745 -0.315592 -1.865981 1.185886 1.031529 -1.147971 -0.376683 -0.180003 1.505081 -0.968932 0.722116 -0.769993
AB506227.1.1518 0.253091 -0.417469 0.239361 0.036375 0.415211 0.548640 -0.159386 0.449189 -0.442033 -0.043158 0.665436 -0.494228 0.309839 -0.290422 0.925935 -0.280686 0.194398 0.021983 1.140459 -0.092607 0.661660 -0.112746 0.371466 -0.035462 -0.127546 -0.227392 0.269288 0.085335 0.289218 -0.347472 0.198463 -0.057553 -0.337892 0.159317 -0.024794 0.320695 0.203839 -0.277757 0.417646 0.145688 -0.697261 0.051313 0.131518 -0.180291 0.511917 -0.240370 0.255878 -0.594275 0.012798 0.132790 -0.063651 -0.057061 -0.054792 0.097833 -0.865405 -0.230016 -0.642312 0.069738 0.549525 -0.087107 0.102795 0.047274 -0.902048 0.674297 0.112200 0.131929 0.031010 -0.287834 1.140689 0.220485 0.265164 -0.413118 0.108242 0.146963 0.302794 -0.729003 0.435311 0.453222 -0.699746 -0.003618 0.440593 -0.493967 0.800700 0.154726 -1.030938 -0.467517 -0.437809 0.327010 0.463553 -0.533833 0.077823 0.382682 -0.077913 -0.026470 0.360061 0.889626 -0.310481 -0.550345 -0.206865 0.249028
AB506253.1.1527 0.777874 -0.639163 -0.910040 -0.446369 -0.321211 0.583378 0.711798 -0.788426 -1.064016 1.316764 0.926115 -1.555435 -0.326136 -0.406494 0.440004 0.356698 -1.177805 0.188775 0.602878 -0.998283 0.145613 1.725413 0.387466 1.818013 -0.261210 -1.066580 -0.089151 1.009817 -0.581251 1.676518 0.994157 -0.690112 1.542244 -0.582105 -0.197457 -0.657083 -0.859195 -0.433886 -0.883909 0.310798 -0.662492 0.738768 1.749514 1.053249 0.298975 -0.826338 0.625489 -0.810822 0.676848 -0.683651 -0.050299 0.546540 1.583437 -0.358786 -1.707326 -0.499695 -0.725100 -0.489206 0.219073 -1.341517 0.398813 0.107834 -0.125811 1.460982 -0.313467 -1.256513 0.373719 0.256798 -0.336121 1.565530 1.413591 -0.318323 -1.195719 -1.725084 0.282154 -1.058266 -0.324751 -1.736135 0.143819 0.559214 -0.528644 -0.504468 -1.069022 -1.045697 -0.784330 -0.230687 0.212022 0.018287 -0.290043 0.273023 -1.782498 -0.054902 0.799880 -1.038479 -0.659670 -0.293688 -0.384784 0.570937 -0.798349 1.558325
AB506279.1.1563 0.277422 -0.537143 -0.244003 -0.371178 -1.031286 1.087851 -0.453841 -0.063607 -0.133477 1.031541 0.317726 0.607249 -0.242699 0.074036 0.946449 -0.161421 0.325829 0.701370 0.998434 -1.423654 0.055609 -0.401262 -0.820263 -0.290568 1.312294 -0.200221 0.559938 -0.326689 0.684047 -0.213932 0.300195 0.310981 -0.485114 -0.564852 1.413952 -0.134574 -0.676724 -1.085338 -1.680091 0.039206 0.767647 -0.048663 0.839934 0.063058 0.290103 -0.287419 -1.635220 0.552470 -0.328721 0.348404 -0.270140 -0.304158 0.032302 -0.195714 -0.294431 -0.135558 -0.169470 -0.379822 -0.526788 -0.925356 0.772965 0.401304 -0.209364 0.130788 0.365313 -0.093376 -0.114474 -0.838159 1.360563 0.067703 0.720187 0.330023 1.088612 0.757838 -0.309582 -1.288160 0.517138 0.104075 -1.278519 0.598471 0.986222 -0.913183 0.261223 -0.483318 0.683914 -0.409097 0.636456 -0.114616 -0.043667 0.776035 -0.218649 -0.063588 0.457771 -0.075482 -0.225017 0.032272 0.159800 -0.309747 0.671496 -0.589432
AB506315.1.1513 0.400166 1.591906 -0.299724 -1.577635 -0.168144 -0.319314 -0.720874 -0.981206 -1.519466 -0.063599 0.309688 -0.586775 0.378819 0.077679 -0.498795 1.126446 0.440660 -0.150893 0.258062 0.143926 0.549045 -0.282382 -0.255594 0.600527 0.041849 -0.663370 1.712950 -1.647049 1.043773 -0.076414 0.349054 0.368181 0.093432 -0.910583 1.560195 0.581662 0.215618 0.073415 -0.559533 -0.117142 1.358315 -0.619610 0.533122 -0.561230 0.100090 -1.512374 -2.035629 -0.307086 1.708004 0.346421 -0.480978 -0.359759 2.371825 0.571296 0.132486 0.018470 -0.726280 -0.141712 1.015501 -0.515619 -0.477566 -1.405431 -0.112477 -0.574764 -1.022207 0.723505 1.217898 -0.212090 -0.030461 0.814251 1.179648 0.443366 1.591965 0.297589 1.745360 -1.103699 -1.110207 -1.166319 -0.792382 0.029540 0.260533 -1.003172 0.183083 0.456063 0.797470 -0.991105 -1.054338 0.398772 0.246733 0.452184 -0.333210 -0.127698 -0.108123 -0.028844 0.159562 0.051496 -0.053914 -1.971733 0.924279 -1.086701
AB506348.1.1522 0.736069 0.642349 1.319807 -0.399471 0.227757 -0.198360 0.515892 -0.573584 -0.693759 0.285297 0.781896 -0.645175 0.033081 0.634810 -1.103133 -0.617759 0.937824 0.189854 0.909124 -0.226944 0.474879 0.075358 0.481872 0.364134 -0.044055 -0.478729 -0.089473 -0.507455 -0.259747 0.721152 1.176358 0.029211 0.007174 0.353531 0.198664 0.270554 0.203967 1.291759 -0.124803 -0.261279 -1.197112 -0.283119 1.063170 -0.726917 -0.564195 0.043120 -0.026833 -0.752026 0.973976 -0.676034 1.462538 -0.564040 0.023525 0.085326 -0.609463 0.267625 -0.101398 0.095743 0.539315 0.402664 0.771064 -0.770259 -0.275764 0.270757 -0.781909 -0.099579 0.013105 0.023221 -0.049658 0.363544 0.476678 -0.798482 -0.621906 -0.189447 0.263251 -1.056672 0.392067 -0.682516 -1.119998 -0.485292 0.214667 -0.627906 0.698712 0.524221 -0.008430 0.651109 0.589473 -0.749540 -0.493080 0.040804 -0.516841 0.633673 0.149634 -0.090267 -0.088003 0.709493 0.072687 -1.290597 0.566900 0.263569
AB506361.1.1516 0.614651 -0.950818 -0.074315 -1.357439 -1.538290 0.867967 -0.077437 0.322096 -0.878830 -0.123302 -0.782702 0.629883 1.004808 -0.945059 0.521543 -1.006613 -1.199983 0.950208 0.351528 -1.231964 0.077084 -0.154015 -0.769779 0.441423 0.245543 -1.971923 -0.524901 -0.713405 -0.162850 1.219726 0.733806 -0.911126 1.239618 0.906446 -0.402561 -1.181391 -0.480436 -0.411958 -0.013333 -0.903790 0.456732 0.451938 -0.656986 -0.393354 1.707968 0.377820 -0.172767 -0.799909 -0.586950 0.631986 1.120245 -0.981524 0.398380 -0.760950 -0.175653 0.143016 1.153100 -0.938177 0.193713 0.091302 -0.142573 -0.216929 -1.272790 1.756410 0.291743 -0.384252 -0.582671 -0.667251 -0.606691 -0.005554 -0.180194 0.181389 -0.877215 -0.374637 -0.817061 -1.983277 0.911324 -0.030232 1.120175 -0.094396 -0.979263 -0.483052 -0.226848 0.550277 -0.380942 1.500541 -0.847201 -0.980595 -1.129044 0.026992 0.347553 0.851043 1.119661 0.995023 1.228523 -1.902415 -0.016794 1.415795 -0.027464 0.923369
AB506381.1.1523 0.343054 -0.276542 -0.308826 -1.242752 -0.029618 0.523538 0.383275 -0.718212 -0.154160 -0.755577 1.116854 0.053304 -0.367916 -0.112732 0.308839 -0.718457 -0.723083 -0.194652 1.666805 -0.251485 -0.345088 -0.035656 0.067643 -0.308076 -0.549353 -1.151744 0.075796 -0.223496 0.843617 0.599783 -0.674292 -0.862812 0.576131 -0.564381 0.350155 0.547955 -0.314459 -0.010575 -0.781030 -0.214566 0.262447 -0.158499 0.112862 0.826647 -0.147525 0.210181 0.217310 -0.332121 0.438167 0.186946 0.843585 0.206226 0.488608 -1.439652 0.059342 -0.700249 -0.508435 0.580391 0.265122 -0.254127 -0.804890 0.026675 -0.157458 0.095947 0.570224 0.107992 1.080392 0.390372 -0.415116 -0.259671 -0.296334 -0.131502 -0.099472 0.549866 -0.801866 -1.024726 0.851744 -0.172223 0.944829 0.202642 -1.687609 -1.140505 1.011551 0.322180 0.007437 -0.498536 0.132328 0.225881 -0.696815 0.527554 0.037657 0.571293 1.096352 0.558890 0.073016 -0.577124 -0.067031 -0.396856 0.705004 0.109903
AB506388.1.1517 1.160904 0.561554 -1.038844 0.565483 0.281146 0.420183 0.963855 0.021435 -0.022534 0.432476 -0.452645 -0.749955 0.536401 0.230513 -0.849487 -0.428932 -0.176269 0.242815 -0.225147 -0.374993 0.924564 0.495698 -0.364342 0.225463 0.203386 -1.186586 0.867887 -1.230703 -0.186065 0.143793 1.972943 0.456920 0.149835 -1.969937 0.814316 0.305795 -0.075523 0.252827 1.093498 -1.062759 -1.213949 -0.105154 0.192096 -0.851843 -1.127179 -0.942980 -0.391364 0.108500 0.263357 -0.625249 0.438358 -0.939254 0.398171 -1.207701 -0.751369 0.790539 -0.157156 2.192275 -0.200744 0.379320 0.101058 -0.271169 -0.367705 -0.499913 -0.990545 0.654048 0.972121 -0.307580 1.213319 0.661372 0.260399 -0.286969 -0.427933 1.361353 0.117015 -1.794289 -0.530843 -0.466422 0.343876 2.451005 0.362425 -0.372579 0.010197 0.368640 0.118702 0.561954 -0.899687 0.061346 -0.218986 0.569967 0.425246 0.488651 0.126131 0.346478 -0.424232 -0.057796 0.763390 0.065418 -1.083206 1.093298
AB506573.1.1493 0.329595 0.273482 -1.308728 0.147235 0.970339 -0.974453 0.595922 0.423137 -0.129509 0.577725 -0.648659 0.171782 0.013664 -0.154726 -0.682555 -0.354280 0.676258 -0.720910 -0.184640 -0.308381 -0.415493 0.713460 -0.943055 -0.572682 0.167755 -1.666627 0.123386 0.131649 -0.749900 0.674272 0.196586 -0.031616 0.119326 -0.081960 -1.253981 0.094893 -0.513031 -0.751018 -0.547049 -1.140047 0.671762 -1.031662 0.538578 -0.309681 0.583804 0.471468 -0.504587 -0.012632 -1.502143 -0.846678 -1.486071 -0.379223 0.004868 -1.926982 -0.111388 -0.921867 0.058712 -1.149421 0.277901 -1.020260 -0.759565 1.194882 -0.460850 0.060035 -0.385211 -0.660200 0.254968 0.462002 0.224266 -0.405881 -0.333118 0.487355 0.034208 0.130281 -0.822556 0.382962 0.574872 0.294597 -0.035091 0.964739 0.626220 0.154050 -0.085222 -0.372017 0.508913 -0.438956 -1.584874 0.345698 -0.266004 0.377187 0.071135 -0.791683 0.254650 -1.238212 1.205703 0.241992 0.267819 -1.276458 0.777413 -0.529880
AB506623.1.1506 -0.579593 1.174132 0.316956 0.901268 -0.049531 0.145305 0.541352 0.963162 -1.353063 -0.900152 1.873519 -0.592648 0.770060 0.547801 0.925838 -1.328313 -1.252055 1.445842 1.923499 0.914911 -1.075683 1.027674 -0.157500 1.895309 0.068330 1.249912 -0.052656 -0.074983 -0.557255 0.670090 0.172724 -0.184129 0.632325 1.010110 -0.688580 -0.483091 0.770973 0.282738 -1.087381 -0.787860 0.706878 1.424575 0.369865 0.113576 0.878550 0.209928 0.351002 -1.008642 -0.609858 0.843072 0.602251 -0.154468 -1.662541 0.458871 1.066361 -0.184938 -1.637524 0.668137 -0.453692 0.622462 0.034787 -0.899236 1.961837 1.298376 -0.001013 -0.614190 -0.313004 0.572006 0.152187 0.543776 0.711267 0.430921 0.898677 1.074910 -0.410818 -1.244198 -0.667637 0.319618 -0.719072 0.434674 1.099237 -0.890206 0.499444 0.328283 -0.015484 -1.157488 -0.888043 0.143759 0.808231 1.268783 1.217303 -0.269001 0.086065 -0.455602 0.541342 1.314428 0.084833 -1.491221 0.922295 -0.128093
AB512047.1.1509 -1.394374 -0.207027 0.426111 0.870653 -0.108089 -0.993526 0.368310 0.003651 -0.693146 -0.204694 0.332843 -0.382131 -0.856393 0.111972 -0.610677 -0.558180 -0.125100 -0.126855 0.393790 0.157556 -0.755160 -0.123499 -0.375724 0.782682 -0.859791 0.831376 -0.023591 -0.697233 -0.426627 0.324196 -0.532809 -0.168888 0.493013 -0.724760 0.483761 -0.316678 -0.222028 0.132846 -0.754263 -0.021510 -0.171200 0.511251 -0.146662 -0.308645 0.022890 -0.935198 -0.064680 0.663486 0.201403 0.352037 0.383991 0.528963 0.745713 -0.225131 0.080946 -0.144237 -0.050638 0.215611 -0.817912 -0.967492 0.094786 -0.250497 -0.470434 -0.041368 0.103653 0.249894 -0.130268 0.179558 -0.600181 0.468492 -0.342630 0.313332 -0.546499 1.135159 -0.064434 -1.216307 -0.163467 -0.130464 0.067807 0.180152 0.297914 0.067417 -0.624844 0.688971 0.398317 -0.637141 -0.156915 -0.051325 -0.725521 -0.397814 0.716344 -0.619160 0.551656 -0.471820 -0.332890 0.169133 0.703183 -0.153448 0.317285 0.421967
AB525415.1.1503 -1.192765 0.479318 -0.664544 1.013407 -1.819533 -0.103612 1.030515 -0.371826 1.390149 -0.863284 0.181484 -0.214139 0.755941 0.698504 0.321919 0.127921 0.553247 -0.412885 0.545724 1.576042 -0.338498 0.239591 0.465703 0.359577 -0.402096 -0.254674 -1.332357 0.211189 0.820914 -0.230164 1.845721 0.274359 0.399592 0.532897 -1.081086 0.603297 -1.703073 1.363469 0.042813 0.172139 0.234235 0.406524 -0.280793 -0.245917 -0.579766 0.254860 -0.516716 1.361625 0.257590 0.297134 0.312224 -1.367859 0.812814 -0.144398 -0.187862 -1.394672 -0.135370 0.846233 0.168796 0.859469 -1.807146 1.512921 0.075545 -0.037036 -0.977397 0.386611 1.189045 -0.527868 -0.473998 -0.069645 0.506260 -1.115751 0.123106 -0.048994 -1.126327 -2.884124 -1.294494 -0.419135 0.708667 0.459978 -0.042674 -0.860010 0.680009 -1.123716 0.416146 -0.284062 0.546665 -0.799854 0.482540 0.576816 -0.429264 0.143321 1.076048 -0.974405 0.555643 0.938824 0.653451 -0.602631 0.909122 -0.890607
AB538433.1.1488 0.728984 0.155705 -0.678665 0.068816 -0.462614 0.049697 -0.249678 0.320450 -0.483609 -0.282604 -0.408443 0.383086 -0.339035 0.073623 -0.484731 0.038197 0.240307 0.259042 -0.164392 0.153673 -0.111403 0.192019 0.327058 -0.062521 -0.182803 -0.433815 0.393806 -0.341683 -0.080035 0.208856 -0.264307 -0.127740 0.003297 0.470576 -0.126262 0.477921 -0.603284 0.121173 -0.459785 -0.257545 0.010453 0.304213 0.001091 0.168579 0.853174 0.189663 -0.131685 -0.218504 0.375364 -0.307616 0.194894 -0.490738 -0.517362 -0.153420 0.294131 -0.207640 -0.182478 0.474293 -0.060389 0.154909 -0.005874 0.487119 -0.046947 0.362839 -0.322323 -0.122566 0.159664 0.518439 0.155462 -0.099120 -0.044032 -0.108013 -0.176028 0.222757 -0.242966 -0.879654 -0.356644 -0.406084 -0.151698 0.466752 -0.409705 -0.737953 -0.130529 -0.701261 -0.065742 0.867700 -0.558208 -0.199511 -0.217001 0.502819 0.175284 1.088804 0.107127 0.258978 0.265479 0.288371 0.900819 0.194943 0.465917 0.054205
AB547676.1.1493 0.166546 0.248311 -0.313470 -0.280491 0.754674 -0.630250 -0.380966 0.697240 -0.395878 -0.421548 0.832673 0.098996 0.069343 -0.923368 -0.758911 -0.116909 -1.320125 0.534972 0.688937 0.954793 -0.123553 0.344179 -0.159934 0.798985 -1.230017 0.912120 -0.032073 -0.071241 -0.360126 0.491353 -0.076238 0.105392 0.354239 0.746305 -0.219782 0.823693 -0.342268 1.580549 -0.210251 0.139358 1.057505 0.393260 0.167721 0.417974 0.388096 -0.879478 -0.063343 -0.378543 -0.570678 0.329128 0.908449 0.325081 0.809797 -0.211050 -0.727154 -0.524014 0.449636 -0.867071 0.257351 0.204372 -0.743548 -0.513649 -0.528370 -0.795283 -0.745870 0.661994 1.599722 -0.185885 0.060243 -0.204864 -0.648952 -0.474931 -0.217179 0.293447 -0.267507 -1.303128 -0.133842 0.904460 1.544963 1.272079 -0.649737 -0.128446 -0.303874 0.953050 1.492281 1.312245 -0.825729 0.140991 0.992358 1.110913 -0.147773 1.012716 0.598046 0.657424 0.390785 0.302118 0.888897 -0.071173 0.049632 -1.018780
AB547696.1.1280 1.377304 0.190159 0.190453 -0.619185 -1.223371 -0.638050 -0.233676 -0.420277 -0.871426 -0.854029 -0.124999 0.186575 0.028104 0.793477 -0.298951 -1.152836 0.894782 0.780386 0.004919 -0.766505 -1.096225 -0.360790 0.023958 0.407690 0.367088 -1.780411 -0.366745 0.334226 0.109546 0.201274 0.063411 -1.726819 0.332541 1.078601 0.409678 0.180858 0.380619 0.467557 -0.345857 0.276756 0.037806 -0.853079 1.317958 -0.344659 0.453108 -0.295720 0.080296 -1.896274 -0.436068 -0.076266 -1.033556 -0.258781 0.811785 -0.286303 -0.692324 0.361362 -0.335958 0.599366 -0.583190 0.032243 -0.675484 -1.498667 -0.102759 -1.129420 -0.200775 0.567311 -0.369410 0.307103 0.397067 0.475899 -1.340135 0.488412 0.385238 0.817281 0.495012 -1.005117 -0.391886 -0.090909 1.704362 -0.113723 -1.346221 0.223990 0.999640 -1.231073 -0.215855 0.285536 0.864391 -0.668304 -0.656199 0.848385 0.000368 2.408570 0.560340 -0.308631 0.044458 0.220776 0.170269 -0.491712 -0.381096 0.094053
AB558487.1.1504 0.388293 0.124512 -0.264281 -0.368668 -0.628790 0.822566 -0.756084 -0.757278 -0.083262 -0.009300 0.618817 -1.162563 -0.159146 0.403574 -0.626032 -0.646932 -0.064304 -0.193652 0.224426 -0.849389 0.829875 -0.767462 0.801018 0.203574 0.008321 -1.765638 -0.027500 -0.497253 1.233490 0.244149 -0.003672 0.159649 0.104626 -0.017811 -0.063292 0.427327 -0.155946 0.015332 -1.239601 0.071336 0.105540 -0.319544 0.552893 0.373431 0.063927 0.604821 -0.262818 0.138055 -0.298839 -0.332230 -0.874546 1.452605 0.027570 -0.906231 -2.134487 -0.225683 -1.104912 -0.866369 0.689577 0.248308 -0.599704 1.175946 0.283241 1.310097 -1.248451 0.416621 0.346014 -0.749394 -0.262727 -0.407264 0.332394 -0.203328 -0.223811 -0.383362 -0.579898 -1.502309 -0.375960 -0.381557 0.177372 -0.174263 -1.776675 -0.666938 0.295650 0.176580 -0.439995 0.755993 -0.967564 -0.180468 -0.093566 1.473687 -0.425232 1.969515 2.128125 0.504322 0.738208 -1.213826 -0.611493 -0.581845 1.116958 -0.224563
AB559618.1.1515 0.337910 -0.709493 -0.163391 0.502709 -1.058333 -1.415702 -1.040638 0.480002 -0.976209 0.436297 0.013365 -1.058994 0.061493 -0.899057 -0.342081 -0.097571 0.968034 -1.041115 2.650527 -0.264389 -1.069843 -0.995854 0.596964 -1.164255 0.145439 -1.500346 0.182267 0.220475 1.203684 0.562918 0.097344 -1.325357 -0.903052 -0.379203 -0.496632 0.762296 -1.105272 0.897149 -0.687453 0.690376 -0.496203 0.432351 -0.085291 0.798223 -0.540647 1.338631 -0.087478 0.381934 0.794395 0.061121 1.214173 -0.640117 -0.767147 0.672709 0.756108 0.331475 -0.732601 -0.541147 -0.877875 0.387428 0.018556 -0.347147 -0.980326 -0.021380 -1.216807 0.508392 0.109900 -0.192195 -0.765905 0.668726 0.232981 0.772321 -0.706084 -0.332143 0.500500 -0.438478 -0.063784 0.041182 -1.218956 -2.161177 -1.170395 -0.995312 -0.501471 -0.763595 0.837976 -0.709131 -0.880598 0.189501 -0.412822 1.354256 -0.195771 0.940885 0.472422 0.493151 0.847087 -0.688441 1.100588 0.555370 -0.109255 -0.398920
AB606256.1.1495 0.376544 0.110801 -0.356509 -0.177282 -0.298645 -1.395421 -0.884666 1.176008 -0.368373 -0.238488 -1.065932 0.149550 -0.192212 -0.202395 -0.219089 0.301610 0.923437 -0.573472 0.366114 0.713780 1.154752 1.092814 -0.513474 0.123272 -1.621853 -1.324336 0.677505 0.559085 0.408471 0.429190 0.123418 -1.007619 0.424925 -0.185380 -0.611666 -0.126900 0.269475 0.109940 -0.351274 0.800104 1.005475 0.099972 -0.484732 0.349519 0.626390 -0.384642 -0.506899 -1.048632 0.351323 -0.320565 -0.743033 0.065477 -0.760748 0.224664 -0.179143 -0.671524 -0.783387 -0.434748 -0.066453 0.304497 -0.331366 -1.027509 0.228682 0.327462 -0.384762 -0.246414 0.673776 1.066799 -0.204391 -0.269506 0.510397 0.879071 -0.728488 -0.676324 -0.767358 -1.535824 -0.706137 0.083039 0.340564 0.240522 -0.726333 -1.736776 -0.356871 -0.795919 -0.224782 1.314450 0.644051 0.176724 0.236350 0.426377 -0.535606 0.868836 0.001438 0.673200 0.363274 -0.719227 1.255995 -0.129937 0.114316 -0.566336
AB606399.1.1479 -0.292983 0.064355 0.574557 1.500325 0.850230 0.084688 -0.140853 0.814263 -0.079837 0.187883 0.230180 -0.916423 1.097905 0.312491 0.733770 -1.149809 0.593762 0.198050 -0.098118 1.290912 -0.757483 1.195341 0.351867 -0.764539 -1.248197 -0.182836 1.056886 -0.143743 1.192349 0.713054 0.517872 -1.207519 0.017826 0.176466 0.031745 -1.056982 -0.516682 0.908580 -1.307199 0.689899 -0.762765 1.718876 0.619407 -0.236076 1.544922 -1.593031 -1.207986 -0.193948 -1.578710 0.866021 -0.970018 0.323943 -0.946161 0.913138 -1.473400 0.525551 -0.523736 0.380260 1.716598 0.594024 -0.032747 0.348834 0.712173 -0.944371 0.506977 -0.428076 -0.261050 -1.187515 -0.349965 0.817536 1.416697 -0.540758 0.436535 -0.398949 0.029118 -0.959629 0.021261 0.601824 -0.155016 0.875701 0.632266 -0.429793 -1.116049 0.491632 -0.453738 1.687538 1.139408 -1.089096 0.811368 1.283540 0.609016 1.582714 -0.188932 -0.504655 0.384275 1.215252 0.848119 -1.006783 -0.403199 -0.715975
AB616155.1.1470 -0.402155 -1.243684 1.101807 -0.927807 1.384904 -0.296499 0.702012 -0.231466 -0.360731 -1.312223 0.937134 0.663743 -0.907679 0.220270 0.773126 -0.336860 -0.034231 -0.528077 -0.397360 0.856180 -0.681338 -0.423234 -0.704683 -1.039270 0.340048 -2.604292 -1.042398 -1.244515 0.742064 -1.296006 0.728905 0.935310 0.897396 0.766948 0.242553 -1.630904 -0.659980 -0.761316 -0.043082 -0.809020 0.018053 -1.112940 -0.936683 0.913080 1.253185 -0.330308 -0.573238 -0.092915 -0.825641 -0.129540 -0.534947 -0.209468 1.282135 -0.869332 1.235320 0.240770 0.443129 0.147625 0.147021 -0.552267 -0.508313 -0.040564 -0.114392 -0.044825 1.063183 0.424201 -0.919901 -1.438542 -1.071718 -0.228694 0.081374 -0.662087 -0.667197 0.756405 -0.621616 -1.323109 -0.760849 -0.054161 0.429474 0.966485 -0.494144 0.340769 0.247479 -0.551985 0.503538 -1.251836 0.991507 -0.122424 -0.459799 0.240419 -1.082176 1.377493 0.707826 -1.142556 1.984504 -0.925640 2.246470 -0.438627 -0.053266 1.610803
AB639144.1.1469 0.550679 -0.793378 0.684081 -0.972239 -0.660084 0.670103 0.040616 -0.217462 -1.438570 0.258812 0.123625 0.012902 -0.502645 -1.073720 -0.693450 -0.300633 -0.123999 -0.428824 1.996946 0.268267 0.404884 0.400237 -0.842413 0.028805 0.766583 -1.328513 -0.010510 0.691268 0.588479 1.041813 1.162742 -0.891654 0.249213 0.956324 -0.582543 -0.280449 -0.561304 0.405329 0.206013 0.789954 1.012548 0.027346 -0.096800 -0.651550 0.672188 0.948832 0.827101 -0.871919 -0.335559 0.792641 0.731753 -0.144644 -0.796093 -0.596532 1.313598 -0.592922 0.487302 -2.194035 -0.648498 0.440609 -0.506121 -0.878818 -1.181529 0.355659 -1.153269 -0.416110 0.695698 -0.188370 -0.414241 -1.354398 -0.433526 0.441964 -1.182582 -0.732418 -1.049958 0.719465 0.500076 0.155130 -0.373020 -0.668566 -0.640278 -2.178085 0.942653 -0.113233 -0.150433 -0.201271 0.623158 0.899088 0.481348 -0.424190 -0.654524 0.707055 0.320016 0.165348 0.468390 0.213539 0.420967 -1.203625 0.192854 1.000749
AB681574.1.1283 0.849761 -0.113122 -0.771144 -0.862737 0.618970 -0.078169 -0.752417 0.260295 -0.827068 0.054954 0.054852 0.082836 -0.971573 -0.411526 -1.353850 0.220986 -0.443479 -0.395235 0.299924 -0.579719 -0.695457 -0.172209 -0.452656 -0.300211 -0.274702 -1.421392 0.021100 -0.559034 -0.943886 0.640018 0.301821 0.259894 0.146490 -0.009013 -0.186738 0.107883 -0.012386 0.540231 -0.714632 0.206185 0.446335 -1.287860 -0.542748 0.390901 0.120763 -0.109910 -0.526065 0.107763 1.316889 0.257963 -0.294192 -1.962477 -0.993828 1.306979 0.148887 -0.973143 -1.247664 -1.528091 0.720780 -0.904263 -0.376138 0.049283 0.249876 -0.451946 -0.144785 -0.342129 -0.173084 -0.038120 0.349493 -0.061478 0.476320 0.537761 0.731959 0.345094 0.678561 -0.889817 0.407406 -0.564594 -0.390401 0.943427 -1.747532 -1.443903 -0.261623 -1.647518 1.205668 0.297260 -0.909218 1.130777 -0.890922 0.441947 -0.568092 0.985366 -0.348493 0.279137 0.751403 0.972576 1.276459 0.672847 0.950030 0.016054
AB693143.1.1405 0.791981 -1.022839 0.282365 -0.790462 1.186103 0.163945 0.462675 -0.169645 -0.409167 0.086262 1.057576 -0.807908 -1.050903 -0.318141 -1.074126 -0.169913 0.265241 -2.189612 0.480586 -0.254490 0.537541 0.179022 0.375433 0.059394 -0.456797 0.131410 -0.502158 0.120550 -1.485388 2.068595 -1.659720 0.411408 0.228246 0.028873 1.030706 0.813179 1.018697 -0.343085 -1.279337 -0.022953 0.967737 0.266804 -0.980482 0.738675 -0.444939 1.053753 -0.795555 -0.393720 -0.040204 -0.878418 -0.229366 -1.526562 0.466777 0.628513 -0.205934 -1.776771 -0.114737 1.119885 -0.844089 -1.954593 -0.857387 -1.225942 0.398198 0.684729 0.633345 0.854676 -2.179871 0.189494 1.748001 -0.406607 -0.203301 0.709135 -2.634237 0.494579 -0.038462 0.426395 -0.544649 -1.348813 0.105111 0.522244 -2.083354 -2.043612 0.400874 -1.799926 0.169122 0.379452 -1.772129 -0.407159 -0.306392 -1.484689 0.430296 2.115863 0.296669 0.784372 0.294801 -1.919291 0.074021 0.440051 0.111459 0.563061
AB702802.1.1393 0.613355 0.023152 -0.295525 -0.489492 -0.409255 0.262501 0.006238 0.067764 -0.514371 -0.344309 -0.407872 0.170255 -0.043844 0.076684 0.187146 -0.373886 0.293545 0.293511 0.138372 0.183337 -0.105575 -0.104131 -0.425751 -0.428428 -0.188200 -1.034384 -0.615955 -0.092192 0.396720 0.482814 0.300977 -0.491463 0.080178 0.224432 0.290075 0.192636 -0.364366 0.207709 -0.193966 0.270429 0.018974 0.077733 0.198154 0.323920 0.527219 -0.098168 -0.122518 -0.294680 -0.834225 -0.021347 -0.076175 -0.391670 -0.156564 -0.197391 -0.525590 -0.281443 -0.635009 0.120027 0.381934 -0.019813 -0.329135 0.391046 -0.138230 0.442910 -0.063809 0.340258 0.053678 -0.455918 -0.062090 -0.303151 -0.234736 -0.451555 -0.012225 0.587803 -0.170591 -0.683133 0.476675 0.348657 -0.199613 0.221790 -0.342038 0.046090 0.228455 -0.590001 -0.059342 0.401128 0.493301 0.050673 0.351782 0.472077 -0.164316 1.044548 0.466446 0.279404 0.078183 0.004893 0.404577 -0.178220 0.313271 0.109281
AB733112.1.1328 -0.157867 0.097589 -0.136872 -0.086663 0.494967 -0.476657 -0.128928 -0.503207 0.667358 0.437273 0.201688 -0.043025 -0.054176 0.169019 -0.039845 -0.435940 0.319667 -0.405676 -0.453823 -0.258376 -0.697710 0.014014 -0.227663 0.145407 0.311399 1.320818 0.068930 -0.118839 -0.122897 0.223033 0.010736 0.110614 0.525998 0.248692 0.103910 -0.107551 0.469225 0.062501 0.329646 -0.394013 -0.000738 0.457500 -0.361764 -0.445995 -1.082880 0.004820 -0.517143 0.419761 -0.010843 0.089717 -0.024086 0.242877 0.226160 -0.049068 0.292289 0.341043 0.681474 -0.219179 -0.388290 -0.134605 0.154769 0.218556 -0.365468 -0.073481 0.205243 -0.300670 -0.071189 -0.345685 -0.760539 0.177245 0.128621 -0.024739 0.305086 0.170720 0.212291 0.847486 -0.018515 -0.277064 0.726452 -0.415802 0.023752 0.149527 0.039151 0.285044 0.049690 0.256108 -0.736756 0.373652 0.380884 0.084517 0.208746 -1.700430 -0.218175 -0.467769 -0.406918 -0.224150 -0.620073 0.086126 -0.489596 -0.094537
AB739697.1.1442 -0.129503 0.823838 0.360784 0.944415 0.438853 -0.596565 0.070632 0.859072 -0.469662 -1.082266 1.671520 -1.273291 0.245043 0.402874 0.423727 0.175712 0.074540 0.673913 1.315106 -0.143513 -0.506751 0.058639 -0.476338 -0.530300 -0.374406 -0.095363 1.237084 0.887853 0.709151 0.827531 -1.405700 -0.288674 -0.401099 -0.018375 0.106376 0.216519 0.607133 -1.387508 -0.799585 -0.355101 0.420005 0.924535 -0.737254 -0.531505 -0.163353 -0.536837 -0.070986 0.500059 -0.803824 -0.152739 -0.040350 -1.057388 0.221638 0.831516 1.467260 0.068655 0.933892 0.150568 -0.984975 0.382640 -1.225903 0.419377 0.122455 0.623729 0.370281 -1.119138 0.806353 -0.400031 0.733351 0.235509 -0.290725 -0.942557 -0.352370 0.063185 0.091045 -1.439252 0.035217 -0.846508 0.284668 -0.978773 -1.460653 -0.178430 -0.054323 -0.486438 0.189420 -0.200249 -0.764458 -1.617695 -0.164868 -0.536863 0.473736 0.393875 0.424895 -0.688232 -0.154605 -1.340977 -0.356454 -0.462041 0.365853 1.136841
AB775005.1.1253 0.386959 0.251839 -0.874833 -1.346755 -0.534174 1.632351 0.688372 -0.701229 1.633884 -1.097069 0.491204 -0.096788 0.252047 0.328316 0.145093 -0.152941 1.078002 -0.501262 -0.456416 0.842745 -0.160373 -1.905175 0.865454 -1.110909 1.024539 -0.597912 0.005230 -0.316954 1.236343 0.325325 0.520467 -0.876833 0.199154 0.925457 -0.512556 -0.782521 -0.202264 0.415982 0.599883 -0.666063 -0.644803 2.016521 1.446377 -0.601953 1.476008 -0.783222 -0.130001 -0.268449 -0.609426 0.836348 -1.092713 0.375249 -1.141930 0.411027 -0.433744 0.098800 0.206049 -0.579436 -0.548310 0.000956 -0.350306 -1.967196 -0.826036 0.601341 0.626417 1.341040 -0.184670 -1.005364 -1.110677 1.169238 1.300136 -1.445698 0.394353 -0.355867 -1.632209 0.915015 -0.785358 -0.055183 -0.925347 -0.376530 -0.947656 -0.855029 1.179324 -0.425521 0.471081 0.435101 -2.746110 -1.172811 -0.153518 0.876750 -1.575872 1.025800 0.383906 -1.469432 0.758779 -0.250203 0.729262 -0.208678 0.170633 0.074798
AB821767.1.1524 0.933308 1.642360 -0.569293 -0.226903 -1.095833 -0.359604 -0.509861 1.555937 -0.122352 -0.048085 -0.249027 -0.664359 -0.956371 0.196675 -1.412754 -0.490959 -1.455598 -0.396149 1.471980 0.759728 -0.073550 -2.014065 -0.107933 -1.080026 -0.008846 -0.981986 -0.742378 1.579871 0.567052 0.146343 0.010595 -0.503273 0.715024 -0.299098 -0.601909 1.101588 -0.628341 0.041681 -1.226010 -0.569417 0.605941 0.395514 1.749328 1.083286 -0.308770 0.556162 0.824924 0.809066 -0.130993 -0.210237 -0.368488 -0.105199 -0.489453 0.701975 0.552938 -1.350777 -0.976234 -0.075507 0.107347 -0.482376 -0.534861 -0.906075 0.785455 -0.660131 -1.786228 0.347296 0.550360 0.200516 0.361274 -1.955050 -0.074605 1.968594 -1.481400 1.142236 -0.810631 0.620750 -0.104906 0.696196 -1.661498 -0.847957 -1.789904 0.336555 -0.117549 -2.012806 0.042431 0.379347 -1.105262 0.963485 -0.922521 1.726423 0.080160 1.634535 -0.595040 -0.067794 -1.325059 -0.088482 -0.242993 0.767566 -0.736245 0.662217
AB861981.1.1489 -0.163771 0.805842 -0.867844 -1.455942 0.393293 0.684752 -0.665985 -0.310957 0.116896 0.344361 0.683044 0.227301 0.220956 -0.239997 -0.483945 -0.635356 -0.501708 0.685661 0.153556 0.786421 -1.083411 1.068859 0.452729 -1.024628 -0.758877 1.443313 -1.617488 -0.318142 0.779071 -0.737435 -0.423864 -0.663244 2.531666 0.303380 0.439326 0.219279 -0.396276 0.756860 -0.063283 0.015331 1.036730 -0.198915 0.794199 0.180181 1.269363 0.640586 0.374305 -0.077686 -0.482472 -0.578895 -0.303480 -0.712959 0.504094 -1.226187 1.559635 -0.529253 -1.282849 0.105418 -0.915104 -0.648415 -0.616154 1.025495 -2.093789 -0.430164 0.070779 1.105401 0.869879 -0.340336 0.073015 -0.929470 1.431428 -0.680975 -1.411374 -0.004900 -1.793584 -1.417196 0.829876 -0.377509 1.004619 0.837803 -0.640158 -0.319365 0.050617 -0.670301 0.591112 1.079238 0.457403 -0.250685 -1.482592 -0.857214 -0.495349 0.321664 -0.067836 -1.716379 1.006188 0.638812 0.430009 -0.800159 -0.403899 -1.109043
AB934632.1.1349 -0.263072 -0.108312 -0.083455 -0.670045 -0.343088 0.563181 0.082640 -0.280094 -0.342903 0.278308 -0.580067 -0.153727 -0.100015 -0.087353 -0.523750 -0.600886 0.225336 -0.511559 0.470239 1.260209 -1.175419 0.533965 0.458423 -0.505808 0.063543 0.267307 1.145703 -0.192403 -1.319848 0.029651 -0.257142 0.205514 0.025569 -0.079185 -0.735775 -0.154692 0.252935 -0.480271 -0.003698 0.346201 0.281937 -0.233641 0.216699 0.156231 -1.080726 -0.298686 -0.166195 -0.518236 0.395363 -0.106653 -0.623609 0.054590 0.200121 -0.347722 -0.012205 0.509390 0.964431 -0.249437 -0.389618 0.135553 -0.611660 0.141338 -1.017031 -0.844061 0.051273 0.140346 0.296969 0.686047 -0.496336 -0.377486 1.377712 0.481827 0.172826 0.325847 -0.823601 -0.822340 0.431976 -0.790236 1.178867 -0.297036 -0.194969 -0.463084 0.224286 0.599238 0.137068 0.093452 1.355615 0.326897 -0.463385 -0.397042 0.596101 0.809134 -0.738784 -0.109733 0.217993 -0.727248 -0.220375 -0.205702 0.320312 -0.074044
AB934775.1.1342 -1.347118 0.666989 0.135040 0.518916 0.047681 -0.214933 -0.104244 1.419235 0.909950 -0.949429 -0.312700 0.865684 0.570179 -1.036883 0.300968 0.153836 0.777318 -0.514444 0.848232 -0.940298 -0.360683 -0.581193 -0.232282 1.102662 -0.458678 -1.122118 -0.713236 0.843971 2.007743 -1.312462 1.161705 -0.913682 -0.224427 -0.602277 -0.422993 0.694142 0.259955 -0.383227 0.932488 0.498893 1.376082 -1.392591 0.629644 -0.484562 1.576690 -0.758139 -0.587078 -0.635841 -1.109646 1.265829 0.244318 -0.995697 0.889803 0.185080 1.581436 -0.299183 -1.023485 0.694843 1.186299 0.568944 0.135390 -1.903765 0.219960 -0.545716 -0.087730 1.192880 0.034969 0.872656 0.452741 -0.595055 -0.729584 -2.436004 -1.054732 1.617668 -0.335020 -0.264413 0.467299 0.043412 1.415920 -1.001341 1.232000 -1.836377 1.191523 1.928178 -1.013602 -0.427553 -0.236402 1.085091 -0.003915 -0.244536 1.565573 0.986408 -0.585001 0.264698 0.255784 -0.203495 -1.588449 -1.505837 1.891258 -0.894641
AB934796.1.1350 0.891294 0.347464 0.191370 -1.255155 -0.621084 -0.504859 0.241954 0.056143 -1.281043 -0.009902 1.036779 -0.482839 -0.499655 -0.418616 0.012413 -1.436471 -0.442252 1.045784 0.548951 -0.273742 -0.018616 -0.349733 -0.874352 0.033570 -0.942311 -0.381378 0.272293 0.265427 -0.017194 0.502355 -0.233818 0.201458 0.744987 -0.275625 0.893909 -0.506599 -0.671668 -0.265927 -0.402962 -0.366342 -0.217516 0.644901 0.509231 0.245031 0.194102 -0.082593 0.225937 -0.023437 -0.146850 0.576182 -0.018183 1.172664 0.929120 -0.528618 -0.280750 -1.168106 -0.090392 0.223139 0.919396 0.433593 -0.358060 0.143648 0.615192 -0.153679 -0.081138 0.338732 -0.516010 -0.296590 1.009997 0.425903 0.561586 0.029418 0.799408 0.333525 -0.014967 -1.398257 0.037056 0.679164 0.321837 0.203582 -0.509131 -0.991509 0.981403 0.361049 0.080392 -0.115466 1.056682 -0.060652 -0.201162 0.778916 0.696582 1.077578 0.778965 1.022889 1.269160 -1.071599 0.337840 -1.026156 1.021784 -0.656034
AB969399.1.1506 -0.075158 0.441888 0.100981 -0.585363 -0.239225 -1.349337 -1.525653 -0.129000 -0.651660 0.557782 -1.033371 0.341623 -0.771946 -0.198331 0.562542 -0.137715 -0.249477 -0.661025 0.253852 -0.397974 -0.775733 0.582960 0.013382 0.505775 -1.172659 -1.012888 -0.036504 3.099138 -1.078706 1.110096 1.313771 -1.097193 1.369057 0.166622 -0.041870 0.895857 -0.741908 0.982914 -0.303797 0.672739 0.688772 0.640535 -0.047933 0.927756 1.962411 0.111235 -2.637335 0.684451 1.572061 0.677678 -0.627674 -1.139502 0.027521 -0.042470 0.900611 -0.354028 -0.608860 0.402502 2.626639 0.102143 -0.703487 -0.354942 -0.018876 -0.578974 -1.022273 -1.195743 0.377691 0.464291 0.062553 0.485812 1.523051 -0.490676 1.195567 0.038957 -0.005238 0.629438 0.050517 -1.381856 -0.460179 0.466055 -0.606685 -1.259514 0.894039 1.000666 0.390632 1.025406 -0.616018 0.717284 -0.093238 0.942255 -0.298914 0.469765 0.692735 0.505005 -0.867061 -1.270469 0.084498 -1.194855 -0.027129 0.980365
AB971869.1.1245 0.713928 -0.240759 -0.017685 0.847114 -2.181719 -0.243111 0.303782 1.597169 -1.013897 0.525552 1.399563 -0.725030 1.273652 0.775323 -0.717456 -1.195719 -0.687917 0.875111 -0.716121 -0.658991 -0.902227 1.070991 -1.368284 -1.222663 -1.285618 -2.044700 1.409487 -0.326285 -0.955210 -0.089878 -0.993819 -0.069634 0.194260 0.199925 0.129471 0.434312 1.852215 -0.017452 -0.590757 -0.930120 0.078956 -0.284531 0.624164 1.316150 0.971484 0.488050 -0.399156 -1.135851 -0.522348 -0.594126 -0.823859 -0.465800 0.030880 -1.666126 2.289604 -0.960074 -0.530966 0.884432 0.259714 -0.945690 -0.986891 1.393462 -0.847059 1.241214 0.323918 1.562534 0.129723 0.476182 -0.621258 -0.044528 0.169167 -0.420300 -0.584870 0.753861 -1.330353 -1.332451 1.346636 -0.241887 -0.100356 0.032586 -0.166702 -0.532393 0.000299 -0.066157 0.850835 0.556106 0.257308 -0.080718 -0.304945 0.346885 1.363546 0.018668 0.201177 0.146833 0.723107 -0.485177 0.195427 -0.926295 0.242299 -0.808571
ABIK02000013.103269.104574 0.714693 -0.531891 -0.153877 -0.122280 0.597385 -0.638112 -0.360099 0.082271 0.720084 -0.220559 -0.022379 0.020847 0.548954 -0.250097 -0.337943 -0.675447 -0.339958 0.043202 0.043528 0.197555 0.308356 0.256123 -0.429340 -0.092512 -0.028076 -0.027586 0.431830 0.246482 -0.000660 -0.129148 -0.010481 -0.794658 0.071888 0.577805 -0.606613 0.635976 -0.185491 -1.367080 0.849544 0.022359 -0.096454 0.845551 -0.459483 0.260269 -1.027596 0.960538 0.055981 -1.100592 -0.316705 0.352541 0.012061 0.966327 -0.227601 0.207405 0.557327 -0.232008 0.379304 0.569215 0.026350 -0.817564 0.023410 0.250393 0.122052 0.211545 -0.528387 -0.045935 -0.163657 -0.609295 -0.723809 0.371381 0.624304 -0.105276 -0.970708 0.399971 1.094304 -0.903710 0.200185 -0.839395 -0.333580 -0.165113 -0.278064 -0.725867 0.866389 -0.378234 0.079290 0.109397 -0.096088 0.069554 -0.153899 0.027449 -0.340754 0.929575 -0.206059 -0.295047 0.886946 -0.110069 0.073449 -0.108356 -1.547463 -0.044715
ABIY02000114.1.1263 -0.126890 0.158900 -0.501784 0.620540 0.101794 -0.421766 0.764808 1.376034 1.103014 -0.255886 0.141403 -0.221156 -0.964936 0.665509 -0.006524 -0.888655 0.283002 0.860537 0.267002 0.725965 -0.894214 0.221506 -0.394291 -0.197503 -0.093981 0.495707 0.228532 0.004293 -0.837551 0.428769 0.252353 -0.498481 0.794047 0.429547 -0.614699 -1.734628 0.012888 0.444463 -0.665299 0.713285 -0.906312 0.894263 -0.765837 -0.737687 -0.310441 0.179559 0.104445 -0.375637 0.342798 0.530352 -0.209355 -0.599141 -0.225400 0.510583 0.843956 -0.100781 0.550975 0.104583 -0.685702 0.608218 -0.418868 0.779812 1.499514 -0.132705 -0.192208 -0.073563 0.127631 0.581313 -1.474495 -0.145059 -0.306285 0.818380 -0.725933 0.424331 -1.106745 -0.115416 -0.753179 -0.405113 0.226389 -0.034777 -0.805395 -1.161259 0.806221 -0.105077 0.411936 0.598525 -0.271318 0.757984 -1.187946 -0.024287 0.077238 0.442306 0.077205 -0.105176 0.619686 -0.353013 -0.358871 -0.066841 0.575085 -0.038620
ABQC02000019.758957.760260 -0.236302 1.483503 -0.483304 0.774251 -0.473083 -0.087039 0.153663 -0.133775 0.046120 0.250917 -0.009100 -0.183956 0.778489 0.097818 -1.309645 -0.686045 0.713160 0.269805 0.128988 -0.007905 -1.290556 -0.362607 -0.706251 0.441246 -0.265130 0.114531 1.083787 0.880991 -0.028293 0.418324 -1.048338 0.546853 0.404478 -0.365019 -1.184325 1.029399 -0.223344 0.543773 -0.201484 0.383249 0.446548 0.100740 0.136053 -0.084000 0.214566 -0.376215 -0.800819 0.610049 0.951197 1.112895 0.150720 0.131917 0.874919 0.521556 1.046541 0.364301 0.009130 0.951462 -0.521568 -0.776285 -0.283586 0.384859 -0.241786 0.066380 -0.272171 0.594458 0.728148 0.199587 -1.211751 0.032976 -0.533272 0.457455 -1.299193 -0.108828 -0.117133 -0.367813 -0.860584 -1.937460 0.246167 0.203492 -0.840279 0.491742 0.379590 0.005262 0.008376 -0.239305 -0.410495 0.300183 -0.284573 -0.864354 0.647924 0.199994 -0.020979 -0.188304 0.769369 -0.212937 -0.558605 0.891635 -0.032582 -0.205259
ABWL02000011.84303.85559 -0.463012 -0.827507 0.280616 -0.072598 1.300367 -0.956032 -0.679406 -0.208837 -0.721590 1.030818 -1.114275 0.391528 -0.001803 -0.428150 -2.496424 0.255951 -1.759370 -1.657814 1.267231 0.256924 -0.391136 0.090533 -0.666727 0.423178 -0.367858 -0.620371 -0.452101 -0.222278 0.534887 0.603257 -1.237062 0.237790 1.622024 0.920897 -0.519258 0.204476 0.427121 -0.649550 0.426938 -0.425945 -0.009931 0.705493 -0.730385 -0.765922 -0.231249 1.637505 1.130750 -0.702972 -0.944159 -1.598054 0.705753 -0.177096 -0.628061 0.097023 0.085904 0.238885 -1.549224 -0.054961 -0.756331 1.471035 0.720842 -1.196827 -0.477285 0.901806 0.329724 0.039889 0.134412 0.987934 -0.028439 1.111706 0.320796 0.163862 -0.061896 0.394835 1.173386 0.879973 -0.053106 -1.190893 -0.448449 -0.286675 1.200796 -0.770830 -0.428245 -0.903777 0.476495 -1.044269 -1.326605 1.153215 0.103887 0.285157 -0.788883 1.103219 -0.069502 1.336874 0.801137 0.498082 -0.487421 -1.550641 0.954534 -1.111243
ABXI02000116.1.1285 0.195811 -0.870775 -1.173465 0.012298 1.080639 0.908801 0.102800 1.845430 0.138666 -1.304472 0.619492 0.905216 1.033007 0.399529 -0.745452 -0.128481 -0.768894 0.102847 0.271959 0.100007 -1.421691 0.092093 -0.270560 0.090443 0.784414 -0.228220 -0.547124 -2.092700 1.210277 -0.249598 1.133723 0.142643 0.350564 0.402745 0.485583 -0.101011 0.359469 0.410945 -2.006001 0.010703 -0.867789 -0.091146 0.485492 -0.389225 -0.441297 0.105382 0.339079 0.551916 0.626517 -0.677007 -1.673724 -0.116303 -0.786634 0.124328 0.631450 0.430704 0.704199 0.280911 -0.677649 -0.608537 -0.902403 -0.622255 -1.395338 -0.417970 -0.850062 -0.725578 0.589649 -0.278652 -0.921617 1.385433 0.430890 0.760041 0.368210 -0.104205 -0.310983 -0.346973 -0.017599 -0.085602 0.212065 -0.066035 -1.376047 -1.000103 -1.955649 0.139412 -0.659715 -0.121628 0.220742 0.257404 0.318543 -1.012014 0.413418 0.227474 -0.512149 0.687086 -0.275062 -0.989690 -0.047795 -0.095769 0.114863 0.355502
ACBX02000025.1.1217 0.293186 -0.330655 -0.873177 -1.217387 -0.072305 0.239890 -0.545673 0.416975 -0.399124 0.011252 0.625086 0.393389 -0.406923 0.313712 -1.176799 -0.250634 -1.317271 0.917267 0.016272 -0.649731 -0.290576 -0.412997 -1.351822 0.069849 -0.372592 -1.371494 0.841658 0.705560 -0.669011 1.035087 0.061613 0.125434 -0.015718 -0.166710 -0.334175 0.583798 0.060505 -0.022576 0.437792 -0.618434 -0.884318 -1.125526 -0.340292 -0.400160 0.684867 -0.231560 -0.987033 -0.224443 0.425862 0.725742 0.733874 0.384185 -0.593595 0.368842 -0.670906 -0.433504 -0.153459 -0.097760 0.896852 0.401401 -0.814776 -0.291766 0.073043 0.452436 0.185985 -0.614743 -0.043896 0.164990 0.423709 0.600966 -0.599823 0.149571 0.718553 0.129968 -0.156520 0.554634 0.189169 -0.077733 -0.789169 0.859832 -1.258227 -1.036779 -0.854764 -0.521529 0.384326 -1.325914 -0.268384 0.309529 -0.556853 0.968023 0.462478 0.542469 -0.554705 0.135209 -0.207876 -0.095125 0.549875 -0.045373 -0.272735 -0.332749
ACCF01000268.3369.4627 0.775187 0.843189 -0.986317 -0.223201 -0.280659 0.385360 0.394018 -0.838037 -1.025765 -0.025869 -0.863609 -0.551764 -0.227757 0.185820 -0.965989 0.418302 0.968084 -0.775322 -0.861922 -0.160815 -0.089891 0.603210 0.012280 -0.275866 -0.000620 -1.984639 -0.253831 -0.683969 0.577228 -1.715983 0.534929 0.357837 0.028408 -0.879406 -0.338726 -0.458977 -1.017683 -0.287233 1.083830 0.509420 -0.730361 -0.101078 -0.105307 -0.358678 0.110676 -0.021036 1.029395 -1.174050 0.034884 1.903735 -1.024482 -1.349945 -0.305213 -0.455043 -0.370393 0.107507 -1.401071 0.163597 -0.536867 -1.112242 -0.294401 0.155888 0.231591 -0.056175 -0.406150 1.274075 -0.919183 -1.216399 0.151219 0.160808 -0.075759 0.128050 -0.162049 0.071792 0.524079 -1.079054 -0.143053 -0.843127 1.437644 0.684197 -0.693839 -0.378841 0.383196 -0.233389 -0.004832 0.699416 0.435890 -1.256328 0.615719 0.139139 -0.334401 0.891473 0.095996 0.178252 -0.351881 -0.364307 -0.631414 0.421673 0.752166 0.619572
ACCK01000460.1.1313 0.198067 -1.054579 0.344674 0.483654 -0.160039 -0.267592 -0.222202 0.177408 0.057558 -0.305694 -0.934733 0.651248 -0.932482 0.705398 -1.593217 -0.314521 -0.818244 -0.984509 0.324734 -0.013935 -0.538115 0.037105 0.305349 -0.763047 -0.294504 -0.403552 -0.171077 0.845936 0.347088 0.828498 -0.423115 0.500715 -0.530240 0.838739 0.550267 0.425216 0.316256 -0.217966 -0.799366 -0.627621 0.447099 -1.309930 0.092217 0.166347 -0.177741 -0.393024 0.068059 1.480863 -0.607953 -0.116854 -1.321095 0.363657 -0.631800 -0.970063 -0.581773 0.313781 0.611292 -0.202987 -0.285577 0.537181 0.737880 0.690169 0.896340 -0.176913 0.136405 -0.969586 0.399227 0.311875 -0.268147 0.107955 0.550739 0.202791 0.306885 -0.702793 1.263758 0.109946 0.528452 0.437242 0.842380 -1.178085 0.387458 0.530468 0.392282 -0.655337 0.365087 -0.710111 0.234178 0.270487 0.368322 0.825444 0.755231 -0.135926 0.039856 -0.679176 0.889889 -0.746105 0.491067 -0.342081 0.203237 -0.089771
ACDP02000005.388.1906 -0.000969 0.035185 0.193783 -0.232950 0.002838 0.342101 0.042350 -0.550791 -0.576044 -0.223357 0.810825 -0.112282 -0.262221 0.041789 0.376063 0.305899 -0.538735 0.500625 -0.398915 0.335331 0.677939 0.281017 0.026232 0.312382 0.307405 -0.048074 -0.137489 0.138466 -0.410627 0.174428 0.635457 0.164690 0.120617 -0.519919 -0.079412 0.511712 -0.182038 -0.110242 0.337190 0.306338 -0.161959 0.897967 -0.914536 0.542022 0.409079 -0.015187 0.119711 -0.235096 0.289579 0.119520 0.146753 0.177118 0.112802 -0.035776 -0.535316 -0.467605 0.178627 0.055003 0.153952 0.437618 -0.434376 -0.400575 0.107654 -0.456083 -0.766314 0.069728 -0.297755 -0.216769 1.167817 -0.002500 -0.390047 -0.246220 -0.089406 0.047370 -0.165767 -0.537969 0.330067 0.232995 -0.553532 0.346434 0.394970 -0.233259 0.327410 -0.067202 0.248007 0.351258 -0.027361 0.212597 -0.059070 0.452846 -0.533425 0.764996 0.175959 -0.232783 -0.367840 0.542433 -0.267704 -0.019356 0.008144 0.312386
ACTH01000059.589.2110 -0.467166 0.701032 -0.857331 -0.648544 0.734859 -0.651001 -0.583671 0.897429 -0.452718 0.355442 0.849546 -0.506855 -0.660389 -1.106212 0.773989 -0.157906 -0.046871 0.785607 0.572752 0.029057 0.033559 -0.917866 0.042423 0.121893 -0.447896 -1.870997 -0.754447 -0.622329 -0.310266 0.873459 1.086266 -1.205306 -0.955752 0.204731 0.682607 0.139720 -1.103914 0.184118 -0.136576 -0.358371 0.731236 0.112660 -0.252432 -0.805933 0.921161 -0.609261 -0.572643 -0.567297 -0.597367 0.022084 0.399223 -0.770581 -0.529719 0.448480 -0.235129 -0.232647 -0.267640 -0.570457 0.316168 0.170223 -0.454105 0.127272 -0.687520 0.453698 -0.459348 0.353922 0.472582 0.369599 -0.366258 -0.346910 0.151751 -0.248987 -0.509666 1.150440 0.586814 -0.770721 0.649099 -0.585751 0.322185 -0.341250 -0.190380 -0.592715 -0.732363 -0.667664 -0.778803 0.882467 -0.085531 -1.124328 1.629528 -0.507949 0.276617 2.270832 0.495731 0.492535 -0.321810 -0.018006 0.434681 0.000545 1.114964 1.076455
ACUX02000006.1.1301 0.310678 0.279207 -0.716421 -1.057327 0.643616 -0.266436 -0.548342 -1.354996 -2.016540 -0.564686 -0.436014 -0.605580 -0.404987 -0.815816 -0.948520 -0.585787 0.936033 0.466828 0.165471 0.026885 0.056584 0.323777 -1.175208 -0.595688 -1.002865 -0.976614 0.202969 -0.353493 -0.211956 0.987842 0.951722 0.677538 0.725461 0.916236 -0.345668 0.259613 -1.260404 -0.521202 0.707393 -0.892054 1.464174 0.038020 -0.140185 0.955006 0.702570 -0.610067 -0.019202 2.633912 -0.758047 0.819775 1.637250 0.806996 -1.900927 0.909099 0.345503 -0.921368 0.083606 -1.599005 1.796898 -0.993762 0.107084 0.124730 -0.332612 -0.338073 -0.869213 0.904025 -1.058924 -0.879511 -0.705492 0.217831 0.376806 -0.952388 0.300875 -0.242395 0.544578 -1.596308 -0.091696 -0.621380 -0.867710 0.987188 -2.163131 -0.138827 -0.328756 0.619721 0.562256 0.257807 -0.325690 0.002439 -0.390418 1.729504 0.367941 0.589708 1.325799 -0.635822 -0.362949 -0.352385 0.113399 -1.197280 0.120675 0.916891
ADBC01000153.367.1631 0.071743 -0.481671 -0.509003 -0.049307 -0.227891 0.352448 -0.110876 -0.211038 -0.802941 -0.045107 1.058729 -0.580496 0.063862 0.578182 -0.326549 -0.870325 0.476298 0.378516 0.281619 0.055507 -0.088262 -0.240531 0.004514 0.568920 -0.020816 -0.648488 0.147323 0.610064 0.465947 1.045072 0.629520 0.272911 0.033241 0.327256 -0.131285 0.454004 0.433983 -0.071168 0.316365 -0.284083 0.144468 0.318054 -0.478590 0.699029 0.286752 -0.004613 -0.619133 -1.171584 -0.406090 0.891396 -0.336385 0.351989 -0.745548 -0.810465 -0.324149 0.438358 -0.805388 0.226671 -0.423220 -0.234636 -0.564180 0.836397 -0.367151 0.261833 -0.290573 0.394449 0.397563 -0.006124 0.279203 0.498434 0.469821 -0.066915 -0.598012 0.764023 0.067215 -1.194355 0.272915 -0.058197 0.412689 -0.316434 -0.858943 -0.402663 -0.069786 -0.274254 -0.408544 0.556507 -0.342501 -0.668546 -0.136495 -0.143154 0.312000 0.254836 0.731212 -0.535762 0.452246 -0.404567 -0.195156 -1.309879 0.023488 0.218487
ADFR01000011.3460.4852 0.346348 -0.179520 -0.134633 0.662725 -0.268461 -0.209293 0.479985 0.237205 -0.834098 -0.302510 0.634844 -0.462869 -0.092166 -1.122358 -0.903148 -0.525078 0.226035 -0.107508 -0.722236 -0.113948 0.150372 -0.200481 -0.078854 -0.694878 -1.042040 -1.726880 -0.230052 -0.524732 -0.809630 0.257529 0.997866 -0.446508 0.382673 0.354816 -0.281065 -0.566454 -1.315547 -0.809432 -0.909659 0.284248 -0.065583 -0.357857 0.094835 -0.791361 0.889699 0.158573 -0.109544 -0.682653 -0.683207 1.013156 -0.368093 -0.294652 -0.149489 0.263145 -1.059593 -0.252165 0.024628 -0.158697 -0.667707 -0.584029 -0.510901 -0.145067 0.453228 0.542684 -0.125074 0.193957 0.465631 -0.509124 0.386056 -0.651911 -0.518736 0.235595 -0.738488 1.283702 -0.661846 -0.569838 -1.186229 -1.307129 -0.493096 -0.299134 -1.516081 -0.602396 0.722469 -0.754387 -0.901950 0.378065 -0.076522 0.279201 0.408570 -0.082111 0.145621 0.626633 0.771403 1.056568 1.322749 -0.926718 0.772502 -0.757604 0.425446 0.793862
AF047850.1.1200 -0.643328 0.451858 -0.986933 0.673673 -0.203388 -0.955312 -0.057365 -0.538216 -0.301686 -0.442413 0.014550 -0.713254 0.050107 0.105278 -1.205264 0.479402 -0.514757 0.130079 0.065601 -0.661579 -0.748737 -0.053816 -0.941540 -0.414752 1.637749 -0.246441 0.118218 0.891270 -0.089347 0.752335 -0.005699 -0.347112 1.714073 -0.184955 0.843486 0.958758 -0.807453 0.946170 -0.798139 -0.634803 -0.386823 0.926122 -0.963884 -1.004675 1.906760 -0.022229 1.165325 -0.045951 -0.033792 -0.731141 -0.204982 0.408519 -0.554642 -0.402332 -0.736792 -1.487895 0.126438 0.661821 0.751109 -0.488144 -0.370932 -0.772435 0.537017 1.090133 -0.120071 -0.420001 0.788968 -0.713059 0.038428 -0.552285 0.193947 0.779892 0.543270 2.001774 0.145988 -0.048062 -0.492015 -1.370478 -1.115765 0.291639 -0.681164 0.179500 0.683427 1.225577 -0.658767 0.713260 -1.142551 -0.499059 -0.872466 -1.453514 -0.654482 1.180242 -0.594388 1.695215 -0.639358 1.264244 -0.180837 -0.789713 1.360484 0.252416
AF132232.1.1493 -0.828047 -0.449213 -0.143386 0.892686 0.427744 0.487883 1.128790 0.252828 0.162836 -0.121927 -0.389582 -0.657905 -0.133930 -0.721760 0.027278 -0.381368 -0.231152 -0.238639 1.086497 0.447698 0.060425 -1.203798 -0.078405 0.770924 -0.043831 -1.443406 -0.670984 0.083521 -0.464926 0.253641 -1.441913 0.551553 1.006084 -0.713878 0.176216 -0.207939 -0.846620 1.155400 -0.514279 -0.281055 1.061102 -0.909519 0.425131 0.542656 0.788761 0.867456 -0.027282 0.327894 -1.713126 -1.391462 -0.364674 0.151835 -0.530618 -0.339747 -0.824343 0.574107 0.052768 0.841919 0.309173 -0.989291 1.105372 0.423254 0.103446 0.351092 -0.305172 0.638024 0.029913 0.885513 1.315314 0.419021 0.464999 0.607910 -0.128496 0.721707 0.421692 -0.008779 1.309905 -0.807030 0.536617 -0.347983 2.100179 -1.383069 -0.857084 -1.193920 0.721099 0.184768 0.360676 -0.047971 1.666966 -0.059031 -0.311848 1.074660 0.324763 0.444633 0.500594 1.256651 -0.536064 -0.084755 1.011903 0.926364
AF132270.1.1279 0.265415 -0.438780 0.358789 -0.106588 -0.575893 0.326710 0.250676 -0.194054 -0.112125 -0.309105 -0.149079 -0.321594 0.107074 -0.383805 0.429300 0.121525 -0.305953 -0.323143 -0.074048 -0.069825 0.821758 -0.464727 1.102574 -0.255605 0.725724 -0.607180 -0.047413 -0.523910 0.540575 0.424594 -0.587770 -0.910784 0.561267 -0.765037 -0.656839 -0.218257 0.322570 -0.068801 -0.101574 0.032668 0.112076 0.644980 0.374085 0.006117 -0.359673 -0.089142 -0.199457 0.253818 -0.324825 -0.058428 0.196764 -0.081493 0.663181 0.365657 -0.279946 0.058078 -0.460570 -0.266676 0.663383 0.741011 0.258603 -0.021300 0.454764 0.184426 -0.137700 0.377959 0.121608 -0.071601 -0.489141 0.531641 0.325581 0.313379 0.392357 -0.205541 0.529555 -0.249027 -0.348848 -0.119404 0.229118 0.133930 -0.061633 -0.509495 0.019078 -0.789025 -0.095545 -0.250721 0.221871 0.392004 0.205476 0.351530 0.028280 0.118491 0.293836 0.324780 0.648659 -0.241901 0.239924 0.417493 0.076807 0.269339
AF132280.1.1277 0.313655 -0.460842 0.020344 -0.046136 0.490210 0.036099 0.015483 0.613046 -0.050201 0.231743 -0.287987 -0.161834 0.559319 -0.159460 -0.153061 0.411477 -0.269790 0.048086 0.461630 -0.472328 0.293122 0.117686 0.855061 -0.701770 0.091778 0.088825 0.200639 -0.594267 0.510324 0.076465 0.060762 -0.205590 0.027807 -0.512118 -0.429852 -0.170355 -0.067531 0.315242 0.057835 0.164769 0.115906 -0.076324 0.105584 -0.367463 0.232334 0.280670 0.264676 0.295569 -0.272629 -0.373583 0.834380 0.491668 -0.255909 0.216422 -0.687292 -0.152289 -0.375744 -0.399659 0.547418 0.134350 0.675873 0.361913 -0.088808 -0.286604 -0.037552 0.549193 -0.406033 -0.527301 0.906235 -0.227988 0.255858 -0.320181 0.112717 -0.048593 -0.251713 -0.071953 0.166696 0.417402 -0.513831 0.091205 0.398615 0.321655 0.093610 -0.367756 -0.581554 0.510695 -0.033907 -0.221127 -0.302815 0.015757 -0.468778 0.756544 -0.273738 0.523686 0.667962 0.811438 -0.853288 0.112585 0.443448 0.357650
AF153858.1.1349 0.170094 -0.393148 0.035979 -0.467914 -0.528170 -0.332758 0.025609 0.769755 0.051130 0.140883 -0.457613 0.063024 -0.167062 0.712003 0.441668 0.807014 -0.084158 -0.150023 0.293900 -0.108718 -0.118300 -0.337163 0.338374 -1.032008 -0.061796 -0.406261 -0.245871 0.341576 -0.188294 0.387948 -0.785511 0.182079 -0.444748 -0.416268 0.288312 0.102545 0.436151 0.427668 -0.507165 -0.531829 -0.096845 0.088188 -0.459007 -0.020854 -0.443125 0.467883 -0.445356 0.404782 0.017128 0.057968 0.375693 -1.641666 -0.122412 -0.551493 1.524869 0.167347 0.543772 -0.331724 0.296631 -0.291154 0.065476 -0.064040 -0.530812 -0.035551 -0.563494 0.718288 -0.106459 0.388466 -0.953001 -0.382072 0.336798 0.502180 0.379170 -0.157050 0.111193 0.606797 0.320084 -0.697768 0.529396 -0.237597 0.214292 0.392548 -0.143749 0.175742 0.534278 0.520377 0.129068 0.392726 -0.559789 -0.088769 0.518621 0.319298 -0.388520 0.387103 -0.663526 -0.248333 -0.416905 0.739520 -0.097986 0.097074
AF192152.1.1542 1.184929 -0.027355 -0.405334 0.204101 -1.167399 0.050392 -0.300843 0.652379 -0.358038 0.470455 1.293651 0.044343 0.043614 0.567814 -0.562784 -1.190965 -1.107338 0.112965 -0.176780 -0.344767 -0.421333 0.537981 -0.694476 -1.345661 -0.807595 -1.011015 0.095227 -0.086981 0.018749 0.082940 0.089155 -0.351614 -0.895743 0.880378 0.448546 0.821989 0.040453 0.944131 -0.130413 0.254802 1.045565 1.695804 -0.127635 0.514162 0.807082 0.013353 -1.133143 0.535440 -1.060670 -0.116856 0.568589 0.497510 0.640880 0.072735 -0.162340 0.769916 -0.881438 0.173451 0.311157 0.280440 -0.440150 0.706618 -0.026996 0.206844 0.577829 -0.028723 -0.113566 -0.000836 0.316264 1.209574 -0.199271 -0.854765 -1.022467 -1.649733 0.100174 -0.696604 -0.481433 -0.130283 0.656484 -1.701762 -0.512700 1.127992 -0.088570 0.227676 -0.170155 0.424010 0.792298 0.367332 -0.285557 -0.467941 -0.582157 1.038014 -0.197318 -0.768083 0.623533 0.201598 -0.022755 -0.316496 0.396306 -1.038260
AF287769.1.1493 -0.125336 0.483460 0.948453 0.666920 -0.211748 -0.464268 -0.865157 0.000029 0.640435 -0.691835 0.206721 -0.513022 -0.506865 -1.078829 0.541202 0.048737 0.866398 0.588664 -0.261247 -0.054009 -0.037579 -0.690324 -0.229997 0.190107 -1.083857 0.312246 -0.532308 -0.025562 0.606495 1.677874 -0.185048 -1.155343 0.182460 -0.582118 -0.298004 1.215087 -0.272373 0.325429 0.547198 -0.335448 -0.447917 0.150703 0.929616 0.202929 0.858675 0.405286 0.532895 0.596722 -0.814163 0.507757 -0.913335 0.977349 1.035171 -1.142963 -0.678623 -0.407266 0.805113 0.228293 0.241218 0.030404 -0.900853 -0.383614 -0.263708 1.397817 -0.720787 -1.200976 0.193483 -0.337384 0.409247 0.046074 -0.620313 -1.152917 -0.308223 0.621046 0.809667 0.308889 0.374582 -1.166083 1.200940 -0.961853 -0.048063 -1.415691 0.728949 -0.227731 -1.211496 0.227838 0.370154 0.950104 0.353690 0.487496 0.442737 1.460698 -0.380253 0.141631 -1.192659 -0.329094 0.244571 0.071448 0.802412 0.266777
AF338413.1.1408 0.202891 -0.027427 0.384942 0.902332 1.858411 -0.522180 0.299964 0.055615 -0.427122 0.997856 0.155952 0.359840 -0.172530 0.004025 -1.111532 -2.060940 -1.201750 -1.419451 -0.740939 1.830703 -1.200955 -0.168496 -0.145162 -0.962525 -0.372264 -1.187220 0.787146 2.206489 -0.094252 0.628342 -0.426179 -0.017045 0.766506 0.760169 -1.501205 0.942368 -1.321336 -1.226385 -0.475572 -0.023721 -0.790701 -1.382235 0.984517 -1.449531 3.217996 -0.919011 1.068138 -1.688979 -0.243880 -1.241572 -1.508372 -0.171720 -0.389640 -0.129636 -0.829999 0.756249 0.248305 -0.303625 0.690439 -1.079810 -0.678336 -0.213171 -0.780229 0.501217 0.117510 -1.409949 0.662975 -0.600577 0.825679 0.536506 -0.446038 -0.192109 1.602036 0.607060 -2.042745 1.170450 0.734907 -1.108055 0.304307 0.926768 -0.393220 0.129900 0.759997 -0.161648 -0.714559 1.869917 -0.225198 0.025735 0.338092 -0.205467 0.879827 -0.531470 -0.233988 1.165815 0.839816 -0.378138 0.938507 -0.197878 0.866564 -0.752027
AF348748.1.1327 -0.233039 -1.412455 -0.305003 -0.090795 0.420440 0.631338 -0.440886 0.764460 -0.332314 0.474163 0.784969 0.195565 1.455029 0.363721 -0.201274 -0.901303 1.600757 0.377052 -0.551252 -0.623743 -1.440349 -0.730703 -0.074661 0.580052 -0.931431 0.244414 -0.766138 0.477242 0.126489 -0.071470 0.081623 -0.102441 1.673255 1.618669 -0.225913 -0.259165 0.130184 0.120516 0.747085 0.665157 0.682558 0.896804 0.266661 0.041970 0.344362 0.612184 0.373519 -1.071918 -0.108276 0.371298 -0.676062 0.119812 0.183153 -1.186153 0.174214 0.445263 -0.438206 -0.425117 -0.162583 0.886164 -1.370969 -0.301388 0.327183 -0.443525 0.187596 0.552043 -0.205419 -0.056330 0.449232 -1.454487 -1.296756 0.529490 0.029411 -0.545557 0.139179 0.024205 0.268290 0.603559 2.193901 0.453532 -0.385852 -1.043733 0.775099 -0.137406 -0.534846 0.757534 -1.658907 0.439686 1.005352 -0.989059 0.748847 0.928294 0.831746 1.834927 -0.193025 0.295213 0.039238 -1.273455 -0.036814 -0.525291
AF349930.1.1400 -0.530630 0.969460 0.001070 -0.022538 0.070089 0.371415 0.198855 -2.459760 -0.662237 0.311582 -0.459348 -0.788119 0.068052 -0.480148 -0.075646 -0.180335 0.120306 -0.228074 0.348330 -1.519360 -0.904232 -0.535562 -0.149548 -0.383530 -0.124682 0.041204 2.088411 0.579948 -0.457262 -0.066153 0.209346 -0.161215 0.759754 1.148400 -0.164885 0.686141 0.875033 1.406018 -0.610721 -1.442798 0.281471 0.553221 -0.075903 0.252598 0.846369 -0.081945 -0.034698 0.029020 0.626404 1.321248 -0.297513 0.484034 -0.680099 -0.155603 -0.586486 -0.923891 -0.223616 0.096581 -0.345750 0.785315 -0.618228 -0.506294 -1.661258 0.693130 0.288065 0.465037 -0.600141 -0.022611 0.485032 0.621471 0.026620 1.580492 -0.104505 0.342480 -1.129730 -0.651861 -0.031548 -1.101102 -0.369122 0.772829 -0.009198 -1.287892 0.376722 -1.065267 1.323039 0.557085 -0.727968 0.967331 0.295868 1.183135 -0.052554 0.714035 0.083157 1.577127 0.255285 0.449031 -0.040036 -0.683745 -0.466543 -1.187130
AF349937.1.1220 0.256161 -0.114222 0.018038 1.427150 0.534872 -1.373210 -0.433530 -0.271842 0.576104 0.518011 -0.498532 -0.192256 -0.238331 -0.722359 0.514994 -1.287075 1.012812 -0.548907 -0.550631 -0.296104 -0.590975 -0.336841 0.400548 -0.513844 -0.405989 0.887599 0.420550 0.120025 0.171789 -0.057688 -0.543331 -0.032099 0.108372 0.322975 -0.202179 -0.718116 -1.009348 -0.238287 0.569276 -0.707321 -1.274594 0.380350 0.182846 -0.929878 -0.268680 -0.190817 -0.437161 -0.044037 -0.777513 -0.084276 -0.487128 -0.162861 0.234235 -1.093465 0.233836 -0.814562 -0.145465 -0.647604 -1.280998 0.664181 0.758426 -0.925497 -0.215919 -0.655885 0.778747 0.197161 -0.031209 -0.858089 -0.225598 0.339451 0.301289 -0.248485 0.742063 -0.195536 -0.453942 -1.133536 -0.104067 -0.991079 0.409164 -0.559724 0.030737 -1.735924 1.021644 0.074599 0.534176 0.401904 0.462445 -0.310830 0.660448 0.598420 -0.125187 0.362245 0.807980 -0.354987 0.915403 0.075238 1.418417 -0.706756 -0.639431 -0.753456
AF359941.1.1346 -1.426597 -1.274796 0.190663 -0.349599 -0.230981 0.254588 -0.570997 0.347862 0.373993 1.781651 0.819418 -0.800406 0.049183 0.145103 -0.188119 -2.670944 1.045777 -0.642012 -0.383717 0.257782 1.070555 -0.499511 -0.570495 -0.925398 0.077659 -0.535404 0.420001 -0.302809 -0.065166 -0.620480 0.757962 0.899017 0.067484 0.308343 -0.469379 1.799946 -0.709858 0.730140 0.473059 -0.298410 0.867184 -1.249778 -1.606532 1.302021 -0.567710 0.082575 -0.053186 -0.080551 0.552303 0.202929 -1.549465 -0.383289 -0.225969 -0.057596 -0.585030 -1.621812 0.540282 -0.708940 -0.037229 0.695637 -0.241389 -1.615651 -0.313698 0.759359 -0.389487 -0.910631 -0.641709 -0.596710 -0.292834 0.163732 0.571466 1.047166 -0.727687 -0.790205 -0.111624 -0.849141 -0.275992 0.628309 -0.774691 -0.009602 -0.293092 -1.851660 1.142121 0.203871 0.505658 0.920200 -0.176268 1.110418 0.570716 -0.632721 -0.257826 -0.479730 0.437276 0.046248 0.872146 -2.208862 -0.228194 -1.360750 0.682446 -1.578622
AF371526.1.1384 -0.730785 -0.228527 0.678175 -0.836484 0.275496 0.529769 -0.182968 0.207611 0.133519 -0.593886 0.311839 -0.186983 -0.548229 0.294693 -0.228973 -0.156492 -1.344833 -0.019530 0.383983 0.071197 0.459802 -1.244603 0.188638 -0.155511 0.080971 0.643375 -0.374871 -0.065576 -0.378066 -0.561667 -0.132411 -0.638277 0.522459 0.391005 0.465009 -0.319910 0.227263 0.007311 0.051091 0.094494 0.533158 0.722129 -0.039404 0.553608 1.084090 -0.200306 -0.374479 -0.474011 -0.138211 -0.374646 -0.392555 0.224692 -0.010898 -0.474318 -0.032148 -0.232125 -0.324760 -0.669706 0.944929 0.643601 0.073086 -0.670438 0.159666 0.012290 -0.634663 0.394403 0.298872 -0.277715 -0.229443 -0.739284 0.658312 -0.143881 -0.235503 0.271908 1.114523 -0.688927 1.056269 0.346156 -0.409424 -0.054523 0.323879 0.009713 0.240178 0.217325 0.254604 0.214217 0.103407 0.093751 -0.808489 0.069430 0.757105 0.649151 -0.274380 0.266803 -0.491750 0.240379 0.906345 -0.714068 0.405088 -0.030526
AF371633.1.1455 0.278888 -0.018151 0.086878 0.670122 0.398434 -0.655210 -0.596246 1.859820 0.240512 -0.033772 -0.235074 0.024105 -0.580183 0.788054 -0.162100 -0.877386 0.461296 -0.349037 0.981510 1.116183 -0.858505 0.051493 -0.144961 0.267470 0.089634 -2.098128 -0.512927 0.620469 -0.379584 1.222373 1.045489 -0.290934 0.442458 -0.214723 -0.857330 -0.688638 -0.178641 0.620661 -0.245101 -0.444750 0.583623 0.439160 -0.317347 0.352689 0.976756 0.036277 -1.051084 -0.995743 -0.971220 0.605163 -0.690621 -0.408053 0.333550 -0.716281 -0.340521 0.079719 -0.240123 -0.735418 -0.777681 -0.367366 -0.417291 -0.447059 0.660774 1.037840 1.289504 -0.015842 0.538137 0.374340 -0.216498 -0.698903 -0.417366 -0.231967 -0.179686 0.309865 -0.263983 1.277761 0.487240 -0.765053 0.050511 0.592618 0.101960 -0.688628 0.037152 -1.120138 0.588660 0.423048 0.060813 0.447902 0.815215 -0.131069 -0.165634 1.055907 0.203651 -0.513220 0.567971 0.830528 0.337388 -0.902553 -0.135401 -0.267604
AF371634.1.1454 0.953859 -1.252002 0.983880 0.116773 0.328826 -0.455631 -0.181410 0.050997 -1.072071 -0.163359 -0.196892 -1.036318 -1.265879 0.079022 0.066819 0.264564 0.950643 -0.349239 0.194604 -0.841595 -0.755587 -1.199033 -0.850552 1.022706 -1.515214 -0.263658 0.262732 -1.302072 -0.127883 -0.934018 0.538817 0.426094 -0.881881 0.140162 -0.530088 0.587635 0.345932 0.132200 -0.771911 0.588579 0.110806 -0.157156 -0.284103 -0.888854 0.329682 -0.369688 0.249439 -0.301776 -1.112696 1.275530 0.252062 -0.597178 -0.531474 0.946474 -0.127979 -0.437299 -1.395468 -0.509687 -0.232725 -0.844337 -0.878189 -1.756430 0.075998 0.857470 -0.504882 0.712393 -0.571971 0.483014 -1.186984 0.603045 -0.014930 0.040694 1.379383 0.580177 0.698405 -0.962048 -0.043770 -2.241955 -0.967237 0.636840 1.042865 -0.724208 -0.158229 -1.104687 0.795730 0.625446 -0.899687 -0.171586 -0.484603 -0.297201 0.708587 1.802835 0.958457 1.336895 0.294813 0.131443 1.644898 -1.094871 1.422386 -0.773910
AF371637.1.1465 0.204513 0.872907 -0.922877 0.411419 -1.772380 1.064856 -1.385117 -1.082547 -0.277465 0.388350 -1.911035 -0.012665 -0.337005 -0.628407 -0.123173 -1.572603 1.826979 -0.326116 0.156144 0.799086 1.616950 0.191872 0.397465 0.034186 -0.277247 -1.070431 1.031901 1.726925 1.318853 1.205631 -0.567472 -1.453111 -1.717230 -1.480024 -1.608352 2.099059 1.911812 -1.139891 -0.704440 0.024700 2.439778 0.495790 -0.978410 0.365193 0.191512 0.092837 0.641947 -0.106209 0.232088 0.171765 -0.996791 -0.632527 -0.466597 -1.655096 0.667200 -0.786273 -0.178519 -0.534010 0.091253 -0.974834 -1.325954 0.448983 0.865568 -0.450742 1.483681 -0.794139 0.047549 0.480058 0.892894 -0.092555 0.739180 -1.844088 -0.379701 -0.618497 -0.788379 -0.497714 -0.382865 0.369755 -0.135011 -1.673760 -1.681322 -1.499913 0.455304 -1.662720 -0.136733 1.157771 0.799352 -0.649602 -1.752097 0.422666 -0.116115 0.555843 0.365411 0.356679 0.915004 -2.950256 -0.560850 -1.341790 2.171396 -0.788387
AF371660.1.1453 0.203357 -0.178361 -0.458999 -1.025822 -0.086235 0.572479 0.330641 -0.970580 -0.164069 -0.752167 0.965942 0.316719 -0.180496 -0.243478 0.385502 -0.685041 -0.690317 -0.273155 1.649174 0.035223 -0.395267 0.020870 0.008867 -0.261944 -0.729418 -1.081088 0.004988 -0.415970 0.824762 0.535623 -0.672732 -0.731557 0.541763 -0.622605 0.289961 0.528049 -0.446743 0.035765 -0.673179 -0.066797 0.187342 -0.139431 0.058698 0.837402 0.043940 -0.066747 0.144166 -0.421302 0.390815 0.045496 0.778907 0.426979 0.432764 -1.527869 0.133823 -0.785607 -0.501029 0.478627 0.360238 -0.236713 -0.965817 0.257075 -0.303886 0.028336 0.414879 0.160844 0.954285 0.501339 -0.409128 -0.352393 -0.304774 -0.147642 -0.037671 0.706898 -1.004436 -0.944432 0.862368 -0.222289 0.961239 0.011542 -1.689867 -1.224505 1.000767 0.292748 0.292704 -0.668229 -0.017700 0.232209 -0.774376 0.625634 -0.287836 0.582463 1.099429 0.299344 0.164485 -0.518786 -0.060123 -0.347513 0.833056 0.232440
AF371714.1.1434 -0.039401 -0.031023 -0.450695 -0.650043 1.094261 -0.385334 0.264329 1.542878 -2.392599 0.111209 -0.683691 -0.134270 1.694930 1.317505 0.785590 -0.027332 -1.348618 -0.050528 0.211431 0.606203 -0.350081 0.333139 -1.507368 -0.795073 0.585623 -0.618779 0.204505 0.183716 0.140586 0.851120 2.038452 -0.962663 1.157789 -0.223096 0.233624 0.162814 -0.267427 -0.024460 -0.684621 0.278925 0.159189 -1.178742 1.162547 1.343023 0.819979 -0.245120 -0.384368 -0.670449 0.780287 -0.564690 -0.906116 0.574442 -0.102849 1.344051 -0.449666 1.585306 -1.364083 1.135935 1.436930 0.460663 1.538647 -0.329631 -0.640357 -0.340450 -1.280312 0.045445 0.974230 -0.636137 -0.486389 -0.632210 0.427073 -0.876617 0.928266 0.339813 1.055752 -1.309768 -0.861912 0.854538 0.925951 -0.701871 -0.975450 0.496939 -0.297540 0.541588 -0.223923 -0.078431 1.055697 1.380424 -0.100720 -0.063426 0.029166 0.266282 0.288546 -0.360714 -0.326534 -1.660020 0.436062 0.886181 -0.813851 -0.159354
AF371744.1.1240 0.571546 -0.725058 0.225047 0.254058 -0.828786 0.975901 -0.109808 0.086035 -0.533342 -0.145254 0.676423 0.978973 -0.278077 -0.792158 -0.982494 0.030219 -0.726842 0.593633 1.360492 0.354801 0.396073 0.708065 -0.679389 -0.309019 -0.593045 -0.717498 0.177817 -0.206504 -0.508939 1.098826 -0.234992 -0.505440 -0.847499 -0.943892 0.295784 -1.596399 -0.252605 0.881732 -0.099470 0.990002 0.177415 -0.110621 -0.105019 0.987460 1.059747 0.316252 0.454312 0.046185 -0.386357 1.736342 0.084222 -0.390148 -1.127503 0.345389 -0.372587 -0.677407 -1.358577 -0.598489 0.584534 0.432094 -0.915526 1.151929 1.345308 0.098140 0.047217 -0.280882 -0.920517 1.350173 0.585898 -0.585016 0.154664 -0.045092 -0.954285 0.580488 -0.530555 0.277058 -0.919430 -0.892409 0.615645 -0.096838 -1.104717 0.088818 1.133090 1.691692 1.505505 0.738380 0.714811 -0.552509 -0.333221 -0.780343 -0.635097 -0.392897 1.521237 -0.172297 0.369360 -0.414277 1.210361 -0.340940 1.153936 -0.240357
AF371746.1.1412 -0.222513 -0.169354 0.461621 0.531246 -0.246844 -0.462154 0.333730 -0.946789 0.170088 -0.379741 -1.930470 -1.053312 -0.559003 -1.151803 -0.127174 -0.192253 0.349086 0.668241 1.088442 -0.608381 0.001322 0.891359 0.571014 -0.410976 -0.385555 -1.616772 0.397167 -1.206139 0.651324 1.225492 0.009105 -0.521183 -0.915890 -0.847020 1.506836 -0.465749 0.360716 -0.016178 -0.924675 0.320950 -0.475261 0.257603 0.533089 -0.826443 1.623954 0.944010 0.298240 -1.279286 -1.021022 1.171233 1.064045 1.397779 0.250094 -1.031623 1.589825 -2.511607 0.292110 -0.186830 -0.551850 -0.279671 -0.178891 0.611051 -1.355991 1.700146 -0.183271 0.152235 -1.199603 0.944305 -1.383599 -0.117818 0.219292 -0.455426 -0.276206 1.526125 -0.834562 0.310538 -0.106486 -0.576777 -0.153711 0.556206 -0.690677 -0.636808 0.982976 -0.351182 -1.201665 -1.169408 -0.188277 -0.022035 -0.408164 1.190275 1.338530 1.019992 0.310931 -0.316163 1.549103 -0.670414 1.162753 -0.228735 -0.299767 -1.141840
AF371758.1.1352 0.569658 0.285466 -0.139483 -1.240408 -0.922551 1.006120 -0.721997 0.599963 -0.104896 -0.055890 0.245350 -1.070658 -0.281796 1.142273 -0.315446 -0.171168 -0.288121 -1.591987 0.294292 0.424328 -1.101798 0.325195 0.758680 -0.481745 0.017663 -0.329538 -0.191568 0.232177 0.870311 0.053983 -0.090994 -0.580177 -0.082945 -0.578601 0.512538 0.662689 0.389760 -0.919181 -0.508453 -0.371162 0.852121 1.048437 -0.132190 -0.085737 0.384882 0.826545 0.055798 -0.128532 -0.306014 0.905485 -1.295165 1.038548 -0.094427 0.204451 -0.812281 0.401679 -0.188477 0.048372 1.575762 0.511987 -1.231063 0.115749 0.933447 -0.467404 0.439336 0.469222 -0.697635 0.093203 0.157319 -1.236052 -0.995799 0.637247 -0.602253 -0.599676 -1.294902 0.151826 0.252609 -0.427906 -0.571237 0.386738 0.581106 0.466506 -0.499465 0.607001 -0.176138 -0.434632 -0.307323 -0.728339 -1.084499 -0.325450 0.046406 1.187774 0.356177 1.127581 -0.080067 0.109556 1.247642 -2.153222 1.337261 -0.736152
AF371803.1.1457 0.851640 -0.228379 0.572787 -0.670857 0.214567 0.410797 -0.458915 -0.072760 -0.771259 -0.162360 -0.085314 0.545085 -0.098298 0.074301 -0.199262 -0.355180 -0.678887 0.012812 1.062530 -0.247259 -0.105551 -0.020900 0.306358 0.027066 -1.222767 -0.576269 -0.058091 -0.533333 0.216873 0.370492 -0.324051 0.061053 0.642274 0.029019 -0.134364 0.018687 -0.562640 0.352200 -0.279332 0.145117 0.452828 0.296598 0.418486 0.790930 0.393669 0.983282 -0.900534 -0.597149 -0.130515 0.224380 -0.123990 -0.060593 0.013317 -0.748783 0.320374 -0.285321 -1.380807 -0.058381 0.324502 -0.480120 -0.969404 -0.108087 0.104871 -0.290622 -0.347170 -0.344804 0.295538 0.033714 -0.618918 1.255118 -0.735269 -0.037222 0.108590 0.526615 -1.567905 -0.563112 0.489734 -0.430011 0.443656 -0.245823 -1.919532 -0.780338 1.161304 -1.329742 0.146105 0.242054 -0.915041 0.236648 -0.915227 0.882022 0.093423 0.353956 0.415823 0.619839 0.222427 0.099611 -0.102522 -0.919490 1.198816 0.043182
AF371806.1.1454 0.363440 0.017869 -0.754866 -1.093092 -0.482311 0.246626 0.114681 0.109125 -0.961304 0.230350 0.385106 -0.859707 0.189125 -0.190698 0.440646 -0.902025 0.178094 0.748820 1.376984 -0.422687 -0.318387 0.005861 -0.803920 -0.484393 -0.006095 -0.984813 0.423377 0.523972 -0.017602 0.338769 -0.084338 0.145488 0.514665 0.036395 1.200710 -0.054794 -0.604587 -0.364528 -0.809479 0.177003 -0.313590 0.142543 0.611066 0.255778 0.073187 -0.302274 -0.107473 0.513075 -0.300538 0.437929 -0.331215 0.082771 -0.249011 -0.053814 0.172987 -0.951785 -0.483262 0.504930 0.047421 -0.577719 -0.339035 0.377115 -0.027839 0.433094 0.321619 0.113272 -0.225123 -0.291036 1.552814 0.376435 0.173915 0.247237 0.452635 0.421965 -0.514605 -1.552731 0.430168 0.111005 -0.351278 0.266595 -0.562100 -0.625551 1.268355 0.476819 -0.129465 -0.050227 -0.000047 0.001847 0.212936 0.834568 0.585837 0.815700 0.809430 1.005115 0.652805 -0.335066 0.417147 -1.455393 0.596844 -0.028104
AF371831.1.1421 -1.164674 -1.526711 -0.345650 -0.711249 -0.118939 1.124453 0.584716 -0.200294 0.650384 0.105997 0.647112 -0.063907 0.343896 0.144128 -0.422334 -1.165857 -0.493646 -0.562800 0.902234 -0.180934 1.177167 -0.938765 -0.901055 -0.742373 0.810661 -2.055588 -0.154507 0.238869 -0.326333 -0.796111 0.401602 -0.816677 -1.109226 0.904842 0.227098 0.100285 -1.207790 0.584628 -1.336677 1.115615 -0.983853 -0.381115 -0.616707 -0.378732 0.886676 0.561628 0.302675 0.589472 -0.912123 -0.026052 -0.397704 -0.728132 0.413299 -0.889217 -1.427836 0.197239 -0.643127 -0.353242 -0.378251 0.052912 -0.605444 -0.159757 -0.337473 1.267609 0.708240 -0.368567 0.170077 -0.077847 -0.675814 0.623339 -0.512776 -0.347970 0.609099 -0.005021 0.302241 -0.700235 -0.094681 -1.866076 0.505435 -0.538163 0.408733 -1.370452 0.422866 0.145533 -0.710809 2.033064 -0.745235 0.343321 1.223521 0.325052 1.692633 1.744157 0.500537 1.645736 0.549408 -2.044597 0.199225 0.036935 0.718804 0.309001
AF371871.1.1476 -0.299106 0.840516 0.530024 -0.362846 -0.339766 -0.120286 0.262313 0.385525 -0.366704 1.018111 0.413048 0.825312 0.007704 0.313595 -0.770460 -0.420285 0.157987 0.411611 0.405557 0.073877 -1.094006 0.031330 0.800927 0.352806 0.258243 -2.179353 -0.247971 -0.600287 -0.320823 -0.495737 0.990177 -1.276336 0.282670 -0.229967 0.277691 0.291716 -0.191743 0.384574 -0.114498 -1.128856 -0.180930 0.300673 -0.130476 1.368499 -0.431151 1.084320 0.520974 -2.364142 0.592969 0.432162 0.371562 -0.682059 0.297453 -0.073426 0.484742 -0.269236 0.243725 0.405762 0.102887 -0.181800 -1.701566 -0.666745 -0.574352 0.435019 -0.287961 0.313150 -0.806828 0.398900 -0.144732 0.585359 -0.775328 0.856838 0.830168 1.201765 0.124969 0.383463 0.385371 0.515042 0.072190 0.513733 -0.036811 0.124436 0.282092 0.372952 -0.477654 0.031450 0.664003 -0.819428 1.326156 0.901719 0.043679 0.169142 0.085629 -0.611629 -0.255466 -0.568219 0.703850 0.508795 0.726373 -0.987606
AF371894.1.1455 0.709342 -0.471003 0.437407 -2.285023 0.650390 -1.086090 -0.781263 -0.040119 -1.406814 0.250448 -0.998217 0.248175 -1.674195 -0.686695 0.770333 -0.310198 -0.386327 -0.936485 0.413704 0.110010 -0.441244 -1.681757 0.074418 -0.631445 -0.498569 -1.903435 0.136489 -0.614286 0.250597 -0.412954 0.854073 -0.390119 0.009198 0.610507 -0.608725 -0.347509 -0.853195 -1.669997 0.196258 -0.846395 1.169746 -0.527065 -0.660457 -0.397102 -0.431809 -1.601841 0.430009 -0.340870 -0.540056 -0.277824 0.095827 0.225601 -0.385855 -0.092884 -0.752749 -1.486129 -1.022133 -1.000709 0.488673 -0.173165 -0.694163 -0.313296 -0.742812 -0.347219 -1.602896 1.327020 -0.928846 -0.167847 0.133259 -1.019699 1.102462 0.600822 0.267469 1.024836 0.678853 -2.065404 0.601638 -0.074744 -1.004182 0.660387 -1.560779 -1.318079 -0.605834 0.462177 0.309632 0.795429 0.287293 -1.277281 1.614956 1.710260 1.215335 1.125649 0.628805 -0.500563 0.451806 -1.018494 1.071943 0.023857 -1.193653 -0.053712
AF371943.1.1444 0.876128 0.309976 0.518687 -0.373793 -0.368850 -0.558682 -1.294647 0.509510 -1.101095 1.489412 0.127483 0.036223 -0.072791 0.410815 -0.293723 0.259523 0.180827 0.001097 -0.906069 -1.364674 -1.010971 0.183699 -0.284163 1.227635 -0.399572 -1.081414 0.603789 0.124383 -0.059502 0.980479 0.345018 0.404705 0.657085 -0.522060 -0.522667 0.231298 0.156213 -0.694385 0.406260 0.707481 -0.152527 0.288713 0.456583 0.071961 0.533296 -0.266084 -0.349983 -0.900046 -0.042675 -0.228274 -1.485319 -0.787911 -0.770560 -1.076200 0.044723 -1.063498 -0.035308 0.363046 1.067847 0.801160 -0.800789 -0.632615 -0.459680 0.551672 -0.395575 0.027307 -0.639719 1.203238 -0.401649 0.139648 -0.628247 0.190333 -0.646330 -0.620180 -0.143043 -0.745429 -0.429725 -1.045857 -0.384951 1.094756 0.618599 -0.685609 -0.393226 -2.881060 -0.755858 0.637187 0.944816 -0.221221 -0.343762 0.463065 1.082046 1.362872 1.414986 0.501089 1.524269 -0.904472 1.060029 -0.789608 0.108094 -0.362530
AF372092.1.1341 0.121266 0.600885 0.385320 -0.097456 -0.469882 0.805757 0.109822 -0.052092 -0.488134 0.034928 -0.651458 -0.508819 -0.435062 -1.119573 -0.730041 -0.377542 0.796152 -0.372160 0.208225 -0.017648 -0.139176 -0.529173 -0.096717 -0.462865 -0.334390 -1.601246 0.221850 -0.112774 0.189502 0.389927 0.636871 -0.190566 0.448597 0.772578 0.360032 0.333599 -1.177934 0.242244 -0.389758 0.338882 -0.467027 -0.532137 0.396936 -0.595737 0.961405 0.062944 0.345850 -0.120230 -0.764599 0.874696 0.442519 -0.293549 -0.397586 -0.287136 -0.182817 -0.362246 -0.393599 -0.292107 -0.644359 0.058342 -0.198856 -1.014459 -0.011808 0.821447 -0.831092 0.078839 0.376445 -0.753020 0.099100 0.503484 0.108292 -0.096116 -0.201405 0.401322 -0.066152 -0.805582 -0.426128 -0.856998 -0.126042 1.388559 -0.950565 -1.036110 0.224744 -0.848679 0.725851 -0.256256 -0.561845 -0.652705 0.649141 1.388129 -0.245301 0.772296 1.330073 0.995885 0.788529 -0.748494 1.280295 -0.861567 -0.214736 0.530372
AF376229.1.1349 -0.271389 -0.936232 0.409951 -0.189854 -0.009247 0.229079 0.536154 -1.414744 0.086638 0.099902 -0.877098 0.519231 0.621547 0.968311 -0.653727 -0.667621 1.039383 -0.398022 0.579907 0.392528 -0.226213 -0.144010 0.668684 -0.088470 -1.458077 -1.807744 -0.109054 0.931861 0.030127 0.032250 -0.162142 0.992312 -0.902716 0.828912 -0.532287 0.123535 -1.265116 0.275143 -0.139159 -0.647654 -0.599982 -0.894266 -0.429977 -0.378826 -1.202180 0.067483 0.207304 0.845671 0.711584 -0.386347 -0.858180 -0.329004 -0.573272 -1.753911 0.137181 0.500917 0.414674 0.338851 0.032056 -0.739800 1.294587 -0.110589 1.277610 0.672760 -0.469112 -0.398255 0.115037 0.400931 -0.071801 0.464376 -0.925883 -1.159049 0.404118 -0.377377 0.851031 -0.726530 0.647377 -0.483433 0.463105 -0.766935 0.042382 -1.141786 -0.164573 -0.082095 0.865900 0.320028 0.141768 0.010662 -0.219443 -0.719135 -1.509431 2.042623 -0.797379 0.460955 -0.338697 0.176959 0.149645 -0.209433 0.094354 0.419045
AF432138.1.1487 0.593530 -0.144263 -0.531883 -0.437580 -0.518831 0.290680 -0.083352 -0.442096 -0.134666 -0.185002 -0.501777 0.323723 0.920597 -0.382877 -0.425417 -0.396515 0.995143 -0.277779 0.942938 -0.605856 0.717311 -0.403560 -0.764669 0.854495 -0.303804 0.018809 0.627039 -0.077741 0.037630 1.010840 0.186052 0.072866 -0.385573 0.734043 -0.009259 0.396712 0.041935 -0.221523 -0.081539 0.911745 0.640433 0.063385 0.225355 -1.043192 0.531239 -0.578232 -0.403085 -0.191800 0.439945 -0.467490 -0.251851 0.023550 0.683242 0.559529 0.006328 -0.814469 -0.540992 -0.366901 0.396179 0.102771 -0.163781 0.230564 0.109696 -0.311771 -0.717984 -0.491988 -0.083673 0.495148 1.187815 0.023734 -0.117811 0.256608 0.256054 -0.228752 -1.034517 -0.235416 -0.397093 -0.369132 0.341094 0.099153 -0.822390 0.402203 -0.018873 0.441293 -0.748185 0.458365 -0.220677 -0.504874 0.288603 0.776584 0.605067 0.044435 -0.677362 1.254268 0.613767 0.715792 0.334348 0.192171 -0.624746 0.046895
AF499899.1.1248 0.328353 0.658213 -0.275002 0.011506 0.507993 0.141703 0.441670 0.302476 -0.319937 -0.175785 0.041463 -0.186639 -0.015700 0.085649 -0.749999 0.758432 -0.061012 -0.276367 -0.013368 -0.719919 -0.532241 0.419482 0.503082 -0.214156 0.406654 0.604976 0.117308 0.548563 -0.597926 -0.078782 0.675635 0.312223 -0.341894 -0.000696 -0.656438 -0.499365 -0.463475 -0.239903 -0.130985 -0.074775 0.061435 0.501938 -0.004758 -0.520898 -0.417260 0.336540 -0.341168 -0.404773 0.490894 0.291783 0.098842 -0.594102 -0.359650 -0.152884 0.700465 -0.506269 0.810616 -1.091379 0.357851 -0.395171 -0.032811 0.181392 -0.244618 0.343016 -0.271306 -0.586499 0.442798 -0.453598 -0.457350 -0.027042 -0.218987 -0.702995 0.378595 -0.075421 0.244079 -0.431943 -0.547270 -1.454319 0.606511 -0.079102 -0.821887 -0.109523 -0.210104 0.118896 -0.003604 -0.253268 -0.317851 0.412289 -0.648822 -0.113888 0.781256 1.187451 -0.309627 0.159055 0.112392 0.023506 -0.375619 0.815372 0.774401 0.040965
AFRD01000591.5123.7037 0.760565 -0.139879 -0.584504 0.680195 -1.037729 1.698090 0.878577 0.549199 0.021644 -0.912027 -0.628019 -0.240270 0.729685 0.172738 0.051101 -1.330347 0.985204 0.929605 0.700644 1.169288 0.866816 -0.063279 0.150410 -0.254478 -1.293280 -2.676156 1.029067 0.513928 -0.282024 1.344160 0.480782 -0.031120 -1.933451 1.065028 0.306023 0.662956 -0.479922 0.643095 0.893143 -0.126258 -0.501797 -0.696950 1.404969 0.308148 1.472821 0.128296 -0.614761 -0.735503 -1.061474 0.465290 0.850916 0.246636 -0.714980 0.490851 0.196967 -0.307656 -0.221366 0.440936 -0.376094 0.024763 0.030776 -0.874531 -1.048403 0.585233 0.844365 0.641131 0.091787 0.592421 0.336199 0.393886 -0.445381 -0.452763 -0.979370 0.811885 -1.258308 -1.006379 0.253194 -1.620221 -0.941653 0.196358 -1.558000 -0.742336 0.746357 0.496831 -0.081276 -0.367067 0.093662 0.066733 1.145256 1.229216 0.305271 0.128202 -0.474504 -1.065210 1.263846 0.633768 -0.625730 -0.767823 -0.087773 -0.333273
AGEJ01000013.153803.155242 0.829018 -0.048822 -0.903834 -0.143860 -0.311777 0.150388 -0.718340 0.439046 -1.387256 -0.379153 0.017642 0.183046 0.627324 0.012476 -0.195701 0.155524 1.133361 -0.847996 -0.052781 0.901482 0.902613 -0.449782 -0.582545 -0.636046 -0.260029 -0.562787 -0.461109 0.914966 0.449573 0.013720 0.984156 -0.052863 0.402294 -0.115563 0.325950 0.310713 -2.024380 0.614037 0.840370 -0.687278 0.198661 -0.499313 0.167171 0.654089 0.946439 0.124258 -0.792609 -0.088234 -0.222232 -0.121834 0.373832 -0.179864 0.508500 -1.230684 0.211730 0.666143 0.048360 -0.431574 0.270846 0.892754 -0.280747 1.688116 -0.473815 0.548062 -0.497527 0.392303 1.050549 -1.486156 -0.475306 -0.906833 -0.370161 -1.904148 0.054086 0.236515 -0.934402 -0.485166 -0.076175 -1.131021 -0.116022 0.167269 -0.930501 0.459679 0.876503 -0.418710 -1.308098 0.574796 0.594205 0.073077 -0.996579 -0.493107 0.274647 2.786422 0.897647 -0.181357 -0.011379 0.382160 -0.723139 0.689364 0.495571 0.688110
AJ243791.1.1423 0.099034 1.192946 -0.704908 -0.461518 -0.131990 0.187622 -1.580503 -0.336427 0.583788 0.543917 -0.115661 0.119773 0.255853 -1.281493 0.935689 -0.464674 0.351031 -0.007276 -0.167860 -1.117687 -0.266105 -0.534561 0.375093 0.432439 0.442583 0.537844 0.288690 -0.361058 0.515667 -0.567012 0.961126 -0.887775 1.323809 0.616174 -0.111920 0.096859 -0.711846 -0.112538 -0.254447 -0.674484 0.008005 -0.745410 0.475984 -0.665741 0.978953 -0.881412 0.046542 -0.368876 0.623515 -0.322676 -2.176371 0.944676 0.711280 0.390423 -1.400439 -0.563414 0.682614 -0.429701 -0.091404 0.128346 0.289904 -1.158110 -1.278902 0.039884 -0.229993 -0.239019 -0.594200 0.539059 -0.636928 -0.843757 0.260484 -0.452159 0.050664 1.009378 -0.498877 -1.773576 -0.028901 -2.980724 -1.589259 0.228362 0.376142 -1.022804 1.370053 -1.371038 -1.824795 -1.350375 0.892148 0.410122 -0.573024 -0.461287 0.595506 -0.297907 1.736812 -0.584421 0.586839 0.689162 -0.984012 -0.969634 -0.267025 0.189969
AJ249859.1.1350 0.235974 1.037722 0.239775 0.078853 0.339797 0.714119 -1.075505 0.594739 -1.178260 0.320214 0.719192 -0.256656 0.279503 -0.361326 0.051895 -0.748638 0.535383 0.248910 0.595686 0.098214 -1.891972 0.231660 0.263140 0.517263 0.245958 -0.479887 0.643823 -0.784784 1.201766 0.175723 1.386824 -1.298729 0.392457 0.744970 0.665641 0.986630 0.500445 0.098851 -0.108564 -0.846101 -0.086501 0.678166 -0.593464 -0.538282 0.389423 -0.732634 0.847907 -1.255112 -0.305793 0.031697 -0.597170 -0.531020 -0.848947 -0.162827 0.748790 -0.624618 -0.496093 1.076271 -0.256839 -0.112206 -1.140909 -0.834154 -0.937628 -0.122996 0.175432 -0.170724 -0.733724 -0.723384 0.809371 -0.055115 -0.600157 0.565218 -0.404617 -0.095167 -0.165211 0.663529 -0.569338 0.181601 -0.951366 0.979109 0.443008 -0.780053 -1.493286 -1.094418 0.009670 0.537918 -0.652888 -1.245441 1.525669 0.437642 1.088456 0.239275 -1.485740 -0.179692 1.884887 -0.336715 0.795748 -0.807531 0.347312 0.307734
AJ270486.1.1241 1.090361 -0.119267 -1.001222 0.515616 -1.612773 -0.988535 -1.365614 -0.499976 -1.718279 0.349151 -1.311809 0.650815 -0.226772 0.503030 -1.174665 0.269436 0.288877 -1.279953 1.020818 -0.192602 0.436168 0.470849 -0.346118 -0.894977 0.743275 -1.011586 0.754534 1.259982 0.334230 -0.274731 -0.406589 -1.537918 0.011324 0.963868 -0.032941 0.467230 -1.347426 -0.923036 -0.969363 -0.508171 -0.388106 -0.282659 1.344866 0.637405 1.094894 0.061906 -0.220402 -0.716287 -1.212314 -0.099641 -0.574026 0.038144 0.235916 0.553535 -0.618187 -0.452619 -1.520983 0.306200 0.751667 0.588335 0.056539 0.906749 0.301883 0.004782 0.081857 0.253326 -0.009981 -0.254451 -0.549642 -0.877011 -0.136206 0.664207 -0.533834 -0.162356 -0.879422 -1.427311 0.136499 -0.766942 -0.089453 -1.187642 -1.028877 -1.214586 0.247179 -0.436183 -1.384627 0.816820 0.078201 -0.129022 0.169909 1.708475 -0.066972 0.159258 0.830541 0.030488 0.759071 -0.041551 0.848883 -0.306272 0.554099 -0.457036
AJ271894.1.1448 -0.101191 0.514502 -0.620619 0.916051 -0.785109 -0.210626 -0.374320 1.826219 0.253164 0.741892 0.882253 -1.009649 -1.464751 -0.574091 0.823714 -0.303527 -0.155122 0.411320 0.570507 0.075038 0.985028 1.227833 0.223748 0.308809 -0.749255 -1.755872 0.380902 0.555191 -0.167795 2.037751 0.619950 -2.224827 -1.208765 -0.465578 0.659003 0.538235 -1.089580 -0.400439 -0.093247 1.149848 -0.066957 -0.795640 -0.109440 -0.852416 0.565668 1.109934 -1.047992 -0.032626 -0.919639 0.158471 -1.046843 0.313778 0.679802 -1.959767 -0.216831 -0.029192 0.226632 -0.902782 -0.660682 -0.051972 -1.241992 -0.476068 0.048316 0.366574 -1.059575 0.558464 0.096179 0.330897 0.836444 -0.078107 0.522966 0.463662 -0.512572 -1.042949 0.320148 -1.234556 1.434218 -0.994863 0.187450 -1.637021 -0.456617 -2.312964 0.805904 -0.259283 0.195668 0.325758 -0.089420 -0.603245 -0.624544 -0.273068 0.316834 0.442198 0.879369 1.279158 -0.430242 -0.865433 1.299351 -0.412001 1.556289 1.580712
