AB218288.1.1449 -0.003103 0.423786 -0.263350 1.162726 1.700469 -0.253901 -1.391186 1.083722 -1.368548 0.739105 0.555366 0.604764 -0.869054 0.097094 -1.198747 1.544641 -0.740628 0.288692 -0.041080 -0.277458 -0.290995 1.455216 -0.404091 2.168242 1.518375 -0.025883 -0.162871 -0.105073 1.013980 -0.569411 -1.539345 -1.200204 -0.597461 0.458964 -0.446476 -1.434857 -0.009525 0.146324 0.062342 -1.884415 0.782964 -2.018626 -0.261068 -0.660560 -0.127170 -1.102809 0.115569 0.779201 0.624790 0.409779 -0.863785 -0.007030 1.752307 -0.041530 -0.193575 0.098398 -0.307945 -0.081031 -0.250207 -0.202223 -0.105551 0.747054 -1.341340 -0.786675 -0.014856 -0.486387 -0.288479 -0.785843 -1.553199 -0.958403 0.704474 0.439111 0.732726 0.127739 -0.725922 0.351054 -0.163552 0.127804 -1.151973 0.694673 -0.285294 0.393783 1.035230 -1.164757 0.587730 0.453849 0.206299 0.643310 0.513738 1.046782 -0.056828 1.750861 0.113596 -1.212499 0.983807 0.689060 0.345974 0.219114 0.844640 0.485189
AB218300.1.1457 -0.837864 0.002129 -0.135021 0.361133 -0.439437 1.022087 -0.240640 0.084599 1.040742 0.163212 -0.627376 0.218768 -0.945198 1.561952 0.227512 -0.283248 1.151141 1.089514 0.980544 -1.748535 0.131034 0.512715 -0.601997 -0.519537 -0.204836 0.175881 0.095938 -0.109213 -0.019916 -0.337398 -0.534991 -1.971742 0.786333 0.027439 0.616392 0.668527 -1.042778 -0.886140 -1.078905 0.457182 1.145614 -0.032910 0.132697 -0.278560 0.978122 0.862964 1.129712 -0.047767 -0.703815 -0.583234 0.011448 -1.230630 -1.455334 -1.398701 1.372101 -0.555315 1.276738 1.173688 0.798548 -0.887718 -1.055732 1.460822 0.189469 -0.508118 -0.255450 1.278812 0.307981 0.725720 -0.262523 -1.471661 0.138916 -0.841730 -0.778206 -0.899210 0.376847 0.611348 -0.010749 -1.081681 -0.063341 -0.535451 0.231009 0.058577 -0.406513 -0.349985 -0.158329 -1.336922 1.231167 0.717882 -0.170395 0.498040 -1.037481 -0.573347 0.568220 -0.601079 -0.165239 2.141821 -0.894233 -0.086471 0.569389 -0.847415
AB218325.1.1438 0.458777 0.425726 0.158990 0.453627 0.394831 -0.012474 0.543756 0.754437 -1.126609 0.247007 -0.215169 0.144786 -0.512066 0.168094 0.527457 0.070831 0.878832 0.639489 -0.139784 -0.627024 -0.155488 0.205610 0.303679 -0.905656 -0.305390 -0.567703 0.014743 -0.989356 0.253139 0.277703 -0.762620 -0.366206 -0.201841 0.345559 -0.358321 0.067829 0.311656 -0.785084 -0.430787 -0.713872 -0.142457 -0.313300 0.461045 -0.019824 0.594615 0.036923 0.966398 -0.169172 0.578708 0.894481 0.335700 -0.177334 0.241505 0.628421 -0.160389 -0.316668 0.361730 0.940645 -0.203234 -0.015219 0.339331 0.577808 -0.602554 0.219839 0.269261 0.609089 -0.605358 -0.580687 0.034504 1.331349 -0.111003 -0.073986 -0.638063 0.350980 -0.002950 -0.156949 -0.181871 1.043236 0.812061 -0.003099 0.106458 0.437278 -0.097789 0.162189 0.229655 -0.267978 0.118219 0.595867 -0.040153 -0.466702 -0.600213 1.232318 -0.060017 0.192815 0.046559 -0.146279 0.114834 0.492965 -0.273910 -0.177223
AB234520.1.1316 -0.081760 -0.161082 -0.580443 -0.488124 -0.323833 0.372073 -0.675272 0.510126 0.043811 0.467478 0.760117 0.561084 0.249347 -0.494540 -0.233218 0.658747 0.493472 -0.490305 0.183560 1.471848 -0.720242 1.488882 0.428390 -0.635804 0.179199 0.336127 -0.752830 -0.577172 -0.408790 -0.138899 0.267211 -0.684791 -0.415527 0.184766 -0.377529 -0.194504 -0.561831 -0.072164 -0.501020 0.285440 -0.450975 -0.860937 0.941798 -0.169176 0.057080 0.420372 0.139736 1.699918 0.800108 -0.150262 -0.333070 0.244579 -0.183902 0.577719 0.554227 0.734103 0.998406 0.448215 -0.670004 0.596308 1.040873 0.541783 0.673494 0.107256 -0.403651 -0.098280 0.588894 0.781116 -0.778059 -0.621958 -1.006037 -0.404626 0.529882 -0.462113 0.778185 -0.510000 0.166020 1.329661 -0.421317 0.667096 0.603106 1.190500 0.003081 1.036321 1.222948 1.921443 -1.058578 -0.377590 0.602929 -0.219583 0.105907 0.209023 -1.192103 -0.437478 -1.971032 -0.670661 -0.423608 0.400952 -0.534484 0.257527
AB234525.1.1348 -0.021047 1.124289 0.112779 -0.011629 0.923051 -0.491659 -0.519937 -0.171173 -0.151327 0.636621 -0.839133 0.148151 -0.577147 -0.605394 -0.166235 -0.350874 0.772839 0.353770 0.002324 -0.185602 -0.629077 0.265475 -0.766178 0.042010 -0.042127 -0.038050 -0.003107 -0.773187 -0.162852 -0.384818 0.138581 -1.020317 0.014233 -0.026888 0.236027 -0.782125 0.210270 0.546830 0.127019 -0.222576 0.348995 -1.119175 -0.519311 -0.573518 0.206180 -0.251374 0.635298 -0.281648 0.477640 -0.323110 -0.087085 -0.648259 0.398026 -0.249160 -0.080495 0.645301 -0.753104 0.915078 0.126994 0.405305 -0.108100 0.464591 -0.089505 -0.137366 -0.137990 0.922971 0.516587 -0.100117 -0.481906 -0.149824 0.047494 -0.105389 -0.789667 0.034111 0.199665 -0.494420 -0.779351 -0.131332 0.437706 -0.582906 -0.755361 0.428215 0.160502 -0.143937 0.137895 -0.218127 0.342046 -0.385741 0.234413 -0.291352 -0.380392 0.368322 -0.878599 0.463120 0.201288 0.516648 0.104361 0.313677 0.436319 0.048246
AB267809.1.1461 -0.090757 0.490506 0.570183 -0.055129 0.819969 -0.180336 0.355286 -0.079286 -0.790775 -0.026102 -0.269979 0.451108 -0.458633 0.214496 0.539532 1.391985 1.341052 0.485189 0.800355 0.187841 -1.339144 0.567351 0.194488 -0.079628 -0.036192 -0.369117 0.709904 -0.331268 0.859880 0.005722 -0.509205 -0.357974 0.113924 -0.507752 0.573386 0.145254 0.067134 -0.320070 -0.220680 -0.695475 0.616518 -1.675493 -0.260348 0.829839 1.272835 0.073311 0.187395 -0.606184 -0.093298 -0.136823 0.349176 -0.587857 -1.861409 -0.544291 1.139631 -0.844985 -0.802442 0.681321 0.686230 -0.917591 -0.507321 0.656551 0.042830 0.633188 1.095300 1.299988 0.357823 0.106452 -0.086873 0.760712 0.625522 0.084206 -0.303659 -0.153619 -0.276097 -0.514672 0.382083 -1.804643 0.649826 -0.540328 0.377949 -0.389916 0.739704 -1.102114 -0.736465 -0.045586 1.027830 0.840606 0.171076 0.094614 -0.671074 -0.222639 0.194437 -0.564071 0.688852 0.530121 0.325342 -0.205394 0.517182 -0.766403
AB270083.1.1322 -1.449659 -0.921739 -0.982238 0.001232 0.045238 1.919848 0.378207 -0.928517 0.593051 0.283082 -0.043777 0.309711 0.465193 0.282210 -0.193565 -0.052890 -0.091887 0.391445 0.780478 -0.610565 -2.031918 0.734711 -0.205177 -0.052447 -1.235648 -0.424963 0.290157 0.494645 0.146319 0.542487 -0.763696 -1.282984 -0.467874 -0.703668 0.772270 0.613748 -1.211254 0.535518 -1.400755 0.229689 1.273371 -0.575087 1.569896 -1.592434 0.733153 0.032301 0.569921 0.085290 -0.400904 -0.319285 1.286648 -0.106104 0.703863 -0.191803 -0.098075 0.737684 1.340822 2.018757 -0.369580 -0.679746 -0.808143 0.898014 -0.071522 0.165157 0.300227 1.970308 1.238192 0.101704 1.492469 0.021729 0.215433 -0.446169 0.841527 0.828563 -0.726655 0.264823 -0.505316 0.229546 0.583100 -1.363940 0.126573 0.964545 0.237594 -0.831320 -0.570733 0.012805 0.671025 -0.345853 0.367164 -0.070767 1.322556 -0.496125 -1.227922 0.417324 0.823837 0.143284 0.099964 0.548014 -0.741814 -0.688610
AB272364.1.1268 0.108605 -1.257313 1.288268 0.259353 -0.195664 0.071859 1.360272 0.280333 -0.937538 0.285134 -0.089798 0.451837 0.436058 0.027531 -0.079858 -0.563222 0.695149 -0.129086 -0.463596 0.229113 -0.581257 -1.806575 -0.447561 -0.730166 -0.481721 -0.909094 -0.066379 -0.098435 0.427211 0.203916 -1.377157 0.203152 -0.002898 -0.633035 0.402458 -0.182141 -0.886954 0.099017 -0.292120 0.581538 0.514612 -0.569446 0.170171 0.310521 -1.395302 0.038570 0.572324 -0.475468 0.030251 0.005992 0.720782 0.281512 -0.614546 0.029727 0.461813 0.167130 1.005696 0.707487 -0.442741 0.313914 -0.100093 2.441716 -0.138839 1.278750 1.395603 1.446291 -0.880155 -0.121538 0.127656 -0.739788 1.599718 -0.951314 0.769462 0.207020 -0.016145 -0.586389 -1.149415 0.307312 1.321540 0.489000 0.259117 0.335403 -0.538805 0.882554 -1.919836 -1.012565 0.035915 0.715232 0.241500 -0.843510 -0.437611 0.356358 -0.098670 0.553734 -0.144998 -0.439246 -0.050540 0.241105 0.027282 -0.078945
AB294138.1.1215 -0.076064 0.381935 -0.283912 -0.504107 0.583312 -0.595996 0.014555 0.059134 -0.030216 0.292345 -0.746793 0.163172 -0.157850 -0.140032 -0.784110 -0.004087 0.477651 0.064438 0.627247 -0.238797 -0.868759 0.014117 -0.568041 0.034947 0.605742 -0.115962 -0.152772 -1.658805 -0.239395 -0.569144 -0.322854 -0.590496 -0.405804 -0.392680 0.086082 -0.436051 -0.342044 -0.075720 -0.598500 0.036582 0.200776 -0.724306 0.259271 -0.353380 0.028123 -0.187200 -0.154804 -0.309972 0.222135 -0.143297 0.019161 -0.272076 -0.129011 -0.300170 0.800581 0.059367 -0.192870 0.127183 -0.061791 0.286596 0.003649 0.684463 -0.472691 -0.049882 0.606040 1.104843 -0.107966 0.073149 -0.875429 -0.253906 0.319938 0.591165 -0.111775 -0.173908 -0.072296 0.241494 -0.124879 -0.070961 0.438572 -0.444510 0.089797 0.757681 -0.259976 -0.653592 0.297987 -0.422401 0.037725 0.316258 0.263484 -0.193136 -0.334765 0.722474 -0.359477 0.116396 -0.193210 -0.973267 -0.096315 -0.037864 0.402746 -0.095420
AB300988.1.1342 1.061259 -0.578156 0.073144 0.287616 -0.290134 0.086174 0.054176 0.108956 0.268416 0.336361 -0.017312 0.396530 1.316574 -0.444086 0.228546 -0.250383 0.506760 -0.610812 -0.143221 -0.751536 1.039648 0.136789 0.008046 1.008975 0.250188 -0.049051 -0.856402 0.724446 -0.710835 -0.165591 -0.096228 0.289794 0.441359 0.298283 0.057581 -0.236003 0.306784 0.635508 0.256012 0.669701 0.360902 -0.097692 0.078478 0.637243 0.373580 0.380941 -0.753740 0.445715 0.877219 -0.615868 0.067576 0.246180 0.257875 -0.117911 -0.283097 0.467540 0.353075 0.249660 0.643846 -0.111588 -0.424759 0.157133 -0.553700 -0.294122 0.783186 0.069619 -0.681539 -0.259188 -0.591306 -0.270125 0.528466 0.588328 0.805319 0.207913 -0.121402 -0.221410 0.337627 -0.220822 0.475611 0.326844 0.640528 -0.714325 0.495757 0.239692 -0.145900 -0.794271 -0.531188 -0.058708 0.391291 0.314747 0.137441 0.030413 -0.277669 -0.264528 0.102408 0.758677 0.188209 0.185491 -0.703202 -0.303535
AB300989.1.1489 -1.514578 0.627614 -0.015013 -0.593367 -0.136484 -1.027405 -0.264166 -0.684647 0.309548 -1.267663 0.280946 -0.629107 0.551886 -0.304503 1.187394 -0.881321 1.979241 -0.832198 0.990361 -0.296257 -0.392140 0.605692 0.361332 0.457470 -0.083894 0.001294 -1.087280 -0.400958 0.114995 -0.901804 -0.555322 -0.784031 -0.098702 -0.472456 1.084407 -0.231908 0.819674 -0.785346 -0.467616 0.283171 0.197758 -0.846578 -0.273890 0.885840 -0.399106 0.770484 -0.169688 0.752433 0.222468 -0.351384 -0.399431 -0.075317 -0.210949 -0.499429 0.255396 0.761226 0.439200 -0.825522 0.382417 -0.002294 1.504429 0.515292 -0.270596 -0.255928 0.390041 1.249423 0.399039 -0.242163 0.072816 -0.807213 -0.317268 0.878096 -0.097647 -1.785548 0.262759 0.101006 -0.065458 0.995202 -0.152104 0.078124 -0.226347 0.292458 0.480566 0.792339 -1.169056 0.118915 0.222190 -0.260007 2.047152 -0.702965 -0.900320 1.122565 1.006811 -0.231645 0.603023 0.406776 0.547567 0.026955 -0.914514 -0.345026
AB331897.1.1481 0.518308 0.873988 1.009908 0.470441 -0.021761 -0.385228 -1.095782 0.347313 -0.294610 0.917576 -0.609683 -0.601767 0.280876 0.039735 -0.161103 -0.186401 1.890310 1.481128 0.628905 1.448491 0.026678 -0.544601 -0.845468 -1.224684 -1.000777 -0.784719 0.741955 0.371206 -0.391797 -1.017236 0.152988 0.853339 1.166652 1.459806 0.585609 -0.791759 -0.076385 1.125989 -0.043266 -0.620164 0.170668 -0.193283 0.559531 0.019731 -0.229294 -1.119942 1.822974 -0.548843 0.702626 -0.863402 0.509140 1.100690 -1.405617 0.085897 0.072525 0.024000 0.570923 1.011723 -0.807222 -0.986672 -1.708694 0.672865 0.036958 0.015236 0.325027 1.310242 1.022238 -0.927678 0.446685 0.046048 -0.298391 -1.530395 -0.933230 -0.553306 -0.370371 -0.033625 -0.175571 -0.246614 0.165082 -1.121848 0.221862 -0.073998 0.194094 0.973174 -1.244412 -0.468166 0.174763 0.163133 0.464169 -2.167267 0.266547 -0.388047 -2.261279 0.517978 -0.531943 0.246574 0.019155 0.643548 -0.084506 0.278520
AB443948.1.1484 -0.068826 0.820917 -0.597660 0.629999 0.811544 -0.756646 0.449026 -0.173055 0.316040 0.199925 -0.685661 -0.912407 -0.456414 -0.296523 0.348811 -0.457403 0.896902 0.544471 0.235938 -0.604810 -0.830966 0.536655 0.435996 -0.120351 0.154029 0.287879 -1.120982 -0.002419 0.276907 -0.127107 -0.383266 -1.020720 0.141488 -0.202898 -0.140782 0.065603 1.103362 -0.379052 0.257369 -1.695049 0.499792 -0.977462 -0.179045 -1.087832 0.267906 -0.374437 0.697147 0.735748 -0.395489 0.132858 0.517276 0.219138 0.047478 -0.646522 0.023137 0.265841 -0.253591 0.669604 -0.685110 0.224917 -0.277126 0.565318 0.377912 0.491608 0.456626 -0.087628 0.200331 -0.441035 -0.062623 0.223865 -0.104985 -0.774791 -0.625660 0.288519 1.001894 -0.180784 -1.639617 0.336480 0.087904 0.347949 -0.052151 0.326611 0.311015 -0.250563 0.291776 0.330602 0.348280 -0.458296 -0.433927 0.212892 -0.904187 -0.475620 0.720140 0.920674 0.547056 -0.906183 -0.032383 0.199912 0.390623 -0.195462
AB443949.1.1486 -0.991364 0.168413 -0.911691 -0.196928 0.033783 -0.422757 1.054671 -1.129011 -0.109554 -0.903278 -0.449592 -0.556769 -0.666697 -0.793898 0.471980 -0.279637 1.958167 -0.432772 -0.749198 -1.064460 0.832791 0.516666 0.575338 -0.575064 -0.108939 1.489762 0.086215 -1.088117 -0.895662 -0.512778 0.658804 -0.177241 0.623504 0.510173 -0.154440 -0.762212 0.701094 0.371005 -0.003774 -0.306564 0.360456 0.110641 0.165263 0.088403 0.843294 0.100485 -1.160521 0.488649 0.439567 -0.842680 0.986003 0.369011 -0.108991 0.080492 0.487571 0.897455 -0.225205 0.411887 -0.095798 0.217135 -0.192858 0.828106 0.423050 -0.411000 -0.250030 -0.687621 -0.598366 0.322379 -0.229038 1.128693 -0.530855 -0.927407 1.124727 0.094826 0.073992 -0.185310 0.725076 0.486507 -0.303696 -0.973063 -0.534061 -1.114922 0.539809 0.296264 0.557565 0.630204 -0.212768 0.973754 0.669277 -0.474697 0.072488 -0.344591 -1.310640 0.911367 -0.598784 0.084795 -0.792788 -0.133889 0.821050 -0.453373
AB490801.1.1479 -0.385223 0.310433 -0.332838 0.310379 -0.195703 0.142961 -0.047712 -0.004582 -0.034451 -0.123150 -0.609536 0.306652 0.031427 0.277621 -0.009807 -0.488688 0.133115 -0.063831 -0.018120 -1.020493 -0.305235 0.120774 0.487667 0.459691 0.260070 -0.611602 -0.164943 0.468627 0.336756 -0.942083 0.525704 -0.155389 -0.058082 0.018631 -0.386861 -0.250913 0.287595 1.570141 -0.118473 0.288393 1.101649 -1.005480 0.109422 -0.166289 -0.196297 -0.362754 -0.422288 0.139443 -0.062624 0.113622 -0.373767 -0.559150 -0.050690 0.407305 -0.230864 -0.138523 -0.328744 0.368446 -0.066228 0.054777 -0.895635 0.414922 -0.433153 -0.620687 -0.717763 0.134450 -0.224360 -0.421217 -0.021303 -0.373960 0.587649 -0.650773 0.356457 0.050212 -0.858333 -0.264040 -0.114037 0.425090 0.539306 0.428778 -0.894753 0.711768 0.021832 0.467002 -0.656847 -0.232553 -0.191080 -0.529374 0.202745 0.025563 -0.133875 0.714926 -1.830247 0.008448 0.374046 0.702279 -0.176069 0.013108 -0.903400 -0.651129
AB490810.1.1469 -0.021591 0.554825 0.187546 0.986717 0.207156 0.493739 -0.467347 0.122114 0.256536 0.452351 -0.420895 0.190171 0.340379 -0.736992 -0.856441 -0.344899 1.054842 0.061037 0.459283 -0.054746 -0.065887 1.015531 0.234239 0.548608 -0.694344 1.041946 0.183311 -0.232913 0.531082 0.123318 -0.089784 -0.225950 0.338241 -0.089949 -0.359855 -0.065525 0.689256 0.275779 -0.483787 -0.385106 -0.114693 -1.730752 0.623448 0.254645 -0.461251 -0.235745 -0.004756 -0.573912 0.672638 -0.324501 -0.122030 -1.195952 -0.024315 0.436433 -0.164454 -0.593146 -0.362476 0.472403 1.005902 -1.462334 -0.363239 -0.787585 0.146824 0.010827 -0.730694 0.693788 0.542727 0.444386 -0.377086 0.293278 -0.297490 -0.203903 -0.382134 0.622662 -0.211425 -0.287121 1.080404 -0.151270 0.603843 -0.291977 -0.758238 0.292418 0.222975 0.040931 -0.207458 0.295089 0.250718 0.028556 0.813790 0.491171 -0.894644 0.072690 -1.533279 0.269814 1.304500 0.719446 -0.628210 -0.021856 -0.637943 -0.864400
AB491210.1.1485 0.957662 0.201002 0.047388 0.275081 -0.424768 0.624196 -0.057106 0.333290 -0.480496 0.400917 0.391585 -0.033331 -0.201243 -0.154388 0.288658 -0.158436 -0.619515 0.194943 0.010633 0.465292 -0.229105 -0.057843 0.257107 0.274415 0.198804 0.103073 0.164521 0.494928 0.112999 -0.201888 -0.279574 0.930562 0.616029 -0.122581 -0.045793 0.532402 -0.487725 0.242920 0.139914 0.014153 -0.363161 0.210714 -0.064153 -0.431174 0.277884 0.442216 -0.095470 -0.036380 -0.272151 0.043373 -0.291411 0.294298 -0.020975 -0.015763 -0.338581 -0.129521 -0.110802 0.111047 -0.230455 0.101397 0.391547 -0.368503 0.441065 -0.449405 0.289453 -0.112040 -0.601272 -0.097609 0.211255 0.192268 0.079091 0.127686 -0.291173 0.407704 -0.380334 0.300658 -0.519513 0.051558 -0.116174 0.187613 -0.340915 0.348418 0.612437 -0.032258 0.710929 0.259093 0.115432 -0.440503 -0.180721 0.148137 -0.115376 -0.234661 0.090286 -0.172739 -0.018184 -0.152951 0.076366 0.174563 -0.274012 0.327567
AB506227.1.1518 0.301239 0.247295 -0.437846 0.245496 0.415652 -0.792430 0.739820 0.705859 0.085549 0.425826 -0.786348 -0.010322 0.264780 -0.287633 0.696801 0.099091 -0.014225 0.778598 -0.277551 -0.082308 -0.678349 0.503768 -0.909842 0.394673 0.410815 0.164181 0.202747 -0.953230 0.004255 -0.083106 -0.106580 0.079023 -0.299430 0.073446 0.714649 0.831911 -0.140828 0.122664 -0.564824 -0.895793 0.013983 -0.198775 0.336672 -0.131185 0.674198 -0.480194 0.779623 -0.017255 -0.762619 0.796163 -0.431952 0.244704 0.810953 -0.343676 -0.393241 -0.640105 0.510764 0.977345 0.269154 -0.717292 0.133960 -0.496019 -0.301324 0.361854 0.978135 0.116606 0.977328 0.866822 0.697746 -0.643365 -0.873460 -0.624797 0.269782 0.074546 -0.421149 -0.112028 0.150808 -0.023396 0.424678 -0.820777 -0.841692 -0.160773 0.554325 -0.455431 -0.387887 0.027224 0.210443 0.467576 -0.182032 -0.267513 -0.200500 0.917368 0.857389 0.334319 -0.455230 -0.121405 -0.408642 1.350353 0.789116 0.723595
AB506253.1.1527 -0.742352 0.815810 0.655793 -0.185529 0.818718 0.092698 1.736579 -1.277087 0.793454 -0.143630 -0.311360 1.385361 0.077288 -0.399235 0.960628 -0.393878 1.699142 1.022230 -0.009893 0.021323 -1.056032 -1.001964 0.259026 -0.500794 1.474142 -0.277095 -1.135154 -0.851730 1.230151 -1.002250 0.321850 -1.033453 -0.063672 0.601495 -0.432207 0.457906 -1.254525 -0.525912 -1.419603 0.236709 -0.596231 -0.074217 0.455557 0.429634 -0.120595 0.297510 -0.081313 1.111287 -0.118900 0.561970 -0.566587 -0.988760 -1.615684 1.094601 -0.396678 1.652197 -0.937006 0.142319 -1.007352 0.625876 1.541738 0.756811 0.469776 -0.876906 0.243173 0.869824 0.171674 -1.106712 1.249674 0.280972 -0.200928 -1.267249 0.216766 0.034473 0.091281 0.049255 1.014957 1.401346 1.260757 -1.128859 -0.404597 -0.159284 -1.839228 0.933338 1.280576 1.720354 -0.139983 1.048793 -1.256200 -0.490302 0.222461 -1.057431 -0.780677 1.504190 1.115011 -1.221552 -0.983658 0.699789 -0.139484 -1.564051
AB506279.1.1563 0.297384 -0.177261 -0.994601 -0.088505 -0.315746 -0.046385 -0.749448 -0.160735 -0.199055 0.700146 -0.832267 -0.663884 0.144066 -0.168408 0.411728 0.696329 -0.282562 -0.669264 0.742719 0.200125 -1.041607 0.831954 0.523095 -0.299613 -0.580631 0.197239 0.156338 -1.711736 -1.028694 0.284371 -0.343166 -0.159325 -0.103850 -0.642343 -0.293485 0.043415 0.430911 -0.360946 0.311426 -0.557876 -1.253659 0.032950 -0.451049 -0.219704 -0.034681 -0.418815 0.718838 -0.707094 0.724902 0.222135 0.736544 -0.317138 -0.055854 -1.069789 1.010909 -1.134725 0.042518 0.345480 -0.409994 -0.301380 -0.161731 -0.597612 -0.497487 -0.475341 0.029128 0.784572 0.067811 0.286141 -0.871583 0.205418 0.407959 0.119055 -1.225503 -1.005279 0.658774 -0.851179 1.119781 -0.187248 0.708390 -0.107266 -0.116425 -0.200501 -0.924562 0.502020 -0.431726 -0.577323 -0.406933 -0.812045 0.294488 0.695252 -0.213507 -0.454282 0.335373 -0.218847 -0.572797 0.575722 -0.198832 0.548257 0.731827 -0.591310
AB506315.1.1513 -0.195738 0.350110 0.201871 -0.375848 0.559961 -1.244183 0.572312 1.810786 0.331493 1.145010 -0.106538 1.540189 -0.298392 0.934983 0.097017 0.427384 0.615868 2.070908 -0.359521 -0.233806 -1.272073 -0.209835 -0.413850 0.579434 0.387079 0.515428 -1.884791 -0.298913 0.585154 0.119853 0.551390 -0.391535 -0.560710 -0.496189 -0.877949 -0.542390 -2.177031 -1.206351 0.250926 0.247802 0.898552 -0.375598 0.793652 -0.096839 0.152045 1.335012 0.646485 0.714121 -0.947595 0.192269 0.392300 0.199939 -0.488210 0.293336 0.323166 -0.398326 -0.665254 0.452791 -1.252094 0.073269 0.798381 0.712989 0.769178 -0.943856 -0.477685 -0.753796 1.267655 -1.871768 0.740322 -0.080277 1.559950 -0.510364 -0.338931 -1.815122 0.615652 1.070905 0.719158 -0.656407 1.520716 1.015371 0.528844 -0.765412 -0.431349 -1.112340 0.373871 -1.253136 -0.149388 -0.336852 -0.609049 0.001444 -1.442902 0.588079 0.568792 0.383398 0.343393 0.858416 0.779781 -0.913081 -0.596865 -0.717203
AB506348.1.1522 0.193999 -1.463993 -0.140438 -0.234129 0.228481 -0.318647 0.402718 0.817605 -0.327374 2.504110 -0.768406 -0.405108 -0.540838 0.392520 -2.006861 -0.091838 0.161415 0.004610 -0.102737 0.642812 -0.612618 0.490836 -2.011890 -1.117765 -0.532161 0.487270 -0.719162 -1.407396 0.904233 0.151377 -0.045490 -0.946032 0.772500 -0.701232 -1.807591 -1.571914 0.980079 -0.522822 0.958419 1.018326 0.684930 0.100290 -0.806881 1.130167 -0.533302 0.256699 -0.399351 0.365745 0.372109 1.160237 -0.103461 0.032815 0.800814 0.161594 -0.473282 0.077051 -0.392254 -0.626995 0.221340 -0.908726 0.941801 0.246971 0.411702 -0.170376 -0.124662 -0.385282 -0.586668 -0.093937 0.768468 -1.506452 -0.253101 -0.146634 0.425996 0.975364 -0.627248 0.632011 -1.154846 -0.231985 -0.354961 -0.405015 -0.132682 1.853853 1.635300 -1.392388 -0.817101 -0.731048 -1.239340 -1.402654 0.607291 0.959115 -0.685887 0.760019 -0.279248 1.142484 0.645594 -0.787939 0.185988 -0.350523 1.169824 0.355317
AB506361.1.1516 -1.415188 -0.064648 -0.340543 0.545687 1.639885 -0.967166 0.697764 0.349438 0.289519 0.506215 -0.409373 0.279953 0.124772 -0.474369 0.756909 -0.827905 0.390784 1.266803 1.103149 0.301710 -0.858779 -0.007253 -0.611449 -0.024131 0.296439 -2.179511 -0.960790 -0.207702 1.015046 0.281753 -0.098219 -0.020846 -0.111851 -0.503562 0.600966 0.659843 -0.848018 -0.639648 -0.848059 -0.971317 1.091243 -1.080942 -0.210805 -1.181086 0.911237 -0.170344 0.072667 1.062413 0.595783 -0.471218 0.413826 -0.060226 -1.226299 0.485440 -0.022940 1.360044 0.262474 0.685759 0.440888 1.244093 -0.596871 2.306544 -1.011376 0.032346 -0.033644 0.973568 0.175169 -0.517981 1.261445 1.252155 0.573599 -0.020401 0.393468 -0.208560 -0.195959 0.752883 0.594419 0.357651 0.872572 0.167639 -1.243048 0.015822 -0.630237 -0.936595 0.443863 -0.782571 -1.487358 0.058564 0.609013 -0.228064 0.673335 2.132225 -0.930270 -1.283348 0.063354 -0.035498 1.223248 -0.407568 -0.293933 -0.004671
AB506371.1.1509 -0.823044 0.801828 0.696468 -0.056937 3.223790 0.090559 -0.818800 0.232123 1.635445 -1.508361 -0.527578 0.697695 -0.712945 -0.499102 0.206086 0.580090 2.650455 0.068791 -0.213506 -0.442901 0.040741 -1.318477 -0.294587 -0.611758 -0.953881 0.763704 0.102939 1.017419 0.379801 1.372965 2.030657 -0.434818 -0.434758 0.296601 0.477329 -0.544184 0.406483 -0.408964 0.681316 -0.848465 -0.229836 -1.078187 1.047824 0.078272 0.330966 1.113694 -0.388540 1.589826 -0.762835 -0.041593 0.706673 0.640318 0.230638 -0.403944 0.356664 -0.426549 -0.468843 1.240135 -0.559277 0.107228 -0.614037 -0.742234 -0.319965 0.385176 0.363851 -0.353003 -0.418422 0.351859 -0.068869 -0.130811 0.285650 -0.453902 1.899242 -1.359448 -0.108632 -0.177019 0.145537 -0.238513 1.330654 -0.859188 0.079266 -0.769184 -0.060294 2.008388 -1.094665 -0.057606 0.308316 0.934221 -0.227859 1.741677 -0.454637 -0.637890 -1.745645 1.329318 -2.066854 0.345824 0.274679 -0.373530 -0.060136 -1.031409
AB506388.1.1517 -0.272702 -0.908824 -0.026023 -0.427590 0.039331 0.542234 -0.723053 0.809169 0.269428 0.075167 -0.354725 0.062241 -0.265474 -0.530636 -0.208220 0.863490 -0.804803 -0.005007 1.022774 -0.309802 -1.268253 0.299612 -0.437463 -1.149878 0.490244 -0.120731 -0.025066 -0.078451 -0.309307 0.096206 0.309861 -0.610525 -1.027359 0.033413 0.731398 0.040677 0.200890 -0.800182 -0.254649 -0.132613 -0.359487 -0.086005 -0.258677 0.058545 -0.427717 0.003789 0.104422 -0.541914 -1.009696 0.438469 -0.474829 0.246320 0.051245 -0.080341 -0.094816 -0.607571 -0.035093 -0.557660 -0.133625 -0.589795 -0.495158 -0.296487 0.084602 -0.120612 0.549410 -0.234770 0.228034 -0.656292 -0.206640 -0.782568 0.563156 -0.099873 -0.002524 -0.886221 -0.022910 -0.254096 0.897611 0.078020 -0.120487 0.468315 -0.218127 -0.332785 0.387796 0.203847 -0.382640 0.213418 -0.377904 0.194771 -0.035655 0.501246 0.068648 0.166704 0.911443 0.049566 0.022196 0.671145 0.614257 -0.080229 0.477343 -0.060153
AB506573.1.1493 1.527172 1.021623 0.349961 0.596612 0.096077 -0.504805 -0.184119 -0.639188 0.540013 0.968323 0.706063 -0.786319 -0.191745 0.085064 0.197891 0.847126 -0.175375 -0.596795 0.533872 -0.040094 -0.609226 -0.126462 0.473183 0.619292 0.000553 0.115790 0.372372 0.086048 0.620852 -0.145383 0.427676 -1.103668 -0.424480 0.271046 -1.377977 1.091348 0.638705 -0.577380 -0.806945 -0.060287 -0.575679 1.146501 -0.042083 -0.190307 -0.337156 1.626002 0.585647 0.659544 0.883517 1.271199 0.756616 -0.882779 1.758293 -0.997661 0.009282 -0.464742 -0.052351 0.247501 -0.787990 0.123108 -0.394002 0.827592 -0.443864 -0.248023 -0.640622 0.729302 -0.566086 -0.751494 -0.693094 0.986165 -0.556908 1.065694 0.081303 0.497780 -0.373845 -0.327052 -0.367202 -1.115978 -0.207541 -0.065246 1.240123 0.316839 -0.200595 -0.039140 -0.603198 -0.627821 -0.432110 0.746798 0.409411 -0.559017 0.389921 0.055122 -1.068705 1.028056 -1.173763 0.281621 -0.220235 -0.852495 -0.623429 0.905699
AB506623.1.1506 0.930534 -0.394712 0.297650 -0.277888 -0.182228 -0.355436 -0.481481 0.188356 -1.292643 -0.643437 0.177883 -0.917346 -0.290435 0.506094 0.110815 -0.045916 0.275615 -0.021906 0.012975 -0.255429 -0.260026 -0.678593 -1.176590 -0.443830 0.836976 -0.713580 -0.340617 0.219449 1.288176 0.299358 2.074348 0.298838 -0.978655 -0.507541 -0.201887 0.280380 0.750680 0.608508 -1.120956 0.001560 0.377422 -0.500984 -0.180212 -0.465121 0.694579 -0.506566 1.517374 0.891888 0.186100 1.238279 -0.091750 -0.667819 1.432354 -0.960890 1.099180 -0.338779 0.625339 -0.223390 -0.800882 0.016634 -0.565772 0.628966 -0.280024 0.754812 0.621853 0.829494 -0.677446 0.334731 -0.062558 0.077545 0.447464 1.545809 1.076690 0.095434 -0.632279 -0.159365 0.375239 0.542478 -0.924740 -0.648888 0.294185 0.687512 0.847385 -0.316546 -0.600602 -0.152705 -0.271811 -0.038964 -1.055663 0.777423 -0.865609 1.193309 -0.302736 0.438870 -0.632202 -1.070323 0.869387 -1.892103 -0.146295 0.287339
AB512047.1.1509 0.600797 0.919551 0.472441 -0.702416 2.315191 0.804186 -0.469636 -0.126373 0.485801 1.320191 -0.263213 1.009513 0.407938 -0.082840 -0.777374 -0.093583 0.254769 0.150815 -0.697929 0.775973 -0.561296 1.435835 -0.285428 0.871869 0.183259 -0.560584 0.158644 -1.320528 0.677972 -0.824020 -0.647462 0.652662 1.064067 0.216244 -0.268250 -0.074326 0.094549 -0.294104 0.523439 -1.164244 0.228664 -1.967510 0.338738 -0.537641 -0.029190 -1.286334 0.563496 0.836336 1.207420 0.046898 -0.119126 -0.012644 -0.508770 -1.270610 0.327683 -0.577907 -0.897811 0.873372 0.145641 -0.816148 1.293324 0.675740 -1.183946 -0.692733 0.083599 -0.388016 1.235107 -0.082242 0.650176 0.111384 0.239533 0.646523 0.030796 0.825110 1.024861 -0.305245 -0.949407 0.099222 1.235079 -1.201210 -0.079174 0.496544 0.677623 -0.543533 -0.640130 0.640544 0.997395 -0.126281 0.269947 -2.170481 -2.118141 1.366325 0.575219 -0.947605 -0.488613 -0.600823 -1.335993 0.706579 0.434750 -0.017345
AB525415.1.1503 0.301304 0.424183 -0.230220 -0.317673 0.111227 -0.019120 -1.733943 -0.063904 -0.319840 0.666920 0.008793 -0.127703 0.317462 -0.563454 0.040207 0.357888 0.658177 0.000649 -0.151217 0.227278 -0.762672 0.596392 -0.126089 -0.176959 0.053472 -0.085740 -0.285190 -0.864933 0.664601 -0.187546 -0.479695 -1.289749 0.104558 -0.577768 0.077949 -0.534810 -0.135430 0.231360 0.088262 -0.881367 0.582348 -0.976028 -0.022731 -0.359088 0.256021 0.134115 1.432435 -0.159847 0.610005 -0.244647 0.388531 -0.729817 0.300399 -0.909749 0.472555 1.063005 0.367421 1.811101 -0.311948 1.196927 -0.291433 0.502317 -0.211509 0.138348 -0.118389 -0.390530 0.175490 0.515207 -0.672736 0.279830 -0.454072 0.253377 -0.518315 0.041865 -0.131700 0.173071 -0.143909 -0.364217 0.107594 -0.775253 -0.242318 1.015693 -0.371168 -0.028197 -0.376095 0.424476 0.575906 -0.299544 -0.157192 -1.068692 0.187999 -0.402801 -1.659339 -0.136098 -0.702501 -0.452013 0.573109 0.566521 0.217165 -0.026091
AB538433.1.1488 -0.066460 0.304285 -0.255328 -0.431657 1.629619 -0.285195 -0.288208 -0.048948 -0.464711 0.851192 -1.226659 0.653617 0.341407 0.086308 -0.332678 0.682358 0.238959 1.001366 0.365209 0.318744 -1.528066 0.528359 -0.318039 -0.782265 0.042550 -0.358557 0.596876 -1.075537 0.050373 0.307305 -0.091367 -0.755734 -0.099249 -0.649482 0.690805 -1.032964 0.002178 0.056795 -0.068610 -0.160379 0.375759 -1.109243 -0.901178 -0.432291 -0.161729 -0.259814 0.493263 -0.157145 0.327460 0.202950 -0.044761 -0.147249 -0.389492 -0.008227 0.144586 1.058225 -0.026638 0.464998 0.301914 0.092188 0.321247 0.143306 -1.013292 0.251269 0.594147 0.449239 0.801024 -0.505444 -0.228129 0.019728 0.509395 -0.050320 -0.228708 -0.058558 -0.401628 -0.217019 -0.429622 -0.408129 0.526180 -0.688030 -0.558805 -0.100537 0.378088 0.027730 -0.220268 -0.274093 0.055337 0.123929 0.105131 -0.509051 0.371328 0.461597 -0.636816 -0.284517 -0.361125 0.491472 0.538131 0.500333 0.412661 -0.087278
AB547676.1.1493 -0.740333 0.013709 0.350805 -0.038144 2.023887 0.071091 -0.046858 -0.627919 -0.490529 0.657283 -0.586152 0.451226 0.339495 0.075750 -0.674211 0.087399 -0.019317 0.428666 -0.268446 0.756933 -1.361472 0.854810 0.733179 -1.120336 0.305808 -0.282995 -0.076360 0.375083 -1.462893 -0.568271 -0.701149 -0.787736 -0.280460 0.222004 0.083065 -1.383411 0.740398 0.012544 -0.274970 0.871335 0.338569 -0.603491 -0.374071 -1.473477 0.104783 -0.814851 1.125743 0.002962 1.675752 -0.561221 -0.681920 -0.852125 0.132478 -0.325101 0.662840 1.378657 -0.478623 1.432417 -0.466714 0.387422 -1.420069 0.975949 -0.380894 0.185932 -0.844626 0.959075 0.735530 0.051755 0.610806 -0.790861 0.778466 -0.842366 -0.056528 1.223203 -0.440589 0.448340 -0.634138 0.158616 -0.554733 -0.658276 -0.708080 1.518420 0.825355 0.774939 0.416652 1.168905 -0.274919 0.985225 0.397710 -1.124355 0.387542 -0.697723 -0.824555 0.031587 0.710704 0.122101 0.869898 0.154155 1.195710 -0.808236
AB547696.1.1280 -0.500953 0.821745 -0.076826 -1.142471 0.310201 -0.385944 -0.883422 -1.181221 -1.017470 -1.191222 0.279532 -0.061377 -0.982330 -1.027780 -0.060351 -0.242348 1.542224 1.159916 -0.892847 -0.139838 -0.017180 0.501010 -0.556761 0.012311 -0.178536 0.064818 0.127200 -0.548125 -0.054055 0.108517 0.701345 -0.639912 -1.251218 -0.469450 -1.189194 -1.779811 -0.656543 0.923657 -0.524424 -0.103110 -0.336270 -0.447881 -0.012533 -0.460579 -0.159181 -0.918186 -0.904379 0.009296 0.769673 -1.093981 -0.461630 -0.238976 0.251380 -0.277340 0.276075 1.860686 -1.093183 1.173568 0.018067 1.147163 0.407052 0.145738 -0.575858 -1.199787 0.955650 -0.098868 -0.731440 -2.149947 -1.506085 0.615497 0.453844 0.143560 -0.996936 0.445234 0.014348 -0.617936 0.527904 1.508830 0.636859 -0.207989 -0.508091 0.123093 0.501118 1.311898 0.189020 -1.084676 -1.019193 0.325737 0.120275 0.411216 -0.053454 -0.007387 -0.390167 -0.098425 -1.233488 0.751366 -1.247329 0.578760 1.366296 0.621185
AB606256.1.1495 -0.257929 0.566148 -0.328745 0.389514 1.395287 -0.342477 0.317714 0.459262 0.742618 1.749546 -0.516430 1.180158 0.235247 0.016034 -0.449589 1.117285 -0.695164 0.857125 0.659014 -1.147321 -1.123394 -0.582817 -0.524664 1.151462 0.943978 0.929367 0.686469 -1.283738 0.405843 0.398948 -0.501239 -0.062334 -0.146107 0.606598 0.973462 -1.270622 0.152383 -0.154483 -1.135739 0.573797 1.009740 0.066079 -0.294894 -1.040073 0.816437 -0.479668 1.389254 0.671041 1.487041 -0.523796 1.454690 0.031329 0.014029 0.320300 1.317948 -0.672458 -0.588362 0.943846 0.097070 -0.442625 -0.748578 1.271291 0.580405 -0.521387 0.613984 0.333457 -0.490432 -0.159032 1.003299 0.640991 -0.383693 -0.275776 0.525229 1.030425 0.560315 -1.014609 -0.845267 -0.976219 1.271845 -0.089703 -1.261915 0.209792 -0.034502 0.445960 1.338132 0.825017 0.591060 0.498442 -1.490484 -0.639077 0.539038 1.113760 0.572724 1.365888 -1.451153 0.247495 0.164030 1.096347 0.090775 0.421006
AB606352.1.1486 0.837709 0.234722 0.623709 0.001833 1.256459 -0.671735 -0.648734 0.017982 -0.366511 -1.037114 -0.610114 0.912930 -0.034029 -0.065040 0.202941 -0.318864 -0.843341 0.028051 -0.171967 -0.119163 -0.597795 0.244950 -1.013079 0.747951 -0.425697 -0.118551 0.156168 -0.540546 0.918054 -0.842360 -1.071953 -0.964505 0.188387 -1.047931 0.679298 0.996737 -0.652219 -1.537812 -0.147034 0.135102 0.581447 -1.863052 -0.412836 0.364599 -0.203587 0.823500 -0.503009 -0.763803 0.259975 -0.387328 -0.271999 -0.902442 -0.225248 0.225916 -0.385480 -0.275558 -0.313410 0.425794 0.691347 -0.692208 0.634413 -0.645501 0.609535 -0.794829 -0.799207 0.638501 0.454887 0.304300 0.904910 -0.672149 0.214771 0.877964 -0.132397 -0.202001 0.099244 -0.482364 0.744099 -0.505209 -0.113555 0.065843 -0.034807 -0.530517 -0.199355 0.798290 -0.031374 0.489925 -1.034177 -0.318623 0.432809 0.292930 0.662802 1.137938 -1.140906 -0.958696 -0.726879 -0.123097 0.328380 -0.277558 0.314318 1.058112
AB606399.1.1479 -0.517309 1.655795 0.348007 -0.563859 2.299104 0.696211 -0.710033 1.400558 0.484645 -0.231828 -1.137951 0.736914 0.090942 -0.157507 0.639769 -0.722113 1.128103 1.233988 0.236408 -0.742310 -0.768356 0.477278 -0.680397 1.065006 0.402618 0.730274 -0.649955 -1.050560 1.148684 -0.447165 0.193303 -0.380368 -0.130213 0.244912 0.040120 -0.083122 0.063230 -0.059841 0.683242 -0.183002 -0.469275 0.091552 0.640468 -0.347090 -0.439503 -0.735593 2.094815 0.599988 2.276991 0.953448 -0.851459 -1.170492 -0.204019 -0.446479 -0.379257 0.718270 -0.464710 -0.251344 1.534583 0.326400 -1.339558 0.478579 -0.236319 -0.218936 0.825350 0.927209 -2.202589 1.180188 0.196856 0.404337 -0.325352 0.122280 -0.710451 0.213235 1.456834 -0.358213 0.193027 -0.571499 0.034144 0.076517 -1.558373 0.819071 -1.678142 0.358882 1.033704 0.114355 1.385868 0.363414 0.047882 0.184751 -0.271582 1.121965 -0.174057 -0.471231 0.720966 -0.566718 0.110451 1.772618 0.352198 0.094193
AB614872.1.1469 -0.129280 -0.632858 -0.403543 0.863958 -0.067374 -0.799099 1.240759 -1.829816 0.100624 -0.269382 -2.031864 1.373171 -0.159096 0.561684 1.856185 -0.607780 0.743281 0.919659 -1.057726 0.714815 0.019033 0.896187 -1.521552 0.067177 0.209201 -0.922804 -0.228501 -1.187879 0.195079 -0.929864 0.423963 -1.353452 0.549687 0.102577 -0.627143 -0.101004 0.359334 0.061758 -1.195372 -1.028815 -0.775988 -0.403706 -0.131727 0.470401 0.172203 -0.490182 1.491788 -0.326328 0.011814 0.054769 1.243575 -0.071634 -1.382193 -0.490262 1.502157 1.267447 2.282211 1.558238 0.719931 0.740853 -0.290609 0.842398 -1.208893 -0.222178 -1.933256 0.832541 -0.621815 -0.163357 -0.224687 -2.046757 -0.491567 -0.135047 -1.729908 0.337828 0.091860 -0.676423 -0.556155 0.097102 1.248452 0.001802 -0.790163 0.719203 -0.495742 0.592143 -0.741822 0.138823 0.225760 -0.185004 0.046939 1.890691 -0.055922 -0.027841 0.303050 -0.549764 -0.452382 0.869764 0.402950 2.059167 0.920246 0.462398
AB616155.1.1470 -0.496562 0.582162 0.532965 0.544637 0.483632 0.147860 0.072588 -0.632539 -0.038601 0.382689 -0.126358 -0.373828 -0.219740 -0.838480 -1.689445 -0.849642 -0.505789 1.079507 -1.111041 1.409132 0.310406 -0.301955 -0.262447 0.299155 -0.174426 0.620370 0.087640 -1.848232 -0.244532 -0.066193 0.333101 -0.341354 0.034533 0.323152 1.013260 -0.528175 0.053692 -0.620064 0.171992 -0.068618 -0.519138 -1.104720 -0.187534 -0.765210 0.152179 -0.128662 -0.126727 -0.062886 1.094131 1.613081 -0.798191 -0.321534 -0.248739 -0.528149 2.051133 0.899630 -0.647350 1.002604 1.067549 -1.210905 0.393195 -0.498592 -1.061176 -0.081787 -0.143944 1.809444 0.487679 0.800925 -1.114326 -0.403711 0.048376 -0.321098 -0.784604 -0.383267 1.355614 -0.444630 0.697839 0.001555 -0.203402 -0.224990 -0.102295 -1.512108 -0.618970 0.271273 1.896891 0.075335 0.558110 0.335896 0.216643 -0.005054 -0.318206 0.144135 -0.033921 -0.138785 -0.867667 -0.305805 -0.056491 -0.258496 -0.565864 1.035793
AB626897.1.1485 -1.761250 -0.209546 -0.022896 0.197838 -0.549334 0.603718 -1.330927 -0.427935 1.005881 0.366325 -1.345731 0.134467 -0.342211 -0.122030 0.265613 -1.177708 0.998791 0.103544 0.159332 -0.427017 -1.107339 -1.241050 -0.173185 0.242103 -0.425193 -0.101920 -1.163413 -0.884761 1.631089 -0.745755 -0.422997 0.262133 1.175459 0.078240 -0.219126 -0.552012 0.555994 -1.037710 -1.193463 0.255631 0.266251 0.596149 -0.263485 0.532631 0.154258 0.249833 1.477000 0.762799 -0.234896 1.198053 -0.227642 -0.381983 -1.434451 -0.951228 1.122433 -1.487671 -0.309132 1.289146 -1.244336 0.895276 -0.686698 -0.631619 0.537369 0.353992 -0.347652 1.267788 0.037492 -0.266660 0.496800 0.355677 0.975218 1.142933 0.447016 -0.357539 1.010191 0.143828 -0.018542 0.847179 0.075138 -1.133746 -0.061196 -0.010984 0.036586 -0.249274 0.883718 -0.650193 1.283547 -0.589032 0.236018 -0.157384 0.132909 -0.438235 -0.295478 0.242445 0.722757 -1.220745 -0.196548 1.810855 -0.645094 -0.991622
AB639144.1.1469 0.994992 0.541179 -1.058331 0.050727 1.447758 -0.151442 0.155229 -0.310774 -0.784434 2.138243 0.607003 0.765181 -0.528101 1.202194 -0.725612 0.661267 0.230688 0.131479 1.302054 -0.495028 -0.243204 -1.096481 -1.301058 0.298334 1.264984 0.460198 -0.248382 -0.493347 -0.821147 0.386049 0.355397 -0.425703 -0.423098 -0.611787 1.814415 0.726069 -0.141400 1.047624 0.461992 0.078744 -0.387050 0.085755 -0.352067 0.977882 -0.489010 0.506199 0.227538 0.074176 0.852594 -0.845859 0.878870 -0.163707 -0.499243 1.143807 -0.384756 -0.408736 1.460974 1.082480 -0.780609 0.198690 0.535931 0.700114 -0.372376 -0.136362 -0.835063 1.565249 0.838331 -0.089901 0.189974 0.270407 -0.912180 1.494933 -0.154170 -2.564981 -1.182770 -0.400587 0.878268 -1.194150 0.119983 -0.542887 -1.304546 -0.107130 -1.315216 0.035325 -0.372384 -0.196533 -0.730151 0.205712 0.766104 -0.790836 -0.832080 0.322445 -0.491778 1.891475 0.489449 0.118849 0.590235 1.039490 1.480614 0.592620
AB681574.1.1283 0.892444 0.519161 -0.345832 1.237538 -0.204928 -0.076209 -0.670996 -1.201618 0.155734 0.625285 -0.558750 -1.121472 1.537657 -0.053852 0.348001 -0.462985 -0.768540 0.683025 0.385281 0.183894 -0.987864 0.914791 0.079025 0.035332 0.893879 -1.228956 0.225777 -0.783460 0.438566 -0.560550 1.205236 -0.291963 0.575776 -0.097919 -1.123990 -0.468575 -0.401718 0.670124 -0.561253 0.671549 0.976796 -0.999871 -0.450155 -1.644739 0.697217 -0.750456 0.756557 0.181380 0.591493 1.537388 1.916247 -0.072579 -0.393645 -0.802747 0.077856 0.504162 0.578542 0.800038 -0.349159 0.236838 -0.058441 1.187767 0.018519 0.548617 0.439512 0.778779 1.849452 0.237595 -0.032445 0.727692 0.247281 0.507140 1.364642 0.269936 0.646411 -0.081913 0.159761 0.330407 -0.915328 -0.103578 0.381851 0.665650 0.073515 0.634389 -0.401706 -0.414563 0.490315 -0.272144 -0.248931 -0.537430 0.400120 0.056742 -1.806112 0.109983 -0.621435 -0.327453 0.322664 -1.009463 -0.408419 -1.202212
AB693143.1.1405 0.911815 0.732761 -0.189143 0.318323 1.562272 -0.534308 -1.420246 -0.785737 -0.331220 -2.170615 -0.772955 -0.898697 0.088808 0.355309 0.622280 0.791300 -0.519529 1.164617 0.865937 -1.154345 -1.356633 -0.180679 -1.513017 0.566701 0.445207 -0.876979 -0.082705 -0.977861 1.197626 -0.148509 1.090934 -2.766099 -0.421694 -0.258590 -0.621691 -1.098601 -0.937045 1.337281 -0.896000 0.300755 -0.103297 -0.849258 0.163022 0.033521 0.295196 0.271133 1.114758 1.034534 -0.712883 -0.198414 -0.692154 1.075446 0.895522 -0.142934 -0.158801 1.300553 0.963261 1.102394 1.495254 2.278215 0.489522 0.584976 -0.899276 -1.118009 -1.754111 0.808421 -1.327042 -0.177280 -0.731519 -1.296676 -0.268450 -2.471650 0.603186 1.435385 -0.853653 -1.901758 -1.419517 0.086822 1.681518 -0.719668 1.436434 -0.164982 1.026347 0.509247 0.411954 -0.771017 -0.421003 1.120208 -1.106591 -1.063440 0.461351 -0.304707 -0.167671 -1.354939 -1.294574 0.044364 0.801266 -0.036556 -0.261722 -0.631556
AB702802.1.1393 0.642868 -0.542101 -0.020090 -0.624194 0.678451 -0.224905 0.385117 -0.175669 0.423992 -0.681772 -0.742529 0.005170 -0.207447 -0.208785 0.009431 -0.138603 -0.283177 0.420184 -0.254020 -0.032486 -0.328628 -0.192756 -0.079096 -0.232162 0.262491 -0.130898 -0.450120 -0.885270 0.070549 0.422556 -0.201839 -0.639875 -0.413432 0.601274 0.478418 0.119517 -0.233069 -0.254907 0.270629 0.106909 -0.064576 -0.052633 -0.474259 -0.622408 0.439086 -0.393409 -0.419072 -0.494491 -0.589477 -0.347340 -0.351691 -0.019789 -0.286831 0.567641 0.130141 -0.501076 -0.852596 -0.419299 0.150446 -0.133668 -0.622306 0.165779 -0.346215 0.230658 0.069719 0.474612 0.674005 0.157367 0.120929 -0.450010 0.260361 -0.044450 -0.089910 -0.173345 -0.984929 0.322944 -0.725631 0.288368 0.053217 -0.111438 0.409224 0.089946 0.174612 -0.161779 -0.318664 0.439083 0.137276 -0.669846 0.166674 -0.498946 0.616563 0.005699 0.047236 0.386546 -0.506707 0.081667 -0.264946 -0.138600 0.447674 -0.031803
AB733112.1.1328 -0.232141 -0.139658 -0.399924 0.391482 -0.272839 -0.446771 0.244473 -0.521133 -0.650522 -0.423187 0.585293 0.479512 1.703987 0.237470 0.213118 -0.099960 0.041788 -0.467152 -0.048547 -0.352221 2.101264 -0.038925 -0.038369 0.340076 0.351238 0.017319 -0.066487 1.269334 -0.230427 0.036675 0.103663 0.440472 0.454030 0.036910 -0.427772 -0.156139 0.096697 0.110443 0.070190 0.506961 -0.230363 0.681233 0.446749 0.321673 -0.134041 -0.387170 -0.372134 1.020475 0.620519 0.289082 0.208751 0.346602 0.105473 -0.510338 -0.574061 -0.256288 -0.451710 0.097280 0.181180 -0.046641 0.174177 -0.043275 -0.376490 -0.062440 0.136022 -0.094352 -0.582764 0.068009 -0.303291 0.343804 -0.146212 -0.632630 0.304583 -0.145186 0.403555 0.204344 0.362974 0.120855 -0.136820 0.382556 0.254176 -0.109896 -0.382465 -0.240026 -1.035442 -0.492223 0.072577 0.511883 0.096862 0.313312 0.165862 -0.063926 -0.217875 -0.183887 -0.269989 0.388749 0.357232 -0.295444 -0.301129 0.222531
AB739697.1.1442 -0.267744 0.187522 -0.120327 0.096001 -0.839973 1.096434 -0.672429 -0.012863 0.192696 -0.852733 -1.326599 0.498718 -0.688911 -0.322579 1.319312 1.156855 -0.196228 0.791096 0.740085 -0.465879 -0.381894 1.330919 0.186909 0.360668 -1.303413 0.442017 1.272241 0.474101 0.103310 -0.119933 0.771208 -0.097623 -0.354349 -0.165909 1.332742 -0.550725 -1.121139 0.729188 0.160257 0.807312 0.815315 0.467369 0.267863 -1.065958 -0.483795 -0.597698 1.592330 -0.083850 2.269620 0.011457 0.066939 -0.459758 0.344137 0.298597 0.088911 0.154920 0.253748 0.256329 -0.095302 0.097429 -1.684552 0.063103 -0.237411 -0.767982 -0.107408 1.369972 -0.460963 -1.109455 2.154430 1.422476 0.900571 -0.828682 -1.567467 -0.814764 -0.267401 -1.594620 -0.100929 0.203322 0.666103 -0.025457 -1.933831 1.235677 0.494001 0.507500 -1.383496 -0.418821 -0.580550 0.854142 0.843653 -0.725419 0.732985 -0.162952 -0.207058 0.170235 -0.823799 0.564232 0.293140 1.253106 -1.438305 0.421633
AB775005.1.1253 0.130777 2.367431 0.787826 -0.028302 0.257740 -0.400563 -1.156306 0.675238 -0.083740 0.704031 0.527984 0.003239 -0.218337 -0.672196 -0.421708 -0.412816 1.351716 -0.739485 0.209751 -0.546662 0.623556 0.523441 -0.929589 -0.450444 -0.433986 0.358856 0.143105 0.062620 1.006088 -0.410838 0.390967 -0.571400 -0.454265 -0.425133 0.402482 -1.254046 -0.008818 -0.943137 0.356824 -0.120700 0.372644 -1.203444 -0.365786 0.496846 -0.408693 -0.616308 0.696469 0.276649 0.563545 -0.051264 1.063313 -0.176575 0.364962 -0.320471 0.404819 0.209161 -1.279070 -0.108891 -0.296254 -0.083365 -0.924740 1.934381 -0.567825 -0.497026 -0.456855 0.245819 -0.335683 0.803956 0.685807 0.173255 -0.297517 -0.506855 -0.663243 0.003570 -0.360861 -0.407153 -0.413183 -0.409378 -0.408153 0.750007 -0.246605 0.763178 0.049530 -0.055948 -0.095780 0.497574 0.041299 0.221569 0.523072 -0.504944 -0.331301 1.158255 -0.221418 0.100959 0.199602 0.746675 -0.697283 0.300839 -0.424068 0.095917
AB821767.1.1524 -0.161504 0.061256 1.192707 -0.634965 -0.270857 0.361888 -0.375349 0.863028 0.033805 -0.257683 -0.272715 -0.439833 0.316271 -0.239382 0.279181 -1.260091 -0.411823 -0.070681 0.274379 0.181998 -0.436185 -0.327819 -1.082481 -0.014062 -0.205563 0.142269 -0.244429 0.226939 1.246300 -0.764782 -0.027703 -1.187964 -1.356671 -0.317567 0.652881 0.666087 -0.266513 -0.976979 -0.164002 0.422786 0.595866 -0.609980 -0.848859 -0.029125 -0.392614 1.364799 0.604226 -0.090009 -0.117063 0.756533 0.161651 -1.340036 0.595655 -0.842541 -0.199076 -0.131474 -0.922239 -0.226213 0.208826 0.289529 -0.471612 -0.099352 1.270862 -0.585501 -0.515997 0.361480 -0.183058 0.112936 -0.128637 0.018548 0.785112 -0.019307 0.289343 0.622556 0.659627 -0.838098 0.262989 -0.478746 0.153702 -0.129904 -0.067630 -0.114791 -0.657958 0.575425 -0.511514 0.496780 -0.477651 0.069716 0.083719 0.239350 0.443714 0.588645 -0.055166 0.070398 -0.268645 -0.474446 -0.431821 -0.426025 -0.029165 -0.320653
AB824647.1.1509 0.292201 -0.075148 -0.127723 -1.192909 1.288620 -0.779043 -0.113149 -0.489840 -1.272990 -0.352373 -0.402189 0.428829 -0.627786 -0.040153 -1.275415 -0.498281 0.728155 1.168044 1.083936 0.377402 0.384990 1.411771 -0.663543 1.416621 -0.106349 0.146321 -0.789033 -0.365256 0.561180 -0.376846 -1.690061 -0.955315 -0.808854 -0.906583 0.381094 -0.088940 -0.396409 -1.179750 -0.329345 0.809988 0.038954 -1.232514 0.996151 -1.032150 -1.691103 -0.249060 1.146980 0.176783 -0.831463 1.663890 -0.529768 0.096808 -1.155996 -0.930150 2.291213 -1.010739 2.038927 0.835922 1.946445 -0.416830 -0.631614 0.950244 0.949104 1.614388 -0.138350 -0.154924 0.102470 -0.820669 -1.144910 0.010211 -0.707722 -0.757659 0.079702 0.360418 0.078781 0.971180 0.136960 -0.886403 -0.793903 0.302954 -0.338577 1.362780 -0.535913 -1.239525 -0.615160 -0.461307 -0.119423 0.425916 1.030437 -0.972832 0.996378 0.757322 0.297929 -0.685773 1.056801 0.317795 0.478119 1.022613 0.249292 -0.601731
AB861981.1.1489 -1.672530 1.394296 -0.686751 1.095719 0.936739 -0.198055 -0.825015 0.973544 -0.222631 -0.439323 -0.812942 0.459488 -1.439277 -0.443284 0.893259 -0.119468 0.832355 0.073240 -0.476347 -0.743176 -0.691295 -0.335700 -0.948368 -0.038343 0.540812 -1.162298 -0.241545 -1.059701 0.344381 0.065181 0.843013 -1.328824 -1.267027 0.973987 0.024940 -0.752204 0.556916 -0.474209 -0.635752 -0.636367 0.948628 0.312017 -0.489657 -0.533294 0.246716 0.695102 -0.494663 -0.127907 1.058101 -0.567579 -0.553422 -0.949054 0.321649 -0.721705 -0.133369 0.955303 0.073306 1.511593 -0.168574 0.271419 0.193756 1.025012 -1.455555 -0.909142 0.492044 0.240186 0.415253 -0.439095 -0.548124 -0.008787 0.677237 0.168643 -0.892335 0.095096 -0.592900 -0.738186 0.180712 -0.069513 0.988798 0.045734 0.441672 0.250432 -1.012649 0.675165 -1.104878 -1.029048 -0.889113 -0.991817 -0.984049 -0.231694 0.267593 0.784404 0.443454 -0.453416 -0.989998 1.059665 -0.124454 -0.246429 0.914114 0.400165
AB910337.1.1492 -0.045957 0.581852 -0.105461 0.221959 0.132543 -0.199755 -0.195009 -0.493123 0.256471 0.705235 -0.028231 0.043470 0.780978 0.009395 -0.857159 0.480514 1.066937 0.053636 0.209464 -0.989496 -1.322884 0.335555 -0.041275 -0.258303 0.202721 0.996811 0.287767 -0.386925 0.333105 -0.091914 -0.296951 -0.434180 0.560414 -0.003705 -0.765195 -0.660342 -0.234908 -0.305252 -1.414560 0.435289 -0.103535 -1.686608 -1.009857 -0.249857 -0.108333 -0.267420 1.313519 0.391940 0.552649 0.584540 -0.441386 -0.868578 0.066015 0.478958 0.819300 0.835920 -0.140852 -0.185667 -0.472594 0.726712 -0.545148 1.397566 -0.347597 0.327477 -0.042459 0.354992 -0.363423 0.180182 -0.191678 0.654724 1.095565 0.253627 -0.314776 0.031255 0.089883 0.200411 -1.099273 0.995468 0.509862 0.588923 -1.761621 0.949328 0.964690 0.489408 0.288869 -0.193658 0.073590 0.348940 0.656387 0.031420 0.233642 0.176874 -1.107257 0.605192 -0.196593 0.936863 0.745098 0.982108 -0.395362 -0.003086
AB934596.1.1362 -0.053411 -0.511389 1.129392 -0.704269 1.032842 0.091052 0.830678 -0.715091 -1.504327 0.571961 -1.666354 0.603141 -0.001554 0.357766 0.436147 -0.451014 0.344345 -1.115406 1.167904 0.041898 -1.869319 -0.178822 -0.342662 -0.371717 -0.408108 0.177900 -1.377857 -1.287722 -0.520447 -0.005608 0.888091 -0.100018 -0.601531 -0.882779 0.351418 -1.696101 0.714962 -0.151721 -0.448085 -0.871768 0.791023 -0.570059 -0.194015 0.455214 0.253040 -0.475219 -0.695590 -0.885814 -0.184967 -0.423437 -0.376496 -1.107867 0.783276 0.348576 1.044740 1.486785 -0.540715 -0.754350 -0.280903 -0.456203 -0.740059 -0.482291 -0.155618 0.547564 -0.523386 1.160029 -0.052228 -0.432173 0.749524 -0.267184 -0.179506 0.391375 -0.967091 -1.085925 -0.864210 -1.333017 -0.522095 -1.095083 -0.080991 -0.044442 0.674106 0.291041 0.145880 -0.153024 -0.007703 -0.278494 0.346360 -0.144364 0.505130 -0.877875 0.114499 -0.155044 0.064764 -1.334632 -0.116707 -0.008664 -0.201629 1.642476 -0.609989 0.157070
AB934632.1.1349 -0.449810 0.549354 -0.430651 0.900382 -0.036809 -1.157723 0.572840 0.683576 0.203780 -0.209170 0.104479 0.797820 -0.361376 -0.226834 1.276026 0.113730 0.574688 0.514286 -0.773900 0.293441 -0.105943 -0.422390 -0.072865 0.722648 0.553690 -0.430338 -0.277525 0.454649 1.049593 0.100886 0.790537 -0.372384 -0.212518 0.791106 -1.253286 -0.690444 0.217534 -0.902185 0.032780 -0.484901 0.444915 -0.411942 0.587771 -0.901402 -0.092485 0.657829 0.007274 -0.303264 -0.100644 -0.190370 -0.238668 -1.574948 -0.036970 -0.215708 -0.308356 0.141225 -1.406402 0.606966 -0.030301 0.709174 0.239713 0.309581 -1.072937 -0.128329 -0.996070 0.709554 0.291882 -0.330652 -0.485682 0.067728 -0.125818 -0.562151 -0.552463 1.320583 0.469940 0.096221 0.571104 0.138057 -0.483522 -0.109561 -0.426405 -1.008195 -1.272404 0.364455 -0.466357 -0.341515 0.127418 0.761433 -0.394297 0.658138 -0.356064 0.031229 -0.304814 0.287127 -0.763724 0.050271 0.623368 0.172937 -0.162739 -0.018438
AB934775.1.1342 -0.535938 0.455521 0.057963 0.062094 0.666621 1.218046 0.195241 -0.143066 0.855456 0.789369 -0.116171 -0.325838 -0.353940 -0.124288 -1.150416 1.186669 -0.313065 0.028687 0.271874 0.814447 0.047534 -0.086937 0.259166 -1.660140 -0.594605 -0.568936 -1.464678 -0.203819 0.480802 -1.589844 -1.008375 -0.964385 0.852951 -0.506694 0.930162 -0.420596 0.251345 0.281702 1.257664 -0.143278 0.079375 0.579261 -0.767712 0.393813 0.514498 0.276997 -0.119213 0.483637 0.736654 0.310319 1.138605 -0.126901 0.456930 -0.198014 0.701382 -0.457358 -0.929180 -0.538859 -0.731569 -0.454222 -0.337853 1.487150 1.131381 -0.444569 -0.815710 0.644390 -0.201166 -0.658823 1.354915 -0.704836 0.144781 -0.343202 -0.190708 0.260675 0.158764 1.062606 0.218455 0.260246 0.002752 -0.561583 0.221887 -0.010162 0.758959 -0.035326 1.258278 0.506569 0.778876 -0.188384 -1.249997 -1.001087 -0.501676 -0.531957 -0.284468 1.610887 -0.274205 -0.388279 0.175231 0.050383 0.132060 -0.043245
AB934800.1.1322 1.198291 0.317896 0.289368 0.552651 0.263101 -0.984274 -0.219719 -0.518998 -0.588572 1.289975 -1.432351 0.502844 0.559929 0.663575 0.313913 -0.217200 0.140343 0.154782 -0.494791 -0.390141 -0.955930 -0.374191 0.035766 -0.102021 -0.327259 0.199085 -1.013037 -1.068792 0.633736 -1.245877 -0.877985 -0.156499 0.821669 0.390800 0.655512 -0.966588 -0.291995 -0.530515 0.075390 -0.291376 0.974083 -0.277063 -1.124876 0.972085 -0.410757 -0.071041 -0.093764 -0.154340 0.496772 -0.218874 -0.226317 -0.512478 -1.157642 0.658932 1.047463 -0.392343 -0.087616 0.442084 -1.122749 -1.032837 0.324507 0.140375 0.422730 -0.576327 0.497139 0.707905 -0.047732 -0.390462 -0.314813 0.217125 -0.503793 -0.583079 -1.342456 -0.549378 0.847091 0.337790 -0.576044 -0.589237 0.106414 -1.435439 -0.112500 0.909173 0.202604 -0.708312 0.159520 0.592653 0.421432 0.204459 0.384831 -1.416537 0.519188 0.627185 -0.986907 1.174969 0.561335 0.253294 0.719602 0.649301 -0.077655 -0.037957
AB934802.1.1340 0.992530 0.329074 0.207746 0.650466 0.536059 -0.714423 -0.215792 0.931870 -0.717880 0.577881 -0.714915 1.102959 -0.513799 -1.490615 0.710401 1.017918 -0.022035 -0.382333 0.832851 -0.105042 0.343416 -0.155776 -0.562895 0.941028 0.194833 -0.083935 -0.295617 -0.254262 -0.440691 -0.252228 0.395587 0.603823 0.221194 0.104088 0.959046 0.314058 1.896201 -0.799272 -1.520132 -0.796922 -0.259756 0.184131 0.111944 0.048692 0.236012 -0.559138 1.565595 1.184995 0.866117 -0.955585 0.280991 -0.407502 -0.350962 0.200959 -0.715962 -0.372421 -0.586664 0.738574 0.362286 1.730228 -0.597416 -0.503638 -1.269038 0.525753 0.301193 0.626702 0.043270 1.339582 -0.689387 0.079688 -0.504962 -0.941786 -0.230834 0.504526 1.342614 -0.437683 0.587562 -0.059970 -0.765491 -0.942043 -0.517718 1.067274 -0.719218 -0.591855 0.317682 0.474604 -1.141498 1.978058 -0.763154 -0.766741 -0.247652 -0.958241 0.968723 -0.257665 -0.341199 -1.250990 -0.375050 0.948320 1.175855 -1.117254
AB969399.1.1506 1.006229 -0.032728 0.874803 -0.398017 0.741506 -0.400589 -0.070511 -0.688078 -0.483447 0.187009 0.852858 -1.073686 0.387674 0.172556 -0.531648 -1.027375 1.477164 0.563778 0.197567 -1.267112 0.130319 -0.438879 0.213127 -0.906290 0.022909 -0.753370 -0.452716 -0.607135 1.776954 -0.801157 -0.179863 -0.740329 -0.234080 -0.914285 0.191854 1.700473 0.124679 1.141126 -1.110789 -0.970648 -0.822229 -0.043943 -0.562777 0.440912 0.655695 0.882645 -0.155664 0.073838 0.668027 -0.446625 0.703835 -2.037507 -0.586667 -1.477644 1.022809 -0.662441 0.839326 1.703532 0.378677 -2.454728 0.331449 -1.136518 0.777874 0.175931 -0.224188 1.577367 0.069576 -1.393338 -1.173837 0.956689 1.105397 0.686554 -0.901684 1.871701 0.160401 0.178396 0.933666 -0.410087 0.101165 -1.162899 1.144264 1.083488 0.096851 0.762293 -0.982794 -0.574424 -0.846170 -1.164079 -0.367335 0.274567 -0.470698 0.018499 -0.419234 1.342247 0.953184 0.104087 -0.039766 0.432454 1.068035 -0.216581
ABIK02000013.103269.104574 -1.376105 0.850620 -0.872274 0.593871 0.604132 -0.865934 -0.948650 -0.616022 0.491774 -0.323923 -0.340920 -0.925483 1.652708 0.107977 -0.336204 0.880490 0.317543 -0.189045 -0.350499 0.119192 -1.049157 1.384786 0.063937 0.606545 0.721597 -0.391597 -0.260873 0.663959 -0.216661 -1.101707 -0.783057 -1.253758 -0.091054 -0.661367 0.282420 -0.119493 -0.293448 0.680520 -0.590564 0.182778 0.541757 -0.821092 0.135635 0.531611 -0.410564 0.128367 -0.006539 -0.055402 -0.917674 0.511514 -1.581852 0.139187 0.334983 0.237596 0.372890 1.254414 -1.006969 0.625604 0.142058 0.778631 -0.731392 -0.047273 -0.974965 -0.695250 0.345132 0.845544 -0.208964 1.453687 -0.831092 0.228891 1.485418 0.040173 -0.588539 -0.520633 0.572143 -0.224562 0.182625 0.915851 -0.180202 -1.245041 -0.846487 -0.311166 0.347999 0.616650 0.851510 0.824951 -1.137557 1.338116 0.266804 -0.179420 -0.222153 1.425442 0.451954 -1.077163 -0.859992 1.351358 1.860052 0.293627 -0.370660 -0.036630
ABIY02000114.1.1263 -0.390745 0.297006 -0.573229 -0.442211 -0.242779 -0.630348 0.488782 1.427965 0.517432 1.413248 -0.289952 -0.338202 1.018712 -0.683206 -0.685923 0.317125 0.609204 -0.696396 -0.328129 -0.503692 -0.257545 0.388052 0.137991 0.333551 -0.363041 -0.197335 -0.093162 0.316843 0.584071 -0.828004 -0.006663 0.431048 -0.395409 0.412810 -0.287469 -1.029678 -0.853324 1.031271 0.158751 0.155830 0.999884 0.515428 1.703306 0.551152 0.244130 -1.099227 0.372445 0.573110 0.053059 -1.251332 0.099294 0.655725 -0.624616 -1.211558 -0.384311 0.507778 -0.179636 -0.423210 -0.143195 0.805104 -1.448887 0.624130 -1.260455 -0.544205 0.524716 -0.488043 0.231013 0.289722 0.181862 0.185432 0.384930 0.550902 -0.884934 -0.104488 0.564328 -0.210763 0.492178 -0.329647 -0.150558 -0.858362 1.161886 -0.167234 -0.499105 0.620873 -1.427273 0.694477 -1.069994 0.401526 1.346665 -0.933317 -1.317983 -0.447779 0.633575 0.222271 -0.151302 -0.340305 0.332118 0.849701 0.760191 0.092022
ABQC02000019.758957.760260 -0.220656 -0.308700 -0.727137 -0.553249 1.470424 -1.189645 -1.236414 0.199882 -0.921219 0.174306 -0.934290 0.402949 1.497713 0.510710 -0.273635 -1.030012 0.264736 -0.352785 0.603528 0.913236 -0.524780 0.187944 -0.121636 0.039370 0.347265 -0.228364 -0.837848 1.338224 -0.073630 -0.362215 0.261969 -1.805314 -1.039379 -0.741857 -0.770322 -0.644815 0.539445 0.236629 0.158417 0.476384 1.357964 -0.861021 1.070252 1.900109 0.944696 0.090942 -1.154723 0.052060 -0.534142 -1.294015 -0.218071 -0.166357 -0.052269 0.976887 0.391503 -0.640216 0.682376 1.175927 0.148059 -0.123470 -0.189691 0.173338 -1.621441 0.053676 0.209003 0.942698 0.486280 -0.024657 -0.814861 -1.158151 0.225982 -0.191737 1.176025 0.378085 -0.510104 0.424689 1.119985 -1.546049 -0.327544 -0.857948 0.271080 -0.296375 0.068541 -0.780765 0.123817 0.462911 0.100963 0.796593 0.765085 0.338603 0.108853 0.650962 -0.999331 0.152524 -0.239760 0.024319 0.174047 -0.299260 0.452819 0.234239
ABWL02000011.84303.85559 -0.133527 -0.118364 0.179362 0.176743 0.309963 1.871582 -1.555369 0.531518 0.677492 0.414977 -1.068143 -0.735717 -0.623031 1.144987 -0.088295 0.157076 0.088920 -0.348238 -0.468609 0.276657 0.190070 0.714391 -0.631372 0.617768 -0.412372 0.503782 0.250783 0.794716 0.450807 -1.316406 0.160936 -0.266006 0.379875 0.362838 -0.545424 -1.017209 -0.033784 0.112988 -0.568544 -1.053501 0.804995 -1.394209 0.495478 -0.847705 -0.044521 -0.768172 0.453555 0.315761 0.575687 -0.075151 0.020963 -0.069335 0.792894 -0.031333 0.747477 0.567202 0.852161 0.500301 -0.023452 0.129290 -0.154704 -0.531317 -1.508283 -0.636956 -0.695267 1.508305 1.323119 -0.072653 -0.152586 -1.202714 -0.878793 0.339532 0.020041 -0.510643 0.870395 -1.115402 -0.801189 0.578072 0.676864 -1.874288 1.310028 0.095276 0.813874 -0.919274 -0.010966 0.464436 1.114787 0.537893 0.372071 -1.382266 0.317635 -0.842766 0.021700 -0.315775 -0.190931 0.180686 -0.091690 -0.018703 -0.765030 -0.291731
ABXI02000116.1.1285 -0.829860 0.661943 -0.154411 0.133769 0.591670 0.670322 -1.184046 0.790372 0.293069 0.949953 -0.006446 0.241366 -0.784701 -0.379372 0.025385 0.880285 0.263408 0.714433 0.342152 0.106439 -0.654167 1.498708 -0.802249 -1.127591 0.578223 -0.329596 0.957109 0.185247 1.755403 0.365435 0.415267 -1.219615 1.081508 -0.544353 0.162767 -1.469832 0.183537 0.864404 0.207830 -0.563671 0.665404 -1.416457 0.299446 -0.359099 -0.049624 -0.150994 0.312843 0.894854 -0.064839 -0.396851 -0.093735 -0.214786 0.541855 0.439663 -0.346021 1.284348 0.492654 0.983336 -0.431958 0.632539 -1.406629 0.014573 0.185925 0.418020 0.596547 -1.216286 0.625159 0.182389 -0.069856 -0.305455 0.054694 0.325430 -0.235396 -0.029845 -1.160829 0.474832 -0.859941 0.264930 -0.422224 0.263031 0.028912 0.397380 0.231647 0.370919 -0.208670 0.213539 0.966206 -0.720718 -0.170061 -0.501431 -0.556473 -0.453027 -1.590730 0.035065 -0.392095 0.436406 0.368857 0.670023 -0.121315 -0.134582
ACBX02000025.1.1217 1.007033 -0.112494 0.662387 -0.541620 0.961139 -0.982428 0.390065 -1.154920 -0.419105 -0.215641 0.801092 -0.064827 1.270660 0.742028 -0.675413 -0.782675 0.175109 0.034193 0.251156 -0.803582 1.586941 -0.445552 0.361990 -0.201207 0.926558 0.182266 -0.397778 -0.410341 -0.028041 1.513370 -1.253971 -0.791112 0.227669 0.595488 -0.612350 0.324550 0.107657 0.050719 0.241755 0.244114 0.889637 0.324806 0.890430 -0.037802 0.358900 1.146338 0.264481 0.202759 -0.171911 0.665963 0.752527 0.260435 0.792824 -1.207186 -0.252598 0.592667 -0.495696 0.924820 0.355943 0.887892 -0.549963 0.209828 0.747047 -0.452652 -0.821933 1.012389 -0.679327 0.588219 -0.975043 -0.377331 0.166406 0.013700 0.774154 1.356548 -0.200077 0.136995 -0.020813 0.498739 -0.104417 0.515508 0.469343 0.566197 -0.764929 -0.171455 -0.257697 -0.319464 0.395012 0.410454 0.135704 -0.046991 -0.218752 -0.237159 -0.558605 0.225943 0.746136 -0.770775 -1.070220 -0.732731 -1.121858 -0.870738
ACCF01000268.3369.4627 0.349551 0.634133 -0.901459 -0.091997 0.780457 -0.667906 -0.967154 0.549632 -0.107118 1.060063 -0.682950 0.561246 -0.797428 -0.542352 0.017558 -0.363485 0.202893 0.551544 0.306428 -0.444949 -0.138686 0.418567 0.038632 -0.078088 -0.853438 -0.594846 -0.664592 -1.269421 0.561103 -0.172518 -0.197730 0.328958 0.232913 0.746909 -0.787745 -1.009822 -0.237544 1.508498 1.001110 -0.740613 0.788205 0.107255 0.661767 -0.171793 -0.663001 -0.588046 0.773921 -0.168609 1.204546 0.189893 -0.098159 -0.119389 -0.265004 -0.232964 0.696225 0.351598 -0.338198 1.174806 -0.845973 0.875781 -0.588030 0.011262 -1.778594 -0.289591 0.068128 0.011906 0.122987 -0.310864 -0.308262 1.308601 0.838200 -0.150360 -0.797787 0.030246 -0.330952 -0.356556 0.197898 0.661170 0.638109 -1.060092 -0.936829 0.873008 -0.639549 0.722022 0.098089 -0.519355 -0.958918 0.210433 0.143013 -1.231567 -0.500694 0.588801 -1.504989 0.436961 -0.510267 0.159831 0.352878 1.197039 -0.426243 -0.344998
ACCK01000460.1.1313 0.293337 1.478433 0.706293 -1.941470 1.483765 -0.095146 -0.292587 0.238656 -0.918425 -0.366265 -0.226236 -0.206976 -0.491837 -0.904377 0.021817 1.146471 0.543862 -0.328492 0.012872 -0.437384 -0.721245 0.588981 -0.619461 0.106814 0.978225 0.045139 -1.068746 -0.440902 -0.918080 0.063624 0.508676 -0.335487 -0.372194 0.275475 0.490569 -1.222065 0.501800 0.398079 -0.024070 -0.716923 -0.089353 -1.514297 0.019384 -1.085228 -0.132016 -0.571669 0.693999 1.382109 1.677745 0.522287 -0.221628 -0.778036 0.737447 0.220766 0.857408 0.367101 -0.437498 0.758704 -0.493584 0.701277 -0.824748 0.119975 -0.403467 0.301165 -0.690580 -0.650101 -0.324565 -1.721760 0.501153 -0.355555 0.887200 0.777239 0.256681 -0.509408 0.296530 -0.530640 -0.775857 0.189517 0.079199 0.129043 -0.934586 1.539207 -0.038271 0.818890 -0.272401 0.513238 -0.212776 0.034643 0.365749 0.238247 -0.206884 0.999305 -1.306947 0.004638 -0.278688 -0.399422 0.642328 1.075442 1.468397 -0.589926
ACDP02000005.388.1906 0.145389 0.293622 1.400574 -0.207208 0.612657 -1.591148 0.121267 -0.940635 -0.945503 0.308575 -0.107484 -0.365822 -0.706352 0.626861 0.210511 -0.462751 0.595172 0.757734 -0.948181 0.027165 -0.507258 0.047841 -0.245080 -0.859244 -0.732481 -0.185097 -0.439516 -0.992964 0.530471 1.012146 0.045796 0.052101 1.098192 -0.932956 -0.006477 -0.328638 0.365087 0.968762 -1.156011 0.837739 0.823774 -0.251348 0.105150 0.626756 -0.488090 -1.031170 -0.137475 -0.318015 -1.144069 0.618442 -0.516806 0.233362 -1.466375 1.319238 0.551986 0.031030 -0.711284 0.178770 -0.260935 -0.334644 0.942137 0.211536 -0.049264 -0.253261 0.244758 0.378392 -0.491352 0.220355 0.285170 -0.099008 0.390415 -1.185300 0.525798 0.423375 0.111243 -0.384214 0.554480 -0.293820 0.200991 -0.738530 -0.308398 -0.594238 0.233059 -0.008340 -0.430298 0.388153 -1.541504 -0.125695 0.648995 -0.159425 0.278774 0.222281 -0.512499 0.452549 0.277264 -1.096877 -0.176690 0.512953 0.596101 -0.354751
ACUX02000006.1.1301 -0.728717 0.516019 0.192157 0.057342 0.358047 0.692279 -0.760016 0.343675 0.215345 0.275329 -1.013405 0.065391 -0.459100 0.182376 -0.238030 0.046711 0.465902 0.091290 0.434826 -0.181708 -0.253838 1.041202 0.136876 -0.996165 -0.625387 -0.581685 -0.253823 -0.999319 -0.641829 -0.428545 0.087713 -0.735027 0.366175 0.009383 0.309059 -0.527461 0.874711 -0.181428 0.217498 -0.356107 0.646396 -1.236490 0.495786 -0.499748 -0.510958 -0.367063 0.816261 0.655303 -0.177662 0.707609 -1.063494 0.105639 -0.135133 -1.055333 0.338432 1.099536 -1.358533 0.674917 0.490126 -0.169463 -0.003472 0.511794 -0.114075 -0.545600 0.854220 0.584713 -0.732000 0.221404 0.079228 -0.473583 -0.241177 -0.599403 -0.317514 -0.223786 0.217239 -0.866728 0.200431 0.286373 -0.027169 -0.066738 -1.471495 0.069526 0.083253 0.242289 -0.042515 -1.039481 -0.218981 0.843841 0.529985 -0.353887 -0.739521 0.614948 -1.048929 0.717297 0.171580 -0.518534 -0.377023 0.598153 1.005301 -0.266567
AF047850.1.1200 0.624537 -0.233294 -0.272908 0.140269 -1.063892 0.712276 -1.881490 -0.980029 -0.786276 0.995819 -1.306958 -1.289261 0.461012 -1.612294 -0.801830 0.959998 0.673092 -0.817708 0.941994 0.182216 -0.795978 0.201046 0.265460 0.076150 -0.382636 0.277968 -0.263475 -0.146986 1.602406 -1.063700 0.213407 0.655374 0.614555 1.170968 0.500211 -0.294767 -0.246187 -1.050738 0.074911 -0.382017 1.604772 -1.275730 1.350360 -0.063238 -0.262003 -0.248238 -0.337281 0.738062 0.281387 -0.068967 -0.126230 0.098897 -0.010281 -0.233623 -1.080326 0.415232 -1.752490 0.471538 -0.927809 0.984433 0.691132 0.854568 -0.413596 0.981571 -0.694150 0.154745 -1.376860 -1.510976 -0.253341 -0.446359 1.551114 -1.024651 0.593848 -0.547109 0.439847 -0.977307 0.376565 0.585677 0.367590 0.625802 0.439570 0.487243 -0.238647 -0.138229 -1.234090 0.399720 -1.514272 -0.412930 1.453232 0.443646 1.188579 1.169398 -2.029083 0.612695 0.197262 0.921940 -0.104759 2.097828 -0.521532 -0.570321
AF132232.1.1493 0.082467 -0.563226 -0.294335 -0.654727 0.778866 0.062552 0.486009 0.132080 -0.290450 0.067599 -1.593118 1.266769 0.089246 0.655224 0.680459 0.979393 1.395386 -0.085897 1.083852 0.257171 -0.417854 -0.371126 0.399029 0.529795 0.601689 -0.872575 -0.551564 -1.877823 -0.688533 0.788945 -0.312817 -0.682357 0.864888 -0.243583 -0.441333 0.200833 1.302730 -0.071982 -1.024847 -0.763852 -0.277313 0.505210 -0.049315 -1.025940 -0.549314 -0.650271 -0.337915 0.217965 0.261382 0.327819 1.114306 -0.071234 0.201589 0.794676 0.433138 0.157290 0.083443 0.710031 -0.218267 1.240586 1.848169 -0.473957 0.104941 0.740260 0.316145 0.117127 -0.958583 -0.174815 0.026398 0.006132 -1.185041 -0.005783 -0.203633 0.275739 -0.464261 -0.027770 0.775131 -1.057666 1.075591 -0.758296 0.155370 -0.020961 -0.557721 0.076381 0.002545 -0.549378 0.462448 -0.807541 -0.095229 1.389714 0.863308 1.475824 -0.566173 -0.128990 0.222526 -0.377699 0.629350 0.025623 -0.737102 0.479529
AF132270.1.1279 -1.632114 0.707039 1.142718 0.103305 0.155952 -0.703786 -0.669005 -0.076394 -0.294362 -0.194649 0.936558 1.413560 -1.407618 1.012739 2.099772 0.522382 0.364885 -0.164527 1.241603 -0.741804 -0.020663 -0.819937 0.211641 -1.729570 -0.414655 -0.780476 0.312854 -0.936636 1.684683 -0.440182 -0.791131 -0.859405 -0.110891 1.902212 0.093141 -1.206770 -0.254724 0.893494 -0.802888 -1.688634 -0.102258 -0.310738 0.638436 0.384454 0.668027 0.485376 0.448373 0.838920 -0.584593 -0.340095 -1.410105 -0.354455 -0.237376 0.628312 1.660701 -0.612086 -0.378103 0.327709 -0.851258 -0.121854 0.276198 0.598314 0.546767 0.365851 0.042142 -0.185658 -1.234615 1.792027 -0.634437 0.157511 -0.335899 -1.886598 -0.378194 0.030959 -0.490507 -0.767826 -2.252019 -0.579313 -0.930384 0.755835 -0.970950 0.112223 0.598077 -0.204399 0.454577 0.268973 0.331103 1.837917 0.218544 -0.286434 1.042737 1.960746 -0.330571 1.068208 -1.320940 0.582151 -0.634383 1.193412 0.343400 0.065358
AF132280.1.1277 -0.423904 -0.544646 -0.216928 -0.268528 0.045415 -0.386529 0.178386 0.431866 0.566616 0.188232 -0.296211 -0.224131 -0.359478 0.122202 0.065668 -0.089193 0.255745 0.505396 -0.040704 -0.216059 -0.362441 -0.162980 0.087897 -0.222098 0.624369 0.002674 0.290207 -0.086207 -0.578467 -0.163110 0.280305 0.069339 -0.318279 0.578212 0.821151 0.369262 -0.206248 -0.219380 -0.001835 0.273770 -0.460062 -0.138404 -0.132252 0.323269 0.078837 0.123997 0.229412 -0.163084 -0.475626 -0.246112 0.077622 -0.062439 0.020489 0.037087 -0.469486 0.024993 -0.309692 -0.867504 -0.069382 0.077546 0.477966 -0.194140 0.064463 0.423306 -0.203563 -0.602240 0.466918 0.366480 0.330141 -0.424051 -0.271762 -0.188059 0.243316 -0.538181 -0.041911 -0.585779 -0.024151 -0.404598 -0.265133 -0.172157 0.058329 -0.197557 0.070624 -0.508509 0.243187 -0.173448 -0.126093 0.099067 -0.233321 -0.119826 0.306027 0.101484 0.209588 0.358469 0.441536 -0.180004 -0.223086 0.062991 -0.127697 0.295992
AF132281.1.1427 -1.091546 0.806037 1.878801 0.729974 0.370994 -0.218621 -0.725529 -0.260141 -0.816769 1.016195 0.005025 0.302748 -0.005245 -0.025629 -0.091560 0.531765 0.841083 1.204137 0.384076 1.094938 0.038157 -0.262149 0.936013 1.085091 -1.222498 0.862414 1.164171 0.568642 0.540271 0.569206 -0.993175 -2.092159 1.445951 1.215816 -0.044343 -2.058217 0.603159 -0.974801 -0.414872 0.354601 1.252227 -1.066549 0.538591 0.212841 -0.845294 0.070361 1.662578 0.808047 0.542889 -0.091168 0.211455 -1.444312 0.718626 1.213932 -0.437126 0.472662 -0.491328 -0.550248 -0.619512 -0.447927 1.368648 0.717363 -0.151741 1.341223 -0.105238 1.518820 1.030304 0.697951 -0.886968 -0.561382 0.890230 -0.766188 -0.653861 0.285931 0.071385 -0.452949 -2.187094 1.040304 0.317284 -1.202614 -0.080231 0.191469 0.960696 0.477717 0.141833 -0.724941 -0.467625 0.438633 0.111626 1.402506 -0.028442 -0.514358 0.363515 1.365813 -0.176446 0.549090 0.100302 1.883616 0.753109 -1.464887
AF153858.1.1349 0.367624 0.174312 -0.097592 0.317300 -0.566924 0.093098 -0.551192 0.614320 0.313539 0.100537 -0.020413 0.015048 -0.255490 0.003947 -0.336464 -0.621960 -0.297944 -0.419883 -0.358012 -0.100174 0.559820 -0.067099 -0.609148 -0.055858 -0.120928 -0.105140 -0.653016 0.255238 0.259322 0.091467 0.284536 0.263340 0.773223 -0.249170 -0.240361 0.223806 -0.971892 -0.047493 -0.267761 0.958547 0.195140 0.718896 -0.072060 0.028282 -0.170889 0.242981 -0.090472 -0.404685 0.005980 -0.250043 0.050230 -0.020934 -0.580221 0.178079 -0.327756 0.054577 0.249409 0.166826 0.342620 -0.523403 0.001075 -0.362905 -0.051686 -0.016510 -0.355066 -0.490528 0.494537 0.152214 0.331147 -0.198516 -0.282352 0.233168 -0.042961 -0.145957 -0.091499 0.317581 -0.901706 -0.001168 -0.322683 -0.105468 0.295527 0.085772 -0.142426 0.316712 0.705916 -0.188321 0.075730 -0.438459 -0.227803 -0.312056 -0.189599 -0.187542 -0.307104 -0.237561 0.217035 -0.311072 -0.331804 0.265495 -0.636585 0.287948
AF192152.1.1542 -1.122886 0.666949 -0.394013 0.698268 0.355265 -0.522645 -1.016854 -0.709243 -0.733177 0.002427 0.642213 -0.096093 -0.954007 0.362241 -0.699144 0.146389 1.830757 -0.010118 -0.615322 -0.522766 -0.098203 0.337620 -0.346182 0.103159 -0.364953 0.935950 0.111950 -0.095784 0.057095 0.342461 0.042885 -0.327454 1.335632 -0.934123 -0.505219 -0.000070 -0.375344 -0.203383 -0.430263 0.980080 -0.143139 -0.275301 -0.214793 1.154791 0.617074 0.642290 2.001609 0.506505 0.608779 0.496012 0.245758 0.722026 0.107900 0.178899 -0.986969 0.319611 -0.021534 0.943243 -0.315296 0.374830 -0.124800 0.483152 -0.012967 -0.734009 -1.206297 0.788852 0.964701 1.218892 0.513232 -1.070149 -0.525522 0.073273 0.267849 0.127249 -0.753425 -0.798995 0.183780 -0.398016 0.952930 -0.958707 0.372823 0.586452 -0.138660 -0.900194 -0.764289 0.177967 -1.113467 -0.226168 -1.016109 -0.334352 -1.176964 0.291588 -0.440908 -0.382961 -0.574784 0.727825 -0.465082 1.298104 1.973338 -0.674233
AF287769.1.1493 1.496544 -0.119553 -0.830471 0.817914 -0.134240 -0.778201 -0.329281 -0.041224 -0.994210 0.090584 0.425040 0.401047 0.531024 0.253836 0.644670 -0.794852 -0.721503 0.431238 0.408726 -0.225136 0.138161 -0.083523 0.137453 -0.322441 -0.765893 -0.271307 -0.806359 -2.113592 -0.274555 -0.414539 0.802196 0.796243 0.518453 0.387329 1.142129 -0.717542 0.319593 -0.036210 1.138070 -0.531859 0.092132 -0.428947 0.463649 -0.345122 1.120374 0.062904 0.320133 0.138093 0.687992 -0.389498 -0.806292 -0.662356 -1.509047 -1.134244 0.479354 0.206080 -0.234917 2.178862 -0.775960 0.003726 1.159254 0.631273 -1.126784 -0.428775 0.194338 1.197528 -0.485816 0.358832 0.723233 -0.249985 0.289057 -1.097024 -1.178627 -0.957945 0.793170 -1.259511 -0.654139 -0.014385 0.821127 0.275027 -0.113959 -0.012346 -0.479178 0.304279 -0.627843 0.374531 0.065736 -0.504395 1.854603 -0.012352 -0.110492 1.618368 -0.943698 1.011514 -1.404005 -1.362795 -0.434293 0.300049 0.054711 1.717906
AF338413.1.1408 0.021492 0.256567 -0.613325 0.116703 2.094056 -0.369351 0.351173 0.898225 0.388042 -0.455935 -0.574622 1.910249 -1.664150 -0.104669 0.133374 -0.282005 0.762389 0.722819 -0.457476 -1.190000 -1.561806 0.019967 -0.084111 0.338905 -1.096240 0.244227 -1.123133 0.612379 1.349756 0.133515 0.695743 -1.482330 0.534382 -0.711852 0.127595 0.303107 0.096066 -0.468660 0.848145 0.193829 0.552324 -0.335070 0.977140 -0.787702 0.571228 -0.397155 0.272089 0.296637 -0.092683 -0.061000 -1.381568 -0.673863 -0.576407 -0.120850 -0.836671 -0.495692 -0.743025 0.505462 -0.088467 -0.905017 -0.740558 -1.088733 -0.360204 0.017269 0.156293 -0.294140 -0.673475 0.747713 0.914002 -0.661774 -0.858832 -0.235647 0.239061 0.167957 -0.221316 0.025455 0.761229 -0.782696 0.822495 -1.307918 -0.499122 0.344940 -0.604581 0.851313 -0.655762 0.477295 0.270790 -0.026806 0.080045 1.510825 0.347611 0.249512 -0.626855 -0.013031 0.332758 -1.645024 1.230489 0.545787 0.079719 1.445344
AF348748.1.1327 0.177405 -0.146448 0.073038 -0.416418 0.185083 -0.184759 0.466623 0.086093 -0.105114 0.664583 0.224094 0.735269 0.477343 -0.066654 -0.306576 0.238443 0.764007 0.144427 -0.155979 0.297747 0.003023 -0.049151 0.429412 0.286554 0.089691 -0.197898 -0.411131 0.350370 -0.526326 0.083861 0.480032 0.574147 -0.238181 -0.588494 -0.545091 0.190165 0.442698 0.109163 -0.092306 0.092960 -0.686238 -0.844458 -0.555662 0.202843 0.049063 -0.398229 0.161285 0.202458 -0.108501 -0.815041 0.430035 0.652959 -0.868877 0.144620 0.978368 0.194341 0.600769 1.049575 -0.429903 0.890163 0.166544 -0.186383 -0.669569 0.295504 -0.582909 -0.108457 -0.132498 0.904513 -0.576451 -0.230385 0.329950 0.054061 -0.477221 0.342895 0.476468 -0.070158 0.093584 0.457122 -0.025308 0.089647 -0.516618 1.016390 -0.240115 -0.258917 0.057174 -0.018831 0.070899 0.394074 0.299639 1.218207 0.011108 -0.045174 -0.607839 -0.302668 0.479469 -0.063116 -0.281778 -0.178602 -0.557159 -0.386786
AF349930.1.1400 0.491979 0.744344 0.314949 0.334208 1.010099 0.085388 -0.335005 -0.022191 -0.440285 0.285355 -0.480049 -0.230161 0.383836 0.472763 -0.997013 0.364132 0.196048 0.287425 0.163701 -0.857846 -0.162762 0.112095 -0.316844 0.145001 0.172426 -0.080609 -0.354255 -1.030166 0.827633 0.073073 0.483779 -1.334767 0.592761 0.510348 0.343153 0.188211 -0.196081 -0.487775 -0.155983 -0.369871 0.523409 -0.638221 -0.079398 -0.120821 -0.091556 -0.484296 0.600177 0.257061 0.743127 0.641496 0.246403 -0.878158 -0.488071 -0.533585 0.148456 0.617894 0.126109 0.220735 0.174130 -0.886187 -0.904642 0.184950 -0.015781 -0.227966 -0.247053 0.381684 0.232179 -0.643546 0.156761 0.924532 0.288865 -0.346736 -0.067763 -0.319015 -0.296985 0.301499 0.068027 0.236705 -0.834464 -0.844513 0.286349 0.086649 -0.792429 0.244623 0.620046 -0.357609 0.319578 0.377659 -0.086157 -0.150079 -0.418916 0.672648 -0.567092 0.333750 -0.214105 -0.719788 -0.826420 0.416500 0.225255 -0.513808
AF349937.1.1220 -0.336898 0.588373 0.580810 0.231827 0.835855 0.384291 -0.536300 -1.344330 0.147027 -0.042855 0.255921 0.348537 0.135722 0.564069 -0.036381 0.212610 1.193097 0.013822 0.459881 -0.626013 0.175466 0.154121 0.288371 -1.002967 -0.345864 0.256950 0.903669 -0.023293 0.309602 0.168352 -0.365467 -0.840089 0.689580 0.629195 -0.091584 0.134845 -0.058758 -0.583173 -1.068290 -0.726060 0.917920 -0.228548 0.383992 -0.005100 0.405306 -0.131677 0.311859 1.010164 0.989533 1.048413 -0.131458 -0.002850 0.547395 -0.208704 0.379005 0.624790 0.742726 0.693545 -1.434042 0.158098 -0.718401 0.517611 -0.714936 0.042387 0.081657 0.042926 0.318693 0.348903 -0.339727 0.271424 0.733188 0.815228 0.099899 0.123966 -0.962959 0.032677 -0.046904 0.477480 -0.781665 1.105675 -0.601466 1.105390 -0.186798 -0.137142 -0.192119 0.454903 0.515431 0.887816 -0.233684 -1.300544 -1.438390 0.287916 0.147061 1.088611 -0.956348 1.195419 -0.209418 0.468257 -0.731642 0.438103
AF359941.1.1346 -2.997658 0.867605 0.244360 -0.013245 0.563828 0.525866 0.156720 -0.125229 -0.037853 0.759053 -0.468174 -0.407061 0.288582 -0.932024 -1.440210 -0.997612 0.889955 -1.064273 -1.531724 -0.449592 -0.971708 -0.276067 -0.787949 0.538268 -0.636307 0.521046 -0.710489 0.484309 2.015204 -0.786593 -0.197285 0.426847 -0.447274 0.098511 0.170397 -0.514132 1.260463 -0.587960 -1.173672 0.144961 -0.758353 0.982462 1.099143 1.588417 -0.206473 -0.307084 -0.243366 0.354939 0.065885 0.125295 0.472005 -0.930499 1.214954 0.356039 0.952109 1.127975 0.315390 0.575586 0.476062 -0.145345 0.502704 1.152299 -0.586026 1.089633 0.377391 0.522625 1.123182 -0.809614 -0.938535 0.288771 -0.850611 -0.730523 0.317880 1.180044 0.450641 0.874816 0.274369 0.742733 -1.082907 -0.599439 -0.253583 0.682398 0.097391 1.052963 -0.674100 -0.069147 0.688957 0.381068 -0.085779 -0.350877 0.189088 0.907122 0.304760 0.241756 -0.474845 0.747344 1.073543 -0.560436 0.400665 0.888908
AF371526.1.1384 -0.090827 -0.263035 0.022394 0.513773 0.540219 -0.085580 1.146979 0.391932 -0.349213 -0.333638 0.319100 0.295300 -0.088935 -0.519638 0.121221 -0.284669 -0.156585 -0.204267 -0.023210 0.772458 -0.795531 -0.497236 0.505116 -0.050721 -0.312389 -0.198891 -0.094691 -1.651518 -0.342794 0.171508 -0.448470 0.061594 1.527417 -0.109628 1.278457 0.675045 0.331963 -0.967776 -0.531448 -0.566314 0.268043 0.031736 -0.167923 0.210257 -0.002603 0.243819 -0.386020 -0.235085 -0.423792 -0.009991 0.171874 -0.039057 -0.618822 0.614281 -0.208972 0.702422 0.165979 1.680176 -0.600031 0.545101 0.174460 -1.509587 0.138566 -0.086210 0.948281 0.677426 0.319929 -0.555270 -0.054409 -0.439772 0.192281 0.301650 0.149197 -1.261669 0.276843 0.264830 0.284207 0.764831 -0.293298 -0.391146 -1.075910 -0.811281 0.598637 0.156308 0.830018 0.367170 0.070995 0.536079 0.688997 -0.577011 0.266209 0.415154 0.131421 0.252532 0.236419 0.399306 -0.619738 0.284043 1.038391 -0.086665
AF371634.1.1454 0.024709 -0.396991 0.118411 -0.108572 0.380765 0.280130 0.508773 0.298063 0.543443 -0.319725 -1.057403 0.122843 -0.297429 -0.140967 -0.136357 0.229940 0.107300 0.642774 -0.461813 0.782718 -0.411982 0.002428 0.212494 0.023411 0.129044 0.013166 -0.110268 -0.554329 0.571174 0.489149 -0.213297 -0.759577 0.843390 0.447333 -0.896307 0.017871 0.742264 0.425476 -0.217272 0.726459 -0.061628 0.525422 -0.193542 -0.703559 0.414964 0.312942 0.651817 -0.620745 -0.206472 0.032945 -0.782503 0.208461 -0.752529 0.357809 -0.321820 0.175463 -0.496853 -0.807112 0.232968 0.318668 -0.287945 -0.685615 1.011575 -0.361655 -0.207665 1.161340 0.402696 0.265649 -0.097750 -0.783672 -0.226310 0.082506 0.186202 0.438855 -0.212116 0.316959 -0.271800 -0.083971 -0.142270 0.093173 0.285600 -0.089492 -0.059761 0.648262 0.342520 0.211621 0.144725 -0.655108 -0.533838 -0.166394 0.124566 -0.260362 -0.263880 1.102448 -0.539078 0.097966 0.554594 -0.067404 0.814713 0.322685
AF371637.1.1465 0.615417 -0.653382 -0.116030 -0.288160 0.993832 0.573202 -0.008539 -0.355061 0.556308 -0.922400 0.109288 0.070950 0.549184 0.452610 -0.113442 0.189038 -0.836487 0.006856 0.376919 0.008136 -0.832976 -0.471166 -0.084498 -0.001063 0.098726 0.296452 -0.657683 -0.415334 0.319321 -0.365222 -0.647529 -1.694467 0.619694 -0.179441 1.057869 -0.215424 0.292490 -0.723988 -0.190466 -0.346859 0.279218 0.458445 -0.589669 -0.407011 0.216366 0.909051 0.133887 -0.370175 -0.254919 -0.756584 0.829233 -1.272874 0.790753 0.257190 -0.026602 0.100875 -0.142249 0.393502 0.104473 0.150695 0.439812 0.655314 0.102327 -0.367150 0.210467 0.116865 -0.156807 -0.176602 0.609308 0.123157 -0.518261 0.115719 -0.556301 -0.122811 -0.341473 -0.684078 -0.956777 0.078699 -0.162431 -0.840595 -0.014135 -0.262324 0.251254 0.538788 -0.158929 0.516951 0.199666 -0.683193 -0.636727 0.699023 -0.603528 -0.455863 0.744471 0.992411 -0.375043 -0.416696 0.752077 -0.120487 -0.361097 -0.467096
AF371644.1.1419 -1.098925 0.763408 -0.425878 0.072400 0.917118 0.794679 -0.583993 0.190942 -0.826616 0.719009 0.403676 0.284414 -0.242434 0.654799 -0.491651 -0.971602 0.884086 -1.026764 2.130204 -0.010739 -2.291862 -0.453500 -0.643138 -0.591281 -0.289438 0.852708 0.804004 -0.358661 0.305161 -0.765038 0.462410 -0.082681 0.221808 -0.630443 0.158850 -1.577914 -0.836281 -0.395523 -1.084222 -1.699687 0.311537 0.430402 0.952492 0.416262 1.467357 1.346931 0.190732 -0.214402 -0.097696 -0.730646 0.288608 -0.751269 0.993868 -0.097916 0.066571 0.523271 -0.270558 0.937124 0.345367 0.066036 0.107835 1.117390 -0.628390 0.275429 0.600441 1.256327 1.038888 0.169472 -0.974104 -0.612594 -0.750909 -0.614763 0.072075 -0.456317 0.111510 -0.122636 -0.532488 -0.959122 0.993724 -0.009147 1.299821 -0.031392 0.205195 0.441994 0.815865 0.354188 1.031444 -1.124155 -1.710920 -1.545149 0.072659 0.388907 0.437346 -0.474314 -1.429824 2.060611 0.797122 0.333045 -0.911160 1.760495
AF371654.1.1443 -0.514613 1.279867 0.454334 1.039441 1.561385 -0.973931 -1.486773 0.348950 0.157791 0.165155 -1.207208 0.480017 -0.437315 -0.622790 0.914749 -0.919366 -0.244025 -0.631035 0.082843 0.245906 -0.543094 -0.495266 -0.086849 0.602605 0.123821 -0.218537 -1.242462 -0.674870 1.917996 -1.201151 1.582352 -0.645633 0.424199 0.524107 0.856350 1.232138 0.221571 -0.475755 -0.890887 0.126974 0.060046 -0.045445 0.406041 0.103700 -0.160527 -1.103390 0.395496 -0.394157 -0.706992 -1.068366 -0.428276 0.064211 -0.966743 0.138792 0.986909 0.167874 0.015326 0.146541 -0.047458 -1.068889 -0.371031 -0.190281 1.268207 0.397999 -0.443792 1.674883 0.241373 -1.972926 -1.560020 -1.310479 1.000564 -0.239911 0.610163 -0.741517 -0.023691 1.492111 0.259719 -0.018598 -0.432354 -0.125684 -1.638058 -0.231606 -1.172362 1.254912 0.332421 0.453150 1.064558 -0.561044 0.352403 -0.939048 -0.010825 0.789859 -0.527274 0.815915 -0.325002 -0.072286 0.955583 -0.430177 0.425197 -0.467399
AF371677.1.1456 0.371394 -0.996215 0.171010 1.242759 0.301810 0.131411 -0.782191 0.528311 0.138524 0.722211 -0.964768 0.467216 -1.229453 -0.674357 -0.144035 -0.794199 -0.305127 0.777538 -0.248748 -0.065642 0.231308 0.227238 -0.726264 -0.524413 -0.207359 0.727378 -1.292852 0.578880 0.989130 0.390685 0.142620 -0.788824 0.921329 -0.242563 0.697467 -0.306691 -0.001767 -0.443979 0.361247 -0.457527 -0.238538 -0.355254 -0.726031 -1.400760 0.321371 -0.326036 0.021999 -0.420640 -0.220675 1.405781 -0.556192 1.380509 -0.558804 -0.140425 -0.210764 -0.856234 -0.868106 -0.041802 0.311547 0.574854 -0.322601 -0.256150 -0.986698 0.097208 -0.719729 0.332699 -0.093657 -0.487344 -0.588946 -0.658620 0.429685 -0.152910 -0.753032 -0.685558 -0.502388 -0.518932 0.540228 -0.667279 -1.167994 -0.376400 -0.014897 0.155917 0.185450 -0.460665 0.559278 0.483425 -0.139751 0.552650 -0.044769 -0.206764 -0.514904 0.113568 0.479840 -0.046145 0.804445 -0.030344 0.294245 -0.668476 0.685137 1.123220
AF371714.1.1434 -0.808336 0.077275 0.373477 0.108386 -0.522753 0.585156 0.570952 -0.359065 0.107920 -0.301181 0.654643 0.675634 -0.272059 0.228700 -0.244242 0.824270 0.884136 1.103477 -0.781948 -0.192822 -1.398038 -0.371009 0.361201 -0.475030 0.658599 -0.076916 -0.078350 -0.531691 0.018311 0.015822 -0.223089 0.400470 -0.399019 -0.114604 0.273628 -0.240869 -0.396170 -0.143533 -0.192669 -0.288910 -0.240479 -1.205371 0.345457 -0.381656 -0.256392 0.526611 -0.283530 0.317260 0.218123 -0.307979 -0.978594 -0.473079 0.335053 0.616477 0.069672 0.710517 0.836527 0.031404 -0.329479 0.273135 1.245104 0.418044 0.245305 -0.662574 -0.188859 0.290032 0.090570 0.100948 -0.135251 0.547498 -0.317524 -1.146648 -0.658086 0.926927 0.981083 -0.588526 0.332582 0.610747 0.764987 0.091490 -0.165416 -0.929635 0.231534 0.433210 0.262144 -0.094987 0.077459 0.598964 -0.326622 -0.554758 -0.094097 0.425837 0.169084 0.184137 -0.772023 -0.429290 0.323274 0.463298 -0.545074 -0.202677
AF371744.1.1240 -0.379846 0.563355 -0.187820 0.161872 -0.399922 0.684091 -0.767466 0.148021 -0.169690 -0.688421 -0.984288 -0.308218 -0.355289 -0.146567 0.015514 -0.116963 0.351542 0.053607 0.579490 -0.013384 -0.189023 0.179645 -0.607329 -0.043397 0.738336 -0.110631 -0.497929 -0.735269 -1.012731 -0.329653 0.064806 0.012081 -0.303357 0.190584 0.336398 0.504939 0.031798 -0.574943 -0.139176 -0.270273 0.591465 -0.075305 -0.030320 0.122519 0.361967 0.321992 -0.458970 -0.271551 -0.381048 -0.168519 0.099738 -0.313690 0.099758 0.211703 0.058846 -0.577470 -0.165685 0.062209 0.158647 0.126145 0.201265 0.104966 0.972381 -0.082958 0.778337 -0.087528 0.660158 -0.040053 0.468309 0.099198 0.274957 0.374520 -0.092723 -0.295381 -0.663264 0.048265 0.195773 -0.316070 -0.076512 0.076644 0.087238 -0.674939 0.647776 -0.128410 0.638321 -0.455337 0.034075 -0.882947 -0.164827 -0.490752 -0.424370 0.250326 -0.272053 -0.079400 -0.012947 -0.531467 -0.664364 0.351037 0.005479 -0.489484
AF371746.1.1412 0.633818 -0.233543 0.437763 0.016363 0.686028 -0.576201 -0.069383 -0.340490 -0.008372 -0.804707 0.245699 0.303720 -0.545347 -0.359049 -0.065274 0.091538 0.360715 0.623094 -0.041451 0.579455 -0.452596 -0.228208 -0.048165 0.004863 0.541546 -0.064726 0.112287 -0.435810 -0.104088 -0.867660 0.604603 0.054953 1.166872 0.191701 -0.011803 0.444851 0.234800 0.685863 -0.144843 0.293956 -0.373744 -0.609095 -0.298709 -0.278027 0.008634 0.267823 0.691592 -0.655286 -0.106026 0.929029 -0.577018 0.585408 0.551317 0.533101 -0.569523 -0.055743 0.896316 0.399288 -0.244690 -1.147704 -0.459395 -0.942274 0.090537 0.207780 0.568528 1.051467 0.709410 -0.055862 0.195682 -0.077026 -0.434870 0.888561 0.429395 -0.773024 -0.180409 -0.277197 0.339381 0.045454 -0.443877 -0.572533 0.332008 0.288256 -1.090382 0.616417 0.582953 -0.849691 0.317547 0.095048 -0.298706 0.376603 0.112870 0.009615 -0.444427 0.251380 -0.622079 0.141341 0.074004 0.515959 0.035921 0.348266
AF371758.1.1352 -0.666264 0.063610 -0.103370 -0.526106 0.279619 0.732484 -0.015385 -0.755575 0.415157 0.144685 0.426363 -0.136087 -1.151970 0.247710 -0.291929 -0.239374 0.572826 0.415687 0.205226 -0.175507 -1.424345 0.040420 -1.143081 0.136859 1.209008 -1.096537 0.642801 -0.677777 0.219453 0.786032 0.168736 -0.908667 -0.194397 -1.003578 0.360929 -0.936064 1.071672 -1.054160 -1.623823 -0.737565 -0.386238 0.982444 -0.552476 -0.763997 0.699958 0.111204 1.067002 2.038833 0.934957 0.172377 0.431804 0.077222 0.075987 -0.254916 -1.582364 0.240096 0.931316 -0.319282 -0.412150 -0.076034 0.048129 0.699046 -0.091733 -0.335349 1.502970 0.169754 0.431866 0.238641 -0.702180 0.486533 0.174427 1.456570 1.231341 1.013444 0.167136 -0.207945 0.545723 -0.909095 -0.258878 -1.582756 0.222405 -0.762674 -1.297053 -0.168154 -0.078534 -0.274010 1.142240 0.734160 1.732740 0.697682 -0.148655 -1.040793 -0.775602 0.560564 0.907406 0.613987 -0.579998 0.145480 0.486068 0.722513
AF371802.1.1417 -0.941588 0.817484 1.755547 -0.425895 0.339833 0.889666 -1.191905 -0.088498 0.180622 -0.142681 -1.255282 0.557753 0.671586 -1.239961 -1.649699 0.490016 1.019494 -0.540394 0.882167 0.254581 0.455210 0.649890 0.455839 -0.025888 -0.741170 -0.149599 0.253997 -0.380876 0.938677 -0.460880 0.657011 -0.236712 0.879418 -0.379283 0.870170 0.340236 0.617006 1.370714 -0.456325 -2.981182 0.057164 -1.720396 -0.123829 -0.274512 1.150355 -1.640496 0.128857 0.002119 -0.983609 -0.772053 1.101027 1.314134 -3.005109 0.219573 0.577434 0.413898 0.036616 0.072704 0.765820 -0.338817 -1.109260 2.463636 -0.667361 0.512353 1.094769 0.209350 -0.114178 -0.143517 0.528606 0.031596 0.306556 1.466531 -0.595002 0.258561 -0.671153 0.759615 -0.483609 0.502893 -0.588003 -0.674586 -0.665837 0.788748 1.495812 -0.653201 0.382855 0.594477 1.468740 0.456264 0.760116 -1.007013 0.628218 -0.276994 -1.669861 1.845328 1.043134 -0.980227 0.317324 1.589264 0.568127 -0.167497
AF371811.1.1357 -1.592171 1.009174 0.225825 1.194251 2.411240 -0.250990 0.780016 -0.759814 0.404107 -0.528650 -0.793440 1.212360 -0.575828 -0.595401 0.617367 0.487499 0.016588 0.151330 0.280911 -0.370689 -2.876744 -0.665284 0.125562 -1.116211 -0.677545 -0.353486 0.366269 -0.190303 1.247227 -0.687859 -0.661507 0.080560 -0.972869 0.673128 0.320689 -0.375489 -0.959700 0.215343 -1.040295 -0.619482 -0.362294 -0.679910 -0.083157 -0.184279 -0.012169 -0.009837 0.120769 0.292686 -0.939874 -0.425023 -1.984955 -0.763085 0.003248 0.852734 -0.133531 0.807088 -0.575887 0.166466 -0.641307 -0.082736 -1.276806 -0.124397 -0.472085 0.383127 -0.552190 -0.004473 -0.131783 0.002743 -0.527266 0.239370 0.146691 -1.123693 -0.492576 0.911874 1.090681 1.154328 -1.426465 -0.966921 1.319287 -0.078289 -0.263655 0.402725 -1.100768 -0.041589 1.611744 -0.253605 1.483543 1.329945 -0.374433 -0.702073 -0.014979 -0.089516 -1.426185 -0.568839 0.437890 -0.483725 -1.066758 1.028631 -1.012157 -0.395664
AF371871.1.1476 0.521468 -0.170869 1.168028 0.779247 -0.164625 -0.671426 -1.240695 -0.308701 -0.442636 0.088983 0.333129 -0.805154 -0.967646 0.587018 -0.006823 1.610264 1.042263 0.412100 0.396109 1.461553 0.402830 0.392343 0.144216 0.764802 1.262907 0.319444 0.025305 -0.596845 -0.710636 1.459611 -0.836938 -0.906162 0.498670 0.058625 -0.001460 1.011196 0.393896 -0.840883 -0.202461 -0.548929 0.629238 -0.986706 1.468106 -1.689237 0.253197 0.501484 0.419791 -0.819337 1.194702 1.255142 0.579236 -0.497292 -1.107677 0.844991 0.778264 -0.021332 -0.267414 1.420392 -0.835246 0.718224 -0.068215 0.732807 -0.553471 -0.334243 -0.052077 -0.467280 0.101402 0.561570 -1.231809 0.939257 -0.899860 0.694123 -0.225896 -1.293830 1.221759 0.284755 1.414355 -0.209754 0.116016 -0.120090 -1.020654 -0.133704 -0.456199 -0.230715 0.238979 -0.434304 -0.387149 1.801247 -1.295262 -0.859803 0.662746 0.014697 -1.226309 0.059973 -0.411449 0.067404 0.722076 0.876492 1.313773 -0.597557
AF371894.1.1455 -1.471665 -0.773223 0.151750 1.010864 -0.370956 0.894757 -1.663432 0.485901 -0.352582 2.226647 0.679298 -0.077202 -0.551580 1.175960 1.877551 -1.390883 1.764564 -0.267532 -0.915092 0.634714 -0.732049 -0.706314 -0.612801 -0.178559 0.973750 -0.149377 0.049639 0.986362 -0.053429 0.029470 -0.518500 0.193124 -0.568377 -0.240596 -0.320539 -0.579783 -0.053329 -0.252825 1.271657 -1.796569 -0.457319 0.164174 -0.303073 0.049321 -0.999555 0.145804 1.129899 -1.035094 0.486067 0.526959 0.654461 0.435792 0.577167 0.823075 -0.526224 -0.042981 -0.721208 0.787357 -1.075751 0.490154 -0.925469 0.222137 0.657855 -0.289329 0.163389 1.307111 0.060971 0.525959 0.040857 -0.786699 -0.201436 0.359802 0.028466 0.225015 -1.798959 -1.161245 -0.260159 -1.301205 1.148122 -0.485789 -1.254828 0.726062 -1.538485 0.132746 -0.569885 0.839435 2.145839 -0.486408 0.648603 -0.962596 0.376589 0.718422 -0.877567 -0.564826 1.436134 0.055979 0.429468 1.172469 0.494713 -1.424384
AF376229.1.1349 -0.012453 -0.397046 0.217577 -0.047706 0.532559 -0.007372 -1.321927 -0.662182 0.480306 0.065761 -0.191217 -0.201312 -0.931771 -0.164383 0.174931 0.475625 0.581361 -0.023547 0.762366 -0.485953 -1.322852 0.406045 -0.211927 -0.645480 0.496382 -0.839270 0.306161 -0.102510 0.812970 -0.485572 -0.191730 -1.410619 -0.886019 0.314425 0.600713 -0.711996 0.100560 -0.200665 0.301767 -0.636294 0.368109 -1.434582 -0.367513 -0.478945 0.281687 -0.137425 -0.057649 0.767128 0.271399 0.022694 -0.509312 -0.363012 0.033617 -0.495118 0.594330 0.642998 -0.070365 0.525976 0.371517 0.049602 -0.580561 1.527030 -0.322034 0.214765 0.177106 0.776700 0.496552 -0.219689 -0.805200 -0.058140 -0.112151 -0.439926 -0.504372 0.157430 -0.008930 -0.238180 0.103986 0.358961 0.452566 -0.481975 0.116788 0.775129 0.750817 0.053067 -0.419511 -0.045335 0.534016 0.423649 0.138938 -0.544876 -0.746619 0.862817 -1.090302 -0.010131 -0.035138 0.465124 0.940902 0.166422 -0.315928 -0.100302
AF414809.1.1363 -0.922472 0.330520 0.440184 0.190683 1.236844 0.422644 0.114601 -0.783231 -0.875842 0.478050 -0.620573 1.034368 -0.505975 -0.005149 -0.206667 0.216186 1.185906 0.054141 0.266002 0.625636 -1.415533 -0.008843 -0.747936 0.457924 0.166013 -0.915620 -0.086644 -1.042388 -0.093549 0.134850 0.745791 -0.572859 0.318235 -0.307472 -0.047627 -0.606100 0.411246 0.951113 -0.037683 -1.626861 -0.124620 -0.342716 -0.005072 -0.863818 -0.444930 -0.111104 0.524254 0.325373 0.046984 0.604107 -0.765344 -1.304721 0.779937 0.551443 -0.334063 -0.354271 -1.768607 -0.191629 -0.067670 0.365509 -0.573212 0.419118 0.252717 -0.048028 -0.796025 0.480051 -0.569514 -0.011732 -0.317957 -0.440039 -0.868438 -0.453687 -0.439604 0.311155 -0.603947 0.464643 -0.880804 -0.137871 0.631240 -1.074001 -1.253036 1.359050 0.561941 -0.415429 -0.663651 -1.565167 1.154835 1.332054 -0.043303 -0.062543 -0.972921 0.464630 -0.639457 0.058180 -0.273540 -0.031446 0.611045 1.499890 0.166273 0.449528
AF432138.1.1487 0.308948 -0.067164 -0.161780 -0.458030 1.154637 -0.210313 0.146285 -0.444107 -1.208924 0.461759 0.219678 0.308530 0.511024 0.388749 0.131951 0.939513 0.569423 -0.296798 -0.033303 -1.097447 -0.326098 0.003608 0.476284 -0.512910 -1.025734 0.060588 -0.167781 -1.072684 0.035342 0.103062 -0.385891 1.019580 0.487258 0.437577 -0.926243 -0.374606 -0.779938 -0.213974 0.480599 -0.345637 0.098408 -0.801580 0.590590 0.571114 0.509944 -0.425992 0.460038 0.731117 -0.283389 -0.228314 -1.433313 0.322606 -1.012519 -0.892281 0.459228 1.446305 0.859537 0.472086 0.073061 0.378152 -0.194798 -0.480470 0.406048 -0.847877 -0.843400 -0.248995 -0.773121 -0.431952 0.301774 -0.431003 -1.027696 0.383529 0.143193 -0.749911 -0.734286 0.340146 -0.241458 -0.086583 0.137268 0.307581 0.295440 0.029720 -0.161257 0.250637 1.354809 -0.295665 0.344652 0.768182 1.065883 0.328101 -0.825014 0.205098 -0.360809 0.101907 -0.316002 -0.125438 -0.813237 -0.001958 0.291578 0.236480
AF499899.1.1248 -0.050645 0.025077 -0.077413 0.932807 -0.114402 -0.140374 -0.231160 -0.165713 0.130662 -0.884295 0.090904 0.607189 0.520765 -0.158598 0.375244 -0.145394 0.816352 0.040904 -0.051109 0.206176 1.160774 0.024060 -0.105019 -0.097125 -0.120844 0.290538 -0.795435 -0.259579 0.520324 -0.546896 -0.482283 0.027972 0.875958 -0.028345 -0.179793 -0.288316 0.140952 0.179868 -0.003693 -0.605788 0.768417 -0.548457 -0.451791 -0.240319 0.260315 -0.436702 -0.395115 0.198700 0.446191 -0.650788 -0.574345 -0.677987 0.434516 0.229423 0.049627 0.192187 0.508228 0.062320 -0.058045 -0.585924 0.150797 -0.062850 0.360050 0.320295 0.329919 -0.397607 -1.525278 -0.329858 0.532990 -0.463230 -0.325322 -0.005359 0.073019 0.856123 -0.161021 0.721707 -0.129482 -0.078867 0.157210 -0.367052 -0.597054 -0.382572 0.202623 0.638967 0.353012 0.035974 0.054935 -0.552418 -0.093843 0.633263 -0.335618 0.122213 -0.886534 -0.335981 0.385723 -1.264643 0.107677 0.676198 -0.486251 0.001035
AF550641.1.1417 -0.075463 -0.172015 -2.003249 0.134025 1.299482 0.208602 0.779143 0.995326 0.286170 0.075346 -0.094881 -0.375604 -0.435414 0.997157 1.177822 1.273965 1.502065 2.834414 0.986181 -0.517964 -1.292959 0.171832 -1.009138 -0.304184 1.832754 -0.306305 0.363161 0.416017 1.001650 -0.414196 -0.535834 0.162362 0.050142 0.453740 -1.696134 0.045457 1.292179 -1.377913 1.092954 0.053200 -0.855643 0.653505 0.633909 -0.492403 0.714781 0.162232 0.747300 0.651852 0.486605 -1.193294 -0.428794 1.775384 -1.023216 -1.278328 -0.063916 1.756539 0.517156 1.090276 0.784158 0.657485 -0.666364 0.544248 -0.089924 -0.309267 -0.950926 0.761646 -0.535307 -0.622752 0.923599 0.726236 0.861871 0.375915 -1.592920 2.007343 -0.775025 -0.974776 1.237710 0.407849 0.638345 1.594753 0.645076 1.160046 -1.447694 -0.460906 -1.401628 -1.027388 0.805786 -0.307886 -0.182500 -0.954588 -0.964108 0.721719 0.024035 0.312670 -0.567596 -0.410258 -0.410496 -0.787787 -0.131493 -0.777050
AF550651.1.1555 -0.808437 0.541146 0.058499 -0.307266 0.881096 0.022402 -0.495113 -0.137557 -0.075931 0.061362 -0.878895 0.251434 -0.423920 0.148988 -0.455962 -0.245448 0.543520 0.531792 0.172375 0.042311 -1.456129 -0.148333 -0.456176 -0.988927 0.075366 0.219701 -0.110707 -0.756367 -0.269922 -0.139113 0.219690 -0.477584 0.326453 0.024959 0.247693 -0.815333 0.467392 -0.515333 0.158216 -0.506129 0.424915 -0.652347 0.115397 0.001719 0.314188 0.174240 0.075364 0.201087 -0.002950 0.110998 0.223909 -0.147378 -0.347168 -0.162315 0.671126 0.666208 -0.014927 0.743249 -0.181654 0.552276 -0.549636 0.866072 -0.234850 -0.128681 0.143733 0.370053 -0.001321 0.333064 -0.379317 -0.330159 0.220470 0.141640 -0.357209 -0.013814 -0.055482 -0.244194 -0.603099 0.117130 0.054795 -0.139027 -0.151624 0.275322 0.567857 0.023055 0.058229 -0.327131 0.932296 0.198545 0.040723 -0.381382 -0.624732 0.066113 -0.827956 0.511004 -0.568792 -0.156788 0.460169 0.481312 0.159646 -0.228788
AJ243791.1.1423 -0.052641 -0.254335 0.350444 -0.341522 0.199167 0.806184 0.409748 0.513657 0.300143 0.159475 0.093890 1.163299 -0.330595 -0.283744 -0.558209 -0.488671 1.937488 0.368132 -0.223889 0.140682 -0.097116 0.669693 -0.060386 -0.351855 -0.855808 -1.155570 1.062676 -0.093953 0.739130 0.553379 0.839438 0.018633 -0.966386 1.127096 0.655981 0.328137 0.114991 -1.485794 -0.652200 0.489497 0.521418 0.402918 1.701583 -0.390096 -0.124612 -0.504979 0.326932 0.312597 0.994301 0.039135 -0.303842 -0.747983 -0.494041 -0.190596 -0.457276 0.439061 0.649249 -0.358064 1.171462 0.101776 -0.007092 1.357537 -1.747005 -1.068842 -0.075487 0.883937 0.388570 -0.397293 -0.512231 -0.179999 -0.246822 -0.180906 -0.002339 0.357062 0.240951 -0.270663 1.451316 -0.402911 -0.312679 0.056067 -0.398342 -1.152422 0.213846 0.029058 -1.587021 -0.136788 -0.471231 0.893670 0.381232 -1.577879 0.430121 0.494134 -0.849919 0.474784 0.000003 0.825737 -0.997416 0.301463 -0.019060 -0.279251
AJ249859.1.1350 -1.620483 -0.204516 -0.849365 -0.337523 0.069372 0.151094 0.166059 -1.338603 0.655620 0.484858 -0.454488 0.118602 -1.749508 -0.397660 0.271669 -1.212733 1.490119 0.357156 1.081507 -0.849024 -0.289134 1.084802 -0.562523 -1.057731 0.917747 -0.396610 -0.247887 -1.110813 0.698031 -1.757223 -0.354187 -0.175920 -0.325996 1.398534 -0.303867 -0.582905 0.635308 -0.829174 -1.470521 1.037265 0.198350 0.878314 -1.014070 -0.192775 -0.389047 -0.264687 0.307777 1.026556 0.415792 0.318114 -0.126915 0.009370 0.516773 -1.177419 0.215863 1.582778 -0.978007 0.343665 0.107571 -1.123998 0.351432 1.263951 -1.297374 0.616624 -0.068592 -0.093465 -0.629329 0.788522 -0.096519 1.345494 -0.445897 -0.636097 -0.130425 0.005180 1.507072 0.897263 -0.939568 1.037751 -0.321050 -0.641201 -0.508155 0.312827 -0.567741 -1.296121 -0.296522 -2.214438 -0.601237 1.405525 0.614787 -0.624704 -0.017254 0.381285 -0.142580 0.218207 -0.597458 -1.336353 0.719660 1.230895 -0.241813 0.503174
AJ277208.1.1350 0.030556 1.884973 0.840849 -0.555876 1.602898 -0.260721 -0.185039 0.625975 0.326505 1.725110 -0.579747 1.020531 0.209473 -0.590719 -0.054644 -0.016946 0.597933 1.023862 0.172879 -1.051834 -2.302267 -0.521009 -0.089307 0.518851 -0.659168 -0.865177 -0.028011 -0.382464 0.575205 0.430899 -1.126987 0.120849 0.111276 -0.329387 0.627439 -0.613810 0.320284 0.171588 -0.692921 -0.689353 0.611805 -0.966322 0.172035 0.351847 0.051030 0.492018 0.868400 -1.461224 0.017556 -0.620910 -0.041213 0.603524 -0.057491 0.987794 -0.616908 -0.325147 -0.304600 0.803191 1.213612 0.140934 0.180733 0.215183 -0.148185 -0.279706 1.522752 0.020070 0.210112 -0.112195 -0.796540 0.901652 1.354418 0.327401 -0.519530 0.185560 0.238889 -0.341614 1.159868 -0.837078 1.671909 -0.418097 -0.262310 -0.822268 0.270779 1.093792 -0.595151 0.016281 -0.887381 0.685140 0.659417 -0.201200 0.057209 0.471951 -0.778420 0.751787 -0.477407 0.886091 0.508091 1.551715 0.876121 -0.201324
AJ291746.1.1317 0.055879 0.645521 -0.759669 -0.060516 0.206296 0.549900 -1.042134 -0.447690 -0.794980 0.666940 -0.685038 0.046772 -0.737341 0.162673 -0.050684 -0.433772 1.141563 -0.216606 -0.170758 0.021641 -0.726075 1.074981 -0.442459 -0.832475 -0.186224 0.864395 -0.216211 -0.581595 -0.365007 -0.514183 0.283284 -0.167993 0.025925 -0.286470 0.318604 -0.202799 -0.098513 -0.212069 -0.514473 -0.210827 0.805241 -0.696804 -0.189498 0.215626 -0.333621 0.023164 1.192409 0.445605 1.175453 0.351450 0.566681 -0.203349 -0.247415 -0.442252 0.707758 0.919911 0.713123 1.082135 -0.094714 -0.135333 -0.402747 0.062968 -0.721292 -0.075956 0.009469 0.822000 0.104921 0.406820 -0.004360 0.612009 0.534619 0.198779 -0.451345 -0.965316 0.512796 -0.688924 -0.903968 0.256933 0.503479 -0.933486 -0.061706 0.800317 -0.034218 -0.397830 0.233294 -0.147167 -0.250929 0.792769 0.647364 -0.372492 0.041874 0.434547 -0.826799 -0.771309 -0.773431 -0.515897 0.334824 0.948851 -0.455601 -0.207711
AJ420200.1.1419 -0.821432 1.499600 -0.003757 0.141797 1.163169 0.032623 0.864945 -1.271883 -0.111907 -1.182744 -1.181390 -0.565151 0.692428 -0.977475 -0.933085 0.118636 0.674107 -0.109450 -0.623953 0.177437 -0.730723 0.393625 -0.081469 0.734398 -0.690562 1.517349 -0.103246 -0.496003 0.052001 -0.896639 0.482251 -1.489642 -0.557938 -1.075152 0.164216 -1.232918 1.320248 1.226148 1.264608 -0.239876 1.473814 -0.204437 1.686105 0.783039 -0.100162 -0.235794 -0.124079 1.017204 -0.684373 0.210784 -1.185339 0.110812 -1.157238 0.662497 -1.178323 -0.239012 0.920587 0.483401 -0.688355 0.334740 0.209433 0.803325 -0.803556 -0.069612 0.295385 0.935706 -0.019823 -0.419193 1.365794 -0.806836 -1.622290 0.516375 -0.642894 1.162430 0.520974 0.733293 0.332796 -0.833443 0.436024 -0.690852 0.307092 -0.648323 -0.408354 0.984219 -0.056784 0.663506 0.541050 -0.753819 0.378325 -0.594722 -0.607023 -0.377574 -0.913563 0.667703 0.198658 -0.012795 1.676142 1.627643 -1.190830 0.816305
