GlobalSpecies0001 -0.205952 -0.100654 0.382036 -0.093775 0.153307 -0.191212 0.259993 -0.596842 -0.012380 -0.077309 0.655498 -0.090218 0.278649 -0.065568 -0.307338 0.346939 0.101113 0.128926 0.081157 0.326809 -0.029780 -0.212731 0.106527 -0.220190 0.443908 0.498181 -0.230439 -0.139100 -0.079339 -0.434569 0.152052 -0.044031 0.072388 -0.862375 0.077040 0.016597 -0.000891 -0.689324 -0.053379 0.251370 0.229724 0.373215 0.231731 0.080132 -0.271459 0.058495 -0.633796 -0.186073 0.075204 0.525650 -0.000503 0.309941 -0.092372 0.091751 -0.214352 -0.187821 0.091177 0.160383 -0.508723 0.227648 0.080944 0.147057 0.082857 0.114126 0.163436 0.149741 -0.086525 -0.134753 -0.012177 0.218826 0.374026 -0.323340 0.034879 0.222205 -0.336388 0.155532 0.471096 0.070048 0.377022 0.213065 -0.485135 0.479003 -0.137882 -0.114102 -0.165302 0.029329 -0.181856 0.525765 -0.159282 0.301804 -0.042967 0.062410 0.101439 -0.355364 -0.226193 0.208266 -0.490048 -0.159397 -0.288601 -0.218684
GlobalSpecies0002 -0.124285 0.517257 0.036804 -0.218893 -0.337383 -0.102294 -0.172141 0.182687 -0.228970 0.306412 0.201146 0.487019 0.337915 0.191656 0.714997 -0.190072 -0.334547 0.348504 0.057706 -0.404915 -0.196609 0.113967 0.409106 0.169914 -0.270834 -0.152177 0.239371 -0.031741 0.212729 0.032936 0.389766 -0.557808 -0.489078 -0.354347 0.595085 0.142352 0.228824 -0.648788 -0.230858 0.278677 -0.452896 -0.170728 -0.101883 0.752001 0.193735 0.100735 -0.277205 0.124529 -0.207313 0.749938 0.041203 -0.609733 -0.543501 -0.182616 0.239305 0.258015 -0.099888 -0.020065 0.171489 0.243731 0.093489 0.199367 -0.241107 -0.316729 -0.431520 0.096452 0.065632 -0.450675 -0.114666 -0.081158 0.550947 -0.599238 -0.394278 0.091284 0.322274 0.240530 0.401446 0.135588 0.329498 -0.148156 0.024004 0.691805 0.099619 -0.366220 -0.296041 -0.084419 0.328408 -0.202144 0.140617 0.773562 0.154567 0.097331 -0.473152 0.141271 -0.309714 -0.544381 -0.010283 0.544037 0.671007 -0.517653
GlobalSpecies0003 0.101696 0.238040 -0.468785 -0.280427 0.003915 0.823608 -0.097415 0.041317 -0.579933 1.153006 -0.443782 -1.199849 -0.678193 0.513762 0.114170 -0.451491 -0.198697 -0.033774 0.224584 0.396235 1.207128 0.543453 0.411505 -0.562562 -0.383461 -0.492446 0.294167 0.596186 0.699291 -0.773332 -0.224957 -0.513790 0.274184 -0.426362 -0.570800 -1.781071 -0.089057 0.487438 0.646587 -0.494040 0.828618 0.087546 -0.778072 -0.397287 -0.229691 -1.071891 -0.609081 0.709301 -0.075656 -1.053154 0.610142 0.155040 -0.743731 -0.904864 0.215690 -0.523778 -1.312791 -1.125143 0.201938 -0.314765 -0.380043 -0.100696 0.446456 1.694625 0.001950 -0.633637 1.304915 0.096139 -0.142780 0.156910 1.288244 0.218330 0.157228 0.285708 -0.306102 -0.263274 0.277707 0.258939 -0.669066 1.069636 1.335179 -0.136551 -0.632515 -0.848498 1.383933 0.025711 0.217654 -0.571025 -0.178193 -1.580383 0.629936 -0.473087 0.405682 0.051440 -0.400819 1.104448 0.417854 0.106622 -0.050254 0.009265
GlobalSpecies0004 -0.127449 -0.012418 -0.599929 -0.094662 -0.706942 -0.414792 0.562506 -0.631524 -0.439803 -0.152370 0.174846 0.128268 0.158618 0.117014 -0.351363 0.143606 -0.459654 -0.689187 -0.318652 -0.377597 -0.046224 0.049437 -0.038468 -0.402454 -0.388590 -0.762449 -0.317910 -0.115775 0.743147 -0.327748 0.350992 0.083236 0.448465 -0.288929 -0.315250 -0.533556 0.339337 0.458514 0.016871 -0.327188 0.149955 -0.192200 -0.548636 -0.499140 0.433423 -0.262828 -0.583480 -0.226173 0.247772 0.398406 0.983101 -0.403322 0.070595 -1.118881 -0.376988 -0.439778 -0.224148 -0.579057 -0.304455 -0.232985 -0.565241 -0.492207 0.625789 0.313282 0.084018 -0.256494 -0.299634 0.238747 0.997266 0.256115 0.928105 0.097910 0.342813 -0.778311 -0.600698 0.455950 -0.571867 -0.031690 -0.792631 -0.681764 0.663291 -0.487643 -0.559245 -0.209874 -0.450276 0.661864 -0.740930 0.511051 -0.106299 -0.735266 0.276569 -0.482167 -0.146841 0.246342 -0.591714 -0.770049 -0.446646 0.124723 1.396110 0.298016
GlobalSpecies0005 0.294939 0.512323 0.217763 0.001930 -0.771721 0.585485 -0.614112 0.183943 0.541395 -1.520796 -0.389812 0.384675 0.146863 -0.153162 0.099132 -0.451940 0.486754 1.129849 0.518518 -0.139063 0.060244 1.334841 0.233676 -0.182879 -0.544259 0.030371 1.568134 0.179490 0.076776 -0.365865 -0.118977 -0.544540 -0.602035 -0.110937 -0.393282 0.416878 0.522639 -0.386631 -0.006440 -0.543256 -0.398929 1.119393 -0.728037 -0.071929 -0.266620 1.156547 0.057560 0.413956 0.342838 -0.640904 -0.567921 -0.208425 -0.034501 -0.339709 0.041816 0.315780 0.434850 -1.020510 0.432394 0.477717 -0.568868 0.450463 0.341476 0.489332 0.755975 -0.435044 0.374152 -0.600524 0.641553 0.427425 0.290078 -0.366126 -1.045059 0.310649 -0.103254 0.076559 0.227323 -0.065386 -0.848158 0.871453 0.313260 -0.219315 -0.143300 0.813787 0.227981 -0.007296 0.006176 -0.707728 -0.011584 -0.443513 -0.144587 -0.862274 0.397014 -0.682425 0.357417 -0.407571 -0.613715 -0.202128 -0.378899 0.610439
GlobalSpecies0006 0.593057 0.508259 0.972229 -1.863495 -0.882936 0.050788 0.097735 -0.137345 0.783809 -0.883329 0.414044 0.497938 -0.046834 -0.119358 1.084709 0.515562 -0.227069 -0.735434 0.723061 -0.604929 0.078750 0.175318 1.030226 0.455560 -0.398729 -0.127438 1.685560 0.477887 0.678905 -0.299706 -0.030004 -0.007504 -0.346577 0.646644 -0.167508 -0.174407 -0.617122 0.592746 0.748479 -0.354227 -0.333724 -0.327593 0.229832 -0.896465 0.094838 0.856425 -1.086042 -0.165799 -0.032401 -0.175518 0.641788 0.753172 0.271726 -0.505572 -0.351005 0.565535 -0.907262 -0.277565 -0.549975 -0.497072 -0.497290 0.985637 -0.139203 1.095532 0.695863 0.490936 -0.275909 0.555614 0.494399 -0.990051 -0.053925 -0.662136 0.250038 -1.361922 -0.819437 0.954041 0.870384 0.684904 -0.802532 -0.083318 0.365337 1.802615 -0.735464 -0.876512 0.781621 0.144241 0.257481 0.253015 0.227035 -0.256048 1.207636 1.593358 0.898996 -1.208544 0.983940 0.174759 0.180070 -0.134211 0.725532 0.134006
GlobalSpecies0007 -0.276157 -0.070552 0.905310 -0.722538 0.001183 0.491415 -0.043294 0.043451 0.499646 -0.323164 0.472499 0.554371 0.487290 0.188399 -0.124829 -0.251954 0.361350 0.046222 0.544295 0.725462 0.364127 0.659974 -0.899576 -0.031723 0.254700 -0.724777 0.657556 -0.307706 -0.079810 0.031642 0.194084 0.722649 0.179272 -0.672680 -0.019122 -0.240289 0.647173 0.272527 1.499102 -0.742046 0.304152 0.634419 -0.333800 -0.709624 -0.528021 -0.259263 -0.995345 0.264575 -0.116947 -0.174273 -0.472278 1.062991 0.100487 -0.439433 -0.067153 0.835929 -0.599427 -0.178495 -0.245389 0.012815 0.556344 0.124927 0.536804 -0.312530 0.418245 -0.164216 -0.242747 0.141651 0.234612 -0.146138 -0.061620 1.005429 -0.662870 -0.430513 0.002477 0.607520 -0.507222 0.209687 -0.886160 0.703532 0.774757 0.019659 0.720267 0.285283 -0.792490 -0.916357 0.594700 0.331158 -0.834681 -0.474265 0.691445 -0.282517 0.287094 0.372784 1.221129 -0.029285 0.910536 0.083814 -0.412774 -0.461168
GlobalSpecies0008 -0.333231 -0.488800 0.010510 -0.024089 -0.277101 -0.251266 0.027434 -0.198828 -0.443525 0.006458 0.250932 -0.248972 -0.183027 -0.102221 -0.220890 0.485577 0.532632 0.246092 0.031859 -0.321949 -0.292231 -0.217371 -0.362442 -0.075228 0.156422 -0.079490 -0.224241 -0.503566 -0.280910 0.024821 -0.163266 0.125345 -0.095626 0.223962 0.005739 -0.100978 -0.038273 -0.218592 -0.059357 -0.234260 -0.030036 0.204287 -0.072105 0.178419 0.101989 -0.150999 0.017075 0.194160 -0.011752 0.064295 -0.319004 0.135810 -0.134167 -0.106631 0.052869 0.118088 0.224580 0.321586 -0.206087 -0.099720 -0.168017 0.193470 -0.261098 0.183330 0.429937 -0.243017 -0.139644 -0.342506 0.236129 -0.083607 -0.411093 -0.336951 0.208230 -0.022996 0.110118 0.048164 0.090598 -0.104555 -0.189017 -0.132958 0.347460 0.201679 -0.605558 0.332324 0.139761 0.262564 0.272971 0.060675 -0.075632 0.173751 0.301556 0.022914 -0.106906 -0.049054 0.163137 -0.283559 0.129505 -0.229222 -0.266168 -0.088071
GlobalSpecies0009 0.329064 -0.493206 -0.455210 0.474856 0.150183 -0.294732 0.127964 -0.046925 0.191428 0.013062 0.346438 -0.506184 -0.478431 0.196573 0.853722 -0.195821 0.351950 -0.900208 1.172741 0.719091 1.060442 -0.103406 -1.554818 -1.372111 -0.805063 1.163762 0.035884 0.934989 -0.632698 0.549926 0.559550 1.523603 0.496747 0.385780 -1.253381 0.722577 -0.852642 0.968315 0.198553 0.057380 -0.974914 0.435223 -0.283775 0.161799 0.603391 0.417695 -0.884637 0.959003 0.966642 0.768882 0.621422 1.228970 0.219382 0.256972 -0.125118 -0.000311 -0.397997 0.586517 -0.516100 0.395698 -0.204051 0.521032 1.306873 1.090079 0.367369 -0.039484 0.219911 0.981202 -0.352746 -0.066921 0.000239 -0.548057 -1.071443 0.074772 0.037103 -0.612866 0.402408 0.501103 0.680987 0.188850 -1.190734 -1.113342 0.685075 -0.187981 -0.292437 -0.055253 0.112760 -0.585609 -1.314784 0.076043 -1.242564 -0.202767 -0.080951 -1.021650 0.446042 -0.009181 1.227052 0.222882 1.193640 0.586838
GlobalSpecies0010 -0.377963 -0.451098 -0.794431 0.593084 0.432995 -0.298829 0.031140 0.007443 -0.038883 0.467867 0.517237 -0.616869 -0.267155 0.325088 0.237924 -0.025272 -0.255182 0.158841 0.333985 -0.025599 0.388070 -0.047064 0.565019 -0.242758 0.207591 0.014914 -0.232905 -0.267172 0.484310 0.133958 -0.123387 0.081959 -0.224424 -0.081789 -0.048273 -0.176493 -0.325100 -0.065846 0.333440 0.862415 -0.237449 -0.475604 -0.587918 0.962401 -0.352999 0.341217 -0.495438 0.063663 0.442536 0.272801 0.191330 -0.029453 -0.275277 -0.367974 1.106915 0.191001 0.138265 0.581780 0.398742 -0.398314 -0.356450 -0.842606 0.267339 0.217996 0.506807 0.579904 0.191968 -0.220695 -0.530674 0.098953 0.205968 -0.120435 -0.058300 -0.471789 0.094519 0.161624 -0.626705 -0.220907 0.214673 -0.126315 -0.448100 -0.442511 0.362532 -0.262173 0.010591 -0.371251 -1.259101 -0.811251 0.318674 0.231408 -0.097945 -0.027428 -0.141293 -0.601395 -0.669712 -0.413595 0.062244 -0.515582 0.018256 -0.037108
GlobalSpecies0011 0.597354 1.522428 -0.413031 -1.350899 -1.579451 -1.804139 1.021796 1.145680 -0.009567 -0.718548 -0.313503 -0.998457 -0.601267 0.370692 0.340434 -1.537685 0.230690 -0.058168 -0.198399 1.525745 0.912395 0.330224 0.372784 0.545565 0.161027 0.649975 -0.577342 0.361368 -0.205172 -0.911495 -1.241593 -0.992130 1.031703 0.209201 1.265114 -0.596559 -1.238970 1.217768 -0.537619 2.259921 1.504634 0.941698 -0.371437 -0.659810 0.748949 1.891068 -0.244039 -1.096675 -0.618809 -0.987171 0.345009 0.790122 -0.758016 0.598828 0.082886 0.245502 -0.996411 -0.449803 -0.173506 0.563879 0.450236 0.310335 0.654851 -0.801261 0.224529 -0.891407 -0.641072 -0.689119 -0.510490 -2.033731 0.446133 -0.459018 0.924643 0.367098 0.500001 -0.970097 0.428474 -1.752794 1.671784 0.767317 1.738299 0.402275 -0.450579 0.265662 0.949039 -0.772233 -0.004143 0.099107 0.489869 0.258569 0.804265 1.225245 -1.342307 -0.356516 0.343250 1.657108 0.700143 1.729019 -0.565914 1.273575
GlobalSpecies0012 0.335138 -0.254277 0.164167 -0.556464 -0.115185 -0.560255 -0.203168 -0.822213 0.272245 1.619000 0.307333 -0.916242 0.057817 -0.072717 0.963150 -0.183691 -1.395773 -0.675702 1.337167 0.946850 0.902659 -0.964706 -1.480117 0.463934 -0.286641 -1.348899 0.226602 1.400235 0.823204 1.576899 -1.100954 -0.684073 -0.295934 1.211334 -0.265289 0.473889 -0.015265 -0.694873 0.058150 1.897573 -0.893348 -1.183575 1.327686 -1.350185 -0.041390 -0.090471 0.681645 0.157642 -0.135488 -0.519880 1.001539 -0.100340 -0.080336 0.998330 -0.388884 0.447913 -1.185881 0.231815 -0.084524 1.241499 -0.027099 1.115526 0.379122 0.210245 -0.429431 -1.704998 0.300986 1.213061 -0.108882 -0.767209 0.712906 0.747848 0.895891 0.840045 -0.769074 -0.181127 0.849541 0.279220 -0.378786 -0.679591 -1.354236 0.787046 -0.144393 -0.454290 0.499920 0.525203 -0.460173 1.228928 -0.699949 -1.188312 0.167022 0.127356 0.200878 0.807350 -1.263217 1.263789 0.659766 -0.249158 0.026063 2.186265
GlobalSpecies0013 -0.207191 0.528635 0.597972 0.057794 0.534433 -0.254442 -0.234547 0.236681 -0.858500 -0.236013 -0.685263 0.155237 -0.125892 -0.533595 -1.071974 -0.065057 -0.051437 0.191427 0.255364 0.208450 -0.484792 -1.261137 0.201015 0.275087 0.570087 -0.778547 -0.001152 0.224514 -0.164892 0.511864 -0.224300 -0.459130 -0.161831 -0.704770 -0.195273 -0.522684 0.037050 0.078328 -0.022642 0.332531 0.707998 -0.055195 0.499600 -0.688867 -0.014921 -0.583454 -0.531077 0.940058 -0.015961 -0.163977 -0.181521 -0.177902 -0.420919 0.371786 -0.013227 0.852620 0.224501 0.508723 -0.583305 -0.213814 -0.021264 0.427825 -0.352074 -0.331459 -0.169199 -0.611533 0.045667 0.142631 -0.221870 -0.257709 -0.382141 -0.416937 -0.030647 0.292592 0.170930 0.669291 0.795790 0.569736 -0.248656 0.074222 0.167589 0.109597 -0.048417 -0.312561 -0.181549 0.280015 0.326608 -0.741338 -1.046881 -0.059515 -0.427192 0.783592 0.083759 0.013182 0.673555 -0.042352 -0.113727 -1.013275 -0.578478 0.408480
GlobalSpecies0014 0.549926 0.868546 -0.095249 0.536341 -0.535810 0.113511 0.074376 -0.565273 -0.005095 0.553293 0.038937 0.400956 0.195079 0.263057 0.064988 0.080272 -0.371053 0.036669 -0.117400 -0.000919 0.485522 0.134577 0.611757 0.642099 0.042280 -0.118113 -0.407578 0.466775 0.619230 -0.340835 0.525820 -0.725015 1.298711 -0.706920 -1.469290 -0.045121 0.239224 0.335638 -0.362488 -0.172496 0.207993 0.401280 0.512590 0.056508 0.167004 0.410648 -0.080917 0.484153 -0.104603 -0.581796 -0.455532 -0.226859 -0.942033 -0.094149 -0.142232 0.237577 0.891417 0.080555 0.203720 0.399948 0.008977 -0.067216 -0.048171 0.136781 0.782675 -0.175911 -0.400650 -0.366339 -0.140715 -0.220548 -0.083788 0.778010 -0.790838 -0.103470 -0.311350 0.603864 0.762162 0.649544 -0.641556 -0.123934 0.312576 -0.295456 -0.533251 -0.252692 -1.036082 -0.004362 -0.246678 -0.051610 -0.194337 0.113219 -0.319260 -0.529791 -0.326039 0.129785 -0.438011 0.547859 -0.425523 -0.746339 0.785931 -0.336603
GlobalSpecies0015 -0.084104 0.486970 -0.349801 -0.328028 -0.549882 0.232333 -0.007605 0.146398 0.050452 -0.057957 -0.312459 0.165488 -0.128047 0.349919 -0.152824 0.033243 0.529957 -0.004755 -0.303015 -0.180292 -0.170312 -0.028788 -0.158203 -0.103862 0.283351 -0.098194 -0.388219 -0.682224 -0.337798 0.248054 0.263656 -0.126141 -0.031952 0.191147 -0.547214 0.509489 0.009853 0.214186 -0.431125 -0.385724 0.469755 0.384042 -0.025877 0.077567 -0.078366 0.225381 0.036946 -0.058279 -0.371266 -0.507846 0.272773 -0.222591 0.231182 0.104829 0.174543 -0.015089 0.196719 0.139667 0.098655 0.088753 -0.315458 -0.205709 -0.514418 -0.486035 0.112635 0.198405 0.159417 0.365839 0.025897 0.625653 -0.816433 0.022669 0.210569 0.181099 0.317520 0.147852 -0.137537 -0.205305 0.180779 0.172684 -0.162509 0.562023 -0.059193 -0.132379 0.390469 -0.190515 -0.186366 -0.326732 -0.283779 0.151426 -0.062563 0.113347 -0.196060 -0.145378 0.075218 0.493503 -0.117103 -0.113916 0.374693 0.190422
GlobalSpecies0016 0.138039 0.002599 -0.334538 0.533023 0.015866 1.303095 -0.048469 0.472388 0.108982 0.250205 -0.282506 -0.236258 0.264382 0.244129 0.427150 -0.249862 0.073776 -0.036873 0.127691 -0.937939 0.082397 0.338343 0.503402 -0.387823 -0.209276 -0.227314 0.436431 0.229147 0.382208 0.394933 0.672772 -0.242963 0.166808 0.264428 -0.239318 -0.180183 0.263893 -0.293765 -0.019919 -0.614341 -0.781711 0.013294 -0.686787 -0.180902 -0.094479 0.263606 0.553897 -0.423716 0.098732 -0.029200 -0.240738 0.210902 0.767628 -0.171922 0.579148 0.069524 -1.043034 -0.439527 -1.052131 0.358482 -0.574842 0.246735 0.791320 -0.372324 0.458361 0.623583 -0.495367 0.477332 -0.086696 0.224090 0.057591 -0.702763 0.054504 -0.084916 -0.007672 0.533601 0.311455 0.032262 -0.450778 -0.183310 -0.838687 -0.103373 -0.162950 -0.636414 -0.410943 -0.146321 -0.500663 0.218033 0.109596 0.490570 1.232093 0.002407 -0.625230 0.472158 -0.002526 -0.236500 -0.244535 0.436604 -0.006511 0.176854
GlobalSpecies0017 -0.201922 -0.166018 0.060622 0.329386 -0.049986 0.142526 -0.203948 -0.155056 0.418016 0.185024 0.019269 0.225096 -0.188965 -0.007376 -0.002644 0.366449 0.035557 -0.060149 -0.261361 0.229967 -0.330736 -0.379262 0.071880 -0.306202 0.183514 0.145080 -0.299231 -0.006623 -0.161428 -0.077695 -0.328646 0.079342 -0.471543 -0.231326 0.202915 0.004082 -0.214489 0.069538 0.327239 0.001268 0.292317 -0.079721 -0.461220 0.218434 -0.246992 0.262676 0.012532 -0.097119 -0.055104 0.043596 -0.086010 0.045433 0.158189 -0.305844 -0.177097 -0.192201 -0.258046 0.427611 0.241850 -0.006879 0.261928 -0.066614 -0.463590 -0.046845 0.035216 -0.152094 0.170076 -0.161295 0.285315 -0.093250 -0.483468 0.152146 -0.091643 -0.072996 -0.296826 0.149752 0.241965 -0.293912 0.046983 -0.042280 0.019015 -0.130307 -0.271175 0.319251 -0.057784 0.498288 0.052025 0.388326 0.149105 -0.223912 0.052732 0.356743 0.129788 -0.018310 -0.043644 -0.398520 -0.147992 0.231795 0.011078 0.121408
GlobalSpecies0018 0.059232 -0.155967 -0.041032 0.178657 -0.021835 0.502247 -0.282393 0.114058 -0.327652 -0.431666 -0.290496 0.206417 -0.068317 0.183069 0.421611 -0.089766 -0.099230 -0.813873 0.264021 -0.936842 0.497472 -0.342818 0.182214 -0.267683 -0.427256 -0.488623 0.603263 -0.206777 -0.702365 0.373610 0.734293 0.307234 0.534124 -0.848884 0.064443 -0.040269 0.184495 -0.329965 0.217021 0.328145 -0.884065 0.027653 1.107343 -0.310132 -1.018194 -0.495569 0.127016 0.198940 0.391420 -0.214055 0.559155 0.119936 -0.312159 0.434994 -0.297159 -0.227718 -0.017272 0.069026 0.071276 -0.015961 -0.129089 -0.702346 0.190053 0.332454 -0.984447 0.553121 0.851185 -0.824814 0.896770 -0.748374 -0.016150 -0.067697 0.519489 1.654126 -0.523004 -0.174521 0.352215 1.260829 -0.752760 -0.308755 1.147776 -0.694691 -0.138464 0.022572 -0.630331 0.172647 0.365789 -0.559726 0.727500 0.601804 0.917278 -0.635677 0.156131 -0.578471 -0.881624 0.650479 -0.564127 0.419118 0.009054 -0.763011
GlobalSpecies0019 -0.034257 -0.463131 -0.318948 -0.174600 -0.083547 -0.207304 0.118309 0.417503 -0.831784 0.693574 0.631710 0.303546 0.275576 -0.403230 -0.634647 0.292286 0.068255 -0.094389 0.051681 -0.521756 -0.364866 0.122499 0.201574 0.350179 -0.002874 -0.154237 -0.399174 -0.060945 -0.411948 0.324611 -0.433613 0.230811 0.529502 0.696211 0.398361 -0.079869 0.151864 -0.320751 0.234554 -0.473207 0.212003 -0.603771 -0.243619 0.577136 0.337371 -0.197392 -0.125723 -0.648963 0.525922 -0.057155 -0.277691 -0.148478 0.179735 0.108967 -0.224143 0.195158 -0.059743 0.573623 0.177820 -0.646549 -0.650045 -0.231383 0.079864 0.167612 -0.223790 0.110034 -0.015122 0.074573 0.206882 -0.066953 -0.128512 0.107336 0.000756 -0.332544 0.454393 0.322385 -0.328535 0.054937 -0.255606 0.512986 0.414914 0.422673 -0.091478 -0.507000 -0.189100 -0.313152 0.690045 0.268201 -0.260954 0.550626 -0.403385 -0.240601 0.388510 -0.272615 0.950135 0.066907 -0.163060 0.257439 0.356299 0.045245
GlobalSpecies0020 -0.113602 0.347353 -0.179766 0.494647 -0.851901 -0.105266 0.210740 -0.115782 -0.475583 0.535869 0.194820 -0.724519 -0.332008 0.402301 0.014401 -0.651362 0.107314 0.293520 -0.069883 0.894502 0.364867 -0.594046 -0.036925 -0.018572 0.169935 -0.547210 -0.046238 0.167282 0.822237 -0.603557 -0.109444 0.098050 0.443496 0.167965 0.646156 -0.796722 -0.382171 0.381476 0.332479 0.524342 -0.330238 -0.093584 0.192782 0.730076 0.689321 -0.522168 -0.116264 -0.532237 0.281440 -0.657699 0.615655 0.711405 -0.461592 -0.029717 0.326986 1.052764 -1.117564 -0.037003 0.403606 -0.833457 0.022329 0.590293 -0.150710 -0.917571 0.278260 -0.119771 0.464676 -0.732108 0.472342 0.606722 -0.237344 0.298246 0.684557 -1.148851 -1.246714 1.046369 -0.190161 -0.033127 0.338399 -0.236102 -0.175876 -0.202044 0.656311 0.185007 0.700049 0.491475 0.167311 0.421921 0.123829 -0.746060 0.240722 -0.061753 -0.057739 -0.808637 -0.126518 0.120685 -0.505923 -0.315725 1.121454 -0.403105
GlobalSpecies0021 0.170961 -0.320406 0.062075 0.346905 0.326949 0.304212 0.585547 0.144708 -0.134821 -0.335033 -0.143102 -0.268864 -0.037173 0.349087 0.371468 0.064926 0.007372 -0.074052 -0.369026 0.290185 0.265021 0.653117 -0.196889 0.159168 -0.278626 0.788228 0.062900 -0.516171 -0.309781 -0.267139 0.019982 0.337824 -0.717476 -0.562744 0.099772 -0.229373 -0.265259 0.160921 -0.046220 0.509696 -0.410891 -0.062147 -0.276850 0.093863 -0.280442 0.463748 0.483709 0.096844 0.142865 -0.144465 -0.089575 -0.566475 0.205740 0.534799 0.018278 -0.175000 -0.165379 0.380907 -0.046902 0.445834 -0.077642 0.165812 -0.385583 0.427793 -0.032986 0.159722 -0.246862 -0.068495 0.686563 -0.014979 0.141595 0.152358 -0.769551 -0.144242 -0.113684 0.001410 0.008079 -0.031587 0.249344 -0.200259 -0.029972 -0.041519 -0.461670 -0.086319 0.250178 0.419937 -0.384367 0.069438 0.078950 -0.147185 0.068164 0.493858 0.071924 0.177845 -0.164889 -0.182733 0.018911 0.084781 -0.490121 0.103672
GlobalSpecies0022 0.297523 0.710079 0.280066 -0.162371 0.568143 -0.013158 -0.122985 -0.244082 0.323873 0.305390 0.386178 -0.009640 0.144134 -0.376830 0.225377 -0.230615 -0.119419 0.518093 -0.177308 -0.237557 -0.315742 0.312572 0.147514 -0.132983 0.008396 0.327520 0.005291 0.013888 -0.234548 -0.442011 -0.253063 0.441351 0.409304 0.111038 0.246628 0.131627 -0.026581 -0.493903 -0.317932 0.260358 -0.483017 -0.348524 -0.484375 -0.237293 -0.125063 -0.075648 0.259461 0.562763 -0.144798 -0.228791 -0.827262 -0.236942 -0.135074 -0.258356 -0.153004 0.020928 -0.440367 0.075676 0.570098 -0.262028 -0.513164 -0.345278 0.074789 -0.500068 -0.185223 0.305128 -0.168555 -0.004529 0.051987 0.024303 0.022338 0.133525 -0.029256 0.263513 0.391875 -0.294272 -0.319700 -0.000733 -0.288940 -0.430051 -0.187041 -0.046249 0.099222 0.148187 0.405317 0.334699 0.311201 0.410093 0.436469 0.001989 -0.001861 -0.228734 -0.121416 -0.214683 -0.640882 0.103023 -0.670490 0.279288 0.127010 -0.316864
GlobalSpecies0023 0.736792 0.282529 -0.659413 1.566496 -0.032718 -2.321864 -0.341023 -0.126936 0.029234 0.956690 -0.775741 -0.646818 0.210166 0.121568 0.934668 -0.208783 -1.412558 -1.395471 0.023006 -0.408407 0.235919 -0.375566 0.635304 0.839685 -0.011819 -0.168477 -0.576558 0.801533 -0.506483 1.726054 -0.618772 -0.390869 0.828727 -0.330395 -1.337173 -1.136889 0.847741 0.289804 0.917947 2.058719 0.609392 -0.243498 0.360351 -1.047588 -0.315288 0.479860 0.036941 -0.342246 -0.159137 0.501755 0.822570 -0.218514 -1.324526 1.551688 -0.151234 0.520567 -0.667326 -0.880351 0.070955 -0.656542 -0.753307 0.748810 -0.531292 0.378271 0.118419 -0.367938 0.151768 1.420527 -0.289339 0.024176 0.065828 -0.493305 -0.300960 0.405925 0.359932 -0.691636 0.717307 -0.045529 -0.480393 -0.303256 1.397527 0.330795 1.155576 -0.107795 0.444064 1.144240 0.385514 -0.352764 -0.408826 -0.299230 -0.908380 0.060686 1.939865 -0.157806 -0.762220 1.607785 0.664248 0.178111 0.365005 -0.433152
GlobalSpecies0024 0.096834 0.606287 -0.054127 -0.276205 -0.291591 -0.443319 -1.171766 -0.126620 -0.175905 0.472746 -0.304719 -0.521147 -1.495746 0.320804 -0.617050 -1.557258 -0.356675 -0.000477 -0.095151 -0.214839 -0.440752 0.118105 -0.129183 0.673157 0.203422 -0.333197 -0.354357 -0.785642 0.356567 -0.209527 -0.032625 0.840196 0.023623 0.201401 1.005878 -1.047889 0.801903 -0.478964 -0.316923 0.228690 -0.326880 -0.480628 -0.521788 -0.594693 -1.238325 -0.391846 -0.022687 0.384998 0.467533 -0.170234 0.111451 0.605429 -0.196044 0.834275 0.830805 -0.415441 -1.108278 0.421355 0.306462 0.539922 -0.307371 0.645222 -0.659862 -0.059526 -0.696220 -0.229672 -0.637997 0.509531 0.452162 0.039859 0.208936 -0.400256 -0.060282 0.475236 0.752601 -0.143526 -0.282927 -0.891548 -0.569252 0.241063 0.457191 -0.623439 -0.342425 -0.676058 -0.264209 0.330590 -0.244309 0.263189 -0.242252 -0.343313 0.393906 0.112986 0.658099 -0.841668 -0.161006 -0.416171 0.515430 0.137390 -0.512023 -0.594722
GlobalSpecies0025 -0.877002 0.571179 0.734638 0.768319 -0.784275 0.497094 -0.449799 -1.485111 0.838254 -0.220389 0.262584 -0.696652 0.051279 -0.142110 -1.192466 0.108017 0.790796 -0.520001 -0.482861 -0.175997 -0.827454 0.822131 -0.079250 -0.189854 0.020028 0.478801 0.085905 1.033320 -0.099498 0.297331 0.429766 -0.304750 0.000423 -0.170143 1.078722 -0.588261 0.172146 0.821843 2.434913 -0.480172 0.327924 0.466577 0.371030 0.142903 0.722957 0.078372 -0.289777 -1.129933 -0.965678 -0.190505 -0.147456 0.218043 -0.398718 -0.175696 0.300365 0.300272 -0.198324 -0.619540 0.577511 -0.289265 -1.085062 0.104857 -0.162895 1.078965 -0.052776 0.828271 0.047317 0.070806 -0.234551 0.812879 0.579578 1.168758 -0.400171 0.612229 -0.492291 -0.819665 0.119709 0.304611 -0.982846 0.303236 -1.572789 0.433145 0.947472 -0.252774 0.547129 0.099064 -0.102039 -1.081490 0.993929 0.039552 -0.727579 0.489495 -0.670798 0.336724 -0.014984 -0.139254 0.458161 -0.343024 -1.067761 0.138429
GlobalSpecies0026 0.244024 -0.198401 -0.962974 -0.201242 0.027415 0.300570 0.211409 -0.133845 -0.418692 -0.434637 0.462665 -0.003117 0.091271 0.377993 0.343186 -0.512206 0.039979 0.321319 0.297655 0.139634 -0.290948 -0.127127 0.078772 0.611293 0.213592 -0.487503 0.121202 0.415291 -0.103625 0.254418 -0.074055 0.014824 -0.262258 0.015270 0.164978 0.148742 -0.407647 -0.533619 0.652988 -0.216587 0.455279 0.109267 -0.175232 -0.136646 0.408761 -0.439879 0.616007 0.031837 0.141721 0.096483 0.214865 -0.058177 0.104939 0.147812 -0.609087 0.001674 -0.321531 0.481751 -0.752554 -0.543305 -0.005915 -0.468877 0.401919 0.283063 0.346207 -0.532497 -0.225960 0.701739 -0.077411 0.114073 -0.486918 0.431291 -0.239941 0.500590 0.378180 0.127084 -0.569028 -0.138244 -0.040255 -0.045335 0.111676 0.568789 -0.262743 0.343407 0.150140 -0.058130 -0.538895 0.135671 0.005957 0.229090 0.008054 -0.325071 -0.131217 0.193585 -0.165955 0.455817 -0.273111 0.314505 0.503829 -0.244320
GlobalSpecies0027 -0.734690 -0.222699 0.053697 0.050270 0.203632 -0.012669 0.311933 0.423767 -0.539121 0.697246 -0.109782 -0.015715 -0.060876 -0.309816 0.305320 0.538672 -0.085468 0.098780 0.054330 -0.046537 0.527075 0.033910 0.403750 0.148402 0.461356 -0.341478 0.239824 -0.626824 0.172195 -0.068629 -0.293193 0.245918 -0.273591 0.032300 -0.326739 -0.137434 -0.110812 -0.114550 -0.684479 0.176116 0.411015 -0.190390 -0.419483 -0.426786 -0.595280 0.213326 -0.417523 -0.173027 -0.129759 -0.031758 0.086003 -0.338303 -0.356026 -0.160545 0.084744 0.159160 0.176431 0.094940 -0.081986 0.499931 -0.096024 -0.248084 -0.241321 -0.088650 -0.229234 0.047264 -0.126722 -0.397975 0.246868 -0.079984 0.279003 0.009218 -0.311976 -0.387105 -0.017891 0.682471 -0.367040 0.197852 -0.070276 0.076857 0.070812 0.252362 0.093427 0.125033 -0.331867 0.271553 0.090302 0.193475 0.290922 0.085569 -0.036347 -0.187500 0.338954 0.255684 0.109024 -0.090777 -0.227478 -0.032469 -0.416186 -0.108381
GlobalSpecies0028 0.001351 -0.237639 0.230409 0.029039 0.092727 0.350589 -0.134419 0.339181 0.882121 -0.059337 -0.476334 0.132281 -0.646262 -0.360291 -0.716680 -0.199425 -0.351372 -0.408035 0.401494 0.053519 -0.216626 -0.317233 -0.454013 -0.122695 0.524593 -0.218365 0.272788 -0.052392 -0.139229 -0.042286 -0.808471 0.302226 0.369830 0.439413 -0.545600 0.226028 0.049608 0.196594 0.190509 -0.151435 -0.561613 -0.065120 0.250612 0.461849 -0.849319 0.070271 -0.041790 -0.722014 -0.117011 0.129866 -0.071245 0.003615 -0.162698 0.018660 0.221511 -0.752761 0.346799 -0.441414 0.374245 -0.587340 0.231377 -0.578531 0.151289 -0.717976 0.550619 -0.088586 -0.102638 -0.177982 0.361530 -0.038695 0.418325 -0.027820 -0.699500 0.069175 0.299437 -0.315161 -0.746736 0.314709 0.035736 -0.004256 -0.414861 0.545857 0.162217 -0.174687 0.153984 0.343980 -0.262343 -0.616232 0.510786 -0.233368 -0.343983 0.357476 -0.330009 0.207943 -0.004056 -0.635615 0.053390 0.306511 -0.739831 0.595843
GlobalSpecies0029 0.535658 0.311138 0.133917 -0.282571 -0.204091 0.702029 -0.072854 0.419075 -0.430808 0.284446 0.654316 0.431331 0.247496 -0.182228 0.449257 0.217874 0.255305 -0.134544 -0.084947 0.137994 -0.193176 0.426144 -0.196555 -0.123324 -0.280253 -0.350470 0.321714 0.076657 -0.032798 -0.676399 0.246899 -0.052053 -0.075087 -0.221376 0.022322 0.408163 0.222895 -0.178445 -0.234788 -0.578780 -0.350531 -0.096623 -0.149705 -0.180190 -0.191350 -0.067302 0.088030 0.269844 -0.018550 0.177551 -0.599374 -0.656711 -0.153245 0.101244 0.413674 -0.277578 0.307861 0.149661 0.199684 -0.485390 0.212635 -0.047558 -0.190606 0.175491 0.163748 -0.324022 -0.678106 0.269642 0.932613 0.335194 0.023168 0.555050 0.393430 0.067925 0.041950 0.679700 -0.416497 0.138310 0.059447 -0.043792 0.518179 0.269629 0.312047 -0.528759 0.316496 0.193609 0.330070 0.701343 0.766967 -0.096340 0.093759 -0.429589 -0.525109 -0.208585 0.640818 -0.296733 -0.512865 0.055867 -0.203697 -0.053772
GlobalSpecies0030 0.117541 0.374691 -0.175316 0.330599 0.585509 -0.515378 0.135907 0.028347 0.087198 0.057460 0.378752 0.006284 0.394685 -0.155038 -0.142630 0.082386 0.371681 0.087730 0.038268 -0.839220 0.449242 -0.092752 -0.174629 -0.160686 0.102057 0.140395 0.196098 -0.464682 0.064912 0.242041 -0.023318 -0.348761 -0.176209 -0.095265 0.005759 -0.013088 -0.115064 0.144301 0.398489 -0.117598 -0.622841 -0.663312 0.178604 0.280581 -0.578008 -0.230994 -0.257618 0.006932 -0.438582 -0.383615 -0.011423 0.081600 0.464812 -0.236572 -0.134086 0.431432 0.663230 -0.545264 0.006677 0.173740 0.447216 -0.619575 -0.322596 0.140294 0.070740 -0.133225 -0.505589 -0.524642 0.104424 -0.388950 -0.437759 0.104761 0.175572 0.418737 0.077618 0.279994 0.177353 0.271528 0.155308 0.248034 -0.287455 -0.012370 -0.082655 0.176969 0.152252 0.526840 0.033801 0.355336 0.147826 -0.052851 0.139008 0.002709 -0.080292 -0.639667 -0.169868 -0.270896 -0.172104 0.084673 0.036804 0.424545
GlobalSpecies0031 0.082476 0.452253 -0.250399 0.088226 0.718524 0.097225 0.405685 -0.577182 0.254054 -0.417820 0.347596 0.144077 -0.226311 -0.502854 0.093306 0.035111 0.055571 -0.272076 0.356258 -0.044558 -0.373627 0.194916 -0.113928 -0.370681 -0.092473 -0.016456 0.140864 0.170164 -0.464406 0.441739 -0.119296 -0.193566 -0.448039 -0.504025 0.001236 -0.077251 0.452533 -0.043861 0.114439 0.306581 0.089053 -0.403240 -0.202841 -0.008601 0.502794 0.259139 -0.687606 -0.445491 0.265223 -0.018007 -0.121126 0.290816 -0.308565 0.088883 0.503314 -0.180463 -0.358937 -0.375947 -0.399967 0.012050 0.274353 -0.323716 -0.086508 -0.384639 0.163779 0.693946 -0.353526 -0.351632 -0.307927 -0.145934 0.172074 0.079398 -0.154936 -0.281201 -0.503463 -0.621193 0.417898 0.113982 -0.275936 0.246033 0.007959 -0.268064 -0.373938 0.144685 -0.033115 0.100612 0.462384 0.589243 0.185151 0.280369 0.279105 -0.312222 -0.008332 0.366273 0.309265 0.228572 -0.323920 -0.051619 -0.429102 -0.235976
GlobalSpecies0032 0.224200 0.611292 -0.327248 0.523498 -0.382936 0.062486 -0.130918 -0.051332 -0.339371 -0.084601 0.658270 0.638216 0.620793 0.637442 0.028646 0.008044 -0.096276 0.282548 0.180120 -0.222414 -0.634269 0.109238 -0.119330 0.638475 -0.115495 -0.228324 -0.207421 0.535035 -0.154168 0.137781 0.535667 -0.017648 0.160084 -0.049994 -0.520489 -0.632371 -0.150230 -0.199980 0.435273 0.148411 -1.046373 0.148139 -0.605418 0.865963 0.065391 0.288943 -0.212657 0.273495 -0.190143 0.085109 0.014181 -0.490977 -0.009220 0.061043 0.236378 0.044459 -0.213348 0.480000 -0.598224 0.041793 -0.070794 -0.324467 -0.038267 0.309676 -0.037056 -0.317128 0.275514 -0.278068 -0.575184 0.621703 -0.622688 0.417475 -0.047454 -0.551179 -0.088874 -0.823289 0.355469 0.447053 -0.228261 0.081108 -0.207298 0.089141 0.356948 -0.129104 -0.642474 -0.456377 -0.812650 0.184753 -0.334352 -0.312797 0.054322 -0.639571 0.240162 -0.170637 0.225751 0.238226 -0.199519 -0.210135 0.270772 -0.227746
GlobalSpecies0033 -1.020492 0.448670 0.013999 0.385160 0.974102 1.458741 -0.617752 -0.058144 0.420973 0.637954 0.228746 -0.017838 0.583954 0.313662 0.436595 0.245083 -0.362328 0.447506 0.087129 -0.052661 0.812708 0.154896 -0.009629 -0.460435 0.096470 -0.314935 0.134995 0.753306 0.795512 0.795862 0.032669 -0.135055 -1.265338 0.098625 -0.142439 0.426960 -0.036379 0.382233 1.956782 -1.506155 -0.157626 0.509848 0.282134 -0.791448 -0.167182 -0.046655 -0.390056 1.306415 -0.167233 0.666258 0.190753 0.582118 -0.167753 0.398600 1.063069 0.370781 -0.674179 0.079517 0.071276 0.470647 -0.067170 0.226230 0.151709 1.432417 0.247438 -1.071820 0.708149 -0.387666 -0.692431 -0.209031 1.632856 -0.319908 0.934493 0.022170 0.134491 -0.248773 0.579570 0.456306 -0.813180 0.298685 0.084185 0.916145 0.229785 -1.050046 -0.487204 -0.072343 0.077439 0.145862 0.745911 -0.265313 -0.119695 -0.384762 -0.053629 0.320146 0.818357 -0.633299 0.117019 -0.936746 0.449319 -0.162760
GlobalSpecies0034 -0.802175 0.071982 -0.494624 -0.004086 0.171042 0.271730 -0.182217 0.821045 0.886815 0.199004 -1.293034 0.585583 0.653872 -2.428106 -0.820620 0.588576 -0.163573 -0.697511 -1.138535 0.746978 1.233499 -0.953617 0.132759 -0.707858 1.242269 0.019619 0.711905 -0.802835 0.227542 -0.701556 -0.579346 -0.971856 1.747539 -0.010982 0.800575 -0.373031 0.432472 -0.549366 0.605180 0.013808 -0.388566 0.253936 0.544928 -0.248778 -0.165520 -1.039910 -0.301187 -0.025844 -0.150871 0.657117 0.858349 -0.163426 -0.306490 -0.177034 -0.189018 0.790599 -0.186786 0.324166 -0.224627 -0.217278 0.063912 1.826683 -0.547860 -0.049549 0.467224 0.508378 0.281855 -0.136379 0.063746 -0.882912 0.333431 0.421336 -0.716182 0.095957 0.417607 -2.442663 0.061737 -1.261922 1.125089 0.540688 1.148809 -0.239059 -1.094626 -0.724647 0.144895 -0.278554 0.688590 0.113539 0.321685 0.107107 -0.517956 -0.511252 1.176836 0.609078 0.862046 0.385303 0.224852 -1.091915 -0.415740 1.043153
GlobalSpecies0035 0.402216 -0.191590 0.714544 -0.147351 0.427113 0.571352 0.043394 0.297068 -0.369262 -0.355811 -0.273841 -0.032060 0.906127 1.074903 0.238249 -0.402819 0.103128 -0.335673 0.135099 -0.257089 -0.762929 0.030181 -0.050948 0.540868 0.147286 0.026609 -0.133956 0.128915 -0.253654 -0.415432 0.390751 -0.086686 -0.153277 0.028630 -0.359282 -0.107787 0.091889 -0.272103 -0.165859 0.381454 0.320340 -0.163731 0.283825 0.015700 0.501661 -0.471608 0.224253 0.388597 0.178311 0.181378 0.019446 -0.184220 0.416191 -0.123514 -0.027511 0.136205 0.076220 -0.656418 0.048295 -0.173136 0.287305 0.082312 -0.433146 0.086303 0.322773 0.013559 -0.372914 0.316445 -0.160709 -0.703187 -0.120925 -0.284344 -0.147514 0.653570 0.219927 -0.137393 0.044525 0.264039 -0.389915 0.345120 -0.256050 -0.206995 0.240757 -0.003523 -0.091728 -0.214068 0.307714 0.376001 0.043873 -0.288936 0.447918 0.077725 -0.632850 -0.091763 -0.288052 -0.082399 0.805527 0.467312 -0.393731 -0.399729
GlobalSpecies0036 0.047831 -0.115652 -0.063555 0.358531 0.251542 0.420427 -0.105044 0.501768 -0.158308 0.208194 0.115273 0.108562 -0.167771 -0.063422 -0.246301 0.083268 0.022478 0.091428 -0.380716 0.137950 0.039227 0.098705 0.100657 -0.077575 -0.002299 -0.109076 0.105807 -0.099081 -0.027894 -0.103521 0.472771 0.013647 -0.196049 -0.006934 0.032997 0.117830 0.286592 -0.269599 -0.146185 -0.218318 0.072539 -0.084129 -0.061358 -0.079698 -0.173124 -0.029107 0.017077 -0.351324 -0.268284 0.116900 -0.136499 -0.023841 -0.016162 0.307667 0.009600 -0.247576 0.365775 -0.219592 -0.023090 -0.185966 0.171869 -0.131892 0.417217 -0.229768 0.171021 0.044604 0.019404 -0.164381 0.315612 0.149024 -0.283839 0.169035 -0.112802 0.221142 0.057051 0.258949 -0.146426 -0.286614 0.026883 0.031133 0.143037 0.300623 -0.143291 0.140149 -0.203316 -0.139642 -0.071866 0.007366 -0.021085 0.091180 -0.122220 -0.061423 -0.047063 -0.052675 0.523759 -0.094333 -0.486319 0.125922 0.149469 0.250608
GlobalSpecies0037 0.140187 -0.570338 -0.434967 0.152306 -0.215579 0.301653 -0.129427 0.093662 -0.219846 0.474759 -0.165994 -0.020480 0.362584 0.275664 0.002340 0.074779 -0.543128 -0.041701 -0.052692 0.194877 -0.116835 -0.342949 -0.091479 0.238851 0.025363 -0.184079 -0.313281 -0.039032 0.124784 0.025359 0.577782 0.216721 -0.026575 -0.261983 -0.094866 -0.102680 0.341647 0.402711 -0.350842 0.053654 -0.132735 0.805758 0.333159 0.245671 -0.037770 0.273480 -0.332997 -0.509772 0.196871 -0.117014 0.115381 -0.206682 -0.064522 -0.170764 -0.190303 -0.074569 -0.154512 -0.493086 0.121702 0.095282 0.264552 -0.157991 -0.195316 -0.272189 0.047197 0.472179 -0.379490 0.144087 -0.136003 0.562701 -0.421831 0.041496 -0.468906 -0.087142 0.056670 0.024902 -0.197864 0.079965 0.225272 -0.147061 0.296522 -0.222480 -0.282842 0.104324 0.221662 0.120409 0.427606 -0.343529 -0.162038 0.250075 -0.243982 -0.402966 -0.303333 0.037397 0.262347 0.183594 0.145958 -0.450133 0.745222 0.064552
GlobalSpecies0038 0.294750 -0.090987 0.218690 0.132574 -0.033753 0.310055 -0.347805 0.034396 -0.005150 0.011556 -0.179833 0.313756 0.092929 -0.078491 -0.067087 0.436535 0.006344 0.053793 -0.186340 0.081920 -0.240301 0.197764 -0.255996 -0.340807 -0.017623 0.100777 0.084027 -0.240494 -0.071200 0.020772 0.431325 0.025664 -0.172798 -0.082286 -0.119439 0.183068 0.159234 -0.153753 -0.145275 0.010567 -0.112642 0.136704 -0.318639 -0.242184 -0.163561 0.084036 0.249070 -0.244645 -0.228603 0.141901 -0.197349 -0.199723 -0.253045 -0.253371 0.156511 0.118102 -0.009507 0.375560 -0.375958 -0.322463 0.067383 -0.010969 -0.116729 -0.153679 -0.014310 0.105920 0.153434 0.349528 0.130014 -0.044843 -0.181670 0.284520 0.226769 0.105617 0.046308 0.244587 -0.117659 -0.182338 0.216560 0.046332 -0.000386 0.319033 0.159723 0.241519 -0.024189 -0.338644 0.038291 -0.096616 -0.283985 -0.380453 -0.236788 -0.052178 0.094451 0.283791 0.171697 -0.150164 -0.216755 -0.338965 -0.166896 0.267663
GlobalSpecies0039 -0.016815 -0.133917 -0.206861 0.056141 -0.069643 -0.319287 0.870693 0.354185 -0.167425 -0.470354 -0.142565 0.315402 -0.061450 -0.108491 -0.049818 0.549329 0.093875 -0.486580 0.198411 -0.617563 -0.535540 -0.443948 -0.295775 0.029423 -0.394316 -0.099806 0.534947 -0.230821 0.220582 0.242141 0.090837 -0.210705 0.088819 0.153188 0.378080 0.276346 -0.190177 0.381000 0.254773 -0.527739 0.440418 -0.097683 0.091586 -0.471646 0.450122 0.102132 0.391110 0.700929 -0.013341 0.320469 -0.512597 -0.109414 0.129289 -0.224255 0.085013 -0.229265 0.399092 -0.275286 -0.431916 -0.189025 -0.303101 -0.120839 0.008193 0.008530 0.459540 -0.093875 -0.180187 0.625740 0.265553 0.441740 0.161717 -0.004782 0.335622 0.229907 -0.180083 -0.010559 -0.281147 0.426437 0.699292 0.299422 0.122547 0.425123 0.709449 0.183592 0.159833 0.396216 0.043634 -0.471171 -0.384996 0.033043 0.312823 0.055893 0.238011 -0.003181 -0.034246 0.212945 -0.302809 0.330305 -0.198014 0.093757
GlobalSpecies0040 -0.390634 0.030680 0.000863 0.414312 0.416026 0.213011 0.269244 0.581111 -0.093370 -0.463266 -0.310408 0.290472 -0.044740 -0.106880 -0.192328 0.083532 -0.035076 0.384289 0.242727 0.294510 -0.362601 0.037493 0.339112 -0.339764 -0.731270 0.456759 0.031454 -0.069967 0.074055 -0.608586 0.064272 -0.395326 -0.307361 0.087746 -0.316866 0.846615 -0.177589 -0.060528 0.129393 -0.077296 0.432920 -0.127079 0.441424 0.332322 0.164505 0.040646 -0.304528 -0.485394 0.304814 -0.088991 0.185823 -0.200844 0.012957 0.202067 -0.187324 0.114640 -0.034608 -0.030769 0.151142 -0.920617 0.300191 -0.377414 -0.132071 -0.051284 -0.219963 -0.974916 -0.342618 -0.380175 0.142578 0.012650 -0.090612 0.047450 0.074007 -0.047665 0.120185 -0.191110 0.101758 -0.486281 -0.127047 0.346205 -0.747258 -0.070754 0.026481 0.155877 -0.387790 0.052503 0.285274 0.124121 -0.155881 0.323246 0.267984 0.064994 0.543676 0.214508 0.155169 -0.294120 -0.152142 -0.415271 0.004512 -0.083683
GlobalSpecies0041 0.119143 -0.665599 -0.618270 -0.597540 -0.262785 0.079623 -0.464685 -0.186725 -0.155043 -0.200325 -0.165271 -0.192201 -0.449941 -0.233589 0.674909 0.141578 -0.354894 -0.065438 -0.730280 0.116870 -0.067503 -0.529492 -0.002520 0.587763 0.169523 0.039610 0.012320 -0.189686 -0.168840 0.148289 0.608778 0.500203 -0.092004 0.363931 -0.048201 -0.150180 -0.545249 -0.807804 0.035526 0.409978 -0.336637 -0.021046 0.341890 0.230053 0.013744 -0.338992 0.005358 0.400959 -0.701030 0.071162 -0.102639 0.343879 -0.664001 0.086350 0.149247 0.097715 -0.258486 -0.093827 0.338757 -0.674697 -0.115229 -0.016405 -0.219161 0.074495 0.402002 0.121023 0.015846 -0.328418 -0.105287 -0.304882 0.139576 -0.110346 -0.118860 0.133976 0.209567 -0.254122 -0.337566 -0.190175 0.369442 -0.304161 -0.386532 -0.117288 0.560375 -0.142290 0.318339 -0.319888 -0.050267 0.325164 0.069310 -0.570524 0.504374 -0.706277 -0.049093 0.828851 0.171140 -0.170294 0.538355 -0.845143 -0.331150 -1.040044
GlobalSpecies0042 -0.785313 1.064036 0.138142 -0.352627 0.158499 0.127080 -0.420396 0.065213 0.236803 -0.048943 0.269949 -0.230150 -0.957277 -0.406736 0.142066 -0.795960 -0.290724 0.230055 0.446225 -0.316863 -0.009062 -0.347609 0.606027 -0.117840 -0.504289 -0.200889 -0.113177 -0.045888 0.244172 0.510501 0.044919 -0.724954 -0.481376 -0.344065 -0.167937 -0.627692 -0.048837 0.096681 1.348088 0.035728 0.716441 -0.250406 1.573083 -0.617685 0.794206 -0.495954 0.151831 0.469580 0.217395 -0.424901 0.137979 0.820095 -0.788326 -1.034533 -0.662973 -0.674699 -0.319205 0.459694 0.076875 -0.175065 0.976003 -0.007670 0.156182 0.428970 -0.298912 0.057701 -0.071043 -0.019892 -0.316352 -0.591648 0.232975 -0.162762 -0.807228 -0.027118 0.086053 0.124073 -0.178542 0.171986 0.044017 -0.010448 -1.858757 -1.629961 0.209018 0.769708 0.580495 -0.172338 0.235457 -0.468028 -0.072300 -0.782172 -0.106043 0.096147 -0.666349 -0.744886 0.597420 0.450086 -0.578807 -0.680985 -0.136267 1.313067
GlobalSpecies0043 0.410681 -0.145165 -0.012922 0.400540 0.337727 0.778316 0.635331 0.479298 0.581991 -0.653087 -0.041986 -0.403533 -0.340297 0.264703 0.035327 0.818464 0.201897 -0.934832 -0.104326 -0.797950 0.269328 0.698231 -0.594617 0.036879 0.104531 -1.092994 -0.182093 0.415403 -0.034889 0.032058 -0.035804 -0.193578 -0.050233 -0.707986 0.384139 -0.108352 -0.133720 0.125536 -0.301272 0.365542 0.627394 -0.605172 -0.535906 -0.496420 0.746354 0.151536 0.679473 0.082139 0.314322 -0.231816 0.270700 -0.461611 0.927018 0.145171 -0.291925 0.120467 0.588189 -0.378851 -0.753208 -0.114513 0.109452 -0.108659 -0.147642 0.803283 0.218995 -0.878271 -0.209483 0.805554 -1.033552 -0.593523 -0.198796 0.044159 0.498503 0.131033 -0.320888 -0.093874 0.083119 -0.040734 -0.528243 0.320870 0.204267 0.258936 0.156715 0.273937 -1.303798 -0.262928 0.227628 0.230308 0.371450 0.138980 0.317681 0.050849 -1.159750 -0.226191 -0.413128 0.381296 -0.853323 0.499183 -0.092719 0.232352
GlobalSpecies0044 -0.005979 0.001554 0.004304 0.004050 0.002166 0.006315 0.003780 0.005035 0.006047 -0.000955 0.001842 0.005095 0.000126 0.003990 -0.006113 -0.007233 -0.001766 -0.001457 0.005801 -0.000170 -0.004188 -0.001064 0.001907 0.003534 0.001591 -0.005552 0.004012 0.003917 -0.004354 -0.003870 0.002451 -0.000333 -0.002316 0.006755 0.003717 -0.000149 0.003070 -0.002503 0.004885 -0.000883 -0.003459 -0.003273 -0.005788 0.006668 0.000718 -0.001901 -0.000565 -0.001048 0.006642 0.005236 -0.001218 -0.007546 0.004172 0.000689 -0.004012 0.005763 -0.004863 -0.000000 -0.000320 0.000783 0.006130 0.002131 0.000450 0.003815 -0.001114 -0.005833 0.003665 0.001957 0.001664 -0.001450 0.001074 -0.001795 0.005278 0.005286 0.004873 0.005996 0.003384 0.004308 0.004947 0.000026 -0.000456 0.003729 0.002480 0.003716 0.004418 -0.001532 -0.000521 -0.000445 -0.001532 -0.000841 0.000338 0.004598 -0.008710 -0.009211 -0.001588 0.000176 -0.005044 0.002077 0.002133 -0.003380
GlobalSpecies0045 -0.203741 0.126142 0.291496 -0.083758 -0.122605 0.486045 -0.098481 0.004751 -0.254900 -0.215747 0.234069 -0.200518 -0.039468 -0.049588 -0.243502 -0.337971 0.335724 0.024597 -0.039670 -0.275669 -0.283233 -0.045632 0.034327 -0.543675 0.063714 0.016804 0.221211 -0.370629 -0.485640 0.182310 0.400916 0.254658 -0.392246 -0.364698 -0.102892 0.466222 -0.122529 0.136679 -0.442304 -0.001973 0.268489 0.029901 -0.485360 0.246342 -0.521285 0.171088 0.278188 -0.266186 0.164008 0.359477 0.104090 -0.515128 0.288600 0.004870 -0.216064 -0.133825 0.181209 0.110830 -0.214171 -0.225337 -0.021656 -0.016733 -0.115692 0.362233 0.302373 -0.262828 0.606285 0.282930 0.144262 0.303988 -0.157287 0.391425 0.227570 -0.250393 0.152360 0.166933 0.098401 -0.621058 -0.147044 -0.107723 0.049344 -0.157094 -0.059680 0.109530 -0.113615 0.344316 -0.005520 0.311471 -0.561961 0.117565 0.277024 0.022875 -0.492998 -0.383904 -0.051039 0.366634 -0.269901 0.245273 -0.017121 -0.227558
GlobalSpecies0046 -0.220322 -0.632317 0.025484 0.258747 0.904258 -0.421983 -0.247159 -0.335337 -0.437408 0.754091 -0.882115 0.445143 -0.637265 -0.154501 -0.051456 -0.762892 0.307641 1.548187 -0.749720 0.271499 1.307522 0.280205 0.980608 1.129294 0.616576 0.546894 0.647751 -0.586271 0.629795 -0.600035 -0.062988 0.643503 -0.098299 -0.133707 0.500903 -0.001519 -0.070816 -1.012345 0.013503 -0.308335 -0.219678 0.077822 0.868112 -0.063299 0.576541 -1.622442 -0.496220 -0.001934 0.239842 0.052244 -0.603012 -0.077081 -1.585208 0.741227 -0.642247 0.586070 0.500568 -0.359171 -0.903089 -0.369934 -0.709753 0.946086 0.073712 -0.251571 -1.174403 -0.266094 0.677368 -0.227281 -0.560840 -0.230444 -0.343788 0.315542 -0.523563 -0.599265 -0.625441 -0.306313 0.268854 0.727286 0.766870 0.674660 0.252570 -0.394921 0.551421 0.579858 -0.156162 0.465017 1.362285 -0.307236 0.117341 -0.526278 -0.352881 -0.842365 0.348656 -1.054018 -0.553960 -0.009372 0.113807 0.184751 -0.360653 -0.494767
GlobalSpecies0047 -0.538447 -0.144132 -0.228253 0.420529 -0.213733 -0.132651 0.179535 0.031626 0.141510 0.104043 0.197323 0.157320 0.180324 -0.008407 -0.203064 -0.299448 -0.165486 -0.144495 -0.467347 0.286640 -0.040427 0.173270 0.375037 0.048066 -0.214764 0.274502 0.175394 -0.350702 -0.428073 0.004263 -0.017808 -0.000291 -0.126252 -0.418672 0.062225 0.240047 -0.002310 0.503764 -0.094406 0.130991 -0.188671 0.380079 -0.113523 0.175352 -0.107086 0.184554 0.203921 0.273850 0.048921 0.073722 -0.203268 0.112898 0.162327 -0.051956 -0.337753 0.076281 0.202321 0.526340 0.278254 -0.217893 0.010883 -0.481619 0.464878 -0.399092 0.011592 0.404633 -0.338083 -0.243052 0.417488 -0.027496 -0.293944 -0.066890 -0.229549 0.008209 -0.073982 -0.228041 0.217899 -0.096485 0.140286 -0.143818 -0.113320 -0.288990 -0.551598 -0.428574 -0.231240 -0.377183 0.070781 0.120131 0.320375 0.061253 -0.373161 -0.211200 -0.114601 -0.434041 -0.306780 -0.035646 -0.633442 0.408347 0.177326 0.069610
GlobalSpecies0048 0.044647 0.084132 0.096832 -0.261088 -0.055594 -0.226028 0.159729 0.313256 0.259785 0.156218 0.057621 -0.382546 -0.432770 -0.104459 0.146999 -0.105473 -0.296648 0.080399 0.505009 -0.128497 0.068974 -0.242904 0.217895 -0.137640 0.421688 0.308344 0.148033 -0.198931 -0.126027 -0.223913 0.202538 0.037870 0.265226 -0.209103 0.261884 -0.560377 0.339018 0.193322 -0.197351 -0.240217 0.055764 -0.043999 -0.369868 0.185332 -0.173908 -0.080046 0.222331 -0.353183 0.493159 0.220067 -0.376151 -0.023308 0.537006 -0.090015 -0.042376 0.329914 0.511602 0.301320 -0.490410 -0.210556 0.041422 0.045328 -0.033291 0.044441 0.208058 -0.071351 -0.142115 0.017756 -0.032209 0.224511 -0.303855 -0.523327 0.550386 -0.157206 0.039140 -0.041816 -0.341181 0.003184 0.184399 -0.031299 0.262536 0.048121 -0.378268 -0.302844 0.321957 -0.106360 0.815024 0.388365 -0.253896 0.147934 0.110773 -0.098059 0.031604 0.195553 0.140854 0.114350 -0.254760 -0.250524 -0.163383 -0.141536
GlobalSpecies0049 0.643313 -0.116256 0.226217 0.297586 0.133998 -1.294627 -0.146819 -0.652424 -0.553533 0.375094 -0.579012 0.385731 0.074179 0.401724 0.446927 -0.588020 0.330625 -0.151852 0.296932 -0.103595 0.145696 -0.149509 0.348915 0.155200 -0.317870 -0.151275 -0.029531 0.643023 0.138835 0.202495 0.126754 0.136494 -0.459388 0.812415 -0.428507 0.441714 -0.545003 -0.388833 0.186251 0.361787 -0.373700 0.038809 0.220723 0.415425 -0.591747 0.713918 0.545065 -0.165692 0.127738 0.277527 0.434487 0.623688 -0.408390 -0.289732 -0.476721 0.394866 -0.075201 -0.840792 -0.256763 0.539464 0.115614 -0.297353 -0.097857 -0.291664 -0.057432 -0.051333 -0.639278 0.616390 -0.274238 0.471151 -0.512910 -0.092080 0.115375 0.334724 -0.187011 -0.431495 -0.038674 0.070924 0.130820 0.048471 0.098196 -0.288967 0.201742 0.861203 0.224578 -0.632258 -0.104824 -0.475633 -0.238893 0.481187 0.657587 -0.041939 -0.248911 0.288536 0.568166 -0.038667 -0.345863 0.316627 -0.065547 0.098939
GlobalSpecies0050 -0.016930 0.933445 1.491812 -0.911194 -0.555603 0.390530 0.052698 -0.220346 -0.471733 -0.753164 0.011050 -0.438840 -1.235777 0.709510 1.088845 0.689555 -0.754489 -0.612928 -0.357272 -0.425298 0.051047 0.556759 -0.885705 -0.387202 0.657100 1.365274 0.787174 -0.598545 -0.219182 -0.147896 0.231022 0.094399 0.583153 0.315497 -0.532075 -0.054951 0.420922 0.463166 1.297458 0.544127 -0.162956 0.338700 -0.121980 1.169338 -0.713727 -0.334990 -0.461993 -1.246995 -0.079205 1.351618 1.875688 0.640734 -0.559155 0.800599 -0.543576 0.114971 -0.877110 0.358071 -0.364096 0.230584 2.340023 1.382184 0.864071 -0.107416 -0.433749 0.847893 0.534077 -0.229225 -0.025360 0.702975 -0.201588 -0.283291 -1.025189 -0.408222 -0.254584 -0.694353 -0.338095 0.654683 0.639489 0.920592 1.229710 -0.292650 -0.609043 0.195463 0.326149 -1.123804 -0.698232 -0.023898 -0.397360 -0.518705 -0.054446 -0.090539 0.999444 -0.302810 0.068042 1.370475 -0.150773 1.505020 0.969207 -1.300146
GlobalSpecies0051 0.094688 1.155816 0.114377 0.646182 0.305507 -0.137889 -0.549075 -0.142929 -0.355838 0.719544 -0.352544 -0.404732 -0.661807 -0.308205 -0.234050 -0.172955 -0.714017 -0.576133 0.000345 0.269278 0.557416 0.877537 -0.114888 0.113691 -0.499139 -1.051848 0.736803 0.357070 -0.209625 0.057883 0.115815 -0.168920 0.249680 -0.452021 -0.032799 -0.761684 0.351669 0.422404 1.261667 0.547521 0.312124 -0.228083 -0.394161 -0.477661 0.427845 -0.690815 0.042242 0.040355 -0.446196 -0.056702 0.502352 -0.092031 0.377447 -0.283925 0.014079 0.573841 -0.300959 0.120410 0.116910 0.090190 -0.275191 -0.123903 0.044961 0.004737 -0.469418 -0.270022 0.015685 0.617461 0.179577 -0.097265 1.000549 -0.329557 0.004292 0.301542 -0.311746 -0.383287 0.344242 0.173282 -0.311282 0.123509 0.014378 0.091402 0.174824 -1.009884 -0.113825 -0.268360 0.508727 -0.359374 -0.006342 -1.253199 -0.170153 -0.655097 0.209180 0.435132 0.014318 0.090077 0.372921 0.344531 -0.595336 0.037535
GlobalSpecies0052 0.482041 0.591042 -0.507823 -0.385505 0.240524 0.566683 -0.990257 -0.407611 -1.485686 0.774063 0.937283 -0.231352 -0.456476 -0.053228 0.694331 -1.449203 -0.823951 0.735440 -0.763533 0.190723 1.632734 0.828982 -0.860282 0.333608 -0.048949 -0.364026 0.387581 0.155729 0.116717 -1.288993 -0.564379 -0.859813 1.048362 -0.724482 -0.135381 -0.388913 -0.183135 0.234575 -0.604232 0.741735 0.203066 0.338292 -0.576776 -1.203746 -0.581902 -1.259463 -0.924684 -0.272154 -0.524165 0.451842 0.045323 -0.057605 0.863051 0.403527 0.854707 1.182789 0.128187 -0.111504 -0.060672 0.519237 -1.413989 -0.170008 -0.232782 1.416385 0.425894 -1.077539 1.015386 0.505107 -0.812142 1.262956 1.067796 -0.623252 -1.727321 0.567755 0.079076 -1.342898 1.186535 -0.238349 -0.899286 -0.864097 0.887298 0.002479 -0.684528 -1.612835 -0.475791 -0.451040 -0.143781 -0.827636 -0.699640 -0.533428 0.013230 -0.580042 -0.874931 0.346637 1.464386 -0.757047 1.126097 1.028613 0.150322 -1.204171
GlobalSpecies0053 -0.285943 -0.704928 0.943951 0.399053 -0.220722 -0.662792 0.118007 -0.582091 -0.997915 -0.033778 0.599766 0.226049 -0.056268 0.023438 -0.283860 -0.472540 -0.054131 -0.348570 -0.236080 0.029846 0.990095 0.258157 0.345704 -0.339519 -0.073316 -0.257657 0.201906 -1.069123 0.088014 0.273060 -0.062420 0.353182 0.062159 0.251629 -0.675218 -0.253906 0.715134 -0.203240 -0.083471 0.500330 -0.680818 0.433775 -0.412409 0.307506 0.155218 -0.314885 0.137275 0.050249 0.221683 -0.812138 0.730054 -0.433334 0.022791 0.177029 -0.116337 0.115131 0.624592 -0.092019 -0.739559 0.435077 -0.138236 0.230761 -0.260130 0.171806 -0.521105 -0.184475 -0.270155 0.019946 -0.497043 0.690271 0.352412 0.576719 -0.333757 0.236959 0.427130 -0.454685 -0.038931 0.915801 -0.871572 -0.597263 0.489882 0.455086 -0.434215 -0.781331 0.816493 0.045358 0.247975 0.770182 -0.440073 -0.589833 -0.303898 0.511548 0.713991 0.150755 -0.386199 0.484732 0.960234 -0.030870 0.824807 0.605682
GlobalSpecies0054 -0.112281 -0.188722 0.171720 -0.304550 0.400115 -0.177949 -0.202007 0.055381 0.488218 -0.001671 -0.212004 0.258270 0.058069 -0.367170 -0.325668 -0.404482 0.555281 0.564701 -0.319716 0.095972 0.368177 -0.298649 -0.060539 0.125074 0.284342 0.267416 0.178912 -0.424229 0.168212 -0.177927 0.304992 0.423923 0.415890 -0.140901 -0.113557 0.151552 -0.164510 -0.082697 0.128133 0.563766 0.609697 -0.320254 -0.016373 -0.617607 0.179845 0.334547 0.010094 -0.414303 -0.300999 -0.490536 -0.798314 0.208600 0.295553 0.025861 -0.022718 -0.411260 -0.741211 0.053708 0.165554 -0.458113 0.189286 0.429819 0.405145 -0.228112 -0.286233 0.298842 -0.141610 0.107351 -0.145373 -0.574602 -0.043407 -0.637500 0.079555 -0.034941 -0.283176 0.205756 0.265443 0.105958 0.226818 0.184351 -0.554899 -0.319575 0.307795 0.097913 -0.332519 0.024023 -0.137713 -0.595007 -0.118648 -0.053393 0.234239 0.064549 0.258575 -0.089788 -0.755011 -0.066585 -0.185542 -0.305987 -0.345686 0.496271
GlobalSpecies0055 0.028686 -0.406843 -0.135903 -0.153639 -0.219463 -0.137961 0.138400 0.068586 0.896248 -0.043236 0.435897 -0.040207 0.326002 0.436490 0.477383 0.154048 0.064209 0.213443 0.494813 -0.373189 0.218224 0.436623 0.281000 -0.173682 -0.200055 0.637108 -0.032961 -0.269956 -0.388821 0.064147 -0.157898 0.242422 0.402834 -0.002875 -0.151710 0.094068 -0.195910 -0.346151 0.615789 0.803317 -0.507514 -0.317528 0.218683 -0.225790 0.187365 0.695574 -0.603471 0.201887 -0.048747 -0.537603 -0.293804 0.085845 0.490126 -0.539737 0.531005 0.183037 -0.223113 0.114884 -0.320658 -0.547338 -0.387514 -0.451420 -0.364813 -0.098384 -0.051611 0.019283 -0.019077 0.754573 0.239198 0.194251 -0.122067 -0.366932 -0.539903 -0.318296 -0.162305 -0.449377 0.249312 0.143990 0.152293 -0.097903 1.119190 0.005964 -0.491748 0.294621 -0.399550 -0.592370 -0.764051 -0.271512 0.498287 0.116254 -0.475791 0.284859 0.291712 0.226783 0.290434 0.026274 -0.187881 -0.154109 0.009892 0.142699
GlobalSpecies0056 0.743743 0.937768 0.746406 -0.881609 -0.856750 -0.858038 -0.504134 -1.526880 0.411294 0.618164 -0.774119 -0.033459 -0.949634 -0.378304 0.601007 0.054060 -0.985557 -1.147144 -0.980420 1.661319 0.620975 0.730755 -1.147182 -0.125481 0.651352 0.454368 0.127468 0.981117 0.381442 -0.667038 0.811023 -0.100034 0.474935 -0.476510 0.891901 -0.053230 -0.277329 -0.642790 0.284843 -0.292569 -0.457951 -1.039213 -0.111849 -0.785770 -1.274700 -0.061719 0.153748 1.012878 -1.224700 -0.450567 -0.215527 0.646913 0.279586 -0.125959 0.319520 0.085021 0.181895 1.228116 0.274001 -1.584485 0.510714 -0.268129 0.879470 -0.729798 -0.294582 0.155658 -0.499450 0.183562 -0.858631 1.120239 1.117744 0.454476 0.496469 0.312152 0.428542 0.370512 1.612922 -0.982442 -0.179425 1.413054 0.281079 -0.311065 -0.080094 -0.631443 0.808268 0.964632 1.120766 -1.021701 -0.477469 -1.641448 0.460865 0.256767 0.900575 -0.322865 -1.519141 0.706691 -0.314195 -1.206075 -0.789530 -0.402491
GlobalSpecies0057 0.025734 0.397198 -0.901119 1.667911 -0.513448 -0.613723 0.649353 1.636785 0.255282 0.248788 -0.353037 -1.021389 -2.203204 -1.083941 -0.387240 0.127815 -0.577905 -0.261266 0.296653 -0.353535 0.212093 0.742773 -0.628051 0.060216 0.501524 0.152855 0.938572 1.757536 0.626389 0.564420 0.321312 0.250124 -0.003911 -0.365068 -0.058181 0.037362 -0.422538 0.006151 -0.782135 0.757050 0.888286 -0.899086 -0.388976 0.754955 0.928503 -1.053111 0.564506 -0.312050 1.498132 0.488373 0.407319 -0.277108 -0.340344 0.632384 -0.122178 0.141102 -1.530574 -0.130455 0.194997 0.662892 -0.024781 -0.545512 0.171105 0.104022 0.348112 0.550653 -0.072416 0.251714 -0.747753 -1.149227 0.902782 -0.729600 -0.444838 -1.691949 0.619183 0.312029 0.616328 0.531566 -0.991670 1.292861 -0.433678 -1.691359 0.188977 -0.037712 -0.245206 0.660442 -1.482760 -0.790584 -0.061356 -0.385126 -0.884754 -0.677173 -0.046816 -0.466992 0.000934 0.186317 -0.910349 -1.537904 -0.911851 -0.119089
GlobalSpecies0058 0.770514 -0.791855 0.161402 0.489830 -0.477813 0.276600 -0.280757 -0.293219 -0.744745 -0.124267 0.954188 -0.143913 -0.004092 0.110793 0.176052 -1.043846 -0.051861 -0.970119 -0.191777 -0.494486 0.417464 -0.451461 -0.129228 0.852628 0.653003 -0.554072 0.798065 0.698136 0.862652 -0.518182 0.108958 -0.307817 -0.533908 -0.503520 0.675643 0.927168 -0.377645 0.014726 0.172122 -0.398121 0.759162 -0.539651 0.102487 -1.099231 0.742703 -0.575771 -0.153608 -0.141603 -0.043872 0.208694 0.335153 0.281563 0.707735 0.402548 -0.781766 -1.172072 -0.376784 -0.811710 0.107757 -0.206554 -0.341100 -0.738225 -0.309151 0.186900 -0.574443 -0.723270 0.646754 -0.628488 0.369234 -0.376196 0.827731 0.127155 -0.427601 0.321843 -1.507170 1.150975 -0.905739 -0.171760 1.017483 -0.327357 -0.362714 -0.031908 -0.966222 -0.938789 -0.136192 -0.125644 0.064393 -0.114423 0.750322 0.034911 -0.711429 1.214774 -0.009944 -0.244861 0.880853 -0.584775 1.844676 -0.177831 -0.267817 -0.860592
GlobalSpecies0059 0.126685 0.557388 -0.037171 -0.266770 -0.975161 0.741688 -0.286716 0.364143 -0.241900 0.341778 -0.276412 0.016465 0.111083 0.590052 0.290864 0.322971 -0.422484 -0.677147 0.608670 0.305792 -0.002415 -0.402428 -0.364314 0.005288 -0.694069 0.216961 -0.235541 -0.467464 -0.059746 -0.291720 -0.445550 -0.640807 -0.358509 -0.652361 0.632089 -0.119604 0.185747 0.644374 0.521248 -0.148306 -0.064726 -0.509843 0.378235 0.307586 0.136265 -0.153104 -0.181807 -0.455318 0.134775 -0.030820 0.032248 0.698527 -0.707183 0.600134 -0.321310 0.097413 -0.354289 0.905038 -0.358957 -0.215799 0.923627 -0.003636 -0.451971 -0.270084 0.666221 0.475724 1.195539 -0.211317 -0.783621 0.168189 -0.139199 -0.117073 0.017865 0.360514 -0.886061 0.434842 0.385203 -0.091870 -0.246447 0.044855 -0.077139 0.049256 0.475375 -0.331680 -0.431343 -0.021216 0.378231 0.102997 -0.015218 0.618167 -0.021887 0.236215 0.056407 0.010607 0.435744 -0.488681 -0.352805 0.113320 0.354635 0.561669
GlobalSpecies0060 -0.502322 1.587449 0.096838 -0.152279 0.509057 1.054065 -0.024860 -0.482594 -0.556800 1.123710 -0.248584 -0.839695 0.515615 -0.137353 0.369015 0.282807 -0.619443 -0.224967 1.149195 0.461689 0.602557 0.207269 0.324853 -0.633425 -1.231590 -0.228870 0.052248 1.493840 0.410978 -0.020948 -0.310478 -0.430555 0.720859 -0.583363 -0.462961 -0.658834 -0.330684 1.158805 0.572770 -0.922104 0.406399 -0.268156 -0.310761 -0.336734 -0.239885 -0.148574 -0.762500 -0.914141 0.652805 0.491110 0.252966 0.876375 -0.422127 0.146685 -0.056441 0.332097 -0.360644 0.152600 1.013071 0.336389 -0.976658 0.603945 0.763385 0.477252 -0.448104 -0.342293 0.077674 0.638652 -0.031770 -0.151866 1.902400 0.327695 -0.048941 0.264488 -0.872822 -0.562004 0.517379 -0.130195 -0.351780 1.364145 -0.253692 -0.705734 -0.053631 -0.481176 0.639080 -0.366460 -0.373682 -0.439402 0.967020 -0.362078 -0.006329 -0.875601 -0.098175 0.392050 -0.319275 0.444509 0.794773 -0.027518 -0.030368 -0.003840
GlobalSpecies0061 0.581803 0.544433 -0.125924 0.211459 0.313536 0.032620 -0.691763 0.468108 -0.280204 -0.198625 0.014002 -0.213177 -0.023908 -0.118902 0.495104 0.521826 -1.674152 0.933986 -0.188110 -1.207839 0.419816 -0.140890 0.417416 0.514635 -0.225547 1.054529 0.243782 0.541724 0.613156 -0.879951 -0.055369 0.026029 -0.330834 0.478290 0.504280 1.561272 0.732894 -0.351261 0.234888 -0.026669 -0.047279 0.386523 0.840288 -0.780751 -0.346381 -1.116639 0.481843 0.243071 0.003570 -1.436410 0.430233 -0.982025 0.032743 0.395670 0.726113 0.631559 -0.258136 0.201225 0.491596 -0.353757 0.238500 -0.267894 -1.544260 -0.579808 0.441542 0.652863 -0.057676 1.287338 -0.061509 -0.285056 0.071888 -0.238723 -1.111852 0.287578 -0.478991 -0.051663 -1.098214 -0.529762 0.183164 0.748171 0.032686 0.571686 0.544888 -0.844271 -0.328006 0.276922 -0.574303 0.089985 -0.131940 -1.028707 -0.911997 0.500082 -0.042925 0.652678 -0.913782 0.235740 1.702858 0.558448 -0.665427 0.106523
GlobalSpecies0062 0.199653 -0.366856 -0.298227 -0.029157 -0.018560 0.267539 0.498135 -0.186896 0.600596 0.552459 0.184093 0.021015 -0.519831 0.255411 0.101780 -0.146896 0.217001 -0.189811 0.295064 0.109847 -0.017212 0.470209 0.459811 0.764629 -0.548786 -0.237248 0.312142 -0.015607 0.311342 0.201441 0.217316 0.116366 0.230620 0.015788 -0.170891 0.239579 -0.133250 0.202127 0.237209 -0.120341 0.151805 0.064072 -0.079664 -0.064233 -0.178350 -0.148725 -0.422370 -0.464302 0.261412 -0.201045 -0.274830 0.500611 0.597170 -0.106732 0.059440 0.005954 0.139082 0.366991 -0.261997 0.195710 0.058678 -0.089690 0.691383 -0.076932 0.208699 -0.440250 -0.205699 0.171191 0.029342 -0.112683 -0.206098 -0.471594 0.138356 0.064305 -0.251023 -0.172920 -0.231773 -0.649186 -0.135103 -0.037939 -0.142083 0.521766 0.077956 0.716134 -0.137658 -0.032446 -0.446320 0.584703 0.865923 0.065980 0.356448 0.388387 -0.565431 0.065324 0.123372 -0.185982 -0.169502 0.048797 -0.166130 -0.289020
GlobalSpecies0063 -0.686575 -0.326348 -0.527772 0.866597 0.044607 1.373614 -0.842614 0.238640 -0.217169 -0.458272 0.947264 -0.532177 0.248603 0.416479 0.516577 -0.620856 -0.211576 0.974491 0.189697 0.351304 -0.102854 -0.274116 0.194885 -0.228942 0.214299 -0.103307 0.033326 0.313056 0.004530 -0.182109 0.694119 0.002625 0.092570 0.073282 0.690729 -0.503054 -0.314589 0.752158 -0.320901 0.548980 -0.555857 -0.014491 0.341418 -0.688927 0.796636 -0.093068 -0.831777 -0.435025 -0.192356 -0.042013 -0.185887 0.280253 0.413224 0.216521 -0.388068 -0.375081 -0.245812 -0.060241 -0.560526 0.352455 0.124535 0.157477 0.334871 0.489524 0.131864 -0.078263 -0.309500 0.412370 0.067828 0.441005 0.533140 0.898450 0.481195 -0.093668 0.118146 0.310024 -0.261147 0.562733 0.877282 0.492136 0.381009 -0.194180 -0.325589 0.435546 0.258055 -0.062661 0.571994 -0.077426 -0.103786 -0.127859 -0.153400 -0.441653 0.117358 -0.758295 0.193494 0.456773 -0.064283 -0.074522 -0.315246 -0.022714
GlobalSpecies0064 0.152503 -0.291428 0.441843 0.215465 -0.292411 -0.463199 0.405066 0.097885 0.482091 0.483923 -0.116624 0.185623 -0.589867 -0.886168 0.130137 -0.041235 -0.256593 0.219240 -0.169128 -0.375139 0.201982 -0.065218 0.154533 0.510688 0.307312 0.244405 0.182043 -0.466609 -0.801773 0.001553 0.462838 -0.002816 0.474862 -0.147865 0.232836 -0.145588 0.243077 0.518829 -0.145190 0.284053 -0.385053 0.014013 0.407111 -0.182636 0.237824 0.063073 0.174524 -0.199701 0.034829 -0.217635 -0.060567 -0.751803 -0.182253 -0.494826 -0.661108 -0.191787 -0.348515 0.152417 0.401494 0.193316 0.353228 -0.022870 -0.570818 0.719225 0.075838 0.501865 -0.172496 0.432919 -0.420125 0.379206 0.195601 -0.276926 0.592392 0.099509 -0.209338 0.150006 -0.172362 -0.630422 -0.218298 -0.248191 -0.371420 -0.385178 -0.068915 0.419814 0.661605 0.210503 0.029892 -0.314756 -0.366458 0.122601 -0.611615 0.035070 -0.431351 0.249312 -0.280607 0.599721 -0.083519 -0.042295 -0.242216 0.038963
GlobalSpecies0065 -0.364253 -0.436691 -0.140679 0.060311 0.637104 0.698339 0.166376 0.432735 0.277075 -0.342809 -0.174743 -0.660023 0.471729 -0.274963 0.047093 0.198775 0.380469 0.283394 0.315652 -0.131410 0.567512 0.121120 -0.177078 0.115795 -0.272501 -0.608870 -0.095420 0.026954 -0.121611 -0.225309 0.776438 -0.330870 -0.196856 0.086233 0.151754 -0.045276 0.172362 -0.230275 0.296773 0.089718 0.476765 -0.009208 -0.035951 0.088046 -0.445405 0.068580 -0.118157 0.506009 -0.643139 0.636748 -0.181503 -0.287558 -0.482177 -0.190539 0.378362 -0.027747 -0.084799 -0.085566 0.228437 0.387642 0.281091 0.711700 0.053611 0.309189 0.107675 0.068590 -0.274474 -0.218184 0.089438 -0.389887 -0.047113 -0.202258 0.398811 0.119220 0.094362 0.306584 0.147398 0.737324 0.380589 0.220617 -0.069940 0.414986 -0.025348 0.854097 0.319463 0.267350 -0.882772 0.009985 0.246464 -0.844311 -0.317537 -0.568518 -0.048853 0.061748 0.222798 -0.237997 -0.059945 -0.266219 0.260917 0.149126
GlobalSpecies0066 0.243856 0.194324 0.050946 -0.576327 -0.086203 0.711941 -0.361450 -0.593227 0.044691 0.140967 0.067973 0.062667 0.087267 0.126682 -0.038169 -0.026635 0.232647 0.014096 0.192248 0.329603 0.308602 -0.175361 -0.023951 -0.762581 0.037461 0.340100 -0.348752 -0.157700 -0.464084 0.183709 0.407406 -0.118152 0.227229 -0.372516 0.371981 -0.214944 0.163054 -0.075884 -0.273813 0.485405 -0.098676 0.089983 0.226577 0.544170 0.176426 -0.411692 -0.058197 -0.260915 -0.132811 0.007923 -0.026576 -0.095215 0.113156 -0.107192 -0.140011 -0.114686 0.121571 -0.363894 0.049963 0.042667 -0.041583 -0.010455 -0.155621 -0.558840 0.175054 0.655460 0.249035 0.022550 0.016720 -0.206883 -0.637149 0.191611 0.191122 0.029149 -0.131007 -0.359490 0.043528 0.048262 0.291916 -0.193359 -0.125363 -0.133837 -0.554337 -0.227451 0.046060 0.144219 -0.367899 0.540879 0.012714 0.108153 -0.226781 0.103325 -0.209792 0.236304 0.269767 0.094570 -0.443807 0.001198 -0.132117 0.155578
GlobalSpecies0067 0.679063 0.931849 -0.602658 0.192960 0.545884 1.471729 1.496236 -0.043868 0.335887 -0.462709 0.170559 0.064005 -0.069743 -0.087229 -0.892556 -0.956777 -0.058905 -0.474691 0.315327 1.667328 0.372603 1.237574 0.577840 -0.211106 0.062049 -0.935820 0.287859 -0.316307 -0.068122 -0.139141 -0.503475 -1.834507 -1.285570 -0.328850 0.889814 -0.523395 -0.141188 -0.733724 -0.324333 -0.101707 -0.452585 1.471077 0.482259 -0.053227 -0.388884 0.993994 -0.518389 -0.512389 -0.014190 1.168525 -0.847107 0.189827 -0.553291 -0.164781 -0.050555 0.596225 0.013267 0.336767 -0.686757 0.506734 0.433069 0.530020 -0.640693 0.434660 0.118669 -0.413014 -0.176019 1.106577 -0.544919 0.192950 -0.006448 0.689634 0.206345 -0.099759 0.282008 -0.485473 0.331356 -0.090704 -0.252915 0.716256 -0.429258 0.404509 0.609612 -0.363823 0.451660 -0.863736 -0.009484 0.287691 0.424152 0.471573 -1.687604 -0.031090 -0.001696 -0.235277 0.879021 0.173356 0.597933 0.736337 0.099972 -0.435629
GlobalSpecies0068 -0.342087 -0.276368 -0.061130 -0.124734 0.022343 0.057682 0.151149 0.090166 -0.055630 -0.127942 0.267421 0.141499 -0.162879 0.076880 -0.343883 0.529492 0.281813 -0.207216 0.097735 -0.071156 0.100459 -0.158654 0.127325 0.096833 0.254193 -0.080981 -0.343379 -0.104344 -0.159431 0.114503 0.131511 0.231863 -0.054226 0.163175 0.025190 0.122293 0.012018 0.010961 -0.324748 0.148972 -0.194037 0.083351 0.056167 0.351479 0.147018 -0.167511 0.037293 -0.308096 0.021194 -0.084836 -0.332711 0.104115 0.055866 0.027138 0.038595 0.027453 -0.249699 0.066690 -0.196575 -0.219829 -0.387304 0.100511 0.091324 0.135420 0.031704 0.057391 -0.013059 -0.474407 -0.100926 0.159663 -0.381105 -0.044685 -0.371227 -0.105342 -0.041901 0.150254 -0.350500 0.165456 -0.197446 -0.039323 0.113791 -0.032569 -0.083811 -0.030967 -0.178775 -0.212989 -0.059545 0.138942 0.166980 0.290863 -0.134956 0.119309 0.090641 0.271249 0.152019 -0.356011 -0.042457 -0.194002 -0.172251 0.201872
GlobalSpecies0069 -0.060160 0.117974 0.328403 0.033255 -0.295868 0.111381 -0.128484 -0.721094 1.306140 0.198899 -0.711177 0.001085 -0.138127 -0.237992 0.701294 -0.229436 -0.499444 0.863292 -0.987120 0.616397 0.368881 0.124147 0.014858 0.104120 -0.507522 0.177415 -0.448721 -0.516150 0.915010 0.756356 -0.399265 -0.227390 0.310283 -0.072004 0.254186 -0.329467 0.218360 0.319313 0.445274 -0.919778 0.053970 0.677596 -0.532355 0.835904 -0.935924 -0.461214 -0.069975 0.349581 0.297471 0.535403 0.319331 -0.719811 -0.244216 -0.484276 -0.533557 -1.311897 0.690870 -0.071580 -0.175554 0.181276 0.224640 -0.431559 -0.383107 0.012392 1.010896 -0.002488 -0.676172 -0.399371 -0.781595 0.526448 0.552558 0.597434 -0.135314 0.561349 0.533351 0.021641 -0.455613 0.672454 0.457354 -0.227442 0.144337 -0.050659 0.622713 -0.242380 0.480627 0.360803 -0.328161 0.353797 -0.669864 0.124495 -0.192286 -0.042892 0.001304 0.180300 0.445552 -0.402490 0.954157 0.996735 0.871855 -0.399307
GlobalSpecies0070 0.148928 -0.332597 0.396220 0.273274 0.454681 -0.361311 0.654917 0.093503 -0.321685 -0.212736 -0.224364 -0.215742 -0.245465 -0.247457 0.095980 -0.163045 -0.133168 0.219262 0.307327 -0.392347 -0.012615 0.192032 0.220647 -0.150695 0.371794 0.125850 0.370377 -0.290908 0.418575 0.095489 0.202901 0.174424 0.027882 0.045731 -0.575763 -0.037322 -0.063150 -0.462495 -0.133018 -0.151576 0.019002 0.030661 0.142614 -0.331692 -0.342752 -0.002653 -0.302267 -0.313030 -0.464255 -0.113732 -0.564812 -0.317127 0.249702 0.262299 0.615660 -0.173222 0.159230 0.294603 0.249577 -0.690052 0.341911 0.686804 -0.079922 -0.325471 -0.339567 0.426967 -0.289803 -0.198020 0.214902 -0.235562 -0.074982 -0.143202 -0.023445 0.020674 0.326945 0.739341 0.073959 -0.177777 -0.165413 0.283888 0.226753 0.176532 -0.081386 0.234215 -0.408399 -0.116300 -0.067361 0.469114 -0.406676 0.131696 -0.100975 0.562494 0.306505 -0.319989 -0.119162 0.125774 -0.287535 -0.132901 -0.353089 0.330642
GlobalSpecies0071 0.104806 0.110055 -0.017271 0.378872 -0.400714 -0.021364 -1.061371 -0.498949 0.203885 0.001067 0.104862 -0.379544 -0.811554 -0.473479 0.216789 -0.511842 0.318644 -0.958614 -0.943442 0.900826 -0.588029 0.958324 0.053993 -0.468752 -0.496253 -0.346485 0.560408 0.386977 -0.259506 -0.799160 0.875268 -0.776581 0.039932 0.870946 -0.506948 0.013189 -0.787224 -0.210254 -0.203621 -0.503579 -0.484510 -0.228032 1.143159 0.400078 0.724749 0.000903 0.954206 0.186048 1.329780 -0.260140 -0.541659 -0.034000 -0.490454 -0.398878 -1.020870 -0.296285 -0.114767 -0.663576 -0.226148 0.180290 0.636407 -0.900472 0.334755 0.032429 -0.209975 0.564203 -0.575042 -1.755424 -0.339832 0.109788 0.804986 -0.461655 -0.462732 -0.050084 -1.413120 -1.178787 0.377189 -0.814702 -0.578441 -0.192388 -0.340919 -0.748849 0.795192 -0.434301 0.726534 0.428891 -0.012854 -0.787159 -1.295124 -0.034411 -0.108494 1.705011 -0.406750 0.299138 -0.144050 0.091895 0.439240 -0.050512 -0.011386 -0.058928
GlobalSpecies0072 0.708460 0.229895 -0.451042 -0.092800 0.393765 0.306652 -0.492314 0.059640 0.108422 0.074646 -0.589137 -0.432508 -0.173405 -0.002243 -0.329945 0.485662 0.389466 0.060375 0.090985 -0.382054 -0.495463 0.504155 -0.187498 0.427549 -0.068910 0.060018 -0.414094 -0.281075 0.587979 0.058487 -0.139580 -0.227698 -0.000442 0.744769 0.162754 -0.307975 -0.105172 -0.185862 -0.395097 0.154986 -0.373029 0.108548 -0.471706 -0.296523 -0.126127 0.223179 0.261617 0.009024 -0.010393 0.466927 -0.038629 -0.711916 0.177017 0.256969 0.426277 -0.256910 -0.205892 -0.255988 -0.377753 -0.282005 -0.332023 -0.107172 -0.146735 -0.138628 0.240982 0.751926 -0.221249 0.417271 0.381279 -0.418670 0.504291 -0.156974 -0.078803 -0.078762 0.300021 0.601273 -0.118229 0.010530 0.600783 -0.201904 0.129485 0.422309 -0.085281 0.395256 0.450037 0.004797 -0.392267 -0.095913 -0.768534 -0.002272 0.223356 -0.700016 0.649151 -0.112719 0.015436 -0.404990 -0.075166 0.035121 -0.081343 -0.719710
GlobalSpecies0073 0.613700 0.193437 0.037142 0.585631 -0.196307 -0.003004 -0.398253 0.034756 -0.660989 0.671773 -0.141551 0.200925 0.535956 -0.505696 -0.222847 0.198636 0.278275 0.552057 -0.191862 -0.421399 0.166415 -0.154499 0.262261 0.026256 -0.556689 -0.639429 0.067554 -0.075962 0.231325 -0.380161 -0.113326 0.136648 0.107816 -0.461643 0.366823 0.396416 0.579953 -0.043177 0.487020 -0.041219 -0.503689 0.359213 -0.298305 0.354162 -0.265511 -0.289611 0.467334 -0.327183 0.689316 -0.463198 0.032627 -0.402819 0.239841 0.304905 -0.777241 0.289602 -0.274547 -0.227542 -0.281847 -0.024576 0.097775 0.087534 0.101089 0.514701 -0.157600 -0.186314 -0.567654 -0.367670 0.571065 0.486660 -0.004340 -0.324138 0.298716 -0.098930 0.012762 -0.111149 0.179183 0.116817 -0.156331 -0.846201 0.043119 0.115555 -0.174638 0.848682 0.053365 0.193334 0.499033 -0.093492 0.047556 0.010806 -0.314072 -0.188826 0.102694 0.330092 -0.110421 -0.648281 0.297805 -0.124132 0.481498 -0.328762
GlobalSpecies0074 0.372373 -0.208412 -0.077063 -0.535649 -0.033846 0.010841 -0.228957 -0.335711 0.107362 -0.415019 -0.181834 0.267267 0.476459 -0.000712 -0.006551 -0.044085 0.033919 -0.419198 0.731259 0.059238 0.134462 0.178240 -0.325390 0.008791 -0.048374 0.329773 0.021890 0.201432 0.097115 -0.070598 0.196869 -0.114751 -0.713691 0.237891 0.125663 -0.505202 -0.023621 -0.165702 0.073030 0.334456 0.312261 0.108125 -0.153206 -0.316563 -0.065289 -0.079954 -0.023717 -0.708021 0.248176 0.146953 -0.015288 -0.322997 0.216153 0.342465 0.956711 -0.246547 -0.606965 0.256272 -0.039402 0.669665 0.148034 0.047475 -0.016950 0.187281 0.007598 0.409973 0.263957 -0.515327 -0.155170 0.355384 -0.112138 -0.185090 0.902199 0.011848 -0.306885 -0.841368 0.064465 -0.589586 0.147553 0.464193 0.518724 0.172401 0.440751 0.133925 -0.411985 0.581263 0.568633 0.469924 -0.250816 0.591525 -0.105951 0.291407 0.046807 -0.037150 -0.291549 -0.043095 -0.421985 -0.301516 -0.448523 0.015699
GlobalSpecies0075 0.235695 -0.123947 0.168777 -0.361967 -0.632292 0.305939 0.210902 -0.152124 0.450222 0.532673 0.607434 0.901492 -0.122099 0.699013 -0.023843 0.398498 0.649045 0.235720 0.181565 0.130317 0.130639 0.008992 -0.240871 0.120664 0.357809 -0.137904 -0.702860 -0.255280 -0.305303 0.114369 0.704577 -0.399870 -0.153715 -0.736531 0.809285 0.482775 -0.455042 -0.831439 -0.967703 -0.168812 0.395101 -0.058511 0.525776 0.095781 -0.570040 -0.514435 -0.267815 0.440787 -0.376188 -0.656186 0.407094 0.581420 -0.127244 -0.375012 -0.033199 -0.018820 0.519745 0.386867 0.283821 0.326842 -0.444649 0.364284 0.085761 1.078892 -0.547446 -0.140925 -0.063983 -0.013413 -0.393327 -0.325247 0.154154 -0.298873 0.495298 0.242532 -0.123413 -0.347365 -0.027518 -0.187424 -0.060935 0.012831 -0.056778 -0.276193 -0.592991 0.222934 0.286249 -0.263281 -0.720465 -0.269983 -0.249758 -0.501956 0.073949 0.207098 0.005506 -0.551333 -0.088710 -0.008549 0.281341 0.276594 0.042591 0.939941
GlobalSpecies0076 -0.309720 0.011127 -0.148938 -0.123847 0.238760 0.043154 0.027829 -0.147377 0.141105 0.078348 0.142826 0.013382 0.132935 0.068144 -0.267786 0.282108 0.003622 0.054546 0.170081 -0.186989 -0.310194 0.005104 -0.055627 -0.105416 0.120820 -0.253849 -0.203869 -0.261019 -0.109709 0.143822 -0.067298 0.189579 -0.169332 0.317064 -0.342694 -0.053262 0.401183 0.340948 -0.224633 -0.097801 -0.071278 0.029278 0.092990 0.118687 0.406129 -0.117081 0.138848 -0.198764 0.172559 -0.004821 -0.584520 0.073060 -0.080812 -0.172935 0.089347 -0.062852 -0.062941 -0.060383 -0.160335 -0.283173 0.358836 -0.198971 0.147919 -0.078556 0.126411 0.178767 0.233223 -0.109272 0.213354 -0.001273 -0.266322 -0.197914 -0.005592 -0.303120 -0.169469 -0.059593 0.030834 -0.079911 -0.073002 -0.112445 0.145547 0.119426 -0.214342 0.580439 0.069850 0.017177 0.048795 0.359189 0.244995 0.538531 -0.052064 0.091408 -0.092960 0.418039 0.243697 -0.008034 0.225294 -0.103442 0.517700 -0.121678
GlobalSpecies0077 0.076282 -0.353186 -0.017082 0.062742 0.185030 -0.153620 0.151003 0.224580 0.254969 -0.242919 0.107558 0.304144 0.578404 0.407775 -0.138977 -0.146389 -0.057454 0.502943 0.034049 0.015490 0.110464 -0.022347 -0.290784 0.405968 0.187066 -0.004596 0.055526 -0.189046 -0.624986 0.104005 0.526141 -0.211501 0.271889 0.372614 -0.185313 0.368683 0.023938 0.508420 0.002205 0.275172 0.146625 -0.041064 0.100093 0.240581 -0.357705 -0.475363 -0.126601 0.084053 -0.101339 -0.777181 0.154255 -0.159270 -0.006419 0.339637 -0.238335 -0.127102 0.185071 0.041171 -0.081299 0.051396 0.015187 -0.243675 -0.098058 0.111092 0.181835 0.152862 0.003736 -0.672226 -0.057365 -0.070319 -0.404401 -0.034928 0.038388 -0.068140 0.560034 0.037425 -0.398765 -0.032978 -0.005084 0.126831 0.086981 0.095575 -0.083159 -0.129270 0.430209 -0.298123 0.058179 0.605740 -0.216707 0.136195 -0.214097 0.369918 -0.284476 -0.076135 -0.023213 0.256727 -0.329600 0.209696 0.099504 0.487737
GlobalSpecies0078 -0.019859 -0.104924 -0.110312 0.107192 0.272024 -0.576792 -0.166930 -0.506119 0.172998 0.078724 -0.059228 1.014934 -0.104278 0.233441 -0.249645 -0.242336 0.110645 0.137380 -0.117079 -0.597584 -0.116270 0.007543 -0.247943 0.703044 -0.028442 0.282913 0.026245 0.218212 0.199653 0.192397 -0.586276 0.077420 -0.261276 0.630086 -0.745645 -0.227136 -0.074664 -0.424730 -0.386958 -0.316096 -0.073396 -0.237504 -0.550185 -0.138457 0.321425 0.558487 -0.248511 0.690783 -0.196404 -0.225356 0.219897 0.117233 0.533683 0.194406 -0.320037 -0.381077 0.452807 0.121038 0.581816 -0.270278 0.490371 -0.208441 0.319589 -0.243167 -0.042193 0.353857 0.114715 0.237679 -0.589718 -0.017575 -0.205699 0.136648 0.833496 -0.148569 0.195639 -0.268411 -0.030337 0.704177 0.150625 0.339187 0.158912 -0.161300 0.377814 0.025230 0.141847 -0.029275 -0.083725 -0.738576 0.022119 0.082649 0.666204 -0.041752 -0.264892 0.220707 -0.023252 -0.125813 -0.517862 -0.006247 0.187354 -0.847850
GlobalSpecies0079 -0.250154 0.568797 0.096804 -0.221498 0.260631 0.027512 -0.096186 -0.490675 0.005873 -0.089178 -0.741125 0.726381 -0.142215 0.193060 0.249454 0.037711 0.427792 -0.624539 0.561127 -0.447129 -0.409327 0.435229 0.027715 -0.418585 -0.633742 0.267110 -0.105430 -0.250825 0.444600 -0.384113 0.198097 -0.742056 0.247992 0.217632 -0.671961 0.258488 0.214061 -0.028828 0.519140 0.390267 0.244014 -0.275064 -0.105700 -0.817240 0.797068 -0.330575 -0.524318 0.279670 0.207104 -0.029746 -0.151227 0.294081 0.733953 0.778060 -0.196853 -0.074653 0.650887 0.108983 0.581144 0.452880 -1.073646 0.421061 0.804616 0.568950 -0.196366 -0.481209 -0.452902 0.621945 -0.272736 0.596349 0.489716 0.190281 -0.875700 0.236309 -0.417553 0.643454 0.052099 -0.122012 -0.138090 -0.272478 -0.270886 -0.496519 -0.085824 0.158108 0.042230 -0.330929 -0.291066 -0.166593 -0.188752 -0.070831 -0.004835 0.920655 0.145166 0.514207 0.100620 -0.046051 -0.609034 0.071520 -0.485925 0.283434
GlobalSpecies0080 0.029553 -0.404917 0.309995 0.193694 0.009554 0.401237 0.044101 0.179420 0.191129 0.157716 -0.053833 0.465424 -0.520997 -0.307476 0.254848 -0.370093 0.405753 -0.101908 0.119834 0.168551 -0.010599 0.343159 0.161504 -0.321549 1.067813 -0.631045 0.165883 0.577676 0.552042 0.096920 0.410275 0.426553 0.717498 -0.392425 0.001019 0.231440 0.417945 0.252799 1.094864 0.276607 -0.265576 0.397147 0.014335 -0.162264 0.663432 0.960408 -0.093967 -0.069534 0.226148 -1.047926 0.418646 0.839718 -0.104483 0.769621 -0.888610 0.164434 -1.245715 -0.135708 -0.035162 0.219555 -0.465762 -0.751032 -0.625987 0.024573 -0.751259 -1.031892 0.121605 -0.844146 -0.186363 0.502483 0.413360 0.550928 0.220567 0.182569 -0.131865 -0.215505 0.040185 -0.147644 0.057934 0.015337 0.244610 -0.874946 0.489297 -0.262660 -0.424487 0.535481 0.304413 0.084588 0.290493 -0.622842 -0.878048 -0.300062 -0.525575 -0.499972 0.425667 -0.157939 0.502772 0.210960 0.067815 0.321123
GlobalSpecies0081 -0.104741 0.953551 -0.220585 -0.135010 -0.751343 -0.020635 -0.391639 0.885102 -0.214431 -0.844349 -1.044504 0.015610 -0.205715 -0.251653 -1.011087 -0.051038 0.108334 0.459314 0.283879 -1.032010 -0.211573 0.101975 0.250214 0.571595 -0.247982 0.074675 0.343186 0.676527 0.921606 0.597743 -0.357235 -0.401502 0.271760 -0.191121 0.330907 -0.417911 0.215788 0.403360 -0.674691 -0.386330 -1.179598 -0.570965 -0.823610 -0.506474 -0.471915 -0.882075 0.065791 0.226536 0.829577 0.104580 -0.382954 0.410678 0.273383 -0.235587 -1.159697 -0.200803 -1.066032 -1.098549 -0.085042 -0.493019 -0.233410 0.415227 0.424873 -0.496789 -0.834934 -0.274476 0.697879 0.529973 0.117427 0.273587 -0.104718 -0.307890 -0.767862 -0.064850 0.378599 0.109617 -0.444964 0.216540 0.328304 -1.104068 -0.729030 0.027247 0.273305 0.463920 -0.541001 -0.014743 0.728460 -0.222166 -0.016432 -0.948340 0.311665 0.191152 0.444422 -0.971392 0.319248 0.438743 0.568023 0.223999 0.377466 1.014304
GlobalSpecies0082 0.811894 0.481849 0.339523 -0.443653 -0.458061 0.194752 0.355219 0.676231 0.125735 0.485604 0.105365 0.355627 -0.271835 -0.260656 -0.310540 0.057707 0.492634 -0.049528 0.236829 0.873308 -0.046370 1.084606 -0.055253 -0.163669 0.192820 0.214432 -0.565345 0.406165 0.128452 -0.333953 -0.208618 -0.341646 -0.063093 -0.363916 0.225223 0.165383 0.289894 -0.643528 -0.593455 -0.229050 -0.272177 -0.042247 0.553108 0.143407 -0.290403 0.228152 -0.751334 -0.139382 0.564794 0.519349 -0.399750 -0.346172 -0.350407 0.168147 -0.317463 -0.365509 0.042988 -0.100673 -0.485000 -0.434950 -0.532613 -0.306294 0.026558 0.835549 0.200698 0.237359 -0.055112 -0.382236 -0.391174 0.193613 -0.423063 -0.175113 -0.077479 -0.048555 0.782760 -0.609080 -0.308215 -0.785804 -0.142753 -0.595618 0.257692 -0.421732 -0.206469 0.351057 0.152894 0.628608 0.340308 -0.538056 0.229280 0.078868 -0.024196 0.338575 -0.402771 -0.031262 -0.154821 -0.652836 -0.038449 -0.632280 -0.225639 0.332417
GlobalSpecies0083 -0.279237 0.507877 0.325081 0.361318 -0.027341 0.054166 -0.279953 -0.803116 0.186280 -0.388220 -0.274883 0.007269 0.627730 0.233079 -0.330393 0.060951 0.808123 -0.833391 0.123886 -0.425707 0.683862 0.572935 0.236632 0.538588 0.413697 0.355121 -0.022060 0.649237 0.547893 -0.221640 0.269199 0.388122 0.590986 0.129595 0.537786 0.079354 -0.023430 -1.309501 -0.440901 0.041284 0.116895 -0.846160 0.201154 0.781974 -0.363683 -0.857082 -0.443235 -0.139679 0.082606 -0.158601 -0.124763 0.307361 0.020966 0.346248 -0.575748 -0.042908 0.305337 0.930000 0.513345 -0.481060 -0.320353 -0.062377 -0.287331 0.577708 0.309130 0.050725 0.478064 -0.070675 -0.073095 -0.182370 0.568601 0.479794 0.206888 0.085202 -0.510123 0.202482 -0.598792 -0.009788 -0.607900 -0.533906 0.347575 -0.426924 -0.560894 0.198912 -0.025208 0.572901 -0.103993 0.284693 0.182072 -0.194487 0.040345 1.088037 -0.016062 -0.149406 0.418321 -0.081438 -0.062127 -0.014058 -0.309565 -0.241450
GlobalSpecies0084 0.284626 0.063287 -0.130592 0.085377 0.357821 -0.282971 -0.212736 -0.548128 -0.718882 -0.062370 -0.113757 -0.143753 -0.326606 -0.686058 0.681489 -0.012124 -0.422491 0.416674 -0.220062 -0.055672 -0.038648 0.308156 -0.196742 0.325805 0.061249 0.161633 -0.422099 -0.389337 -0.289012 -0.291307 0.029734 0.465111 -0.352256 -0.340387 -0.055492 0.221196 0.080674 -0.232792 -0.296574 0.039151 -0.036278 0.023586 -0.042458 -0.253692 -0.132575 0.150782 0.073330 -0.497800 0.197522 -0.105769 0.490246 0.224510 0.393007 0.694559 -0.022777 0.100685 -0.484283 -0.191696 0.027627 -0.263612 0.323810 -0.380149 -0.036717 0.038143 -0.183737 -0.100871 0.625396 0.372922 -0.404954 -0.579303 -0.371658 -0.099250 0.306714 -0.100411 -0.203834 0.073913 -0.498524 0.269424 -0.044476 -0.408224 -0.182956 -0.223070 -0.618205 -0.548608 0.070860 -0.454991 0.323339 0.258668 0.587686 0.391831 -0.125396 0.496878 0.002030 -0.585503 -0.294756 -0.175958 0.070228 0.103621 -0.310084 -0.036747
GlobalSpecies0085 -1.203775 -0.580378 -0.555228 0.016598 0.061924 -0.692547 0.162096 0.174676 0.492390 -0.872594 -0.024419 0.013846 -0.543656 0.525253 0.332016 -0.523839 -0.167660 0.408525 -0.733728 0.213180 -0.595996 -0.209681 0.408809 0.847878 -0.076166 -0.593283 -0.536637 0.094365 -0.301078 -0.017104 -0.645718 -0.036131 0.625967 -0.785785 -0.268099 -0.288726 0.511486 0.069202 0.694361 0.733706 -0.487759 -0.062843 -0.534917 0.529168 -0.045734 0.230699 -0.070390 -0.773443 -0.371205 0.083663 0.269314 0.177856 0.183196 -0.391494 0.979822 -0.179076 0.401039 -0.266670 0.738138 0.482710 -0.993964 -0.903868 -0.094540 0.497818 0.584606 0.053200 0.239528 0.039164 -0.286798 0.236251 0.190004 -0.108855 0.303507 0.470619 0.152853 0.726828 -0.133398 0.077105 -0.382245 -0.564323 0.398067 -0.178074 0.146465 0.458332 1.078223 -0.337280 0.006876 -0.040873 -0.082948 -1.079284 0.891721 0.659955 0.195296 -0.210684 0.950875 -0.246687 0.220182 -0.488228 0.168032 0.660344
GlobalSpecies0086 -0.496451 -0.075485 -0.078611 0.042827 0.220676 0.210953 0.354416 0.438098 0.120166 0.228999 -0.590479 -0.170054 -0.078427 0.559370 -0.106660 -0.076862 -0.567947 0.523141 0.315188 0.022500 0.573647 0.186147 -0.111812 0.229648 -0.043213 0.058172 0.360891 0.019468 0.204108 -0.127584 -0.279741 -0.321690 0.298158 -0.219172 0.699470 0.788807 0.802920 0.018512 -0.409886 -0.147672 -0.274708 -0.112424 0.412410 0.714665 -0.340364 -0.341934 -0.101401 1.127598 -0.592185 0.558845 0.142958 0.797526 0.465496 0.015451 -0.032587 0.122853 -0.472057 0.083027 -0.247878 -0.382336 -0.252616 -0.020146 0.646852 0.455670 0.097310 -0.000311 0.018664 0.046929 0.202512 -0.281895 0.211012 -0.075815 -0.581808 -0.385435 -0.532032 -0.726785 -0.315392 0.241055 -0.008398 0.668577 -0.296618 -0.074338 -0.225300 0.346561 0.443261 0.029717 0.136197 -0.113012 0.335640 0.399236 0.143402 -0.166001 -0.162911 -0.246120 0.301804 0.220277 0.210122 -0.020991 0.108225 -0.699685
GlobalSpecies0087 0.469719 -0.362682 -0.050440 0.234795 0.036486 0.024625 0.301538 0.261905 0.053283 0.008811 0.200774 0.103537 0.038292 -0.091933 -0.111275 -0.132634 0.313440 -0.126251 0.164686 0.130359 -0.021847 0.233474 0.236628 0.264130 0.169225 -0.041392 -0.361515 -0.008374 0.208242 -0.099404 -0.231343 0.121575 -0.370298 0.129010 0.106031 -0.002288 -0.199801 -0.153844 -0.052421 0.087800 0.001452 -0.075243 0.019125 0.310611 -0.104851 -0.117924 -0.095332 0.271686 -0.058460 -0.174603 -0.184132 0.024295 0.032340 0.021747 -0.209714 0.275327 0.391475 0.168896 0.420084 -0.048389 0.112691 -0.135133 -0.104062 -0.109694 -0.211176 0.055355 -0.126032 0.036467 0.525646 -0.154333 -0.240032 0.018683 0.111979 0.058816 -0.086183 0.321473 0.330509 -0.167166 0.317715 -0.159130 -0.234891 0.055599 -0.383448 0.236346 -0.124008 0.407731 -0.052167 -0.118500 0.369227 -0.310900 -0.121530 0.427757 -0.027838 -0.260578 0.438415 -0.214256 -0.229177 0.109487 0.118592 -0.166990
GlobalSpecies0088 -0.607802 -0.394635 0.002460 -0.551998 -0.129904 -0.193255 0.245293 0.935180 -0.198573 -0.312084 -0.059171 -0.395660 -0.238946 -0.729903 0.445145 0.482053 -0.115889 0.995913 0.424917 0.553182 0.541960 -0.487650 -0.560337 0.260209 0.381136 0.027578 -0.102157 0.507130 0.028302 0.785544 0.662258 -0.172319 0.304405 0.295170 0.398672 -0.210550 -0.597545 0.512467 0.069285 -0.611840 -0.625436 -0.458686 0.817035 -0.957276 0.098775 -0.136761 0.907598 -0.389448 0.072851 -1.428817 -0.183339 0.408232 -0.110435 0.010934 -0.563928 -0.105703 0.740152 0.301103 0.377113 -0.082408 -0.345983 -0.355071 1.136896 -0.085127 -0.389972 0.135542 -0.437012 -0.388467 -0.299398 -0.097909 -0.208220 0.682002 -0.006347 -0.113375 -1.573348 0.046078 -1.272874 0.327523 -0.425756 -0.120771 -0.064352 0.273141 -0.567177 0.184526 0.619381 0.417998 -0.114622 -0.639111 -0.920686 -0.560766 -0.290870 -0.018922 -0.726041 0.412288 -0.038750 0.135023 -0.140223 0.757085 0.435575 0.229385
GlobalSpecies0089 -0.034760 1.498612 1.306405 0.710131 -0.311228 -0.404775 0.231947 -0.741831 -0.156398 0.684403 0.784775 0.301647 -0.160837 -0.821870 -0.395187 -0.000536 -0.013460 -0.725412 -1.441670 0.200300 0.661303 0.904389 -0.050743 -0.017742 -0.072422 -0.430291 0.472898 0.234919 0.906782 1.030456 -1.343100 -0.969596 1.788338 -1.613818 -1.363195 -1.378146 -0.473324 0.985351 -0.057703 -0.808340 0.260301 -0.844539 -0.152730 -0.531579 1.726454 -1.020180 -0.548759 -0.981714 0.281054 0.659647 0.760422 -0.925456 1.410604 -2.343057 0.405902 0.515309 -0.869237 0.904057 -0.252382 -0.296184 -0.110467 0.863629 -0.975411 -0.354146 -0.630140 0.238982 1.397545 -0.133807 -0.182709 1.205644 0.477451 -0.186436 0.544324 -0.017893 1.500361 -1.867220 1.535294 -0.646753 -0.655511 -0.264694 -1.329336 -1.227806 -2.004047 -0.446448 -0.072026 -0.534433 -0.753311 0.355055 1.584117 0.033947 -0.266402 0.564936 -0.569868 0.938174 0.008452 0.533452 0.340546 0.396430 0.026998 -0.279266
GlobalSpecies0090 0.291732 0.715137 0.107378 -0.125910 0.556082 0.751900 0.603713 -0.402287 0.132982 -0.218059 0.019510 0.216422 -0.495862 0.013247 -0.256901 -0.321672 -0.134377 0.149049 0.069436 1.106392 0.186873 -0.088185 0.113354 -0.058629 -1.815338 0.818135 0.013636 -0.043576 0.163122 -0.096224 -0.375751 -0.591444 0.280994 0.278340 -0.559596 -0.267051 -0.381682 0.656496 0.420970 -0.092054 0.329820 -0.925478 -0.389290 -0.348782 -0.301578 0.507670 -1.039576 0.044821 -0.430217 0.601723 1.388355 -0.440225 -0.855350 -0.016958 -0.321844 -0.355230 -0.602085 0.319087 -0.307538 -0.519862 0.674021 -0.379789 0.044747 -0.135418 0.695944 -0.244537 0.067321 0.619708 -0.241884 -0.345078 0.025787 0.648724 -0.408400 -0.251126 0.563263 0.624336 -0.251090 -0.392457 0.216001 0.390123 -0.024021 0.236006 0.227225 0.663057 1.179717 -0.620908 -0.672019 0.009798 0.299463 -0.423210 -1.137198 -1.193301 -0.309580 0.303480 0.240473 0.131032 -0.545364 -0.615683 0.798624 -0.241675
GlobalSpecies0091 0.350218 0.748715 -0.784942 -0.306597 0.234070 -1.244928 -0.093405 0.201714 -0.597490 0.242518 0.695317 -1.281212 -0.266381 1.033205 0.212240 0.201797 0.822397 -0.905506 0.326782 0.852299 -0.427934 -0.622277 0.258456 0.193352 -0.401457 -0.472327 0.055810 0.690154 -0.391559 -0.444765 0.238750 0.119776 0.092371 0.229673 -0.649692 0.185443 -0.004623 -0.230315 1.000454 0.087113 0.396741 0.193540 -1.072617 -0.991848 0.324844 -0.431809 -0.062113 -1.227227 0.800666 0.622850 0.957872 -0.170715 -0.068295 0.086277 0.139173 0.031242 -0.350595 -0.078460 0.207936 0.536467 -1.302638 0.582685 -0.457076 -0.881018 -0.534444 0.490960 -0.947008 -0.736622 0.366063 0.809575 0.890281 0.224821 0.427973 -0.404797 0.261800 -1.251628 1.320193 -0.667041 0.296006 0.652738 -0.436815 -0.189117 0.465206 -0.291414 0.049260 -0.787639 0.130092 0.144810 0.091100 -0.887362 -0.908420 0.082260 -0.555928 -0.170817 -0.105551 0.549109 -0.017459 -0.352623 -0.575794 0.130693
GlobalSpecies0092 0.554710 -0.270167 -0.329689 0.086672 0.182752 -0.608113 -0.022071 -0.486166 -0.129330 -0.021297 0.112060 0.390139 0.333309 -0.381358 -0.045566 0.035264 -0.236766 0.273671 -0.416259 -0.463197 0.086823 0.400243 0.463568 -0.129735 -0.017023 0.025468 -0.024535 -0.310290 -0.487502 0.163338 -0.167567 0.068976 0.147660 -0.253245 0.167020 0.081379 -0.006732 -0.389670 0.124687 0.278429 0.178035 -0.357410 0.386254 -0.685436 0.288839 0.036219 -0.449463 0.316855 -0.193056 0.308291 0.253420 -0.032527 -0.085488 0.323970 -0.230860 0.150277 0.269376 -0.122982 0.145528 -0.061678 0.475316 -0.394461 -0.395410 -0.342009 -0.440216 0.059254 -0.424879 -0.168022 0.311505 0.173673 -0.317314 -0.456545 -0.349933 0.103040 0.459748 -0.388027 0.250304 -0.556838 0.162016 0.172555 0.026256 -0.216859 0.210074 0.333022 -0.362910 -0.125813 -0.198241 -0.222928 0.083619 0.222248 -0.377094 0.131712 -0.234924 -0.946454 -0.458966 -0.220996 -0.190719 0.390518 0.317324 -0.029594
GlobalSpecies0093 -0.362782 -0.028616 0.462428 0.051223 0.066795 0.109482 -0.251235 -0.077946 0.408600 -0.134610 0.476590 0.213921 0.034355 -0.367790 -0.326452 -0.154757 0.399727 0.317573 -0.697968 0.070666 -0.346251 -0.310159 0.044647 0.251970 -0.198943 0.204624 0.143243 -0.207082 -0.313182 0.102208 0.013797 0.570088 -0.014874 0.413974 -0.649320 -0.124185 -0.047902 0.056164 -0.130189 0.311415 0.125087 0.203513 0.065605 -0.019057 0.257142 0.171290 0.012051 0.152484 -0.240227 -0.317776 -0.474051 0.244531 -0.290685 0.215306 0.087583 0.713485 0.352568 0.000062 0.059322 0.385030 -0.186747 0.004428 0.176755 -0.250692 -0.003674 -0.160591 0.010013 0.932038 -0.231903 0.096831 -0.034092 0.352967 0.073327 -0.335245 0.112659 -0.038154 -0.173734 -0.321108 0.313290 0.400289 0.239956 -0.083848 0.242934 -0.254393 -0.173265 0.464670 0.277367 0.094291 -0.055026 0.179350 -0.175963 -0.058675 0.219772 -0.157143 -0.010840 0.070468 -0.171964 -0.325516 0.073842 0.307532
GlobalSpecies0094 0.154540 0.098406 -0.117047 -0.188029 0.220313 0.253668 0.139181 -0.188574 0.039656 -0.182190 0.027627 0.596740 -0.077674 -0.252635 -0.075568 0.508964 -0.149361 -0.297839 0.243790 -0.091765 -0.071330 -0.247063 -0.210768 0.063537 0.053572 0.158211 0.143247 0.150897 0.147371 0.065569 -0.118672 0.181761 -0.103071 0.384133 0.076993 -0.151073 0.024195 0.183995 -0.213952 -0.326689 -0.202531 -0.120778 0.432493 0.318790 0.019863 -0.185610 0.068394 -0.039939 0.018120 0.354518 -0.702242 0.366877 0.867302 -0.043885 -0.316764 -0.105622 -0.324461 -0.106502 -0.692013 -0.078255 -0.235185 0.203562 -0.125602 0.046191 -0.172723 0.308146 -0.459100 -0.258613 0.184002 0.170256 -0.177818 0.013262 0.189531 0.490665 0.052774 -0.294260 -0.031009 -0.173700 0.297377 -0.088083 0.209472 -0.062545 0.246467 0.349950 -0.353494 -0.345027 -0.215408 0.304838 0.124344 0.298906 0.005608 0.087183 -0.005895 -0.029804 -0.027018 -0.091294 0.159328 -0.254173 0.301286 0.382793
GlobalSpecies0095 0.411217 0.569410 -0.706086 1.984923 -0.521844 -0.101662 -0.295062 1.140646 0.024342 0.323460 -0.462854 -0.249868 -0.117980 0.247558 0.612198 1.556844 -0.051475 -0.097713 0.085376 1.165800 0.032879 0.524783 -0.426535 -1.564691 -0.128767 1.088333 2.157288 2.059881 1.366801 0.581061 0.156453 -0.040796 0.269210 1.182044 1.827299 -0.907508 0.780095 0.109247 0.564612 -0.468373 -0.026039 -1.301811 -1.009618 0.093604 -0.739652 -0.074120 0.463606 -0.147559 0.192175 1.809079 0.527353 0.572684 -0.377773 -0.339191 0.133944 0.128183 -0.328843 0.201003 0.347458 -0.691862 -1.408096 -0.333277 0.367641 0.275852 0.035882 -0.601104 0.639607 1.367336 0.709591 0.218406 -1.020132 1.264026 -0.308383 0.477504 -0.275825 0.264585 0.454183 0.974812 0.524403 0.191616 -0.430865 -0.222565 0.419099 -0.564040 1.483042 0.358368 1.030584 -0.590928 -0.023295 -0.892308 1.599708 0.137316 -0.050985 1.048179 0.708020 -0.029322 -0.052277 0.285536 0.164256 1.693047
GlobalSpecies0096 0.588042 0.884305 -0.127757 0.051292 0.144404 0.215436 -0.168777 0.287576 0.409503 -0.143881 0.281768 -0.213326 -0.314807 -0.135645 -0.126488 0.215537 0.114233 -0.152398 0.728381 0.393157 -0.101397 -0.354281 0.032249 -0.154368 0.228380 0.748322 -0.081135 -0.220892 -0.016111 0.485021 0.417051 0.457714 0.475256 0.400902 0.283480 -0.361093 -0.491195 -0.646037 -0.080606 0.180129 0.277575 0.985974 -0.198245 -0.147234 0.706073 -0.137054 0.149675 -1.101825 0.467874 -0.036214 0.319031 0.912453 -0.040968 0.723923 -0.033092 0.301515 0.031203 0.138355 0.389854 -0.265807 -0.678457 -0.530442 -0.226788 0.062026 -0.421383 -0.209618 0.178168 0.013928 0.485772 0.710234 0.173717 0.306587 -0.786807 0.144901 0.215506 1.157617 -0.084404 -0.232681 -0.720145 0.212911 0.095011 0.340389 -0.322390 0.364128 -0.151860 -0.090658 -0.101968 0.475945 -0.139960 -0.380539 0.126351 -0.080521 -0.742091 0.331184 -0.015336 -0.045149 0.090605 0.133769 -0.048213 -0.301228
GlobalSpecies0097 0.382014 0.010650 0.326214 -0.093806 -0.763989 -0.284994 0.527062 -0.134795 -0.719900 -0.394766 0.401303 -0.262347 -0.044117 0.430063 1.029221 -0.259119 -0.014611 -0.048067 0.247550 -0.849983 -0.235382 -0.243254 -0.015263 -0.108801 -0.123395 -0.075257 -0.240060 1.328796 -0.058181 -0.148314 -0.549574 -0.057260 -0.061622 -0.425357 -0.549233 0.459065 1.273252 0.499379 0.393046 0.133760 -0.991036 -0.512023 0.925103 0.544104 -1.421958 0.305921 0.199769 -0.812072 -0.581929 -0.425813 0.440050 0.490135 0.522625 0.211949 -0.919375 0.011650 0.078395 0.455473 1.345463 -0.098089 -0.362480 -0.471999 -0.307540 0.593980 0.601742 -0.480671 0.805746 0.756664 0.188369 0.447972 0.220476 0.710313 0.047990 0.239751 -0.455465 0.040520 1.157907 -0.688452 -1.178613 0.657356 0.901483 0.233557 0.666369 -0.076246 0.284103 0.136565 0.710258 -0.461681 0.479117 -1.553107 -0.605001 0.164630 -0.059689 -0.700865 -0.006686 0.931268 0.929478 -0.190957 0.246974 0.121267
GlobalSpecies0098 -0.155040 0.194690 0.626930 0.081476 0.237161 0.043571 0.071562 -0.368987 -0.070751 -0.521004 -0.099373 -0.399713 0.198989 0.067832 -0.367999 -0.294510 -0.114164 0.002639 0.069502 0.027681 -0.434152 -0.127163 -0.183641 -0.396385 0.259649 -0.174883 0.126279 -0.058386 -0.221056 -0.111794 0.085268 -0.018214 -0.191341 -0.227059 -0.515106 0.137032 0.051120 -0.006298 -0.650802 -0.026093 0.036919 -0.542742 -0.619906 0.295452 0.298340 0.445684 -0.050282 0.459158 -0.426697 0.210834 0.547303 -0.225101 0.082678 0.383449 -0.182609 0.253672 0.080003 0.027344 -0.117100 -0.326968 0.053077 0.062938 0.293330 -0.170432 0.562108 0.422513 -0.005826 -0.240670 0.348800 0.189995 0.307328 -0.064540 -0.013737 -0.377826 -0.101533 0.105522 -0.439466 -0.137148 -0.263844 0.015282 0.346704 -0.017383 0.341194 0.257155 -0.075866 -0.011879 0.103651 -0.131603 0.133663 0.086096 0.030048 -0.046289 0.119880 0.115116 -0.266518 0.252911 -0.209130 -0.132582 0.230187 0.081372
GlobalSpecies0099 -0.068509 -0.273022 0.131115 -0.364737 0.161173 -0.127261 0.076877 0.272020 0.433418 0.095755 0.160109 -0.196531 -0.528399 -0.047157 -0.700132 -0.449812 -0.533004 0.095384 -0.151554 -0.603944 -0.146921 -0.388690 0.388114 1.083991 0.506998 -0.164692 0.716229 0.260638 -0.321761 -0.479330 -0.353781 0.083720 -0.264125 0.179283 0.159486 0.204759 -0.122075 0.586155 -0.214700 0.042428 -0.388470 -0.522459 0.597380 0.417248 0.429853 0.306101 0.050164 -0.743329 -0.044735 -0.086872 -0.016535 -0.007697 -0.253278 -0.534190 0.102076 0.621805 -0.132047 -0.235149 0.193519 0.658710 -0.176477 -0.162997 0.201763 0.197068 -0.143048 0.234998 -0.230683 -0.593186 -0.158111 -0.056407 -0.078974 -0.019895 0.670645 0.293414 -0.538954 -0.162328 0.100116 -0.045589 0.377992 0.094630 -0.449482 -0.119361 -0.089414 -0.539655 -0.299138 0.071458 -0.217505 0.341710 -0.652986 0.073156 0.221220 -0.596305 -0.377226 -0.297583 0.514725 0.054376 0.322198 -0.187916 -0.208827 -0.288968
GlobalSpecies0100 -0.457794 -0.253110 -0.037671 0.254034 -0.262016 -0.101689 -0.117141 0.075829 0.078555 -0.451987 0.648405 -0.186825 0.723879 -0.517289 0.588700 -0.191395 0.245964 -0.444076 0.120857 -0.583514 -0.332902 0.243883 0.099471 0.396687 -0.190763 -0.297895 -0.302461 -0.017898 0.506315 0.178481 -0.619600 -0.300104 -0.293669 -0.561648 -0.197198 0.081180 0.717275 0.156750 -0.011152 0.372555 0.301468 0.473171 0.111515 0.328318 0.134702 -0.148156 -0.095198 0.098308 0.137119 -0.323457 0.233526 0.206481 -0.190604 0.005382 0.132131 -0.184769 -0.587388 -0.282425 -0.003453 0.445614 -0.197309 0.287545 0.071562 0.226465 0.014283 0.154888 -0.339499 -0.012263 -0.546036 0.045889 -0.574489 -0.419188 -0.070162 0.061065 0.366947 -0.122511 0.127041 -0.465008 0.111821 0.254969 -0.293423 0.282078 -0.136516 0.197891 -0.099620 -0.408186 -0.171338 0.251695 0.415002 0.125117 -0.063277 0.165827 0.305362 -0.075067 0.255389 0.528918 0.136155 -0.098393 0.269433 -0.057578
GlobalSpecies0101 0.125496 -0.128405 0.312190 -0.108643 0.394347 0.501448 -0.006901 -0.026363 -0.099730 -0.285671 0.285139 0.091080 -0.225844 -0.020294 0.058187 0.161218 0.164417 0.090363 0.147621 0.392113 0.285612 -0.396076 0.149796 0.273870 0.093408 0.369878 0.138448 0.010150 -0.031347 -0.275634 -0.159478 0.168235 -0.160060 -0.119430 0.379542 0.047118 0.184249 0.121044 -0.433387 -0.210887 0.057089 0.116352 -0.088317 0.337525 0.083449 0.228970 0.017569 -0.136850 -0.107844 -0.010469 0.028924 -0.245036 -0.068863 -0.213129 0.155895 -0.353023 -0.271752 0.195049 -0.304174 0.034278 -0.052616 0.333326 -0.202718 -0.004837 0.120337 0.546841 -0.100126 -0.300881 0.007420 0.505588 -0.063159 0.318295 -0.444811 -0.096742 0.114439 0.187269 0.075191 -0.028498 0.069021 -0.149585 -0.115705 -0.041810 -0.007287 0.361319 -0.030151 -0.333032 -0.170850 0.126388 -0.183791 -0.268849 0.072265 -0.188024 -0.010232 0.027093 -0.289216 -0.557489 -0.021289 0.066975 0.035069 -0.127622
GlobalSpecies0102 0.013278 -0.002490 0.026112 0.434338 -0.220964 -0.205380 -0.457131 0.648775 0.693052 -0.204785 0.057929 -0.037345 0.094439 0.422761 -0.170595 -0.558623 -0.681809 0.271966 -0.403247 0.179849 -0.386645 -0.089193 -0.265129 -0.488600 0.341664 0.067528 -0.371755 0.061927 -0.059575 0.421182 -0.429151 0.487079 0.242775 -0.224103 0.735702 0.133975 -0.239272 0.110160 -0.776981 -0.677042 0.355015 0.526454 0.238840 0.075310 0.498858 0.226453 0.016726 0.345810 0.268842 0.088050 0.826786 0.567200 0.011748 0.114775 -0.597322 0.213421 -0.396851 0.511964 0.146053 0.465870 -0.418259 -0.315789 0.061565 -0.036854 -0.294034 0.933198 0.178829 -0.211644 -0.128419 0.000601 0.075479 0.083105 0.376537 -0.146652 -0.257363 -0.205018 0.431136 -0.404973 -0.400250 -0.028885 -0.094038 -0.449429 0.358390 0.771212 0.273132 -0.626460 -0.597429 -0.109213 0.816654 -0.450766 -0.238138 0.135293 -0.815138 0.265930 0.285206 0.731289 -0.264941 0.100315 0.140977 -0.041392
GlobalSpecies0103 0.078131 -0.159091 0.607374 -0.317706 0.157690 -0.255077 -0.036894 -0.414877 0.006568 0.121805 -0.478637 -0.586567 0.474468 -0.661914 0.144403 -0.119159 -0.554692 0.598008 -0.294753 -0.677975 -0.148637 -0.324525 -0.153418 0.331938 -0.183966 -0.480152 -0.163115 0.084218 0.213009 0.469299 -0.497765 -0.589446 -0.356653 0.027557 0.793924 -0.023534 0.053567 0.238119 -0.363128 -0.538734 0.172281 0.360352 -0.830372 0.556825 -0.072043 0.196783 -0.866950 -0.185570 0.089003 -0.122369 0.137232 0.025380 0.256806 0.777531 0.375498 0.187502 -0.200386 0.236863 -0.572727 0.139779 0.356245 -0.643629 0.603621 0.025997 0.264142 0.066719 -0.024822 -0.150053 0.443602 -0.107428 0.104836 0.599233 0.052106 -0.150516 0.154519 -0.165186 -0.286786 -0.517014 0.253915 -0.014505 -0.539783 -0.189322 0.326166 0.104655 -0.460910 0.231762 -0.300820 0.721603 0.391125 -0.163524 0.833612 0.046268 -0.891811 -0.075166 -0.059699 -0.232209 0.418298 -0.045292 0.022686 -0.306166
