GlobalSpecies0001 -0.062939 -0.086194 0.137758 -0.374736 -0.338130 0.008767 0.170554 -0.238931 -0.011501 -0.269479 0.331539 0.503276 0.145680 -0.010556 -0.296108 0.280060 -0.382028 -0.004114 0.032552 -0.135750 -0.533183 -0.238097 0.339624 0.022492 0.161451 0.253302 -0.250917 -0.266487 0.370498 0.167043 -0.047602 -0.265483 0.126774 -0.012574 0.062848 0.316295 -0.109480 0.099185 -0.033445 -0.210919 0.437520 -0.083086 -0.076019 0.090136 0.144640 -0.008741 0.063046 0.153841 -0.146108 -0.109965 -0.088900 -0.041710 0.257838 0.017238 -0.123638 -0.088134 -0.375444 0.271190 -0.031337 0.015908 -0.169056 -0.001974 0.230306 0.100706 -0.162321 -0.251522 -0.341041 -0.290637 -0.004941 -0.038996 0.336257 -0.333494 -0.061795 -0.014770 0.330130 -0.319130 -0.128955 -0.222189 0.036713 -0.157162 0.218320 0.022155 0.060014 -0.003835 0.304336 -0.048768 0.018811 -0.096655 0.010760 -0.213454 0.041563 0.259182 -0.134428 -0.476623 0.617658 0.151624 0.275214 -0.131686 0.073187 0.038406
GlobalSpecies0002 -0.029631 0.365821 -0.085672 0.192310 0.254087 -0.025230 -0.028211 0.318353 -0.900638 -0.022611 0.378487 0.194969 0.523254 0.363362 -0.009653 -0.173868 0.254004 -0.407333 0.197979 0.226289 -0.315742 0.457411 0.156979 -0.056449 -0.026282 -0.171643 0.627300 -0.400119 0.050943 0.209724 -0.011129 0.167794 -0.113972 0.145918 -0.187596 0.291858 0.054900 0.392531 0.174974 -0.771462 0.093721 -0.168014 0.024209 -0.062897 -0.213145 -0.148173 -0.210377 -0.258547 -0.037182 -0.013900 -0.083692 0.174909 -0.348383 -0.176881 0.012458 -0.107522 0.548030 0.290481 -0.713533 -0.113836 0.348974 0.136314 -0.142727 0.307795 0.159049 -0.254287 0.077663 -0.066871 0.466088 -0.292822 0.259734 0.394479 -0.057181 0.005573 -0.529755 0.272952 -0.258983 -0.650991 0.009271 0.729491 -0.110945 -0.014346 -0.147347 -0.093737 0.115806 -0.066364 -0.036383 0.146063 0.615672 -0.800381 -0.385369 0.329129 0.124255 0.109816 0.072929 0.270232 0.241399 0.163170 -0.453830 -0.451500
GlobalSpecies0003 0.229894 -1.204148 -0.787972 0.534893 -0.399186 0.140752 -0.873168 -0.027804 -2.452675 -0.502133 -0.608607 1.056088 0.372971 -1.123832 0.592675 0.857445 -0.407758 0.754565 -0.337044 -0.936077 0.520677 -0.872144 -0.045605 -1.300464 0.670073 1.630950 0.433624 -0.603264 -0.993969 -0.340658 0.601204 0.988131 0.361902 -0.604401 -0.301319 -0.302009 -0.067469 -0.330716 -1.225940 0.151178 0.192531 -1.075237 -0.879577 -1.486235 -0.523806 -0.247710 0.215556 1.256111 1.134799 1.003778 0.387804 1.776722 1.921169 0.530586 0.699850 -0.611486 -1.649717 0.378729 -0.486409 -0.028959 -0.570291 -0.216187 -0.334919 0.346499 0.047202 -1.097522 -0.074671 0.793258 -0.775244 0.376172 0.142225 0.923643 -0.369941 -0.529225 0.832193 -0.623934 -0.762682 1.117194 0.409845 -0.934621 0.147637 -0.106106 0.892693 -0.249086 -0.192987 -0.146928 -0.417862 -1.043349 0.542261 0.639729 0.298020 -0.104626 0.587400 1.023583 0.221601 -0.052735 -0.496098 0.643128 0.065341 -1.458527
GlobalSpecies0004 -0.088334 -0.491564 0.042875 -0.292351 -0.427430 -0.024675 0.587412 0.739829 0.583304 0.817114 -0.133463 -0.866128 0.016477 0.743919 0.642897 -0.093481 -0.694698 0.136374 -0.898676 0.325335 0.014713 -0.136992 -0.840958 -0.607463 0.369502 0.051401 0.891216 1.040030 -0.321337 -0.022074 0.125679 0.332985 0.000179 1.083179 0.740727 0.379805 -0.040585 0.277068 -0.036555 0.381281 0.392641 1.017387 0.069386 0.306550 0.229030 0.382661 0.463250 -0.458904 -0.288026 0.529817 -0.088160 0.635323 -0.214153 0.060596 0.137200 0.303331 0.075655 0.597657 0.388340 0.223158 -0.294195 0.104806 -0.306365 0.064910 -0.307343 0.356368 0.190297 -0.300586 -0.207113 -0.172924 -0.128385 -0.419304 -0.463430 0.603114 0.486558 0.252007 0.364372 0.267593 0.280905 -0.713798 -0.431947 0.021049 -0.505522 0.564189 0.316037 0.449229 -0.048700 -0.030993 -0.343366 0.050321 -0.565751 0.122717 -0.079782 0.065932 0.459260 -0.362843 0.232210 1.180844 -0.576329 -0.186531
GlobalSpecies0005 -0.168060 -0.377492 -0.131913 0.258265 0.387430 -0.038644 -0.490618 0.120567 0.320295 0.590011 -0.044622 0.167056 0.482639 -0.512362 0.145074 -0.323377 -0.100962 -0.179816 0.417769 -0.158621 0.361146 0.476585 -0.561461 -0.214491 -0.427900 -0.095846 0.389240 0.536493 0.578870 -0.305063 -0.886264 -0.101565 -0.085028 -0.445642 -0.757447 0.126891 0.364650 0.198658 0.972078 0.002528 0.067139 -0.567190 -0.414897 0.306690 0.024960 0.261666 -0.828071 -0.306283 -0.679930 -0.027293 -0.681988 0.782799 0.004202 0.306744 0.506187 -0.444114 -0.386421 0.102009 -0.249913 0.261985 -0.148756 0.117138 -0.156788 0.060783 0.228730 0.303375 -0.082877 0.702666 -0.553324 -0.312221 -0.265118 0.269637 0.481181 0.591175 -0.365457 -0.535605 -0.914780 0.239432 0.093741 -0.342232 -0.749099 0.070834 -0.014879 0.292651 -0.002109 -0.070863 0.404669 -0.427219 0.125347 -0.185341 -0.716822 0.706076 -0.057752 -0.373158 -0.208191 0.747336 -0.319413 -0.442040 -0.040789 0.870671
GlobalSpecies0006 0.075228 -1.098875 0.010871 0.306530 0.882882 0.121400 -0.403384 -0.136040 -0.030469 -0.213729 0.113705 0.078706 0.029538 -0.623419 -0.100883 0.584851 0.147175 0.528940 0.876093 0.282342 0.520064 0.218883 -0.643574 -0.403351 0.608824 -0.078241 -0.411976 0.314789 0.855453 -0.304372 0.116113 -0.248830 -0.010403 -0.274706 0.409131 -0.246579 0.298102 0.374081 -0.172382 0.848715 0.398157 0.437066 -1.463912 0.334465 -0.293047 -0.886154 -0.291815 0.130264 0.377953 0.571888 -0.380480 -0.519242 -0.199379 0.589391 0.056349 0.707793 -0.322133 -0.697411 0.122715 -0.151708 -0.166104 -0.071915 0.078145 0.300653 -0.561531 -0.623211 0.678030 0.147300 0.658677 -0.020284 -0.205651 1.224940 -0.596336 0.638502 0.021310 -0.360144 -0.204202 -0.019419 0.283383 0.401739 -0.244502 0.349300 -0.354224 0.554219 -0.237259 -0.252496 -0.017005 -0.132389 -0.670621 -0.408090 0.502876 -0.633578 -0.824713 -0.320794 -0.813129 -0.310780 -0.012022 -0.461445 -0.202806 0.266781
GlobalSpecies0007 0.820678 0.166596 -0.132438 0.555615 0.120245 -0.453353 0.324700 1.278001 0.999852 -0.036141 -0.814295 1.292081 0.360227 0.635540 -0.036934 -0.074098 0.152260 -0.526486 -0.555465 -1.042739 0.192474 -0.504582 0.274949 -0.700424 0.719137 0.054689 -0.977636 0.540900 0.005520 0.146218 0.389342 -0.236684 0.624968 0.379639 -0.554117 -0.297276 -0.434375 -0.010899 -0.908621 -0.328821 0.480127 0.272246 -0.470852 0.325327 1.410649 -0.387529 0.034296 0.659739 -0.525917 -0.964603 -0.001905 -1.059006 0.080828 0.062084 -0.384433 -0.167393 -0.247401 0.208626 0.317432 0.549145 -0.195096 -0.286760 0.259614 0.306342 0.570681 1.249256 -0.277213 -0.637151 0.220804 0.688779 -0.170303 -0.171360 0.815523 -0.177859 1.284869 -0.179514 0.178173 0.445262 -0.216639 0.413103 -0.029180 0.142916 -0.969998 0.980430 -0.268236 -0.499965 -0.554566 0.330968 -0.299880 0.518368 0.093626 0.439831 -1.078422 -0.599691 0.223545 -0.480255 -0.153016 0.658555 -0.045554 0.086540
GlobalSpecies0008 -0.252669 -0.343726 -0.236761 -0.009684 -0.279796 -0.256652 -0.138240 -0.350821 -0.077894 -0.029803 0.341443 0.195663 -0.214926 0.224937 0.007993 0.134663 -0.036665 -0.201287 0.040884 0.040640 -0.000360 -0.042851 0.188608 -0.253433 -0.029609 -0.166071 0.002334 0.215795 0.334718 -0.385711 0.082854 0.008095 -0.099183 0.037312 -0.319280 -0.039330 -0.416735 -0.087008 -0.013465 -0.069213 -0.286500 0.348095 0.167204 -0.420242 0.021563 -0.237401 -0.287999 -0.084547 0.081820 -0.536236 -0.181643 0.224931 0.118449 -0.048849 0.166321 0.134136 -0.141217 -0.342226 0.321466 0.035352 -0.030043 -0.166360 0.185538 0.040379 0.156788 -0.101582 -0.090527 -0.211939 0.167668 0.185465 -0.147461 0.047881 -0.018225 0.092704 -0.090285 -0.126686 0.163845 0.014799 0.262706 0.036114 -0.047937 -0.108166 0.058175 0.214418 0.029908 -0.106575 -0.112509 0.008245 0.211622 -0.209505 -0.250320 0.222707 -0.120954 -0.144197 0.060046 -0.150436 0.091546 0.139463 -0.211188 -0.056888
GlobalSpecies0009 0.779782 0.556906 0.251397 0.425679 -1.372602 0.855718 0.374560 -0.217732 1.046220 0.969044 -0.580933 -0.539094 -0.783923 -0.779496 0.460376 -0.441978 -0.383393 -0.532996 0.975596 -0.721207 0.791474 -0.150288 -0.394032 0.076631 0.207093 -0.480012 0.338994 0.534662 -0.136228 -0.741186 -0.623968 -0.255369 -0.873850 0.090422 -0.130360 -1.826490 -0.306145 -0.392123 -0.111665 -0.205391 -0.692916 1.267420 0.490734 0.396963 -0.167714 0.578786 0.964573 0.228285 0.851944 0.358870 -0.343184 -0.351571 0.431784 0.532161 -0.115111 -1.109302 -0.369767 0.266320 -0.555706 0.143920 0.377115 -0.428544 -0.519949 -0.091277 -0.654096 0.060802 0.134378 0.535552 -0.309420 1.221729 -0.447221 -0.327020 0.424605 -0.166288 0.070909 0.088148 -0.270748 -0.010110 0.447677 -0.074949 -0.361781 0.087997 -1.022816 -1.111996 0.459367 0.319764 0.464805 -0.336525 -1.321137 0.076991 -0.008049 -0.742634 0.403611 -0.903476 0.420382 -0.061735 -0.909565 -0.158057 -0.058899 0.253206
GlobalSpecies0010 0.073494 -0.167879 0.354691 -0.372867 0.144996 -0.124706 -0.006238 0.552477 0.119478 0.239542 -0.131657 0.281597 -0.391406 -0.072274 0.221373 0.712910 0.409411 -0.218622 0.160124 0.143552 0.148032 0.186836 0.113976 -0.235175 -0.557796 -0.533652 -0.568214 -0.224043 -0.197033 -0.232538 -0.013759 -0.078933 0.369634 0.509440 -0.222785 0.021936 0.222247 -0.785538 0.055715 -0.474166 0.088123 -0.165505 0.152439 -0.517728 -0.134957 -0.110531 -0.058287 0.012055 0.172921 0.070382 0.362102 -0.096320 0.256319 -0.106602 0.469437 -0.350566 0.612356 -0.618342 0.156362 0.598889 -0.151705 0.106560 0.126488 0.230535 -0.543377 -0.052595 0.812349 -0.094528 -0.390895 -0.115932 0.251885 -0.674708 0.384479 -0.183945 -0.145376 0.461749 0.376996 0.049956 -0.449336 0.230717 0.135278 -0.235667 0.133449 -0.182544 0.010178 0.037719 0.126427 -0.427269 0.698394 -0.544365 0.676419 -0.107047 -0.976327 -0.074011 0.432792 0.202673 -0.187733 -0.496932 0.775898 0.166028
GlobalSpecies0011 -0.938411 -0.092868 -0.667437 -0.345495 0.068494 0.496190 -0.658199 0.628192 -0.430148 -1.374703 -1.804414 0.575845 0.000077 0.495854 0.838949 1.570582 0.550946 1.177410 0.551879 0.160891 -0.427899 0.660114 0.913826 0.733355 0.775546 1.333814 1.526917 0.020368 -2.102769 -0.042005 0.375743 -1.038139 0.626213 0.096998 -0.024727 0.185233 0.803968 0.545432 0.815687 -0.322673 -0.178194 0.880965 0.350766 -0.000718 0.463390 1.136715 -0.089289 -0.885236 0.887133 0.171531 0.059123 1.581260 0.166836 0.570148 0.197607 0.507170 -0.557620 1.052431 0.778355 -2.279004 -0.800949 0.246727 -0.472424 0.189217 0.083306 0.952987 -0.261712 0.221354 -0.097834 -0.108217 0.564396 -0.787865 0.801622 0.158147 0.562063 0.894601 -0.468146 1.233246 0.469005 0.400411 -0.152473 1.501777 0.639200 1.370415 -1.093137 -0.371375 -0.453559 0.179856 -0.345406 -0.551149 1.035774 -0.525311 -0.658270 1.014771 0.598774 0.389537 -0.778377 -1.969306 -0.354185 -1.825235
GlobalSpecies0012 2.718175 0.193466 -0.082082 0.169244 1.702634 1.138121 -1.370946 0.200998 -1.436660 -0.119130 -0.013871 -1.118232 0.192444 0.648381 1.543486 -0.309742 0.030181 -0.172648 0.351956 -0.198080 -0.565915 1.294142 0.521020 -0.151087 0.536971 0.809065 -0.933251 0.772742 -0.124343 -0.646946 -1.233548 -0.553441 -0.558747 -0.877847 -0.179545 -1.238888 -0.297638 -0.438268 0.130724 0.408648 0.793462 0.407554 -0.132623 0.136379 0.475571 0.016236 -0.252049 0.177817 1.639594 0.416940 -0.622701 1.124139 0.509824 -0.016370 0.944442 0.728207 -0.729813 -0.043265 0.323004 -0.787955 0.244549 0.351535 -0.546371 0.238101 -0.586842 1.564778 0.088071 0.476240 0.128050 -0.408319 -0.177673 0.215374 -0.286250 -0.391769 -0.479548 0.174629 1.806994 -0.350472 0.383867 -0.150635 -0.570113 -0.841322 0.574761 0.401530 -0.126657 -0.209948 -0.678032 0.885485 -0.208982 -0.056269 -0.927912 -1.192704 -0.368017 -0.522146 -0.036046 1.178614 -0.167738 -0.435053 -1.650676 0.267393
GlobalSpecies0013 -0.168595 0.015871 -0.186030 -0.619902 -0.336347 -0.762208 0.079901 0.024219 0.284766 0.005464 -0.260087 -0.039633 -0.593538 0.015136 0.211347 -0.401023 0.037716 -0.456375 -0.571847 -0.125522 0.478650 -0.222102 -0.574885 0.340608 -0.123344 0.078796 -0.329436 0.018989 0.325659 0.112939 -0.475847 0.090181 0.226458 0.339533 -0.156749 0.049552 -0.508416 -0.070093 0.073619 0.138526 -0.025730 -0.219675 0.482567 0.011625 -0.496734 -0.158314 -0.533602 0.489155 0.440006 0.061404 -0.038760 0.098535 0.007688 -0.412846 0.536124 -0.002512 0.333403 0.372031 -0.267808 0.418487 0.865575 0.243776 -0.412614 0.016988 0.719423 0.049702 -0.334800 -0.276527 0.352713 -0.254591 -0.253364 0.304680 0.119643 0.850799 -0.048497 -0.108159 -0.207878 -0.407857 0.045418 -0.184471 0.106710 -0.630395 -0.097497 -0.076864 0.169563 -0.044118 0.258965 0.449857 0.168373 -0.076307 -0.265919 0.253421 0.034224 -0.119665 -0.312007 0.094742 -0.608876 -0.242981 -0.297821 0.120476
GlobalSpecies0014 0.205004 0.041274 0.311337 -0.402837 0.557290 -1.098987 0.816146 -0.073286 -0.206167 0.078229 0.064299 0.088160 0.223376 -0.143164 0.278353 0.082391 0.085114 0.290503 -0.320929 -0.141061 -1.035445 0.147025 -0.179640 -0.513540 1.061916 -0.058984 -0.097352 0.496185 -0.025295 -0.041727 -0.450522 0.625908 -0.194842 -0.489220 0.184709 -0.758065 -0.717788 0.354373 -0.328948 -0.119793 0.219723 0.153756 0.397890 -0.037400 0.099166 -0.234912 0.476094 -0.523063 0.367656 0.638866 -0.182782 -0.116105 -0.435044 0.235961 0.639758 0.007344 -0.068298 0.411878 0.126139 0.217065 -0.742884 -1.185919 0.493752 -0.977875 -0.185998 0.200537 0.464267 0.230584 0.095669 -0.562194 0.442518 -0.008896 -0.540479 -0.559730 -0.459515 0.115482 0.216392 -0.546570 0.292758 0.915771 0.691868 0.486747 0.113413 0.007825 -0.478546 0.337201 -0.102698 -0.277720 0.522410 0.234184 -0.126036 0.354662 -0.092167 0.220275 -0.087478 -0.076172 -0.461536 0.306174 0.062320 -0.631328
GlobalSpecies0015 0.266495 0.057651 0.273056 -0.370564 0.167733 0.127591 0.105000 -0.186730 0.074011 0.057521 0.216657 0.045697 0.101108 0.307922 0.311141 0.380229 -0.008103 0.010593 0.122908 -0.226308 0.285619 -0.093751 0.183927 0.098179 -0.133197 0.370825 0.229818 -0.529635 0.504627 -0.181203 -0.205293 0.668454 -0.449446 0.090735 0.116691 -0.268450 -0.058460 0.033670 -0.018334 0.551495 0.086829 0.432531 -0.262285 -0.362056 -0.236915 0.401385 -0.285338 -0.200574 0.085681 0.086834 -0.055112 -0.191892 -0.188494 0.150866 -0.317273 -0.102312 0.209900 -0.030495 -0.263175 0.072467 0.584205 -0.724852 0.094437 -0.526624 0.050145 0.085857 -0.254987 0.347075 -0.297927 0.138428 0.694330 -0.562958 0.068027 -0.018249 -0.381483 0.070616 0.153173 0.148567 0.107375 0.359626 0.282349 0.010955 -0.159437 -0.149912 -0.240437 0.284453 0.089204 -0.326806 0.081247 -0.003725 -0.321184 0.187617 0.008813 -0.268982 0.051995 0.316517 0.095176 0.002320 0.032579 -0.211928
GlobalSpecies0016 0.440406 0.003868 -0.121620 0.309136 0.146886 -0.252030 0.329612 0.551663 0.648794 -0.171379 0.389615 -0.028943 0.118337 -0.341408 -0.200353 -0.192543 0.177918 0.334507 -0.121332 0.280270 0.156293 0.395903 -0.673105 0.206750 -0.503446 -0.306638 -0.035754 -0.104944 0.360515 0.119733 0.360955 -0.012572 0.167406 -0.377083 -0.330116 -0.425930 -0.095397 -0.240809 0.190916 -0.543120 0.415103 -0.092471 -0.484388 0.108091 -0.176077 -0.229627 -0.205107 0.301983 0.437747 -0.129435 -0.377368 0.554294 -0.316184 -0.571079 -0.072462 0.067900 0.225146 -0.041887 -0.460682 -0.295074 0.301369 -0.318524 -0.464933 0.197666 -0.212138 -0.397553 -0.360410 -0.104011 0.481871 -0.027435 -0.208516 0.332837 0.110512 -0.002043 -0.202898 -0.041625 0.384718 0.274948 -0.442303 0.313547 -0.453789 0.064056 0.140744 -0.613693 -0.266905 -0.145254 -0.188205 0.004799 0.410331 0.304274 0.436303 -0.301159 -0.025401 -0.417198 0.093027 -0.666768 0.319319 -0.166659 -0.513756 0.661431
GlobalSpecies0017 -0.151402 -0.088099 0.093740 -0.154597 0.131225 -0.007627 0.017437 -0.218844 -0.183046 -0.047793 0.094131 0.289941 -0.060895 -0.221751 -0.228344 0.043840 -0.175725 -0.090091 0.023995 -0.014192 0.071189 0.203975 -0.396022 0.187460 -0.085510 -0.071601 0.474368 -0.139480 0.120931 -0.085160 -0.097809 0.216876 -0.021163 -0.105348 0.235018 0.153284 -0.149895 -0.033306 0.093417 0.072790 0.181757 0.026284 0.019501 -0.095995 -0.225929 -0.041320 -0.208135 0.068297 -0.338721 -0.185000 0.029410 0.137620 -0.112405 -0.146337 -0.089616 -0.030814 0.180338 -0.384266 -0.317480 0.153081 -0.030631 -0.053911 0.133124 -0.161562 0.081424 0.014151 -0.021802 0.325462 0.305124 0.114483 0.283701 -0.184455 0.394594 -0.151037 -0.377220 -0.164566 0.290562 0.066081 0.035538 -0.231932 -0.038396 -0.038053 0.149920 -0.075685 -0.045204 -0.045304 0.004433 -0.028530 -0.412800 0.154983 -0.397503 -0.028820 -0.203455 0.033960 -0.051844 -0.044922 0.216575 0.263741 0.196778 0.174125
GlobalSpecies0018 0.427600 -0.513418 0.236535 -0.191889 -0.702046 0.404103 -0.713716 -0.339400 -0.523310 0.642731 0.009631 -1.142688 -0.343565 0.724768 0.541726 0.988628 -0.312878 0.898508 0.517262 0.133027 -0.206583 -0.507915 0.203113 -0.148491 -0.244488 -0.426739 -0.032103 1.497192 0.099177 -0.402113 0.075640 0.033485 0.108914 -0.308192 -0.742318 0.104865 0.382666 0.070247 -0.282021 0.052409 0.382674 -0.177043 -0.013962 -0.068433 0.321080 0.713000 0.167515 -0.465676 -0.697343 -0.878983 0.442887 -0.109945 -0.648613 0.479590 -0.440396 -0.295047 0.139178 0.007465 0.940108 -0.068933 0.281889 0.444294 -0.037578 -0.093112 0.462286 0.901801 -0.435918 -0.671867 1.025469 -0.440102 -0.647680 0.541232 -0.120383 -0.238270 0.403367 -0.250239 -0.201395 0.179489 -0.745949 -0.878692 -0.601164 -0.548382 -0.571629 -1.096737 -0.153198 0.924892 -0.223474 0.055132 0.179714 -0.396489 0.122971 -0.730470 -0.192918 0.458896 -0.819244 0.192442 -0.009903 -0.505699 -0.713806 0.244786
GlobalSpecies0019 -0.662724 -0.313558 -0.067256 -0.233046 -0.111675 0.216089 -0.125255 -0.117033 -0.335022 -0.319729 -0.052474 -0.401380 0.056412 0.053673 0.172824 0.453663 -0.058098 -0.045833 -0.364596 0.130822 -0.317086 0.165171 0.022010 -0.319232 0.077768 -0.035644 -0.663423 -0.007190 -0.495556 0.848365 -0.505793 -0.173948 -0.044514 -0.259843 -0.372423 -0.294425 -0.282708 -1.099279 -0.681200 -0.254661 -0.565795 0.113861 0.527353 0.001752 0.179823 0.258156 -0.570625 -0.100796 0.289252 -0.586593 0.056281 0.467593 -0.118109 -0.539471 -0.282033 0.571096 0.696178 -0.102077 0.342877 -0.061065 -0.203445 0.432699 -0.460798 -0.196208 0.113549 0.441377 0.253997 0.112071 0.465711 0.005712 -0.223518 -0.223514 -0.381843 0.239783 -0.108565 0.209622 0.443834 0.182692 0.076789 0.031703 -0.153348 0.012853 -0.244852 0.108983 0.418254 -0.166449 0.007614 -0.011052 -0.290338 0.155586 0.288674 -0.076414 -0.004653 -0.469792 0.391998 -0.654822 -0.117014 -0.147716 0.256348 -0.140544
GlobalSpecies0020 0.204829 0.059711 -0.154819 0.387623 -0.205848 -0.256066 -0.591050 0.440664 0.000787 -0.161622 -0.118780 -0.183953 0.786164 0.007887 0.391182 0.282558 -0.738106 -0.315937 0.155315 -0.903584 0.101576 -0.439817 0.285778 -0.211288 -0.419574 0.740570 0.479690 0.220182 0.114191 0.143126 0.429999 -0.230434 0.479627 0.413732 -0.700007 -0.144444 0.705885 -0.299403 -0.159849 0.479568 -0.479595 0.075216 0.275405 0.043265 0.559101 -0.843879 -1.141631 0.047104 1.018678 -0.055803 -0.529504 -0.226113 0.785021 0.284004 -0.966810 -0.246623 -0.513584 -0.764865 -0.190985 0.087212 -0.027809 0.066041 -0.340651 -0.860137 -0.116277 0.618006 0.045348 0.335269 0.395634 -0.012955 0.285501 0.570186 0.009265 -0.628944 0.445822 -0.196971 0.680398 -0.224330 0.049058 0.306020 0.014883 0.398942 -0.678405 -0.049660 -0.288303 0.042281 -0.509419 -0.326695 0.377639 0.033008 0.679510 -0.114745 -0.562772 -0.951916 -0.172482 -0.153843 -0.527623 0.009912 -0.055107 0.069997
GlobalSpecies0021 -0.670159 -0.347491 0.046935 0.028401 0.322766 0.395532 0.075886 0.013601 0.353598 0.110008 0.341821 0.467339 -0.124029 -0.049977 -0.449119 -0.136339 -0.219139 0.319478 0.262461 0.149792 -0.417499 0.248025 0.035293 0.130005 0.064530 -0.166690 0.369614 -0.113725 -0.139928 0.320075 0.122374 -0.150610 -0.176604 -0.133227 -0.314136 0.196486 -0.113996 0.033948 0.054546 -0.275954 -0.178706 -0.049754 -0.091898 -0.075091 -0.075607 0.216121 -0.467741 -0.244808 -0.217303 0.218451 0.096934 0.202932 -0.080809 0.061857 -0.081214 -0.168934 -0.327456 -0.124825 0.327458 0.258292 -0.285755 -0.056734 -0.208394 -0.003560 0.169525 -0.813599 0.034188 -0.093017 0.227546 0.087998 -0.016732 0.004211 0.272768 -0.148165 0.164833 0.101244 0.276349 0.296989 -0.164625 0.259227 -0.409342 0.344931 0.064025 -0.334103 -0.138628 0.187834 0.081080 0.008289 -0.309027 0.155725 -0.032850 -0.055866 0.049159 -0.083094 -0.060327 0.029665 -0.050970 0.354753 0.243755 -0.069469
GlobalSpecies0022 -0.025736 -0.250528 -0.645339 0.152917 -0.484718 0.106794 0.353328 0.105687 -0.122436 -0.079614 0.038212 0.164976 -0.029044 -0.035164 -0.094936 -0.227779 0.338718 -0.022678 0.177991 0.154354 -0.072726 -0.037189 -0.161447 0.274191 -0.087038 -0.038996 -0.083896 0.252866 0.235371 0.086694 -0.124401 0.279777 0.065884 0.259125 -0.272122 0.367990 -0.069839 0.146236 -0.413986 -0.009105 -0.280125 -0.385569 0.318927 0.670971 0.283311 -0.115617 -0.233983 -0.167547 -0.083439 -0.045242 -0.343099 -0.408967 0.152540 -0.334913 -0.342011 -0.089186 -0.075732 0.042214 -0.711872 0.496543 -0.111434 -0.050262 0.266808 -0.074503 -0.350119 0.383133 0.358588 0.321672 0.347812 -0.093217 0.257112 -0.133587 0.010453 0.438122 -0.113541 -0.264748 0.022003 0.058188 -0.097124 -0.028802 0.241537 -0.294268 0.023185 -0.108669 0.317347 0.415819 0.113624 0.003031 0.213518 0.251638 0.706830 -0.059919 0.526320 -0.371523 -0.297740 0.042831 0.021393 -0.056034 0.583641 0.139204
GlobalSpecies0023 0.053731 0.067000 0.061625 0.081660 0.073125 0.154769 0.048249 0.153234 0.087672 0.001611 -0.270210 -0.001858 0.089418 -0.049425 0.031211 0.009268 0.011867 0.098094 -0.087316 0.074666 0.061486 0.015870 -0.069098 0.026935 0.221923 0.184375 0.070271 0.005220 -0.083019 0.011621 0.108541 -0.000264 -0.189092 -0.147209 -0.008134 -0.084093 0.122320 0.104432 0.017199 0.066643 -0.028847 -0.073121 -0.118904 -0.015700 -0.034716 0.011222 0.121190 0.214894 0.170554 0.030436 -0.117120 -0.050355 -0.096988 0.109126 0.086455 -0.084219 -0.152562 0.171140 -0.051019 0.028316 0.061346 -0.091637 -0.014051 0.096802 0.084103 0.202935 0.093001 0.145131 0.074584 0.093108 0.063999 0.016142 -0.005301 -0.010113 0.126965 0.050967 -0.109682 -0.113373 0.006464 -0.046191 0.203216 0.067450 -0.063990 0.079539 0.025973 -0.122714 -0.123392 -0.025428 -0.133356 0.060410 0.159332 -0.103511 -0.026536 -0.012707 -0.065455 0.145282 -0.105817 -0.093931 -0.020483 0.068694
GlobalSpecies0024 -0.501046 -0.444541 -0.357867 -0.906534 -0.182915 0.477904 -0.680312 -0.002080 -0.490085 -0.214746 0.225526 1.553280 -0.262996 0.936090 0.159622 -0.666959 0.566683 1.133526 0.679585 0.140733 0.775258 -1.011587 0.597346 -0.171189 0.313545 -0.193847 0.087102 -0.396152 0.095267 0.810749 -0.426276 0.843680 -0.744736 0.520511 -0.273675 0.457490 -0.631100 -0.416789 0.005189 -0.711746 0.876155 0.366731 -0.612506 -0.836240 -0.273817 -0.561238 -0.894153 0.185160 0.601694 -0.155562 -0.117419 -0.353207 -0.740309 -0.077689 0.968807 0.371686 -0.964997 1.235065 0.276584 0.271491 -0.328931 -0.186654 -0.056659 -0.293543 0.116159 1.068457 -0.617079 0.491547 0.192216 -0.654988 -0.184223 1.643869 -0.587395 0.471001 -0.073784 -0.677208 0.613866 0.330864 0.775338 -0.648584 -0.201837 0.538029 -0.113424 -0.762902 -0.089380 0.211297 0.668814 -1.098811 0.723610 -0.644242 0.627706 -1.184220 0.458351 0.290781 -0.061586 0.001581 0.603869 -0.400072 -0.784219 0.151839
GlobalSpecies0025 -0.472348 1.004213 0.088158 -0.613174 -0.298288 0.711662 -0.006787 0.188629 -0.205670 -1.070241 -0.077340 0.718912 -0.130037 -0.342389 0.138818 0.034376 0.944277 0.022985 0.025872 -0.685733 0.593442 -0.027001 0.338885 0.201471 0.895174 1.044298 -0.433440 0.040813 -1.081261 -0.046003 -0.026043 -0.473960 0.260578 0.570615 -0.000798 0.258526 0.643471 0.335057 0.488436 -0.107455 -0.046166 -0.240136 -0.317290 -0.307027 0.239192 -0.386782 1.078946 0.753419 -0.061878 -0.498755 -0.493094 -0.303466 -0.567738 -0.361541 0.720139 -1.516782 0.188762 0.256874 -0.649016 0.703907 -0.129115 0.306188 -0.518008 0.040445 0.088928 1.063437 0.036181 0.364860 -0.373502 0.166762 -0.017839 -0.437709 0.008625 0.347746 -0.094059 -1.146578 0.046693 -0.103255 0.670700 -0.019756 -0.067860 0.338575 0.591732 1.032619 -0.208565 -1.350540 -0.106480 0.453202 -0.487851 -0.800245 -0.608846 -0.344385 -0.270237 0.176649 -0.466888 -0.274852 -0.458962 -0.574928 -0.021854 0.459990
GlobalSpecies0026 0.336545 0.238970 -0.275125 -0.287264 -0.562754 -0.261253 0.203539 0.328733 0.347358 -0.075135 0.466729 0.101874 -0.252348 0.160288 -0.208714 -0.503816 0.169032 0.021421 -0.505797 0.107881 0.558203 0.384841 0.100043 -0.073403 -0.402806 -0.384478 -0.136887 -0.287961 0.342579 0.320266 0.086395 -0.118582 -0.506248 0.161305 0.192311 0.506019 0.100272 -0.154634 -0.179614 0.142454 -0.216907 -0.430383 0.042950 0.205674 0.247955 0.172531 -0.253461 -0.038401 0.155178 -0.036972 0.013206 0.180235 0.077298 0.061003 0.220884 -0.108873 0.353079 0.023438 -0.048466 0.394749 0.163454 -0.077274 -0.176005 -0.304885 0.069353 -0.227692 0.255870 -0.279331 -0.253756 0.266818 0.036019 0.029494 0.447079 0.450230 0.123161 0.092763 0.168368 -0.397004 0.021976 -0.061984 -0.040017 0.198445 -0.110778 0.165274 -0.005099 -0.428375 -0.396476 -0.046333 0.117110 0.143268 0.292764 0.146364 -0.545351 -0.007155 0.459343 -0.067578 -0.060882 -0.286261 -0.103315 0.402972
GlobalSpecies0027 0.007836 -0.337846 -0.467718 0.072559 -0.424039 -0.371329 -0.046502 0.148432 -0.062829 0.156667 0.295752 -0.250611 -0.294776 -0.144095 -0.049435 -0.148078 -0.079163 0.041112 -0.175735 -0.520494 0.022623 -0.011266 0.439865 0.062139 -0.195430 -0.051238 0.156212 0.029963 0.138598 0.177422 -0.305743 -0.221905 0.183245 0.400296 -0.101833 0.079985 -0.064594 0.008124 -0.053198 -0.491703 -0.122520 -0.288911 0.162221 0.130271 -0.111542 -0.097179 -0.010078 0.254440 -0.208681 -0.540632 -0.078891 0.025663 0.210377 -0.092440 -0.240644 0.107660 0.005287 0.241078 0.219264 0.267676 0.055994 0.371459 -0.373138 -0.076670 -0.247351 0.063929 0.069873 -0.209152 0.290368 0.311343 -0.337014 -0.271243 0.403972 0.122499 0.051182 0.186002 0.276138 0.323864 0.163951 -0.248949 0.078304 0.124164 0.381818 0.049732 0.049252 0.355039 -0.013479 -0.343734 -0.115946 0.197026 -0.153524 0.205831 -0.211018 0.420693 0.339771 0.313513 -0.269592 0.246563 -0.099584 0.262161
GlobalSpecies0028 0.059042 0.107817 -0.300203 0.299770 -0.022424 -0.550203 0.510589 0.219871 0.059930 0.193444 -0.269400 0.188101 -0.027835 -0.021863 -0.188485 0.046421 0.133958 -0.249129 0.132759 -0.417455 0.186477 -0.187401 0.038451 0.402320 0.035742 0.174322 0.039097 0.423597 0.015973 -0.266434 0.622958 -0.005887 0.056152 0.054846 0.009227 -0.053329 -0.446826 0.167806 -0.030989 -0.362124 -0.088382 0.019500 -0.699274 0.409371 0.298337 -0.224185 0.004721 -0.016693 -0.360656 -0.115492 -0.070877 -0.014703 0.214133 0.164883 -0.032887 0.238839 -0.313136 0.020116 -0.083889 0.279082 0.489408 0.397809 0.260354 -0.186571 0.480965 0.139007 0.032306 0.380955 0.232838 -0.131403 -0.775735 0.388033 0.243908 0.062221 0.104045 0.095288 0.020482 -0.039674 0.500521 0.320347 0.176335 -0.318870 0.065514 -0.059557 0.546708 0.005792 0.269781 0.154758 0.112236 -0.098877 -0.646659 -0.226332 0.132883 0.374400 0.300454 -0.188332 -0.165285 -0.116150 0.128596 0.221201
GlobalSpecies0029 -0.309786 0.025651 -0.395525 0.285395 0.021112 -0.206666 -0.064056 0.040306 0.048910 0.410734 0.206265 0.330138 -0.034757 -0.344875 -0.090052 -0.223400 -0.078817 0.297810 -0.106477 -0.043090 -0.260337 -0.063490 -0.212605 0.315918 -0.227437 -0.351641 0.028412 -0.116712 0.145498 0.177041 -0.362336 0.037748 0.004927 0.061031 0.192130 0.064654 0.246139 -0.354153 -0.056351 0.598083 -0.133938 -0.616610 0.191058 0.199293 0.251927 -0.255737 0.094355 0.423105 -0.272360 0.039793 0.333545 -0.274477 0.061591 -0.248963 0.307651 0.159353 -0.255860 0.794524 0.079850 0.252399 0.137288 0.164201 -0.345884 -0.280473 -0.144459 -0.010777 -0.148801 0.570190 0.044893 0.390347 0.200626 0.063923 0.015493 0.452126 -0.415599 -0.312135 0.344961 0.482997 -0.167798 0.140808 -0.005360 -0.233411 0.024391 -0.176102 0.026891 -0.085630 0.105153 -0.141157 0.280215 -0.336698 -0.037840 0.364810 -0.131677 -0.304309 -0.002501 -0.283608 0.305488 0.442264 -0.176028 0.329073
GlobalSpecies0030 0.211277 -0.190741 0.278751 0.270816 0.118236 0.013810 0.218781 0.499068 0.205545 -0.081684 0.018853 0.001198 -0.315885 0.381028 0.129111 0.469383 0.267678 0.135014 -0.152148 0.173314 -0.415407 -0.389601 0.619908 -0.292002 0.278398 -0.225490 -0.143627 0.158461 0.140798 -0.285547 -0.000164 -0.611132 0.083655 -0.042605 0.086942 0.420195 -0.120245 -0.084820 -0.197363 0.205893 0.187667 -0.339687 0.149141 -0.190402 -0.135607 -0.146422 -0.676004 -0.339943 -0.469181 -0.175713 -0.230800 0.073225 -0.277776 0.158251 -0.356406 0.060664 -0.003499 0.156805 -0.452577 0.439537 0.228752 -0.227799 -0.137488 0.153056 -0.180561 -0.051123 0.204496 -0.095564 0.144879 -0.238886 0.481914 -0.144684 0.335952 -0.178173 0.171515 -0.366978 0.014853 0.284610 0.375921 0.261157 0.197698 -0.114802 -0.023904 0.127085 0.203256 0.373114 -0.270830 0.267482 0.459337 0.256015 -0.368657 0.122528 -0.105298 -0.101981 -0.145068 -0.275817 0.096779 -0.296738 0.070051 -0.078953
GlobalSpecies0031 0.381699 0.443813 -0.103821 -0.253395 -0.338785 0.557152 0.557628 -0.165362 0.192241 0.095959 0.341798 0.127862 0.807081 -0.175581 0.112428 -0.020166 -0.549864 -0.064709 0.381742 -0.458116 -0.233630 -0.265979 0.461575 -0.376935 0.151332 -0.004939 0.312208 0.091770 -0.003209 -0.026721 0.152864 0.321986 0.200995 -0.042984 -0.151436 0.311473 -0.439069 -0.019166 0.587590 0.308967 0.333228 -0.281204 -0.619162 0.106598 -0.037592 0.094926 0.031696 -0.375231 0.193118 0.136593 0.037477 -0.006611 0.296187 -0.323037 0.312157 -0.183225 0.594672 -0.197433 -0.298636 -0.268888 0.178937 0.139421 0.135930 -0.191013 0.263461 -0.088935 -0.208461 -0.037234 -0.366265 -0.361053 0.126949 0.076980 -0.095038 -0.263052 0.009467 0.131310 -0.154009 -0.111060 -0.610885 0.221000 0.134244 0.070964 0.353067 0.227183 -0.200494 0.274969 0.075223 -0.222896 0.159442 0.019517 0.183501 0.184298 0.049756 0.662245 0.379990 -0.124652 -0.000789 0.297547 0.159990 0.475565
GlobalSpecies0032 0.165976 -0.126153 -0.085676 -0.089059 -0.858797 0.145825 -0.297158 -0.093513 -0.020163 -0.199845 0.277378 -0.254280 0.026281 -0.013007 0.382807 -0.239597 0.746202 0.032538 -0.211177 -0.180800 -0.495739 0.226193 0.029114 -0.076610 0.022214 0.377134 -0.163982 0.064381 0.113047 -0.180224 0.174257 0.694340 -0.045884 -0.005032 -0.117778 -0.206709 -0.247254 0.129510 0.033081 0.078552 -0.455699 0.419115 -0.316088 -0.219472 -0.580530 -0.494169 0.244044 -0.500098 -0.291569 0.236328 -0.262272 0.123186 -0.749926 0.527566 0.327503 -0.259342 -0.064062 0.204263 0.450412 -0.180226 0.106408 0.562090 0.057854 0.029791 -0.196915 0.019295 -0.320664 0.439137 0.091916 -0.209864 0.231990 -0.133838 -0.599312 0.050830 0.442637 0.649247 0.196483 0.062611 -0.405765 0.075836 -0.326797 0.536758 0.456662 0.173915 0.228250 -0.058390 0.698680 0.582769 -0.707989 0.051133 -0.155124 0.199311 -0.015099 -0.658311 0.244714 -0.288395 -0.456243 -0.143910 0.185892 0.764339
GlobalSpecies0033 -0.968451 0.365716 1.002998 -0.233025 -0.090141 -0.028389 -0.411852 0.105264 -1.022511 -1.444531 -0.913915 1.497754 0.882737 -0.335464 0.197113 -0.158806 -1.680875 0.826060 0.113750 -0.432725 0.613394 0.658907 0.505727 0.492617 -1.306084 1.207713 1.018097 -0.172693 0.255298 -0.078482 0.177049 0.558343 -0.792237 0.057728 0.304907 -0.774937 0.342972 -0.998132 0.447506 -0.338448 1.034095 1.130578 -0.026019 -0.663124 0.041145 -0.333827 0.757422 -0.051463 -0.068460 1.372286 0.528844 -1.494470 -1.291679 -0.704587 0.114403 0.775355 -0.685200 -0.192270 -0.095008 0.562756 0.342011 0.292382 -0.615725 1.370070 -0.053076 -0.441752 0.512383 0.604379 -0.333469 -0.656681 -0.074763 0.439697 -0.511131 -0.124803 -0.803230 -0.074928 -0.311065 0.762027 -0.157220 0.079082 -0.311379 0.734854 1.154180 1.197094 -0.403060 -0.134047 0.255750 0.174402 0.806022 -0.701154 0.657509 -0.223021 -0.937588 -1.472014 -0.449126 0.425194 -0.258537 -0.836124 -0.658713 0.602658
GlobalSpecies0034 -0.141928 0.200481 0.294547 0.382728 -0.111796 0.540370 -0.952849 0.776252 0.159290 0.898674 -0.693983 -0.254659 0.446271 -0.373386 0.487318 -0.191019 -0.126789 -0.841520 0.919695 -0.109868 -0.158063 -0.435788 -0.333751 0.222814 -0.186778 0.011177 0.108367 -0.732150 -0.134680 0.364462 -0.395095 0.813158 -0.738680 0.518738 -0.394893 0.110920 0.746973 -0.837177 -0.003831 -0.141254 1.197425 -0.496406 -0.028937 -0.135562 -0.456733 -0.449903 0.421892 -0.382595 -0.640633 0.025312 -0.487250 0.813488 -0.549620 1.114133 -1.325203 -0.035850 0.500813 -1.004174 0.607608 -0.252915 0.092447 -0.147011 -0.705384 -0.730027 0.429850 1.588610 0.742156 0.919652 -0.323760 -0.909604 -0.381767 -0.131986 -0.381863 -0.369219 0.485601 -0.015736 -0.388390 0.536141 0.039178 -0.235465 -0.599256 -0.954295 -0.752419 -0.140865 0.323504 0.446071 -1.374705 -0.569432 0.573044 -0.070902 -0.039085 -0.576521 0.505988 -0.202057 1.545806 -0.026935 -0.422700 -0.504993 -1.089091 -0.287408
GlobalSpecies0035 -0.144161 0.690288 0.245634 0.239815 0.021983 -0.122454 -0.400151 -0.225691 0.291433 -0.076685 0.396705 -0.026511 -0.115423 0.385435 -0.002813 0.348856 -0.065016 -0.140363 0.086387 0.308224 -0.141861 -0.097500 -0.135311 -0.373774 0.616036 -0.085496 0.440766 -0.019032 0.347293 0.101110 0.053741 -0.168998 -0.189357 -0.280697 0.185683 -0.221739 -0.018446 0.283387 0.094770 -0.029536 0.173616 -0.040303 0.080534 0.008146 0.159535 -0.610068 -0.924793 -0.093737 -0.125284 -0.055478 -0.016382 0.350691 -0.286621 0.363384 0.468757 -0.059626 -0.192130 -0.081280 -0.106403 0.305308 0.400868 -0.179009 0.339255 0.715097 0.468753 -0.215318 0.355663 -0.282032 0.444638 -0.018187 -0.022842 0.069888 -0.244454 0.189847 -0.692118 0.067509 -0.031281 -0.550748 0.303914 -0.447559 0.088895 -0.223016 0.110671 -0.059750 -0.332293 0.107433 0.454011 -0.320716 0.261661 0.103820 0.208556 0.213124 -0.019499 -0.154625 0.016945 0.586385 -0.161806 -0.238151 0.013757 -0.137592
GlobalSpecies0036 -0.034800 -0.217503 -0.087366 -0.113265 0.166160 -0.065872 0.052089 0.144059 -0.207601 0.219776 0.171423 0.222170 -0.124057 -0.104467 -0.014764 -0.012929 0.128830 -0.043237 0.185716 -0.249125 0.183946 0.008989 0.011556 0.119539 -0.067145 -0.260360 0.196160 -0.379335 0.079689 0.109935 -0.273906 0.230507 -0.012369 0.031602 -0.064732 0.089202 0.124873 -0.221577 -0.233323 0.213177 -0.039497 -0.034393 -0.140786 0.308784 0.194291 -0.086915 0.145136 -0.102902 -0.411003 -0.116489 -0.021433 -0.083557 -0.269990 0.083539 -0.021999 0.340573 0.029838 -0.136220 0.152277 0.237151 -0.086691 -0.026976 0.171944 0.094983 -0.272840 -0.159765 -0.238443 0.021052 0.034628 0.013581 0.110816 -0.039808 -0.145291 -0.034635 -0.068833 0.098651 0.157247 0.158606 0.200988 0.447545 0.014734 0.176224 -0.016522 -0.265249 0.360370 -0.150596 -0.044409 -0.164697 0.231796 -0.069034 0.004193 -0.201807 -0.126860 0.423294 0.097342 0.138319 0.120702 0.169177 0.397306 -0.133285
GlobalSpecies0037 0.450866 0.160098 0.131677 -0.079297 0.150828 0.011370 0.329306 -0.030297 -0.267358 0.169004 0.281237 -0.146569 0.146313 -0.195146 -0.376932 -0.256737 0.238847 -0.150349 0.090661 0.171737 -0.156788 0.354449 -0.040080 0.082931 -0.049989 -0.140453 0.192715 -0.084682 0.156778 0.136143 0.114538 0.119751 0.375090 0.006878 0.836346 -0.044210 -0.152386 -0.464972 -0.286439 -0.103919 -0.371178 0.331265 0.369713 -0.253828 -0.235981 0.221501 0.193368 -0.050734 -0.053764 0.371529 -0.457908 -0.199778 -0.172311 -0.345345 0.050951 0.094971 0.636854 0.545274 -0.171652 -0.013269 0.339305 -0.370052 -0.198053 -0.305915 -0.267461 -0.015860 0.105853 -0.115592 -0.223567 -0.097341 0.055342 -0.358323 -0.174402 -0.143438 0.061678 -0.291381 -0.010138 -0.025567 -0.327363 0.217260 0.053108 -0.144872 0.080217 -0.163851 -0.115647 0.171703 -0.016650 0.271511 0.048337 0.249552 -0.196568 0.294434 0.150192 0.115104 -0.012416 0.224790 -0.381456 0.052190 0.069096 0.057642
GlobalSpecies0038 -0.265668 -0.122987 -0.216288 -0.151097 0.514986 0.159773 0.228012 -0.131813 0.066500 0.061287 -0.142685 0.209129 0.151966 -0.145420 -0.229969 -0.100015 -0.038243 0.085716 0.158307 -0.341586 -0.072822 0.178281 -0.130340 0.025958 -0.235514 -0.175540 -0.119770 -0.182861 0.250295 -0.089015 -0.008926 0.215909 -0.471198 0.205172 0.127534 0.086958 -0.175855 0.001483 -0.155172 0.454066 0.230095 0.016572 0.121356 0.216618 0.103770 -0.034677 -0.103771 0.156867 -0.291453 0.067587 -0.043030 -0.193920 -0.316669 0.042660 0.056576 0.272590 -0.024204 0.226835 -0.048669 0.146799 -0.028033 -0.006089 -0.019092 -0.217148 -0.233296 0.187005 -0.069902 -0.113591 0.027245 0.092422 0.089524 -0.250888 0.076921 0.268825 -0.064510 0.151251 -0.009300 0.056348 -0.047356 0.115364 0.142032 -0.064427 -0.181023 0.019112 0.167646 -0.052005 0.202472 -0.073937 0.093368 0.211275 -0.141461 -0.112290 -0.200468 -0.007746 0.066603 0.286222 0.195669 0.123852 0.174766 0.133653
GlobalSpecies0039 -0.016403 -0.026839 0.127076 0.157849 0.192718 0.194088 0.466303 0.248768 0.185499 0.144952 0.038777 0.220480 -0.185395 -0.015862 0.115344 -0.272864 0.413266 0.174431 0.387194 0.122170 -0.034986 -0.160472 -0.225277 -0.249931 0.128024 0.452982 -0.459004 -0.004061 0.128285 0.223679 0.171967 -0.143350 -0.250146 0.201351 0.052741 0.355437 0.256233 0.334841 -0.068136 -0.149611 -0.724942 0.107258 -0.273335 0.563232 -0.332653 0.263181 0.192784 -0.577381 -0.058576 -0.109186 -0.033029 -0.119827 0.044236 -0.167888 -0.302054 -0.179961 -0.457985 0.337412 0.006777 -0.074652 0.481747 -0.128224 0.368988 0.742104 -0.237296 -0.151464 0.109000 -0.728065 -0.147782 -0.275086 0.181316 -0.009694 -0.460729 0.614078 -0.104861 -0.041822 0.294219 0.274314 -0.058626 -0.136137 -0.105448 -0.294113 -0.328444 0.183579 -0.103871 -0.355546 0.101406 -0.598735 0.463521 0.251492 -0.141294 -0.224102 0.281809 -0.564023 0.120828 0.468218 -0.023045 -0.192402 -0.241140 -0.350987
GlobalSpecies0040 -0.038655 0.223946 -0.221693 0.053724 0.276981 0.228061 -0.121947 0.061008 -0.311916 0.365787 -0.078574 0.257456 -0.430457 -0.519637 -0.174449 0.132455 -0.078760 -0.141474 0.280001 0.340442 0.145890 0.225968 0.104347 0.110364 0.356894 -0.114400 0.021472 -0.244613 -0.211627 -0.190240 -0.126174 0.253656 0.391294 0.082108 -0.198269 -0.136465 -0.198125 -0.308828 -0.058819 0.002845 0.218293 -0.199305 -0.279661 -0.147508 -0.006744 -0.280490 -0.508537 -0.074126 0.161696 -0.208603 0.038579 -0.411041 -0.100417 0.186841 0.107989 0.045498 0.191441 0.271193 -0.351004 0.436879 0.045553 0.000382 -0.131970 -0.136370 -0.157551 -0.266146 -0.004537 -0.312334 0.060054 0.245683 -0.040192 0.026774 0.159017 0.393979 -0.057517 0.418568 -0.198555 -0.281215 0.150084 0.190047 0.117980 -0.106907 -0.043339 -0.120599 0.056631 -0.090569 -0.000413 0.135148 0.007215 -0.129389 -0.250685 0.328852 -0.392712 0.209112 -0.147568 0.062955 -0.167280 -0.057258 0.026786 0.257059
GlobalSpecies0041 0.151275 -0.012842 -0.453937 0.426566 -0.428064 -0.096555 0.335632 -1.206559 0.188479 -0.039456 0.048812 0.135928 -0.372878 0.517793 -0.467216 0.167625 0.556334 -0.585135 -0.198471 0.310213 0.079223 0.339384 0.499992 0.152011 -0.010613 0.348621 0.567369 0.282142 0.013732 0.012203 -0.046587 -0.302087 -0.331495 -0.033861 -0.239529 -0.100272 0.060484 0.023113 0.576909 0.488151 0.100478 0.298156 0.195965 -1.013391 0.294665 0.020356 0.056376 0.196824 0.244417 0.206768 -0.690908 -0.438664 0.175512 0.236279 -0.244244 0.358154 -0.456426 -0.223527 0.059506 -0.592521 0.705314 0.470605 0.098325 0.401761 0.262062 -0.112153 -0.068540 -0.124200 -0.096489 -0.308907 0.403012 -0.166693 -0.328703 0.071079 -0.478018 0.244603 0.020180 0.390944 -0.020902 -0.496485 0.165056 -0.328021 -0.207075 -0.112361 0.294424 0.029452 0.145919 0.450278 -0.235378 0.421304 -0.172077 -0.449223 0.097530 0.021744 0.377065 -0.049869 -0.018375 0.287238 -0.219341 0.344518
GlobalSpecies0042 0.085510 -0.315259 -0.473344 0.228025 0.403982 0.832681 0.535052 -0.244853 -0.973922 0.167682 0.097488 -0.026817 1.118198 -0.131989 0.032609 -0.845998 1.192148 0.313435 0.649286 -0.463070 -0.100117 0.043968 -0.329110 0.108508 -0.327101 0.261327 -0.445170 -0.197029 -0.578633 -0.530404 -0.590320 0.732975 -0.742907 0.331951 -0.462662 0.360987 -1.059378 0.257044 -1.449248 0.359088 1.481376 -0.091350 -0.534806 -0.148275 0.326060 -0.091666 0.016187 0.274172 0.212104 0.198821 0.435348 0.123753 0.538860 0.559097 -0.413182 0.062993 0.172776 -0.253998 0.517542 0.197027 -0.027668 0.079242 -0.740094 0.273917 0.287188 0.663785 -0.049998 -0.206205 0.217387 -0.096426 0.098384 -0.360075 -0.162342 -0.869020 0.008927 -0.353979 -0.159399 -0.761802 0.786555 0.035048 -0.328311 0.507871 0.406209 -0.245094 -0.278570 0.648523 -0.649857 -0.347473 0.244493 -0.342288 0.231474 -0.114211 -0.003346 -0.584105 -0.484060 -0.341353 -0.356183 0.451847 -0.086131 0.865997
GlobalSpecies0043 0.385212 0.053241 -0.525915 0.401241 0.456317 0.531022 -0.239147 -0.193335 0.265687 -0.005374 -0.232990 -0.141157 -0.642321 0.511115 0.285301 0.235226 0.555258 -0.940134 -0.247922 0.386014 0.048561 -0.872013 -0.437046 0.227221 -0.214816 0.036818 -0.153992 0.036363 -0.124293 0.804606 0.552795 0.163718 0.524155 -0.332681 0.034620 -0.123940 0.604129 0.780472 -0.445230 -0.398156 -0.133873 -0.643170 -0.303868 -0.689365 -0.100698 0.572031 -0.325606 0.142158 -0.387735 0.510572 0.022279 0.482822 -0.028138 -0.587231 0.278662 -0.209101 -0.477046 -0.000511 0.479919 -0.039197 1.038181 -0.131571 -0.261317 -0.556278 0.657668 -0.122936 0.113347 -0.535245 0.014967 0.238117 -0.449942 0.757978 0.099133 -0.364333 0.621669 -0.016975 -0.248450 0.246333 -0.035649 -0.226909 0.280052 -0.228341 0.304470 -0.372340 0.001985 0.139429 0.648706 -0.657986 0.271720 -0.302641 0.162394 0.650540 -0.174852 -0.007212 -0.045234 -0.230647 0.587433 0.276230 -0.250550 0.961910
GlobalSpecies0044 1.008538 0.760488 0.227155 0.359939 1.237310 -0.497986 -0.578819 -0.537085 0.133653 -0.464711 -1.377371 -0.350384 0.151695 -0.975527 1.461365 0.072168 0.566066 0.760303 0.590662 0.431931 0.775184 -0.207952 -0.266115 0.634597 0.395694 0.517477 -0.065414 1.086578 -2.288734 -0.012546 0.347095 0.115496 1.117239 -0.753274 0.841546 0.240946 -0.049755 -0.183247 -0.985684 0.501518 0.784803 -0.489487 -0.253144 -0.627234 0.203988 -0.166417 0.421688 0.101779 0.069141 0.623882 0.127822 -0.334845 0.346270 0.458354 1.255301 -0.296376 0.075779 0.972155 -1.054853 -1.230804 -0.119570 -0.614901 -0.418136 -0.852169 -0.081422 0.519955 0.219923 1.110214 0.109787 0.377817 -0.141996 0.619425 0.229804 -0.598524 1.740207 0.945784 -0.467193 -0.454388 0.232244 -1.410874 0.441139 -0.701094 0.081278 0.147341 -1.512625 0.264749 -1.373693 -0.563120 -0.099249 0.209175 0.683380 0.448653 -0.493490 1.257119 0.012644 -0.071110 -0.554510 -0.898387 -0.383500 0.254469
GlobalSpecies0045 0.362408 0.165287 -0.095337 -0.228354 0.208307 -0.535961 0.196242 0.335736 0.070990 0.399838 0.069120 0.364902 0.092026 0.029840 -0.122387 0.181038 -0.152382 -0.097222 0.123950 -0.084123 -0.173514 0.043270 0.029820 -0.360197 -0.049270 -0.328232 0.390823 -0.502314 0.694750 0.182856 -0.087252 0.141355 0.325248 -0.005236 -0.192975 -0.067068 0.166185 -0.007666 0.134761 0.241452 0.010668 0.442760 0.008079 0.012660 -0.128693 0.376126 0.508096 -0.044216 -0.206867 0.081861 0.271953 0.047291 -0.134934 -0.125588 0.367861 0.254545 0.059370 0.149877 -0.092627 0.138497 0.157862 0.064007 0.058729 0.173397 -0.084424 -0.048519 -0.071398 0.124127 0.333365 -0.041820 0.252527 -0.137770 -0.089132 -0.004300 -0.310270 0.378199 0.147407 0.317513 -0.133793 0.197730 -0.047817 -0.167249 0.037500 -0.164782 0.269129 0.121081 -0.112886 0.071909 0.017316 0.061969 -0.145784 -0.115575 -0.075867 -0.104881 0.198665 0.046315 0.117106 0.104720 -0.061402 -0.034046
GlobalSpecies0046 -0.654559 -0.518060 -0.911251 -0.197287 0.621178 -0.609206 -0.372476 0.648314 -0.386629 -0.663954 -0.130268 0.419591 0.508066 0.681808 0.334198 0.658054 0.244856 -0.427829 -0.501456 -0.001559 0.428281 0.145940 -0.346088 -0.554259 -0.475132 -0.203260 0.014899 0.824933 -0.859687 0.416794 -0.772907 -0.050121 0.342941 -0.412561 0.792522 0.932287 -0.562596 0.448170 -0.336990 0.001660 -0.671874 0.301260 0.377005 0.381671 -0.190226 -0.067172 -0.078695 -0.264432 1.134899 -0.164747 -0.279145 -0.041189 0.473145 0.183411 -1.093529 0.377420 0.099555 -0.879350 0.371308 -0.132426 0.008702 0.724372 -0.633046 -0.241407 0.865578 -0.422473 -1.157530 -0.168655 -0.550781 0.763383 0.147765 -0.058411 -0.076736 0.051342 0.205267 -0.246334 -0.025544 -0.140683 0.281790 0.922603 -0.300199 -1.242288 0.022378 -0.145649 -0.314077 0.581091 -0.131988 -0.203349 -0.116853 0.619657 0.592816 0.109042 0.469957 0.033605 -0.827520 -0.164957 0.114502 -0.095992 -0.330008 -0.815627
GlobalSpecies0047 0.190707 0.151422 0.067719 -0.110415 0.070072 0.081235 0.223855 0.028319 0.050107 -0.049491 -0.017413 -0.161925 -0.175121 -0.029691 0.074427 0.121641 0.795170 0.051295 0.192218 -0.065979 0.098529 -0.167894 0.093762 0.467347 -0.209441 0.144322 0.023702 0.188899 -0.084825 -0.188874 -0.161311 0.237263 0.195087 0.370940 0.400982 0.209366 -0.003522 0.163110 -0.128953 -0.391972 0.115510 0.328949 -0.049432 0.443642 -0.017296 0.054663 -0.041173 0.125355 -0.040411 -0.191225 -0.227860 0.084999 -0.362030 0.292717 0.058504 0.177050 0.353389 0.079228 0.157591 -0.186140 0.166335 0.170287 0.021613 -0.004943 -0.262392 -0.248143 -0.073106 0.042860 -0.041489 -0.238754 0.321347 -0.168255 0.075175 -0.365489 -0.048513 0.176095 0.430046 -0.110268 -0.332346 -0.062600 -0.184303 -0.342065 -0.113307 -0.039665 0.158498 -0.102011 -0.238853 -0.325765 0.036125 0.524391 0.124218 0.378801 -0.094962 -0.233246 -0.008611 -0.044304 -0.266280 -0.318920 0.029042 0.150865
GlobalSpecies0048 -0.272978 -0.206484 0.122950 -0.053928 0.187771 -0.468187 -0.132917 -0.516926 -0.013745 -0.343207 0.067005 -0.329468 -0.260417 0.027332 0.118735 -0.193646 -0.039097 -0.282741 -0.619803 -0.451448 -0.056987 -0.172197 0.154047 -0.048558 0.050586 -0.017800 -0.384410 -0.021713 0.255953 0.058466 0.038080 -0.261659 -0.205698 -0.082599 0.115611 0.411718 -0.117496 -0.112250 -0.211648 0.278841 -0.032856 0.093859 0.138470 0.168697 0.017089 -0.095604 -0.288233 0.120393 -0.486192 0.028140 -0.339144 -0.161988 -0.408727 0.026937 0.075450 0.347612 0.068643 -0.529979 -0.172167 0.062621 -0.293536 0.168757 0.130884 -0.031877 -0.087689 0.540648 0.312560 -0.295343 0.004847 0.243112 -0.244206 -0.131362 0.106295 0.007343 -0.113763 0.356329 -0.089674 -0.046496 -0.407091 -0.306232 -0.051284 -0.284890 -0.006553 0.093520 0.130328 -0.113859 0.059053 -0.174183 -0.132919 -0.052152 0.041605 -0.143169 -0.031907 -0.145341 -0.131211 -0.213775 -0.481446 0.376559 0.197956 -0.055986
GlobalSpecies0049 0.385749 0.031320 0.235348 0.249882 -0.343072 0.200589 0.338313 0.666145 0.274201 -0.414620 -0.235544 0.127677 -0.554496 0.205549 -0.126816 -0.375506 0.173116 -0.025507 -0.385509 0.166797 -0.410921 -0.331613 -0.385275 -0.147358 -0.505541 -0.279092 -0.320025 0.290406 0.065173 -0.415857 0.221656 0.151059 -0.038202 -0.428790 0.009624 0.134633 0.278302 0.629871 -0.131688 0.026163 -0.038643 0.766731 -0.566062 0.147026 -0.379975 -0.070539 0.380354 -0.209097 0.164186 -0.555197 0.059156 -0.695288 -0.146860 -0.375429 0.019743 -0.733809 -0.527840 -0.163114 -0.375595 0.246347 0.401194 0.150603 0.065735 -0.412359 0.002253 0.344755 -0.446706 0.674410 0.538993 0.465905 -0.459229 0.049761 0.216302 -0.085791 -0.027836 0.100459 -0.134102 -0.286828 0.569217 -0.492639 0.279776 -0.046497 0.093141 -0.416679 0.070304 -0.444282 -0.154462 0.570933 -0.111992 -0.128528 -0.181048 -0.199789 0.605719 -0.123639 0.264755 0.640904 -0.625210 0.711722 0.397070 0.313558
GlobalSpecies0050 -1.244107 0.126668 -0.037981 0.982307 0.159782 -1.520905 0.949140 1.131435 0.446178 0.319733 0.761546 0.087183 0.330452 0.165026 0.773755 0.063823 -1.000448 0.062228 1.289812 -0.054734 -0.022687 1.406149 -0.719200 -0.428113 0.215461 -0.489739 0.645887 0.272718 2.357878 -0.854493 0.200028 0.129791 -0.163384 -0.441915 0.360841 0.028802 1.165007 -0.063319 -0.275873 0.865409 0.029321 0.037611 -1.312984 -0.781621 -0.386884 0.480021 0.523156 -0.353811 1.112359 0.114420 -0.373974 0.532442 0.353911 -0.043372 0.374253 -0.548240 1.944509 -0.513616 0.410861 -0.235644 -0.149992 -0.066637 -0.212370 -0.878140 -1.522427 1.654254 -0.753909 -0.383920 1.573144 -0.129986 0.867027 0.367922 0.029170 -0.048133 -0.479047 -0.071121 -0.475235 0.192333 1.154450 0.828474 0.326618 -0.913672 -0.789996 -0.558336 -0.537430 0.398251 -0.100118 0.664399 0.896902 0.657342 0.288414 -0.233467 -0.550070 0.064503 -0.516356 0.214318 -0.005238 0.601421 0.215396 -0.291065
GlobalSpecies0051 -0.360701 0.494685 0.925697 0.135788 0.404903 -0.435369 0.961579 0.410734 0.058293 -0.864794 -1.194350 0.329461 0.151176 0.261954 -0.159518 0.604857 0.597616 0.954877 -1.062951 0.339114 -0.049236 -0.080187 -1.180292 -0.208241 -0.907314 1.298068 -0.403650 0.159733 0.986659 0.196893 -0.383270 1.395869 -1.061958 -1.551418 0.909077 -0.547326 -0.966247 -0.320249 0.988354 -1.336760 -0.171315 0.664895 1.197491 0.386095 0.386620 1.511459 0.787150 0.762398 2.009776 -0.231254 0.855804 -0.502221 -0.138705 0.621647 0.252441 -0.256574 -0.513493 -1.004630 -1.037530 -0.772125 0.141518 0.778294 -0.197905 0.485322 0.973473 0.882865 0.275501 -0.667812 0.087517 -0.891798 1.252272 0.361576 0.271760 -0.424957 -0.135870 -1.588267 0.636742 -0.019658 0.311007 -1.615000 0.962419 -0.698419 0.026074 0.433234 -0.052938 0.930599 -0.747310 0.989146 0.218848 0.045830 -0.012635 -1.580702 0.223096 -0.134457 0.214943 -0.217973 -0.799937 -0.952460 -0.029641 0.266351
GlobalSpecies0052 -1.190749 -0.539379 -1.292806 1.196569 -1.204761 -0.217226 0.125520 0.359147 -0.146870 -0.251456 -0.799988 -0.332976 0.062765 -0.393009 -0.218842 1.046649 -1.306533 -0.353214 0.737013 -0.275860 -0.253201 -0.853922 -0.496329 0.657538 1.102941 0.872451 -0.231765 -0.554882 -0.712318 -0.204543 -0.892278 -0.002990 -1.035515 -0.183061 0.003168 -0.000907 0.021385 0.888781 0.039584 0.161248 -0.796298 -0.077056 -0.632265 -2.188973 -1.508261 0.259898 -0.210305 -1.301317 -0.118286 0.402584 -0.648435 -0.885209 -0.230740 0.428828 -0.258146 0.357088 0.618094 -0.498882 0.827017 0.151538 -0.301889 -1.352534 1.720906 0.361022 0.136753 -0.335795 1.235716 0.105232 0.670424 -0.500546 -0.098740 0.137977 0.594245 -0.910379 -0.191532 -0.068717 -0.044567 0.144313 0.518294 -1.428532 0.702586 0.336935 0.679026 1.276186 -1.429700 0.829363 -0.035520 -0.353476 -0.230537 0.552050 0.497792 0.966416 -0.195419 0.436114 -0.060610 0.434797 -0.078999 -0.386956 -0.588462 1.268999
GlobalSpecies0053 -0.010994 -0.330050 0.055481 0.662626 -0.184405 -0.246949 0.609718 0.089912 -0.208118 -0.490800 0.005363 0.346093 -0.047441 0.409586 -0.044735 0.048725 -0.065667 0.060641 0.194856 -0.519132 0.384474 0.144015 -0.393684 -0.231912 0.528417 -0.154118 0.262759 0.742309 -0.233554 -0.372775 0.133136 0.517341 -0.297167 -0.112959 0.146161 -0.020257 0.160985 -0.066258 -0.006546 -0.521956 -0.449829 -0.109815 -0.090628 0.392461 0.226720 -0.175405 -0.119705 -0.476674 -0.919829 -0.024364 -0.491217 0.166207 0.449554 -0.483638 0.117039 0.417151 -0.042148 -0.535439 -0.024817 -0.107244 0.649923 -0.002417 -0.526956 -0.063707 -0.155173 0.162010 -0.681753 0.381431 -0.506124 0.239339 -0.073794 -0.375208 0.062862 -0.019285 0.072695 0.001771 0.224030 0.228356 0.377474 -0.223378 0.198473 0.434733 -0.075394 -0.214904 0.238846 -0.104645 -0.513440 -0.335678 0.121200 -0.184440 -0.090640 0.599305 0.482339 -0.191577 -0.128907 -0.420237 0.126427 -0.371367 -0.413926 0.034961
GlobalSpecies0054 -0.224749 0.343309 -0.396865 -0.040573 -0.182305 0.489657 -0.057850 -0.178413 0.320941 0.307874 0.347426 0.033509 -0.552973 -0.500998 0.059153 -0.033239 0.094208 -0.332516 0.188328 -0.010451 -0.164898 -0.182241 -0.127990 0.369986 -0.318914 0.105334 0.353654 -0.433581 0.063008 0.100667 -0.024630 -0.367439 -0.057810 0.031311 -0.347371 0.111700 -0.138656 -0.050632 0.291641 0.081480 -0.170733 0.260333 -0.537482 0.065941 -0.126161 0.223271 -0.269540 0.099903 -0.069268 0.468416 -0.054973 0.049605 0.212001 0.030546 -0.239086 -0.171214 0.400862 0.430567 0.742367 0.264183 -0.090453 -0.097398 -0.764495 -0.020887 -0.325667 0.029412 -0.396073 -0.000759 0.201264 0.093222 -0.045705 0.246662 -0.431458 -0.123929 -0.248732 -0.260612 -0.029823 -0.045792 -0.096479 0.036076 0.259420 0.245327 0.350232 -0.158806 0.598739 -0.217495 0.186403 0.072416 0.106294 0.362559 -0.009535 -0.033261 0.054277 -0.162221 -0.380454 0.015287 0.161904 -0.082244 0.090140 0.431447
GlobalSpecies0055 0.483923 0.160075 -0.247396 -0.126675 0.097262 0.224405 0.129018 0.035091 0.156425 0.460329 -0.404575 0.451289 0.451386 0.039628 -0.032715 -0.315999 0.242813 -0.214188 0.243217 0.244043 0.251649 0.086852 0.032869 -0.055634 -0.176392 -0.359254 -0.449804 -0.261603 -0.058951 -0.361502 0.083821 0.735453 0.031621 -0.211293 0.246319 0.413473 -0.744557 -0.629011 0.006190 0.040915 0.337768 0.105980 0.013446 0.121117 0.472133 0.352559 0.003350 -0.174725 -0.426735 -0.273814 -0.005539 0.239875 -0.004113 -0.314843 -0.130114 0.229838 -0.483175 -0.276121 0.027525 0.404402 -0.213707 0.417629 0.171767 -0.267818 -0.235817 -0.552286 0.368770 -0.193191 -0.391634 -0.016896 0.119905 0.239737 0.442991 0.108968 0.476660 0.110781 0.034888 -0.698530 0.020765 0.106947 -0.198499 -0.227985 -0.181760 0.143724 0.152359 -0.139720 0.069855 -0.052708 0.170394 -0.128287 0.061493 0.061593 -0.253174 0.044993 0.231531 0.096188 -0.113578 -0.098006 0.258552 0.116227
GlobalSpecies0056 0.618033 0.224313 0.759726 0.990004 -0.120767 -0.022529 0.417618 0.119758 -1.334275 0.507989 -0.627783 -0.521263 0.169509 0.361376 1.303292 -0.603687 -0.331420 0.170260 0.798463 0.227832 -1.181325 0.418449 0.029410 0.895350 1.111680 2.086286 0.115367 0.112784 0.233569 0.649868 -0.029922 -0.014759 -0.790570 0.065691 -0.117662 -1.253638 -0.313969 -0.888781 0.039858 -0.510114 0.051030 -0.420889 0.029347 -0.361711 0.638881 -0.160405 1.216818 0.821998 0.632660 0.325410 -0.278343 -0.341630 -0.508709 0.409302 1.034578 0.355388 0.754707 0.149763 0.451809 -0.113067 0.229319 0.416590 -0.113073 1.378398 0.106875 0.068658 -0.850756 1.111858 0.074505 0.066763 -0.734457 -0.752686 0.226285 -0.426141 1.423954 1.013418 0.063554 -0.582384 0.454925 -1.074105 0.643237 -1.013731 -0.883073 0.117533 -0.230169 -0.250530 -1.734464 0.602598 0.733270 0.715730 1.121881 -1.075565 0.457702 -0.502712 0.003308 -0.153761 -0.161417 1.044635 0.404309 -0.126279
GlobalSpecies0057 -0.750353 -0.021993 -0.116585 0.434618 -1.119342 -0.161670 -1.341936 0.035445 0.073682 0.995737 -0.282914 -0.484614 -0.206201 -0.767465 0.309753 0.713588 -0.334134 -0.728743 -0.374127 -0.033422 -0.897193 0.382885 -0.510300 -0.297808 0.365970 0.890327 -0.158186 -0.214879 -0.421878 -1.104853 -0.066363 0.154379 -0.351562 -0.224880 0.265317 -0.825399 0.011490 0.716844 -0.409899 0.336681 0.102634 -0.567101 -1.103430 0.649372 -0.205277 -0.108800 0.323892 -0.515851 0.836890 0.235159 0.393755 0.568272 -0.157172 0.092553 0.013096 0.382148 -0.271098 1.161853 -0.977346 0.491286 -0.340286 -0.076735 0.086900 -0.491450 -0.617279 0.568941 -0.112470 0.009437 1.091524 0.449131 0.186671 -0.573798 0.191677 -0.309730 0.182714 -0.385779 -0.308217 -0.592325 -1.630183 -0.930958 -0.648928 -0.189012 0.022945 -0.602185 -0.692015 0.068350 0.035855 1.038093 -0.002502 -0.479990 0.207306 0.341947 0.327898 -0.419660 -0.114675 -0.154073 -0.362974 0.667179 -0.994809 0.718669
GlobalSpecies0058 -0.497874 -0.167984 0.511401 -0.145368 0.400069 -0.468658 -0.196896 -0.071541 0.524935 0.271261 0.858799 0.142399 -0.008683 0.185466 0.273552 0.659124 0.030927 -0.244631 -0.445699 -0.287266 -0.121751 -0.140891 -0.448009 -0.445995 0.948891 0.681706 0.834685 0.235981 -0.393433 -0.236457 0.255303 0.780488 -0.019630 -1.095330 0.207296 -0.199115 0.432922 0.407003 -0.392430 0.348860 0.204427 0.423939 -0.836457 0.871251 0.709904 0.435178 0.181524 0.370427 -0.808438 0.955229 0.046680 0.797120 -0.492697 -0.176823 0.264754 0.329344 -1.005790 -0.122681 1.051934 -0.256312 0.437833 0.732665 -0.739334 0.331072 0.535695 -0.534992 0.275614 0.527832 -0.640275 -0.979206 0.565940 0.423559 -0.378361 -0.324528 0.598993 0.703881 -0.156922 0.341740 0.126805 0.317294 -0.158858 -0.487449 -0.489279 -0.215296 0.204805 -0.904176 0.756599 -0.631913 -0.227281 0.333717 0.092170 0.354838 -0.376702 -0.213228 -0.782800 -0.555434 -0.085036 -0.545257 1.022911 -0.342270
GlobalSpecies0059 0.037790 0.774979 0.432209 -0.002482 -0.244221 -0.451670 0.348087 -0.137191 -0.598965 0.803934 -0.100142 0.140602 0.810747 -0.271101 -0.277212 0.224051 -0.198073 -0.562852 -0.429350 0.191570 0.135786 0.329009 0.498829 0.056642 -0.073063 0.301864 0.129805 0.295766 -0.305605 0.831931 -0.514658 0.224577 0.257106 -0.158604 -0.227054 -0.786131 0.498895 -0.364261 -0.864217 0.193562 -0.129236 -0.059108 0.449837 0.436081 0.390605 -0.198194 0.225355 0.553250 0.607570 -0.401896 -0.149549 -0.638096 0.235319 0.602854 -0.566701 0.011635 0.362557 -0.212429 0.458396 0.530589 0.158890 -0.481680 0.347372 -0.090597 -0.330563 0.409298 0.086396 -0.188521 0.008450 0.072111 -0.033108 0.253349 0.076040 -0.030311 0.141361 -0.172800 0.409803 0.452344 0.225890 0.269420 -0.266587 0.016129 0.387755 0.454256 -0.176719 0.046834 -0.168636 0.267162 -0.374557 -0.289063 0.150723 -0.153886 0.394020 0.547285 0.136446 0.093542 -0.910488 -0.145202 -0.700905 -0.626892
GlobalSpecies0060 -0.453553 0.504157 0.165294 0.545139 0.337999 0.221363 -1.255144 0.736001 -0.525534 0.042050 -1.021621 -0.755550 -0.487927 0.435949 -0.645883 -0.890096 -0.159640 0.586593 -0.002139 -0.148369 0.604791 0.172111 -0.076326 0.285151 1.107792 0.328370 0.429947 -0.142267 -0.644638 0.019607 0.299430 -1.089043 0.697650 -0.452937 0.130109 -0.551320 -0.820518 -0.831807 -0.866882 -0.441182 0.101483 -0.581695 0.049785 -1.765702 -1.266750 0.196528 0.777152 0.411288 0.670323 -1.514313 -0.047234 0.197722 0.433030 -0.869747 0.532204 0.221498 -0.549974 1.133111 0.103599 -1.278835 0.132487 1.031457 -1.098861 -0.301144 -1.327418 0.331602 0.406402 0.814473 0.660616 0.555325 0.019979 0.789594 1.251924 0.097839 0.014324 1.169531 -0.908353 0.494495 0.040669 -0.865328 0.983639 0.161706 -0.205504 -0.085873 -1.614613 0.249797 -0.477095 -0.422495 0.234756 -0.171285 -0.975788 -1.416278 -0.735478 0.221644 1.000194 0.718852 0.177279 -0.776223 1.717230 -0.247198
GlobalSpecies0061 -0.384657 0.243300 -0.166480 0.175552 0.856166 -0.502756 0.727273 -0.259364 -0.130806 0.745832 -0.691465 0.127138 0.289861 -0.166508 0.326318 0.515585 -0.486331 0.229440 0.363733 0.048373 0.102587 -0.484101 0.368079 0.289965 -0.824733 -0.457286 -0.251678 0.616768 -1.418280 0.121421 0.733211 -0.456937 0.345845 -0.483041 -1.301674 0.620902 -0.014057 1.290609 -0.566192 -0.507078 0.835227 0.077863 0.185336 -0.336505 -0.381642 -1.161243 -0.614529 -0.538782 -0.891012 0.150590 -1.269285 -0.198550 -0.919862 -0.021224 -0.066033 -0.594746 0.759129 0.467854 0.544120 0.224401 -0.213264 -0.076431 0.098400 0.404456 0.208327 0.339798 -0.073309 -0.191805 -0.286387 -0.151248 0.211782 0.598264 -0.225892 -0.136515 -0.085707 -0.557060 -0.875782 -0.008352 0.076153 -0.993285 0.512473 1.652880 0.336420 0.453301 -0.145177 -0.661941 -0.478090 -0.340825 0.851383 -0.036899 0.693318 -0.825295 -0.290413 -0.569479 -0.565644 -0.518145 0.966651 -0.003566 0.482420 0.235879
GlobalSpecies0062 -0.363325 -0.258299 -0.083165 -0.189040 -0.147215 0.139500 -0.049482 0.286251 -0.452399 0.224451 0.120408 0.104720 -0.074359 0.109428 -0.110932 0.165245 -0.208108 -0.520214 -0.165087 0.027461 0.280856 -0.150741 0.145417 0.053289 -0.263250 -0.469030 0.165433 -0.093663 -0.043439 -0.224068 0.452345 0.028672 0.012540 0.213467 0.088698 -0.084644 0.246700 -0.088928 0.285121 0.163712 0.592355 -0.033731 -0.595057 0.048843 0.549751 -0.442255 0.203712 0.268685 -0.288647 0.122175 0.044277 0.114071 0.215448 0.530451 -0.100657 0.250938 -0.068199 0.127279 -0.475917 0.242851 -0.102873 -0.152975 -0.039496 0.342535 -0.033761 -0.191029 -0.075313 0.050404 -0.251116 -0.141394 0.381003 0.008462 0.036328 0.239707 -0.323083 -0.156349 0.066342 -0.048748 -0.261386 -0.221176 0.833759 -0.168218 0.084539 -0.373634 -0.037611 -0.122309 -0.283713 0.145874 -0.136561 0.201607 0.365836 0.358992 -0.230273 -0.275558 -0.047871 -0.135632 0.037629 0.461423 0.447584 -0.052056
GlobalSpecies0063 0.153451 0.235925 -0.657715 0.451907 0.536021 0.062747 -0.165043 -0.586000 -0.080184 0.608572 -0.609751 -0.271348 0.449938 0.186669 -0.088218 0.387222 -0.028891 0.215870 -0.011758 -0.019067 -0.799403 0.209131 -0.482658 0.940560 -0.641567 0.175012 0.439792 1.307632 -0.022537 0.008770 0.462634 -0.308350 -0.069477 -0.223354 -0.270523 -0.044060 0.237460 0.042255 0.393062 0.713662 -0.080099 -0.134291 -0.630111 -0.039108 0.079732 -0.142389 0.314104 0.689089 -1.100223 0.357187 0.628151 0.204134 -0.503260 0.162704 -0.210364 -0.828236 -0.142990 0.557393 0.077592 0.457846 -0.628454 0.430337 -0.113317 -0.272962 0.092150 -0.295767 0.150615 0.941783 -0.086531 0.374980 0.065910 -0.405105 -0.270383 0.324923 -0.180172 -0.269790 0.248823 0.253988 0.219698 -0.576052 0.222975 -0.695905 -0.524536 0.256904 -0.476187 0.115083 0.492986 -0.546572 -0.157563 -0.412355 0.104748 -0.341736 0.435347 -0.047698 0.494782 0.455611 -0.120438 0.517886 0.161181 -0.696390
GlobalSpecies0064 -0.177679 -0.029929 -0.150888 0.074701 0.029722 0.565668 -0.130108 -0.133750 -0.100230 -0.171756 -0.431771 -0.012509 -0.044573 0.239480 0.462631 -0.139281 0.249934 -0.241087 0.227775 0.079196 0.064740 -0.242224 0.346851 0.323312 0.229880 0.252958 -0.364584 0.424121 -0.148691 0.081867 -0.036223 0.461928 -0.417132 0.211841 0.083588 0.370726 0.246868 -0.166175 -0.265952 0.454669 -0.420192 -0.096543 -0.131467 0.322650 0.416706 0.246616 -0.017991 -0.005881 -1.191681 0.051052 -0.285433 0.169772 0.530965 0.281280 0.180421 0.388516 -0.065277 0.508755 0.248809 0.406328 0.427873 -0.624297 -0.082881 -0.039507 -0.160123 -0.179545 0.155256 -0.144683 0.350091 -0.091927 0.203182 -0.187792 -0.198414 0.200765 0.662848 -0.247423 0.170103 -0.463912 -0.003089 0.706578 -0.102903 -0.133975 0.411032 -0.360028 0.413027 0.331988 0.248799 -0.006476 -0.158230 0.236153 -0.172636 -0.110938 -0.014148 0.277417 0.342982 0.213551 -0.156081 -0.163227 -0.507688 0.032202
GlobalSpecies0065 -0.180566 -0.424022 -0.429686 0.175078 -0.072986 0.207885 0.527812 -0.361642 0.445343 -0.136393 0.543594 0.840324 -0.130190 -0.076381 -0.026524 0.000126 -0.136914 -0.075281 0.421725 0.416282 -0.343856 -0.087205 -0.281260 -0.374948 -0.273566 -0.693374 0.058123 0.047529 0.106128 -0.285282 0.620568 -0.925104 -0.075428 -0.576777 0.227058 -0.043302 0.709207 -0.297654 -0.308486 -0.024231 0.057456 -0.589314 -0.412806 0.177889 -0.043877 0.365386 -0.431541 -0.667896 -0.149837 0.112033 -0.335023 0.185969 -0.312490 -0.180235 -0.210051 0.540822 -0.384303 -0.167730 0.152490 0.704985 0.650935 -0.194904 -0.275968 -0.081295 0.257994 0.399144 -0.568144 -0.466559 -0.094553 0.016280 -0.629986 0.464479 0.077923 0.461364 -0.296508 0.445456 0.051520 0.329249 -0.281252 0.097758 -0.149232 -0.208245 -0.249798 1.087340 0.120960 0.484042 0.043557 0.073274 -0.429775 -0.066343 0.111495 -0.320393 -0.236191 -0.037269 0.543064 0.007909 -0.126491 -0.111065 -0.046335 -0.275213
GlobalSpecies0066 0.253503 -0.059561 0.069373 -0.260027 -0.063982 0.095357 -0.018784 0.037703 -0.097586 0.059085 0.415599 -0.214513 0.141578 -0.209094 -0.208344 -0.099407 -0.183857 -0.447048 -0.035457 0.112358 0.296622 0.057531 0.126780 0.225247 0.238858 0.014890 -0.116197 0.067081 0.445756 0.057820 -0.054061 0.219102 0.080940 0.154432 0.257132 0.057319 -0.065960 -0.100360 -0.042242 0.114519 0.130148 0.055454 0.106792 0.081491 -0.273574 -0.067649 0.017417 0.033266 -0.018476 0.174022 -0.069898 -0.073882 -0.017813 -0.045325 -0.445773 -0.284071 0.243978 -0.023646 -0.031190 0.043182 0.082109 -0.413438 0.067329 -0.311297 -0.272110 0.402348 -0.311538 -0.020768 -0.054132 -0.032877 -0.141449 0.148677 0.068719 0.069362 0.037867 -0.060083 -0.100793 -0.115005 -0.029545 0.052071 0.350692 0.365903 -0.053004 -0.141568 -0.021233 -0.052286 0.234216 -0.079685 0.047345 -0.017679 -0.302444 0.672429 0.153726 -0.130275 0.164823 0.237201 0.288648 -0.225795 0.359945 -0.287220
GlobalSpecies0067 -0.032273 -0.189652 -0.113542 -0.060729 0.560315 0.148269 -0.227302 0.101012 -0.267578 0.400186 0.623472 0.225580 0.190881 -0.450504 0.187213 0.182574 -0.557439 -0.118025 1.378033 -0.043826 -0.148011 -0.566487 0.598752 0.936201 0.330474 0.105020 0.884137 -0.198174 -0.670364 0.560090 -0.417885 -0.063885 0.471098 -0.866899 0.509543 -0.130655 0.220502 -0.596675 -0.285422 0.235565 0.194410 0.689686 -0.005743 -0.097169 -0.290745 0.583929 0.070371 -0.653028 -0.341135 -0.266305 0.410434 -0.718051 0.722383 0.156014 -0.189696 -0.273231 -0.380353 -0.375241 -0.197928 -0.540745 0.542870 0.082752 -0.202349 -0.294203 -0.697493 0.184151 0.457198 -0.698029 -0.895726 -0.127653 -0.572553 0.136961 0.472891 0.009754 -0.128860 -0.287330 -0.447437 -0.637859 -0.098845 0.028316 -0.678531 -0.581013 -0.191169 -0.103716 -0.168471 0.015123 -1.246820 -0.032201 0.084163 -0.044400 0.237970 -0.990469 -0.481771 -0.111875 -0.134991 0.173503 -0.054576 0.021024 -0.490154 0.225734
GlobalSpecies0068 0.099415 -0.046482 0.139766 0.023860 -0.426195 -0.138279 -0.040019 0.029912 -0.098851 -0.016564 0.162467 0.124402 0.052780 -0.028288 -0.086148 -0.025810 0.024255 -0.186060 -0.196375 -0.211884 0.182400 0.059605 0.136516 -0.009043 -0.085998 -0.080639 -0.345643 -0.084316 0.082625 -0.128855 -0.098008 -0.145712 0.002210 0.140008 0.094699 0.175818 -0.049961 0.036403 0.208332 -0.072173 -0.058974 0.017328 -0.007441 0.027062 0.064563 -0.311143 -0.259994 -0.116780 -0.197339 -0.057545 0.014327 0.276820 0.009471 -0.127456 -0.108903 0.107433 0.303262 -0.633516 0.090900 -0.043578 -0.221821 -0.109601 0.437606 0.096772 0.068708 -0.004054 -0.251417 -0.230343 -0.040568 0.120582 -0.313845 -0.011632 -0.290572 -0.064798 -0.041819 -0.265381 0.063402 -0.323422 -0.241520 -0.024495 -0.054223 -0.328968 0.037038 0.009944 -0.005934 -0.087286 0.088987 -0.016278 -0.084452 0.219394 -0.061434 0.149743 -0.176579 -0.038148 0.105048 -0.204854 -0.015036 0.059281 0.020144 0.058719
GlobalSpecies0069 0.444838 -0.011354 0.324244 -0.463242 -0.414259 0.126169 0.053877 0.479612 0.060260 0.143953 -0.106459 -0.099667 0.368505 -0.094295 -0.018261 0.519100 -0.243783 -0.329660 -0.438869 -0.011701 0.214933 -0.098175 -0.458346 -0.408102 0.010185 0.003031 0.446075 -0.032796 0.305263 0.598083 -0.145280 0.329345 -0.344542 0.310913 -0.611315 0.380369 0.349651 0.138922 0.456568 -0.634069 0.305086 0.067040 0.570770 -0.043561 0.325585 -0.484351 0.056202 -0.295819 0.451552 0.754516 0.482226 0.506488 -0.095066 -0.623152 -0.484755 1.052443 -0.726146 0.335457 -0.397708 -0.031175 -0.410776 0.457771 0.683981 -0.458389 0.147645 -0.595046 0.628939 -0.145819 0.707936 0.092121 0.218139 0.547514 0.403402 0.281751 0.359205 0.441107 -0.194365 0.230267 0.549899 0.468815 -0.086457 -0.022055 0.425081 -0.306197 0.580395 -0.249804 -0.080632 -0.012603 -0.498310 -0.288484 -0.481523 0.369824 0.057142 -0.032141 -0.617972 0.236853 -0.499519 -0.387086 0.293020 -0.208055
GlobalSpecies0070 -0.387108 0.260154 -0.127423 0.216334 -0.047025 0.257160 0.269517 0.161347 0.002496 -0.064970 0.505535 0.141360 0.153150 -0.395097 -0.027199 -0.103093 -0.126305 0.203074 0.101716 0.172433 -0.127059 -0.085468 -0.565614 -0.135651 -0.139673 -0.181943 -0.106936 -0.606371 0.372801 -0.128671 -0.419538 0.137030 -0.087842 0.044164 -0.188775 -0.249954 -0.068621 0.130006 -0.003596 -0.252257 0.055248 0.069007 -0.105705 0.167212 0.174982 -0.146721 0.147678 0.132167 -0.081442 0.075329 0.109020 -0.132258 -0.033693 0.045085 -0.081733 0.391924 -0.304726 0.403259 -0.256638 0.199817 0.109691 0.026123 -0.233977 0.167542 -0.102305 -0.106879 0.012175 -0.208918 -0.313603 0.272505 -0.197473 -0.058713 -0.138572 0.323389 -0.149781 0.240337 0.244179 0.302876 -0.166068 0.112218 0.084693 -0.072330 0.043822 0.275184 0.437431 -0.066735 -0.010658 0.123413 0.098713 -0.047556 0.222992 0.094982 -0.075665 -0.082131 -0.018844 0.125871 0.052124 -0.066078 0.228539 0.018973
GlobalSpecies0071 0.046005 -0.111030 0.096725 0.908686 -0.376696 0.271247 -0.296877 -0.307924 0.301286 0.719690 -0.430290 -0.315178 -0.761121 0.505604 -0.357027 0.220754 0.820181 0.211823 -0.017036 0.695034 -0.511766 0.539469 1.113303 0.538527 0.707445 0.041039 -0.238016 -0.179256 0.301244 -0.280108 -0.069010 0.080924 0.406442 -0.420656 -0.568271 -0.980578 -0.553136 0.286659 -0.424912 0.196290 0.820179 -0.248855 0.169340 0.183258 -0.696062 0.026277 0.144963 -0.773952 0.311609 0.473377 0.368552 -0.631463 0.237369 0.642075 -0.879577 0.167561 -0.861589 0.571519 0.745149 -0.361356 0.278845 0.038764 0.580244 0.451394 0.449882 0.219072 0.592500 0.418953 0.038622 -0.516720 0.026783 0.283030 -0.706660 -0.047456 -0.882011 -0.326204 -0.318923 -1.055188 0.106658 0.110752 0.480655 0.233955 0.004329 -0.122617 -0.361427 0.118888 0.363944 0.037309 0.197247 -0.404198 -0.501960 0.051165 1.123113 0.166291 0.073799 0.186139 -0.057683 0.330524 -0.273597 0.282025
GlobalSpecies0072 0.113843 0.087531 -0.304334 0.144936 0.657142 -0.146101 -0.393415 -0.079840 -0.073896 0.190243 0.365144 0.388734 0.003017 -0.170687 -0.264524 0.007955 0.470514 0.158870 0.124866 0.334666 -0.083099 -0.264164 -0.498174 -0.184696 0.042757 0.495854 0.074251 -0.368792 0.134807 0.146691 -0.070459 -0.423050 0.054349 -0.124153 -0.113480 0.334896 -0.558644 0.359616 -0.230596 0.136106 -0.428920 -0.091925 0.272518 0.151434 0.113144 0.156032 0.197352 -0.336953 -0.167519 -0.129025 -0.420816 -0.279270 0.072846 -0.600956 0.320469 -0.208115 -0.473887 -0.344326 -0.221606 0.417721 0.046170 -0.198208 0.204246 0.432465 -0.723007 -0.414870 -0.184468 -0.385225 -0.060991 0.301083 0.416601 -0.341688 -0.403512 0.051270 0.063995 0.243636 -0.080843 0.108050 -0.050469 -0.415601 -0.088392 -0.114187 -0.232812 0.575285 -0.146389 -0.111053 0.033815 0.355826 0.147826 -0.165369 0.127202 -0.083779 -0.039892 -0.382606 0.619209 0.106586 -0.202111 -0.238076 -0.133623 -0.046340
GlobalSpecies0073 0.001306 -0.216392 0.081704 -0.137847 0.173242 0.540921 0.133092 0.336879 -0.181217 -0.434644 -0.047137 -0.196718 0.274306 0.131336 0.099824 0.231870 0.186894 0.152371 -0.421104 0.168523 -0.107087 -0.066364 -0.489898 -0.025245 0.257385 -0.280713 0.167623 -0.006465 0.581516 -0.026370 0.493555 0.208180 0.336263 0.322983 -0.233393 0.574154 -0.353146 -0.097526 -0.298355 -0.076746 -0.210346 0.543918 0.528313 -0.049374 -0.344380 0.154290 -0.534007 -0.225111 0.086766 0.131898 -0.205312 0.304771 0.210381 -0.117128 0.544559 0.304522 0.289653 -0.438758 0.056493 0.374336 -0.298605 -0.026487 0.092820 -0.241081 -0.235177 -0.008362 0.231059 0.046640 -0.240705 0.297422 -0.689009 -0.261803 -0.242981 0.310802 0.038099 -0.419701 0.520872 0.101172 -0.226308 -0.118259 -0.027035 -0.123935 0.419076 0.064497 -0.019847 -0.100744 -0.091472 0.212596 -0.018546 0.029301 0.158326 0.080297 0.122285 -0.067974 -0.237101 -0.219923 -0.466264 0.230450 -0.004910 0.642659
GlobalSpecies0074 -0.248650 0.392036 -0.182323 -0.019278 -0.325883 0.187478 -0.193667 -0.053957 -0.045808 0.217347 -0.086375 0.098651 0.539679 -0.203240 0.094465 -0.419491 -0.392788 -0.475676 -0.103647 -0.000803 -0.064802 0.084293 -0.144345 -0.061702 0.283491 -0.345869 -0.203286 -0.749814 0.020287 -0.358514 -0.069768 -0.630180 0.179894 0.213051 -0.402727 0.304756 0.305746 -0.060434 -0.215254 0.244570 -0.061263 0.275648 -0.024162 -0.081520 -0.161508 -0.303998 0.260230 0.108830 -0.345304 0.221329 -0.048614 -0.167700 -0.028701 0.593990 0.246081 -0.147838 0.003870 0.223508 0.413671 -0.112012 -0.010811 -0.203263 0.169914 0.383700 -0.072015 -0.031657 0.240419 -0.187415 -0.232773 -0.170793 0.381977 -0.112877 -0.028561 0.140371 -0.256150 0.182938 0.139344 0.057198 -0.198613 -0.235628 0.276539 0.231882 0.286549 -0.079842 0.281676 0.111111 0.265183 0.577572 0.194206 -0.036914 -0.142198 0.087048 -0.108562 -0.217551 0.251458 -0.147587 0.125534 -0.309582 0.410940 -0.211748
GlobalSpecies0075 0.095775 0.701551 0.002478 -0.160131 -0.163946 0.471340 0.112536 -0.490931 0.441628 -0.627710 -0.104857 0.494155 0.482410 0.234020 0.063216 -0.276984 -1.215447 0.025112 0.276486 0.068065 0.144260 0.041770 0.535533 0.065529 0.290647 0.277923 -0.329801 -0.476355 0.113535 -0.576032 -0.250203 -0.549693 0.019596 -0.390031 -0.083192 -0.105856 -0.409544 0.002234 0.334779 -0.395441 0.711590 0.045395 0.252462 0.443809 -0.311985 -0.620152 -0.106685 -0.255128 0.565087 -0.591785 0.342480 -0.072608 0.678493 0.048241 -0.010585 -0.031449 -0.407333 0.059546 -0.116637 -0.540652 -0.019229 -0.111864 0.535735 -0.348783 -0.009670 -0.094816 -0.342110 -0.193916 0.230943 0.306530 0.070477 -0.505907 -0.118360 0.075330 0.238846 -0.583588 -0.253998 0.676603 0.089144 0.025318 0.233459 0.405352 0.759524 0.488253 0.320907 0.463249 0.631428 -0.354070 -0.478601 0.683468 -0.518271 0.006978 -0.681424 -0.160896 -0.185751 0.228929 0.069593 -0.227468 -0.295912 0.148308
GlobalSpecies0076 -0.082218 -0.099740 -0.094656 -0.468332 0.160634 -0.307185 0.248460 0.114287 -0.173287 0.076251 0.277603 0.238195 0.164478 0.123268 -0.180411 -0.179803 0.088610 -0.075559 -0.025182 -0.287604 0.064433 0.145654 0.048180 0.066034 -0.117969 -0.119584 -0.082358 0.207819 0.348750 -0.057962 0.000987 0.233802 -0.133563 0.238212 -0.051501 0.159048 -0.325413 -0.148552 0.277679 0.001598 -0.076382 0.325302 0.205219 0.010201 0.107782 -0.168236 0.217650 -0.242109 -0.055676 -0.190083 -0.234083 0.177522 -0.043336 -0.178451 -0.022862 0.472442 0.170804 -0.061792 -0.057794 0.073849 0.024979 -0.151620 0.005919 -0.050878 0.065329 0.177477 -0.298173 0.038783 -0.140429 0.086207 0.079376 -0.070356 0.037468 -0.155954 -0.225396 -0.254047 0.237310 -0.331603 -0.184728 0.326622 0.078688 -0.024048 -0.211419 -0.171038 0.065606 0.002810 -0.035666 -0.064445 0.246302 0.104176 0.140896 -0.109959 -0.146000 0.080727 -0.009209 -0.169926 -0.181611 0.195292 -0.022618 0.224328
GlobalSpecies0077 0.076129 -0.457571 0.183060 -0.324415 0.546791 -0.041981 0.235023 -0.212056 -0.274429 -0.097937 0.032601 0.028172 0.067798 0.161477 0.109677 -0.268861 0.269113 0.309310 0.435881 0.358683 -0.008303 -0.032157 -0.178209 0.342974 0.034041 -0.088054 -0.098058 0.000766 0.171003 -0.202159 -0.077821 0.066314 0.028618 0.131627 0.181920 -0.199270 0.032945 -0.349049 -0.040545 -0.094801 -0.134240 -0.024334 0.165160 0.333957 -0.302046 0.314880 0.141235 0.104954 -0.261819 -0.116036 -0.026974 0.062747 -0.480728 0.062423 -0.130382 0.112130 0.258400 0.224000 0.313110 0.126231 -0.225270 0.270263 0.070752 0.175529 -0.186667 0.171853 -0.185150 -0.106432 0.410697 -0.263702 0.337429 -0.067322 -0.089810 -0.009318 0.099108 -0.107298 0.427775 -0.085806 0.130147 0.196662 -0.141145 -0.283111 0.137584 -0.280051 0.381057 0.158015 -0.140717 -0.205755 0.094676 0.260869 0.091707 0.692335 0.037742 0.602196 0.121585 0.166766 -0.113077 0.051139 0.280482 -0.162628
GlobalSpecies0078 0.452686 0.397102 -0.105378 0.156222 -0.208812 -0.265313 -0.098067 -0.236233 0.195623 0.321449 -0.556738 0.055915 -0.784213 0.114742 -0.440881 0.342401 0.241691 0.251676 -0.284603 0.274467 -0.127953 -0.285003 0.177523 -0.085912 -0.100484 -0.530475 0.535778 -0.288846 -0.289963 0.069436 0.416611 0.184701 -0.265755 -0.081027 -0.262959 -0.252163 0.347689 -0.105810 0.455240 0.370289 0.081369 -0.356620 -0.104266 0.369891 -0.200926 -0.311976 0.270819 0.142704 0.352969 -0.310101 0.521343 -0.465602 0.098861 -0.257296 0.026226 -0.072118 -0.572999 0.263990 0.707131 -0.681832 -0.221590 0.307640 0.248658 -0.176055 0.295235 -0.121671 0.033988 -0.222957 -0.441463 0.010182 0.335230 -0.022638 0.282163 0.162726 -0.459009 0.326873 0.083034 0.225717 0.669997 0.063518 0.007426 0.224324 -0.038860 0.095471 0.169185 0.172027 0.503759 0.406451 -0.373602 0.244789 -0.189284 0.252045 0.055717 -0.085405 0.211379 0.399134 -0.142897 -0.222132 0.169341 -0.230257
GlobalSpecies0079 0.534808 -0.504641 -0.036344 0.016884 0.376919 0.056297 0.090863 -0.384746 0.076404 -0.942671 0.187191 0.465501 -0.138031 -0.230329 0.168918 -0.264656 -0.423597 -0.300560 0.740167 0.408278 0.881510 0.165746 0.065466 -0.596219 0.162364 0.295761 0.665622 -0.505691 0.006829 0.720070 -0.248588 -0.179882 0.476094 0.138233 0.596636 1.026135 -0.124319 -0.483295 -0.275608 -0.038919 -0.126992 0.208821 -0.222444 -0.523941 0.004334 -0.307590 -1.213635 0.260865 1.036603 0.451653 0.497336 0.255163 0.027863 0.088640 0.173551 0.021161 0.498716 0.675955 -0.287079 0.101661 -0.264348 -0.165059 0.353873 0.979456 -0.771620 -0.425982 0.277704 -0.194389 0.383729 0.558645 -0.446571 0.532629 -0.178105 0.526190 0.474130 0.310210 -0.859091 0.117705 0.721215 -0.163510 1.133516 0.172065 -0.284329 -0.004719 -0.581808 -0.215163 -0.020387 -0.319749 0.279340 -0.431103 -1.087950 -0.029869 0.316391 0.090014 0.459239 -1.011380 0.628476 -0.428765 0.708795 -0.059275
GlobalSpecies0080 -1.232624 0.555973 -0.669564 0.392853 -0.405051 0.231160 0.648524 -0.231402 0.068163 -0.101528 -0.492966 -0.406448 -0.519569 -0.393463 0.442108 0.664300 -0.094451 -0.508723 0.434210 -0.342804 0.241401 0.572383 -0.324351 -0.071328 -0.831712 0.084814 0.024179 0.622737 0.284050 0.189707 1.289648 0.839926 -0.199214 0.113149 -0.107634 0.093111 -0.284030 0.174718 -0.201034 -0.341218 -0.075309 0.921039 0.070034 0.594608 -0.363040 -0.549016 -0.004082 0.327697 0.255144 0.341570 -0.160146 0.368963 0.137566 0.152480 -0.159810 0.700320 -0.327731 0.104708 0.065176 -0.175753 0.012062 -0.076091 -0.481759 0.348176 -0.147908 1.027230 -0.412613 0.176250 -0.346377 -0.126605 0.319983 -0.255589 0.330705 0.527548 -0.121318 -0.314792 -0.783372 -0.597344 -0.917167 0.233983 -0.365173 0.352317 0.475619 -0.203408 -0.084237 0.080806 -0.914541 -0.726371 0.938781 0.893319 0.003536 -0.708217 0.307077 -0.206662 -0.102361 -0.125409 -0.656380 0.412254 0.307938 0.000042
GlobalSpecies0081 0.029002 -0.267818 0.608343 0.022517 0.175068 -0.605999 0.215804 -0.125209 0.280292 -0.456114 0.095019 -0.645634 1.032906 1.287439 0.839288 0.183368 -0.241568 -1.146464 -1.111337 -0.760609 -0.044301 0.029392 1.157645 0.285381 -0.418522 -0.212335 0.754301 0.547028 -0.117009 -0.348555 -0.341493 -1.029281 0.454451 0.026508 -0.135608 -0.246476 0.342311 -0.378579 0.303105 0.359457 0.550534 0.097196 0.683964 0.121808 0.438700 -1.075244 0.605965 -0.842458 0.761401 0.442163 -0.056932 -0.391238 -0.481673 -1.348969 -0.297339 0.565509 -0.174026 0.402767 0.384525 0.484539 0.049844 0.950109 -0.090174 0.235949 -0.250641 0.539658 0.270184 0.061958 0.239625 1.055533 -0.169424 0.667390 -0.139899 0.206697 0.699192 0.646824 1.389022 -0.311322 -0.940772 -0.072930 -0.063422 -0.264385 -0.492038 -1.742351 -0.091169 -0.970893 0.087041 -0.148202 -1.568306 -0.685577 0.738187 0.026243 -0.301150 -0.396604 -0.216452 -0.383706 -0.262510 0.056191 -0.121491 -0.373276
GlobalSpecies0082 0.053844 -0.041401 -0.249732 0.716713 -0.038583 0.137028 0.080201 -0.004341 0.386543 0.161365 -0.092708 -0.184838 -0.112512 -0.263985 0.120575 -0.599580 -0.594324 -0.090985 0.114040 0.267541 0.246819 -0.246854 0.369185 0.381391 -0.316492 -0.449266 -0.090225 0.551485 0.550775 0.477975 0.611077 -0.271110 -0.740550 -0.458418 -0.001194 -0.106018 0.072124 -0.202828 -0.365249 -0.173761 0.108025 0.129727 -0.271961 0.358145 -0.494078 0.049736 -0.107095 -0.057577 -0.172196 -0.390938 0.259514 0.155161 0.031745 -0.135848 -0.539580 -0.321843 0.224363 -0.242560 0.364414 -0.186489 -0.398694 -0.351725 0.153901 0.203477 -0.003907 -0.291603 0.591048 -0.060441 -0.493655 -0.107626 -0.028530 -0.259512 -0.153378 -0.234708 0.448009 -0.037373 -0.592927 -0.247982 0.314871 0.171401 0.663485 -0.021928 -0.060791 -0.776242 -0.014064 -0.048114 -0.275608 -0.087649 -0.082245 -0.172830 -0.154507 0.368744 -0.108124 -0.109105 0.309433 0.164101 0.887416 -0.078673 -0.053689 -0.813546
GlobalSpecies0083 0.212635 0.483184 -0.038553 0.091235 0.123875 0.214574 0.421918 -0.200404 -0.174152 0.603894 -0.103402 0.143873 -0.344921 0.227115 0.481987 -0.347289 0.466872 -0.474624 -0.137863 0.554402 -0.433390 -0.202912 0.868636 0.481553 0.156009 0.399211 0.146262 0.202812 0.332060 0.234138 -0.361637 -0.015469 0.241049 -0.348827 -0.368574 0.275089 0.006543 0.009244 -0.400431 -0.092664 0.348989 0.136174 0.015077 0.316138 -0.057010 0.197901 0.357470 0.801342 -0.108624 -0.200896 0.065796 0.473501 -0.202140 -0.042806 -0.259151 -0.487999 -0.292222 -0.239243 -0.081524 0.902753 -0.575076 -0.047299 -0.559882 -0.197355 -0.060247 -0.013459 -0.282623 0.184466 0.277514 -0.031850 -0.034948 -0.603581 0.322270 -0.187846 -0.216982 0.119482 -0.216941 -0.235780 -0.473899 -0.596890 0.435998 -0.075096 0.289592 0.754518 -0.084403 0.334057 0.209902 -0.883901 0.618908 0.263241 -0.069048 0.040381 0.044031 -0.320861 -0.335037 -0.277109 -0.070143 0.676892 -0.111518 -0.177822
GlobalSpecies0084 0.103081 0.648675 -0.708512 0.428633 0.024144 0.133836 0.409079 0.070775 -0.439459 -0.633802 0.121730 0.158171 0.309922 0.053582 0.216452 -0.230949 -0.310263 -0.426852 0.346369 0.640551 0.212613 -0.204686 -0.064509 0.266190 0.017634 0.333412 -0.017749 -0.140972 0.463717 0.135431 -0.216832 -0.218384 -0.035562 -0.416594 0.662242 0.165554 0.093325 -0.020532 -0.087530 -0.848249 -0.081098 0.245241 0.208463 -0.192620 0.278192 0.445985 -0.034001 0.302361 -0.065959 -0.022805 -0.127256 0.375602 -0.217266 -0.084362 -0.326546 -0.077975 -0.109611 -0.627255 -0.261497 -0.068207 0.024426 0.121517 0.023539 -0.055537 -0.433292 -0.199118 0.160276 -0.276286 0.218697 -0.217778 0.073904 -0.258199 0.579313 -0.129610 -0.008867 0.591676 0.147152 -0.328721 0.534717 -0.253481 -0.420934 0.086683 0.017217 0.306342 0.050604 0.352583 -0.154580 0.525870 0.256638 0.496393 -0.020712 -0.125954 0.638992 -0.104247 -0.204394 0.265482 -0.010994 -0.390322 -0.150061 0.199757
GlobalSpecies0085 -0.394891 0.428140 0.459159 -0.114902 -0.200063 -0.191534 -0.336790 0.135526 -0.721084 -0.275423 0.161947 0.066984 0.110565 0.307940 -0.227020 -0.214127 -0.269880 -0.025365 -0.385498 -0.463665 -0.057275 0.173917 0.207435 0.214894 -0.399874 -0.645177 -0.833016 -0.003601 0.154626 0.477561 -0.092279 0.059236 -0.694607 0.287578 0.368920 0.033968 -0.651344 -0.410402 0.445673 -0.145423 -0.083655 0.269211 -0.993191 -0.030600 -0.364808 0.125481 -0.544525 0.381064 0.376642 0.036968 -0.741004 -0.445760 0.021910 -0.457031 0.413671 -0.786298 0.860527 -0.239636 -0.471026 -0.057519 0.305191 0.316516 0.419533 -0.736108 -0.263571 0.107226 0.643003 0.510659 0.173662 -0.476427 0.144865 -0.295462 0.295417 -0.509529 0.311151 0.241423 0.039180 -0.593468 0.206516 0.051070 0.512880 0.164748 0.744359 0.216219 0.116059 0.141280 0.233563 0.131735 0.080612 -0.941548 -0.563224 -0.728267 -0.393999 0.207475 0.520595 -0.600447 -0.434240 0.066169 -0.062726 0.393892
GlobalSpecies0086 0.981469 -0.147630 0.019652 -0.143284 -0.140713 -0.124269 0.591468 -0.048936 0.329726 -0.122443 0.631610 -0.210838 0.461205 -0.063580 0.032737 0.271727 -0.673316 0.355140 0.152052 1.112105 -0.093566 1.087137 -0.147046 0.331222 0.477869 -0.214403 -0.704525 -0.019871 -0.151920 0.069545 0.713725 -0.029462 0.484628 0.439939 -0.137801 0.264970 0.313891 0.159458 0.150252 0.379325 0.476095 -0.660122 0.035443 -0.558037 0.315647 0.296661 -0.645056 0.256061 -0.160313 -0.022841 0.110274 0.389236 0.625766 0.018338 -0.490819 -0.147179 0.231791 0.751111 0.006780 0.089056 -0.651519 -0.203577 0.116625 0.851162 -0.562399 -0.379241 -0.194702 -0.102676 -0.206533 0.013398 -0.189312 -0.556564 0.590215 0.427812 -0.496003 -0.362917 0.228581 -0.191025 0.490344 -0.280664 -0.680089 0.167794 -0.240297 0.143876 -0.525946 -0.298455 -0.492118 -0.066683 0.769840 0.371164 -0.647227 -0.336287 0.226605 -0.775234 -0.251333 0.241333 0.199866 -0.067485 -0.446377 0.037921
GlobalSpecies0087 -0.030819 -0.113564 -0.217760 0.131985 -0.148850 0.201651 0.319126 -0.046307 0.259324 0.187067 0.232232 -0.073204 -0.150319 -0.020226 -0.197170 0.135504 0.092275 0.189798 0.373125 0.186985 -0.276359 0.072244 -0.003520 -0.054333 -0.263125 -0.331901 -0.013080 -0.078501 -0.092904 -0.090336 -0.339475 -0.097488 0.255386 0.174477 0.067790 0.015177 -0.075173 0.092698 -0.125409 -0.043141 0.209941 0.149460 0.155842 0.210620 0.063447 -0.035997 -0.462754 -0.114681 -0.264336 -0.229380 0.050241 -0.218855 -0.357627 0.134238 0.300611 0.271615 -0.017176 -0.001012 0.248703 0.221517 -0.165590 0.163318 -0.328703 -0.078431 0.133555 -0.231305 0.031852 0.340275 -0.105278 -0.392664 -0.105102 0.154544 0.216059 0.091718 -0.294764 -0.098685 -0.058956 -0.023252 -0.063624 0.368992 -0.076584 -0.153462 0.352326 0.114842 0.071383 -0.308183 -0.117905 -0.018358 0.052907 0.014264 -0.151384 -0.164455 -0.322361 -0.035966 -0.326101 -0.067789 -0.135321 0.014769 0.226015 -0.150309
GlobalSpecies0088 0.212338 -0.257801 0.202510 -0.058495 -0.327140 0.149466 -0.254740 -0.368249 0.745241 -0.537662 0.676429 0.112351 -0.104860 0.522684 -0.249302 0.427963 0.541698 -0.931019 0.798274 1.354481 -0.027078 0.205438 0.262456 0.233932 0.889733 0.033842 0.177891 0.724005 -0.848822 -0.131938 -0.439529 -0.136085 -0.673585 0.398607 0.239152 0.449855 0.546914 -0.205747 -0.357314 0.034850 0.261431 -0.225020 0.178244 -0.048835 0.871046 -0.960629 0.283193 -0.184921 0.272987 0.172042 0.417553 -0.630526 0.060903 -0.006737 0.212964 -0.161330 -0.580692 -0.211279 -0.649524 0.246466 -0.154664 -0.081133 -1.126509 -0.035791 -0.601010 0.278686 -0.389725 0.749354 0.591325 -0.812777 0.124901 -0.725567 -0.175905 -0.010479 -0.368569 -0.512090 -0.281985 0.086034 0.373602 -0.851902 -0.560897 0.722336 0.033409 -0.064295 0.212002 -0.931782 -0.168143 -0.280883 -0.289320 0.378323 0.889207 0.133810 -0.417416 0.597588 0.242622 -0.232485 0.548896 0.379567 -0.682142 -0.221499
GlobalSpecies0089 0.800177 1.108251 -0.262879 -0.096886 -0.085425 0.151228 -0.344281 0.889191 0.802219 0.411590 -0.840837 -0.382984 -0.148282 0.735933 0.105873 -0.464261 -1.215017 -0.056284 -0.309751 0.203650 -0.127117 1.230923 -0.107837 -0.526492 0.531316 0.970090 -0.202355 0.932476 -1.672427 0.498024 0.548900 0.767074 0.106100 -0.823359 0.799218 0.788225 -0.576050 -0.000706 -0.877533 -0.748677 -0.128378 0.373628 -0.548224 0.293949 0.287411 0.498736 0.617662 0.228083 0.910288 -0.128463 0.146524 0.121263 0.246543 -1.287827 0.844666 0.020530 -1.080319 0.796785 -0.457324 -0.632816 -0.542515 -0.050851 -0.479462 -0.103202 -0.154495 0.183874 -0.553454 -0.049456 0.698617 -0.022544 -0.039178 0.845616 0.495893 0.706304 0.929546 -0.195899 -0.539227 -0.515793 -0.439212 -0.370787 -0.698837 -0.366259 -1.257141 -0.200838 0.161979 0.276493 -0.807937 -1.535951 -1.316703 0.188189 -0.475382 -0.165901 0.055515 0.293799 0.438367 -0.311849 -0.544524 -0.441464 -1.895244 -0.847811
GlobalSpecies0090 0.489980 -0.906017 1.180558 0.017150 0.052403 -0.463294 0.743768 -0.480433 -0.387565 0.142428 -0.304079 -0.148180 0.038842 0.228205 -0.103835 -0.184359 0.046453 -0.292291 0.375768 -0.015104 0.968680 -0.081867 -0.788315 -0.008994 1.012410 0.309850 0.114890 -0.569407 0.402675 0.540081 -0.179530 0.572213 0.803711 0.453008 -0.274394 -0.735103 -0.479386 -0.102757 -0.302294 0.080462 0.492618 0.147757 -0.311776 0.388424 -0.269978 1.269466 0.474391 -0.334208 -0.289894 1.378242 -0.228610 -0.075851 -0.437225 -0.451273 0.921676 0.090292 -0.006466 -0.453161 0.144404 -0.248474 0.616892 -0.230581 -0.081372 0.422833 -0.465560 0.367663 -0.660893 -0.118791 0.595678 -0.528873 -0.370779 -0.157132 0.019908 -0.257229 0.051919 -0.470723 -0.093462 -0.768008 0.604327 -1.111947 -0.777255 -0.190505 -0.662898 -0.142336 0.228638 -0.434720 0.430066 -0.530785 -0.310369 -0.384918 0.229234 -0.211480 0.792579 0.581517 0.058646 0.321522 -0.275664 -0.385345 -0.420147 0.080130
GlobalSpecies0091 0.878484 0.969822 -0.985240 -0.799592 0.714451 -0.474269 1.047068 -0.011299 -0.595075 -0.652524 -0.781400 -0.666642 1.090192 -0.642804 0.529759 0.333118 -0.373389 1.052822 -0.497225 -1.057869 0.941557 -1.415916 -0.665487 -0.955785 0.335730 0.040998 0.978562 0.088242 -1.114944 -0.321090 0.680989 -0.712857 0.495377 -0.093483 0.464905 0.298253 -1.034907 -0.364813 -0.075576 0.953922 0.705959 1.387822 -0.191566 -0.551725 1.933211 -0.543609 0.695274 0.505378 0.235862 0.068032 1.053627 0.183521 -0.474246 0.259527 1.449953 0.236662 -0.005856 0.187824 0.175039 0.802982 0.200202 0.376553 -0.135328 0.008786 0.637348 -0.786334 0.259984 -0.154126 -1.661822 -0.236167 0.521915 0.311834 -0.092728 0.824398 0.371636 0.772729 0.006870 0.629847 0.701601 0.100506 -0.023450 0.950541 0.886188 0.365471 0.006927 0.443700 -0.094016 -0.350491 -0.030607 -0.219545 -0.339118 -0.293776 -0.238031 1.105861 -0.584600 -1.281107 0.126476 -0.325937 -0.335745 -0.634499
GlobalSpecies0092 0.002217 0.260204 -0.349589 -0.271405 0.054184 -0.023774 0.044930 -0.093446 -0.174144 -0.051572 -0.367336 0.048903 -0.620871 0.162867 0.286882 -0.111273 0.279072 0.250706 -0.037919 0.267855 -0.495355 0.147617 0.498760 0.044483 -0.030685 0.225506 -0.057851 0.120585 -0.074999 -0.292640 -0.143035 -0.565436 0.094233 0.198734 0.441397 0.249025 -0.047487 0.011799 0.147422 -0.068541 0.159422 -0.325814 -0.129066 0.167170 0.000848 -0.373276 -0.276817 -0.176002 -0.310703 -0.013465 0.396300 0.113606 -0.416291 0.040713 -0.309861 0.248224 -0.092425 -0.172870 -0.186700 0.688563 0.333980 -0.184174 -0.184891 0.300478 -0.028944 -0.137287 -0.020494 -0.341827 0.385085 -0.378521 0.128589 -0.028501 0.371968 0.402591 0.121289 0.159830 -0.157148 0.471023 0.128766 0.145694 0.400863 -0.080064 0.034454 -0.200052 0.325554 -0.178447 -0.184047 -0.029616 0.343532 0.006989 -0.034435 0.370320 0.101421 0.124404 0.280536 -0.254426 0.021935 -0.344375 0.381157 0.196255
GlobalSpecies0093 0.042882 -0.138943 0.295737 0.033783 -0.163574 0.008228 0.085432 -0.046703 0.186266 -0.154344 -0.190707 -0.110439 -0.091585 0.066918 0.086650 -0.003293 0.377949 -0.151043 0.086757 0.141630 0.210370 -0.156188 0.220796 0.471632 -0.157355 0.122252 0.023461 -0.103023 0.297886 -0.059332 0.170471 0.376068 0.286738 0.656136 -0.142000 -0.056955 0.108773 -0.084097 0.606790 -0.237663 0.169769 0.189869 -0.209975 -0.038097 -0.138982 0.146208 -0.065783 -0.414014 -0.436306 0.012842 0.481635 0.150087 -0.228900 0.167273 0.010702 0.345943 0.026251 -0.106059 -0.135920 0.173243 0.028775 -0.021675 0.320277 -0.247693 0.027860 0.246799 -0.141280 0.321680 0.262166 -0.213918 -0.030508 -0.297244 0.029053 0.075234 0.251606 0.131657 0.163376 -0.056729 0.035165 0.043546 0.105613 0.303687 -0.125192 -0.037973 -0.090008 -0.043040 0.013239 -0.123359 0.152359 0.183120 0.107905 -0.173591 0.393836 -0.321789 -0.168620 0.106775 0.377274 -0.221045 0.269361 0.106935
GlobalSpecies0094 0.237295 -0.113102 -0.032048 -0.438536 -0.113843 -0.025342 0.044627 -0.028313 0.144527 0.155626 0.067156 0.069309 0.202067 0.115954 -0.364835 0.092360 0.047438 -0.002846 -0.174767 -0.026716 0.020205 0.236975 0.335997 0.231709 0.028901 0.016463 -0.323525 -0.181362 -0.027277 0.433694 -0.165649 -0.351465 0.183288 0.014758 -0.054532 0.446717 0.148104 -0.034707 0.051355 -0.150713 -0.235314 -0.360805 0.000983 0.274753 -0.361332 -0.264216 0.295678 -0.181045 0.006159 -0.226778 0.027420 -0.329176 0.005056 0.051850 -0.212224 0.153246 0.050129 0.188001 -0.232944 -0.006852 -0.158023 -0.138570 0.285840 -0.049319 -0.094062 0.201270 -0.109981 -0.018665 -0.181613 -0.067657 -0.148522 -0.039877 -0.220044 0.234002 -0.298946 -0.323168 -0.281919 0.107436 -0.400819 -0.248560 0.077431 -0.043803 0.249226 -0.132954 0.411600 -0.116895 0.179058 0.095195 0.032116 0.042061 0.144908 0.190220 -0.330622 0.077799 -0.041450 -0.183431 -0.012477 0.213994 0.289725 0.038233
GlobalSpecies0095 -0.009460 0.615214 0.149977 -0.990666 0.674010 0.061154 -0.793319 0.572424 0.333238 -0.025776 -0.972790 0.205329 -0.613155 1.109753 0.047910 0.111934 -0.039619 0.720941 0.838035 -0.266912 1.814828 -0.213196 -0.849219 -0.514200 0.110610 -0.547423 -0.578849 -0.267532 0.094943 -0.492227 0.005487 -0.716061 -0.447865 -1.095986 -0.364138 -0.377373 -0.767786 1.150606 -0.046867 -0.507574 1.383254 -0.121960 0.226023 -0.008508 0.485321 0.675319 -0.137114 0.536288 0.410730 0.326300 -0.119466 0.161576 0.323833 0.834873 0.220571 0.267378 0.239638 -0.779685 -0.412240 -0.745533 0.879442 0.174188 0.399476 -0.290854 -0.388075 -0.292920 0.889580 -0.877675 -0.152642 0.059921 -0.054787 0.623027 0.615460 -0.118901 -0.241605 -0.720980 1.015047 -0.061703 0.705842 0.059741 0.283685 0.264969 0.224134 1.003829 -0.425165 -0.038695 -0.139471 0.092010 0.288508 -0.189842 0.588629 -0.017952 1.294603 0.208967 -0.125709 -0.069737 0.204275 -0.570196 0.000749 1.187037
GlobalSpecies0096 0.140919 0.141534 -0.059366 -0.236827 -0.348748 0.030260 0.070055 0.033861 -0.256233 -0.221742 0.330051 0.698812 -0.278830 -0.193508 -0.294561 -0.539250 -0.900228 0.081690 0.124605 -0.384407 0.156216 0.044486 -0.027290 0.182994 0.389350 0.334005 -0.010064 -0.212102 -0.248375 0.413839 0.378046 0.041580 0.688894 0.217488 -0.600853 0.015169 -0.054010 -0.360071 0.237279 -0.081360 -0.655560 0.231692 0.269997 -0.321588 -0.014844 -0.050168 -0.274139 0.007140 -0.428098 -0.571877 -0.303128 0.199675 0.165067 -0.066921 -0.216917 -0.113702 -0.033565 0.106158 0.064589 -0.345895 -0.012033 0.091642 -0.199584 -0.127132 0.005945 0.318363 0.056056 -0.100536 -0.279130 0.163496 0.281713 -0.725269 -0.055308 0.176759 -0.058785 -0.342967 -0.240195 0.075751 -0.251831 0.143761 0.120640 -0.340904 -0.553925 0.217597 -0.345605 -0.235598 0.350372 0.045532 0.015271 0.008243 0.313944 0.276027 -0.217598 0.186763 0.500027 0.518933 -0.317663 -0.276607 -0.195670 -0.336057
GlobalSpecies0097 0.594814 0.095874 0.589868 -0.328139 1.020638 -0.032801 -0.155413 0.876389 0.802714 0.998370 -0.208250 -0.708647 -0.516210 0.578539 0.094121 -0.709188 -0.559651 0.082287 0.474177 0.293922 -1.671239 -0.471841 -0.508733 0.906132 0.647879 0.370347 0.099130 -0.367872 -0.366925 -0.346303 -0.561605 -0.044413 -0.230942 0.460648 0.532369 0.068414 0.150873 -1.154298 -0.856838 -0.058485 0.109093 -0.312170 0.603623 0.671255 -0.525388 -0.787718 0.283611 -0.607234 -0.486420 0.586162 0.521517 -0.243429 -0.157175 -0.665656 0.021357 0.295624 -0.420278 -0.527555 -0.205653 -0.691965 -0.554380 -0.092659 0.788478 -1.407668 0.282831 0.459528 0.004395 0.070596 -0.120568 0.433891 -0.463032 0.305084 -0.233211 -1.380015 0.312297 0.144335 0.326800 -0.708802 -0.042589 -0.820232 0.220013 0.822326 0.357961 -0.280544 0.176025 -0.003844 0.127466 0.006819 0.094673 -0.265882 -0.313315 0.099724 0.742082 1.158642 0.166335 0.316704 0.067018 -1.037173 -1.157033 -0.243688
GlobalSpecies0098 0.151197 -0.307427 -0.391647 -0.139239 -0.390552 0.265368 0.086203 -0.475746 0.040956 0.054755 -0.205962 0.174490 0.062589 0.331369 0.123286 -0.244077 0.723326 -0.336206 -0.024923 0.179220 0.042904 -0.009573 -0.366069 0.058088 0.138202 -0.218688 0.079580 -0.342943 0.267583 0.336366 0.424890 0.053883 0.054955 0.348329 -0.445524 0.386464 -0.049602 -0.131800 -0.305515 0.373338 -0.015733 -0.355532 -0.136422 -0.092144 -0.406369 0.167772 -0.043963 -0.024801 0.320063 -0.026069 -0.121197 -0.115006 -0.139159 -0.301405 -0.350341 -0.154784 0.284732 0.189301 -0.146161 0.186142 0.164315 0.227431 0.113070 0.296254 -0.007613 0.246356 -0.205320 0.255137 0.117906 -0.009883 0.164727 -0.129573 0.075821 0.153770 -0.017671 0.248959 -0.209722 -0.204811 0.310561 0.143768 -0.257997 0.342383 -0.164428 -0.179391 -0.002450 -0.678962 0.254632 0.231086 -0.093405 -0.145734 0.122365 -0.183927 -0.134906 -0.528621 -0.074258 0.196592 0.453233 0.119817 0.102340 0.134208
GlobalSpecies0099 0.266953 0.476805 -0.079945 -0.078505 0.526237 0.082586 0.384600 -0.657870 0.132709 -0.108862 0.026125 0.052060 0.054543 0.121107 0.390114 -0.129071 0.058304 -0.217682 -0.145757 0.377812 -0.155193 0.247488 0.332282 0.183513 0.246348 -0.268662 -0.298990 -0.073791 -0.333630 0.499954 0.493393 0.003786 -0.365980 -0.237256 -0.128715 0.080994 0.062050 -0.265797 0.731998 0.064756 0.353245 -0.005800 0.496848 -0.409496 -0.120209 -0.145882 -0.240097 0.284208 -0.530407 0.378360 -0.577321 -0.033664 -0.030542 0.285582 -0.264520 -0.087284 0.114124 0.077746 -0.481712 -0.151443 0.522802 0.288659 -0.336354 0.195215 -0.007560 -0.253672 0.706397 -0.333272 0.032390 -0.410972 0.022008 -0.157604 0.005316 -0.385001 -0.181503 0.500937 -0.337355 -0.245705 0.118391 -0.256798 -0.164220 -0.221087 0.323237 0.338236 0.015600 -0.269128 0.276533 0.064431 -0.142203 0.022015 0.105994 -0.120870 0.295534 -0.204471 0.058182 -0.305403 0.277021 -0.063474 -0.259897 -0.219043
GlobalSpecies0100 -0.315535 0.313187 0.261595 0.445944 0.406792 0.095268 -0.611003 -0.226994 -0.355902 -0.248636 -0.280034 -0.631939 0.245007 -0.308498 -0.354340 0.064677 0.416438 -0.138262 -0.445620 0.284248 -0.133602 0.401776 0.094477 0.456076 0.310732 0.465436 -0.173632 -0.092865 0.175783 0.216513 -0.434814 -0.161214 0.041716 -0.044933 0.244113 -0.130996 -0.504517 -0.029088 0.008971 -0.168400 0.046385 0.307790 -0.355158 -0.057183 0.012068 -0.067147 -0.164670 -0.327855 -0.745419 -0.037301 -0.120249 0.145589 -0.043273 -0.311030 -0.308040 0.189920 0.753121 -0.108102 0.046600 0.344515 0.062834 -0.079486 0.367920 0.300642 -0.258161 -0.467097 -0.025339 -0.635896 0.304447 -0.120586 -0.052570 -0.319899 0.000240 0.320814 0.302605 0.198017 0.076580 -0.404252 -0.050949 -0.098554 0.641829 0.047986 -0.439566 0.266840 -0.315440 -0.098908 -0.335933 0.438941 -0.046076 0.376036 0.100130 -0.138024 -0.047026 0.344505 0.222331 0.137209 0.158688 -0.285164 0.142706 0.208919
GlobalSpecies0101 0.096046 0.013872 0.002085 0.019930 -0.111589 -0.079942 -0.036314 -0.167064 0.296159 0.417140 0.100928 0.043372 -0.019443 -0.353301 -0.101294 0.069387 0.096482 -0.147353 0.169770 -0.076189 -0.100139 -0.025611 -0.122114 0.109691 0.014970 -0.247217 -0.088911 -0.309451 -0.010751 0.044323 -0.050369 -0.045042 0.064816 0.160303 -0.133345 0.423341 -0.089345 -0.108674 -0.245849 -0.261723 0.159953 -0.000643 -0.080818 0.391129 0.175248 -0.223201 -0.022855 0.384143 -0.139195 0.018154 0.027645 0.259351 0.237641 0.132273 0.007609 -0.139142 -0.090503 -0.069178 -0.281756 0.480239 -0.104887 -0.219968 0.005458 0.143608 -0.005494 0.059349 0.013351 -0.030680 -0.059621 -0.126389 -0.203770 -0.120630 -0.206779 -0.119413 -0.214721 0.029571 -0.212566 0.137612 -0.088862 0.278799 -0.199903 -0.047335 -0.106827 -0.070280 0.039205 0.322203 0.202693 -0.025911 -0.048356 -0.116417 0.225142 -0.047308 0.097808 0.038125 0.198529 0.062984 0.279088 0.008345 0.194492 0.102944
GlobalSpecies0102 0.325458 0.108475 -0.160170 -0.508465 -0.054998 -0.196909 -0.063143 -0.317264 0.054316 -0.122980 0.117870 -0.191801 0.010086 0.038296 0.117549 -0.357171 -0.545606 0.101883 -0.410613 0.090501 -0.017320 -0.233829 0.228603 0.094853 -0.132879 -0.014487 -0.324692 -0.094887 0.015304 0.264844 0.095155 0.363478 0.134530 0.253303 -0.378928 0.021755 -0.165009 0.345100 -0.091789 0.026586 0.017496 0.239967 -0.287854 0.121801 -0.169468 -0.001452 -0.014976 0.703378 -0.198019 0.228136 -0.055031 0.212545 -0.159660 -0.285627 0.073006 -0.101117 0.713415 0.145687 -0.487965 -0.248834 0.125096 0.337434 -0.043911 0.150757 -0.161389 0.039186 -0.276852 0.324224 0.243624 0.114639 -0.425171 -0.168114 -0.270755 -0.127290 -0.120090 0.183618 -0.459018 -0.054092 0.280370 0.382492 -0.427802 -0.158549 0.355162 -0.012931 0.042925 0.063450 0.230364 0.312796 -0.288897 -0.337460 -0.322806 0.265319 -0.005708 0.152625 0.143050 -0.039856 -0.105862 0.069207 -0.023446 -0.244253
GlobalSpecies0103 0.092125 0.425470 0.341763 0.041858 0.392115 0.448802 -0.331039 0.069857 0.174821 -0.107109 -0.023498 -0.076643 -0.001389 0.023051 0.153429 0.301216 -0.201042 0.079047 -0.648638 0.016991 -0.206184 0.091822 -0.265440 -0.017954 -0.099275 0.051296 -0.032471 -0.230804 -0.308300 0.260300 0.732157 0.247483 -0.143338 0.532696 -0.377756 0.610434 0.410276 -0.298905 0.145889 -0.532627 -0.466258 -0.004844 0.242714 -0.142917 0.421283 -0.038687 -0.405173 -0.230807 -0.117964 -0.043324 -0.226725 0.246578 0.431550 0.647624 0.234810 0.011698 0.005204 0.036152 -0.084889 -0.139550 0.013786 -0.106647 0.034229 -0.285459 0.228802 -0.026159 -0.015593 -0.327470 0.121187 0.521968 0.129940 -0.319908 -0.175959 -0.118182 -0.619807 0.286444 0.229913 0.028191 -0.439351 -0.128144 -0.257632 0.434542 -0.138584 -0.100719 -0.200000 -0.039771 0.127603 0.319755 -0.179646 0.051728 -0.001410 0.205475 -0.507705 -0.227782 -0.271857 -0.219945 0.159127 0.285625 0.090387 -0.106218
