GlobalSpecies0001 0.073500 0.037839 -0.083366 0.079789 0.071390 -0.127532 -0.255098 -0.136513 0.129675 -0.224152 -0.202473 0.009670 -0.075102 -0.148871 0.326733 0.233465 0.010644 -0.153716 0.189054 -0.022191 -0.037631 0.169774 -0.169747 -0.011430 -0.166793 -0.146779 -0.017684 -0.014784 0.126217 -0.065876 -0.218047 0.137525 -0.135685 -0.022219 0.022728 -0.092006 -0.015393 -0.176449 0.040322 -0.007848 0.185577 0.040821 0.016822 -0.195284 0.024534 -0.103917 0.209891 0.095522 0.047848 0.055903 0.000785 -0.050242 0.079223 0.150887 -0.139777 0.002514 0.108199 0.063580 -0.154649 -0.013311 -0.077253 -0.041599 -0.131404 0.212739 0.106020 -0.337613 -0.201374 -0.184075 -0.230167 0.042683 -0.065190 -0.193414 0.170649 0.058343 0.191440 0.132303 -0.072676 -0.195553 -0.101797 0.106385 0.003414 0.059146 -0.233827 0.015452 0.053518 0.338091 -0.258289 0.241875 0.027173 -0.086115 0.083124 0.002323 0.170446 -0.207312 0.231995 0.456380 0.063105 0.052917 0.043820 -0.042889
GlobalSpecies0002 -0.038924 0.066108 -0.126528 -0.198866 -0.151194 -0.216047 -0.248572 -0.174024 -0.081014 0.173436 -0.013166 0.172725 0.154475 -0.229765 -0.151861 -0.020420 -0.159917 0.414816 -0.128873 -0.081294 -0.142767 -0.154334 0.047194 -0.015088 0.079631 0.133112 0.097209 0.239659 0.147591 0.063689 -0.045861 0.299884 0.240823 0.114461 -0.035024 0.205151 -0.206474 -0.070145 0.054763 -0.087426 0.036089 -0.050702 0.313841 0.232702 0.177522 0.070010 -0.133686 0.060594 0.256452 -0.075609 -0.283704 0.142755 0.088318 -0.231451 0.066467 0.044379 -0.046001 -0.075058 0.088733 0.130704 0.215250 -0.192090 0.186028 -0.127077 0.154094 0.167324 0.190369 -0.019491 -0.106323 0.087784 -0.125484 -0.170204 0.033955 0.215639 0.160360 -0.177475 0.014580 0.057856 0.057821 0.003332 0.273553 0.070969 0.019069 -0.021799 0.042650 -0.033894 0.263312 -0.223433 0.065910 -0.323392 0.116458 -0.146679 -0.036571 0.167087 0.110615 0.143584 -0.195176 -0.038069 0.281408 0.132865
GlobalSpecies0003 -0.546214 0.369831 0.432874 0.658219 -0.187390 -0.085609 -0.646042 -0.373683 -0.314599 -0.393726 -0.067551 0.508207 -0.193498 0.148190 0.769797 0.799774 0.577306 -0.036449 -0.502881 0.195725 -0.104642 0.229536 -0.032596 0.518895 -0.346846 0.552990 0.081090 -0.197325 -0.520572 0.096616 0.239798 -0.250647 0.045269 0.142653 -0.759814 0.878153 0.444365 -0.247853 -0.187026 -0.202474 -0.469692 -0.295189 -0.108150 0.168391 -0.187159 -0.269938 0.226832 -0.406382 -0.214316 1.155594 0.139585 0.032312 0.261797 0.847154 0.920446 -0.314779 -0.530946 -0.375515 -0.107526 0.389022 -0.152844 -0.269695 -0.460887 0.294735 -0.138421 -0.615495 0.273820 0.769360 0.336472 -0.111811 0.006932 -0.324638 -0.063582 0.123336 -0.147195 0.913398 0.186686 -0.264283 -0.041755 -0.603237 -0.013495 -0.289348 -0.320261 -0.028756 0.743107 -0.549915 -0.724200 0.076324 0.446969 0.033210 0.348498 -0.111449 -0.096566 -0.661839 -0.232978 0.668562 -0.111747 0.006078 -0.123449 -0.262165
GlobalSpecies0004 -0.338879 -0.373114 0.033448 -0.245749 0.058736 -0.470468 -0.015430 0.050630 0.096950 -0.410582 0.170245 0.606918 -0.092026 0.008845 0.273759 -0.178858 0.264056 -0.413464 -0.417083 0.085594 0.045295 -0.232693 -0.034706 -0.043370 0.346526 0.185000 0.188611 0.009064 0.135944 0.088688 0.141492 0.148517 -0.001059 -0.233172 -0.108486 -0.225070 0.123414 -0.173588 0.147416 0.276839 -0.327830 0.239844 0.430389 -0.049508 -0.260740 -0.096820 0.332579 0.167122 -0.080983 -0.278967 -0.013489 -0.146278 0.252500 0.040884 0.095021 0.295614 0.274842 -0.213370 0.086356 0.201827 -0.487370 -0.004471 -0.241410 -0.102280 0.174409 -0.175493 0.058013 -0.058314 -0.081845 0.143684 -0.375263 0.209476 0.189214 -0.308022 0.359691 -0.155887 0.250418 0.081081 0.236882 -0.008240 -0.176147 -0.160297 -0.269380 0.156078 -0.161985 0.039273 0.076298 -0.277678 -0.313227 0.299622 0.132962 -0.273746 -0.343557 0.344156 -0.348464 -0.393631 0.288385 -0.494652 -0.194489 0.049236
GlobalSpecies0005 0.316513 0.111689 -0.279127 0.099927 -0.169425 -0.086121 -0.163172 -0.060308 -0.795798 -0.018953 0.119437 -0.241514 0.083935 -0.128467 -0.055168 -0.027598 0.481782 -0.223551 -0.159527 0.320310 -0.081683 0.397594 0.342662 -0.069010 0.138332 0.476939 -0.193178 0.194467 -0.392089 -0.022943 -0.303747 0.047677 0.067141 0.146247 0.004775 -0.029697 -0.007711 0.054871 0.032975 0.350151 0.208241 0.188543 0.078121 -0.295343 -0.254676 -0.069590 -0.091784 -0.020347 0.126695 -0.180956 0.019898 -0.292208 -0.436695 -0.118012 0.483248 0.123891 -0.397039 -0.146767 -0.341708 0.183334 0.412650 0.392284 -0.119635 -0.058328 0.002195 0.504317 -0.139915 -0.646598 0.102465 -0.043784 0.421785 -0.322682 -0.130117 -0.150429 -0.382507 -0.113506 0.048696 0.207910 -0.057536 -0.132864 -0.047090 0.201337 0.120956 0.111139 -0.030279 -0.088227 -0.302032 -0.571953 0.313512 -0.249154 -0.173989 0.345852 0.320535 0.504510 0.305982 0.141490 -0.067402 -0.363027 -0.561366 -0.049002
GlobalSpecies0006 0.125472 -0.251078 0.176138 -0.222237 0.367249 -0.035835 -0.040573 0.306309 -0.707827 0.149073 -0.726654 0.156305 0.207402 -0.461622 -0.277695 -0.198189 0.305568 -0.120278 -0.374822 0.145028 -0.114739 0.046835 0.114666 0.288913 0.126760 0.374371 -0.769537 0.055508 -0.304609 -0.111197 -0.727004 -0.144463 0.445057 0.278060 -0.355631 0.056754 -0.039676 -0.200709 0.047890 0.915916 -0.073146 -0.153828 -0.025629 -0.627107 0.169831 0.300466 -0.243457 -0.572597 0.507653 -0.155677 0.016705 -0.301102 -1.033999 -0.132869 0.060917 0.387520 -0.179789 -0.015338 0.339410 0.242109 -0.261582 -0.269497 0.086014 -0.091065 0.118028 -0.041501 0.012779 -0.514071 -0.247124 -0.064578 -0.335560 0.027466 0.212608 0.338683 -0.677781 -0.208019 -0.129262 0.233452 -0.392976 -0.181057 0.187156 0.076674 -0.495039 0.204055 -0.161950 -0.696727 0.321423 -0.435910 -0.269829 -0.030845 -0.050686 -0.054302 -0.129307 0.550908 0.006580 -0.109466 0.040888 0.015178 -0.501496 0.029688
GlobalSpecies0007 0.079171 -0.234706 0.027423 -0.184125 0.000514 -0.392703 -0.066175 0.030061 0.512052 -0.114514 -0.083838 -0.432823 0.403109 0.519052 0.690414 -0.373069 -0.142845 -0.191779 -0.215889 0.107451 -0.025702 -0.031633 -0.126818 -0.346055 -0.259478 0.354576 -0.275930 0.238800 -0.172465 -0.409203 -0.132646 -0.151157 0.108116 -0.295326 -0.384880 -0.384843 0.230835 -0.089480 0.065694 0.358011 -0.214845 0.243869 -0.186356 -0.490656 0.117424 0.426637 0.094466 -0.227077 -0.626662 -0.337375 0.110786 0.005060 0.238182 -0.123594 -0.047696 0.387985 -0.399721 0.211495 0.312836 -0.386127 -0.246840 0.064505 0.489730 0.652358 0.113630 -0.370462 0.150803 0.163246 0.306595 -0.121767 -0.787484 -0.256914 0.217191 -0.291084 0.379605 -0.216225 -0.207393 -0.155271 -0.139586 -0.184178 -0.195718 -0.551070 -0.021804 -0.381408 -0.415709 0.241155 -0.080200 -0.059890 -0.272795 -0.267753 0.025900 0.424101 -0.175338 0.048631 -0.687120 -0.074339 0.193434 -0.009413 0.067671 0.283708
GlobalSpecies0008 0.055438 0.155563 0.068758 -0.015168 0.031311 -0.408658 0.008650 0.235812 0.256629 0.052785 0.134832 -0.052898 0.298699 -0.060269 0.238433 -0.106549 0.217491 -0.096117 -0.153473 -0.063347 -0.121670 0.185169 0.058832 -0.309928 0.030210 -0.106068 -0.054797 0.209581 -0.165736 -0.048887 -0.205324 0.048041 0.212633 0.056030 -0.047261 0.067770 0.222296 -0.027383 -0.222401 -0.056850 -0.028521 0.132864 -0.163908 -0.140048 0.040765 -0.054592 -0.230218 0.026243 0.068568 -0.090175 0.032408 -0.277996 0.086076 0.108345 -0.206852 0.270958 0.085328 -0.217892 -0.286697 0.120484 -0.164852 0.044541 0.037325 -0.138324 0.094944 -0.235407 -0.432677 0.083753 0.067999 0.273725 -0.022159 0.269038 -0.229054 -0.063778 -0.120196 -0.018388 0.122345 0.126165 -0.310919 0.223872 -0.284868 -0.312099 0.042165 0.012319 -0.103866 0.209016 0.043692 -0.097293 0.136785 -0.294554 -0.239510 -0.231969 -0.243572 0.130154 -0.305953 -0.028172 0.037269 0.190245 0.080059 0.091266
GlobalSpecies0009 -0.077935 -0.468701 -0.644294 0.360776 0.336763 0.289291 -0.122527 0.255669 -0.147941 -0.269078 0.390528 0.194001 -0.509379 0.222798 -0.707340 1.103557 0.014558 -0.181179 0.065710 -0.312623 0.150660 0.123733 0.362141 -0.361487 -0.165070 0.412005 0.231540 -0.094468 0.415375 -0.800580 -0.395126 -0.085871 0.314291 0.324913 0.576255 -0.161701 0.337270 0.372139 0.469538 0.208213 0.171836 -0.538272 -0.151546 -0.445672 0.157924 0.384539 -0.606011 0.631214 0.101617 -0.001986 -0.151291 -0.000970 -0.087566 -0.663756 -0.488053 -0.339338 -0.104387 0.359457 -0.107956 -0.212531 -0.302850 0.340072 0.192433 -0.462908 0.166795 0.334146 0.174062 -0.192155 0.260121 0.062269 0.389653 -0.365490 -0.570419 0.068502 -0.124535 0.224927 0.053492 -0.137329 -0.106867 0.421966 0.018460 -0.095152 0.047637 -0.363952 0.474979 -0.561693 -0.227827 -0.247804 -0.178571 -0.135967 0.598048 -0.247326 0.147322 -0.564595 -0.306464 0.365240 -0.279136 0.240564 -0.053440 -0.119559
GlobalSpecies0010 0.079153 -0.259236 -0.088016 0.224074 0.154010 0.261646 -0.355209 0.133005 -0.042820 0.359806 -0.243900 -0.068247 -0.084471 0.243066 0.080247 -0.362065 -0.391347 -0.030671 0.175170 -0.093710 -0.121736 -0.017650 0.100184 0.140704 -0.100807 -0.099178 -0.091095 -0.338261 0.332491 -0.024434 0.254747 0.162817 -0.107864 -0.080624 -0.283429 -0.141379 0.293948 -0.209663 0.171710 -0.175547 -0.110006 -0.248114 0.204928 -0.103792 0.060210 -0.192662 0.223378 0.238874 0.242045 -0.132262 0.079222 0.017127 -0.340608 0.167337 0.062337 0.176454 0.519737 -0.098445 0.035870 -0.177957 0.123936 0.222427 0.494830 -0.176909 -0.086199 0.328250 -0.088617 0.028669 -0.299152 0.437913 -0.050596 -0.110832 0.012591 -0.064275 -0.101477 0.057844 -0.088785 -0.000090 0.098011 -0.048933 -0.144956 -0.097777 -0.029761 0.360638 -0.342789 -0.163356 -0.029653 -0.072703 -0.450185 0.234450 0.240355 -0.213729 -0.127157 -0.115948 0.066343 -0.042090 0.030543 0.234771 -0.400081 -0.148847
GlobalSpecies0011 0.092026 0.256416 -0.690746 -0.155388 -0.484398 0.299780 0.280505 -0.321852 0.147854 -0.075491 -0.206728 -0.742644 -0.072412 0.820868 0.491813 0.760640 0.172334 0.350597 0.279746 -0.075424 -0.016726 -0.045697 -0.553197 0.943750 0.291138 1.593046 0.018166 0.355666 -0.690837 0.352482 -0.365372 0.316401 0.246328 0.015959 -0.678071 0.551599 -0.049153 0.752789 -0.049109 -0.251023 -0.437303 1.084412 -0.021695 0.130817 0.329978 -0.180883 0.356696 -0.038669 0.614037 0.088449 0.150777 0.346935 0.526649 0.409983 -0.231693 -0.238564 -0.719772 -0.034981 -0.484033 0.611775 -0.369594 -0.452098 -0.068246 0.890158 -0.721510 0.176822 -0.274476 0.114830 0.444609 -0.251476 -0.407182 0.532040 0.117638 -0.520647 0.269696 -0.058116 0.082331 -0.329118 0.642434 -0.596671 0.615123 -0.567274 -0.399758 0.118191 0.558791 -0.353797 0.277180 0.847340 -0.219143 0.344751 0.013267 0.750897 -0.531102 -0.059371 0.367346 -0.594171 -1.296001 0.209964 -0.311449 0.102846
GlobalSpecies0012 -0.247537 0.599661 -0.679222 0.148898 0.080299 -0.010784 -0.220054 0.469572 -0.499773 0.180283 -0.873977 0.227819 -0.430503 0.016383 -0.169557 0.863355 0.341538 0.770126 -0.569147 -0.552125 0.370283 -0.510674 -0.085143 -0.224847 -1.097134 0.225750 -0.220240 0.202504 -0.121389 -0.048877 0.087961 -0.592956 0.484787 0.113711 0.382888 1.369818 -0.054556 0.306362 -0.188067 0.425466 0.443422 0.111268 -1.257174 -0.633284 0.087575 0.600436 0.427695 0.077412 -0.110534 0.202632 -0.284937 0.276272 -0.497824 0.767072 -0.200451 -0.443052 -0.045552 0.309733 0.604398 -0.534719 0.554921 -0.015178 -0.928597 0.007221 -0.165489 -0.525858 -0.034485 0.429996 -0.431066 -0.881402 0.347734 0.486753 -0.164426 0.059424 -0.365290 0.522284 0.005565 -0.032240 0.374730 -0.331245 -0.436283 -0.096304 0.106455 0.208346 -0.123017 0.258402 0.259411 -0.427182 0.347683 0.351928 -0.028790 0.235672 -0.065823 -0.032495 0.315087 -0.858796 -0.040740 0.013123 -0.286660 0.018495
GlobalSpecies0013 0.018550 0.063782 0.324942 -0.232057 -0.120566 -0.053804 -0.038687 0.118148 0.236993 -0.101916 0.013800 0.205294 0.229790 -0.089411 0.159636 -0.276421 0.131733 -0.030067 -0.294768 -0.352352 0.050305 -0.159567 -0.347179 -0.057753 -0.072690 0.182980 0.165812 0.094296 0.073962 -0.190043 -0.221610 0.094597 0.304229 -0.067234 -0.202996 0.101699 0.330221 0.200454 0.093525 0.036833 0.191720 -0.037995 0.193508 -0.058482 0.234385 -0.058961 -0.024457 -0.063199 -0.364441 -0.045112 -0.346907 0.240429 0.190036 0.164880 0.056681 0.207812 0.300775 -0.164937 0.071187 0.043715 -0.131981 0.121589 -0.093683 -0.125847 0.129543 -0.060702 -0.114704 -0.021453 -0.139545 0.057654 -0.095767 0.032433 -0.083622 0.039198 -0.239247 -0.169504 -0.206984 0.051237 0.019565 0.072109 -0.009943 -0.176809 0.050073 -0.214619 0.189276 0.035123 -0.415075 -0.030786 0.320514 -0.118008 -0.344135 0.156358 0.043768 -0.323844 0.182778 -0.250513 -0.054759 0.365287 0.398668 -0.088003
GlobalSpecies0014 -0.072699 -0.070678 -0.050245 0.028791 -0.196183 0.387045 0.150420 0.232493 0.182255 0.114183 0.306809 0.668677 -0.534598 -0.301857 0.300232 -0.123422 -0.361826 -0.224833 0.111505 0.391951 -0.036332 0.178699 0.405909 0.065258 0.137128 -0.530271 0.134294 -0.230545 0.086495 0.126404 -0.189943 0.025228 0.199757 -0.253835 0.011275 0.486610 -0.241618 0.025203 -0.084012 0.271913 0.095527 0.059343 0.037356 -0.251502 -0.298009 0.225663 -0.444720 -0.381902 0.231515 -0.271267 -0.414772 -0.146282 0.016738 0.234904 0.106737 0.059101 0.009224 0.316635 -0.075262 0.117740 -0.027022 -0.947681 0.088704 -0.001093 0.354042 -0.133613 0.384290 -0.054771 -0.028766 -0.493215 0.606669 0.079084 -0.232765 0.476093 0.160407 0.192396 -0.075184 0.093229 0.321579 0.422055 0.421301 -0.342121 -0.112399 -0.445861 -0.025769 -0.317027 0.120637 -0.385533 0.164967 0.204483 0.521953 0.020202 -0.219449 0.134282 0.471373 -0.076290 0.210194 -0.155619 0.312648 0.048465
GlobalSpecies0015 -0.150853 0.143873 -0.104136 0.031948 -0.348738 0.049720 0.182881 -0.120957 -0.023616 -0.108661 0.146386 0.109826 -0.254713 -0.114990 0.193695 0.044063 -0.309940 0.096240 0.090245 0.078866 -0.099516 0.052321 0.286772 -0.187167 0.347069 -0.284230 0.140932 -0.258175 0.012904 -0.070713 -0.102908 0.191583 -0.169697 0.268272 0.082289 0.102038 0.091168 0.077100 -0.018873 0.037397 0.146397 -0.060742 0.089236 -0.099358 -0.076373 0.165591 -0.295138 0.012118 0.514728 -0.466845 -0.070517 0.030045 -0.067391 -0.003153 -0.037243 -0.119374 0.228342 0.312844 -0.216163 -0.178960 -0.120118 -0.308010 0.160707 0.261620 -0.178707 0.241817 0.090937 0.138971 0.293394 -0.239831 -0.094269 0.093077 -0.101134 -0.058661 -0.197655 0.037733 0.102697 -0.253403 0.001545 0.036430 0.271588 0.163797 -0.038056 -0.277190 0.007226 -0.032127 0.069547 -0.087109 0.398634 0.191493 0.215413 -0.092578 -0.158514 0.044790 0.076123 0.017262 0.224895 -0.129634 0.343158 0.149579
GlobalSpecies0016 0.291351 0.089270 0.201968 -0.259977 0.088483 0.155389 0.024172 -0.258134 -0.119164 0.082587 0.218600 -0.115637 -0.106227 -0.185718 -0.233258 0.106189 -0.195850 -0.176283 0.191872 0.052614 -0.239187 -0.059111 -0.060733 -0.068144 0.283610 0.093728 -0.234130 -0.130614 0.292646 0.233596 -0.013030 -0.042888 0.105089 -0.074987 0.335354 -0.304827 0.035982 -0.208316 -0.178132 -0.216141 0.023515 0.415294 0.332224 0.228788 -0.040328 0.071423 0.007948 -0.122319 0.199373 0.110773 -0.049479 0.176821 -0.225650 -0.124682 -0.140563 0.145745 -0.089761 -0.094455 0.126212 0.147940 -0.032861 0.146209 0.081324 -0.239986 -0.105285 -0.072674 0.099254 -0.424544 -0.022823 0.339127 -0.080064 0.026383 0.155520 0.211474 0.035069 -0.039149 0.318228 0.247936 -0.150193 0.031701 0.013120 0.311924 0.176805 0.193344 0.041886 -0.233918 -0.057255 -0.082539 -0.205993 0.038119 -0.113393 0.171971 -0.081627 0.190284 0.128050 -0.237396 -0.086056 -0.131311 -0.074181 0.049832
GlobalSpecies0017 -0.101786 -0.024561 0.087946 0.008615 -0.105351 -0.111194 0.054254 0.005781 -0.089189 -0.040886 0.233137 0.060922 0.012558 -0.054588 -0.119536 0.060017 0.150985 0.002598 -0.170329 0.014683 -0.103150 -0.076035 0.048171 -0.125637 0.227962 -0.323399 -0.003834 -0.134811 0.014865 -0.039679 0.246397 0.050470 0.056317 -0.057640 -0.023976 0.043826 -0.006913 -0.027582 0.019702 0.021552 0.109144 0.290853 0.083684 0.081397 0.012666 0.192112 -0.220306 -0.117607 0.014592 -0.049596 -0.194848 -0.244182 0.010378 -0.074419 0.104542 0.157655 0.098380 -0.034992 -0.013647 -0.113959 0.158496 0.105793 0.181127 -0.194948 0.010276 -0.012445 0.010326 0.061719 0.049092 0.150340 -0.210019 -0.176013 -0.085936 -0.016864 -0.172821 0.031999 -0.079903 0.215568 -0.003523 0.117613 0.086518 0.125012 -0.047756 0.005640 0.086675 0.022462 0.101622 -0.069444 -0.057205 -0.147866 -0.016643 -0.154832 0.167202 -0.028336 -0.173045 -0.060731 0.040805 -0.023367 0.014511 0.366062
GlobalSpecies0018 0.105942 0.148119 0.012631 0.317587 0.182850 0.040827 -0.281667 0.051435 0.306806 0.247060 0.271924 -0.336011 0.602537 -0.121689 0.344582 -0.186232 0.325248 -0.020609 0.386470 -0.105044 0.326740 0.071310 -0.434636 0.086053 -0.122694 0.325454 -0.546107 0.074431 0.052869 -0.063037 -0.137270 -0.049737 0.661697 0.182771 0.340683 0.272398 0.224857 -0.293337 -0.075424 0.250951 -0.205131 -0.131351 0.016909 0.232544 -0.498355 0.301881 -0.394632 0.144097 -0.477944 0.342321 -0.050682 -0.240831 0.479108 -0.262777 -0.191200 -0.084733 -0.219687 -0.123769 -0.165504 0.100426 0.399424 0.234178 0.259688 -0.054777 0.337315 -0.325078 -0.013546 -0.159332 0.643418 -0.135517 0.180900 0.155031 0.126991 -0.190817 -0.436910 0.327172 -0.261451 0.034009 -0.454935 0.068491 -0.018349 0.215531 0.438082 0.015264 -0.253595 -0.055494 -0.355295 -0.301494 0.293271 -0.449011 -0.173945 0.015464 -0.186343 -0.122258 0.056955 0.204825 0.419231 0.500156 0.111362 0.014949
GlobalSpecies0019 0.292683 0.198118 0.355985 -0.252961 0.067100 -0.112701 0.125820 0.218442 0.037284 -0.005774 -0.208278 -0.202502 0.393453 0.202484 -0.152199 -0.080894 -0.101417 0.310987 -0.420010 -0.092962 -0.383086 0.094727 0.165008 -0.057952 0.271135 -0.290254 0.133720 -0.258393 -0.293713 0.142758 0.027659 -0.049520 0.256336 -0.113388 -0.213911 -0.394123 0.028753 -0.309227 -0.187138 -0.001433 0.090897 0.247741 0.023953 -0.028687 -0.115695 0.283526 -0.028530 -0.132055 -0.721759 0.066677 0.172205 -0.129505 -0.289338 0.015597 -0.096365 0.345958 0.102226 -0.215144 0.025294 0.212407 0.114327 0.030901 -0.033136 -0.026648 -0.233971 0.131906 -0.467728 -0.110449 0.210737 0.115169 -0.139675 0.099918 -0.110406 -0.067824 -0.057139 0.210134 0.148510 -0.021136 -0.143157 0.353576 -0.138692 -0.074040 -0.291899 -0.083919 -0.227234 0.404344 0.136190 -0.151858 -0.185818 0.216627 -0.053405 -0.251397 -0.468427 0.036843 -0.263128 -0.270908 0.047053 -0.000452 -0.237756 -0.424351
GlobalSpecies0020 -0.108251 0.177694 0.132413 -0.159462 -0.392324 -0.057281 -0.279100 -0.107869 0.321582 0.006404 -0.620592 0.052661 0.109017 0.424423 0.190376 -0.033844 0.372798 0.608136 0.610978 0.469441 -0.522070 0.317147 -0.349631 0.574969 0.084164 0.129201 0.054475 0.068316 0.336143 0.230399 0.491698 -0.588026 0.005473 0.024867 -0.090162 0.730118 -0.055158 -0.449795 -0.714249 0.002039 -0.339061 0.124758 0.067244 -0.252016 0.090782 -0.031938 -0.283896 -0.143505 -0.334647 0.483202 0.018022 0.029119 0.234935 0.220214 -0.224334 -0.018281 -0.142524 0.180944 0.670807 -0.413253 -0.332102 0.174434 0.021966 -0.477279 -0.005129 0.130298 0.260310 0.439429 0.365876 -0.141331 -0.344638 0.491200 -0.260746 0.554115 0.012980 0.051851 0.126014 0.062491 0.420262 -0.050999 -0.328066 0.311606 -0.286179 0.285773 -0.061522 0.723371 -0.240909 0.191294 0.112826 0.316181 -0.330236 0.118476 0.109473 0.114150 -0.117680 0.515709 0.113564 -0.257370 -0.356810 -0.187337
GlobalSpecies0021 0.119181 0.007341 0.081596 0.059103 0.212179 -0.149978 0.220538 -0.054043 -0.108216 0.132528 0.071802 0.083929 0.153507 -0.200854 -0.030017 0.000933 0.025500 0.019573 0.190114 -0.004496 0.024535 -0.041297 0.002238 -0.072966 0.341527 -0.009932 -0.319414 -0.090396 0.082858 -0.023534 0.049164 0.037587 -0.038268 0.143015 -0.117101 -0.018554 0.057284 -0.099136 -0.148023 0.153011 0.009706 0.092486 0.159385 0.132663 0.014070 -0.108127 0.060852 -0.190146 0.181352 -0.171801 -0.186902 -0.023136 -0.230694 -0.106920 0.168183 0.114306 -0.158709 0.021604 -0.030572 0.030272 -0.204127 -0.179985 0.130201 -0.301340 -0.135277 0.077779 -0.087698 -0.258873 -0.188062 0.303178 -0.072702 -0.109072 0.127890 0.112436 0.034160 0.008380 0.070450 0.194236 -0.172084 -0.019784 -0.082482 0.268124 0.194766 0.106395 0.042548 -0.138600 0.126580 -0.246410 0.051558 -0.316287 -0.300932 0.142945 0.435133 0.177739 -0.032464 0.008567 -0.278432 -0.077976 -0.031036 -0.039366
GlobalSpecies0022 0.023091 -0.357429 -0.018442 -0.072690 -0.050885 -0.121992 -0.146615 -0.149587 0.039999 0.056534 -0.381839 -0.318589 -0.170610 0.197731 -0.141788 -0.134740 0.054600 -0.073900 -0.098508 0.248596 -0.082440 -0.258592 -0.087673 0.046538 -0.025236 -0.280577 0.331113 0.164409 0.098988 0.080298 0.114944 0.121400 -0.213338 -0.154436 -0.194684 -0.208795 0.221260 -0.123263 -0.005784 -0.080149 -0.041321 0.036746 0.086263 -0.057879 -0.171929 0.013245 0.068030 0.093040 -0.070110 0.149056 -0.087959 0.224732 -0.141977 -0.251997 -0.038587 0.125379 0.013577 0.013787 0.080111 -0.041588 0.096597 0.287771 0.214922 -0.207547 0.046242 0.002702 0.049938 -0.061769 -0.080494 0.131322 0.023529 -0.166692 -0.157239 -0.052210 0.143116 -0.188858 -0.156007 -0.070094 -0.190924 0.178525 0.209396 -0.025310 0.044002 0.119052 0.021105 0.044226 -0.092863 -0.037697 -0.052437 0.134393 0.018360 -0.052965 -0.175578 -0.051078 0.110161 -0.065186 0.210683 0.210996 -0.103785 -0.021605
GlobalSpecies0023 -0.213009 0.905904 -0.151502 0.795403 -0.491331 0.505163 -0.492425 -0.369888 -0.605041 0.045044 0.281914 -0.048741 0.025293 0.447298 0.455470 -0.110806 0.352247 0.349438 -0.344872 0.237594 0.673717 0.301270 -0.469273 0.326061 -0.612636 0.266855 0.218315 0.075023 -0.686720 -0.364047 -0.228032 -0.151966 1.029757 -0.272937 0.366868 1.054549 0.384732 0.256344 -0.443436 0.355560 -0.736046 0.397227 0.292507 -0.045997 0.891268 0.445168 0.161952 -0.276156 0.066769 0.438864 -0.150460 0.028107 -0.369397 0.506958 0.062472 -0.956505 -0.523177 0.339882 0.237458 -0.343823 -0.120438 -0.522798 -0.106992 0.301330 -0.487462 -0.497818 0.435678 0.810716 0.694441 -0.690970 0.405405 0.403769 0.006328 -0.301105 -0.431418 -0.501982 0.161063 0.330766 0.646267 -0.245722 -0.526007 -0.536657 -0.174261 0.157945 0.334692 -0.555486 -0.216094 0.085428 -0.016305 0.153728 -0.089649 -0.121773 0.742562 -0.292524 -0.203386 -1.268197 -0.400767 0.420438 -0.044141 -0.216054
GlobalSpecies0024 -0.450429 0.356161 -0.100334 0.266312 0.019185 -0.420371 0.013999 0.282541 0.253722 0.671624 -0.676520 -0.098638 -0.375114 0.006114 0.065201 0.224834 -0.261642 -0.501919 -0.177282 -0.089115 0.027791 0.242853 -0.730874 0.101266 0.095028 0.324512 -0.384723 0.303378 -0.438028 -0.359192 0.042144 0.160317 0.043454 0.131106 -0.225803 0.130463 1.013821 -0.057778 -0.325148 -0.303532 -0.327115 -0.411501 0.198829 0.780498 0.001627 0.303688 -0.421391 0.552779 -0.249663 0.074360 -0.038958 0.028531 -0.267483 -0.178492 -0.130682 -0.409244 0.198357 -0.093538 -0.251875 -0.197546 0.266868 -0.354715 -0.135562 -0.286222 -0.232060 -0.242276 0.236066 0.358208 0.143633 -0.008392 -0.380715 0.440947 -0.380880 0.280977 -0.378125 -0.073522 -0.061121 0.427925 -0.625990 0.199725 0.301673 -0.077301 0.191510 0.256679 0.580162 0.011336 -0.400811 -0.002013 0.041753 -0.374860 0.441891 -0.022616 0.250019 -0.168656 0.044081 0.064040 -0.107994 0.337572 0.506671 0.238861
GlobalSpecies0025 -0.841904 -0.218573 -0.058373 0.618269 -0.604037 -0.096977 -0.288169 0.232222 -0.044666 -0.005970 -0.023078 0.252776 0.065858 0.700670 -0.041940 -0.192139 -0.256789 0.230871 0.408693 -0.568642 0.189966 -0.028556 0.409185 -0.421286 0.486322 0.230271 -0.084969 0.006214 -0.109370 -0.341909 -0.264698 0.245118 -0.101315 0.313973 0.396589 0.099651 -0.059051 0.326014 0.347826 0.531327 -0.340578 -0.440432 0.326878 0.800643 -0.616393 0.017407 0.086689 0.004415 0.000589 0.047901 -0.529927 0.059016 0.203427 0.186859 0.007502 -0.149698 -0.034245 0.374104 0.413963 0.194429 0.081368 -0.078507 -0.467939 0.084577 0.140309 -0.542329 0.054262 0.120240 0.071061 -0.126880 -0.049910 -0.429563 0.300581 -0.326815 -0.442793 0.158892 0.030473 0.015055 0.043070 -0.341857 0.157067 -0.163286 0.341945 0.206271 -0.096495 0.004756 -0.137083 -0.307867 0.196905 0.068605 0.260175 -0.281280 0.551108 -0.231809 0.010173 -0.335322 0.748052 -0.395525 -0.235111 0.172649
GlobalSpecies0026 0.074250 -0.052708 0.108079 -0.191446 -0.086460 -0.129544 -0.075912 0.094759 0.171527 0.151110 -0.123911 -0.257411 -0.005002 0.191483 -0.160602 0.005741 -0.211341 -0.072918 0.184449 0.306778 -0.367473 -0.240345 0.210468 -0.081787 0.071538 -0.019257 0.050712 -0.093999 0.132096 -0.065887 -0.074737 -0.029959 -0.074352 -0.344812 -0.224720 -0.177572 0.174605 -0.215202 0.207105 -0.090421 0.310944 -0.174796 0.242629 -0.120383 0.068197 -0.235857 0.399924 0.177706 -0.175035 -0.025716 -0.097864 0.256187 0.090335 -0.027355 -0.188669 -0.071633 0.095227 0.142068 0.458943 -0.028212 0.045912 -0.011995 -0.191360 -0.232890 0.133229 -0.013641 0.011699 -0.156241 -0.158352 0.047972 -0.018439 0.153154 0.004297 0.025816 0.368924 -0.085497 -0.217991 -0.123481 0.040724 0.065403 0.020767 0.143980 -0.036707 -0.196720 -0.175869 0.181874 -0.115690 0.012912 0.053118 0.296985 -0.047959 -0.089209 -0.190521 -0.222503 0.057514 -0.008551 -0.143389 -0.035322 -0.196043 -0.143316
GlobalSpecies0027 -0.045665 -0.108984 0.018522 0.068962 0.155568 -0.169033 0.052101 0.234754 -0.019413 0.073617 -0.147427 0.045570 0.295785 0.141377 0.073593 -0.214035 -0.028501 -0.103990 -0.065708 0.137043 -0.087198 -0.071627 0.031418 -0.152579 -0.012342 -0.138229 0.003539 0.111564 0.035097 -0.047448 -0.040915 -0.143789 -0.059385 -0.131212 -0.282142 -0.096943 0.088776 -0.062708 -0.106001 0.048247 0.253611 0.176440 0.286492 -0.075951 0.204628 0.202301 -0.005392 0.093974 -0.061320 -0.159980 0.005782 -0.282709 0.208148 0.241057 0.054212 0.246631 0.070992 0.192381 -0.072080 -0.189295 0.130040 0.380213 -0.083933 -0.236310 0.280754 0.113472 -0.019832 0.029420 -0.019002 0.136564 0.148479 -0.039383 -0.032023 -0.047573 0.026583 -0.145920 -0.051620 0.254364 -0.110952 0.159128 -0.038027 -0.307039 0.040947 0.198043 -0.104611 0.123173 0.054279 -0.009856 -0.198347 0.054260 -0.111643 0.150455 0.092551 -0.031053 -0.054368 -0.173991 0.119083 -0.047295 0.022685 0.423345
GlobalSpecies0028 -0.241213 0.075384 -0.080576 0.162110 0.070107 0.144102 0.041115 0.000571 0.036852 -0.007979 -0.069302 -0.215713 -0.090103 0.180059 -0.104820 -0.022163 0.060307 0.158396 0.169837 -0.017708 0.039311 -0.119538 0.016797 -0.135361 0.123977 -0.051050 -0.142057 -0.003013 -0.106891 -0.109454 0.071425 0.086039 -0.175892 -0.164665 -0.088242 -0.247598 0.104774 0.467211 0.001449 0.204100 0.007016 0.077168 -0.215090 0.113147 -0.340310 0.075220 -0.191993 0.199767 -0.174565 0.077865 -0.080195 -0.248635 0.180610 -0.100734 0.026278 0.054015 -0.054429 0.115530 0.266941 0.046286 0.049072 0.500682 0.306792 -0.164278 -0.058534 0.042058 -0.057127 0.095482 0.040864 -0.107938 -0.259165 -0.053588 -0.155956 -0.156626 -0.115912 -0.254893 -0.162842 0.135390 -0.117225 0.113504 -0.124821 0.036969 -0.023073 0.120508 -0.076138 -0.017954 0.051604 -0.150760 -0.172678 -0.290603 0.009122 0.127202 0.130893 0.139930 -0.179253 0.106655 0.194801 -0.220456 -0.054635 0.167566
GlobalSpecies0029 0.197198 -0.155380 0.189944 0.085434 0.163734 -0.117827 0.042041 -0.193198 0.060056 -0.044080 -0.255094 -0.014380 -0.102560 -0.171259 0.245683 0.110691 0.151446 -0.211677 0.160524 0.116588 -0.112519 -0.147035 0.114455 -0.023834 0.245486 -0.175110 -0.252551 0.089199 -0.247430 -0.089456 -0.190741 0.055541 -0.249045 -0.147183 -0.170152 -0.252480 0.048987 0.021762 -0.092925 0.066038 0.173617 0.264401 0.052184 0.038810 0.113413 0.203236 0.174422 0.232892 0.013246 -0.118556 0.179055 -0.077269 -0.058934 -0.100372 0.019250 0.046226 -0.146548 -0.106558 0.112309 -0.038130 0.008860 0.145705 0.015259 -0.085332 0.068939 0.004865 0.083114 -0.621134 -0.261114 0.040006 0.014251 -0.127188 0.092095 -0.230930 0.273761 -0.105614 -0.102113 -0.025765 0.116027 0.083184 -0.041449 -0.164445 -0.137450 -0.011899 0.056547 -0.158009 0.029011 -0.160669 0.218278 0.038466 -0.262253 0.252341 0.219923 0.017304 -0.085969 -0.047669 -0.033565 -0.250370 -0.034878 -0.012415
GlobalSpecies0030 0.086354 -0.115839 -0.233936 0.276710 0.107891 0.025625 -0.169727 0.082596 0.156560 0.348837 -0.178361 -0.071918 0.189475 -0.172528 -0.212092 -0.178732 0.293075 -0.323381 0.251514 -0.079497 0.048714 -0.269726 0.012151 -0.034094 -0.336864 -0.419390 0.130088 -0.054721 -0.134590 0.168462 -0.068216 0.156868 -0.304490 -0.338515 -0.135498 -0.117210 0.082676 -0.234587 -0.243973 0.043837 0.012093 0.064504 -0.003843 -0.145276 -0.200624 -0.195687 -0.151149 -0.151301 0.265222 0.183642 0.147348 -0.204241 -0.045048 -0.086995 -0.134695 0.003304 -0.006050 -0.138306 -0.108599 0.052225 0.012902 -0.116067 0.256296 -0.036245 -0.338741 0.468731 -0.071308 0.351057 -0.435666 -0.059746 0.063412 -0.075726 -0.045015 -0.169411 -0.051970 -0.061961 -0.159568 0.000547 -0.086431 0.019731 0.111037 0.081929 -0.023513 0.098413 -0.277169 0.003238 -0.276764 0.146975 -0.157618 0.029194 0.028418 -0.113926 0.017176 0.034089 -0.127910 0.018381 0.151548 0.241543 0.013392 -0.180052
GlobalSpecies0031 0.022072 0.046760 0.340734 0.180900 -0.138197 -0.058756 0.144135 -0.231159 0.082119 0.119767 0.016139 0.112033 -0.093261 0.046877 0.294069 0.067091 -0.142091 0.342211 0.184628 0.055313 -0.216898 -0.326890 0.039111 -0.082127 0.180402 -0.268593 -0.214316 -0.081666 0.033622 0.096034 0.229871 -0.104280 -0.148356 -0.175411 0.207931 0.094938 -0.350465 -0.067544 0.162880 0.089341 0.012813 0.012791 0.326098 -0.208259 0.168336 0.083548 -0.148000 -0.212227 -0.276459 -0.176955 -0.167256 0.411592 0.164910 -0.018465 -0.028763 0.169939 0.060927 -0.164066 0.141971 0.135656 0.126011 -0.146667 -0.085565 -0.069972 0.375921 -0.189366 -0.126623 -0.078764 -0.085931 -0.146011 -0.111787 0.042486 -0.031249 0.274302 -0.008154 0.201588 -0.107510 0.021513 0.161753 -0.107965 0.227322 0.086206 -0.137288 -0.205404 0.097550 0.008078 -0.160339 -0.026103 0.004289 -0.153695 0.233476 0.212078 0.194281 0.012494 0.157340 0.005249 0.016422 0.059652 -0.284941 0.063742
GlobalSpecies0032 -0.355941 -0.237797 0.222360 0.046174 0.047387 0.453543 0.048077 0.110888 0.036766 -0.177490 0.322613 -0.155680 0.217386 0.318565 -0.183260 -0.070520 -0.097766 -0.274440 0.170093 -0.259263 -0.236436 -0.131852 0.304527 -0.287271 0.167715 0.213255 0.277976 -0.219162 0.110836 0.075758 0.218521 0.094599 0.154492 -0.203353 0.017595 -0.235069 -0.072168 0.149213 0.452097 -0.179516 -0.288490 -0.084763 -0.246821 0.131584 0.050556 0.033319 0.026043 0.206677 -0.153582 0.149765 0.303471 0.157057 -0.381349 0.420288 0.080623 0.040990 -0.200684 0.199530 0.218781 0.149365 0.091122 -0.079027 0.097172 0.023434 -0.140473 -0.008876 0.185364 -0.222665 -0.125831 0.227094 0.242803 -0.198271 -0.009704 0.198969 0.043115 -0.007389 0.253139 -0.500403 0.038106 -0.133184 -0.161552 0.121204 0.241738 0.206048 0.016342 0.020412 0.191279 0.059401 0.027186 0.084879 0.137782 0.070276 -0.279711 0.254548 -0.092895 -0.183912 0.132334 0.164166 -0.113667 -0.168544
GlobalSpecies0033 0.175778 -0.119246 0.375664 0.166092 0.360116 -0.099778 0.196474 -0.340449 0.144586 -0.184034 0.483348 -0.470594 -0.246951 -0.634983 0.212624 -0.016358 -0.702485 -0.027423 0.024171 -0.230518 0.022242 0.647363 0.154927 0.194874 0.254353 -0.162335 -0.463881 -0.036220 -0.217577 0.471957 0.338251 0.252956 -0.294661 0.317544 -0.085753 -0.081885 -0.535753 -0.027320 0.526629 -0.035407 -1.022236 -0.367791 -0.280023 0.085252 0.276350 0.333820 -0.171290 0.247315 -0.328202 -0.088501 -0.320885 0.035528 -0.134186 0.041228 0.315816 -0.199000 -0.484542 0.144118 0.340303 -0.368098 0.105527 0.348249 0.404023 0.083538 -0.237384 -0.208989 0.356792 -0.228660 0.499759 0.260440 0.914269 -0.218920 0.140615 0.320159 -0.495948 -0.200623 0.620462 0.130596 -0.166890 0.315219 -0.386088 -0.067393 0.519810 0.569733 -0.311963 -0.383090 0.370833 0.096134 -0.058565 0.173409 0.476529 0.302225 -0.284293 0.047973 -0.040181 -0.276120 0.187582 -0.012959 0.277508 0.673070
GlobalSpecies0034 0.196037 0.153640 -0.395339 -0.012733 0.136395 0.432493 -0.147564 -0.567386 -0.245587 0.243893 -0.036097 -0.259885 -0.520495 -0.047165 -0.349948 0.289007 0.445996 -0.176494 -0.450834 -0.060184 0.442872 -0.043755 -0.568935 0.558841 0.317094 0.283226 0.664131 0.222807 -0.251771 -0.454470 0.016969 -0.209509 -0.104642 0.070657 0.054991 -0.058260 0.236255 0.100258 0.256918 0.039620 0.285374 0.439767 -0.138999 0.187447 -0.139356 0.266838 0.037791 0.076883 0.523800 -0.083610 0.888513 -0.287140 0.508450 -0.092824 -0.642810 -0.027390 0.259974 -0.068483 -0.188623 -0.549073 -0.163160 0.202298 -0.222527 0.451476 0.493325 0.433340 0.344817 0.206725 0.419666 -0.207891 -0.033190 -0.433013 -0.432992 -0.630038 -0.668737 -0.259645 -0.237252 0.076492 0.547352 0.507711 0.583489 0.603466 0.026910 -0.161025 0.314866 0.065373 -0.284293 -0.405608 -0.573263 0.442174 0.069482 -0.063983 0.225348 0.289967 -0.192755 0.196996 0.311556 -0.004403 -0.252196 0.072371
GlobalSpecies0035 0.109106 0.160223 -0.005042 0.038903 -0.080769 -0.130196 -0.100343 -0.053966 0.148572 0.029947 -0.209653 -0.196604 0.425895 -0.151221 -0.064459 0.036738 -0.215197 -0.148403 -0.014994 -0.189281 -0.188700 0.256447 0.057273 0.165923 -0.056454 0.182642 0.311534 0.394060 -0.160709 -0.019544 -0.122646 0.321358 0.225392 0.197628 0.104852 0.314311 0.131058 0.159487 -0.118615 -0.037530 -0.000284 -0.101272 0.123471 0.176585 -0.101699 -0.010384 -0.111554 -0.148060 0.136686 -0.062988 -0.022393 0.060725 0.245122 -0.228005 0.222609 -0.053269 -0.068886 -0.470237 0.025395 0.599502 0.112611 -0.162793 -0.031003 0.199098 -0.232557 0.190404 -0.215193 -0.100259 -0.459211 -0.172460 0.133318 0.050266 0.235581 -0.052313 -0.103555 -0.046172 -0.205584 -0.104314 0.255062 -0.002970 -0.162399 -0.337021 0.060769 -0.093703 0.240833 -0.051001 -0.303745 -0.043013 0.100180 -0.035425 -0.240048 0.004012 0.041315 -0.031341 0.446448 0.391347 -0.210216 0.195623 0.298402 -0.096691
GlobalSpecies0036 -0.091405 -0.133369 0.070130 -0.046096 -0.075590 0.007537 -0.003152 0.033042 0.005771 -0.006225 -0.008497 -0.062191 -0.079388 -0.115794 -0.052946 -0.085692 -0.098861 -0.083817 -0.012945 0.169583 -0.139514 -0.131460 0.071593 -0.064510 0.044533 -0.286510 -0.051001 -0.113795 -0.193584 0.034252 0.029136 0.025446 -0.202704 -0.159335 -0.162908 -0.078115 0.113805 -0.093882 0.092062 0.013299 0.085862 0.233335 0.005243 0.059341 -0.065782 0.166207 -0.086441 0.105792 0.105492 0.008921 0.032016 -0.116015 -0.022428 -0.290126 0.178919 0.042056 0.011188 0.193198 -0.008639 -0.158556 0.229524 0.184991 0.137333 0.033395 -0.000585 0.151140 0.200945 -0.118388 0.067524 -0.076180 -0.127373 -0.097304 0.122750 -0.087508 0.012297 -0.101030 -0.289117 -0.111227 -0.128524 0.117894 0.143008 0.109186 -0.113317 -0.047193 -0.149879 -0.090830 0.041024 -0.128221 0.110282 0.047838 -0.006956 0.156814 0.181418 0.025618 0.077342 -0.032087 0.104547 -0.195542 -0.039950 0.310024
GlobalSpecies0037 -0.022065 -0.045020 0.142853 -0.228439 -0.183194 0.167192 -0.039583 -0.099351 0.136399 -0.053812 0.258718 -0.041768 -0.132436 -0.050890 0.081356 -0.321407 -0.437364 0.177758 0.043151 0.055246 -0.336902 0.101195 0.062190 0.035113 0.055876 -0.153566 0.127607 -0.420461 0.088199 0.032031 0.129818 0.130482 -0.091124 -0.005213 0.127879 -0.041789 0.112926 -0.314904 0.095966 -0.256533 -0.094778 -0.108070 0.210747 0.018097 -0.095808 0.007477 -0.201967 0.035987 -0.018459 -0.398274 -0.011004 0.015297 -0.295956 0.156427 -0.151185 -0.237491 0.108516 0.315975 0.046834 -0.076083 0.047185 -0.269535 0.281945 -0.022535 -0.018699 -0.241752 0.100896 -0.055064 -0.012801 -0.036569 0.003451 -0.037516 -0.160255 -0.071641 0.073432 0.275306 -0.083093 -0.212440 0.113970 -0.021503 0.102154 -0.030827 -0.134269 -0.127268 -0.064794 -0.033847 0.078618 -0.060851 -0.152578 0.205158 0.289909 0.050210 -0.189296 0.230895 0.020106 -0.118595 0.136988 -0.149670 0.042460 0.026300
GlobalSpecies0038 -0.052391 -0.076232 0.243140 -0.047575 -0.082416 -0.039110 0.024235 -0.028613 -0.072929 -0.129366 0.123193 -0.004991 -0.157186 -0.155101 0.098806 0.047840 -0.006871 -0.152674 0.002059 0.146238 -0.168680 0.124562 0.112750 0.004515 0.224711 -0.106844 -0.067881 -0.085521 -0.259072 0.004143 0.002152 -0.079137 -0.088400 -0.097940 -0.171683 -0.139815 0.094781 0.055601 0.131044 0.102246 0.183614 0.119746 0.067200 0.108602 0.103599 0.212903 -0.043489 0.070954 0.115522 -0.071844 -0.009382 -0.051235 -0.045974 -0.166141 0.151849 0.034325 -0.065875 0.246093 -0.083993 -0.186414 0.182302 0.153175 0.021311 0.080596 0.042994 0.060310 0.151377 -0.385801 -0.102202 -0.060082 0.087735 -0.196691 0.077736 -0.070242 -0.002518 0.009283 -0.188168 -0.163899 0.107206 0.166730 0.167018 0.080534 -0.273183 -0.012436 0.087294 -0.016803 0.072298 -0.101590 0.224227 -0.039199 -0.078060 0.212756 0.179332 0.014732 0.066538 0.012083 -0.028332 -0.102075 0.074646 0.108020
GlobalSpecies0039 0.153160 -0.185700 -0.005876 0.123993 -0.119021 -0.313971 -0.196872 -0.090093 0.119344 -0.182613 -0.298838 -0.188955 0.098068 -0.034385 0.316864 -0.035437 -0.124426 -0.377534 0.014835 0.208578 0.027524 -0.168561 0.040311 0.016669 0.083560 -0.084172 0.278764 0.394863 -0.037667 -0.205080 -0.156894 0.180675 0.038452 -0.085776 -0.091366 -0.419470 0.154189 -0.076619 -0.046178 0.079736 0.235354 -0.073075 0.217856 -0.066420 0.194643 0.018178 -0.164868 -0.078226 0.159334 0.226956 -0.034787 0.260956 -0.050542 -0.430727 -0.005010 0.100515 0.028528 0.222016 -0.052473 0.007782 0.023201 -0.394738 -0.084783 0.245923 0.005515 -0.125137 -0.063819 -0.273924 -0.307193 -0.169455 0.113820 0.178716 0.108684 -0.147318 0.338385 -0.469972 -0.032970 -0.271328 -0.072368 0.045046 -0.154693 -0.162875 -0.158970 0.019600 0.115955 -0.285814 0.324954 0.321154 -0.071225 0.211941 -0.402050 0.099809 0.138279 -0.066868 0.151527 -0.211133 -0.055224 0.061161 -0.097406 -0.169891
GlobalSpecies0040 -0.274637 0.012096 -0.138469 0.117769 0.079987 0.171744 0.032472 0.105033 0.024125 0.194073 -0.097104 0.005173 0.181805 -0.064753 -0.244758 -0.033465 0.065769 -0.074522 0.035975 0.100643 -0.091281 0.057869 -0.003764 -0.057158 0.030510 -0.236455 -0.175752 0.141935 -0.061936 0.021566 -0.000672 0.013920 -0.065665 0.009909 -0.043676 -0.017520 0.014982 -0.054292 -0.125619 0.131424 -0.068611 0.213727 0.185589 -0.116898 0.084019 0.215783 -0.043094 0.023538 -0.095213 -0.078347 0.081860 -0.077198 -0.147924 -0.330149 0.199495 -0.071742 -0.058705 -0.213395 0.091567 0.215091 0.069274 0.226469 0.305873 -0.054274 -0.052036 0.206357 0.006382 -0.108798 -0.155764 -0.131405 -0.075180 -0.186823 0.292689 -0.005059 -0.166911 0.115975 -0.203008 -0.020820 -0.044579 0.238996 -0.028976 -0.017958 0.046004 0.279323 -0.078033 -0.092731 -0.040119 -0.098803 -0.036903 -0.043690 -0.051434 -0.022245 0.392613 0.028228 -0.032433 -0.017967 0.024423 0.138416 0.156401 0.053077
GlobalSpecies0041 0.040159 -0.079112 0.046136 0.099279 0.266815 -0.030488 0.111225 0.320388 0.135524 -0.107984 0.151531 -0.192570 -0.058603 0.136544 -0.099503 0.061606 -0.069477 0.027118 -0.017478 -0.034109 0.113474 -0.146122 0.152668 -0.173265 0.034823 -0.113428 -0.235598 0.515289 -0.005573 0.062594 0.202555 0.014610 0.193235 0.213490 0.059474 0.057593 -0.081252 0.601996 -0.224063 -0.205941 0.056707 -0.452183 -0.425539 -0.200333 -0.103160 -0.337037 -0.353642 0.387721 -0.289076 -0.229599 -0.272818 -0.222800 -0.078277 0.033509 0.194029 0.331186 0.034710 0.046071 -0.125236 -0.160538 0.126135 0.221604 -0.070410 0.110497 0.133082 -0.194970 -0.573778 0.337211 -0.063299 -0.050388 0.079970 0.139605 -0.290225 -0.087796 0.031245 -0.088578 -0.255550 -0.220522 -0.060868 0.108636 -0.125763 0.090010 0.057648 -0.095405 0.112786 0.206281 0.135825 -0.306619 -0.023936 -0.129524 -0.081977 -0.493871 0.089861 0.149520 -0.154717 0.070483 -0.244218 0.065790 0.189735 0.099782
GlobalSpecies0042 -0.100746 -0.298248 0.100919 0.273397 0.130092 0.059408 0.236833 0.599309 0.450445 0.141206 -0.439583 -0.140743 0.008975 0.002035 -0.276723 0.080177 -0.271073 0.094023 0.087506 -0.134168 -0.135859 0.217363 -0.677967 -0.449106 0.393390 -0.193250 0.030163 -0.146817 0.063147 -0.330669 -0.041407 -0.135966 -0.009686 -0.036102 -0.135051 0.340699 -0.051039 0.239718 -0.176255 -0.387334 -0.123368 0.050489 -0.102289 0.387511 -0.206632 0.681008 0.367389 -0.146860 0.294023 0.099864 -0.401933 -0.155614 -0.198548 -0.434163 0.075053 -0.337517 -0.003393 0.345478 -0.115944 -0.032900 0.397137 -0.113713 0.178671 0.179366 -0.105076 0.234675 0.297292 0.103569 -0.250156 0.328200 0.268893 0.604132 -0.081196 -0.174969 -0.336001 0.511308 -0.508406 -0.065350 0.000541 0.211824 0.481790 0.175786 -0.589981 -0.233788 0.424134 -0.006266 -0.229491 -0.162850 -0.284511 0.370987 -0.258219 0.174124 -0.028375 -0.155662 0.117803 0.523643 0.089727 0.215376 0.463983 -0.062450
GlobalSpecies0043 0.017060 0.416137 -0.109992 -0.166399 -0.225462 0.117035 0.236791 0.034895 -0.019284 -0.032858 -0.183027 -0.083530 0.297605 -0.302078 -0.224757 0.105430 -0.143346 0.291461 0.002447 -0.165495 -0.098747 -0.196654 -0.364792 0.668718 0.030769 0.346924 -0.011230 0.552448 0.128336 0.032845 -0.389496 0.265541 -0.133240 0.355080 0.000000 0.127805 -0.114193 0.201595 0.032584 -0.478276 0.128224 0.266229 0.129914 -0.073140 -0.166188 -0.195011 -0.006905 -0.005724 0.079303 -0.149962 -0.087312 0.370187 -0.309417 -0.463962 -0.128082 0.069354 0.004959 -0.360634 0.067078 0.484481 -0.299587 0.344869 -0.030880 0.010735 -0.208714 0.338810 -0.487790 -0.090809 -0.370542 -0.433550 0.101872 0.161444 -0.026568 -0.011297 -0.054760 -0.065149 0.095973 0.079365 0.098231 -0.055953 0.180897 -0.543071 -0.162698 0.045610 0.027884 -0.051772 -0.215631 0.178771 0.211644 0.359595 -0.398891 -0.361507 0.015075 0.141140 -0.029702 0.477404 -0.384393 0.339703 1.004980 0.015440
GlobalSpecies0044 -0.781141 -0.269590 -0.272544 0.635082 -0.212407 0.049544 -0.242361 -0.275124 -0.323110 -0.096320 0.110133 0.161322 -0.492456 0.127480 -0.402414 0.091130 0.624778 0.365647 -0.116620 -0.345616 0.218543 0.744977 -0.416678 0.628252 -0.633398 0.617800 0.407073 0.493005 -0.710211 0.677974 0.238414 -1.130340 -0.436842 -0.098397 0.097064 0.232015 0.147806 -0.124249 -0.256564 0.768084 -0.744471 -0.973271 0.093630 -0.148723 -0.354096 -0.011286 0.109752 0.043164 -0.489430 0.485590 0.147737 0.967262 -0.260633 0.084426 0.076704 -0.205188 -0.511439 0.451569 0.077906 -0.036702 0.397729 0.349654 0.154321 -0.394750 -0.026321 -0.236487 0.285137 0.726443 0.181054 -0.420670 0.361742 -0.042935 0.180557 -0.728706 -0.268426 0.153792 -0.391543 0.086950 0.112355 -0.392778 -0.121107 0.078781 -0.198331 -0.041346 0.284296 -0.344239 -0.226410 -0.021756 -0.286505 1.041495 0.774728 -0.190418 -0.025032 -1.037597 -0.601307 -0.194401 -0.728223 0.267397 0.319759 -0.300868
GlobalSpecies0045 0.160790 -0.102128 0.069285 0.100202 -0.036925 -0.022088 0.115128 -0.254042 -0.042965 -0.062312 0.172206 0.105507 -0.057810 -0.076663 0.206702 0.198997 0.030035 0.019142 -0.084800 0.093822 -0.055597 -0.193562 0.022283 -0.182877 0.013718 -0.161100 0.077344 -0.066645 0.033790 -0.083404 0.272921 -0.004309 -0.150819 -0.032955 -0.152513 -0.144295 0.027681 -0.075692 -0.006823 0.131275 0.146389 -0.054698 0.192710 0.125593 0.178742 0.188907 -0.141344 0.046492 0.240591 -0.136056 -0.336360 0.211062 0.277670 -0.256357 -0.066472 0.179341 0.250218 0.179761 -0.087961 0.004911 0.015692 -0.078290 0.195939 -0.017384 0.002681 -0.159106 0.212448 -0.209585 0.130132 -0.005309 -0.139167 0.019797 0.148509 0.016192 0.199296 -0.042608 -0.032144 -0.028347 -0.043583 -0.092737 0.151407 0.213972 0.034846 -0.065005 0.173385 -0.035076 0.021026 0.086258 0.208119 0.057239 0.049463 -0.015423 -0.140107 0.175454 0.154710 0.065175 -0.083074 -0.152873 0.262506 0.200385
GlobalSpecies0046 0.289607 0.266286 -0.060669 -0.156146 -0.272524 -0.287239 0.184001 -0.302467 -0.009597 0.005985 0.386939 0.150681 -0.015869 -0.302285 0.308524 0.218102 0.515659 -0.244240 -0.013311 -0.021313 0.311276 -0.118339 -0.115117 -0.036447 -0.045065 -0.514737 -0.149529 0.201391 -0.091888 0.040039 0.256828 -0.521053 0.342172 -0.117377 0.288619 0.371053 0.727155 -0.589381 0.261072 0.201741 0.450057 0.356399 -0.205128 -0.519653 -0.237471 0.511160 0.405987 -0.268927 -0.297283 0.477719 0.173309 0.104217 -0.020509 -0.078107 0.154700 0.266706 0.093028 -0.374339 0.108280 0.508444 -0.208864 -0.257426 -0.074813 -0.024646 0.227284 -0.048089 -0.398346 0.423976 0.522259 -0.228839 0.137128 -0.221517 -0.598507 -0.135543 -0.026188 -0.127119 -0.395652 0.245832 0.010069 -0.204641 -0.624904 0.131414 0.019996 0.362298 -0.443744 0.152210 -0.206610 -0.555816 -0.440591 0.069683 -0.126479 0.117134 -0.230635 0.427413 -0.274394 -0.115339 0.505486 0.515429 0.129679 -0.040680
GlobalSpecies0047 -0.042057 -0.138675 0.051435 -0.041694 -0.002077 0.036112 -0.147367 -0.190732 0.211641 0.221506 0.168433 -0.076598 -0.047650 -0.064545 -0.001139 -0.115667 0.067157 0.097472 0.097807 -0.064751 -0.261725 -0.152276 -0.183492 -0.051465 0.026348 -0.302769 0.102725 -0.384652 0.043624 0.196658 0.257108 0.117483 -0.122923 -0.211536 0.009173 -0.091473 0.096673 -0.080282 0.106365 -0.255703 0.136882 0.107575 -0.007027 0.080513 -0.122270 0.228645 -0.117171 -0.086037 0.096154 -0.054991 0.183937 -0.024899 -0.016779 -0.271494 -0.209150 -0.051070 0.179849 0.121207 -0.033269 -0.137404 0.002773 -0.020568 0.176216 -0.051648 0.006792 0.115403 0.250937 0.058783 0.005444 -0.124376 -0.110995 -0.180178 0.036767 -0.189933 -0.017904 0.097342 -0.106232 -0.081759 0.188049 0.058283 0.297280 0.112032 0.015790 -0.048140 -0.146685 0.035108 -0.074551 0.015378 -0.130784 0.282661 0.244642 0.087188 -0.354132 0.015428 0.027910 -0.062929 0.449998 -0.105181 -0.111291 0.019010
GlobalSpecies0048 -0.218976 -0.114024 0.137745 -0.193105 0.039733 -0.014595 -0.040309 -0.033259 0.059612 -0.094105 -0.033937 -0.109063 0.031991 0.090659 0.262612 -0.098096 0.053156 -0.046870 -0.069453 0.145788 -0.285002 -0.014832 0.064050 -0.160877 -0.019023 -0.055522 -0.107153 0.129040 0.122301 -0.006167 -0.064400 -0.070876 -0.140264 -0.200463 -0.155415 -0.094848 0.005782 -0.141957 0.183155 -0.195825 0.119344 0.088096 0.128946 -0.179560 -0.002508 -0.143824 -0.035457 0.227637 -0.129300 0.026845 0.041849 -0.036921 0.029386 0.012568 -0.223009 0.031706 0.102415 0.054177 -0.195492 -0.110574 -0.031874 0.172195 -0.056723 0.084559 0.249302 -0.343646 -0.249327 -0.066393 0.199753 0.089935 -0.104591 0.153514 -0.008343 0.158904 0.026176 0.068863 -0.029474 0.086516 -0.006730 0.023753 -0.110306 -0.208992 -0.003936 0.023020 -0.181564 0.245439 -0.016639 -0.026638 -0.177574 -0.194172 0.050424 0.012869 -0.066489 0.156972 0.107069 0.090676 0.084395 0.013961 -0.010887 0.141231
GlobalSpecies0049 0.003092 0.032882 -0.447191 -0.060247 0.368627 0.454996 -0.104177 0.104467 0.144388 -0.343608 -0.225592 0.131677 -0.347167 0.092629 -0.437215 0.248934 -0.116750 -0.252945 0.000611 -0.401032 0.384641 -0.241046 -0.076852 -0.227310 0.026908 0.053574 0.323180 0.029533 0.146315 -0.028718 -0.296829 0.143988 0.257041 -0.178196 0.359798 -0.241797 -0.021256 0.268448 0.144221 -0.038156 -0.202153 -0.163399 -0.026924 -0.044514 -0.075989 -0.139434 -0.249093 0.074875 -0.074194 -0.065880 0.379311 -0.412350 -0.003208 -0.367794 -0.127569 0.103354 -0.353487 0.105791 0.242307 -0.020779 0.146065 -0.009467 0.047326 -0.161384 0.149300 -0.019569 -0.325125 -0.023890 -0.005704 -0.260938 0.184443 -0.046874 -0.177141 0.055627 -0.006738 -0.056654 0.480991 -0.335589 -0.004197 -0.185303 -0.267062 -0.020182 0.153944 -0.099117 0.017107 -0.290531 -0.015178 -0.172058 0.206704 0.060591 0.187312 0.325825 0.221173 -0.274807 -0.033782 0.222784 0.045968 0.003046 -0.197924 -0.138540
GlobalSpecies0050 0.315011 0.407544 -0.276898 -0.319668 -0.500803 0.781200 -0.348514 0.148634 -0.021236 -0.266906 -0.535408 -0.257653 -0.056820 -0.154887 0.693062 0.253165 0.232920 0.247957 -0.501355 0.275943 0.222238 0.333251 0.436564 -0.166329 -0.056447 0.108246 -0.151680 -0.670491 -0.621776 -0.241738 -0.419237 0.466485 0.152521 -0.102357 0.042228 0.084705 0.236555 0.140238 -0.340509 -0.544106 -0.033645 -0.099004 -0.187030 0.000166 0.764783 -0.251846 -0.176201 -0.732734 0.565850 -0.120416 -0.225808 -0.366760 0.094723 -0.423480 -0.155184 -0.496542 0.751064 0.168129 -0.229110 -0.410761 0.440287 -0.213147 0.074833 0.278026 -0.197956 0.209788 0.627220 0.363037 0.394751 0.171793 0.689846 -0.040239 -0.177119 0.827869 -0.262457 -0.638794 0.198670 -0.120014 0.122005 -0.482864 0.505407 -0.105581 -0.011195 -0.686797 0.313761 -0.358621 0.249115 0.252736 0.045805 -0.226841 -0.144945 -0.506481 -0.193663 -0.248144 0.269403 0.110583 0.531610 -0.179490 0.442562 -0.020808
GlobalSpecies0051 0.042018 -0.075499 -0.164078 1.342012 -0.172118 0.327515 0.222358 -0.025784 -0.936905 0.347388 1.013082 0.217411 -0.014261 0.444419 0.652350 0.518519 0.046343 0.131354 -0.258431 -0.336689 0.305930 0.406591 -0.602043 0.401868 -0.311764 1.058514 -0.851337 -0.445712 -0.378519 -0.032999 -0.140862 0.000039 -0.063238 0.062345 -0.237133 0.375785 0.158414 -0.161382 0.278168 -0.380174 -0.253866 -0.170946 0.053976 -0.142635 0.052677 0.279185 0.291062 0.136170 -0.008448 0.261554 -0.494307 -0.272437 0.374576 -0.259732 -0.180131 -0.729555 -0.314373 0.733903 -0.554370 -0.242365 0.520430 -0.466132 -0.140309 -0.150154 0.093731 -0.155292 0.066293 0.517629 0.808024 -0.234951 0.461595 -0.194424 -0.515781 -0.378945 -0.873190 0.193343 0.696683 -0.111647 0.318880 -0.687505 0.096291 0.682424 -0.181454 0.119628 -0.631797 -0.221044 0.258525 0.370556 -0.007587 0.247765 0.832975 -0.552970 -0.709302 -0.273033 0.002309 -0.527610 0.053704 0.811818 -0.609265 0.203387
GlobalSpecies0052 0.104357 0.424637 -0.940771 0.101676 0.805282 -0.462116 -0.776226 0.450423 -0.271811 -0.183471 -0.299843 0.161288 0.323479 -0.288502 -0.645866 -0.135502 0.104334 0.616093 -0.863264 0.389509 -0.245143 0.857507 -0.255429 0.679553 -0.134944 -0.572132 0.089885 1.051120 0.326723 0.512294 -0.210452 -0.185475 0.125817 0.254860 -0.092435 0.704952 -0.445329 0.165516 -0.026292 -0.143795 -0.302962 0.166800 -0.188052 -0.622267 0.358732 0.225240 -0.520679 -0.327027 0.229238 0.485063 -0.151495 0.027489 0.326151 0.861645 0.656959 0.084960 -0.160479 -0.080164 0.176442 0.248674 0.055789 -0.753978 0.381293 0.036719 0.362203 0.024233 -0.327887 0.077275 -0.437225 -0.327374 0.350217 1.002957 -0.155869 0.578981 0.298995 0.232966 0.052008 -0.117742 -0.200099 -0.127385 -0.537029 -0.735405 -0.431861 -0.276291 0.367345 -0.533585 0.544847 0.841632 -0.362511 0.380710 -0.453888 -0.130929 0.144429 -0.406592 -0.108600 -0.224646 -0.442135 0.582743 0.159401 0.555504
GlobalSpecies0053 0.115065 0.310936 0.145509 -0.369590 -0.363150 -0.151280 0.138981 0.005827 0.168169 0.011400 0.136688 0.078186 0.234885 0.202216 0.425442 -0.125118 0.040369 -0.210361 -0.027876 -0.318070 0.205471 -0.076776 0.022113 -0.193484 0.023882 -0.265064 0.063706 0.078866 0.074708 0.004939 0.057606 0.264225 0.318159 -0.051452 0.306149 -0.063417 0.106819 0.056461 -0.101173 -0.035960 0.070928 -0.219258 0.188836 0.032983 0.067907 0.286472 -0.254223 0.172859 0.330667 -0.203049 -0.119906 -0.508120 0.031343 0.083288 -0.398577 -0.082899 -0.028125 -0.127729 -0.102630 -0.336572 0.368553 0.161116 0.053718 -0.040113 -0.278621 -0.151216 0.025303 0.169714 0.220192 0.055172 0.176710 0.069499 -0.011696 -0.028279 -0.283704 -0.323576 0.008882 0.361888 0.186909 0.172514 0.177694 -0.423158 0.075716 -0.403539 -0.198533 0.487314 0.225721 -0.016245 0.033503 -0.088423 0.063695 -0.287831 -0.038464 0.172460 -0.003812 -0.127676 0.101983 -0.140788 -0.091706 0.449004
GlobalSpecies0054 0.040065 0.009540 -0.031571 0.053511 -0.051309 -0.030676 -0.159986 -0.195589 0.014568 -0.035432 -0.057618 0.070325 0.222530 -0.000965 -0.070721 -0.124618 -0.032242 -0.174917 0.019163 -0.149356 -0.006552 0.213593 -0.093743 -0.028861 0.094564 0.031108 -0.151259 0.180712 -0.054381 -0.263700 -0.089252 -0.017321 0.060087 0.036982 0.007535 0.129465 0.245177 -0.096709 0.080041 0.101801 0.242561 0.216151 0.092772 0.029320 -0.275194 0.267619 0.202330 0.032214 0.009295 -0.062566 -0.257719 -0.184401 -0.173680 -0.010416 0.173214 -0.175479 -0.010852 0.024661 0.214129 0.057219 -0.027854 0.351708 0.074939 -0.055475 -0.052137 -0.255334 0.193846 -0.493064 -0.170711 0.023486 0.016168 -0.185501 0.143659 -0.108636 -0.074887 0.065584 -0.299727 -0.057202 0.200920 0.063948 -0.186643 -0.192207 0.201449 0.198244 0.136781 -0.067138 -0.147467 0.041365 0.078132 -0.113174 -0.201154 0.248136 0.306538 -0.093021 0.112132 -0.243376 -0.014096 0.006354 0.040101 -0.122606
GlobalSpecies0055 -0.051777 0.178362 0.071710 0.035356 -0.228559 0.366185 0.063771 -0.061047 -0.088938 0.021574 0.116996 -0.310130 -0.075954 -0.268463 -0.101315 -0.080215 0.040150 0.137575 0.141262 -0.046594 -0.093640 -0.035919 0.083898 0.167389 0.011642 -0.157809 0.090110 -0.056379 0.156911 -0.008649 0.189795 0.113981 -0.085941 -0.186912 -0.222028 -0.145900 -0.004267 0.033048 0.035674 0.112195 0.225670 0.309365 0.087019 0.163905 0.057382 0.040525 0.196487 0.165196 -0.153697 0.329897 0.074634 -0.264100 -0.349752 -0.008870 0.086667 0.084528 -0.053786 -0.064288 -0.115574 -0.098793 0.244881 0.225137 0.196305 -0.560445 -0.241139 0.160934 0.183694 0.024869 -0.149059 -0.125922 -0.048559 -0.165237 -0.074518 0.047764 -0.154621 0.174232 -0.325552 -0.115609 -0.146378 0.167192 -0.016954 -0.001401 -0.325005 0.269068 -0.146942 0.008960 -0.053276 -0.242769 -0.038552 0.342003 -0.384997 0.044794 -0.038081 -0.048859 -0.105186 0.208602 -0.180344 0.012344 -0.330828 -0.206009
GlobalSpecies0056 0.147479 0.133760 -0.249950 -0.385471 0.605348 0.587091 -0.002093 0.234785 -0.865354 0.088534 0.018306 -0.033166 -0.545660 0.803438 -0.808253 0.345208 0.607741 0.701769 -0.099311 -0.062854 0.337179 0.754924 -0.417131 0.116556 -0.415467 0.308622 0.181463 0.479458 0.090515 -0.475798 0.079699 0.006185 -0.245041 0.058932 -0.527546 -0.205335 -0.541903 0.696733 0.299349 0.500631 -0.505327 -0.223028 -0.711319 0.447784 -0.590801 -0.183596 -0.154776 0.085735 0.049920 0.405657 -0.214448 0.270357 -0.166758 -0.191669 -0.025364 0.172063 -0.212008 0.281680 0.118191 -0.160809 0.201085 -0.129203 -0.086188 0.344706 -0.444912 -0.510547 0.001333 0.532551 -0.328757 -0.212526 0.109758 0.222868 0.027665 0.570689 -0.497286 0.181092 0.537304 -0.230175 -0.870031 -0.106351 -0.027271 -0.277531 0.535066 0.255965 0.552908 0.018481 0.245288 0.460805 0.028092 0.450185 0.495160 0.513547 -0.255706 -0.510692 0.019673 -0.003417 0.082607 -0.172302 0.203990 0.783084
GlobalSpecies0057 -0.341935 0.275766 -0.647281 0.150950 0.088549 0.026804 -0.154803 -0.569271 -0.355036 -0.190298 0.018880 -0.323109 0.013843 -0.389081 0.074658 0.021283 0.274412 0.348729 -0.287495 -0.463896 -0.032725 0.015756 -0.132879 0.789548 -0.038270 0.120470 0.198281 0.332293 -0.278780 -0.079796 -0.330991 0.424478 0.467900 0.196209 0.826409 0.508944 0.097651 0.230846 -0.365260 -0.159595 0.361917 0.303664 0.082327 0.283236 0.105300 -0.580838 -0.359750 -0.139611 -0.513931 0.350155 0.164392 0.138976 -0.139567 -0.148429 0.284072 -0.170283 0.196820 0.118025 -0.059260 -0.163945 0.485833 0.210303 0.287812 0.098411 -0.149897 -0.107317 0.156991 -0.298124 -0.381815 0.298188 -0.172138 -0.207417 -0.348458 0.071363 0.048065 0.203679 0.342138 -0.308910 0.479017 0.148811 -0.790267 -0.408970 -0.000479 0.206976 1.014943 0.237062 -0.168774 0.142278 0.170813 0.065917 -0.695720 -0.074295 0.506103 -0.213957 0.208262 -0.222162 0.122723 0.601199 0.034444 -0.833037
GlobalSpecies0058 -0.283393 0.268496 0.027980 0.399814 -0.080224 -0.003555 0.152859 0.014056 0.085279 0.067243 -0.003823 0.403624 0.247594 -0.177429 -0.314457 0.214080 0.118370 0.079197 -0.208057 0.002979 0.146131 -0.117313 0.113553 0.197296 0.263859 0.039665 0.136141 0.325974 -0.106714 -0.331068 -0.346503 -0.230435 0.077892 -0.244338 0.063804 -0.650283 -0.201874 -0.140832 0.079459 0.022853 0.470194 0.580871 0.285244 0.391924 -0.319263 0.097334 0.114480 -0.211528 -0.074011 0.312438 -0.522232 -0.144413 -0.556368 -0.536703 -0.089484 -0.144103 -0.655371 -0.412760 -0.123820 -0.662610 -0.281787 -0.147311 -0.291230 0.039317 -0.374343 -0.187120 0.035186 -0.332948 0.190354 0.030830 0.084895 -0.590650 -0.182152 0.397427 -0.236842 0.549201 0.498888 0.379983 0.111650 -0.193365 -0.361148 -0.035848 0.304224 0.020976 0.702452 0.023943 0.030361 -0.323857 0.226444 0.218697 -0.669541 0.101487 0.386414 -0.097466 0.318851 0.229693 -0.433582 -0.279870 -0.360583 0.004377
GlobalSpecies0059 -0.038805 0.190201 0.230598 -0.400989 0.066437 0.078756 0.124469 -0.112972 -0.008795 0.179342 -0.152150 -0.217098 -0.003219 -0.110073 0.255287 0.383594 -0.303692 0.417312 -0.026167 0.277151 -0.461512 0.054511 0.284418 0.011472 0.159860 0.094201 0.035962 -0.378679 -0.115178 0.088775 0.188835 -0.162577 0.120273 -0.380164 0.127880 0.063143 -0.030290 -0.124713 -0.196653 0.060464 -0.093677 -0.064416 -0.354651 -0.207020 0.037981 -0.143883 0.227248 0.164989 -0.200190 -0.236255 0.088945 0.024527 0.165179 -0.003848 -0.129447 -0.495271 0.299809 0.542973 0.045289 0.040314 0.210258 0.206970 0.161800 -0.131168 0.050400 0.177685 0.436219 0.063568 0.298198 0.144747 -0.312766 -0.388367 0.121210 0.153403 0.210514 0.003632 -0.019861 0.087240 0.307029 0.072852 -0.344612 0.251030 -0.317745 -0.197147 -0.067872 0.137170 0.132355 -0.079248 -0.149068 -0.034813 0.341970 -0.208683 -0.076922 -0.333509 0.171385 -0.002248 0.484195 -0.076026 -0.262810 -0.330880
GlobalSpecies0060 0.754449 -0.154263 -0.109781 -0.277614 -0.088566 0.170655 -0.127919 -0.448568 -0.430814 0.201539 -0.240122 0.386079 -0.582629 0.221756 0.114131 -0.252421 0.375842 0.715598 -0.399060 -0.294623 0.275903 0.205380 -0.773750 -0.328236 -0.622752 -0.336783 -0.696315 -0.321228 -0.151796 0.286923 -0.334957 0.013324 0.266867 -0.372507 0.278784 -0.141604 -0.389103 -0.047708 -0.004836 0.561309 -0.444362 0.565166 -0.051863 0.544709 0.381381 0.679119 -0.066143 -0.270278 -0.811093 0.625056 -0.112871 0.076663 0.376989 -0.167070 -0.301593 0.327666 -0.427933 -0.040726 0.357802 0.325929 0.065613 0.129684 -0.099135 0.274727 0.293457 -0.197790 0.231845 0.275167 0.350386 0.269821 -0.299024 0.468499 -0.684026 -0.329816 -0.287211 -0.287136 0.317295 0.097886 -0.275536 -0.202876 0.039563 -0.692955 0.473166 0.447382 -0.561672 -0.453793 0.181610 0.148226 -0.335129 0.015763 0.445168 -0.056414 0.238641 -0.007024 -0.864325 -0.065235 0.572565 0.032655 0.283414 0.367368
GlobalSpecies0061 -0.054271 0.549963 -0.054230 0.224430 -0.213623 -0.122315 -0.936009 -0.234562 -0.118701 0.796399 -0.428509 -0.148709 0.121988 -0.852899 -0.052825 -0.119434 -0.359133 0.497591 -0.586810 0.294247 0.421221 0.790633 0.472799 0.507772 0.443671 0.367128 -0.078018 0.486598 -0.276140 0.128879 -0.435563 0.065571 0.292356 -0.180392 0.054720 0.288569 -0.335114 0.290298 0.163444 0.350015 -0.259200 -0.268767 0.832504 -0.013592 -0.402983 -0.073308 -0.334817 -0.207395 0.102212 0.146176 -0.252809 -0.098311 -0.324896 -0.370855 0.175799 -0.084441 0.308887 -0.398006 -0.110390 0.365242 -0.031667 0.341957 -0.239293 -0.055754 -0.002397 0.479937 0.363807 0.536872 0.161312 -0.317844 0.284224 0.690695 -0.366059 0.186871 0.265658 -0.431248 -0.091463 0.376989 0.007741 -0.196812 -0.418263 -0.110699 0.816845 0.407915 -0.131553 0.073051 -0.319345 0.260577 0.104991 -0.148547 -0.249568 -0.101467 0.158733 -0.336580 0.265638 0.411084 -0.305411 -0.069485 -0.070318 -0.175496
GlobalSpecies0062 -0.327884 -0.120130 0.049913 0.002966 0.087759 0.216784 -0.104992 0.160495 0.106722 0.051332 -0.268179 -0.067576 0.015795 -0.035439 -0.032195 -0.047395 -0.148181 -0.000844 0.084262 0.143256 -0.126017 0.096097 0.043852 0.105210 0.020331 -0.189002 -0.174573 -0.065487 0.092231 0.211184 -0.215573 0.015815 -0.246230 -0.000822 0.038623 0.082217 0.005214 -0.150805 0.006917 -0.016362 0.011933 0.407082 -0.077370 -0.065288 -0.126031 0.203602 0.175296 0.020175 -0.199749 -0.091817 -0.011280 -0.016001 -0.245226 -0.004411 -0.212650 -0.092627 0.052198 -0.273602 0.159653 0.053388 -0.127862 0.172153 -0.087256 -0.091723 0.220463 -0.092677 0.141023 -0.121846 -0.148934 0.001772 -0.109324 -0.195029 0.021882 0.195210 -0.025632 0.020652 -0.242644 0.092213 0.189135 -0.007979 0.070331 -0.047386 -0.212317 0.304500 -0.081666 0.061809 0.025915 -0.079911 -0.122309 -0.363846 0.176146 -0.003541 0.049941 0.016307 0.323782 0.118448 0.231399 -0.058419 0.157097 -0.121505
GlobalSpecies0063 -0.168731 0.106001 0.295224 0.357139 -0.029829 0.063154 -0.021639 0.009685 0.060612 -0.211658 0.015110 0.037148 -0.403173 -0.240309 0.129717 -0.199472 0.018380 0.222345 0.347831 -0.250366 0.148425 0.070297 0.211006 -0.315101 0.473551 0.123524 -0.307366 0.031149 -0.146230 0.248660 -0.172641 -0.080409 -0.365714 -0.011068 0.093463 0.010241 -0.145972 0.155601 0.099456 0.219004 -0.065171 -0.005800 -0.010303 0.148310 -0.087677 0.255726 -0.019986 0.129764 0.235305 -0.227748 -0.359326 -0.283929 0.063341 0.060146 -0.042656 0.093661 -0.165146 0.216230 0.105128 -0.153166 0.354948 -0.004321 0.052246 -0.082324 0.225933 0.104639 0.317106 -0.205195 -0.239732 -0.152980 0.074526 -0.409963 0.167729 0.214719 -0.358394 -0.073746 0.061157 -0.179188 0.195610 -0.327955 -0.026410 0.346881 0.020495 -0.077423 0.129415 -0.124333 0.275334 -0.303360 0.000691 -0.187943 -0.257537 0.120083 0.223288 -0.025257 -0.130892 0.087838 0.078280 -0.403838 -0.367646 0.085742
GlobalSpecies0064 -0.171062 0.053135 0.075512 0.351223 -0.025143 -0.015614 -0.050029 -0.064079 0.072528 0.109835 0.097424 -0.157063 0.160451 -0.028517 -0.098323 -0.060432 -0.264910 0.038551 0.060731 -0.013417 -0.162709 0.018790 0.185491 0.030211 -0.030470 -0.021221 0.155922 -0.027800 -0.478597 0.057161 -0.077511 0.234971 -0.224589 0.177251 0.129219 0.230972 0.179923 0.133851 0.173390 -0.094226 0.122702 0.049167 -0.162842 0.184451 -0.013216 0.101871 -0.061157 -0.068892 0.153640 -0.238634 -0.061436 0.204345 -0.085810 -0.147919 0.013416 -0.275394 0.183879 0.129787 0.099187 0.357919 0.089812 0.142929 0.446876 0.081223 -0.145971 0.082636 0.092218 0.109166 -0.086101 -0.237031 -0.135221 -0.406478 0.232405 -0.341352 -0.246067 -0.106998 -0.018534 -0.131018 0.027147 -0.014764 0.167495 -0.027549 -0.068186 0.006713 -0.031583 0.106648 -0.202334 -0.029215 -0.181122 -0.277803 0.185989 -0.233689 -0.045201 0.068328 0.269382 -0.226962 0.215442 0.101745 0.143186 0.191422
GlobalSpecies0065 0.397593 -0.025337 0.015190 -0.103451 0.286784 -0.188848 0.164558 -0.034528 -0.180535 0.175173 -0.092535 -0.415932 0.014165 -0.219486 0.174704 -0.159854 0.280982 -0.158223 0.172494 0.011881 -0.145488 0.104762 0.022122 0.113229 0.263315 0.106346 -0.373849 -0.130135 -0.212493 -0.296977 -0.247261 0.189032 0.072534 0.322558 -0.188698 -0.188789 0.149628 0.221316 -0.035732 0.258350 0.004384 0.079921 -0.110276 -0.044808 -0.006395 0.139609 -0.206201 -0.126095 0.106703 -0.279252 0.030055 -0.469675 -0.413821 -0.082692 0.075386 0.036511 -0.223034 0.083995 0.030580 0.214511 -0.166603 -0.138349 0.030863 0.123730 -0.197629 0.374245 0.150198 -0.282628 -0.539316 0.083001 0.129087 0.068663 0.378288 -0.286990 -0.034467 -0.302969 -0.184251 0.267424 -0.125003 0.070870 -0.005224 -0.069224 -0.094893 0.121670 -0.179585 -0.138469 0.234610 -0.247336 0.133961 -0.145158 -0.461692 0.260040 0.367905 0.280524 -0.139807 0.052714 -0.175758 -0.254528 -0.080056 -0.133782
GlobalSpecies0066 0.047368 0.087537 0.065541 -0.061215 0.002576 0.097494 -0.000212 -0.029125 -0.046840 -0.214228 0.103386 -0.045295 -0.025643 -0.123294 0.212513 -0.088892 -0.147421 0.197579 0.073193 -0.017193 0.001036 0.174489 -0.038212 -0.191443 0.064437 -0.025027 0.157346 -0.134987 0.012655 0.156803 0.090300 0.003603 -0.303550 0.292959 0.337861 0.114473 -0.247504 -0.243369 0.184837 -0.196754 0.197584 -0.162806 -0.023274 -0.055452 -0.205177 0.192147 0.028287 0.025263 0.236738 -0.094627 0.250197 -0.073316 0.078880 -0.012475 -0.008694 -0.124937 0.113771 0.219927 -0.292341 -0.028788 -0.071318 0.078221 -0.161599 0.258756 0.006917 0.023437 0.101701 0.042606 0.156763 0.055638 -0.178955 -0.226327 0.024328 0.010594 0.125563 0.004190 -0.023366 -0.074288 0.105863 -0.040813 0.178413 0.242151 -0.095119 -0.024499 0.033509 0.212930 -0.167123 0.012031 0.128261 -0.209997 0.108765 -0.036949 0.092242 0.042241 0.100563 0.324266 0.214055 0.080851 0.298711 0.092896
GlobalSpecies0067 0.247779 0.138376 0.152762 -0.299854 -0.081920 0.000760 0.059517 0.238564 -0.009735 0.265009 0.180927 -0.026462 -0.435398 -0.583666 0.176993 -0.047864 -0.571435 0.087711 0.456158 0.191559 -0.145635 0.285049 0.151285 -0.425417 0.063434 0.263172 -0.468086 -0.189423 -0.383435 0.170484 0.000819 0.187103 0.176397 -0.126334 0.228971 -0.135092 0.040083 0.153746 -0.115573 0.197179 -0.006126 0.300564 -0.063563 0.074979 0.188441 0.002642 -0.153389 0.156688 0.318481 -0.054823 -0.141244 -0.149201 0.754205 -0.070648 0.251682 -0.252352 -0.246380 0.053023 -0.200717 0.363492 0.398430 0.021967 -0.318310 0.209103 0.311105 0.007934 0.461258 -0.119397 -0.009382 0.142828 0.397047 -0.402416 -0.284345 -0.095903 -0.833758 0.101098 -0.211811 -0.027750 0.551400 0.097579 0.314163 0.119702 -0.250907 -0.058543 0.074857 -0.268878 -0.226601 -0.315037 -0.170285 0.194959 -0.368978 0.231316 0.066247 0.494929 0.159704 0.139212 -0.159286 -0.353267 0.057219 0.065965
GlobalSpecies0068 -0.042039 0.084751 0.290348 -0.163455 0.089079 -0.039010 0.077837 0.046148 0.060781 -0.047818 0.137675 -0.087466 0.160818 0.112168 0.000453 -0.157972 -0.171499 0.095281 -0.117955 0.130670 -0.189510 0.136993 -0.061854 -0.033294 -0.134142 -0.065798 -0.024939 -0.043917 0.158510 0.055045 0.015760 -0.005439 -0.036318 0.024163 0.113082 -0.046257 0.051317 -0.216272 -0.066631 -0.254179 -0.031823 -0.002470 -0.112634 -0.102032 -0.074743 -0.056949 0.028897 0.138758 -0.259128 0.018657 0.142014 -0.169839 -0.010537 0.208539 -0.210145 0.124109 0.207734 -0.106335 -0.224640 -0.048405 0.075843 0.069550 -0.159804 -0.061491 0.098664 -0.177968 -0.076904 -0.047307 0.120583 0.203273 -0.208055 0.073212 -0.050730 0.049224 -0.017772 0.139420 -0.124577 0.083048 -0.080911 0.063769 -0.083227 0.023860 -0.171166 -0.002234 -0.050763 0.300348 -0.035863 0.037154 -0.097348 -0.180324 -0.005198 -0.172933 -0.088312 0.030572 -0.087484 0.194369 0.173458 0.049012 -0.215398 -0.012115
GlobalSpecies0069 0.151970 -0.063010 -0.280661 0.128787 -0.325074 0.363731 0.257310 -0.059036 0.077333 -0.278216 0.166996 -0.002549 0.261829 -0.023372 -0.181770 0.195635 0.031553 -0.123201 0.189804 -0.350967 0.063530 -0.479443 -0.065648 0.010599 -0.104930 0.332198 -0.087810 -0.247586 0.400915 -0.183249 0.347801 0.168667 -0.118034 0.211427 0.024701 0.000460 0.042818 0.062065 -0.169567 0.500548 0.094036 0.210527 0.017417 0.054376 -0.016317 -0.356348 -0.357388 0.131638 -0.169327 0.196860 -0.232655 0.198628 0.400433 -0.339475 -0.093505 -0.047330 -0.343622 0.017129 0.552957 -0.018654 -0.150047 -0.439330 -0.228580 0.083257 0.260346 -0.043725 0.035087 0.075090 -0.226844 0.136137 0.164011 0.464887 -0.209953 0.222512 0.273932 0.038102 0.007178 0.313766 -0.444236 -0.122425 0.015103 0.433787 0.465583 -0.140443 0.002683 0.051366 0.298160 0.121552 -0.251622 -0.127888 -0.013478 0.318568 0.114300 0.029958 0.223378 0.331529 -0.036147 -0.154041 0.300527 0.243761
GlobalSpecies0070 0.105196 -0.157368 0.105909 -0.063716 0.005521 -0.290578 0.180368 0.082296 0.076355 -0.023852 -0.184381 -0.066833 -0.103498 -0.187119 0.131592 0.082415 -0.020576 -0.406335 0.132263 0.248315 -0.242212 -0.193509 0.060721 0.061989 0.044613 0.068669 -0.282524 0.130640 -0.271861 -0.234075 -0.007697 0.035948 -0.220906 -0.019699 -0.282013 -0.199509 0.244914 -0.063768 -0.019864 0.085295 0.158767 0.078794 0.015835 -0.001393 0.077175 0.026981 -0.073866 0.035548 0.081423 -0.077559 0.006048 -0.068410 -0.037496 -0.089836 0.062502 -0.017444 -0.161718 0.049300 0.234383 0.027110 -0.032879 0.104037 -0.053802 0.047602 0.126434 -0.026324 0.003101 -0.414909 -0.224257 0.086729 0.065830 -0.108605 0.124394 -0.077448 0.006779 -0.050145 -0.045572 -0.035546 -0.097923 0.208792 0.114725 -0.055864 0.081411 0.112055 0.067369 -0.127803 0.051498 -0.049552 0.080283 0.021710 -0.371126 0.259229 0.317457 0.056856 0.102226 0.059177 -0.112842 0.050899 0.033193 0.072476
GlobalSpecies0071 0.105925 -0.186998 -0.282443 0.075994 0.466989 0.483836 -0.060130 -0.152559 0.288819 -0.181274 -0.174148 0.220967 -0.026543 0.150138 -0.369980 0.456285 -0.070800 -0.074757 -0.265361 -0.227290 0.510602 -0.206022 -0.008435 -0.062249 -0.132282 -0.481726 0.017251 0.004969 -0.001212 0.146787 0.098869 0.464832 0.186790 0.243843 -0.085064 0.125467 0.000383 0.482103 0.334716 0.180726 -0.025054 -0.393915 -0.657646 -0.262770 0.202282 0.081409 -0.314613 -0.030096 -0.089781 0.164560 0.291539 -0.134705 0.044390 -0.044642 -0.132475 -0.267104 -0.098780 -0.087599 0.667160 0.138918 -0.012219 -0.183074 0.064645 0.322918 0.180582 -0.118315 -0.159643 -0.074760 -0.099842 -0.173210 0.192518 0.141662 -0.254256 0.533519 -0.408920 -0.108961 0.476125 -0.491633 -0.059336 -0.348580 0.068245 0.471502 0.071833 0.401926 -0.017555 -0.053123 0.344032 -0.001949 0.107325 -0.235224 -0.218891 0.004785 0.082012 -0.116833 -0.005149 0.369576 -0.084288 -0.035208 -0.295957 -0.145820
GlobalSpecies0072 0.208765 -0.030934 0.103986 -0.039108 0.024923 -0.151563 -0.333473 -0.222421 0.320747 -0.049738 -0.348178 -0.397669 -0.110473 -0.475479 0.280409 -0.123544 0.023160 -0.165664 -0.003676 0.040987 -0.064902 -0.130550 0.181576 -0.016571 -0.117326 -0.054611 0.040100 0.349458 -0.150080 -0.238291 0.006427 0.217134 -0.052791 -0.138445 -0.113111 -0.523389 0.239975 -0.315454 0.114803 -0.001550 0.176966 -0.259100 0.342528 -0.088066 0.213035 -0.112800 0.008620 0.077494 0.074101 0.083753 -0.032167 0.203673 -0.034279 -0.359050 0.191861 -0.013619 -0.109040 0.141682 0.006057 -0.018095 -0.143957 -0.069490 0.211957 0.266207 0.153209 -0.173364 -0.372732 -0.111630 -0.164310 0.043006 0.403620 0.029833 0.271956 0.042629 0.053108 -0.257309 0.007033 0.006618 -0.142480 0.060906 -0.198163 -0.169737 0.174024 -0.280417 0.123435 0.145891 0.037381 0.313947 0.190973 0.443816 -0.074963 0.194988 0.227149 0.211317 0.157136 0.245846 -0.197661 0.033551 0.030110 -0.001615
GlobalSpecies0073 -0.045843 0.262115 0.351242 -0.198321 -0.169154 0.124160 0.171447 0.246925 0.194258 0.138331 0.068220 -0.116518 0.250913 0.175661 0.173918 -0.279431 0.023663 -0.112804 0.018931 0.017377 -0.181749 0.095549 0.180231 -0.155325 -0.253203 0.004367 -0.172684 -0.100528 -0.031303 0.168548 0.221249 0.185853 0.159802 -0.063967 -0.146552 -0.054206 0.488239 -0.384983 0.102893 -0.155456 -0.001736 -0.226733 0.143578 -0.003559 0.103521 -0.236895 0.039587 0.096763 -0.217395 -0.270929 0.018935 -0.266014 0.047429 0.255467 -0.039123 0.107948 0.162179 -0.214106 0.081623 0.039934 -0.238023 0.005576 0.282757 -0.197264 0.333789 -0.148647 -0.145756 -0.046065 -0.157347 0.033744 -0.124714 0.239362 -0.057765 -0.164105 -0.044922 0.233375 -0.020468 0.039509 -0.232461 0.123198 -0.091603 -0.129590 0.235624 0.025550 -0.053569 0.312002 0.007532 0.113762 -0.216656 -0.162151 0.149811 -0.270944 -0.160384 0.201408 -0.224641 -0.018389 -0.084215 -0.010771 -0.304266 0.097489
GlobalSpecies0074 0.061950 0.020981 -0.033205 0.084174 0.436601 -0.096241 -0.152755 -0.203055 -0.024072 -0.043963 -0.053701 0.002514 0.434573 -0.077549 -0.066657 -0.143516 -0.155815 -0.118395 0.005783 0.168965 -0.061973 0.136960 0.022228 0.179460 -0.027912 0.000084 -0.264064 0.303452 0.012147 -0.131216 -0.060768 0.015903 -0.033837 0.004561 -0.076259 0.313006 -0.048614 -0.022576 0.086918 -0.212864 0.133046 -0.238160 -0.034539 -0.014212 -0.023609 -0.006793 0.088715 -0.148948 -0.076072 -0.017111 0.076575 0.459504 -0.018963 0.098113 -0.013058 0.024459 0.256286 -0.048251 -0.006157 0.023874 -0.018875 0.032301 -0.069989 0.138258 -0.104919 -0.200890 -0.145241 -0.080987 -0.048943 -0.070451 0.044825 -0.097765 0.408316 0.017420 -0.011637 -0.066005 -0.184623 0.023705 -0.027828 0.097433 0.125665 -0.015969 -0.131934 -0.058983 0.012114 0.304841 -0.056950 0.164289 0.035445 -0.287282 0.151106 0.143696 0.124134 -0.228524 0.205470 0.224413 0.140948 0.081296 0.036010 0.056620
GlobalSpecies0075 0.166459 -0.279081 -0.387048 -0.232244 0.138304 0.080578 0.028086 0.118673 -0.186709 -0.269980 -0.261566 0.484658 0.045297 -0.199811 -0.034743 0.398740 0.120771 0.186963 0.284444 0.185667 0.102765 0.759364 -0.101702 -0.408100 -0.219332 0.318450 0.160139 0.148650 0.097063 -0.111715 -0.273601 -0.068672 -0.077963 0.241637 0.128832 -0.066153 -0.213236 -0.154893 0.328418 -0.059559 -0.045585 -0.040962 -0.111763 -0.399886 -0.325599 0.119860 0.210648 -0.111656 0.064581 -0.127955 0.313903 0.202922 -0.111109 0.356782 -0.245509 -0.134220 0.142391 -0.218263 -0.433285 0.171360 -0.132473 -0.149677 -0.122281 0.143098 -0.061645 0.287176 0.097265 0.015746 -0.130303 0.234778 -0.027340 -0.305102 0.144221 -0.303693 0.143818 0.134162 0.113462 -0.391115 -0.176166 0.286256 -0.144475 0.070203 -0.275197 0.097405 0.117802 0.255414 -0.318830 -0.036142 0.284583 -0.187072 -0.151383 -0.052089 0.241379 0.040287 -0.294891 0.526842 0.110809 0.258681 0.235845 -0.278214
GlobalSpecies0076 -0.097851 0.069221 0.327551 -0.191141 -0.123911 0.029828 0.091804 0.003842 0.081534 -0.077052 0.213353 -0.058972 0.030653 0.089068 0.185328 -0.199013 -0.279127 0.086365 -0.173888 0.056685 -0.275641 -0.011565 0.056472 -0.182125 0.042708 -0.133992 -0.065966 -0.249898 -0.037538 0.176478 0.149237 0.112022 0.133776 -0.046217 0.123487 0.045533 0.174167 -0.115112 0.114854 -0.187928 0.022965 -0.008711 0.135149 -0.037279 0.028199 0.142183 -0.177752 0.077080 0.014154 -0.089513 -0.045599 -0.053765 -0.067104 -0.037396 -0.095318 0.106482 0.198486 0.103044 -0.188778 -0.119311 0.024500 -0.003182 0.020343 -0.091597 0.080732 -0.099004 -0.083430 -0.073847 0.131059 0.059486 -0.072753 0.009713 -0.165677 0.023535 -0.099797 0.194013 -0.054454 -0.063882 0.001008 0.081691 0.095519 0.021336 -0.124924 0.046443 -0.152507 0.265588 0.103806 -0.228904 0.014454 0.096728 0.041300 -0.233509 -0.372963 0.098273 -0.170904 -0.082909 0.207700 -0.058898 -0.110282 0.126493
GlobalSpecies0077 0.044124 -0.063793 -0.154235 -0.061799 -0.180306 -0.028135 -0.049641 0.015656 0.019529 0.031583 0.002678 0.007219 0.016070 -0.223792 0.061657 -0.174293 -0.081925 -0.006459 0.126195 -0.203777 -0.116700 -0.126051 0.027452 -0.078567 0.096675 -0.381613 0.152590 -0.197038 0.031405 0.010002 0.061945 0.234966 -0.221014 -0.140035 -0.054947 0.027483 0.044017 -0.135519 0.173207 -0.137727 0.042250 0.180080 -0.032206 0.183713 -0.247875 0.021130 -0.236151 -0.098018 0.242310 -0.033140 -0.015109 -0.115396 -0.005509 -0.171978 -0.111584 0.021685 0.167601 0.186605 -0.133285 -0.175785 0.085100 -0.012037 0.382094 0.148385 -0.191460 0.391198 0.122340 0.351192 -0.113018 -0.133035 -0.143638 -0.230864 -0.107588 0.147800 -0.106113 -0.041923 0.047773 -0.030766 -0.069641 0.082994 0.201310 0.006690 -0.095539 0.110317 -0.322586 -0.074546 0.012313 -0.077184 -0.010602 0.108558 0.145099 0.109029 -0.095964 -0.167588 0.107861 -0.166691 0.254913 0.137912 0.088160 0.208841
GlobalSpecies0078 -0.069756 -0.173905 -0.323246 0.103808 0.114632 0.282473 0.015777 0.041741 0.061197 -0.229945 0.189168 0.049142 -0.163399 0.188518 -0.438445 0.458328 -0.129638 -0.342944 0.193122 -0.212695 0.356183 -0.148657 0.138253 -0.118476 -0.069305 -0.007615 -0.032676 0.341854 0.062600 -0.000948 -0.136270 0.128374 -0.060456 0.004680 0.346410 0.000346 0.118630 0.463257 0.027947 0.148652 0.022554 -0.168162 -0.270368 0.154532 -0.186474 -0.118664 -0.357861 -0.007375 -0.120973 -0.131949 0.208788 -0.205256 -0.122486 0.013230 -0.176994 0.335206 -0.280338 0.167617 0.250709 0.043552 0.019434 0.153881 -0.011367 -0.054649 -0.016742 0.062799 -0.255152 0.071600 -0.049284 -0.219984 0.199693 0.001105 -0.087649 0.133444 0.032733 -0.227713 0.364004 -0.442359 0.093706 -0.328605 -0.067051 0.216161 0.067498 0.038287 0.304383 -0.163803 0.099189 0.225043 0.056047 -0.120974 0.175673 0.396566 0.082335 -0.033669 0.155144 0.354561 -0.109675 0.073168 0.027174 -0.449572
GlobalSpecies0079 0.045675 -0.369854 0.370733 -0.162030 -0.073276 -0.264734 -0.411650 0.095936 0.276368 0.027424 -0.016975 0.097414 0.055641 -0.269117 0.186561 0.116522 0.072594 0.057201 0.089886 -0.161601 0.264533 0.339339 0.251397 -0.091136 -0.117549 0.161266 -0.388039 0.150517 0.140697 -0.174990 -0.062659 -0.037618 0.146759 -0.210818 -0.080911 0.082299 -0.315923 -0.297452 -0.306197 0.279741 0.381648 0.196948 -0.414516 0.017497 0.016777 0.132522 0.456554 -0.185834 0.314063 0.112863 0.181048 0.305426 -0.342047 0.297588 -0.268818 0.045566 0.353859 -0.093866 -0.084243 -0.137855 -0.064340 -0.251255 -0.530642 0.226503 -0.063384 -0.350869 -0.169458 0.028956 -0.175247 0.036843 -0.252492 0.121407 0.543697 -0.108794 0.554406 -0.584106 0.005243 -0.205321 -0.088311 0.293118 0.217693 -0.174587 -0.005064 0.181107 -0.548494 -0.183922 -0.115308 0.020192 0.129913 0.242080 -0.116580 -0.115950 0.200105 0.038207 0.704869 0.329240 0.040927 0.045592 -0.149639 -0.231470
GlobalSpecies0080 0.062991 0.193014 0.204876 -0.434321 -0.090097 0.024732 -0.122587 0.167124 0.399954 -0.293618 0.164326 0.025377 -0.089002 0.449596 -0.258962 -0.045681 0.073021 0.229260 -0.234077 -0.041649 -0.178461 0.079724 -0.297554 0.347145 -0.234172 -0.247685 -0.065637 -0.133136 0.019460 0.271104 -0.041913 -0.265952 0.125332 -0.239676 -0.427921 -0.040581 -0.191532 -0.219486 0.404413 -0.160180 0.090071 0.176772 -0.380435 -0.149969 -0.386675 0.122624 -0.132084 0.036704 -0.283003 -0.038835 -0.401999 -0.541385 -0.054323 0.065117 -0.320501 0.053407 0.077546 -0.212631 0.197442 0.194866 -0.228484 0.144505 -0.344433 -0.493632 -0.119513 0.231911 -0.077221 -0.470469 0.202338 0.163718 -0.205931 -0.294309 -0.007515 0.076742 0.088475 0.013107 -0.148345 0.225975 0.139227 -0.108728 0.083285 -0.223971 0.360783 0.229429 -0.312211 -0.412078 -0.091874 -0.019799 0.096218 -0.334399 0.221552 -0.223746 -0.031201 0.171549 0.136630 -0.128359 -0.079226 0.086345 0.170496 0.385024
GlobalSpecies0081 0.345941 -0.012552 0.119289 -0.546723 -0.359228 0.349604 0.204940 -0.235512 0.278222 0.169729 0.351673 -0.440733 -0.255583 0.443422 0.179655 -0.066206 0.159408 0.121114 -0.221987 0.031913 0.091559 0.217171 0.432115 0.544324 -0.375753 -0.084333 0.058258 0.380414 0.215767 0.439411 0.113615 0.165612 -0.206736 -0.016091 0.632823 -0.632851 0.252078 -0.388914 -0.250978 0.416629 0.185788 -0.037765 0.410303 -0.504465 -0.039743 -0.173937 0.062712 0.238968 -0.471132 -0.308988 -0.243468 0.216123 0.048652 0.151269 -0.202039 -0.523383 -0.019607 -0.191627 0.380380 -0.164793 0.107470 -0.281121 -0.263368 -0.148648 -0.135936 0.091406 -0.007106 -0.143777 -0.157498 -0.080619 -0.000130 -0.027269 0.214871 -0.267665 -0.413627 0.346473 0.067947 -0.238753 0.374915 0.131126 -0.023815 -0.296487 0.236113 0.293998 -0.221543 0.204035 0.011346 0.203778 0.207219 -0.060989 -0.293314 -0.478655 -0.390397 0.049392 -0.219066 -0.178312 -0.118129 -0.364672 -0.158827 -0.339638
GlobalSpecies0082 0.220922 0.124886 -0.280636 -0.008681 0.086015 0.093351 0.176740 0.031097 -0.098436 -0.261718 -0.013657 -0.090204 0.070310 -0.137327 0.010895 -0.249166 0.204363 0.149042 0.200632 0.197183 0.094469 0.318385 0.112183 0.084235 0.045170 0.105039 0.251811 -0.019623 0.132202 -0.205223 -0.220336 0.116743 -0.370315 0.323751 0.473209 0.321529 -0.301645 -0.274415 0.128823 -0.105493 0.206783 -0.211504 -0.049992 -0.033588 -0.288794 -0.205223 0.069966 -0.088922 -0.090088 0.051120 0.319662 -0.183893 -0.002173 0.048766 -0.436397 -0.223269 0.026652 -0.053173 -0.285449 -0.102092 -0.248986 -0.177638 -0.469908 0.302594 0.018328 0.139843 0.054557 -0.042254 -0.063044 0.230593 0.146250 -0.231280 0.021533 0.088563 0.468863 -0.071954 -0.166071 -0.065441 -0.239661 0.305402 -0.200828 -0.123999 0.055235 0.161967 0.188148 0.067930 -0.237331 0.187252 0.190510 -0.389159 -0.034066 -0.165977 0.456576 0.128950 0.056993 0.490577 -0.011469 0.309369 0.184569 -0.138122
GlobalSpecies0083 -0.314976 -0.025464 0.079919 0.077015 -0.130392 -0.069447 -0.013557 0.235371 0.134972 -0.126662 -0.236930 0.123924 -0.060712 -0.174474 -0.199180 0.140758 -0.061646 -0.297342 0.002290 0.189461 0.097632 -0.132924 -0.048506 -0.074726 -0.321360 -0.139816 0.334071 0.162613 0.070695 0.183642 0.065354 -0.287849 -0.627834 -0.089222 0.214917 -0.021876 -0.091161 -0.198733 -0.257492 0.057155 0.036312 0.309006 -0.043803 0.148617 0.015674 -0.355650 -0.009802 0.056679 0.276015 0.133386 0.359337 0.204192 -0.045196 0.141368 -0.075139 0.003691 0.246314 -0.108510 -0.090631 -0.135437 0.201405 0.011614 -0.270658 -0.106545 -0.081960 0.311075 -0.007407 0.017765 -0.034232 0.394181 -0.255334 0.019375 -0.010488 -0.219090 -0.129413 0.155763 0.058102 0.201084 -0.116269 -0.050191 -0.147695 -0.041801 0.039907 0.135210 -0.277264 -0.183898 -0.417365 0.071324 0.060845 0.080145 -0.070105 0.053208 0.193572 -0.050806 0.183990 0.682793 0.366009 0.296000 0.253400 0.077932
GlobalSpecies0084 0.049648 -0.118929 -0.080608 -0.066558 -0.301132 -0.052156 -0.041124 0.032429 0.077360 0.410492 -0.108099 0.096189 0.352069 -0.157977 -0.297976 0.172417 0.103197 0.029742 -0.107445 -0.239031 0.139633 -0.141755 0.004781 0.095642 -0.077177 -0.048268 0.125410 0.109656 0.265998 0.143251 0.061497 0.054540 0.053769 -0.019050 0.211970 0.148964 -0.098021 -0.137982 0.125338 0.006573 0.113425 0.303461 0.109424 0.298543 0.046565 -0.120252 0.097360 -0.073340 0.037325 0.019362 -0.094199 0.126028 0.237111 -0.185123 0.071005 0.104578 0.052019 -0.053497 0.163664 0.304762 0.035325 0.067761 0.348211 -0.301919 0.090946 0.351795 -0.087956 0.105354 -0.137311 -0.051253 -0.052413 -0.113475 -0.024875 -0.046320 0.217219 -0.006450 -0.160460 0.216784 -0.010583 0.054306 -0.052502 -0.057239 0.044343 -0.000237 -0.184899 0.004335 0.015046 0.092355 0.147359 -0.250915 0.084375 -0.099615 -0.051268 0.090469 0.117199 0.137421 -0.121251 0.300234 -0.124447 0.147182
GlobalSpecies0085 -0.075884 -0.027632 0.266575 -0.502414 0.065872 0.349292 -0.159484 0.167942 0.118294 -0.306053 0.144248 -0.032450 -0.013450 0.592888 -0.043329 -0.171692 0.119800 0.048028 -0.133793 -0.151342 0.193020 -0.466517 0.224316 0.083708 0.237064 -0.237966 -0.125850 0.263110 -0.134900 0.082184 0.100670 -0.005393 0.245582 -0.076977 0.081018 0.070736 -0.268151 0.046071 -0.210292 -0.097798 -0.402562 0.186389 -0.167821 0.078657 -0.259260 -0.169054 0.054073 -0.277746 -0.407516 -0.174287 0.277023 0.057150 -0.423712 0.329262 -0.037267 0.389587 0.081984 0.298416 0.090064 0.027404 0.231213 0.105118 -0.323814 -0.209201 0.148518 -0.373801 -0.458048 0.068706 0.091354 0.287834 -0.067264 0.118446 0.505190 0.391940 -0.109188 0.095370 0.007571 0.283360 -0.399719 0.170227 -0.168160 0.102126 -0.371742 -0.176473 -0.048693 0.132974 -0.146493 -0.067635 -0.056891 0.337171 0.475067 0.262596 0.014454 0.095759 -0.247416 -0.505387 0.174102 0.080261 -0.504662 0.210502
GlobalSpecies0086 0.343995 0.003038 -0.381411 0.109986 -0.038804 0.160489 -0.283745 0.020473 -0.279322 -0.034076 -0.247250 -0.089230 0.308383 0.254475 -0.052521 0.248167 0.202487 0.270817 0.245252 -0.220963 -0.251164 0.379933 0.021776 -0.250002 0.187054 0.108891 -0.003788 -0.095442 0.360684 0.005049 0.378330 0.117165 -0.158583 -0.025611 0.197842 0.038248 -0.387841 -0.390211 -0.059987 0.035789 0.122635 -0.195032 0.156458 0.274308 -0.063923 0.012051 0.060071 -0.214565 0.196817 0.002714 0.080177 -0.136920 -0.207743 0.127404 -0.426814 0.012439 -0.076579 -0.311286 0.114784 0.035532 -0.121802 -0.562379 -0.293590 0.080420 0.043620 0.000095 0.022715 -0.098430 -0.004247 0.253576 -0.156414 0.007026 0.049573 -0.617427 0.215759 -0.190828 0.227894 0.232958 -0.062878 -0.014366 -0.114711 0.165867 -0.071853 0.014525 0.204542 0.246781 -0.022987 0.234392 -0.414719 -0.378024 -0.184500 0.103802 0.321333 -0.105430 0.139721 0.146038 -0.181678 0.174522 0.232790 0.418681
GlobalSpecies0087 -0.221780 -0.167207 0.061011 0.132836 -0.044200 -0.067728 0.100355 0.071330 0.018329 0.147046 -0.043530 -0.076332 0.000858 -0.162594 -0.244855 -0.014570 0.199646 -0.182378 0.302612 0.145732 -0.109209 -0.114783 0.173855 -0.020744 0.036127 -0.379871 0.125305 -0.140654 -0.055560 -0.019704 -0.098291 0.087832 -0.287180 -0.014719 -0.196036 0.051500 0.048534 -0.048416 0.015906 0.055008 0.040157 0.243069 -0.064253 -0.027169 -0.056642 0.013910 -0.088913 -0.141058 0.042570 0.098489 -0.032628 -0.049242 -0.251210 0.019499 -0.014585 -0.044065 -0.109629 -0.187880 0.099187 -0.051095 0.044889 0.140488 0.232736 -0.215844 -0.151924 0.256756 0.082820 0.155785 -0.319788 0.054424 0.009664 -0.187297 -0.068131 -0.085134 -0.185678 0.011047 -0.224073 0.188803 -0.080519 0.124936 0.030017 0.133833 0.025663 0.230739 -0.064233 -0.150582 -0.117018 -0.022393 -0.020086 -0.059541 -0.132388 0.043545 0.146453 0.041717 0.016554 0.093355 -0.015130 0.046859 0.013778 -0.016730
GlobalSpecies0088 0.234724 0.369462 -0.089354 0.242013 0.190058 -0.596226 -0.092187 0.139401 -0.117246 0.187015 -0.114919 0.024334 -0.415881 0.203938 -0.408933 -0.086689 -0.280190 0.034868 0.406970 -0.463773 0.140539 -0.302673 -0.231630 0.136563 -0.724520 -0.306677 0.117015 -0.204643 0.259278 0.601517 -0.233808 -0.272086 -0.371019 0.281889 0.236782 -0.038598 0.156986 -0.365398 0.123744 0.082314 -0.261818 0.437834 -0.212399 0.054153 -0.272866 0.585782 0.604590 0.495422 0.316830 -0.180725 0.188226 -0.185673 -0.000584 0.369903 -0.160097 -0.032537 -0.059017 -0.177363 -0.264546 0.319885 -0.164721 -0.190300 -0.014456 0.107024 -0.313301 0.274582 -0.233079 0.215841 -0.028849 -0.098620 -0.211099 -0.223544 -0.236946 -0.077461 0.024522 -0.338153 0.019915 -0.133540 -0.081853 0.119892 0.231997 0.212684 -0.396114 0.172227 -0.564117 -0.341420 -0.094600 -0.195562 -0.096748 -0.609684 -0.045471 -0.339194 0.330095 -0.060909 0.091947 -0.611078 0.048982 0.549997 -0.280105 -0.156482
GlobalSpecies0089 0.602391 0.447670 0.174897 0.425402 -0.088463 0.063002 -0.111859 0.744770 -0.577232 -0.479090 0.394511 -0.078853 -0.251699 -0.023763 -0.061233 0.125348 0.230336 0.817492 0.015434 -0.339443 0.307644 0.011543 -0.305995 -0.016428 -0.822944 0.821388 -0.658783 -0.167837 0.061710 -0.161806 -0.348268 -0.919267 0.262090 0.003538 -0.001169 0.533492 -0.374254 -0.126825 0.010862 0.158284 -0.527523 0.020339 0.053840 -0.201690 0.276123 0.738387 0.074781 -0.298861 -0.088715 0.153532 0.042141 0.605267 -0.436814 -0.259754 -0.493749 -0.495570 -0.982102 -0.262066 0.327357 -0.801801 -0.562423 -0.017280 -0.244546 0.518352 -0.251203 -0.149239 -0.455275 0.663928 1.119429 0.052838 -0.231463 0.485858 -0.192412 -0.661973 -0.308750 -0.205515 0.356756 0.783043 0.219026 -0.108460 -0.614412 0.470466 -0.391319 0.075875 -0.876493 -0.358848 0.284568 0.158793 -0.234675 0.562613 0.027928 -0.541158 0.107833 0.146277 -0.366962 -0.102080 -0.339439 -0.238501 -0.837557 0.652415
GlobalSpecies0090 0.097681 0.137831 -0.066710 -0.198037 0.159260 -0.057715 0.071592 0.305080 0.059448 -0.176846 0.363634 0.213389 -0.076272 -0.544769 0.085409 0.320129 0.129117 0.495817 -0.223475 -0.203304 0.180418 -0.619663 -0.220164 -0.354091 0.286596 0.267106 0.183049 -0.273399 0.122381 0.080631 0.245263 0.001726 0.944128 -0.487327 -0.171015 -0.578269 -0.167325 0.393612 0.149345 0.480348 0.018393 -0.329944 0.101711 -0.327716 0.123465 0.273971 0.151954 -0.012853 -0.027853 -0.006475 -0.279235 -0.177017 0.314204 -0.694802 0.265658 0.055188 0.051566 0.500440 0.098550 0.264443 0.141536 -0.264299 -0.051976 0.238116 0.059016 0.080247 0.152444 0.014176 0.247853 -0.174860 -0.197892 -0.174727 0.107176 -0.473287 0.403376 0.129920 -0.212536 0.113521 0.237129 0.162753 0.318223 0.511514 -0.577807 0.100997 0.249763 -0.171113 0.223387 -0.277924 -0.178757 0.572994 -0.033194 0.152626 -0.238233 -0.420341 0.112812 0.128010 -0.178135 0.120847 0.023978 0.123183
GlobalSpecies0091 -0.474874 0.748699 0.498345 0.632440 0.313645 0.088103 -0.586345 -0.846501 0.182958 0.032626 0.344786 0.151392 -0.447599 0.142232 0.329483 -0.356069 0.923325 0.315723 0.296125 0.120735 -0.012192 -0.117674 0.246231 0.385804 0.306877 0.284059 -1.026189 -0.160801 -0.406310 0.256332 -0.329915 -0.508791 0.450428 0.581929 -0.151458 0.191905 0.275819 -0.259398 -0.018386 -0.044765 -0.094836 -0.028340 0.725285 -0.454960 -0.097989 0.412639 0.457962 -0.466572 -0.302685 0.133974 0.580980 0.117916 -0.251367 0.376500 -0.140033 0.051551 -0.029276 -0.654378 -0.242796 0.429281 -0.106674 0.317853 -0.156249 0.360530 0.338584 -0.525022 -0.051840 0.618970 0.535607 -0.800496 0.625356 0.167563 0.213495 0.553913 -0.061777 0.626257 -0.044575 -0.140437 0.833876 -0.522169 -0.443277 0.428370 0.244749 -0.372630 0.550291 0.059068 -0.135234 0.264006 -0.013514 0.374874 0.671092 -0.305253 -0.330883 0.123132 -0.226701 -0.311110 -0.452656 -0.040117 -0.383297 -0.218656
GlobalSpecies0092 -0.177944 -0.211691 -0.378776 0.380173 -0.117535 -0.119070 -0.069992 0.017971 0.050891 0.337770 -0.196704 -0.025297 -0.113843 -0.103751 -0.182371 -0.101675 0.165713 -0.297550 0.304901 -0.073615 0.032926 -0.349291 -0.014176 -0.077399 -0.225153 -0.454853 0.108644 -0.045621 0.056858 0.050394 -0.114853 0.156373 -0.363128 0.061371 0.051393 -0.116084 0.212390 -0.057144 -0.073814 -0.068633 0.138873 -0.130193 -0.111313 -0.107892 -0.204626 -0.178304 -0.086581 -0.143397 0.119136 0.140044 0.093519 -0.169216 -0.170276 -0.263354 -0.043026 -0.099738 -0.084680 -0.266678 -0.052739 -0.055427 -0.045233 0.114974 0.288314 -0.129457 -0.258390 0.332588 -0.130120 0.315060 -0.420838 0.124357 -0.213235 -0.220576 0.062430 -0.106658 -0.157720 0.029272 -0.087189 0.229839 -0.124684 -0.079626 0.193517 0.014465 -0.067328 0.149695 -0.239103 0.054276 -0.406976 -0.015366 -0.148422 0.139372 0.273110 -0.207850 -0.200873 0.082491 -0.287294 0.061631 0.067823 0.371728 0.163750 -0.055543
GlobalSpecies0093 -0.127557 -0.100660 -0.051430 -0.071334 -0.060428 0.055122 -0.090556 -0.033961 0.096295 -0.209184 -0.067840 0.228531 0.073680 0.040699 -0.221353 -0.154109 -0.034227 0.014193 -0.074417 -0.255031 -0.003687 -0.269634 -0.113741 -0.032778 -0.037430 -0.028552 0.232178 -0.028705 -0.113968 0.153258 0.223386 -0.081052 -0.079633 -0.178171 0.133430 0.240994 0.060728 0.217460 -0.007997 -0.047681 -0.076263 0.010438 -0.238416 0.198729 -0.173676 0.063563 -0.307297 -0.097621 0.028200 0.090892 -0.022674 -0.065350 0.089880 -0.198991 -0.074710 -0.042632 0.111047 0.209375 0.179755 -0.049329 0.218180 0.146999 0.116302 -0.088754 -0.125915 0.047132 0.114359 0.013458 -0.070361 -0.113110 -0.022864 -0.076454 0.008854 0.107986 -0.160751 0.135989 -0.235057 -0.097063 0.039727 0.079249 0.208316 0.078227 0.006086 -0.036503 0.014485 -0.124121 0.078510 -0.003419 -0.130278 -0.169744 0.150022 0.242081 0.000005 -0.133089 0.313010 -0.065063 0.287712 0.143505 0.154915 0.024187
GlobalSpecies0094 0.036762 -0.175162 -0.025840 -0.121625 0.205156 -0.067080 -0.054681 0.078345 0.151321 -0.123549 -0.080306 -0.022983 -0.060037 -0.016463 0.037622 0.017388 -0.287739 -0.130691 -0.065374 0.212299 -0.124130 0.100722 -0.151926 0.053855 -0.022501 0.023115 0.108673 0.005956 0.170760 0.170387 -0.070692 0.120507 -0.304050 -0.096088 0.009772 -0.213305 0.011996 -0.220236 0.265813 -0.153172 0.135886 0.013365 0.239865 -0.104289 -0.141409 -0.085778 0.223234 0.110516 -0.094561 0.063287 0.053756 0.064480 -0.061605 0.108807 -0.119335 -0.046392 -0.008691 0.042590 -0.159625 0.043846 0.179657 0.067926 -0.111798 0.070414 0.189728 -0.166459 -0.104763 -0.205744 -0.029833 0.131199 0.090363 -0.102369 -0.007083 0.183499 0.167001 0.188025 -0.059000 -0.197375 0.053179 0.074719 0.100166 0.170054 -0.226395 0.132758 -0.116431 0.155474 0.030958 0.152799 -0.184755 -0.069922 0.019949 -0.180990 -0.129520 -0.166293 0.194609 0.201167 0.074723 -0.089173 -0.206672 -0.193603
GlobalSpecies0095 -0.497183 -0.019513 -0.175482 0.700586 -0.002603 0.239714 0.278876 0.457958 -0.340579 0.362305 -0.210259 -0.065704 0.685127 -0.069243 -0.319140 0.109377 0.116573 -0.596071 -0.212898 -0.002002 -0.101723 0.034670 0.050125 -0.034947 0.426574 -0.042511 0.062596 -0.298971 -0.492606 -0.087787 -0.510322 -0.190671 0.706432 0.037201 -0.355821 -0.199247 -0.580518 0.155841 -0.014492 0.352191 -0.282176 -0.476255 0.163057 0.268377 0.093553 0.256880 0.100382 0.191625 -0.324624 -0.157388 0.073583 0.225585 0.231127 -0.046696 -0.100939 -0.356351 0.012065 0.414589 0.668903 0.246319 -0.566259 -0.056485 -0.842201 -0.401612 -0.541424 -0.220057 0.060748 -0.339834 0.503497 -0.358370 -0.283284 0.007074 -0.245713 -0.140595 -0.038072 0.115336 0.267372 -0.074482 0.270843 -0.267648 0.390657 0.132691 -0.317364 0.311108 0.158382 -0.111456 -0.087610 -0.271288 0.503421 -0.463338 0.935206 0.234490 -0.380116 0.014301 -0.448662 -0.585651 0.071969 -0.137271 0.474124 0.045214
GlobalSpecies0096 0.179377 -0.147460 0.205039 0.002251 -0.076569 -0.018689 0.021937 -0.048851 0.085994 -0.329299 0.119029 0.227923 0.166024 0.039458 0.277047 0.104729 0.063923 -0.069375 -0.108512 0.141964 -0.094413 0.238111 -0.090902 -0.164846 0.191299 -0.058822 0.106229 0.250377 0.073026 0.208983 -0.041363 0.071058 -0.105893 0.002432 -0.001291 0.205634 0.215738 -0.127416 0.044478 -0.177216 0.136247 0.213628 0.104446 0.180008 -0.052840 0.105067 -0.005838 0.125901 -0.153476 -0.040192 0.176370 -0.055230 0.435438 0.034459 -0.085913 -0.092082 0.110632 0.275140 -0.176173 -0.103197 0.226595 0.063152 -0.229312 -0.007936 0.389739 -0.182376 -0.061956 0.099013 0.101352 0.175609 -0.082524 -0.010470 0.016388 0.258717 -0.091203 0.065697 -0.032894 0.050040 0.080194 0.206097 0.169661 -0.081481 -0.167057 -0.102152 0.071414 0.292886 -0.078923 -0.142420 -0.124142 -0.091656 0.082300 -0.109009 0.086396 -0.055440 -0.060653 0.094205 0.127266 0.109147 0.061649 0.315741
GlobalSpecies0097 0.451287 0.510778 -0.020128 -0.535374 0.024024 0.358803 -0.384732 0.112387 0.095833 -0.221089 -0.316107 0.037425 -0.133733 -0.231699 0.443273 0.253277 -0.443779 0.405977 0.003875 0.064285 0.500695 -0.474171 0.073355 -0.244751 -0.061956 0.271305 0.086301 -0.258390 0.101335 0.563331 -0.076732 0.008655 -0.200931 0.273414 -0.255229 0.392022 -0.329314 0.371236 0.467690 0.416728 0.085522 -0.472797 0.207066 -0.479686 0.562515 -0.290860 -0.339667 -0.157688 0.536738 -0.086662 -0.063971 0.123797 0.217738 0.153459 -0.270934 -0.040503 -0.115215 0.686564 0.140771 -0.158117 -0.228729 0.288474 0.020194 0.056870 0.439967 0.038686 -0.274413 0.311891 0.610313 -0.663237 0.191411 0.313088 -0.529560 0.162447 -0.258186 0.210366 -0.293076 -0.282622 0.283141 -0.236993 0.484717 0.413842 0.069304 -0.179572 -0.406079 -0.699602 0.260825 -0.452695 -0.375188 -0.267813 0.015443 -0.015773 -0.129608 -0.332930 0.079450 0.179380 -0.027257 0.572475 0.005641 -0.328406
GlobalSpecies0098 0.220117 -0.102744 0.023978 0.009306 0.074492 -0.007257 -0.112131 -0.137793 0.044922 -0.251876 0.005294 0.110667 -0.089013 0.013295 -0.111551 0.094509 0.024523 -0.030242 -0.021435 -0.237598 0.165417 -0.270385 0.109548 -0.184462 0.088661 0.100348 0.027579 0.103634 0.092556 0.023573 0.069297 0.016472 -0.006126 -0.138695 -0.005235 -0.306490 -0.005860 -0.008683 -0.119008 0.073614 0.080835 -0.345792 0.370956 0.092834 0.258141 -0.136761 0.046145 0.243464 0.012982 0.004306 -0.236281 -0.132567 0.103384 -0.240378 0.120849 0.287206 -0.093252 0.015087 0.175931 -0.096660 -0.110495 -0.009593 0.045734 -0.136321 -0.058318 -0.129420 -0.179109 -0.106749 0.013363 -0.113776 0.094761 -0.267629 0.038639 0.219122 0.306180 -0.180673 0.047245 -0.288961 -0.144931 0.085062 0.344554 0.214469 0.136160 -0.068710 0.294927 -0.000174 0.047878 -0.082429 -0.098943 -0.179236 0.087987 0.102634 0.100959 -0.009356 0.161930 -0.013105 -0.208506 -0.083045 0.173831 -0.131910
GlobalSpecies0099 -0.107364 -0.205244 -0.204683 0.433264 0.054762 0.081882 -0.078824 0.162714 0.075503 -0.003357 -0.174840 0.118581 0.089017 0.116846 -0.289697 -0.073457 0.005596 -0.217304 -0.074094 -0.189925 0.117527 -0.220934 0.060115 -0.141341 0.135565 -0.073284 0.179463 -0.109739 0.183547 0.226574 0.159658 -0.192695 -0.102812 0.099252 0.052903 0.022553 -0.339188 0.127905 0.113563 -0.112956 0.114938 0.105344 -0.157248 0.215331 -0.042624 0.054075 0.123969 -0.141224 -0.111925 -0.031555 -0.284434 0.002759 0.062697 0.135726 -0.071469 -0.035964 0.004229 -0.054774 0.193893 0.070219 -0.095236 0.000745 -0.237558 0.214258 -0.003726 -0.142195 -0.108865 0.223676 -0.217091 0.100291 -0.145034 -0.070724 -0.063017 0.266470 0.169515 0.041112 -0.152960 0.096938 0.059418 -0.181030 -0.015360 0.072099 0.118094 -0.080011 0.083659 0.140118 -0.111159 -0.036176 -0.075600 -0.358234 0.253417 0.115675 0.183133 0.292216 0.248627 -0.030355 -0.057874 -0.007271 0.179499 0.196159
GlobalSpecies0100 -0.083668 0.337076 -0.006488 -0.217720 -0.024321 -0.026130 -0.004813 -0.064278 -0.038127 0.107197 -0.067632 -0.035827 -0.078117 -0.065147 -0.184459 -0.239887 -0.247709 0.358143 -0.146618 0.004911 -0.342642 -0.066484 -0.121020 0.228815 0.075592 -0.100501 0.248603 0.015531 -0.013926 0.294881 -0.259313 0.105573 0.047296 -0.098822 0.176706 0.347792 0.234044 0.134145 0.064176 -0.150714 -0.137616 0.003350 0.338282 -0.455908 -0.116953 0.122244 -0.122109 0.063668 -0.270194 -0.197577 -0.042427 0.189697 0.141475 -0.147104 0.016776 0.039652 0.135888 -0.294701 0.152913 0.474330 -0.008253 0.027603 -0.015993 -0.262669 0.207520 0.133798 -0.216537 -0.198327 -0.235178 -0.157306 -0.110595 -0.170805 0.110561 0.234841 0.081524 0.161718 -0.262716 -0.176614 -0.105484 0.146787 -0.092530 -0.169851 0.199445 -0.101863 0.042469 -0.279647 -0.130443 -0.044349 -0.287695 -0.048334 0.060801 0.030996 0.029901 -0.135107 0.084915 -0.037163 -0.028744 0.102126 -0.352814 -0.263167
GlobalSpecies0101 0.027144 -0.231963 0.025477 -0.035812 0.207019 -0.085240 0.026143 -0.054081 0.023131 -0.114925 -0.066288 0.120325 0.022591 0.000767 0.053095 0.271333 0.044324 -0.086599 0.023953 0.068432 -0.088154 -0.015743 -0.000171 -0.081008 0.003158 0.074804 -0.133918 -0.080562 0.084916 -0.054030 0.106870 -0.083518 -0.143567 -0.010468 -0.120239 -0.121505 -0.004709 -0.187294 -0.036486 0.055579 0.340606 0.037559 0.146556 -0.032712 0.032915 0.014785 0.096868 0.032491 0.062411 0.036747 -0.155502 -0.056312 -0.044693 0.020089 -0.025580 0.071487 -0.011623 0.047907 -0.058552 -0.032196 -0.082111 0.073953 0.015016 -0.019263 0.101496 -0.094833 0.127528 -0.124627 -0.072524 0.145019 -0.112994 -0.153279 0.173590 -0.002926 0.154842 0.036320 -0.087267 0.176094 0.051955 0.042516 0.015688 0.192616 -0.048225 0.153174 0.112433 0.143222 0.024626 -0.197099 -0.126863 -0.219573 -0.099207 0.056962 0.372037 0.107778 0.042321 0.061629 -0.220987 -0.161879 -0.024397 -0.040524
GlobalSpecies0102 -0.178972 -0.108645 -0.120003 -0.046682 -0.107130 -0.099310 -0.164239 -0.172994 -0.093252 -0.347273 -0.058721 0.387945 -0.098840 -0.107288 -0.204264 0.200770 0.129206 0.042882 0.285197 -0.438627 -0.006324 0.045980 0.022394 -0.134877 0.111044 0.033939 0.066472 -0.082881 0.117349 0.118743 0.259846 -0.099060 0.168235 0.006121 0.322365 -0.037189 -0.188530 0.086507 -0.040400 0.089307 -0.270179 -0.185879 -0.091239 -0.078750 0.232062 0.015002 0.054606 0.197151 0.152731 0.025531 0.089501 -0.123888 0.122018 0.138138 -0.238791 0.003148 0.129357 -0.008648 0.198387 -0.065208 -0.243159 0.012241 -0.138489 0.039540 0.017221 -0.125953 -0.078851 -0.168778 0.155197 0.123450 -0.211701 0.044994 0.015408 0.220424 0.127483 0.011020 0.183612 0.080641 -0.032439 -0.292174 -0.014686 0.167529 -0.022865 0.069162 0.128612 0.032131 -0.089968 0.052171 -0.196934 -0.040329 0.333955 0.151468 0.166873 0.162850 0.084478 0.390421 -0.061730 -0.025158 0.081795 -0.025445
GlobalSpecies0103 0.071212 -0.095521 -0.036181 0.097761 -0.000176 -0.064227 -0.071312 -0.118900 0.084792 0.328865 0.108772 0.032294 0.275068 0.018871 -0.040958 0.209216 -0.284601 0.232934 -0.029040 -0.089641 -0.118094 -0.171931 -0.128101 0.098783 0.047540 0.270806 0.026949 -0.022624 -0.011833 -0.196097 0.085584 0.212526 0.051165 0.074062 0.110516 0.040795 -0.032746 -0.042898 0.026719 -0.230991 0.052665 0.323452 0.277764 -0.097412 0.125850 0.035954 0.224166 0.157481 0.011009 -0.211921 -0.234486 0.035734 -0.085664 -0.258980 -0.027658 0.172266 0.094786 -0.215225 -0.058879 0.268239 0.096790 -0.049634 0.288466 -0.170722 -0.027981 0.007955 0.031176 -0.088920 0.101017 -0.092012 0.021482 -0.186593 0.183937 0.123153 0.315525 0.110184 -0.029868 0.077644 0.075422 -0.052482 -0.068320 0.096232 0.102209 -0.049181 0.049996 0.253702 -0.067918 -0.030609 -0.210650 -0.114378 0.029034 -0.072771 -0.240837 -0.011383 -0.034405 -0.003195 -0.415266 0.006398 -0.010278 -0.251473
