GlobalSpecies0001 -0.034158 0.032238 -0.059193 0.028673 -0.052631 -0.023013 0.111721 -0.118204 0.232432 0.063689 -0.070034 -0.251325 0.052682 -0.227922 -0.297814 -0.038433 -0.141173 -0.014296 -0.184308 0.003746 0.163666 0.056005 -0.079341 0.044594 0.016744 0.139552 -0.194596 0.091506 -0.026614 -0.014389 0.040382 0.166076 0.243069 0.062077 0.105780 -0.106860 -0.057273 0.093312 0.169229 0.005421 0.051931 0.164804 -0.107451 0.087667 -0.321630 0.005821 -0.212073 -0.183939 -0.083452 0.081592 0.102402 -0.048545 -0.006456 0.056144 0.150237 0.167803 0.027666 -0.052788 0.212116 -0.021073 -0.066689 0.028518 0.133676 -0.064812 0.069752 -0.025072 -0.212370 -0.131044 0.162246 0.002364 -0.004105 -0.234961 0.011408 0.076433 -0.095138 -0.158754 0.098778 -0.080924 0.095348 0.050358 -0.116446 -0.186117 0.522950 -0.096655 0.054693 0.027565 -0.132421 -0.159439 0.007362 0.301645 -0.003357 0.070870 -0.299345 0.108666 0.037934 0.052541 -0.043060 -0.196194 0.113634 -0.092715
GlobalSpecies0002 0.083742 -0.262730 -0.042351 0.005256 -0.436172 -0.100494 0.041319 0.020654 -0.065392 -0.057092 0.113473 -0.043639 -0.328718 -0.040877 0.083447 -0.097471 0.098466 -0.023376 -0.004587 0.125634 -0.165056 0.353673 -0.127047 0.129679 0.052886 -0.076010 0.106430 -0.006812 0.071704 -0.002669 -0.123327 0.127924 0.142215 0.021937 -0.087489 -0.182025 0.110600 -0.172493 -0.133781 0.057686 -0.071937 0.120288 -0.034592 0.093564 0.024501 -0.071325 -0.146448 -0.032890 0.056357 -0.241553 -0.016598 -0.080859 -0.125881 0.018581 0.074807 -0.113904 -0.032461 0.129409 -0.052826 -0.016395 -0.028799 0.074873 0.014579 0.020556 -0.128454 0.083280 0.104008 -0.023446 0.012890 0.014623 0.086231 0.084921 -0.167176 -0.020216 -0.143237 -0.231891 -0.016694 -0.003568 -0.310383 -0.037324 0.027203 0.099582 -0.040671 -0.213265 0.013249 -0.181509 0.024156 0.109946 0.134787 -0.056107 0.166589 -0.177318 0.166313 -0.175700 0.149413 -0.038415 0.081314 -0.046962 0.341617 0.024181
GlobalSpecies0003 0.006302 -0.027492 0.145322 0.080388 0.046453 -0.026033 0.173287 -0.016837 0.120476 -0.116164 -0.271150 -0.285460 -0.259877 -0.099048 -0.172676 0.161634 0.100634 -0.050568 -0.068524 0.244105 0.208839 -0.101099 -0.280129 0.029914 -0.048733 0.004585 -0.097907 -0.158510 -0.126384 -0.083254 0.180366 0.304888 0.392057 0.043601 -0.059232 -0.054536 0.025988 -0.118554 0.015495 0.066450 -0.045562 0.198843 0.046349 0.237284 -0.004197 0.054866 0.215381 -0.026307 -0.186416 -0.088463 0.164622 -0.508985 0.219466 -0.020793 0.271858 0.117765 -0.050635 -0.000462 -0.089356 0.087414 -0.455413 -0.045333 -0.115159 0.245352 0.360102 0.095998 -0.109293 -0.063871 -0.064610 -0.207713 0.314461 0.110143 -0.044695 0.294257 -0.138133 -0.147883 0.086053 0.311570 -0.182334 0.165113 -0.180442 0.107695 -0.147682 0.070729 -0.165355 0.083310 0.087936 -0.160988 -0.074005 0.244787 0.309248 -0.190914 -0.261117 -0.026371 0.041401 -0.155324 0.146013 -0.188060 0.424517 -0.060814
GlobalSpecies0004 -0.011119 -0.111648 0.140843 0.157873 -0.053751 -0.128471 0.284917 -0.173543 -0.047797 0.278825 0.045466 0.156182 0.019894 -0.016505 -0.177751 -0.117643 0.102748 -0.264566 0.043675 0.019650 0.342209 -0.136955 -0.057785 -0.107976 0.009690 0.041404 0.087336 -0.121898 0.122189 -0.247576 -0.072792 -0.289542 0.036442 0.230421 0.128791 -0.297001 -0.051342 0.034876 -0.007386 -0.163376 0.014133 -0.207697 0.092655 0.168994 -0.112288 -0.205333 0.153420 -0.326895 -0.137935 -0.387166 -0.122560 0.077524 -0.251083 -0.118851 0.124688 -0.039037 -0.105516 0.118693 0.082632 0.247010 -0.171127 0.044318 -0.366760 -0.060993 -0.196824 0.254866 0.001432 -0.295022 -0.099944 0.009056 -0.165674 0.058714 -0.138561 0.115263 -0.178992 0.117409 0.088215 -0.329168 -0.194697 0.039218 0.172711 -0.202016 -0.058286 -0.111172 -0.045360 -0.264345 0.317714 -0.032953 0.184398 0.087578 -0.070112 0.077666 0.120287 -0.014151 -0.246709 0.158599 -0.020906 -0.236541 -0.120679 0.043911
GlobalSpecies0005 -0.040278 0.174137 0.004943 -0.018073 -0.058569 -0.389429 -0.293907 0.211920 0.136036 0.132978 0.161037 -0.059356 0.482337 0.212315 -0.044380 0.231710 -0.025214 -0.059992 0.158792 -0.042854 -0.108870 -0.022744 0.006945 0.402447 -0.081421 -0.074013 0.268161 0.163875 -0.196064 0.115516 -0.338396 0.209151 -0.295621 -0.058453 -0.068696 0.321602 0.499315 0.195599 -0.055735 0.392940 0.169986 0.190484 -0.057481 -0.250594 -0.028976 -0.193019 -0.064997 0.036111 0.098323 0.105233 0.256220 -0.330952 0.004818 -0.113397 -0.312108 -0.040815 -0.060604 -0.322920 -0.045324 -0.182958 0.011737 -0.076330 -0.006682 0.103507 0.251932 0.041346 0.105411 0.073982 0.143265 0.177412 -0.385920 -0.147130 0.085808 -0.183259 -0.309797 -0.216334 0.271603 0.296258 0.029437 0.032499 0.046713 -0.132753 -0.250194 0.250260 -0.261447 0.324916 -0.038183 0.160452 -0.371137 0.088915 -0.100868 0.042349 0.046438 0.196912 0.281574 -0.249024 -0.072263 -0.125146 0.194877 0.093020
GlobalSpecies0006 -0.267587 0.040449 0.075743 -0.186162 0.214067 -0.220158 -0.351815 0.301943 -0.003116 -0.141885 -0.035219 -0.136531 0.343616 0.136664 0.457570 0.059582 -0.161121 0.017969 -0.126227 0.097209 0.024105 0.153533 0.049182 0.406269 -0.419538 0.086446 0.231507 0.032834 -0.203358 -0.039033 -0.154165 0.469781 -0.416258 -0.271899 -0.167393 0.104900 0.363258 0.381425 0.200550 0.253505 0.180560 0.257958 -0.095156 -0.402610 -0.025778 -0.173869 -0.010201 0.146391 -0.088011 -0.068000 0.178442 -0.447345 -0.109710 -0.235460 -0.319711 -0.267165 0.143698 -0.399976 0.026142 -0.065598 0.145530 -0.253613 0.114874 0.271754 0.109646 0.265992 -0.056869 0.078158 0.257791 0.089129 -0.267787 -0.144464 0.095324 0.096715 -0.243674 -0.008438 0.255448 0.217567 0.120640 -0.083661 -0.024849 -0.278646 -0.413476 0.003762 -0.182097 -0.131233 0.138655 -0.054166 -0.509611 -0.053058 0.017824 -0.013927 0.018959 0.099932 -0.072465 0.042400 -0.366565 0.093609 0.240202 -0.156660
GlobalSpecies0007 -0.053885 0.327776 0.160191 0.148391 0.258940 0.046007 -0.044616 0.118137 -0.085429 0.065879 0.132993 0.295128 0.166029 0.240968 0.075437 -0.033162 -0.349994 0.115557 0.136313 0.084232 -0.003736 -0.181737 0.099548 -0.164326 0.114763 0.281420 -0.022858 -0.031871 0.122627 -0.335519 0.044639 -0.243912 -0.210005 -0.269095 -0.246678 -0.110825 -0.149334 0.191556 0.132472 -0.181538 0.163027 0.016116 -0.251640 0.434202 -0.331643 0.030077 -0.021470 -0.071522 -0.038587 0.262903 -0.063321 -0.189448 -0.286917 -0.256616 0.055309 0.151699 0.112008 0.103692 0.178442 -0.166339 0.026402 0.092414 -0.050679 0.011176 -0.056701 0.132185 0.080457 -0.298091 0.010795 -0.063998 -0.114110 0.099483 0.034939 -0.140989 0.029716 -0.202436 -0.146176 -0.407619 0.183426 0.225798 0.242467 -0.174789 -0.599062 -0.054302 0.220385 -0.234413 0.025579 0.135994 -0.169636 0.118732 -0.210389 -0.356307 -0.186593 0.196260 -0.012361 -0.184751 0.102605 -0.517211 -0.071907 0.395612
GlobalSpecies0008 0.128530 0.216411 0.074005 -0.010614 0.049883 0.210081 -0.101396 0.247205 -0.299454 -0.090217 -0.100637 0.114501 0.191144 -0.039914 0.145022 -0.032868 0.019315 -0.016841 0.163249 -0.381716 -0.044549 0.207865 -0.153703 -0.079004 0.083397 0.016545 0.101444 -0.057106 0.055017 -0.104026 -0.084780 -0.341966 0.098709 0.011146 0.084687 -0.277088 -0.025321 0.199326 0.020228 -0.040045 0.152146 0.077839 -0.237728 0.221795 -0.076359 0.059357 -0.138542 -0.111005 -0.243944 -0.045250 -0.051975 -0.042665 -0.322553 0.009045 0.259189 0.039228 -0.106422 0.070684 -0.185843 0.076014 -0.059232 0.040237 0.152881 -0.021021 0.121311 -0.268111 0.104635 -0.231858 0.027261 0.055860 -0.070059 -0.240935 -0.280571 -0.128586 -0.080951 0.156251 0.046582 -0.096555 0.438255 0.113268 0.188558 -0.263400 -0.513671 0.133966 0.084619 -0.019782 0.305277 -0.088149 -0.112489 -0.088885 -0.215456 0.070879 0.049156 0.149935 -0.013571 0.118453 -0.065579 -0.212182 0.053942 0.204140
GlobalSpecies0009 0.031132 0.132632 -0.223567 -0.414625 -0.080637 -0.270637 0.113034 -0.241217 0.121288 -0.360520 -0.051472 0.007198 0.083860 0.014275 -0.062914 0.080760 -0.037131 0.516081 0.004526 0.153975 0.098290 -0.271585 -0.093500 -0.003214 -0.024357 -0.138720 -0.146825 0.000493 -0.124251 -0.330486 -0.349308 0.164152 -0.012848 0.355305 0.202270 0.382736 0.062407 -0.097316 -0.057202 0.011829 -0.188077 -0.089953 0.608056 0.016222 0.273815 0.146928 -0.082539 0.094405 -0.164860 0.179348 -0.259043 -0.118120 0.001755 -0.213424 0.111479 -0.202184 -0.269619 0.010745 0.041688 0.530468 0.215155 -0.087744 0.014278 0.121968 0.049137 -0.105431 0.148036 0.176629 0.052906 -0.154491 0.021785 0.066861 -0.153574 0.125370 0.212595 -0.143506 0.019932 -0.263867 0.076323 0.040869 0.035036 0.065047 0.157941 0.279102 0.114539 -0.122100 0.210887 -0.287363 -0.183233 -0.201963 -0.266183 -0.306167 0.080614 0.418058 -0.098636 -0.141414 -0.058557 0.131167 -0.324200 -0.305443
GlobalSpecies0010 0.081344 -0.222567 0.103054 0.096490 0.192111 0.026688 0.069416 0.134023 0.005153 -0.187659 -0.049889 -0.138919 -0.072715 -0.008609 0.241547 -0.335228 -0.005249 -0.006314 0.030702 -0.162973 0.243686 -0.261514 -0.087811 -0.129896 -0.148593 0.014670 -0.142930 -0.073800 0.023415 0.029518 0.059243 -0.297099 0.035491 0.044809 0.058736 -0.113077 -0.183639 0.055623 -0.127652 -0.184085 -0.193764 -0.059880 -0.100733 0.026453 0.271862 -0.013794 0.244052 0.132942 0.125591 0.106573 0.124753 0.074589 -0.178422 0.074114 -0.350389 0.163642 0.156500 -0.102101 -0.018062 0.105277 -0.239973 0.086451 -0.316831 0.182223 -0.099624 0.190901 -0.055788 0.018859 -0.111464 0.031251 -0.304842 0.312289 0.037926 0.000311 0.104417 0.405501 0.083491 0.199430 -0.186575 -0.119131 -0.113876 -0.291446 0.066407 -0.073860 -0.140818 0.247409 -0.122429 0.130117 0.024961 0.032590 -0.005798 0.040217 -0.207717 -0.049326 -0.006842 0.180694 -0.009870 0.373783 -0.241064 -0.248633
GlobalSpecies0011 0.065027 0.068355 -0.182296 0.127861 0.080732 0.453890 -0.350804 0.119049 0.010468 -0.501758 -0.520075 0.144540 -0.045415 -0.275962 -0.035238 0.098391 -0.040072 -0.065466 0.168083 -0.131838 -0.051768 0.412253 0.134452 0.071324 0.341038 -0.075729 -0.124706 -0.095587 -0.274940 0.203564 0.155488 0.137549 -0.200875 0.299141 -0.093090 0.058281 0.250657 -0.155832 -0.087076 -0.064316 0.101821 -0.017459 0.348639 -0.100244 0.178162 0.048459 0.011551 -0.271981 0.528248 -0.254355 0.220961 -0.267459 -0.293591 0.042604 0.106805 -0.042099 0.061657 0.226637 0.124061 -0.228653 -0.415922 0.014353 0.466266 -0.207620 0.109628 0.100177 0.174281 0.429910 -0.021490 0.015159 0.107631 -0.302323 -0.068777 0.382783 -0.020205 -0.163685 0.091110 0.185770 0.049377 0.388600 -0.266224 -0.010941 -0.546968 -0.072109 -0.025723 0.206326 0.113176 -0.051071 -0.174183 0.106450 0.067359 -0.204925 0.201373 -0.468944 0.076545 -0.194041 0.119465 0.010704 0.194745 -0.262408
GlobalSpecies0012 -0.071067 0.165336 -0.103281 -0.244799 0.178001 0.262639 -0.022618 0.132755 0.371679 -0.320010 -0.385320 -0.043075 -0.048662 0.160073 -0.175279 0.309285 0.195378 0.103408 0.158017 0.318320 -0.047265 -0.093454 -0.059577 -0.039388 -0.029859 0.139105 0.127127 -0.206624 -0.335292 0.076320 0.206140 0.255937 -0.251139 -0.264523 0.144150 0.350738 0.252734 -0.026638 0.192597 -0.074608 -0.127264 -0.058942 0.107949 0.544364 0.354367 0.226340 -0.448099 -0.299933 -0.095842 -0.017739 -0.464319 -0.281194 -0.074295 0.204831 0.335525 -0.362856 -0.171023 0.015822 0.068055 0.111558 -0.076667 -0.115545 -0.007505 0.010020 0.042942 -0.082616 0.071219 -0.164166 -0.367286 -0.004223 0.000730 -0.062756 -0.302829 0.030152 -0.062686 -0.121570 -0.384849 0.235741 0.085798 0.283236 0.015264 0.198148 0.076765 -0.152757 -0.134399 -0.099478 -0.050626 -0.032201 0.067590 -0.183912 0.129803 -0.377477 0.168820 -0.024985 0.266692 0.084789 0.176194 0.023727 -0.142260 -0.053550
GlobalSpecies0013 -0.127671 -0.015558 -0.039214 0.178853 0.116354 0.178155 0.105481 -0.100006 0.131272 -0.012998 -0.108759 0.240254 -0.138009 -0.052048 0.140334 0.158332 -0.072416 0.177275 -0.228516 -0.136866 0.093498 -0.087340 -0.213637 0.034607 -0.068456 0.033402 0.077381 -0.193052 0.166790 -0.016345 0.175158 0.051677 0.015635 0.117487 -0.043546 -0.151352 0.035557 0.192691 -0.036144 0.112087 0.165504 -0.064029 -0.004072 0.327233 -0.083923 0.148080 -0.072516 -0.088256 -0.180950 -0.243051 -0.239527 0.028210 0.085634 0.058847 0.218078 0.160825 0.127781 0.191094 -0.188071 -0.245270 -0.185113 0.108276 0.239317 -0.035688 -0.036893 0.018258 0.074091 -0.074715 0.093096 -0.055039 0.063494 -0.302200 0.217734 0.012544 -0.239701 -0.069410 -0.351484 -0.199590 0.322023 0.019305 -0.205771 0.157841 -0.360744 -0.102677 0.049968 -0.125137 0.093967 -0.037236 0.205927 0.169116 -0.134681 -0.191258 0.007951 -0.213166 0.041351 0.204902 -0.069002 -0.298305 -0.019922 -0.026297
GlobalSpecies0014 0.279310 -0.015588 -0.330086 0.088503 -0.382024 -0.093571 -0.438746 -0.263050 -0.152585 0.071954 -0.083815 -0.127441 0.183422 -0.100235 -0.080143 0.049803 0.009583 0.101517 -0.011650 0.052908 0.057341 0.323166 -0.051863 -0.047906 0.282799 0.199900 0.206654 0.246129 -0.199113 0.142289 0.117067 0.059419 0.005205 0.005374 -0.095315 0.048675 -0.018503 -0.322800 -0.159826 0.112623 0.289797 0.132906 0.053655 -0.041425 -0.153020 -0.151149 0.441781 0.229027 0.048648 -0.076034 0.045402 0.134957 -0.214484 0.133973 0.427218 0.167035 0.002267 0.438259 -0.264245 -0.227024 0.260945 0.205935 -0.070100 0.126039 -0.163204 -0.257000 -0.061064 0.270951 -0.004861 0.296053 0.204717 0.390700 0.166748 0.124698 -0.055463 -0.205988 -0.505959 -0.192202 -0.040639 -0.058575 0.056422 0.084991 0.057628 0.204049 0.051306 0.272746 -0.131368 -0.149344 -0.314596 -0.155812 0.252832 0.024185 -0.013786 -0.012637 0.106322 -0.259050 -0.293018 0.325574 -0.060688 0.204515
GlobalSpecies0015 0.082515 -0.154667 -0.231706 -0.119528 -0.284286 0.022080 -0.379559 -0.217450 -0.043103 0.092078 0.007986 -0.212308 0.217600 -0.198938 -0.107642 -0.014310 0.039751 -0.186887 -0.071067 0.255493 0.070895 0.088263 -0.027993 0.151608 0.254218 0.185814 0.154176 -0.022088 -0.097175 0.041110 0.215901 0.215447 0.088058 -0.021287 -0.137786 0.130510 -0.031465 -0.251976 -0.072937 0.098902 0.112978 0.259858 0.054447 0.091061 -0.053671 -0.144930 0.134799 0.233136 0.084494 0.139448 0.169825 0.128964 -0.159161 -0.029814 0.084739 -0.078074 -0.093971 0.343558 -0.202506 -0.154298 0.023793 -0.029701 -0.192826 -0.020301 -0.240436 0.097178 0.100845 0.153005 0.214182 0.024127 0.153088 0.251483 0.107802 0.028509 0.012745 0.113419 -0.212985 0.056571 0.045990 -0.012983 0.293853 0.256614 -0.112236 0.212963 0.107460 0.212889 -0.169175 -0.168978 -0.029044 -0.183775 0.362321 0.178001 0.180121 0.000936 -0.001915 -0.232244 -0.227689 0.297321 0.003738 0.280058
GlobalSpecies0016 -0.091238 -0.019574 0.148571 0.083875 -0.004721 -0.340014 0.270898 0.035510 -0.099739 0.228165 0.185536 0.040705 0.036945 0.124035 0.259160 0.021733 0.157959 0.097223 0.115688 -0.082051 0.069728 0.142316 0.045709 0.235847 -0.323272 -0.074113 -0.001326 0.075046 0.149778 0.067568 -0.048564 -0.021396 -0.101305 -0.035825 0.078626 0.031670 -0.132924 -0.196592 0.170105 0.164012 0.033509 -0.112308 -0.031287 -0.364954 0.094076 -0.354323 -0.059395 -0.143095 -0.046711 -0.089931 0.158433 0.153218 -0.024930 -0.177923 -0.128285 -0.149937 -0.131937 -0.237425 0.110634 0.079981 0.152284 -0.045386 -0.243631 0.043876 -0.051924 0.102860 -0.150575 -0.207410 -0.050303 -0.045067 0.037775 0.068760 -0.069677 0.047250 0.084499 -0.056812 0.270384 0.062559 -0.296343 -0.213763 0.087492 -0.029649 -0.158204 -0.213650 0.154851 -0.191531 -0.008447 0.272367 -0.113129 0.140013 0.394618 -0.227932 -0.180831 -0.086126 0.040740 0.090293 0.040009 0.065717 0.124546 0.070334
GlobalSpecies0017 -0.000880 0.007362 0.154549 0.068974 -0.063200 -0.080290 0.000701 -0.087086 -0.154351 0.150156 0.025807 0.082328 -0.100222 0.038721 0.064109 0.055901 0.073784 -0.222972 -0.061559 -0.012887 -0.074892 0.017690 0.079444 0.030426 -0.026037 -0.090417 0.208372 0.011094 0.106868 0.054549 -0.103962 -0.122238 -0.070471 -0.202406 -0.219462 -0.035793 -0.013917 -0.043037 0.131285 0.007240 -0.000015 -0.136007 -0.178105 0.024626 -0.041973 0.009627 0.139553 0.174320 0.014115 -0.162304 0.004438 0.303490 -0.095795 -0.024222 -0.113732 0.017086 -0.110487 0.015309 -0.189290 -0.252200 0.183231 0.047910 0.022816 0.031721 -0.061993 0.001419 -0.091677 0.042581 0.078739 -0.047743 0.045927 0.108091 -0.009515 0.026845 -0.121440 0.045703 0.114650 -0.030944 -0.030375 -0.027987 0.029737 -0.130815 -0.159950 0.094809 0.123049 -0.207451 0.139043 0.244533 0.105099 -0.164649 -0.149657 0.199649 0.046992 0.087160 -0.133597 0.175492 0.005556 0.037553 0.058413 0.109152
GlobalSpecies0018 -0.197084 0.052492 -0.278042 0.252696 0.179169 0.200875 0.030697 0.055552 0.026890 0.027139 -0.134348 0.243670 0.042708 -0.136993 0.005919 0.099886 0.201382 -0.085096 0.152108 -0.182770 -0.399711 -0.212887 -0.002529 -0.078917 0.189667 -0.032869 -0.083101 -0.088092 0.000002 -0.099987 -0.212251 -0.082442 0.078684 -0.034740 -0.137610 -0.047979 -0.065616 0.212173 0.062749 -0.221860 0.164444 -0.020061 -0.257333 0.559177 0.070054 0.266078 0.154888 0.020683 -0.224398 -0.283947 0.027535 0.007455 -0.256834 0.205116 0.195548 0.257337 0.029673 0.002632 -0.289465 -0.029008 -0.030257 0.028958 0.037697 -0.306252 0.194717 -0.164032 0.251943 0.214991 -0.047112 -0.086082 0.271211 -0.250138 -0.251500 -0.001555 -0.060696 -0.269358 0.195401 0.221716 0.180091 0.180237 -0.082332 0.003736 -0.458575 -0.057435 0.021525 0.026118 0.183148 0.058824 -0.100800 0.109990 0.089358 -0.397370 0.102236 -0.172377 -0.213862 0.233356 -0.341525 -0.159564 0.083481 0.131295
GlobalSpecies0019 0.128143 0.196743 -0.073434 0.168477 0.164107 0.065995 0.152179 0.047258 -0.510299 -0.190988 0.074402 0.241949 0.078991 -0.362568 0.281169 -0.011264 0.022332 -0.156254 0.011085 -0.192162 0.007619 -0.123540 0.005470 -0.148949 -0.070159 0.220087 -0.046326 -0.142173 0.247455 0.027258 -0.145393 -0.143865 0.083531 -0.041372 0.029723 -0.099856 -0.155186 0.001368 0.001334 -0.150413 0.060878 -0.053941 -0.235058 0.001750 0.137598 -0.124612 0.073812 -0.080828 -0.250013 -0.127049 0.074132 -0.114238 -0.174977 0.179239 -0.054818 0.274672 0.062400 0.010781 -0.042641 -0.002237 0.112449 0.005272 -0.394436 0.082580 -0.065538 -0.163231 0.078991 -0.298231 -0.000062 -0.049162 -0.183339 -0.134063 0.226384 0.086627 0.106969 0.304858 -0.129605 0.157802 -0.085765 0.150211 0.127677 -0.336311 -0.199843 -0.106911 0.156622 0.170532 0.271234 0.366510 -0.025288 0.185930 -0.128051 -0.074531 0.052791 0.190210 -0.266584 0.114630 -0.075488 -0.129721 -0.110238 -0.154223
GlobalSpecies0020 0.122490 0.221992 -0.101084 -0.090910 -0.037978 -0.113316 0.124752 -0.310943 -0.420853 -0.232883 -0.013842 0.204987 0.038871 -0.245857 0.047628 -0.104114 -0.095673 -0.261442 -0.019754 -0.187979 0.003016 -0.086054 0.039314 -0.158239 -0.098279 -0.115996 -0.129570 0.199387 0.259793 0.115022 0.196760 0.028665 0.057516 0.093403 0.122716 0.057871 0.061174 0.181587 -0.179387 -0.050393 0.379249 -0.107638 0.095637 -0.028670 0.052335 0.205114 -0.106257 0.046698 0.213293 0.256201 -0.053334 -0.175409 -0.023324 0.130253 0.041497 0.194862 0.366359 -0.062540 0.220779 -0.362311 -0.285649 -0.525095 0.163173 0.072202 0.175204 -0.155129 -0.038479 -0.053020 -0.011832 -0.038131 0.259634 -0.062554 0.012667 0.251019 0.254323 0.121219 0.182980 0.011068 -0.081993 0.118956 -0.109914 0.292237 -0.011303 -0.186351 0.353932 -0.014563 0.254117 0.168424 0.190879 0.244490 -0.124573 -0.083844 -0.144984 -0.095893 -0.168446 0.133690 -0.113479 -0.077990 0.352558 0.240090
GlobalSpecies0021 -0.058258 -0.091157 -0.109253 0.086063 -0.136016 -0.211437 -0.073136 0.132952 -0.036514 0.296490 0.200552 -0.108403 -0.140137 -0.044395 0.126989 0.087460 -0.079769 -0.062808 0.263976 -0.022807 -0.214657 0.260685 -0.011794 0.339969 -0.052808 -0.136102 0.280295 -0.078690 0.063078 -0.095016 -0.130028 0.059263 -0.150307 0.001644 0.097160 0.031780 0.011275 0.020027 0.055733 0.207797 0.095753 0.051827 -0.075068 -0.209838 0.045499 -0.218995 0.076127 -0.214011 0.016309 -0.056621 0.112777 -0.104973 0.087408 -0.159241 -0.162935 -0.206096 -0.404059 -0.226628 0.125630 -0.040018 0.048434 0.008101 0.030965 0.031345 0.161402 0.140285 0.108267 -0.014403 0.033930 0.034856 -0.327966 -0.025641 -0.025202 0.002246 -0.348301 -0.121691 0.260306 0.132217 -0.159500 -0.004900 -0.099915 -0.171354 0.021273 -0.081240 0.037566 -0.192407 0.080897 0.125479 -0.197142 -0.114134 0.132502 0.151300 0.240534 -0.079481 0.020995 -0.029908 0.074040 -0.024905 0.050032 -0.064899
GlobalSpecies0022 0.005216 -0.081495 0.062741 0.168783 0.183952 0.067164 -0.008136 -0.154526 0.136288 -0.124952 0.135334 0.091835 -0.129743 -0.049199 -0.154901 0.125535 0.026032 0.089658 -0.073964 0.022837 0.064919 -0.382716 -0.087486 -0.204277 -0.134736 -0.101299 -0.193872 -0.016385 0.023569 0.050725 0.007575 -0.033101 -0.011394 -0.060174 -0.086778 -0.152208 0.028512 0.079447 0.021636 -0.025021 0.003635 -0.137566 -0.183863 0.009949 -0.196623 -0.148310 0.017749 0.024285 0.074315 0.189294 -0.003987 -0.001034 -0.043920 0.152878 -0.003859 0.094818 0.252416 -0.122841 0.046856 0.057038 -0.131351 0.027022 -0.077309 0.071959 -0.133101 0.256372 0.145048 -0.199797 0.120675 0.221760 -0.151430 0.233511 0.132004 -0.048637 0.162867 0.094526 -0.029927 0.025034 -0.239185 -0.146697 -0.272095 -0.122884 0.005025 -0.106903 -0.094080 -0.002050 0.035498 -0.031511 0.069860 0.092149 -0.141219 0.039222 0.046039 0.063212 -0.155362 0.079678 -0.002060 0.236172 -0.242665 -0.025307
GlobalSpecies0023 0.014566 -0.034026 -0.167656 0.124684 -0.062000 0.027783 -0.243819 0.228895 -0.247196 0.067697 -0.370843 0.320213 0.272211 0.224091 -0.018903 0.412611 0.146027 -0.002114 0.142370 0.012879 0.002485 0.230921 0.045769 0.149417 0.092501 0.236752 0.106173 0.048460 0.104700 0.116704 0.177220 0.031501 0.023361 0.073845 -0.176790 0.165979 0.523167 0.427623 -0.290353 0.065973 0.135988 0.113649 -0.181215 0.073030 0.026136 -0.086496 0.006220 -0.006398 -0.085587 -0.115456 0.172039 -0.067804 -0.078155 0.282586 -0.188030 0.134925 -0.014574 0.316738 -0.143861 -0.279949 -0.414026 0.055272 -0.090187 0.046912 -0.018667 -0.078552 0.268123 0.307202 -0.052586 0.146730 0.235027 -0.027106 0.012374 0.173020 -0.032792 0.094120 -0.198176 0.281793 0.105545 0.408349 0.044938 0.243783 -0.537523 0.068624 -0.146081 0.199795 0.110430 0.161574 0.080308 0.129601 -0.006962 -0.063859 0.055262 -0.093118 0.021844 -0.094890 -0.081179 0.291071 0.254445 0.282420
GlobalSpecies0024 -0.465350 0.103092 -0.041117 0.258781 0.038586 0.045546 -0.184399 0.124204 -0.271972 -0.147201 -0.007871 0.265514 -0.225312 -0.055335 -0.024200 0.094285 0.024689 -0.207530 0.017024 -0.455099 -0.517170 0.114151 0.114860 -0.187719 -0.022027 0.159122 0.156867 -0.081056 0.134551 -0.216001 -0.140100 -0.192095 0.115458 -0.017174 0.117337 -0.217677 0.025796 0.139187 0.379963 -0.201832 0.268533 0.183313 -0.116117 0.482925 0.138283 0.078247 -0.056894 -0.018452 -0.035307 -0.099734 -0.090848 -0.226943 0.090287 0.299361 0.159381 -0.120016 0.105815 0.329933 -0.058706 0.142069 -0.218664 -0.200753 0.114376 -0.199329 -0.080932 -0.119933 0.099923 -0.164089 0.183632 -0.075154 0.010591 -0.402937 -0.112029 -0.131391 0.053985 -0.169546 -0.180325 -0.085028 0.374392 0.404564 0.150643 0.279172 -0.298728 -0.006278 0.018911 -0.076250 0.184004 0.074243 0.207255 0.027517 0.105608 -0.333194 0.108016 0.013087 0.123131 0.257263 0.014592 -0.415106 -0.142816 -0.139256
GlobalSpecies0025 0.169656 -0.139653 -0.171882 -0.114089 -0.058407 -0.051324 -0.071711 0.047504 0.207782 -0.096607 -0.154497 0.162797 -0.136376 0.236438 -0.033809 -0.045220 0.117388 0.085584 0.223631 0.350249 -0.076568 0.049219 0.065837 -0.083630 0.209724 -0.124754 -0.214942 0.101460 0.072930 -0.046865 0.130424 -0.009929 -0.000448 0.237772 -0.116231 0.247066 0.149367 -0.290577 -0.090169 -0.035840 -0.048782 -0.084009 0.097053 0.007240 0.208828 0.116749 0.036938 -0.027816 -0.083005 0.368928 0.001509 0.008975 -0.058509 -0.037442 0.109775 -0.077382 -0.067532 0.197149 -0.212144 0.095759 -0.116657 0.011950 -0.099442 -0.001681 0.107536 -0.049934 0.017109 0.392481 -0.444859 -0.030060 0.238466 0.033134 0.004353 0.099369 0.346602 -0.440077 -0.192722 -0.218215 0.086675 0.163893 0.131731 0.498007 0.022230 0.059880 0.127703 -0.125024 -0.338854 -0.061719 0.248760 -0.162457 -0.029395 -0.136153 0.005814 -0.155252 0.086414 -0.099537 0.029110 0.117694 0.200509 0.108726
GlobalSpecies0026 -0.031120 -0.044665 -0.083259 0.020639 0.134036 0.199039 0.278997 0.103314 0.050318 -0.004110 0.315359 0.173049 -0.010669 0.111753 0.109602 0.154025 -0.168495 0.074896 -0.137268 0.093720 0.161631 -0.200659 -0.047710 -0.144797 -0.131497 0.019724 -0.236643 -0.130414 0.161824 0.122972 0.005073 -0.082756 -0.102135 0.068202 0.018191 -0.154871 -0.184184 0.113215 -0.095469 0.051999 0.029352 -0.098593 -0.053910 -0.230322 -0.117454 -0.203006 0.020338 -0.095660 -0.003481 0.199856 -0.114937 0.128577 0.038621 0.068261 -0.100340 0.097406 0.245826 0.015062 0.174503 0.054187 -0.014482 -0.051190 -0.089248 -0.090821 -0.060500 0.290298 0.102598 -0.225261 0.057648 0.019841 -0.143985 0.028536 0.161406 -0.070169 0.264786 0.251044 -0.338342 -0.024672 -0.082352 -0.063318 0.012391 0.024496 0.084223 -0.297503 -0.094806 -0.016572 -0.089202 0.148538 0.181223 0.435710 0.133919 -0.055119 -0.099004 0.151136 0.017045 -0.055891 0.016093 0.072671 -0.181661 0.038451
GlobalSpecies0027 -0.065896 -0.036537 0.170455 0.054169 0.223404 0.189141 -0.019086 -0.035427 0.038569 0.312439 -0.088436 0.120281 0.073787 0.183272 0.192787 0.022044 -0.022204 -0.079231 -0.026682 -0.161934 0.031664 -0.091224 0.011677 -0.006000 0.009766 0.130168 0.093798 0.041218 0.030658 -0.092946 -0.073445 -0.051063 0.146196 -0.201040 -0.120089 -0.087270 0.060446 0.143525 0.210833 -0.021699 0.090066 -0.150091 -0.323589 -0.029724 -0.149162 0.014146 -0.056889 -0.158049 -0.034857 0.143338 -0.010175 0.060541 0.079898 -0.044170 -0.166080 0.164823 0.105889 -0.017437 -0.090621 -0.082533 0.013950 0.026766 0.086400 -0.005286 -0.083327 0.079812 -0.077371 -0.070458 -0.003487 0.105337 -0.246745 -0.072380 0.215919 0.021718 -0.047775 0.132088 0.117485 -0.100992 0.075143 0.068469 -0.187550 -0.145916 -0.186123 0.092972 0.151943 -0.097873 0.003064 -0.002757 -0.028136 -0.182017 -0.217757 0.041192 0.051132 0.005259 -0.051751 0.167228 -0.096323 -0.078267 -0.096146 0.119003
GlobalSpecies0028 0.076258 0.111048 0.029832 -0.006588 0.113718 -0.052169 -0.002264 -0.084348 -0.015444 -0.060070 -0.195670 -0.010792 0.089693 0.161685 0.154570 0.099079 0.182626 -0.004099 0.009854 -0.034870 -0.040514 -0.170781 0.034473 0.180769 -0.033280 -0.046808 -0.047710 0.090495 0.048710 -0.111667 -0.317130 -0.082355 0.032504 -0.101297 -0.048772 0.195946 -0.106295 0.023568 0.085873 -0.133831 -0.261471 -0.211969 -0.225692 -0.044259 0.147246 0.177369 -0.172877 0.059253 -0.061676 -0.108371 -0.237604 0.021970 -0.010496 -0.059667 -0.313901 0.194047 -0.004309 -0.167703 -0.204713 -0.016613 0.114378 0.174061 -0.013603 0.118006 0.003745 -0.178958 -0.027875 0.017437 0.033022 0.029447 -0.021708 -0.003774 0.139341 0.127837 -0.141320 0.053312 0.158945 -0.196898 0.150413 0.044850 -0.242777 -0.102058 -0.012389 0.066594 0.118853 -0.006565 -0.072608 -0.060686 0.023257 -0.385876 -0.271871 -0.018412 0.022872 0.021069 -0.017683 0.146758 0.007398 -0.002113 -0.145622 0.067305
GlobalSpecies0029 -0.091692 -0.014018 -0.159901 0.154129 0.250482 -0.030786 -0.125016 -0.163540 0.189668 0.254146 0.113234 0.169952 0.078260 0.213605 -0.011146 0.241840 -0.084432 -0.103205 0.124368 0.185838 0.028210 -0.154296 0.056124 0.218449 0.048393 -0.056080 0.068497 -0.003361 -0.128618 0.024496 -0.062539 0.256500 -0.277715 0.183598 -0.006373 -0.050134 0.204668 0.189358 0.055388 0.259994 0.158676 -0.012375 -0.381598 -0.221139 -0.153837 -0.061388 -0.072915 0.082305 -0.035924 0.011892 -0.146489 -0.056185 -0.129516 -0.186809 -0.081400 -0.161439 -0.054921 -0.200184 0.029233 0.084569 0.163643 -0.003051 0.206075 -0.155135 -0.133120 0.173226 -0.007111 -0.120518 0.087514 0.196981 -0.323459 -0.063454 0.381273 0.018277 -0.171709 -0.115735 -0.002444 -0.094255 -0.013021 0.001464 -0.134881 -0.102332 -0.049568 0.138625 0.111450 -0.041842 0.057271 -0.056711 -0.203965 0.244174 -0.077304 0.082649 0.051900 -0.037546 -0.077378 -0.018898 0.202944 -0.104780 -0.064860 -0.021439
GlobalSpecies0030 0.104626 -0.083069 0.325383 0.401598 0.041626 -0.077365 -0.324297 0.154728 0.337519 -0.220051 0.005282 -0.142990 -0.167655 -0.129969 -0.147547 0.085120 0.237484 0.189433 0.025788 -0.162268 0.002421 -0.138786 -0.054777 -0.215453 -0.121040 -0.152611 -0.184119 0.036509 -0.150323 0.139043 0.088748 -0.151273 0.172653 -0.297954 -0.239815 -0.159675 -0.050989 -0.038818 0.029306 -0.115317 0.091931 0.143910 0.100537 -0.144041 0.009646 0.121228 0.015383 0.260457 -0.076268 0.039973 0.104183 -0.208723 -0.174560 0.010043 -0.139193 0.118985 0.075021 -0.142311 0.009435 -0.030344 -0.250806 0.272753 0.143891 0.332489 -0.012620 0.056817 0.079388 -0.175947 0.341391 0.307264 -0.063964 0.227717 0.078537 -0.185358 0.044440 0.086858 0.222441 0.166907 0.147714 -0.087657 -0.199439 -0.120366 -0.108907 0.181049 -0.193549 0.039555 -0.052596 -0.160142 -0.010422 -0.000414 -0.054347 0.024077 0.002630 -0.042075 0.086654 0.080656 -0.142657 0.313951 -0.296797 -0.365638
GlobalSpecies0031 -0.171629 -0.172591 -0.081671 0.045774 -0.063068 0.065726 0.188720 -0.105671 -0.018035 0.099371 0.147629 -0.027353 0.049894 -0.098960 0.002221 -0.050637 -0.034230 -0.119058 -0.249284 0.107437 0.105996 0.045541 0.014269 0.131889 -0.017828 -0.105171 -0.108679 0.022155 0.148572 0.147202 -0.035982 -0.085211 -0.098659 -0.121136 0.053939 -0.150818 0.147983 -0.054494 -0.093362 -0.004596 0.004147 0.026524 -0.170493 0.089772 -0.086332 -0.100177 0.072764 -0.114081 -0.115987 -0.093534 -0.160014 0.177286 0.113949 0.193445 0.132202 0.187762 0.170227 0.036939 -0.162422 -0.045710 0.119428 0.032588 -0.040851 -0.087843 -0.245047 -0.027811 -0.002942 -0.023851 -0.050991 0.018940 0.251126 0.112574 0.060482 0.058580 0.013885 -0.105314 -0.087797 -0.114540 -0.321072 -0.110767 -0.018326 0.131580 0.297838 -0.247598 0.044561 -0.087223 -0.147784 0.027382 0.041179 -0.024242 -0.082793 -0.051011 0.051852 -0.033909 -0.025159 -0.034640 -0.056958 -0.054303 0.262573 -0.047839
GlobalSpecies0032 0.094235 -0.017781 -0.201042 -0.267026 -0.000363 0.087459 0.056956 -0.111451 -0.136647 -0.236135 -0.059285 0.218484 -0.058924 0.071024 0.036930 -0.092416 -0.088833 0.239836 0.004734 0.041543 0.206249 -0.225521 -0.001157 -0.072671 -0.083941 -0.168874 -0.086891 -0.122098 0.042208 -0.052007 -0.162052 0.193677 0.126818 0.186834 -0.070800 0.106640 0.009443 0.122443 -0.182969 -0.011361 -0.303960 -0.219823 0.361397 -0.206541 0.246431 -0.024374 0.164737 -0.152933 -0.060615 0.160640 -0.226105 0.057473 -0.005754 0.024581 -0.004009 -0.019858 0.054486 -0.027144 0.222986 0.276589 0.170436 0.036528 -0.374781 0.163152 -0.144371 0.064678 -0.059420 0.011330 -0.209353 -0.127138 -0.042543 0.087788 -0.167736 0.017295 0.012083 0.152897 0.011604 0.022846 -0.015703 -0.113635 -0.091162 -0.078285 0.266824 0.073078 -0.185895 0.028049 -0.215257 0.208084 0.025443 0.066117 -0.221684 -0.078727 -0.183839 0.249008 0.139468 -0.191335 -0.281741 0.165225 -0.204128 -0.051450
GlobalSpecies0033 0.210545 0.130267 -0.351051 -0.152450 -0.063705 -0.136772 0.293621 -0.229212 -0.259641 -0.128187 -0.221965 -0.106362 0.233891 0.115322 0.327052 -0.047036 0.006743 -0.094514 0.149783 0.250977 -0.076347 0.258307 -0.030252 0.042743 0.007147 0.019842 0.048728 0.215023 -0.334690 0.292135 -0.086156 0.193811 -0.017210 -0.051636 0.086103 0.280302 0.066728 -0.038717 0.214968 0.190534 0.233300 0.085633 0.160425 0.009033 0.234575 -0.097111 0.103324 0.075318 0.204406 0.144958 -0.215324 -0.030839 0.118907 -0.106068 -0.197623 -0.196079 0.016486 0.032058 0.068842 -0.069462 0.283271 -0.080656 0.266603 0.156069 -0.274762 -0.030500 -0.459806 0.354538 -0.025528 -0.105018 0.480476 -0.253890 0.357220 0.153216 0.109807 -0.257753 -0.087535 0.017889 0.113116 -0.176666 -0.013505 -0.039595 0.123779 0.058766 0.371421 -0.053375 -0.204698 0.191522 0.134327 -0.053752 -0.061238 0.163318 0.054269 -0.149658 0.115355 -0.109805 0.103569 0.258880 -0.139004 -0.178353
GlobalSpecies0034 -0.114901 0.064286 0.299563 0.121881 -0.132161 0.002890 -0.060874 0.004412 0.163968 -0.034309 -0.094711 -0.092775 0.069214 -0.115758 -0.169693 0.095301 0.153916 -0.224665 -0.118828 0.246052 0.134820 -0.124017 0.175955 0.037314 -0.250454 0.022965 0.169321 0.144002 0.073647 -0.201794 0.189513 -0.208000 0.368988 -0.556245 0.128566 0.057305 0.139111 -0.063052 -0.171593 -0.087739 0.122462 0.037462 0.188578 0.129843 0.187299 0.080901 0.172027 0.349900 0.030257 -0.186305 0.111586 -0.015702 -0.147614 -0.084391 0.082763 -0.099131 0.239769 0.277966 0.003275 -0.276932 0.153836 -0.043424 0.028195 0.048483 -0.168979 -0.036931 -0.124587 -0.161917 -0.156797 0.076931 0.131348 0.272283 -0.056184 -0.027061 0.049935 -0.131136 -0.074263 0.239326 -0.081900 -0.191223 0.058883 0.089724 0.149230 0.205639 -0.232496 0.078272 -0.002781 -0.133624 0.045210 -0.103889 0.024199 0.235121 -0.222356 0.305874 0.021089 0.050642 0.027245 0.237211 0.241390 0.098604
GlobalSpecies0035 -0.154385 -0.218279 -0.042538 0.248049 0.179312 0.304974 -0.219088 0.238305 0.255910 -0.094885 -0.117453 -0.080660 -0.271868 -0.112727 -0.197000 0.152051 -0.096320 0.174453 0.075562 -0.179196 -0.050595 0.198072 -0.018277 0.087883 0.254636 0.037480 -0.131786 -0.282997 -0.144594 0.101573 -0.069370 0.027031 -0.072603 0.292410 -0.049353 -0.125677 0.138456 -0.137791 0.009993 -0.021149 0.121435 0.238966 -0.162791 -0.089243 0.177774 0.081193 -0.324267 -0.160489 0.073248 -0.290474 0.198354 -0.262124 -0.045879 0.104913 0.169538 -0.103768 -0.036333 0.082735 0.136427 -0.058221 -0.363410 0.040973 0.025092 -0.078829 0.100079 -0.125385 0.475645 0.242704 -0.066534 -0.063549 0.105790 -0.190696 -0.270107 0.196701 -0.022508 -0.166537 -0.047042 0.031151 0.009127 0.271089 -0.224773 0.316940 -0.459995 0.010936 -0.277337 0.122177 0.022549 -0.302510 0.014876 0.068522 0.297840 -0.345943 0.024691 -0.340181 0.241845 0.056532 0.036555 0.034870 0.052645 -0.027303
GlobalSpecies0036 -0.115087 -0.049171 0.079009 0.072394 0.142968 -0.132380 -0.067137 -0.180736 0.047507 0.201089 -0.025069 -0.000941 -0.011834 0.012601 0.031012 0.124120 0.100333 -0.134527 -0.133114 0.196314 0.045259 -0.168593 0.085626 0.135989 0.009943 0.076769 0.068392 0.035042 -0.090030 0.069082 -0.021437 0.115646 -0.046376 -0.224728 -0.134073 0.087523 0.050920 -0.068732 0.107354 0.077743 0.067736 -0.060479 -0.100859 -0.048123 -0.150927 -0.070061 0.095252 0.178153 0.086425 0.135992 -0.034889 0.213166 -0.125145 -0.052074 -0.187866 -0.004798 -0.027180 0.051876 -0.122242 -0.101703 0.068893 0.038370 -0.102653 0.140395 -0.194733 0.195373 -0.024480 -0.002089 0.074009 0.067844 -0.089120 0.059063 0.271002 0.040813 0.024354 0.013272 -0.052549 -0.051612 0.080166 -0.029566 -0.186238 -0.028913 0.077512 0.090106 0.156411 -0.058482 -0.103183 0.067281 0.083699 -0.039092 0.029373 0.214372 0.009142 -0.013386 -0.007512 0.142991 -0.038628 0.161034 0.015802 0.070208
GlobalSpecies0037 -0.097678 -0.114045 -0.234151 0.035653 -0.159004 -0.070512 0.135650 -0.191827 -0.145526 0.065692 0.006791 0.134666 0.160364 -0.141500 0.125390 -0.161918 0.016333 -0.151374 -0.147887 0.082671 0.220769 -0.233241 0.154500 -0.173258 -0.104159 0.079381 0.026965 0.031210 0.202459 0.031762 0.146525 0.070132 -0.160132 -0.078416 -0.030642 0.113288 -0.016267 0.087586 -0.035455 0.017976 0.000666 -0.110651 0.018627 -0.129804 0.164397 -0.123762 0.262861 0.044760 0.030409 0.174723 0.100903 0.328571 -0.203936 0.100656 0.049358 -0.012148 -0.106422 0.162528 -0.023565 -0.121929 -0.024445 -0.050689 -0.364961 0.002107 -0.079409 0.090429 0.089404 0.112989 0.090443 -0.025181 0.032382 0.052876 0.050653 -0.170513 0.222635 0.281768 -0.262920 0.179218 -0.067443 -0.017454 0.218466 0.263166 0.062912 0.149975 0.124813 0.234517 -0.152344 0.214806 0.114311 -0.011668 0.251846 0.110722 -0.127241 0.010022 -0.113075 -0.072750 -0.198850 0.216743 0.077695 -0.006411
GlobalSpecies0038 -0.126909 0.044463 -0.067806 0.064894 0.040485 -0.091028 -0.152838 -0.213929 0.120205 0.229411 0.091774 0.019770 0.131165 0.028955 0.133192 0.150145 -0.053604 -0.186955 -0.031952 0.221921 0.032148 -0.048656 0.089919 0.282207 0.081289 0.160972 0.062559 0.100439 -0.027736 0.008274 -0.000266 0.091519 -0.128242 0.050815 -0.086965 0.099428 0.229663 -0.012222 -0.014939 0.143963 0.011167 -0.059969 -0.156371 -0.147430 -0.185718 -0.146180 -0.007851 0.056369 0.104491 0.123882 0.007874 0.139867 0.000471 -0.109331 -0.232260 -0.105688 0.004107 0.072692 -0.059692 -0.114967 0.109621 -0.121372 -0.065535 -0.057603 -0.003715 0.107132 0.040205 0.133371 0.032035 0.035482 -0.136612 -0.078071 0.284517 0.150627 -0.005047 -0.161251 -0.159102 -0.191822 0.084355 0.009355 -0.065443 0.078530 -0.005873 0.099558 0.237810 0.104410 -0.086248 0.091224 0.080124 0.003336 0.094203 0.232891 0.098298 0.028396 0.010162 0.104156 -0.011616 0.059910 0.040466 0.059005
GlobalSpecies0039 -0.091493 -0.143477 -0.131384 0.167054 0.188430 0.151826 -0.204140 0.065246 0.335024 0.219013 0.235949 0.075277 0.066600 0.128753 -0.067370 -0.010655 -0.326121 0.177187 -0.127287 0.156046 0.233869 -0.105174 -0.040769 -0.030425 0.215681 0.138622 -0.336614 0.002852 -0.245401 -0.044602 0.204584 0.084856 -0.155647 0.246093 -0.125651 -0.125660 0.028562 -0.054022 -0.171701 -0.000663 0.111578 0.150312 -0.065938 -0.196186 -0.532939 0.015120 -0.353422 -0.148723 0.020305 0.434016 0.205312 -0.004703 -0.049688 -0.220558 0.144207 0.019729 0.013155 0.078645 0.057983 0.125547 -0.045193 -0.039152 0.241765 -0.083471 0.004450 0.178878 0.121670 -0.252911 0.245452 0.165269 -0.318039 -0.203957 0.121681 -0.087049 0.174089 -0.118996 -0.130138 -0.126504 0.209162 0.001058 0.066800 -0.166935 -0.115271 -0.066747 0.062472 -0.105124 -0.006768 -0.039359 0.015806 0.323358 0.245413 -0.006252 0.077128 0.104670 0.144819 -0.009136 0.102289 -0.073430 -0.202942 -0.204893
GlobalSpecies0040 -0.098794 0.026860 0.111969 0.062451 0.176656 -0.079228 -0.238894 0.107875 0.053932 -0.113259 -0.132001 0.052606 -0.098718 0.154451 -0.163175 0.274634 0.027228 0.001249 -0.093792 -0.007546 0.044473 0.015087 -0.004912 0.100014 -0.149324 0.099796 0.116615 -0.044068 -0.023647 0.132075 -0.133923 0.013493 0.023080 -0.132273 -0.113238 0.018966 0.136823 -0.225211 0.131462 -0.095330 -0.003049 -0.158692 -0.151382 -0.087306 0.066227 -0.104746 -0.148196 0.163985 -0.040695 -0.164532 0.015897 0.028540 -0.019147 -0.016989 -0.307124 -0.059588 0.087147 -0.072731 0.038964 -0.313368 -0.068812 0.065614 0.107117 0.057066 -0.034393 -0.008204 0.110477 -0.042666 0.101361 0.163510 -0.061527 -0.035616 0.103931 0.041250 -0.082381 -0.042450 0.086215 0.198572 0.043876 0.121417 -0.168952 0.083708 -0.144197 -0.061705 -0.099501 -0.040983 0.031111 0.013415 -0.064893 0.025647 -0.127646 0.004681 0.171509 -0.207449 0.130306 0.034012 0.117966 0.051705 0.007173 -0.102280
GlobalSpecies0041 0.328287 0.225732 0.063311 -0.215078 0.194794 0.152760 -0.081732 -0.042167 -0.234134 -0.328239 0.062273 0.057098 0.096086 -0.041552 0.045468 -0.026875 0.150181 -0.000460 0.226540 -0.048477 -0.094402 0.133330 0.012035 0.032233 0.142999 -0.119453 0.044755 -0.238921 -0.009533 -0.153590 -0.088490 -0.234923 -0.123723 -0.085007 0.082633 0.050573 0.066976 -0.051105 0.167198 -0.065491 -0.009293 -0.136273 0.340717 0.097497 -0.053937 0.233791 -0.140354 -0.152600 -0.174210 0.102398 -0.121417 -0.122303 -0.228114 -0.062930 0.317103 -0.146213 -0.020395 -0.195360 -0.123595 0.020069 0.199891 0.013966 0.001367 -0.155040 0.076474 -0.060543 -0.228336 -0.082919 -0.031388 -0.139672 -0.053563 -0.370890 -0.114732 0.079959 0.004046 0.274402 -0.030169 -0.385406 0.285743 0.048202 0.262377 -0.195687 -0.259251 0.027393 -0.096084 -0.122802 0.052298 0.071492 -0.021217 -0.154889 -0.365258 0.027660 0.017286 0.058668 0.108456 0.065466 0.049470 0.129963 -0.028208 -0.025602
GlobalSpecies0042 0.169226 -0.059239 0.099154 0.125534 0.164337 0.043100 -0.203538 -0.032625 -0.346508 -0.211952 -0.229201 -0.066082 -0.435235 -0.225719 -0.164568 0.159358 0.288415 -0.107494 -0.035501 0.128500 -0.013829 -0.022358 0.065534 0.427012 0.037949 0.129494 0.037644 -0.086265 -0.242047 0.211613 -0.250069 -0.160431 -0.071395 0.057573 -0.126203 0.128594 0.122940 -0.275902 0.044700 -0.212468 0.112654 -0.119147 -0.075727 -0.146354 -0.114491 -0.089425 0.157194 0.281767 0.217238 -0.222840 0.024933 0.144401 0.043432 0.256945 -0.319266 0.105076 0.083160 0.065845 -0.043203 -0.075588 0.205594 -0.074866 -0.088264 -0.216598 -0.173776 0.208314 -0.071679 0.265791 0.285237 0.099141 0.077679 -0.289798 0.129599 -0.052368 -0.061349 -0.182290 -0.058467 -0.139765 0.290324 -0.141139 -0.035697 -0.006827 -0.038080 -0.161247 0.092615 -0.007163 -0.093953 0.010875 -0.043050 -0.143876 0.085987 0.218621 0.060039 0.003445 0.132014 0.156708 -0.036202 0.222251 0.075355 -0.048587
GlobalSpecies0043 0.002619 -0.042386 -0.156473 0.385885 0.088903 0.250958 -0.087865 0.345740 -0.050149 -0.221189 -0.243633 0.198581 -0.329459 -0.144351 -0.040505 0.105473 -0.193379 0.287614 0.032322 -0.212259 0.002411 0.076859 0.122870 0.118881 0.119383 -0.181293 -0.369523 -0.080829 -0.202516 -0.003394 0.080708 0.295286 0.122051 0.240776 0.025009 -0.198284 -0.081942 0.010622 0.000232 -0.137126 0.137769 0.152453 -0.196033 -0.179451 0.270794 0.097691 -0.458411 -0.132388 0.131338 -0.118785 0.298787 -0.235128 -0.130665 -0.234288 0.297393 0.064951 -0.077350 0.139339 0.087377 -0.104665 -0.360019 0.104662 0.209885 0.056728 0.118758 -0.138646 0.573912 0.239614 -0.260879 -0.088411 0.053357 -0.290415 0.283797 0.033113 -0.044297 -0.202458 -0.020593 0.517088 0.151878 0.254170 -0.123440 0.349869 -0.222648 0.187667 -0.153658 0.157407 -0.141825 0.002443 0.031687 -0.017653 0.085331 -0.423354 0.153434 -0.652415 0.170598 -0.113104 0.020013 0.036291 0.166971 -0.087708
GlobalSpecies0044 -0.101045 0.008056 0.266251 0.029569 0.099050 -0.135003 -0.489379 -0.047549 0.175438 -0.356638 -0.126937 -0.073740 -0.189752 0.264559 -0.322276 -0.055876 0.240310 0.321551 0.067346 0.081919 0.057848 -0.112319 0.050876 -0.101129 0.105479 -0.131183 0.018227 0.325974 -0.434025 -0.068836 0.189389 0.055701 0.083930 0.061294 -0.095080 0.111384 -0.141024 -0.088084 -0.131944 -0.129961 0.019219 -0.129256 0.131881 0.330213 0.152106 0.457654 0.225628 0.330731 0.079197 -0.047182 -0.155881 -0.118403 0.069362 -0.074946 -0.051985 0.076396 0.119573 -0.004094 0.016140 -0.105863 -0.259887 -0.287892 0.224861 -0.003839 -0.030579 0.106105 -0.050008 0.159471 -0.125873 0.237182 0.155867 0.184931 0.054483 0.127362 0.210661 -0.246354 -0.040942 0.002586 0.039831 -0.137976 -0.136499 0.110252 0.167545 -0.009388 -0.378088 -0.110392 0.041624 -0.107626 -0.065474 -0.199897 -0.049971 -0.434644 0.015539 -0.169472 0.340237 0.163159 0.259488 0.083025 -0.017708 -0.183079
GlobalSpecies0045 -0.024218 -0.204105 0.053131 0.036246 -0.309046 0.001660 0.094395 -0.100810 0.116095 0.181003 0.247052 0.045410 -0.252497 -0.094105 -0.051806 -0.062997 -0.175256 -0.321667 -0.127784 0.140596 -0.150179 0.002110 -0.104063 0.072785 0.263732 0.009581 0.100478 0.036115 0.027198 -0.057886 -0.024124 0.145485 -0.089560 0.066881 -0.059822 -0.085691 -0.020703 -0.129601 -0.052502 0.061529 -0.064768 -0.017714 -0.005859 0.106402 -0.323462 -0.099313 -0.060276 -0.090908 0.134504 0.089546 0.065947 0.186361 0.025484 0.026471 0.043793 0.040954 -0.217060 0.261967 0.009163 -0.023651 0.129082 -0.023668 -0.051964 0.034264 -0.030786 0.146817 -0.027315 -0.080029 0.058862 0.025037 -0.072252 0.094012 0.002220 -0.003924 -0.045473 -0.185635 -0.258638 -0.276873 -0.154895 -0.224975 0.054334 -0.059783 0.068259 0.013626 0.118382 -0.083208 -0.110390 0.220690 0.088057 -0.121058 0.213782 0.070905 0.112151 0.112072 -0.058799 0.117984 -0.002589 0.055698 -0.045090 0.054563
GlobalSpecies0046 0.044443 0.069204 0.321565 0.193315 0.229549 0.476000 -0.066487 0.073726 -0.170971 0.199538 -0.185865 -0.054051 -0.083898 -0.135463 0.248797 0.054124 0.371019 0.064979 -0.147320 -0.280644 -0.239755 -0.028920 -0.145521 -0.321762 -0.135026 -0.064443 -0.122393 -0.062371 -0.078341 -0.028920 -0.139397 -0.542011 0.177165 -0.020762 -0.144361 -0.276276 -0.403871 -0.134433 0.166930 -0.182306 0.048360 -0.122845 -0.316541 0.049798 0.150990 0.165386 -0.043029 0.100577 -0.067944 -0.232296 0.111240 0.030210 0.095635 0.181379 0.148096 0.017654 0.066266 -0.059492 -0.174373 -0.099396 0.311896 0.492537 0.066737 0.030293 0.018475 -0.179428 -0.074793 -0.145789 0.041673 -0.050116 -0.054505 -0.081545 0.063761 -0.266563 0.021294 0.179866 -0.085430 0.110176 0.210838 0.013702 -0.094699 -0.063641 -0.252906 -0.014801 0.132401 0.071520 0.276900 -0.211505 -0.094188 -0.388532 -0.059491 0.169049 -0.047735 0.104569 0.038072 0.046871 -0.038408 -0.028322 -0.126596 -0.160814
GlobalSpecies0047 0.145373 -0.131810 0.089468 0.031008 -0.013534 -0.098638 0.060393 -0.154959 -0.067770 0.125220 -0.060086 0.011359 0.004144 -0.127428 -0.005049 -0.107788 0.218918 -0.161452 -0.018090 0.035064 0.026725 -0.191777 0.093507 -0.216795 -0.043972 -0.013595 -0.044964 0.042860 0.071405 0.237498 0.170279 -0.069191 0.031556 -0.240598 -0.205420 0.028931 0.089653 -0.034565 0.018411 -0.133385 -0.010159 -0.035493 0.046954 -0.059260 0.036200 -0.085636 0.184147 0.133939 0.053569 0.133091 0.068695 0.185337 -0.002321 0.242045 0.000481 -0.080285 0.064497 0.118522 -0.038944 -0.179421 0.009921 0.017026 -0.304324 0.133057 -0.229777 0.038137 -0.065530 0.009130 -0.016668 0.118548 0.094776 0.220303 0.138739 -0.056552 0.157572 0.271222 -0.130141 0.126416 -0.066796 -0.064173 -0.008071 0.040530 0.146128 0.080549 0.081331 0.106141 -0.193848 0.075890 0.287549 -0.117918 0.025160 0.195993 -0.106487 -0.034462 -0.066863 0.044520 -0.142208 0.300033 0.022187 0.069546
GlobalSpecies0048 -0.119591 0.052628 0.002872 -0.028167 0.183514 0.087378 0.125585 -0.211338 -0.059939 0.107443 -0.004941 0.031629 0.148239 -0.099105 -0.066818 -0.034680 -0.145396 -0.126952 -0.139746 -0.077678 -0.013422 -0.116199 0.066366 0.016170 -0.094639 0.071512 -0.118057 0.044919 0.182224 -0.040657 -0.110181 -0.165831 0.117579 0.045308 -0.063078 -0.140502 -0.162883 0.219314 0.052951 -0.132331 0.042686 -0.078424 -0.258058 0.158877 -0.064300 0.039120 -0.132759 -0.094621 -0.147182 0.042571 -0.067827 0.006659 0.002350 0.058507 -0.004643 0.213944 0.108320 -0.025098 -0.016894 -0.073255 -0.050379 0.054287 0.007350 -0.140478 -0.114676 -0.076990 -0.071875 -0.307252 -0.039049 0.069763 -0.039156 -0.167641 0.066682 0.135433 0.028515 0.131647 -0.098114 -0.183109 -0.029364 0.100481 -0.049571 -0.230655 0.101655 -0.100794 0.050593 0.021702 0.064146 -0.041683 -0.010568 0.044035 -0.075434 0.065185 -0.065704 0.165892 -0.249133 0.094117 0.001640 -0.041855 -0.055155 0.111635
GlobalSpecies0049 0.137697 -0.004101 -0.065236 -0.260709 0.122853 0.143570 0.051199 0.002422 -0.105986 -0.051096 -0.015555 0.034384 -0.047107 0.260003 -0.179417 0.227846 -0.016444 0.481988 0.087816 0.188300 0.039803 -0.024785 0.061680 0.155661 0.098045 0.027192 -0.063228 -0.066319 -0.177046 -0.318194 0.028232 0.070863 0.034434 0.174244 0.191372 0.354221 -0.162561 -0.165095 0.013005 0.030084 -0.155503 -0.053208 0.692883 -0.058636 0.143600 0.158331 -0.142564 0.274744 -0.136990 0.259144 -0.004343 -0.118940 0.239244 -0.272094 0.169302 -0.302122 0.027407 -0.070810 0.076016 0.375917 0.262610 0.093501 -0.018381 0.048523 0.139954 0.017517 -0.053298 0.196737 -0.008812 -0.448119 0.027700 -0.224553 -0.095358 -0.127814 0.039453 0.103925 -0.018057 0.152370 0.230765 -0.283249 -0.065352 0.051095 0.101802 0.067861 -0.054387 0.035934 0.027423 -0.044253 -0.090686 -0.187482 -0.250468 -0.361712 0.123379 0.158338 0.182497 -0.081946 -0.081058 0.001911 -0.455030 -0.230156
GlobalSpecies0050 -0.035925 0.053981 -0.334411 -0.097271 -0.307880 -0.086144 -0.499593 -0.139473 -0.206587 0.075485 -0.088424 -0.208369 0.114609 0.036482 0.143302 -0.234669 0.261696 -0.043742 -0.013439 0.177202 0.136446 0.273350 0.050298 -0.070973 -0.013099 0.165894 0.200241 0.164500 -0.370268 0.016998 0.207344 -0.013150 0.150710 -0.283864 0.103151 0.516990 0.283480 -0.227604 -0.114790 0.441077 0.131307 0.254140 0.136363 0.126267 -0.146171 -0.236199 0.195720 0.090254 0.228525 0.218884 0.182305 0.018861 -0.168156 0.110617 0.248116 -0.074335 -0.392578 0.290195 -0.032482 -0.087353 -0.123735 -0.159473 -0.245658 0.175729 -0.037226 0.069468 -0.083981 0.064464 0.098611 0.412058 -0.000255 -0.010211 -0.045947 -0.167957 -0.019323 -0.040565 -0.336817 0.135462 -0.092656 -0.127092 0.058333 0.061363 -0.055050 0.248243 0.362950 0.102055 -0.100308 0.047117 0.033446 -0.249719 0.560170 0.008538 0.148999 0.124093 0.207253 -0.324739 -0.128111 0.295198 0.036308 0.033328
GlobalSpecies0051 0.082117 -0.093351 -0.122841 0.207704 0.071540 0.065187 0.087976 0.210523 -0.318260 0.132800 0.097908 0.203387 0.046854 0.119627 0.206423 0.160121 0.085329 -0.131682 0.270338 -0.112046 0.018173 -0.173284 0.214430 -0.189827 -0.011260 0.100072 0.086222 0.092624 0.212879 -0.067515 0.257939 -0.389873 -0.033673 -0.054767 0.049073 -0.062498 0.101494 0.029326 -0.048696 0.024199 0.186829 0.071095 -0.335673 0.313825 0.135386 -0.141913 0.291670 -0.135607 0.174492 0.226031 -0.004023 0.220828 -0.009353 0.086761 0.087880 0.193085 -0.211530 0.175855 -0.289646 -0.130276 -0.026187 -0.239897 -0.320848 -0.168071 -0.209227 -0.130033 0.144489 0.117314 -0.084340 0.167758 0.098959 0.277976 0.148711 -0.062847 0.213380 0.246887 -0.315537 -0.265707 -0.044381 0.188592 0.247343 0.213435 -0.342744 0.222884 0.299551 -0.039870 0.142145 0.081211 0.127571 -0.131969 -0.013629 -0.287252 -0.068484 -0.129100 -0.074690 0.186931 -0.060261 0.010660 0.075093 0.430098
GlobalSpecies0052 -0.126156 -0.113849 -0.140646 0.283783 0.042207 0.315044 -0.067765 0.595572 0.300547 -0.274308 -0.726205 0.040803 -0.471372 0.029385 -0.144965 0.440350 0.005483 -0.216117 -0.240025 -0.405244 -0.171266 -0.259435 -0.267149 0.203411 0.084078 0.305122 -0.262715 0.014447 -0.252134 0.340252 0.128900 0.612978 -0.037233 0.246640 -0.238164 0.332478 -0.109535 0.099883 0.069620 -0.055481 -0.040959 0.566188 0.243823 0.259498 -0.054158 0.386271 -0.238679 -0.204188 0.128872 -0.435677 0.241254 -0.287070 -0.294836 -0.025826 0.085893 0.380754 0.038150 0.239441 -0.053531 -0.288654 -0.177838 0.442258 -0.023318 0.291754 0.592408 -0.483228 0.294997 0.302525 -0.030948 0.009225 0.387313 -0.104176 -0.382416 0.158324 -0.097167 0.023255 -0.096109 0.327083 0.244437 0.560394 -0.086455 0.196396 -0.199242 -0.120655 -0.215422 0.302982 -0.034622 -0.085560 0.044345 0.130955 0.529539 -0.519416 -0.327482 -0.343406 0.144085 0.130030 0.186168 -0.163316 -0.058443 0.002867
GlobalSpecies0053 0.039278 0.226592 0.250978 -0.072875 -0.145053 0.136761 -0.232729 0.061779 -0.439208 0.116692 -0.015371 0.031940 0.152742 -0.149980 0.166121 -0.135515 0.269124 -0.169747 0.053760 -0.114620 0.051923 0.054259 0.041777 -0.219637 0.349209 0.334665 0.126137 -0.012258 -0.228149 -0.242409 -0.111398 -0.311337 0.119052 -0.156459 -0.113998 -0.210827 -0.133461 0.025185 0.054355 0.030084 -0.069035 0.065962 -0.118479 0.050000 -0.226537 -0.074072 0.097381 0.088056 0.141412 0.098034 0.056917 0.119618 -0.101956 -0.081146 0.098601 -0.106850 -0.192616 0.272699 -0.291258 -0.152277 0.150081 -0.156393 -0.155442 0.023159 0.046155 -0.269685 -0.010308 -0.011635 -0.130130 0.101862 -0.026565 0.050941 -0.046295 -0.019878 0.188053 0.187035 -0.314345 0.030752 0.179171 0.226468 0.237502 0.029897 -0.376744 -0.064005 0.163638 0.002864 0.064078 0.120948 -0.081396 -0.008655 0.047182 0.243539 0.399490 -0.120226 -0.067432 0.117608 -0.167244 -0.013998 0.068552 0.445081
GlobalSpecies0054 -0.004613 -0.026082 0.038356 0.048286 0.141522 -0.031656 -0.104756 0.028519 0.021864 -0.096759 -0.081626 -0.024038 -0.168757 0.020701 -0.093068 0.263428 0.078118 0.009075 0.023050 0.001527 -0.084542 -0.096654 -0.155091 0.189246 0.024875 0.067826 0.089790 0.023132 -0.326383 0.163987 -0.100568 0.202624 -0.076269 0.271301 -0.186141 0.075583 0.106286 -0.065473 0.113290 0.091058 0.130390 0.007779 -0.182486 -0.080594 -0.164292 -0.257074 -0.170457 0.034884 0.098218 -0.110208 0.100636 -0.027458 -0.107754 0.060598 -0.162154 -0.006752 0.088136 -0.162655 -0.072103 -0.072639 -0.002540 -0.015827 -0.059516 -0.096251 -0.044473 0.058732 -0.077925 0.121487 0.040797 0.063796 0.026078 -0.236249 0.090286 0.237795 -0.057774 -0.119766 0.124648 -0.020237 0.023525 0.177020 -0.108937 -0.060911 -0.060391 -0.107623 -0.016385 0.065567 0.065094 0.083639 0.004943 0.096112 0.087769 -0.199885 0.022211 -0.174890 0.162618 0.182628 0.215359 -0.186333 0.143073 -0.060740
GlobalSpecies0055 -0.212836 0.093542 -0.026088 0.270197 0.143234 -0.332502 0.034827 0.055367 -0.068259 -0.125921 0.018979 -0.004223 -0.018865 0.018353 0.104211 0.176977 0.120496 -0.050195 -0.029141 -0.181064 0.086303 -0.176975 0.055733 -0.056884 -0.384990 -0.182616 0.037602 0.056948 0.132652 0.277019 -0.269964 -0.084109 0.040000 -0.154623 0.034104 0.019601 0.108421 0.125710 0.100587 0.024621 -0.120410 -0.141225 0.008155 -0.242034 0.211322 -0.276217 -0.068406 0.058399 0.012232 0.035518 -0.010208 0.062798 -0.153587 -0.063236 -0.299768 -0.072760 0.002546 -0.343677 0.049460 -0.129993 0.046823 -0.009175 -0.242126 0.240099 -0.091363 -0.051412 0.038725 -0.174896 0.143903 0.156146 -0.168087 0.008539 0.141624 -0.102415 -0.033065 -0.013842 -0.018066 -0.057515 -0.051471 0.152556 -0.056836 -0.023454 0.017622 0.119250 0.133045 -0.028980 0.050182 0.200105 0.111490 -0.040667 -0.056718 0.099564 -0.310535 -0.021692 0.110506 0.175868 0.012446 0.272683 -0.014213 -0.163901
GlobalSpecies0056 0.233548 0.218597 -0.166440 -0.355129 0.005505 0.245026 -0.104019 -0.028656 0.171801 -0.149914 -0.131864 0.100829 0.028477 0.213102 -0.003101 0.024367 0.014555 0.595496 0.197095 0.266367 -0.050027 -0.380144 -0.239511 -0.031914 -0.153002 -0.032114 0.110708 -0.125546 -0.112628 -0.297310 0.019320 0.331406 -0.292340 -0.100043 0.062480 0.164852 -0.160347 -0.266116 -0.028030 0.017185 -0.079048 -0.058765 0.520466 0.014424 0.255364 0.268035 0.007284 -0.014265 0.252199 0.357211 -0.248379 -0.280844 -0.065508 -0.018142 0.103489 -0.378851 0.179450 -0.007195 0.038785 0.529645 0.023309 0.093401 0.151490 0.154461 0.155211 -0.133662 -0.161174 0.281304 0.123256 -0.138371 -0.046499 0.350060 -0.020435 -0.180881 0.120190 0.201869 0.015067 0.018990 0.203502 -0.212772 0.190784 0.276641 0.261651 0.217274 0.069306 0.084955 0.061041 -0.073494 0.148391 -0.413312 -0.117459 -0.515217 0.202241 0.383726 0.070233 -0.161540 -0.006926 -0.065783 -0.493931 0.194926
GlobalSpecies0057 -0.359888 0.006699 -0.226638 0.195284 0.232121 0.065936 -0.054893 0.192986 0.215303 0.059104 -0.167212 0.257343 0.141506 -0.478306 -0.282951 0.342182 -0.021785 0.038760 0.098532 -0.093061 0.107564 0.192674 0.184937 0.187964 -0.049711 0.060810 -0.092204 -0.168142 -0.011194 0.022650 0.162189 0.030899 0.092227 0.225427 0.136103 -0.009244 0.223651 -0.216922 -0.231832 -0.011419 0.103618 0.018663 -0.048544 0.025219 0.332035 -0.018405 -0.376321 0.079906 -0.124702 -0.352152 -0.083601 0.237501 -0.078110 0.127265 0.279462 0.060353 -0.240899 0.163425 0.060099 -0.167635 -0.674762 0.237104 -0.066032 -0.157917 -0.140210 -0.203509 0.518151 0.100510 -0.086431 -0.028134 0.408252 -0.294240 -0.096079 0.128218 -0.071124 -0.005108 0.027031 0.341913 -0.100824 0.179560 -0.209788 0.313935 -0.489455 -0.108487 -0.414668 0.118465 0.326801 -0.254675 -0.396584 0.082393 0.102186 -0.212768 0.052287 -0.289454 0.316436 0.049229 0.089446 -0.039256 0.000332 -0.193609
GlobalSpecies0058 0.007171 -0.282466 -0.022402 0.134960 0.169648 -0.054209 0.204493 0.356668 -0.137791 0.241565 0.129320 -0.159881 -0.064317 0.166839 -0.061657 -0.069869 0.042918 -0.207946 0.192779 0.063666 -0.098742 0.432545 -0.087026 0.181816 -0.063181 -0.225537 0.475299 -0.148705 -0.075246 0.347318 -0.006440 -0.069132 -0.331928 -0.190492 0.254116 0.156702 0.161132 0.117915 0.009560 0.124322 0.228277 -0.186401 -0.159836 -0.374045 0.071995 -0.221407 0.444434 -0.073293 -0.052651 -0.237322 -0.171501 -0.098832 -0.058159 -0.245017 0.024570 -0.152143 -0.333343 -0.171527 0.249894 0.221291 -0.005816 0.124482 -0.079323 -0.150967 0.145352 0.269723 0.268421 0.072239 0.046908 -0.186547 0.017735 0.098456 0.046317 0.174260 -0.321210 -0.235920 0.352243 0.114198 -0.158122 -0.106940 -0.218006 0.037075 -0.103188 0.118342 0.007730 -0.024179 0.205193 -0.251348 -0.135540 -0.282768 -0.032369 0.163843 0.296584 0.045281 -0.153346 0.068598 0.248534 -0.271437 0.140778 -0.033462
GlobalSpecies0059 -0.111482 -0.087382 -0.270431 0.045389 -0.130522 -0.052955 0.121998 -0.323225 -0.420733 0.027225 -0.174659 -0.042922 0.038995 -0.327685 -0.052544 0.017018 0.032964 -0.097630 -0.215279 0.198749 0.165604 -0.186991 0.103276 -0.053343 -0.304447 -0.157290 -0.269994 0.075725 0.223440 -0.277468 0.071529 0.096554 0.092268 -0.132853 0.167743 0.039088 -0.012507 0.042152 0.048170 -0.055602 0.074772 0.120171 -0.096115 -0.348823 0.000833 -0.098856 0.024575 -0.171062 -0.053007 0.172808 0.143702 0.218711 -0.021939 0.089165 0.126842 0.175769 0.136121 0.043641 -0.245162 -0.091446 -0.043749 -0.038432 -0.264926 -0.010612 -0.018532 0.042092 -0.114163 -0.017443 -0.029909 0.021155 0.100730 0.152635 -0.091855 -0.019330 0.184009 0.218808 -0.055625 0.027743 -0.308212 -0.011412 -0.090594 0.141575 0.111913 -0.057079 0.124794 0.028657 -0.090102 -0.147282 0.069865 0.199898 0.051212 0.215990 -0.161139 -0.207798 -0.106778 -0.075007 -0.053927 0.338387 0.307876 0.047834
GlobalSpecies0060 0.089063 0.096240 0.164481 -0.099111 0.290646 0.027838 0.064346 -0.073719 -0.277484 -0.208072 -0.203358 0.108263 0.079298 0.016427 0.172404 -0.035091 0.262587 0.075751 -0.113127 0.038536 -0.117217 -0.275322 -0.162772 -0.366039 0.025890 -0.007876 0.016690 0.064232 -0.129412 -0.085514 -0.149609 -0.291342 -0.047375 -0.140105 -0.282922 -0.003977 -0.264312 -0.044244 0.026478 -0.303501 -0.077833 -0.096773 -0.007228 0.168601 0.041944 0.247029 0.039106 0.114973 0.074426 0.136859 -0.093769 0.142289 0.031819 -0.002411 0.022707 -0.054531 0.141996 -0.181763 -0.394324 0.051835 0.256337 0.096421 0.186402 0.096999 -0.207589 -0.084484 -0.147892 -0.230663 0.230875 0.125154 0.050184 0.142503 0.218738 -0.105926 0.200255 0.105199 0.030033 -0.164620 0.252981 0.041927 0.045830 -0.069615 -0.286312 -0.109901 0.312035 -0.130664 0.114033 -0.233350 0.038315 -0.301916 -0.405727 0.049652 0.003273 0.030493 -0.088631 0.143777 0.376005 0.178546 -0.256496 -0.079830
GlobalSpecies0061 -0.038045 -0.255474 -0.322717 0.189855 0.162415 0.121791 -0.327767 0.048464 -0.083056 -0.446761 -0.166629 0.006803 -0.174427 -0.135431 0.177059 0.021937 -0.263276 0.679722 -0.127506 -0.133965 0.199112 0.578227 -0.149806 0.280913 -0.308971 -0.037551 -0.044604 -0.066966 -0.113159 -0.179411 0.266231 -0.031730 0.028953 0.486353 0.140121 0.033138 0.114363 -0.002497 -0.112905 -0.017505 0.441347 -0.185943 -0.162734 0.026936 -0.060334 0.144741 -0.103789 0.032923 0.147415 -0.179395 0.249405 -0.372717 0.016844 0.276651 0.333672 -0.036690 0.009415 -0.015007 0.059842 -0.093266 -0.664885 0.286072 0.190762 0.197694 0.244238 0.004625 0.127643 0.045279 0.328684 -0.258723 0.242349 -0.239244 -0.224015 0.388914 0.053650 -0.335691 -0.089775 0.078059 -0.227041 0.070658 -0.443796 0.182680 -0.378299 -0.032336 -0.382111 0.155400 0.132933 -0.053351 -0.308717 -0.301094 0.338710 -0.638825 0.147687 -0.297478 0.006401 -0.210474 0.176829 -0.003714 0.294432 -0.335010
GlobalSpecies0062 -0.164623 0.118949 -0.026036 -0.010630 0.096610 -0.003978 0.049172 0.075071 0.019637 -0.058096 -0.117533 0.026880 -0.018124 -0.000110 -0.025028 0.070030 0.133562 0.012275 -0.107237 -0.053484 0.062020 0.044668 0.124232 0.024065 -0.257536 0.035980 0.071198 0.034532 -0.040668 0.059402 -0.121567 -0.044817 0.027806 -0.044970 -0.020012 0.068229 -0.113579 -0.092155 0.210070 -0.087519 -0.187064 -0.087160 -0.191828 -0.008229 0.179901 -0.120976 -0.096286 0.105674 0.013837 -0.166836 -0.053985 0.036054 0.042498 0.290496 -0.250981 -0.049470 0.098448 -0.183048 -0.002339 -0.158885 0.080456 -0.070602 0.025628 -0.045128 -0.085209 -0.040767 0.012249 -0.031347 -0.042977 0.034266 0.090985 -0.165099 0.062134 -0.070965 -0.004356 0.016411 0.020287 0.115654 -0.122333 0.068816 -0.201676 -0.017724 0.215570 -0.032022 -0.089706 0.119340 -0.059002 -0.009222 0.015696 0.142535 -0.051047 -0.001052 -0.157353 -0.183938 -0.063256 0.075535 0.063313 0.028192 0.220866 -0.079653
GlobalSpecies0063 -0.089667 -0.134751 0.039339 0.015367 0.111841 0.130833 -0.142464 -0.099248 -0.146183 0.006926 -0.035563 -0.035028 0.256236 0.064262 0.386657 -0.154404 0.224728 -0.185545 0.063009 0.134337 0.124145 0.018580 0.081701 0.394992 0.048266 0.172497 0.072627 0.206989 -0.261945 -0.011680 -0.217122 0.072036 -0.227922 0.218151 -0.138270 0.306972 0.140212 -0.012338 -0.181684 0.001559 -0.090484 -0.218865 0.356537 0.077891 0.144542 -0.202001 0.217219 -0.029000 0.269797 0.009604 -0.024370 0.059760 0.224812 -0.057637 -0.194030 -0.128171 -0.029470 -0.077467 -0.242111 -0.149838 0.383982 -0.287798 0.111887 -0.015322 -0.018427 -0.078584 -0.082525 0.082672 0.087890 0.045522 0.257358 0.055559 0.238884 0.105911 -0.201188 -0.406070 0.114134 -0.061071 0.069452 -0.219538 -0.117059 0.085740 0.026270 0.084398 0.305767 0.127538 -0.205141 0.115626 -0.208977 0.062436 -0.010379 0.135982 0.283887 0.078360 -0.054559 -0.256783 -0.231965 0.231231 -0.066946 -0.029527
GlobalSpecies0064 0.072657 -0.006562 -0.088245 0.102099 -0.203708 -0.092984 -0.350415 0.020456 0.059600 -0.131140 0.087993 -0.130047 -0.272151 0.032321 -0.083367 -0.105826 0.093862 0.121613 -0.048220 0.074952 0.072323 0.118200 0.082159 0.062582 -0.010834 0.126558 0.049958 0.035777 -0.078135 0.095927 0.219678 0.006359 0.084301 -0.130283 -0.149221 0.039369 0.322572 -0.047127 0.038132 -0.225889 -0.080420 -0.216285 -0.184541 0.215775 0.010773 0.195597 0.036749 0.307006 0.025742 0.035005 0.125077 0.097803 -0.160876 0.091799 -0.103890 0.094968 0.184481 0.226359 -0.038149 -0.366848 -0.115919 -0.036213 -0.075142 0.139871 0.022932 -0.043454 0.044126 -0.031812 0.151273 0.134516 0.071630 0.141638 -0.178041 0.205742 0.107378 -0.004707 -0.143021 0.043427 -0.072241 0.077979 -0.035632 0.300304 -0.197287 -0.050860 -0.112515 -0.127405 -0.107752 0.122023 0.215388 -0.174809 0.201803 -0.014051 -0.034018 -0.151925 0.153637 0.085780 -0.122659 0.203779 0.070080 -0.014283
GlobalSpecies0065 -0.165481 -0.061961 -0.097097 0.184637 0.128283 -0.103616 -0.165917 0.262909 -0.108604 0.230088 0.024157 0.021652 0.314830 0.105060 0.040415 0.330493 -0.103066 0.001978 0.203500 -0.057585 -0.034868 0.012370 -0.009067 0.266766 -0.044491 0.084841 0.172411 -0.200142 -0.152568 0.161197 -0.343717 0.160939 -0.231483 -0.123345 0.121138 0.203042 0.188163 0.139763 0.033327 0.434517 0.079903 0.330011 -0.051706 -0.318881 0.056081 -0.403457 0.057989 0.167801 0.027537 -0.028511 -0.045135 -0.323693 -0.044418 -0.292691 -0.413418 -0.137282 -0.097093 -0.258977 -0.045115 0.057286 0.187215 -0.039529 0.217287 -0.216918 0.237638 0.098005 0.062978 0.151789 0.195905 0.191510 -0.296600 -0.178122 0.180102 0.042260 -0.403970 -0.060199 0.145032 0.225392 0.129812 -0.001204 -0.152848 -0.083809 -0.111898 0.038713 0.182423 0.196460 0.202135 -0.262344 -0.272902 0.195525 0.068336 -0.131297 0.025774 0.015960 0.199395 0.036182 0.062938 -0.138495 -0.031335 -0.123623
GlobalSpecies0066 -0.079983 0.146146 0.046011 -0.066016 -0.255669 -0.139953 -0.056517 -0.201979 -0.015995 0.134312 -0.068419 -0.196247 0.190341 -0.176287 -0.192595 0.006668 -0.016296 -0.125571 -0.059027 0.159012 0.099668 0.275226 0.084527 -0.008092 -0.014525 0.109090 -0.052345 0.154899 -0.002405 -0.090554 0.162627 0.040985 0.214933 -0.096404 -0.093588 0.054958 -0.089651 -0.037974 -0.079376 0.042417 -0.012024 0.172723 -0.009236 0.097182 -0.051970 0.076348 0.161188 0.065402 -0.129369 -0.077324 0.106861 0.220507 0.095723 0.044216 0.215363 0.067075 0.111979 0.121180 -0.136085 -0.151090 0.054026 0.019549 -0.051061 -0.002917 0.082490 -0.111017 -0.132791 0.174753 -0.014993 -0.127721 0.210519 0.024900 -0.080327 -0.064311 0.071388 -0.096712 0.073825 0.004332 -0.070552 0.055407 -0.007243 0.139898 0.274618 0.011225 -0.101951 0.184157 -0.279587 -0.075669 -0.019987 0.162219 0.248437 0.269750 -0.150384 -0.049220 -0.013480 -0.067177 -0.143093 0.158748 0.325610 0.244252
GlobalSpecies0067 -0.029887 0.000378 -0.062721 -0.056371 0.034143 -0.011470 -0.266784 -0.114109 -0.105859 0.246697 -0.024504 0.053871 0.396128 0.018322 -0.109042 0.151363 0.263640 -0.311727 -0.136083 -0.090160 0.041156 0.163550 0.293824 0.399743 0.122110 -0.012351 -0.012962 -0.042538 -0.042394 0.198555 -0.034942 0.132225 -0.207216 -0.122402 -0.127065 0.549622 0.146938 -0.096477 -0.015012 0.310102 -0.030893 -0.103230 0.117816 -0.191979 -0.077414 -0.174488 0.222725 0.301176 0.118147 0.018407 0.241343 0.244965 0.006852 -0.083586 -0.248252 -0.112817 -0.312653 0.045977 -0.137576 0.007457 0.015922 -0.136644 0.056656 -0.148131 -0.097646 -0.037760 -0.010512 0.091952 0.343071 0.053966 0.055762 -0.274770 0.298423 0.192515 -0.132608 -0.040625 0.080080 0.127398 0.013794 0.046850 -0.119461 -0.095701 -0.276410 0.254143 0.393720 0.356420 -0.322178 -0.032911 -0.175446 0.115514 0.379603 0.164004 0.062158 -0.030642 -0.213777 -0.074511 -0.209740 0.010692 0.172383 -0.116096
GlobalSpecies0068 -0.015183 0.192967 0.025089 -0.041959 0.024864 0.054148 0.227467 -0.053882 -0.326467 -0.048833 -0.088140 -0.018339 0.059322 -0.162131 0.015087 -0.102218 -0.101618 -0.178147 -0.033261 -0.197571 0.107870 -0.017862 0.068369 -0.082743 -0.139507 0.036294 -0.095171 0.009284 0.287417 0.023086 -0.075867 -0.234228 0.156560 -0.104957 0.133786 -0.141482 -0.152481 0.264323 0.012165 -0.111199 0.064198 0.048605 -0.220689 0.018823 0.138355 0.100994 0.013931 -0.148901 -0.152333 0.023497 -0.062443 0.027495 0.067150 0.056163 -0.006247 0.106966 0.009640 -0.145817 0.017891 -0.095130 -0.036686 -0.059313 -0.140269 -0.047440 0.041285 -0.132455 -0.121780 -0.170410 -0.095810 0.018634 0.042486 -0.139265 -0.072187 -0.000031 0.147954 0.231403 -0.021453 -0.109600 -0.023543 0.054414 0.042934 -0.094617 0.078990 -0.107827 -0.012285 0.115638 0.118794 -0.013356 0.044456 0.080010 -0.108773 0.126702 -0.186107 0.074228 -0.126173 0.073002 -0.080891 0.028273 0.132925 0.104211
GlobalSpecies0069 0.257124 -0.117338 0.023148 -0.027613 -0.439386 -0.243091 -0.039948 0.085793 -0.068467 -0.064207 0.077154 -0.286189 0.027608 0.305412 0.205047 -0.160119 -0.143898 0.246350 -0.067030 0.001255 -0.066533 0.060206 -0.267985 0.209084 0.029661 -0.257286 0.137568 0.226973 0.010720 -0.103573 0.010845 0.212007 -0.040233 -0.015016 0.114480 -0.088337 -0.107415 -0.016774 -0.167961 0.061295 -0.077404 -0.262501 0.571415 -0.106522 -0.014257 0.091501 -0.225064 -0.269651 -0.083503 0.101451 -0.170101 0.114190 0.180642 -0.396502 0.085541 -0.034193 -0.256783 0.081941 -0.044804 0.102672 -0.093598 0.015236 0.119862 0.100147 0.085404 0.178808 0.019292 0.104384 -0.062838 -0.042757 0.007121 0.081089 -0.132889 -0.115343 0.105566 -0.200986 0.206495 -0.085303 -0.053369 -0.142227 0.262294 -0.179900 0.042749 -0.180122 -0.178118 -0.261283 -0.189503 0.097133 -0.094498 -0.056938 -0.122428 0.026130 0.240828 -0.047134 0.118068 -0.251314 0.236282 -0.162240 -0.142654 -0.157861
GlobalSpecies0070 -0.181843 0.029612 -0.056104 0.153759 0.281647 -0.023113 -0.198842 0.033277 0.289092 0.213569 0.206265 0.102493 0.120015 0.045805 -0.095951 0.303636 -0.020394 -0.002929 0.176901 0.082815 0.079346 -0.176602 0.037194 0.272711 0.042324 0.030803 -0.016703 -0.017904 -0.140518 -0.053828 -0.090099 0.214591 -0.115183 0.195157 0.009123 0.003954 0.190191 0.113891 0.024276 0.199280 0.089937 0.110389 -0.191541 -0.109457 -0.293702 -0.240744 -0.091145 0.029700 0.041416 0.030683 0.092917 -0.020569 -0.086750 -0.129528 -0.179954 0.024335 0.010016 -0.204619 0.075282 -0.001347 0.050816 -0.050901 0.094421 -0.017013 -0.097576 0.226333 -0.064862 -0.104558 0.138559 0.011742 -0.247178 -0.172801 0.318755 -0.060873 -0.175875 -0.032978 0.042088 -0.007442 0.082610 -0.158385 -0.187812 -0.210321 0.040163 0.115839 0.068806 0.015076 0.003819 -0.000221 -0.256720 0.072050 0.038047 0.039932 0.004688 0.028179 0.059981 0.057013 0.049260 -0.209263 -0.035357 0.066957
GlobalSpecies0071 0.113317 0.013624 -0.325296 -0.196801 0.029448 0.106734 -0.211037 -0.133495 -0.248750 -0.201694 0.054950 0.096289 0.042640 -0.018379 -0.234825 0.079103 -0.056839 0.416656 0.174407 0.159336 -0.055478 -0.185662 -0.308182 -0.065813 0.069060 -0.069794 -0.101153 -0.112934 -0.326606 -0.124546 -0.199155 0.095259 0.119622 0.103163 0.146339 0.440939 0.000433 0.068903 -0.005185 -0.120385 -0.192008 -0.318731 0.540672 -0.259779 0.116112 0.144228 0.069548 -0.117769 0.013532 0.160973 -0.077508 -0.219088 0.005531 -0.410626 0.251479 -0.080556 0.249901 0.019298 0.181207 0.406727 0.221124 -0.041668 -0.042399 0.119930 0.296740 -0.006330 -0.080134 0.264165 0.120707 -0.275437 -0.058065 0.156455 -0.125480 0.051961 -0.091174 -0.110708 0.125070 -0.023630 0.243997 -0.326596 -0.105857 0.186250 0.142101 0.029029 -0.068537 -0.019088 0.025340 -0.163132 -0.017210 -0.227030 -0.193342 -0.283623 0.084253 0.260352 0.309774 -0.139682 -0.126664 -0.196667 -0.070438 -0.081778
GlobalSpecies0072 -0.318102 -0.027023 -0.084198 0.055857 0.161144 0.108237 -0.248745 0.038869 0.362092 0.228521 0.392120 -0.010660 -0.032967 -0.111270 -0.161679 0.172814 -0.402993 0.024157 -0.094185 0.055037 0.189865 -0.232564 -0.047758 -0.020878 0.233557 0.130694 -0.308209 -0.152796 -0.328788 0.107174 0.141224 0.115154 -0.142042 0.211678 -0.150451 -0.052616 0.097888 0.126587 -0.132378 0.023746 0.076594 0.168298 -0.130402 -0.116771 -0.478588 -0.002473 -0.223675 -0.125050 -0.013891 0.266954 0.053757 0.212546 0.027826 -0.277789 0.208908 0.084280 0.090151 0.030551 0.231158 0.148743 0.012250 0.000374 0.067607 -0.035035 -0.078659 0.150484 0.177957 -0.303125 0.185599 0.180082 -0.258874 -0.132728 -0.102128 -0.002861 0.031565 -0.006928 -0.232028 -0.200679 0.040607 -0.040926 0.087991 -0.206914 -0.106182 -0.074264 -0.041039 -0.118140 0.008651 -0.213157 -0.137085 0.009746 0.278258 -0.001287 -0.058403 0.151924 0.282128 0.132445 0.065582 -0.137939 -0.293875 -0.073155
GlobalSpecies0073 0.168757 0.174163 -0.017254 0.100898 -0.013627 0.099701 0.236086 0.091631 -0.238556 -0.025794 0.048132 0.105576 0.184458 -0.172026 0.113152 -0.087751 0.059319 -0.024964 0.117951 -0.390987 0.223525 -0.158407 0.089639 -0.150079 -0.111115 0.141257 -0.163679 0.028556 0.390259 -0.035715 -0.098089 -0.257029 0.106057 0.058857 -0.043115 -0.246016 -0.037432 0.231622 -0.060508 -0.090398 0.041819 -0.202491 -0.214573 0.065723 0.251702 -0.122992 -0.132281 -0.163338 -0.007255 0.007506 0.093867 -0.019571 0.079903 0.151956 0.032773 0.097034 -0.123368 -0.115818 -0.253232 0.109500 -0.082804 -0.068807 -0.375912 -0.060679 -0.158619 -0.101537 -0.088424 -0.114978 0.145168 0.039573 -0.009305 -0.013052 -0.114660 -0.023310 0.032013 0.175026 -0.044433 -0.089316 -0.054600 0.182721 0.195438 -0.221221 -0.389682 -0.037596 -0.018277 0.091725 0.281920 0.174244 -0.143494 0.047089 -0.151396 0.088697 -0.197905 0.130597 -0.156414 0.076752 -0.173213 0.136018 -0.189089 0.122374
GlobalSpecies0074 -0.150198 -0.099911 -0.192597 0.087111 -0.031946 0.152344 0.138545 -0.042049 0.045198 0.024279 0.033787 -0.067716 -0.032271 -0.063032 -0.188572 0.061073 -0.173442 0.039730 -0.104099 0.056654 0.149852 0.173566 -0.064965 0.146815 0.006866 0.041799 -0.155047 -0.015170 0.015924 0.080104 0.162614 0.052653 0.178921 0.161706 0.000585 -0.002224 0.029760 0.037116 -0.118949 -0.041760 0.193362 -0.013026 -0.275591 0.066809 -0.141426 0.259370 -0.276868 0.216268 -0.003527 -0.055742 -0.073618 -0.033779 0.015251 -0.010235 0.063276 0.155946 0.221639 -0.021624 0.127759 -0.187105 -0.053107 0.021971 0.142934 0.060672 0.117073 -0.015028 -0.019969 -0.024596 -0.028727 -0.085840 0.137912 -0.155586 -0.158080 0.135951 -0.019786 -0.224889 -0.058982 -0.061996 -0.047753 0.127309 -0.151108 0.051965 0.191009 -0.143136 -0.027056 -0.044120 0.176498 -0.086679 0.091836 0.300211 -0.058717 -0.113446 -0.143205 -0.116527 0.056504 0.062326 0.098327 -0.142408 0.227708 0.044841
GlobalSpecies0075 -0.303705 0.205034 0.342474 0.095174 -0.010284 -0.124678 -0.094654 -0.102640 0.030489 -0.023051 -0.135715 -0.197147 0.235557 -0.163754 -0.269542 -0.125080 -0.054417 -0.233331 -0.015063 -0.017976 0.239183 0.383675 -0.149577 0.044216 0.038079 -0.052390 -0.048476 -0.008019 -0.019961 -0.018206 0.362352 -0.066993 0.188343 0.094013 0.242601 0.163669 -0.213400 0.005188 -0.026130 -0.025461 -0.160914 0.370311 0.094648 0.101257 0.013027 -0.022809 0.119143 -0.148516 -0.313717 -0.218161 0.131866 -0.081262 -0.042659 -0.038161 0.176584 0.228094 0.151066 -0.099201 0.109996 -0.119453 -0.028527 -0.193217 0.366780 -0.161696 0.313486 -0.135285 0.058819 -0.110788 0.005638 -0.117307 0.072118 0.017330 -0.035924 -0.231357 -0.024629 0.058782 0.492896 0.091066 0.071374 0.002666 -0.069762 0.122642 0.347657 -0.100164 -0.166204 0.390137 -0.158728 -0.335579 0.051750 0.343495 0.290132 0.184646 0.035039 -0.049953 0.075176 -0.249788 0.124793 -0.309855 0.322717 -0.010414
GlobalSpecies0076 0.055965 0.003022 -0.055111 0.020284 -0.043600 -0.026345 0.093697 -0.163610 -0.423305 0.059727 0.002818 0.109412 0.075328 -0.143799 0.200046 -0.119583 0.006325 -0.124871 -0.109139 -0.102785 0.027203 -0.055072 0.062732 -0.137536 0.048096 0.087607 0.034955 -0.077566 0.257088 0.047066 -0.027458 -0.157601 0.078699 -0.052893 0.030289 -0.067862 0.007842 0.145070 -0.040113 -0.083889 0.120274 -0.060461 -0.143900 -0.019259 0.037099 -0.004491 0.215139 0.054715 -0.100758 0.054680 0.020117 0.228203 -0.016747 0.095205 0.089631 0.075394 -0.079863 0.113603 -0.115492 -0.068781 0.018517 -0.093173 -0.310742 0.039054 -0.183296 -0.077628 -0.015831 -0.040847 -0.018292 -0.059708 0.065986 0.041341 0.038601 -0.018117 0.223010 0.282886 -0.248944 -0.086417 0.026949 0.020637 0.184142 0.015806 -0.173373 0.036971 0.132528 0.095869 -0.014705 0.156180 0.148088 -0.117811 0.012437 0.126913 -0.026291 0.001686 -0.188181 0.019918 -0.159004 0.045162 0.015864 0.215467
GlobalSpecies0077 0.122606 -0.160278 0.143427 0.119842 -0.084694 -0.142299 -0.262179 -0.221370 0.041879 0.176678 -0.009519 -0.089274 -0.007132 -0.092261 -0.066045 -0.032522 0.189181 -0.092183 -0.058062 0.079580 -0.003522 -0.007401 0.079571 -0.096292 0.124437 -0.114059 0.033141 0.098504 -0.078483 -0.056685 0.211722 -0.129108 0.054084 -0.306099 -0.134636 -0.002695 0.070044 -0.175457 -0.014623 -0.134281 -0.037017 -0.044797 0.031755 -0.096630 -0.061293 0.183455 0.197705 0.361469 -0.002610 0.126858 0.102623 0.197577 -0.226040 0.055894 -0.015304 -0.159034 0.098681 0.199576 -0.304947 -0.089545 0.009697 0.117346 0.061683 0.156312 -0.156404 0.046509 0.010120 0.057639 0.200717 0.209950 0.067632 0.190105 0.023491 -0.065914 0.258377 0.064395 -0.031812 0.174031 0.022743 -0.127985 -0.144276 0.052893 -0.110185 0.157552 -0.017913 0.157992 -0.036307 0.035343 0.258279 -0.126470 0.134705 0.208785 0.109071 -0.103790 0.060146 0.086363 -0.182598 0.309207 0.045501 -0.121283
GlobalSpecies0078 0.174352 0.062782 -0.095634 -0.215378 -0.121086 0.107020 -0.070946 -0.116674 0.033624 -0.253436 0.026190 0.046824 0.007765 0.108224 -0.330057 0.100025 0.005785 0.440316 0.215964 0.091523 -0.084353 -0.159283 -0.100514 0.102769 0.081584 -0.107682 -0.230538 -0.148299 -0.339053 -0.247910 -0.107883 0.000107 -0.007136 0.298663 0.104345 0.365450 -0.159603 -0.069972 0.007986 -0.133518 -0.312140 -0.262127 0.416480 0.000427 0.154474 0.290375 -0.134685 0.089651 -0.088842 0.171876 0.068503 -0.103119 0.042860 -0.361125 0.230352 -0.197251 -0.053969 -0.022256 0.127522 0.408148 0.448353 -0.015504 -0.040005 0.093299 0.141465 -0.016161 -0.099151 0.235334 -0.073225 -0.360393 -0.110150 0.199042 -0.149770 -0.005943 -0.083196 -0.040868 0.106240 0.019876 0.176748 -0.162804 0.127492 -0.007998 0.204363 0.203908 -0.087443 0.120691 -0.110064 -0.126263 -0.048823 -0.280809 -0.138947 -0.267547 0.086557 0.143460 0.259119 -0.172009 0.040499 0.078467 -0.292421 -0.132069
GlobalSpecies0079 -0.162993 -0.002622 -0.030584 0.047463 -0.024887 -0.150854 0.032457 -0.412235 0.337106 0.378691 0.080529 -0.043091 0.336465 -0.069857 -0.296876 -0.139536 -0.207335 0.151228 -0.170160 0.168483 0.274624 0.181265 0.173776 0.132283 0.005580 0.214002 -0.066204 0.334937 -0.022050 0.032834 -0.018384 0.038913 0.190580 0.002893 0.061604 0.096512 -0.283551 0.246063 0.196347 0.015279 -0.071358 0.236691 -0.145193 -0.081657 -0.373059 0.037932 -0.353529 -0.076623 0.069545 -0.004337 0.170146 -0.239665 0.146889 0.111380 0.357187 0.139496 0.133104 -0.038152 0.179596 -0.144633 -0.167923 -0.003648 0.170459 -0.265258 0.004435 -0.174431 -0.025655 -0.150558 0.006836 -0.300002 -0.176107 -0.152987 0.054952 0.101121 0.042587 -0.091991 0.192913 -0.019746 0.029003 0.002037 0.010767 -0.019236 0.170260 -0.129829 0.198064 -0.160735 -0.093636 -0.062222 0.001487 0.238843 0.049009 -0.030646 -0.243471 0.285022 -0.008238 0.147177 0.048513 -0.015483 -0.010379 0.122853
GlobalSpecies0080 0.044703 -0.142270 0.032126 0.123644 0.190090 0.080428 0.011762 0.202648 -0.211863 0.058574 -0.123357 0.311472 -0.083555 0.327180 0.231819 0.007797 0.276015 -0.085525 0.174810 -0.013483 -0.005794 -0.029512 0.083557 -0.175345 -0.318861 0.085960 -0.090244 0.018207 0.141422 0.083774 -0.272756 -0.183915 0.207163 -0.079006 0.069296 -0.055723 0.069788 -0.036401 0.224153 -0.144804 -0.101528 0.069693 0.021135 0.050739 0.076534 -0.107220 -0.012763 0.026699 -0.113763 -0.247302 -0.215038 -0.111364 0.191383 0.054389 -0.172633 0.068497 0.185326 -0.163299 -0.104970 -0.028658 0.230010 -0.011790 0.063221 -0.051121 0.213160 -0.077602 -0.210381 0.088833 -0.305414 -0.033996 0.124636 -0.164611 0.110611 -0.196305 0.096831 0.043354 -0.107476 -0.071413 -0.038146 0.093584 0.068236 0.194111 0.179860 -0.195879 0.248940 -0.546613 0.013046 0.100569 0.273565 -0.176429 -0.171260 -0.026057 -0.274666 -0.209751 0.125403 0.102026 -0.022154 0.072292 -0.002250 0.175101
GlobalSpecies0081 0.238739 0.192709 -0.369445 0.318778 0.160397 -0.037864 0.226382 0.150109 -0.278580 0.133882 0.235677 -0.253590 -0.132969 0.101600 0.225386 -0.164939 -0.086634 0.181100 -0.112900 -0.047303 0.021633 -0.084741 -0.041368 -0.040522 -0.044815 -0.049429 -0.377416 -0.104896 0.019424 0.305323 0.099905 -0.251646 0.167390 0.390614 0.095737 -0.114341 -0.065087 0.325819 0.001380 -0.103226 -0.066934 0.121143 0.084879 -0.286879 0.375581 -0.169099 0.011521 -0.078666 -0.032837 0.105623 0.279890 -0.006523 0.181906 -0.138169 -0.102273 -0.049110 -0.073346 -0.230544 0.270901 0.215147 -0.157716 0.146025 -0.551045 -0.023875 0.074264 -0.047202 0.310642 -0.097011 0.180281 -0.251563 -0.117961 0.164469 0.321031 -0.077197 0.397432 0.475495 0.197152 0.334131 -0.433612 0.236674 0.216116 -0.065080 0.058004 -0.131858 -0.110156 0.391014 0.065361 0.033774 0.192470 0.237587 0.124726 -0.063242 -0.171004 -0.075322 -0.267999 -0.061225 -0.208576 -0.020967 -0.235085 0.022784
GlobalSpecies0082 -0.343059 0.335777 0.074096 0.003418 -0.137630 0.014745 -0.183389 -0.003140 0.170819 -0.022119 -0.061977 -0.254902 0.175859 -0.127878 -0.371643 -0.235309 -0.197356 -0.211387 -0.042945 -0.003040 -0.184129 0.281711 0.013745 0.051285 -0.254072 -0.024692 -0.174331 0.060221 0.141981 0.103434 0.178421 0.197859 0.327129 -0.004759 0.172135 -0.112995 -0.181547 0.306202 -0.145771 -0.190811 -0.241219 0.329990 -0.111659 0.098052 0.057510 0.104485 0.014795 -0.099824 -0.216793 0.019742 -0.006129 -0.251599 -0.096732 -0.181186 0.137238 0.131665 0.062908 -0.100432 0.162306 -0.082543 -0.183641 -0.101481 0.242955 -0.191525 0.328462 -0.409169 -0.368412 -0.219131 -0.025985 -0.018576 -0.023204 0.203241 -0.182672 0.076274 -0.160519 0.016267 0.340812 0.280707 0.193611 -0.050528 -0.051063 0.184154 0.359710 0.010521 -0.210905 0.311871 -0.055418 -0.293521 -0.074367 0.161000 0.439166 0.190439 -0.028448 0.170324 0.133589 0.002774 -0.001266 -0.211532 0.214023 0.014149
GlobalSpecies0083 -0.125130 -0.095174 0.177466 0.111562 0.010388 0.096143 -0.127643 0.131434 0.222428 0.051457 -0.271852 -0.248550 0.007806 -0.113195 -0.047864 -0.157268 -0.058797 -0.043547 -0.113980 -0.021797 0.189008 -0.068072 0.131515 0.075730 -0.246519 0.034763 -0.128818 0.105937 -0.027280 0.117326 0.017646 -0.398172 0.179108 -0.373648 0.096886 -0.107548 -0.191491 0.139099 0.053281 -0.192786 -0.077551 0.035754 -0.004996 -0.041153 0.041644 0.337811 0.032729 0.202877 -0.259267 0.009870 -0.117092 -0.142044 0.134773 0.080913 -0.222295 0.005394 -0.009322 -0.011527 -0.099483 -0.153130 -0.055424 0.200343 0.250460 0.147762 0.131132 0.083770 -0.121813 -0.203145 0.236874 0.125298 0.104842 0.120784 -0.241038 -0.091814 0.061493 0.016740 0.160598 0.228847 -0.056942 -0.136440 -0.313305 0.011027 0.130494 -0.208013 -0.322235 0.006160 0.014671 -0.353950 0.133932 -0.225279 0.133999 0.192959 -0.197579 0.244216 0.017472 -0.074008 -0.078463 0.035501 0.200680 -0.212082
GlobalSpecies0084 0.097366 -0.114419 0.082478 0.189684 -0.109900 0.160240 0.085206 0.128012 0.168979 0.039061 0.172764 -0.115472 -0.476182 -0.066553 0.101795 -0.079203 0.127836 0.104373 -0.066201 0.045055 0.078537 0.127216 0.186374 0.140485 0.055068 -0.171215 -0.125757 -0.202679 -0.032579 0.203539 0.111561 0.012701 0.257749 -0.197286 -0.029122 -0.183757 -0.064815 -0.126130 0.023381 -0.025151 0.120988 -0.263977 0.038142 -0.091664 0.064481 0.193742 0.007684 0.135333 -0.064031 -0.196766 0.057298 -0.015305 -0.171233 -0.131246 0.024830 0.052180 0.021276 0.011559 0.278901 -0.136259 -0.285867 0.159843 0.190854 -0.099369 -0.134616 0.039218 0.128284 -0.103491 -0.136265 0.266275 0.168673 0.079139 -0.014210 0.033947 0.005270 -0.191795 0.239929 0.304124 -0.142870 0.001725 0.057333 -0.092226 -0.132342 -0.030320 -0.055863 -0.329583 0.079761 -0.004657 -0.064599 -0.064166 -0.020610 -0.010314 0.018688 -0.305031 0.000459 -0.106182 0.012056 -0.075818 0.074851 0.012264
GlobalSpecies0085 0.181373 0.324369 -0.287756 -0.127839 0.068701 0.031795 0.339925 0.031927 -0.145422 -0.241965 -0.007598 0.265856 0.070129 0.012323 -0.046432 -0.066943 -0.097636 0.084291 0.114071 0.088638 -0.044558 -0.045710 0.270555 -0.211915 -0.216369 -0.022465 -0.187475 -0.046635 0.073176 -0.240784 -0.319279 -0.408621 -0.120887 0.098233 0.185640 -0.088888 0.155661 0.291492 0.052038 -0.217817 -0.097296 -0.447586 0.107954 0.088694 0.044667 0.038245 0.154073 -0.002605 -0.200925 0.130488 -0.221431 0.046670 -0.126715 0.091510 0.181084 -0.043555 -0.003737 -0.024439 0.287542 -0.075341 0.222544 0.062063 -0.101536 -0.093491 -0.133041 -0.022310 -0.147255 -0.061178 -0.169484 -0.240869 0.045303 0.032101 -0.249842 0.119547 0.163559 0.381138 -0.175119 -0.251778 -0.073288 0.059035 0.074188 -0.194527 -0.077850 -0.059414 -0.110603 -0.108283 -0.131373 0.306202 -0.029942 -0.042681 -0.261891 0.099223 0.093264 0.034162 -0.155091 -0.011846 0.013740 0.197086 -0.263596 0.121963
GlobalSpecies0086 -0.236336 0.068843 0.267033 -0.161337 -0.220659 0.022542 0.222871 -0.003114 0.239137 0.097561 0.094483 -0.187449 -0.015856 -0.293990 -0.159132 -0.265687 0.058774 -0.173337 -0.064636 -0.419483 -0.238792 0.181933 -0.181131 0.067596 -0.112542 -0.253113 0.033592 0.021226 0.325036 0.021895 0.086955 0.057041 0.104775 -0.019416 0.183134 -0.261150 -0.064921 -0.221287 0.097967 0.242191 0.118328 0.162159 0.112724 -0.168191 -0.186239 -0.022031 0.057413 0.026308 0.129593 -0.095955 0.039378 -0.148254 0.233711 -0.073019 0.237277 -0.170811 -0.110066 -0.178798 0.024273 0.125122 -0.030386 -0.016091 0.251606 -0.041172 0.104279 -0.253650 -0.206823 -0.114129 0.011504 -0.000003 0.074644 0.186793 -0.224443 -0.070980 -0.101369 -0.066311 -0.046236 0.054362 -0.125891 -0.199552 0.061660 0.118409 0.147398 -0.072009 -0.058273 0.041363 0.111833 -0.131887 -0.024779 -0.032919 0.013585 0.159837 0.025754 -0.146779 -0.077074 -0.144895 0.117646 -0.202622 0.086873 -0.124625
GlobalSpecies0087 0.050821 0.082144 0.262650 0.152791 0.089172 -0.228637 -0.176865 0.151471 0.114817 0.067376 -0.069161 -0.082727 -0.083809 0.114196 -0.005875 0.229834 0.052668 0.045594 -0.064442 0.005151 0.030155 -0.083961 -0.018981 0.053873 -0.219500 -0.014418 0.051816 -0.012476 -0.106929 0.081602 -0.059696 -0.070246 -0.077324 -0.285527 -0.061550 0.043383 0.130689 -0.087671 0.078071 -0.030916 0.062844 -0.035249 -0.165627 -0.253312 0.069792 0.023659 -0.009159 0.208182 -0.018778 0.146440 0.021246 -0.100679 -0.065458 -0.040257 -0.405712 0.065203 -0.041051 -0.151318 0.056548 -0.022408 -0.055033 0.129870 0.187089 0.343911 0.025620 0.033140 0.066393 -0.029189 0.064117 0.132901 -0.220158 0.187323 0.051406 -0.137036 -0.152750 0.137770 0.285181 0.126226 0.048831 0.005107 -0.331872 -0.074132 -0.130604 0.146187 0.075582 -0.022141 -0.033895 -0.103287 -0.078456 -0.107290 -0.093775 0.197494 0.056677 -0.110316 0.137816 0.073411 0.074363 0.143791 -0.043344 -0.145743
GlobalSpecies0088 -0.055169 0.196917 0.224705 0.143754 0.131989 0.073769 -0.166534 -0.011852 0.147627 -0.150179 -0.074880 -0.390390 -0.082772 -0.187869 -0.168559 -0.189294 0.249148 0.240647 -0.109549 0.163148 -0.203021 -0.197864 0.026304 -0.308834 -0.230954 -0.068254 -0.080214 0.181901 -0.077834 0.043687 0.132181 0.083132 0.172946 -0.316770 0.093738 -0.244727 -0.003521 0.018088 0.144633 -0.176007 -0.135245 0.025874 -0.227404 0.142447 0.154514 0.009178 0.053453 0.183282 -0.061694 -0.182014 0.027814 -0.049670 0.042578 -0.091383 0.148528 0.034338 0.208374 0.018756 -0.090894 -0.050209 0.077571 -0.054167 0.160914 0.037678 0.006329 -0.022319 -0.046667 -0.171055 0.063110 0.212191 -0.026758 0.290375 0.112351 0.111113 0.159379 0.101296 0.201576 0.123699 -0.191746 0.159232 -0.300654 0.100502 0.271362 0.036143 -0.195307 -0.034288 0.146473 -0.255718 0.165100 -0.018335 -0.039324 0.131926 -0.007188 -0.082557 -0.170408 0.050685 0.096283 -0.020997 0.365568 -0.095464
GlobalSpecies0089 -0.043526 -0.125337 0.375490 -0.318255 -0.080272 0.075047 0.131124 0.008932 0.030386 0.057189 0.012761 -0.631449 0.036423 0.096259 -0.070927 -0.044461 0.148256 -0.387067 0.104968 -0.178427 -0.204750 -0.077643 -0.148031 0.126771 0.203473 -0.095583 0.322590 0.150716 -0.061548 -0.109149 0.054530 0.117556 0.020751 -0.148008 0.268648 0.076286 -0.238496 0.234597 0.251778 0.309523 -0.143828 -0.006392 0.101975 -0.071403 -0.047981 -0.002982 0.173953 -0.356412 -0.087377 -0.081762 -0.001370 0.063063 0.328246 -0.241782 -0.136747 0.080459 0.012746 -0.200019 -0.081288 -0.001008 0.438620 -0.075415 0.058247 -0.151363 -0.025440 0.147589 -0.214478 0.091754 -0.257280 -0.111665 -0.024289 0.109978 0.053919 0.021706 -0.226946 -0.219453 0.414092 -0.063086 -0.089257 -0.003174 0.123026 -0.081408 0.141166 -0.067045 -0.087060 -0.317458 -0.077397 -0.052127 -0.153669 -0.010075 -0.336644 0.179326 -0.020884 0.129919 -0.241650 -0.191036 0.018361 -0.056337 0.149554 -0.014548
GlobalSpecies0090 0.043035 -0.255522 -0.025041 0.021170 -0.073874 0.035356 0.204782 -0.278194 -0.071048 -0.176133 0.243608 0.155140 -0.067660 -0.225674 -0.033443 -0.295323 0.027015 -0.053873 -0.146605 0.087512 -0.170147 -0.190290 0.045697 -0.183447 0.098854 0.031663 0.031595 0.077847 -0.233152 0.200366 -0.083367 0.381114 -0.076597 -0.024057 -0.110356 0.212322 0.118500 -0.051222 -0.269717 0.091549 -0.106048 -0.131198 0.198975 0.205929 -0.377302 0.038498 0.169128 0.041602 0.221105 0.038927 0.008474 0.299709 0.131833 -0.261929 0.139032 0.272122 -0.087971 0.066323 -0.225383 0.175799 0.162582 0.041088 -0.076236 0.036555 0.052488 -0.006048 -0.147716 -0.008058 0.198035 -0.181191 0.184245 0.020895 -0.009967 0.048679 0.161310 -0.214521 0.168755 -0.186754 -0.099924 0.093383 0.100092 0.239856 0.206567 -0.117082 0.400068 -0.012637 -0.003220 0.165261 0.095823 -0.087414 0.046807 -0.195125 0.093326 0.169943 -0.185926 -0.158519 0.386353 -0.094760 0.150675 -0.016473
GlobalSpecies0091 -0.020412 -0.065942 -0.063066 -0.010575 -0.022171 -0.067057 0.203464 0.165710 -0.254704 -0.187190 -0.050651 -0.112090 -0.265519 0.246067 -0.148914 0.337731 -0.305637 0.120925 -0.187348 -0.164208 0.053287 -0.225543 -0.213437 -0.141453 -0.240355 0.195397 0.106732 0.083049 0.011840 0.452166 0.006227 0.004197 0.085768 0.352618 0.245017 -0.117433 -0.025047 0.112499 0.055277 -0.213956 0.320212 -0.113082 0.126611 0.138327 0.437493 -0.065925 -0.006071 -0.321936 0.120891 -0.045317 -0.361953 -0.140223 0.274051 0.257575 -0.050350 0.233959 -0.150938 -0.099123 0.222986 -0.215824 -0.359489 -0.129337 -0.182401 0.282496 -0.255004 -0.067472 0.150970 -0.060707 0.265320 0.010307 0.016512 0.100082 -0.034003 -0.029858 0.206195 0.017763 -0.095774 0.263754 -0.292376 0.280406 -0.109377 0.320931 -0.010808 -0.188366 -0.041446 -0.022455 0.540272 0.144505 0.284989 -0.069564 0.081109 -0.378900 -0.214981 0.153259 0.154094 -0.068828 0.028604 0.227060 -0.028320 0.053815
GlobalSpecies0092 0.147682 0.001942 0.243430 0.269711 -0.004711 -0.095828 -0.321601 0.011338 0.321711 -0.155600 0.012014 -0.131331 -0.116148 -0.073267 -0.076606 -0.019208 0.267876 0.182190 -0.064321 -0.126764 -0.007722 -0.061351 0.022766 -0.371284 -0.172732 -0.100919 -0.223260 0.056923 -0.198517 0.194505 0.037238 -0.371611 0.116676 -0.342616 -0.096253 -0.071592 -0.066126 -0.000086 0.056715 -0.198499 0.039500 -0.092117 0.016258 -0.011768 -0.024265 0.119827 0.062772 0.287279 0.060350 0.076389 0.045678 -0.232549 -0.049288 -0.033747 -0.067104 0.100615 0.128370 -0.002171 0.154382 0.017474 -0.233239 0.120733 0.294170 0.263743 -0.012525 0.099904 0.057975 -0.148863 0.121296 0.349439 -0.072564 0.151410 -0.014103 -0.109667 0.054090 0.123787 0.213958 0.179717 -0.060769 -0.033178 -0.257678 -0.151654 -0.033807 0.130313 -0.110005 -0.091523 0.129166 -0.237607 0.001056 -0.093408 -0.030669 0.131365 0.044442 -0.095363 0.018042 0.074241 -0.209319 0.433769 -0.215636 -0.307526
GlobalSpecies0093 0.233134 -0.163129 0.007723 -0.067069 0.040104 0.002588 -0.104524 -0.089227 0.007297 -0.073219 -0.160517 0.010149 -0.120330 0.025931 -0.079199 -0.075796 0.190753 0.232426 -0.049145 0.111174 -0.128836 -0.145911 0.152593 -0.126547 -0.015364 0.017674 0.056011 -0.044170 -0.162010 0.097688 0.098513 0.256401 0.005880 -0.053623 -0.146268 0.114235 0.172771 -0.151957 0.165904 -0.119028 -0.211242 -0.185461 0.152615 0.229855 0.055742 0.157266 -0.048648 0.195541 0.112968 0.086423 -0.010724 0.087766 0.049618 0.010277 -0.098750 -0.062345 0.037519 0.100921 -0.061871 -0.072136 -0.054340 -0.030961 -0.033957 0.147936 -0.002031 0.000522 0.003110 0.094164 -0.027017 0.080675 0.230207 0.086345 -0.005108 0.009256 0.190321 -0.087513 -0.054576 -0.008156 0.138424 -0.008027 -0.086583 0.234833 0.112617 -0.023015 0.094092 -0.155044 -0.111324 0.005096 0.069818 -0.087325 -0.203393 0.100336 0.080960 -0.188190 0.075616 0.024435 0.004034 0.200361 -0.106470 0.006818
GlobalSpecies0094 0.018481 0.058650 -0.025019 0.008344 0.048817 -0.025019 0.149160 -0.165507 -0.090785 0.012821 0.136771 -0.029506 -0.014648 -0.079402 -0.081021 -0.034776 -0.194178 0.011659 -0.149952 -0.002862 0.214608 -0.133326 0.003967 -0.064723 -0.143888 0.068421 -0.230531 0.143356 0.171828 -0.075796 0.082437 0.001677 -0.065298 0.097845 0.123555 -0.073100 -0.117153 0.219367 0.035999 -0.066179 0.109528 0.026189 -0.207754 -0.114018 -0.130666 -0.048571 -0.015283 -0.214466 -0.077933 0.066484 0.019487 -0.084800 0.120403 0.128528 0.038281 0.180835 0.162428 -0.116453 0.140247 -0.063782 -0.032559 -0.184599 -0.068691 -0.035277 0.050075 0.052462 -0.055530 -0.103427 -0.051382 -0.030924 0.004652 0.046079 0.048452 0.079166 0.196108 0.056543 -0.084682 -0.040146 -0.106712 -0.015516 -0.068783 0.038251 0.317556 -0.225077 0.018547 0.034756 -0.055079 -0.010192 0.046067 0.302814 -0.001740 0.088221 -0.260996 0.021258 -0.126294 -0.094197 -0.011704 0.067936 0.037204 0.006738
GlobalSpecies0095 0.406465 -0.299752 -0.200821 -0.098066 -0.262334 0.072670 -0.087656 0.266533 0.234826 -0.105988 0.075790 -0.065167 -0.271436 0.281108 -0.058354 0.063349 0.201637 0.061437 0.040113 -0.072142 -0.013948 0.015533 -0.062234 0.166146 0.089510 -0.273545 -0.077770 -0.029484 0.258139 -0.017865 -0.121463 -0.334959 -0.071424 0.241232 -0.004988 0.048392 0.093051 -0.248223 -0.226389 0.159034 -0.105861 -0.138083 0.076234 0.256827 0.024781 0.030952 0.055383 0.529895 0.030262 -0.155640 -0.058390 0.181277 0.185884 0.215050 -0.116582 0.167411 -0.083787 0.154285 -0.190707 0.085064 0.014815 -0.050808 0.045004 -0.196933 -0.193701 0.150562 0.141602 0.224194 -0.052562 -0.236249 0.286416 -0.031945 -0.182619 -0.045502 -0.261224 -0.096319 -0.332730 -0.021263 -0.030634 -0.210234 0.197065 0.006261 0.068302 0.040171 0.208099 -0.079293 -0.259214 -0.047188 0.075236 -0.067477 0.031756 -0.032697 0.171327 -0.266734 0.108068 0.009174 -0.049983 -0.026387 -0.024059 0.084632
GlobalSpecies0096 0.125232 -0.030042 0.103983 -0.117408 -0.087328 0.015739 0.131874 -0.240747 -0.107181 0.018833 -0.084994 0.077325 -0.062530 -0.067436 0.004768 -0.092005 0.020537 -0.252376 -0.163189 0.130118 -0.021185 0.009477 -0.023917 -0.158745 0.070946 -0.021046 -0.088964 0.091382 0.016707 -0.129042 -0.065076 -0.178054 0.197105 -0.028952 -0.027397 -0.091367 0.019156 0.029524 0.087749 -0.005822 0.112124 0.002003 -0.126197 0.151385 -0.213291 -0.059516 -0.006387 0.026929 -0.020667 0.091623 0.072139 0.176598 -0.060882 -0.057076 0.217379 0.211316 -0.012760 0.187259 -0.345989 -0.074139 -0.037024 -0.088229 -0.041456 -0.243688 0.240634 -0.122950 -0.218099 0.023169 0.004146 -0.058779 0.160301 -0.147846 -0.009085 -0.053760 0.069450 -0.061381 -0.082345 -0.287804 0.118382 -0.009548 0.059704 0.094369 0.038776 0.006772 0.223610 -0.046791 -0.009461 -0.025889 0.082214 -0.044171 0.050346 0.181083 -0.002626 0.043640 -0.074192 0.130939 -0.060531 0.071905 0.258962 0.275452
GlobalSpecies0097 0.027557 -0.198689 0.018996 -0.195235 0.024378 -0.141286 -0.042237 -0.266699 -0.038585 -0.047046 -0.076610 0.261545 0.179697 -0.082125 -0.020291 -0.024900 0.181228 0.090217 -0.105521 0.308354 0.022974 -0.046874 -0.034413 -0.014319 0.294691 0.112797 -0.044174 -0.105018 0.213212 -0.172517 0.076037 0.243314 -0.023256 0.409818 -0.278357 0.280218 -0.021690 -0.220302 0.058690 -0.102297 -0.335616 -0.056706 0.360522 0.212933 0.076686 0.024498 -0.204460 0.031908 -0.019338 0.028811 0.250718 0.070610 0.090409 -0.244768 0.058598 -0.191776 -0.113699 0.312607 -0.234572 0.129479 0.135371 0.092009 -0.190465 0.230038 -0.137835 0.125707 -0.291858 0.095164 -0.046312 -0.364185 0.203914 0.071110 -0.037356 0.189957 0.039649 0.059846 -0.053522 -0.017039 0.010702 -0.190276 -0.050312 0.127601 -0.007046 0.155792 0.106882 0.108643 -0.504975 -0.004092 0.054784 -0.356812 0.112158 0.082163 -0.105610 0.163432 -0.035799 -0.093087 -0.007094 0.163186 -0.180719 0.235310
GlobalSpecies0098 0.088954 -0.219484 0.012121 -0.078901 -0.256447 -0.092646 0.064618 0.059555 0.076869 0.031911 0.296437 0.086780 -0.206061 0.091428 0.045897 -0.091502 -0.175584 0.113087 -0.036034 0.111116 -0.074227 -0.074539 0.013671 0.039426 0.169286 -0.237965 -0.004520 0.072629 -0.049696 -0.165142 0.011898 0.170908 -0.158730 0.162330 0.059898 -0.029383 -0.181034 0.031665 -0.197926 0.111312 -0.230300 -0.104097 0.183595 0.016461 -0.346760 0.190527 -0.199450 -0.128642 -0.024392 0.045035 -0.143482 0.030059 -0.046721 -0.136924 0.018331 0.026776 -0.085768 0.005798 0.068757 -0.008368 0.111288 0.109213 0.061969 -0.053687 0.100556 0.207389 -0.032380 0.056348 -0.059339 0.040371 -0.172491 0.116921 -0.077365 0.110690 0.008327 -0.013682 0.087359 -0.371858 -0.129945 -0.115331 0.039467 -0.056297 0.150618 -0.058357 -0.151870 -0.307001 -0.035207 0.069040 0.005745 -0.069985 -0.099084 -0.246840 -0.004437 0.099669 -0.041875 -0.026324 0.103688 -0.143065 -0.095644 -0.024793
GlobalSpecies0099 0.280554 0.017243 0.010228 -0.074937 -0.004632 -0.064163 0.215387 0.121404 0.075149 -0.121064 -0.087892 -0.101346 -0.165654 0.157256 -0.184991 -0.115200 0.156194 0.100101 -0.006018 0.070516 -0.007113 0.095790 -0.053308 -0.111308 0.023318 -0.048721 0.014053 0.127813 0.012579 -0.039116 0.121422 0.033771 0.147966 0.060887 0.053505 0.042056 -0.195505 -0.310580 0.005730 0.053899 -0.162397 -0.079265 0.125765 0.239107 -0.039648 0.174477 -0.107139 0.224185 -0.155582 -0.269066 -0.004950 0.073445 0.248451 -0.146106 -0.128839 0.022094 -0.029991 -0.043259 0.012197 0.111505 0.166955 0.014594 -0.012493 0.021254 0.125196 0.004251 0.001695 -0.008963 -0.139702 -0.092991 0.302932 0.104106 0.092188 0.064751 0.092697 -0.042567 0.067677 -0.106583 -0.139562 0.012163 0.085289 0.028492 0.191852 -0.273723 -0.093407 -0.300465 -0.067107 -0.008713 0.060918 0.008827 -0.223705 0.095540 -0.153086 -0.251160 -0.053040 0.052435 0.226208 -0.167213 0.057228 -0.253704
GlobalSpecies0100 -0.089266 -0.005950 -0.301346 -0.083138 0.053247 0.174832 0.012707 0.149388 -0.044518 -0.181026 -0.100064 0.037169 -0.143683 -0.011447 0.065491 -0.141911 0.008176 0.110480 0.055782 -0.159288 0.088163 -0.100618 0.074548 -0.045231 -0.281316 0.180432 -0.078730 -0.049418 0.088930 0.155651 0.002033 -0.059940 -0.174291 0.195604 0.191862 -0.127166 -0.012410 0.003121 -0.114904 -0.107275 -0.102082 -0.049746 -0.118464 -0.038109 0.225502 -0.135702 -0.185297 -0.135734 0.155131 -0.051069 -0.085060 -0.085108 0.001334 0.297215 -0.098669 0.005172 0.000198 -0.029988 0.229231 -0.131396 -0.224213 -0.088249 -0.130039 0.011658 -0.080462 -0.025895 0.208760 0.018477 -0.042075 0.001826 0.121041 -0.138104 -0.032149 0.054208 0.117600 0.202104 -0.221016 0.169185 -0.114010 0.106074 -0.192748 0.195743 0.065490 -0.239722 -0.143124 0.106017 0.111283 0.222287 0.160932 0.058046 0.203406 -0.230558 0.131144 -0.270284 0.237311 0.061867 -0.170684 0.056433 0.150320 -0.011675
GlobalSpecies0101 -0.164305 0.004832 0.050819 0.023414 -0.019157 -0.060181 0.204946 0.005888 0.028199 0.242858 0.225923 -0.061534 -0.130272 0.044573 -0.050471 0.038690 -0.110738 -0.124044 -0.016507 0.034028 -0.137398 0.092242 0.079885 0.174690 -0.190687 0.059545 0.223926 0.083735 0.016875 -0.107056 -0.130384 0.155378 -0.105961 -0.152130 0.143612 -0.102074 0.021956 0.100143 0.120098 0.186365 0.047066 0.013572 -0.115689 -0.115243 -0.187899 -0.043048 0.049089 -0.109734 0.025125 -0.046369 -0.030391 -0.010038 0.115536 -0.047804 -0.111368 0.071849 -0.048251 -0.167781 0.053683 -0.022645 0.012847 -0.086904 0.165282 -0.072321 0.076200 0.013879 -0.132675 0.027792 0.024130 -0.171915 -0.109027 -0.034081 0.032363 0.073393 -0.117798 -0.088835 0.019679 -0.105514 -0.165668 -0.058691 -0.093175 0.009053 0.236890 -0.054257 0.057811 -0.089340 0.056133 -0.014709 0.022727 0.124728 0.027529 0.064574 0.017531 -0.003954 -0.161636 0.113819 0.099862 -0.116037 0.121249 0.075634
GlobalSpecies0102 0.199624 -0.115459 0.129017 -0.323797 -0.264049 -0.213113 0.206527 0.041629 0.206806 -0.108141 0.073136 -0.170976 -0.026314 -0.231831 0.023793 -0.113575 -0.167634 0.027989 0.077808 0.079674 -0.231329 0.116737 0.068257 -0.079567 0.118468 0.033859 0.142226 -0.041976 -0.006714 -0.309650 -0.137755 0.127990 0.141795 -0.130106 0.013173 0.139769 -0.091421 0.060255 0.122965 0.025321 -0.129388 -0.030860 0.296027 0.102336 0.045825 -0.017357 0.054787 -0.117368 -0.173111 -0.185895 -0.086548 -0.021092 0.209462 0.005048 0.050033 0.059922 -0.120414 -0.135211 0.141440 -0.107563 0.157443 -0.164565 -0.014906 -0.010951 0.175088 0.048036 -0.096235 0.052107 -0.101849 -0.157797 0.152773 -0.023095 -0.091810 0.034073 0.022566 -0.110854 0.133507 -0.147099 -0.089821 -0.116989 0.056499 -0.023254 0.349046 -0.142227 -0.169799 -0.163490 -0.118169 -0.156005 -0.035620 0.207796 -0.174750 0.056579 0.018620 0.035494 -0.228351 -0.122346 0.018097 -0.093566 0.009404 -0.143197
GlobalSpecies0103 0.137132 0.017501 -0.041433 -0.012104 -0.137592 -0.076552 0.302671 0.049651 -0.040583 0.008338 0.187903 -0.017963 -0.327230 -0.065763 0.081250 -0.269050 0.001006 0.002720 0.011168 -0.105277 -0.131446 0.162095 0.043172 0.079338 -0.079410 -0.057755 -0.043881 0.006576 0.090335 0.242696 0.065328 0.148619 -0.201613 0.176232 0.124702 -0.275247 -0.107893 -0.240633 0.022967 -0.154536 -0.077281 -0.179198 -0.148798 -0.048285 0.227898 -0.210206 -0.046128 -0.058914 0.048066 -0.165097 0.067009 -0.022565 -0.059859 0.227359 -0.173831 0.082218 -0.117758 0.065149 0.161446 0.057502 -0.065551 0.043885 -0.091927 -0.064510 -0.129909 -0.094550 0.243794 -0.105632 -0.009086 -0.112606 -0.025147 0.202599 0.006821 0.025258 0.108204 -0.078769 -0.052916 0.131773 -0.115166 -0.056051 0.283195 0.134045 -0.055672 -0.206758 -0.009701 -0.096561 0.177250 0.161297 -0.027320 0.144808 0.079379 -0.144985 0.154379 -0.167406 0.006171 -0.000684 0.104833 -0.177128 0.017608 0.042634
