GlobalSpecies0001 0.068634 0.527365 0.401960 -0.241193 0.007964 0.430996 -0.091001 0.207835 0.020270 -0.088400 -0.220558 -0.459555 -0.027480 -0.163528 -0.095234 -0.228097 -0.266346 0.003784 -0.043250 -0.085027 0.029240 0.208177 -0.625431 -0.054906 0.036826 0.053770 0.101257 0.063626 -0.126365 -0.203688 0.270789 0.370185 -0.055861 0.204899 0.130008 -0.418831 0.105550 0.028784 -0.164726 0.186760 -0.002865 -0.441648 0.015789 -0.043009 -0.251360 0.118821 0.045542 0.438477 -0.294700 0.155260 0.114414 -0.008398 0.045228 0.133109 -0.409654 -0.035569 -0.465202 0.074775 0.138240 -0.208814 -0.306580 -0.076451 0.363617 0.110888 0.064072 -0.295544 0.063055 -0.012808 0.141782 -0.113695 -0.374846 -0.275485 0.337203 -0.081367 -0.373517 -0.217678 -0.175024 -0.277619 0.104247 -0.019509 0.291980 -0.082776 0.182193 -0.302977 0.235279 0.165626 0.415751 -0.239996 0.261470 -0.071534 0.142946 -0.116706 0.317907 -0.161094 0.291795 -0.005488 -0.400869 -0.032624 0.341066 -0.002094
GlobalSpecies0002 0.285896 -0.171560 -0.370405 -0.251915 0.610087 -0.186609 -0.245420 0.056911 0.178170 0.182507 0.434946 0.206421 0.200701 -0.144501 -0.128019 0.090201 0.006172 -0.060426 -0.037403 -0.084904 0.200304 0.703676 -0.214685 0.027996 0.124580 0.366298 0.374535 -0.372550 -0.138472 0.027194 -0.101589 0.262125 -0.065116 -0.443379 0.309404 0.000923 0.052174 -0.150558 0.268189 -0.022447 -0.274566 -0.010418 -0.272644 0.045716 0.113597 -0.229235 0.364508 0.096318 -0.245133 -0.321599 0.094865 -0.040966 -0.174790 -0.270952 -0.216362 -0.350740 0.185157 -0.421414 -0.135353 0.261214 -0.131646 0.242378 0.000718 -0.101514 -0.224628 -0.026528 -0.068863 -0.188650 -0.178311 0.021445 -0.263551 0.162840 0.021231 0.026185 -0.138356 -0.075753 0.013948 0.357947 0.417404 0.390483 -0.099734 -0.242350 0.078865 0.077582 -0.433937 -0.158011 0.249323 -0.214233 0.091186 0.070660 0.709826 -0.056316 -0.120787 0.430545 -0.193279 0.362287 0.365331 0.092703 -0.090964 -0.014731
GlobalSpecies0003 0.443824 -0.356041 -1.897207 0.806635 0.615161 -0.876084 -0.015483 0.078861 -0.248909 -0.690339 0.353982 1.074201 -0.764689 1.113166 0.388926 -0.114712 0.617743 0.008196 0.192952 0.825179 -0.587558 0.363413 -0.458122 0.916749 -1.267568 -0.268849 -0.035407 -0.273186 -0.555082 -0.140051 -0.871226 0.413247 -0.700041 -1.120344 -0.312992 0.483163 0.497791 -1.084847 0.229344 0.102652 0.610547 0.659814 -1.099191 -0.480793 -1.306879 0.650454 -0.571607 -0.514302 -0.920704 0.831392 0.403690 -0.155121 0.147429 -1.283283 1.737344 -0.462270 1.299645 0.008786 -0.433520 0.198161 1.460783 0.242008 -0.590628 -0.376133 0.187393 -1.530396 -0.963149 -0.309596 1.187613 0.170309 -1.128140 -0.219068 0.215376 -0.031758 0.788851 -0.628619 0.008459 -0.499158 -0.476958 -0.277504 0.673670 0.201688 0.204982 0.340037 0.316077 -1.258289 -1.266258 0.097450 0.217633 0.799881 0.534128 -0.918434 0.904286 -1.698849 1.022793 -0.813143 0.467496 -0.202763 -0.543699 -0.053290
GlobalSpecies0004 0.151255 0.808853 0.174479 0.343973 -0.188654 0.063845 -0.551127 -0.491899 0.567387 -0.324465 0.219003 1.126756 -0.696547 0.347450 -0.006293 0.426204 0.682519 0.208462 -0.504551 0.736349 -0.284609 0.288721 0.148968 0.161676 -0.305044 0.152095 0.087104 -0.574521 -0.162877 -0.177894 0.282993 -0.146112 0.106417 0.519050 -0.780942 0.427911 -0.025275 -0.186253 0.114623 -0.493101 -0.375847 0.559742 0.557048 -0.665304 -0.320291 0.142282 0.184208 -0.314038 0.754064 0.096803 -0.451162 -0.335189 -0.452555 -0.367017 -0.020229 0.761882 0.146633 -0.413382 -0.692389 0.516726 -0.575694 0.276717 -0.491088 0.078286 -0.163813 0.344459 -1.048302 1.047722 0.487870 0.980734 -0.595611 -0.554604 0.912461 -0.639070 0.218859 0.116999 0.231507 -0.048038 -0.462508 0.176994 -0.103257 0.047838 -0.052888 -0.068314 -0.268255 -0.501465 0.484364 0.040547 -0.234700 -0.064372 0.136378 0.324890 0.308601 0.149054 -0.017595 0.492713 0.147377 0.407793 0.093857 -0.347243
GlobalSpecies0005 -1.524923 -0.669870 -0.381593 -0.233981 0.923626 -0.622924 0.192216 -0.132449 -0.502373 0.261124 -0.014115 -0.255541 0.483777 -0.169382 0.135181 0.564392 -0.272178 -0.246080 0.324399 0.244327 -0.355694 -0.249944 0.241356 0.017566 0.485676 0.063629 -0.073843 -0.385769 0.347730 -0.065433 0.589848 -0.334309 0.439218 0.261839 -0.134470 -0.864460 0.469562 0.143889 0.263356 -0.211936 -0.509115 0.049884 1.255371 0.575470 -0.017702 0.633617 0.178339 -0.068746 0.257261 0.254574 -0.031449 -0.424829 0.248814 0.057847 0.289163 0.320167 -0.198481 0.119087 0.671750 0.298626 0.561739 -0.015708 0.089771 -0.000893 -0.084083 -0.611283 -0.217557 0.992304 -0.868421 -0.800712 -0.553869 0.940961 -0.137892 0.510044 0.536668 0.373794 0.145663 1.335268 0.442895 -0.328527 0.529021 1.439476 -1.173438 -0.188387 -0.354078 -0.288185 0.073796 0.576421 -0.156694 1.446992 0.115863 -0.276277 0.550326 -0.262435 -0.652725 0.591594 0.493533 -0.008412 0.390388 0.091130
GlobalSpecies0006 0.070385 1.019890 -1.037115 0.418864 -0.359362 -0.235221 0.310469 -0.450555 -0.711209 0.262203 -0.754445 -0.753955 -0.163469 0.269746 0.270149 0.734827 0.745806 -0.260256 -0.053230 -0.128144 -0.611531 0.008487 0.197798 0.383128 -0.556308 0.024740 0.818639 0.286853 0.533488 0.725748 0.366064 -0.030151 -0.343685 -0.417701 -0.868333 -0.531378 -0.119382 0.533316 0.170377 -0.317097 -0.674753 1.229851 -0.500923 -0.273602 -0.638734 -0.814167 0.361893 0.283887 -0.839944 0.561989 0.038727 0.290771 0.222745 0.815901 1.133993 0.727272 0.322697 1.041252 0.117884 1.396659 0.156484 0.061508 0.440011 -0.230022 -0.320064 -0.317041 -0.608458 0.402425 -0.632941 0.207600 0.108696 0.877454 0.663612 -1.674855 -0.465469 -0.908838 -0.966535 -0.654583 -1.461060 0.558435 0.083918 -0.332827 -0.497067 -0.291227 -0.264390 0.195028 0.503117 -0.561822 -0.105691 0.107217 0.856444 -0.609931 0.518802 -0.204374 0.205773 0.970084 0.302467 0.557438 -0.820286 -0.018608
GlobalSpecies0007 -0.550481 -0.031803 0.059237 0.642549 0.448424 -0.052443 -0.120589 0.094501 0.348315 0.045490 -0.199373 0.598713 -0.441701 -0.042490 -0.294236 0.032223 0.143576 -0.887619 0.224206 0.024545 -0.299829 -0.881215 0.637144 0.859210 0.809058 1.127604 0.753181 0.456992 0.049886 0.168774 0.647227 -0.009785 -0.181964 0.236238 -0.498071 -0.233327 0.740293 0.221826 0.382538 0.539850 -0.954881 -0.563823 -0.737422 -0.358398 -1.093206 0.755616 0.344367 0.297631 -0.627764 0.340561 -0.053794 -0.073493 1.164817 0.030853 0.871412 0.203171 -0.181088 -0.252351 -0.696441 0.408757 -0.380642 0.653107 -0.384276 -0.039657 -0.777774 0.509260 -0.298443 -0.055318 0.183583 0.556259 0.920749 -0.050279 0.547443 -0.759653 0.261685 0.776082 0.189477 -0.925264 -0.626566 -0.369055 -0.599843 0.556859 -0.604744 -0.473804 0.192615 0.515605 0.751941 0.685264 0.494380 0.354104 1.081378 0.412804 -0.177363 -0.785103 -0.193500 -0.140210 0.493055 0.220566 0.950229 0.351692
GlobalSpecies0008 0.197353 -0.107289 0.182494 -0.234092 0.046335 0.108820 0.034908 0.101675 0.224273 0.071009 0.056823 0.160667 0.357721 -0.417027 -0.241988 -0.072119 -0.145192 -0.271683 0.176649 0.118998 0.029505 -0.310063 -0.178548 0.050125 0.474500 -0.209730 -0.206803 -0.109812 -0.289336 -0.155189 -0.062757 -0.012432 -0.072331 0.086171 -0.015282 -0.424476 -0.189983 0.274966 -0.041993 -0.290577 0.020476 -0.042361 -0.086856 0.171463 0.240370 -0.102950 -0.086562 0.196247 -0.109329 -0.200566 0.057053 -0.291648 0.045244 0.001834 0.321773 0.026053 -0.305893 0.362522 -0.040088 0.067674 -0.109550 -0.348843 0.325102 -0.235381 0.019114 0.244811 -0.076813 0.135147 -0.373023 -0.222761 -0.020537 -0.280146 0.593983 -0.111956 0.315496 0.107052 0.066817 0.169968 -0.146984 -0.075096 0.159164 0.235355 -0.022286 0.306068 -0.350829 0.037034 0.419095 -0.087407 0.105337 -0.186295 -0.028240 0.022940 0.168835 0.226625 0.067967 -0.132811 0.032055 -0.381488 0.008155 0.550949
GlobalSpecies0009 0.541233 -0.479735 -0.138790 -0.955747 0.002952 0.654303 0.178408 0.770435 -0.111832 -0.673055 -0.701250 -0.801410 -0.194234 0.527044 0.462935 -0.240386 0.461564 -0.707452 -0.244556 -0.562476 -0.212529 -0.665731 -0.170083 -0.235497 -0.527675 -0.286422 0.823574 -0.610450 -0.302431 0.473359 0.493700 -0.578790 -0.335602 0.310626 -0.305944 0.834252 -0.901805 0.216116 0.098330 -0.653787 -0.221633 -0.475034 0.318857 -0.044483 -0.392640 0.106197 -0.480557 -0.039297 0.215675 -0.181751 -1.156015 -0.153353 -0.143717 0.109593 1.617948 -0.217412 0.322045 0.253663 -0.409760 0.595878 0.692364 0.980320 -0.308189 -0.570122 -0.361379 0.288382 0.172868 1.162005 -0.285896 -0.291348 -0.178397 0.319956 0.377357 0.129917 0.212413 -0.378539 0.922854 0.496076 -1.807470 -0.426398 0.626155 -0.381941 0.194619 0.269116 0.504356 -0.405444 -0.102146 0.229888 -0.167287 0.004956 -1.364733 0.587902 0.021001 -0.484500 -0.337546 0.281820 -0.222852 0.660788 0.840799 -0.441466
GlobalSpecies0010 0.011310 -0.300317 0.141952 0.282461 0.303072 -0.167729 -0.236484 -0.382519 0.287826 -0.380390 0.413667 -0.296547 0.230641 0.286134 0.081743 0.001111 0.416091 -0.061044 0.224381 0.408918 0.288334 -0.237377 0.055546 0.068063 -0.529658 0.160654 -0.177921 -0.018579 0.213038 0.192789 -0.289856 0.356428 -0.233503 0.178726 -0.267403 0.029829 0.365137 -0.141792 -0.161804 -0.249816 0.207800 0.338091 -0.289601 -0.067243 0.022898 -0.097266 -0.199664 0.251234 -0.057774 -0.549304 -0.356866 -0.129913 -0.000928 0.198672 -0.239794 0.016466 0.360398 -0.133985 -0.057861 0.233280 0.442137 0.543762 -0.617600 -0.063640 -0.056209 0.166376 0.327579 -0.336271 0.075725 -0.239156 -0.575551 -0.305496 0.366879 0.162647 0.504641 -0.214133 -0.488870 0.082269 0.051387 -0.164139 0.158757 -0.735958 0.271049 -0.901945 -0.446070 0.486431 -0.043828 -0.283561 0.281522 0.152864 0.000571 -0.316043 -0.074737 -0.436759 -0.211751 0.163987 0.322572 -0.032388 0.112705 -0.312066
GlobalSpecies0011 0.260591 -0.137730 0.128999 0.198463 0.189638 0.372877 -0.366911 -0.825001 0.605610 0.902009 0.643502 -1.050629 1.363700 2.016634 1.833272 -1.324195 -0.402036 -0.281794 -0.997102 -0.068392 -0.256124 0.145576 0.259268 -1.090475 0.721477 0.524776 -0.449661 0.920535 0.490234 -0.128615 0.566973 -0.825524 -0.144842 0.590119 -1.403353 0.135448 0.049229 -0.089026 0.958599 0.266304 0.543937 1.269198 0.736422 -0.114193 -1.163605 -0.712496 -1.103023 -0.471342 -1.191604 0.348390 -1.160435 1.288533 1.082459 0.162117 -0.008036 -0.711562 2.686610 -0.227699 -1.645439 0.203738 0.877942 1.202933 -0.545504 1.018355 -0.348237 -1.634167 0.390727 0.946542 1.317492 0.172229 1.044288 1.051625 0.538254 -1.098941 -0.888807 -0.387275 -0.011117 -0.829856 0.214881 -1.931149 1.118749 -0.316396 -1.018724 1.422520 0.531769 -0.769083 -0.753806 -0.339204 0.254320 2.078351 0.358312 -0.105290 0.625785 1.004981 0.959630 -0.058242 0.423559 -0.267150 -0.768786 0.654590
GlobalSpecies0012 0.822697 -1.360259 0.124566 0.031545 0.472279 -0.494662 0.572768 -0.716204 -0.331108 -0.445858 -0.547129 -0.025598 1.014025 0.974332 0.739924 -0.320994 1.756294 0.740712 -0.454491 -0.008855 -0.063475 -0.853661 -0.630653 -1.009582 -0.486206 0.671183 -0.209051 -0.259110 -0.469777 1.605631 0.860274 0.834863 0.116096 -0.633155 -0.543752 0.898989 -0.633745 -0.811601 -0.192548 1.030117 -0.029193 -0.112219 1.083632 -0.243881 -0.774288 -1.614479 0.735133 -0.858358 -0.587917 1.314149 0.477900 0.314070 0.425194 0.230506 0.013613 1.887666 0.251842 -0.260449 0.257749 0.006505 0.146023 0.649042 -0.107498 0.538658 -0.515373 -0.856278 -1.251354 -0.665948 0.322938 0.715448 0.524467 0.081231 1.272290 0.587724 0.051841 -0.787036 0.964160 -0.413997 -0.022683 -0.277500 0.159098 -0.131940 0.189045 -0.430911 1.062064 0.722743 -0.129695 -0.321919 -0.190219 0.489101 -0.345680 0.291098 -0.523575 -0.500994 1.131970 -1.291588 -0.391067 -0.948390 -1.495022 -0.397619
GlobalSpecies0013 0.247358 0.647199 -0.679293 0.227042 -0.048204 0.189585 0.387096 -0.709198 -0.208485 -0.175265 0.874019 0.216921 0.866030 -0.075672 0.312842 -0.287062 0.919153 0.333744 0.084603 0.060110 -0.107948 0.482019 -0.155365 -0.550833 -0.257653 0.546096 -0.353741 -0.164208 -0.556085 0.791765 -0.477119 0.050950 -0.196662 -0.193216 0.401717 0.106551 0.351500 -0.522863 0.510807 0.163236 -0.017632 -0.611757 -0.274188 -0.518774 -0.130544 0.271614 0.335107 0.479547 0.424860 0.253654 -0.205950 0.178768 -0.067468 -0.175739 -0.164612 -0.407362 -0.788618 0.279857 0.290767 0.263795 -0.222181 -0.398187 0.295540 0.030294 -0.159171 -0.064929 0.114912 0.169327 -0.318075 -0.363454 -0.007667 -0.517817 0.245181 -0.457551 0.366861 -0.402874 0.195461 -0.581775 -0.152562 0.597822 -0.132286 -0.534364 -0.403859 0.369849 -0.298704 0.574869 -0.091751 0.041708 1.171993 -0.223378 -0.434702 0.321639 0.037732 -0.486757 -0.096932 0.203176 0.555554 -0.275136 -0.388028 0.427828
GlobalSpecies0014 -0.291418 1.132710 -0.029809 -1.497375 -0.205384 0.020091 0.920690 0.208712 0.219462 -0.622727 -0.018781 0.229896 0.114375 0.127521 0.353227 -0.032626 0.057905 0.942778 0.142167 -0.480383 -1.059716 0.347908 0.068323 -0.429561 -0.449807 0.405043 1.185559 -0.393215 0.659849 -0.314178 0.003362 0.644794 0.532761 0.674780 0.383975 0.980115 0.041801 0.288548 0.556128 -0.291173 -0.040227 -0.069489 0.295020 -0.328794 0.814565 -0.307733 -0.169057 0.307485 0.230735 0.653277 0.583251 0.015775 -1.147939 -0.468835 0.311073 0.481171 -0.621965 0.408449 -0.087740 -0.305536 -0.889622 0.189233 -0.835410 -0.517752 -0.142182 0.054613 0.451502 0.422387 -0.025136 0.036882 0.758820 0.145476 -0.312196 -0.175268 0.687139 -0.891397 0.494153 -0.148598 0.766835 0.064327 0.727877 -0.255973 0.243120 -0.500505 -0.393094 0.254498 0.076950 -0.073785 0.939525 1.081776 -0.757757 -0.452685 -0.010738 0.559809 -0.643536 0.629543 0.267591 -1.007046 -0.282769 -0.180833
GlobalSpecies0015 -0.614543 -0.255194 0.500346 -0.418735 -0.556004 0.106698 -0.190780 0.307553 -0.162709 -0.080540 0.279594 0.071569 -0.172140 -0.145853 0.147602 0.080405 -0.164524 0.060470 0.096143 -0.376070 0.291859 0.396035 0.035990 0.206045 0.337937 -0.053813 -0.009885 0.537197 -0.264862 0.096042 0.210481 -0.393511 0.087659 -0.192467 0.126941 -0.336533 -0.264101 -0.289821 0.160878 -0.088349 -0.035730 0.380900 -0.191073 -0.031584 0.058002 0.104265 -0.019695 -0.198304 0.041552 -0.204541 -0.005329 0.320409 -0.501644 0.266009 -0.123736 -0.222499 -0.004439 0.445891 0.166159 0.054411 -0.088148 -0.024508 -0.238209 0.327500 -0.207277 -0.037870 0.130925 0.307987 -0.059728 -0.094554 -0.046039 -0.292210 -0.191006 -0.261140 -0.094992 -0.352300 0.295399 0.076829 0.531388 0.105534 0.240025 -0.278463 -0.076117 0.091996 0.192451 -0.040405 0.353232 -0.445801 0.263637 -0.162492 -0.475686 -0.451051 -0.191615 0.059809 -0.106522 0.126960 0.367504 -0.164669 0.053570 0.233664
GlobalSpecies0016 -0.240805 0.189505 -0.312315 0.175554 -0.189065 -0.292648 -0.164929 -0.083708 -0.850399 0.062802 0.401580 -0.049613 -0.146897 0.459218 -0.304900 -0.191250 -0.318746 -0.282617 0.745686 0.069036 -0.005157 0.498333 -0.243650 0.153481 -0.683356 0.079204 0.056747 0.156340 0.305352 -0.413382 -0.521804 0.200540 0.655317 0.327196 0.214703 -0.031711 -0.261357 0.027447 0.480950 -0.454227 -0.067535 -0.120412 0.105544 -0.375031 -0.032877 -0.751633 -0.414381 -0.325706 -0.239674 -0.681862 -0.372338 -0.259560 0.497328 -0.025516 0.288112 -0.330460 0.483635 -0.115215 0.186313 0.123005 0.299332 0.195748 -0.189919 -0.261431 -0.405388 -0.050598 -0.065850 0.625253 0.051399 0.010169 -0.120079 -0.031609 -0.062417 -0.092106 0.074914 0.037606 -0.097774 0.934521 0.401396 0.530888 -0.489491 0.262289 -0.378033 -0.613871 -0.401386 -0.589973 0.514554 -0.053733 0.019122 0.147861 0.877105 -0.531462 -0.259034 0.191035 0.048710 -0.041935 -0.115300 0.741685 -0.493333 -0.268727
GlobalSpecies0017 0.138156 -0.241644 0.564565 0.142549 -0.376397 0.042961 -0.014737 0.133349 0.061757 -0.100651 -0.143138 -0.046932 0.150357 -0.064083 -0.127287 0.312768 0.050900 0.090372 0.054334 -0.120984 0.048628 -0.079528 -0.043663 -0.003756 0.255885 -0.078183 0.027524 0.036636 -0.135643 0.030631 -0.119629 -0.046087 -0.179950 -0.182602 -0.241674 0.078547 -0.073569 0.110134 -0.017200 -0.067703 -0.219952 0.099007 0.218317 0.166021 0.093054 0.442016 -0.211873 -0.329840 0.252170 -0.109463 0.044141 0.010662 -0.301170 -0.326230 -0.595117 -0.115428 -0.041979 0.127696 0.089149 0.374417 0.069743 0.108589 0.006460 0.180888 -0.019218 -0.088486 -0.183545 0.190514 -0.177664 0.046253 0.137240 -0.239825 0.025414 0.151179 0.145006 0.230023 -0.006835 0.101717 -0.081763 0.057834 -0.389115 0.197043 -0.227419 -0.165822 -0.190365 0.073146 0.153076 -0.064442 -0.125461 -0.358327 0.230126 0.171030 -0.023069 -0.130612 0.070942 0.069895 0.020700 -0.241252 -0.279406 0.013962
GlobalSpecies0018 0.398960 0.200648 -0.884702 0.004917 -0.745908 0.305580 -0.690914 -0.318544 -0.008080 -0.202008 -0.536043 -0.064324 0.446868 0.154894 -0.086940 -0.294676 -0.815938 -0.780269 -0.302568 0.337378 0.204342 -0.221709 0.242200 0.480341 0.150302 0.112880 -0.367100 -0.353066 -0.466117 -0.712237 -1.262132 0.714559 0.783390 -0.701067 0.375201 -0.143926 0.402509 -0.620536 1.093437 -1.157614 0.228580 0.359690 -0.426402 0.535550 -0.224148 0.224676 0.416231 0.362474 -0.676979 0.326784 -0.089752 -1.158043 -0.292088 -0.456385 0.557444 0.295363 -0.399763 0.537294 -0.352086 -1.328311 -0.029900 0.002734 0.724850 -0.563997 0.359087 0.117596 -0.275439 -0.063071 0.409889 -0.278372 -0.158947 0.503666 -0.062020 0.796624 0.073203 -0.775758 -0.763756 0.181343 0.417325 0.115081 -0.981922 0.140551 0.315504 -0.063942 -0.063073 0.836794 -0.042873 0.346017 0.429212 0.495301 -0.310024 0.052353 0.078294 0.152354 -0.870869 -0.680396 0.608188 -0.228829 0.551028 0.765986
GlobalSpecies0019 -0.264280 -0.400665 0.483869 -0.048746 -0.140251 -0.305918 0.354230 -0.210331 0.512066 -0.068144 0.179069 1.227461 -0.072989 -0.436065 -0.573021 0.248625 0.151840 0.291248 0.431075 0.105273 -0.171797 -0.425267 -0.058676 -0.273600 0.198670 0.021356 -0.095734 0.523896 0.205816 -0.197470 -0.310384 -0.330226 -0.339865 0.315975 -0.003841 -0.275878 -0.407309 -0.460705 -0.109036 0.082740 -0.403631 0.193881 0.498608 -0.594929 0.590524 -0.525992 0.035218 0.197688 -0.359672 -0.005309 0.371666 -0.010102 -0.176108 -0.039300 -0.201241 0.234581 0.541151 -0.057742 0.573644 -0.229720 0.620519 -0.062434 0.571510 0.013490 -0.058260 0.501697 -0.091499 -0.371526 0.000063 -0.234939 0.078759 -0.259123 0.128272 -0.148764 0.086677 0.026845 -0.116055 -0.258694 -0.353975 0.419786 -0.277726 0.239597 -0.153588 0.359086 0.565038 -0.148913 0.832903 0.391852 0.196210 -0.302720 -0.083334 0.510273 -0.068042 0.203433 0.220531 -0.250145 0.216667 -0.353173 0.518730 0.021908
GlobalSpecies0020 0.480422 -0.200412 0.907337 0.563980 0.008013 -0.173427 -0.138289 0.206783 -0.559026 0.127894 0.298260 0.173716 0.039908 -0.535044 0.441361 -0.313691 0.735849 -0.638016 0.670332 0.849664 -0.272066 0.061111 -0.117321 0.925016 0.552094 -0.320529 0.484161 -0.941653 -0.709474 0.687980 0.048803 -0.606248 -0.413164 -0.935887 -0.749270 -0.769636 -0.489033 -0.742768 0.465080 0.236043 0.037997 0.493370 0.051485 -0.284762 -0.257880 -0.798559 -0.141625 0.235442 0.738000 0.177316 -0.578855 -0.132934 0.857413 0.346710 -0.856806 0.365266 -0.268319 0.191511 0.357092 0.141735 -0.130283 0.420588 -0.578106 -0.094592 -0.100405 0.093238 -0.418572 0.275594 0.166420 0.745646 -0.448757 -0.124431 -0.313958 -0.583040 0.813890 -0.120112 -0.149584 -1.526162 -0.034135 -0.684858 -0.522182 -0.914522 0.139157 -0.773875 -0.058764 -0.094650 -0.447657 -0.205183 0.716705 0.438534 -0.317386 -0.638929 0.031809 0.424813 -0.064087 -0.560538 -1.024361 -0.067144 0.324190 -0.220311
GlobalSpecies0021 -0.071996 -0.635846 -0.136744 -0.225443 0.286075 0.194040 0.120471 -0.258564 -0.400161 0.326121 0.022520 -0.060407 0.085581 0.244572 0.111735 -0.303382 -0.133614 -0.163244 -0.357447 -0.163166 0.611611 0.120643 -0.354632 0.180968 -0.466297 -0.078372 -0.319227 0.104574 0.189365 0.075223 0.090687 0.033188 -0.245796 -0.037766 0.371918 0.413177 -0.169380 0.289380 0.068627 -0.467884 0.003742 -0.163860 -0.244414 0.204730 0.099049 0.476422 -0.266426 0.057772 0.197081 -0.405267 -0.130286 -0.022312 -0.128751 0.108743 -0.300487 -0.125610 -0.170217 -0.356836 0.075166 0.036464 0.004838 -0.547338 -0.239686 0.014406 0.056984 0.162586 -0.144440 0.028656 -0.168675 -0.451315 0.161598 0.026668 0.162965 0.145888 -0.028273 0.316340 -0.338598 0.133000 -0.219520 0.470836 -0.336101 -0.101604 -0.478457 -0.375033 -0.274973 0.171087 -0.014481 0.155060 -0.395260 0.346653 -0.068525 -0.082089 0.585022 0.131981 -0.125545 0.322267 -0.259489 -0.199819 -0.002005 0.224711
GlobalSpecies0022 0.075832 -0.141073 -0.073115 0.276797 0.179493 -0.124027 -0.180909 -0.065448 -0.467024 0.085661 0.072656 0.162652 -0.081640 -0.000904 0.218869 0.431105 -0.029345 0.381431 0.235495 -0.282126 -0.175111 0.129402 -0.382731 0.587744 0.389419 -0.334450 0.063157 0.208107 -0.106653 -0.311185 -0.000611 0.248208 0.434762 -0.178571 0.085447 0.183418 0.236794 -0.148579 -0.503379 0.279530 -0.150194 -0.323374 0.102393 -0.122771 0.177147 0.236578 -0.045227 0.164346 -0.056337 -0.494088 -0.043957 -0.360546 0.092325 0.108201 0.089777 0.097550 -0.162978 0.088602 0.195044 0.134427 0.123993 0.209277 -0.153777 -0.084184 -0.012183 0.323830 0.207058 -0.224103 -0.015691 0.218066 0.128199 0.535355 -0.125597 0.207648 -0.224090 -0.019760 -0.150120 -0.237687 -0.164196 -0.134625 -0.195981 -0.004639 0.111305 0.190444 -0.235911 0.085951 -0.026858 0.196978 -0.486748 -0.119871 -0.112699 -0.008418 -0.273948 0.425853 -0.246819 0.113410 -0.145349 0.166936 0.143876 -0.256207
GlobalSpecies0023 0.892120 0.066545 -0.288678 0.337146 0.367710 0.319040 1.341123 0.494006 -0.499076 -0.134531 -0.245710 0.421105 1.344412 1.002423 1.101062 0.137317 0.928333 3.129264 0.201082 -0.108248 -1.454663 -0.511850 1.151900 -0.609983 0.304766 -0.403393 0.512087 -0.202669 0.395819 0.962451 -0.085826 0.868764 0.218878 -0.128222 -0.348723 0.804618 -0.513422 -1.177102 0.534725 0.874724 1.342115 0.441928 -0.075299 0.431188 -0.036921 -0.663985 -0.126513 0.574232 -0.135032 0.917940 1.100373 1.085720 -1.055876 -0.815409 1.090877 1.274205 0.715013 0.025614 -1.081867 0.644761 0.487490 -0.296384 -0.342486 -0.598045 0.299736 -0.201767 0.967718 -1.310450 0.795812 -0.082377 1.763051 -1.986132 0.587398 -0.624258 0.025905 0.099106 0.244766 -1.894806 -1.526772 -0.201112 0.373556 -0.172994 -0.084025 0.298145 0.362691 -0.320225 -1.459376 0.436063 -0.280249 0.174080 -0.070661 -0.162572 -0.413686 -1.353060 -0.711465 -1.722089 0.733453 -0.034969 -1.313835 0.177090
GlobalSpecies0024 0.114349 -0.579345 -0.762167 0.700332 0.492683 0.375095 0.509782 -1.188188 -0.472131 -0.611433 0.734718 -0.492643 0.638601 0.565962 -0.512096 0.599077 -0.522162 -0.966893 -0.625526 0.166870 -0.395120 1.197209 -0.131647 0.978370 0.193804 -0.482986 -0.790677 -0.214312 -0.503448 0.778870 -0.789848 0.408960 -0.679634 0.584271 0.039178 0.258076 0.544666 -0.346607 0.477519 -0.085116 -0.012474 0.341423 -0.432959 -0.240132 -0.536671 -0.126852 0.519435 0.398487 0.038904 -1.307266 0.306051 -0.356694 0.598814 0.235868 -0.598763 1.338855 -0.174201 0.745916 0.288007 0.138936 -0.390279 0.722730 0.232546 0.387611 -0.505857 0.439722 0.486371 -1.126768 -0.176271 -0.019082 -0.026057 0.474442 1.082009 0.380026 0.094035 -0.304933 0.032579 0.047279 0.697172 0.031510 -0.230559 -0.597808 0.387025 0.743804 -0.416629 -0.942483 0.253507 -0.297400 0.122710 0.621917 -0.640863 0.672215 -0.213588 -0.459110 0.897827 -0.532819 0.237380 -0.712908 -0.949558 0.480380
GlobalSpecies0025 -0.307689 -0.212407 -0.380421 -0.104398 0.005110 0.170148 0.367092 -0.367614 0.315229 -0.380741 -1.389713 -0.390782 -0.241344 -0.351773 -0.089933 0.462498 0.052449 0.026432 0.253170 -0.360613 0.468543 -1.094008 0.255686 -1.096018 -0.801646 -0.393957 -0.936960 -0.035885 -0.009954 -0.225863 0.186947 -0.482444 0.549876 -0.489868 -1.470611 0.477187 0.900614 0.050235 0.927606 -0.918858 -0.798248 -0.002660 0.570250 -0.014923 -0.430460 0.229451 -0.020685 0.969395 0.298774 0.180252 -0.689935 0.497275 -0.252362 -0.003778 -0.032182 -0.320776 -0.046532 0.109049 -0.215585 0.355404 -1.028585 0.457827 -0.821017 -1.529465 0.027283 -0.679501 0.606363 -0.003042 0.298776 -0.518878 -0.898560 -0.170565 -0.024639 -0.247222 -0.108896 0.784631 0.350856 -1.899442 0.358671 -0.386424 -0.027148 0.188107 -0.354278 0.165526 0.645705 -0.482861 -0.498493 -0.265367 -0.136029 0.312233 1.219349 -0.983382 0.090100 -0.356282 0.610717 -0.221219 -0.445974 -0.127646 0.121270 0.613144
GlobalSpecies0026 -0.458896 0.423311 -0.211391 -0.290316 -0.270675 -0.327451 -0.419333 0.174471 0.386123 -0.323888 0.105491 -0.410028 0.225139 -0.359857 -0.060867 0.165271 -0.161368 -0.039547 0.309656 0.416500 -0.011265 0.276059 -0.226949 -0.300344 -0.323147 -0.185083 0.040283 0.189896 -0.187417 0.412188 0.355098 0.165478 0.324575 0.534782 -0.174992 0.191266 -0.204468 -0.295055 -0.334300 0.076563 0.263831 -0.369611 -0.116701 0.518435 -0.451688 -0.413073 -0.274181 0.197132 0.280568 -0.537435 0.414214 -0.021498 -0.031624 0.450601 0.306256 -0.216239 0.139403 -0.573066 -0.024117 0.351496 -0.034825 -0.028547 0.248279 0.325128 -0.561811 0.698229 -0.340987 -0.157985 0.025751 -0.052863 0.446577 -0.103003 -0.304236 0.279346 -0.232807 -0.027090 -0.334731 0.389777 0.161675 0.126958 -0.038255 -0.039821 0.482842 -0.079239 -0.112195 -0.118032 -0.485446 0.038522 -0.014129 -0.186831 -0.276829 0.413402 -0.368451 -0.170244 0.377036 -0.172661 -0.104317 0.040938 0.339165 -0.031810
GlobalSpecies0027 0.289935 0.159994 0.131577 0.086586 0.037942 0.009998 -0.204886 0.229407 -0.144600 -0.257417 0.335709 0.373633 0.557642 -0.309358 -0.310700 0.371887 0.132332 0.001351 0.382330 0.236799 0.144626 -0.126214 0.156646 0.442753 0.276608 0.034709 -0.195823 -0.040133 0.392004 0.413210 -0.227423 0.429059 -0.002323 0.054875 0.023121 -0.036039 -0.228573 0.041448 -0.204490 -0.310032 -0.170964 -0.147195 0.225954 -0.179061 -0.063726 0.045871 0.035875 -0.317253 -0.283058 0.253296 0.374618 -0.470724 -0.525268 0.094154 -0.105263 -0.029604 -0.556708 0.006985 0.001670 -0.370668 0.279964 -0.186567 -0.378342 -0.276954 -0.428779 -0.187667 0.261952 -0.028445 -0.153705 -0.115215 -0.059728 -0.320998 0.602396 -0.147584 -0.322103 0.357762 -0.176653 -0.013078 -0.166174 -0.201497 -0.006363 0.453829 -0.036855 -0.032940 -0.641743 -0.011039 -0.130365 0.319676 0.036789 0.347496 0.088074 -0.097255 0.081729 0.630430 0.310960 0.310418 -0.088619 -0.276927 -0.186075 0.020042
GlobalSpecies0028 0.316536 -0.522863 -0.026070 -0.036467 -0.404501 -0.131970 -0.378157 0.076919 -0.206639 -0.852381 -0.212223 -0.402553 0.032148 0.109125 0.307045 0.336619 0.299526 -0.031242 0.182244 -0.445806 0.451678 -0.250154 0.260587 -0.263271 -0.017927 -0.094827 -0.155212 0.003677 -0.251701 -0.091775 -0.131082 -0.288257 -0.289822 -0.110803 -0.205103 -0.315344 0.278132 0.519762 0.589203 0.310799 -0.071953 -0.193447 0.112737 0.443730 -0.199034 -0.053350 -0.103140 -0.136767 -0.343490 0.249776 -0.367448 -0.201057 -0.242220 0.030158 0.139490 0.055171 0.230125 -0.052372 0.174375 -0.189834 0.094186 -0.292199 0.069763 0.376026 -0.071594 0.174942 0.327243 -0.290891 -0.227529 -0.349135 -0.038948 0.584322 -0.243496 -0.134910 0.038859 0.003732 0.118828 0.005187 -0.084831 -0.027767 -0.219690 0.475248 0.130939 -0.294806 -0.356201 0.305410 0.116001 0.273955 -0.011590 0.065789 0.251831 -0.357469 0.094852 -0.558730 0.157902 -0.189908 -0.481110 -0.283555 0.091065 -0.296205
GlobalSpecies0029 -0.108419 0.139149 -0.082269 0.162364 -0.682390 -0.721542 0.262040 0.041602 0.054241 -0.388540 0.281696 0.089276 0.099172 -0.185953 -0.324619 -0.102644 0.124057 -0.364072 -0.519142 -0.405604 -0.034487 -0.065645 -0.069660 0.573093 0.185932 -0.169388 0.181988 -0.040934 -0.096122 0.067196 0.193270 -0.017305 0.332219 -0.204749 0.121425 -0.524574 -0.305602 0.561116 0.004371 -0.036645 -0.269531 -0.299120 -0.013584 0.107181 0.173679 0.097520 -0.121897 0.487261 -0.051597 -0.104547 0.078976 -0.002863 0.386994 -0.113819 -0.257056 -0.076518 0.175368 -0.281736 0.581402 -0.176095 -0.161255 -0.036430 0.015335 -0.180721 -0.081557 0.111901 -0.474488 -0.064437 0.017376 0.085979 0.160740 0.244822 0.196188 -0.040842 0.305476 0.335262 -0.288041 -0.068505 0.018878 0.241188 0.320983 -0.083197 -0.375460 -0.043920 -0.053908 -0.018808 -0.206211 0.430677 -0.298202 0.276408 -0.001575 0.221694 -0.291762 0.244714 -0.320814 0.445457 0.342800 0.452387 0.353183 -0.016765
GlobalSpecies0030 0.084618 0.109534 0.288864 0.363331 -0.221177 -0.265840 -0.003374 0.042205 -0.109241 -0.000719 -0.219596 0.138904 0.112968 -0.133516 0.050761 0.256026 -0.152185 -0.149830 0.180427 -0.233842 0.177119 -0.408906 -0.174748 -0.265546 -0.112303 -0.451024 -0.214353 0.101043 0.155704 -0.574522 0.199892 -0.265125 -0.041501 0.108040 -0.048898 0.045353 0.713346 0.413340 -0.282494 0.033666 0.038865 0.260808 -0.289062 0.259824 0.211913 -0.219966 -0.245615 0.059993 0.107556 -0.204642 0.248793 -0.559248 -0.470005 0.417849 -0.015241 -0.135672 -0.320124 0.322235 -0.319992 -0.062857 -0.099931 -0.660239 -0.238901 0.219938 0.086594 -0.184744 -0.156281 -0.434102 -0.062237 0.276201 0.215074 0.207348 -0.362874 -0.096543 0.247946 0.192827 -0.036183 0.025020 0.378254 -0.169860 0.238363 -0.280685 0.086128 0.158417 -0.038113 0.286735 0.189064 0.089607 0.404758 0.021864 0.531074 -0.253088 -0.136582 0.088881 -0.134524 0.179972 -0.040724 -0.028042 0.368578 -0.291555
GlobalSpecies0031 0.378669 -0.024429 0.524066 0.015420 -0.611859 0.353074 0.034513 0.301056 -0.100315 -0.086481 -0.431211 -0.421367 -0.102428 0.367502 0.145616 -0.496991 -0.356403 0.535750 0.038411 -0.090985 -0.069128 0.041166 -0.543180 -0.131967 -0.444274 0.564754 0.138675 0.146620 -0.085332 -0.315608 0.281537 -0.080496 0.030538 0.011808 -0.148504 0.017669 -0.070143 0.001841 -0.126479 -0.050478 -0.546356 -0.493801 -0.056323 0.105699 0.191043 0.736261 -0.384037 -0.158763 -0.720902 -0.200812 -0.381922 0.073431 0.349243 0.332220 -0.371820 -0.364233 -0.069738 0.088452 0.037224 -0.211920 -0.312664 0.042392 -0.005639 0.148596 -0.131781 0.269181 0.118309 0.279307 -0.414157 -0.112518 0.064164 -0.167182 -0.153155 -0.140439 -0.061976 0.768347 -0.137201 -0.647664 0.227297 -0.112114 -0.213290 0.335155 -0.145909 -0.270410 -0.001610 0.147576 0.063668 0.614364 -0.158034 0.358804 0.478533 -0.435120 -0.055261 -0.084158 0.117039 0.055269 0.617710 -0.128496 0.227687 0.110124
GlobalSpecies0032 -0.124007 0.187071 -0.233451 0.522685 0.695085 0.251623 -0.099275 -0.072187 0.015157 0.193588 -0.091957 0.413800 0.072336 0.281483 -0.758419 0.483828 -0.731974 -0.306185 0.037994 0.620914 0.051367 0.120371 0.140226 -0.250742 -0.060855 -0.427626 0.083322 -0.397650 0.598412 -0.037035 0.380292 -0.199846 0.037289 0.176256 0.348976 0.251269 0.090666 -0.264662 0.147224 -0.044215 0.014969 0.293974 0.279317 0.413014 0.106283 0.151356 0.268073 -0.064350 0.204775 0.004563 0.186559 0.045044 -0.009552 -0.078336 0.375331 0.101531 -0.065983 -0.489300 0.322139 -0.248339 -0.266143 0.385068 -0.455528 -0.669604 -0.158935 0.122930 0.013759 -0.113971 0.211538 -0.322401 0.157083 -0.025722 -0.183006 0.325337 0.721441 -0.100456 0.452231 0.211603 0.437181 0.273998 -0.091000 -0.096474 0.302010 -0.679463 0.244381 0.157302 0.260362 0.283922 0.339877 -0.495550 -0.096909 -0.025714 -0.467903 -0.244848 0.440057 0.037409 0.081129 0.044966 0.227228 -0.246668
GlobalSpecies0033 0.400985 0.649002 0.142465 0.030644 -0.103265 -0.594030 -0.928238 0.260439 -0.260368 0.584115 -0.014551 0.788459 -0.237585 0.599344 -0.004330 -0.460170 -0.085536 0.225678 -1.417615 -0.403346 -1.168978 -0.442820 0.963877 0.116541 -0.756574 0.220484 0.510035 0.487065 -0.703707 -0.152143 0.457393 0.207916 -0.549706 0.256356 -1.027785 0.691343 0.253627 0.151173 0.815864 -0.650879 -0.445262 0.150856 -0.556467 -0.951295 -0.709566 -0.246600 0.381980 0.470410 -0.279561 0.583701 -0.174914 -0.043268 -0.930060 -0.479776 -0.312203 -0.027454 -0.302529 0.194148 0.666720 0.563483 0.930084 -0.320667 -0.334662 -1.049599 -0.281232 -0.587597 -0.857597 0.072769 -0.419956 0.645327 -0.715157 0.117174 0.076500 -0.437394 0.806080 0.785971 1.192049 0.161924 0.058113 1.327202 -0.737797 0.461040 -0.119669 0.591158 0.112022 -1.350022 -0.164302 -0.309946 -0.285480 0.286113 0.635101 -0.687227 -0.458985 -0.477653 0.232492 -0.168692 0.278037 0.013507 0.375016 -0.987219
GlobalSpecies0034 0.556746 -0.665419 0.340148 -0.388403 -0.964340 -0.558632 -1.225573 0.205303 0.166760 0.073406 0.502061 1.864978 -1.035266 0.117762 -0.506031 -0.820515 0.120556 -0.349708 0.276906 0.575337 0.874667 0.277036 0.128447 -0.016918 -0.046715 0.880125 1.033593 0.150469 0.773637 -0.466353 0.616527 -0.414826 -0.675454 -0.404099 -0.794100 -0.505366 1.271847 0.047009 -0.703362 -0.296907 0.954348 0.326219 1.000687 0.506155 -0.591487 0.496241 -0.664212 0.564592 -0.505329 0.570164 -0.126544 1.028565 0.017756 -0.618057 0.402674 0.790960 0.969720 2.470751 -0.109419 -1.173021 0.043363 0.990400 -0.929357 -0.457603 -0.543349 -0.498197 0.047888 -0.033397 -0.477995 0.334937 -0.297072 0.565836 -0.326448 -1.490208 -0.286995 0.298284 -0.149165 -0.601997 -0.002586 0.360851 -0.234430 -0.186820 0.166041 1.513094 0.953574 0.164120 -0.786589 1.058952 0.228173 -1.028261 -0.306257 0.566148 0.693323 -1.190986 0.085571 1.262865 -1.390780 -0.382158 -1.030569 -0.840203
GlobalSpecies0035 0.038447 0.221239 -0.254484 -0.319204 0.167909 0.419524 0.150452 -0.098983 0.008055 0.214951 -0.019582 -0.084402 0.354198 -0.820584 0.192624 -0.537574 -0.227139 -0.325744 -0.046743 -0.300339 0.090516 0.390245 -0.162895 -0.356436 -0.372167 0.454988 -0.356403 -0.170863 0.073753 0.069022 0.314205 -0.326592 0.140932 -0.120089 0.906917 -0.191621 0.434023 -0.148399 0.040246 -0.359818 0.328836 -0.192973 -0.092236 0.076071 0.411924 -0.119533 -0.038499 0.238786 0.030241 0.150906 0.223930 -0.031262 0.159834 -0.571054 0.213650 -0.319338 -0.474136 -0.268143 -0.727881 0.192146 0.038568 -0.330509 0.078054 0.377523 0.237585 0.173994 -0.128291 -0.448048 -0.255643 0.246965 0.252011 0.277586 -0.102246 0.174028 0.055298 0.295660 0.011193 -0.009047 0.124907 -0.226924 0.034543 0.258343 -0.216354 0.073399 0.117040 -0.202094 -0.308243 -0.219596 -0.124443 -0.124823 0.134152 0.259520 -0.005286 -0.189568 0.190545 -0.141444 0.319351 0.582836 -0.147985 -0.106447
GlobalSpecies0036 -0.251831 0.266633 0.148638 -0.008178 -0.065512 -0.370432 0.028781 0.247952 0.060738 -0.109420 0.414596 0.386167 0.105964 0.021586 0.149641 0.218206 0.174790 -0.008786 -0.088822 -0.236889 -0.022429 0.167057 0.020499 -0.042320 0.385896 0.229186 0.135581 0.212530 0.161138 -0.094207 -0.282400 0.199752 -0.158004 0.053448 0.208752 0.024885 -0.156736 0.282869 -0.062123 0.143484 -0.326213 0.148178 0.163452 0.123563 0.092642 0.085756 -0.123128 0.016859 -0.119422 0.003460 -0.020797 0.161797 -0.016252 0.210728 -0.028456 0.182306 -0.205067 -0.028364 0.244885 -0.127316 -0.018890 0.163715 0.058218 0.050897 -0.210947 0.062135 -0.221003 0.078844 -0.206298 -0.002494 0.101907 -0.212386 -0.318693 -0.177048 0.051103 0.196112 -0.119115 0.140539 -0.109319 0.291610 -0.250543 0.266948 0.153217 -0.008571 -0.000662 -0.021104 0.070844 0.102746 -0.171936 -0.046951 0.010637 -0.198666 -0.103621 0.032559 0.138232 0.278946 0.242251 -0.061380 0.197022 -0.004663
GlobalSpecies0037 -0.326722 -0.013627 0.257724 -0.199008 -0.610124 -0.200571 0.137787 -0.403201 -0.022600 -0.138783 0.290470 -0.263029 -0.479038 -0.325399 -0.144355 -0.164911 0.216644 -0.073961 0.094432 0.176618 -0.235885 0.569026 0.028097 -0.003182 0.318697 0.097066 0.199567 -0.379065 0.185966 0.140644 0.175892 -0.358742 0.536582 -0.061270 0.205050 0.353096 -0.313759 -0.190434 -0.356134 0.257576 -0.051392 0.449001 0.106473 0.059607 0.217339 -0.088738 -0.349390 -0.128996 0.035615 0.375694 -0.134791 -0.117061 -0.306520 -0.111751 0.082317 0.233336 0.063638 -0.090550 -0.088670 -0.379473 -0.012355 0.076703 -0.039061 0.245896 0.112260 0.286946 0.613685 0.628286 -0.010990 0.228283 0.300244 0.169910 -0.438329 0.072175 0.299604 0.351645 -0.036391 0.034759 0.064002 0.058471 -0.283290 0.343005 -0.098918 -0.420047 -0.198418 0.142904 -0.018049 -0.316711 0.308715 -0.115871 0.197039 -0.236212 -0.473620 -0.098456 -0.606913 -0.172380 0.194705 0.180409 -0.087424 -0.090268
GlobalSpecies0038 -0.133224 0.331128 -0.057860 -0.160830 0.031735 -0.034700 -0.023828 -0.098184 -0.066025 0.057873 0.347547 0.044346 0.031665 -0.006950 -0.224214 0.214215 -0.114997 -0.074136 0.063161 -0.503292 0.054838 0.136054 -0.136514 0.165685 0.259549 0.139922 0.149932 0.151128 -0.080216 -0.095346 -0.028167 0.445769 -0.138700 0.050743 -0.014232 -0.125540 -0.246068 0.183943 0.082564 -0.032402 0.019920 -0.011703 0.258934 -0.070542 -0.134867 0.358785 -0.005054 -0.151186 -0.168895 0.052732 0.075673 0.322986 -0.031857 -0.074272 0.111978 0.092578 -0.202214 0.015584 0.241730 -0.265203 0.031089 -0.082622 -0.098682 0.095957 0.073052 0.029043 0.166078 0.243191 -0.153075 -0.102024 0.009453 -0.249302 -0.355008 0.021031 -0.012364 0.341038 0.190283 0.143168 -0.048477 0.211961 -0.179902 0.054702 -0.141540 0.059426 0.010427 -0.124937 0.109378 0.115810 -0.220877 0.015788 0.201444 -0.067873 -0.161707 -0.028510 0.032830 0.376800 0.295055 0.251286 0.141598 0.205824
GlobalSpecies0039 -0.079114 0.055496 0.135693 0.401398 0.132722 -0.092132 0.022872 -0.447378 -0.183082 0.193903 0.379527 0.152982 -0.334614 -0.023244 -0.417354 0.179993 -0.102912 0.479065 -0.274231 -0.307659 0.139852 -0.425826 -0.115733 -0.402910 0.192938 -0.233439 0.126301 0.474061 0.237867 -0.013793 -0.015978 0.179886 0.768216 0.130485 0.385932 -0.384753 -0.185251 0.222724 0.045149 0.027665 -0.476721 -0.554248 0.415092 0.046021 0.189291 -0.030311 0.137619 0.064496 0.119018 0.041916 -0.479526 0.251031 -0.091696 0.186831 0.196283 -0.832513 -0.182552 0.383594 -0.215954 0.381427 0.244973 -0.742854 0.381768 0.244495 -0.056846 0.327097 -0.453169 -0.318194 -0.247655 0.302272 0.513219 -0.350451 -0.075385 -0.314932 0.159416 -0.014921 -0.084250 0.237746 -0.651258 0.025027 0.110696 -0.506863 0.112598 -0.358610 0.257133 0.222853 0.032523 0.001541 -0.172054 0.282828 -0.014909 0.216282 -0.248784 -0.491444 0.073003 0.182430 0.353194 0.546728 0.047529 -0.232184
GlobalSpecies0040 -0.045975 -0.061487 0.131524 0.281451 0.227191 -0.462898 0.070650 0.200719 0.031687 -0.205135 0.031273 0.209179 0.312792 0.130001 -0.372936 -0.320484 0.128215 -0.086144 0.116396 -0.175346 0.178751 -0.187576 0.029216 -0.220164 0.239234 -0.125360 0.252130 0.078551 0.166647 -0.041052 -0.031852 -0.224626 0.494287 0.010694 0.157424 -0.202770 0.086551 0.215269 0.051808 -0.131560 -0.114414 0.089233 0.259295 -0.036038 0.009302 0.219858 0.142534 -0.164824 0.372749 -0.081373 0.480280 -0.001669 -0.027777 -0.129004 -0.612390 0.262248 0.261434 0.117864 0.102142 -0.320664 -0.435600 -0.237523 0.155280 0.608678 -0.009594 -0.275421 0.172131 0.223520 -0.058569 -0.082372 -0.074651 0.163105 0.000564 -0.086097 0.118403 -0.238573 -0.347400 0.236101 -0.036994 -0.459301 -0.498252 0.059583 -0.514951 -0.046854 0.171632 -0.009695 0.065173 0.263278 0.091885 -0.324069 -0.013103 0.041413 0.444480 0.092086 0.054296 -0.085640 0.142249 -0.035684 0.172644 0.106920
GlobalSpecies0041 0.527163 -0.188179 0.079536 -0.014839 0.063674 0.032375 0.190819 -0.271298 -0.092736 0.051668 -0.422500 -0.271530 -0.330623 -0.742463 -0.208157 -0.133438 0.045897 -0.198645 -0.210593 0.010628 -0.130673 0.250128 -0.331006 0.116844 0.296565 0.190711 -0.264932 0.003791 -0.134610 0.478797 -0.144157 0.552152 -0.670382 0.174685 -0.043839 -0.172710 0.093134 -0.151467 -0.428409 -0.222408 0.105361 -0.131500 0.174105 0.265018 0.395316 -0.347222 0.022568 0.022835 0.149892 -0.279350 -0.232087 0.294202 0.241439 -0.143888 0.402014 -0.068254 -0.136089 0.042699 0.215220 -0.328898 -0.326833 -0.509395 -0.007914 -0.462803 -0.167367 0.125042 0.356112 -0.106531 0.606695 0.130986 0.121015 -0.318305 0.099433 -0.061515 0.058059 -0.124221 -0.168649 -0.184087 -0.046433 -0.164462 -0.168646 0.057303 0.122932 0.095515 -0.283882 0.017565 -0.446681 -0.175214 0.081612 -0.476995 -0.372054 0.140249 0.026451 -0.079101 0.221077 0.226954 0.212356 0.254776 0.214564 0.269378
GlobalSpecies0042 0.200680 -0.133618 -0.359817 0.728628 -0.190519 0.026367 0.821916 0.658601 -0.314685 -0.928226 0.161960 -1.263568 0.058321 0.330947 0.568396 0.102999 -0.129668 -0.620742 0.175200 0.308544 0.234096 0.216307 0.223333 -1.319277 -0.220764 -0.831952 -0.437858 -0.489558 -0.303288 0.018490 0.708247 -0.117162 0.320635 -0.853893 -1.376268 0.689220 -0.304642 1.037498 -1.083102 0.413118 -0.293290 -0.441985 0.340788 -0.311460 0.371962 -0.585272 0.398491 0.312443 -0.391349 -0.028383 0.207283 0.717160 0.145455 -0.344170 0.579966 0.472704 1.291898 0.880485 -0.470182 -0.145604 -1.206986 0.035176 0.466333 0.238614 0.455867 -0.513755 -0.258925 0.647716 -0.244697 0.877097 -0.174994 -0.219821 -0.042472 0.559628 0.607700 0.241022 -0.550453 -0.610348 -0.318010 -0.033860 -0.075488 -0.099227 0.466759 0.610478 0.553696 0.164470 -1.220668 -0.489618 -0.445276 0.206411 0.639730 0.268229 0.289340 0.788561 -0.374506 1.196421 1.126003 0.119452 0.757543 0.625500
GlobalSpecies0043 -0.367755 0.244766 0.001839 0.594464 -0.185656 0.090216 -0.481332 0.658436 0.442663 0.393913 0.567780 -0.275712 -0.046721 -0.505191 -0.100529 -0.030030 0.699392 0.315902 -0.143332 -0.237402 0.226706 0.060795 0.921835 -0.992666 -0.306304 -0.341443 -0.694579 -0.332806 0.126210 -0.246751 -0.246434 -0.503882 1.048704 0.308130 0.347706 0.193456 0.218030 -0.274952 0.870950 -0.347527 1.006143 -0.161630 0.091453 0.187487 -0.482678 0.320840 0.002513 -0.614486 -0.080718 0.055416 -0.071810 -0.198528 0.415444 -0.262777 -0.179671 -0.904109 -0.539902 0.056447 -0.544712 0.336383 -0.105900 -0.081576 0.240635 0.053666 0.493399 -0.073087 -0.564122 -0.683659 0.220689 0.241996 0.367047 0.448019 0.191575 -0.148081 0.721606 -0.097226 -0.777068 -0.033147 -0.055728 -0.248540 -0.076771 0.248042 -0.087158 -0.211350 0.224043 -0.421653 -0.155464 0.303360 0.387804 -0.958689 0.665744 -0.322585 0.510733 0.230650 0.052897 -0.568139 0.158523 0.458336 0.041526 0.283695
GlobalSpecies0044 0.202855 -1.290653 0.204210 1.089386 0.027260 -1.061350 1.621074 -0.048538 -0.485199 1.538566 -0.279572 -0.560338 -0.778051 0.567679 0.768737 1.094290 -0.362236 1.878540 0.507997 0.226501 -1.567712 -1.024977 0.557786 0.470178 -0.608565 1.048601 0.271112 0.066837 2.315765 0.215767 -0.086525 -0.991152 0.221298 -0.424632 -1.216277 1.045732 0.978277 -0.543695 0.167825 -0.256033 -0.707199 0.796034 0.096150 -0.290524 -1.644306 0.382008 -0.786449 0.315506 -0.046241 1.286946 -0.398179 0.980558 -1.051430 -0.882576 0.359492 0.518126 0.273904 -0.116082 -0.312131 0.915415 0.786302 0.849282 -0.178229 -0.699745 -0.272188 -0.386288 0.622461 -1.331913 1.688961 0.144107 -0.692488 0.189342 -0.692959 0.188281 0.072069 -0.612775 0.292506 -1.204979 0.881080 0.232158 1.546388 0.095267 -0.695746 -0.569434 1.917374 0.004830 -0.555218 0.948012 -0.649769 0.547932 -0.005896 -0.917387 -0.660713 -0.129001 -0.628473 0.422784 -1.017817 1.416899 -0.556537 -0.381748
GlobalSpecies0045 -0.436285 0.012941 0.207498 0.120453 -0.191215 -0.121107 -0.272655 0.335056 0.049366 -0.130075 0.303870 -0.156966 -0.097646 0.272997 0.020974 0.046046 -0.317924 -0.125614 -0.539198 -0.029328 -0.157080 0.315911 0.031517 -0.197710 0.163010 -0.411775 -0.201384 0.044363 -0.509423 -0.142133 -0.467833 -0.143725 -0.392964 0.084061 -0.081452 -0.116434 -0.212931 0.127356 0.150611 -0.095942 0.001996 -0.330401 -0.025454 0.195148 0.287677 0.167478 -0.186023 0.055117 0.249600 -0.310345 0.268512 0.139591 -0.101012 0.079683 -0.088281 -0.379101 -0.362865 -0.336630 0.042750 -0.015858 -0.049197 0.056810 0.323528 0.214178 0.023166 -0.100094 0.279819 0.343899 -0.475899 0.023540 -0.035897 -0.266847 0.230496 -0.036036 0.194795 0.035766 -0.334120 0.075130 -0.230251 -0.261735 0.191453 -0.245786 -0.240233 -0.207335 -0.067194 -0.120422 0.178106 -0.147837 -0.166008 0.038224 0.038855 -0.303086 -0.247037 0.004458 0.049020 -0.072161 -0.130844 0.260345 0.112327 -0.225980
GlobalSpecies0046 1.321914 0.258107 -1.714553 0.285459 0.220532 -0.221118 0.266718 0.034326 -0.019110 0.588164 -0.262104 0.621199 -0.308153 -0.163744 0.283485 -0.583693 0.127409 -0.702186 0.914928 1.325843 -0.002638 0.254051 -0.135604 0.756478 0.969278 0.156004 -0.097990 -0.068544 0.179522 0.261873 0.388261 0.305448 0.150193 -1.216888 0.285413 0.432236 0.118183 -0.610683 -1.114938 0.763278 -0.455597 -0.074271 0.406870 -0.112333 0.099271 -0.934581 -0.256111 0.300546 0.228270 0.047325 0.335150 0.085793 0.262420 0.062745 0.637954 0.613577 -0.087861 -0.000720 0.763728 -0.609102 -0.464295 -0.190259 -0.351533 0.051377 0.239534 -0.441913 -0.295258 -1.441459 0.218583 0.513123 -0.077670 -0.616734 -0.473974 1.127703 0.318079 0.468765 -0.321695 -0.177408 -0.720879 -0.643979 0.144645 -0.064513 -0.159090 0.793642 0.792021 0.739593 0.719434 0.887950 0.403822 -0.010270 -0.556490 -0.362783 0.437734 0.607101 0.896916 1.180984 -0.650285 -0.050281 -1.528071 -0.153408
GlobalSpecies0047 0.155477 0.127868 0.434116 -0.056533 -0.226421 -0.140067 -0.285413 0.179033 -0.340603 -0.083644 0.264487 0.110041 -0.011467 0.111048 0.016395 -0.053214 0.075309 -0.018122 -0.034359 -0.109512 -0.008839 0.224561 -0.010287 -0.159167 -0.043439 -0.168194 0.137337 0.208191 0.388918 -0.382360 -0.047489 -0.343848 -0.222122 -0.215839 -0.141940 0.298673 0.279302 0.048224 -0.066051 0.396514 -0.171133 0.180020 0.189629 0.060790 0.239833 0.102704 -0.060072 0.243547 0.109812 0.127134 -0.097997 -0.175621 0.015680 -0.094921 0.176310 0.085092 0.165855 0.314107 0.439155 -0.252679 0.020918 0.006075 -0.099244 0.178133 -0.065571 -0.020801 0.183801 0.177028 -0.062730 -0.311937 0.288429 -0.044094 -0.279785 0.231430 -0.324608 -0.415975 -0.304196 0.116762 0.420934 -0.149840 0.058234 -0.323962 0.408684 -0.192596 -0.147918 -0.282735 0.321445 -0.141956 0.201945 -0.140855 -0.349764 -0.073856 0.023230 0.311541 -0.028054 0.416266 0.217412 -0.268450 0.417682 -0.010260
GlobalSpecies0048 0.078048 0.249428 0.029869 0.027309 -0.153793 -0.247162 0.213997 -0.331522 0.143905 -0.291217 -0.017657 0.313900 -0.252839 -0.624054 -0.098736 -0.311624 0.076748 0.109580 0.363652 0.143796 -0.115565 0.123488 0.059365 0.202005 0.231454 0.085554 0.096472 -0.083416 -0.260786 -0.256208 -0.511058 0.009749 0.193404 0.290622 -0.183109 -0.551817 -0.349033 -0.041322 -0.035392 0.240406 0.058679 -0.255364 0.334645 0.036794 0.296076 0.098017 0.096532 -0.066001 -0.251265 -0.380035 0.220786 -0.120848 0.243761 0.575995 -0.132960 0.379112 0.125576 0.330585 0.108575 0.101649 0.130773 0.049827 0.228923 -0.122728 0.117397 -0.093439 0.115007 -0.168901 -0.699811 0.086812 0.058830 -0.170586 0.054056 0.089364 -0.159996 0.151109 -0.096334 -0.180362 0.148807 0.218134 0.339942 0.283001 0.185555 -0.067722 -0.221353 0.085839 -0.116954 -0.058363 -0.165391 0.322412 0.187159 0.014851 0.151937 0.089225 -0.051999 -0.255708 -0.174334 -0.014256 -0.289931 -0.016777
GlobalSpecies0049 -0.015119 -0.250519 0.206107 -0.088354 0.512366 0.157849 0.746029 -0.036551 0.225086 0.117187 0.221672 0.195314 0.052882 0.302488 0.639063 0.519509 -0.212012 -0.027331 0.163546 -0.038359 0.322026 -0.330606 -0.350790 -0.400042 0.273371 0.097415 0.622455 0.190911 -0.239503 0.054011 0.248682 0.339105 0.346691 0.470267 -0.337780 0.224175 -0.623648 0.013749 0.163998 0.430915 0.199191 0.309799 -0.530249 0.293628 0.268372 -0.323717 0.213730 0.046888 -0.217208 -0.165269 -0.464161 0.373228 0.393251 0.360745 0.538310 -0.414174 -0.029440 -0.237050 -0.520809 -0.245909 -0.015763 -0.542053 0.282572 -0.016485 0.225100 -0.058062 0.442857 -0.054833 0.341434 -0.704414 -0.081816 0.396176 0.227709 0.919394 -0.277885 0.064911 0.213294 0.449450 -0.161298 -0.294980 -0.096740 0.284063 -0.003680 -0.289072 0.942628 -0.477883 0.116364 -0.130905 0.248352 -0.108869 -0.126359 0.295106 -0.468872 0.334010 -0.429224 -0.165550 -0.059160 0.186924 -0.229774 -0.188468
GlobalSpecies0050 -0.865035 0.136591 0.225021 -0.517472 -0.422121 0.395783 -0.990189 -0.809849 0.000025 0.999869 -0.244289 -0.146415 -0.682078 0.144914 -0.252927 0.049039 -1.025705 -1.587146 -0.841203 1.497979 -0.097885 0.079283 0.428378 -0.014884 1.312705 -0.294789 -0.783771 -0.661476 -0.143660 0.524351 -0.041805 -0.527785 -0.369255 -1.500619 0.250287 0.064930 -0.107669 0.115653 1.638761 1.296879 -0.477718 0.338429 -1.026070 -0.040644 -0.374616 0.793294 -0.206812 0.582000 0.404783 1.526238 0.227966 0.157012 -0.756230 0.446321 0.423344 0.488516 0.820041 0.505838 -0.294884 0.599965 -0.978090 -0.004316 0.202736 -0.690092 -0.167829 -0.003457 0.175945 -0.274081 -0.670532 1.253044 0.237248 -1.353392 0.127910 0.135324 -1.714369 0.062708 -0.224182 -0.650777 0.175522 0.246622 0.514175 -0.497618 0.371955 -0.748781 0.984964 0.809170 -0.120745 -0.526986 -1.309106 -0.264492 0.894074 0.275802 0.614717 -0.236210 -0.170053 0.246177 -0.067679 -0.181104 -0.765453 0.678119
GlobalSpecies0051 -0.826095 0.605646 -1.051197 0.744164 -0.111962 -0.193594 1.511874 0.735047 0.083266 0.291497 -0.181364 0.144576 0.037225 1.496369 -0.216613 0.817382 -0.794161 0.072261 0.165761 0.480170 0.051316 -0.458311 1.274948 1.139005 -0.719867 0.394759 1.094371 -0.204415 -0.752166 -0.147753 -0.782101 1.071033 -0.344907 -0.083350 0.649849 0.494893 -0.234274 0.942128 1.337144 0.182263 -0.000926 1.549764 0.011697 0.012465 -0.927765 0.439144 0.535508 -0.099183 -0.257567 0.711954 -0.749139 1.582599 -0.192404 -0.179576 -0.203181 0.247939 0.683628 -0.077368 -0.507613 0.345711 0.972691 -0.434411 0.917493 -1.508598 0.902352 -1.365501 0.837192 -0.519341 1.337765 -0.366707 -0.590936 -0.798283 0.244090 0.812054 0.086422 0.190543 0.136091 -0.600073 0.360549 -0.782388 -0.023828 -0.592133 -0.169224 1.882192 0.416684 -0.977393 -0.524652 0.023386 -0.430338 0.073540 -0.098614 0.021941 -0.110849 -0.651929 -0.537814 -0.989706 -0.102541 -0.414309 -0.838459 0.196352
GlobalSpecies0052 0.554572 0.069786 -0.840083 -0.050070 0.302403 0.103951 0.416563 1.378692 -0.018556 0.225890 0.016032 -1.015609 -0.117863 -1.957329 0.237991 0.513766 -0.128256 0.920362 -0.714030 -0.634834 0.286182 -0.423086 0.632981 -0.306695 -0.282256 0.789183 -0.347764 0.634745 -0.570204 0.362294 -0.153059 0.271676 0.052392 -0.046465 0.582607 1.099384 0.319769 0.138944 0.929483 -0.634142 -0.950682 -0.350427 0.287043 -0.336000 1.273491 1.280160 -0.906972 -0.717825 -1.398924 0.419703 0.361537 0.406126 0.076762 0.007918 0.242633 0.577204 1.359915 -0.248515 -0.597378 0.756055 -0.916429 -0.576431 0.215746 -0.357046 -0.995022 0.396430 1.109877 -0.605467 0.868979 0.382949 0.343222 -0.992458 1.930480 -0.341606 -0.630851 -0.714689 -0.668902 0.816069 0.124765 -0.106058 0.396197 0.709029 -0.438694 1.245017 -0.370376 0.000154 -0.617228 -1.736657 0.206492 0.639286 -0.826501 0.154182 0.463999 0.608725 -0.208784 -0.046181 -0.641461 -0.304289 -0.508495 -0.562569
GlobalSpecies0053 -0.199132 0.147126 0.346103 -0.612077 -0.033845 -0.120629 -0.780966 0.172716 0.354111 -0.175651 0.426543 0.074806 -0.453972 -0.299151 -0.049583 0.556908 -0.005922 0.152731 -0.276922 0.375046 0.303482 -0.010562 0.433781 0.139738 0.420951 0.362241 -0.233018 0.237019 0.740696 -0.470619 0.524682 0.481567 -0.438424 -0.385327 0.055402 0.334309 -0.241008 0.243725 -0.430319 -0.192774 -0.136400 0.129274 -0.240596 0.019430 0.368662 -0.393965 -0.103824 0.011179 0.657447 0.406367 0.477213 -0.484823 0.109729 -0.236450 0.417411 0.833341 -0.136193 -0.791719 -0.188501 -0.202097 -0.195982 0.247053 -0.469609 -0.220630 0.477305 -0.443384 0.165723 -0.629454 -0.262177 0.196435 0.702077 0.087472 0.543093 0.206423 -0.098420 -0.146619 0.448731 -0.052643 -0.398623 -0.129460 0.132087 0.383929 0.648648 0.324660 0.133347 -0.441636 -0.085290 -0.148560 -0.822114 -0.278929 0.292830 -0.541738 0.236606 -0.514943 -0.255112 -0.244263 -0.025193 -0.639908 -0.997977 0.411535
GlobalSpecies0054 0.026107 0.177071 -0.444452 0.527484 0.104301 0.085478 0.006215 0.075834 -0.343730 -0.441097 0.219437 -0.281193 0.363488 0.532349 -0.064291 -0.100518 0.257359 -0.026072 0.412497 -0.087615 0.267708 0.073702 -0.305431 -0.180663 0.026151 -0.204643 0.034604 -0.025162 0.322647 0.208899 0.125718 0.039119 0.236313 0.412330 -0.491393 -0.052750 0.017192 -0.108805 -0.130211 -0.321071 0.378705 0.228019 0.985687 -0.004976 0.583242 0.374128 -0.145608 -0.008131 -0.514603 -0.030037 -0.801731 -0.154618 0.334219 -0.233572 0.104528 -0.177128 -0.115515 0.127356 -0.261326 -0.116625 -0.240483 0.267979 0.141664 -0.193874 0.342385 -0.347958 0.224123 -0.299754 0.191549 0.307387 0.057055 -0.163419 -0.347956 -0.158242 -0.006269 -0.023545 -0.083044 0.030862 -0.360486 0.053574 -0.084130 0.335547 -0.217311 0.315254 -0.033733 -0.075634 0.413787 0.040627 -0.041880 0.331479 0.324896 -0.207582 0.302300 -0.214978 0.174076 0.649780 0.037332 -0.170396 0.201115 0.323247
GlobalSpecies0055 0.208554 0.254602 0.046037 -0.049717 -0.108190 -0.181396 -0.348637 -0.368739 0.097263 0.132155 -0.333979 0.188897 0.462051 0.349119 -0.149682 0.478697 0.378645 -0.055526 0.051800 0.025226 -0.202943 -0.433232 -0.051236 -0.746101 0.032117 0.301963 0.368170 0.455571 0.446334 0.176290 -0.150154 0.307630 -0.010486 -0.215947 -0.655860 0.017039 -0.442385 -0.544769 -0.344614 -0.392776 0.182086 0.595612 -0.138328 0.044656 -0.175413 0.088321 0.193636 -0.390296 -0.775765 -0.008638 0.118531 0.016714 0.455394 0.377338 0.126545 0.386353 0.277339 0.231620 0.249551 0.146371 -0.443724 -0.015689 -0.502398 0.338849 0.133733 0.052429 0.029179 -0.069741 0.035496 -0.098447 0.187002 0.115894 -0.223338 0.305739 0.268665 -0.010968 0.014622 -0.173426 0.052749 0.152462 0.137906 -0.137365 -0.371453 -0.516031 -0.519188 0.110474 0.196774 -0.134903 0.050609 0.354313 -0.206256 0.046941 0.130757 0.552417 -0.359613 0.177933 0.160145 -0.251243 0.346479 -0.352891
GlobalSpecies0056 -0.132210 -0.113784 -0.874464 2.074322 -0.170855 0.287854 0.246442 1.265060 -1.785385 0.452286 -0.151203 0.816444 -0.069868 1.007607 -0.461286 0.627910 -1.052425 1.415204 -0.820728 -0.443540 0.015530 -0.681015 0.730200 0.552487 0.072780 0.150822 -0.770055 0.478503 1.254445 -0.034346 -0.747188 2.000616 1.149425 0.032477 -0.963873 -0.354946 -0.334195 -0.029059 2.503722 -0.676473 1.032268 -0.321996 -0.760515 -0.097961 -1.411434 -1.050292 -0.507126 -0.658118 0.124155 0.111188 -0.584805 0.420731 1.417138 1.472872 0.276114 -0.026205 -0.125509 0.375377 -0.593726 -0.230705 2.016013 0.158419 -0.075557 -1.037370 -0.547051 -0.091858 0.369378 -0.618663 1.508536 0.555861 1.018602 0.397818 -1.523855 0.133989 0.244415 0.029619 -0.063258 -1.521196 -1.503349 -0.297472 1.351560 0.414392 0.523791 -0.264509 -0.857309 -0.625260 0.692052 0.778709 -0.567722 -0.401093 -1.343582 1.171399 0.134927 0.297196 0.194421 -1.366430 0.012816 0.556069 -0.754974 0.918127
GlobalSpecies0057 0.256105 0.022033 0.487619 1.549506 1.401990 -0.072600 1.073653 0.515410 0.271155 0.310354 0.134875 0.084123 0.592097 -0.398789 0.083554 -0.466432 0.086476 0.041476 1.593825 0.567556 -0.090413 0.711499 1.081395 -1.063015 0.075557 -0.417338 -0.903304 0.095289 -0.522475 -0.012921 -0.110938 0.502430 -0.417850 -0.666700 0.157946 -0.350900 0.845155 -0.899554 -1.043562 -0.131807 1.728035 -0.054914 0.574410 -0.290787 -0.340712 -0.067170 -0.595365 0.664470 -0.523356 0.948890 0.406291 -0.220390 0.353386 0.024834 -0.861692 -0.355829 -0.064355 -1.378289 0.841146 -1.690563 -0.477100 -0.264862 -0.788676 -0.499149 0.229559 0.523642 -0.705212 0.846736 1.355939 -0.678082 -0.712433 1.164419 -0.284564 -0.444131 -0.331181 -0.107956 0.466712 0.679338 -0.153224 -0.159757 0.097434 -0.483222 0.373655 0.404217 -0.108687 0.223007 -0.741227 0.239862 -0.424177 0.405314 0.850305 0.646519 -0.151758 -0.249333 0.499461 -1.250559 -0.371176 0.726932 -0.771250 1.133559
GlobalSpecies0058 0.704959 0.094617 -0.135236 -0.422553 -0.060188 -0.424281 0.056456 -0.365019 -0.247819 0.084641 -0.825632 -0.870308 0.467057 1.004561 -1.836732 0.566710 -0.493182 -0.455674 -0.270643 -0.023252 -0.866354 -0.050940 -0.006888 -0.198624 -0.357586 0.075384 -0.241487 -0.603247 0.194715 -0.290938 -0.232425 -0.559056 -1.296863 0.152900 0.585385 -0.017255 -0.222526 0.054441 0.542696 -0.099966 0.164386 -0.158785 -0.558880 -2.032678 -0.014849 0.033902 -0.645513 0.228139 0.266581 0.286333 -0.496095 0.556969 -0.060138 0.474752 -0.160553 -0.275053 0.612587 -0.200653 -0.748560 0.644031 0.731256 -0.959071 0.452602 0.603305 -0.580382 -0.444603 -0.870632 -0.557123 0.023706 0.361710 0.110624 -0.412858 0.078427 0.430919 -0.122936 0.578630 -1.442476 -0.238473 -1.344740 1.045785 -0.047306 0.527019 0.297324 -0.087732 0.738090 0.233995 -0.575577 -0.387483 0.785409 0.970775 -0.335016 0.146227 -0.025774 0.553035 0.842047 -0.233933 0.344079 -0.724122 0.198635 -0.114445
GlobalSpecies0059 -0.366328 -0.259592 -0.108045 0.236297 0.204157 -0.607683 -0.276144 0.621247 0.017470 0.074053 -0.295598 -0.212821 0.719448 -0.106754 -0.243833 -0.376709 -0.379844 -0.542563 -0.064657 0.123227 -0.478869 0.320547 0.278802 -0.200286 0.068165 -0.039570 1.229121 0.080643 -0.372351 -0.138534 0.593897 -0.287369 -0.650652 0.262678 -0.376713 0.278111 -0.408885 0.103896 0.950872 -0.239464 0.052175 0.333667 -0.857950 -0.522544 -0.175285 0.037165 0.625267 0.472093 -0.151710 0.385891 -0.782111 -0.273559 -0.245604 -0.597841 -0.594445 0.039668 -0.465382 0.737225 0.007720 -0.353077 -0.314216 -0.125623 -0.320760 -0.305175 -0.304909 0.340562 -0.125407 0.707257 0.004266 0.137745 0.512898 -0.770304 -0.911701 -0.248224 0.410474 0.194307 -0.201600 -0.313425 0.109099 -0.167787 -0.481972 0.151495 -0.065407 0.078436 -0.589566 0.003654 -0.330756 0.275313 0.037883 0.084999 0.131182 0.361374 0.227728 -0.083329 -0.434648 0.249245 0.516853 0.011785 0.283751 -0.159836
GlobalSpecies0060 0.633331 -0.248865 -0.669532 -0.111752 1.052957 0.315944 1.248340 0.872862 0.802932 0.128030 0.429200 0.042657 0.510357 1.841901 0.221158 -0.147729 -0.255748 0.247072 -0.512500 -1.358864 -1.207267 -0.969631 0.351425 -0.907773 -0.922130 -0.196982 -0.480405 -0.229420 0.178297 -0.043426 -0.758154 0.312254 1.067093 -1.394169 -1.330174 1.497637 -0.153518 0.635385 0.186335 0.379108 1.043297 1.159209 -0.555494 0.411620 0.059563 0.177955 -0.143549 -0.397870 -0.037250 0.248484 1.045298 -0.628292 -0.339955 -0.386867 -1.067649 -0.178575 1.158341 -0.961975 -0.099724 0.045827 0.905371 -0.636466 0.060526 0.276929 -0.943680 -1.848038 1.510251 -0.502218 0.979170 0.434622 -0.314756 0.194287 0.243996 0.240007 0.973892 0.888433 1.264601 -1.027936 1.050912 -0.887601 0.714841 0.960363 0.801491 0.429599 1.134721 -0.703956 -0.440129 0.369053 -0.568680 0.072391 0.502248 0.077680 0.173210 -0.888258 -0.356100 -1.632026 0.414924 -0.317534 -0.062976 0.642970
GlobalSpecies0061 0.551931 -0.331718 -0.729628 -0.752437 0.253514 -0.437713 0.099367 -1.071545 -0.440034 0.631504 -0.270223 -0.924790 -0.188407 -0.170430 0.962010 -0.098277 -0.253152 -0.185577 0.105069 0.596765 0.217822 0.546200 -0.164997 1.383244 -0.076115 0.834516 -0.836026 0.000647 -0.391059 0.651152 0.790969 0.168108 -0.236833 0.650733 -0.183829 -0.269696 1.641121 -1.093854 0.437786 -0.261467 -0.007363 0.173190 -0.036946 -0.095545 -0.016252 0.338102 0.693509 0.128009 -1.203335 0.276913 0.786261 1.342569 -0.052004 0.916811 -0.349195 0.453517 0.377242 -0.546673 0.132535 0.252053 -0.186198 0.567146 -0.260370 0.744109 0.417061 0.628674 0.530872 -0.442883 0.745685 0.839257 0.359760 0.843054 -0.661099 -0.644639 -0.142688 0.256204 0.282603 0.632660 -0.084822 0.599732 -0.126448 -1.230417 0.436756 0.515218 -0.481749 0.527563 -0.294610 0.176668 -0.764349 0.138021 -0.350039 -0.009277 0.346615 -0.314326 -1.314815 0.006681 -0.345862 0.900954 0.123901 -0.124545
GlobalSpecies0062 0.149056 -0.007342 0.135048 0.058942 0.080060 0.053595 0.015991 0.308669 0.471992 0.284494 0.416654 -0.597307 0.310744 0.125446 0.021914 0.013668 0.465759 -0.361288 0.291604 0.128354 0.110548 0.228427 -0.003768 0.070620 -0.044022 0.215905 0.200857 0.486713 0.351142 0.299395 -0.009763 -0.213096 0.112367 0.283766 -0.065886 0.370578 0.034980 0.269308 0.144940 0.012863 -0.262046 -0.054371 -0.084036 -0.024855 -0.316689 -0.139917 0.294935 -0.018366 -0.238799 -0.498689 0.122157 -0.441729 0.711270 0.460420 0.158463 0.184862 -0.035483 0.010666 0.122451 0.457543 -0.169300 -0.154331 -0.022461 0.036737 -0.028335 -0.021138 0.221515 0.104587 -0.100186 -0.065393 0.238962 -0.181901 -0.228383 0.181710 0.167749 0.134814 -0.200388 0.129651 -0.012169 -0.364374 0.146074 0.499336 0.032134 -0.279206 -0.013668 -0.328117 0.228035 -0.271416 0.057717 -0.097305 0.562393 -0.239947 0.105920 0.219577 0.170120 0.077590 -0.307726 0.022308 0.041590 -0.211613
GlobalSpecies0063 -0.398214 -0.099988 -0.381654 -0.393985 0.179524 -0.227522 -0.280930 -0.039551 -0.033938 0.448122 -0.479436 -0.196400 -0.196648 0.580276 0.024665 -0.802289 0.270331 -0.422486 -0.329004 -0.123601 -0.050963 0.244402 0.160065 0.242145 -0.062584 0.379051 -0.046586 -0.017940 0.342285 0.188829 0.111649 -0.154599 -0.109081 -0.037597 -0.353500 -0.186734 -0.190367 0.003134 -0.176957 0.498624 -0.467694 0.347385 -0.112638 -0.637053 -0.518943 0.417690 -0.637522 0.013002 0.005034 -0.230026 0.207319 0.354598 0.011028 -0.117615 0.065770 -0.063302 -0.452811 -0.416978 -0.031079 0.436620 -0.234689 0.135018 -1.015670 0.378322 -0.297757 0.224702 -0.117502 0.449296 -0.385641 0.080321 0.009798 -0.256143 0.075654 0.249342 -0.306100 -0.239132 0.204796 -0.646887 0.300785 0.607596 0.105832 0.877649 0.556948 -0.006464 0.047714 0.367293 -0.030059 -0.390172 -0.553780 0.050761 -0.401909 0.000145 -0.544464 0.147897 0.180012 0.679980 0.495618 -0.231852 0.403846 -0.236443
GlobalSpecies0064 -0.455517 -0.003723 0.381806 -0.299784 0.150559 -0.568250 -0.191705 -0.030652 -0.242160 -0.431079 -0.132077 -0.402822 -0.031577 0.227555 -0.098281 0.092530 0.503446 0.550769 0.068749 -0.147203 -0.032531 0.495869 0.014190 -0.318671 -0.179620 -0.391526 -0.130021 0.659232 -0.237337 -0.360419 -0.153642 -0.508952 0.219467 -0.121252 -0.329771 0.111411 -0.123106 -0.201591 -0.134891 -0.316854 0.108703 0.060417 0.309565 0.256951 0.575863 -0.514462 0.218686 -0.264508 0.346322 0.456041 -0.015708 0.074581 -0.370018 0.169735 0.069825 0.247852 0.028919 0.017375 0.202466 0.105890 -0.088322 -0.060135 -0.170479 -0.035444 0.654359 0.017698 0.365652 0.370052 -0.044726 0.354186 -0.218519 -0.119562 0.090641 0.219600 0.052515 0.094798 0.079745 -0.723127 0.216397 -0.228516 0.021228 0.156071 -0.506942 0.165673 -0.024682 0.410099 0.026071 -0.117443 0.461254 -0.437287 0.459429 0.014678 -0.025347 -0.130160 0.015753 0.082988 -0.154558 0.318721 0.074074 0.260039
GlobalSpecies0065 -0.532530 0.462606 -0.120592 0.472416 -0.464586 -0.161154 0.226864 0.110772 -0.119364 0.086153 0.334866 0.036717 0.024301 0.045823 -0.060478 -0.008666 0.159812 -0.166895 -0.302118 -0.244820 0.677346 -0.364288 -0.186746 -0.046738 0.099227 0.233262 -0.791910 -0.608576 0.357140 0.677814 0.067877 -0.262940 -0.081800 0.249958 0.176814 0.213872 0.263407 0.500226 -0.459215 -0.290904 -0.464101 0.080333 0.085399 0.396289 -0.068440 0.076035 -0.501203 0.415459 -0.482863 -0.534262 -0.117676 -0.365301 -0.311653 -0.260565 0.517186 -0.224544 -0.092433 0.205770 0.705243 0.161916 -0.506561 -0.171223 -0.279277 0.050631 0.324087 -0.344974 -0.783558 0.232312 -0.338211 0.063708 -0.318916 -0.050819 0.151621 -0.166802 -0.119708 0.147411 0.132345 0.538510 -0.248767 -0.124846 -0.363018 0.313555 -0.498132 0.493106 0.094346 0.136769 -0.405738 -0.124295 0.105779 0.214293 -0.122578 0.370367 0.175949 0.015410 -0.188728 0.076439 0.071189 0.522016 0.153722 0.213787
GlobalSpecies0066 -0.355105 0.030304 0.404461 -0.301346 -0.250176 0.076706 -0.300566 0.182337 0.081931 -0.261072 -0.073452 -0.031345 -0.701654 0.344919 -0.326078 -0.115891 -0.100164 -0.314821 0.173266 -0.398557 0.366425 0.257927 -0.361656 0.090402 -0.319100 -0.039700 0.058101 -0.347055 0.046944 0.142484 0.176487 -0.228884 -0.192268 -0.274883 -0.091861 -0.211718 -0.007812 -0.362391 -0.017139 0.138258 0.253159 0.120554 -0.434315 0.142632 -0.056100 0.401815 -0.133677 0.287837 -0.011628 -0.319404 -0.076367 -0.264109 0.215644 0.013672 -0.511099 0.148659 -0.298335 0.265487 -0.105054 -0.365128 -0.123292 0.169550 0.056326 -0.094856 -0.163909 0.232683 0.060107 0.430509 0.323215 -0.054665 0.116698 -0.238324 -0.342995 0.260573 -0.143235 0.150495 -0.007843 -0.220561 0.359709 0.093579 0.120086 0.178504 0.196541 0.231302 0.109537 -0.074799 0.200909 0.003266 0.134753 -0.294121 -0.134102 -0.034714 -0.126437 0.147979 -0.173655 0.234009 0.136784 -0.094511 -0.344687 -0.075624
GlobalSpecies0067 -0.712440 -0.403093 0.152822 0.058237 0.542577 -0.546557 0.130451 0.768531 0.032300 0.494208 0.317722 -0.035331 -0.288567 0.811421 0.671886 -0.315610 0.125439 -0.549552 -0.188698 -0.087179 -0.057908 -0.138167 0.470410 0.046382 -0.128952 1.103173 1.016632 0.167123 0.654525 -0.007754 0.694550 0.796611 -0.414737 -0.076384 0.580027 -0.426663 -0.007963 -0.024472 -0.252131 -0.106071 0.475991 0.192694 -0.845382 -0.246913 -0.239243 0.559771 0.298129 -0.258629 -0.193743 0.066973 0.533633 0.527307 -0.294377 0.304064 0.751444 -0.058218 -0.519873 0.606403 1.146616 -0.373077 -0.044740 -0.199292 -0.807209 -0.881910 -0.451065 -0.599700 0.078941 0.227366 -1.142916 -0.114040 0.466868 0.104570 -1.274667 0.648135 -0.711755 0.394137 -0.096501 -0.562723 0.099193 -0.141117 -0.092429 -0.034062 0.078890 -0.269936 0.406911 -0.218252 -0.089096 0.218656 -0.001440 0.584384 -0.379076 0.666756 0.426643 -0.190280 0.639229 -0.501508 1.248864 0.564245 -0.470820 -0.399343
GlobalSpecies0068 -0.067151 -0.076663 0.235656 -0.157412 -0.101715 0.207376 -0.022578 -0.257607 0.059774 -0.165009 -0.188016 0.073560 -0.152627 -0.496271 -0.156776 0.137878 0.143397 -0.119586 0.287302 0.061663 -0.010146 -0.115788 0.225803 -0.050548 0.214924 0.066615 -0.149992 0.055679 -0.040003 -0.041818 0.203387 -0.068459 -0.156661 0.093686 0.159474 0.015259 -0.219543 -0.065439 -0.345195 0.065655 0.175483 -0.050182 -0.160139 -0.377393 -0.016142 -0.047766 -0.057913 0.265292 -0.029340 -0.015937 -0.173144 -0.373026 0.153034 -0.119050 -0.053195 0.007930 -0.066429 0.351713 0.171846 0.075879 -0.047948 0.079285 0.166268 0.071203 0.075333 0.192263 0.137759 0.123434 -0.176867 -0.255639 -0.077690 -0.161176 0.182099 0.047428 -0.124155 0.243017 -0.129581 -0.098208 -0.143300 0.098401 -0.015241 0.063241 0.124461 -0.341045 -0.192862 -0.127230 0.252055 0.106568 0.023794 -0.106163 -0.066702 -0.033810 0.171626 0.183578 -0.001983 -0.146393 -0.132320 -0.105157 0.002306 -0.037678
GlobalSpecies0069 -0.143427 0.171675 -0.240367 -0.135209 -0.597593 0.706148 -0.436056 0.116022 0.278854 0.630109 0.130639 0.131985 -0.897891 -0.014040 0.212571 -0.333323 -0.102767 -0.666829 -0.480758 -0.180445 -0.684132 -0.002384 -0.323072 -0.183699 -0.483270 0.415889 0.007729 -0.014128 0.015350 0.295268 -0.176815 -1.055460 -0.209355 -0.305702 0.000698 0.252722 1.200509 0.740247 0.368813 -0.432485 0.020677 -0.074893 0.333212 0.202791 -0.470583 0.213665 0.240150 -0.679992 -0.360617 -0.247291 -0.432903 -0.112814 -0.970713 -0.481426 0.569323 -0.272200 -0.046580 -1.057071 0.055498 -0.122396 -0.349363 -0.413543 0.301037 -0.445522 -0.129667 0.261135 0.559306 -0.060525 -0.116776 0.194675 0.021103 -0.088343 0.170776 -0.202235 -0.040774 0.154431 -0.415988 -0.163290 0.625272 0.150570 0.768682 -0.230079 0.590023 -0.156793 -0.861237 -0.499091 -0.245416 -0.006893 0.102330 0.112106 0.001900 0.187796 0.188452 -0.328185 0.015239 0.047930 -0.694101 0.812954 -0.149315 -0.635011
GlobalSpecies0070 0.024701 0.545063 -0.186156 0.273450 0.218060 0.052363 0.494563 -0.063369 -0.242474 -0.054492 0.410276 0.229560 0.165255 0.211644 -0.109850 -0.096645 0.077814 0.222454 -0.214544 0.131643 0.245464 -0.307566 -0.067373 0.502197 0.131839 -0.133199 0.029305 0.227351 -0.064116 -0.107683 -0.127694 0.157462 -0.211034 -0.043570 0.238241 -0.320944 0.105122 0.308899 -0.250817 -0.046573 0.127411 -0.175311 -0.015967 0.030347 0.287881 -0.085448 -0.168055 -0.162722 -0.041381 0.280553 0.106923 -0.131995 0.264980 0.201879 -0.198801 0.016386 0.050125 -0.206524 0.160908 -0.305431 -0.083816 -0.173809 0.144753 -0.149325 0.345812 -0.187837 0.026291 -0.538244 -0.564625 0.394164 -0.160466 -0.260643 -0.094467 -0.301105 -0.149339 0.054257 -0.034695 0.382594 -0.373084 0.498664 -0.291308 0.126898 -0.431538 -0.129990 -0.283067 0.219084 0.380639 -0.098312 -0.055038 0.016746 0.289246 -0.272489 0.313931 -0.255383 -0.095720 0.296757 0.026197 0.150563 0.072935 -0.155096
GlobalSpecies0071 -0.314505 -0.573545 -0.249324 -0.319691 0.452607 -0.720244 0.879951 0.229456 -0.624063 0.337873 -0.526101 0.072233 -0.329577 -0.508822 0.202814 0.453032 -1.457997 -1.118838 -0.299879 -0.767107 -0.781385 -0.750360 0.321255 -1.169308 -0.352574 -0.018621 -0.276574 0.213587 -0.328269 0.640049 0.142327 0.779194 0.625696 -0.046560 0.094880 0.038266 0.496090 0.299434 0.051292 -0.496334 -0.319481 0.241651 0.647578 0.185912 0.267242 -0.162054 -0.145051 0.594743 0.101471 -0.385214 -1.105192 0.601695 1.180425 -0.173386 -0.188833 0.398392 -0.184365 -0.428349 -0.318930 -0.336075 0.134491 -0.124855 -0.063750 -0.264173 0.295326 0.322150 0.674691 0.581125 -0.074426 1.175927 -0.690535 0.838745 -0.203223 -0.068194 0.033005 0.537216 -0.922650 -0.402601 -0.411612 -0.037956 -0.478304 -0.016882 1.126800 0.675393 -0.117766 -0.542322 -0.813328 -0.112191 0.407255 -0.343428 -0.036110 1.008097 0.147922 -0.441593 -0.529580 -0.060172 0.102783 -0.925916 -0.335868 -0.665701
GlobalSpecies0072 -0.295392 -0.082201 -0.176695 0.152268 0.396932 0.162127 0.153593 -0.892287 -0.060946 0.177141 0.329983 0.084667 -0.060446 -0.118317 -0.069895 -0.191383 -0.171693 0.035121 0.052744 -0.711458 -0.142161 0.334571 -0.346836 0.693928 0.107928 -0.435678 -0.177012 0.143729 0.721777 0.044493 0.048835 0.364298 0.039943 -0.044735 0.436137 -0.098349 -0.042499 -0.330539 -0.600049 0.150608 0.138469 -0.431998 0.216529 0.182921 -0.445197 0.060292 -0.335088 -0.263995 0.056402 -0.218343 -0.342290 -0.288158 -0.206185 0.092991 0.193847 -0.268961 0.035496 -0.122889 0.542247 -0.317228 -0.171099 -0.610792 -0.095781 0.101623 0.304628 0.219383 -0.221348 -0.043433 -0.171705 0.149745 0.224660 -0.148468 0.292226 0.425658 -0.109594 0.114026 -0.150266 0.368953 0.369323 -0.063509 0.103832 -0.358512 -0.171456 0.174481 -0.066034 -0.313087 0.013641 -0.122389 0.033164 0.381004 -0.007275 -0.232440 0.554896 -0.426942 -0.273888 0.006974 -0.252961 0.789804 0.242332 -0.408241
GlobalSpecies0073 0.022546 -0.099058 0.534323 -0.354928 -0.003245 -0.456659 -0.081404 -0.004317 0.207715 0.551548 0.483776 0.403276 0.038207 -0.319914 0.220150 0.031291 0.346592 -0.182651 0.179026 0.145207 -0.332429 -0.323166 -0.334281 -0.252006 -0.282644 -0.279076 -0.148830 0.166057 -0.091769 -0.311416 0.009256 0.347936 0.329251 -0.080416 0.181458 0.221730 -0.460872 -0.121996 -0.105967 0.237755 0.227999 0.097840 -0.159725 -0.138499 0.145270 -0.546067 -0.165856 -0.171152 0.182329 0.269993 0.068839 -0.089444 -0.650249 -0.237948 0.104892 0.270669 -0.105767 -0.072237 0.185756 0.196413 -0.230895 -0.014788 0.029933 0.007846 0.078011 0.143209 -0.109846 0.074335 -0.278341 -0.402241 0.238051 0.113009 0.499864 -0.032294 -0.011552 0.360247 -0.261889 -0.336237 0.171520 -0.047468 -0.095125 0.619041 -0.079925 0.412102 -0.082340 0.089625 0.373157 0.487629 0.322783 -0.332854 0.446573 -0.341438 -0.266420 -0.039954 0.018574 -0.096683 -0.140372 -0.066251 0.011274 -0.024848
GlobalSpecies0074 -0.244779 0.175068 -0.152793 -0.442559 0.287925 -0.130095 0.289493 -0.503110 0.139706 -0.285392 -0.469887 -0.479681 0.125650 0.019819 -0.322346 -0.384106 0.021766 -0.111574 -0.351449 -0.294830 0.125837 0.356431 0.382287 0.094976 -0.120538 0.129646 -0.007949 0.297713 -0.013409 0.092597 0.128469 -0.003875 0.400872 0.065204 -0.001870 -0.064460 -0.342678 0.304208 0.053542 -0.459288 -0.151129 -0.203208 0.248339 0.287917 -0.229411 0.038788 0.234274 -0.175589 -0.390408 0.153906 -0.146736 0.082052 -0.155498 0.100817 -0.263305 0.026950 -0.102418 0.337342 -0.254471 -0.154183 -0.202442 0.577181 0.410762 -0.126076 0.270684 -0.085573 0.002409 -0.262525 -0.086590 0.060708 0.069816 0.042943 0.081295 -0.114678 -0.137834 0.613394 0.021894 -0.336891 0.421944 -0.264133 -0.243451 -0.084634 -0.094144 -0.038563 0.207657 -0.182065 0.397105 -0.003790 -0.123617 0.077887 0.297934 -0.131736 -0.270972 0.164556 0.064774 -0.404696 0.057421 0.113821 0.146771 -0.499047
GlobalSpecies0075 -0.356906 -0.191394 0.158178 -0.157612 -0.067761 0.534234 0.073349 0.460687 0.459781 0.188705 0.118248 -0.354070 -0.549098 -0.310755 -0.397634 0.122390 -0.282674 -0.025656 -0.039860 -0.576561 -0.124775 0.143713 0.263005 -0.124410 0.185099 -0.238890 -0.300597 -0.000443 -0.304203 -0.475748 0.141603 0.407145 -0.082579 0.595766 0.257999 -0.494718 -0.025381 0.314263 -0.389202 -0.631628 0.131542 0.265883 -0.328499 -0.247966 -0.333895 -0.052940 0.000642 0.119968 -0.084382 0.013461 -0.169294 -0.158425 0.165450 -0.013289 -0.369824 -0.058111 -0.595100 -0.135085 -0.180119 0.349939 -0.296526 0.480979 0.019465 -0.093098 0.266785 -0.052404 -0.539872 -0.489043 0.348307 -0.007635 -0.289414 0.467354 -0.268076 -0.020626 -0.699598 -0.261826 -0.167938 0.139358 0.309678 0.019904 0.524421 0.532763 0.224092 0.565319 0.198743 0.673795 0.501697 -0.383458 0.206620 0.105845 0.048138 0.190513 0.278810 0.307634 0.195275 0.160079 -0.121322 0.445073 -0.431546 0.922450
GlobalSpecies0076 -0.097614 -0.027214 0.466505 -0.181036 -0.080571 -0.002314 -0.137172 -0.107498 0.149195 0.016776 0.168980 0.143481 -0.305885 -0.264547 0.053353 -0.076357 0.161719 0.167560 0.399709 0.007628 0.095150 0.067064 -0.019823 -0.175270 0.222792 0.023195 0.016399 0.102619 -0.179394 0.095049 -0.097448 -0.136805 0.095231 0.122407 0.116922 0.028844 -0.170945 -0.018783 -0.085553 0.292927 -0.246708 -0.017964 -0.064976 -0.108281 0.339422 -0.136011 -0.033605 0.041457 -0.102309 0.051336 -0.142833 -0.183206 -0.163570 -0.036538 0.067681 0.098993 -0.085313 0.125811 0.246642 -0.037868 -0.096301 -0.092186 0.064396 -0.254273 0.150425 0.212027 0.013127 0.316787 -0.262564 0.034198 0.075221 -0.046018 -0.288168 0.003072 0.208379 0.135381 -0.022819 -0.068462 0.120004 -0.053490 -0.205755 0.035645 -0.023764 -0.247859 -0.368256 -0.296349 0.138517 0.105441 -0.127784 -0.185805 0.105062 -0.234649 -0.080003 0.119178 -0.075975 -0.100011 0.321647 -0.389898 0.085989 0.138249
GlobalSpecies0077 -0.341340 0.065592 0.359528 -0.181341 -0.032610 -0.328621 -0.192078 -0.252520 0.117484 0.117121 -0.153349 0.237856 -0.321188 -0.030823 0.035774 0.165502 -0.305140 0.040210 0.306002 -0.097573 -0.288446 -0.257696 -0.060903 -0.220428 0.329390 0.047266 -0.041003 0.588459 0.148681 -0.050168 -0.209080 -0.175058 -0.323276 0.056192 0.321840 -0.026723 0.139471 0.046455 -0.106996 -0.042038 -0.207777 -0.249986 -0.245407 0.016310 0.043125 0.022769 0.427507 -0.041595 -0.348837 0.026407 0.434903 -0.409988 -0.047158 0.376957 -0.085447 0.165520 -0.372709 -0.248221 -0.568746 -0.356021 0.081123 0.018014 -0.202126 0.325334 0.178071 0.230151 0.316946 -0.062335 -0.096109 -0.302076 0.166202 -0.193217 -0.219980 -0.091050 -0.265253 0.162111 0.009263 0.013765 0.254212 -0.210384 -0.109310 -0.109756 -0.214046 0.189950 0.079630 0.101581 -0.061141 0.078003 0.047400 -0.216318 -0.151081 -0.257546 -0.318956 0.389052 -0.290619 0.169208 0.222412 0.234013 -0.295161 0.008511
GlobalSpecies0078 -0.170414 0.142406 0.016587 0.363654 0.208260 0.213308 -0.067332 0.077066 0.140169 -0.232224 -0.294953 0.307041 0.269818 0.183448 0.209084 0.300018 -0.160256 0.256452 0.105197 -0.490471 0.007219 -0.229959 -0.280372 -0.292838 0.447355 -0.110060 -0.276428 -0.140804 -0.015086 0.573227 0.187098 0.268094 0.664874 -0.117597 0.101030 -0.150132 0.086393 0.358259 0.528701 0.095678 0.628758 0.025115 -0.223578 -0.209945 0.489011 -0.083274 0.593988 -0.428680 0.188021 0.026475 -0.315077 0.117654 -0.050981 -0.167209 0.108491 -0.409689 0.091301 -0.544251 -0.081512 -0.165644 0.654151 -0.411679 -0.120909 0.016769 0.286345 0.071037 0.140860 -0.496587 0.454316 -0.093049 -0.073339 0.163092 -0.047264 0.065474 -0.016950 -0.083841 0.573155 0.199257 0.371552 -0.240089 0.063373 -0.127580 -0.031845 -0.437492 0.428935 0.093222 0.342497 -0.200301 0.250932 -0.353406 -0.682188 -0.352285 -0.711307 -0.130032 0.435712 0.189297 -0.276792 0.621837 0.596581 -0.590092
GlobalSpecies0079 -0.086981 0.239232 0.337870 -0.834970 0.424888 0.035757 -0.365773 -0.512080 0.067290 -0.479257 -0.069765 -0.140944 -0.125848 0.116772 0.198014 0.120253 0.214660 0.350545 -0.426289 -0.781650 -0.874432 -0.058294 -0.644193 -0.186139 -0.755112 -0.183397 0.158432 0.118644 0.671572 0.221733 0.401951 0.392614 0.831903 -0.312481 -0.212567 -0.109727 -0.782226 0.750835 -0.053594 0.324198 -0.009812 -0.236393 0.071355 -0.500005 0.464750 0.405766 0.574367 0.147728 0.382680 -0.402780 0.296740 -0.337345 0.748447 0.145806 -0.391531 0.126650 -0.289522 -0.321161 0.068732 0.646464 0.167680 -0.155389 -0.121955 0.001167 -0.230395 -0.693657 -0.041871 -0.055726 0.460303 0.291499 -0.321971 0.595412 -0.097276 -0.784901 0.644114 -0.083043 -0.488872 0.203530 0.056534 0.513138 0.003721 -0.302385 -0.032734 0.067400 0.622704 -0.192578 -0.310861 0.005736 -0.059169 0.482524 -0.259216 -0.130548 0.811293 -0.192259 -0.652901 -0.211375 0.112623 0.123954 0.229832 0.103301
GlobalSpecies0080 0.611960 -0.108813 0.124090 -0.461961 -0.044780 0.508498 -0.535732 -0.125982 -0.069929 0.191818 -0.276434 -0.140637 0.205936 0.663656 -0.084983 0.600075 0.081637 0.226409 0.006304 -0.163593 -0.304376 -0.083300 1.143549 -0.233162 0.009431 0.619310 -0.225050 -0.046321 -0.549758 -0.607626 0.402602 -0.208841 -0.146734 0.184894 0.250902 0.101310 0.103478 -0.011656 -0.460623 0.481518 0.052806 0.373150 0.193537 0.078714 -0.710508 -0.216778 -0.403373 -0.371893 0.331201 0.045467 0.205853 -0.613862 0.337308 0.065458 -0.606851 0.419573 -0.004584 -0.761531 0.911591 0.016022 0.117556 0.370665 -0.135880 -0.082144 0.688632 0.058440 0.123750 -0.474200 0.528814 -0.119730 -0.458593 -0.126748 -0.791217 0.348408 0.305704 0.201451 -0.509731 -0.711195 -0.388242 -0.093160 -0.590696 0.704940 0.015939 -0.393762 0.833653 0.417341 0.241800 -0.134757 0.076156 0.282130 0.201891 0.396088 -1.005055 -0.020780 0.091546 -0.613579 0.808317 -0.471735 -0.116449 0.318810
GlobalSpecies0081 0.436799 0.475640 -0.515034 0.292709 0.975373 -0.911270 -0.598264 -1.620218 0.026626 0.836671 0.089319 -0.693079 -0.699055 0.692361 0.917894 0.917865 -0.591760 -0.157642 0.471983 -0.148762 0.387211 -0.342186 0.905367 0.440009 0.368889 -1.044065 -0.385437 -0.015332 -0.191477 -0.254325 0.352793 -0.416907 0.171018 -0.351072 0.834170 -0.488543 -0.686024 -0.608546 0.797939 0.266057 0.698278 -0.560791 0.117319 -0.134890 -0.688760 -1.064338 -0.838299 0.318044 0.803544 0.795217 -0.568278 0.278228 -0.134077 0.181869 -0.535765 -0.373370 0.326847 0.616232 0.868860 0.549288 0.360184 0.299087 -0.149137 0.151780 -0.409632 1.098993 -0.632537 -0.722263 -0.056338 0.038595 0.175939 0.132521 -0.544776 -0.287911 -0.376997 -0.109246 0.619465 0.160580 -0.291256 -0.223288 -0.506158 0.619129 0.575694 0.081115 0.179386 0.096340 0.358346 1.556910 -0.169915 0.040437 0.258555 0.478735 0.009629 -0.185334 -0.144714 -0.494913 -0.150307 -0.386095 0.934316 0.258937
GlobalSpecies0082 0.175130 -0.632158 0.026519 -0.046305 0.063163 0.339275 -0.032885 0.124107 -0.074090 0.469613 0.279578 0.094499 -0.346165 0.438821 0.046589 0.095416 -0.099456 -0.322510 -0.337329 -0.784492 -0.175491 0.122340 0.101862 -0.008821 -0.266490 0.198857 0.532371 -0.035468 -0.289781 -0.507678 0.233472 -0.105513 0.324687 0.091661 -0.053065 0.188390 -0.251903 -0.072127 -0.132615 -0.328984 0.714573 -0.602770 -0.243759 -0.206588 0.210129 -0.008175 -0.520538 -0.252320 0.481273 -0.356080 0.351300 -0.030018 -0.070917 0.620367 -0.832636 0.707993 -0.239515 0.215135 0.060121 -0.189105 -0.250525 0.239528 0.317207 -0.345355 -0.056354 0.816079 -0.494224 0.179337 -0.346771 -0.308996 -0.059232 0.824674 -0.777859 0.186846 -0.453129 0.146009 -0.075135 -0.267664 -0.246068 -0.439779 0.415074 0.621914 -0.036675 0.230826 -0.670020 0.193257 0.094641 0.212318 0.567629 0.134283 0.002844 0.024292 0.114771 -0.241610 0.347932 -0.358000 -0.002553 0.084429 -0.260646 -0.309133
GlobalSpecies0083 -0.153068 -0.125169 0.163434 0.377156 -0.769635 0.002844 0.496093 -0.185599 0.387927 -0.799965 -0.146905 -0.298929 0.135440 0.379936 0.164721 -0.281682 -0.066237 0.650450 -0.575981 0.128328 0.246779 -0.198230 -0.561727 0.094429 -0.264502 0.074699 -0.065167 -0.992062 -0.349019 -0.737643 -0.032696 0.178236 -0.419228 -0.006361 -0.448444 0.034744 0.488361 0.407281 -0.512036 -0.003797 0.670945 0.064935 -0.820811 -0.286542 0.643051 -0.083150 -0.396525 0.168933 0.012475 -0.111639 -0.166819 -0.185609 0.089527 0.479509 -0.018476 0.284380 -0.546293 0.246425 -0.692273 -0.164736 0.237288 0.534457 -0.055376 -0.162236 -0.283648 -0.164286 -0.343383 -0.228361 0.001961 -0.389908 0.224446 -0.166445 -0.251847 0.074220 0.611326 0.179004 -0.715166 0.005775 -0.121152 0.770850 0.559939 -0.241071 -0.169860 -0.140627 0.592393 -0.317066 0.372298 0.430200 -0.415086 -0.261339 0.001212 0.101285 0.360063 0.359235 0.358334 -0.035983 -0.347993 0.332237 -0.296943 -0.081859
GlobalSpecies0084 -0.008859 -0.132475 0.203728 0.236591 0.019590 0.055376 -0.104609 -0.248714 0.144674 0.288306 -0.017305 -0.068581 0.423240 -0.090039 -0.419663 -0.586345 0.099251 0.119456 -0.012226 0.079534 0.050689 0.094647 -0.174281 0.330252 -0.191041 -0.171747 -0.025742 0.024005 -0.035436 -0.260759 -0.305937 0.107944 -0.146070 -0.275019 0.110024 0.271240 -0.216966 -0.269528 0.016198 -0.249629 0.140155 -0.288883 -0.279125 -0.013602 -0.016445 0.355297 -0.120629 -0.446003 -0.315710 -0.039858 0.219988 -0.089941 -0.259743 0.586736 -0.477947 -0.100066 0.463622 -0.661598 -0.116363 -0.128685 0.137891 0.293030 -0.130762 0.147318 0.125268 0.026289 0.290246 -0.651651 0.148973 -0.324734 0.123079 0.410050 -0.333897 -0.010666 -0.100628 0.001120 -0.092333 0.206277 -0.356618 0.235738 0.230106 0.244472 0.288867 0.224452 -0.071204 -0.328970 0.313329 -0.361482 -0.301475 -0.493312 0.157154 -0.057663 -0.211212 0.386320 0.140925 0.623514 -0.372079 -0.111505 -0.031011 0.223500
GlobalSpecies0085 -0.041241 -0.345818 0.340534 0.398661 -0.311602 0.107265 -0.218516 -0.574220 -0.506803 0.766569 -0.663264 -0.379238 0.097876 -0.123342 -0.018948 0.894177 -0.745650 0.068868 0.023648 0.843467 -0.319468 0.099134 0.192269 -0.822970 0.653757 0.090460 -0.093592 0.606015 0.014395 0.137078 -0.179869 0.083463 -0.387597 -0.152319 -0.268336 -0.217295 -0.348266 -0.404101 -0.347713 0.148067 -0.542620 1.239662 0.788862 -0.979262 0.416274 -0.420875 -0.373935 0.100723 0.563679 -1.268983 -0.666212 0.242870 0.424114 -0.216110 0.732270 1.083454 0.230558 -0.713679 0.278568 -0.112320 -0.409913 -0.511279 0.247305 0.400217 -0.524891 -0.271772 0.107996 -0.640883 0.721645 -0.995327 -0.263159 0.471302 0.172281 -0.801112 0.374505 0.926303 -0.593321 -0.650014 0.285613 -0.233816 -0.112515 0.241620 -0.112150 0.097785 -0.102321 0.099677 -0.063801 -0.155806 -0.925106 0.218044 -0.069492 -0.569634 0.623389 -0.471661 -0.790552 -0.237985 0.219208 -0.087767 -0.335266 0.428765
GlobalSpecies0086 0.248596 0.242928 0.164907 -0.003249 -0.240827 0.518258 -0.257629 -0.450855 -0.153276 0.665088 0.111773 0.341752 -0.530558 -0.268917 0.594209 -0.687766 -0.213275 0.336203 0.345291 0.178096 -0.172614 0.182049 -0.326491 0.177297 -0.007991 0.248120 -0.225842 0.028611 -0.270362 -0.241632 0.260662 0.162735 0.316959 -0.459590 0.622246 -0.249792 -0.083686 0.530009 0.705607 0.077106 -0.073480 -0.539229 -0.120162 -0.484929 -0.362003 -0.240489 -0.022327 -0.119415 -0.489020 -0.236004 0.232200 0.036167 0.187876 -0.465259 0.135187 -0.501560 0.184671 -0.087818 0.389347 0.290157 -0.308571 0.286486 -0.272232 -0.115835 -0.230076 0.002174 0.287659 0.182233 -0.198837 -0.617209 0.195760 0.312105 -0.310269 0.407931 0.019003 -0.141747 0.050546 0.134377 0.189189 -0.082770 0.960158 0.427455 -0.288422 -0.550352 0.136335 0.117000 -0.398170 0.429648 -0.271874 0.139270 0.061315 0.268677 -0.018608 0.522766 0.340946 -0.321921 -0.790852 0.066466 -0.163148 0.222726
GlobalSpecies0087 0.039297 0.007526 0.285698 0.236583 -0.120936 -0.112821 0.312723 -0.061226 -0.097690 -0.145520 0.136002 -0.004668 0.232212 0.217020 0.086666 0.128153 -0.055949 0.047436 0.281163 -0.280810 0.231136 -0.040949 -0.277229 0.038478 -0.267062 0.050637 0.047914 0.075763 0.229725 -0.114700 0.197596 0.007109 -0.449495 -0.139596 0.039352 -0.036234 0.098435 0.190326 -0.036996 -0.159449 0.112736 0.199705 -0.202336 0.156318 0.113701 0.119786 -0.158647 -0.023362 0.215094 -0.210383 0.173532 -0.178666 -0.165722 0.484291 -0.198441 -0.157810 -0.245288 0.130507 0.139142 0.400748 0.238115 -0.180205 -0.351565 0.320253 0.176730 0.119189 -0.083856 -0.130711 -0.137856 -0.246445 0.203493 0.191815 -0.246588 0.110772 -0.052601 0.014295 -0.291720 0.239796 -0.106476 -0.162129 -0.236869 0.133654 -0.416020 0.074466 0.054599 0.235049 -0.017460 0.109541 -0.104314 -0.005188 0.123233 -0.110524 0.197936 0.221405 -0.188904 0.038767 -0.274665 -0.116794 0.242980 -0.086727
GlobalSpecies0088 -0.941124 -0.362537 0.318020 0.198454 -0.059503 0.027649 0.276407 0.818242 -0.619094 0.694252 -0.140915 0.409385 0.324201 -0.080693 0.492434 0.709243 0.387389 0.318517 -0.826089 -0.134033 -0.371049 -0.156761 0.401713 -1.017609 -0.004549 -0.288259 0.864460 -0.108781 -0.845374 -0.229392 -0.809640 -0.267293 0.642838 -0.184303 -0.008308 0.065848 0.017620 0.038496 -0.242880 0.533604 -0.642397 0.237936 0.104078 -0.234073 -0.224324 -0.302294 0.659125 0.115927 0.423013 0.245577 0.478834 -0.735889 0.236962 0.551347 0.426274 0.356172 0.013990 -0.248216 0.600208 -0.541071 0.541155 0.307546 0.199725 -0.018161 0.343577 0.442174 0.156019 0.280218 1.067928 0.006954 -0.317767 -0.940971 -0.902493 -0.481153 0.416889 0.252925 -0.211425 -0.493395 -0.181517 0.036710 0.204660 0.451243 0.576617 0.361101 0.440107 0.916479 0.210494 0.939996 -0.341419 0.315577 -0.807376 0.155105 1.192660 0.473414 0.226522 -0.265856 -0.724785 0.797832 0.036059 0.320056
GlobalSpecies0089 1.765668 0.133670 -0.583437 0.082504 0.039568 0.144989 0.793443 0.351256 1.558739 0.730240 -0.437501 0.534403 -2.252419 1.296953 -1.272388 -1.202345 -1.332646 0.362816 0.072579 1.792913 -0.095111 -0.483786 0.768006 -0.671676 0.217402 0.701439 -0.913591 0.128262 -1.300670 0.300459 0.856873 -0.162916 0.280763 -0.376931 -0.973081 1.695559 0.342306 1.239825 0.294901 -0.573257 0.619302 0.921121 -0.420976 -0.501946 -0.257104 0.059978 -0.785441 0.766221 1.040910 0.616669 0.261593 -0.719156 0.714460 0.918632 -0.272197 1.261265 1.181619 0.455885 -0.517159 0.436292 -0.435136 -0.648687 0.316297 0.572975 -2.239183 -0.103408 -0.486041 0.516259 0.769653 0.091777 -0.494894 0.467297 -0.278209 -0.435930 -0.465033 -1.090384 0.246815 -0.646669 0.453610 0.918376 -1.896876 -1.195463 0.533987 -0.350921 0.690142 -1.563846 -0.699390 -0.282619 -0.761617 0.326348 1.159219 0.145293 -0.092667 -0.544909 -0.159192 -1.155871 -0.945061 -0.829309 -0.107281 -0.154984
GlobalSpecies0090 0.048011 0.520396 -0.763038 0.948161 0.083741 0.869375 -0.395401 0.517567 -0.079915 0.171445 0.449475 0.579616 -0.343792 0.715943 -0.383484 0.180101 0.572426 -0.568508 -0.191294 -0.353771 0.332985 -0.037319 -0.572806 -0.238699 -0.374157 0.223408 1.185404 0.471928 -0.237532 0.786263 -0.165490 -0.118138 -0.154333 -0.713790 -1.000416 0.633774 0.044289 -0.116168 -0.439020 0.558242 -0.450455 -0.196314 -0.573547 -0.207657 -0.888977 -0.245556 -1.031350 0.049429 0.003454 0.263802 0.012750 0.457283 -0.936033 -0.534118 -1.054517 0.058422 -0.449709 0.071343 0.855968 -0.748553 -0.428350 -0.228399 -0.350993 0.293461 -0.489735 -0.367047 0.627979 0.213271 0.391601 -0.030085 0.489630 -0.463584 -0.316961 -0.403292 0.494379 0.406613 0.164345 -0.272198 -0.277731 -1.110626 0.323357 -0.288023 -0.100299 -0.398520 -0.073097 -0.437283 -1.032997 0.291622 0.032290 -0.371385 -1.240326 0.041305 -0.802607 -0.020055 0.569581 -0.205963 0.377604 0.608297 0.250416 0.130617
GlobalSpecies0091 0.114416 -0.924048 0.321315 -0.761013 0.394423 1.430869 0.059239 0.956886 0.661179 0.189793 0.405376 -0.565341 0.496449 0.969978 -0.309034 0.202363 0.562057 0.178701 0.342658 0.106628 -0.978830 0.622771 0.905295 -0.050852 -0.895169 -0.502319 0.320300 0.052322 -0.133026 -0.012335 0.219470 -0.114877 0.266767 -0.112450 0.588830 -0.880602 -0.704485 0.050669 0.520277 -0.514195 -0.586000 0.489729 0.412913 0.241313 -1.564454 0.767809 -2.168858 0.192251 -0.505596 -0.159588 0.212272 0.425079 1.184150 -0.358902 0.412901 0.304904 0.322359 0.522480 -0.453929 0.269607 -0.334108 -0.267620 -0.725876 -0.441047 -0.348245 -0.481087 0.701595 -0.229388 -0.849303 -0.027432 -0.078964 0.145055 1.024834 0.419763 -0.265429 0.097413 -0.098073 -1.334557 -0.552016 -0.659340 -0.073019 -0.243635 0.336959 -0.272509 1.407779 -1.127092 -1.106537 0.334583 -0.465241 0.640643 -0.427721 -0.836801 -0.091290 -0.677528 0.631608 -1.437764 0.220886 -1.178214 0.601940 -1.380301
GlobalSpecies0092 0.342785 0.344101 -0.007367 0.134839 -0.234516 0.001055 0.135165 -0.099131 0.117510 -0.063821 0.058345 0.578163 0.224637 0.357788 0.067956 0.236501 -0.054927 0.007679 0.305164 -0.278137 -0.153865 0.371980 -0.103628 -0.152875 0.291465 -0.082103 0.113185 0.362329 0.507277 -0.147398 -0.029585 -0.157906 0.097541 0.267845 0.234663 0.414622 0.471987 0.133691 -0.163292 0.240303 0.188971 0.057692 -0.031012 0.741137 -0.005428 -0.042002 0.179765 -0.472248 -0.094775 0.040259 0.221415 -0.339035 0.142023 0.301301 0.183074 0.428245 0.283469 0.372089 0.155028 0.106545 -0.041111 -0.399252 -0.023593 0.521015 0.345599 0.134471 0.062388 -0.242763 0.003139 0.426906 0.042482 0.251165 -0.079223 0.064108 -0.090758 -0.541959 -0.314239 0.156210 0.459954 0.283412 -0.155512 -0.618356 0.087796 0.323564 -0.067649 0.391227 0.459018 0.039135 -0.048271 -0.274075 0.109614 0.453570 0.060865 0.374790 0.207188 0.256736 -0.011213 0.061002 -0.068664 -0.135738
GlobalSpecies0093 0.087804 0.045789 -0.100499 -0.459063 0.235482 0.122783 0.212103 -0.233633 -0.292168 -0.299613 0.093936 0.101571 -0.139086 0.179964 -0.054581 0.129723 0.211470 0.088127 0.050278 -0.120188 -0.041911 0.106081 -0.250708 -0.371700 0.484150 -0.089220 -0.039963 0.152833 0.097323 0.175992 -0.208967 -0.151954 0.077466 0.218112 -0.374073 -0.032644 0.407370 -0.069711 -0.124815 0.030348 -0.360748 0.154243 0.023086 -0.207076 0.220609 -0.248402 0.051615 0.242649 0.418625 0.203114 0.096715 -0.157473 0.071268 -0.125637 0.137419 -0.510381 -0.461040 0.076601 -0.076588 0.161399 0.106921 0.453738 0.079575 -0.139723 -0.123461 -0.449567 0.135582 -0.566841 -0.337383 0.047542 -0.287451 -0.129552 -0.189284 -0.012231 0.019588 -0.041554 0.077499 -0.098329 0.084207 -0.496586 -0.020525 -0.315338 -0.248903 -0.014545 -0.240463 -0.015536 0.109038 -0.111893 -0.265723 -0.658873 -0.314501 -0.325190 -0.235135 0.019542 0.127383 0.522492 0.085445 -0.164071 0.414304 -0.144857
GlobalSpecies0094 0.026673 0.051676 0.006147 0.016116 0.121705 0.184561 -0.170588 -0.051741 0.152564 -0.092774 -0.324068 -0.415956 -0.154312 -0.346427 -0.197773 0.139757 0.001503 -0.147705 -0.018589 0.081602 0.271939 -0.174889 -0.093753 -0.104367 0.002053 -0.118228 0.047167 0.433033 0.162877 -0.193338 0.153010 -0.175596 0.314932 0.143544 0.117515 0.358569 -0.276850 0.215154 -0.160380 0.084305 0.116100 -0.337363 -0.007115 -0.080675 -0.137525 -0.063969 -0.020832 -0.034334 -0.053087 -0.112898 -0.000205 -0.195277 -0.055646 0.118975 0.003022 -0.046631 -0.140591 0.583759 0.092280 -0.022892 -0.106327 0.181648 0.035277 -0.135188 -0.143893 0.139422 -0.015401 0.041653 -0.314916 0.262359 -0.205224 0.065549 -0.351713 -0.046494 -0.082083 0.249126 -0.233799 0.079339 0.025962 0.164310 -0.176913 0.285412 0.099263 -0.137621 -0.115464 -0.179604 0.521038 -0.109474 -0.046341 0.240160 0.085169 0.265752 -0.136667 -0.025404 0.061194 0.012107 0.043514 -0.163161 0.336771 -0.167695
GlobalSpecies0095 0.750367 -0.297168 -0.039528 -0.043958 -0.175260 -1.561479 1.050861 1.295510 -0.012385 -0.416834 -0.659537 0.198733 -1.071225 -0.220252 0.618300 0.348641 -0.956534 -0.427548 0.047791 -0.583930 0.602151 0.099019 -0.684779 0.444888 -0.058044 -0.420228 -0.247024 0.689622 1.074478 0.307684 -1.216436 -0.485888 -0.248605 -0.765391 -1.383822 0.262460 0.758674 -0.802242 1.467701 0.527710 0.675923 0.576801 0.760113 -0.152175 -0.412129 -0.065795 -0.040814 0.290267 0.016929 1.375438 1.244282 0.127311 -0.710503 -1.452480 -0.220395 -0.316358 1.290157 1.168270 -0.594169 0.911624 0.337496 -0.713840 -0.390543 -0.912514 -1.702615 0.532743 1.020397 0.653838 0.966239 -0.591602 -1.638185 -0.549261 -0.496489 1.549363 0.873404 1.810057 0.240927 2.574417 -0.522666 1.063114 0.144904 -1.358743 0.126671 -0.572237 0.689589 -0.484396 -0.358850 1.051662 -2.059321 0.689217 1.228798 -0.381458 -0.232794 0.541189 0.334116 -0.843595 0.105917 0.791106 -1.134459 0.665228
GlobalSpecies0096 0.373513 0.009562 -0.043588 -0.441851 -0.115856 -0.404665 -0.370320 0.681898 0.033952 0.312188 0.107938 0.051640 0.103894 -0.390362 0.426112 0.446062 0.007086 -0.155383 0.066308 -0.713351 0.058110 0.137326 0.424427 0.182024 0.122163 -0.452988 -0.293104 -0.157733 -0.257561 0.098992 -0.048711 0.363257 0.247099 0.593803 0.486479 -0.017556 -0.429046 -0.101187 -0.654326 0.217888 -0.163279 -0.095838 0.230729 0.137098 -0.106903 0.184102 0.015941 0.157706 -0.223003 0.194595 0.498447 -0.445515 0.255367 0.339247 -0.521936 0.037327 -0.007994 -0.302935 -0.148354 0.161702 0.417867 -0.103826 0.033528 -0.529175 -0.301981 -0.440033 0.549575 0.402176 0.130634 0.124223 -0.165577 -0.802274 -0.392309 -0.308513 0.467951 0.387456 0.288928 -0.004706 0.259124 -0.029100 -0.440294 0.324432 0.079367 0.118539 0.022392 -0.375398 0.483984 -0.690575 0.048670 0.206260 -0.090796 -0.066131 0.078901 0.290338 0.549718 -0.709114 -0.086843 0.099312 0.519007 0.268920
GlobalSpecies0097 -0.322511 -0.246596 0.590861 0.692389 0.031394 0.273483 0.697338 0.943220 0.577353 -0.101299 -0.881546 0.245723 0.117898 -0.401415 0.813020 0.079606 -0.705986 0.310444 -0.960197 0.261606 -0.221677 -0.396742 0.277839 1.180341 0.163639 -0.362101 0.076714 0.539339 -0.805868 -0.371724 0.059189 -0.306186 0.074183 -1.435708 -0.159392 0.203675 -0.723628 -0.595303 1.322027 1.042461 1.025451 0.582750 -0.414199 0.130321 0.679657 -0.271741 -0.540491 -0.727002 -0.020691 0.217516 0.825246 1.261694 -0.429814 0.333713 1.157685 0.685739 0.116341 0.276048 -0.306356 0.010272 -0.231088 0.629215 0.123599 -0.002611 0.288385 -0.197457 1.195468 0.181979 1.008077 -0.229003 1.034074 0.210759 -0.495960 -0.301223 0.329054 0.445808 0.322360 -0.650306 0.314260 -0.207529 0.070100 1.219107 -0.153314 0.353500 0.837806 -0.095323 -0.250943 0.180365 -0.016716 -0.653248 0.309312 -0.118853 -0.575847 -0.494674 -1.386654 -0.485935 0.266489 0.205618 0.125982 0.657439
GlobalSpecies0098 -0.003277 0.066249 -0.298982 -0.145989 0.326018 0.362202 -0.392554 0.037426 0.146713 0.023132 0.118381 0.426034 0.243653 0.068774 0.075692 -0.097606 0.304913 -0.057976 -0.264821 0.167095 0.053341 0.433790 0.193981 0.083822 0.591850 -0.495746 -0.002993 -0.378443 -0.024824 -0.117880 -0.210360 0.167174 0.131126 -0.084016 0.037318 -0.175896 -0.112276 0.379202 0.242353 0.208417 -0.159677 -0.625666 0.128884 -0.236132 0.288770 0.311450 -0.116693 0.282697 0.345319 -0.062919 -0.149210 0.400049 -0.022125 -0.340272 0.292891 -0.509039 -0.114986 -0.188221 0.355286 -0.280556 -0.214510 -0.138768 -0.180530 0.330195 0.159269 -0.024887 0.318125 0.200103 0.230152 -0.109159 -0.304565 0.497212 -0.030240 -0.032513 -0.306948 0.053283 0.328070 0.294397 0.027011 0.027826 0.169467 0.252380 0.209446 -0.418850 -0.267945 -0.011210 -0.142292 0.059758 -0.246306 -0.124752 -0.093906 -0.129165 0.224981 -0.293532 0.135679 0.191904 0.225734 0.408778 0.105416 -0.268141
GlobalSpecies0099 0.357266 0.428830 0.507401 0.663034 0.148385 0.269829 -0.104240 0.022377 -0.204770 -0.078710 -0.374957 -0.427006 -0.021689 -0.528582 -0.248438 0.029291 0.361767 -0.017875 0.294625 0.232567 -0.053812 0.300322 0.254500 -0.639555 -0.359320 0.315773 0.081151 0.274525 -0.264765 -0.053564 -0.313630 -0.022439 -0.461092 0.272292 0.199296 -0.281832 0.096015 0.192242 -0.415043 -0.165292 -0.052696 0.023986 -0.059670 0.138853 0.387956 -0.664900 -0.062698 0.033694 -0.303931 -0.053209 -0.303656 0.172377 -0.165149 0.284781 -0.004283 0.141360 0.235271 -0.491681 -0.030103 -0.153368 -0.319454 -0.130723 0.065623 -0.322883 -0.396898 -0.557464 0.345780 0.148705 -0.272719 0.167412 0.174894 0.298455 -0.309880 0.363956 -0.409680 0.054134 0.045166 -0.447324 0.358060 -0.308011 0.126865 -0.203300 0.134916 0.383857 0.294202 0.304182 0.355941 -0.077597 -0.139495 -0.530072 -0.001025 0.223894 -0.296342 -0.557255 0.471153 0.323703 -0.975881 -0.081268 0.192232 -0.293075
GlobalSpecies0100 0.119956 0.114964 0.216728 0.045737 -0.000914 0.550893 -0.088647 -0.252837 0.380433 -0.021717 -0.007108 0.040308 0.343742 -0.083628 0.002050 0.340901 -0.268619 0.073417 0.010108 0.175159 -0.073383 0.112743 0.100777 -0.059779 -0.482679 0.125008 0.034408 0.317674 0.203664 0.067729 0.854519 -0.330485 0.002262 0.315760 0.180385 0.060980 0.260376 -0.229513 0.172275 -0.214004 0.017274 0.198207 -0.046251 -0.362203 -0.187638 -0.284212 0.101907 0.228167 -0.200853 -0.272658 0.385924 -0.091765 -0.364991 0.130261 -0.024004 0.391657 0.164879 -0.104492 0.022062 0.032095 -0.287249 0.323207 0.354017 -0.174638 -0.125430 -0.027332 0.044362 -0.381193 -0.130173 -0.454931 0.285763 0.282989 -0.019368 -0.355339 -0.404922 -0.281264 -0.028039 0.082751 -0.059705 -0.268395 -0.367089 0.798282 -0.038737 0.030517 -0.138603 -0.327803 0.006437 -0.122329 0.173430 -0.235665 0.119993 -0.149575 -0.328261 0.124183 -0.080222 -0.138188 0.308086 0.552274 0.190126 0.052197
GlobalSpecies0101 -0.218925 -0.033176 -0.049596 0.022514 0.415998 0.116914 -0.194774 -0.054582 0.148316 -0.218403 -0.170968 -0.077234 -0.243203 -0.283278 -0.158486 0.050675 0.148967 -0.304348 0.035572 -0.396679 0.475459 0.202808 -0.051434 0.177253 -0.264483 0.147570 -0.137691 -0.088006 -0.305459 0.030395 -0.024167 -0.146505 -0.226570 0.154226 -0.068404 0.129220 -0.190808 0.117881 0.073647 -0.144769 0.150453 -0.270085 0.079744 0.036043 0.202472 0.165699 -0.177578 -0.112300 -0.000449 -0.045731 -0.060203 0.118924 0.017388 -0.051531 -0.161933 -0.046170 -0.069323 0.118187 0.299916 -0.064996 -0.084106 0.254805 -0.264940 0.116324 -0.033928 0.157967 -0.078615 0.072582 0.112772 0.122771 0.033398 0.078013 0.081428 0.196890 -0.443008 0.014699 -0.108546 -0.029107 0.022692 0.106917 -0.117119 0.011058 0.236979 -0.155448 -0.288324 0.241619 0.067852 -0.025023 0.021414 0.318410 -0.081157 0.033158 -0.027773 0.189554 0.014841 0.275860 -0.167913 0.242375 0.081499 -0.017705
GlobalSpecies0102 0.264621 0.060438 -0.143635 0.013612 -0.030965 0.138301 -0.128325 0.353123 0.136143 0.271030 0.530031 -0.502901 -0.239728 -0.206160 0.200371 -0.038774 -0.317471 -0.019293 -0.429597 -0.120870 0.389360 0.184043 0.201813 -0.520235 -0.075264 -0.241112 -0.086047 0.023021 -0.045206 0.067049 -0.062244 -0.355464 -0.041301 -0.502975 -0.165671 0.099283 -0.346513 0.021784 -0.045392 -0.015561 0.240892 -0.135523 -0.124357 -0.123203 0.162167 0.321229 0.615545 -0.031578 0.427389 0.095458 -0.336094 -0.143642 0.348884 0.046300 0.248143 -0.091300 0.011766 0.195253 0.464942 -0.164303 -0.000532 0.522895 -0.110863 0.727451 0.098059 -0.121376 -0.003080 0.691617 0.277777 -0.389569 -0.163930 0.685623 0.318887 0.091966 -0.433444 0.184987 -0.128803 -0.177390 0.155169 -0.317229 0.757163 0.159225 0.153378 -0.647085 0.384612 0.194397 -0.495478 -0.393437 -0.245467 0.082553 -0.133906 -0.569450 -0.447838 0.512120 0.317674 -0.060249 -0.239567 0.445642 0.196642 0.191811
GlobalSpecies0103 0.307629 -0.172150 0.033603 -0.007571 0.239460 0.281206 -0.341581 0.126304 0.448754 0.301306 0.034567 0.005475 0.124592 -0.142126 0.541747 0.210431 0.165535 -0.467420 -0.151964 0.477865 0.070326 0.302098 -0.389951 0.100192 -0.290668 -0.456330 -0.232590 -0.119914 0.122395 0.008195 -0.185048 -0.125048 0.184057 -0.076891 -0.265406 0.356080 -0.090908 0.005644 0.267050 0.162341 -0.230694 -0.215852 0.172006 0.392770 0.010457 -0.085675 0.218846 0.525487 -0.369329 0.306594 0.141416 0.496220 0.046579 0.036501 0.043122 -0.309991 0.105843 -0.387834 -0.067570 0.009064 -0.210332 0.225767 -0.601180 0.203246 0.202061 -0.154771 -0.156995 0.106976 -0.201267 -0.041507 0.079417 0.002098 -0.014394 -0.046641 0.063816 0.094539 -0.400272 -0.041254 -0.131501 0.065841 0.471208 0.134710 0.172835 0.369165 -0.358228 0.096473 0.662005 0.306480 0.263439 -0.016020 0.480962 0.250150 -0.101693 0.451277 0.249152 0.118799 0.296153 0.333396 0.312100 -0.071023
