GlobalSpecies0001 0.019700 -0.135915 -0.037991 -0.025865 -0.086852 -0.063965 0.078126 -0.241653 0.175096 -0.185330 -0.013923 -0.272678 0.059316 0.150997 0.010705 -0.072216 0.023068 0.161453 -0.070302 -0.010715 0.264569 -0.056178 -0.049195 -0.102207 -0.050815 0.337358 0.151772 0.057751 0.003560 0.081134 0.552139 -0.075160 -0.055821 0.132797 0.044469 0.109847 -0.029064 -0.432637 -0.205292 0.125790 -0.266294 -0.035583 0.222556 0.105198 0.060142 0.065863 0.078750 -0.330476 -0.085652 -0.091155 -0.003795 -0.049663 0.146138 0.032047 -0.017192 -0.025020 -0.019560 0.001040 0.302630 0.227267 -0.222020 -0.294499 -0.196857 0.050159 -0.078701 -0.016925 0.172403 -0.116508 -0.003933 -0.013713 -0.134313 0.208112 -0.111452 -0.014608 -0.169905 -0.108260 -0.072338 0.033829 -0.153168 -0.099888 -0.154840 -0.110197 0.181432 0.199713 -0.274992 0.035755 0.359594 -0.100173 -0.073907 0.170020 -0.154683 0.073120 -0.325462 0.034497 -0.262524 0.045224 0.078739 0.085877 -0.205815 0.073851
GlobalSpecies0002 0.152718 0.108624 0.030516 0.015954 0.184587 0.070009 -0.010824 -0.031461 0.119814 0.077106 -0.134691 0.039780 -0.102882 0.094168 -0.053795 -0.504811 -0.027804 0.291746 0.093500 0.123400 0.199100 0.114378 -0.088850 0.068587 0.074078 0.020067 0.042624 -0.073152 0.055667 -0.110861 0.041878 0.045506 0.059474 -0.080458 0.133701 -0.029555 0.114742 -0.157030 -0.007873 0.305483 0.094023 -0.085529 0.006365 -0.053198 0.143305 -0.064016 -0.030968 0.026933 0.109260 0.067394 0.107194 -0.193564 0.173854 0.062312 0.024178 -0.033867 -0.150432 0.173945 0.038308 0.052841 0.231003 0.125883 -0.249510 0.048951 0.027261 0.173690 0.211086 -0.137280 -0.139844 -0.022691 -0.044930 0.282960 -0.138548 -0.096142 -0.040683 -0.116754 0.192409 -0.022495 -0.006148 -0.198729 -0.082309 -0.055048 -0.067179 0.039182 -0.107675 0.016040 0.004843 -0.183305 -0.019954 0.079424 0.071520 -0.059787 -0.017735 0.025395 0.009098 -0.002131 0.012197 -0.060015 -0.074621 -0.227538
GlobalSpecies0003 0.295295 -1.315257 -0.535996 0.238892 -0.278999 -0.089217 0.347606 -0.067445 0.346062 0.034163 -0.034355 0.199407 0.035300 -0.455088 0.098864 0.309233 -0.013494 -0.257908 0.035275 0.084603 0.155688 -0.073832 0.095814 0.165238 -0.312039 0.137068 0.296284 0.115235 -0.180842 -0.032181 -0.613134 0.428372 1.028891 -0.148436 -0.200788 -0.490342 -0.201168 0.249991 0.362007 -0.241688 0.017314 0.196200 -0.205819 0.108908 0.254903 -0.366543 -0.396197 0.416432 0.290273 -0.579048 -0.554419 0.275111 0.059516 -0.055032 0.232996 0.178408 0.197381 -0.112354 0.384860 -0.084388 -0.203551 0.246952 0.015445 0.138795 0.198589 -0.265101 -0.353131 -0.454686 -0.412873 0.104175 0.311724 0.085246 -0.262625 0.146385 -0.169343 0.118942 0.078289 -0.251345 0.258474 0.388343 0.386100 0.839795 0.403070 -0.316087 0.087028 -0.300593 -0.503914 0.355339 0.413442 -0.332037 0.078227 0.127939 0.304292 0.047320 -0.152118 0.002176 0.078949 0.233104 0.248085 0.609454
GlobalSpecies0004 -0.178890 -0.159833 0.080163 0.282127 -0.004777 -0.043732 0.142773 -0.021199 0.003220 0.053468 -0.251143 -0.020141 -0.016747 0.059084 -0.216895 -0.128409 0.119916 -0.171963 0.069794 -0.143148 0.078507 -0.195996 0.006999 -0.345906 -0.115209 -0.046031 -0.031016 -0.182793 -0.005036 -0.114744 -0.179010 0.167046 0.029379 0.015225 -0.190487 -0.056416 -0.139027 0.084189 -0.028656 0.024040 -0.053670 -0.078056 0.292019 -0.233781 -0.007512 -0.030192 -0.143263 0.253729 0.114905 -0.038204 -0.068220 0.037779 -0.196727 -0.054435 0.173249 -0.241884 -0.088334 0.124522 -0.314592 -0.223244 0.009623 -0.031682 -0.026454 -0.024739 0.174320 -0.061856 0.102428 0.145259 0.089325 0.087527 0.179452 0.021493 -0.220983 -0.121642 0.001737 0.242794 -0.149735 -0.030347 0.000122 0.101942 0.183695 -0.112167 0.012522 -0.247501 0.454313 0.103266 -0.079782 0.338448 0.196216 -0.062743 0.018140 -0.173923 0.236828 0.069904 0.105731 -0.031567 -0.005706 -0.297669 0.113701 -0.066612
GlobalSpecies0005 -0.233165 0.150011 -0.179018 -0.248113 0.055267 -0.114204 -0.452378 0.318190 0.046948 0.136030 -0.080964 -0.200558 0.302979 -0.103140 0.105855 -0.210494 -0.310028 0.228061 -0.128398 -0.217777 0.061418 -0.097771 -0.220382 0.352489 0.086507 -0.003050 -0.010836 0.119567 0.269526 -0.031196 0.186447 -0.176275 0.158385 0.201005 -0.008972 0.165543 0.042909 -0.063185 0.034287 -0.041234 0.106611 0.361862 -0.065954 -0.028619 -0.129973 0.289286 0.053343 0.045402 -0.050656 -0.095669 -0.199486 -0.113838 0.293765 0.060524 -0.213867 0.457290 0.000645 0.162774 0.193966 0.194844 -0.023966 -0.228136 0.122043 0.017524 0.190434 -0.221314 0.097621 0.464492 -0.375014 -0.020310 -0.084889 -0.280592 0.128786 0.132808 -0.074239 -0.037903 -0.078307 0.116292 0.076439 -0.382073 -0.153978 -0.140026 -0.239865 -0.412579 -0.178490 -0.022532 -0.029857 0.063210 -0.113441 0.237685 -0.022033 0.105049 -0.176929 0.035741 0.322979 -0.024519 -0.028485 0.108262 0.161750 0.038349
GlobalSpecies0006 -0.210421 0.147427 -0.330334 -0.111389 -0.030082 0.016788 -0.468775 0.343002 -0.104904 0.133099 -0.079084 -0.176885 0.129777 -0.030756 0.050072 0.111554 -0.163339 0.240146 0.021764 -0.324164 0.319026 -0.312296 -0.297558 0.165826 0.165742 -0.140538 -0.347418 0.122721 0.080437 -0.193660 -0.037695 0.284123 -0.011815 0.323748 0.116748 0.044488 0.084830 0.275173 0.154746 -0.375220 0.060519 0.045289 -0.161546 0.005134 -0.240534 0.313753 -0.344305 0.130796 0.008361 0.209924 -0.160660 0.050066 -0.021681 0.011502 -0.165837 0.557991 0.206378 0.154889 0.217131 0.403420 -0.094992 -0.303973 0.352416 0.021539 0.158122 -0.332116 -0.371715 0.466025 -0.296292 -0.123768 0.094025 -0.271199 -0.164122 -0.197178 0.035601 0.230266 -0.005286 -0.218194 0.265883 -0.331180 -0.196486 -0.060412 -0.239713 -0.440337 -0.189624 -0.118026 -0.108249 0.300491 -0.209744 -0.149129 -0.033107 0.346816 -0.034285 -0.028017 0.231583 0.060599 0.101080 0.029157 0.314536 0.033973
GlobalSpecies0007 -0.135395 -0.212812 0.013802 0.079238 -0.025036 0.062763 0.028522 -0.168000 -0.269549 0.183210 0.033924 -0.049017 -0.083153 0.111599 -0.584447 0.147930 0.131875 -0.387349 0.023138 -0.355515 -0.176389 -0.139437 0.175802 -0.323510 -0.213600 0.035351 0.134740 -0.027113 -0.046164 0.036087 -0.020870 0.058401 0.015527 0.111184 -0.255047 0.077311 -0.005182 0.067485 0.139507 0.066601 -0.132138 -0.023523 0.219530 -0.113821 0.176702 -0.056214 -0.292568 -0.063552 0.215328 -0.024889 -0.046728 -0.083324 -0.222421 -0.200845 0.216370 -0.140768 0.505297 -0.186435 -0.021297 -0.166917 -0.046944 0.096887 0.412388 -0.188788 0.397619 -0.046932 -0.202898 -0.006548 0.306158 -0.097266 0.101398 -0.063969 0.050148 0.211779 -0.162230 0.272453 0.023790 -0.187028 0.070119 0.143382 0.007653 -0.287183 -0.331680 -0.169050 0.100950 0.262050 -0.439465 0.180916 -0.115279 0.138478 0.148161 -0.101782 0.646229 -0.087491 0.006821 -0.045759 -0.257224 -0.016287 0.262299 0.147740
GlobalSpecies0008 -0.159621 0.302026 0.377057 -0.466725 0.174056 0.087089 0.257308 -0.064894 -0.235471 -0.155454 -0.017368 0.035737 0.038864 0.057994 -0.357961 -0.251938 -0.166444 -0.172848 -0.053687 -0.139443 0.449060 -0.060384 -0.363237 0.004054 -0.255644 0.106208 -0.021344 0.079424 0.000007 0.110830 0.222978 -0.057386 0.006012 -0.170921 -0.395549 0.094937 0.003298 -0.230171 -0.254915 0.055034 -0.392444 -0.194022 -0.052886 0.337655 -0.226089 -0.260228 -0.202772 -0.308181 -0.244592 0.196846 -0.126175 -0.329328 0.514843 0.185591 -0.077338 0.119861 -0.002643 -0.118948 0.041821 -0.169701 -0.254873 0.040205 -0.091923 0.151598 -0.088316 0.284859 0.433420 0.165998 0.037329 -0.197890 -0.419861 0.598482 -0.011326 0.383242 -0.564855 -0.393952 0.170429 0.407687 -0.211631 -0.418690 -0.345444 -0.039506 -0.217187 0.719399 -0.393479 0.011219 0.241372 0.019689 -0.356825 0.555277 -0.339077 0.212341 -0.105954 0.103708 0.202818 -0.067084 0.438850 -0.021293 -0.236496 0.093633
GlobalSpecies0009 0.257824 0.226802 -0.241574 -0.239736 -0.200083 -0.062102 -0.306731 -0.025117 -0.311713 0.324595 0.007483 0.225691 0.352763 0.181384 -0.090625 0.750790 0.051811 -0.111413 -0.433625 0.083444 -0.238193 0.182455 0.020505 0.039591 -0.161568 -0.129715 -0.377136 -0.219576 -0.060753 0.101902 -0.277648 -0.083144 -0.206646 -0.346801 0.069879 0.289672 -0.249585 0.467548 -0.104190 -0.092707 -0.102645 -0.033644 -0.255533 0.388127 0.233147 0.322147 0.049675 -0.119529 0.407696 -0.153604 -0.063321 0.156682 -0.692980 -0.024310 -0.129023 0.034736 0.167459 -0.265472 -0.390977 0.113755 0.316065 0.062760 0.065467 -0.082238 -0.076603 -0.221012 -0.305050 -0.113718 -0.087841 -0.218473 0.180899 -0.009478 -0.002576 0.209578 0.016812 0.068845 -0.104844 -0.133375 0.027795 0.188637 0.168423 0.059684 0.161299 -0.190350 0.407485 -0.417130 -0.123664 -0.276228 0.025248 -0.160440 0.099838 -0.075654 -0.001801 -0.145598 -0.288705 0.016796 -0.447727 0.047725 0.131803 0.018554
GlobalSpecies0010 0.074178 -0.030014 0.140583 0.140130 -0.094236 0.060353 -0.223557 -0.136910 0.109427 -0.173832 0.187031 0.166786 -0.031743 -0.194524 0.122299 0.320292 -0.076982 0.037921 -0.170185 -0.012048 -0.189166 -0.085926 0.008578 -0.009676 0.300827 -0.165332 -0.057117 0.038856 -0.189315 0.017683 0.072733 0.060451 0.042998 0.186265 -0.020524 -0.109296 0.027587 -0.081014 0.098750 -0.024091 0.245853 0.062419 0.048496 -0.023514 -0.298394 -0.182814 0.186462 -0.048581 0.068125 0.262111 0.024405 -0.029140 0.107462 0.038115 -0.191390 -0.159273 -0.035269 -0.176960 -0.189100 -0.098237 -0.081308 0.077573 0.269437 0.165734 0.004400 0.184910 0.011852 0.127190 0.150697 0.020756 0.151820 0.135866 0.064441 -0.086600 -0.045508 0.156013 0.051090 0.056840 -0.262229 -0.206683 -0.126247 0.030926 -0.095344 -0.033221 0.043022 0.063324 0.286666 0.050233 0.200112 -0.010352 0.015931 -0.062380 0.013788 -0.055745 -0.110066 -0.016100 -0.147766 0.096991 -0.026936 -0.140123
GlobalSpecies0011 0.399481 -0.003841 -0.396310 -0.025010 0.451804 -0.509324 0.299191 0.040133 0.314506 0.766008 0.153308 0.037490 0.711040 0.496212 0.261979 0.859748 -0.080069 0.255899 0.533918 0.222881 -0.037599 -0.536902 0.721623 0.535907 -0.320851 -0.442484 -0.159662 -0.027003 0.276466 -0.094760 -0.990192 0.345744 0.412562 0.005573 -0.065545 0.104295 -0.413395 0.070591 -0.034890 0.268788 -0.160112 -0.070368 -0.680688 0.139768 0.294080 0.196119 -0.179880 0.585350 -0.004895 0.010842 -0.734548 0.364866 -0.908138 0.670277 0.672817 0.809418 0.774343 0.127562 0.180261 0.488074 -0.796631 0.411154 -0.427061 0.605220 0.325257 0.114214 0.100050 0.332588 0.020141 -0.088217 -0.132631 -0.288730 -0.283568 -0.128075 0.535588 0.280643 0.949051 -0.047516 0.217500 0.204684 0.105958 0.048397 -0.144368 -0.303999 0.284255 -0.263675 -0.010054 0.263589 -0.365108 -0.565729 -0.409218 -0.525532 0.261718 -0.122592 -0.527828 -0.092984 -0.048469 -0.123162 0.139966 -0.153718
GlobalSpecies0012 0.782762 -0.440017 -0.226194 -0.163384 0.302222 -0.183364 0.037296 -0.301190 0.101882 0.471436 -0.170168 0.125064 -0.203255 0.312597 -0.070428 0.267438 -0.229802 -0.520496 -0.282694 -0.242904 -0.060605 -0.548928 -0.356222 0.696465 -0.397281 0.184442 -0.026744 0.035397 -0.148726 -0.396589 -0.705373 -0.286803 0.528568 0.130279 -0.129254 -0.231225 -0.143597 0.380103 0.141908 -0.347090 -0.030888 0.212902 -0.065730 0.205500 -0.037055 0.088259 -0.238430 0.615752 -0.111397 -0.075960 -0.061046 0.095118 -0.529580 0.005803 -0.118293 -0.008091 0.457103 0.206928 0.388374 0.332566 0.287321 0.205266 0.331856 -0.060932 0.083202 -0.300757 -0.646930 -0.482672 -0.010198 -0.326355 0.083104 -0.123180 0.437010 -0.230385 0.112296 0.026691 0.007683 0.093389 0.029434 0.615934 0.720493 0.437814 0.411890 -0.239567 0.322271 -0.240028 -0.472927 -0.132847 0.059320 -0.178436 -0.069460 -0.123487 0.158943 -0.078685 0.327509 0.023122 0.275033 -0.023323 0.330808 0.509483
GlobalSpecies0013 0.107434 0.047563 0.228520 -0.088991 0.138531 -0.068273 0.025828 -0.165190 -0.117515 -0.104346 -0.056047 0.034862 0.100589 0.142227 -0.251229 -0.134700 0.205285 -0.048111 0.167682 -0.177294 0.015434 0.108504 0.029533 -0.050539 -0.183736 0.128295 -0.018189 -0.156383 -0.009363 -0.165451 -0.216021 -0.076157 0.096378 0.114224 0.065108 0.088294 0.098487 -0.186776 -0.103506 0.156487 -0.067958 -0.028719 0.156010 0.030845 -0.030771 -0.040053 -0.051420 0.157282 0.111490 -0.155405 -0.128361 -0.415585 -0.113475 -0.112264 0.134018 -0.164542 0.103503 -0.128842 -0.036488 0.091171 -0.094263 -0.023623 0.120315 -0.181102 0.067374 -0.038563 0.016331 -0.000315 0.125395 0.073399 -0.029782 -0.014177 0.028901 0.097158 0.029854 0.210935 0.033165 0.018870 0.008628 0.126448 -0.015787 0.031891 0.128842 0.198252 -0.152338 0.099448 -0.068338 -0.129146 -0.146376 -0.103655 -0.209572 -0.117278 -0.045879 -0.014666 0.250907 0.205826 -0.233770 0.201812 0.103690 -0.091501
GlobalSpecies0014 -0.324413 -0.128763 -0.022994 -0.123146 0.211229 -0.002941 0.166260 0.047990 0.190913 0.250526 0.135587 0.088470 -0.164847 -0.346695 0.113411 -0.311574 0.139708 -0.110782 -0.015883 0.195562 -0.135205 0.159655 0.114303 0.198665 0.118993 0.018169 0.292220 -0.076527 0.324407 0.310822 -0.173725 -0.363970 -0.014089 -0.086674 0.224132 0.192048 0.087939 0.071530 0.028729 0.165770 -0.069831 0.262423 -0.128698 -0.238837 0.101482 -0.056629 -0.182385 0.182212 0.078132 -0.114369 -0.076680 -0.021348 -0.406410 0.035001 0.416053 0.156710 -0.238473 0.313055 -0.044629 -0.062116 -0.052220 -0.286331 0.207608 0.049173 -0.180318 -0.046314 -0.069932 -0.088193 0.097949 0.365964 -0.148904 -0.277832 0.131719 0.033752 0.026840 0.117671 0.076351 0.439954 0.199521 0.273148 -0.235179 0.020525 -0.048066 0.016225 0.004486 0.125652 -0.250369 0.185114 0.265590 -0.180334 0.512866 0.318944 0.340039 -0.239114 0.078392 -0.038528 0.054023 0.160343 -0.014480 -0.203255
GlobalSpecies0015 -0.263832 0.157066 0.087166 -0.329174 0.101853 0.073198 0.225483 0.081127 0.270888 0.095431 0.217190 -0.061115 -0.150393 -0.101396 0.188942 -0.468954 -0.186847 0.248246 0.015290 0.140577 0.129099 0.386265 -0.080079 0.138265 0.086532 0.052244 0.221511 0.117917 0.190404 0.028466 0.280116 -0.411427 -0.128686 -0.147913 0.117545 0.291695 0.162860 -0.166215 -0.166809 0.302207 -0.052007 -0.061316 -0.191636 -0.079904 0.081741 0.012549 0.091177 -0.237488 -0.006940 0.131076 0.116790 -0.166275 0.193416 0.201792 -0.028038 0.189721 -0.093650 0.339534 0.168908 0.008338 -0.034262 -0.160236 -0.141336 0.288707 -0.289415 0.144598 -0.013216 -0.250532 0.028552 0.268716 -0.226267 0.227567 0.078163 -0.021733 -0.270010 -0.299694 0.122746 0.459125 -0.050745 -0.041074 -0.434544 -0.003672 -0.146699 0.174712 -0.240263 -0.118576 -0.011019 -0.251205 0.030518 -0.001610 0.197293 0.348134 0.087796 -0.104373 -0.224374 -0.352123 0.110927 -0.042356 -0.305656 -0.158964
GlobalSpecies0016 -0.030419 0.221885 -0.087133 0.284151 -0.094308 -0.036732 -0.019536 0.148505 0.036841 0.043363 -0.123244 0.058594 -0.041869 -0.027624 0.011171 -0.132681 0.058731 0.093073 -0.081859 -0.020430 0.185567 0.125783 -0.114246 -0.086587 0.145746 -0.060921 -0.066251 -0.169295 0.068698 -0.200005 0.081563 0.199963 0.203863 0.166346 0.155867 0.021349 0.005415 0.123910 0.063266 -0.164282 0.179626 -0.026033 0.163972 -0.026195 -0.109366 0.045812 -0.102429 -0.046255 0.093053 0.102023 0.108127 0.196464 -0.085279 0.076864 -0.119324 0.000718 -0.123244 0.271109 -0.105898 -0.041636 0.251879 0.109893 -0.026370 0.054178 0.081017 -0.040828 0.102589 0.256003 -0.224385 0.076381 0.058685 0.036353 -0.039653 -0.138098 0.014907 0.013041 -0.102033 -0.140480 0.023448 -0.057383 -0.012293 -0.135362 -0.275431 -0.168964 -0.162261 0.133339 0.084477 0.074984 0.209866 0.112599 0.070458 -0.073594 0.056838 0.044790 0.181765 0.102603 -0.076399 -0.018515 -0.157408 0.025327
GlobalSpecies0017 -0.111658 0.073135 0.141494 -0.015160 -0.041208 -0.029603 0.132447 0.027457 -0.167238 -0.073551 0.067930 -0.013384 -0.069186 0.047995 -0.005600 -0.418883 -0.061699 0.082923 0.195018 -0.070885 0.212610 0.049945 -0.207413 0.042830 0.081738 -0.038254 -0.151465 -0.002734 0.011469 -0.109935 0.105455 -0.077238 0.033934 0.117970 -0.015880 0.027460 0.148932 -0.072365 -0.129763 0.047679 0.105594 -0.075102 0.032961 0.032700 -0.050918 0.040608 0.185959 -0.200509 -0.003900 0.048429 0.170359 -0.049703 0.468142 0.184442 -0.048987 -0.078785 -0.176952 0.019730 0.005720 0.060502 0.035189 0.048036 -0.007537 0.073462 -0.095531 0.115689 0.081954 0.115981 0.058016 0.041242 -0.101376 0.281194 -0.055961 -0.022236 -0.077051 -0.116744 0.017662 0.219017 -0.209924 -0.034470 -0.126905 -0.187747 -0.255655 0.166526 -0.116772 0.103647 0.100856 -0.054259 -0.018944 0.219450 0.118596 0.140117 -0.061716 0.075208 0.136060 0.006565 0.086887 0.084428 -0.267594 -0.134276
GlobalSpecies0018 -0.003616 -0.057468 -0.083821 -0.037040 0.048780 0.006141 -0.085036 -0.151017 0.041805 -0.011739 0.063994 0.107389 -0.067575 -0.227236 -0.304653 -0.107910 -0.034388 -0.210239 0.265087 -0.099194 0.112591 0.111946 -0.239515 0.206240 -0.279971 -0.263746 -0.022473 -0.130879 -0.031606 0.150439 0.018679 0.362281 0.015962 0.065256 -0.413548 -0.188918 -0.248007 0.135829 -0.005469 0.069683 0.058622 0.019901 -0.238792 -0.214205 0.045010 -0.223088 -0.020702 0.320734 -0.190712 -0.175614 -0.116420 -0.280458 -0.177802 -0.160789 0.385827 0.033009 0.380627 -0.022360 -0.237516 -0.035198 -0.242370 -0.105382 0.155531 -0.099167 0.352287 -0.057616 -0.212837 0.129612 0.008187 -0.303323 0.334056 -0.063356 0.115579 0.147361 0.018847 -0.079406 0.298143 -0.018044 0.063395 0.078784 0.201302 -0.267220 -0.020643 0.272729 -0.006058 0.054550 -0.386205 -0.047330 -0.342349 -0.214556 0.039221 -0.073040 0.281001 -0.160408 0.140880 0.279973 0.033348 0.129112 0.185847 -0.002853
GlobalSpecies0019 0.015118 0.071430 0.220057 0.181747 -0.126811 -0.061960 0.058061 0.036357 0.117275 -0.204171 0.050890 0.097827 0.021192 -0.182897 -0.180822 0.143931 -0.005546 -0.314503 -0.128363 -0.062569 0.025534 0.008677 0.076943 -0.139652 -0.006491 -0.024984 -0.011776 -0.106066 0.007299 -0.061941 0.039522 0.121876 0.142262 0.046734 -0.161219 -0.019207 -0.040841 -0.129199 0.046422 -0.050369 0.053714 0.170498 0.137206 -0.022419 -0.268753 -0.126790 -0.162782 -0.045669 -0.035758 0.226778 0.126238 -0.177292 -0.159283 -0.047952 -0.035692 -0.109865 -0.034937 -0.025561 -0.387372 -0.168419 -0.156534 -0.056434 0.246749 0.220635 0.207402 0.064060 0.049453 0.251173 0.163481 -0.159590 0.013857 -0.054723 0.147417 0.052459 0.126810 -0.038516 -0.013662 0.116683 -0.144021 -0.048015 -0.067511 -0.129070 -0.211083 0.011144 -0.028815 0.181914 -0.140615 0.265829 0.117034 0.086295 0.043514 -0.064983 0.014249 -0.115974 0.111089 0.212800 0.133540 -0.022504 0.109989 -0.130574
GlobalSpecies0020 0.000335 -0.294214 0.058247 0.453482 -0.052269 -0.213355 0.263568 -0.000867 0.061709 0.147862 -0.404889 -0.169403 -0.073441 -0.238619 -0.224228 0.412078 0.189593 0.057753 0.125552 -0.212493 0.168953 0.065715 0.376378 -0.351913 -0.216354 -0.303003 0.206490 0.016741 -0.145237 -0.193513 -0.600026 0.093092 0.227758 -0.190340 -0.195513 -0.024321 0.051248 -0.169960 0.147958 -0.521687 -0.034558 -0.190737 -0.078094 0.103724 0.079770 0.097828 -0.022326 0.163050 -0.122487 -0.096127 -0.343271 0.248203 -0.300772 -0.075956 0.199435 -0.254462 -0.212890 -0.153653 0.053655 -0.328025 0.060864 -0.367044 -0.070367 -0.035394 0.141479 -0.370162 -0.129084 0.060224 0.173936 -0.013404 0.040696 -0.341921 0.505839 0.165310 0.526542 -0.028780 0.215550 -0.103984 0.204350 0.065773 0.111009 0.276861 -0.018348 -0.199258 0.394081 0.254521 -0.318128 0.188643 -0.093954 -0.025331 -0.003333 -0.017464 0.413814 0.143992 -0.095989 0.366159 -0.177927 -0.084160 0.384659 0.076321
GlobalSpecies0021 -0.153274 0.283400 0.018097 -0.189690 0.059858 0.022155 -0.042645 0.217241 0.002550 0.109535 -0.106130 -0.145504 -0.022837 0.021845 0.096632 -0.472487 -0.214051 0.334022 -0.039373 0.015495 0.146276 0.095493 -0.408459 0.159817 0.072054 0.150595 -0.128903 -0.048252 -0.050315 0.070100 0.309189 0.081236 0.099742 0.122121 0.069187 0.192547 0.009747 -0.021871 -0.147145 -0.063612 0.125915 -0.151257 0.071644 0.144316 -0.138422 0.131741 -0.104931 -0.106550 -0.153730 0.060117 0.059294 0.018383 0.419150 0.191539 -0.336748 0.085502 -0.160320 0.138218 0.256469 0.197176 0.272233 0.037008 -0.274719 -0.023560 -0.048740 0.114613 0.109013 0.297158 -0.302399 -0.099205 -0.205062 0.227018 -0.207362 0.152750 -0.306285 -0.391356 -0.052421 0.029599 -0.154632 -0.300333 -0.133675 -0.100486 -0.263252 0.022485 -0.322684 0.088459 0.266336 0.017174 -0.072862 0.297402 -0.133446 0.042232 -0.301214 0.187888 0.123085 -0.252854 -0.070667 0.087300 -0.202830 -0.015725
GlobalSpecies0022 -0.025941 0.015402 0.179632 0.001619 -0.172198 -0.003796 -0.076749 -0.211552 0.076668 -0.257781 0.176724 -0.046180 -0.043207 0.074106 0.135725 0.032445 0.043694 0.167983 -0.098144 -0.066832 0.027946 -0.045490 0.012057 -0.123738 0.040455 0.121179 0.050001 0.160006 -0.148152 0.122537 0.214201 -0.050549 -0.177945 0.194804 -0.087225 0.062520 -0.036027 -0.265478 -0.069319 0.184996 0.136432 -0.045096 0.253883 -0.045770 -0.065678 -0.104251 0.132520 -0.096316 -0.083270 0.189428 0.106720 -0.143579 0.207545 0.315848 -0.111523 -0.107848 -0.027940 -0.184310 -0.026408 0.056756 -0.131207 -0.037324 0.140750 -0.016381 -0.144995 0.132318 -0.035556 0.177493 0.178275 0.044656 -0.050810 0.150804 -0.119499 -0.166197 -0.069470 0.169348 0.021253 0.105162 -0.345229 -0.145567 -0.163347 -0.060648 -0.139635 0.048538 0.022935 0.023600 0.279188 -0.151526 0.093604 0.202550 -0.144525 -0.004530 -0.152417 -0.000539 -0.027099 -0.147233 -0.113852 0.020345 -0.102914 -0.123778
GlobalSpecies0023 0.308324 -0.323149 0.165888 -0.280297 0.614037 -0.269116 0.036907 -0.033907 -0.129921 0.344579 0.635223 0.232803 -0.102311 -0.142763 0.332262 0.528952 0.145124 0.442960 0.774093 0.259710 0.122321 -0.573671 0.941051 0.416033 -0.110654 0.170508 0.303728 0.191134 -0.361964 0.230583 -1.025225 0.483609 0.126403 0.086110 0.125964 -0.207108 0.102404 0.030226 0.489992 -0.788777 -1.102044 0.281805 -0.716461 -0.554932 0.584643 -0.013851 -0.799176 1.003710 -0.361020 0.903238 0.306413 0.620163 -0.361223 -0.088303 -0.386029 0.563849 0.111152 -0.298783 0.156887 -0.145449 0.313691 0.802799 -0.388766 -0.047850 -0.273019 -0.442405 -0.090930 0.187750 -0.087561 -0.652305 -0.104399 -0.820457 0.460844 -0.093596 0.727868 0.351901 0.351426 -0.446835 0.446910 1.260469 0.480158 1.100708 -0.207433 -0.004110 0.240818 -0.391149 -0.589943 0.057515 -0.098902 -0.595126 0.173543 -0.322381 1.030607 0.845690 -0.570196 -0.758927 0.609106 0.077932 0.179013 -0.337804
GlobalSpecies0024 -0.016204 -0.065375 -0.043524 -0.098150 -0.081512 0.055595 0.099154 -0.013653 -0.078147 -0.001369 -0.033082 0.251598 0.141238 0.139141 -0.274618 0.272425 -0.056470 -0.354723 0.285590 0.079576 0.248030 -0.187688 0.132954 0.285830 -0.321896 0.113220 -0.049062 -0.332584 0.040055 -0.378182 -0.667725 0.170480 0.395052 -0.139466 -0.255141 -0.164681 -0.035427 0.256605 0.352580 -0.032883 0.042824 0.234765 -0.249141 0.271090 -0.064400 -0.477662 0.057302 -0.021672 0.386438 0.085854 -0.287374 -0.146715 -0.359262 -0.360647 0.165324 0.208651 0.171506 0.039449 -0.050199 0.126980 -0.000766 -0.255429 0.121622 -0.377434 0.171038 0.034573 -0.020458 -0.057282 0.073608 -0.101889 -0.050507 0.036935 0.014675 0.457255 0.302094 0.125097 0.033164 -0.039614 0.059504 0.189840 -0.096641 0.047529 -0.025783 0.157667 -0.124967 0.228081 -0.100834 0.071927 -0.119158 -0.170418 -0.334132 -0.148143 0.255328 -0.469468 0.278061 0.278572 -0.256841 0.031440 0.521055 0.030124
GlobalSpecies0025 0.247166 -0.164646 -0.161832 0.284032 -0.031386 -0.030990 0.016820 0.078571 -0.152923 0.346549 -0.361489 -0.139217 -0.216857 -0.045966 -0.181494 0.144412 0.364669 -0.316333 -0.250473 0.070429 -0.177022 0.292251 0.272252 0.089044 -0.340637 -0.118272 -0.181200 -0.070982 0.106592 0.181930 -0.334765 -0.009648 0.059850 -0.224229 0.171845 0.141605 0.383695 0.427788 0.101793 0.000927 0.232468 0.003594 -0.225398 0.043872 0.516652 -0.121597 0.238320 0.072025 -0.088846 -0.008567 -0.000371 0.253809 -0.439725 -0.176141 0.136855 0.112167 0.195946 0.113561 0.015329 -0.384896 0.150910 -0.088852 0.173341 -0.153065 -0.080618 -0.304198 -0.019056 -0.179410 0.158641 0.254587 -0.011558 -0.071097 0.109283 -0.137606 0.146698 0.032249 -0.065513 0.191527 0.279977 0.472256 0.225127 0.069142 0.159897 0.303211 0.376651 -0.108755 -0.617284 -0.124556 -0.208665 -0.397882 0.099534 0.212477 0.195100 -0.028851 0.132398 0.050799 -0.613621 -0.033106 0.210590 0.199250
GlobalSpecies0026 0.057232 0.025863 0.194985 0.106549 -0.035505 -0.110934 -0.057449 -0.110907 0.118877 -0.212851 0.054087 0.062312 0.044999 -0.018737 -0.064547 0.030101 0.007452 0.093350 -0.231940 -0.028421 -0.017113 0.041341 0.082771 -0.183889 -0.060934 0.072976 0.265434 0.123087 -0.019154 -0.026807 0.277384 0.039524 -0.076162 0.251340 -0.063457 0.018849 -0.026997 -0.258995 -0.012086 0.182721 0.079344 -0.042521 0.375793 -0.087973 -0.178462 -0.096693 0.016679 -0.077678 -0.091056 0.272973 0.186051 -0.226485 -0.059165 0.102420 -0.196046 -0.084218 0.107219 -0.153636 -0.103094 0.037096 -0.094128 -0.174875 0.106672 0.064765 -0.040668 0.007567 0.005232 0.112973 0.111925 0.175483 -0.061007 0.139928 -0.071331 -0.236772 -0.091762 -0.013061 -0.158987 -0.055781 -0.174499 0.040728 -0.108811 -0.056818 -0.237657 -0.200156 0.116706 -0.003683 0.092105 -0.090896 0.224487 0.146467 -0.203532 -0.050871 -0.255278 0.075818 -0.031483 -0.071943 -0.043911 0.105995 -0.101591 -0.079426
GlobalSpecies0027 -0.121176 0.004759 0.077421 0.032874 -0.139883 -0.049903 0.001962 -0.018370 -0.266006 -0.119278 0.111767 -0.127032 0.044329 0.121802 -0.028548 -0.161554 -0.013661 -0.007212 0.123703 -0.130395 0.094253 -0.022245 0.004662 -0.021476 -0.044979 0.093726 -0.153582 0.050622 -0.010851 -0.168006 0.092351 -0.078250 0.014822 0.206889 -0.211865 0.052605 0.004865 -0.180304 -0.199569 0.012744 -0.021570 -0.032819 0.205758 -0.024088 -0.009292 0.025846 0.048519 -0.116631 0.027732 0.096875 0.048213 -0.209999 0.251700 0.149442 -0.073341 -0.109932 0.085058 -0.085200 -0.019684 0.042127 -0.102761 0.050311 0.077924 -0.200279 -0.046199 0.090947 -0.091457 0.160266 0.161111 0.143133 -0.064351 0.100296 -0.053667 0.027774 -0.096150 0.115264 0.006262 0.123217 -0.189615 -0.061741 -0.019534 -0.120888 -0.310488 0.063234 -0.111280 0.121218 0.061828 -0.006400 -0.045660 0.187219 -0.050801 0.027000 -0.009859 0.102335 0.196945 0.118050 0.081376 0.030802 0.047304 -0.070607
GlobalSpecies0028 0.028813 0.031712 0.072917 -0.045535 -0.188162 0.003858 0.008157 0.080988 -0.364971 -0.068747 0.079074 -0.118770 0.125793 0.119229 -0.017336 -0.104400 0.046478 -0.092618 0.084891 0.001657 0.066689 0.018903 -0.210150 -0.026434 0.004600 0.119783 -0.195266 0.084283 0.019144 -0.105558 -0.089552 -0.046529 -0.079714 0.122860 -0.007682 0.001657 0.118541 0.244861 -0.122610 -0.131117 0.140394 0.023905 -0.000346 0.069668 0.010321 0.039008 0.231819 -0.080545 -0.097663 0.010498 0.015569 -0.077837 0.164635 0.006006 -0.014903 -0.147839 -0.140876 -0.135490 -0.180112 0.057047 -0.091647 0.054276 0.142216 -0.100789 -0.059754 -0.041507 -0.005075 0.173294 0.032043 -0.008629 -0.011154 0.020262 0.078247 -0.023171 0.071225 0.132378 -0.066836 0.188288 -0.059263 -0.055787 0.075834 -0.139915 -0.103349 0.173317 0.029221 -0.012096 0.117322 -0.020552 0.028455 0.021089 0.158450 0.144071 -0.108542 0.063710 0.159100 0.191391 -0.095047 0.022113 0.044636 -0.185828
GlobalSpecies0029 -0.145619 -0.021885 -0.084125 -0.134684 -0.037583 0.004240 -0.099699 0.103887 -0.108821 -0.112182 -0.094596 -0.198432 0.225407 0.118147 0.071333 -0.247908 -0.156393 0.213327 -0.052225 -0.050778 0.120600 0.158461 -0.161536 -0.140865 -0.131424 0.254902 0.043042 0.172400 0.143369 -0.049204 0.300129 -0.118104 -0.126491 0.257762 0.091037 0.281353 0.081737 -0.130286 -0.291022 -0.008312 -0.002667 -0.103346 0.227384 0.133706 -0.011357 0.170691 0.035068 -0.126114 -0.213022 0.040054 0.018133 -0.124801 0.196623 0.099917 -0.251831 0.153928 -0.028817 -0.006107 0.131365 0.170632 -0.096125 -0.119090 -0.084689 -0.206519 -0.055722 -0.001691 0.004863 0.290771 -0.127914 0.160399 -0.063552 0.044512 -0.170922 0.032026 -0.107654 0.070394 -0.153624 -0.032472 -0.049649 -0.131506 -0.069221 -0.103427 -0.430235 -0.169594 -0.178176 0.155558 0.024482 -0.078607 -0.125981 0.286243 -0.181867 -0.095912 -0.332888 0.105816 0.029313 -0.065406 -0.050983 0.025374 -0.156896 -0.004396
GlobalSpecies0030 -0.205721 0.006048 0.090924 -0.254981 -0.034056 0.364274 -0.148888 -0.357950 0.025552 -0.182746 0.161673 -0.162710 -0.266331 0.098109 0.318619 0.089980 -0.133322 0.249724 -0.166551 -0.010865 0.031480 -0.219060 -0.220284 0.141457 0.401984 0.066944 -0.206326 0.280270 -0.401185 0.301320 0.062030 -0.126928 -0.211544 -0.012407 -0.202493 0.117103 0.034523 -0.186165 -0.138615 0.189372 0.028864 -0.227344 -0.054515 0.184922 -0.134460 -0.193264 0.245527 -0.263400 -0.326502 0.024558 -0.019575 0.015734 0.549462 0.301379 -0.275909 0.133324 -0.147362 0.053150 0.151013 -0.027285 -0.143241 0.086151 0.055440 0.177523 -0.188243 0.349464 0.291789 0.248627 0.135520 0.023908 -0.245657 0.249693 -0.146995 -0.023063 -0.177091 0.171959 0.190609 0.240269 -0.238504 -0.536371 -0.395524 0.175025 -0.044486 0.420091 -0.078035 -0.036766 0.659561 -0.290663 -0.165225 0.265022 -0.154663 0.175342 -0.078745 0.009224 0.149503 -0.324126 0.158152 0.069252 -0.158146 -0.065389
GlobalSpecies0031 0.130546 -0.009873 0.095951 0.201527 -0.024926 -0.070505 -0.058285 -0.156931 0.111421 -0.092793 -0.073968 0.026144 -0.099114 0.068210 -0.100960 -0.105546 0.140936 0.108697 0.075221 -0.073487 -0.083022 -0.003928 0.071799 -0.146076 0.006717 -0.050606 0.203377 -0.034038 0.118527 -0.071006 -0.076137 0.085971 0.098629 0.113264 0.140406 -0.120743 0.041616 -0.108892 0.143613 0.028080 0.085362 0.088152 0.063755 -0.231618 0.125402 -0.005768 0.136483 -0.023581 0.200741 0.100907 0.134341 0.010801 -0.081433 -0.093773 0.133880 -0.233652 -0.139536 0.004978 -0.078153 0.057464 0.068453 -0.061728 -0.079595 -0.080550 0.070773 -0.018595 0.024957 -0.066390 0.083906 -0.012300 0.054955 -0.015444 0.037316 -0.153645 0.109564 -0.012170 -0.037503 0.081271 -0.006778 0.209628 0.048485 -0.158447 0.095692 -0.098819 0.114661 0.151882 -0.067687 0.104441 0.085460 -0.007007 -0.011907 -0.033305 -0.017647 -0.092911 -0.074746 0.165985 -0.027458 -0.081527 0.016970 -0.073998
GlobalSpecies0032 0.096533 0.167973 0.156643 0.041787 -0.123412 0.027434 -0.095188 0.003747 -0.045386 0.023606 -0.054423 0.144789 0.091216 -0.091833 0.248757 0.078013 0.039693 -0.251990 -0.292349 0.160259 -0.091909 0.153334 0.057506 -0.175698 0.071457 -0.066039 0.083801 0.084306 -0.042981 0.024654 0.171350 -0.025756 -0.257751 0.069884 -0.062324 -0.021030 0.156182 0.252546 -0.174164 0.022414 0.089333 0.044424 0.109046 0.233161 -0.164130 -0.026658 0.002971 -0.142081 0.099816 0.179132 -0.010998 -0.137722 -0.114357 0.032673 0.002876 -0.185860 -0.022011 -0.157601 -0.298033 -0.110684 0.051939 0.006383 0.106572 0.118294 0.038805 -0.080523 -0.046502 -0.039083 0.122005 -0.050345 -0.019987 -0.139804 0.105356 -0.361788 -0.105668 -0.067887 -0.218167 -0.098297 -0.061244 -0.228994 0.152531 -0.141109 0.005056 -0.084081 0.220543 -0.200174 0.152415 -0.153933 0.338520 -0.022219 0.147138 -0.058032 -0.194387 0.034707 -0.134640 0.039040 -0.039877 0.234560 0.034074 -0.098892
GlobalSpecies0033 0.037439 0.031037 -0.252793 -0.024241 -0.023563 0.201784 0.398391 0.362169 -0.233220 -0.064920 0.137893 0.038238 -0.248738 -0.322134 0.118840 0.049367 0.251156 -0.168170 0.246190 -0.073142 -0.409459 0.125554 -0.032893 -0.233538 -0.261912 -0.047735 0.082526 -0.070143 -0.162099 -0.303482 -0.400119 -0.192795 -0.144323 -0.077461 -0.103776 -0.217247 0.428583 0.263934 0.100378 -0.669906 0.387361 0.035295 0.036799 -0.443970 -0.162213 0.280982 -0.189893 0.079256 0.058238 -0.372951 -0.051470 0.298634 -0.126638 -0.621524 -0.297333 0.083741 -0.032323 -0.084303 -0.081708 -0.140010 0.207720 0.548192 0.187841 -0.216351 -0.175641 -0.267745 0.049820 -0.340790 0.022301 -0.052204 0.364170 -0.430204 0.143765 0.375628 0.053064 0.119213 0.023368 -0.288875 0.435472 0.374684 0.315547 0.390467 0.170733 -0.447724 0.412946 -0.228296 -0.492558 0.226248 -0.090600 -0.319152 0.272345 0.008733 0.397273 -0.088080 -0.414706 -0.463802 -0.124661 -0.262294 0.140541 0.075698
GlobalSpecies0034 0.139640 -0.434847 -0.169860 0.493231 -0.133208 -0.256876 0.235474 0.186098 -0.092885 0.121639 0.286765 0.232849 0.056061 -0.083647 -0.079233 0.575570 0.119395 0.015924 -0.110098 -0.090078 -0.224929 -0.352072 -0.010283 0.115120 0.263531 -0.135664 0.033754 -0.122203 0.035536 -0.048552 -0.459407 0.053563 0.308977 -0.095704 0.040869 -0.103572 0.197496 0.364679 0.542440 -0.291943 0.319255 0.161027 -0.344248 -0.257782 0.095196 -0.231143 0.079900 0.122973 0.382685 -0.569775 -0.129763 0.396432 -0.116359 0.050168 0.170665 0.073801 -0.282632 -0.039044 0.014122 0.132995 -0.287618 -0.012046 -0.024943 -0.079484 -0.106629 -0.073951 -0.246378 -0.330647 -0.053153 -0.050718 0.049026 0.080007 -0.012207 -0.067730 0.314630 0.348678 0.085295 0.538625 0.296396 0.691016 -0.101399 0.115351 0.495331 -0.149138 0.181107 0.070122 -0.232753 0.359431 -0.083204 -0.178060 0.000476 0.115778 0.161548 -0.252711 -0.352084 -0.227832 0.054261 -0.249207 0.078532 0.307129
GlobalSpecies0035 0.148737 0.071865 0.373251 -0.381930 0.204874 0.301853 -0.133619 -0.294186 0.232170 -0.003752 0.043416 -0.007741 0.008931 0.095716 0.015286 -0.409524 -0.161987 0.164842 -0.023836 0.284498 0.166261 0.091545 -0.215453 0.281886 -0.250070 0.135232 0.135486 0.132838 0.031536 0.134106 0.005206 -0.087539 0.028818 0.153434 -0.097068 0.149280 0.059491 -0.279211 -0.159990 0.304079 -0.057920 -0.068177 -0.239533 0.201915 0.089659 -0.309499 0.020824 -0.083850 -0.375660 0.213062 -0.262371 -0.402558 0.270328 -0.060776 0.116833 0.273539 0.151663 0.135528 0.363405 0.220437 -0.172003 -0.079179 -0.246207 0.155291 0.006931 0.070186 0.365698 -0.126617 -0.306409 -0.100642 -0.057814 0.297964 -0.202252 -0.038200 -0.148893 -0.173986 0.360232 -0.109310 0.057166 -0.601605 -0.078942 0.105774 0.008531 0.348732 -0.277447 -0.168945 0.341414 -0.448684 -0.360584 0.181375 -0.540971 -0.198778 -0.268660 -0.025868 -0.039687 -0.257561 -0.083606 0.008975 -0.008938 -0.053715
GlobalSpecies0036 -0.099321 -0.014479 0.124738 -0.079012 -0.003799 0.020485 0.088931 0.038000 -0.098014 -0.208980 0.133270 -0.180311 -0.010023 0.094734 0.189557 -0.366660 -0.064781 0.224273 0.123594 -0.068613 0.142117 0.185501 -0.202896 -0.017634 0.013626 0.109397 0.027830 0.193527 0.062644 0.022389 0.208505 -0.268396 -0.072774 0.236469 -0.057364 0.212475 0.218419 -0.128367 -0.131851 0.084323 0.128939 -0.059414 0.038932 -0.037933 0.042778 0.069425 0.301858 -0.283580 -0.108949 0.113344 0.211442 -0.029771 0.503034 0.182268 -0.157584 0.145561 -0.168634 -0.070778 0.150016 0.106230 0.009175 -0.074175 -0.020034 0.068124 -0.248161 0.136634 0.053326 0.035601 0.073320 0.195538 -0.186275 0.240347 -0.076794 -0.113173 -0.167256 -0.070212 -0.032785 0.200808 -0.302096 0.039230 -0.212882 -0.060971 -0.244138 0.109419 -0.132412 0.073029 0.173522 -0.221251 -0.054309 0.215494 -0.008308 0.137462 -0.116247 0.077831 -0.060824 -0.187173 0.038087 0.048626 -0.294889 0.008036
GlobalSpecies0037 -0.089116 0.004657 0.315144 0.074619 -0.000580 -0.047681 0.084070 0.065069 0.204240 -0.164552 0.158065 0.178415 -0.048205 -0.168511 0.087489 -0.144629 -0.041527 0.002993 -0.071292 0.092221 0.104005 0.338672 0.035941 -0.069060 0.128118 -0.057027 0.117986 -0.049488 0.142370 -0.138401 0.300705 -0.193343 -0.010030 -0.038879 0.042885 0.124356 0.200041 -0.193935 -0.055452 0.152928 0.146202 0.088697 0.091351 -0.163466 -0.166297 -0.068465 0.117521 -0.136538 0.028705 0.267987 0.311899 -0.026056 0.139105 0.080786 -0.050362 0.037954 -0.148375 0.207209 -0.149058 -0.054303 0.090723 -0.108654 0.074330 0.502813 -0.222685 0.022988 -0.010823 -0.110657 0.097533 0.159394 -0.052188 0.056644 0.112755 -0.200363 -0.082899 -0.188245 -0.026249 0.191359 -0.200159 0.066986 -0.245385 -0.025688 -0.149702 0.029584 -0.127277 -0.050049 0.079508 -0.195850 0.188928 0.065899 0.072559 0.074919 -0.147728 -0.060901 -0.060410 -0.147403 0.074566 0.007818 -0.190751 -0.051209
GlobalSpecies0038 -0.209898 -0.015398 0.032692 -0.140654 0.045567 -0.013001 0.064162 0.115341 -0.111130 -0.142306 0.031442 -0.140587 0.086436 0.115274 0.113825 -0.523113 -0.071289 0.260570 0.048503 0.012317 0.214331 0.276568 -0.192839 -0.040693 -0.125713 0.194070 0.078652 0.191821 0.234033 -0.075157 0.278671 -0.201591 -0.098414 0.240388 -0.016127 0.313594 0.251283 -0.163354 -0.174787 0.066150 0.007461 -0.040871 0.127626 -0.028866 0.034876 0.144682 0.160843 -0.264814 -0.129411 0.150019 0.154594 -0.092441 0.382290 0.110819 -0.140496 0.225981 -0.130741 -0.007617 0.173716 0.148701 0.003306 -0.135677 -0.085570 0.059008 -0.228984 0.102016 0.013098 0.036499 -0.028087 0.217062 -0.160296 0.213797 -0.088061 -0.031073 -0.173161 -0.107247 -0.172013 0.194159 -0.156048 -0.017279 -0.209309 -0.074544 -0.349109 0.019918 -0.186711 -0.002793 0.053606 -0.170108 -0.068866 0.220839 -0.087579 0.156349 -0.178227 0.103910 -0.148674 -0.219332 0.081177 0.034861 -0.236268 0.030204
GlobalSpecies0039 -0.336254 0.058974 -0.006104 -0.279918 -0.012309 0.098265 -0.177075 -0.219889 0.024537 -0.199362 0.021878 -0.225270 0.113715 0.049320 -0.066506 -0.156486 -0.016235 0.372829 -0.171356 0.108490 -0.038033 -0.105743 -0.081169 -0.132452 -0.216368 0.429707 0.434900 0.154884 -0.029715 0.179479 0.343594 -0.257639 -0.217362 0.062948 -0.076041 0.281286 -0.010996 -0.203797 -0.162557 0.198569 -0.197730 -0.224209 0.310424 0.079597 0.215208 0.019018 -0.121973 -0.122068 -0.252279 0.114161 0.028532 -0.414342 0.009158 0.204040 -0.156068 0.145104 0.233455 -0.034273 0.199934 0.091464 -0.177927 -0.280670 0.048245 -0.053089 -0.208472 0.234193 0.211141 0.014612 0.074689 0.087533 -0.160569 0.204437 -0.305759 -0.030216 -0.175629 0.067920 -0.183405 -0.219082 -0.145981 -0.151216 -0.486654 0.134287 -0.282655 0.002908 -0.203845 0.052310 0.050945 -0.267213 -0.068548 0.272258 -0.253023 0.016556 -0.398792 -0.069667 -0.146330 -0.092385 0.102657 -0.071989 -0.229278 -0.002307
GlobalSpecies0040 0.110632 0.013852 0.155991 -0.077514 -0.026825 0.103392 -0.092967 -0.043996 -0.105755 -0.169511 0.038725 -0.253543 -0.036223 0.038571 0.202751 -0.296260 -0.147608 0.133241 0.101853 0.035996 0.068996 0.073072 -0.289983 0.152063 0.028252 0.128761 -0.192748 0.214122 0.018322 0.081472 0.092118 -0.034544 0.033313 0.339026 -0.060008 0.122370 0.127641 -0.149653 -0.199763 0.040768 0.155500 -0.001405 -0.106051 0.083824 -0.000566 -0.059706 0.222144 -0.141396 -0.271621 0.174193 0.021893 -0.126099 0.487096 0.070372 -0.162798 0.082177 -0.203634 -0.014367 0.160929 0.102553 -0.040932 0.044593 -0.074900 0.011374 -0.113747 0.069164 0.056745 0.191025 -0.075331 0.031560 -0.062659 0.158445 -0.125425 -0.059749 -0.047198 0.023152 0.160675 0.069343 -0.185820 -0.307764 0.008322 0.076467 -0.144562 0.199082 -0.181096 0.048476 0.316450 -0.267637 -0.208615 0.227137 -0.184350 0.008652 -0.121941 0.116535 0.126936 -0.132031 -0.034817 0.036420 -0.042600 -0.056544
GlobalSpecies0041 -0.019608 0.237791 0.304098 -0.172979 -0.115476 -0.025646 0.011859 0.048074 -0.262116 0.091899 -0.002880 0.061219 0.191539 0.249598 -0.218329 -0.018415 -0.023984 -0.063647 -0.172787 -0.076349 0.184538 0.216157 -0.099103 -0.092294 -0.053812 0.136922 -0.213365 -0.012170 -0.000315 -0.080817 -0.071683 -0.031582 -0.083863 -0.117820 -0.241291 -0.085766 0.096195 0.317639 -0.135679 -0.086145 -0.224943 -0.026875 -0.076596 0.102503 0.217032 0.009799 -0.003830 -0.049023 0.077393 -0.023109 -0.181629 -0.339803 0.039271 0.130158 -0.043876 -0.264330 0.091470 -0.184178 -0.288506 -0.066287 -0.264102 0.052541 0.167625 0.018144 0.007013 0.024216 0.046700 -0.049034 -0.099223 -0.076671 -0.144741 0.050070 0.130145 0.129481 -0.023544 -0.180769 -0.051202 0.091485 -0.216552 -0.132842 0.049333 -0.112779 0.102716 0.191497 0.059013 -0.054839 0.011103 0.060411 0.162571 0.036339 0.209151 0.152735 -0.064608 0.142239 0.093635 0.253229 0.158385 -0.076114 0.002766 -0.090355
GlobalSpecies0042 0.214221 0.169069 -0.348304 0.234439 0.170141 -0.074423 0.060338 -0.115201 -0.267191 0.017914 0.169385 -0.225337 -0.068980 0.018723 0.088737 0.020160 0.005020 -0.178247 0.135956 -0.141018 -0.134135 0.000058 0.148553 0.028196 0.005397 -0.146842 0.108724 -0.007504 0.107302 0.039043 -0.578771 -0.098708 0.180176 -0.084368 0.080496 0.128890 0.160401 0.092067 0.482881 -0.333774 0.194291 0.030699 -0.395107 -0.213278 -0.220106 0.207961 0.138732 0.013706 0.124215 -0.032691 -0.016638 -0.025172 -0.118477 -0.192256 0.032822 0.299409 -0.013202 -0.451002 -0.124830 -0.128709 -0.076670 -0.070981 -0.255150 -0.079059 0.024037 -0.113886 0.000092 0.322897 0.022612 0.300953 0.321885 -0.296680 0.008424 -0.268649 0.325084 0.175016 -0.197674 -0.374080 0.112239 0.192078 0.049437 0.209767 -0.098745 -0.053180 -0.049335 0.050478 -0.209786 0.017595 -0.078308 -0.636078 0.090625 0.136138 0.651726 -0.053129 -0.064538 -0.211154 -0.380143 -0.073780 -0.026024 0.187428
GlobalSpecies0043 0.226282 -0.025328 0.265277 -0.071341 0.185343 0.204043 -0.160036 -0.156877 0.230712 0.130502 0.041957 0.096051 -0.026222 -0.147526 -0.077367 0.012082 -0.073695 0.228587 0.143999 0.443035 0.141046 0.027459 -0.158916 0.360258 -0.213004 -0.017036 -0.272569 -0.009606 -0.084835 -0.090680 -0.149428 0.140007 -0.004732 0.137504 0.114659 0.134502 0.006178 0.020571 -0.016498 0.163142 -0.100949 -0.144979 -0.086200 0.081073 0.101276 -0.321693 -0.050227 0.214014 -0.226305 0.371154 -0.304154 -0.347998 0.143837 -0.373787 0.130475 0.178769 0.112315 0.200536 0.188876 0.064911 -0.159028 -0.059704 -0.032496 0.301102 0.266586 0.060090 -0.089179 -0.275784 -0.239507 0.112510 0.268890 0.204624 -0.335027 -0.051521 0.099922 0.017633 0.164862 -0.268025 0.138357 -0.506559 -0.044732 0.256433 0.011267 0.030994 -0.220511 -0.175246 0.083708 -0.125862 -0.256234 -0.052428 -0.349119 -0.256671 -0.191684 -0.251736 -0.087709 0.101836 -0.231997 -0.115360 0.356926 0.064454
GlobalSpecies0044 0.414936 -0.260900 -0.532213 0.038708 0.755686 0.642383 0.458201 0.135850 0.117260 0.510692 0.471077 0.372481 0.178751 0.385320 0.504551 0.508162 0.066924 -0.429801 0.272803 0.370582 -0.230900 -0.265406 0.554840 -0.303521 -0.325039 -0.109748 -0.223061 -0.182641 -0.573758 0.383166 -0.421541 0.683635 -0.435296 0.103881 0.100908 -0.441383 0.141923 0.362173 0.827461 -0.262767 -0.345967 0.151022 0.207143 -0.463371 0.019294 -0.162498 0.027926 0.740308 -0.589624 -0.066064 0.624028 0.382211 0.129441 -0.657474 -0.034722 0.704465 0.319974 -0.776086 0.511594 -0.197654 0.328654 0.611527 0.030271 -0.333550 -0.053372 -0.288551 -0.145514 0.074338 -0.059354 -0.213982 -0.061101 -0.263615 0.169438 0.193718 0.834950 0.124681 -0.716693 -0.264036 0.979504 0.465210 1.262553 0.361338 0.295572 0.440651 0.705995 0.075412 -0.458407 0.197729 0.009968 -0.261452 0.176835 0.171850 0.403859 -0.023225 0.185901 -0.270984 -0.022370 -0.007436 0.103121 0.087694
GlobalSpecies0045 -0.094839 -0.011569 -0.044219 0.000091 0.022854 -0.049059 0.034089 -0.027982 0.035645 0.016801 -0.035523 0.080209 -0.106144 0.218067 -0.068752 -0.451087 0.011814 0.317202 0.044322 -0.013085 0.109662 0.111248 0.008332 -0.087611 -0.067762 0.120438 0.168215 -0.081230 0.028317 -0.133117 0.208494 -0.179839 -0.099258 -0.028583 0.093823 0.120300 0.112283 -0.119497 0.032853 0.224490 -0.015408 -0.173523 0.243622 -0.068596 0.048025 -0.034890 -0.020977 -0.175086 0.105267 0.031229 0.235726 -0.115087 0.190784 0.203984 -0.024176 -0.102846 -0.032811 0.081063 0.173979 0.044471 0.140958 -0.081370 -0.159654 0.015600 -0.178753 0.197411 0.142483 -0.153630 -0.033815 0.121771 -0.092085 0.374636 -0.229377 -0.241245 -0.110078 -0.057693 -0.054757 0.113949 -0.169624 0.020147 -0.194024 -0.221037 -0.162208 -0.002294 -0.124956 0.035037 -0.055952 -0.159681 0.103621 0.119843 0.046613 0.084100 -0.158631 0.042558 0.012892 -0.129754 0.006844 0.015804 -0.276689 -0.115721
GlobalSpecies0046 -0.165815 -0.112646 -0.010118 0.102240 -0.050843 0.186141 0.058156 -0.102731 -0.090155 0.141924 0.006218 -0.096958 0.179372 -0.113159 -0.347043 0.331590 -0.086367 -0.205008 0.080269 -0.328880 0.079179 -0.082482 -0.064792 -0.075146 0.342221 0.060296 -0.204968 0.230946 -0.259547 0.019127 -0.307204 0.147517 0.247070 0.010044 -0.150872 -0.437296 -0.202518 0.081922 -0.121374 -0.019265 0.007321 -0.005797 -0.188062 -0.062845 -0.083983 -0.161972 0.022818 0.237349 -0.062805 -0.287238 -0.293810 -0.178983 0.028439 0.107027 0.044489 0.114889 0.173250 -0.069498 -0.458666 -0.562530 -0.202391 0.473522 0.196958 -0.287941 0.232956 0.100953 0.259409 0.106905 0.190498 0.183907 -0.012906 0.191458 0.001265 0.226996 -0.054835 0.402091 0.048165 0.001367 0.082134 0.072996 -0.037967 0.072483 -0.092848 0.200224 0.024987 0.312091 -0.181347 0.053304 -0.033670 -0.269885 0.159016 -0.195059 0.757078 0.282212 0.031359 0.353752 -0.020982 0.122271 0.194489 -0.140991
GlobalSpecies0047 0.030645 -0.065683 0.226307 0.075981 -0.048677 0.019619 0.043158 -0.055197 0.111326 -0.168352 0.242210 0.033441 -0.137033 -0.048986 0.218105 -0.078003 0.017684 0.112742 0.025852 -0.007318 0.139204 0.197032 0.005133 -0.022976 0.239253 -0.091962 0.020266 0.022618 -0.005843 0.035959 0.216757 -0.193899 -0.087037 0.046339 0.016912 0.062582 0.187798 -0.186630 -0.004103 0.140913 0.153121 0.005903 0.052578 -0.147093 -0.045878 -0.085378 0.266552 -0.184652 0.039948 0.198064 0.244945 0.026204 0.307806 0.240733 -0.079183 -0.001291 -0.137788 0.015529 -0.072128 -0.042483 0.076794 0.019758 0.123953 0.259554 -0.164475 0.128481 -0.045668 -0.097738 0.147267 0.153425 -0.096749 0.161957 0.082591 -0.200192 -0.009943 -0.038886 0.093195 0.256239 -0.267030 -0.025554 -0.198976 -0.053309 -0.147178 0.118387 -0.022083 0.030460 0.194109 -0.182106 0.109698 0.093099 0.095271 0.116618 0.010506 -0.082245 -0.053032 -0.138637 0.061417 0.043688 -0.193228 -0.059584
GlobalSpecies0048 -0.012650 -0.054398 0.184061 0.036475 -0.114246 -0.080608 0.069836 -0.147136 -0.028936 -0.201770 -0.003346 -0.049100 0.115209 0.039480 -0.137104 -0.098039 -0.048450 0.024550 0.006780 -0.058093 0.224350 -0.013981 0.006846 -0.180753 -0.036243 0.076220 0.026252 -0.038184 0.005690 -0.076279 0.305054 0.032632 -0.039976 0.168976 -0.111332 0.057517 -0.000416 -0.288543 -0.148678 0.011740 -0.114129 0.009043 0.209191 0.027340 -0.069835 -0.035377 0.005235 -0.176020 0.035155 0.076635 0.103609 -0.186533 0.179796 0.074172 0.038085 -0.223536 0.030453 -0.168799 -0.108940 0.096618 -0.136122 -0.108265 0.022104 -0.000993 0.005611 0.015825 0.086857 -0.024764 0.206587 0.003006 -0.023778 0.216429 0.030842 0.001781 -0.161987 -0.075723 -0.096796 0.029001 -0.190822 -0.066187 -0.097734 -0.162025 -0.083043 0.243325 -0.134416 0.165759 0.164528 0.046513 -0.004620 0.199432 0.012504 0.023063 -0.148874 0.056206 -0.098895 0.192448 0.104807 0.062062 -0.153936 -0.072935
GlobalSpecies0049 0.261804 0.379553 -0.189671 -0.304787 -0.052567 -0.009902 0.008859 0.012329 -0.205338 0.148589 0.035156 0.068909 0.168686 0.091264 0.112728 0.175878 -0.058149 -0.105008 -0.352599 0.218864 -0.152013 0.254480 -0.207128 0.011292 -0.027346 0.252056 -0.080893 0.017731 -0.221145 0.052174 0.055480 -0.220259 -0.418532 -0.157181 -0.171754 0.178831 0.181972 0.319976 -0.269023 0.089911 -0.099832 0.030949 0.020243 0.404295 0.095147 0.042999 0.129964 -0.248584 0.038604 -0.202733 -0.084288 -0.138624 -0.262818 0.037986 -0.089113 0.058910 0.085856 -0.053670 -0.038022 0.134151 0.107037 0.050130 0.017601 0.150636 -0.089491 0.050210 0.003949 -0.139746 -0.177295 -0.095168 -0.144455 0.162174 0.131752 -0.132795 -0.018706 -0.079573 -0.217236 0.037984 0.004190 -0.401051 0.212371 -0.022924 0.068797 -0.040308 0.100770 -0.405843 0.222934 -0.311276 0.297787 0.112320 0.145947 0.219397 -0.274392 -0.008940 -0.082309 0.085946 -0.103011 0.236773 0.145771 -0.195962
GlobalSpecies0050 -0.212088 0.018961 -0.314692 -0.336056 -0.055540 -0.067907 -0.048092 -0.319079 0.403832 0.423580 0.290781 -0.185371 -0.031020 -0.194770 -0.151134 0.310341 -0.254060 0.282126 0.313738 0.185566 -0.256313 0.472146 0.231389 0.033116 -0.225867 0.126950 -0.225325 0.163227 0.213254 -0.270021 -0.070103 -0.090578 0.076243 -0.274334 0.289699 -0.210950 0.015557 0.233818 0.209331 -0.179907 0.052883 -0.111771 -0.320320 -0.333384 -0.191706 0.207785 -0.151522 0.226498 0.157883 -0.096763 0.130880 0.119797 -0.460495 -0.042371 -0.106190 0.132076 0.140542 0.167909 -0.226354 -0.349488 -0.161256 0.071609 -0.247115 0.172945 -0.155278 0.031406 -0.299543 -0.167847 0.304333 0.163646 0.323638 -0.375685 0.071503 0.375303 -0.336418 -0.069084 0.083853 0.163925 0.261758 0.378932 -0.336110 0.070108 0.106075 -0.188685 -0.041886 -0.034456 -0.385283 -0.037064 -0.140945 -0.693145 0.595896 0.020514 0.719095 -0.206978 -0.236958 -0.207883 -0.111770 -0.337378 0.072600 0.077246
GlobalSpecies0051 -0.497622 -0.508903 0.071362 0.660834 -0.138743 -0.504865 0.056132 0.083154 -0.054325 0.083831 0.417005 0.597669 0.609510 -0.180233 -0.286589 0.523768 -0.107012 -0.390318 0.082190 0.528677 -0.486806 -0.360737 0.222160 -0.039772 -0.167265 -0.528899 0.316988 0.290026 0.467160 -0.308032 -0.479226 0.588305 -0.252138 -0.190082 0.062198 0.419396 -0.329849 0.810356 0.873138 -0.243780 0.352721 0.389078 0.270484 -0.707545 0.427872 -0.104494 0.060707 1.010142 -0.234905 -0.462136 -0.140113 0.791797 0.028583 0.007050 0.203017 0.041001 -0.271609 0.012353 0.194584 -0.532658 0.165125 0.155378 0.413921 0.444264 -0.007005 -0.097377 -0.167699 -0.130262 0.391982 -0.286249 -0.064990 -0.119671 0.705151 0.485225 0.487834 0.344248 -0.599771 0.471309 0.480669 0.907403 0.155726 -0.050679 0.282007 0.419758 0.455292 -0.090174 -0.738289 0.217535 -0.428813 0.203052 -0.317881 -0.163775 0.282983 -0.170406 -0.206843 0.140961 0.181410 -0.360957 -0.272034 0.728411
GlobalSpecies0052 0.347157 0.033984 0.133837 0.002229 0.253878 0.451575 -0.206574 -0.423642 -0.162273 -0.035547 0.092700 0.040322 0.180109 -0.028536 -0.415400 0.102560 -0.007092 0.298179 0.075443 0.513926 -0.320434 0.081254 -0.321241 0.411966 0.326410 -0.228618 0.131123 -0.497866 0.091581 0.072938 -0.277304 0.035668 0.173536 0.094136 0.361563 -0.199213 -0.076580 0.021466 0.159653 -0.211205 0.173725 0.191397 -0.298023 -0.207836 0.020987 -0.012978 -0.185979 0.126171 0.062344 -0.281800 -0.561849 -0.389129 -0.164215 -0.506031 0.329340 0.157641 0.269640 -0.054072 0.210303 0.047575 -0.395876 0.148529 0.042139 0.056591 0.227495 -0.458121 -0.142088 0.015200 -0.252496 -0.216315 0.565247 0.195087 -0.317171 0.069476 0.268653 0.415898 -0.035164 -0.452078 0.802808 -0.236389 -0.193810 0.317252 0.378070 0.161364 0.127442 -0.355570 -0.117975 0.272888 -0.157428 -0.399712 -0.638266 -0.190886 0.223467 -0.288430 -0.186734 -0.155545 -0.398217 -0.086892 -0.110817 0.479814
GlobalSpecies0053 -0.298285 0.097660 0.003756 -0.058392 0.102069 -0.061357 0.301458 0.134693 -0.082631 -0.113346 0.143594 0.185981 0.052371 -0.165111 -0.176702 -0.025843 -0.042472 -0.225661 0.281882 -0.249297 0.070551 0.033978 0.121096 0.068557 -0.093397 -0.077765 -0.100869 -0.200697 0.123798 -0.049056 -0.078872 -0.096655 0.064494 -0.216611 0.109927 0.055379 0.042319 -0.106327 0.006899 -0.023574 -0.158810 0.044631 -0.101218 0.044730 -0.027125 0.080028 0.080951 -0.034352 -0.121794 -0.114731 -0.047974 -0.347741 0.002504 0.014503 0.189398 0.228269 0.060512 0.101697 -0.180286 -0.096649 0.013378 0.002832 0.236916 0.099393 0.064530 0.045934 0.068723 -0.183371 0.094343 0.040426 0.141536 0.026547 0.152888 0.074107 0.071222 -0.029726 0.087790 0.127179 0.113450 0.154205 -0.164643 -0.176436 -0.210765 0.137896 -0.097285 0.148632 -0.273116 -0.005425 0.066033 -0.141661 0.265209 0.260106 0.285392 -0.247767 0.275014 0.223000 0.219200 -0.071257 -0.069558 -0.148666
GlobalSpecies0054 0.113339 -0.017083 -0.022046 0.033846 0.058636 0.083689 -0.094429 0.057819 -0.057315 -0.091399 -0.038659 -0.162829 0.119552 0.192459 0.060819 -0.323902 -0.050799 0.207872 0.076250 0.089734 0.139438 0.201694 -0.146195 0.172080 -0.082013 0.285494 -0.073486 0.154387 0.137716 -0.024128 0.088637 -0.003027 -0.005420 0.383901 -0.043037 0.168578 0.108584 -0.040509 -0.154351 0.071391 -0.014005 0.072737 0.137588 -0.042404 0.120489 -0.040307 0.084650 0.007715 -0.152345 0.153152 -0.033844 -0.246224 0.183943 -0.111585 -0.106587 0.086176 -0.030318 0.112327 0.160055 0.183889 -0.074797 -0.056833 0.022415 -0.067100 0.117797 -0.018717 0.110224 0.093435 -0.157916 0.148723 0.006083 0.002050 -0.038190 0.003932 -0.004549 0.029709 -0.077096 0.016538 -0.008956 -0.065700 0.078025 -0.076049 -0.161083 0.055982 -0.151218 0.023057 -0.024571 -0.194230 -0.106861 0.161578 -0.191397 -0.124730 -0.083269 0.085548 0.015783 0.025603 -0.054581 0.111728 0.043328 -0.034628
GlobalSpecies0055 0.029765 0.012067 0.173564 0.200248 -0.052456 0.057488 -0.126939 0.072994 -0.028847 -0.111753 -0.015312 -0.118946 0.070713 -0.151600 0.249724 -0.031775 -0.110876 0.011171 -0.094295 -0.012376 0.094462 0.039724 -0.089003 0.013246 0.155342 -0.039342 -0.165436 0.144125 -0.078566 -0.075091 0.076803 0.013158 0.131991 0.325619 -0.065648 0.062771 -0.020070 -0.028138 -0.082079 -0.095203 0.238180 0.101135 0.029559 -0.044454 -0.072970 -0.068319 0.161330 -0.025391 -0.084509 0.242988 0.119752 0.003679 0.205528 0.032529 -0.246057 -0.010536 -0.154287 -0.098812 -0.147729 0.092309 0.082890 -0.078209 0.062809 0.108764 0.008653 -0.056300 -0.171855 0.300024 -0.068215 0.074074 0.006791 -0.008064 0.000948 -0.109644 -0.029942 0.214823 -0.028172 0.099295 -0.175412 -0.112906 0.086984 0.097077 -0.223002 -0.092211 -0.066121 0.200551 0.179068 -0.048063 0.064033 0.113763 -0.042846 -0.011775 -0.011968 0.072525 0.139412 -0.010796 -0.050798 0.088403 -0.100839 -0.118459
GlobalSpecies0056 -0.220670 0.100187 -0.324425 0.129413 0.546817 -0.007018 0.086567 0.148585 -0.226893 0.570650 0.144102 -0.385000 0.403168 0.048671 0.245439 0.383872 0.126932 -0.453935 -0.326658 0.721815 -0.326236 -0.266985 0.391327 0.082728 -0.137812 0.168798 -0.012210 0.054001 -0.569687 0.141931 -0.323535 -0.011960 -0.050249 -0.104126 -0.411463 0.052231 0.487594 0.596381 0.454917 -0.406217 -0.198312 0.016183 -0.017560 0.067152 0.163550 -0.051124 -0.008425 0.395972 0.094983 -0.238814 0.349053 0.172747 -0.636474 -0.210408 0.130760 -0.128354 0.096874 0.075704 -0.036792 -0.316773 -0.137283 0.479898 0.105705 0.109247 -0.061445 0.286273 0.032969 -0.215663 0.090707 -0.330720 -0.199033 -0.342542 0.334573 0.287047 0.306073 0.278661 -0.623660 0.118912 0.792608 0.372183 0.523369 0.512462 0.514463 -0.098648 0.854469 -0.136903 -0.067729 0.290840 0.143289 -0.189782 -0.075537 -0.058811 0.149821 -0.031516 -0.414463 0.325395 -0.218890 0.091834 0.506435 0.278657
GlobalSpecies0057 0.355549 0.007155 0.129683 -0.002917 0.222235 0.177472 -0.203948 -0.296396 0.177798 0.183439 0.064530 0.375942 -0.145640 -0.013957 -0.261426 0.177568 -0.156931 0.141490 0.096586 0.360175 -0.091147 0.213317 -0.031356 0.286945 0.051616 -0.089180 0.018812 0.054794 0.172878 0.080727 -0.369036 0.469676 -0.073955 0.207788 0.184859 -0.235162 -0.075327 -0.034314 0.030798 0.054546 0.118814 -0.259464 -0.382896 -0.004851 -0.122154 -0.240902 -0.173242 0.454535 -0.053339 -0.030256 -0.627727 -0.422985 -0.233094 -0.139385 0.274535 0.209225 0.077661 0.146447 0.138570 0.349295 -0.314270 0.134115 0.090253 0.154819 0.362127 -0.256435 -0.098461 -0.109114 -0.199339 0.003658 0.500041 -0.101228 -0.245944 -0.016816 0.163039 -0.024569 0.117608 -0.426789 0.517022 -0.254995 -0.011088 0.102282 0.139038 0.100120 -0.087568 -0.221418 -0.200044 -0.153377 -0.276703 -0.340782 -0.159010 -0.299063 -0.054050 -0.169852 -0.118271 0.047302 0.065224 -0.315510 -0.004931 0.219548
GlobalSpecies0058 -0.123460 0.144035 -0.413242 -0.088965 -0.046298 -0.074314 -0.374263 -0.025906 0.203862 0.269644 -0.127188 -0.060659 0.006911 0.300141 0.013291 -0.082601 -0.103353 0.050130 -0.109741 -0.127687 -0.067957 0.064870 -0.398789 -0.037885 0.093050 -0.083477 -0.288510 -0.380119 0.283727 0.123119 0.031102 0.282423 0.151162 -0.019224 0.194253 -0.058912 -0.386310 0.494533 0.293688 -0.058447 0.196422 0.034724 -0.012407 0.012669 -0.223605 0.090394 -0.279498 0.182427 0.210480 -0.179218 0.194080 0.185499 -0.144405 -0.076926 -0.100156 0.175832 0.141248 0.269539 -0.078121 0.273393 0.366727 0.146184 -0.195234 -0.338005 0.140074 0.065623 -0.064664 0.362936 -0.059022 0.087236 0.080707 -0.213202 0.129172 0.189270 -0.050661 -0.226078 -0.209126 -0.038365 0.095328 0.187955 0.246990 0.008153 0.028831 -0.054747 -0.314322 0.207547 -0.143662 0.070512 0.017960 -0.023374 0.055989 -0.326756 0.247437 0.214665 0.166202 -0.060281 -0.107439 -0.196637 -0.133156 0.077241
GlobalSpecies0059 -0.050256 -0.192601 -0.021025 0.392098 -0.028863 -0.175593 0.210167 -0.064613 0.007492 -0.081535 0.007220 0.094686 -0.211344 -0.284901 0.045446 0.255353 0.087660 -0.154783 -0.037300 -0.124542 0.203697 0.182958 0.234761 -0.055431 0.076858 -0.355570 0.037485 -0.142761 0.274138 0.135975 -0.011645 0.100420 -0.017421 0.021021 0.161108 -0.019067 0.022791 -0.298242 0.150270 -0.268972 0.075633 0.136562 0.071978 -0.226448 -0.091855 0.140680 -0.116339 -0.085314 0.189855 -0.041893 0.006193 0.130667 -0.137361 0.168975 0.190956 -0.061271 0.061817 0.042758 -0.131063 -0.094070 0.032955 -0.033873 0.149130 0.279467 0.043426 -0.302135 -0.074363 -0.224362 0.154446 0.126454 0.276985 -0.098308 0.010364 -0.231631 0.111161 0.067348 0.221272 -0.002951 0.375026 0.232941 0.221002 0.048165 0.058819 -0.255983 0.170609 -0.098077 -0.096826 0.160352 0.125714 -0.205882 0.157841 0.221479 -0.022066 -0.117353 -0.141779 0.182068 0.004908 0.058815 -0.130599 0.206726
GlobalSpecies0060 -0.255420 0.191952 -0.138840 -0.086867 0.295171 -0.089725 -0.174934 -0.161083 -0.002771 0.137925 0.624156 0.347713 0.429551 0.143513 -0.045417 0.673405 0.246362 -0.282791 0.491123 -0.108999 -0.669479 0.030300 0.605642 -0.335452 -0.336793 -0.604789 0.324171 0.154504 -0.549011 -0.173602 -0.447677 -0.062488 -0.113647 0.089789 -0.604387 -0.099426 -0.204584 0.291898 0.568909 -0.770313 0.171606 0.049090 -0.443676 -0.029459 0.048039 0.333680 -0.152297 0.513592 0.204045 -0.265050 -0.134703 0.950788 -0.069801 -0.245326 0.288823 -0.605269 0.070302 -0.368240 0.016501 0.375763 -0.243454 0.182200 0.292906 -0.307854 -0.794829 0.220398 0.123721 0.158521 0.032826 -0.469312 0.326192 -0.342829 0.260078 0.403969 0.512352 -0.205269 0.093362 0.135192 0.093095 0.333396 0.317411 -0.008306 0.218771 0.279270 0.230587 0.255156 -0.482426 -0.043313 0.044363 -0.282919 0.499124 -0.186712 0.675995 -0.037592 -0.117044 0.048219 0.043828 -0.217866 0.051418 0.344829
GlobalSpecies0061 0.357014 -0.026467 0.239438 -0.212204 0.375279 0.037985 -0.083000 -0.406781 0.268951 0.020083 0.404740 0.338067 0.038944 -0.074088 -0.114291 -0.062194 -0.048718 0.154910 -0.342428 0.452546 -0.055346 -0.000699 -0.197911 0.164056 -0.239673 0.051414 0.037162 -0.348961 0.027412 0.123140 -0.490675 -0.166601 -0.065528 0.176178 -0.070299 0.019136 -0.166981 -0.189457 0.267838 -0.138767 -0.376167 -0.106345 -0.435122 0.072025 0.113462 -0.017950 -0.125309 0.325013 0.024181 -0.041014 -0.150242 -0.157769 -0.022221 -0.413474 0.109003 0.241059 0.278968 0.255667 0.149565 0.243855 -0.143847 -0.063481 0.010646 -0.070813 0.342848 -0.036597 0.148489 -0.104155 -0.320674 -0.010677 0.124387 0.151855 -0.233581 -0.041256 0.374745 0.113774 0.194340 0.088616 0.307814 -0.204844 0.073919 0.125881 0.229680 -0.059650 -0.154779 0.270486 0.027171 -0.292213 -0.125194 -0.065982 -0.421039 -0.274690 0.041583 -0.050285 0.053642 0.055876 -0.250542 0.043050 0.660636 0.029603
GlobalSpecies0062 0.145686 -0.067427 0.060610 0.192627 -0.163588 -0.031296 -0.002923 -0.104305 -0.000783 -0.211893 -0.021738 -0.134049 0.008582 -0.048886 0.144854 -0.154737 -0.028826 0.057141 -0.058850 0.021531 0.176283 0.076656 -0.098625 0.028405 0.043597 0.039727 -0.038359 0.139978 0.119318 -0.056260 0.165234 0.044623 0.064549 0.241358 0.087764 -0.039872 0.034160 -0.296989 -0.190481 -0.030744 0.170198 0.090476 -0.040742 0.139387 0.039733 0.031158 0.205896 -0.050452 -0.120004 0.159927 0.016710 -0.026255 0.301773 -0.030535 0.056526 -0.071157 -0.166679 -0.067669 0.023854 0.046231 -0.050411 -0.005605 -0.051775 0.058821 -0.027962 -0.069018 -0.005957 0.054524 0.029182 0.024289 0.113493 0.038861 0.028379 -0.202457 0.004867 -0.097945 0.016214 0.044280 -0.151633 -0.252022 -0.004841 -0.020641 -0.011052 0.151367 -0.076235 0.058571 0.226306 -0.150278 0.000615 0.048927 -0.057619 0.042654 -0.102697 0.099560 0.027928 0.046525 0.004639 0.091780 -0.098510 -0.049288
GlobalSpecies0063 -0.125153 0.001381 -0.145106 0.033530 -0.048117 -0.071295 -0.071670 0.240687 -0.151583 -0.006356 -0.113318 -0.078838 0.122191 -0.023610 0.005450 -0.129435 0.062475 -0.098754 0.015327 -0.163630 -0.094080 0.218125 -0.185893 -0.023304 -0.033089 -0.218773 -0.158864 0.042284 0.446294 -0.080626 -0.078945 -0.180377 -0.072983 -0.076752 0.061939 0.169362 0.227439 0.403643 0.037029 -0.037177 0.069771 0.228630 -0.224454 0.033087 0.142128 0.146367 0.275617 -0.068414 -0.008775 -0.091990 0.088972 0.060217 -0.144944 -0.219443 -0.009835 0.096196 -0.040601 0.077107 -0.132059 0.113520 0.038469 0.076204 0.065291 -0.083968 0.001651 -0.101137 -0.185696 -0.064310 -0.004784 0.263585 0.051427 -0.197846 0.139864 -0.154435 -0.021035 -0.093572 -0.126813 -0.000153 0.050821 0.121855 0.094897 -0.050263 0.005982 -0.316460 0.111594 -0.073942 -0.273333 0.085701 0.081448 -0.035907 0.201415 0.039645 0.148655 0.071817 0.071746 -0.140096 -0.065763 -0.111189 -0.039924 0.019473
GlobalSpecies0064 0.219352 -0.082677 0.003715 -0.038253 0.023249 0.001547 0.025965 -0.162758 0.033111 0.025420 0.094693 -0.031425 -0.011031 0.005708 0.061788 -0.107150 -0.010064 0.064964 0.150495 -0.062208 0.099987 0.115057 -0.103119 0.120880 0.215924 -0.116821 -0.025119 0.033418 0.116234 -0.027625 -0.040586 -0.191487 -0.111399 -0.045412 0.040334 0.097712 0.099719 -0.104602 0.057463 0.227668 0.215729 0.031195 -0.104387 -0.032663 0.090061 -0.101223 0.138828 0.010708 -0.021159 0.156181 0.010248 -0.120945 0.224287 0.116418 0.132565 0.037026 -0.032638 0.039323 0.022651 0.109281 0.069347 -0.005244 0.079205 -0.043884 -0.078788 0.106045 -0.020516 -0.165811 0.170746 0.277746 0.017024 0.067746 -0.039180 -0.221125 0.255710 0.139327 0.233021 0.073056 -0.061391 -0.033301 -0.039191 -0.064171 -0.058598 0.247380 -0.076199 -0.000226 0.049273 -0.338721 -0.083327 0.035061 0.083700 0.070440 0.205211 -0.109005 -0.007389 -0.067344 -0.245246 0.050094 0.112061 -0.053974
GlobalSpecies0065 -0.243468 0.144586 -0.163221 -0.299489 0.065543 0.164216 -0.265561 0.276821 -0.006335 0.051845 -0.176699 -0.232975 0.279551 -0.073810 0.135883 -0.145254 -0.335614 0.393914 -0.137466 -0.023017 0.113128 0.053739 -0.374733 0.205331 0.047878 0.221734 -0.079422 0.039870 0.167646 0.028740 0.315108 -0.080684 0.239393 0.388208 -0.019687 0.198914 0.185463 -0.051912 -0.191626 -0.102634 -0.004486 0.152627 0.057058 0.075396 -0.111434 0.204748 -0.005438 -0.159024 -0.213294 0.124023 -0.071306 -0.134129 0.408501 0.052918 -0.341104 0.501870 -0.055093 0.109726 0.337928 0.204418 -0.099653 -0.180635 0.009067 0.007767 -0.084846 -0.162386 0.015502 0.299604 -0.469741 -0.055782 -0.162273 -0.040777 -0.235031 0.166548 -0.323870 -0.253752 -0.096908 0.228836 -0.008006 -0.436706 -0.173342 -0.023835 -0.377987 -0.196432 -0.243334 0.038372 0.200265 0.020674 -0.123438 0.442635 -0.268299 0.103552 -0.403162 0.139308 0.278389 -0.178479 -0.022313 0.154472 0.044013 0.119217
GlobalSpecies0066 -0.077174 -0.025120 -0.035582 -0.019038 -0.084460 -0.083328 0.284915 0.028241 0.085965 -0.070077 0.022979 -0.154423 -0.122113 -0.176857 0.128119 -0.333134 -0.021490 0.117150 0.045943 -0.004124 0.341553 0.103572 -0.102579 0.129789 0.247808 0.028802 0.139879 0.055984 0.213576 -0.019478 0.442870 -0.217702 -0.000181 -0.050843 0.099148 0.084167 0.059836 -0.323275 -0.138635 0.140595 -0.109595 0.009488 -0.088009 0.005152 0.157632 0.054055 0.174012 -0.302525 -0.021765 0.061657 0.115846 0.072725 0.273164 0.015504 0.099294 -0.023176 -0.165706 0.157287 0.216298 0.078483 -0.013659 -0.165453 -0.137441 0.119678 -0.137820 0.021944 0.129288 -0.326288 0.043267 0.054559 -0.096400 0.190712 0.091794 -0.076706 -0.127766 -0.251410 0.068515 0.192030 -0.085021 -0.060430 -0.305505 -0.068341 0.135759 0.259508 -0.254780 -0.109211 0.231170 -0.103567 -0.010971 0.058889 0.132967 0.315268 -0.194539 -0.111211 -0.282912 -0.017750 0.134231 0.093663 -0.175368 0.044066
GlobalSpecies0067 -0.153350 -0.081968 -0.159585 -0.011807 -0.018407 -0.146061 -0.058309 0.231381 -0.035770 -0.012771 0.063968 -0.070323 -0.174870 -0.106092 0.084432 -0.132448 0.034201 0.306022 0.055955 0.027119 0.031046 0.103720 -0.147725 0.120504 -0.021237 -0.078012 -0.311106 0.225321 0.490056 -0.111440 -0.096217 0.085845 -0.121956 -0.072205 0.180184 0.120207 -0.043117 0.241709 0.301203 -0.143198 0.108609 -0.010507 -0.227533 -0.265463 -0.117704 0.473780 0.038327 0.072242 0.045868 -0.102972 0.032629 0.241154 -0.178100 -0.146635 -0.088736 0.182416 0.004699 0.112419 -0.049267 0.010633 -0.061142 -0.286227 0.142307 -0.064935 -0.128914 -0.380697 -0.419494 0.103527 -0.116649 0.391093 0.188524 -0.240294 0.105360 0.017825 0.171922 -0.075049 -0.140218 0.036431 0.188412 0.138837 -0.023649 0.031194 -0.169390 -0.164109 -0.053467 -0.000728 -0.336692 0.075251 -0.097744 -0.150245 0.067228 0.175588 0.230703 0.042008 0.132894 -0.293779 0.181872 -0.095083 0.238491 -0.120114
GlobalSpecies0068 0.013303 0.057691 0.345189 -0.038856 -0.130434 -0.083841 0.232630 -0.068345 -0.005217 -0.238235 -0.011200 -0.001195 -0.019294 -0.113210 -0.046614 -0.124302 -0.060777 -0.151293 -0.040096 -0.053082 0.387874 0.068767 -0.099457 -0.133140 0.052707 0.102302 0.037730 0.045985 -0.085909 -0.060863 0.407798 0.075266 0.116353 0.151206 -0.185261 0.025041 0.058691 -0.464004 -0.270888 -0.047036 -0.111832 -0.066064 0.079641 0.145798 -0.153188 -0.139027 0.063489 -0.348411 -0.188200 0.252189 0.071010 0.030347 0.409979 0.181567 -0.033568 -0.063649 -0.098160 -0.182131 -0.059403 -0.027486 -0.036332 -0.102115 -0.156388 0.266476 -0.042016 0.015214 0.224422 -0.013897 0.164905 -0.171903 -0.276722 0.400328 0.085083 0.057434 -0.325124 -0.351002 0.044654 0.265997 -0.290044 -0.231638 -0.233864 -0.100742 -0.123088 0.426526 -0.260984 0.029084 0.424808 -0.062518 -0.060077 0.239314 -0.114126 0.113852 -0.284421 0.085483 -0.126201 0.023894 0.227605 0.155134 -0.275492 0.093692
GlobalSpecies0069 0.002010 0.145861 -0.042483 -0.199260 0.046805 0.243967 -0.147685 -0.057695 -0.055170 0.215914 -0.271791 0.051166 -0.127908 0.399225 -0.013785 -0.157111 -0.067113 0.169535 -0.058147 0.024809 -0.244508 0.033158 -0.199888 -0.008148 0.070141 0.005113 0.034557 -0.103885 -0.058207 0.105145 0.044949 0.060905 -0.176390 -0.278985 0.371353 -0.097050 -0.062034 0.338409 -0.020661 0.136664 0.039081 0.184963 0.061410 0.128397 0.077365 0.138803 -0.108120 -0.098370 0.088734 -0.199427 0.008790 0.067986 -0.225162 0.195637 0.064335 -0.225974 0.045102 0.007378 0.059019 -0.079263 0.318365 0.020298 0.116003 0.104664 0.084866 0.000979 0.265563 -0.025709 -0.076111 -0.238328 -0.027252 -0.069372 -0.187092 -0.187288 -0.137024 -0.100528 -0.092471 -0.324347 -0.001571 -0.152333 0.065119 -0.222578 0.308960 -0.200459 0.224224 0.094461 -0.054470 0.437067 0.282386 0.076713 0.256165 -0.073576 -0.014102 0.132093 0.161357 0.179480 0.039291 -0.022769 -0.140350 -0.331016
GlobalSpecies0070 -0.200277 -0.032797 -0.021417 -0.187750 0.008273 0.040579 -0.094418 0.059877 -0.064421 -0.203988 -0.029022 -0.257735 0.175090 0.157797 0.126916 -0.365283 -0.150043 0.255147 -0.023091 -0.020611 0.114851 0.121875 -0.235656 -0.118442 -0.148701 0.352116 0.116045 0.227573 0.069736 0.072261 0.341594 -0.086763 -0.071086 0.306243 -0.081600 0.342989 0.103536 -0.136451 -0.212335 -0.020134 -0.056495 -0.104651 0.217183 0.103452 -0.056206 0.058600 0.051674 -0.264326 -0.255310 0.053656 0.044114 -0.186642 0.308685 0.209884 -0.252180 0.275865 0.007517 -0.055499 0.310124 0.175869 -0.084441 -0.217099 -0.081708 -0.089374 -0.117928 0.048676 0.063635 0.242089 -0.146055 0.083552 -0.166367 0.201153 -0.194756 -0.012280 -0.310616 -0.049116 -0.196892 0.041101 -0.143159 -0.264873 -0.152234 -0.112298 -0.386716 0.008236 -0.247599 0.027988 0.250656 -0.099049 -0.066134 0.327708 -0.295083 0.014375 -0.319704 0.129054 0.003415 -0.249779 -0.001459 0.049510 -0.182775 0.114490
GlobalSpecies0071 0.190820 0.327144 -0.105749 -0.154904 0.023167 -0.000283 -0.268153 0.098712 -0.195081 0.217133 0.106676 -0.052473 0.205455 0.095809 0.162546 0.195744 -0.021833 0.064261 -0.453241 0.127120 -0.259662 0.203008 -0.035946 0.019290 -0.110019 0.005287 -0.118410 0.092655 -0.159390 0.228093 -0.083547 -0.070119 -0.432754 -0.202224 -0.190678 0.101084 0.006490 0.497116 -0.062603 0.053532 -0.088185 -0.041656 -0.047194 0.247969 0.056361 0.026098 0.147396 -0.149459 0.294078 -0.256807 -0.085699 -0.321274 -0.405164 -0.012393 -0.220541 -0.015405 0.008851 -0.142979 -0.170936 0.165080 0.036732 0.009040 -0.004475 0.028713 0.044931 0.052034 -0.069080 -0.168507 -0.184343 -0.164027 -0.020788 -0.077697 0.167345 -0.058006 -0.165307 -0.150318 -0.150625 0.029336 0.085456 -0.192794 0.323493 -0.038177 0.232027 -0.141600 0.148974 -0.460428 0.142690 -0.262841 0.281445 0.016327 0.155571 0.250590 -0.332783 -0.083490 -0.083146 0.157904 -0.110344 0.035669 0.244213 -0.075766
GlobalSpecies0072 -0.324212 -0.001933 0.100960 -0.305140 0.028296 0.134326 -0.136371 -0.220850 0.052695 -0.223127 0.021832 -0.147627 0.121440 0.112728 -0.078189 -0.143730 0.043665 0.386604 -0.202443 0.054988 -0.045972 -0.119905 -0.100159 -0.137159 -0.217753 0.366565 0.359198 0.171820 -0.081788 0.231642 0.339054 -0.188828 -0.234941 0.091491 -0.057417 0.219101 0.060425 -0.158573 -0.076999 0.210256 -0.248277 -0.284479 0.389798 0.046621 0.081676 -0.029726 -0.098041 -0.119922 -0.179452 0.057413 -0.010529 -0.390012 0.039079 0.195134 -0.119910 0.186744 0.122391 0.013543 0.243218 0.072917 -0.233248 -0.246619 0.057897 -0.168332 -0.222921 0.256818 0.254948 -0.054562 -0.006092 0.160324 -0.173052 0.282250 -0.210740 -0.012972 -0.231920 0.046596 -0.173629 -0.259041 -0.070782 -0.141728 -0.369474 0.118272 -0.267243 -0.045483 -0.304925 0.017529 0.159938 -0.334536 -0.011975 0.424725 -0.212150 -0.113802 -0.346215 0.064445 -0.150736 -0.115368 0.178767 -0.140090 -0.182659 -0.078370
GlobalSpecies0073 -0.006946 0.113664 0.401683 0.028982 -0.057869 -0.085925 0.078253 0.011190 0.032320 -0.085315 0.098247 0.168494 0.067671 -0.123645 -0.081242 0.028974 -0.085909 -0.276344 -0.071098 -0.082514 0.228925 0.046248 0.086404 -0.152166 0.047000 -0.001385 -0.034541 -0.089148 0.008588 -0.170872 0.122380 0.179147 0.067125 0.060667 -0.125507 -0.109235 -0.151283 -0.241819 -0.218509 0.145823 -0.049722 0.060322 0.136707 0.098378 -0.160802 -0.168928 -0.099641 0.010041 0.033026 0.235060 0.057536 -0.179681 -0.014051 0.072821 -0.067875 -0.098712 0.082649 -0.045487 -0.411182 -0.111298 -0.056674 0.016598 0.120828 0.174759 0.105212 -0.005591 0.199118 0.238175 0.144238 -0.051520 -0.161786 0.140782 0.166919 0.032793 -0.042539 -0.068045 0.020538 0.160564 -0.198808 -0.110536 -0.098873 -0.195294 -0.300234 0.143701 -0.083096 0.158150 0.135370 0.077649 0.133256 0.085753 -0.057099 -0.073575 -0.061208 0.004226 0.183523 0.181231 0.145292 -0.008099 -0.130795 -0.078117
GlobalSpecies0074 0.163930 -0.038056 0.024058 0.069092 -0.046026 -0.082778 -0.017034 -0.153430 0.170614 -0.233589 -0.037164 -0.175119 -0.011666 0.145812 0.024073 -0.231347 0.050059 0.154974 0.001198 0.074453 0.175407 0.010255 0.016992 0.069632 -0.200099 0.209693 0.041330 0.047777 -0.000893 0.037714 0.281336 0.074777 0.024146 0.205971 0.022152 0.025599 -0.022593 -0.344448 -0.133473 0.158051 -0.092768 -0.036300 0.099469 0.041775 0.129295 -0.051217 0.074807 -0.133660 -0.044736 0.042215 -0.091332 -0.144423 0.126641 -0.134004 0.072924 -0.062721 -0.005015 -0.055257 0.186820 0.131686 -0.201337 -0.167828 -0.146508 0.004917 0.096736 0.052335 0.051121 -0.166143 0.031561 0.060963 -0.081824 0.158245 -0.013738 -0.014683 -0.095581 -0.027726 0.037882 -0.082705 -0.103008 -0.084627 -0.082685 -0.019093 0.183108 0.134312 -0.228950 0.021989 0.180013 -0.291858 -0.072043 0.027998 -0.134898 -0.032917 -0.177332 -0.005056 -0.136571 0.168883 -0.005187 0.098531 0.016425 -0.060221
GlobalSpecies0075 -0.056638 -0.088540 -0.076507 -0.071214 -0.204780 0.024378 0.251406 -0.046744 0.041296 -0.038775 -0.122868 -0.232354 0.132726 -0.227535 -0.007370 0.066707 -0.206118 -0.044434 -0.141513 -0.080620 0.233530 -0.200183 -0.016884 0.136590 0.536018 0.177156 0.024184 -0.060283 0.113033 0.023303 0.448005 -0.075893 0.135556 0.180821 0.196577 -0.122350 -0.319017 -0.208508 -0.048512 0.033967 -0.316156 0.207859 -0.182017 0.284424 0.077048 0.025242 -0.107940 -0.367706 0.154841 -0.116184 -0.058322 0.124796 0.026663 -0.231266 0.029714 0.035195 -0.071151 0.359162 0.300481 0.173863 -0.233578 -0.084624 -0.248699 0.068224 -0.050846 -0.120688 0.157879 -0.397297 -0.048121 -0.052100 -0.013331 0.174544 -0.085479 0.004170 -0.025233 0.028480 0.199403 0.161575 0.095610 -0.381216 -0.319538 0.081828 0.426844 0.149670 -0.357713 -0.058259 0.338200 0.016942 0.012813 0.034828 -0.044893 0.155677 -0.339356 0.047217 -0.259984 -0.031900 0.103198 0.129610 -0.016093 -0.102764
GlobalSpecies0076 -0.088545 0.041358 0.443648 -0.090090 0.039862 -0.091344 0.240369 0.045849 0.027456 -0.180698 0.132020 0.165562 -0.003728 -0.075264 -0.040106 -0.248728 -0.081398 -0.115539 0.069312 -0.028980 0.308652 0.193405 -0.097169 -0.058576 0.005093 -0.005858 0.056073 -0.012551 0.085293 -0.130723 0.326658 -0.103599 0.026769 -0.004494 -0.097901 0.057676 0.210635 -0.371208 -0.169752 0.137735 -0.043390 -0.003822 0.080518 -0.009561 -0.166743 -0.083594 0.115880 -0.275221 -0.058006 0.308159 0.216139 -0.170887 0.379524 0.208253 -0.040663 0.062598 -0.119954 -0.033440 -0.180570 -0.049156 0.034043 -0.070863 -0.027009 0.396501 -0.128242 0.106737 0.084122 -0.024069 0.216029 -0.001809 -0.271632 0.373012 0.108840 -0.027203 -0.233963 -0.292108 0.004791 0.290813 -0.246849 -0.002642 -0.317076 -0.167573 -0.255138 0.249763 -0.130389 -0.030232 0.138026 -0.122094 0.019099 0.206888 0.002980 0.169815 -0.151296 -0.021493 -0.071993 -0.079164 0.246517 0.043884 -0.248981 -0.025404
GlobalSpecies0077 -0.059068 -0.097856 0.087283 -0.109510 -0.002793 0.126374 0.066803 -0.119818 0.027250 -0.037708 0.330478 -0.041519 -0.185558 -0.041757 0.247414 -0.142938 -0.122030 0.256823 0.048348 -0.040243 0.141717 0.104275 -0.070537 0.154221 0.297997 -0.069986 -0.040809 0.181478 0.008712 0.154549 0.175322 -0.364958 -0.163375 -0.043607 0.019421 0.161051 0.111585 -0.144318 -0.008443 0.218341 0.042234 -0.074375 -0.101117 -0.090926 0.091110 -0.072810 0.361849 -0.220570 -0.066433 0.134821 0.191800 -0.061404 0.425372 0.276207 -0.123956 0.036624 -0.172806 0.118334 0.072197 -0.003851 0.015648 0.113681 0.081951 0.110449 -0.212772 0.202170 0.058440 -0.108594 0.064721 0.202416 -0.013677 0.203772 -0.001491 -0.157544 -0.050936 -0.003601 0.164901 0.266464 -0.229556 -0.068045 -0.224810 -0.048590 -0.134531 0.234314 -0.026675 -0.030327 0.219100 -0.226108 0.010240 0.164966 0.102097 0.209482 0.079875 -0.125537 -0.018938 -0.189626 0.089413 -0.014599 -0.196827 -0.079484
GlobalSpecies0078 0.196289 0.364179 0.001557 -0.370299 -0.072394 -0.035465 -0.251221 0.051616 -0.196701 0.075310 0.003757 -0.025254 0.173027 0.114631 0.162236 0.011183 0.088878 -0.027672 -0.385066 0.224585 -0.110452 0.193902 -0.202724 0.011794 -0.090919 0.220187 -0.039336 0.210262 -0.187960 0.050834 0.174748 -0.256003 -0.363649 -0.285242 -0.178469 0.192247 0.288637 0.365515 -0.360939 0.167851 -0.122699 -0.015511 -0.067403 0.459745 0.144537 0.028230 0.109326 -0.304318 0.073315 -0.071951 0.014496 -0.109734 -0.065790 0.086496 -0.139693 0.096005 -0.022181 -0.010834 -0.011244 0.026446 0.083000 0.161474 0.014107 0.213708 -0.174923 0.196616 0.117691 -0.079286 -0.287467 -0.148722 -0.284016 0.107823 0.112936 -0.092431 -0.220170 -0.161431 -0.172158 0.008722 -0.195669 -0.406478 0.009373 0.021253 0.187027 0.020636 -0.053188 -0.420560 0.280340 -0.328981 0.175637 0.235013 0.085395 0.171081 -0.460158 -0.022186 -0.218854 0.058603 0.008630 0.179054 0.145508 -0.135735
GlobalSpecies0079 -0.032278 -0.182785 -0.066952 0.193384 0.011078 -0.189222 -0.029489 -0.325562 0.103268 -0.025354 -0.016460 -0.362036 0.160950 0.140344 0.039264 0.312596 -0.017824 0.104253 0.002272 -0.164839 0.089542 -0.277319 -0.155251 -0.186617 -0.093780 0.183077 0.199654 -0.023362 0.092465 0.269692 0.129285 -0.057164 -0.109242 -0.036097 0.280527 0.004292 -0.055214 -0.037588 0.119937 -0.053110 -0.170694 0.099864 0.224631 -0.177997 0.264525 0.205279 0.080719 0.088429 0.184185 -0.301452 -0.180087 0.080778 -0.254561 -0.187956 -0.008420 -0.114495 0.038865 -0.131300 0.024988 0.405580 -0.276016 -0.348315 -0.009893 -0.015494 0.109998 0.073418 0.099169 -0.219653 0.238675 -0.037807 0.337712 -0.443559 -0.057021 0.043704 -0.122416 -0.101793 -0.131523 0.054349 0.002163 0.196641 -0.100595 -0.068012 0.429876 -0.339249 -0.167906 0.148766 0.024683 -0.001696 -0.028112 -0.019029 -0.192006 -0.036757 0.151601 0.173790 -0.094967 0.249700 0.042990 -0.210303 -0.186079 0.048895
GlobalSpecies0080 0.155118 -0.436731 0.181364 0.196556 -0.032855 0.084058 0.153424 -0.095345 -0.209856 -0.182279 -0.206719 -0.129874 0.259152 0.291873 0.057511 0.183051 -0.106734 -0.439574 0.190361 -0.262076 -0.186313 0.100195 -0.202812 -0.124867 -0.135742 -0.004882 0.072396 0.102498 -0.007131 -0.177770 -0.420784 0.172928 0.109141 -0.180785 0.128713 -0.182719 0.057187 0.219133 -0.084002 -0.227269 0.226234 0.220051 -0.101845 -0.130806 -0.227027 0.028054 0.100381 0.211050 0.028080 -0.100125 -0.082905 0.163195 -0.322841 -0.065751 0.196894 0.014225 -0.276667 -0.101964 -0.434531 -0.036191 -0.024407 0.013200 -0.165932 -0.059981 0.115023 0.218726 -0.288407 0.230677 0.114820 -0.026836 0.095384 -0.241822 0.143042 0.106415 0.102822 0.193725 -0.145824 0.130717 0.166599 0.208060 0.155331 -0.211379 0.164379 -0.210290 0.127727 0.104472 -0.060793 0.074050 0.057522 -0.310645 -0.049434 -0.102913 0.367754 -0.015809 -0.071384 0.124402 -0.013318 -0.189508 0.391001 -0.001008
GlobalSpecies0081 -0.081699 -0.204414 0.178328 0.201901 -0.180570 -0.101424 -0.276476 -0.014411 0.232570 0.004333 0.094251 0.248418 0.052277 -0.480849 0.045037 0.418945 -0.185693 -0.184255 -0.298841 -0.020368 -0.358336 0.018224 0.266780 -0.231418 0.064059 -0.352830 0.052255 -0.045153 0.080886 0.035544 0.227550 0.345882 0.177739 0.066212 -0.010940 0.226730 -0.225815 0.122643 0.158235 0.113359 0.054160 0.172022 0.142016 -0.001737 -0.328323 -0.093142 -0.223177 0.166933 -0.101129 0.257873 -0.204497 0.180629 -0.206782 -0.070349 -0.186968 -0.378994 0.171564 0.039345 -0.150666 -0.250964 -0.076317 -0.175582 0.178366 0.475779 0.021618 -0.193561 0.032955 0.152457 0.158709 0.208404 0.282561 -0.242932 0.017527 -0.290861 -0.136720 -0.140182 0.065131 -0.123169 -0.136337 -0.250036 -0.040200 0.087152 -0.114992 -0.275292 -0.020440 -0.042014 0.024292 0.054163 0.245406 0.073819 0.045393 -0.353838 0.095348 0.209366 0.247862 -0.222611 -0.162196 -0.069385 -0.196895 0.135457
GlobalSpecies0082 0.027021 0.055047 -0.064441 -0.086749 -0.224450 -0.017241 0.155871 -0.015596 0.119448 -0.053260 -0.090965 -0.274525 0.014384 -0.300767 -0.084944 -0.019826 -0.020079 0.102584 -0.215777 -0.049154 0.240620 -0.197516 0.004313 0.035887 0.476652 0.186615 -0.034774 -0.055064 0.003684 0.040472 0.515318 -0.089032 0.044515 -0.001489 0.022319 -0.053426 -0.143604 -0.322820 -0.098397 0.010329 -0.392624 -0.033565 -0.148139 0.233141 0.067058 -0.004747 -0.065715 -0.336219 0.046142 -0.114103 -0.077773 0.034264 0.178459 -0.313801 -0.034506 -0.032147 -0.046479 0.125620 0.442108 0.100045 -0.243157 -0.111018 -0.232365 0.036780 0.049530 -0.078898 -0.028449 -0.252287 -0.125611 -0.183061 0.009499 0.083885 -0.066973 0.167655 -0.075691 -0.194805 0.159554 -0.038113 -0.063380 -0.527466 -0.336026 0.142242 0.367372 0.191232 -0.411935 -0.139909 0.414234 0.074012 -0.085362 0.100241 -0.024925 0.152804 -0.413513 0.038485 -0.256401 -0.118800 -0.020350 0.081141 -0.056673 0.020186
GlobalSpecies0083 -0.100625 -0.019174 0.004981 0.148104 -0.191293 0.028690 -0.062836 -0.283578 0.055131 -0.177653 0.116674 -0.143054 -0.168557 -0.118404 0.190669 0.040265 -0.016136 0.065164 -0.043592 0.109966 0.140590 -0.284129 0.156992 0.087370 0.422119 -0.024236 -0.134782 0.116414 -0.144410 0.247519 0.189459 0.000784 -0.154448 0.039598 0.002274 -0.152005 -0.083925 -0.209111 -0.181448 0.020909 -0.067911 0.124175 -0.142279 -0.060045 0.103717 -0.113215 0.181860 -0.112013 0.180017 -0.141440 -0.064688 0.156688 0.190548 -0.030232 -0.024280 -0.146029 0.021521 -0.129565 0.060313 0.189838 -0.190729 0.031238 0.066194 -0.005082 0.021374 0.032743 0.032988 -0.033018 -0.028309 0.071011 0.194088 0.042049 -0.064998 -0.010477 0.043838 0.229881 0.108658 -0.050199 -0.045310 -0.330327 0.001194 0.059074 0.171419 0.163479 -0.057351 0.005534 0.394807 -0.017077 -0.122890 -0.010026 0.083143 0.188579 -0.074934 -0.076865 0.075450 0.039322 0.157786 -0.074956 -0.012537 0.039226
GlobalSpecies0084 0.259619 0.055594 0.138391 -0.107476 0.011741 0.028885 -0.135672 -0.042046 -0.000033 0.003813 -0.100292 -0.062038 -0.123634 0.086491 -0.035475 -0.171733 -0.004601 0.226261 0.123257 0.012649 0.064108 -0.153089 -0.133352 0.105368 0.052025 0.035000 -0.093553 -0.079514 -0.223797 0.107469 -0.037573 0.188319 0.010990 -0.064986 0.101058 0.012001 -0.005595 0.004108 0.018205 0.306827 0.215258 -0.000486 0.004690 0.042025 0.015369 -0.047600 0.038101 -0.099922 -0.028815 0.103497 -0.137462 -0.077893 0.198664 0.061017 0.000269 -0.101354 -0.133785 -0.061663 0.110081 0.055279 0.099318 -0.042362 -0.150253 -0.003295 0.035729 0.205127 0.220220 0.041058 -0.068982 0.111483 -0.050783 0.280913 -0.164386 -0.179083 0.183978 0.115114 0.247039 -0.017712 -0.115170 -0.252773 -0.136869 0.013906 -0.007682 0.147233 -0.171289 0.069173 0.190423 -0.131791 -0.061375 0.097458 0.058440 -0.021284 0.047376 0.094660 0.143695 -0.001707 -0.149739 -0.073783 -0.023491 -0.322916
GlobalSpecies0085 0.347753 0.138369 0.366285 0.074001 0.005990 -0.135070 0.181134 0.110673 -0.274360 0.120519 -0.028288 0.209288 -0.054279 -0.005225 -0.175668 0.103945 0.205168 -0.364896 -0.204803 -0.184870 -0.016621 0.099581 0.031522 -0.245249 0.020632 -0.333860 0.104830 -0.062516 -0.137926 0.006825 -0.192800 0.200090 -0.127789 0.123408 -0.180363 -0.092465 0.188753 0.225272 -0.020488 -0.324894 0.072034 -0.189136 0.046126 0.028731 -0.197760 -0.008503 -0.052673 -0.010161 0.128697 -0.103475 0.009336 0.018748 -0.374529 -0.053530 0.034995 -0.243085 0.092099 -0.242878 -0.446889 -0.165396 0.077543 0.008294 0.297564 -0.166782 0.120715 -0.268369 -0.130470 -0.067275 0.164655 -0.169769 -0.053794 -0.285792 0.243730 0.034550 0.254684 0.166102 0.006425 -0.006389 0.132082 0.273620 0.014909 -0.019885 0.028641 -0.037665 0.289853 0.150946 -0.216290 0.259069 0.135473 -0.076480 0.065320 0.029661 0.066342 -0.164497 -0.028964 0.074220 0.016201 -0.096435 0.070350 0.114916
GlobalSpecies0086 -0.010666 0.176467 -0.179942 0.098144 -0.023255 0.035266 0.116751 0.044833 0.134799 0.180188 -0.196990 0.010203 -0.122407 -0.097839 -0.007867 -0.138238 -0.074796 0.234430 0.020346 -0.085448 0.210900 -0.238378 0.024697 -0.036828 0.367677 0.127126 0.036250 -0.038426 -0.102275 -0.018365 0.196484 0.175464 -0.019030 -0.063571 0.227091 -0.095007 -0.165822 0.052874 -0.006609 0.058905 0.004464 0.084983 0.174541 -0.007429 0.112558 -0.170047 -0.104480 0.029407 0.149425 -0.125361 -0.104171 0.107500 0.183116 -0.168590 -0.089557 -0.251443 -0.086919 0.069690 0.044278 0.096164 0.084732 -0.139342 -0.413986 -0.169323 0.027598 0.121733 0.200813 -0.214067 -0.190363 -0.102106 0.024177 0.218962 -0.121130 0.047855 -0.073500 -0.081155 0.266902 0.026786 -0.094664 -0.216680 0.050490 -0.194575 0.138725 0.142531 -0.244305 0.110172 0.307645 0.053716 0.027714 0.102505 0.037330 0.173060 -0.238893 -0.027825 -0.019942 -0.042023 -0.091491 0.156910 -0.125860 -0.098945
GlobalSpecies0087 -0.149842 0.116812 0.076891 -0.187519 -0.081685 0.172245 -0.165631 -0.046437 -0.079981 -0.096948 0.119999 -0.324035 -0.098989 0.101159 0.295206 -0.212609 -0.159248 0.185315 -0.007555 -0.055801 0.084205 -0.080015 -0.360853 0.148657 0.173059 0.086639 -0.187300 0.322486 -0.118256 0.181297 0.181991 -0.165513 0.008550 0.283178 -0.200069 0.170957 0.052668 -0.117051 -0.204805 0.015981 0.117052 -0.079882 -0.111279 0.078886 -0.090906 -0.073874 0.267748 -0.268376 -0.256524 0.114986 0.070539 0.108391 0.597099 0.239353 -0.270905 0.183195 -0.263662 -0.048483 0.174694 0.112203 -0.026905 0.034664 -0.066854 0.058724 -0.144849 0.125683 0.064117 0.416063 -0.050917 -0.084548 -0.207795 0.235436 -0.207823 -0.022933 -0.262654 -0.019316 0.073576 0.281653 -0.262740 -0.377706 -0.193208 0.005784 -0.193666 0.177768 -0.140169 0.010869 0.488691 -0.156581 -0.189978 0.281877 -0.116192 0.105782 -0.172040 0.100453 0.172628 -0.244310 0.074851 0.062671 -0.208298 -0.023305
GlobalSpecies0088 -0.041754 -0.000805 -0.059786 0.240763 -0.286747 -0.059055 -0.074331 -0.260255 0.080828 -0.092247 -0.018365 -0.382530 -0.282582 0.011502 0.081651 0.094274 0.052833 -0.225467 -0.189157 0.022373 -0.149036 -0.630855 0.078597 0.054683 0.378785 -0.220003 -0.295609 -0.018013 -0.079323 0.389622 -0.021109 0.163552 0.179726 0.155833 0.044875 0.024673 -0.141150 0.023626 0.045767 -0.089772 0.059189 0.161402 -0.153936 -0.188265 0.128428 0.054019 0.087156 -0.017000 0.270386 -0.043517 -0.032331 0.203964 0.132569 -0.146796 0.016218 -0.264596 0.334872 -0.131111 -0.017724 0.147374 -0.121575 -0.164788 0.189698 -0.248247 0.199431 -0.024567 -0.117415 -0.160367 0.203792 -0.006979 0.281790 -0.078262 -0.077863 -0.011546 0.204892 0.241127 0.018845 0.022556 0.025103 0.061393 0.238106 0.120828 0.359825 0.154604 0.067736 0.011009 0.209936 0.060124 -0.104827 -0.194946 0.214576 0.143095 0.223579 -0.138018 -0.064957 -0.066833 -0.089144 -0.054211 0.148171 0.160560
GlobalSpecies0089 0.537832 0.040147 -0.347591 0.166218 0.695639 0.645192 0.563786 0.491723 -0.173163 0.713855 0.196351 -0.146650 -0.038605 0.303886 -0.093678 0.487463 -0.102000 -0.930546 -0.091878 -0.311834 -0.393477 -0.868622 0.419892 -0.097996 -0.354127 -0.030951 -0.109157 -0.007438 -0.695479 -0.055374 -0.201098 0.242211 0.412688 -0.185293 0.140851 -0.471160 0.118993 -0.158547 0.672718 -0.011906 0.023008 0.239616 0.058590 -0.337027 -0.160058 0.538555 -0.153070 0.432415 -0.172720 -0.033101 0.657352 0.191842 -0.290514 -0.424183 -0.026069 0.184856 0.257700 -0.609234 0.655131 -0.010354 -0.022220 0.327089 -0.199596 -0.304182 -0.158430 -0.158708 -0.756627 0.326230 0.042201 -0.738985 0.298701 -0.345826 -0.109493 -0.097067 0.606640 0.017561 -0.473859 0.096308 0.577444 0.519481 0.891697 0.104765 0.281706 -0.008817 0.139626 0.051834 -0.678737 0.649708 -0.148470 -0.504163 0.331439 0.371514 0.127676 0.037791 -0.210463 -0.485504 -0.326120 0.058819 -0.099416 -0.269041
GlobalSpecies0090 -0.028572 -0.263926 -0.283395 0.127427 0.159024 0.049701 0.120291 0.189401 -0.133469 0.160836 -0.219602 0.038385 -0.050881 0.223322 -0.048595 0.137767 0.013151 -0.168974 0.221932 -0.313641 -0.430864 0.092276 0.223164 -0.186871 -0.147017 -0.285565 0.185750 -0.155111 0.009250 0.206585 -0.149073 0.144741 -0.061354 -0.133786 0.065409 0.129764 0.205661 0.208856 0.254499 -0.164186 -0.006635 0.044762 -0.119415 0.013673 0.180383 0.070521 -0.242882 0.205685 0.205405 -0.080757 0.104024 0.266849 -0.307575 0.093577 0.248473 -0.189895 0.352566 -0.076689 -0.043200 -0.198486 0.227052 0.095236 0.043187 -0.164671 -0.026460 0.247707 -0.053132 0.021065 0.151367 -0.199629 0.258113 -0.246089 0.030277 -0.006906 -0.062450 -0.050732 0.069434 -0.484236 -0.008302 0.459139 -0.010399 -0.165305 0.074969 -0.305819 0.421000 0.049201 -0.387938 0.127069 0.102873 -0.453330 0.290167 0.045525 0.551761 0.025454 -0.255613 -0.079763 -0.233658 0.141883 -0.078672 0.154572
GlobalSpecies0091 0.358825 -0.780813 0.124818 0.133538 -0.306370 -0.460181 -0.319946 0.003828 0.206543 0.031441 -0.173322 -0.025816 -0.257510 -0.331935 -0.041739 0.178290 0.128966 -0.522562 0.159161 -0.232540 0.124170 -0.363645 0.417018 -0.000265 -0.668886 -0.349147 0.067893 0.073758 -0.171631 -0.103570 -0.471428 0.170043 0.291222 -0.252954 -0.193740 -0.167939 -0.391360 0.222979 0.229712 0.064826 0.143645 -0.048727 0.053738 -0.025308 -0.596305 -0.393399 -0.072427 0.101130 -0.001568 0.117522 -0.255082 0.071843 -0.233602 0.199191 0.087932 0.365677 -0.329051 -0.123325 0.036460 -0.282738 0.557672 0.042333 0.259265 0.039700 0.259542 -0.297615 -0.166039 -0.414118 -0.256715 0.004169 0.186638 -0.365606 0.542689 -0.132144 0.035887 0.223858 0.507893 -0.595951 -0.350943 0.070145 0.494148 0.737654 -0.040576 -0.828989 0.172912 -0.165543 -0.403721 0.302877 -0.139635 -0.338302 -0.047706 -0.893409 0.542521 0.314338 -0.400279 -0.051144 0.096955 -0.697060 0.182775 0.131981
GlobalSpecies0092 -0.067964 -0.034898 0.070967 -0.151003 -0.070281 0.322644 -0.134545 -0.303643 -0.001449 -0.124248 0.238677 -0.184995 -0.261784 0.009105 0.297074 0.088137 -0.065423 0.172381 -0.068959 -0.015132 0.078969 -0.228615 -0.177884 0.094945 0.438163 -0.020413 -0.249680 0.227975 -0.367983 0.264581 0.037884 -0.125475 -0.188711 0.008468 -0.136637 0.013650 -0.047870 -0.248849 -0.097580 0.255579 0.052244 -0.232497 -0.020160 0.104031 -0.100542 -0.173310 0.271272 -0.253711 -0.107045 0.008423 0.031506 -0.026747 0.486392 0.287612 -0.229397 0.135811 -0.136409 -0.020343 0.118648 0.096086 -0.076023 0.122546 0.117522 0.091872 -0.053218 0.229419 0.143667 0.160812 0.151610 0.078973 -0.206087 0.195016 -0.171199 -0.086084 -0.113258 0.190512 0.087879 0.132857 -0.281609 -0.431581 -0.265969 0.079838 -0.049507 0.377635 -0.066595 -0.027974 0.625244 -0.235142 -0.188883 0.220415 -0.105781 0.181882 -0.124848 -0.078837 0.134946 -0.166082 0.107920 0.113784 -0.087100 -0.043678
GlobalSpecies0093 0.214580 0.008605 0.139692 -0.076501 -0.039883 0.051211 -0.015128 -0.095338 -0.097048 -0.048757 0.080363 0.003656 0.019526 0.196816 0.168442 -0.252280 0.026617 0.109009 0.097017 0.087657 -0.021350 0.235358 -0.128061 0.055936 0.075844 -0.011374 -0.035424 0.073500 -0.005942 0.043272 0.021370 -0.164333 -0.140275 0.031402 0.062153 0.020105 0.231413 0.018729 -0.008693 0.137539 0.056558 -0.051724 -0.109139 0.037521 0.165137 -0.052776 0.302244 -0.174693 -0.065267 0.117951 0.174365 -0.126347 0.305393 0.157503 0.044067 -0.117147 -0.082117 -0.102903 0.027947 0.014974 0.005596 0.077165 0.031953 0.065741 -0.053456 0.126775 -0.031145 -0.124955 0.106803 0.058772 -0.126556 0.148202 0.075811 -0.227276 0.014099 -0.006689 0.069022 0.108920 -0.163937 -0.108064 -0.040695 -0.085030 0.094735 0.173005 -0.002227 -0.086694 0.136121 -0.350224 0.067986 0.005782 0.123264 0.143965 -0.050724 -0.023298 0.022702 0.002403 -0.136225 0.136424 -0.001876 -0.090642
GlobalSpecies0094 0.097287 -0.074451 0.142809 0.054561 -0.078150 -0.084386 0.088271 -0.115477 0.167117 -0.261178 -0.060004 -0.052327 -0.018005 -0.020478 0.025593 -0.000547 0.023463 0.137676 -0.108488 -0.027803 0.268305 0.076070 -0.001840 -0.229213 0.062775 0.191859 0.118036 0.076534 -0.035467 0.006143 0.488289 0.034821 -0.040486 0.253136 -0.030278 0.047753 0.058002 -0.468204 -0.160758 0.113982 -0.100798 -0.037160 0.295696 0.010874 -0.038438 -0.030749 0.117324 -0.290161 -0.099218 0.122966 0.163153 0.034045 0.169715 0.088325 -0.079624 -0.115356 -0.052285 -0.101265 0.050935 0.111431 -0.051881 -0.184769 -0.079024 0.171391 -0.080352 -0.054121 0.091168 -0.044802 0.150495 -0.004676 -0.080229 0.251319 0.030899 -0.112824 -0.159314 -0.167736 -0.089710 0.064696 -0.207295 -0.127634 -0.178432 -0.015205 -0.014306 0.115023 -0.138567 0.014908 0.325066 -0.076620 0.057447 0.229231 -0.192211 0.022132 -0.345879 0.118400 -0.236040 0.017021 0.116134 0.092515 -0.257458 0.026728
GlobalSpecies0095 0.055405 -0.511020 0.087550 0.125753 -0.145441 -0.121311 -0.288582 0.030027 -0.253696 0.298081 -0.027637 -0.181667 -0.304113 -0.301031 -0.579354 -0.298818 0.494828 -0.084936 0.014701 0.296600 -0.155218 0.459545 0.056270 0.066399 -0.177333 -0.312017 0.114119 -0.008593 0.075999 0.375557 -0.467108 0.137693 -0.281551 -0.156564 -0.135659 -0.247360 -0.418304 0.252858 0.664939 -0.122513 0.202264 -0.198807 -0.162178 -0.560468 0.428107 -0.153290 -0.424332 0.279844 -0.176967 -0.091849 -0.009071 0.327556 -0.387572 0.197928 0.492223 -0.106977 -0.363574 -0.157883 0.116485 -0.552811 0.573482 -0.149523 -0.081698 -0.390864 0.201010 -0.246824 -0.001209 -0.051880 -0.119179 -0.068278 0.008479 -0.132638 0.083158 0.143343 0.083337 0.115411 0.111109 -0.241286 0.512725 0.264046 0.192735 0.306740 0.259411 -0.212625 0.495225 -0.175267 -0.736180 0.346283 -0.157228 -0.380370 0.326055 -0.111345 0.320008 0.219273 -0.303950 -0.072964 0.126168 -0.270775 0.500672 0.044621
GlobalSpecies0096 -0.114319 -0.148222 -0.059902 0.040294 -0.144468 -0.172185 0.120154 -0.141836 -0.072940 -0.136726 0.037944 -0.001830 -0.070062 -0.036172 -0.180520 -0.062662 0.040473 -0.064274 0.214598 -0.185059 0.155938 0.126272 0.097902 0.091016 -0.064704 -0.001635 0.012325 -0.095397 0.244142 -0.144668 0.006364 -0.071554 -0.056750 -0.078342 0.003365 -0.056416 -0.045963 -0.177592 0.042090 -0.011566 -0.077903 -0.037672 0.110071 -0.114056 0.080307 0.048172 0.082870 -0.199442 0.135745 -0.055463 -0.021037 -0.207906 0.007956 -0.006331 0.096217 -0.207877 0.015301 0.002904 -0.063016 0.026722 -0.065349 -0.131130 0.014462 -0.115464 0.144247 0.048919 0.118857 -0.160991 0.256614 0.079145 0.154538 -0.020861 0.117357 0.123512 -0.062079 -0.044793 0.071801 0.065284 -0.059957 0.229906 -0.002739 -0.282270 -0.098663 -0.005834 -0.051109 0.077410 -0.138101 0.022357 0.024016 -0.044547 0.155394 0.182489 0.080948 -0.164384 -0.103797 0.084386 0.055720 0.042036 0.035934 -0.089376
GlobalSpecies0097 0.410325 -0.536874 -0.483974 -0.242806 -0.173055 0.030154 0.154645 0.328419 0.242424 0.462011 -0.035120 0.410285 0.220223 -0.062675 -0.042259 0.293246 -0.022446 -0.057629 0.153586 -0.049254 -0.178877 -0.059772 -0.355036 -0.353490 0.024761 -0.143657 0.010380 0.077541 0.016151 -0.040660 -0.511765 -0.366827 -0.224853 -0.068518 0.186374 0.210898 0.111682 0.606940 0.199363 -0.261362 -0.070967 -0.198600 0.066251 0.153830 0.016179 -0.135459 0.022456 0.420787 0.043336 -0.273475 -0.151757 0.145256 -0.126070 -0.355504 0.339240 -0.123028 -0.166358 -0.153432 -0.416484 -0.418420 0.024907 -0.049504 -0.021911 -0.076580 0.122985 -0.262983 -0.388832 -0.274585 -0.053581 0.080781 0.185821 -0.112949 0.303812 0.105424 0.021000 0.050681 -0.188220 0.181592 0.010065 0.246632 -0.330874 0.093368 0.097398 -0.284522 0.526958 -0.293620 -0.496878 0.046587 0.194966 -0.281553 0.542177 -0.013316 0.260317 -0.533288 -0.270832 -0.104795 0.142952 -0.373504 0.288229 0.259668
GlobalSpecies0098 0.027070 0.078902 0.006405 -0.134096 -0.052698 -0.000717 -0.060570 -0.005300 -0.068600 -0.059880 -0.134477 -0.047518 -0.007016 0.281307 0.006754 -0.341738 0.008881 0.223640 -0.104822 0.037626 -0.071030 0.079324 -0.092495 -0.112771 -0.109964 0.235551 0.149578 -0.035724 -0.182675 0.033917 0.144493 -0.052817 -0.205040 -0.076135 0.042651 0.110466 0.097384 0.118079 -0.180913 0.171137 -0.013844 -0.234628 0.219274 0.101443 0.143169 0.004847 -0.020222 -0.085942 0.084867 -0.066062 0.101978 -0.045771 0.047408 0.270690 -0.016941 -0.230335 0.017764 -0.012458 0.074417 0.035458 0.047012 -0.049031 -0.090727 -0.052254 0.004244 0.202000 0.092568 -0.038725 -0.095381 -0.096378 -0.175964 0.278496 -0.188997 -0.162723 -0.207082 -0.098277 -0.121843 -0.066835 -0.263240 -0.054381 -0.041075 -0.250328 -0.022388 -0.155364 0.057331 -0.004631 0.104881 -0.102217 0.151639 0.163732 -0.003200 -0.049171 -0.288143 0.134022 -0.018842 0.008713 -0.050847 0.147112 -0.191706 -0.232188
GlobalSpecies0099 0.273250 0.084897 -0.143517 0.089752 0.007895 0.079594 0.057742 0.027873 -0.148946 -0.113362 -0.041433 -0.050216 -0.163591 0.092184 0.118935 -0.162477 0.094131 0.087996 0.021225 0.008851 -0.017337 0.034821 -0.047125 -0.013424 0.061590 -0.074875 -0.111612 -0.053149 -0.060810 0.033644 -0.099628 0.045756 -0.052850 -0.092178 0.041836 -0.077900 0.031147 -0.003137 0.035240 0.046893 0.091326 -0.015324 -0.008407 0.068444 0.178110 0.043646 0.066318 0.044656 0.154848 -0.015022 0.061628 0.037456 0.093077 0.026395 0.203188 -0.244867 -0.114558 -0.085764 -0.001987 -0.016651 -0.019315 -0.014097 -0.056433 -0.053067 0.083930 0.011493 0.019992 -0.060807 0.000622 -0.067229 0.030874 -0.013554 0.001323 -0.229928 0.060087 -0.070375 0.078065 -0.179039 -0.124687 -0.032241 0.180491 -0.104033 0.177253 -0.014747 -0.033850 0.010311 0.107746 -0.060522 0.089477 0.032067 0.185227 0.048919 -0.082619 0.058243 0.073761 0.283290 0.032379 0.173023 -0.066259 -0.189541
GlobalSpecies0100 0.343349 0.045502 0.362786 0.244403 0.082688 -0.066687 -0.102344 -0.190105 0.120409 -0.138342 -0.001763 0.011656 0.091702 -0.018786 0.091441 -0.111384 -0.058055 -0.039379 -0.096590 0.137675 0.025935 0.224309 -0.147095 0.027826 0.015989 -0.022264 0.134701 0.119429 0.025639 0.010732 0.164040 0.147230 0.093893 0.214182 0.028458 -0.077502 -0.052321 -0.313384 -0.111160 0.095851 0.107009 0.082362 0.013290 0.134249 -0.111854 -0.180550 -0.071051 0.091243 -0.133643 0.365734 -0.026147 -0.303410 0.124848 0.040168 -0.004492 0.056536 -0.035252 0.077654 -0.060982 -0.087158 0.044498 -0.109104 -0.109439 0.444172 0.014988 0.094930 0.052183 0.031024 0.034978 0.070410 -0.002405 0.086356 0.031306 -0.186401 0.082872 -0.125252 0.148850 -0.094794 -0.052090 -0.326453 0.018064 0.163174 0.021352 0.067338 -0.116294 -0.053826 0.117445 -0.359091 0.130879 0.129050 -0.231772 -0.143963 -0.110686 0.038895 0.000473 0.019302 -0.023040 0.006659 -0.010187 -0.055766
GlobalSpecies0101 -0.064812 0.101449 -0.011314 0.018599 -0.040598 -0.067937 0.060398 0.047068 -0.045353 -0.091825 -0.167901 -0.205126 -0.021557 0.151698 0.024740 -0.421216 -0.040465 0.192650 0.055384 0.008639 0.314244 0.055447 -0.153479 -0.075753 -0.031242 0.191184 0.030126 0.059147 -0.020762 -0.049743 0.368566 0.031329 0.020049 0.162346 0.076893 0.179531 0.043316 -0.207436 -0.224089 0.013136 0.001202 -0.101560 0.193895 0.073257 0.030856 0.093453 0.044531 -0.270883 -0.076700 0.044015 0.109479 0.055090 0.392796 0.151580 -0.120654 -0.061945 -0.179180 -0.059025 0.242160 0.187820 0.099578 -0.086466 -0.329399 -0.052979 -0.078552 0.086829 0.135397 0.102005 -0.103810 -0.079062 -0.148297 0.251719 -0.209142 -0.014732 -0.237506 -0.228198 -0.087423 0.098881 -0.237856 -0.141691 -0.057023 -0.147514 -0.175315 0.089300 -0.289880 0.111576 0.228014 -0.001572 -0.055272 0.214936 -0.140410 0.052128 -0.341411 0.204044 -0.102498 -0.071879 0.030341 0.128422 -0.340110 0.003721
GlobalSpecies0102 0.064121 0.156887 -0.244537 0.122573 -0.177416 -0.078675 0.075033 0.019985 -0.084167 0.040299 -0.166495 0.016752 -0.114760 0.072215 0.035813 -0.174862 0.079307 0.048359 -0.145563 0.145976 0.203720 0.018188 -0.002496 -0.039256 0.139824 0.148811 -0.036257 -0.096065 -0.002815 -0.022936 0.185526 0.118056 -0.174715 -0.143266 0.164060 -0.057601 0.071129 0.127163 -0.113289 -0.010934 -0.070675 0.007721 0.079428 0.183039 0.228269 -0.020385 -0.012242 -0.167702 0.151082 -0.075703 0.035360 0.043216 0.036923 0.067422 0.059754 -0.228914 -0.116849 0.060215 -0.043250 -0.054079 0.088052 0.050662 -0.155251 -0.071214 0.056156 -0.008590 0.072249 -0.250549 -0.103747 -0.198070 0.022846 0.020397 -0.083497 -0.179883 -0.090103 -0.192854 0.025631 -0.121775 -0.121910 -0.086937 0.073575 -0.181887 0.186302 0.006340 0.034589 -0.127535 0.154141 -0.009944 0.189603 0.005710 0.265110 0.148734 -0.116282 0.100970 -0.035663 0.110205 -0.027783 0.128250 -0.001962 -0.049373
GlobalSpecies0103 0.323481 0.175030 0.113882 0.104843 0.066222 -0.037338 -0.037119 -0.053216 0.112353 -0.072696 -0.112340 0.078956 -0.164179 -0.074073 -0.029692 -0.333043 0.156465 0.116221 0.005783 0.093031 -0.036659 0.139118 -0.077321 -0.111592 0.027702 -0.037776 0.099430 -0.131517 0.002445 -0.009777 0.086303 0.234531 0.104658 0.083512 0.221043 -0.076709 0.041168 -0.205308 0.009957 0.229636 0.087132 -0.161145 0.095713 0.095118 -0.151431 -0.145396 -0.074755 -0.064873 -0.043889 0.155427 0.097785 -0.066816 0.004864 -0.021525 -0.018981 -0.235303 -0.240502 0.093839 -0.053851 -0.042962 0.163910 0.033929 -0.140830 0.087465 0.071989 0.123573 0.082607 0.151217 -0.089863 -0.046787 -0.075464 0.275603 -0.020529 -0.133060 -0.009562 -0.123536 0.187858 0.024420 -0.021188 -0.236129 -0.053520 -0.059537 -0.120397 -0.129287 -0.173624 0.076953 0.105915 -0.192736 0.152300 0.132341 -0.039226 -0.141451 -0.079807 0.041792 0.136976 -0.047422 -0.123660 0.042753 -0.122036 -0.198621
