GlobalSpecies0001 -0.143996 -0.416966 0.183112 0.090218 0.047839 -0.007186 0.068559 -0.015349 -0.148529 0.068159 0.080942 -0.182298 0.193759 -0.186227 0.077141 -0.056908 -0.016703 -0.123511 -0.135915 0.006626 -0.058111 -0.000365 -0.022880 0.004118 -0.048592 0.008340 0.221788 0.011838 0.172405 -0.056796 -0.059635 0.020006 -0.143584 -0.233541 -0.035382 0.222016 0.197898 0.047834 -0.217595 0.167725 -0.078010 0.126229 0.025207 -0.071474 0.442867 0.249284 0.138516 0.001862 -0.062281 -0.014998 -0.054155 -0.046893 0.046945 -0.200796 -0.073267 0.070534 0.324923 0.025969 0.083324 -0.036380 0.020674 -0.111193 -0.106382 0.215221 -0.198688 0.066662 0.127437 -0.096880 -0.109618 0.125607 0.349388 -0.139769 -0.006400 0.216876 0.216803 0.088078 -0.196330 0.018331 -0.155604 -0.218272 0.182853 -0.090959 -0.058173 0.041566 -0.046332 0.147638 -0.129889 0.088365 -0.232119 -0.156005 -0.011835 0.287720 -0.041880 0.051443 0.205797 0.086714 -0.216662 0.012292 -0.208816 0.009937
GlobalSpecies0002 0.019167 0.042037 0.109901 -0.068941 0.209532 0.021834 -0.249743 0.089160 -0.030966 -0.231940 0.166068 -0.151723 0.160516 -0.102387 -0.042482 -0.233505 -0.053427 -0.057008 -0.215234 -0.046982 -0.130706 -0.212111 -0.079353 0.105164 -0.026143 -0.074828 -0.106421 0.017682 0.035308 -0.113188 0.051213 -0.184520 0.113976 -0.181682 0.118369 0.089332 -0.009797 -0.022542 -0.128831 0.083914 -0.036106 -0.004651 0.096559 0.069139 0.174225 -0.209650 0.062502 -0.102648 -0.167248 0.106144 -0.102177 -0.204794 -0.087848 -0.126055 0.078072 -0.048319 0.175288 0.107572 0.029721 -0.047172 0.040984 0.089963 -0.096449 0.051272 0.050080 -0.047686 -0.082252 0.122092 -0.061765 0.052389 0.263722 -0.007034 -0.124594 0.133727 0.013622 -0.082702 -0.135815 -0.013927 -0.138961 -0.134563 -0.056104 0.274697 -0.100002 0.022940 -0.034213 -0.051881 -0.215501 -0.074734 -0.094621 -0.201489 -0.096452 0.045186 0.072720 -0.031169 -0.053934 0.010214 -0.040004 -0.073893 -0.103308 0.073925
GlobalSpecies0003 0.372395 -0.027340 -0.323906 -0.062320 0.228234 -0.104804 0.029599 -0.042140 0.046782 0.304736 -0.333370 0.136084 -0.155466 0.034137 0.041431 0.223690 -0.003519 -0.050909 -0.134282 0.060646 -0.020850 -0.147329 0.356690 0.221032 0.067850 0.257585 0.519114 -0.063337 -0.461710 -0.035956 0.236460 0.938124 -0.253836 -0.097013 -0.146042 -0.375577 0.040861 0.078453 0.252572 -0.134254 -0.174301 -0.337452 -0.293548 0.414612 -0.599386 -0.063144 -0.148393 0.953144 0.013798 -0.344545 0.272988 0.298598 0.161637 0.214919 -0.356528 -0.539400 -0.054040 -0.158335 0.332545 0.814605 -0.049868 0.131213 0.048251 -0.290102 0.617858 -0.353615 -0.033312 -0.155099 -0.031611 -0.207478 -0.429564 -0.199843 -0.100685 0.308613 -0.106678 0.165404 0.389807 0.189784 0.122305 0.764187 0.112871 0.226381 0.324353 -0.204201 0.422872 -0.281629 -0.085847 0.319682 0.155299 0.083049 0.515802 0.016869 0.287908 -0.222475 -0.266701 0.228288 -0.176008 -0.527166 0.065640 -0.511486
GlobalSpecies0004 -0.104011 0.302775 -0.017652 -0.074496 0.043117 -0.080892 0.063931 -0.019612 0.288810 -0.153862 0.120075 -0.071028 -0.149243 -0.119506 -0.082464 0.213500 0.063373 -0.096349 0.108734 0.001509 0.077225 0.098696 0.188580 -0.047221 0.016042 -0.197063 0.089179 -0.173796 -0.381192 -0.087292 0.264604 -0.099412 0.063289 0.131758 0.030955 -0.235796 0.135448 0.088160 0.126137 -0.179349 -0.030193 0.261858 0.048408 -0.076112 0.118182 -0.136671 -0.186394 0.115652 0.086858 -0.107131 -0.129839 -0.001133 0.165347 0.274860 -0.060424 0.145675 0.066251 -0.110004 -0.076819 0.011612 -0.164062 0.006031 0.131147 0.012425 0.217261 -0.197100 -0.153995 0.279774 0.090931 0.063295 -0.030789 0.069988 -0.084504 -0.007251 -0.020793 0.232405 -0.006270 0.111698 0.089570 0.110137 0.024276 0.035355 0.103198 0.348056 0.029425 -0.006849 0.040205 -0.157026 0.034956 0.229236 0.043152 -0.072655 -0.131141 -0.075774 0.071966 -0.281341 0.142544 -0.179845 0.016413 -0.151205
GlobalSpecies0005 -0.050646 0.024817 -0.204730 0.151661 0.135054 -0.166808 0.025649 0.097866 0.316253 0.075988 0.064125 -0.133507 -0.045349 0.318976 0.009289 -0.226580 0.154015 0.030284 -0.222002 0.186401 -0.052502 -0.114439 -0.284596 -0.219812 -0.091028 -0.021891 -0.040169 -0.103619 0.105109 0.129851 -0.193842 -0.013761 0.070208 0.159012 0.159416 -0.264887 -0.059688 -0.009478 0.023452 0.136421 0.031502 0.008216 0.190043 -0.227711 0.028803 0.028049 0.074083 -0.223162 -0.036282 -0.222547 0.061810 0.006085 0.299433 -0.245785 0.116671 -0.180299 -0.380862 -0.236100 0.079051 -0.176352 -0.148331 -0.110401 0.171386 -0.140202 0.029936 0.123218 0.022548 0.088451 0.252385 0.049714 0.166503 0.028361 0.180960 -0.018186 -0.126731 0.015471 0.117255 -0.241330 -0.237547 0.115489 0.165676 0.045152 0.205048 -0.317071 -0.020976 0.209650 0.258727 0.033685 0.239099 0.046674 -0.189780 0.203270 -0.033141 0.029591 0.032272 0.054624 -0.173634 -0.153769 -0.063990 0.139039
GlobalSpecies0006 -0.078738 0.004899 -0.309139 0.186185 0.144626 -0.181341 0.089170 -0.045193 0.102623 0.219766 -0.044433 0.045656 -0.382299 0.260584 -0.134934 -0.290196 0.011420 0.135249 0.157608 -0.015588 0.000271 0.287915 0.024267 -0.082208 -0.025315 0.025999 -0.082720 0.102800 0.134698 0.461703 -0.136469 0.007894 -0.032200 0.242126 0.215072 -0.179215 0.116597 -0.126198 0.183587 0.089088 0.133712 -0.230405 0.397591 0.027868 -0.309026 0.169694 -0.067471 -0.043511 0.315148 -0.427840 -0.217917 -0.000362 0.216711 -0.357647 0.069392 -0.370302 -0.176144 -0.396562 0.050518 -0.021929 0.072755 -0.154676 0.245423 -0.177798 0.138408 -0.022719 0.020501 0.103147 0.190516 0.054940 -0.100485 0.274513 -0.251058 0.069880 -0.497519 -0.026693 0.429803 -0.486207 0.238772 0.166810 0.018899 0.067082 0.137538 -0.130815 0.232901 -0.284367 0.314041 0.033022 0.158958 0.237733 -0.087364 0.213929 0.016122 0.213438 0.095718 -0.265086 -0.070841 -0.145670 0.041963 0.059023
GlobalSpecies0007 -0.231486 0.377812 -0.081382 -0.014311 0.319528 0.037406 0.017707 -0.494165 0.071105 0.201615 -0.108320 0.152088 -0.279866 0.303938 -0.005298 0.191224 0.045697 -0.247292 0.291395 0.166033 0.092359 0.174306 0.083602 0.132060 0.155359 -0.351991 0.344910 -0.086522 -0.041783 -0.174708 0.201842 -0.376262 0.096128 0.158161 0.064874 0.230616 -0.004732 0.154104 0.351311 -0.158565 0.032221 -0.000139 -0.008531 -0.105044 0.059803 -0.158515 0.237846 -0.035122 0.066433 -0.142965 -0.382636 0.136113 -0.030293 0.224753 -0.075664 -0.070826 -0.135555 0.136697 -0.135250 0.235147 -0.106406 -0.045155 0.173961 0.008590 -0.080333 -0.022548 -0.090777 -0.084142 -0.020979 0.086123 -0.453606 0.182049 0.056326 -0.150370 0.047888 0.063589 0.137987 0.161542 0.195516 0.409709 -0.014052 -0.270087 0.029792 -0.256192 0.182106 0.111564 0.302587 0.037074 -0.029160 0.256026 0.027682 -0.219576 -0.032197 0.098986 0.045999 -0.095707 -0.010308 0.039669 0.120067 -0.102414
GlobalSpecies0008 -0.213087 -0.200177 0.071502 0.079695 -0.034967 0.337053 -0.093297 0.068759 -0.089514 0.239425 0.271826 -0.134223 0.126755 -0.224597 0.375690 -0.185477 -0.112319 0.072683 -0.290978 0.056596 0.351973 -0.204279 -0.150251 0.149854 0.054274 -0.187195 0.096004 -0.407009 -0.085587 -0.059783 -0.108295 -0.264790 -0.056063 -0.332309 -0.198061 0.334371 -0.017374 0.291470 -0.056354 0.327718 -0.017259 0.417049 -0.184966 -0.036679 0.615025 -0.097238 0.266091 -0.139235 -0.145399 0.131033 -0.313191 -0.358721 -0.088833 -0.166850 -0.191771 0.262340 0.254410 -0.190850 -0.040840 0.000795 0.491294 -0.136053 -0.026214 0.127184 -0.155058 -0.201029 0.442714 0.046372 -0.094241 -0.056025 0.280551 0.109776 0.204204 0.019579 0.250228 -0.207689 -0.080384 -0.141525 -0.191547 -0.391576 0.026530 0.254989 -0.275402 0.038475 -0.048391 -0.203974 -0.120422 0.351816 -0.378835 -0.192971 -0.197469 0.055786 -0.369484 0.252564 0.057337 0.236359 -0.316872 0.366434 -0.010025 0.441450
GlobalSpecies0009 0.185476 -0.176684 0.177533 -0.108862 -0.096581 -0.035322 0.043299 -0.143728 0.231199 0.215489 -0.184746 0.248068 0.025442 0.031218 -0.075304 0.050445 0.375768 -0.141165 0.247972 0.170869 -0.026618 0.169885 -0.208582 -0.119821 -0.080708 0.002349 -0.063106 0.065452 -0.210518 0.063133 -0.064526 0.087831 0.117374 0.135424 -0.056720 0.287658 -0.466857 -0.324963 0.048554 -0.242004 0.060336 -0.309276 0.065467 0.255813 -0.250924 0.357820 -0.227680 -0.129608 0.175102 -0.169324 0.341619 0.128225 -0.558953 0.351183 0.324416 0.008348 -0.499278 -0.064792 -0.020090 -0.327046 -0.139800 -0.098411 0.231104 -0.068799 0.111140 -0.016804 -0.122869 0.164322 -0.035582 -0.153892 -0.413101 0.276572 0.054316 0.090901 -0.039153 0.350632 0.233774 0.179902 0.333753 -0.122469 -0.060645 -0.448883 0.155697 -0.146917 -0.020899 -0.057719 -0.004847 0.224341 0.213664 0.485843 0.340300 -0.332250 0.443264 0.035171 -0.345270 0.239197 0.090130 0.127260 -0.137590 -0.033364
GlobalSpecies0010 0.029057 0.070126 0.036201 -0.143238 -0.232041 0.025894 0.096093 0.304577 -0.100101 -0.076543 -0.021185 0.267968 -0.044743 0.038911 0.156370 0.027186 -0.133382 0.006173 0.013155 -0.126468 0.036097 0.059337 0.059810 0.140279 0.169093 0.121051 -0.290017 0.025414 0.069165 -0.033785 -0.025070 0.004219 -0.004249 0.143119 -0.150208 0.012148 0.114392 0.081106 0.116844 0.115562 0.129545 0.086868 0.145386 0.185713 0.106396 0.065766 0.014589 -0.282915 0.100298 0.123837 -0.109686 0.212019 -0.130451 -0.008882 -0.162839 -0.107155 0.038753 0.022400 0.077119 0.071614 -0.187621 -0.005401 -0.017077 0.118497 -0.423122 0.233715 -0.076611 0.120829 0.131480 -0.154487 0.033107 0.064893 -0.098073 -0.137691 -0.037092 -0.103288 -0.033184 0.129018 -0.094521 -0.051972 -0.023280 -0.063484 -0.079879 0.054191 -0.056466 0.074201 0.119042 -0.117829 0.107029 -0.094402 -0.124795 -0.067575 -0.018276 0.217698 -0.016381 0.077428 0.014215 0.027664 0.105009 -0.186578
GlobalSpecies0011 -0.033780 0.334302 -0.415135 0.231988 0.136746 -0.289088 0.124197 -0.360123 0.108726 0.552411 -0.623585 0.732679 0.379169 0.450860 0.402752 -0.295758 0.267077 -0.224231 -0.203045 -0.368033 0.309246 0.416150 -0.011393 0.125989 0.083536 -0.364248 -0.008792 -0.116207 -0.682394 0.602474 0.530679 0.104192 -0.429504 0.057685 0.358066 -0.455729 -0.482820 -0.782919 0.008092 -0.287492 -0.024699 -1.129088 0.015857 0.674131 -0.464524 0.275133 -0.316582 0.979047 0.098767 -0.395481 -0.011004 0.113837 -0.047302 0.175871 1.127048 0.233348 -0.041429 -0.121149 -0.115410 -0.153056 0.465839 0.253276 -0.199979 -0.052279 0.242704 0.372942 -0.353181 -0.320083 0.226142 -0.123064 0.039388 0.658053 -0.260640 -0.443276 0.499225 0.552950 0.467950 0.454252 0.482058 0.172366 -0.214316 0.304119 0.182157 -0.169413 0.540728 -0.339993 0.581648 -0.258577 0.088446 0.019210 0.455842 -0.464722 0.244980 -0.061660 0.046552 -0.105423 -0.215288 0.204285 -0.559675 -0.010675
GlobalSpecies0012 0.489218 0.073838 -0.225627 -0.022475 0.173189 -0.183674 -0.072437 0.129447 0.009257 0.245664 -0.399034 0.119382 0.112561 0.184518 0.147583 -0.271376 0.143000 -0.011828 0.323725 0.651617 -0.132497 0.264041 -0.029425 0.215981 0.264016 0.314087 0.448750 0.493483 -0.093386 0.496227 0.381688 0.474946 -0.161435 0.270843 -0.550653 -0.467294 -0.097579 0.031940 0.134385 0.146110 0.187125 -0.292323 -0.029773 0.510921 -0.429758 -0.360901 -0.043176 0.198791 -0.006493 -0.089378 0.667102 0.020791 0.097060 0.380799 0.197617 -0.149275 -0.188382 0.182224 -0.017366 0.290104 0.176722 -0.057670 0.141479 0.059149 0.470559 -0.456479 -0.012073 -0.016637 -0.070845 -0.153914 -0.593527 0.326579 0.314465 -0.109727 -0.084107 0.162613 0.385352 -0.297856 0.202776 0.271601 0.070779 -0.355086 0.469686 -0.053472 0.617518 -0.100117 0.213818 0.182679 0.130005 0.214470 0.305710 -0.262618 0.127532 -0.161374 -0.211652 -0.093533 -0.119597 -0.184131 -0.158068 -0.026506
GlobalSpecies0013 -0.019130 -0.049007 -0.050515 0.121043 0.059892 -0.070652 0.108807 -0.117480 0.076051 0.156910 -0.016471 -0.011848 0.084460 -0.124298 -0.208604 -0.164614 0.015561 0.151568 0.093758 0.078909 0.003518 0.152172 0.007991 0.177981 -0.014698 -0.105201 0.339700 0.128414 -0.148211 -0.182300 0.276178 -0.028294 0.057291 -0.238796 -0.126043 0.221992 -0.028329 0.199446 -0.003855 0.033127 0.036643 0.085104 0.001729 0.074272 0.096931 0.143407 -0.101975 -0.080052 -0.210832 0.007980 -0.029375 -0.162147 -0.084559 -0.131984 -0.052642 0.155676 -0.053885 0.133504 0.105222 0.007987 0.071610 0.137083 0.000837 0.051813 -0.010422 -0.152930 -0.092247 0.024905 0.095989 0.033920 0.049865 0.169323 0.206762 0.052041 -0.153468 -0.182139 0.001891 0.100228 0.014382 0.005589 -0.121214 0.065237 0.007894 0.003076 -0.033586 0.166051 0.096818 -0.101959 0.063241 0.126360 -0.064912 -0.143224 -0.091233 -0.046015 0.011472 -0.037482 0.080828 -0.029604 -0.155073 0.157342
GlobalSpecies0014 -0.204884 0.301827 -0.119582 0.121919 0.167362 -0.066443 0.017358 -0.263456 -0.094557 0.079640 -0.052447 0.062487 -0.347927 0.069247 0.169539 -0.014086 -0.313440 -0.268032 -0.035565 -0.046404 -0.094801 0.211958 0.342429 -0.473266 -0.116553 -0.084939 -0.114318 0.086256 -0.153494 0.043513 0.149508 0.056652 0.075216 0.054340 0.298873 -0.020188 -0.215489 0.152840 -0.172458 -0.080539 0.082473 -0.053057 -0.240420 -0.318789 -0.354537 -0.147303 0.087722 -0.109548 -0.312252 0.035659 0.344353 -0.127429 -0.030443 0.142248 0.308369 0.058957 -0.048901 0.279693 -0.220949 0.219878 -0.025512 -0.079655 -0.183303 -0.263777 0.028224 0.143207 -0.056145 -0.006350 0.181708 -0.258767 0.048843 0.022252 0.129315 -0.078566 -0.421594 0.080017 -0.069780 -0.079012 -0.011113 0.144098 0.195087 0.179132 0.200623 0.010244 -0.023763 0.092533 0.050272 0.100360 0.175749 -0.109335 0.179151 0.096280 0.223888 -0.229461 -0.090264 0.242541 0.125730 -0.024515 0.050916 0.044452
GlobalSpecies0015 -0.208630 0.030120 0.144704 0.036803 0.151243 0.055664 -0.149092 0.017151 -0.289472 0.034964 0.191234 -0.094911 -0.152400 -0.082058 0.153971 -0.062087 -0.137349 -0.007296 -0.263963 0.015755 -0.175313 -0.235668 0.043326 -0.331863 -0.257331 0.103410 -0.290518 -0.010578 0.102788 0.071813 -0.071900 -0.068339 0.045121 -0.295528 -0.012138 0.221268 -0.148337 0.071999 -0.302053 0.145980 -0.048095 0.209852 -0.159399 -0.278231 0.053540 -0.047976 0.095666 -0.298378 -0.270164 0.267390 0.018154 -0.230384 -0.026028 -0.236748 0.222441 0.090219 0.198766 0.313660 -0.100484 0.104456 0.193547 -0.104369 -0.387657 -0.018483 -0.127809 0.348652 0.124812 0.009677 0.018370 -0.099698 0.402305 -0.030118 0.045834 -0.047034 0.089765 0.041398 -0.320823 -0.202600 -0.168861 -0.117762 0.143350 0.284606 -0.051164 -0.045907 -0.013100 -0.078024 -0.395930 0.229158 -0.314708 -0.255849 -0.021007 0.195640 0.203218 -0.141934 -0.000395 0.189050 -0.103810 0.037817 0.043198 0.170213
GlobalSpecies0016 -0.073348 0.057310 0.008824 0.013169 0.019034 0.079675 -0.104719 0.045394 0.126008 -0.209027 0.181937 -0.099750 -0.125033 -0.020015 0.007569 -0.041573 0.071571 -0.094880 -0.090425 -0.129460 -0.160403 -0.116541 -0.041634 0.067414 0.110087 -0.003601 -0.097372 -0.106592 0.251981 -0.010431 0.092972 -0.134848 0.185891 -0.051789 0.122572 -0.204799 0.089808 -0.070580 -0.018192 -0.055550 -0.048070 -0.007685 0.200048 -0.056826 -0.081084 -0.072779 0.099081 -0.141693 -0.017170 0.052770 -0.065487 0.044259 0.027893 -0.112965 0.054223 -0.094021 0.096937 -0.158760 0.010503 -0.118740 -0.134512 -0.119542 0.147521 -0.014943 0.071691 0.037463 -0.053247 0.099940 0.154664 0.104103 0.189384 0.053513 -0.124165 0.018430 -0.032733 -0.031937 -0.003044 -0.104253 -0.064900 0.060055 -0.008083 0.017674 0.054949 0.000943 -0.111834 -0.029547 0.045557 0.069287 0.199443 -0.095766 -0.008655 -0.014475 -0.175477 0.295904 -0.081884 -0.156208 0.129210 -0.066997 0.052655 -0.263161
GlobalSpecies0017 -0.056784 -0.087170 -0.058122 0.020128 0.046824 0.261998 -0.063185 0.192834 -0.056365 -0.106435 0.239281 -0.097378 -0.059920 -0.102591 0.125512 -0.026747 -0.002258 0.032242 -0.170206 -0.061709 0.119463 -0.257002 -0.143336 0.102649 -0.023811 -0.009168 -0.156540 -0.002226 0.061711 0.060890 0.032584 -0.232062 0.170770 -0.253539 -0.089147 0.059837 0.018687 0.108009 -0.261217 0.212759 0.091464 0.264971 0.015076 -0.147027 0.174643 -0.053165 0.088613 -0.216311 0.030934 0.101551 -0.127570 -0.150417 -0.019775 -0.260682 -0.191697 0.147888 0.242977 -0.017599 -0.072142 -0.064506 0.234445 -0.032525 -0.017767 -0.022188 -0.108170 0.087906 0.117220 0.097730 0.013505 0.089793 0.256341 -0.079734 0.103039 -0.014499 0.137996 -0.141017 -0.118001 -0.127316 -0.087450 -0.197972 0.063680 0.151715 -0.167235 0.028520 -0.104809 0.037265 -0.160003 0.166989 -0.122853 -0.300489 -0.202148 0.152906 -0.121258 0.066119 0.076574 0.064696 -0.029834 0.022242 0.011250 0.172035
GlobalSpecies0018 0.294099 0.615481 -0.149473 0.101458 0.130152 -0.062068 -0.101804 -0.172866 0.310068 0.095605 -0.007485 0.326339 -0.135141 0.050854 0.030844 -0.012560 -0.043298 -0.053300 0.123209 0.125671 0.266952 -0.017052 -0.004970 -0.127123 -0.024948 -0.097310 0.300109 0.067943 -0.084744 -0.263959 -0.118494 -0.284983 0.129936 0.010388 -0.046853 0.084237 -0.049351 0.041830 -0.002378 -0.170797 -0.060645 0.061484 -0.039406 -0.058707 -0.015408 -0.160532 -0.019487 0.212756 0.002241 -0.141753 0.028000 -0.037915 0.063628 -0.058956 -0.000095 -0.149935 -0.264958 -0.009258 0.218259 0.481883 0.399744 0.345679 0.074215 -0.065091 -0.093235 -0.381915 0.190177 0.033542 0.188813 0.058145 -0.194888 0.010544 -0.201205 -0.080549 -0.065759 0.074372 0.241503 0.251837 -0.261902 0.201230 -0.017493 -0.150407 0.090616 -0.089163 0.076924 0.118586 0.211274 0.025402 0.112273 0.475147 -0.003960 -0.159961 -0.165619 -0.334792 0.027805 0.113387 -0.175394 0.142731 -0.019122 0.056418
GlobalSpecies0019 0.133808 0.164993 -0.005891 0.042878 0.015453 0.013690 0.051819 -0.023982 0.147615 0.127737 0.031081 0.077979 -0.068624 -0.069355 0.298435 0.231273 -0.195003 -0.001992 0.036319 0.001479 0.107952 0.200881 0.088310 0.083114 0.058548 -0.073732 0.023936 -0.138080 0.037914 -0.140795 0.043706 -0.053114 -0.031602 0.102031 -0.060557 -0.112301 0.035411 0.032061 0.130759 -0.055983 0.042597 0.159169 0.008900 -0.026874 0.038293 -0.082418 0.030037 -0.161650 0.037669 0.177024 -0.102433 -0.151670 0.085749 0.064110 -0.191768 0.085388 0.035013 -0.117133 -0.018263 0.081103 -0.105308 -0.157777 0.063323 0.070935 -0.016616 0.063234 0.072575 -0.039230 0.155110 -0.074300 0.061033 0.096063 -0.016754 -0.161485 -0.197922 -0.070517 -0.013053 0.119821 -0.027315 -0.133323 0.105418 0.077869 0.106287 0.107899 -0.127692 0.099804 0.087728 -0.216461 0.229040 0.033850 -0.105641 -0.255905 -0.375814 0.283529 0.134386 0.026984 -0.012599 0.305064 0.069301 -0.070241
GlobalSpecies0020 0.070085 0.360679 -0.197024 0.240119 -0.171859 0.024244 0.028302 -0.175416 0.161886 0.041186 -0.350086 0.166572 0.000378 0.367941 -0.017472 0.214949 -0.043955 -0.274048 0.245626 -0.048911 -0.137754 0.175707 0.425002 0.238597 -0.155073 -0.045453 0.300429 -0.348005 0.097008 0.045162 0.323478 0.307448 -0.213889 0.181362 0.260891 -0.284014 -0.442651 -0.254919 0.231056 -0.025767 0.039129 -0.051747 -0.026982 -0.279529 -0.215774 0.140245 0.346157 0.135680 0.343005 0.105649 -0.166015 -0.098026 0.077779 0.442940 -0.325464 0.128107 -0.152930 0.100314 0.245596 -0.153929 -0.022770 0.173711 -0.033766 0.082002 0.521961 -0.385731 -0.147640 0.086792 -0.183681 0.154956 0.053372 -0.078124 -0.065573 -0.027538 -0.141055 0.190170 0.097723 0.193551 0.081135 0.235335 0.195747 -0.038363 0.098990 0.048498 0.099579 -0.221476 0.415956 -0.356608 0.185771 0.427846 0.197444 -0.350069 -0.042546 -0.301661 0.134680 -0.138904 0.018586 0.002865 0.244847 -0.010568
GlobalSpecies0021 -0.094603 -0.174909 0.143518 -0.004328 0.024264 0.119607 -0.104063 0.232809 -0.007445 -0.163327 0.300475 -0.208686 -0.014894 -0.041996 0.111346 -0.231944 0.153853 0.066870 -0.160614 -0.049318 -0.090798 -0.328688 -0.296173 -0.082769 -0.033120 -0.071361 -0.154088 -0.128380 0.228895 0.058413 -0.120199 -0.211408 0.039628 -0.213933 -0.193992 -0.106167 0.103064 0.014357 -0.286272 0.265284 0.040335 0.084982 0.148319 -0.112289 0.231284 -0.023466 0.068695 -0.102591 -0.128068 -0.052792 -0.145999 -0.140929 0.033533 -0.373244 -0.008623 -0.032469 0.207997 -0.156134 -0.042477 -0.267999 0.098714 -0.073391 0.135918 0.000195 -0.040724 -0.071091 0.132594 0.160022 0.064490 0.204008 0.256999 -0.139489 0.114528 0.186794 -0.019150 -0.107152 -0.150802 -0.186000 -0.163876 -0.169428 0.000291 0.171730 -0.152526 -0.145732 -0.118171 -0.133737 -0.106048 0.233886 -0.108781 -0.290836 -0.152991 0.220318 -0.112034 0.175334 -0.004682 -0.059017 -0.115390 0.032174 0.005653 -0.017480
GlobalSpecies0022 -0.208860 0.037037 0.125984 -0.103585 -0.071467 0.060885 0.262172 0.178040 -0.042626 0.026648 0.069175 -0.001526 0.104892 -0.021915 0.068628 0.057484 -0.039273 0.080633 -0.027616 -0.068807 0.027928 0.004796 -0.055258 0.006471 0.042041 -0.103831 -0.108272 0.209097 0.082529 -0.132631 -0.061933 -0.054389 -0.080927 -0.130371 -0.127860 0.107410 0.073640 0.035447 -0.076590 0.208066 0.070157 0.176833 0.088059 -0.030850 0.320495 0.169852 -0.013740 -0.141302 -0.049809 0.030633 -0.198526 0.079544 -0.105902 -0.126763 -0.232481 -0.101923 0.228539 0.030895 -0.112058 -0.075572 -0.053990 0.025507 -0.011569 0.199457 -0.375966 0.257025 -0.012854 0.081338 -0.082573 0.042231 0.187130 -0.076900 -0.015088 -0.082416 0.225074 -0.093135 -0.154464 0.043184 -0.044870 -0.254683 0.152706 0.059028 -0.112446 0.169888 -0.040094 0.124699 -0.103940 0.002998 -0.148259 -0.143816 -0.245636 0.116214 -0.101362 0.074978 0.056514 -0.003062 -0.151025 0.036774 0.069687 -0.001944
GlobalSpecies0023 -0.110574 0.456801 -0.497416 0.043738 0.327707 -0.347335 -0.260851 0.113306 0.230896 -0.150096 -0.615046 0.891729 0.937829 1.186081 -0.187019 -0.506143 -0.257141 0.232330 0.072608 -0.295183 0.030381 0.622503 0.323522 -0.059082 -0.030013 0.292110 -0.868822 -0.391128 -0.523715 0.369897 -0.178296 0.742601 -0.620780 0.193864 0.269763 -0.337974 -0.116475 -0.764965 0.008071 -0.696535 -0.189956 -0.631955 0.329088 0.229770 -1.007447 -0.325708 -0.370450 1.690786 0.033374 -0.231290 0.051243 0.171258 -0.054498 0.553246 0.379661 0.308475 0.108841 0.263797 -0.580856 0.405513 0.165435 -0.008056 -0.261266 -0.242145 0.161024 -0.058048 0.084980 -0.188858 -0.906190 0.248110 -0.779897 0.088535 0.287854 -0.421660 0.341279 0.382216 0.880470 -0.164692 0.447747 0.359373 -0.385949 0.362851 0.484805 -0.125949 0.517713 -0.565074 0.053347 0.276438 -0.122092 -0.529618 0.740600 -0.824322 -0.089996 -0.160631 -0.253994 -0.449060 0.370292 0.017273 -0.043164 0.071349
GlobalSpecies0024 0.190390 -0.012774 -0.500480 0.077583 -0.007000 0.224913 0.243100 -0.299945 -0.065950 0.349696 -0.333968 0.246807 -0.178323 -0.160439 -0.322009 -0.083188 0.021235 -0.126118 -0.086172 0.077398 0.106325 0.192587 0.013661 0.294366 0.200085 -0.164514 0.360630 -0.148974 -0.104067 0.000584 0.372137 -0.053161 -0.254938 -0.063623 0.030487 0.056827 0.117756 -0.070914 0.002574 -0.021457 0.169338 -0.225158 -0.071217 0.490397 -0.204912 -0.188655 0.292865 -0.135748 -0.038622 0.049373 0.099404 0.172610 -0.199559 0.065156 0.196276 -0.157763 -0.534018 0.017783 0.014887 0.209388 0.193639 0.011115 0.148137 -0.204653 0.250147 -0.391501 -0.451889 0.013964 0.063853 0.096500 -0.122855 0.375190 0.040512 -0.026620 -0.225589 -0.134064 0.209439 -0.042324 0.045421 0.317114 0.059624 0.110612 0.200161 -0.270358 0.105980 0.151839 0.339048 0.044727 0.013534 0.342191 0.190616 -0.511212 -0.171118 -0.101366 -0.003543 -0.099655 -0.074157 0.275556 -0.082245 0.183821
GlobalSpecies0025 0.195853 0.221071 0.034819 -0.004166 -0.113351 0.212610 -0.045959 -0.141754 0.043985 0.238434 -0.397693 -0.025784 0.025503 -0.221602 -0.161654 0.372162 -0.287047 0.056023 0.168140 0.082894 -0.259716 -0.089043 -0.067705 0.109106 -0.342818 -0.199444 0.242108 0.145622 0.067914 -0.046176 0.094883 -0.189344 -0.009645 0.346713 -0.173195 0.074549 -0.433760 -0.164982 0.060110 -0.209459 -0.135930 0.108987 -0.018352 -0.391661 -0.513634 0.056834 -0.038485 0.058951 0.167333 -0.024425 0.078345 0.056607 -0.212926 0.512884 0.307451 0.004624 -0.066626 0.333229 0.030694 -0.091405 0.197927 0.237198 -0.095868 -0.260101 0.451011 -0.125922 -0.177743 -0.028455 0.110435 -0.104609 -0.264470 0.086641 0.091106 0.011792 -0.218192 -0.039311 0.211335 -0.029704 0.155372 0.455783 0.004028 -0.325310 0.135645 -0.124643 0.106585 -0.110689 0.119250 -0.241014 0.153405 0.202026 0.434984 -0.053117 0.376489 -0.323776 -0.277464 0.074452 0.059529 -0.162402 0.014036 -0.093665
GlobalSpecies0026 -0.149586 0.026302 0.215290 -0.046959 0.009850 0.002570 0.198362 0.016025 -0.017056 0.064328 0.109230 -0.067623 0.097082 0.013866 0.144982 0.097128 -0.182685 0.015228 -0.010385 -0.049317 -0.056044 0.186148 -0.048925 -0.043088 0.067792 -0.098408 -0.104446 0.115070 0.085775 -0.287669 0.043385 0.061299 -0.045753 -0.193597 -0.175035 -0.042221 0.081155 -0.003797 0.130729 0.090979 -0.080230 0.219564 0.256167 0.020238 0.203556 0.181786 -0.077582 -0.215567 -0.110682 0.157788 -0.095122 -0.004689 0.130309 -0.202286 -0.069973 -0.028679 0.150135 0.081886 -0.070062 0.055674 -0.293204 -0.022547 0.040880 0.269129 -0.106733 0.248208 -0.019742 0.059682 0.011431 0.077463 0.104760 -0.059302 0.054552 -0.009377 0.210178 -0.045173 -0.126482 0.041647 0.003483 -0.234249 0.064017 -0.095515 0.001790 0.133388 -0.118851 0.054273 -0.108412 -0.030899 -0.047729 -0.087350 -0.195256 0.024234 -0.244396 0.220767 -0.022295 -0.104340 -0.112586 0.014303 0.030458 -0.145352
GlobalSpecies0027 -0.132164 -0.062924 -0.041249 -0.007614 -0.002518 0.141497 0.060999 0.045750 -0.000509 0.084999 0.072352 -0.126537 0.022847 0.037756 0.067739 0.003263 0.045048 0.096870 -0.115464 0.066814 0.085884 -0.052235 -0.128544 0.101654 0.035080 -0.146344 -0.007709 0.063517 0.030917 0.009179 0.154919 -0.118644 0.078476 -0.153698 -0.028084 0.134138 0.141617 0.138858 -0.131928 0.177560 0.064473 0.121070 0.076487 -0.168511 0.287522 0.108449 -0.045347 -0.066632 0.020580 0.051811 -0.172392 -0.045669 -0.062271 -0.267252 -0.241282 0.053887 0.068404 -0.073325 -0.031395 0.002407 0.028551 0.059220 0.126953 -0.002838 -0.087046 0.037433 0.127375 0.036999 0.010371 0.023559 0.181171 0.000218 0.028828 -0.173128 0.109643 -0.159416 -0.053299 -0.005894 0.037430 -0.127011 0.127603 0.030288 -0.136266 0.031446 0.014486 0.045138 0.089879 0.089876 -0.158378 -0.151080 -0.253565 -0.014136 -0.225032 0.095320 0.088032 -0.041948 0.056610 0.134694 0.026461 0.103436
GlobalSpecies0028 0.125514 -0.218081 0.051503 0.012680 -0.044351 0.170976 0.075993 0.120253 0.081551 -0.010030 0.038487 -0.074176 0.018037 -0.041276 -0.008427 0.077051 -0.049521 0.145524 -0.022171 -0.061726 0.116894 -0.025925 -0.207774 0.125796 -0.144139 -0.080522 -0.094770 0.067182 -0.044225 0.157212 0.035750 -0.146595 0.157964 0.068521 -0.092196 0.127752 -0.091869 0.206054 -0.117680 0.199261 0.068347 0.136281 0.065020 -0.222627 0.121196 -0.023213 -0.026160 -0.151346 0.137264 -0.036267 -0.015479 0.070224 -0.197386 -0.193366 -0.157618 0.051158 -0.089783 -0.078456 -0.094428 -0.139773 0.123403 0.036959 0.135212 -0.084321 -0.083740 -0.061807 0.049667 -0.049743 0.018463 -0.031316 0.135456 -0.064662 0.014946 -0.062040 0.035439 -0.131520 0.008858 -0.031635 0.004341 -0.181059 0.002646 -0.046126 -0.042243 0.063265 -0.000353 0.038657 -0.006933 0.001424 0.181881 -0.049584 -0.100963 -0.028631 -0.070129 0.064290 0.066106 0.057751 0.142680 -0.029246 0.061988 0.155104
GlobalSpecies0029 -0.231171 -0.161409 0.150002 0.128024 0.152580 0.126232 0.255647 0.026631 0.059990 0.044403 0.124078 -0.319954 0.118082 0.128971 0.022586 -0.091309 0.159079 0.134450 -0.188507 0.111456 0.014830 -0.002644 -0.290091 -0.013858 -0.051003 -0.200393 -0.111610 0.022226 0.182064 -0.005799 -0.035383 -0.036398 -0.062906 -0.170998 0.001271 0.045074 0.038488 0.080216 -0.068440 0.254598 -0.019050 0.146679 0.234345 -0.292179 0.255869 0.194234 -0.049342 -0.136121 -0.038787 -0.064024 -0.117638 -0.113686 0.112422 -0.409034 -0.052176 -0.020880 0.098048 -0.047645 -0.052924 -0.246235 -0.046184 -0.109947 0.157675 0.060117 0.022803 0.082234 0.007699 -0.013402 -0.035664 0.175347 0.177102 -0.067870 0.072329 0.133082 0.021572 0.030297 -0.186321 -0.197928 -0.037696 -0.101148 0.043154 -0.025659 -0.167175 -0.151922 -0.102446 0.050159 -0.062130 -0.014889 -0.083708 -0.121685 -0.115342 0.183291 -0.147673 0.068698 0.071718 -0.051328 0.013122 0.022291 0.053862 0.024121
GlobalSpecies0030 -0.199705 0.009630 0.024907 -0.173309 -0.269075 0.160057 0.234676 0.376142 -0.130195 -0.014885 0.057900 -0.021467 0.166801 -0.149985 0.086188 -0.192214 0.064960 0.204739 -0.159126 -0.228502 0.142278 -0.183956 -0.037084 -0.060908 0.048839 -0.047111 -0.225001 0.214339 0.142680 0.111606 -0.247722 -0.082313 -0.206594 -0.056888 -0.117677 0.262164 -0.008567 0.257236 -0.249285 0.200225 0.356547 0.263121 0.011624 0.030736 0.372032 0.148953 0.052009 -0.118614 0.012565 -0.080675 -0.217361 0.132277 -0.192941 0.045870 -0.185457 -0.100916 0.265776 -0.102332 0.021088 -0.149032 0.206735 -0.053628 -0.179787 -0.025438 -0.536452 0.098015 0.140503 0.121660 -0.103514 -0.081138 0.323301 -0.119798 0.015597 -0.104333 0.244811 -0.238624 -0.116669 -0.146098 -0.132930 -0.323457 0.026144 0.233802 -0.164738 0.150522 -0.021231 -0.116370 -0.101971 0.034726 -0.201855 -0.384281 -0.245702 0.141262 0.021912 0.031946 0.153066 0.209016 -0.225649 0.045873 0.005785 0.068833
GlobalSpecies0031 0.031723 -0.061343 -0.020224 0.029365 -0.000659 -0.059937 -0.061269 -0.006692 0.011939 -0.285864 -0.017979 0.044593 0.064645 0.030423 -0.036955 0.034913 -0.057318 -0.080465 0.116282 -0.085882 -0.076909 0.057318 0.110609 0.162258 -0.026602 0.005700 0.041175 0.026801 0.055657 -0.156703 0.120507 -0.004316 0.144337 -0.160329 -0.057172 -0.026136 -0.008525 0.102056 -0.122663 -0.058842 -0.069529 -0.006677 0.130949 -0.024016 0.110273 -0.134198 0.011454 -0.100920 -0.034970 0.162685 0.131456 -0.026104 0.102958 0.054580 0.021359 0.062745 0.060489 0.174468 -0.036242 0.049673 -0.221048 0.069621 -0.012787 0.126441 -0.081421 0.061526 -0.128329 0.008718 0.055044 0.016893 0.014940 -0.035921 -0.091739 0.081224 -0.002834 -0.009573 -0.082735 0.006815 -0.006546 0.036996 0.047869 -0.038519 0.031809 0.118984 -0.074415 0.154442 0.015787 -0.176487 0.134804 -0.034653 0.045322 0.065645 -0.077543 -0.012459 -0.001241 -0.096645 -0.003208 -0.038780 -0.010321 0.046913
GlobalSpecies0032 0.077036 -0.157644 0.465314 -0.131321 -0.099382 -0.022739 0.031078 -0.013881 0.026616 0.009427 0.115253 0.077896 -0.024424 -0.015099 0.109195 0.249201 -0.216813 -0.027284 0.089773 0.053004 -0.016111 0.094232 -0.044155 -0.016261 0.093725 0.178976 -0.261068 0.208591 0.112399 -0.082590 -0.144209 0.000484 0.100836 0.188938 -0.184917 0.100847 -0.142104 0.023618 0.262522 -0.126971 0.015809 0.144459 0.022592 -0.127288 -0.024951 0.210075 0.020874 -0.180155 -0.126316 -0.019161 0.080659 0.009290 -0.202595 -0.095556 -0.136910 -0.164388 -0.087685 0.029108 -0.011306 -0.136213 -0.161657 -0.121516 0.013845 -0.042323 0.108902 -0.074108 -0.044227 0.045568 0.022488 0.077878 -0.023729 -0.053663 -0.124235 0.009410 0.118087 -0.020054 -0.260079 0.316232 0.033327 -0.346560 -0.062050 -0.017413 0.073168 0.112198 -0.066023 0.078443 0.029753 0.061180 0.065757 -0.051621 -0.083255 -0.142407 0.067795 0.224706 -0.122985 -0.021504 0.110081 0.113142 0.075041 -0.196719
GlobalSpecies0033 0.218839 0.067648 -0.110721 -0.130272 0.083256 -0.011802 0.022088 -0.220138 -0.093343 0.197913 -0.076259 0.050258 -0.245688 0.481928 -0.314106 0.159648 0.331285 0.235352 0.417015 -0.057416 -0.026693 -0.071149 0.433771 0.125628 0.061127 0.275838 -0.305167 -0.534941 -0.049591 0.221036 -0.203628 0.309513 0.107940 0.538220 0.135011 -0.263459 0.075253 0.070759 0.403224 -0.069089 -0.268535 -0.119259 -0.013857 -0.060127 -0.690781 -0.387250 -0.126598 0.077849 0.069554 0.254431 0.120064 0.085560 -0.057484 0.136329 -0.100292 -0.318576 -0.291991 0.083160 0.089863 -0.053450 0.028058 -0.192537 -0.063337 -0.271328 0.159523 0.137357 0.009895 -0.115347 -0.141962 -0.025548 -0.597280 -0.134653 0.075589 0.082422 -0.315888 0.092657 0.194611 -0.164418 0.215660 0.459987 -0.313536 -0.056703 -0.016940 -0.272228 0.365695 0.019807 -0.158798 -0.037795 -0.229351 0.464617 0.238808 -0.147555 0.284506 -0.356335 -0.050725 -0.411725 0.184556 -0.360337 0.166757 -0.097748
GlobalSpecies0034 0.273307 -0.160285 -0.458523 -0.167734 0.062298 0.123412 0.220618 -0.062397 -0.092540 0.017306 0.040599 0.140174 -0.286829 -0.172327 -0.211164 0.295104 0.260913 -0.135000 0.233262 -0.248351 0.145122 -0.043877 0.303107 0.120059 0.007643 0.234144 0.269529 -0.221884 -0.247706 0.288960 0.097528 0.532055 -0.254781 0.078958 0.124299 -0.139191 -0.197292 -0.239780 0.039212 -0.172071 0.046939 -0.150433 -0.083659 0.106634 -0.428196 -0.266470 -0.122596 0.191541 0.475475 0.137227 0.356727 0.454906 -0.027928 0.515486 0.304216 0.191838 -0.155031 0.018863 0.017563 0.222018 -0.051953 -0.027751 -0.096404 0.028997 0.023081 0.436822 -0.080526 -0.082211 -0.102207 -0.151368 -0.233191 0.067970 0.008953 -0.060374 -0.384888 0.004315 0.439021 0.253435 -0.023694 0.696477 0.086777 0.104379 0.049721 -0.043891 0.140935 0.091750 0.025417 0.191351 0.537037 -0.103482 0.140427 0.042059 0.098516 -0.360394 -0.149864 -0.016743 -0.270279 -0.417941 0.028589 0.181511
GlobalSpecies0035 0.087741 -0.080443 0.218927 0.068774 0.083486 -0.003418 -0.070974 0.053484 0.019812 0.110115 -0.014913 -0.079018 0.376457 -0.125793 -0.068577 -0.453005 -0.088628 0.094775 -0.258839 -0.097725 -0.027632 -0.058487 -0.360351 0.011751 -0.081981 -0.075782 -0.049224 0.127092 0.039930 -0.164803 -0.003978 -0.067360 -0.272921 -0.185022 -0.186467 0.230062 0.004091 0.095598 -0.040066 0.075379 0.027314 0.061391 -0.054678 0.042512 0.409916 0.005213 0.161293 0.036539 -0.331839 -0.005561 -0.014697 -0.075805 0.059400 -0.182276 0.105457 -0.213738 0.224262 0.178253 0.125608 0.122773 0.286542 0.036045 -0.062062 0.064084 -0.237670 -0.198464 -0.042508 0.074427 0.013123 -0.032152 0.298191 -0.002093 -0.014381 0.164902 0.195859 -0.093040 -0.166311 0.058355 -0.345389 -0.303310 -0.041944 0.350605 -0.234301 -0.121872 0.046094 -0.067053 -0.050248 -0.162526 -0.180884 -0.056419 -0.090160 -0.003241 0.087938 -0.075456 0.002330 -0.126176 -0.247971 0.095982 -0.074889 0.238794
GlobalSpecies0036 -0.210885 -0.117825 0.049017 0.046993 0.024332 0.228963 0.067022 0.206423 -0.092752 0.051284 0.148340 -0.148054 0.032175 -0.016507 0.050760 0.040934 0.026821 0.141785 -0.205759 -0.078776 0.093412 -0.221281 -0.142172 0.055999 -0.132836 0.034163 -0.248723 0.046769 0.177821 0.114972 -0.048788 -0.076670 -0.023535 -0.278769 -0.161040 0.156989 0.002231 0.096740 -0.216775 0.301159 -0.006726 0.310651 0.051462 -0.257534 0.275814 0.077914 0.098462 -0.134840 -0.034869 0.156136 -0.128225 -0.072090 0.067355 -0.353037 -0.083691 0.033782 0.311546 0.123496 -0.113800 -0.110184 0.213325 -0.055440 -0.085005 0.060442 -0.187802 0.314570 0.041786 0.027666 -0.042518 0.103882 0.290320 -0.188100 0.188606 -0.022712 0.225868 -0.095778 -0.206522 -0.265156 -0.069169 -0.286338 0.223366 0.091408 -0.232664 -0.084785 -0.060084 0.037187 -0.270765 0.173321 -0.281024 -0.391422 -0.190365 0.318576 -0.043103 -0.046281 -0.016182 0.097269 -0.045679 -0.052821 0.039203 0.106056
GlobalSpecies0037 0.006594 0.119027 0.128973 0.043731 -0.063872 0.026122 -0.046803 0.205643 -0.144147 -0.015220 0.170029 -0.023583 -0.073057 -0.134795 0.153837 0.180536 -0.231346 0.062594 -0.246971 0.049916 -0.068080 -0.048053 0.071686 -0.062509 -0.093740 0.231987 -0.244382 -0.034844 0.163708 -0.000986 -0.021058 -0.037195 0.017804 -0.253605 -0.106081 -0.002538 0.028664 -0.129782 0.036932 -0.015421 -0.049803 0.266111 -0.046388 -0.185789 -0.059547 -0.001614 0.102993 -0.400227 -0.217536 0.410223 -0.004946 -0.069257 0.029730 -0.207284 0.033005 0.032825 0.292922 0.136734 -0.051898 0.110480 -0.082648 -0.162993 -0.255148 0.133398 -0.098882 0.279266 0.065408 0.054758 0.061153 -0.068933 0.303176 -0.049614 0.011720 -0.072029 0.071874 -0.011911 -0.219349 0.011698 -0.099265 -0.233865 0.134881 0.185372 -0.072330 0.092565 -0.106263 0.193938 -0.299519 0.102702 -0.051121 -0.192256 -0.133031 0.028767 -0.089715 0.034552 -0.090654 0.065587 0.023211 0.030515 0.084866 -0.111674
GlobalSpecies0038 -0.301055 -0.179696 0.120623 0.137587 0.133101 0.203227 0.063972 0.080470 -0.034512 0.116931 0.148527 -0.255129 0.074179 -0.010563 0.049457 -0.034209 0.022781 0.121959 -0.247207 0.068046 0.025429 -0.170960 -0.206558 -0.036691 -0.212516 -0.024592 -0.204242 -0.055380 0.165644 0.075278 -0.033053 -0.089804 -0.013424 -0.314139 -0.112707 0.112614 0.013377 0.017757 -0.200880 0.305908 -0.116955 0.262207 0.125563 -0.343025 0.263224 0.111631 0.019852 -0.143246 -0.157292 0.138406 -0.101946 -0.124596 0.060967 -0.500199 0.002313 0.078903 0.319441 0.082982 -0.134095 -0.082001 0.193238 -0.108245 -0.026306 0.079181 -0.041735 0.256703 0.063597 0.036825 -0.010507 0.145278 0.289944 -0.127112 0.148641 0.072267 0.129151 0.073842 -0.197459 -0.275664 -0.031465 -0.245689 0.190360 0.093202 -0.233006 -0.148432 -0.087381 0.025174 -0.283804 0.191220 -0.220675 -0.273152 -0.190715 0.289935 -0.046701 -0.027847 -0.053016 0.027183 -0.049022 -0.085562 0.066564 0.137468
GlobalSpecies0039 -0.355233 -0.042891 0.287520 0.199011 0.061964 -0.032228 0.339167 0.009301 -0.153138 0.230491 0.069487 -0.232310 0.082866 -0.040879 0.018799 -0.084111 0.142197 -0.049774 -0.179688 0.115382 0.004814 0.235508 -0.144678 -0.180603 -0.101470 -0.119265 -0.038698 0.146596 0.102966 -0.173710 -0.101559 0.067207 -0.092122 -0.233196 -0.047583 0.251295 0.050525 0.187229 -0.162953 0.129659 -0.045413 0.207632 0.130963 -0.086777 0.555683 0.119498 -0.069989 -0.013347 -0.269623 -0.088797 -0.154170 -0.054301 0.004100 -0.197413 0.080928 -0.068742 0.174481 0.162560 -0.141286 0.036800 -0.097697 -0.071562 0.029278 0.092528 -0.116353 0.171783 -0.095350 -0.034508 -0.289854 0.106297 0.242631 -0.090847 -0.066635 0.146869 0.019699 -0.037981 -0.098699 -0.067240 0.026594 -0.135719 0.028619 -0.098465 -0.260650 -0.045903 -0.013162 0.014610 -0.178956 0.030966 -0.396319 -0.045698 -0.155179 0.200072 -0.179401 0.151156 -0.002113 -0.061052 -0.160313 0.120044 -0.023015 -0.066786
GlobalSpecies0040 -0.010822 -0.137095 0.065977 -0.025432 -0.033881 0.154023 0.017519 0.303182 0.072093 -0.032775 0.001906 -0.112492 0.197501 -0.025192 -0.026076 -0.169670 0.009896 0.198129 -0.147487 -0.087149 0.091980 -0.173927 -0.293960 0.139042 -0.081869 -0.018176 -0.194745 0.104319 0.120205 0.087305 -0.070356 -0.153735 -0.137891 -0.116784 -0.189109 0.086036 0.130598 0.112022 -0.138129 0.247093 0.080310 0.196730 0.096645 -0.184791 0.311354 0.132036 0.067109 -0.030666 -0.022914 -0.026996 -0.099043 -0.036945 0.030076 -0.263230 -0.096953 -0.091647 0.216361 0.036917 0.040264 -0.078040 0.255318 0.028458 -0.017838 0.025578 -0.270252 -0.006115 0.102039 0.108960 0.042635 0.072218 0.311041 -0.107410 0.091958 0.039725 0.139778 -0.126457 -0.101284 -0.203264 -0.160022 -0.281098 0.100826 0.211395 -0.205416 -0.070020 -0.047812 -0.047657 -0.061549 -0.016773 -0.063833 -0.290930 -0.202694 0.059682 -0.020349 -0.013610 0.039174 0.016903 -0.047728 -0.039546 -0.029137 0.160250
GlobalSpecies0041 0.172167 -0.189622 0.210994 -0.090440 -0.075120 0.155412 -0.208032 -0.025358 0.140319 0.028974 0.249806 -0.003990 -0.103811 -0.138537 0.035456 0.039141 -0.057413 -0.075503 0.059526 0.223262 0.028430 -0.037847 -0.092708 -0.083309 -0.170517 0.001743 0.038727 -0.164512 -0.206831 0.130420 0.176544 -0.086499 0.181443 0.068566 -0.084174 0.275136 -0.135432 0.151860 0.048916 0.043419 -0.016952 0.195757 -0.131949 -0.067000 0.252810 -0.064303 -0.099504 0.027758 -0.047624 -0.045139 0.007745 -0.191874 -0.296126 -0.045739 -0.105073 0.006645 -0.244447 -0.204613 0.005306 -0.138988 0.025123 0.070656 0.118463 -0.049028 0.010585 -0.045798 0.151026 -0.096531 -0.161000 -0.219611 0.165069 0.128560 0.085313 -0.145231 0.158358 -0.134492 0.008571 0.041544 -0.030050 -0.291081 0.017630 -0.086534 0.078149 0.093835 0.069375 0.028261 -0.010205 0.017432 0.001231 0.133951 -0.033595 -0.140854 -0.222524 0.154978 0.005834 -0.013966 -0.077207 0.076221 0.073287 0.177586
GlobalSpecies0042 -0.094972 0.086009 -0.343342 0.071878 0.068733 -0.274007 0.018194 -0.234158 0.237570 0.029902 -0.307519 0.347969 -0.095637 0.096130 -0.148870 0.260687 0.046536 0.048370 0.182551 -0.381710 -0.297350 0.058807 0.183201 0.151978 -0.061812 0.155505 -0.105668 -0.120589 0.106496 0.073481 -0.134605 0.161362 -0.176846 0.051226 0.017581 -0.064245 -0.231171 -0.090318 0.305329 -0.105522 -0.124675 0.088471 0.222416 -0.014026 -0.150894 -0.182428 -0.202272 0.328095 0.300939 -0.103332 -0.139605 0.200081 0.094330 -0.015151 0.099957 0.087836 -0.334713 0.005169 0.022768 -0.008750 0.043980 0.135599 0.014983 -0.352820 -0.115598 0.234492 -0.524693 -0.094577 0.348108 -0.057665 -0.231578 0.065855 -0.024830 -0.002827 -0.189466 -0.021889 0.012519 -0.245234 0.036170 0.202135 0.034698 -0.049482 0.195356 -0.457271 0.040563 -0.217653 -0.005079 -0.356524 0.011443 -0.007628 0.172835 -0.224323 0.199451 -0.076784 -0.239398 0.025000 0.267527 -0.127271 -0.081811 0.263838
GlobalSpecies0043 0.230979 0.368639 0.136883 0.161218 0.072423 -0.088896 -0.148665 0.011150 0.079080 0.028623 -0.142958 -0.135802 0.192116 0.003029 -0.035021 -0.255582 -0.241797 0.180310 -0.091312 0.033798 0.110697 0.132519 -0.252687 -0.042247 0.016775 0.007001 0.202981 0.129039 -0.119651 0.034266 0.249670 0.055828 -0.348167 0.198926 -0.188320 -0.040870 -0.114425 -0.057430 0.035727 -0.133633 0.059816 -0.105744 -0.067132 0.256731 0.165952 0.078673 0.051305 0.196199 0.138389 -0.042989 0.087783 0.092823 0.051101 -0.159102 0.278173 -0.188360 0.144264 0.138312 0.294574 0.218748 0.028749 0.034739 -0.062150 0.054810 -0.018368 -0.128840 -0.067805 0.084849 0.043069 -0.134121 0.209878 0.247276 -0.356082 0.053926 -0.177682 -0.121577 0.090254 -0.007984 -0.283996 -0.009302 -0.220660 0.122898 -0.174807 -0.231541 0.067492 -0.131920 0.113346 -0.266880 -0.008654 0.116661 -0.078754 -0.218035 0.197889 -0.121682 0.009618 -0.353093 0.109980 0.028026 -0.012814 0.028115
GlobalSpecies0044 -0.098281 0.731606 0.061728 -0.061044 -0.161261 -0.330562 -0.317595 -0.261714 -0.333212 0.098903 -0.697774 0.043142 0.743239 0.271589 -0.269700 -0.706380 -0.269075 0.270407 0.208686 -0.420032 -0.176615 0.290788 -0.411258 -0.225591 0.102849 0.149548 0.497727 -0.119721 -0.461038 0.089647 -0.532995 0.175500 -0.009389 0.448748 0.078657 -0.330873 0.012406 -0.321238 0.393567 -0.150023 -0.382158 0.062653 -0.143020 0.194283 -1.720371 -0.566716 0.010034 0.973528 0.589105 -0.482810 0.226003 0.621126 0.167342 0.492825 -0.116958 0.172990 0.143479 0.161711 -0.407519 -0.115025 0.226062 -0.233864 0.184533 -0.440104 -0.128698 -0.485777 -0.413312 -0.382982 -0.133343 0.232062 -1.318149 -0.520061 0.421560 -0.416704 0.323535 -0.057848 0.719317 0.154262 -0.032025 0.312511 -0.513486 -0.636468 0.538716 -0.236211 0.377918 -0.231683 -0.231147 0.128688 0.002644 -0.191597 0.318274 -0.159035 -0.459156 -0.203359 0.134941 -0.229409 0.543627 -0.536113 0.229889 -0.026027
GlobalSpecies0045 -0.151552 -0.019870 0.099470 0.028885 0.228220 0.063174 -0.077093 0.051958 -0.267105 -0.083771 0.268561 -0.257022 0.044042 -0.220013 0.102238 -0.000852 0.012910 -0.063279 -0.152192 -0.040292 -0.147268 -0.214196 -0.078538 -0.040254 -0.080531 -0.092838 -0.063253 0.034437 0.110601 -0.100462 0.068118 -0.150569 0.070344 -0.344930 0.018425 0.101364 -0.014421 0.024304 -0.185963 0.158077 -0.051903 0.188037 0.073482 -0.057983 0.226184 -0.076440 -0.003131 -0.174786 -0.220216 0.131849 -0.057014 -0.104287 -0.080304 -0.162976 -0.025566 0.082906 0.346999 0.165890 -0.159507 -0.110084 -0.070681 0.046321 -0.034430 0.033690 -0.025287 0.185438 -0.164991 0.047867 -0.158343 0.183444 0.248453 -0.085047 -0.056173 0.095883 0.109598 -0.055963 -0.173071 -0.051246 0.008782 -0.046263 0.010769 0.040956 -0.189281 0.068726 -0.088162 0.031622 -0.319344 0.117816 -0.285010 -0.184553 -0.124638 0.208974 -0.069843 0.062457 -0.067664 -0.025204 -0.058683 -0.063426 -0.037861 0.063852
GlobalSpecies0046 -0.185737 0.137341 -0.246782 -0.216654 0.065271 0.052754 -0.061275 0.161653 0.375976 0.069480 -0.185643 0.202038 -0.182682 0.215634 0.026607 0.042984 0.035973 -0.147685 -0.080333 -0.066680 0.125680 -0.090647 0.167948 0.077641 0.253001 -0.262595 -0.063739 -0.046492 -0.354946 0.002380 0.222100 -0.154086 -0.043868 0.091813 0.276755 0.304339 0.102716 0.501897 0.288531 -0.009627 0.037265 0.161271 0.221034 0.047899 0.015583 -0.283998 -0.115910 0.266540 0.201731 -0.008125 -0.115519 0.074337 -0.107192 0.359980 -0.194265 -0.019296 -0.265854 -0.213721 0.245059 0.125355 0.045426 0.413580 -0.001704 -0.129014 -0.027368 -0.219589 0.258389 -0.172570 0.060279 -0.273486 -0.051137 0.199279 0.021992 -0.295551 0.078975 -0.115123 0.191135 -0.065479 0.152628 0.397145 -0.219079 0.017718 0.176810 0.098108 0.012350 0.043298 0.323270 -0.109047 0.139639 0.086557 0.141668 -0.361728 -0.079589 -0.111929 0.106441 0.196506 -0.015781 -0.015110 0.084633 -0.242372
GlobalSpecies0047 -0.072759 0.087061 0.044833 -0.037683 -0.116850 0.120949 -0.017554 0.283578 -0.164199 -0.076760 0.067026 0.017839 0.012655 -0.084423 0.168578 0.091264 -0.149991 0.075519 -0.204340 -0.092810 0.023832 -0.087573 0.121339 -0.006626 -0.041977 0.188801 -0.240714 0.133434 0.136952 0.060710 -0.018176 -0.051121 0.031107 -0.201437 -0.060779 0.181185 0.008880 -0.040122 -0.139991 0.179108 0.087916 0.213573 -0.094126 -0.103099 0.027973 0.024521 0.057109 -0.264666 -0.017005 0.238733 -0.137380 -0.025706 -0.069069 -0.100251 -0.097341 -0.019996 0.278089 0.127466 -0.112152 0.012152 0.032742 -0.003366 -0.221615 0.114147 -0.278895 0.334409 0.003721 0.107417 0.039783 -0.025757 0.264934 -0.112070 -0.005329 -0.166868 0.220325 -0.089342 -0.141387 -0.040729 -0.090938 -0.227217 0.198774 0.067849 -0.057750 0.081023 -0.117881 0.116400 -0.262936 0.080975 -0.099015 -0.335706 -0.204889 0.086659 0.066134 -0.017639 -0.015665 0.134135 -0.047186 0.009987 0.084385 0.018828
GlobalSpecies0048 -0.025459 -0.186376 0.127835 0.075853 -0.039766 0.068321 0.003140 0.034867 -0.084268 0.092552 0.156599 -0.073112 0.007307 -0.154605 0.141531 0.046422 -0.077641 -0.096595 -0.062739 0.022805 0.116659 0.091181 -0.043456 0.096847 0.005780 -0.060203 0.031198 -0.043603 0.047492 -0.136823 0.038303 -0.077274 0.087202 -0.231406 -0.072456 0.176705 0.187499 0.062846 -0.087753 0.149149 -0.026981 0.209955 0.020354 -0.077989 0.416869 0.082167 0.078394 -0.029437 0.001087 0.086332 -0.195336 -0.097796 -0.012487 -0.217262 -0.233172 0.146656 0.207500 -0.015552 -0.018402 0.058874 -0.003417 0.019228 0.005532 0.169501 -0.177127 -0.034868 0.110415 -0.022792 -0.065309 0.067750 0.215041 -0.057269 0.021593 0.013204 0.136974 0.036656 -0.133848 0.113072 -0.109413 -0.234045 0.127256 -0.059626 -0.107471 0.089056 -0.119854 0.119818 -0.039884 0.078844 -0.120118 -0.135181 -0.124955 0.059011 -0.206612 0.170879 0.124299 0.114163 0.020019 0.137921 -0.049987 0.081053
GlobalSpecies0049 0.179238 -0.276445 0.471632 -0.218302 -0.047569 0.004441 -0.025462 -0.088073 -0.049114 0.061774 0.113020 -0.076926 0.111546 -0.162168 -0.056104 -0.048721 0.013588 0.092855 0.135494 0.050032 -0.106003 0.063095 -0.209865 -0.238185 -0.062769 0.133491 -0.052802 0.078655 -0.023154 0.073909 -0.167214 -0.063749 0.065245 0.241808 -0.110648 0.198393 -0.205603 0.000500 0.064573 0.138710 0.082238 0.141202 -0.123522 0.008675 0.116899 0.270348 -0.000389 -0.236173 -0.179871 -0.132137 0.314447 0.051315 -0.397322 -0.116209 0.188998 -0.085656 -0.158152 0.001873 0.018601 -0.443716 0.081910 -0.106965 0.086802 -0.088487 0.116156 -0.038937 0.066727 -0.000653 -0.046939 -0.146882 -0.087231 -0.095804 -0.063219 -0.021346 0.081262 -0.009587 -0.097274 0.198574 0.057564 -0.398620 -0.045979 -0.235606 0.092631 0.156676 0.069406 -0.087822 -0.097185 0.093033 -0.001001 0.176508 -0.088753 -0.093144 0.122989 0.155363 -0.148121 0.199130 0.118412 -0.166454 0.086834 0.095124
GlobalSpecies0050 -0.122173 0.518067 -0.098774 -0.024629 0.216267 -0.293982 -0.226752 -0.151684 -0.098780 0.276954 -0.083769 0.279561 -0.559918 0.323610 -0.180560 0.169057 0.244917 0.024848 0.057305 0.073628 -0.159942 -0.065905 0.148814 -0.138055 -0.058598 0.190971 -0.055093 -0.227040 0.019520 0.170087 -0.248421 0.183358 -0.156122 0.213617 0.442513 -0.037889 -0.307482 -0.060201 0.119945 -0.224464 -0.102046 -0.380896 0.097980 0.101509 -0.343478 -0.212316 -0.411078 0.036937 0.200494 0.367065 -0.091116 0.088700 -0.003168 0.084012 0.073427 0.012767 -0.474824 0.198207 0.081209 0.310174 -0.018861 0.143089 -0.451836 -0.224139 -0.052435 -0.006294 0.046327 -0.408493 0.014090 -0.292476 0.267416 0.644185 0.094872 -0.365831 -0.233981 0.336429 -0.037020 -0.294304 0.308592 0.530610 -0.161438 -0.108705 0.125118 -0.270474 -0.032074 -0.246397 -0.384829 0.123292 -0.239324 0.295530 0.485968 0.012737 0.326428 -0.158933 -0.181230 0.133397 0.297826 -0.040704 -0.100487 -0.141682
GlobalSpecies0051 -0.377702 0.217621 -0.651041 0.127169 -0.659466 0.176787 0.062771 -0.365862 0.213029 0.379082 -0.228973 0.423953 -0.453832 0.233310 -0.161291 0.391316 -0.036712 0.069401 -0.183078 0.182893 0.673325 0.118562 -0.064168 0.323947 -0.259820 0.099610 0.275550 -0.121444 -0.447900 0.163466 -0.113572 0.225208 0.283476 0.004598 0.009296 -0.741262 -0.405127 -0.016959 0.358874 -0.495133 -0.452174 -0.463141 -0.418092 -0.152813 -0.935389 -0.300099 -0.093010 0.377218 0.179191 0.325670 0.302123 0.773888 0.192685 0.924223 0.540087 0.469874 0.183233 0.300373 -0.180977 0.398066 -0.303013 0.208300 -0.284331 0.148378 0.249846 -0.092431 0.113450 0.053146 -0.339969 -0.053914 -0.760264 0.497915 0.264920 -0.152523 0.020488 0.620818 1.236454 0.427506 -0.017732 0.390618 -0.247123 -0.063810 -0.230314 -0.152119 0.150163 -0.000959 -0.116703 0.076161 0.657292 0.147462 -0.400189 0.400420 -0.132194 0.065385 -0.000193 0.545962 0.205634 -0.451278 0.418417 -0.317484
GlobalSpecies0052 -0.133292 0.088649 -0.185399 0.100481 -0.301024 -0.217588 -0.039165 -0.081894 0.369925 0.181418 -0.184432 0.409000 0.059555 -0.086993 -0.472173 -0.384387 0.177850 -0.247938 0.184181 -0.329139 0.403387 0.338207 -0.026970 0.135705 0.065192 0.071065 0.308740 -0.093404 -0.292895 0.155166 0.037413 0.195342 -0.271741 0.156029 0.200469 -0.349606 -0.192308 0.087114 0.234825 -0.418640 -0.349449 -0.247060 0.153866 0.461920 -0.104277 -0.295521 -0.397506 0.372063 0.048920 -0.241579 0.498415 0.295257 -0.059208 -0.059039 0.616626 0.070013 -0.107900 0.057322 0.371491 0.571074 0.032498 -0.119624 0.115335 0.280017 -0.390132 -0.066776 -0.169943 0.190746 0.423204 -0.211023 -0.170799 -0.092725 -0.049741 0.321327 -0.294903 0.137165 0.281774 0.259762 -0.462771 0.499543 -0.689577 -0.035924 0.122099 -0.488227 0.171972 -0.099207 -0.015837 -0.317190 0.031443 0.202763 0.007458 -0.126268 0.461190 -0.245804 0.150933 -0.071362 -0.079018 -0.182199 -0.221516 0.182700
GlobalSpecies0053 -0.164016 0.082415 -0.224125 0.164524 0.141937 0.154252 -0.227289 -0.194740 0.021700 -0.010710 -0.072690 0.007060 -0.262120 -0.127769 0.097251 -0.097672 -0.038591 -0.083408 -0.136526 0.123118 0.152629 0.135195 0.025874 -0.133014 -0.010680 -0.020910 -0.012145 -0.113432 -0.094208 -0.042431 0.039680 0.006236 0.244428 0.029854 0.215296 0.107614 0.016426 0.139255 -0.003385 -0.058772 0.087090 0.096950 -0.232582 -0.044975 -0.137485 -0.251008 0.014248 -0.205855 0.038038 0.182286 0.047974 -0.206580 -0.023013 -0.070085 -0.062537 0.177987 -0.070116 0.127156 -0.094354 0.196740 0.190607 0.031731 -0.138964 -0.189646 0.023529 0.017066 0.158544 -0.240627 0.122937 -0.148826 0.025879 0.121082 -0.002452 -0.247715 -0.052180 -0.109187 -0.001913 -0.042060 -0.114764 0.174662 0.090492 -0.012427 0.061309 0.071495 0.105152 0.038285 0.049901 -0.093345 -0.103508 0.199743 -0.189980 -0.127284 -0.124957 0.023789 0.045371 0.107737 0.093355 0.053077 0.010661 0.182414
GlobalSpecies0054 -0.068372 -0.058417 0.126665 -0.006060 0.038170 0.053912 -0.026559 0.034544 0.141636 -0.054475 0.025162 -0.120763 0.156337 0.065749 -0.125322 -0.207944 -0.051821 0.153569 -0.218092 0.088698 -0.044361 -0.033726 -0.287485 0.052824 -0.115331 -0.080111 -0.019569 0.123116 0.077484 -0.033285 0.048206 -0.146599 -0.015950 -0.085114 -0.123038 0.109476 0.114318 0.082724 -0.023524 0.144517 -0.036888 0.052453 0.166764 -0.200403 0.216680 -0.000951 -0.044685 -0.026410 -0.068782 -0.045163 -0.021487 -0.073780 0.061991 -0.353885 0.141795 -0.123150 0.089225 0.115704 0.031803 -0.001187 0.040173 0.006995 0.093224 0.058496 -0.060995 -0.099910 0.002899 -0.010128 0.051336 0.101277 0.237467 -0.035859 0.109305 0.056906 0.072726 -0.065202 -0.066176 -0.139471 -0.146300 -0.077090 0.052826 -0.026300 -0.048064 -0.148869 0.020772 0.128070 0.013383 -0.063370 0.038226 -0.136712 -0.102140 0.021988 -0.079604 -0.038493 0.126351 -0.076722 -0.059914 -0.148966 0.028060 0.031459
GlobalSpecies0055 -0.083462 0.098877 -0.048250 -0.032268 -0.045555 -0.022417 0.100706 0.299000 0.068731 -0.052547 -0.030360 -0.000274 -0.020819 0.022762 0.046165 -0.009095 -0.058962 0.100984 -0.113373 -0.085105 -0.002460 -0.018580 -0.159746 0.161765 -0.044743 0.075465 -0.300522 0.070197 0.097076 0.031533 0.022216 0.032051 0.010176 -0.055947 -0.136027 -0.134297 0.145898 -0.028000 -0.026127 0.187797 0.043361 0.136367 0.161761 -0.136083 0.092344 0.196558 -0.042568 -0.085483 0.083138 -0.061541 -0.095736 0.017951 0.029454 -0.199021 -0.169050 -0.179141 0.070321 -0.092675 0.060974 -0.174966 -0.009680 -0.062484 0.126916 0.052614 -0.164658 0.063181 0.013126 0.071160 0.111987 0.112078 0.173547 -0.041085 0.050191 -0.223317 -0.003884 -0.052733 -0.063834 -0.064934 -0.151843 -0.241841 0.189994 0.131999 0.047702 0.050441 -0.072255 0.009193 0.101152 -0.014652 0.202276 -0.223837 -0.074474 -0.042247 -0.088641 0.027468 0.017239 -0.082736 0.062362 0.012249 0.065770 -0.048869
GlobalSpecies0056 -0.152856 -0.156832 -0.029602 -0.121190 -0.411391 -0.132081 -0.149658 -0.150100 -0.001694 0.628785 -0.658138 0.187800 0.297796 0.360513 -0.150287 0.274079 -0.086851 -0.124088 0.302504 -0.154892 -0.384864 0.309868 0.065521 -0.156650 -0.091163 0.169650 0.079491 -0.418322 -0.353009 0.201342 -0.154651 0.448994 -0.119449 0.949571 -0.222666 -0.216798 -0.098652 -0.152804 0.254932 -0.205817 0.202295 -0.166013 -0.250258 -0.048808 -0.669720 -0.185081 -0.360421 0.632495 0.310006 -0.292088 0.272476 0.458211 -0.394313 0.749254 0.664532 0.358777 -0.384189 0.210732 -0.107360 -0.080667 0.156395 -0.230039 -0.111546 0.012271 0.526073 -0.456047 -0.286608 -0.000624 -0.352378 -0.017306 -0.494037 0.087572 0.398221 -0.169078 -0.292094 0.196254 0.181748 0.691978 0.460586 -0.013156 -0.214813 -0.417022 -0.047134 -0.012930 0.188086 -0.355591 -0.199476 0.184848 0.356652 -0.162421 0.103346 -0.057986 -0.194200 -0.062944 0.004096 -0.152210 0.369192 -0.380209 -0.043731 -0.051211
GlobalSpecies0057 0.062949 0.342017 0.182906 0.089361 0.130975 -0.122743 -0.064817 -0.151062 0.340674 -0.087149 -0.162371 0.327660 0.173887 0.111835 -0.156276 -0.283486 0.030017 -0.155252 -0.022361 0.138256 0.179407 0.101604 -0.077432 0.077401 0.145870 0.115486 0.277803 0.304456 0.120968 -0.019747 -0.126873 0.157187 -0.202950 -0.036284 0.122991 -0.026639 -0.246802 -0.082767 0.279406 -0.327584 -0.208513 -0.200546 0.085655 0.311421 -0.185122 -0.114386 0.033103 0.334934 0.128913 0.011776 0.123976 0.066543 -0.178242 -0.066899 0.154668 -0.274790 -0.136546 0.205048 0.567782 0.584371 0.040413 0.071576 0.007611 0.116328 -0.125867 -0.214601 -0.122550 -0.059892 0.225375 -0.199658 -0.178365 0.237193 -0.265725 0.231742 -0.309863 0.119015 0.246720 0.031446 -0.200278 0.359755 -0.546340 0.169643 -0.162784 -0.162418 0.256025 -0.418771 0.086080 -0.195759 0.051359 0.225857 0.112032 -0.307082 0.087663 -0.279074 -0.081816 -0.159987 -0.149294 0.026967 0.225951 -0.095687
GlobalSpecies0058 0.190774 0.286116 -0.175847 -0.148453 0.023911 -0.238932 -0.229062 -0.057768 0.104914 -0.037820 0.301476 -0.154891 -0.184887 -0.022734 -0.147409 -0.109960 0.343824 -0.096408 0.071109 0.125207 -0.039205 -0.275649 -0.216237 -0.148441 0.051530 0.025007 0.130490 0.116273 0.011202 0.145881 -0.048679 -0.002007 0.121747 0.068332 0.139717 -0.292637 -0.043909 -0.174725 0.033258 -0.088078 -0.007776 -0.329402 0.310717 0.197591 -0.066047 -0.015026 0.072128 0.197243 0.096706 -0.064805 -0.111999 -0.014085 0.159645 0.238182 0.214371 -0.027698 -0.355652 -0.147690 -0.066144 -0.022888 -0.176739 0.070355 0.381513 -0.144186 -0.009791 -0.222151 -0.236044 0.112382 0.219640 0.112791 -0.107142 -0.065471 0.278670 -0.094182 -0.432166 0.003770 0.206456 -0.059457 -0.085500 0.279316 -0.000278 -0.229467 0.144846 -0.193080 -0.180232 -0.147085 -0.038817 0.298530 0.184868 -0.068794 0.294219 0.001613 -0.174322 -0.027320 0.000437 0.067231 0.187493 0.023910 0.021105 -0.230113
GlobalSpecies0059 0.059704 0.098039 -0.052480 0.247665 -0.081785 -0.118770 -0.084898 0.013678 -0.026933 -0.043724 -0.090030 0.041841 -0.146172 -0.164716 0.010808 0.023623 -0.252850 -0.070008 0.003504 0.006530 -0.088586 0.240365 0.421034 -0.035228 0.129209 0.112446 -0.066656 -0.010222 0.063345 -0.071883 0.117016 0.133197 0.171665 0.008781 0.171092 -0.052864 -0.037737 -0.245893 0.110750 -0.148994 -0.069380 -0.099786 -0.212673 -0.205913 -0.263047 -0.017050 0.032605 0.031264 0.252400 0.134666 -0.045767 -0.053708 0.011099 -0.018150 -0.035251 -0.059224 0.091380 0.014475 0.099123 0.285401 -0.160870 -0.118759 -0.021273 0.203226 0.064490 0.308404 0.000180 -0.019268 0.250343 -0.147530 -0.011035 -0.173607 -0.101318 0.000480 -0.056461 0.188242 0.067433 0.154797 0.060871 0.262013 0.016780 -0.074887 0.177105 0.233638 -0.139192 0.118922 0.111705 0.060657 0.247252 0.141812 0.166061 -0.003623 0.195758 -0.023648 0.010890 0.001548 0.064970 -0.064109 0.082900 -0.079360
GlobalSpecies0060 0.240585 0.141908 -0.470760 -0.185101 -0.248541 -0.526808 -0.076712 -0.431482 0.004678 -0.043940 -0.511866 0.709707 -0.193422 0.374309 -0.022883 0.293731 0.296094 -0.127654 0.811301 -0.380622 0.387549 -0.339535 0.322627 0.127918 -0.142186 0.147273 0.140486 -0.255631 0.017262 0.336227 -0.118167 0.140537 0.387356 0.005838 0.041539 -0.265670 -0.162718 0.014130 0.548430 -0.135950 -0.121329 -0.311028 -0.577162 -0.072394 -0.721677 -0.359301 -0.180219 0.225538 0.108614 -0.116134 -0.003041 0.428523 -0.322776 0.603214 -0.214897 0.278219 -0.584411 -0.023085 -0.201617 0.317677 -0.224306 -0.027051 0.097621 -0.037560 -0.313720 -0.138541 -0.404018 -0.545179 -0.482083 -0.022077 -0.469264 0.000084 0.429512 -0.207951 -0.010363 0.506421 0.473358 -0.020959 0.100967 -0.175771 -0.286792 -0.228963 -0.566393 -0.233804 0.618786 -0.229954 0.195749 -0.182085 0.078410 0.407693 0.035747 0.370872 -0.209930 -0.367509 -0.042054 -0.015406 0.134086 0.371302 0.034579 -0.121186
GlobalSpecies0061 0.101065 0.190871 -0.060714 -0.126828 0.222443 -0.238412 -0.024012 -0.302878 0.287076 0.173444 -0.352434 0.024152 0.228540 -0.194537 -0.080909 -0.622943 0.215406 0.061420 0.325803 -0.273768 -0.086283 0.167416 -0.053369 -0.164742 0.257905 -0.251650 0.225678 -0.253342 -0.072228 -0.040902 0.386512 0.476284 -0.285666 -0.027841 -0.190804 0.246344 -0.454758 0.052986 0.149465 -0.269973 0.002480 -0.468575 0.139253 -0.126098 -0.108037 -0.107199 0.027909 0.184382 0.104698 -0.076611 0.324353 0.019251 -0.221041 0.100815 0.414288 -0.199025 0.118889 0.105334 0.265673 0.078194 0.153144 -0.044952 -0.167035 0.113489 -0.238556 -0.347188 -0.316597 0.001409 -0.028071 -0.281930 -0.066141 0.170094 0.115592 -0.048847 -0.193221 0.124905 0.066673 0.254836 -0.562951 0.064218 -0.182549 0.163962 0.127769 -0.287858 0.032324 0.079400 0.182659 -0.284003 0.077954 0.096631 0.103532 -0.265910 -0.046602 -0.088720 -0.153208 -0.204270 0.051968 -0.096042 0.124547 0.103511
GlobalSpecies0062 -0.011450 -0.199338 0.181143 0.025095 -0.068071 0.107662 0.049700 0.242164 0.008572 -0.139781 0.050855 -0.001915 0.117125 -0.057734 -0.084411 -0.062370 -0.115960 0.071037 -0.088991 -0.097009 -0.002205 -0.060604 -0.125261 0.197714 -0.087477 0.073004 -0.070415 0.088405 0.183940 -0.058480 0.007503 -0.070910 -0.049311 -0.088301 -0.120329 0.011591 0.154449 0.019016 -0.090744 0.159359 -0.057074 0.116134 0.019443 -0.187559 0.221063 0.068805 0.052485 -0.043461 0.036260 0.039035 -0.074196 0.051150 0.092909 -0.228415 -0.182989 -0.027713 0.203998 0.018774 0.088835 0.022110 0.161889 -0.032182 -0.043064 0.105840 -0.122594 -0.032936 0.080523 -0.000934 0.036070 -0.010185 0.288596 -0.052174 -0.144053 0.016228 0.192231 -0.001473 -0.185235 -0.097030 -0.201516 -0.160086 0.158589 0.091427 -0.031034 0.042588 -0.052285 0.078627 0.035981 -0.100280 0.045488 -0.131319 -0.057669 0.115392 0.001377 0.087625 -0.002442 0.114216 -0.051472 0.007691 -0.028799 0.068475
GlobalSpecies0063 0.126045 -0.036615 -0.085789 0.139609 0.030740 0.131852 -0.185007 -0.149106 0.166386 -0.063261 0.180062 -0.094081 -0.258465 0.064783 -0.240554 0.129253 0.031897 0.064015 0.044293 0.192972 -0.051324 -0.101558 -0.133857 -0.091872 -0.124547 0.117857 -0.161658 0.097515 -0.026361 0.127107 0.032944 -0.066191 0.058501 0.205654 -0.010296 -0.050029 -0.082717 -0.042370 0.178297 -0.114769 0.018203 0.093151 -0.049390 -0.269393 -0.163057 0.063603 0.008602 -0.112274 -0.040068 0.066988 0.124727 -0.127733 0.226337 0.008565 0.228332 -0.086289 -0.331381 0.008761 -0.138925 -0.084010 0.078595 0.041624 0.112937 -0.120158 0.166878 0.214337 0.003185 0.049419 0.193750 -0.073874 -0.078396 -0.080727 -0.008332 -0.108550 -0.136947 -0.030513 -0.104548 -0.195953 0.078056 0.116802 0.156259 -0.220084 0.085679 -0.049779 0.047676 0.010732 0.087259 -0.018462 0.082232 0.054457 0.054754 0.186848 0.085732 -0.148722 -0.009466 0.095457 0.182001 -0.180814 0.010967 -0.013234
GlobalSpecies0064 0.127177 0.037244 0.029618 0.001323 0.111236 0.102006 0.059011 0.063556 -0.070432 -0.113620 -0.166481 0.024719 0.157340 -0.107108 -0.079839 -0.117057 -0.097387 0.149360 -0.111140 -0.072742 0.065882 -0.035199 0.004422 0.040993 -0.063635 -0.020490 -0.058657 0.244585 0.008334 0.043667 0.108283 -0.168929 -0.018934 -0.158182 -0.033151 0.213168 -0.150406 -0.030538 -0.005410 0.098137 0.106669 -0.032065 -0.090177 -0.140349 0.048568 -0.030887 0.139753 -0.245793 0.003533 0.026173 -0.193491 0.029139 -0.119390 -0.084720 0.068737 -0.100427 0.058639 0.191325 -0.088441 0.062633 0.017297 0.165977 -0.242694 -0.104593 -0.230483 0.097564 -0.157640 0.014996 0.053264 -0.043104 0.211172 0.017460 -0.066971 -0.057942 0.063214 -0.071808 -0.089270 -0.018337 -0.061027 0.008978 0.124726 0.105250 -0.090337 -0.018994 0.031062 0.024588 -0.072567 -0.096176 0.035788 -0.103461 -0.090491 -0.025866 0.179803 -0.127592 -0.008140 0.084518 0.015402 -0.076220 0.040274 0.094431
GlobalSpecies0065 -0.125304 -0.189850 0.039557 0.163535 -0.030520 0.112828 0.108005 0.189862 0.071855 -0.053227 0.136471 -0.155596 0.051027 0.041116 0.026508 -0.360490 0.091763 0.071857 -0.267239 0.072859 -0.074159 -0.164175 -0.393873 -0.240458 -0.157852 -0.087030 -0.106773 -0.173363 0.159229 0.093084 -0.115666 -0.019957 -0.058447 -0.043551 0.037450 -0.147031 0.082764 0.021881 -0.141137 0.293108 0.061394 0.092720 0.229396 -0.258280 0.205948 0.222218 -0.029765 -0.127369 -0.014453 -0.077605 0.019907 -0.084173 0.218016 -0.464626 0.020428 -0.263105 0.033694 -0.258140 0.040191 -0.156913 0.036082 -0.293442 0.185875 -0.082847 -0.010833 -0.016408 0.113359 0.041834 0.191071 0.054766 0.322035 -0.037955 0.168195 0.129440 -0.182058 -0.073350 -0.083159 -0.321303 -0.084082 -0.105729 0.103758 -0.014712 -0.054237 -0.353216 0.055464 0.084085 0.112410 0.085777 0.123265 -0.105949 -0.267092 0.247413 -0.204890 0.074180 0.043290 0.014584 -0.120775 -0.053899 0.079705 0.021630
GlobalSpecies0066 -0.003040 -0.389898 0.117127 0.094223 0.021311 0.114923 -0.099225 0.096341 -0.268916 -0.073383 0.067955 -0.110888 0.022713 -0.094147 0.074984 0.013251 -0.118631 -0.085785 -0.202397 0.010470 -0.043287 -0.109530 0.143202 -0.049100 -0.141276 0.111643 -0.019959 -0.078315 0.177160 0.082518 -0.054385 -0.069985 0.053427 -0.267449 0.014580 0.164968 0.163347 -0.030436 -0.319596 0.130877 -0.017229 0.035769 -0.177462 -0.202321 0.189354 -0.001514 0.245343 -0.132584 -0.020100 0.138421 -0.023395 -0.112918 0.050149 -0.274231 0.088021 0.123184 0.287390 0.149976 0.036479 0.073005 0.121493 -0.083937 -0.356562 0.062871 -0.074847 0.166234 0.260156 -0.030460 -0.040776 -0.027888 0.388654 -0.186719 -0.103319 0.149335 0.150260 0.017239 -0.267733 -0.061728 -0.222645 -0.113040 0.226153 0.106935 -0.060442 0.105142 -0.088805 0.117211 -0.208639 0.214232 -0.151158 -0.269055 0.054418 0.242269 0.196767 -0.028287 0.113894 0.213669 -0.092201 0.042201 -0.076172 0.133610
GlobalSpecies0067 -0.040381 0.145799 -0.192390 0.157416 0.124741 -0.013654 -0.076288 -0.117911 0.134992 -0.036330 0.054293 -0.009945 -0.334650 0.167854 -0.159510 0.106861 0.010396 0.177693 -0.017163 0.019705 -0.041674 0.061605 0.177053 -0.281551 -0.222036 0.040889 0.127306 0.041442 0.101149 0.130545 -0.114395 0.210136 0.069012 0.002779 0.100859 -0.142444 -0.075825 -0.090139 -0.081816 0.158294 0.033748 -0.210792 0.175735 -0.447573 -0.263299 0.003521 -0.232566 0.002531 0.144514 -0.003119 0.112312 0.174261 0.270182 -0.152245 0.161437 0.003978 -0.193818 -0.025983 -0.140360 -0.110293 -0.054968 0.035516 0.027425 -0.279916 0.089084 0.183753 0.166854 -0.112978 0.147017 0.102738 -0.054334 0.172822 0.008485 -0.168882 -0.372852 -0.100387 0.286576 -0.265851 -0.049765 0.223691 0.095351 0.014798 0.048449 -0.150628 -0.077662 -0.168648 -0.018186 -0.161581 0.174680 0.190705 -0.008658 -0.043514 0.311738 -0.275308 -0.214349 -0.071645 0.043242 -0.074672 0.186168 -0.007002
GlobalSpecies0068 -0.092179 -0.312781 0.184861 0.040328 -0.118582 0.255710 -0.039093 0.233866 -0.144830 0.070970 0.209570 -0.025793 0.139087 -0.192018 0.316782 0.065472 -0.233618 -0.007339 -0.190472 -0.107241 0.264328 -0.130732 0.021760 0.236972 0.076265 0.061062 -0.040118 -0.276418 0.185063 -0.024659 -0.048802 -0.143540 -0.089652 -0.304103 -0.250070 0.198762 0.156321 0.033490 -0.085795 0.265799 -0.097566 0.262148 -0.080017 -0.040153 0.367675 0.106617 0.254419 -0.128896 -0.057532 0.229733 -0.263863 -0.147673 0.030769 -0.262049 -0.313627 0.210908 0.463703 -0.137642 0.102721 -0.028089 0.268892 -0.127960 -0.165401 0.238405 -0.171122 -0.012737 0.354344 0.027159 -0.050271 0.043256 0.359389 -0.079186 0.134937 0.116296 0.352831 0.007345 -0.159119 -0.017068 -0.209264 -0.387333 0.188641 0.105144 -0.111383 0.130289 -0.166723 0.059290 -0.151520 0.266095 -0.181919 -0.272773 -0.045318 0.089112 -0.190552 0.234421 0.087730 0.205635 -0.210429 0.277183 -0.048056 0.118905
GlobalSpecies0069 0.025385 0.037689 0.228834 0.006074 -0.148409 -0.069351 -0.198356 -0.017310 0.011404 -0.315101 0.210583 0.028337 -0.248793 -0.116250 -0.012117 -0.110774 0.079610 -0.296638 0.049832 0.167759 -0.135449 -0.006432 -0.128078 -0.074316 0.067907 0.007438 -0.121674 0.051409 -0.037237 -0.117636 -0.114656 -0.243427 0.209206 0.271259 0.333960 -0.178286 -0.220970 0.059120 -0.155704 -0.165393 0.104843 -0.043998 0.018104 0.186752 0.108938 -0.178986 0.134797 -0.018126 -0.166965 -0.207209 0.122907 -0.139468 -0.068359 0.254683 0.002248 -0.201716 -0.024573 0.036409 -0.125803 -0.233089 -0.118533 0.054869 0.289905 -0.074836 0.116366 -0.076278 -0.025403 0.026413 -0.022115 0.087373 -0.075631 -0.076292 -0.032818 0.135619 0.056688 -0.045231 -0.120477 0.015754 0.219664 -0.016491 -0.155855 -0.133412 0.131092 0.134726 -0.079974 -0.065457 -0.077587 -0.155603 0.051079 0.186851 0.052291 0.219980 0.045958 0.104275 0.063516 -0.003627 0.162012 -0.125842 -0.234987 -0.175600
GlobalSpecies0070 -0.308764 -0.257345 0.209347 0.122973 0.037418 0.155503 0.171762 0.086334 -0.018322 0.144972 0.189516 -0.271036 0.103029 0.012757 0.087737 -0.102035 0.093472 0.084253 -0.220503 0.008989 0.012752 -0.056596 -0.319465 -0.084886 -0.104628 -0.183263 -0.126958 -0.022451 0.219711 0.053347 -0.073645 -0.062933 -0.111976 -0.220513 -0.140346 0.061089 0.093840 0.119573 -0.115665 0.311127 -0.022302 0.185807 0.206154 -0.215988 0.423670 0.181021 0.015221 -0.040222 -0.149603 -0.035488 -0.146407 -0.016631 0.098497 -0.469478 -0.086153 -0.046551 0.303746 -0.045311 -0.057446 -0.143498 0.084628 -0.096896 0.156436 0.069801 -0.142230 0.096776 0.047461 0.041832 -0.017257 0.156426 0.248738 -0.157508 0.143598 0.166788 0.169603 0.029589 -0.181302 -0.194246 -0.048782 -0.230918 0.155754 0.056441 -0.216874 -0.157326 -0.027152 0.011815 -0.160850 0.129529 -0.217878 -0.188082 -0.230336 0.283776 -0.135828 0.116381 -0.002275 0.028468 -0.075261 -0.048024 0.059530 0.088120
GlobalSpecies0071 0.045371 -0.124436 0.400113 -0.121545 -0.065550 -0.197968 -0.093201 -0.252231 0.156756 -0.046847 0.055219 0.004872 0.077560 -0.024846 -0.151436 0.151414 0.055135 0.045778 0.245918 0.094477 -0.271668 0.031690 -0.190070 -0.318565 -0.038138 0.131001 -0.047793 0.191900 0.079807 0.189797 -0.266557 0.064662 0.123220 0.335903 -0.182258 0.275751 -0.187188 0.056416 0.030314 0.027842 0.112131 -0.023856 -0.338166 0.288453 0.063390 0.168364 -0.009940 -0.021336 -0.002099 0.006616 0.276963 0.089066 -0.322757 -0.060148 0.193349 -0.153139 -0.502745 -0.010000 0.126241 -0.246438 -0.062312 -0.063821 0.200255 0.040631 0.278967 -0.074483 -0.059093 -0.086757 -0.029504 -0.241315 -0.250775 -0.044817 0.020468 -0.076785 0.018955 -0.017520 -0.150709 0.181479 0.118568 -0.289744 -0.032082 -0.224304 0.057199 0.057084 -0.018200 -0.131420 -0.074684 0.134606 0.209595 0.233223 -0.130308 -0.092374 0.083167 0.133787 -0.208206 0.118536 0.074553 -0.148774 -0.020028 0.047989
GlobalSpecies0072 -0.298160 -0.113596 0.215080 0.074790 0.113337 -0.034062 0.299691 -0.077484 -0.096395 0.205918 0.136758 -0.316860 0.071787 0.004364 0.105214 -0.066717 0.085657 -0.005352 -0.204343 0.124720 -0.014873 0.150092 -0.181771 -0.225594 0.050290 -0.172759 0.007615 0.116664 0.085126 -0.103502 -0.124050 0.185901 -0.096013 -0.199934 0.098228 0.253575 0.159816 0.185939 -0.024818 0.161228 0.068510 0.300181 0.136233 -0.032887 0.595112 0.071830 -0.006832 -0.020229 -0.388181 -0.027846 -0.097160 -0.003149 -0.001884 -0.240331 0.075233 -0.056518 0.189048 0.169792 -0.119909 -0.017133 -0.165229 0.039297 -0.015744 0.134978 -0.179914 0.116765 -0.042990 -0.041905 -0.267017 0.043130 0.163287 -0.113995 0.049969 0.141032 0.074600 -0.061123 -0.034169 -0.021367 -0.022448 -0.148045 -0.025516 -0.060472 -0.330593 0.003011 -0.031598 0.064793 -0.142563 -0.031918 -0.376286 -0.134445 -0.227437 0.194722 -0.143052 0.141647 -0.113564 -0.144651 -0.133907 -0.021602 -0.006092 -0.056753
GlobalSpecies0073 -0.016496 0.123814 0.068327 -0.020284 -0.076748 0.074934 0.058923 0.107862 0.074379 0.013441 0.152948 0.046201 -0.006998 -0.055452 0.253977 0.063418 -0.175115 0.012046 -0.216946 0.029892 0.113371 0.112367 0.000597 0.161971 0.099752 -0.038390 -0.085084 -0.141505 -0.028851 -0.203233 0.083869 -0.144826 0.067805 -0.170568 -0.094117 0.091634 0.157344 0.086357 0.018918 0.050894 -0.067988 0.153531 -0.028603 0.041095 0.068301 -0.027731 0.003645 -0.230079 -0.113279 0.168660 -0.173058 -0.173518 -0.049189 -0.083308 -0.133227 0.201288 0.052909 -0.169314 -0.050691 -0.000823 -0.051642 -0.044168 0.090600 0.058717 -0.055310 -0.035973 0.137929 -0.030045 0.106654 -0.062921 0.175459 0.133116 0.012428 -0.180259 0.189855 -0.074958 -0.013986 0.169152 -0.132828 -0.159594 0.062970 0.123184 0.091908 0.180129 -0.134103 0.169286 0.112864 -0.010512 0.028670 -0.028550 0.026173 -0.160357 -0.352692 0.282764 0.081105 0.012637 -0.057409 0.341748 0.048589 -0.048081
GlobalSpecies0074 0.011209 -0.156687 0.172428 -0.009451 0.098458 -0.059622 0.000608 0.061146 -0.099022 0.026783 0.003711 -0.107041 0.225564 -0.074501 -0.044529 -0.044577 -0.096533 0.051856 -0.035811 -0.026358 -0.070976 0.063259 -0.078185 0.118961 -0.048884 -0.048612 0.169854 0.023768 0.119838 -0.123333 -0.005835 -0.006642 -0.071184 -0.146389 -0.118683 0.175939 0.196879 0.067424 -0.132248 0.128386 -0.043548 -0.010604 0.023630 0.045804 0.400551 0.214608 0.161244 0.028028 -0.088272 -0.013394 -0.011287 -0.060790 -0.002521 -0.267945 -0.043507 0.009211 0.190392 0.201564 0.117700 0.103856 0.039157 0.103263 -0.130975 0.162486 -0.069019 -0.091074 0.035484 -0.063923 0.019078 0.066645 0.281633 0.037022 -0.043928 0.099345 0.163865 0.009332 -0.129370 0.033044 -0.165053 -0.206553 0.178392 0.034795 -0.150135 0.021922 -0.068409 0.174246 -0.008257 -0.001234 -0.140686 -0.116062 -0.039493 0.100410 0.019086 0.012763 0.023650 -0.046135 -0.070016 -0.053036 -0.141555 0.066716
GlobalSpecies0075 0.129089 -0.592252 0.018206 0.205829 0.029326 -0.062918 -0.068543 0.127915 -0.270749 -0.063792 0.016598 -0.055617 0.000630 -0.244685 -0.089232 -0.094143 -0.038536 -0.252432 -0.157886 0.017459 -0.062863 0.078668 0.044756 0.000249 -0.043169 -0.035055 0.170820 -0.081332 0.020748 0.050561 -0.148588 0.049407 -0.121343 -0.071759 0.185517 0.035139 0.374224 0.069195 -0.219486 -0.051674 0.058981 0.077719 -0.134117 0.017569 0.195035 0.229859 0.142877 -0.004311 0.109357 -0.079120 -0.024349 0.033884 0.080412 -0.022895 0.107984 0.041320 0.119071 -0.025236 0.226505 -0.099496 -0.139946 -0.162298 -0.318021 0.084683 -0.134022 -0.037230 0.218139 -0.194056 0.142145 -0.116805 0.272610 -0.077283 -0.178749 0.107001 -0.188735 0.147854 -0.029884 0.103760 -0.171101 0.041377 0.095358 0.136744 0.063446 0.183184 0.098711 0.095282 0.153271 0.059312 0.091195 -0.143728 0.238986 0.023143 0.303834 0.039721 0.190033 0.117593 -0.071876 0.019732 -0.035819 -0.035162
GlobalSpecies0076 -0.121138 -0.030831 0.112758 0.048846 -0.017069 0.261744 -0.095921 0.196390 -0.123697 0.081184 0.240855 -0.034501 0.010587 -0.167305 0.314620 0.113297 -0.256554 0.030838 -0.295493 0.032928 0.233209 -0.075856 0.044725 0.115312 -0.022146 0.153897 -0.166662 -0.173226 0.092430 -0.044270 -0.036052 -0.136941 0.025541 -0.356155 -0.195956 0.197081 0.039594 -0.006025 -0.032468 0.161294 -0.103405 0.332994 -0.053634 -0.115977 0.174792 -0.040165 0.133059 -0.354408 -0.161280 0.362331 -0.182037 -0.285524 0.001978 -0.296065 -0.119251 0.243016 0.384211 0.001912 -0.083931 0.095964 0.242318 -0.123726 -0.243396 0.145636 -0.109196 0.176648 0.257373 0.091489 0.004186 -0.009523 0.291425 0.007547 0.122380 -0.045556 0.264392 -0.083143 -0.206978 -0.023648 -0.130945 -0.304455 0.163048 0.180584 -0.074600 0.089785 -0.130266 0.075925 -0.300374 0.252649 -0.243746 -0.277604 -0.160347 0.086022 -0.215920 0.121093 -0.043762 0.131845 -0.164012 0.197230 0.015795 0.171914
GlobalSpecies0077 -0.102595 -0.019772 -0.016905 -0.062414 -0.024431 0.182985 -0.030800 0.237153 -0.149706 -0.097082 0.012845 -0.036575 0.015407 -0.011018 0.129514 -0.032779 -0.044831 0.088215 -0.263771 -0.088214 0.015125 -0.165953 0.020158 -0.125131 -0.049257 0.099388 -0.253754 0.204004 0.052707 0.115662 -0.068351 -0.062591 -0.004980 -0.244953 -0.033915 0.248078 -0.021647 0.072066 -0.232718 0.189369 0.173243 0.210714 -0.129153 -0.212212 0.131948 -0.033506 0.016546 -0.236188 0.026698 0.072581 -0.104393 -0.016268 -0.107972 -0.060884 -0.015070 -0.015350 0.245047 0.108438 -0.089801 -0.005198 0.107335 0.036171 -0.288547 -0.072572 -0.374025 0.320291 0.043448 0.061795 -0.045012 -0.124558 0.282047 -0.132062 -0.025229 -0.139836 0.230163 -0.133042 -0.176720 -0.089823 -0.098929 -0.142188 0.106184 0.136532 -0.099365 0.036500 -0.041365 -0.002969 -0.305558 0.018464 -0.209383 -0.385100 -0.223190 0.138062 0.171778 -0.092830 0.041100 0.201633 -0.066736 -0.037677 0.052775 0.138235
GlobalSpecies0078 0.151560 -0.405586 0.472360 -0.145271 -0.068697 0.086861 -0.068560 0.004460 -0.041247 0.080626 0.094703 -0.090667 0.146940 -0.039327 -0.007545 0.077285 0.009751 0.118093 -0.001308 0.096095 -0.128310 -0.051091 -0.255114 0.004082 -0.138156 0.223343 -0.202587 0.025425 0.029353 0.073472 -0.253947 -0.071852 0.015267 0.171124 -0.162323 0.325272 -0.187121 0.104089 -0.017736 0.084822 0.092768 0.184792 -0.147640 0.050176 0.294826 0.254493 0.095281 -0.236599 -0.302022 -0.131061 0.287489 -0.020974 -0.393929 -0.079282 0.221458 -0.199879 -0.185828 -0.010734 0.037054 -0.396595 0.054435 -0.179136 0.072703 -0.024661 0.094993 0.067306 0.105993 0.042805 -0.236551 -0.093862 0.064987 -0.046558 -0.093172 0.085654 0.128640 -0.108899 -0.180354 0.055967 0.105166 -0.479348 0.008790 -0.047000 -0.049907 0.112970 0.038526 -0.020438 -0.206224 0.211874 -0.008007 -0.002386 -0.077953 -0.031348 0.091356 0.270504 -0.213815 0.155611 0.039537 -0.048156 -0.055754 0.085529
GlobalSpecies0079 -0.080238 -0.149229 0.003452 0.014354 0.003337 -0.116761 0.178364 -0.209590 -0.062495 -0.153243 0.130238 0.058239 -0.225138 -0.000906 -0.078891 -0.145978 0.127081 -0.176567 0.227520 0.147698 -0.047542 0.244736 0.102940 -0.012511 -0.056916 0.000053 0.259450 0.050919 -0.003714 0.031671 0.023129 0.255461 0.011516 0.150825 0.168569 0.010964 -0.158962 -0.094450 -0.019570 -0.132064 0.016991 0.002525 -0.009234 0.029419 0.417516 0.259628 -0.020057 0.210978 0.166888 -0.071693 -0.137395 0.030945 0.237062 0.137477 0.130393 -0.042282 -0.114386 0.172456 0.065196 0.113076 -0.211741 0.110124 -0.134216 0.146401 -0.144529 0.054971 -0.019120 -0.302765 -0.000088 -0.004239 0.013344 0.147982 0.028631 0.108600 -0.130607 0.196311 -0.015647 0.044039 0.044072 0.065254 0.123786 -0.348233 0.083290 -0.041224 0.085463 0.275274 0.054859 -0.063137 0.158406 0.014605 0.132654 0.423710 -0.095288 -0.096963 0.114044 -0.182839 -0.065675 -0.086926 -0.113744 -0.109770
GlobalSpecies0080 0.011343 -0.030580 -0.237475 0.015938 0.141501 0.078683 0.066211 -0.114642 0.200078 -0.093892 -0.164570 0.100661 -0.137079 -0.103175 -0.110846 0.179453 0.156689 0.012867 0.093272 -0.033919 0.243402 0.219143 0.146616 0.330688 0.149949 0.099615 -0.000290 0.163260 -0.061411 0.333003 -0.033558 -0.012362 -0.273135 0.235745 -0.082300 0.003124 -0.205302 0.140964 0.247265 -0.135739 0.062763 0.098233 0.040498 0.120157 -0.002574 -0.015769 -0.205001 -0.023472 0.021491 0.051793 0.027709 0.103477 0.098491 0.012006 -0.085514 0.113951 -0.341020 -0.042806 0.055178 -0.001432 0.007245 0.180098 0.088649 0.002639 0.225384 -0.139600 -0.078335 0.033181 0.321136 0.123297 -0.292092 0.277631 -0.073805 -0.206708 -0.134483 0.282931 -0.159676 0.084822 0.252539 0.096570 0.093687 0.026783 0.246911 0.036110 0.000645 -0.075947 0.060884 -0.232730 0.469806 0.155438 0.249113 -0.025196 -0.114075 -0.319820 -0.009715 -0.106217 0.150457 0.023284 -0.012689 0.093774
GlobalSpecies0081 0.037536 0.257509 0.037306 -0.050552 -0.259296 -0.171823 -0.014243 0.086158 0.006962 0.010134 0.122133 0.276708 -0.386625 0.001378 0.261516 0.253476 -0.309960 0.133829 0.024984 0.011606 -0.048489 0.099892 -0.236192 0.064039 0.101062 -0.041089 -0.156868 -0.014184 0.058904 -0.177304 0.068716 0.203367 -0.162022 0.093912 -0.146299 -0.458639 -0.007519 -0.162353 0.543468 -0.308656 0.078173 0.005454 -0.246865 -0.105066 -0.163362 0.299597 -0.060867 -0.141002 -0.118274 0.040223 -0.126929 0.192644 0.418767 0.273042 -0.221366 -0.216810 -0.048976 -0.017919 -0.040601 0.177158 -0.389747 0.106679 0.001669 0.149261 -0.155800 0.108334 0.073662 0.068925 0.224365 -0.086366 0.000670 0.055615 -0.127344 0.069463 -0.057362 0.232748 0.250233 0.120023 0.095964 0.153356 -0.050132 0.088857 0.007470 -0.014213 -0.090124 -0.108761 0.371392 -0.122753 0.089686 0.224686 0.012437 0.074615 0.080031 0.455011 -0.160919 0.008571 0.054981 0.138343 -0.001174 -0.523047
GlobalSpecies0082 0.115731 -0.508104 0.071351 0.092717 0.044592 -0.020398 -0.149180 -0.031292 -0.228287 -0.014802 0.096053 -0.061267 0.098493 -0.126092 -0.025204 -0.048568 -0.013334 -0.110771 -0.014258 0.039238 -0.148964 -0.038263 0.050054 -0.085661 -0.119190 -0.015732 0.284705 -0.204833 0.115968 0.076896 -0.143492 0.038449 -0.167272 -0.071537 0.015017 0.112700 0.372034 -0.039676 -0.187456 0.079122 0.104393 0.054500 -0.136941 0.035974 0.190717 0.291933 0.212157 0.062194 0.118614 -0.098639 -0.039873 0.048648 0.054535 -0.147584 -0.008410 -0.021946 0.080332 -0.094339 0.281293 -0.103954 -0.077590 -0.184714 -0.304835 0.040469 -0.224793 -0.018233 0.281816 -0.062435 -0.093714 -0.024184 0.245253 -0.223275 -0.205618 0.275708 -0.125727 -0.073667 -0.135140 0.098285 -0.293733 0.008630 0.060210 0.113245 0.020264 0.051692 -0.063195 0.048988 0.023781 0.069726 -0.048946 0.007192 0.043007 -0.022850 0.209471 0.158223 0.281658 0.079996 -0.144516 0.081160 -0.076129 0.032816
GlobalSpecies0083 -0.005184 0.060949 0.052739 -0.060490 -0.157647 0.000257 0.129226 0.153442 -0.093225 -0.139545 0.091388 0.134061 0.079156 -0.074001 -0.054764 -0.176375 -0.039940 0.190788 0.080948 -0.008234 -0.050092 0.057671 0.237700 0.022034 0.114920 0.042760 0.030239 0.028863 0.145991 0.091368 -0.085950 0.030560 0.051139 0.020994 0.112277 0.095039 0.176485 0.075565 -0.229030 -0.023930 0.088648 0.073887 -0.128794 -0.052326 0.235594 0.129576 0.106994 0.030078 0.233255 -0.297637 -0.076335 0.170435 -0.181531 0.084649 -0.077368 -0.017086 -0.022332 -0.021036 0.229683 0.142769 -0.089485 -0.102316 -0.002391 0.037793 -0.344425 -0.021160 0.076768 -0.112012 -0.094693 -0.055350 0.171371 -0.181345 -0.159514 -0.086047 0.122212 0.030832 0.048751 0.094681 -0.179108 0.007977 0.076532 0.078583 0.034339 0.001799 -0.116192 0.134259 0.129172 -0.072347 0.053545 -0.219760 -0.029275 0.105112 0.199699 0.036699 0.031462 0.000965 0.010850 0.044345 -0.055691 0.070319
GlobalSpecies0084 0.068854 -0.001702 0.013135 -0.063458 0.085660 -0.091888 -0.044139 0.171366 0.017320 -0.170991 0.099557 -0.077743 0.148346 -0.224110 0.037682 -0.136117 -0.089295 0.135751 -0.089511 -0.165570 0.051356 -0.089189 -0.199484 0.114515 -0.083766 -0.140759 -0.051984 0.089737 -0.009443 -0.029857 0.056499 -0.181105 -0.004083 -0.051299 0.041669 0.069396 -0.046291 0.071543 -0.187390 0.178584 0.096416 0.039697 0.029369 0.187853 0.230897 0.025762 0.200783 -0.123119 -0.059360 -0.020267 -0.160491 -0.030530 -0.128727 0.038841 -0.028596 -0.073111 0.045043 0.117027 -0.127909 -0.093388 0.028361 0.192421 0.026876 0.063518 -0.172259 -0.015145 -0.136932 0.042645 -0.013240 0.064677 0.179403 -0.059171 -0.148659 0.027969 -0.045162 -0.210990 0.010717 -0.099150 -0.150141 -0.123629 -0.048520 0.199059 -0.045344 0.055394 -0.128289 -0.082585 0.055886 -0.119079 -0.057134 -0.156207 -0.013949 0.068906 0.096635 0.065687 0.018718 -0.012634 -0.036394 -0.021695 -0.111117 0.030989
GlobalSpecies0085 0.104711 0.041034 0.017302 -0.015564 -0.205826 0.106081 0.011272 -0.209790 0.293723 0.188867 -0.036216 0.128862 -0.116807 0.004647 0.001750 0.246524 -0.014092 -0.216111 0.350179 0.082925 0.256129 0.141212 0.284263 0.131101 0.141117 0.024805 0.072759 -0.062620 -0.064012 -0.126769 0.029899 0.072246 0.222576 0.070149 -0.125621 0.127205 -0.114434 -0.072710 0.252065 -0.175498 0.014451 0.186968 -0.014379 0.038292 -0.359050 -0.174422 0.104949 -0.101932 0.237432 0.139288 0.022392 -0.135930 -0.211675 0.118193 -0.116264 -0.079431 -0.325717 0.014147 -0.142948 -0.204927 -0.161668 -0.021739 0.044846 0.138113 0.062823 0.005473 -0.032648 0.038935 0.146387 0.017868 -0.367809 0.106846 0.048739 -0.026450 -0.036785 -0.048900 0.020829 0.154297 -0.097947 -0.096035 -0.098793 -0.225645 0.146469 0.181958 -0.073976 -0.011449 0.256547 0.044326 0.119246 0.224939 0.171943 -0.166079 -0.161855 -0.055511 -0.072789 -0.243344 0.063151 0.174023 0.236991 -0.032188
GlobalSpecies0086 0.118127 -0.152194 0.050266 -0.074694 0.052539 0.021734 -0.103268 0.001258 -0.313284 -0.344196 0.307718 -0.104168 0.039068 -0.257535 -0.002535 -0.227919 -0.058283 -0.051560 0.002897 -0.064676 -0.143953 -0.132655 0.112094 0.031682 -0.023242 -0.092383 0.017683 -0.131668 0.072349 -0.008935 0.029599 -0.112468 0.044519 -0.096913 0.067799 -0.070373 0.156055 0.033466 -0.144002 0.116809 -0.006190 -0.039076 -0.021262 0.099570 0.160757 0.000608 0.124281 -0.001388 -0.009633 -0.118823 -0.149060 0.074549 -0.047612 -0.005746 0.015741 0.088225 0.133802 -0.100580 0.117906 -0.213497 -0.244275 0.150065 -0.081142 -0.060779 -0.044888 -0.124712 0.072590 -0.085232 -0.112759 0.144164 0.091798 -0.108051 -0.191409 0.068614 -0.149932 -0.018783 -0.061818 0.006794 -0.156732 0.021009 -0.022238 0.198003 -0.058622 0.086786 -0.024712 0.104914 0.079478 0.066211 0.080219 -0.069617 0.120349 0.088660 0.146027 0.084778 0.178191 0.024254 -0.123463 -0.050064 -0.101843 -0.048907
GlobalSpecies0087 -0.172007 -0.138214 0.031348 -0.059770 -0.099541 0.173944 0.141681 0.407310 -0.071364 -0.063112 0.120466 -0.086988 0.119086 0.019871 0.097410 -0.106566 0.104782 0.162313 -0.155347 -0.166352 0.107584 -0.333726 -0.242649 0.040885 -0.016815 -0.016730 -0.255885 0.084212 0.181581 0.171638 -0.223179 -0.204450 -0.149450 -0.183315 -0.219390 0.113228 0.081969 0.170366 -0.236936 0.320097 0.149427 0.238806 0.087384 -0.183817 0.355460 0.149711 0.092459 -0.095337 0.018435 -0.087353 -0.143844 0.085651 0.007741 -0.202867 -0.172577 -0.073109 0.268699 -0.179942 -0.014156 -0.216888 0.312549 -0.098587 0.028892 -0.003145 -0.372667 0.118273 0.149847 0.198289 0.034101 0.051743 0.289077 -0.158937 0.102510 -0.028997 0.222713 -0.122273 -0.126550 -0.255354 -0.112565 -0.318060 0.147140 0.231834 -0.198756 -0.029867 -0.054968 -0.021219 -0.092071 0.242165 -0.103977 -0.353401 -0.266834 0.216612 -0.015735 0.037798 0.046397 0.113755 -0.126690 0.072612 -0.027693 0.149853
GlobalSpecies0088 0.053349 0.029669 -0.097200 -0.325672 -0.177614 -0.147722 -0.036723 0.134988 -0.095846 -0.016522 -0.049900 0.306325 0.013860 -0.327492 -0.129493 0.072141 0.023366 -0.075732 0.376813 0.076437 0.100309 -0.037214 0.254122 -0.080890 -0.110520 -0.086876 0.161015 0.225386 0.097203 0.123533 0.038068 0.212963 0.160939 0.232087 0.009653 -0.070346 0.219483 0.030449 -0.061765 -0.176735 0.152555 -0.177384 -0.116932 -0.030059 0.127220 0.100278 0.140220 0.355758 0.469948 -0.272162 -0.222120 0.228877 0.087026 0.251458 -0.058240 -0.218828 -0.089999 0.047800 0.104285 0.075006 -0.088216 0.117681 -0.116105 -0.141147 -0.442344 -0.028189 -0.082354 -0.000251 0.187312 -0.059805 -0.211178 -0.060548 0.041590 -0.103536 -0.170926 0.040996 0.234294 0.046019 -0.172516 0.108808 0.254831 -0.208699 0.255968 0.047829 0.023075 0.016103 0.309498 0.008522 0.007233 -0.051653 0.072150 0.008421 0.281423 0.004692 0.105543 -0.289558 0.014148 -0.082378 -0.191258 0.017024
GlobalSpecies0089 0.085051 -0.169189 -0.359730 -0.263396 0.110784 -0.794121 -0.020475 -0.237574 -0.602308 0.198010 -0.677231 0.382129 0.306546 -0.158036 0.229582 -0.255240 -0.202104 -0.238505 0.269274 -0.011516 -0.530624 -0.076379 -0.042430 0.066105 -0.089931 0.165919 0.293819 -0.057417 -0.191251 0.081341 -0.390600 -0.038953 -0.033362 0.176515 -0.101012 -0.447388 0.143999 -0.243524 0.492816 -0.157829 -0.239202 -0.036350 0.351315 0.184690 -1.058069 -0.631081 -0.231145 0.589876 0.367659 -0.100850 0.222731 0.367634 0.194442 0.345193 -0.417757 0.188667 0.059715 0.004343 -0.381109 -0.015423 0.118447 -0.474781 0.218769 -0.370228 0.123240 0.018723 -0.057643 -0.396339 -0.269218 0.023681 -1.490292 -0.172938 0.169697 -0.198522 -0.332364 -0.224464 0.143460 0.075839 0.407278 0.440576 -0.354401 -0.440413 0.652888 -0.475654 0.428369 -0.306936 0.235836 -0.053548 0.362354 -0.202848 0.367844 -0.193903 -0.279819 -0.189895 0.122424 -0.456140 -0.048617 -0.057224 -0.551253 0.535441
GlobalSpecies0090 0.052441 0.199250 -0.109383 -0.063552 0.048306 -0.082547 -0.272954 -0.382384 -0.068808 0.236886 -0.316608 0.126883 -0.402274 0.057183 -0.099134 0.185933 0.133687 -0.271736 0.378883 -0.012189 0.006883 0.044709 0.126104 -0.046950 -0.045297 0.181654 -0.204028 0.160291 -0.084029 -0.075041 0.014655 -0.244739 0.191017 0.346778 0.195628 -0.242513 0.032107 -0.389277 0.205492 -0.326894 0.048598 -0.124128 -0.049353 0.020453 -0.248648 -0.145536 -0.160341 0.269899 -0.159221 -0.237760 -0.203662 -0.129222 -0.140388 0.204558 0.019613 -0.023901 -0.057348 0.270474 -0.125164 -0.055430 -0.132827 0.210189 0.104929 -0.256454 0.136400 0.140149 -0.268176 0.164450 0.054012 0.253044 -0.445382 -0.057107 0.134053 -0.010157 -0.157942 0.364521 0.060085 0.190887 0.367722 0.440937 -0.085757 -0.132154 0.028412 0.002657 0.097428 -0.140818 0.131609 0.032922 -0.232858 0.132484 0.310023 0.017383 0.022107 0.022909 -0.113824 0.144191 -0.111430 -0.099723 -0.169373 -0.177212
GlobalSpecies0091 0.301730 0.482490 -0.469162 -0.043580 0.169951 -0.024388 -0.077606 0.240811 0.221017 0.384183 -0.331982 0.017652 -0.258388 0.763355 0.307427 0.540846 0.000668 -0.165968 -0.025904 0.323447 0.078759 0.199082 0.061824 0.368431 0.152757 0.158194 -0.028671 -0.126314 -0.103291 -0.328472 0.225985 0.450418 -0.350644 0.475738 0.274600 -0.295716 0.222239 -0.243968 0.375171 -0.018700 0.012652 -0.487626 0.096053 0.857417 -0.164378 -0.080461 0.194785 0.309159 -0.122746 0.025907 -0.007786 -0.129800 0.408714 0.428596 -0.094528 -0.493095 -0.170425 -0.255726 -0.043472 0.084710 0.083966 0.455192 0.037334 0.106286 0.273668 -0.065480 -0.021190 0.241148 0.062177 -0.180936 -0.536519 0.024138 -0.142069 0.468808 0.352296 0.105194 0.423392 0.065830 0.131172 0.394399 0.161597 0.196332 0.178273 -0.145021 0.096178 0.116389 0.176246 -0.354424 -0.132789 0.190956 0.071145 -0.631487 0.341271 -0.326928 -0.363061 -0.153592 0.288019 -0.052508 0.411652 -0.431681
GlobalSpecies0092 -0.152832 0.047683 -0.003396 -0.150981 -0.257833 0.117939 0.260450 0.324156 -0.168335 -0.077410 0.007482 -0.017373 0.160308 -0.091151 0.025857 -0.103186 0.011042 0.217648 -0.135171 -0.134456 0.121469 -0.138929 0.025787 -0.074386 0.062705 -0.022708 -0.095049 0.342108 0.119263 0.141525 -0.194505 -0.113852 -0.167439 -0.099552 -0.105348 0.266503 0.045586 0.214733 -0.268343 0.176961 0.341727 0.190671 -0.001276 0.109255 0.336328 0.136838 0.112583 -0.143086 0.158870 -0.080103 -0.288813 0.167526 -0.160210 -0.028714 -0.219777 -0.107971 0.256379 -0.118831 0.058869 -0.119783 0.148845 -0.038048 -0.139295 -0.012087 -0.466471 0.087693 0.109007 0.118333 -0.120021 -0.150411 0.235339 -0.142960 -0.054893 -0.158098 0.191756 -0.315903 -0.115348 -0.016085 -0.097498 -0.295884 0.050463 0.141220 -0.099857 0.092791 -0.084286 -0.079459 -0.057203 0.032863 -0.126557 -0.386198 -0.250101 0.129182 0.101475 -0.002737 0.161761 0.089763 -0.166354 -0.002364 0.021118 0.089455
GlobalSpecies0093 0.064808 -0.149584 0.160901 0.005006 -0.025485 0.119309 -0.113601 0.130309 -0.075431 -0.070806 0.001282 -0.032086 0.142957 -0.050782 -0.045637 -0.017301 -0.099021 0.151210 0.043738 -0.096615 -0.009536 -0.132599 -0.115289 0.066418 -0.137279 0.167017 -0.126417 0.278915 0.043523 0.025575 -0.016368 -0.137609 0.041369 -0.103001 -0.158118 0.213150 -0.166252 0.011913 -0.087002 0.132954 0.076011 0.175538 -0.053345 -0.063040 0.114883 -0.039738 0.046925 -0.145757 -0.064480 0.052591 -0.023221 -0.016007 -0.195241 -0.140150 0.005244 -0.041878 0.118180 0.134176 -0.027896 -0.113889 0.220419 0.153539 -0.089850 0.030886 -0.240079 0.103207 -0.069688 0.039466 -0.037039 -0.000524 0.236743 -0.104805 -0.050821 -0.067779 0.281491 -0.126718 -0.219022 -0.019129 -0.055425 -0.254419 0.000176 0.107972 -0.098776 0.078941 -0.037913 0.090266 -0.243130 0.026209 -0.101736 -0.172183 -0.141575 0.106050 0.096931 -0.048517 -0.018446 0.126844 -0.081284 -0.146231 -0.029371 0.204450
GlobalSpecies0094 -0.127576 -0.240902 0.275220 0.035856 -0.084277 0.084515 0.091892 0.160035 -0.135010 0.029965 0.166199 -0.126848 0.236091 -0.120993 0.119266 -0.004414 -0.146796 -0.081967 -0.105964 -0.031171 0.105361 0.010729 0.030468 0.093773 -0.001993 0.078970 0.039803 -0.065346 0.187167 -0.174715 -0.041461 0.001107 -0.080408 -0.258353 -0.106071 0.128571 0.195894 -0.085198 -0.111919 0.254783 -0.126059 0.209071 0.062736 -0.048359 0.319522 0.316868 0.129540 -0.102141 -0.078779 0.129495 -0.171628 -0.046313 0.101658 -0.217130 -0.184294 0.090612 0.437188 0.025893 0.066676 -0.002624 -0.029709 -0.144901 -0.148840 0.271918 -0.151853 0.170197 0.127898 -0.010574 -0.068867 0.140717 0.285200 -0.140769 0.008435 0.136195 0.256820 0.036997 -0.169445 0.020658 -0.122365 -0.277314 0.163386 -0.076402 -0.092922 0.163991 -0.146478 0.101224 -0.220749 0.096823 -0.093051 -0.211973 -0.093424 0.143759 -0.118287 0.130775 0.130189 0.107939 -0.157502 0.059526 -0.014597 -0.075917
GlobalSpecies0095 0.077720 0.333786 -0.139199 -0.064678 0.148958 -0.257198 -0.236634 0.084066 0.357733 0.112192 -0.349073 -0.086482 -0.174077 0.646970 -0.075452 0.380196 -0.131549 -0.242346 0.179037 -0.352365 0.265521 0.118120 0.233599 -0.169295 -0.119291 -0.179377 0.027827 -0.262343 -0.094896 -0.260959 0.049516 -0.052471 -0.024504 0.368900 0.537411 0.180554 -0.383007 -0.155490 0.021207 -0.310928 -0.263822 -0.543260 -0.086311 -0.101378 -0.216983 -0.568598 -0.056465 0.700560 -0.142031 0.004322 0.193983 0.056455 0.182224 0.422286 0.019969 -0.175086 -0.172105 0.129036 0.026590 0.181105 -0.137430 0.529401 0.046745 -0.111055 0.394591 -0.090651 0.047647 0.369963 -0.127764 -0.162562 -0.443571 -0.267603 0.018349 0.463204 -0.211548 -0.054252 0.668230 0.221931 0.112995 0.429760 -0.228822 -0.098054 0.106882 -0.028329 -0.339421 -0.401176 -0.106823 -0.027286 0.336623 -0.020900 0.355691 -0.199538 0.336318 -0.452603 -0.422279 -0.095964 0.074046 -0.061452 0.310021 0.078733
GlobalSpecies0096 0.124397 -0.020197 -0.099858 0.085244 0.173169 0.049046 -0.013177 -0.149102 -0.138748 -0.071976 0.038915 -0.000933 -0.185305 -0.028175 0.118679 0.074621 -0.014967 -0.006346 -0.105557 0.145290 0.021442 0.082968 0.103262 0.020042 -0.012902 -0.110236 0.106567 -0.064078 -0.010629 -0.067960 0.069084 -0.033502 0.144855 -0.168570 0.102936 0.167019 -0.073503 0.062898 -0.155987 -0.035455 0.020037 -0.047693 -0.087039 -0.173561 0.185357 -0.113156 -0.036974 -0.137565 0.071407 0.154986 -0.071900 -0.157135 -0.029152 -0.181196 -0.130582 0.149708 0.000116 0.162341 0.007070 0.106097 -0.084927 0.093047 -0.040266 -0.042380 -0.068116 0.063386 0.086614 -0.156417 0.104312 -0.055665 0.138785 -0.088639 0.032391 0.038611 0.062715 0.016990 -0.067534 0.124603 0.035393 0.131023 0.093133 -0.107469 0.008519 0.083264 -0.054767 0.209436 -0.023254 -0.092405 -0.124392 0.096363 0.042198 -0.083447 -0.003157 -0.007270 0.176426 0.085226 -0.091120 -0.023270 0.017958 0.177057
GlobalSpecies0097 0.152315 0.119080 0.016379 -0.041815 0.014545 0.046334 -0.132042 -0.396272 0.099952 0.222581 -0.021459 -0.124770 -0.119585 0.238238 0.135916 0.288943 0.228463 0.047448 0.352581 0.086671 0.562321 0.229104 0.111150 -0.194675 0.015307 0.216044 0.150681 0.125300 -0.468162 0.025148 0.107503 0.249570 -0.070690 0.483320 -0.088526 -0.047898 -0.409457 -0.051395 0.302769 -0.098814 0.087546 0.072332 -0.134567 0.292331 -0.283592 -0.353283 0.109895 0.009286 0.365523 -0.001359 0.475840 0.113427 -0.196011 0.180596 0.144922 0.022447 -0.218503 -0.034166 -0.189144 0.042041 -0.238652 -0.134722 -0.084278 -0.531911 0.489557 0.223835 -0.219839 0.129732 -0.156308 -0.216680 -0.054396 0.211247 -0.305858 0.025293 -0.309613 0.440480 0.037342 -0.241907 -0.103104 0.396090 -0.155934 -0.216490 0.104789 -0.086144 0.134334 0.252275 -0.199293 0.296383 0.138170 0.325322 0.262695 -0.159765 0.468960 -0.482345 -0.018503 0.290972 0.203175 -0.090273 0.437569 -0.100954
GlobalSpecies0098 -0.051490 -0.115860 0.305533 -0.087662 0.136918 0.105992 0.047667 0.014290 -0.061889 -0.086510 0.231357 -0.199396 -0.008813 -0.117001 0.054039 0.100548 0.065504 -0.052936 0.023235 -0.033939 -0.120903 -0.099125 -0.161129 -0.046218 -0.010036 -0.117643 -0.075772 0.099010 -0.001533 -0.117090 0.024879 -0.173076 0.117270 -0.076961 -0.144302 0.058010 -0.074692 0.092745 -0.221444 0.156028 0.050257 0.098951 0.103479 0.032564 0.371626 0.051718 -0.007057 -0.097440 -0.202396 -0.091596 0.020117 -0.116666 -0.161040 -0.135671 -0.041424 -0.032307 0.198815 0.067219 -0.059643 -0.290669 -0.055136 0.082245 0.091984 0.101337 0.084244 0.033605 -0.107904 0.147209 -0.205419 0.150815 0.111360 -0.025643 0.016821 0.195015 0.140331 -0.002528 -0.255786 0.047212 0.089203 -0.243201 0.006596 -0.052614 -0.123554 0.177581 -0.065771 0.006851 -0.230204 0.069807 -0.204355 -0.067982 -0.104181 0.172505 -0.089800 0.150053 -0.029767 -0.007019 -0.060413 -0.125536 -0.115360 -0.016211
GlobalSpecies0099 0.166187 -0.143204 0.090368 -0.079783 0.004585 -0.056010 -0.071581 0.037425 -0.060605 -0.284212 -0.034371 -0.046329 -0.025733 -0.079265 -0.038592 -0.007995 -0.097206 -0.014060 0.037778 -0.065276 -0.100471 -0.091352 -0.038064 0.073064 0.025268 0.111004 -0.039921 0.129865 -0.056090 -0.139511 0.002731 -0.089865 0.195148 0.066285 0.005284 0.074928 0.050070 -0.096489 -0.148045 0.077766 0.077040 -0.046119 -0.085649 -0.003938 0.159450 -0.058579 0.079867 0.103206 -0.003741 -0.128199 0.049982 -0.080372 -0.109160 -0.137429 -0.103555 -0.059095 0.011213 0.024975 -0.025248 -0.102632 0.025436 0.118548 0.049397 -0.077791 0.043871 0.055057 -0.061084 0.086194 -0.045455 0.017668 0.067550 -0.053619 -0.165299 0.085270 0.063254 -0.189944 -0.063390 0.089151 -0.019773 -0.166406 0.046751 -0.019457 0.019037 0.115919 -0.117227 0.010864 0.049623 -0.076435 0.087907 -0.048049 -0.025692 0.017401 -0.012817 0.032200 0.069295 0.024580 0.000723 -0.130537 -0.157321 0.125892
GlobalSpecies0100 0.119412 0.004723 0.265387 -0.004257 -0.113789 -0.049322 -0.101187 0.187304 0.083926 -0.054195 -0.008838 -0.058232 0.208743 -0.122666 0.072714 -0.125537 -0.221546 0.099657 -0.202185 -0.073781 -0.006007 0.121864 -0.159558 0.229557 -0.064934 0.137862 -0.098286 0.149765 0.104230 -0.130376 -0.049995 0.026609 -0.156787 -0.078444 -0.204993 0.009197 0.065839 -0.135481 0.196777 0.042294 -0.002678 0.101163 0.035658 0.039542 0.193838 0.044289 -0.003735 -0.107448 -0.112093 0.107275 -0.138570 -0.107297 0.060729 -0.172749 -0.002753 -0.070845 0.190768 0.170826 0.092201 0.127017 -0.026936 0.023717 -0.036428 0.193816 -0.106709 -0.076836 -0.029983 0.090790 0.162513 -0.059813 0.310257 0.010606 -0.014762 0.096788 0.107361 -0.026629 -0.058167 0.119242 -0.203505 -0.261307 0.073771 0.269738 -0.099236 0.101007 -0.073669 -0.095041 -0.086158 -0.151101 0.122102 -0.073536 -0.052453 -0.083272 -0.050181 0.071829 -0.178005 -0.079932 -0.117614 0.088780 0.058239 -0.014345
GlobalSpecies0101 -0.154756 -0.283945 0.131005 0.068019 0.111273 0.132776 -0.007667 0.149557 -0.127506 -0.082788 0.256912 -0.221231 0.117888 -0.130957 0.096804 -0.034394 0.017933 -0.028948 -0.160053 -0.055453 -0.006684 -0.295548 -0.159884 0.108638 -0.058279 -0.065729 -0.035055 -0.120107 0.191938 -0.000369 -0.039101 -0.160034 0.014652 -0.301108 -0.091556 0.013832 0.102084 -0.021056 -0.285059 0.308445 -0.094632 0.154211 0.105340 -0.097188 0.354064 0.166926 0.090368 0.002878 -0.066964 -0.002741 -0.186330 -0.106270 0.066816 -0.360285 -0.144944 0.094969 0.369646 -0.070865 0.007597 -0.257328 0.111844 -0.098243 0.038838 0.172369 -0.042728 -0.013309 0.103998 0.056898 -0.053323 0.301414 0.242928 -0.148116 0.085800 0.247262 0.147637 0.008237 -0.234331 -0.158061 -0.083897 -0.274653 0.098003 0.085241 -0.217558 -0.050332 -0.118327 -0.006861 -0.187870 0.240095 -0.196056 -0.318986 -0.065327 0.263711 -0.100957 0.142807 0.058484 0.023415 -0.112740 0.035384 -0.093391 0.112795
GlobalSpecies0102 0.153332 -0.258992 0.245660 -0.065315 0.083228 0.145790 -0.178148 -0.091799 -0.053769 -0.265377 0.222420 -0.089861 -0.042895 -0.182141 -0.114869 0.065357 -0.065472 -0.115353 0.130247 0.011735 -0.189597 -0.148886 0.020699 -0.025791 -0.026856 0.056037 0.005080 0.043788 0.133083 -0.111177 -0.074771 -0.161625 0.119602 0.074524 0.083945 0.094748 0.053649 -0.076923 -0.124420 -0.083669 0.037847 0.024879 -0.059206 0.043887 0.056678 -0.002424 0.098096 0.019675 -0.001131 -0.066193 0.027374 0.007734 -0.226052 -0.147781 -0.049946 -0.034363 0.047911 -0.006502 0.044923 -0.189066 -0.026446 0.012180 -0.021406 -0.052597 0.083206 -0.108554 0.088014 -0.047228 -0.121840 0.091944 0.085531 -0.099885 -0.241427 0.174487 0.097519 0.002089 -0.163972 0.037726 0.021034 -0.097073 -0.000418 0.039467 0.039771 0.157457 -0.040903 0.033601 -0.085176 0.146291 -0.051121 -0.052856 0.055658 0.036536 0.026093 0.183729 0.014620 0.082516 -0.011284 -0.133902 -0.063238 -0.046470
GlobalSpecies0103 -0.020946 -0.017203 0.123890 -0.031851 0.134395 -0.002538 -0.126467 0.077440 -0.010543 -0.270756 0.122909 -0.120008 0.143905 -0.048510 0.133364 -0.131930 -0.070677 0.066770 0.051612 -0.295516 -0.086397 -0.123343 -0.112039 0.166137 0.084060 0.011321 -0.054405 0.017622 0.074897 -0.246703 0.025450 -0.147049 0.054435 -0.063187 -0.031939 -0.040650 0.014113 -0.019627 -0.043688 0.179672 0.062887 0.082235 0.136153 0.108115 0.102837 -0.029142 0.090774 -0.169019 -0.286270 0.194458 -0.033020 -0.138881 0.000968 -0.088658 -0.077810 0.090797 0.224611 0.106882 -0.055816 -0.083732 0.025841 0.093379 0.063489 0.141233 -0.102076 0.025195 -0.010032 0.188904 0.160507 0.075621 0.190778 -0.028377 -0.119841 0.153936 -0.040437 -0.089060 -0.139767 0.114070 -0.165450 -0.062547 -0.079398 0.198311 -0.049875 0.113688 -0.238011 -0.019284 -0.038011 -0.025594 0.086997 -0.088852 -0.038953 -0.055640 -0.034404 0.148408 -0.105970 -0.049957 -0.126708 -0.028570 -0.025057 -0.055931
