GlobalSpecies0001 0.044516 0.173492 -0.029804 -0.026032 0.065984 0.004211 0.040756 0.188131 -0.327589 -0.086961 0.076543 0.227459 0.049932 0.149406 -0.120723 0.227365 0.204414 0.046288 -0.138181 0.089568 -0.001868 0.015886 0.136844 -0.116209 -0.264153 0.316692 0.164094 0.082958 0.282762 -0.012757 -0.104559 -0.051549 0.099682 -0.044975 -0.098866 0.190429 0.194554 -0.149205 0.155854 -0.154567 -0.071531 -0.067243 0.134551 -0.035768 -0.192402 -0.081594 0.000862 0.039434 -0.014047 0.302365 -0.062892 0.040722 0.025805 0.172964 0.020082 -0.032077 0.116110 -0.205516 0.207380 0.137294 0.103104 0.025146 0.054521 -0.155128 -0.069149 -0.018145 0.221088 0.011572 0.139979 0.067314 0.052794 -0.087605 -0.100951 0.151753 0.038591 -0.208211 0.055449 0.130572 -0.011435 -0.061333 -0.057493 -0.014533 0.012502 0.146414 0.199196 0.052851 0.146649 -0.086546 0.023761 0.006203 0.135306 -0.095135 -0.088236 -0.186914 -0.210303 0.283314 -0.044574 -0.167970 -0.048817 0.122960
GlobalSpecies0002 -0.040873 0.126558 0.016715 -0.015223 -0.110466 -0.063949 0.013442 -0.272825 0.070166 0.014987 -0.080076 0.065485 0.058351 0.044148 -0.057168 0.304098 -0.075469 0.167761 -0.099264 0.013229 0.034367 0.094525 -0.031809 -0.005543 0.220998 0.072289 -0.042179 -0.001099 -0.058905 0.076759 0.017111 -0.042025 0.092484 -0.028901 -0.064338 0.020076 0.049986 0.058349 -0.123284 0.086189 0.096207 -0.136958 0.331629 -0.098213 0.164018 0.068475 -0.055903 -0.109898 -0.125818 0.034481 0.129250 0.088680 -0.087837 -0.124176 -0.069097 0.024093 0.046735 0.100739 -0.117177 -0.341020 -0.188054 -0.058846 0.067195 0.361814 0.156903 0.036313 0.277471 -0.101733 0.136519 -0.031447 0.048368 0.060917 -0.058145 -0.007324 0.044003 0.117014 -0.316645 0.110653 -0.034394 -0.096617 -0.154938 0.012279 0.011503 -0.124555 0.162300 -0.184022 -0.000428 0.170923 0.016151 -0.101292 0.065080 -0.126364 -0.109163 0.024018 0.003004 -0.217672 -0.058977 0.235913 0.040000 -0.108822
GlobalSpecies0003 0.204532 0.213554 0.018752 -0.153176 0.100818 -0.063221 0.026382 -0.027393 -0.362087 0.050413 -0.130856 0.051343 0.004721 0.042228 -0.020748 -0.032144 -0.046066 0.020495 -0.185296 -0.206260 0.081989 0.009863 -0.073597 -0.027683 -0.027765 0.042216 -0.004295 0.114177 -0.118522 0.063723 0.138866 0.099498 0.087827 -0.209863 -0.094771 0.092280 0.186031 0.054948 -0.021734 -0.231252 0.004834 -0.085530 0.280750 -0.009230 -0.034446 0.032912 -0.024666 0.135845 -0.103531 0.099099 -0.013466 0.046904 -0.019916 -0.085194 -0.119297 -0.183958 0.058524 -0.193469 0.135077 -0.066467 0.082474 0.042624 -0.002375 0.128139 -0.045904 0.081817 0.391933 -0.147939 0.046279 0.013395 0.018049 -0.136833 0.040442 0.123209 0.003567 0.082862 -0.060797 0.102374 0.075926 -0.102802 -0.087491 -0.011138 -0.044190 -0.075720 0.033325 -0.116870 -0.103688 0.024918 -0.096245 -0.063238 -0.035529 -0.295020 0.065055 0.136787 -0.085150 0.055840 -0.123913 0.094576 0.068698 -0.008134
GlobalSpecies0004 -0.140520 -0.168147 0.272128 0.072876 0.081450 0.034964 -0.109254 -0.005189 0.087875 -0.073594 -0.034051 0.061414 -0.033178 0.027131 -0.151973 0.267469 -0.078700 0.105149 0.036393 0.192034 -0.114471 0.068437 -0.063581 -0.065219 0.083356 -0.003144 -0.079007 0.030041 0.005798 0.043328 0.059416 -0.046968 -0.157136 0.189854 0.133072 -0.160272 0.068008 0.038030 0.178779 0.157757 -0.054367 -0.032752 0.140375 0.160254 0.004695 0.063920 -0.220280 0.050664 -0.018517 0.043354 0.028515 -0.029422 0.124604 0.171993 0.027109 0.060573 -0.024085 0.080189 -0.227259 -0.219988 0.132622 0.069995 0.023039 -0.050246 -0.065814 -0.140536 0.047593 -0.034128 -0.169980 -0.004062 -0.013309 0.225409 0.216828 0.096909 0.103800 0.227467 -0.065386 0.054688 0.138029 -0.108978 -0.074564 -0.059520 0.059718 0.144050 0.169940 -0.009950 0.129377 0.164367 0.071580 0.000897 0.220681 0.163994 -0.053074 0.034907 0.098354 0.029943 0.057554 -0.238860 -0.249003 0.086842
GlobalSpecies0005 0.422748 -0.179983 -0.183772 -0.020441 -0.254903 -0.078159 -0.035642 0.181636 0.170484 0.125075 -0.042957 -0.043263 -0.171512 0.060016 0.006667 -0.018407 0.302911 -0.117536 0.067883 -0.065385 -0.238995 0.281487 0.016047 -0.002394 -0.121937 -0.348678 -0.040811 0.077616 0.130960 -0.280131 0.005450 0.040597 0.229196 -0.310207 -0.145254 -0.028262 -0.069688 0.057074 -0.077735 0.094545 -0.311978 0.284771 -0.060776 -0.360402 -0.119830 -0.306033 0.321199 -0.203050 -0.138222 -0.299787 0.188302 0.197541 0.150965 0.084296 -0.118287 0.049279 0.205870 0.060487 -0.070232 0.102041 -0.104248 0.199076 0.006045 0.118199 -0.228010 -0.096094 0.013313 -0.086254 -0.265055 0.206976 -0.525775 -0.184922 -0.167063 -0.140831 0.206755 0.009205 0.195222 0.053637 -0.468113 0.218388 -0.051831 0.008741 0.041246 -0.122619 -0.071531 0.199856 -0.227843 0.190333 -0.005470 -0.328871 0.003765 -0.132964 -0.045013 0.089446 -0.048114 -0.092692 0.060716 0.012435 0.064837 0.050885
GlobalSpecies0006 0.409257 -0.249798 -0.226573 0.068336 -0.336477 -0.050451 -0.016457 0.185927 0.101561 0.008562 -0.107920 -0.065381 -0.103775 -0.030916 -0.007419 0.033436 0.197328 0.041999 0.110289 0.044400 -0.242790 0.248702 0.092043 0.153327 -0.139102 -0.346647 -0.066138 0.146303 0.047529 -0.333379 0.055127 -0.017808 0.071329 -0.106806 -0.189757 0.071358 -0.052255 0.077220 0.003242 0.030547 -0.263791 0.244482 -0.074681 -0.296465 -0.189162 -0.259383 0.304209 -0.187058 -0.123121 -0.127280 0.310022 0.120291 0.080168 0.152673 -0.064015 0.061555 0.242265 0.144871 0.000800 0.135578 -0.131875 0.209762 -0.021425 0.085384 -0.326575 -0.112408 0.038290 -0.017498 -0.328898 0.208097 -0.507182 -0.256924 -0.185431 -0.180645 0.120352 -0.074564 0.349805 0.090804 -0.548146 0.022638 -0.024270 0.039093 0.049334 -0.084744 -0.258101 0.273353 -0.256636 0.144624 -0.068892 -0.290200 -0.135920 -0.179424 0.050902 0.077041 0.015560 0.093829 -0.011066 -0.031570 -0.091464 -0.118925
GlobalSpecies0007 -0.376948 -0.020165 -0.036164 -0.154646 0.067435 0.095590 -0.136310 0.079086 0.063673 0.009727 -0.040822 -0.048751 0.152161 0.051016 -0.004399 0.264392 -0.176201 0.062654 0.159375 0.289089 -0.098403 -0.262371 -0.111628 0.078387 -0.108708 0.218569 0.125948 0.161382 0.014569 0.018226 0.100117 -0.037770 -0.079035 -0.029355 0.169254 -0.110363 0.082862 0.054967 0.207012 0.157313 -0.100428 0.067029 0.040319 0.147736 -0.199448 -0.032208 0.043617 0.059386 0.029565 0.139375 0.043874 0.013650 0.124190 0.162720 0.010948 -0.039666 0.061661 -0.192110 0.001441 0.031012 0.059897 0.054743 -0.052731 0.061894 -0.045085 -0.222922 -0.270850 -0.037389 -0.167261 0.099255 -0.124631 0.123988 -0.037403 -0.129510 -0.040211 0.092277 0.049869 0.088110 -0.008101 0.063531 -0.016229 0.157165 0.124563 0.105809 0.098576 0.132589 0.133502 0.095442 0.185760 0.072906 0.276673 -0.064502 -0.035682 -0.092976 0.044442 -0.125551 -0.147869 -0.515304 -0.284283 0.199200
GlobalSpecies0008 -0.391526 0.168658 -0.032682 -0.014346 -0.159977 0.212186 -0.059414 0.085927 -0.224623 -0.062751 0.021373 -0.014602 -0.011733 -0.062519 -0.058712 0.147331 -0.231056 0.067387 0.077981 0.029269 -0.013994 -0.241354 -0.179295 0.103615 -0.094531 0.128208 0.086608 0.277440 -0.049751 -0.135315 0.204433 0.136065 -0.074225 -0.143671 0.072302 -0.266906 0.108670 0.175522 -0.149462 0.178463 0.007229 0.228688 -0.017684 0.401803 0.079675 0.010243 0.158128 0.217778 0.003837 0.367122 0.075206 -0.102855 0.118412 0.114975 0.112303 -0.012569 -0.166307 -0.019017 -0.025573 -0.006662 0.125747 0.225110 0.076551 0.286761 -0.119118 -0.316371 -0.168404 -0.093004 -0.142415 0.099371 -0.073223 0.087877 0.297973 -0.137458 0.006585 0.033390 0.101045 0.132802 -0.115876 0.418651 0.039665 0.190118 -0.292362 -0.060703 -0.279442 0.194545 -0.010933 0.166632 0.076499 -0.219367 0.069492 -0.184895 0.066602 0.194942 0.089502 -0.280165 0.019726 -0.466738 -0.212204 0.042823
GlobalSpecies0009 0.189474 0.135241 -0.051747 -0.268519 0.218349 -0.280340 0.167980 0.028063 0.026658 -0.243974 -0.197085 0.004408 -0.124967 0.021225 -0.018186 -0.506331 -0.076234 -0.205125 0.051588 0.036332 0.137519 0.018434 0.030086 0.163675 -0.018470 -0.017945 -0.108352 -0.013912 -0.059477 -0.119328 -0.168639 -0.146262 -0.008082 -0.097223 -0.154121 0.115328 0.073186 0.191103 0.131925 0.134996 0.341343 0.026667 -0.373544 -0.338840 -0.091710 0.064447 -0.224651 0.080474 -0.240228 -0.141710 0.070606 0.229082 0.030616 -0.009094 0.233567 -0.101955 -0.151315 -0.111765 0.081338 -0.054177 0.107828 -0.063215 -0.329510 -0.009700 0.062963 -0.010676 -0.026427 -0.165063 0.230013 -0.009983 0.164060 -0.068183 -0.242895 -0.207243 -0.010064 -0.151133 0.205238 -0.203931 0.111729 -0.040740 0.011582 -0.141111 -0.286770 0.169774 0.206519 0.272442 -0.195258 0.030817 0.029735 0.079940 0.089556 0.340778 0.300241 0.340764 0.233781 -0.010542 0.176841 0.031064 0.186443 -0.250329
GlobalSpecies0010 -0.195360 -0.138100 0.276385 0.276312 -0.118190 0.026519 0.023264 -0.129602 0.231066 -0.071784 -0.193933 0.006212 0.065434 -0.126179 0.071056 -0.074229 0.182393 -0.007920 -0.117007 -0.013238 0.084032 0.070357 0.036853 -0.162804 -0.075923 0.013624 0.187426 0.019541 -0.151691 0.233544 -0.108037 0.049007 -0.078902 0.260724 0.110306 0.064794 0.098546 -0.026302 -0.020237 -0.176405 0.005144 0.117357 -0.399629 0.008564 0.064325 -0.084730 0.051270 -0.057175 0.003340 -0.088555 -0.084154 -0.317985 -0.019931 0.008775 -0.011859 0.371955 -0.115105 0.031602 -0.058655 0.069916 -0.122249 -0.009671 0.156124 -0.199466 -0.207763 -0.052445 -0.174281 0.122387 -0.128001 -0.069363 0.207888 0.166796 0.044363 -0.001757 -0.016748 -0.083405 -0.071584 0.064130 0.076576 -0.197357 -0.059624 0.263033 0.172416 0.043141 -0.004871 0.410625 0.118939 -0.092241 -0.134031 -0.020208 -0.058764 0.325582 -0.133077 -0.021776 0.080995 0.145173 0.197327 0.090303 0.205255 0.081843
GlobalSpecies0011 0.255072 0.209538 0.102163 -0.112186 0.107232 -0.163211 -0.158551 -0.198137 -0.007969 0.054643 -0.223431 0.076402 0.127232 -0.033346 -0.160646 -0.195842 -0.114872 0.023840 -0.170380 -0.372603 -0.045704 -0.222164 0.090488 0.121112 -0.126076 0.188080 -0.012430 -0.115102 -0.388468 0.034886 0.143314 -0.022150 -0.074188 -0.247227 0.177928 -0.128892 0.142087 -0.019195 -0.236063 -0.304786 0.156995 0.008651 0.235024 -0.054327 -0.013843 -0.093211 0.238331 0.126208 -0.054167 0.021873 0.041739 -0.103047 -0.059674 -0.198065 -0.305071 0.006684 0.040888 -0.196408 -0.005930 0.034475 -0.067137 0.112760 -0.020857 0.304902 -0.189770 -0.212897 0.207532 -0.221402 0.182041 -0.190926 -0.183980 -0.266897 0.111831 0.067443 -0.216102 -0.067195 -0.139487 -0.015851 -0.015337 -0.096193 -0.263581 0.042668 0.095482 -0.065015 -0.210326 -0.066663 0.033445 0.120443 -0.092233 -0.279217 0.022442 -0.312554 0.215566 0.214534 -0.093837 -0.154542 -0.468178 0.151057 -0.109636 -0.031404
GlobalSpecies0012 0.272991 0.250611 -0.123791 -0.160810 0.264283 -0.206537 0.096468 -0.128715 0.090882 -0.093575 -0.069415 0.009921 0.120104 -0.079847 -0.057684 -0.338483 -0.005039 -0.017742 0.025223 -0.214014 0.076350 -0.208978 -0.059334 0.089125 -0.064645 0.027620 -0.025765 0.038863 -0.254700 -0.002135 -0.050848 0.080635 0.007425 -0.135640 -0.074203 -0.024862 0.002353 0.137778 -0.031425 -0.159872 0.218428 0.003293 -0.032904 -0.076641 0.025044 0.103139 0.003786 0.286132 0.062383 0.083841 0.024866 0.050953 -0.061402 -0.103232 0.018907 -0.197191 0.098729 -0.078262 0.106026 -0.107337 0.034201 -0.057890 -0.265605 0.239230 0.045373 -0.046547 0.049406 -0.178070 0.191995 0.059298 -0.013927 -0.285750 0.014638 -0.066863 -0.132572 -0.285881 0.141775 -0.194701 -0.048123 -0.158295 -0.210587 -0.136650 -0.084233 0.042806 -0.043336 -0.022267 0.098847 0.030633 -0.012810 0.055585 0.020901 -0.078298 0.074024 0.143552 0.029467 -0.057548 0.033216 0.225263 -0.080971 -0.082383
GlobalSpecies0013 -0.070827 0.145706 0.075992 -0.139002 0.075238 -0.021717 -0.196953 0.015279 -0.064091 0.088694 -0.207362 -0.195083 0.222789 -0.151631 0.012106 0.249334 -0.212866 0.018086 0.051325 -0.009711 0.026119 -0.236054 -0.092927 0.057221 -0.086631 0.054605 0.169027 0.028493 -0.186215 0.107774 0.199692 0.059982 -0.023128 -0.043801 0.372235 -0.149501 0.059123 0.033598 0.110641 -0.110504 -0.031334 -0.081965 0.224511 0.044237 -0.091063 0.000571 -0.147594 0.248170 0.076557 0.133107 0.082710 0.075963 -0.108988 -0.015514 0.000690 -0.222457 0.142159 -0.035466 0.045885 -0.099949 0.067720 -0.051147 -0.099473 0.067931 0.002501 -0.131597 -0.110137 -0.132752 -0.082699 0.051489 0.044955 -0.082135 -0.018991 -0.043611 -0.287535 0.184463 0.071256 0.023155 0.112616 -0.134904 -0.039319 0.068620 -0.012139 0.073427 -0.005593 0.104062 0.024165 -0.028698 -0.017768 -0.020791 0.233205 -0.270153 -0.163646 0.080482 -0.134862 -0.120368 -0.270268 -0.095091 -0.224557 0.050180
GlobalSpecies0014 0.145529 -0.256533 -0.213438 0.010263 0.073851 0.233971 0.011416 -0.145982 -0.065833 -0.000627 0.150972 -0.003051 0.151109 0.030718 0.054373 -0.128645 0.048773 0.050966 0.111715 -0.126192 -0.049508 0.065747 0.059381 -0.140020 0.119744 0.196840 -0.049530 0.087764 0.206311 0.126000 -0.331666 -0.138617 0.167694 0.144396 -0.094049 -0.037281 -0.442605 0.065253 -0.250912 0.059666 0.007044 -0.146177 0.371015 0.107354 -0.038112 -0.271447 0.177888 -0.175214 0.100921 -0.013189 0.005265 -0.036777 -0.131507 -0.113323 0.054172 0.024135 0.098737 0.014288 0.158448 -0.031955 0.238685 0.291152 -0.320508 0.193949 0.042320 0.190704 -0.020651 0.045365 0.092247 -0.090920 -0.147295 0.300948 0.029681 -0.080804 0.047258 0.355848 -0.301351 0.022676 0.243270 0.248251 -0.148451 -0.307085 0.015372 -0.002053 0.029233 -0.166100 -0.059685 -0.193853 -0.128447 -0.015344 -0.617763 0.226100 0.017386 0.203948 -0.026764 -0.198975 -0.423957 0.127724 0.061881 -0.084454
GlobalSpecies0015 0.042211 -0.230865 -0.205385 -0.074610 0.136951 0.188559 -0.067705 -0.144612 -0.154126 0.143146 0.189355 0.032785 0.117447 0.117376 0.169011 -0.147694 0.048572 0.055373 0.055056 -0.128210 0.123047 0.095376 0.097055 -0.081436 0.123699 0.202715 -0.075196 -0.017271 0.221591 0.198119 -0.298612 -0.122035 0.279311 0.190306 -0.015015 -0.024783 -0.391292 0.080440 -0.250178 -0.009365 -0.020794 -0.174565 0.276769 0.045674 0.099741 -0.247794 0.303208 -0.093866 0.020870 -0.075974 0.012160 0.086116 -0.123713 -0.023593 0.071357 0.057518 -0.014632 0.014413 0.124568 -0.070366 0.107899 0.280788 -0.305056 0.163129 0.000604 0.289997 -0.009132 0.088769 0.143522 -0.202045 -0.134164 0.173849 -0.088193 -0.108255 0.093548 0.278391 -0.225063 0.015023 0.169485 0.257989 -0.089464 -0.164745 0.015661 -0.016411 -0.033741 -0.198398 -0.010013 -0.235565 -0.059940 -0.131263 -0.555812 0.173791 0.052971 0.055051 -0.034113 -0.357633 -0.321485 0.119597 0.043002 -0.113954
GlobalSpecies0016 0.116467 -0.232716 0.078378 0.123603 -0.161770 0.115049 0.049867 0.043531 0.149878 0.127264 0.022373 0.010641 -0.036983 -0.068370 0.054041 0.197794 0.018976 0.068053 0.013643 0.185936 -0.103004 0.172247 0.152372 -0.064240 0.133619 -0.311229 -0.007516 -0.073974 0.166671 -0.140554 0.210958 -0.156585 -0.146108 0.084721 0.022763 0.029610 0.149562 -0.186830 0.076796 0.039588 -0.064389 0.046599 -0.054374 -0.041621 0.138947 0.098103 -0.038390 -0.060815 -0.155402 -0.239974 0.140238 -0.051471 0.235706 0.013975 -0.025060 0.126367 0.083142 0.266126 -0.230987 -0.143819 -0.026189 -0.145743 0.159700 0.014341 -0.097321 -0.003352 0.105533 -0.010644 -0.120944 -0.011296 -0.022743 -0.012359 0.062810 0.083842 0.213485 0.163843 -0.022383 0.015619 -0.129603 -0.026212 0.148988 -0.177208 0.220721 0.033664 0.220679 -0.074303 -0.175652 0.125251 -0.016734 -0.003217 -0.023760 0.085753 -0.053786 0.064654 0.077116 0.040426 0.218195 0.204289 -0.123105 -0.020700
GlobalSpecies0017 -0.191078 -0.165845 -0.007284 0.196863 -0.121598 0.162739 -0.012641 -0.041643 0.062703 0.010870 0.168183 -0.094039 -0.022106 -0.030910 0.021795 0.192637 -0.083858 0.117154 0.249915 0.256366 -0.077916 0.008380 -0.116267 0.061156 0.168786 -0.243243 0.093742 0.040253 0.115536 -0.008114 0.059166 0.103511 0.091683 -0.028996 0.079994 -0.018356 -0.075737 0.049433 0.078498 0.180972 0.003504 -0.016224 0.033022 0.157825 0.083792 -0.082949 -0.054237 -0.127742 0.043823 -0.069192 0.054134 -0.022316 -0.084936 0.009793 -0.009549 -0.009909 0.075903 0.126884 -0.133564 -0.210211 -0.202995 0.103246 0.008058 0.042232 0.216264 0.106550 0.015234 0.125359 -0.113271 0.105102 -0.087415 0.233593 0.091296 0.006301 -0.115270 0.132857 0.020093 -0.064475 -0.065050 0.133429 0.175794 0.017797 -0.011609 -0.010832 -0.107141 -0.023269 -0.071785 -0.068340 -0.127105 0.172504 0.032123 0.034757 0.038866 -0.076878 0.011363 -0.151295 0.143905 0.010639 -0.033294 -0.000937
GlobalSpecies0018 -0.210820 0.174301 0.053735 0.180469 0.086913 -0.028650 -0.060147 -0.020235 -0.037594 0.034236 -0.123944 -0.097622 0.243439 -0.148059 0.041577 0.059915 -0.110903 -0.013938 -0.071901 -0.064123 0.006852 -0.227112 -0.190309 -0.035840 0.291615 -0.057482 0.144700 0.065653 -0.091831 -0.089537 0.328578 0.289011 0.000067 -0.295827 0.148883 -0.037287 0.116108 0.232537 -0.185025 -0.073671 -0.008054 -0.005874 0.139415 0.144027 0.002644 0.133619 0.159486 0.226717 -0.022231 0.154865 -0.015939 -0.070189 0.078644 -0.056788 -0.068349 -0.154715 0.031468 0.047576 0.089414 0.059934 0.013172 -0.052442 0.035296 0.479366 0.057380 -0.071559 -0.058312 -0.082125 -0.090083 0.226542 0.048557 -0.188035 0.213903 0.074909 -0.229997 0.125370 0.069338 0.155241 -0.006181 0.090918 -0.044071 0.190738 -0.136827 0.147013 -0.081744 0.115386 -0.044066 0.077660 -0.104232 -0.069420 0.145644 -0.291511 0.031919 0.136291 0.020154 -0.229134 -0.181128 -0.122559 -0.204714 0.075312
GlobalSpecies0019 -0.260325 -0.110050 0.099915 -0.043193 -0.034492 0.311859 -0.136074 0.012222 -0.067891 0.024376 -0.060504 -0.016885 0.089555 0.032856 0.125111 -0.131343 -0.065685 0.023514 -0.080928 -0.080398 -0.059661 0.146119 -0.043047 -0.082482 0.116693 -0.102685 -0.067843 0.080025 -0.143097 0.060932 0.197450 -0.044766 -0.174457 0.180001 0.099278 -0.077327 0.126333 0.031335 -0.083542 0.205127 -0.191430 -0.002484 -0.432410 0.377322 0.191906 0.155002 -0.039155 0.159091 -0.027835 -0.009464 -0.124674 -0.119032 0.247619 0.029414 0.024175 0.193295 0.007676 0.069524 -0.194121 0.126776 0.105830 0.066630 0.106533 -0.025458 0.003347 -0.064645 -0.113746 0.056540 -0.341187 0.031994 -0.094898 0.187535 0.390718 -0.053051 -0.043784 0.092481 0.100557 -0.036372 -0.145178 -0.167897 0.133002 0.246414 -0.064331 0.168097 -0.062044 0.102201 0.217685 0.031825 0.042667 0.088845 0.088653 0.100402 -0.227637 0.003164 0.195807 0.015999 -0.112072 -0.326217 -0.148199 0.002581
GlobalSpecies0020 0.007198 0.133339 0.073466 0.011520 -0.032429 0.191020 -0.004894 -0.008932 -0.223953 -0.001927 0.123590 0.100777 0.166868 -0.045443 0.010125 -0.067715 -0.143677 0.015089 -0.196033 -0.125226 0.054255 0.006026 0.089059 -0.106851 0.217710 -0.040245 0.108388 -0.039925 -0.121415 0.070900 0.192902 0.170368 -0.059465 0.095620 0.023118 0.163171 0.115627 0.001256 0.029220 -0.071949 -0.029128 0.071987 -0.080106 0.180427 -0.053299 0.158051 0.033599 0.146273 -0.020488 -0.031456 -0.080500 -0.120496 0.072618 -0.074911 -0.013091 0.019515 0.184445 0.003321 0.010919 -0.024496 0.024993 -0.142982 0.154162 -0.066741 0.079013 0.030970 0.095711 0.020780 -0.054759 0.041540 0.112159 0.043910 0.270425 0.094579 -0.084416 0.003180 -0.012187 0.087541 0.070420 -0.014716 0.043075 0.218687 -0.011558 0.214760 0.147436 0.009196 0.094813 0.039768 -0.089589 0.163417 0.084450 -0.254555 -0.170131 -0.128314 -0.010635 0.199280 -0.009901 -0.080745 -0.043379 0.271276
GlobalSpecies0021 0.176416 -0.046722 -0.021769 0.126329 -0.247129 0.025189 0.070443 0.125434 0.098814 -0.063131 -0.090106 -0.086182 -0.239151 -0.082808 0.027862 0.223043 0.128314 0.181596 0.202394 0.087969 -0.175186 0.289220 0.139964 0.117802 -0.136459 -0.264223 -0.084787 -0.101578 0.267834 -0.256997 0.162273 -0.122543 -0.184355 -0.282616 -0.096691 -0.068195 -0.172237 -0.092626 -0.102758 0.059325 -0.115504 -0.021227 0.091373 -0.188804 0.131609 0.028300 0.126667 -0.043353 -0.224573 -0.030201 0.245680 -0.107403 0.038650 0.115858 -0.035474 0.192116 -0.040799 0.291221 -0.223566 -0.150030 -0.190220 -0.038405 0.090767 0.175689 -0.123598 -0.086662 0.136974 0.089672 -0.087991 0.136475 -0.165885 -0.194665 -0.141983 0.164981 0.121420 0.184587 0.201928 -0.072168 -0.186792 -0.055648 0.124922 -0.227515 -0.000698 -0.122925 0.061997 -0.081048 -0.248469 0.079812 0.048930 -0.131015 0.041662 -0.029137 0.010368 0.059261 0.049004 -0.000593 -0.004956 0.136585 0.010539 0.013835
GlobalSpecies0022 -0.134060 -0.104781 0.187050 0.112882 0.072648 -0.009921 0.022385 -0.092851 0.425928 -0.033954 -0.121761 -0.151627 -0.033599 0.110705 -0.008992 0.129657 0.209399 -0.035055 -0.045227 -0.016402 -0.105550 -0.116335 0.066371 0.113499 0.001193 -0.062833 0.104555 -0.198910 -0.119391 0.184217 -0.083518 -0.044837 -0.015297 0.308125 0.083409 0.002504 0.054095 -0.007321 0.213988 -0.038380 -0.015160 -0.082208 -0.149912 0.038169 -0.051390 -0.090333 -0.070630 0.030625 0.225792 0.107574 -0.110852 -0.124867 0.005983 0.131174 -0.027263 0.075086 -0.159074 -0.205269 -0.071234 0.111037 0.007928 0.031559 0.079806 -0.314374 -0.075256 0.016703 -0.200034 0.061246 -0.123793 0.002158 0.063570 0.067667 -0.021167 0.054327 0.024681 -0.039488 -0.041407 -0.009862 0.125267 -0.231096 -0.169619 0.245306 0.154544 0.121887 0.016754 0.236375 0.131735 -0.091567 0.024459 -0.045146 0.041062 0.114509 0.093584 -0.161702 -0.052739 0.042341 0.088576 -0.033571 0.056715 0.149293
GlobalSpecies0023 0.170684 0.086702 -0.118605 0.095239 -0.061254 0.126435 -0.049889 -0.141421 -0.043533 0.182518 0.049097 0.103470 0.184561 -0.020661 0.045175 -0.091412 -0.103100 0.023223 -0.067643 -0.338221 0.007154 -0.100982 -0.041907 -0.170047 0.129393 0.027543 -0.051231 0.027642 -0.269641 0.078237 0.134180 0.326969 0.223939 -0.152891 0.051474 -0.189364 -0.026447 0.003879 -0.406726 -0.093832 -0.061868 0.027969 0.164958 0.101120 0.245272 0.017033 0.242049 0.090385 0.019157 -0.113185 0.011342 -0.024391 -0.134186 -0.150222 -0.179406 -0.050700 0.267189 0.015699 -0.008073 -0.179750 -0.041785 0.211183 -0.051189 0.403502 0.170811 0.052266 0.230890 -0.064596 0.041343 -0.029571 -0.098683 -0.102613 0.076093 -0.100277 -0.153837 0.051458 -0.116403 -0.008969 -0.037547 0.050403 -0.065888 -0.046432 0.092495 -0.087500 -0.182943 -0.117744 -0.084824 -0.062436 -0.158313 -0.090247 -0.129740 -0.284437 -0.026220 0.116225 -0.076937 -0.461069 -0.300358 0.213218 -0.063948 -0.065099
GlobalSpecies0024 -0.174658 0.279668 0.016926 0.073409 0.037538 0.011495 -0.164000 0.045252 -0.114961 0.153929 -0.134771 -0.098660 0.142193 -0.149288 -0.034285 0.067636 -0.226012 0.124013 -0.105828 -0.193163 -0.069535 -0.268536 -0.023182 0.067014 0.079606 0.080229 -0.015316 0.061830 -0.085040 -0.055692 0.250369 0.164612 0.029213 -0.174542 0.173363 -0.142278 -0.015056 0.266824 -0.051237 -0.065951 0.010265 0.064912 0.195440 0.211311 0.019873 0.125699 0.082121 0.265113 0.024027 0.277317 -0.010827 -0.009055 -0.008491 -0.093961 -0.068454 -0.120441 0.071947 0.146488 0.097196 0.002317 -0.030387 0.020376 -0.016500 0.302583 -0.052668 -0.049450 -0.106910 -0.163395 -0.052206 0.092977 0.004808 -0.114594 0.154134 -0.077384 -0.292212 0.032111 0.112083 0.078084 -0.122774 0.213750 0.042454 0.124518 -0.120006 0.141920 -0.141650 0.052434 0.069095 0.028245 -0.074467 -0.115607 0.135769 -0.283404 -0.161049 0.059754 -0.072001 -0.069023 -0.297169 -0.179481 -0.304828 0.137521
GlobalSpecies0025 0.139591 0.082419 -0.085241 -0.036718 0.210562 -0.124832 0.118033 -0.077624 0.078164 -0.015141 0.052681 0.151752 0.117289 0.029102 0.052869 -0.255563 -0.040576 -0.037677 -0.050170 -0.135547 0.127028 -0.072536 -0.193944 -0.157209 0.178953 0.096843 -0.051484 -0.031264 -0.220600 0.069629 -0.123434 0.171174 0.031166 0.092618 0.030379 -0.043925 -0.015730 0.139908 -0.145711 -0.061369 0.173538 -0.018579 0.058607 -0.029371 0.084217 0.138233 -0.065791 0.088580 0.064872 -0.145989 -0.039729 0.037967 -0.101118 -0.097140 -0.029600 -0.186515 0.119479 -0.168195 0.149676 -0.061494 0.046089 -0.067283 -0.320762 0.131283 0.152292 0.079941 0.079633 -0.042563 0.209634 -0.013661 -0.062135 -0.090595 -0.078089 -0.092937 -0.157380 -0.066257 -0.049047 -0.070863 0.173114 -0.125000 -0.115759 -0.190644 0.045006 -0.032260 0.025227 -0.162206 -0.084646 -0.134492 -0.035577 0.214556 0.005626 0.032904 0.109591 0.050827 0.079021 -0.283736 -0.133203 0.185338 0.045532 -0.088854
GlobalSpecies0026 -0.058651 -0.111460 0.157989 -0.084912 0.059982 0.164423 -0.055446 0.044779 0.388834 -0.039009 -0.125567 -0.040298 0.041941 0.079979 0.060435 0.003416 0.032453 -0.069150 -0.100420 0.095612 -0.087001 0.122211 0.160393 0.028109 -0.076082 0.075317 -0.092003 -0.139778 -0.035105 0.203138 -0.028456 -0.182989 -0.063748 0.247544 0.186467 -0.008666 0.093221 -0.086518 -0.004191 0.000114 -0.177070 -0.175579 -0.284958 0.036947 -0.013274 -0.068165 -0.041818 0.190021 0.187261 -0.069039 -0.059650 -0.049923 0.266741 0.084514 0.071691 0.052940 0.004830 -0.204621 -0.017107 0.209947 0.116290 -0.165960 0.165586 -0.342989 -0.032533 -0.063647 -0.111635 0.010944 -0.033927 -0.129452 0.038787 0.020792 0.081909 0.121539 0.046427 -0.072739 -0.083840 0.116237 0.007026 -0.273911 -0.143875 0.138833 0.325593 0.190096 0.154034 -0.116280 0.088512 0.059031 0.223692 -0.004563 0.210670 0.216595 -0.066434 -0.081617 -0.072163 0.076727 -0.067178 -0.144702 -0.138344 0.142555
GlobalSpecies0027 -0.265112 0.004423 0.036572 0.005542 -0.047559 -0.071589 -0.013142 0.079041 0.098559 0.033039 0.051485 -0.135036 0.054277 -0.001596 -0.042748 0.323283 -0.033070 -0.126247 0.331906 0.234328 -0.096515 -0.040557 -0.132674 0.084224 0.046798 -0.121470 0.142718 -0.096758 0.064679 0.037318 0.009330 0.042713 -0.008739 0.015160 0.078326 -0.105750 0.006979 0.042946 0.245831 0.110257 -0.148996 0.060458 -0.084601 0.194643 -0.036393 -0.124940 -0.058778 -0.043891 0.098215 0.120780 -0.015046 0.082037 0.064750 0.059369 -0.049683 -0.034020 0.115167 0.141141 -0.030013 0.019859 0.056192 0.116591 -0.021250 -0.015082 0.048288 -0.161942 -0.262454 0.164946 -0.198773 0.158668 -0.081078 0.044989 -0.070388 -0.124896 -0.212823 0.029735 0.063950 0.025736 -0.052340 -0.018550 0.104463 0.137951 0.037978 -0.085501 -0.046612 0.153742 0.013511 -0.053086 -0.041426 0.095319 0.060663 -0.150654 0.021638 -0.190068 0.011220 0.013159 -0.105097 -0.251306 -0.046263 0.114385
GlobalSpecies0028 0.016035 0.154906 0.100256 0.078029 0.076398 -0.011358 0.181882 -0.035507 0.045850 -0.085249 0.163196 -0.054274 0.042143 -0.034159 -0.028984 -0.047678 -0.022683 -0.051571 0.364388 0.068712 -0.109809 -0.068451 -0.125097 0.022114 0.135858 -0.290431 0.115871 0.097395 0.025573 -0.072019 0.118000 0.078541 -0.068745 0.060431 -0.026527 -0.078185 -0.037014 0.188308 0.171171 0.090646 0.129608 0.157086 -0.231424 -0.087880 -0.009781 -0.053107 -0.070785 -0.047499 0.103315 -0.128904 -0.013669 -0.006627 -0.029412 -0.023629 -0.010898 -0.081018 0.059537 0.096543 -0.028488 0.106814 -0.094849 -0.093078 -0.071621 0.034918 0.010901 -0.081950 -0.111532 0.119216 -0.138811 0.191020 -0.077067 0.002191 -0.061545 -0.207433 -0.324324 -0.062355 0.116764 -0.149074 -0.039671 0.071242 0.149076 0.050023 -0.087850 -0.080242 -0.155910 0.156448 -0.031381 -0.087702 -0.038863 0.254778 -0.005158 0.108566 0.039138 -0.113742 0.040366 -0.022310 0.266126 -0.147163 0.036422 -0.015054
GlobalSpecies0029 0.082959 0.050063 0.017890 -0.202979 -0.092794 -0.177416 -0.088846 0.172895 0.220590 -0.041776 0.006932 -0.098455 -0.061054 0.001965 0.082136 0.273931 0.071590 -0.254367 0.215303 0.108781 -0.119227 0.154642 0.006673 0.109683 -0.235293 -0.132341 0.036174 -0.096767 0.232310 0.032439 0.039047 -0.066038 -0.029299 -0.014355 0.183863 -0.114596 -0.049436 0.123511 0.166003 0.067821 -0.309723 0.035110 0.133892 -0.132941 -0.134439 -0.105839 0.186838 -0.104991 0.100547 0.011715 -0.074568 0.301682 0.061857 0.207494 -0.146359 -0.005935 0.108469 0.028324 -0.057990 0.089391 -0.042281 -0.040591 -0.005355 -0.087490 0.026581 -0.206861 -0.078809 0.120711 -0.265634 0.090434 -0.345665 -0.199638 -0.230080 0.061746 0.138168 -0.065032 0.103332 -0.072986 -0.260270 -0.015390 -0.114703 -0.064224 0.234258 -0.039451 0.016912 -0.104492 -0.169396 -0.134953 0.109780 -0.049416 0.071041 -0.007476 -0.059237 -0.016165 0.028512 0.048449 -0.064677 -0.018801 -0.056627 0.106311
GlobalSpecies0030 -0.442313 -0.153671 -0.016227 0.063039 0.039400 -0.093988 -0.065665 -0.207842 0.173822 0.151839 -0.121501 -0.146011 -0.222325 -0.001502 -0.079736 0.001439 0.198592 -0.058366 -0.205536 0.041685 -0.076423 -0.160089 -0.132304 0.153710 -0.179578 -0.196781 0.172585 -0.094083 -0.085343 -0.099205 -0.081813 -0.095835 0.078489 0.098180 -0.066073 0.178456 0.012839 -0.062869 0.067100 -0.232601 0.056054 0.100773 -0.035599 -0.232392 -0.141489 -0.039128 0.328376 -0.201236 0.097974 0.238423 -0.085389 -0.366128 -0.145278 0.005893 -0.143340 0.223229 -0.376214 -0.006554 0.028756 0.111013 -0.405559 0.198414 0.102632 -0.097885 -0.173921 -0.034422 -0.256726 0.131980 -0.075333 0.050818 0.123163 -0.166575 -0.093933 -0.165217 -0.079791 -0.092025 -0.049339 -0.143101 0.121119 0.008413 -0.157567 0.239663 -0.233873 0.010826 -0.307694 0.333747 0.281612 0.196126 -0.256593 -0.022015 -0.231627 0.005689 0.195917 0.065766 -0.183396 0.142794 0.033407 0.149251 0.248115 -0.026710
GlobalSpecies0031 0.009046 0.011669 0.039682 0.038165 0.059388 0.104362 0.059983 -0.012662 0.054661 0.017341 0.116790 0.063361 -0.038046 -0.026186 -0.001206 0.179155 0.111708 0.144273 -0.069059 0.078754 0.089718 0.028300 0.013828 0.015897 0.099156 0.030821 0.058155 -0.045951 -0.052848 0.149483 0.004867 0.054711 0.044017 0.052929 0.161490 -0.017676 -0.019247 -0.095923 -0.019053 0.048744 -0.048331 -0.192690 0.188724 0.081142 0.019323 -0.035459 -0.246832 -0.006921 0.080893 -0.009364 -0.120108 0.079868 0.023567 -0.014002 0.101897 -0.107950 0.126437 0.036143 -0.114747 -0.173578 0.051117 -0.208697 0.117895 -0.103057 0.113110 0.143029 0.236398 -0.040722 0.080615 -0.162484 0.154360 0.088968 0.089991 0.047497 -0.014067 0.092160 -0.069903 0.086728 0.086475 -0.190066 -0.028037 0.089862 0.127805 -0.026258 0.232197 -0.247229 0.038773 0.042699 0.027882 0.191568 0.051424 -0.041711 -0.134038 -0.226659 -0.089713 0.054327 -0.041046 0.063157 0.040122 0.048766
GlobalSpecies0032 0.137757 0.022774 0.048317 -0.046378 0.146850 -0.248838 0.150559 0.004696 0.117467 -0.233552 -0.147158 0.033320 0.117989 -0.034040 0.034244 -0.352859 -0.081469 -0.300978 -0.135631 -0.005892 0.014011 0.269770 0.014348 -0.082251 -0.216962 -0.003179 -0.204150 0.103073 -0.116560 0.066005 -0.109837 0.023031 -0.217613 0.085653 0.157767 -0.041968 -0.003466 -0.033280 0.036843 0.112428 0.083503 0.118205 -0.411816 -0.085354 0.010143 0.148379 -0.449888 0.037655 0.051120 -0.163321 -0.021712 -0.115305 0.024845 0.012141 0.162528 0.134268 -0.022635 0.016621 0.165555 0.008063 0.088466 -0.157909 -0.139823 -0.226259 -0.019463 -0.005838 -0.023636 -0.001040 0.052655 -0.295544 0.013497 0.096570 0.109535 -0.262704 0.008561 -0.203812 -0.059064 -0.115720 0.185061 -0.137857 0.045886 0.047733 -0.165010 0.147129 0.232317 0.010227 -0.120021 -0.035775 0.189798 0.015387 0.105841 0.364816 -0.005078 0.073184 -0.015796 -0.010043 0.067354 -0.014405 0.257823 -0.194152
GlobalSpecies0033 0.143008 -0.052902 -0.117567 0.008439 0.052433 0.000360 0.067272 0.010963 -0.041568 -0.047416 0.141128 0.124735 0.136009 0.120648 0.219788 -0.150985 0.043953 -0.194272 0.220117 0.028616 0.091594 0.033379 0.039089 -0.078481 0.087616 -0.090560 -0.160705 -0.061616 0.161890 -0.030020 -0.053063 0.105280 0.006115 0.046497 -0.010952 -0.062959 -0.239100 0.151907 -0.030562 0.116952 0.049966 0.230487 -0.119028 -0.160170 0.052412 -0.028639 0.074112 -0.019643 -0.131311 -0.382708 -0.037517 0.186391 -0.091113 0.001546 0.019001 0.036164 0.242455 -0.061808 0.065519 -0.073929 -0.113190 -0.048433 -0.314295 0.159025 -0.002561 0.141832 0.004529 0.136770 0.005368 0.082464 -0.185135 -0.019230 -0.073832 -0.100952 0.019773 -0.055616 0.000369 -0.168399 -0.013707 0.041361 0.316648 -0.228104 0.153721 0.035005 0.115637 -0.180697 -0.253705 -0.182770 0.008290 0.147073 -0.208759 0.160045 0.030209 -0.067623 0.046039 -0.157285 -0.010032 0.064134 0.072906 -0.098064
GlobalSpecies0034 -0.156583 -0.220380 0.042229 0.263338 0.086019 0.114821 0.073893 0.001340 -0.092389 0.183473 0.074441 -0.020836 -0.119894 0.046328 0.115137 -0.100107 0.289600 -0.007435 0.039795 0.016966 0.127952 -0.073665 -0.150981 -0.152585 0.101497 0.025564 0.058754 -0.007092 0.031782 0.039774 -0.157781 0.222812 0.127719 -0.118397 -0.123604 0.190216 -0.049111 0.031309 -0.031895 -0.118859 -0.021111 -0.074167 0.103534 -0.022653 -0.013424 -0.084467 0.053274 -0.170086 -0.006830 0.117714 -0.120918 -0.144967 -0.165501 -0.020064 -0.190591 -0.120066 -0.053148 -0.154687 0.128197 -0.021417 -0.078699 0.161869 -0.081299 -0.150440 0.237158 0.261163 0.068965 0.085157 0.032984 0.004127 0.052762 0.167559 -0.008809 -0.042982 0.040395 0.031776 -0.142077 -0.031844 0.031190 0.143534 0.116401 0.085508 0.110521 -0.056845 -0.126693 0.066951 -0.084936 -0.203664 -0.211055 0.112006 -0.311995 -0.045210 0.027297 -0.095586 0.046376 0.058221 0.115892 0.087267 0.217327 -0.006233
GlobalSpecies0035 0.385942 0.185203 0.186246 -0.106340 0.080180 -0.164834 -0.141905 -0.138417 -0.004172 0.070385 -0.241620 0.003488 -0.024080 0.060933 -0.172724 -0.171727 -0.135440 0.017968 -0.074814 -0.345503 -0.072442 -0.138189 0.069258 0.141421 -0.019946 0.028920 0.141631 0.012448 -0.217333 0.141608 0.182869 -0.096483 0.001169 -0.337164 0.222525 -0.127983 0.203193 0.039326 -0.265208 -0.310459 0.136279 -0.098159 0.347677 0.019189 -0.114442 -0.086082 0.227438 0.033547 -0.032618 0.085211 -0.006599 -0.170185 -0.088769 -0.198366 -0.356769 -0.059119 0.034870 -0.176461 0.058357 0.054899 -0.067614 0.073410 0.080599 0.300758 -0.193970 -0.203474 0.205326 -0.124888 0.150459 -0.130430 -0.158671 -0.321088 0.026259 0.025074 -0.185836 -0.092119 -0.035540 0.037796 -0.088527 -0.201329 -0.331748 0.125575 0.011006 -0.100298 -0.209172 -0.011238 0.060762 0.098835 -0.115858 -0.359070 0.080719 -0.370727 0.172156 0.251867 -0.069808 -0.123187 -0.274022 0.148195 -0.133865 -0.008136
GlobalSpecies0036 -0.089460 -0.195908 -0.014463 0.097075 -0.013916 0.038923 -0.030687 -0.007735 0.214461 0.123316 0.223747 -0.105353 -0.015941 0.115325 0.051430 0.138126 0.069987 -0.168874 0.233056 0.153525 -0.012069 0.087736 -0.002492 -0.006850 0.033668 -0.131405 0.100478 -0.086828 0.121440 0.080683 -0.059050 0.097964 0.202310 0.141126 0.142801 -0.074427 -0.132594 0.054778 0.079560 0.082605 -0.131984 -0.019312 0.061249 -0.155525 0.023445 -0.112974 0.031619 -0.178737 0.145484 -0.128933 -0.064292 0.048397 -0.044127 0.061433 -0.135274 -0.054941 0.157559 -0.104020 -0.035182 0.017947 -0.102357 0.078544 -0.137809 -0.095369 0.075354 0.084180 -0.072778 0.163519 -0.159499 0.025507 0.006936 0.089608 -0.215896 -0.076861 -0.022771 -0.018743 -0.092496 -0.187561 -0.078980 0.030186 0.081797 -0.004026 0.234047 0.048773 -0.041644 -0.084285 -0.062671 -0.240141 -0.082083 0.116363 -0.133406 -0.006847 -0.033484 -0.137070 -0.103463 -0.065730 0.018104 0.059297 0.076079 0.059143
GlobalSpecies0037 -0.025054 -0.417263 -0.118692 0.072717 0.051020 0.105288 -0.108588 0.013874 0.097298 0.052635 -0.001182 0.117306 0.122142 -0.126996 0.224956 -0.200086 0.035613 -0.200564 -0.093562 -0.010991 -0.005658 0.179482 0.220361 -0.305427 0.197148 0.132155 -0.073925 -0.109357 -0.117804 0.081928 -0.178967 -0.111533 0.121286 0.207161 0.158990 -0.064066 -0.153022 -0.079984 -0.265235 0.041517 -0.013844 -0.020335 -0.255680 0.344972 0.245724 -0.054291 0.028421 -0.086145 -0.006144 -0.225986 -0.110655 0.007649 0.028224 -0.096996 0.096819 0.211101 0.233254 0.027543 0.042227 0.082659 0.073337 0.180488 -0.086986 -0.156063 0.132318 0.177894 0.038965 0.042567 0.120678 -0.161111 0.087029 0.278571 0.164134 0.014488 0.132656 0.178909 -0.059732 -0.037919 0.139321 -0.025922 0.095389 0.010534 0.268980 0.087050 0.042604 -0.082172 0.068326 -0.101932 -0.058455 0.014329 -0.252365 0.133168 -0.200745 -0.030026 -0.040545 0.069262 -0.207466 0.064265 -0.022318 -0.058769
GlobalSpecies0038 0.083513 -0.144545 -0.003960 -0.056182 -0.148825 0.022167 -0.156454 0.102821 0.064431 0.093664 0.139608 -0.015773 0.025772 0.168735 0.127993 0.117598 0.041439 -0.173604 0.256533 0.109691 -0.057982 0.044858 0.097762 -0.005734 -0.069507 -0.022422 -0.009931 -0.183253 0.164990 0.004546 0.023230 0.037856 0.191699 0.092935 0.174394 -0.111320 -0.161829 0.059502 0.050989 0.126736 -0.211765 0.043350 0.140537 -0.108067 -0.063410 -0.112857 0.074255 -0.089414 0.075605 -0.243166 -0.029171 0.300615 0.051707 0.135457 -0.117724 -0.021814 0.269556 -0.099314 -0.049209 0.050068 -0.047305 0.048644 -0.201544 -0.032975 0.074984 0.022770 -0.009588 0.141992 -0.143153 0.088389 -0.149221 -0.042521 -0.242722 0.009221 0.065153 0.000043 -0.021974 -0.070961 -0.104510 0.073215 0.149706 -0.129401 0.271702 0.033147 0.032275 -0.178625 -0.192381 -0.244585 -0.031588 0.042139 -0.096305 0.009065 -0.074296 -0.067668 -0.078015 -0.112762 -0.154914 0.056662 -0.010668 0.061896
GlobalSpecies0039 -0.127616 -0.149897 -0.051022 -0.316425 0.076645 -0.293389 -0.184985 0.170894 0.305930 0.055673 -0.174293 0.214618 -0.130044 0.108261 -0.147151 0.191243 -0.074810 0.028748 -0.047718 0.188602 -0.113529 -0.191071 0.129742 0.162358 -0.268837 0.437382 0.162390 -0.259336 0.043129 -0.080191 -0.008152 -0.433553 0.033268 0.015793 0.192257 0.050367 -0.016811 -0.146607 0.046036 0.010347 -0.077403 -0.130090 0.209733 -0.168726 -0.259272 -0.132694 0.087830 0.029401 0.164146 0.024665 0.050452 0.011486 0.247631 0.059770 -0.102229 -0.001064 0.016761 -0.441195 0.051358 0.269229 0.173309 0.044522 0.024563 -0.119920 -0.107983 -0.155644 -0.293936 -0.030656 0.133164 -0.027944 -0.186455 -0.193944 -0.358489 0.227225 0.140297 -0.140873 -0.049655 0.118586 -0.114184 0.087869 -0.167244 -0.104091 0.167816 0.158228 -0.154411 0.036068 0.076212 -0.027233 0.140154 -0.213971 0.132280 0.070995 0.106873 -0.048369 -0.136116 -0.052893 -0.216128 -0.115580 -0.324780 0.107496
GlobalSpecies0040 0.037270 0.033237 0.008641 0.171944 -0.064203 -0.072741 0.060091 0.006005 0.121243 0.193569 -0.000603 -0.153427 0.004084 -0.059931 -0.072982 0.091482 -0.145202 0.005923 0.012592 -0.009496 -0.143884 0.125174 -0.119712 0.118478 -0.150021 -0.327557 0.089469 -0.063608 -0.169473 0.070190 0.054251 0.075677 0.147051 -0.007444 -0.073297 -0.044346 0.044168 -0.151750 -0.106396 -0.219562 -0.064134 0.052072 -0.036829 -0.249597 -0.000304 0.021963 0.061488 -0.144683 0.053199 -0.003314 -0.076621 -0.063703 -0.088308 0.019946 -0.223919 -0.020514 0.115667 0.121405 -0.013178 0.032954 -0.162368 0.037541 0.100832 0.101558 0.013722 -0.044035 -0.045604 0.114843 -0.091252 0.022615 -0.029735 -0.152411 -0.135041 -0.191126 -0.169696 -0.063797 0.081339 -0.147490 -0.211147 0.014172 -0.117077 0.040443 0.091311 -0.077360 -0.171416 0.145097 0.019406 -0.148177 -0.128817 -0.009478 0.005860 -0.281131 0.112032 -0.121705 0.087940 -0.076108 0.023781 0.177737 0.033692 0.011895
GlobalSpecies0041 -0.009648 0.352459 0.017396 -0.135200 -0.045742 0.076833 0.207648 -0.080370 0.027848 -0.106440 0.033461 0.062517 0.049154 -0.203669 -0.156460 -0.223664 -0.096592 0.045069 0.128714 -0.054466 -0.029102 -0.366053 -0.211785 0.008772 -0.144028 -0.021293 -0.143334 0.218067 -0.153571 -0.164401 0.155965 0.061666 -0.133464 0.014169 -0.053034 -0.122704 0.036632 0.186046 0.121912 0.280987 0.174561 0.270489 -0.321804 -0.028164 -0.072761 0.077814 -0.164874 0.056083 -0.087142 0.083980 0.103952 0.032448 0.116786 0.086475 0.184117 -0.004589 -0.208680 -0.046174 0.082816 -0.068931 0.101993 -0.030186 -0.316562 0.203046 0.005087 -0.123857 -0.030322 0.037664 0.041216 0.084428 0.024034 -0.037653 0.124776 0.009548 -0.165493 0.107528 0.183437 -0.024593 0.016042 0.313168 0.198313 -0.014142 -0.131234 -0.060205 -0.142976 0.029140 -0.041952 0.046602 0.205495 0.220392 -0.030582 0.103031 0.024437 0.023326 0.034334 -0.098642 0.073322 -0.451207 -0.215548 -0.110364
GlobalSpecies0042 0.079703 -0.098817 -0.035544 0.185948 -0.115330 0.144121 -0.039925 -0.020921 0.161183 0.194777 0.124566 0.017900 0.106092 -0.072979 -0.052024 -0.041458 0.019021 0.020820 0.131795 -0.060893 0.016621 0.040157 -0.145713 -0.060974 -0.072141 -0.134761 0.092733 -0.077472 -0.078504 0.106109 0.029326 0.259478 0.321794 0.086575 0.081479 0.006668 -0.101273 0.014797 0.030745 -0.107043 -0.001185 0.034805 0.099892 -0.180992 0.051707 -0.128928 0.056920 -0.023611 0.023532 -0.187542 -0.098751 -0.003807 -0.058085 0.071077 -0.174800 -0.040964 0.138948 -0.052229 0.076864 -0.066861 -0.224709 0.045500 -0.132412 0.103111 0.077603 0.012967 0.017623 0.028436 -0.035188 0.059551 -0.109773 -0.083658 -0.165713 -0.151148 -0.129238 -0.081487 -0.036362 -0.064776 -0.098939 0.094460 0.109392 -0.034729 0.192676 0.067261 -0.174019 -0.006557 -0.075631 -0.261493 -0.228333 0.121450 -0.077119 -0.106262 -0.039150 -0.032412 -0.075593 -0.200745 0.078922 0.250175 0.032197 0.086585
GlobalSpecies0043 0.250427 0.155308 0.067912 0.004003 -0.011924 0.013902 -0.093608 -0.132847 -0.043311 0.056878 -0.204809 0.087176 0.091792 -0.099037 -0.173510 -0.163191 -0.080098 -0.165687 -0.172952 -0.328245 0.017646 -0.191639 0.122659 0.087920 -0.066439 0.089636 0.007539 -0.144480 -0.394518 0.071034 0.106597 0.004536 -0.007260 -0.141069 0.189961 -0.139819 0.341321 -0.060253 -0.327635 -0.284818 0.144214 -0.021197 0.176877 0.066136 -0.182397 -0.148064 0.170306 0.050102 -0.244592 0.063696 0.124467 -0.017796 -0.089846 -0.264259 -0.394167 0.092915 -0.039774 -0.107796 0.074337 0.072379 -0.159874 -0.009262 -0.011659 0.241431 -0.303774 -0.375960 0.287661 -0.195281 0.208808 -0.148076 -0.138200 -0.399761 0.169747 -0.116502 -0.204365 0.023800 -0.131088 0.025825 -0.103592 -0.207239 -0.336798 0.081319 0.094205 -0.150178 -0.126185 0.043588 -0.070075 0.133121 -0.105031 -0.278316 -0.003341 -0.544306 0.209311 0.154737 -0.060842 -0.020263 -0.379444 0.177213 -0.142036 -0.003898
GlobalSpecies0044 0.016336 0.200739 0.012414 0.058069 0.177547 -0.186434 0.096122 -0.143855 0.112198 0.057042 -0.099290 -0.038809 0.008449 -0.009441 -0.074225 -0.136418 0.057783 0.044553 -0.052417 -0.138684 0.105672 -0.245172 -0.151322 0.121242 -0.000680 -0.065389 0.109294 -0.090249 -0.227647 0.106290 -0.088777 0.091731 -0.044037 0.035672 0.006988 0.065129 0.094126 0.053402 0.136224 -0.200388 0.294786 0.051831 -0.046375 -0.269612 -0.043394 0.102125 0.029024 0.046299 -0.021685 -0.073152 -0.094391 -0.134132 -0.166642 -0.043205 -0.063206 -0.184885 -0.090154 -0.162728 0.074541 -0.053892 -0.200271 -0.114414 -0.087043 0.044568 -0.016139 -0.065987 0.033030 -0.163625 0.168144 0.066439 0.122137 -0.200163 -0.102101 -0.195821 -0.329244 -0.175940 -0.005183 -0.244971 0.176372 -0.129481 -0.073347 -0.050424 -0.063050 0.077136 -0.015265 0.098032 0.019193 -0.005831 -0.140154 0.132576 -0.041561 -0.109636 0.233481 -0.008618 -0.009931 -0.022058 0.140080 0.220186 0.092179 -0.038983
GlobalSpecies0045 0.005683 -0.185700 -0.006801 0.010773 0.041314 -0.018059 -0.162931 -0.101214 0.108064 0.047977 -0.052807 -0.021780 -0.132701 0.168498 -0.024599 0.293756 0.056683 0.204236 0.109953 0.186496 0.076938 -0.003660 0.079803 0.001539 0.175104 0.154189 -0.007651 -0.084946 0.151330 -0.023410 -0.081839 -0.180874 0.119910 0.053907 0.160412 0.018521 -0.065695 -0.075150 -0.000874 0.195831 0.057398 -0.116788 0.283207 0.009239 0.065838 0.002620 -0.060089 -0.094906 0.094899 -0.153303 -0.031247 0.221379 -0.024515 0.116565 -0.020001 0.013171 0.087273 -0.091396 -0.193737 -0.166710 -0.110217 -0.012669 -0.041850 -0.007353 0.150127 0.120859 0.001033 -0.011377 0.092293 -0.073179 0.147490 0.108754 -0.197784 0.153720 0.205279 0.212864 -0.330715 0.053867 0.124268 0.042383 -0.051751 -0.136794 -0.023772 0.001963 0.063357 -0.257211 0.051547 -0.122104 0.083662 0.060574 0.175968 0.141640 -0.129282 -0.085698 -0.010560 -0.073299 -0.096087 -0.044232 -0.195602 -0.049840
GlobalSpecies0046 -0.554899 -0.051375 -0.010886 0.154267 -0.079339 0.031997 0.108270 0.004984 0.081000 -0.030294 0.028608 -0.194963 0.147831 -0.099403 0.048923 0.110093 -0.141270 0.007996 -0.079147 0.068228 -0.142108 -0.076600 -0.346805 -0.032696 0.102454 -0.012184 0.081538 0.109421 0.027847 -0.018351 0.130975 0.128364 0.080791 -0.098720 -0.026538 -0.133311 0.060149 0.114506 0.027158 0.078066 -0.108850 0.165075 -0.038806 0.148785 -0.106286 -0.002819 0.048962 0.083407 0.160131 0.425347 -0.056248 -0.298959 -0.078027 -0.059426 0.032960 -0.123384 -0.182469 0.140448 0.080317 0.007110 -0.025154 0.160926 0.023250 0.212864 -0.075937 -0.016869 -0.330989 0.038597 -0.224969 0.054774 0.029033 0.035305 0.135059 -0.067306 -0.262104 -0.070368 0.133622 -0.003121 0.056896 0.132542 -0.040138 0.170808 -0.192810 0.022112 -0.091070 0.359527 0.117182 0.187294 -0.179684 0.047978 -0.089720 0.016109 0.121541 0.104940 0.033715 -0.015458 0.070271 -0.198463 -0.225477 0.117384
GlobalSpecies0047 -0.195569 -0.310343 -0.036455 0.298358 0.066901 0.159080 -0.069864 -0.063558 0.315538 0.128455 0.118772 0.019335 -0.042020 -0.057042 0.105839 -0.091461 0.185208 -0.092541 -0.048854 -0.001251 0.035300 -0.005481 -0.006317 -0.168507 0.197217 0.055343 0.003733 -0.063093 -0.032651 0.232699 -0.252968 0.110891 0.023238 0.209348 0.052205 0.042185 -0.152195 0.020875 -0.082343 -0.016994 0.011397 -0.034420 -0.128008 0.084978 0.121829 -0.133131 0.053126 -0.101977 0.128187 -0.119931 -0.253079 -0.224338 -0.149317 -0.055280 -0.058468 0.081701 0.013846 0.112363 0.065176 0.040222 -0.045568 0.034402 -0.114071 -0.128548 0.136934 0.200234 -0.066545 0.116470 -0.035553 -0.053985 0.262170 0.286931 0.085215 -0.056051 0.045952 0.012567 -0.133928 -0.031443 0.144987 0.046146 0.022056 0.086765 0.245541 0.092973 0.003272 -0.004726 0.086509 -0.118466 -0.141271 0.127553 -0.236889 0.099337 -0.123849 -0.179847 -0.010035 0.074488 0.013416 0.101366 0.122507 -0.068494
GlobalSpecies0048 -0.171075 0.080784 0.148086 0.013370 -0.072789 0.095301 -0.116885 0.195140 -0.148207 -0.096718 0.123776 0.012204 0.005928 0.014074 -0.051574 0.099943 -0.063082 -0.011585 0.019890 0.020657 -0.056276 -0.121229 -0.018255 -0.063811 0.060845 0.123754 0.085518 0.074947 -0.071887 0.159138 0.029126 0.080000 -0.076759 0.123066 -0.032556 -0.018967 0.141089 0.029950 0.131157 0.069785 -0.168172 0.019231 -0.093982 0.139785 -0.040143 -0.021684 -0.071904 0.101493 0.012525 0.243367 -0.147989 0.016856 0.057213 0.190843 0.086801 -0.025334 -0.019530 -0.120116 -0.109893 0.054771 0.137569 -0.001428 0.007084 -0.140985 -0.002488 -0.070680 0.000036 0.065669 -0.153271 0.102503 0.079528 0.100904 0.130091 0.108005 0.005658 0.101933 0.059340 0.047944 0.001062 -0.071782 0.001713 0.135572 0.061244 0.058968 0.170732 0.068274 0.067817 -0.184031 0.110455 0.061939 0.085161 -0.009070 -0.182085 -0.211792 -0.003407 0.155115 0.012358 -0.337085 -0.163032 0.189283
GlobalSpecies0049 0.197878 0.236247 -0.097582 -0.212105 0.258554 -0.309226 0.120410 0.245751 0.057297 -0.221404 -0.187895 -0.008959 -0.037060 -0.086531 0.003630 -0.468390 0.108077 -0.249003 0.052388 -0.160196 0.194222 -0.038063 -0.060851 0.217204 -0.038794 -0.006479 -0.032580 -0.054896 -0.007094 -0.099345 -0.104258 -0.164988 -0.132656 -0.141878 -0.095718 0.006641 0.066794 0.129857 0.020130 0.091477 0.186740 -0.012711 -0.252966 -0.331989 -0.089518 0.076058 -0.210864 0.215511 -0.084719 -0.138307 0.032523 0.193582 -0.002074 0.040450 0.220904 -0.067100 -0.188626 -0.123823 0.075039 0.062858 0.129677 -0.207775 -0.369128 0.010646 0.065060 -0.124559 -0.111954 -0.253018 0.242315 -0.009686 0.029067 -0.145851 -0.177717 -0.290302 0.054473 -0.156572 0.237997 -0.174732 0.162511 0.087730 -0.118681 -0.102342 -0.333833 -0.038196 0.117959 0.075424 -0.251939 0.013009 0.088144 0.035819 -0.047235 0.349962 0.329889 0.377137 0.089267 -0.035266 0.218820 0.197606 0.212502 -0.324028
GlobalSpecies0050 0.036574 -0.199731 -0.258947 0.033948 0.126281 0.146262 0.020055 -0.059480 -0.015652 0.111860 0.142049 0.086842 0.083374 0.078889 0.044956 -0.148872 0.013071 0.054850 -0.039027 -0.092854 -0.034742 0.028791 0.115954 -0.162335 0.118648 0.250569 -0.044136 0.042563 0.270318 0.085152 -0.313216 -0.089569 0.329062 0.095051 -0.144934 0.022311 -0.358042 0.015970 -0.172339 -0.096225 -0.097008 -0.127686 0.200163 -0.009619 0.088595 -0.143637 0.289934 -0.062756 0.014842 -0.059596 0.102545 -0.081261 -0.008870 -0.095169 0.068139 0.124963 0.016575 -0.005112 0.021112 -0.037220 0.215505 0.340565 -0.316141 0.257336 0.026344 0.275676 -0.101202 -0.030641 0.171587 -0.193390 -0.231802 0.195078 -0.074993 -0.022123 0.240080 0.274148 -0.257170 0.023544 0.096239 0.355199 -0.187011 -0.197197 -0.015122 -0.082767 0.107200 -0.064123 0.006047 -0.194620 -0.076556 -0.228726 -0.506649 0.218358 -0.055224 0.126737 -0.108669 -0.425092 -0.355231 0.278211 -0.032160 -0.106108
GlobalSpecies0051 -0.287855 -0.218739 -0.107458 0.054654 -0.018171 0.236011 -0.139526 -0.062936 -0.009946 0.076379 0.129604 0.040373 0.112187 -0.010585 0.093081 -0.006463 -0.090650 -0.056833 0.015290 0.056106 -0.012776 -0.198137 0.031746 -0.192060 0.283950 0.052592 0.024944 -0.041281 -0.105165 0.131709 0.033981 0.175560 0.002555 0.128062 0.212291 -0.089169 -0.180071 0.008468 -0.150722 0.111212 -0.032048 -0.034614 -0.042499 0.375204 0.199742 -0.045897 0.073302 0.140107 0.121575 -0.116230 -0.142920 -0.041127 0.068685 0.025291 0.038073 0.069433 0.170912 -0.000529 -0.008090 -0.072941 0.066188 0.128351 -0.199689 -0.015414 0.215526 0.050364 -0.108637 0.121699 -0.079690 -0.007497 0.075779 0.280986 0.308919 -0.035988 -0.091085 0.176198 0.072477 0.151456 0.025685 0.062746 0.146290 0.204512 0.027992 0.130328 -0.012247 0.006274 0.048789 -0.052976 0.019660 0.095233 -0.098369 0.076188 -0.240483 0.019332 -0.015898 -0.253944 -0.205599 -0.122639 -0.163705 0.085380
GlobalSpecies0052 0.369526 0.249135 0.062976 -0.026362 0.129893 -0.141968 -0.098008 -0.002807 -0.104953 0.118837 -0.293801 0.095324 -0.035983 0.006480 -0.175806 -0.117343 -0.170730 0.047828 -0.193822 -0.357363 -0.112001 -0.264732 0.029073 0.024416 -0.141442 0.122556 0.137685 -0.024202 -0.304694 0.072476 0.182069 0.034435 -0.002042 -0.362160 0.053649 0.004226 0.142297 -0.031666 -0.258681 -0.424647 0.064323 0.005256 0.271384 0.178007 -0.077150 -0.023294 0.298825 0.007614 -0.069095 0.112784 -0.080154 -0.048374 -0.124534 -0.301418 -0.303955 -0.060223 0.041284 -0.174010 0.122536 0.033530 -0.067589 0.145385 0.084411 0.188150 -0.164872 -0.090784 0.289680 -0.204053 0.175813 -0.065118 -0.289879 -0.313181 0.103963 -0.054041 -0.293035 -0.114886 -0.086991 -0.031141 -0.110501 -0.199152 -0.224982 0.023789 -0.042983 -0.102262 -0.211974 0.063793 0.038012 0.102296 -0.229471 -0.398560 0.037336 -0.494793 0.153155 0.149136 -0.047161 -0.011796 -0.302885 0.159698 -0.157712 -0.011786
GlobalSpecies0053 -0.264845 -0.050602 -0.320925 -0.030355 -0.095935 0.295417 -0.033083 0.056776 -0.070731 -0.021824 0.303400 0.051991 0.212742 0.172620 0.088818 -0.005574 -0.139779 -0.000106 0.111514 0.041040 -0.063742 -0.277858 -0.086877 -0.144482 0.198570 0.100063 -0.055297 0.017125 0.138356 -0.102424 0.049547 0.318762 0.062350 0.003028 0.123537 -0.138730 -0.182512 0.045732 -0.230761 0.143925 0.031012 -0.032847 0.129047 0.176282 0.158783 0.015533 0.159942 -0.055885 0.174592 -0.031471 -0.090367 -0.073166 -0.015715 -0.090916 0.091932 0.066408 0.040910 -0.072772 -0.101604 -0.169462 0.177381 0.241150 -0.175152 0.211429 0.287790 -0.099318 -0.274745 -0.004467 0.048042 -0.040798 0.104759 0.256439 0.088154 0.034314 0.040926 0.250233 0.080215 0.222933 0.029238 0.281687 0.135638 0.207127 -0.190599 -0.092686 -0.157280 0.084244 -0.015571 0.001580 -0.010117 0.031249 -0.072401 -0.043619 -0.083724 0.040375 0.066128 -0.332687 -0.224501 -0.217076 -0.080354 0.103882
GlobalSpecies0054 0.189547 0.167576 -0.026818 -0.168315 -0.061691 -0.029708 0.063042 0.054754 0.225870 0.003353 -0.118925 -0.094651 0.068192 0.116330 0.001750 0.205295 -0.049984 0.005292 0.022933 -0.084623 -0.178552 0.065743 -0.104776 0.022100 -0.115399 -0.086916 0.123320 -0.042987 -0.077843 0.096156 0.046162 0.100581 0.171341 -0.080524 0.187513 -0.030098 0.051468 0.014345 -0.000127 -0.120379 -0.195015 0.148053 0.063990 -0.070202 -0.061350 -0.055623 0.119837 -0.074178 -0.012642 -0.074421 -0.214757 0.245138 -0.003296 0.017392 -0.098979 -0.004520 0.206939 -0.035736 0.005314 -0.167271 -0.074306 -0.045971 0.072266 0.181242 -0.079362 -0.042209 0.077126 0.057090 -0.080648 0.083924 -0.183157 -0.241517 -0.161391 0.008469 -0.005441 -0.105516 0.166317 -0.080249 -0.199944 -0.080535 -0.031271 -0.089563 0.154529 0.056035 -0.052671 -0.027446 -0.069846 -0.186479 0.031879 -0.063371 0.122315 -0.284882 -0.010547 -0.007306 0.002983 -0.106020 -0.125835 0.067058 -0.053621 0.132301
GlobalSpecies0055 -0.147852 -0.232152 0.086661 0.211547 -0.054944 0.098088 0.003719 0.172578 0.138434 0.115114 -0.063665 -0.055767 0.076479 -0.150985 0.162024 -0.057516 0.033409 -0.059583 0.087312 -0.012926 -0.202787 0.106262 0.064468 0.116231 -0.123163 -0.400744 0.054089 -0.041662 -0.053851 0.005146 -0.016207 0.060351 -0.031770 0.075229 0.113630 0.143623 0.126656 -0.160559 0.027694 -0.143112 -0.090355 0.021296 -0.238637 -0.057271 0.032402 -0.061961 0.069937 -0.019489 0.073031 -0.265284 -0.026331 -0.081868 0.080289 0.113774 -0.136126 0.282548 0.163451 0.160430 -0.137492 0.095320 -0.126705 -0.106150 0.086215 -0.131802 -0.082572 -0.072451 -0.045536 0.084925 -0.303303 -0.004336 -0.092712 -0.054421 0.079651 -0.244902 -0.028922 0.104368 -0.079288 -0.120309 -0.163276 0.009903 0.027379 0.165624 0.201934 -0.007579 -0.004469 0.197067 -0.004273 -0.018381 -0.048422 0.143908 0.026553 0.090407 -0.079194 -0.180337 -0.054859 0.084714 0.174929 0.130563 0.144883 0.015685
GlobalSpecies0056 0.070846 0.075453 -0.061528 -0.229705 0.312235 -0.387179 0.123449 0.057131 0.015729 -0.217247 -0.224231 0.016210 -0.033050 -0.064862 -0.034730 -0.490790 0.041001 -0.268769 0.080136 -0.035680 0.149628 0.000787 0.051820 0.213138 -0.094045 0.039650 -0.053281 -0.031852 -0.036776 -0.111284 -0.059943 -0.126835 -0.108377 -0.088574 -0.083882 0.065899 -0.050024 0.143510 0.190873 0.086621 0.239393 -0.000917 -0.308173 -0.367186 -0.046645 0.065955 -0.273580 0.142927 -0.226376 -0.161338 -0.075605 0.118704 0.066443 0.037970 0.199767 -0.158886 -0.043029 -0.148088 0.122504 0.068670 0.054869 -0.168982 -0.284011 0.090174 0.059773 -0.110728 -0.158675 -0.216278 0.169597 0.071041 0.199289 -0.022865 -0.174830 -0.275641 0.040472 -0.257698 0.154652 -0.135176 0.148838 0.125849 0.002809 -0.061174 -0.330091 0.131816 0.154974 0.076005 -0.129875 -0.065026 0.164911 0.067190 0.000881 0.349622 0.382781 0.324528 0.045483 -0.110968 0.288367 0.126123 0.133866 -0.193184
GlobalSpecies0057 0.169661 0.161143 0.114851 -0.073722 0.067092 -0.275232 -0.174114 -0.052136 -0.065426 0.098943 -0.210425 0.229823 0.035627 -0.072871 -0.111857 -0.196619 -0.096088 -0.003050 -0.154259 -0.297985 -0.024898 -0.096305 0.170120 0.064517 -0.013291 -0.016381 0.005554 0.026265 -0.339143 0.203673 0.151785 -0.110055 0.009224 -0.328614 0.067577 -0.028811 0.204990 -0.041368 -0.328727 -0.426316 0.084323 -0.040031 0.264650 0.049935 -0.066289 0.055632 0.189366 -0.015015 -0.102588 0.094832 0.040794 -0.180126 -0.043969 -0.189676 -0.285820 -0.077115 0.067477 -0.053989 -0.198905 0.012266 -0.046019 0.064632 -0.041503 0.206097 -0.121162 -0.118395 0.388219 -0.183613 -0.025063 -0.106040 -0.222312 -0.368109 0.176358 0.001505 -0.118408 -0.043561 -0.012309 -0.058215 -0.021315 -0.264856 -0.299917 0.109080 0.055913 -0.151375 -0.189689 0.082193 -0.062640 -0.034292 -0.213026 -0.288129 0.100025 -0.442655 0.146292 0.209784 -0.058609 -0.161583 -0.315432 0.215563 -0.208575 0.063615
GlobalSpecies0058 0.216334 -0.079243 -0.001729 0.068641 -0.156235 0.048218 0.102426 -0.042189 0.201876 -0.043603 0.077765 -0.130404 -0.253378 0.078455 0.048860 0.138071 0.166805 0.208598 0.259836 0.023462 -0.175396 0.187658 0.037445 0.231890 -0.111318 -0.174219 -0.115654 -0.038669 0.357114 -0.216123 0.088702 -0.099671 -0.110094 -0.224953 -0.010328 -0.120064 -0.105789 -0.006702 -0.106463 0.059981 -0.072459 0.027951 0.171306 -0.018974 0.157328 -0.139503 0.223859 -0.107828 -0.192610 -0.091170 0.083509 0.093823 0.043292 0.040104 -0.041511 0.219273 -0.134536 0.257788 -0.234595 -0.206762 -0.196741 -0.079060 0.183028 0.150881 -0.185412 -0.185314 0.165071 -0.050963 -0.104378 0.088854 -0.191035 -0.171498 -0.076613 0.095077 0.143170 0.068429 0.153989 -0.057556 -0.197285 -0.060709 0.091998 -0.215324 -0.042255 -0.043520 -0.039822 -0.081176 -0.197022 0.159693 0.020545 -0.168914 0.093966 0.007436 -0.016432 0.061627 0.166214 0.051542 0.125746 0.106603 0.023598 0.048163
GlobalSpecies0059 -0.112356 -0.276719 0.184229 0.090322 0.060512 0.101101 0.026725 0.105289 -0.245981 0.009421 0.135039 0.225229 -0.025412 -0.136209 0.193417 -0.029096 0.047593 -0.075648 -0.055298 0.041561 0.176591 0.065579 0.059778 -0.142125 0.085461 0.105078 -0.096920 -0.118833 -0.027045 0.254787 -0.064431 0.032113 0.005211 0.107594 -0.046245 0.219594 -0.056754 0.074101 -0.125847 -0.094288 -0.060376 -0.065790 -0.118754 0.320305 0.160486 -0.067883 -0.118950 -0.007514 -0.109831 -0.084009 -0.061330 -0.141007 0.164818 0.106018 -0.035559 0.200606 0.208015 -0.009839 0.029341 0.045972 0.235174 0.065441 0.031636 -0.187685 0.195504 0.426555 0.270816 0.112706 0.026470 -0.074230 -0.059895 0.246848 0.127492 0.043865 0.033104 0.029850 -0.178643 0.020164 0.104787 -0.030926 0.083647 0.232067 0.254748 0.027738 0.179767 -0.032138 -0.051409 -0.134882 0.049798 0.142928 -0.063927 0.016564 -0.164508 -0.138891 0.038295 0.074412 0.033534 0.027930 0.214449 0.052399
GlobalSpecies0060 -0.376375 0.064778 0.045723 0.037172 0.118197 0.005661 0.098167 0.029975 0.005011 -0.091651 0.099220 -0.089826 -0.063951 -0.046617 0.009770 -0.135098 -0.136444 -0.009502 0.152891 -0.005078 -0.016724 -0.349533 -0.187238 0.127097 0.118249 -0.135461 0.123725 0.001179 -0.042040 0.029146 0.041563 0.147085 -0.089383 0.031312 -0.043631 0.006982 -0.080585 0.220612 0.222904 0.104132 0.098028 0.147590 -0.178042 0.024626 -0.055257 0.108819 -0.095376 0.010576 0.060498 0.056621 -0.161900 -0.104564 -0.006717 0.088501 0.071262 -0.135341 -0.173732 0.001480 0.032157 0.015836 -0.000686 0.035795 -0.198819 -0.003754 0.061079 0.015051 -0.223757 0.048842 -0.116067 0.176945 0.086843 0.094081 0.042989 -0.231028 -0.306789 -0.044842 0.076685 -0.119591 0.117301 0.117869 0.134396 0.197249 -0.200022 0.030175 -0.049803 0.282150 0.038529 0.014323 -0.063328 0.298736 -0.097528 -0.029459 0.207643 -0.090647 0.038459 -0.031559 0.164987 -0.196357 0.007745 0.037888
GlobalSpecies0061 0.319284 0.381610 0.102620 0.057142 0.090354 0.029892 0.050615 -0.199344 -0.123936 0.128833 -0.197852 0.002131 -0.073547 0.066196 -0.264334 -0.071081 0.041415 0.073177 -0.054486 -0.306117 -0.122678 -0.195225 0.180244 0.099957 0.052504 0.018966 0.045664 0.002017 -0.247410 0.161441 0.261878 -0.093614 0.084402 -0.289788 0.104253 -0.051433 0.144825 -0.005125 -0.076146 -0.383091 0.135527 -0.193056 0.258076 0.003197 -0.187466 -0.138204 0.165617 0.185353 -0.159568 0.206551 -0.008402 -0.096007 -0.071632 -0.391388 -0.319598 0.008822 -0.048069 -0.081664 -0.065623 0.052439 -0.078392 0.076334 0.071546 0.309614 -0.063978 -0.275405 0.273137 -0.259972 0.138972 -0.181944 -0.137242 -0.334364 0.075709 -0.035695 -0.287394 0.012309 0.152162 -0.018746 -0.121516 -0.126457 -0.382099 -0.008940 0.136989 -0.035108 -0.189617 0.016626 0.040098 0.072981 -0.038042 -0.252574 -0.037302 -0.236075 0.165110 0.393823 -0.045213 -0.002639 -0.503889 0.189879 -0.049880 -0.039583
GlobalSpecies0062 0.050052 0.117662 0.128779 0.087336 -0.036773 0.054882 -0.020598 0.075889 -0.118108 0.198313 0.178499 -0.047308 0.067594 0.001240 0.092411 -0.022858 -0.067890 0.107695 -0.072738 -0.107940 -0.008872 0.041736 -0.009403 -0.008923 -0.035332 -0.163996 0.006580 0.018088 -0.067795 0.038067 -0.082623 0.112376 -0.047534 0.031275 -0.085233 0.036791 0.122243 -0.082348 -0.022588 -0.159473 -0.177997 0.040300 -0.045089 -0.089055 -0.024440 0.070695 -0.011331 -0.068997 0.068718 -0.041083 -0.110797 0.038440 0.026176 0.034098 -0.123926 -0.051678 0.185045 0.113770 0.031957 0.040379 0.032677 -0.143612 0.227011 -0.015450 0.006217 0.084998 0.181439 0.068170 -0.118034 -0.036306 0.019562 -0.033633 0.128024 -0.130887 -0.216488 -0.076722 0.029822 -0.071580 -0.175616 -0.098345 0.036957 0.173494 0.090062 0.036865 -0.032833 0.065980 0.009781 -0.092757 -0.077225 0.088421 -0.013744 -0.104641 -0.100824 -0.204677 0.114984 0.228809 0.133967 0.150906 0.194662 -0.003738
GlobalSpecies0063 0.253098 -0.151645 -0.103763 0.021842 -0.037886 0.069593 0.013921 0.003289 0.022154 -0.050708 0.161525 0.092019 0.133044 0.175546 0.118783 -0.170787 0.126558 -0.111689 0.216432 0.055524 0.081566 0.023756 0.082265 -0.011053 -0.007158 -0.176982 -0.125861 -0.032203 0.197043 -0.194920 -0.115428 0.113675 0.122068 -0.082534 0.064105 -0.078435 -0.192692 0.135157 -0.052151 0.133049 0.039950 0.190356 -0.131854 -0.256368 0.026522 -0.149758 -0.038986 -0.109883 -0.070385 -0.379615 0.028786 0.312898 0.016153 -0.091043 0.052345 -0.021703 0.189388 -0.092337 -0.051438 -0.086332 -0.111811 0.048721 -0.269073 0.078349 0.009967 0.014179 0.040546 -0.023748 -0.022498 0.076050 -0.104870 -0.075461 -0.114766 -0.095757 -0.024947 -0.057954 0.031166 -0.164851 0.042082 0.027712 0.283078 -0.140713 0.141462 -0.068258 -0.009151 -0.011839 -0.317504 -0.131756 -0.069100 0.115380 -0.150161 0.099941 -0.068315 -0.053050 0.025767 -0.139018 -0.052947 0.058501 0.186084 -0.012989
GlobalSpecies0064 -0.049346 -0.053168 -0.027939 0.245306 0.038775 -0.081077 0.059069 -0.234144 0.216522 0.195309 0.032996 0.052100 0.105002 0.030015 -0.034913 0.063296 0.025774 0.163424 -0.176780 -0.118214 -0.018454 -0.085103 0.008088 -0.149182 0.178415 0.094011 0.083177 0.002786 -0.199071 0.152617 -0.043648 0.164791 0.081052 0.046291 -0.085126 -0.008391 -0.189188 -0.077086 -0.028513 -0.112957 -0.006482 -0.083328 0.036019 -0.171494 0.004880 0.063686 0.151429 -0.183433 0.091028 -0.014471 -0.036099 -0.195549 -0.140942 -0.043827 -0.115480 -0.078284 0.144116 -0.124733 0.077383 -0.000022 -0.181257 0.162685 -0.063693 0.155799 0.156495 0.108778 0.144137 -0.191417 -0.032279 -0.108689 -0.008225 -0.004951 -0.067798 -0.112218 -0.230007 -0.038722 -0.171929 -0.005698 0.054402 0.081286 -0.101646 0.142158 0.210863 0.004178 -0.245874 0.009348 0.056119 -0.162450 -0.208459 0.208769 -0.195000 -0.056301 0.001587 0.037324 -0.098025 -0.186410 -0.116295 0.217816 0.016882 -0.085199
GlobalSpecies0065 0.396623 -0.060174 -0.131104 -0.166751 -0.194668 0.040159 -0.027535 0.294014 0.155332 0.040701 -0.000903 -0.184030 -0.053905 0.039955 0.035496 0.014802 0.436744 -0.068015 0.128780 0.033238 -0.332201 0.260813 -0.088046 0.110328 -0.264750 -0.222282 -0.019483 0.036796 0.159030 -0.372450 0.121977 0.034910 0.131988 -0.062549 -0.107316 0.015136 0.014131 0.142534 -0.133773 0.016287 -0.337062 0.253452 -0.041755 -0.299463 -0.087558 -0.283868 0.293460 -0.049749 -0.113726 -0.141786 0.075532 0.238970 0.100498 0.009863 -0.145998 0.060210 0.266875 0.112738 -0.204513 0.041538 -0.026817 0.081139 0.058392 0.116418 -0.250968 -0.164265 -0.057344 -0.038796 -0.246726 0.082649 -0.412236 -0.294550 -0.312559 -0.071479 0.095316 -0.073436 0.099739 0.096936 -0.591324 0.181686 0.016029 0.026573 -0.119192 -0.172566 -0.023202 0.234169 -0.168865 0.150998 0.074646 -0.366325 -0.064167 -0.045588 -0.055295 0.102899 0.031581 0.141378 -0.103426 0.097791 0.025475 -0.011762
GlobalSpecies0066 0.169111 -0.024277 -0.037291 0.038072 0.105947 0.226720 0.058585 0.089972 -0.344777 0.126218 0.191065 0.209037 0.021854 0.096949 0.048567 0.064330 0.135490 -0.008966 -0.061068 -0.150805 0.127695 0.035219 -0.038903 -0.226646 0.119186 0.194277 0.100946 -0.071566 0.165654 -0.062519 -0.050325 0.308988 0.184501 -0.064366 -0.140669 0.204248 -0.002589 -0.008972 -0.151249 -0.117480 -0.055698 -0.118423 0.202905 -0.026451 0.135341 -0.067726 0.002604 -0.136653 0.057025 0.022021 -0.056213 -0.097301 -0.033878 -0.035852 0.046576 -0.093845 -0.063419 -0.127843 0.213118 0.010688 0.191345 0.063700 0.017259 -0.173502 0.151476 0.333284 0.218482 0.117502 0.247879 0.016470 -0.118136 0.234562 0.018106 0.147529 0.148247 0.031929 -0.151643 0.132148 0.208727 0.226137 0.081162 -0.091109 -0.013646 -0.006467 0.057635 -0.172684 -0.101504 -0.132821 -0.001738 0.072296 -0.247233 -0.174719 -0.036516 -0.118226 -0.029825 0.041331 -0.011123 -0.036136 0.268832 0.018406
GlobalSpecies0067 0.172088 -0.255675 -0.164130 -0.029723 -0.112528 0.227133 -0.024910 0.090399 0.072452 0.085520 0.213187 0.033599 -0.046546 0.005478 0.142249 -0.098387 0.128840 -0.177866 0.242597 -0.024099 0.057595 0.119307 0.033056 -0.106159 0.022717 -0.197376 -0.025197 0.045587 0.176137 -0.178354 -0.006331 0.114328 0.272317 -0.106798 0.182558 -0.083490 -0.206137 0.026685 -0.203272 0.145357 -0.218285 0.066997 0.114863 -0.128201 0.036420 -0.152708 0.132161 -0.264218 0.018253 -0.315748 0.132926 0.153208 0.059214 -0.052327 -0.100838 0.021703 0.141975 -0.016618 -0.054300 -0.044621 -0.019043 0.108704 -0.223702 0.026994 0.122273 -0.002195 0.004340 0.036695 -0.098164 -0.000859 -0.272661 -0.017426 -0.202789 -0.067366 0.130576 0.010850 0.002441 -0.049191 -0.155016 0.122539 0.192189 -0.070896 0.191874 -0.118322 -0.150628 -0.113704 -0.247774 -0.015110 -0.285285 0.034682 -0.222801 -0.106766 -0.099375 -0.021569 0.003350 -0.103131 -0.159435 0.093929 0.059267 -0.069024
GlobalSpecies0068 -0.172603 0.049971 0.118389 0.027558 -0.113572 0.190243 -0.082079 0.158608 -0.299550 -0.008633 0.124958 0.083955 0.043709 -0.069728 0.122924 -0.014748 -0.089725 0.012285 -0.125253 -0.040122 0.024719 -0.035115 -0.020291 -0.146129 0.098532 -0.007621 -0.005712 0.104172 -0.062664 0.117658 0.069458 0.109718 -0.134723 0.073785 -0.102664 0.060543 0.185498 -0.018902 0.009792 0.040391 -0.086449 0.077168 -0.268035 0.286620 0.035810 0.088001 -0.025990 0.107744 -0.086048 0.106680 -0.041630 -0.094642 0.123739 0.035938 0.123101 0.038501 -0.014681 0.040949 -0.037159 0.033418 0.157483 0.042721 0.190575 -0.141082 0.086017 0.083004 0.143192 0.126926 -0.170900 0.017639 0.073318 0.182221 0.269060 0.088385 -0.018241 0.045444 0.059827 0.138795 0.041040 0.029031 0.190515 0.260209 -0.104668 0.077184 0.106002 0.176887 0.040514 0.002359 0.048282 0.068272 0.083025 -0.126901 -0.163430 -0.144992 0.114876 0.196451 0.033498 -0.229556 -0.060109 0.119345
GlobalSpecies0069 0.153440 0.079668 -0.078791 0.075824 -0.145826 -0.128129 0.016385 -0.045287 0.046703 -0.090036 -0.143999 -0.040733 -0.211797 -0.081397 -0.120536 0.103445 -0.066138 0.104281 0.089094 0.070060 0.154556 -0.016806 -0.081783 0.019018 -0.025177 0.008424 -0.346291 -0.057185 0.018484 -0.261364 -0.029097 -0.257799 -0.120377 0.165317 -0.159605 0.117203 0.072379 0.022015 -0.023929 0.128168 0.321455 -0.033145 -0.000284 -0.087405 0.030406 0.203609 -0.055722 -0.012480 -0.030926 -0.117892 0.269726 0.190472 -0.106619 -0.141212 0.174967 0.029648 -0.157022 0.163657 0.051472 -0.091665 -0.253556 -0.192114 0.024767 0.081860 0.015772 0.042163 -0.036312 -0.080369 0.289192 0.101319 0.210728 -0.137154 -0.155409 0.108136 0.163546 0.113094 0.022745 -0.139955 0.119142 -0.054338 -0.103156 -0.354441 -0.054394 0.036425 -0.052356 -0.194148 -0.102331 0.229639 0.174152 -0.070203 0.179149 0.186212 0.035933 0.127324 0.149433 0.034610 0.159548 -0.033317 -0.084597 -0.283187
GlobalSpecies0070 0.116635 0.041391 0.046480 -0.285477 -0.125182 -0.261290 -0.068489 0.169563 0.241692 -0.039170 -0.102527 -0.164768 -0.007542 0.068411 0.146521 0.238170 0.019466 -0.220558 0.172158 0.066765 -0.019101 0.115282 0.010024 0.064805 -0.185522 -0.042487 0.124781 -0.068261 0.217330 -0.039698 0.060181 -0.157881 0.022617 -0.083177 0.169271 -0.125021 -0.070004 0.008696 0.218981 0.025936 -0.323600 0.058568 0.090421 -0.115445 -0.161658 -0.135509 0.268151 -0.183056 0.056426 -0.032886 -0.080788 0.264134 0.138475 0.209068 -0.140206 0.049726 0.091700 -0.017323 -0.077428 0.182570 -0.006106 -0.051413 -0.052048 -0.025296 -0.076552 -0.149040 -0.078457 0.168899 -0.225267 0.127804 -0.377403 -0.159811 -0.193653 0.074086 0.099065 -0.006755 0.131082 -0.014289 -0.160686 -0.069205 -0.067456 -0.123092 0.199787 0.053838 -0.048382 0.002359 -0.189175 -0.171455 0.018205 -0.049437 0.063952 -0.038358 0.014910 0.057140 -0.012099 0.104576 -0.057662 -0.035465 0.011258 0.149107
GlobalSpecies0071 0.109471 0.214987 0.026846 -0.289938 0.211338 -0.399122 0.111576 0.072240 -0.015508 -0.277299 -0.173512 0.037963 0.043174 0.024390 -0.038186 -0.482378 0.046606 -0.191967 0.048214 -0.202199 0.195337 0.029913 -0.171012 0.173560 -0.134983 0.155575 -0.141787 0.033908 -0.048338 -0.061387 -0.108507 -0.256666 -0.101168 -0.251700 -0.137694 0.056993 -0.091102 0.235149 0.119616 0.091402 0.225431 -0.028403 -0.302930 -0.367100 -0.035043 -0.041843 -0.219671 0.164107 -0.145942 -0.236456 -0.059867 0.106808 0.121504 0.068600 0.115161 -0.063247 -0.098172 -0.138721 0.082754 -0.048851 0.080552 -0.138529 -0.261892 0.140610 -0.006645 -0.089454 -0.128907 -0.218759 0.210998 0.028312 0.010542 -0.073720 -0.213415 -0.226913 0.074687 -0.203673 0.210388 -0.144405 0.180977 0.056841 0.051728 -0.121312 -0.355085 0.129570 0.049999 0.083665 -0.128484 0.057250 0.090352 0.027167 0.029137 0.324285 0.292779 0.384140 0.139764 -0.019580 0.277982 0.115855 0.253475 -0.199298
GlobalSpecies0072 -0.072091 -0.039947 0.039837 -0.337629 0.069841 -0.286990 -0.146179 0.040660 0.220851 -0.073579 -0.239634 0.137694 -0.343185 0.077362 -0.067536 0.164895 -0.051858 0.045495 -0.002996 0.121739 0.060249 -0.145330 0.110224 0.322286 -0.269162 0.349629 0.151280 -0.160520 0.115656 -0.031776 -0.068428 -0.395429 0.044435 -0.062285 0.172888 -0.070591 -0.154988 -0.046659 -0.001493 0.077386 -0.216204 -0.219764 0.063561 -0.119555 -0.309256 -0.079858 0.173114 -0.099963 0.190146 0.241323 -0.089826 0.131081 0.224012 0.142807 -0.163357 -0.108519 -0.047708 -0.361291 0.007060 0.157029 0.184712 -0.106647 0.001329 -0.099473 -0.138011 -0.220045 -0.218009 0.041306 0.067215 -0.116352 -0.122481 -0.128193 -0.340798 0.261452 0.122050 -0.096501 -0.078136 0.171037 -0.071314 0.030903 -0.201163 0.051739 0.190891 0.167941 -0.123121 -0.017989 0.054987 -0.143615 0.168450 -0.244190 0.079401 0.172337 -0.063228 0.008298 -0.148523 0.014436 -0.169072 -0.123314 -0.236527 0.106048
GlobalSpecies0073 -0.306700 -0.051097 0.103658 -0.052095 -0.125923 0.182686 -0.075785 -0.046081 -0.103244 -0.041024 -0.044421 -0.018287 0.021987 0.011126 0.099587 0.025743 -0.179868 0.054735 -0.091123 -0.096719 -0.136256 -0.041904 0.007414 -0.108336 0.143526 -0.021303 -0.075179 0.168239 -0.159043 0.069508 0.068273 -0.088962 -0.149118 0.129655 0.115355 -0.136280 0.138970 -0.090702 -0.080675 0.104801 -0.054964 0.094890 -0.470312 0.311516 0.245358 0.129670 -0.020841 0.149127 -0.116277 -0.018859 -0.074197 -0.182114 0.268685 0.155467 0.119765 0.185316 0.035202 0.077788 -0.203229 0.046342 0.060296 0.103236 0.132807 -0.067597 0.011168 -0.091782 -0.040018 0.061194 -0.296664 -0.026348 0.000539 0.189323 0.329364 -0.030584 -0.062966 0.077500 0.111618 0.036743 -0.091491 -0.006997 0.084495 0.322501 -0.155414 0.099564 -0.061575 0.134513 0.155141 0.071598 0.137800 -0.049788 0.081476 0.029311 -0.209577 0.019495 0.091338 -0.061197 -0.003445 -0.360574 -0.233781 0.006890
GlobalSpecies0074 0.178679 0.074405 -0.007006 -0.080785 0.003485 -0.122612 -0.024704 -0.059654 -0.259830 0.095213 -0.062791 -0.027586 0.081695 0.024607 -0.029763 0.163593 0.050909 0.138201 -0.073666 -0.051554 0.074324 -0.234830 0.088757 0.052326 -0.110766 0.203601 0.011261 0.083385 -0.062214 0.081210 -0.018779 0.100816 0.062192 -0.155542 0.035759 0.163364 0.174409 -0.158342 0.049044 -0.068198 -0.090065 -0.057682 0.230987 -0.014458 -0.175184 -0.012937 0.072992 0.165487 -0.095653 0.156305 -0.016526 -0.026532 -0.097674 0.034437 -0.082562 -0.260521 0.227411 -0.115962 0.035378 0.051503 0.215238 -0.022749 0.063432 0.016660 0.054945 0.103746 0.200819 -0.041202 -0.006601 0.066401 0.074984 -0.169269 0.056435 0.074008 -0.045193 -0.178151 0.057670 -0.028336 0.021596 -0.140462 -0.123333 0.058088 0.067744 0.088115 0.023046 -0.070988 0.201225 -0.177297 -0.032722 0.007102 0.199379 -0.207801 -0.050689 -0.093695 -0.081196 0.150323 -0.064618 0.085222 -0.029935 0.187472
GlobalSpecies0075 0.118797 0.119816 0.091848 -0.115949 -0.058748 0.067031 0.032895 0.220086 -0.512169 -0.015566 -0.129016 0.259440 0.019496 0.104304 0.061898 -0.120063 0.063849 0.105700 -0.256966 -0.138667 -0.070130 0.098849 -0.028197 -0.118831 -0.284520 0.172457 0.211412 0.085982 0.233233 -0.001730 0.007753 0.136402 0.153599 -0.394660 -0.366219 0.197105 0.112180 0.016413 -0.021067 -0.288709 -0.044254 -0.013849 0.188050 -0.086627 -0.173291 0.056888 0.076824 -0.095171 0.040542 0.217420 0.036209 0.097950 0.043696 -0.347427 0.071479 0.032367 -0.156629 -0.250898 0.169304 0.138547 0.212342 0.204913 0.362047 -0.154323 -0.069865 0.054931 0.174143 0.064909 0.183390 -0.004630 -0.054044 0.105151 0.043381 0.348679 0.181908 0.099141 0.000233 0.211844 0.035334 0.254065 0.224194 -0.060014 -0.008026 -0.068191 0.004752 -0.017017 0.108282 0.129075 -0.047013 -0.123487 -0.182574 -0.273835 0.023822 0.036771 -0.054937 0.367018 0.104398 0.028443 0.424058 0.062843
GlobalSpecies0076 -0.266638 -0.163895 -0.081829 0.072402 -0.055083 0.231867 -0.046516 -0.006312 -0.061638 0.035976 0.139388 0.102236 0.126964 -0.021728 0.158862 -0.086997 -0.040454 -0.036102 0.050642 0.002046 -0.016886 -0.024872 0.042243 -0.224451 0.247667 0.053558 -0.042025 0.013618 -0.055483 0.142089 0.046855 0.104831 -0.016729 0.118485 0.114346 -0.153936 -0.118984 -0.010901 -0.073073 0.140551 -0.048123 -0.049854 -0.187844 0.328590 0.326551 0.045053 -0.002691 0.116542 0.094390 -0.120912 -0.140108 -0.059126 0.026918 -0.039045 0.127280 0.204433 0.123339 0.016761 -0.094731 -0.077507 0.071562 0.158382 -0.080177 -0.114069 0.270765 0.093471 -0.055209 0.075863 -0.079390 -0.088008 0.068412 0.332382 0.232534 0.007009 0.002066 0.135101 0.063849 0.109279 0.053971 0.093708 0.188711 0.246474 0.057308 0.150707 0.005441 -0.024936 0.062399 -0.011928 0.043853 0.062993 -0.063347 0.063323 -0.186358 -0.001083 0.110838 -0.186883 -0.199275 -0.158494 -0.079156 0.078793
GlobalSpecies0077 -0.319910 -0.238977 -0.067778 0.294725 0.038120 0.060995 -0.091460 -0.106313 0.182503 0.184786 0.163347 -0.006701 -0.033324 -0.003115 -0.083251 0.004919 0.216760 0.000938 0.028842 0.053353 0.073330 0.064570 -0.147991 -0.121671 0.143182 0.056354 0.096503 -0.061955 -0.000379 0.169114 -0.192561 0.133661 0.059164 0.114156 -0.028263 0.122745 -0.280464 0.024740 -0.033392 0.005309 0.039464 -0.038009 0.046828 -0.231263 0.021354 -0.116999 0.217205 -0.263104 0.087752 -0.033194 -0.064034 -0.291773 -0.153812 -0.037629 -0.058280 -0.037463 -0.073089 -0.194431 0.150317 0.060765 -0.230701 0.153868 -0.122715 0.055073 0.028654 0.150541 -0.113841 -0.012520 0.039837 -0.087352 0.081604 0.234736 -0.061251 -0.050253 -0.054739 0.050098 -0.162798 -0.100988 0.114416 0.180596 0.021188 0.128078 0.040304 0.074326 -0.156081 -0.004410 -0.001730 -0.188530 -0.273329 0.135507 -0.357413 0.080750 0.056443 0.009525 -0.132975 -0.144257 -0.084460 0.132643 0.130699 -0.112370
GlobalSpecies0078 0.275967 0.169410 -0.005936 -0.341874 0.363624 -0.230066 0.163529 0.088716 -0.035166 -0.163697 -0.180703 0.007850 -0.082072 -0.038953 0.090138 -0.550835 -0.014029 -0.204755 0.101865 -0.150552 0.114316 -0.027654 -0.048391 0.206852 -0.085173 0.048311 -0.052330 -0.017128 -0.069605 -0.058360 -0.082607 -0.227432 -0.100904 -0.130610 -0.069267 0.083664 0.081624 0.221291 0.023989 0.085634 0.360648 0.081562 -0.250935 -0.380524 -0.123064 0.072088 -0.191200 -0.001432 -0.150635 -0.131105 -0.027363 0.183409 -0.003410 -0.017420 0.114958 0.003901 -0.128939 -0.085017 0.121056 0.047348 0.135304 -0.171701 -0.225176 0.076122 0.075946 0.030537 -0.083176 -0.194143 0.172464 0.039706 0.123824 -0.151567 -0.269840 -0.219247 -0.030014 -0.249503 0.245733 -0.157992 0.221984 0.212916 -0.045158 -0.169199 -0.406076 0.058509 0.043083 0.017089 -0.175749 0.064960 0.072940 0.009810 0.010146 0.396461 0.365822 0.375240 0.090701 0.016177 0.317370 0.057497 0.068477 -0.187138
GlobalSpecies0079 0.039555 0.074486 -0.084526 0.034374 0.076156 0.054406 -0.036226 0.209911 -0.345616 -0.051128 0.165206 0.015176 0.087959 0.126902 0.006393 0.169415 0.155891 -0.135365 -0.017817 0.146041 0.040624 -0.101092 0.328655 0.082869 -0.166196 0.365392 0.106775 0.003772 0.414854 -0.107060 -0.182669 -0.087794 0.038321 -0.169697 -0.081865 0.272057 0.122869 -0.171701 0.249248 -0.218221 0.001269 -0.152906 0.080050 -0.080102 0.000089 -0.079065 0.119985 0.155173 -0.128737 0.318580 0.018716 0.092750 -0.099681 0.163430 -0.050589 -0.052044 0.169301 -0.233444 0.052329 0.258759 0.060458 -0.120938 0.008664 -0.107968 -0.118612 -0.104498 0.073545 0.031944 0.195620 0.024599 0.124037 -0.088843 -0.117162 0.236810 0.124014 -0.277627 0.027863 0.144772 -0.130515 -0.008730 -0.006107 0.047959 0.051103 0.214292 0.137574 -0.029522 0.172738 -0.144574 0.081919 0.052754 0.134766 -0.038933 -0.044697 -0.180463 -0.211799 0.238170 -0.115892 -0.125959 -0.083148 0.150942
GlobalSpecies0080 -0.057215 0.089411 0.091414 0.023442 0.018155 -0.063700 0.111905 0.029340 0.159432 0.059620 0.015188 -0.113314 0.251815 -0.016238 0.005177 -0.076974 -0.104004 0.018952 0.099378 -0.035998 -0.158091 -0.070208 -0.003780 -0.044239 0.100525 -0.191664 -0.013757 -0.000684 -0.116407 0.017844 -0.027027 0.261059 -0.082149 0.031438 -0.062342 -0.127569 0.023546 0.080823 0.112018 -0.024521 0.043682 -0.020440 -0.195020 0.098790 0.151083 0.054573 -0.102136 0.069993 0.127319 -0.124332 -0.059610 -0.079302 0.044995 -0.109250 -0.079742 -0.105109 0.144868 0.180222 0.070954 -0.040434 -0.024474 -0.082284 -0.049625 -0.002700 0.028465 -0.032929 0.040912 0.131599 -0.108425 0.208022 -0.029894 0.100074 0.276938 -0.220719 -0.312752 -0.079092 0.096709 -0.045895 -0.106166 -0.152739 0.214010 -0.000116 -0.033586 -0.056950 0.011550 0.020584 0.056537 0.015550 0.050797 0.272952 0.147119 -0.020442 -0.096436 -0.238334 0.100409 0.052434 0.180823 0.021268 -0.020293 0.109777
GlobalSpecies0081 -0.067425 -0.130077 0.206811 0.012097 -0.073445 0.078773 -0.134534 -0.082627 0.002858 -0.050635 -0.135562 -0.001909 -0.030144 -0.077205 0.185643 -0.283717 0.158470 -0.240240 -0.410137 -0.105440 -0.095576 0.217890 0.336590 -0.272913 -0.009210 0.116456 -0.055973 0.013851 -0.119648 0.141433 0.154541 -0.333013 -0.179842 0.108997 0.119295 0.060133 0.136362 -0.133073 -0.157890 -0.177457 -0.220301 -0.029067 -0.540830 0.020607 0.004889 -0.037451 -0.048698 0.161783 -0.064968 -0.080245 0.045889 -0.191941 0.174470 -0.043788 0.071915 0.401218 0.027066 0.228615 -0.069692 0.237536 0.131738 -0.104966 0.389687 -0.302606 -0.068146 -0.007706 -0.051610 0.146649 -0.091440 -0.178763 0.032668 -0.004233 0.205315 0.154683 0.158325 0.014238 0.019988 0.124105 -0.051400 -0.148494 0.006897 0.099277 0.103844 0.180710 0.018856 0.080993 0.034294 0.135776 0.129408 -0.236593 0.041681 0.346345 -0.162029 0.275309 -0.088114 -0.070634 -0.011823 0.024739 0.048792 -0.040256
GlobalSpecies0082 0.138619 0.117656 -0.000963 -0.122282 -0.036394 -0.021055 0.046933 0.272027 -0.536647 0.048623 -0.156590 0.155277 -0.074481 0.073698 0.156096 -0.184986 -0.013620 0.156711 -0.340838 -0.099005 0.038705 0.137342 0.093190 -0.122970 -0.216952 0.131833 0.155899 0.269492 0.193935 0.040423 0.039444 0.026591 0.118740 -0.318766 -0.416216 0.324690 0.176989 0.029573 0.024448 -0.340100 -0.109451 0.019086 0.206799 -0.085578 -0.179676 0.186268 0.132264 -0.196553 -0.120998 0.328005 -0.024592 -0.069603 -0.069925 -0.138474 0.049089 -0.082816 -0.142316 -0.187811 0.036382 0.264886 0.112193 0.136298 0.268927 -0.176714 -0.058261 0.056133 0.214741 -0.108700 0.061475 0.052823 -0.071513 -0.043048 -0.033928 0.340073 0.183912 0.010144 -0.055721 0.192452 0.029894 0.215785 0.184682 -0.166329 -0.158531 -0.140242 -0.118512 -0.040192 0.012025 0.068317 -0.130530 -0.099525 -0.185703 -0.248252 0.012716 -0.048629 -0.024066 0.398975 0.063671 -0.166881 0.242567 0.083999
GlobalSpecies0083 -0.178366 -0.019832 0.054964 0.121141 -0.039303 -0.020576 0.085835 -0.004602 -0.226979 -0.010180 0.139133 -0.067158 -0.163245 0.050176 -0.068412 -0.089825 0.129312 -0.016172 -0.126788 -0.030546 0.018011 -0.163638 -0.135711 -0.129757 -0.098516 -0.212023 0.060560 -0.025239 0.023441 -0.028932 -0.068983 0.043306 0.054718 -0.142298 -0.368312 0.166865 0.032696 -0.135488 0.108857 -0.263944 -0.178330 -0.080757 0.021846 -0.017657 -0.004876 -0.115142 -0.016802 -0.171075 -0.027893 0.333982 -0.103033 -0.090286 -0.030411 -0.190471 -0.097987 -0.260262 -0.305428 -0.111797 0.106262 0.104618 -0.165158 0.059774 0.279751 -0.192976 -0.025532 0.092273 -0.077941 0.126485 -0.048302 0.019792 0.177668 0.060749 -0.035534 0.052073 -0.067225 -0.114653 -0.076856 0.120711 0.049951 -0.144838 0.007909 0.159223 0.063432 -0.123773 -0.099722 0.315500 0.126951 -0.001688 -0.194583 -0.047803 -0.222837 -0.056288 0.067656 -0.059496 -0.070955 0.215725 0.236120 0.109504 0.229485 -0.063407
GlobalSpecies0084 -0.131212 -0.148184 0.064268 0.165224 -0.012438 -0.064398 0.190219 -0.149680 0.105287 -0.072102 -0.246005 -0.162752 -0.102973 -0.017088 -0.115618 0.191682 -0.093847 0.103088 -0.063148 -0.007176 0.062806 -0.013134 -0.155278 0.079627 0.028049 -0.013820 -0.067019 -0.049476 -0.188373 0.127712 0.060900 -0.017303 -0.049069 0.040868 -0.141335 -0.089597 0.048174 -0.121652 -0.078180 -0.004341 0.094145 -0.174163 0.230294 -0.132524 0.023315 -0.048948 -0.049296 -0.119113 -0.067299 0.223945 -0.040404 -0.023932 -0.168059 -0.195853 -0.098759 -0.106980 -0.123494 0.214115 0.009387 -0.146791 -0.246451 -0.085963 0.240365 0.100521 -0.016715 -0.077807 0.094241 -0.079290 0.062567 0.027891 0.042332 0.060559 0.097466 -0.014611 -0.140355 -0.015573 -0.170354 0.119594 -0.104143 -0.142149 -0.112935 -0.060594 0.075504 -0.136623 -0.114718 0.041315 0.034402 0.201412 -0.125014 -0.038593 0.054835 -0.143521 0.159284 -0.108415 -0.017243 -0.067538 0.000590 0.220661 0.060803 -0.085298
GlobalSpecies0085 -0.095386 0.135479 0.089447 0.043405 0.002275 -0.087892 0.077611 0.089295 -0.064012 -0.154451 0.025679 0.087504 0.141227 -0.166804 -0.084156 -0.182995 -0.192024 -0.095955 0.047607 0.016962 0.015882 0.050549 -0.022413 -0.118550 -0.051762 0.011332 -0.130921 0.002645 -0.206880 0.101333 0.100258 0.142695 -0.278295 0.159496 0.108665 -0.102103 0.033392 -0.019844 0.095742 0.255455 0.143489 0.217634 -0.485127 0.126797 0.066719 0.121434 -0.464021 0.055430 0.001353 -0.006466 -0.034708 0.049695 0.109765 -0.053198 0.140869 0.023534 0.009649 0.033610 -0.001838 -0.019421 0.057818 -0.011618 -0.139578 -0.093378 0.092807 -0.109732 -0.017359 -0.014277 -0.035903 -0.138095 0.103838 0.254628 0.330914 -0.175335 -0.189118 -0.029926 0.114417 0.018717 0.026767 -0.021828 0.200954 0.127444 -0.076804 0.154143 0.137788 0.097415 -0.032581 -0.031816 0.188492 0.169537 0.080727 0.244766 -0.135292 -0.038844 0.032715 0.046630 0.024879 -0.241810 -0.109256 -0.069686
GlobalSpecies0086 -0.037369 -0.085498 0.060096 0.056616 -0.221541 -0.035320 0.097875 0.094776 -0.235153 -0.040065 0.044588 -0.055047 -0.232143 0.082798 -0.152761 0.171230 -0.034976 0.184328 -0.095290 0.042709 -0.097471 0.215723 -0.033629 0.011766 -0.088802 -0.023421 -0.181809 -0.077533 0.158507 -0.199063 0.088199 0.071056 0.165067 -0.109005 -0.398413 0.190106 0.136543 -0.033888 -0.178979 -0.068798 0.288242 -0.090457 0.365260 0.137622 0.021207 0.068631 -0.255623 -0.109722 -0.147289 0.211895 -0.102705 0.076211 -0.082785 -0.040168 -0.052852 -0.042479 -0.219278 0.137401 0.007785 0.079327 -0.140039 0.003169 0.185174 -0.038635 -0.022527 0.189144 0.264575 -0.108368 0.055733 0.019569 0.214199 0.022357 0.100993 0.217266 0.258605 0.068141 -0.061265 0.078930 -0.005626 0.006995 -0.043368 -0.064052 -0.158011 -0.210826 0.039648 -0.160212 0.002677 0.152067 -0.051222 -0.255438 0.065023 -0.004560 0.060491 0.058315 0.003955 0.356610 0.090185 -0.058632 -0.115646 0.061469
GlobalSpecies0087 -0.121609 -0.096169 -0.067327 0.145407 -0.070634 -0.034061 0.081216 0.008263 0.218465 0.125344 0.029434 -0.125466 -0.192137 -0.040546 0.040112 -0.003948 0.073597 -0.021946 0.173063 0.078127 -0.173064 0.153905 -0.015510 0.175480 -0.098622 -0.396161 0.134445 -0.005232 -0.021000 -0.058142 0.010996 0.008448 0.180580 -0.068894 -0.066743 0.020213 0.000171 -0.078194 0.128074 -0.106649 -0.042774 0.043723 -0.099073 -0.231497 -0.029644 -0.129989 0.088326 -0.162878 0.095935 0.128051 -0.002650 -0.189182 -0.184615 0.018378 -0.237661 0.145515 -0.085064 0.178070 -0.103791 0.081580 -0.289532 0.062341 0.154426 -0.106552 0.093781 -0.024983 -0.197279 0.168220 -0.206116 0.025828 -0.158811 -0.059767 -0.142468 -0.277754 -0.046826 -0.134730 0.111318 -0.198802 -0.186573 0.132143 -0.078209 0.035052 -0.016037 -0.161544 -0.177318 0.235349 0.078735 -0.056144 -0.139271 0.009403 -0.117441 -0.041116 0.111944 -0.091638 0.033808 0.094238 0.117438 0.130595 0.146881 0.017048
GlobalSpecies0088 -0.231969 0.072721 -0.041153 0.081921 0.002752 0.016719 0.148901 0.081520 -0.115104 0.096793 0.086826 -0.098547 -0.052302 0.074123 0.056818 0.045104 0.062343 0.032676 -0.171615 0.021355 -0.044751 -0.082960 -0.136926 -0.088483 -0.077502 -0.083922 0.110289 0.031050 0.060067 0.037581 -0.037814 0.223248 0.014376 0.031736 -0.409054 0.257797 0.090049 -0.083044 0.062063 -0.307921 -0.030577 0.006669 0.071647 0.005627 -0.022097 0.013510 -0.043156 -0.059944 -0.043313 0.248150 -0.098795 -0.189386 -0.142814 -0.092644 -0.101655 -0.195003 -0.262890 -0.044102 0.053388 0.148485 -0.086767 0.076272 0.065013 -0.326027 -0.040467 0.131670 0.007196 0.085787 0.003088 -0.028510 0.253241 -0.028578 -0.052760 0.023570 -0.050779 -0.097937 -0.128715 -0.089597 -0.020896 -0.036984 0.060511 0.196281 0.053127 -0.171933 -0.268982 0.215121 0.128172 -0.071922 -0.074762 0.166138 -0.077609 -0.185101 0.086774 -0.090228 -0.027852 0.389996 0.269193 0.086620 0.223267 -0.036170
GlobalSpecies0089 0.122463 -0.024758 -0.078136 -0.016535 -0.141121 0.092393 0.151595 0.128404 -0.142113 -0.182887 0.186108 -0.020204 -0.031833 0.011433 -0.013632 0.075196 -0.039723 0.237322 0.162699 0.080198 0.038669 0.190085 -0.059175 0.110488 -0.106869 -0.152280 -0.176001 -0.000049 0.233579 -0.179010 -0.001780 0.142439 -0.072335 -0.066091 -0.367114 -0.025609 -0.145373 -0.076809 0.071800 0.118253 0.132152 -0.047418 0.058251 -0.080762 0.120028 0.048214 -0.217811 -0.120863 -0.112009 -0.054019 0.084546 0.125548 -0.074321 -0.031265 0.138935 -0.090914 -0.043059 0.252953 0.057338 -0.113233 -0.118097 -0.120153 0.075321 0.041417 -0.023118 0.211685 0.185398 0.023701 0.009336 0.153552 0.005688 0.082890 -0.091594 0.075133 0.139725 0.018867 0.165267 -0.018854 -0.048783 -0.024291 0.199401 -0.134338 -0.094610 -0.153173 0.105888 -0.177754 -0.093220 0.146294 0.091769 0.090786 0.079958 -0.037293 0.001106 -0.118273 0.081184 0.201570 0.313800 -0.037641 0.074831 -0.049985
GlobalSpecies0090 0.029099 0.019340 -0.160600 -0.066471 0.038676 -0.008600 0.023790 -0.063294 0.114316 0.040248 0.005693 0.073956 -0.061100 0.117366 0.018926 0.190973 0.081229 0.048571 0.079269 0.180888 0.127780 0.064685 -0.107349 0.122458 0.092774 0.046360 -0.143650 -0.187060 0.095337 -0.107222 -0.122875 -0.033309 0.082894 0.182860 0.011149 0.067796 -0.070004 0.007362 0.018790 0.200136 0.250940 -0.113484 0.134441 0.003160 0.118126 0.058807 -0.115238 0.076587 0.047309 -0.158617 -0.084284 0.270634 -0.147422 0.086878 0.153260 -0.125655 0.058454 -0.210942 -0.065906 -0.184590 -0.109052 -0.123539 -0.210513 -0.067765 0.221141 0.082161 -0.045234 -0.042791 0.205346 -0.005559 0.165825 0.048100 -0.236317 0.012626 0.079205 0.142792 -0.137820 -0.010819 0.207224 -0.044626 -0.027195 -0.118031 0.101498 0.030880 0.159573 -0.221701 0.017327 -0.062053 0.278322 0.151304 0.151538 0.222981 0.010992 0.091371 0.017667 -0.120933 0.014876 -0.029018 0.003753 -0.045501
GlobalSpecies0091 0.209799 0.216817 0.138982 0.145600 0.078513 0.015333 -0.016746 -0.046801 0.120140 0.007276 -0.065319 0.039804 0.227449 -0.059822 -0.016185 -0.115170 -0.071902 0.113897 -0.323536 -0.331728 -0.007567 0.115390 0.298654 -0.001492 0.060187 -0.085498 0.170607 0.011521 -0.133323 0.339644 0.031228 -0.065195 -0.080360 0.136539 0.150453 -0.050157 0.059325 -0.073831 -0.242396 -0.046587 0.012101 0.047192 -0.285440 0.115743 0.009138 0.124595 0.074774 0.215800 0.221917 -0.056425 -0.072741 -0.180862 0.228388 -0.027062 -0.017345 0.021174 0.222332 0.177190 -0.132284 -0.112252 0.211101 -0.049866 0.254426 -0.126331 -0.104655 -0.117785 0.032048 -0.053506 -0.086700 -0.191243 0.067865 -0.137970 0.267970 0.007029 -0.123991 -0.015396 -0.092297 -0.132479 -0.066699 -0.256912 -0.100872 0.091424 0.004057 0.256917 0.063226 -0.027726 0.236878 0.106372 -0.059489 -0.142253 0.007121 -0.178671 -0.034332 -0.049867 0.047598 -0.038768 -0.087379 0.310558 -0.044849 0.099011
GlobalSpecies0092 -0.414292 -0.252573 0.010367 0.194309 0.044693 -0.117227 -0.023281 -0.286930 0.103974 0.152215 -0.078780 -0.162380 -0.283903 -0.084771 -0.129125 0.055961 0.147825 0.009551 -0.060408 0.003465 0.023941 -0.118935 -0.146501 0.042794 -0.074749 -0.053663 0.225982 -0.091867 -0.125723 0.018779 -0.143018 0.029754 -0.094345 -0.003603 -0.087841 0.266814 -0.024974 0.043469 0.014460 -0.206047 0.027809 0.109023 -0.030091 -0.226076 -0.202044 -0.030423 0.251227 -0.234667 0.048464 0.226575 -0.093712 -0.300074 -0.023223 -0.028157 -0.132493 0.109713 -0.347019 0.015828 0.040728 0.128262 -0.345506 0.091597 0.061717 -0.125261 -0.250449 -0.085491 -0.187098 0.129826 -0.147359 -0.013042 0.230950 -0.100201 -0.043954 -0.095597 -0.051698 -0.060785 0.075385 -0.242955 0.093181 0.002797 -0.105305 0.246971 -0.184068 -0.017260 -0.243433 0.371907 0.324738 0.086056 -0.251594 0.092337 -0.292094 -0.014894 0.109234 -0.062542 -0.162795 0.117385 0.141279 0.141560 0.258239 -0.044654
GlobalSpecies0093 -0.020999 0.050732 -0.153550 0.087891 0.116210 -0.241122 0.030282 -0.176705 0.166224 0.037879 0.104153 -0.004804 0.088859 0.030158 0.102137 -0.090108 -0.021034 0.069522 0.019375 -0.102565 0.037068 -0.108203 -0.103529 -0.057695 0.155903 -0.029195 0.073325 -0.055793 -0.129232 0.131122 -0.060271 0.206673 -0.033928 0.145520 -0.099262 -0.023597 -0.096856 -0.022258 0.039013 -0.055084 0.189813 -0.008221 -0.028394 -0.057237 0.063761 0.164143 0.002109 -0.063838 0.082550 -0.153766 -0.078914 -0.084734 -0.157109 -0.036636 -0.021610 -0.188064 0.022785 -0.115210 0.077613 0.074134 -0.162905 0.005194 -0.252208 0.067698 0.185528 0.082426 0.059675 -0.099970 0.025329 -0.011993 0.100965 -0.044974 -0.119978 -0.224083 -0.225696 -0.136675 -0.088128 -0.187403 0.179216 -0.137572 -0.084941 -0.126741 0.041784 -0.029866 -0.030866 -0.004357 -0.000154 -0.163041 -0.161854 0.287028 -0.115069 0.009330 0.034228 0.086565 -0.081266 -0.084288 0.133196 0.220562 -0.054402 -0.075232
GlobalSpecies0094 0.042134 -0.026547 0.119571 -0.056607 0.007644 0.136459 -0.030305 0.135872 -0.174031 -0.036718 0.128633 0.116003 0.005485 0.011221 0.090985 0.159519 0.123456 -0.100628 -0.169987 -0.041751 0.016139 -0.024063 0.234006 -0.043712 -0.079664 0.120053 -0.043406 -0.000148 0.027930 0.237478 -0.097774 -0.025971 0.018685 0.151115 -0.042166 0.161121 0.073025 -0.130046 0.140273 -0.115444 -0.033864 -0.060580 -0.212518 0.145374 -0.068303 -0.070582 -0.093071 0.128146 0.079101 0.128884 -0.031819 0.028950 0.108151 0.145435 -0.028213 0.082554 0.098816 -0.127399 0.055968 0.133266 0.174586 -0.077857 0.199947 -0.226527 0.064601 0.084103 0.128572 0.141961 0.002225 -0.008882 0.004126 0.017438 0.015165 0.197097 0.031708 -0.119309 -0.069370 0.115294 0.106291 -0.209699 0.065098 0.249536 0.101529 0.144870 0.134443 -0.025305 0.058376 -0.023928 0.120701 0.073128 0.196245 0.088725 -0.139653 -0.106656 -0.068071 0.304195 0.020947 -0.076408 0.070251 0.135619
GlobalSpecies0095 0.096621 0.052763 0.031310 0.018242 0.012291 -0.128627 -0.057433 -0.193916 0.047351 0.085760 -0.019442 -0.048677 0.147575 -0.031317 -0.120520 0.038608 0.051560 0.219273 0.039762 -0.133236 0.117566 -0.107931 -0.075647 -0.007684 0.011280 0.021606 -0.075243 0.009343 -0.058565 0.070157 -0.038689 0.016611 0.049436 0.004384 0.004825 -0.083604 -0.064629 0.042157 -0.114526 0.051518 0.238390 -0.144916 0.151448 -0.090124 0.229181 0.053150 0.036785 0.048514 0.040812 -0.157408 0.014595 0.123150 -0.119789 -0.093478 0.000820 -0.080823 0.091323 0.123281 0.022027 -0.211562 -0.126088 -0.047327 -0.065756 0.244006 0.039533 0.043980 0.065293 -0.189706 0.164713 0.010793 0.129057 0.005997 -0.041952 -0.080431 -0.088392 0.026227 -0.086467 -0.165257 0.062715 -0.083985 -0.159717 -0.208656 -0.015782 0.012887 -0.045311 -0.286583 0.034537 0.032037 -0.024936 0.124151 0.104640 0.018873 -0.109854 0.014506 0.046015 -0.181548 0.073312 0.241056 -0.047190 -0.008484
GlobalSpecies0096 -0.135502 0.082239 -0.056797 -0.020831 -0.068480 0.145831 0.004950 0.047690 -0.208174 -0.014369 0.225602 -0.067076 0.059226 0.076803 0.074341 0.011518 -0.139749 0.020027 0.106007 0.044405 0.074765 -0.306403 -0.166089 -0.193875 0.067972 0.312875 0.045434 -0.002574 0.138517 -0.024426 0.076554 0.221361 0.050400 0.076612 -0.059553 -0.039561 -0.018149 0.079709 0.080384 0.092427 -0.084329 -0.149176 0.217657 0.252897 0.016329 0.037605 -0.045569 0.036049 0.042165 0.015788 -0.091917 0.067634 -0.017284 0.065291 -0.033081 -0.000657 0.161414 -0.130749 -0.043147 -0.057597 0.101718 0.099529 -0.158718 -0.037711 0.235231 0.134830 -0.023760 0.171891 0.068599 0.094168 0.116807 0.189027 -0.026729 0.068114 0.129899 0.040644 -0.080158 0.142919 -0.000511 0.140070 0.095332 0.021685 0.044426 0.083739 0.224465 0.053560 0.076252 -0.155638 0.037288 0.168168 0.008757 -0.173030 -0.046893 -0.194423 0.022345 -0.119842 -0.064488 -0.206032 -0.057001 0.107869
GlobalSpecies0097 0.153123 -0.024328 -0.237530 -0.054913 0.216750 -0.171037 0.077767 -0.032308 -0.087782 -0.127916 0.017526 0.122963 0.014630 0.112144 0.180274 -0.258412 0.064046 -0.177856 0.111299 -0.003556 0.142674 0.041530 0.009911 -0.081179 0.209486 0.077657 -0.096921 0.034591 0.042137 0.008335 -0.144176 -0.160721 0.050858 0.038040 -0.026920 0.038614 -0.141732 0.155179 -0.038018 0.186459 0.194192 0.035419 -0.015692 -0.122326 0.148136 0.088136 -0.107858 0.008647 -0.106241 -0.268103 -0.119859 0.112094 -0.193089 0.032546 0.167712 0.008357 0.065456 -0.125124 -0.039074 -0.046855 0.158343 0.078315 -0.378642 -0.013309 0.255987 0.197383 -0.075624 0.035306 0.197206 0.020405 -0.002236 0.052174 -0.160833 -0.234382 -0.080546 -0.007996 -0.154062 -0.124197 0.332377 0.038594 -0.014659 -0.178291 -0.111229 0.035232 0.057427 -0.141871 -0.052632 -0.145808 0.135522 0.150886 -0.169418 0.204974 0.174225 0.157659 0.079807 -0.292175 -0.060888 0.041886 0.043989 -0.267926
GlobalSpecies0098 0.135055 0.007950 0.027790 -0.004536 0.101473 -0.287873 -0.047449 -0.031662 0.156623 -0.111292 -0.103902 0.002118 -0.223689 0.000054 -0.177055 0.302356 0.070650 0.218749 0.091290 0.085779 0.063628 -0.037796 0.018956 0.072784 -0.062298 0.101365 -0.203649 -0.130424 0.001456 -0.193037 -0.043387 -0.158551 -0.228880 0.146193 -0.047030 0.014729 -0.068320 -0.011111 0.128182 0.218181 0.214508 -0.045417 0.089811 -0.097504 0.006320 0.155228 -0.086473 0.003731 0.089000 -0.101787 0.097464 0.236294 -0.077164 -0.002425 0.096913 -0.037403 -0.012832 -0.060949 -0.043570 -0.081732 -0.031990 -0.106915 -0.007107 -0.068765 0.086936 -0.167051 -0.012948 -0.140044 0.120163 0.029667 0.046169 -0.005255 -0.160158 0.187487 0.014122 0.107423 -0.061622 -0.024338 0.158351 -0.041266 -0.102239 -0.184622 -0.118424 -0.002565 0.095052 -0.105413 0.003237 -0.100797 0.242307 0.075372 0.302705 0.277365 -0.049704 0.046546 -0.005704 0.080063 0.099105 -0.013647 -0.081136 -0.037789
GlobalSpecies0099 0.046949 -0.032842 -0.048857 0.072640 0.067957 -0.126872 0.108634 -0.112783 -0.161816 0.000814 -0.014091 0.002977 0.046987 0.053871 -0.006163 0.149582 0.010306 0.168944 -0.009274 0.046782 0.070488 -0.033768 -0.254770 0.074004 0.009284 -0.079318 -0.138069 -0.010377 -0.086902 -0.007561 0.031162 0.150418 -0.049791 0.130006 -0.202179 -0.030286 0.086612 -0.082030 0.108129 -0.046675 0.259717 -0.009087 0.037415 -0.003248 0.129936 0.073702 -0.084794 0.168023 -0.011001 -0.007438 -0.085242 0.105445 -0.182317 -0.171705 0.120564 -0.243687 -0.184921 0.072736 0.159852 -0.082218 -0.072323 -0.185767 0.019588 0.009315 -0.044617 0.092681 0.103472 -0.049532 0.089979 0.055264 0.251269 -0.104563 -0.080251 -0.032199 -0.140684 -0.093724 -0.109692 -0.065262 0.168887 -0.185410 -0.020646 -0.111915 0.023687 -0.069609 -0.019935 -0.117436 -0.038831 0.120249 -0.016129 0.142409 0.155794 0.059172 0.041976 -0.001383 0.100468 0.223516 0.245379 0.157076 0.008958 -0.032646
GlobalSpecies0100 0.199166 0.101513 0.198298 0.127296 -0.084730 0.050471 -0.028535 -0.097384 0.155846 0.007573 -0.108927 0.036573 0.182360 -0.110282 -0.113192 -0.233768 -0.058674 0.146019 -0.197760 -0.282378 0.038380 -0.037273 0.329080 0.045040 0.089693 -0.095395 -0.001037 0.015432 -0.258255 0.294384 -0.041573 -0.011731 -0.055627 0.019078 0.057417 -0.012457 0.066852 -0.017166 -0.265388 -0.146975 -0.036855 -0.119107 -0.182412 0.119223 -0.014333 0.132868 -0.016516 0.139657 0.193087 -0.018397 -0.114237 0.010653 0.218281 -0.040289 -0.059600 0.021400 0.226487 0.090269 -0.074934 -0.001446 0.065349 -0.074993 0.146013 -0.112523 -0.083717 -0.139258 0.165176 -0.135027 0.026347 -0.165317 0.145681 -0.182353 0.290534 0.049367 -0.221899 -0.026900 -0.059845 0.019588 -0.243867 -0.291245 -0.084726 0.086896 0.083141 0.199833 -0.085807 -0.024248 0.141039 0.098636 -0.120787 -0.126392 -0.128810 -0.175713 -0.135319 0.037888 -0.064045 0.022247 -0.123574 0.218117 -0.075672 0.057486
GlobalSpecies0101 0.087171 -0.005807 0.057388 0.001782 -0.075788 -0.063445 0.013871 0.072727 -0.074382 -0.009702 0.038483 -0.052687 -0.029497 0.065989 0.083955 0.318552 0.105646 0.102325 0.107572 0.150199 -0.091731 0.126525 0.104300 0.019864 -0.034062 -0.054730 -0.044597 -0.015460 0.299697 -0.142248 0.070548 0.035797 -0.063227 -0.138015 -0.124432 0.023993 -0.059457 -0.023599 0.141603 0.080189 -0.073027 -0.050210 0.176391 -0.010050 -0.031536 0.050034 -0.010442 -0.060970 -0.039473 -0.001738 0.059979 0.216688 0.048185 0.128741 -0.110550 0.015003 0.063728 0.122656 0.002342 -0.129642 -0.081375 -0.109977 0.149878 -0.035884 -0.009513 0.035680 0.193932 0.106037 -0.150506 0.127393 -0.020815 -0.052597 -0.055858 0.180195 0.134420 0.091344 0.172735 -0.007468 -0.090210 -0.137093 0.043486 -0.066450 0.083919 -0.003775 0.101522 -0.214351 -0.083455 -0.102074 0.059188 0.034618 0.198593 -0.016568 -0.092049 -0.094720 0.066924 0.227463 0.106339 -0.026130 -0.000267 0.167791
GlobalSpecies0102 0.208905 0.107803 -0.130461 0.140625 0.155701 -0.166709 0.028928 -0.031554 -0.259680 -0.110601 0.086176 0.212146 -0.061374 -0.015833 -0.067056 -0.034451 0.129717 0.134852 -0.017537 0.007825 0.093590 0.154142 -0.083941 -0.012558 0.010422 -0.062660 -0.162061 0.111931 0.169737 -0.195552 -0.029033 0.100070 0.009565 -0.072869 -0.166113 0.128904 0.017369 -0.086350 0.100058 0.088487 0.223404 -0.026960 0.096532 0.050371 0.003347 0.169972 -0.264664 0.089037 -0.032364 -0.064038 0.104605 0.146422 -0.095289 0.013986 0.180248 -0.099098 -0.189366 0.088100 0.153072 -0.005021 -0.033641 -0.128069 0.056196 -0.122347 0.061606 0.081599 0.130810 -0.089707 0.280221 0.009641 0.124074 -0.058263 -0.099113 0.053592 0.116842 0.066104 0.053470 -0.111385 0.108432 -0.088599 0.028153 -0.138480 -0.124243 0.027075 0.116869 -0.264625 0.108403 0.173991 0.124231 0.208700 0.199325 0.081757 -0.012144 -0.078601 0.046235 0.168356 0.269735 -0.062728 0.138642 -0.119101
GlobalSpecies0103 0.049081 -0.030643 0.060658 0.113226 0.012174 -0.008684 0.158769 -0.263335 0.044024 -0.045796 -0.071463 0.026511 0.047428 -0.047213 -0.084388 0.167503 -0.141262 0.131886 -0.184199 -0.038953 0.114769 0.210403 0.060309 0.038114 0.159065 -0.039751 -0.088190 -0.037370 -0.097701 0.178461 0.131437 -0.162202 -0.107715 0.146100 0.080550 -0.034366 0.084737 -0.162869 -0.141103 -0.032996 0.066064 0.011289 0.113674 0.184859 0.062768 0.084623 0.003575 -0.047405 -0.080661 0.002228 -0.026557 -0.089161 0.028574 0.060496 0.004959 0.017922 0.004731 0.264062 -0.147139 -0.188494 -0.124645 -0.240178 0.142925 -0.033791 -0.095111 -0.159083 0.217435 -0.222785 0.048825 -0.141338 0.100953 -0.044999 0.200741 0.132234 0.018208 0.065400 -0.159746 0.172143 -0.202288 -0.208659 0.011394 -0.059431 0.119788 0.050506 0.027081 -0.141282 0.043248 0.269883 -0.002626 -0.065844 -0.032104 0.032371 -0.138187 0.072670 0.100507 0.032509 0.033240 0.197203 -0.165806 0.076851
