GlobalSpecies0001 -0.085456 -0.014250 -0.137274 -0.084141 0.124019 0.025905 0.208629 -0.074992 -0.040103 0.313091 -0.208526 -0.020459 -0.026344 0.150813 -0.146177 -0.021889 -0.116280 0.026795 0.051985 0.095638 0.034317 -0.167073 0.019666 -0.034116 0.045434 0.073936 -0.061312 0.241592 0.169165 0.317431 0.132763 -0.230774 0.064774 0.054519 0.015456 -0.400675 -0.106020 0.026357 0.097132 -0.294310 0.126615 -0.110960 0.167677 0.230805 -0.012577 -0.111491 -0.160369 -0.070566 -0.069983 0.100583 0.154542 -0.011869 -0.122100 -0.058376 -0.188011 0.163498 -0.165537 -0.097718 0.080582 0.082653 0.116143 0.072312 0.183919 0.107963 -0.105424 0.069741 -0.076854 0.099008 0.072018 -0.317587 -0.179534 -0.127393 -0.016689 -0.264656 0.197871 0.295734 0.135555 -0.450668 0.109283 -0.167101 -0.162641 -0.189188 -0.067537 0.121740 0.149856 -0.074293 -0.061687 0.035053 0.161118 -0.154021 0.008495 0.158781 -0.077580 0.002178 -0.054637 -0.121617 -0.067672 -0.044210 -0.187527 0.071593
GlobalSpecies0002 0.034294 -0.185420 0.156802 0.019596 -0.045492 -0.193695 0.018728 -0.009553 -0.043637 -0.039817 0.002282 -0.075711 0.028053 0.194624 -0.026971 0.156880 0.037454 0.143016 0.070375 0.008093 -0.092383 -0.160943 -0.153873 -0.066187 0.154329 0.092286 0.054023 0.148538 0.141115 0.210899 -0.053329 -0.029173 0.075686 0.129044 -0.073602 -0.132572 -0.148574 -0.045671 0.069973 -0.200101 0.218588 -0.130252 -0.003221 0.057288 0.047745 0.135812 0.011809 -0.038384 -0.238784 -0.002788 -0.095725 -0.153463 0.026213 0.027150 -0.133826 0.179945 0.163504 -0.219906 -0.078572 -0.023619 -0.092060 -0.020608 0.113724 0.169729 -0.139220 0.268297 -0.063705 0.036512 0.068447 0.075836 -0.143213 0.077011 -0.028307 0.136028 0.031636 0.094022 -0.108057 -0.248631 0.241924 0.153010 -0.085672 -0.132107 0.087975 0.084192 0.196138 0.108557 0.032159 0.029785 0.054618 0.167659 0.024626 0.123535 -0.047172 -0.136064 -0.126383 -0.042825 -0.091432 0.042391 -0.123930 -0.025196
GlobalSpecies0003 0.129877 0.152820 0.048355 -0.153631 -0.631306 -0.144993 -0.175258 -0.093333 0.273194 -0.108451 0.148654 -0.199306 0.593033 -0.517461 -0.164835 0.176189 -0.219428 -0.245593 -0.230605 -0.340934 0.244693 0.510976 0.344693 -0.043342 -0.406802 -0.451593 -0.361572 -0.018273 0.053878 -0.431172 -0.030302 0.185295 -0.047674 0.087678 0.011046 0.280686 0.271474 -0.028155 -0.091468 0.212804 -0.825832 -0.557920 -0.100461 0.185839 0.016144 0.047966 -0.129055 0.273922 0.089361 -0.605046 0.272990 0.152258 -0.201956 -0.087424 0.241715 -0.162817 0.345259 0.089591 0.297086 -0.145809 -0.283470 0.470900 0.010839 -0.469134 -0.000629 -0.320672 -0.131671 -0.039047 0.368360 0.406683 0.482562 -0.202111 0.667722 -0.060713 0.016678 0.213471 -0.308786 0.458236 0.040089 0.432325 0.545105 -0.430324 -0.359597 -0.294293 -0.198775 0.107013 0.516035 -0.482797 0.348704 0.415035 0.168916 0.064435 0.182638 0.147004 0.707853 -0.390553 -0.093854 -0.153441 0.517320 -0.382489
GlobalSpecies0004 0.212881 0.141265 0.102318 -0.041620 -0.083671 -0.128834 0.086820 -0.152438 -0.054690 0.071934 0.105607 0.266882 0.163336 -0.060180 0.076546 -0.175936 -0.022512 -0.337982 -0.034932 -0.163714 0.130951 -0.095293 0.091973 0.193628 0.055127 -0.213821 0.131095 -0.114402 -0.157773 -0.249211 0.015630 -0.179113 -0.150542 0.112213 -0.166455 0.199844 -0.169772 -0.020543 -0.055104 0.103090 0.281169 -0.020111 0.105771 -0.173572 0.176967 -0.180232 -0.160495 0.220535 0.136049 0.061634 -0.092146 -0.254121 0.350986 0.300400 -0.105854 -0.074224 0.101155 -0.025892 -0.222508 -0.058947 -0.016392 -0.189993 0.008338 0.104966 -0.240916 -0.175691 0.082505 -0.028487 -0.188382 -0.037496 0.178085 0.196916 0.097804 -0.120124 -0.139398 0.035598 -0.263816 0.138882 -0.008536 0.137443 0.312981 -0.070622 -0.242960 -0.066544 -0.094267 0.051755 -0.022975 -0.026205 0.100218 0.139594 -0.015593 0.046589 0.051828 0.043770 0.049175 -0.061332 0.294756 0.080505 0.013478 -0.235553
GlobalSpecies0005 -0.092676 -0.187881 -0.368053 -0.159820 0.020012 0.063296 -0.173183 0.072657 0.066911 -0.074708 0.042846 0.063603 -0.184300 0.056812 0.004126 -0.089303 0.166075 -0.177007 -0.194097 -0.137503 -0.198774 0.280706 0.042669 -0.004216 0.099187 0.114353 0.204146 0.013495 -0.063249 -0.160876 -0.071958 0.077398 -0.158327 -0.131645 0.247456 0.016691 0.037090 -0.003724 0.030469 0.138914 -0.042646 -0.168756 -0.138329 0.006008 0.121802 -0.084517 -0.078457 -0.294031 -0.058056 -0.169188 -0.111325 0.224827 0.302195 -0.171393 -0.118169 -0.114109 -0.000885 -0.157812 0.100588 0.183324 -0.134831 0.047818 -0.258174 0.029327 0.026286 0.164642 -0.008308 0.292718 -0.012097 -0.173988 0.030120 0.052281 -0.054798 -0.057916 -0.196567 0.143150 0.168849 -0.073850 -0.148281 -0.073885 -0.115363 -0.237166 0.104464 0.133315 0.056723 0.422782 0.174294 -0.168326 -0.098420 0.352345 0.252756 0.076821 -0.112304 -0.039984 -0.258920 -0.102118 0.089357 -0.393499 0.172088 0.182374
GlobalSpecies0006 -0.271103 0.093530 -0.231805 -0.156760 -0.109413 0.076222 -0.118367 -0.087291 -0.272775 -0.511572 -0.177158 0.006419 -0.123549 -0.441174 0.349399 -0.134933 0.089277 -0.328635 -0.172373 -0.174740 -0.075662 0.418586 0.117353 0.038366 0.002036 0.013801 0.040595 -0.180546 -0.198768 -0.408445 -0.044738 0.152118 0.005747 -0.130004 0.142052 0.216045 0.105876 -0.026378 0.049504 0.325912 -0.339372 -0.076784 -0.294926 -0.410396 -0.037903 0.149969 0.186038 -0.302333 0.008420 0.031471 -0.091037 0.203113 0.245080 -0.111829 -0.163090 -0.073945 0.138216 -0.008846 0.239039 0.250442 -0.253758 -0.198878 -0.340814 -0.146807 0.135541 0.029599 0.171125 0.470764 -0.183087 -0.083382 0.016314 -0.174735 0.090173 -0.228372 -0.179015 -0.043641 0.127611 0.029436 -0.238701 -0.184190 -0.044572 -0.200247 -0.028662 0.155853 -0.181055 0.259014 0.311836 -0.232765 -0.226603 0.294738 0.347870 -0.116464 -0.094396 -0.033233 -0.066868 0.042988 0.169550 -0.554839 0.087078 0.228630
GlobalSpecies0007 0.016855 -0.024876 0.194954 -0.189298 0.020045 0.180453 0.117577 -0.225276 -0.187612 -0.213119 0.261796 -0.030274 0.020438 -0.247427 0.126126 -0.118599 0.170538 -0.308873 -0.090764 -0.131946 0.250658 0.085560 0.360179 -0.019786 0.095019 0.204449 -0.162350 0.013485 -0.333441 -0.355869 -0.056788 0.000404 -0.409616 -0.281524 -0.255493 -0.154687 0.115845 -0.018035 -0.275656 0.404611 -0.128941 -0.024726 0.101774 -0.132187 0.031221 -0.067376 0.014670 0.348649 0.380687 -0.130278 0.110990 0.165472 0.449608 -0.189651 -0.108724 -0.219890 -0.304487 -0.238909 0.206657 -0.060534 0.122501 0.411140 -0.255869 -0.017718 -0.323067 -0.102857 0.276712 0.174045 -0.092811 0.203503 0.128818 -0.108442 0.096310 -0.208469 0.126150 -0.074731 -0.124415 0.201115 -0.000339 0.184668 -0.176985 0.292808 -0.340756 -0.236648 -0.144701 -0.352803 0.076425 -0.143201 -0.068489 -0.167025 0.173121 -0.158923 0.252060 -0.072870 0.081548 0.014399 0.309191 0.055966 0.233582 -0.138581
GlobalSpecies0008 0.013507 -0.170875 0.019535 -0.367194 0.347534 0.182247 0.498763 0.041570 0.167524 0.147401 0.031753 -0.098313 0.095482 0.176582 -0.260138 0.337901 -0.049490 -0.024426 0.044403 0.517383 -0.182848 0.031125 -0.208252 -0.113388 -0.024516 0.343782 -0.137641 0.300049 0.301458 0.157664 0.165616 0.032503 0.025126 0.008103 -0.004013 -0.322080 -0.047220 0.068372 0.212729 -0.394673 0.540195 -0.042034 0.237488 -0.136950 -0.169903 0.189110 -0.034052 0.063111 0.136628 0.024629 0.123153 -0.115412 -0.271770 0.128480 -0.738968 -0.118199 -0.311956 -0.533443 -0.054185 0.195580 -0.011588 -0.233090 0.091105 0.351828 0.037405 0.104130 -0.292530 0.026164 0.073031 0.054062 0.034134 -0.128187 0.132023 -0.278040 0.173473 0.041745 0.230266 -0.398119 0.001629 0.223202 -0.483192 -0.201062 0.090284 0.184440 0.486065 0.004852 0.030476 0.017321 0.212980 -0.316037 0.108634 -0.168912 0.161244 0.043551 -0.151153 0.146196 -0.022554 0.312305 -0.283788 0.053931
GlobalSpecies0009 0.018025 0.048492 0.285443 -0.471875 -0.033792 0.311702 -0.028797 0.284746 0.135948 -0.180599 -0.057596 0.050515 0.236876 -0.502988 0.011411 -0.104589 -0.151601 -0.181937 -0.003135 -0.358765 0.398061 0.367340 0.021374 -0.107557 -0.105418 -0.509198 0.023615 -0.226675 0.172522 -0.444268 -0.260472 -0.088788 0.071732 -0.093470 0.162188 0.141454 0.186883 -0.328195 0.041164 -0.273160 -0.405610 -0.007586 0.049966 -0.389889 0.283066 -0.042720 -0.497608 -0.017284 -0.040276 0.059850 -0.123125 0.145787 -0.141381 0.111103 0.491238 0.138369 0.167252 -0.001399 -0.131563 -0.049263 0.012929 0.270122 -0.189208 -0.274004 0.239026 -0.109618 0.188777 0.082992 0.032009 -0.111212 0.112582 -0.339257 -0.260733 0.023300 0.258372 -0.069835 -0.218560 0.686546 -0.156037 0.176103 0.099885 0.424129 0.058426 0.133614 -0.312903 -0.286802 0.187790 0.154392 -0.052948 0.481274 -0.075079 0.138856 0.190747 -0.147832 0.174101 0.053622 -0.304948 0.019423 0.347230 0.093358
GlobalSpecies0010 0.276460 0.114889 -0.046748 0.106217 -0.265760 0.068825 -0.082028 -0.009763 0.189315 -0.014689 -0.162735 0.064510 0.012625 0.112272 -0.070758 0.110310 -0.003620 -0.037642 0.132996 0.066313 0.080584 0.055320 0.020220 0.145836 0.142020 0.061504 0.203923 -0.155590 -0.166403 0.092390 -0.091780 0.028207 -0.182298 0.062330 0.006631 0.113868 0.140052 0.072123 0.105789 -0.056396 -0.003931 0.133769 -0.066818 0.136961 -0.023476 -0.100006 0.082408 0.027235 -0.064651 0.328962 0.120970 -0.041162 0.060846 0.099314 -0.128652 -0.047099 -0.001366 0.005196 -0.066976 -0.230374 0.254797 -0.038211 0.077953 -0.038233 0.160230 -0.099911 -0.110675 0.201036 0.134336 -0.214912 0.000039 -0.088032 -0.237341 -0.202945 -0.117869 0.009393 -0.169911 -0.159286 0.090549 -0.222227 -0.165480 0.036355 0.010550 -0.008835 -0.237049 -0.159543 0.003993 0.132186 -0.120363 0.114318 -0.038151 -0.108118 0.018788 0.028226 0.000792 0.099688 0.072333 0.149409 -0.170291 0.108920
GlobalSpecies0011 0.100784 -0.136863 -0.109109 0.160652 -0.845706 -0.339421 -0.426912 0.434672 0.311739 -0.299522 0.961013 -0.391403 0.024169 -0.461767 0.306828 -0.135949 0.224617 0.267391 -0.444580 0.212537 -0.087174 -0.247277 -0.286687 0.339564 0.015808 -0.015457 -0.395968 -0.714271 0.285213 -0.014788 0.136753 -0.324053 0.483946 -0.265426 -0.182518 0.135842 0.107827 0.298366 -0.222582 0.584427 -0.417924 -0.061651 -0.112545 0.161399 -0.272317 0.259045 0.169265 0.217656 0.431236 -0.596130 0.296638 0.432295 0.274828 0.108486 0.118600 -0.163787 0.057043 0.571260 0.271986 -0.197950 -0.897054 -0.085722 -0.219353 -0.198344 0.298133 -0.503371 -0.011524 -0.153310 -0.616921 0.418166 0.569794 0.576301 0.943800 0.051306 -0.240681 -0.061963 0.308894 0.776716 -0.337797 -0.328073 0.390769 -0.136388 -0.722558 -0.141967 -0.110270 0.086034 -0.234315 -0.385284 0.356412 -0.187622 -0.257142 -0.043341 0.155493 0.005465 0.489473 -0.116967 -0.157998 0.056179 0.470527 -0.271952
GlobalSpecies0012 -0.529522 0.318155 0.292536 -0.312936 -0.031270 0.346157 -0.234506 -0.094125 -0.364885 -0.483975 0.456012 -0.026177 0.137606 -0.329720 0.027241 -0.036057 0.276602 -0.092808 -0.104901 -0.010971 -0.095876 0.025559 0.296858 -0.334859 -0.259781 -0.431187 -0.230202 -0.432579 -0.163779 -0.209020 0.105748 -0.309590 -0.133394 -0.186914 -0.199424 0.527888 -0.223282 -0.086046 -0.069172 0.621272 -0.597547 0.253481 -0.147547 -0.209847 -0.531626 0.202647 -0.204380 -0.222837 -0.244898 -0.202290 0.084805 -0.085152 0.118881 -0.316400 0.216422 0.268506 -0.048324 0.168446 0.591711 -0.081699 -0.381557 0.241598 -0.370341 -0.697089 0.277882 -0.173772 0.201651 0.350446 0.358589 0.628595 -0.124898 -0.045794 0.229440 0.114402 0.084770 -0.247662 0.020991 0.646208 0.019940 0.131750 0.272366 0.293057 -0.416641 0.184214 -0.113722 -0.010450 0.091735 0.101383 0.029083 -0.224852 -0.479268 -0.221577 0.385600 -0.095155 0.258072 0.261676 0.099485 -0.208802 0.393645 -0.283110
GlobalSpecies0013 -0.130724 -0.076852 0.155545 -0.076334 -0.058538 0.104180 0.117911 0.040120 -0.005472 0.018990 0.041307 -0.093766 0.030912 -0.075277 -0.036445 -0.063569 -0.082717 0.073548 0.052794 -0.167070 0.336094 -0.095135 0.005062 0.094872 0.197732 0.281344 -0.115358 -0.003192 -0.009667 -0.085607 -0.051941 0.059984 0.072992 0.008763 -0.078466 0.008440 -0.074158 0.009443 0.200086 -0.077983 0.164021 0.010980 -0.087045 0.066190 -0.110569 -0.280658 -0.009294 0.388811 0.152310 -0.187352 0.007605 0.017040 0.066888 0.065933 -0.188022 0.153592 -0.024655 -0.068672 0.077309 -0.114956 -0.164867 0.049648 0.026926 -0.071711 -0.013397 0.069304 0.160861 -0.057140 0.107690 -0.044874 -0.050062 -0.000757 0.178966 0.185448 0.008580 -0.158164 -0.057190 0.053325 0.101455 0.161236 -0.163095 -0.078377 -0.069285 -0.007957 0.026008 -0.088642 0.041358 -0.010962 0.089454 -0.103480 0.038079 0.055308 0.079179 -0.085973 -0.039953 0.081385 0.006520 -0.010984 -0.004786 0.141433
GlobalSpecies0014 0.349413 -0.051249 0.081233 0.058128 -0.069290 0.142397 -0.214362 -0.084800 -0.179980 -0.315150 0.148757 0.118017 -0.143505 0.056543 0.106917 0.395907 0.075435 0.003436 0.080266 -0.164015 -0.043414 -0.071079 -0.112398 0.034132 -0.132362 -0.036006 -0.105772 -0.029353 0.137110 -0.267157 0.011504 0.103109 -0.030271 -0.068313 -0.199275 0.056088 -0.041712 0.096056 -0.249563 0.053408 -0.270822 -0.334261 -0.298439 0.245988 0.356814 -0.167632 0.143261 -0.031206 -0.037391 -0.298445 -0.198446 -0.116222 -0.184831 -0.141021 0.055494 0.144647 0.288372 -0.058205 0.000102 0.064915 -0.130718 -0.319957 0.066972 0.038735 0.059514 -0.212683 0.364877 -0.193529 -0.349368 -0.087082 -0.173250 0.153522 -0.263994 -0.062779 0.240732 0.175920 -0.118178 0.647394 -0.088793 -0.010693 0.227050 -0.061245 -0.120063 -0.096348 0.310968 -0.002296 0.020058 0.353010 -0.049597 0.151961 -0.114168 -0.099293 -0.001045 0.095088 -0.087148 -0.063046 0.132149 -0.203327 0.228186 -0.166190
GlobalSpecies0015 0.200043 -0.086537 0.127646 0.190182 0.019274 0.067667 0.000779 -0.157427 0.005481 -0.140138 -0.150004 0.088415 -0.027484 0.340666 -0.238714 0.345378 0.166501 0.128516 -0.006986 0.136021 -0.353248 -0.074763 -0.123304 -0.086844 -0.033492 0.079782 -0.224008 0.187734 0.254056 0.163939 -0.060141 0.058077 0.091962 0.089524 -0.243732 -0.370181 -0.102427 0.017415 -0.021640 -0.299731 0.152592 -0.301233 -0.064538 0.201254 0.150462 0.088559 0.057186 -0.041278 0.004311 0.016060 -0.225071 -0.045709 -0.345694 -0.265225 -0.120256 0.126503 0.086978 -0.322482 -0.100552 -0.057324 0.076059 -0.013569 0.265389 0.388138 0.133427 -0.041538 -0.008495 -0.093466 -0.098283 -0.101131 -0.338613 0.010631 -0.302244 -0.134129 0.165981 0.153975 0.227943 -0.154357 -0.041934 -0.055799 -0.169428 -0.148527 0.255059 0.094228 0.582650 0.209886 -0.198874 0.304670 -0.016843 -0.042435 -0.149280 0.034815 0.073278 0.198681 -0.185361 0.051422 0.025264 -0.210780 -0.023742 -0.085954
GlobalSpecies0016 0.031778 -0.032048 -0.083675 -0.019935 -0.011938 -0.008474 -0.039267 0.124316 -0.220978 -0.059665 -0.097017 0.033697 -0.076300 0.079605 0.288457 -0.061944 -0.003883 0.053118 -0.052308 -0.109217 -0.158787 0.019376 0.004263 0.081961 0.019756 -0.111110 0.210492 0.053577 0.009675 -0.077433 -0.115622 0.063903 -0.155091 0.022079 -0.090254 0.098392 0.078284 -0.036108 0.063881 -0.002039 0.082370 0.050314 0.010530 0.122836 0.048192 0.074086 0.062775 -0.178167 -0.033138 0.072852 0.049352 -0.109307 0.155055 0.046307 -0.089851 -0.111292 -0.015028 -0.074438 -0.183382 -0.021546 0.028618 0.034960 0.029471 -0.019319 -0.048428 0.154382 0.014869 0.107340 0.030660 -0.105363 -0.164373 0.121073 -0.028363 0.010883 -0.108521 -0.042463 -0.160141 -0.045596 0.157615 0.141575 0.113692 -0.152830 0.140978 0.078175 -0.010787 0.208241 0.146241 -0.122815 -0.208791 0.289457 0.178073 -0.000118 -0.223074 -0.008250 -0.092713 -0.094206 0.024857 0.058939 -0.287743 0.067085
GlobalSpecies0017 0.112497 -0.149650 -0.084929 0.009124 0.139088 0.109012 0.117387 -0.002396 -0.023460 0.015054 -0.081471 0.071336 0.018112 0.253622 -0.038662 0.136013 0.023079 -0.041225 0.082946 0.143359 -0.369327 -0.021403 -0.133053 0.012678 0.017483 0.158684 0.000054 0.269483 0.152134 0.206105 -0.042863 0.114643 0.050552 -0.015671 -0.073700 -0.134100 -0.062612 0.006293 0.101508 -0.328571 0.285424 -0.134603 0.092500 -0.017965 0.081985 0.073029 0.080150 -0.018548 -0.035293 0.082980 -0.003569 -0.180422 -0.015581 0.094760 -0.318653 -0.083071 -0.031627 -0.271626 -0.046064 -0.011807 -0.022174 -0.087385 0.088278 0.119285 -0.023056 0.110922 -0.071623 -0.020705 0.180833 0.126027 -0.158112 -0.028541 -0.150025 -0.149010 -0.016468 0.070022 0.214444 -0.339817 0.145473 0.049457 -0.213518 -0.159063 0.219964 0.055068 0.192050 0.139233 -0.152289 -0.022715 -0.096800 -0.121928 0.059412 0.000984 0.006216 0.080196 -0.181886 0.202272 -0.039038 0.188939 -0.177268 0.203032
GlobalSpecies0018 0.156076 -0.048417 -0.131521 -0.283873 -0.018235 0.039662 0.094920 0.023361 -0.025248 -0.087813 0.414074 -0.142514 -0.000993 -0.093318 -0.102423 0.096246 -0.009560 0.298416 0.023013 0.269431 0.000732 -0.360629 0.055956 -0.160026 -0.047228 0.109759 -0.059611 0.024863 -0.193842 -0.321131 -0.117392 0.055659 -0.263859 0.086169 0.007403 -0.035919 0.032297 0.010335 -0.121905 0.010642 -0.060601 0.042610 -0.161765 -0.052755 -0.051448 0.002778 0.249632 0.443005 -0.042634 -0.010758 0.032875 -0.170465 -0.085867 -0.149718 -0.117492 -0.156423 0.153548 0.014893 0.075305 -0.042495 -0.146718 -0.145195 -0.271704 -0.148547 -0.197057 0.021774 0.266398 0.241805 0.203372 0.127883 0.448679 0.157344 0.033449 -0.073044 -0.089149 -0.191179 -0.048136 0.258523 -0.045072 0.298622 0.165753 0.102599 -0.449826 0.129271 -0.178689 -0.183860 0.112786 -0.215385 -0.064933 0.183976 0.217492 -0.067771 0.115179 -0.349183 -0.013810 -0.196271 0.327145 0.086156 0.221690 -0.165348
GlobalSpecies0019 0.125499 0.289280 -0.173531 -0.004515 -0.021508 0.069469 0.231590 0.092528 0.110074 0.124310 0.123723 0.220627 0.033783 0.146643 0.111535 0.018069 0.010986 -0.110519 -0.019825 0.032627 -0.043013 -0.011697 0.076603 0.170174 -0.092743 0.080320 0.237380 0.004127 -0.139544 -0.104528 -0.091229 0.279505 -0.036624 -0.169519 -0.135177 0.209145 0.117235 -0.016747 -0.003102 -0.060181 0.170737 0.247734 0.024327 0.096835 -0.073619 -0.194863 -0.000966 0.043387 0.185268 0.171115 -0.173295 -0.187565 0.146350 -0.057645 -0.303584 -0.155924 -0.229273 -0.001626 -0.072990 0.010701 0.124166 -0.136646 -0.074637 0.109791 -0.057090 -0.027326 0.107878 0.089979 -0.123190 -0.047917 -0.043016 0.176154 0.030608 -0.242293 -0.278483 -0.149343 -0.111605 0.028329 -0.177036 0.084856 -0.233016 -0.025225 0.031466 -0.071404 -0.204528 -0.049868 0.152733 0.172077 0.050260 -0.217928 0.025002 -0.183125 0.115475 -0.107465 0.175738 0.082997 0.025132 0.042364 -0.151063 -0.052231
GlobalSpecies0020 0.128681 0.419599 -0.241815 0.101052 -0.086761 -0.130110 0.000023 0.243862 -0.133882 0.093785 0.088611 -0.345531 -0.218960 -0.234779 -0.017192 -0.226975 -0.169048 0.017862 -0.178456 -0.098979 0.517569 -0.181287 0.259167 -0.242132 -0.073708 0.091591 0.083774 -0.091387 0.235630 -0.317891 0.091638 0.173798 -0.059089 -0.176502 -0.013969 0.258640 -0.025849 0.074939 -0.054942 0.322508 -0.335049 0.285921 0.155180 0.165067 0.150065 0.071848 -0.027875 0.214388 0.061434 0.155805 -0.038625 0.113689 0.144718 -0.039472 -0.214215 0.010097 0.141627 0.578881 0.158180 -0.178281 -0.050841 0.212308 -0.268688 -0.150371 0.049740 0.093549 0.178035 -0.307112 -0.045192 0.353196 0.205483 0.104838 0.186029 0.272617 -0.246320 -0.042852 0.044976 0.466337 -0.287738 -0.319466 0.326342 -0.095703 -0.086672 -0.426600 -0.333886 -0.211408 0.066280 0.228447 -0.081695 -0.212728 -0.094120 -0.189492 -0.064895 -0.163072 0.155239 -0.301767 0.009261 0.268983 0.051288 -0.083132
GlobalSpecies0021 -0.275827 -0.122729 -0.118468 -0.046244 0.073524 -0.013084 0.031953 -0.006957 -0.006819 0.135245 -0.155059 0.049362 -0.076735 0.137133 0.011759 0.176323 -0.086983 0.070646 -0.096756 0.096885 -0.352572 0.098670 -0.159361 0.089442 0.039249 0.044976 0.164084 0.225880 0.188544 0.254479 -0.048032 -0.013618 0.019150 0.159254 0.028929 -0.121191 -0.106372 -0.059588 0.156374 -0.189300 0.263555 -0.055752 0.158810 -0.005494 0.021633 0.182625 -0.132106 -0.188894 -0.146785 0.040944 -0.000525 0.032090 0.159026 0.123248 -0.247293 -0.190450 -0.033371 -0.346619 -0.046359 0.126415 -0.195778 -0.012307 0.095623 0.198509 -0.009413 0.212535 -0.030585 0.100692 -0.031194 -0.092678 -0.230849 -0.083922 -0.036966 -0.114189 0.030628 0.169803 0.198998 -0.435055 0.120302 0.053718 -0.138768 -0.261488 0.263571 0.178400 0.238656 0.288938 0.019954 -0.133484 -0.148708 0.158713 0.128040 0.035138 -0.057406 -0.029358 -0.329645 0.056810 -0.014139 0.088868 -0.185874 0.134491
GlobalSpecies0022 0.027561 -0.046309 -0.103199 0.020127 -0.150650 0.075821 0.102005 -0.032069 0.043743 0.180746 -0.159800 0.116161 -0.061316 0.187567 -0.014126 0.034913 0.087248 -0.045222 0.053938 -0.013626 0.021467 0.110272 -0.075793 0.065440 0.239726 0.029050 0.099751 -0.027603 -0.062884 0.290563 0.063968 -0.145875 0.042777 0.012068 -0.031125 -0.134046 -0.015317 0.063873 0.135089 -0.234099 0.212167 0.012272 0.011276 0.163377 -0.159355 -0.079673 0.123625 -0.066261 -0.005523 0.197886 0.147289 -0.048583 -0.075001 0.143644 -0.190119 0.060105 -0.249861 -0.285579 -0.091867 -0.121257 0.165141 0.035412 0.096170 0.149568 -0.022516 0.029345 -0.052685 -0.077544 0.212272 -0.087159 -0.094978 -0.003253 -0.062511 -0.177013 0.011894 0.065178 -0.024882 -0.353628 0.139372 -0.162298 -0.215213 0.035018 0.038731 0.142251 0.004272 -0.085769 -0.206021 0.076935 0.008018 -0.117517 -0.153563 -0.049070 -0.013394 0.191358 0.001894 0.131832 -0.078957 -0.015477 -0.183624 0.232269
GlobalSpecies0023 0.241314 0.119253 0.043499 0.740833 -0.668170 -0.303785 -0.429926 -0.206560 0.320479 -0.486045 0.453664 -0.789227 0.206430 -0.454942 -0.514384 -0.327337 -0.524568 -0.310781 0.425859 0.369527 0.194076 0.526700 0.015734 -0.466190 0.348432 -0.119169 -0.479639 -0.030104 -0.122824 -0.318500 -0.252981 0.142026 -0.205415 0.056704 0.350206 0.686639 0.092926 -0.151610 -1.159621 0.724080 -0.569330 0.453324 -0.034832 0.243222 -0.251764 1.334279 0.491008 -0.473465 -0.287395 -0.378503 0.046074 -0.055370 0.469155 -0.588147 0.682542 0.025383 -0.060787 0.802778 0.373989 0.108472 -0.627763 -0.125694 -0.822626 0.026930 0.337703 0.025416 -0.389223 -0.227746 -0.806850 0.518147 0.588361 0.166464 0.856266 0.232198 -0.455076 -0.141206 0.171812 0.896966 -0.259786 0.280958 0.017901 -0.119766 -0.234020 -0.457438 0.298201 0.505901 0.058185 -0.079672 0.248231 -0.241857 0.306591 -0.125901 0.389148 0.313529 0.362558 -0.011313 0.257461 0.110925 1.044186 -0.177206
GlobalSpecies0024 -0.188963 0.088204 -0.045762 -0.256809 0.012720 -0.072187 0.130467 0.115381 0.129134 -0.176604 0.353514 0.014094 -0.250883 -0.203594 -0.042779 -0.067225 -0.306981 0.008659 -0.079475 0.004158 0.276183 -0.278499 0.342864 -0.075677 0.081128 0.298093 0.016898 0.038202 -0.274359 -0.290897 0.288565 -0.035300 0.001852 -0.071228 -0.085435 -0.004334 -0.126332 -0.135606 0.016141 0.209250 -0.168234 -0.146274 -0.243290 -0.060271 0.109875 0.033421 0.133156 0.308190 0.122032 -0.260984 -0.132900 -0.050283 -0.078751 -0.276990 -0.149595 -0.091448 -0.123668 0.203191 0.285253 -0.096444 0.087728 -0.189576 -0.416141 -0.173136 -0.118629 0.111110 0.041546 -0.356771 -0.013558 0.315941 0.147308 -0.194396 0.170262 0.175466 -0.123056 -0.272631 -0.131190 0.510488 -0.140869 0.431515 0.137504 0.154027 -0.206551 -0.036445 -0.241616 -0.120392 0.093189 -0.286948 0.156203 0.016519 -0.001541 -0.126518 0.225848 -0.198801 0.084543 -0.012942 0.186576 0.064934 0.104016 -0.137081
GlobalSpecies0025 0.104783 -0.004090 0.067365 -0.110134 -0.046987 0.058056 -0.135166 -0.102461 0.037720 -0.168717 0.123914 -0.150248 0.269708 -0.237439 0.032286 0.024145 0.461434 -0.189163 -0.152028 0.004196 0.027808 -0.004647 0.094956 -0.153388 -0.087582 -0.470688 -0.281016 -0.098650 -0.299016 -0.173740 -0.140617 -0.054761 0.134726 -0.206363 0.096117 0.221953 -0.085070 0.196040 -0.058122 0.145950 -0.498409 -0.150497 -0.200551 0.010762 0.235341 0.139437 0.111493 0.298403 -0.143755 -0.182608 -0.091272 -0.246165 -0.189504 -0.098953 0.378531 -0.231599 0.269310 0.165157 -0.099734 -0.086125 -0.335954 -0.023609 -0.130852 -0.125189 0.052371 -0.077964 0.105459 0.067877 -0.020662 0.266166 0.159881 0.193188 0.192816 0.162703 0.062523 0.028365 -0.308623 0.464145 0.039261 0.030375 0.296867 0.176069 -0.231805 -0.050068 -0.126332 -0.024505 0.121568 0.027609 0.047458 0.059353 -0.081695 -0.090104 -0.059645 -0.116276 0.309037 -0.351304 0.044559 -0.249093 0.306738 -0.052272
GlobalSpecies0026 -0.112797 -0.001528 0.037867 0.121894 -0.059778 0.035718 0.087912 -0.100349 -0.066095 0.228430 -0.111820 0.089246 0.039339 0.216823 0.076458 -0.084269 0.019815 0.005592 -0.106369 0.062132 0.122758 0.089850 -0.113394 0.191168 0.152321 -0.020711 0.126402 0.122491 -0.062653 0.301109 0.004346 -0.088401 -0.020468 -0.055620 -0.119641 -0.056577 -0.068297 0.070494 0.130262 -0.125407 0.109015 0.139717 0.037265 0.132340 -0.315525 -0.169446 -0.019924 -0.000442 0.046036 0.269683 0.127090 -0.100520 0.142270 -0.134529 -0.106753 -0.016176 -0.311678 -0.176753 -0.133357 -0.075924 0.253564 0.080688 0.190810 0.229181 -0.027459 -0.028485 0.082456 0.055995 0.013873 -0.281632 -0.166154 0.175610 -0.042521 -0.089262 -0.080364 -0.030997 -0.229204 -0.172852 0.240674 -0.117102 -0.216098 -0.057170 -0.088022 0.016994 -0.044880 -0.086005 -0.059805 0.140753 -0.076987 -0.076252 -0.072867 0.020060 -0.013627 0.161132 0.022690 -0.026128 0.034546 0.006448 -0.158424 0.095111
GlobalSpecies0027 -0.044783 -0.042613 -0.148103 0.024176 0.160848 0.143601 0.166311 -0.108828 -0.033374 0.057204 -0.152063 0.046808 -0.055579 0.139059 -0.040039 0.014504 0.034968 -0.102386 0.073302 0.020354 -0.010915 0.041062 -0.122277 0.031489 0.112287 0.196214 0.079468 0.117508 -0.026230 0.069042 0.008913 -0.020885 -0.035130 -0.055984 -0.025209 -0.132892 0.000871 -0.036268 0.096679 -0.238111 0.302632 -0.018620 -0.001454 -0.044648 -0.005409 -0.205626 0.172877 0.058759 0.130383 0.101700 0.062006 0.017905 -0.006326 0.009984 -0.222543 -0.114815 -0.136592 -0.131368 -0.001370 0.096530 0.028925 -0.107975 0.086377 0.029038 -0.044608 0.038753 0.024538 -0.087001 0.192855 0.014109 -0.044795 -0.145283 0.013139 -0.122788 -0.026780 0.100714 0.109437 -0.236616 0.080624 0.152604 -0.184580 -0.077780 0.013465 0.042483 0.080420 0.084809 -0.123831 -0.070674 -0.023649 -0.164568 0.162711 -0.076992 -0.017602 0.044952 -0.153737 0.151663 0.117409 0.048947 -0.141706 0.208280
GlobalSpecies0028 0.095725 -0.105857 -0.101622 -0.008377 0.143497 0.289348 -0.063587 -0.131978 0.083852 0.064389 -0.047498 0.053925 -0.074176 0.076168 -0.115898 0.012279 0.180648 -0.084465 0.025697 0.093722 -0.019826 -0.127815 -0.160728 -0.081847 0.102537 0.044802 0.123769 0.103992 0.084222 0.059660 -0.136588 0.063293 -0.022631 -0.095487 0.091829 0.059468 0.002406 0.052035 0.100739 -0.136265 0.238275 0.066272 0.020388 -0.065441 0.101013 -0.209878 0.152952 -0.028004 0.077311 -0.019425 -0.060631 -0.084762 0.144109 0.126476 -0.077982 -0.096991 -0.059200 -0.143988 -0.008894 0.076155 0.011050 -0.105196 0.051008 -0.094769 0.094425 0.034227 -0.061272 0.132494 0.096708 0.063654 0.035257 -0.150728 -0.131184 -0.030502 0.033118 0.018576 0.119691 -0.129397 -0.026045 -0.049901 -0.096071 0.095159 0.067375 0.075385 -0.101685 0.136718 0.052950 0.021148 -0.153864 -0.052958 0.015643 -0.037560 -0.117407 -0.179744 -0.115221 0.103069 -0.093085 0.188870 -0.047684 0.245245
GlobalSpecies0029 -0.284164 -0.127560 -0.165263 0.024293 0.125646 0.105200 0.058613 -0.078993 -0.061232 0.189757 -0.131063 0.033148 -0.182199 0.112715 -0.005974 0.036476 0.133849 -0.033110 -0.136286 0.027469 -0.051480 0.177229 -0.185913 0.014459 0.211927 0.067425 0.119728 0.261100 0.055309 0.274112 -0.077946 -0.093192 0.026825 0.019811 0.029046 -0.149697 -0.156604 0.076427 0.151736 -0.201975 0.151240 -0.077211 0.003362 0.036757 -0.127311 -0.220531 -0.034654 -0.101433 0.025479 0.078534 0.041349 0.020128 0.154848 -0.041516 -0.023837 -0.100105 -0.154975 -0.269781 -0.015246 0.104070 -0.113946 0.022628 0.056781 0.117456 -0.068210 0.128840 0.226090 0.058591 0.103494 -0.232818 -0.107908 0.031030 0.032926 -0.134540 -0.016513 0.150173 0.209232 -0.362240 0.070292 -0.014278 -0.180264 -0.162572 0.049861 0.030214 0.209028 0.149750 -0.097193 -0.100721 -0.048665 0.067819 0.154239 -0.030054 -0.114334 0.092212 -0.262303 0.077314 0.036624 -0.097717 0.019247 0.262764
GlobalSpecies0030 0.124522 -0.173113 -0.112588 0.062225 -0.206640 0.185987 0.023950 -0.002181 0.301375 0.186286 -0.219571 0.090963 -0.283094 0.132946 -0.144007 0.280387 0.035647 0.003769 0.152290 0.159509 -0.218714 0.095680 -0.141163 -0.021956 0.156780 0.255687 -0.075614 -0.011460 -0.076421 0.387897 0.187491 -0.113541 -0.071018 0.181384 0.106628 -0.102458 0.025730 0.092951 0.072855 -0.236057 0.199751 -0.026506 0.110543 0.108156 -0.111145 0.140808 0.203728 -0.097099 -0.256594 0.204092 0.221255 -0.030284 -0.233080 0.196907 -0.412175 0.036162 -0.025806 -0.467302 0.108181 0.007330 -0.005094 -0.053951 0.043106 0.142705 0.170745 -0.194816 -0.223057 -0.076984 0.233792 0.051501 -0.031123 -0.225037 -0.301080 -0.141595 0.188995 0.129402 0.168316 -0.574134 -0.051056 -0.145483 -0.224039 0.133040 0.096869 0.203569 -0.042858 -0.051609 -0.077906 0.011764 0.012715 -0.047959 -0.183012 -0.040420 0.008092 0.200098 -0.176327 0.151376 -0.075774 0.058669 -0.239703 0.295374
GlobalSpecies0031 0.055824 0.022168 0.002029 0.135415 0.010550 -0.040756 -0.039980 -0.054847 -0.129587 0.059295 -0.119244 -0.053946 0.038036 0.190793 0.154494 -0.053374 0.083244 0.055021 0.019835 -0.134651 -0.028505 -0.104436 0.032468 0.001414 0.026094 -0.055041 -0.022759 0.079334 -0.124756 0.028677 -0.017894 0.074378 0.122833 -0.086861 -0.015480 0.052095 -0.040498 0.079629 0.127467 0.093164 -0.023094 -0.039552 0.047020 0.120029 -0.079836 -0.058114 -0.025640 0.130177 0.012862 0.003303 0.107145 -0.184213 0.098204 0.104075 0.059058 0.165825 0.038319 0.119664 0.051610 -0.008220 0.080912 0.006763 0.148575 -0.029044 -0.324361 0.011538 0.073360 0.007065 0.032732 0.041643 -0.100632 0.164085 0.012987 0.192258 -0.078504 0.096541 -0.153019 -0.057627 0.232119 0.009105 0.034459 0.030283 0.127053 -0.066262 0.079475 -0.027549 -0.077446 0.055199 -0.005402 -0.097120 -0.013811 0.159369 -0.111677 0.020662 -0.011747 -0.012028 -0.016741 -0.055759 -0.108428 -0.068989
GlobalSpecies0032 0.011854 -0.134832 0.067347 -0.013241 0.041369 0.186414 -0.097927 0.102196 0.285768 0.115340 -0.130233 0.098649 0.177665 0.085462 0.099187 0.028931 0.119345 -0.103710 -0.025093 0.007583 0.237139 0.053494 -0.048326 0.258482 -0.003114 -0.242969 0.195500 0.033745 0.127847 0.144564 -0.212164 -0.129455 -0.099129 -0.110631 0.124504 0.077789 0.134113 -0.063320 0.221298 -0.123811 0.052662 0.156293 -0.134182 -0.014040 -0.062862 -0.050080 -0.223454 0.047885 0.024030 0.166704 -0.138435 0.029042 -0.073962 -0.008716 0.192529 -0.131175 -0.109222 0.079127 -0.169565 0.037967 0.146119 -0.082388 0.289656 -0.031011 0.054551 -0.015918 -0.110559 0.145663 0.058135 -0.195970 -0.055318 0.001375 -0.185752 0.110337 0.050374 -0.033632 -0.113808 0.068697 0.066126 -0.143868 -0.125331 0.278150 0.042918 0.113991 -0.033182 -0.017193 -0.029330 0.155172 -0.034735 0.098497 -0.188517 0.162907 0.008644 0.035058 0.102862 0.104457 -0.038007 -0.010406 -0.253014 -0.012273
GlobalSpecies0033 0.063664 0.333614 -0.143362 0.092111 -0.267332 0.364061 -0.145663 0.124661 0.105385 -0.018378 0.217781 0.151743 -0.122962 -0.672656 -0.014758 -0.144962 0.005204 0.107702 -0.004104 0.000557 0.312602 -0.105806 0.012888 -0.180919 -0.414284 -0.309197 0.325179 0.236319 0.176362 -0.321068 -0.426684 -0.002801 -0.132558 -0.223368 0.013956 0.484847 0.315202 -0.107544 -0.405648 -0.146255 -0.640017 0.406841 0.233875 0.276855 0.318949 0.215931 -0.160156 0.110742 0.007035 -0.455395 -0.010970 0.127287 0.123958 -0.276441 0.471171 -0.154594 0.440110 0.277466 0.064148 0.096317 0.096225 -0.043399 0.063223 -0.425980 -0.000870 -0.276643 0.179749 -0.700636 -0.457043 0.453326 0.005858 0.040924 0.090910 0.072155 -0.379532 -0.273946 0.259825 0.371438 -0.404449 -0.162859 0.588251 -0.061395 -0.075650 -0.016886 -0.024594 -0.052085 -0.368915 -0.345827 -0.159028 0.183406 0.298921 -0.510398 -0.195259 -0.050508 -0.109984 0.013134 0.372052 -0.209625 0.624377 -0.260394
GlobalSpecies0034 0.539474 0.217743 0.334662 -0.074572 -0.057001 -0.025271 -0.182326 -0.047137 0.038655 -0.135057 -0.186143 -0.159212 -0.069978 -0.488631 -0.121868 0.061415 0.138176 0.034007 -0.249297 -0.225550 -0.137234 0.174235 0.255124 0.047086 -0.098347 0.300171 -0.182321 -0.039797 -0.376645 -0.411196 0.167978 0.096478 -0.178410 0.440663 -0.033276 0.229516 0.040536 -0.087395 -0.463032 0.231980 -0.026227 0.063482 0.040203 -0.089992 0.143928 0.059114 -0.193560 0.202869 -0.214975 0.022252 0.141391 -0.160395 0.005972 -0.026440 0.335680 0.097925 0.036795 0.284692 0.013765 -0.317015 0.066083 0.137993 -0.345335 -0.528306 0.102056 -0.254534 0.122308 -0.122044 0.273241 0.229089 0.179231 -0.217282 -0.129503 0.445774 -0.083272 -0.004368 0.309425 0.591332 -0.127665 -0.411862 0.417704 -0.111822 -0.080767 -0.249000 -0.225036 0.011662 -0.271257 -0.124574 -0.131153 -0.049840 0.241053 -0.117360 0.091562 0.221978 0.296018 -0.232340 0.292619 -0.169820 0.156785 -0.260004
GlobalSpecies0035 -0.175696 -0.115736 -0.004117 -0.090923 -0.319974 -0.030699 0.157034 -0.002558 0.047071 0.164358 -0.174552 -0.121658 -0.033112 0.047122 -0.126208 0.195078 0.185619 0.369512 -0.147518 0.179170 0.032022 -0.088396 -0.240046 -0.022028 0.156861 0.293244 -0.090769 0.099176 0.136009 0.324313 0.111318 -0.116833 0.272541 0.087100 0.142701 -0.274385 -0.057883 0.018136 0.213200 -0.301142 0.261354 -0.046194 -0.127499 0.196493 -0.174817 0.072976 0.002352 0.037572 -0.023774 -0.114979 -0.017579 -0.056950 -0.241528 0.033757 -0.313214 0.310768 -0.024451 -0.427009 0.181556 -0.022768 -0.178198 -0.109875 0.140791 0.281424 0.022708 0.157190 -0.034089 0.223059 0.068066 -0.059763 -0.115859 -0.084558 0.173695 0.222518 -0.017636 0.085403 -0.044297 -0.215017 0.036150 0.115896 -0.183506 -0.088001 -0.107336 0.153602 0.120736 0.115856 0.116362 -0.112864 0.132197 -0.037995 -0.167029 0.005036 0.014081 -0.180348 -0.226850 -0.169185 -0.154269 -0.087701 -0.052962 0.029273
GlobalSpecies0036 0.018360 -0.149879 -0.130224 0.119282 0.053332 0.156642 0.137396 -0.100820 -0.064404 0.130008 -0.263395 0.066014 -0.136750 0.217870 -0.192799 0.204857 0.059123 -0.083113 0.059696 0.151351 -0.273920 0.098889 -0.144251 -0.033692 0.131254 0.070155 -0.034448 0.334892 0.163281 0.345095 -0.049552 -0.015406 0.040585 -0.026611 -0.028386 -0.327331 -0.134516 0.032187 0.167494 -0.418914 0.193443 -0.166805 0.109912 0.138218 0.037784 0.022549 0.082858 -0.136991 0.026900 0.083355 0.000815 -0.098610 -0.172867 -0.036189 -0.197196 -0.067605 -0.133747 -0.371185 -0.028546 -0.090827 0.024737 -0.037732 0.185769 0.208359 0.103085 0.124356 0.036774 -0.097982 0.214661 -0.015628 -0.137571 -0.037365 -0.162634 -0.175999 0.139772 0.120250 0.246039 -0.362261 0.166373 -0.180449 -0.234782 -0.132805 0.236656 0.133955 0.267483 0.238621 -0.273446 -0.064396 -0.108545 -0.019799 -0.128123 -0.095202 -0.012077 0.237410 -0.244745 0.137163 -0.023981 0.004409 -0.122458 0.293023
GlobalSpecies0037 0.138126 0.100639 0.019253 0.166473 -0.130752 0.074254 0.000759 -0.033509 0.013689 -0.000268 -0.145792 0.095153 0.046910 0.325448 -0.023945 0.165845 0.093054 0.044821 0.014635 0.110564 -0.214305 -0.043355 -0.044535 0.111511 -0.112064 -0.017954 0.011892 0.160799 0.138474 0.181565 -0.138422 0.093637 0.012835 -0.052310 -0.217121 -0.185881 0.012961 -0.008520 0.121326 -0.266551 0.101138 -0.035035 -0.115914 0.276328 -0.042678 0.107909 0.009568 0.000316 -0.000265 0.264826 -0.189684 -0.105464 -0.227116 -0.214579 -0.208605 -0.072575 -0.145919 -0.000698 -0.205191 -0.179361 0.272085 -0.020785 0.189320 0.206648 0.148985 -0.000893 -0.062854 -0.022373 0.014331 -0.177713 -0.320324 0.118781 -0.268905 -0.075435 -0.121221 0.054046 0.019605 -0.079914 0.166097 -0.114044 -0.162892 -0.163756 0.092979 0.044589 0.276184 0.115336 -0.087047 0.238632 -0.077204 0.001396 -0.136744 -0.089115 0.045572 0.221642 -0.031293 0.035964 0.040598 -0.041922 -0.155609 -0.038941
GlobalSpecies0038 -0.058740 -0.150801 -0.116566 0.086330 0.120867 0.132788 0.097236 -0.097231 -0.076905 0.175725 -0.222201 0.042052 -0.125152 0.199274 -0.158939 0.070940 0.089644 -0.051240 -0.095086 0.119945 -0.253650 0.117055 -0.137794 0.005136 0.143848 0.077064 -0.053924 0.395079 0.232324 0.244418 -0.088422 -0.063567 0.049253 -0.044001 -0.032883 -0.365813 -0.197136 0.018869 0.175226 -0.452645 0.190458 -0.185710 0.111261 0.135163 -0.025946 -0.015455 0.002732 -0.108721 0.019837 -0.017227 -0.064397 -0.097721 -0.072501 -0.185984 -0.086835 -0.077953 -0.194279 -0.304433 -0.012706 -0.018115 -0.071483 0.011743 0.189299 0.203549 0.082410 0.168221 0.068960 -0.031797 0.098320 -0.120798 -0.184819 -0.001746 -0.094162 -0.185434 0.064656 0.119693 0.301497 -0.321149 0.126380 -0.132571 -0.252386 -0.239441 0.221487 0.107275 0.448232 0.325391 -0.241540 -0.042092 -0.090880 0.003469 -0.032002 -0.120411 -0.041446 0.198470 -0.285558 0.074505 0.042938 -0.045113 -0.037899 0.225187
GlobalSpecies0039 -0.192598 -0.123307 -0.002616 -0.037907 -0.013660 -0.017329 0.069838 -0.153165 -0.008047 0.168656 -0.126623 0.159601 -0.061012 0.057999 -0.008277 -0.098447 0.051114 0.005208 -0.200379 0.046590 0.114927 0.089442 -0.118754 0.025142 0.344324 0.111278 -0.112461 0.059821 -0.032531 0.320002 0.055481 -0.338190 -0.040776 -0.016703 -0.089148 -0.359075 -0.141136 0.027336 0.047387 -0.299488 0.087909 -0.169647 0.119632 0.079276 -0.354389 -0.093375 0.086530 0.025274 0.006261 0.030869 0.173394 0.106246 -0.098846 -0.243522 -0.022323 0.030570 -0.350371 -0.438228 0.013442 0.080636 0.074669 0.204166 0.166349 0.376780 -0.003172 0.062005 0.072218 -0.149138 -0.025359 -0.317486 -0.213516 0.019501 -0.056540 -0.149269 0.141515 0.157366 0.043172 -0.290971 0.078212 0.064911 -0.158451 -0.052567 -0.176541 0.058662 0.258210 -0.092338 -0.050254 -0.011818 0.263611 -0.051717 -0.064233 -0.022737 -0.163639 0.141722 -0.269807 0.016652 -0.027953 -0.049192 0.015441 0.278672
GlobalSpecies0040 -0.122593 -0.149342 -0.132713 0.030471 -0.012472 0.062528 0.096321 0.002552 0.048443 0.159920 -0.318664 0.036076 -0.154662 0.166075 -0.170406 0.099646 0.039001 0.137142 0.067010 0.104948 -0.215012 0.077727 -0.191553 -0.019190 0.148077 0.216790 0.038075 0.167625 0.008454 0.266343 0.029102 -0.018793 0.003024 0.042987 0.139306 -0.213847 -0.008719 0.003888 0.175559 -0.266171 0.212331 0.021570 -0.052204 0.077166 -0.025010 0.096081 0.107199 -0.111397 -0.065418 0.011114 -0.049417 -0.046475 -0.102724 0.114318 -0.262179 0.096063 -0.048691 -0.348995 0.143704 -0.010729 -0.090131 -0.053191 0.073917 0.140207 0.105757 0.170495 -0.073581 0.133445 0.217022 0.011791 -0.057185 -0.147111 0.010623 -0.034370 0.013268 0.074087 0.191421 -0.352486 0.133412 -0.020904 -0.234406 -0.077394 0.123737 0.160449 0.006688 0.227222 -0.093561 -0.043870 -0.117543 -0.006385 -0.092132 0.008805 0.059133 0.059165 -0.206141 0.078449 -0.081481 0.006177 -0.127220 0.279893
GlobalSpecies0041 0.092309 0.030329 0.193352 -0.173604 0.284535 0.391366 -0.014771 -0.000592 0.125386 0.115930 -0.045387 0.020163 0.146795 0.068477 -0.022139 -0.040989 0.101876 -0.032720 -0.006231 0.174242 0.139979 -0.191696 -0.104836 -0.040365 -0.032902 0.013122 0.120528 -0.013229 0.118643 -0.177726 0.011724 -0.006553 -0.070316 -0.095832 -0.041298 0.044831 0.051169 0.010522 0.071015 -0.069811 0.333186 0.137993 0.042392 -0.329507 -0.015437 -0.121704 0.030042 0.028275 -0.003360 -0.051105 -0.133473 0.077844 0.036670 0.056630 -0.147766 -0.089186 -0.116157 -0.123278 -0.144923 0.213364 -0.029358 -0.106441 0.038412 0.029964 -0.009403 0.116587 -0.116727 0.018455 -0.010703 0.105320 -0.076227 -0.102139 0.058595 -0.045549 0.086193 -0.044398 0.066807 0.055948 -0.061935 0.183963 -0.211192 0.146724 0.034895 0.282095 0.043127 0.011882 0.115346 0.174455 0.121917 -0.170439 0.188594 0.112671 -0.045325 -0.089391 0.038902 0.051104 0.035306 0.116897 -0.008860 0.168741
GlobalSpecies0042 0.126695 0.032564 -0.010154 0.135284 -0.277497 -0.278265 -0.368872 0.091521 -0.270854 -0.198084 -0.059659 0.081865 -0.087241 -0.276460 -0.122310 -0.246805 0.179052 -0.097141 -0.036728 -0.121480 -0.082249 -0.230938 0.202426 -0.204544 0.026965 0.125287 -0.180434 -0.201411 -0.132377 -0.333761 0.165683 0.309080 -0.181295 0.084896 0.065041 0.087500 0.076260 -0.000606 -0.275640 -0.055207 -0.216353 -0.042405 0.065964 -0.364452 0.182503 -0.133109 0.241710 0.134090 0.303823 -0.182596 -0.269551 0.033886 0.077098 -0.105795 0.188178 0.238688 -0.032577 0.067080 0.062609 -0.390147 -0.082201 0.033240 -0.041793 -0.206729 0.094355 -0.035263 0.183405 0.076403 -0.228368 0.071847 0.057048 -0.068067 -0.007774 -0.223198 0.005028 -0.478765 -0.017189 0.134166 -0.232606 -0.093306 0.115799 0.008246 0.152403 -0.293230 -0.335767 0.231572 0.218319 -0.295484 -0.382824 0.083063 0.079791 -0.025591 0.349365 -0.055301 -0.206718 -0.078658 0.022156 -0.086524 0.324892 0.092557
GlobalSpecies0043 -0.235088 0.157525 -0.044596 -0.011429 -0.398737 -0.062135 0.005731 -0.015501 0.058223 0.027825 0.017259 -0.094233 -0.127676 -0.175398 -0.013608 0.015169 0.214225 0.485267 0.136917 -0.088646 0.142365 -0.150234 -0.162048 0.049044 0.091317 0.249557 0.032584 -0.141977 0.132088 0.126932 0.072033 0.004116 0.061664 -0.027107 -0.032202 -0.124609 0.164580 -0.002085 0.124776 -0.052436 0.051893 0.114546 -0.298979 0.245225 -0.225564 -0.032234 -0.152987 0.274651 -0.043062 -0.094034 -0.210591 0.009453 -0.044454 0.098709 -0.166983 0.140111 0.137213 -0.153757 0.045967 -0.096859 -0.322547 -0.121117 -0.121476 0.137579 0.126428 -0.008823 -0.048637 0.052143 0.107331 -0.108623 -0.086908 0.013809 0.277561 0.312193 -0.226543 -0.239726 0.021434 0.047631 -0.025732 0.006416 -0.042292 0.102092 -0.233338 -0.116028 -0.140406 0.036575 0.256038 -0.087127 0.254646 0.176886 -0.099376 -0.168799 -0.040195 -0.418396 -0.086021 -0.229833 -0.041060 -0.268460 0.066724 -0.205415
GlobalSpecies0044 -0.051522 -0.154126 0.696462 0.358971 -0.705015 0.062335 -0.342324 0.188059 0.001647 -0.051147 0.778104 -0.155418 0.266239 -0.562668 -0.406542 -0.539585 0.087157 -0.142118 0.238168 -0.369035 0.282247 0.696103 -0.115662 -0.414609 0.216784 -0.144493 -0.214734 -0.904714 -0.073798 -0.332891 0.157979 -0.385174 -0.350365 0.502785 -0.137815 0.636229 -0.186872 0.212954 -0.467945 0.335403 -0.315229 0.360916 0.171561 0.053076 0.267917 0.662611 -0.013719 -0.716946 -0.261208 -0.446880 0.435250 -0.020586 0.387706 -0.218477 0.434156 0.221632 -0.015156 0.342772 0.322233 -0.533508 -0.252928 0.029083 -0.475040 -0.905698 0.684194 -0.472562 -0.534051 0.346819 -0.252295 0.448737 0.600334 -0.279789 0.903082 0.518557 -0.086293 -0.049614 0.167585 0.754494 0.051439 -0.027405 0.440934 0.167145 -0.572368 0.190721 -0.042143 -0.067278 -0.776672 0.195362 -0.115657 -0.569500 -0.003695 0.068033 -0.292916 0.344430 0.649182 -0.014110 0.402222 0.370527 0.999521 -0.410858
GlobalSpecies0045 0.017299 -0.088051 0.121643 0.056565 0.014128 -0.066739 0.077245 -0.115390 -0.140533 -0.040012 -0.077015 0.128759 0.044248 0.233075 0.008289 0.100273 -0.016060 -0.022890 -0.066775 -0.036730 -0.167855 -0.121201 -0.085801 0.007618 0.180264 -0.017817 -0.044620 0.162104 0.164508 0.247849 -0.031138 -0.062055 0.089280 0.047661 -0.204578 -0.233540 -0.150242 -0.012367 -0.004891 -0.354814 0.183164 -0.227580 0.140459 0.117607 -0.052745 0.103233 0.052850 0.010143 -0.111239 0.150559 -0.033769 -0.086245 0.019640 -0.141037 -0.043715 0.043730 -0.130374 -0.288698 -0.080134 0.017414 -0.076730 0.068155 0.139097 0.282123 -0.088889 0.174444 0.017913 -0.191731 0.083547 -0.068644 -0.310392 0.148943 -0.185003 -0.114724 0.104103 0.149777 0.101625 -0.290245 0.290512 0.037924 -0.089395 -0.200295 0.071201 0.038402 0.271030 0.016052 -0.165839 0.026453 0.049005 -0.010509 0.047205 0.093167 -0.085349 0.106538 -0.209629 0.095382 -0.074599 0.100498 -0.147077 0.027279
GlobalSpecies0046 0.312455 -0.178906 -0.090293 -0.092121 -0.002697 -0.037123 0.041580 0.113031 0.025486 -0.083103 0.263387 -0.115725 -0.186223 -0.189239 -0.250687 0.213972 -0.164656 -0.043930 0.157416 0.266717 0.200532 0.030309 0.139174 -0.006203 -0.271060 0.241589 -0.038576 -0.121639 -0.336691 -0.243430 -0.060991 0.114159 -0.121927 0.102096 0.070941 0.462717 -0.065999 0.065368 -0.261234 0.085702 0.028329 0.494224 -0.126455 -0.102280 0.286992 -0.248462 0.324095 0.386827 0.023390 -0.055569 0.271791 -0.112120 0.133240 0.102684 0.022725 -0.017118 0.151374 0.052280 0.035061 0.172640 0.122056 -0.097879 -0.364845 -0.098214 -0.019042 -0.089619 0.136014 -0.081764 0.008338 0.095246 0.252695 0.315205 0.207342 -0.040836 -0.022364 -0.119006 -0.157306 0.015601 -0.233224 0.113377 0.164807 0.412518 -0.027873 -0.023846 -0.019680 -0.303904 0.133186 -0.035736 0.120519 -0.073740 0.275445 0.067752 0.121797 -0.064714 0.215603 0.111884 0.245128 0.056492 0.106681 0.304405
GlobalSpecies0047 0.205385 -0.126502 0.014087 0.227350 -0.055549 0.111705 -0.002306 -0.110162 -0.000834 0.084648 -0.184419 0.041708 -0.001650 0.281951 0.005175 0.163987 0.158303 -0.029118 0.207379 0.133400 -0.263550 -0.031521 -0.065354 0.072125 -0.043242 0.076693 -0.013623 0.193718 -0.001007 0.232200 -0.004115 0.071132 0.021763 -0.012603 -0.061991 -0.169068 0.056155 0.055309 0.045365 -0.232000 0.111478 -0.045251 -0.112511 0.279110 0.014408 0.074187 0.121719 -0.055064 -0.107254 0.222377 -0.025195 -0.124433 -0.239765 0.038593 -0.257607 -0.037949 -0.006517 -0.140621 -0.118289 -0.150302 0.197635 -0.024656 0.175670 0.187976 0.048881 -0.061598 -0.083274 -0.121963 0.124129 -0.007137 -0.185935 -0.007914 -0.278783 -0.088477 0.040153 0.078627 0.011959 -0.262722 0.174527 -0.218670 -0.244476 -0.007242 0.193721 0.021714 0.113634 0.103672 -0.209266 0.161683 -0.080266 -0.104199 -0.206568 -0.022156 0.047176 0.303285 -0.104295 0.104810 0.038011 0.006009 -0.179750 0.114798
GlobalSpecies0048 0.018244 0.024450 -0.053730 -0.121034 0.064057 0.145057 0.251169 -0.069670 -0.015703 0.281882 -0.047981 0.021918 0.070860 0.225371 -0.033763 -0.012558 0.003435 -0.021304 0.099334 0.142139 0.008189 -0.121386 -0.004979 -0.001824 0.055184 0.084441 0.034948 0.139649 0.001033 0.209616 0.002544 -0.028936 0.043896 -0.039628 -0.084032 -0.227284 -0.093124 0.049073 0.102775 -0.185432 0.230444 0.001882 0.046581 0.144180 -0.085351 -0.199663 -0.024077 0.021339 0.130967 0.108648 0.034017 -0.071368 -0.003997 0.097657 -0.257637 -0.008147 -0.261639 -0.031612 -0.069892 -0.011484 0.159393 -0.018052 0.128109 0.056277 -0.108634 0.064678 -0.112220 -0.000299 0.070124 -0.076667 -0.062113 -0.008542 -0.013476 -0.247519 0.072906 0.117778 0.101753 -0.326575 0.098192 -0.004509 -0.245400 -0.173656 -0.019474 0.120638 0.133771 -0.039842 -0.011605 0.058079 0.116592 -0.208563 0.096964 -0.031910 0.007516 0.086844 -0.089147 0.086608 -0.039509 0.124257 -0.173176 0.130262
GlobalSpecies0049 -0.087652 -0.127705 0.162356 -0.083329 0.173521 0.427773 -0.156649 -0.009233 0.294453 0.065330 0.002420 0.022230 0.080553 0.062233 -0.096755 0.045340 0.254573 0.066596 -0.305353 0.066900 0.194940 -0.009673 -0.033091 -0.043841 -0.081361 -0.290735 -0.000985 -0.136519 0.215073 0.126381 0.030368 -0.212429 0.019532 0.068552 0.275832 0.084408 0.090969 0.064742 0.163502 -0.168857 0.053404 0.072584 -0.150481 -0.018168 -0.144699 -0.083016 -0.182919 -0.129339 -0.061194 0.026990 -0.165702 0.283215 -0.135647 -0.029402 0.320703 -0.130399 -0.160529 -0.130569 -0.112226 0.123889 -0.082631 0.102206 0.107179 -0.032265 0.036524 0.053263 -0.132724 0.002784 0.044210 -0.168033 -0.070928 -0.214909 -0.241891 0.091524 0.205252 -0.117184 0.097740 0.114233 0.006500 0.142727 -0.001110 0.251206 0.191944 0.393534 -0.049235 0.015185 -0.050010 0.173143 0.002601 0.103138 -0.104805 0.240175 -0.039428 -0.233485 -0.048929 0.138187 -0.278438 0.029743 -0.048351 0.018546
GlobalSpecies0050 0.131242 -0.254773 0.300166 0.358392 0.044529 -0.241891 -0.074664 0.195487 -0.027598 -0.454819 0.158668 -0.229502 0.106151 -0.082324 -0.125548 0.149073 -0.134492 -0.189198 0.048082 0.026554 -0.241096 -0.093113 0.016804 -0.385252 -0.090079 0.111552 -0.282042 -0.433383 -0.355583 -0.609588 0.000058 -0.087053 0.092772 0.001198 -0.199599 0.135539 -0.135105 -0.116111 -0.292181 0.251680 -0.084610 -0.208406 -0.397266 -0.138789 0.514072 0.187526 0.104901 -0.180635 0.111566 -0.097608 0.169533 -0.042277 -0.052187 -0.269522 0.249551 0.207243 0.248856 0.192277 -0.193586 -0.347076 0.104826 0.117282 -0.305339 -0.038637 0.409373 0.103859 0.485038 -0.185954 -0.481628 -0.330556 0.176996 0.181550 -0.217240 -0.024152 0.057616 -0.146091 -0.078080 0.541041 -0.311789 -0.031475 0.237798 -0.252222 0.115601 -0.253628 0.180528 -0.261271 -0.123026 0.266050 0.012126 0.464244 -0.069934 0.007939 -0.039979 0.135041 0.222449 -0.324567 -0.054710 -0.306237 0.339942 -0.182267
GlobalSpecies0051 0.153885 0.417049 0.121146 0.224012 -0.294502 -0.101336 -0.082219 0.396783 0.579341 -0.246214 0.473101 -0.272659 0.503651 -0.300956 0.205330 -0.682391 -0.366248 -0.358867 -0.055782 0.085969 -0.324456 0.255830 0.090139 -0.000573 0.082540 -0.560915 -0.526110 0.155271 -0.232989 -0.792916 -0.073641 0.058920 0.378461 -0.338744 -0.632945 0.475415 -0.289948 -0.487402 -0.067373 0.721775 -0.726390 -0.382517 0.001724 -0.155355 0.152195 0.108050 0.166564 0.178734 0.012389 -0.458147 0.357572 -0.102451 -0.069726 -0.083621 0.384586 -0.316096 0.083420 0.184366 -0.230525 -0.589199 -0.179011 0.348193 0.031540 -0.533673 0.169770 -0.324780 -0.087828 -0.361682 -0.091159 0.911925 0.280214 -0.003532 0.069598 0.113767 -0.014257 -0.223450 -0.487319 0.459256 -0.696553 0.419868 -0.112978 -0.282974 -0.743585 -0.714408 0.222152 0.106872 -0.090911 -0.404949 0.208853 -0.005967 -0.042731 -0.882365 0.736479 0.449451 0.680283 -0.425495 0.132719 0.108881 0.616954 0.001469
GlobalSpecies0052 -0.362011 0.068584 0.105212 -0.074040 -0.458999 -0.109089 0.103575 0.019210 -0.100598 -0.256705 0.153052 -0.000454 0.259758 -0.740465 0.194179 0.434042 -0.081758 0.232275 0.067830 -0.107676 0.042022 -0.286018 -0.033435 0.073508 -0.034294 0.475718 0.131607 -0.416545 0.172236 -0.018153 0.213233 0.124844 0.197882 -0.023372 0.509553 -0.104496 0.513472 0.135980 0.058201 0.368306 -0.664078 -0.139694 -0.416397 -0.203566 -0.221735 -0.028583 -0.491989 -0.091867 0.163850 -0.292571 0.076056 0.223936 0.129295 -0.467464 -0.111033 0.256999 0.183812 0.305903 0.659271 -0.275903 -0.433304 0.077297 -0.380756 -0.027414 -0.019582 -0.484444 0.084223 0.022430 0.394633 0.061362 0.592346 0.264624 0.410677 0.180813 0.081072 -0.228077 0.124592 0.363186 -0.215112 -0.109610 0.212965 -0.295618 -0.374226 -0.432831 -0.252669 -0.009293 0.264595 -0.118241 0.054018 -0.007040 -0.443281 0.220165 -0.031838 -0.373658 -0.037472 -0.008121 -0.006843 -0.013856 0.370453 -0.328226
GlobalSpecies0053 0.116905 -0.054727 -0.009955 -0.184364 0.160752 0.017874 -0.069344 -0.168870 0.082042 -0.209624 0.137084 -0.078561 0.104123 0.203834 0.034137 -0.099055 -0.098342 0.058430 0.164734 -0.033333 -0.104566 0.043199 0.025506 -0.210492 0.009651 0.100256 -0.008193 0.028344 -0.078269 -0.498648 -0.008505 0.176196 0.087566 -0.034598 -0.354760 -0.016911 0.233705 -0.033408 -0.145754 -0.011941 0.040853 0.006928 -0.084415 -0.008654 -0.010247 -0.170476 0.289859 0.173186 0.220857 -0.009374 -0.142472 -0.095586 -0.200482 -0.069516 -0.274780 -0.077396 0.030497 -0.150439 -0.178466 0.023816 0.259644 -0.035007 -0.163976 -0.006217 -0.016785 0.012443 0.131957 -0.221741 0.013587 0.086849 -0.018492 -0.000267 -0.051954 0.084467 0.090687 -0.060513 0.082787 0.214194 -0.114872 0.235790 -0.091346 -0.051516 0.045061 -0.108367 0.215898 0.040932 -0.016476 0.207173 0.161155 -0.075289 0.057283 0.044732 -0.054201 -0.024138 -0.147380 -0.088046 0.033186 0.039892 -0.020958 -0.117708
GlobalSpecies0054 -0.225684 -0.009470 -0.118411 -0.022342 -0.123517 0.064159 0.056456 -0.031626 -0.076714 0.085328 -0.190263 -0.022473 -0.048673 0.121120 -0.117465 -0.072576 0.067073 0.086742 0.020832 -0.003172 0.001601 -0.051792 -0.138276 -0.020965 0.233699 0.114225 0.089598 0.179099 0.121890 0.136705 -0.097912 -0.029342 0.008623 -0.038983 0.127392 -0.148123 -0.035621 0.074947 0.117946 -0.152546 0.047586 -0.024968 -0.013434 0.106902 -0.015224 -0.128203 -0.032240 0.001310 0.030813 -0.006538 -0.143251 -0.001689 0.074943 -0.069885 -0.186310 0.064700 -0.108159 -0.257748 0.050873 -0.011860 -0.032550 -0.024845 0.075987 0.104035 0.021521 0.257109 0.143021 0.199412 0.142323 -0.001386 -0.122757 -0.054350 0.201777 0.031085 -0.066000 0.124791 0.156132 -0.176489 -0.035467 0.127947 -0.118995 -0.004737 0.106774 0.079769 0.056577 0.109800 -0.070217 -0.087905 -0.058801 0.015728 0.079125 0.085464 -0.107525 -0.022773 -0.222565 0.023655 0.065184 -0.169524 0.038766 0.137317
GlobalSpecies0055 0.012584 0.035018 -0.288258 0.095435 -0.042186 0.005639 -0.124697 0.047846 0.079760 0.087458 -0.139955 0.076992 -0.041797 0.123959 0.138056 0.044711 0.145715 0.029449 0.089816 0.032528 -0.182665 0.118372 -0.043724 0.066040 0.043096 0.123084 0.242250 0.095102 -0.106702 0.135472 -0.070167 -0.016853 -0.189072 -0.060576 0.010800 -0.064629 0.192495 0.062043 0.169038 -0.129261 0.063786 0.171816 -0.165864 0.148132 -0.081672 -0.047143 -0.008817 -0.099135 0.003986 0.069644 -0.038887 0.007826 0.161372 0.048968 -0.172946 -0.108738 -0.065186 -0.064121 -0.036033 -0.239761 0.052135 -0.078824 -0.036301 -0.005293 0.063956 0.018932 0.001918 0.120099 0.117913 -0.069117 -0.017327 -0.065804 -0.159096 -0.125139 -0.146298 0.028783 0.070558 -0.199208 0.078981 -0.043433 -0.213459 -0.059972 0.088709 0.028109 -0.108022 0.150561 -0.015221 -0.004709 -0.091027 0.165006 -0.030624 -0.107046 0.061254 0.065967 -0.111794 0.155909 0.009047 0.066664 -0.125313 0.285011
GlobalSpecies0056 -0.423594 -0.173750 -0.019635 -0.156210 0.125981 0.237322 -0.267798 0.050134 0.031818 -0.263101 0.502387 0.399957 0.318292 -0.434644 0.369225 -0.297444 0.313188 0.074510 -0.450377 0.094809 0.374537 0.116881 0.029861 -0.333486 -0.153222 -0.873144 -0.010507 0.159546 0.211206 0.130598 0.202102 -0.027360 -0.093140 0.017477 -0.250369 0.342201 0.007630 -0.116329 -0.251345 0.627433 -0.929211 -0.031066 -0.251790 -0.427143 -0.074485 0.341159 -0.302688 -0.393900 0.242805 -0.407956 0.147202 0.425667 0.278446 -0.265418 0.608218 -0.281008 0.134362 0.161302 0.063934 -0.143001 0.321274 0.052027 -0.016919 -0.322343 0.069671 -0.408171 -0.358205 -0.395566 -0.288082 0.528432 0.461821 -0.064451 0.039740 0.128803 0.189069 -0.309919 -0.241399 0.295246 -0.271979 0.170141 0.410749 0.749482 -0.675404 -0.099290 -0.258698 -0.130395 -0.231314 -0.287018 -0.230738 -0.029655 -0.086233 -0.202195 0.703744 -0.283961 0.300877 0.225318 -0.189505 -0.443410 0.361442 0.138477
GlobalSpecies0057 0.053846 -0.023346 0.067885 0.071903 -0.223360 -0.253524 0.196410 0.168224 -0.011701 -0.124976 0.021405 -0.405824 0.011799 -0.556543 -0.094246 -0.106566 0.286692 0.157379 -0.089089 0.233902 0.006992 0.013307 0.482507 -0.186141 -0.066620 0.102770 -0.168490 -0.149974 -0.128808 -0.148218 -0.018774 -0.366609 0.373245 -0.017903 -0.001842 0.086026 -0.143123 -0.242567 0.092012 0.125272 0.147307 0.152444 -0.304753 0.118241 -0.290491 0.027509 0.020459 0.282131 0.209846 0.125017 -0.222566 -0.066788 -0.024328 0.430685 0.000946 0.152250 0.207264 0.117370 0.192559 -0.105269 -0.182761 0.158677 -0.366130 0.035595 0.022066 0.134278 0.192130 0.169117 -0.420253 0.316870 0.291389 0.283441 0.006940 0.625102 -0.524197 0.056077 -0.047889 0.247415 -0.286564 0.042634 0.354458 -0.124725 -0.436389 -0.120316 -0.484737 -0.107839 0.274001 -0.231739 0.082173 0.285773 -0.227482 0.071842 0.055911 -0.117434 -0.274860 -0.435622 -0.050879 -0.425159 0.040536 -0.118642
GlobalSpecies0058 -0.132296 0.332851 -0.262075 0.004842 -0.082348 -0.238301 0.008940 0.187115 -0.279285 -0.276780 0.031622 -0.138888 -0.078702 -0.280639 0.099690 0.068282 -0.030137 -0.197127 0.018220 0.103510 -0.176056 0.052261 -0.126702 -0.222353 -0.120085 -0.101535 0.192558 -0.117038 -0.042136 -0.258902 0.053576 0.198820 -0.159984 -0.043158 0.130179 0.343262 0.161096 0.018832 -0.114220 0.317738 0.054416 0.184245 0.184666 -0.262610 0.115511 -0.018490 -0.113296 -0.326491 0.106729 0.068431 0.024011 0.165456 0.346133 0.170678 0.356467 -0.040666 0.315365 0.020183 0.183620 0.144376 -0.432928 -0.329530 0.007726 -0.012324 -0.074650 -0.134140 0.234482 -0.086878 -0.076744 -0.179307 -0.283040 -0.109512 -0.100566 0.137569 -0.207137 -0.090435 0.101696 0.138923 0.132614 0.360967 0.498799 0.030477 0.099459 -0.145412 -0.113326 -0.050899 0.103844 -0.295755 0.088421 0.264120 0.069707 0.025106 -0.153265 0.030674 -0.396926 -0.153335 0.068409 0.092474 0.363614 -0.098976
GlobalSpecies0059 0.324718 0.078598 -0.116006 0.168387 0.116735 -0.119819 -0.075160 0.128833 -0.202722 0.053707 -0.081027 -0.042292 0.124959 0.085417 -0.039192 0.158446 0.018567 -0.108113 0.105558 0.021748 -0.054256 -0.072625 0.254286 0.043086 -0.075899 0.031352 0.082939 -0.021651 -0.113290 -0.122482 0.030168 -0.008739 -0.233692 -0.132068 -0.077372 -0.146473 -0.141183 -0.086006 -0.125890 0.409974 0.018849 -0.128975 -0.252558 0.054312 -0.003877 -0.142551 -0.053617 0.188701 0.123794 0.091626 -0.108805 -0.062129 0.052554 -0.102135 0.261388 0.088142 -0.133721 0.410702 -0.178588 -0.317257 0.327885 -0.070321 -0.005686 -0.055728 -0.276038 0.243112 0.030229 0.191471 -0.096926 0.101758 0.140144 0.265758 -0.336266 0.082812 -0.117803 0.208654 -0.103456 0.233916 -0.075790 -0.143571 0.278083 -0.067315 -0.071652 -0.392573 -0.198898 -0.003205 -0.021024 0.043699 0.044892 0.132372 -0.147087 -0.089035 0.205526 0.083078 0.233920 -0.203439 0.020861 -0.073181 -0.246162 -0.006228
GlobalSpecies0060 -0.361939 0.020909 -0.002718 0.174613 0.088429 0.391247 -0.034092 -0.015389 -0.046878 0.100633 0.594530 -0.023888 0.157437 -0.195811 0.171038 -0.378875 -0.386306 -0.267316 0.231264 -0.065695 0.011758 -0.031786 -0.146804 -0.149763 0.141589 -0.451044 -0.224321 -0.520361 0.145650 -0.350664 0.450824 0.011523 0.075842 -0.165623 -0.225855 0.492841 -0.141046 0.053549 -0.544656 0.739930 -0.500017 -0.213158 -0.043858 -0.051624 0.034130 0.091186 -0.186272 0.217342 0.612480 -0.091457 0.286764 0.288023 0.257875 -0.014489 0.131468 -0.314542 0.213230 0.511336 0.224823 -0.248532 -0.465549 -0.369952 -0.567977 -0.322876 0.202769 -0.680518 -0.090187 -0.432966 -0.137680 0.494134 0.733744 -0.206372 0.031199 0.092391 0.031751 -0.207617 -0.087121 0.418417 -0.365586 0.096921 0.359473 0.489808 -0.275036 -0.250308 -0.273576 0.118767 -0.410405 -0.109035 -0.195707 -0.393237 -0.362480 -0.138276 0.633219 -0.012651 -0.001359 0.198533 0.339646 0.124987 0.286338 -0.052449
GlobalSpecies0061 0.148312 0.049061 0.000006 -0.165921 -0.639829 0.184992 0.023369 0.016365 -0.106026 -0.280989 0.070267 -0.377290 0.182138 0.046279 -0.042611 0.021738 0.006612 0.269085 -0.037172 -0.056650 0.263717 -0.112433 0.176324 -0.202719 0.228329 0.142688 0.036947 -0.233601 -0.053320 0.071281 0.133144 0.180276 0.194242 0.138089 0.387979 0.136748 -0.217758 0.021518 0.147002 0.192239 0.081599 -0.189270 -0.184819 0.004435 -0.003055 -0.195518 -0.064186 0.049053 0.015173 -0.106161 0.086399 0.040502 -0.011677 0.222620 -0.084887 0.147374 0.024599 0.000490 0.452320 -0.080024 -0.140384 0.094957 -0.231096 -0.014179 -0.096086 -0.097126 -0.005599 0.106052 -0.224300 -0.080354 -0.097653 -0.194688 0.312623 0.239204 -0.134409 -0.230930 -0.159271 0.402216 -0.073485 0.242064 0.326451 -0.056948 0.011506 -0.014440 -0.331886 -0.180373 0.195852 -0.249575 0.081684 0.104784 -0.139767 -0.186886 -0.049386 -0.346861 -0.223224 -0.389127 -0.083694 -0.383496 0.447804 -0.279666
GlobalSpecies0062 -0.016922 0.051912 -0.172062 0.076622 0.022791 0.102316 0.096047 -0.011154 0.086192 0.231220 -0.151949 0.008000 -0.016441 0.203625 -0.090569 -0.048851 -0.009321 0.099135 0.070640 0.065978 -0.142267 -0.140044 -0.079468 0.098788 0.038675 0.126437 0.068997 0.205750 0.005860 0.205778 0.027129 0.049573 0.040175 0.018668 0.106625 -0.138624 -0.003458 0.028018 0.156198 -0.137277 0.112353 0.097551 -0.048292 0.153543 0.003464 -0.005894 -0.024968 -0.132156 -0.038765 0.028388 -0.042142 -0.078533 0.014180 0.073616 -0.211990 0.072766 -0.063055 -0.009959 0.101334 -0.085264 0.019208 -0.066369 0.155916 0.055408 0.000102 0.093315 -0.056348 0.161539 0.169624 -0.099980 -0.100843 -0.169112 -0.041342 -0.100969 -0.027765 0.131520 0.147900 -0.269964 0.107817 0.006314 -0.189294 -0.143236 0.134146 0.099360 -0.064586 0.225519 -0.035250 0.039078 -0.001156 -0.029769 -0.116594 0.039146 -0.008980 -0.006591 -0.065310 0.030734 -0.075136 0.038458 -0.162667 0.152985
GlobalSpecies0063 0.011638 -0.063609 -0.065978 0.048033 -0.054071 0.165904 -0.095236 0.133062 0.146461 -0.179702 -0.062529 -0.054411 -0.058417 0.123126 0.071272 -0.129646 0.073748 0.062372 -0.049493 -0.081089 -0.148258 -0.054099 -0.031460 0.150371 0.073897 -0.158460 0.144616 0.073074 0.105487 -0.245036 -0.260401 0.060106 0.010767 -0.089349 -0.073583 0.015476 0.172642 -0.014292 -0.237592 -0.080121 -0.091114 -0.053809 -0.007153 -0.026818 0.288832 -0.155104 -0.179628 0.092403 0.181516 -0.119165 -0.229188 0.143184 0.160361 -0.102174 0.283089 -0.079558 0.048622 0.026749 0.021397 0.035522 -0.133529 0.040644 -0.050056 -0.221405 0.078275 -0.054541 0.154038 -0.079586 -0.118335 0.042251 0.030689 -0.085250 -0.251620 0.032192 -0.120139 0.004549 0.256745 0.216373 0.037694 -0.024881 0.028741 0.093054 0.084461 0.113280 0.015502 0.066850 -0.149606 -0.073350 -0.297197 0.217163 0.106435 0.093384 -0.045553 -0.018835 -0.135072 -0.042609 0.144842 -0.214775 0.277657 0.092606
GlobalSpecies0064 0.213161 -0.102858 -0.009009 0.068018 -0.199793 0.077026 -0.157798 -0.124838 0.015578 -0.135748 -0.205479 0.038869 -0.039012 0.178746 -0.145929 0.109072 0.127739 0.105556 0.169321 0.032466 -0.059227 -0.218037 -0.042186 -0.005586 0.236724 0.207538 0.036247 -0.008777 -0.096465 0.082417 -0.112145 0.086516 -0.022813 0.077913 -0.040200 -0.158875 -0.073882 -0.039289 -0.036448 -0.116768 0.066731 -0.086563 -0.299028 0.148954 -0.015861 0.020284 0.187842 0.019580 -0.148704 -0.044754 -0.052015 -0.083278 -0.122489 -0.084927 -0.237060 0.156297 0.107617 -0.142974 0.055493 -0.088323 0.008209 0.020401 0.002423 0.045209 0.099902 0.076536 0.042705 -0.013868 0.061516 0.133506 -0.045444 0.061892 -0.083830 -0.018268 -0.004638 0.069232 0.004160 -0.112337 0.103812 -0.105428 -0.072850 0.113083 0.112987 0.008347 -0.055837 0.079472 0.001390 0.086160 0.073961 0.046135 -0.119253 0.022078 0.060330 -0.017466 -0.001194 -0.024286 -0.061575 -0.148341 0.031743 0.089938
GlobalSpecies0065 -0.239080 -0.048039 -0.332083 -0.028838 0.111831 -0.031771 -0.058927 0.031231 0.054874 0.158553 -0.086390 -0.087010 -0.299312 0.182802 -0.078648 -0.106931 0.067060 0.018763 -0.289652 0.130839 -0.301376 0.349523 -0.215655 0.035680 0.059785 0.110610 0.177304 0.173059 0.064976 0.102924 -0.012251 -0.095298 -0.090926 -0.030952 0.094309 -0.092057 0.037029 0.098564 0.168303 -0.086868 0.096386 -0.021126 -0.126600 -0.057762 0.000729 -0.180705 -0.060430 -0.208639 -0.049983 -0.001377 -0.063489 0.105492 0.203554 -0.018407 -0.160065 -0.128346 -0.066552 -0.283017 0.068085 0.225443 -0.104623 -0.040267 -0.014187 0.045239 0.054536 0.260718 0.100149 0.139143 0.062485 -0.188020 -0.176701 -0.212990 0.029695 -0.094647 -0.050412 0.085731 0.268869 -0.282554 -0.162068 -0.026102 -0.169070 -0.254850 0.102961 0.156787 0.305769 0.280870 0.084842 -0.067143 -0.085695 0.313723 0.219515 -0.081302 -0.116778 -0.046178 -0.338109 -0.049967 -0.014116 -0.169525 0.037575 0.224045
GlobalSpecies0066 0.088130 0.013769 -0.042136 0.088499 0.164290 0.001257 0.022739 -0.159572 -0.013600 0.064552 -0.181516 -0.130843 -0.053327 0.314682 -0.171261 0.130246 -0.090472 0.083189 0.221661 0.166085 -0.163138 -0.146953 -0.051440 -0.059742 -0.138625 0.049545 -0.148638 0.348006 0.330875 0.189576 0.052150 0.001181 0.036765 0.136066 -0.046159 -0.399223 -0.113307 0.098947 -0.019070 -0.229139 0.092928 -0.215954 0.003107 0.294781 0.057964 0.053777 -0.110850 -0.049870 -0.131215 0.006543 -0.083113 -0.077558 -0.319733 -0.148574 -0.157190 0.102667 0.035158 0.025896 0.010014 0.002895 0.177805 0.004096 0.185458 0.073779 -0.159917 0.067099 -0.176147 0.086074 0.013832 -0.085462 -0.132369 -0.088986 -0.142123 -0.114703 0.267545 0.277664 0.250345 -0.319762 0.081231 -0.140505 -0.161993 -0.188410 0.194333 0.097424 0.307595 0.148802 -0.097503 0.186575 0.028960 -0.131276 -0.123985 0.105068 -0.080964 0.130969 -0.025653 -0.111014 -0.116180 -0.070975 -0.197098 -0.044067
GlobalSpecies0067 0.089270 0.144472 -0.046181 -0.087196 -0.004007 0.060874 -0.292697 0.060875 -0.013719 -0.263487 -0.205242 0.032166 -0.315401 -0.153511 -0.060157 -0.029379 0.039941 -0.272071 -0.090523 -0.052140 -0.076078 0.073178 0.003151 0.045735 -0.063079 0.029326 -0.074894 0.116835 -0.060000 -0.305977 -0.129983 0.191538 0.158132 -0.130796 0.025533 0.020737 -0.009215 -0.039884 0.000581 0.142052 -0.275043 -0.237642 -0.069240 0.082684 0.076899 -0.172391 -0.168175 0.042066 0.140553 0.035274 -0.200295 -0.133182 -0.042947 -0.082395 0.023424 -0.134717 0.265972 0.243943 0.060418 0.232464 -0.158543 0.048922 -0.183619 -0.185174 0.057391 -0.170915 0.320840 0.066371 0.056345 0.090256 0.008990 0.202166 -0.149547 0.190579 -0.113291 0.035247 0.123162 0.462383 -0.122027 0.007125 0.210596 0.080186 0.330450 -0.125369 0.136588 0.267144 0.121215 -0.043276 -0.116123 0.212923 0.036441 -0.077204 -0.264011 0.213765 -0.276208 -0.044003 0.262170 -0.146111 0.206625 -0.076057
GlobalSpecies0068 0.036072 0.034097 -0.097399 -0.109467 0.188293 0.157421 0.415802 0.070247 0.059167 0.381208 -0.147317 -0.110989 0.151205 0.309514 -0.170129 0.162512 -0.154687 -0.009624 0.133333 0.394189 -0.183848 -0.025351 -0.083253 0.026240 -0.174645 0.088259 -0.043050 0.406608 0.286781 0.337469 0.064514 0.050958 -0.006727 0.011312 0.012432 -0.364906 -0.015028 0.040404 0.195307 -0.318305 0.263188 0.052901 0.183952 0.128142 -0.109753 0.176177 -0.120691 -0.048475 0.028040 0.208894 0.077696 -0.167793 -0.233122 0.105918 -0.536927 -0.050561 -0.270794 -0.160917 -0.059309 -0.027409 0.172715 -0.158420 0.194557 0.171944 -0.041905 0.136823 -0.275717 0.112358 0.101622 -0.072278 -0.070027 -0.055060 -0.022024 -0.335481 0.078973 0.114575 0.152575 -0.452009 0.156962 -0.066928 -0.383401 -0.263907 0.074374 0.170072 0.196205 0.061304 -0.031188 0.141819 0.007394 -0.257644 -0.034184 -0.098878 0.103077 0.158827 0.016723 0.025864 -0.102095 0.295579 -0.346885 0.086548
GlobalSpecies0069 -0.217387 -0.052125 0.413370 -0.099174 0.108533 0.052415 -0.042826 -0.041525 0.012923 -0.294648 0.067221 0.028725 -0.051488 -0.034485 0.301111 0.066669 -0.072794 0.105666 0.003612 -0.275022 0.059640 -0.071451 -0.037164 -0.071187 -0.017541 -0.124651 0.124479 0.012220 0.062482 0.025298 -0.018728 -0.080745 0.086895 0.041962 -0.059156 0.114687 0.002966 0.079018 -0.010107 0.020900 0.124751 0.105528 0.122246 -0.072513 -0.048858 0.136163 -0.064810 0.120833 -0.107439 0.115929 -0.102753 0.152459 0.223229 -0.046549 0.339203 -0.108289 0.195042 -0.142653 -0.197710 0.031442 -0.111389 -0.040785 -0.203708 0.165470 -0.032679 0.019254 -0.092158 -0.050573 0.016805 -0.124618 -0.098808 -0.023065 -0.158130 0.205373 0.118623 -0.115890 -0.072228 0.086514 0.187285 0.013622 0.134785 0.095858 0.119238 0.035766 -0.212215 -0.064209 -0.025517 -0.094376 0.085480 0.321583 0.168965 0.111020 -0.170140 -0.204785 0.111377 0.017455 -0.096571 0.110270 -0.191218 -0.056546
GlobalSpecies0070 -0.248263 -0.032774 -0.186495 0.000876 0.086704 0.185152 0.149530 -0.049839 -0.021348 0.242807 -0.204248 0.047302 -0.258123 0.068354 -0.150960 0.047335 0.037022 -0.065450 -0.165258 0.109916 -0.135560 0.169277 -0.186898 0.040661 0.220796 0.086306 -0.030488 0.281483 0.196280 0.324919 -0.059317 -0.191309 -0.006612 0.004390 0.008971 -0.298187 -0.166525 0.047912 0.199340 -0.362966 0.173749 -0.136272 0.112702 0.066358 -0.168578 -0.095593 -0.043116 -0.104255 0.045843 0.045625 0.087342 -0.006787 0.027549 -0.034183 -0.156687 -0.115244 -0.259728 -0.411257 -0.010075 0.049997 -0.127686 -0.003039 0.178499 0.239317 -0.001638 0.213002 0.078565 0.099798 0.131434 -0.197613 -0.117918 -0.032361 0.001686 -0.255173 0.094198 0.164001 0.236226 -0.386281 0.065071 -0.046894 -0.249015 -0.162338 0.123025 0.135019 0.254741 0.171254 -0.098348 -0.089632 -0.096967 0.112741 0.049059 -0.086376 -0.082602 0.156539 -0.239211 0.039129 -0.019768 -0.057498 -0.085376 0.309921
GlobalSpecies0071 -0.042421 0.049356 0.183465 -0.012199 0.113633 0.061400 -0.233128 0.027681 0.348289 -0.083030 0.021486 -0.013689 0.122563 -0.087302 0.003895 0.014869 0.208828 -0.150223 -0.406020 0.152560 0.206760 -0.126376 -0.016651 -0.168643 -0.054641 -0.328995 -0.015436 -0.073051 0.187964 -0.184635 0.028880 -0.197930 0.065276 -0.059214 0.165670 0.172667 0.137942 0.047817 0.143734 -0.024263 0.087320 0.077183 -0.010369 -0.164726 -0.041570 -0.155591 -0.131510 -0.086268 0.108932 -0.046851 -0.194811 0.376260 0.009396 0.092941 0.454070 -0.056181 -0.005490 -0.043569 -0.207254 0.075745 0.031583 0.100402 0.272820 -0.013224 0.001572 0.057473 0.054867 0.072746 -0.107810 -0.099686 0.195368 -0.253185 -0.392960 0.093837 0.227152 -0.249837 -0.038794 0.054102 -0.134088 0.139807 0.097617 0.405879 0.074902 0.235155 -0.202957 -0.075471 0.081509 -0.021882 0.078610 0.177441 -0.152998 0.157909 0.114427 -0.285826 0.123975 -0.020238 -0.254188 -0.086346 0.023666 0.085617
GlobalSpecies0072 -0.186787 -0.044772 0.078478 0.047708 -0.003692 0.037232 0.174943 -0.134297 0.001330 0.233400 -0.134964 0.067705 -0.130612 0.092830 -0.064489 -0.028786 0.054778 -0.040035 -0.238840 0.043043 0.094188 0.123353 -0.131518 -0.006977 0.398342 0.143382 -0.060029 -0.009468 -0.001071 0.313089 -0.012275 -0.311804 0.110010 0.090315 -0.071655 -0.266671 -0.264436 -0.005752 0.028630 -0.297901 0.203666 -0.186234 0.154047 0.153261 -0.310924 -0.183219 -0.001363 -0.018522 -0.063489 0.087530 0.202530 0.051030 -0.054654 -0.178200 -0.033402 0.011844 -0.350727 -0.295195 -0.060668 0.161667 0.021589 0.163253 0.190098 0.323684 -0.081122 0.108528 0.176138 -0.082893 -0.002041 -0.281228 -0.172601 0.003835 -0.096199 -0.138488 0.071678 0.293536 -0.011940 -0.307992 0.097007 0.025460 -0.183708 0.013161 -0.118901 -0.004723 0.274045 -0.216422 -0.067676 0.009244 0.122885 -0.082340 0.004106 -0.094192 -0.134228 0.137216 -0.206579 0.025459 -0.117415 -0.062898 0.020144 0.198446
GlobalSpecies0073 0.046120 0.043835 -0.067842 -0.090376 0.006801 -0.031210 0.190085 0.120355 0.147056 0.184893 0.019036 0.094315 0.235772 0.200843 0.058580 -0.013939 -0.012832 -0.131229 0.085275 0.152765 0.014415 0.029048 -0.097183 0.045322 0.013639 0.115523 0.229773 0.076398 -0.082890 -0.084030 0.024100 0.185348 -0.132430 -0.109251 -0.117820 0.066031 0.103900 0.017854 0.111375 -0.048421 0.279174 0.197998 0.026669 0.060539 -0.096539 -0.021432 -0.042991 0.009676 0.105215 0.218423 -0.081136 -0.061068 0.053754 0.064100 -0.453862 -0.152610 -0.277019 -0.028880 -0.155790 -0.043163 0.146045 -0.249353 0.099282 0.065897 0.048514 -0.009943 -0.164066 -0.008839 -0.057245 -0.048243 -0.123809 0.081643 -0.004244 -0.025869 -0.154094 0.027535 -0.077954 -0.104734 0.038926 0.201840 -0.259954 -0.087502 -0.062394 0.005331 0.046713 -0.025354 0.123778 0.165308 0.145401 -0.222638 0.085396 -0.015458 0.078804 0.059731 -0.017553 0.075843 0.097048 0.163077 -0.223034 0.064671
GlobalSpecies0074 -0.078743 -0.072642 0.019945 -0.031561 0.063345 0.015834 0.201237 -0.024852 -0.084935 0.226736 -0.110010 -0.074422 -0.015918 0.110694 -0.120144 0.029644 0.021848 0.189314 0.033139 0.093656 0.061425 -0.207180 -0.024416 -0.018793 0.131667 0.121119 0.045205 0.241818 0.041628 0.262145 -0.028022 -0.034429 0.106011 0.002728 0.055668 -0.264350 -0.088093 -0.000039 0.002274 -0.149107 0.070193 -0.033560 -0.055843 0.299617 -0.106992 -0.035967 0.015001 -0.014388 -0.036639 0.050172 0.077004 0.036367 -0.158619 0.056558 -0.113963 0.239921 -0.032821 -0.045567 0.161359 0.022360 -0.055651 0.032479 0.141412 0.006086 -0.043225 0.203691 0.039338 0.073702 0.082928 -0.127385 -0.127278 -0.094868 0.132611 -0.046306 0.084315 0.203337 0.068817 -0.319481 0.138879 -0.005867 -0.188433 -0.131156 -0.102900 0.073982 0.026742 0.048776 0.021374 0.011935 0.197523 -0.134717 -0.015122 0.090440 -0.010673 -0.106829 -0.106442 0.009199 -0.080097 -0.112996 -0.203504 0.053452
GlobalSpecies0075 -0.004235 0.241912 -0.120166 -0.073560 0.227700 -0.052356 -0.089591 -0.060371 0.100580 0.185015 -0.100986 -0.103777 -0.137428 0.188032 0.040148 -0.072919 -0.085695 0.154417 0.068174 -0.147360 -0.122998 -0.277159 0.043557 0.035559 -0.196934 0.103242 -0.173043 0.048040 0.273593 0.148378 0.228416 -0.130244 -0.010747 0.294331 0.097927 -0.224857 -0.065225 0.190687 -0.141377 0.046626 -0.057076 -0.055938 0.120530 0.244262 0.074317 -0.095050 -0.138440 0.118301 -0.120408 -0.038221 0.024047 -0.034906 -0.214059 -0.064428 -0.170181 0.273719 0.066693 0.216572 -0.027420 0.171246 0.170099 0.117568 -0.091813 -0.042008 -0.263149 -0.093567 -0.115569 0.432249 -0.070818 -0.173258 -0.058264 -0.228762 -0.017468 -0.009222 0.024254 0.344317 0.084142 -0.109497 -0.126968 -0.094425 -0.091871 -0.126647 0.002317 0.038924 0.082226 0.010490 0.199984 0.205345 -0.024950 -0.004344 0.066872 0.040822 -0.141891 0.024063 0.091646 -0.245860 -0.092313 -0.079903 -0.139613 0.115021
GlobalSpecies0076 0.200081 -0.049926 -0.006914 0.007667 0.112249 0.131664 0.266295 -0.021477 0.066915 0.163239 -0.106151 -0.057025 0.188944 0.330568 -0.116440 0.238228 0.007811 -0.065613 0.067525 0.312786 -0.243620 -0.006029 -0.108363 -0.002829 -0.044753 0.093163 -0.049659 0.341850 0.238840 0.170932 -0.061144 0.167122 0.056679 -0.033821 -0.132751 -0.248457 -0.057545 -0.013321 0.189426 -0.377609 0.284908 -0.049579 0.085160 0.139102 -0.073798 0.165002 0.042064 0.043446 0.103130 0.188090 -0.043307 -0.244728 -0.283174 -0.035035 -0.476554 -0.165404 -0.272544 -0.192032 -0.182495 -0.092102 0.174144 -0.143809 0.269165 0.255794 0.062249 0.071676 -0.207010 -0.078908 0.011908 -0.029017 -0.178943 0.051917 -0.139735 -0.193117 0.028017 0.022318 0.085780 -0.249540 0.167750 -0.040818 -0.379982 -0.227072 0.169771 0.078607 0.421057 0.154934 -0.146980 0.188154 -0.042563 -0.206369 -0.104665 -0.108428 0.123284 0.219518 -0.093620 0.066157 0.010978 0.209597 -0.245899 0.023677
GlobalSpecies0077 0.256019 -0.182555 -0.053560 0.212056 -0.096391 0.155453 -0.047659 -0.137307 0.096567 -0.106639 -0.247597 0.113763 -0.133862 0.262205 -0.168964 0.265721 0.106355 0.025475 0.180967 0.112090 -0.298089 -0.054186 -0.101094 -0.036605 0.088741 0.121414 -0.099283 0.049990 0.138665 0.201053 -0.029046 0.043978 -0.055136 0.070622 -0.069945 -0.221984 -0.002728 0.020461 0.051623 -0.260425 0.114501 -0.205817 -0.055805 0.154921 0.023670 0.046378 0.220173 0.001544 -0.115007 0.049627 0.005697 -0.039408 -0.284544 0.007267 -0.269803 0.061151 0.088980 -0.322906 -0.072493 -0.112477 0.094910 0.014314 0.123043 0.166280 0.140833 -0.086059 -0.101966 -0.145268 0.118287 0.108637 -0.085242 -0.062343 -0.332847 -0.076518 0.177281 0.133657 0.169121 -0.291711 0.051908 -0.194536 -0.183478 -0.075433 0.127492 0.064267 0.131925 0.040697 -0.226932 0.137941 -0.027723 -0.120004 -0.124741 0.024899 -0.033571 0.197237 -0.194205 0.118386 -0.050371 -0.046262 -0.128056 0.207664
GlobalSpecies0078 -0.016728 -0.201463 0.198489 -0.123448 0.169680 0.379730 -0.037510 0.051716 0.253772 0.185847 -0.030083 0.005109 0.103560 0.083231 -0.046124 -0.007634 0.319111 0.053739 -0.307951 0.169959 0.139937 -0.061781 -0.144801 -0.059921 -0.054255 -0.249652 -0.010711 -0.005077 0.297629 0.132696 -0.018242 -0.196045 0.075048 0.115876 0.284545 0.010187 -0.034908 0.030618 0.140228 -0.363088 0.148650 0.120340 0.019894 -0.108655 0.060333 0.004993 -0.164917 -0.152719 -0.182050 0.051436 -0.186963 0.224606 -0.180510 -0.129863 0.273934 -0.053491 -0.144340 -0.238575 -0.198989 0.168201 -0.049589 -0.058486 0.236123 0.085090 0.116323 0.106910 -0.205835 0.137850 0.043624 -0.165310 -0.135524 -0.240882 -0.342748 0.083851 0.215707 0.069115 0.163626 -0.133512 -0.078002 0.064286 -0.091714 0.282526 0.094790 0.392802 -0.073005 0.032856 -0.106320 0.140335 0.009996 0.036437 -0.176559 0.167955 -0.050896 -0.206533 -0.013806 0.087924 -0.275056 0.094078 -0.088738 0.110790
GlobalSpecies0079 -0.069330 0.202163 -0.277703 -0.105068 0.039610 -0.023736 0.012368 -0.033641 -0.081793 0.286073 0.028052 -0.070020 0.014183 -0.027584 0.008784 -0.275702 0.053657 0.121557 -0.124568 -0.154699 0.021416 -0.145648 0.391595 -0.095957 -0.097751 0.179439 -0.051741 -0.057944 -0.099917 -0.077773 -0.023474 -0.092554 -0.017687 0.080400 -0.161394 -0.087577 -0.084449 -0.035836 -0.160237 -0.058421 -0.237600 -0.008844 0.182743 0.101699 0.059364 -0.148794 -0.231655 0.034756 0.233596 0.060791 0.255459 0.340942 -0.067544 -0.147787 0.099428 -0.072037 0.081311 0.259453 -0.018321 0.032340 -0.030438 0.302396 0.016322 -0.108723 0.077448 -0.088811 0.058266 -0.286617 0.061596 -0.227839 -0.251702 -0.083688 0.137664 -0.089602 -0.073154 0.227527 0.032327 -0.070560 0.099430 -0.089600 0.071817 0.158900 -0.126346 -0.327167 -0.142751 -0.233213 0.173986 -0.191359 0.191504 0.025481 0.135987 0.097861 0.016629 -0.098016 -0.110656 -0.107426 -0.081013 -0.173721 0.129450 -0.125139
GlobalSpecies0080 -0.161210 0.264599 -0.069936 0.166708 0.040212 -0.051783 -0.082408 -0.161686 0.065700 0.060421 0.211283 0.040779 0.100143 -0.260444 0.062212 -0.306553 -0.058566 0.057978 0.062741 0.111103 -0.188373 -0.329884 0.017368 0.113697 -0.198447 -0.030388 0.023983 -0.002953 -0.218510 -0.272377 -0.050715 0.067925 0.107882 -0.257640 -0.036791 0.032751 0.294053 -0.073637 0.144325 0.162131 -0.059931 0.292831 -0.226502 -0.188661 0.378995 -0.056695 0.107891 0.004071 0.013034 -0.280540 0.159212 -0.029518 0.180644 0.039095 0.018540 -0.203142 0.316092 0.265255 -0.010974 -0.129727 0.190794 0.033200 0.097385 -0.134396 -0.048577 -0.155018 0.030737 -0.064560 0.057199 0.177367 0.286349 -0.020442 0.101014 -0.087844 -0.130366 -0.214715 -0.283912 0.145186 -0.104739 0.067230 0.050624 0.245746 -0.069342 -0.028066 -0.172867 -0.078273 0.171266 -0.185068 -0.252871 0.117131 0.048094 -0.138350 0.076396 -0.249179 0.280333 -0.141069 0.245127 0.128471 0.276579 0.123586
GlobalSpecies0081 -0.139004 0.114665 -0.017989 0.092435 -0.107189 -0.212893 0.096025 0.167031 -0.009936 0.036367 0.066291 -0.083462 0.216474 -0.223737 0.252615 0.132405 0.019526 -0.015004 -0.213879 -0.050672 0.157479 0.142116 0.271429 0.037951 -0.090922 -0.019778 0.378904 -0.030272 -0.064923 -0.001155 -0.165493 0.115574 -0.376239 0.013062 -0.103528 0.416566 -0.042966 -0.101551 -0.094109 0.337601 -0.157197 0.290697 -0.074853 0.244730 -0.232800 -0.120953 -0.072922 0.148152 0.290072 0.160949 -0.003845 -0.165455 0.052976 -0.084550 -0.005590 -0.212614 -0.147170 0.199086 -0.176649 -0.183711 0.266015 0.100558 0.148149 -0.116487 0.199322 -0.272857 -0.073703 0.069834 -0.068515 -0.317924 0.078117 -0.112839 -0.289979 0.111886 -0.236033 -0.095071 -0.455247 0.018536 -0.090899 -0.093421 0.099328 0.019584 -0.012363 -0.173607 -0.101832 -0.085110 0.223404 0.032569 0.012002 0.245793 -0.217233 -0.229229 0.096886 0.096831 0.016200 -0.134143 0.129178 -0.074242 -0.325443 -0.109155
GlobalSpecies0082 -0.037153 0.169604 -0.133374 -0.174142 0.176047 0.086055 0.067032 -0.040508 0.006293 0.178021 -0.106420 -0.033741 -0.095017 0.193550 -0.030830 0.036450 -0.108163 0.146964 0.038457 -0.067142 0.044585 -0.139236 0.082021 -0.050741 -0.172506 0.296168 -0.211771 0.139928 0.208944 0.215344 0.295777 -0.061571 -0.066215 0.206213 0.000161 -0.274834 -0.080053 -0.012504 -0.201405 -0.040444 -0.012684 -0.112788 0.014609 0.212837 0.017999 -0.027845 -0.192077 -0.076386 -0.062670 0.016478 0.096704 0.089407 -0.181249 0.015667 -0.064734 0.269490 0.094219 0.133806 0.131647 0.138978 0.178643 0.017793 0.094916 0.008464 -0.174463 0.042894 -0.254145 0.372466 -0.046950 -0.190285 -0.021551 -0.177620 -0.167616 -0.163369 0.025031 0.281604 0.259038 -0.252595 -0.032129 -0.039620 -0.079438 -0.170128 0.012351 0.066698 -0.079332 0.058417 0.227360 0.053854 0.153648 0.034488 0.086496 0.178288 -0.131544 -0.031435 0.086140 -0.168722 -0.178498 -0.093607 -0.193899 0.025075
GlobalSpecies0083 0.065006 0.005837 -0.108492 0.073837 -0.098195 0.065589 -0.045407 -0.126255 0.066786 0.043481 -0.126043 -0.083920 -0.262792 0.194265 -0.163110 0.016314 -0.102276 0.156182 0.158579 0.122516 -0.137779 -0.045198 0.055220 0.071384 -0.078487 0.151223 -0.131819 -0.075256 -0.171983 0.209164 0.118786 0.040746 0.019260 0.148360 0.060318 -0.107802 -0.037943 0.013191 -0.048161 0.129779 0.153418 -0.001335 0.019150 0.210092 0.022892 -0.209356 0.056974 -0.082045 -0.089278 0.120948 0.172483 -0.056160 -0.016699 0.146786 -0.092999 0.060763 0.096664 0.129731 0.015961 0.034544 0.158019 0.037868 -0.104621 -0.138613 0.039228 -0.186550 -0.139725 0.127009 0.204006 -0.039524 0.012318 -0.230745 -0.295303 -0.018289 0.085835 0.106750 0.039114 -0.227469 0.091100 -0.116478 0.023742 0.129828 0.107108 -0.034212 -0.246411 -0.104689 0.102891 -0.024796 0.018613 -0.094854 0.071110 0.093531 -0.098687 -0.059562 0.062008 -0.064102 -0.079466 0.036065 -0.146012 0.113398
GlobalSpecies0084 0.017012 -0.055292 0.037526 0.023815 -0.152980 -0.107734 -0.073608 -0.026439 0.054201 0.009725 -0.116485 -0.048297 -0.093906 0.093749 -0.006648 0.194564 -0.082999 0.110794 0.069208 -0.025929 -0.122470 -0.103747 -0.192757 0.117009 0.116432 0.136433 0.067024 0.063330 0.024745 0.297783 -0.042242 -0.064534 0.082724 0.046119 0.039270 -0.065070 0.054031 -0.034744 0.046181 -0.096900 0.196834 -0.069490 -0.056889 0.155447 -0.000502 -0.000264 0.152910 -0.030448 -0.208380 0.027211 -0.003982 -0.120395 0.040992 0.159124 -0.141612 0.075535 0.189360 -0.159207 0.091318 0.053316 -0.089051 -0.058128 0.079312 0.178596 -0.138036 0.032261 -0.185239 0.145521 0.126405 0.083805 -0.135235 -0.100688 -0.014003 0.093363 0.026833 0.085317 -0.104690 -0.164809 0.083584 0.070298 -0.088741 0.058693 -0.005434 0.021822 -0.034056 -0.077845 -0.086172 -0.113721 0.053007 -0.010305 0.025487 0.152598 -0.027194 -0.052502 -0.048475 0.060941 0.022551 0.151461 -0.102835 0.056865
GlobalSpecies0085 0.156804 0.011642 0.032543 -0.123610 0.061009 0.282851 0.046991 0.312899 0.056859 -0.051331 0.096044 0.158931 0.089740 -0.060013 0.058666 -0.062257 0.150225 -0.059711 0.098322 0.002103 0.317159 -0.056766 0.075787 0.231206 -0.178868 -0.174646 0.227895 -0.204313 0.005296 -0.128463 -0.213221 0.034204 -0.152879 -0.046463 -0.002527 0.090796 0.167799 -0.226327 0.157233 0.114715 -0.076781 0.290368 -0.172177 -0.293183 0.078806 -0.156595 -0.003190 0.046857 -0.088041 -0.054792 -0.098943 -0.019394 0.026466 -0.004481 0.065554 -0.023247 -0.183710 0.438935 -0.170150 0.102401 0.075034 -0.020828 0.063698 -0.264153 -0.172561 -0.051924 -0.012621 -0.027954 -0.008726 0.007556 0.083171 0.237682 0.065577 -0.085883 -0.129801 -0.234190 -0.173454 0.267699 0.008250 -0.002451 0.108848 0.023971 -0.328500 0.042437 -0.111253 -0.193534 0.070130 0.081418 -0.150590 -0.109239 0.132201 -0.191282 0.095787 -0.159915 0.138481 0.117137 0.025987 0.276740 0.087692 -0.082874
GlobalSpecies0086 0.027071 -0.002902 -0.115762 -0.186609 0.086729 -0.233372 0.086452 0.006102 0.003131 0.013574 -0.034415 -0.047970 -0.036338 0.176517 0.254323 0.059506 -0.182135 0.163168 0.060138 -0.126206 -0.239241 -0.179904 0.018186 0.154750 -0.118157 0.032699 -0.074228 0.073608 0.028246 0.117648 0.138081 -0.047353 0.086783 0.159661 -0.003879 0.031594 0.011984 -0.028672 -0.152690 -0.039603 0.116531 0.003872 0.072617 0.049608 0.137274 0.034170 -0.057470 0.026924 -0.212695 0.048988 0.071050 -0.053941 0.045621 0.220479 0.146299 0.110217 0.108360 0.055564 0.027926 0.128186 -0.040748 0.055848 0.054695 0.159078 -0.284737 0.065463 -0.222712 0.015148 0.063747 -0.096142 -0.217778 0.058231 -0.092148 0.033748 0.077854 0.185077 0.112488 -0.241762 -0.026784 0.055567 0.022895 -0.219453 -0.025695 -0.107920 -0.018632 -0.059343 0.219333 -0.074532 0.115655 0.046395 0.061693 0.218848 0.012510 -0.090961 -0.061458 -0.034162 -0.193848 0.048095 -0.284386 0.115642
GlobalSpecies0087 -0.078668 -0.188069 -0.174886 0.049647 0.017925 0.187190 0.078085 0.024824 0.060096 0.183694 -0.302828 0.056855 -0.217109 0.185317 -0.160715 0.214738 0.057525 -0.030569 0.117668 0.170371 -0.335906 0.218511 -0.176798 -0.010872 0.082035 0.200425 0.064941 0.188578 0.077929 0.418332 0.093407 -0.034640 -0.032888 0.076038 0.181676 -0.164420 -0.079392 -0.039902 0.196671 -0.255040 0.254021 -0.058212 0.070011 -0.022059 0.013246 0.112542 0.065080 -0.252109 -0.176791 0.106198 0.109922 -0.082722 -0.090559 0.211530 -0.325764 -0.054147 -0.127990 -0.419454 0.081764 0.052537 -0.016710 -0.047385 0.062772 0.158424 0.142202 0.047065 -0.151565 0.087048 0.218253 0.083604 -0.093408 -0.175839 -0.165423 -0.139284 0.090057 0.142696 0.263976 -0.516573 0.026399 -0.124451 -0.273477 -0.023236 0.252158 0.157714 0.083785 0.185926 -0.156777 -0.036264 -0.174534 -0.026078 -0.118297 -0.092700 0.020357 0.169742 -0.240759 0.154728 -0.078554 0.033909 -0.177229 0.353469
GlobalSpecies0088 -0.050852 0.114517 -0.189657 -0.130956 0.142032 -0.246171 -0.107204 -0.094994 0.028872 0.129375 -0.014347 0.151497 0.002393 -0.121218 -0.081098 -0.170754 -0.064864 0.157629 0.458628 -0.183685 0.135356 -0.006870 0.263686 -0.034540 -0.051605 -0.044879 0.012088 -0.140175 -0.274467 0.161524 0.257211 0.025081 -0.157919 0.296473 0.020914 0.213430 0.112582 -0.032208 -0.411241 0.312124 -0.269888 -0.006372 0.079717 -0.049377 0.154986 -0.111390 0.082779 -0.012772 -0.084506 -0.182978 0.120492 0.107884 -0.248559 0.346830 0.125123 0.040535 0.247215 0.155673 -0.155654 -0.114409 0.112397 -0.139644 -0.092549 -0.071538 -0.166932 -0.204160 -0.016927 -0.170414 0.205613 -0.062654 0.127508 -0.158866 0.096802 -0.032467 -0.160475 -0.071681 0.032334 0.128335 -0.171455 -0.161720 0.143287 0.086354 -0.084547 -0.085771 -0.411700 0.083673 0.088281 -0.064868 0.108989 -0.054124 -0.168118 -0.015525 0.067857 -0.026309 0.164132 -0.012332 -0.033830 -0.021286 0.108103 0.059705
GlobalSpecies0089 -0.342819 0.000301 -0.141235 0.044794 -0.174763 -0.428092 0.003782 -0.098102 -0.308554 -0.585903 0.183652 -0.142268 0.139939 -0.557654 0.136004 -0.334642 -0.663402 -0.539797 0.385373 0.107497 0.057640 0.851812 0.127019 -0.036824 -0.263416 -0.721190 -0.389824 -0.205639 0.304720 -0.585605 -0.134836 -0.349677 0.740900 -0.034237 -0.098929 0.382258 0.192351 -0.320859 0.024185 0.499343 -0.431675 0.313509 0.058852 -0.823996 0.489906 0.404753 -0.374526 -0.348018 -0.139812 -0.467888 -0.124525 -0.330529 0.387469 0.354263 0.408920 0.127273 0.630187 0.852349 0.040296 0.282104 0.005176 -0.330061 -0.216484 -0.059922 -0.153125 -0.312123 0.075759 0.032195 -0.719910 0.336271 0.620106 0.141594 -0.010377 -0.251593 -0.178728 0.013270 -0.190584 -0.007624 -0.379690 -0.312027 0.502690 0.063983 -0.284016 -0.276925 0.022756 -0.528709 0.005977 -0.149834 -0.288214 -0.330179 -0.257931 -0.062703 0.269901 -0.467178 0.388715 0.260032 0.205297 -0.105838 0.531119 -0.071236
GlobalSpecies0090 -0.002761 0.167775 0.307485 0.076132 0.236589 -0.319216 -0.152183 -0.001621 -0.107233 -0.148627 -0.060098 -0.104828 0.263663 -0.149406 0.244847 0.000132 0.006729 -0.168458 -0.173022 -0.485907 -0.293085 -0.214323 0.121473 -0.009712 0.040147 -0.167044 0.131045 0.005207 -0.080411 -0.133096 0.073375 0.209851 0.248826 0.127600 0.115334 0.148926 0.040966 0.058540 -0.053268 0.120547 -0.181390 -0.108298 0.124312 -0.355578 0.251822 -0.223955 -0.089186 0.171383 0.088718 -0.154254 0.043979 0.086144 0.153817 -0.122822 0.496502 0.044539 0.007364 -0.059009 -0.188661 -0.104203 0.065994 0.169435 -0.274777 -0.086291 0.031268 -0.092534 0.101408 -0.514491 -0.063888 0.050827 0.176302 0.208012 0.090588 0.109047 0.352889 -0.253902 -0.282776 0.442655 0.052423 -0.072537 0.215980 0.185157 -0.023408 -0.365392 -0.278265 -0.238864 -0.122423 0.059467 -0.148428 0.152177 0.131321 0.041660 0.154592 0.137747 0.053963 -0.278938 -0.211949 -0.125464 0.435297 -0.203120
GlobalSpecies0091 -0.087940 0.164537 -0.033820 -0.069455 -0.339798 -0.289678 0.134965 0.095571 -0.288107 -0.228419 0.207309 0.069596 0.228439 -0.429139 -0.238170 -0.342859 -0.351010 0.138264 -0.106989 0.287286 0.987387 0.170062 0.377446 -0.001375 0.086955 -0.026778 0.402625 -0.681066 -0.324076 -0.473225 0.144731 -0.094752 -0.099104 -0.139144 0.073766 0.265830 0.064665 -0.040049 -0.412274 0.516599 -0.201583 0.287864 0.043480 0.518110 0.380276 0.446796 -0.017726 -0.418247 0.250587 -0.150187 -0.118680 0.086523 0.240866 -0.247522 -0.147885 0.054890 0.204568 0.450406 0.519559 -0.317703 0.069162 0.060013 -0.320278 0.034586 0.356411 0.217847 0.300191 -0.136366 -0.097650 0.213115 0.239582 -0.008180 0.339083 -0.061493 -0.646057 -0.417703 -0.241054 0.299248 -0.069963 -0.079258 0.215686 0.325452 0.137166 -0.012990 -0.137328 -0.112972 -0.226263 0.013206 -0.258697 0.041581 -0.529872 -0.366127 0.186414 -0.048269 0.331727 -0.124026 -0.037342 0.018091 0.110551 -0.453576
GlobalSpecies0092 0.161328 -0.055014 -0.100598 0.078701 -0.140895 0.156779 0.058986 -0.039002 0.254847 0.143475 -0.232076 0.136470 -0.269672 0.178573 -0.085718 0.184392 0.095370 0.062451 0.208456 0.115845 -0.229230 0.030605 -0.107977 -0.064855 0.105520 0.257598 -0.017198 -0.044019 -0.111949 0.336280 0.204860 -0.140461 -0.119065 0.144714 0.085341 -0.065175 0.004085 0.054751 0.100925 -0.137896 0.170142 -0.005573 0.136628 0.119029 -0.043196 0.005703 0.207468 -0.076768 -0.306376 0.177108 0.152506 -0.023338 -0.229868 0.275672 -0.361068 0.109650 0.010637 -0.391069 0.028945 -0.013059 0.114977 -0.039873 0.027776 0.111040 0.121322 -0.140190 -0.189950 -0.071673 0.218798 0.146027 -0.036801 -0.203267 -0.285725 -0.095066 0.133841 0.151056 0.094614 -0.532571 -0.078798 -0.143683 -0.175558 0.131923 0.073581 0.197302 -0.197407 -0.022503 -0.050050 0.011992 0.023535 -0.085447 -0.140419 -0.099497 0.056887 0.147001 -0.162084 0.174867 -0.143838 0.010769 -0.248433 0.326590
GlobalSpecies0093 0.029059 -0.237883 0.007879 0.146257 -0.035419 0.215990 -0.004742 -0.129029 0.052587 0.058527 -0.152105 0.065151 -0.010763 0.144006 -0.166519 0.176721 0.187661 0.060740 0.108274 0.087574 -0.113865 -0.165217 -0.110594 -0.083311 0.066970 -0.007020 -0.048140 0.085522 0.109473 0.260487 -0.096724 -0.013371 0.113619 -0.042251 0.066951 -0.124651 0.020038 0.057826 0.147869 -0.297183 0.176848 -0.052838 -0.120562 0.106191 -0.029415 0.088328 0.210011 -0.069594 -0.149248 -0.020362 -0.125557 -0.085485 -0.159054 -0.012738 -0.085523 0.088933 -0.015236 -0.238935 0.008217 -0.066909 -0.043310 -0.001995 0.107174 0.089116 0.081313 0.124808 -0.110966 -0.031693 0.177240 0.058377 -0.104212 -0.091580 -0.129045 0.052279 0.114622 0.011348 0.085307 -0.180070 0.176592 -0.104217 -0.094476 0.097756 0.173272 0.189357 -0.017527 0.107125 -0.162735 0.100145 0.012188 -0.119410 -0.189663 0.157127 -0.028747 -0.068231 -0.012551 0.099475 -0.223478 0.073138 -0.090649 0.178158
GlobalSpecies0094 -0.091779 0.018744 -0.107958 0.017486 -0.010065 0.101763 0.209274 0.022207 -0.016625 0.348100 -0.214475 -0.141561 0.091789 0.293417 -0.066649 0.007718 -0.123034 -0.019997 0.053412 0.186602 -0.002875 -0.051406 -0.036081 -0.007135 0.045988 -0.035500 0.040210 0.276547 0.139465 0.356970 -0.000963 -0.092257 0.021779 0.021026 -0.021188 -0.287634 -0.073615 0.091836 0.100190 -0.248286 0.107389 -0.015659 0.166926 0.215612 -0.180821 0.042328 -0.074430 -0.081681 0.007852 0.207959 0.101966 -0.088807 -0.129610 -0.040898 -0.207126 0.063310 -0.265864 -0.055849 0.001448 -0.077865 0.150559 -0.048874 0.252158 0.162582 -0.094601 0.085127 -0.134806 0.110697 0.052079 -0.270427 -0.175412 -0.048560 -0.074465 -0.287375 0.111885 0.187032 0.018992 -0.398378 0.179751 -0.190469 -0.271287 -0.213926 0.034579 0.090308 0.121610 0.026989 -0.064920 0.118958 0.032602 -0.103506 -0.097953 -0.013836 -0.002178 0.187646 -0.005229 -0.024283 -0.089601 0.053012 -0.289848 0.105783
GlobalSpecies0095 0.183745 0.010942 0.197215 0.218108 -0.227325 -0.112268 -0.154024 0.139848 -0.338599 -0.422448 0.412234 -0.213587 0.444262 -0.908499 0.359049 -0.221391 0.049229 -0.189544 -0.260376 -0.317386 0.351178 -0.077160 0.118766 0.076390 -0.185769 0.060449 -0.046620 -0.250062 -0.207750 -0.368575 0.109326 0.311489 0.085364 0.263747 -0.125674 0.213441 -0.313427 -0.267395 -0.113879 0.255418 -0.596927 0.349028 -0.292333 -0.055759 0.219413 0.420647 0.226871 -0.233613 0.045500 -0.345745 -0.039050 0.054523 0.226080 -0.347230 0.319697 0.274906 0.020670 0.090764 0.300173 -0.094503 0.236876 0.468895 -0.311117 -0.424590 -0.110222 0.052731 0.273657 0.089571 -0.851390 0.751257 -0.016201 0.189907 -0.085297 0.336464 0.420431 -0.495498 0.082014 -0.108387 -0.299731 -0.052051 -0.088084 0.173261 -0.224203 -0.400645 -0.301367 0.179222 -0.300814 -0.107315 0.125922 0.266219 0.042937 -0.494860 0.126962 -0.243507 0.112839 0.179033 0.253563 0.246661 0.182115 -0.237339
GlobalSpecies0096 0.144966 0.060849 0.022437 -0.011782 0.188287 0.039045 0.010676 -0.249870 -0.163499 -0.060956 0.046400 -0.041856 0.045254 0.077026 -0.032474 -0.062698 0.051272 -0.123039 0.047377 -0.021550 -0.017654 -0.126751 -0.037783 -0.173742 0.068413 0.120996 -0.128157 0.068042 -0.015728 -0.059341 0.018474 0.026581 0.014779 -0.062082 -0.156266 -0.162516 0.066753 0.083726 -0.069408 -0.073724 0.026101 -0.120111 -0.070249 0.052833 0.074645 -0.061940 0.087073 0.194098 0.109325 -0.004345 -0.020669 -0.171903 -0.060372 -0.056598 -0.120072 0.011150 -0.093866 0.151411 -0.113269 -0.051167 0.124364 -0.083652 0.002214 -0.002772 -0.186330 0.071422 -0.047653 -0.154792 0.088404 -0.103513 -0.128766 -0.091317 0.075040 0.008958 0.152296 0.055093 0.121592 0.037547 0.106348 0.036183 -0.030208 -0.082854 -0.029253 -0.107454 0.116530 0.036305 0.014175 0.141055 0.088669 -0.111827 0.177046 0.143349 -0.077435 -0.127746 0.019040 -0.026194 -0.036404 -0.052111 -0.136894 0.028721
GlobalSpecies0097 0.329279 -0.297821 0.143530 0.042216 0.023726 0.193758 -0.181269 -0.044150 -0.022433 -0.065003 0.352656 -0.162650 0.211977 -0.290709 0.140616 0.048163 0.155875 -0.206002 -0.121731 -0.347579 0.094887 0.068179 0.043265 -0.196393 0.018955 -0.306789 -0.057377 -0.254059 0.158564 -0.425395 -0.074682 0.203702 0.066694 -0.005511 0.064694 0.370204 -0.187074 0.038674 -0.444238 0.154473 -0.375960 -0.136005 0.004151 -0.050456 -0.019905 0.085097 -0.322619 0.018051 0.331781 -0.229271 -0.052330 0.179112 -0.140950 -0.151204 0.611974 -0.043934 -0.027235 0.103132 -0.227264 -0.045622 -0.195065 -0.197187 -0.421032 -0.203519 0.108399 -0.223866 0.000400 -0.345927 -0.279782 0.172086 0.157559 0.294834 -0.103532 0.165367 0.181145 -0.097398 -0.281219 0.495035 0.088359 -0.292570 -0.041585 0.366221 0.209997 -0.153899 -0.155059 0.139484 -0.069742 0.090245 -0.155280 0.096966 -0.050151 0.213170 0.236135 -0.163827 0.125463 0.058216 -0.122260 -0.481517 0.136356 -0.318862
GlobalSpecies0098 -0.106210 -0.133838 0.115149 -0.019226 0.085824 0.072532 0.003302 -0.109420 -0.029937 0.011419 -0.040424 0.083861 0.112153 0.090689 0.110247 -0.034145 -0.034373 -0.035449 -0.105284 0.010063 -0.015415 -0.189327 -0.100204 0.050712 0.218857 -0.148217 0.048691 0.083968 0.192616 0.282627 -0.086129 -0.110636 0.149397 0.115562 -0.053696 -0.135067 -0.142414 0.085536 0.131332 -0.279175 0.244558 -0.044643 0.134230 -0.160703 -0.128495 0.052717 0.024456 -0.119778 -0.195078 0.170081 0.017320 0.071783 0.096920 0.010869 -0.008623 0.022338 -0.110118 -0.267017 -0.082610 0.059297 -0.121910 0.007839 0.153181 0.197958 -0.064678 0.228634 0.004598 -0.065075 0.018055 -0.175613 -0.160226 -0.036190 -0.092577 -0.077222 0.176791 0.128087 -0.024171 -0.272032 0.268912 -0.030142 -0.050580 0.029721 0.100852 0.144455 0.075776 -0.068969 -0.116200 0.051844 0.089854 0.034101 0.039252 0.104023 -0.129571 -0.013795 -0.105246 0.111355 -0.193626 0.175952 -0.099898 0.064627
GlobalSpecies0099 -0.143153 0.018320 -0.011375 -0.018916 0.101237 -0.079979 -0.057544 -0.056615 0.023162 0.004252 -0.024975 -0.085702 0.049780 0.095818 0.080632 -0.057606 -0.034418 0.065136 0.135537 -0.118441 0.013953 -0.364697 -0.093074 0.034187 0.003475 -0.121543 0.105820 0.057796 0.005685 0.140403 -0.047490 -0.052441 0.136655 0.140051 0.043610 0.048666 0.067657 0.101538 0.035429 -0.113638 0.182097 -0.004495 -0.012969 -0.062386 0.102460 -0.022676 0.140756 -0.053542 -0.167444 0.029919 -0.142656 -0.050760 -0.075889 0.007070 0.080355 0.002837 0.220502 0.020740 0.031098 0.028171 -0.096281 -0.124475 0.156863 -0.009474 -0.013311 -0.023794 -0.025416 0.012880 0.174652 -0.083529 -0.097659 -0.157832 -0.010269 -0.110912 0.193152 -0.122690 -0.008204 -0.186193 0.084946 0.068941 0.013760 0.139685 0.053267 0.104010 -0.170553 -0.050748 0.001510 -0.098329 0.023634 0.053609 -0.082084 0.152447 -0.056473 -0.069531 0.010299 0.073045 -0.146261 0.170207 -0.118857 -0.084391
GlobalSpecies0100 -0.096953 0.088321 -0.067802 0.051594 -0.309239 0.014066 0.116925 0.067199 0.115453 0.203784 -0.201078 -0.052182 0.105812 0.254293 -0.022089 -0.006349 0.071140 0.135960 -0.011296 0.112344 0.040221 -0.092210 -0.028290 0.063314 0.119561 0.106793 0.101950 0.086988 -0.051617 0.196672 -0.014783 -0.022698 0.235384 -0.002478 0.040093 -0.059180 -0.027199 -0.052158 0.275609 -0.165175 0.085490 0.186817 -0.198852 0.237913 -0.219927 0.158816 -0.024738 -0.089153 0.030224 0.084640 -0.080612 -0.188970 -0.060550 -0.066601 -0.320316 0.177695 -0.114123 -0.062201 0.100094 -0.084203 0.047233 -0.140920 0.135067 0.149769 -0.004445 0.039471 -0.016270 0.165956 -0.032768 -0.007390 -0.212309 0.009136 0.001882 0.035662 -0.205549 0.001011 -0.117635 -0.101513 0.163258 0.051725 -0.213043 -0.111797 -0.042410 0.097531 -0.012730 0.163052 0.078716 0.062088 0.035216 0.009505 -0.230317 0.045087 0.104009 -0.071301 0.009910 -0.036591 -0.036308 0.000227 -0.109886 0.030004
GlobalSpecies0101 -0.180272 -0.054338 -0.123995 -0.063403 0.161049 0.047736 0.236339 -0.034752 -0.107854 0.237888 -0.185503 -0.009076 -0.022133 0.196609 -0.046321 0.083753 -0.141701 0.022465 -0.046964 0.128414 -0.233258 0.017209 -0.070111 0.062497 0.031723 0.017838 0.049858 0.405294 0.244750 0.356778 0.013948 -0.062844 0.054838 0.096200 0.017255 -0.288364 -0.187599 0.007940 0.138999 -0.364907 0.239274 -0.116608 0.248305 0.080513 0.009903 0.144675 -0.101774 -0.191719 -0.138054 0.086418 0.078399 -0.077416 0.027414 0.069966 -0.171888 -0.053005 -0.146315 -0.286434 0.033960 0.066452 -0.058110 -0.000911 0.163329 0.202293 -0.113405 0.248369 -0.033004 0.067503 0.093563 -0.101900 -0.153468 -0.071696 -0.039822 -0.223959 0.121565 0.189682 0.236126 -0.477962 0.205636 -0.046766 -0.196536 -0.288244 0.144366 0.117413 0.180295 0.201138 -0.135334 -0.099265 -0.062599 0.012532 0.068708 -0.036163 -0.077682 0.075232 -0.140555 0.039779 -0.085115 0.142026 -0.260164 0.111101
GlobalSpecies0102 -0.103812 0.040118 0.055249 -0.006892 0.188256 0.037761 -0.119856 -0.079703 0.058641 0.031499 -0.113152 0.069519 0.029623 0.141984 0.070979 -0.010065 -0.067606 -0.076731 0.029863 -0.118124 0.011081 -0.252307 0.062084 0.024821 -0.126435 -0.199458 0.117104 0.117981 0.133562 0.100220 0.022438 -0.032153 0.022692 0.034343 0.007783 0.010875 -0.088837 0.001340 0.030548 -0.110248 0.108666 -0.101945 0.160552 0.072988 0.085147 0.087039 -0.118256 -0.110425 -0.200709 0.084025 -0.152270 0.004597 0.018998 -0.026801 0.067232 0.041608 -0.029634 0.088878 0.007796 0.165289 -0.067424 0.091088 0.079197 -0.093389 -0.152562 0.032532 -0.073470 0.146577 -0.007725 -0.055552 -0.191679 -0.190261 -0.098678 -0.004650 0.298842 0.046290 0.073840 -0.100918 0.211209 -0.057953 -0.030142 0.022441 0.088879 0.091985 -0.085787 0.071494 0.032394 0.046720 0.134596 0.002886 0.046410 0.236434 -0.106248 -0.151839 0.093255 0.031907 -0.179282 0.080955 -0.258700 -0.105587
GlobalSpecies0103 0.035865 0.102842 0.095611 -0.013354 -0.217915 -0.111855 0.073089 0.046004 0.001559 0.082982 -0.124213 0.058640 0.028039 0.245752 0.023884 0.077900 -0.020687 0.165965 -0.061272 0.008849 -0.067846 -0.118146 -0.070033 0.095664 0.105641 0.094664 0.137142 0.121670 0.064418 0.243151 -0.051020 0.066312 0.102274 0.052211 -0.054368 0.009723 -0.019564 -0.013326 0.118129 -0.186656 0.181202 0.141783 0.045704 0.181171 -0.105322 0.104569 -0.022654 0.004651 -0.068885 0.128871 -0.054492 -0.128167 0.168248 0.106234 -0.150709 0.087138 0.055452 -0.188389 0.010399 -0.053032 -0.018582 -0.036618 0.166465 0.244298 -0.020604 0.066839 -0.089722 0.058254 -0.036863 0.023183 -0.247205 0.110468 0.016063 -0.026919 -0.119624 0.055474 -0.147410 -0.157197 0.216567 0.105302 -0.019162 -0.168743 0.086890 0.010912 -0.003272 0.068761 0.080624 -0.022547 -0.008803 0.048531 0.069419 0.151895 0.015484 -0.055687 -0.065912 -0.022612 -0.079259 0.192537 -0.171845 -0.073690
