GlobalSpecies0001 0.139376 -0.220429 -0.154066 -0.164134 -0.056072 -0.048799 -0.010681 -0.162339 0.005326 -0.258960 -0.096322 -0.091140 -0.231789 0.037190 0.022248 -0.027678 0.168837 0.297743 -0.047108 0.043422 0.147807 0.057271 -0.097576 0.146810 0.194845 0.096248 -0.050818 0.117603 0.020724 -0.169774 0.306343 0.001513 0.041241 0.211607 -0.128663 0.247128 -0.154317 0.032534 0.202207 -0.134482 0.154006 0.363545 0.068383 0.236980 -0.251553 -0.055151 0.162378 0.030694 -0.190707 -0.127424 0.015631 0.051215 -0.209853 -0.029855 -0.005585 -0.015618 -0.194648 0.159782 0.202732 -0.145306 -0.079649 -0.128491 0.161211 -0.096625 0.237446 0.043733 0.142326 -0.119731 -0.013878 0.103252 -0.085043 -0.026159 0.041214 -0.158619 0.213370 -0.082791 0.012471 -0.049705 0.187348 -0.098389 0.092479 0.373726 -0.073039 0.235140 -0.031145 -0.246746 -0.036068 0.116916 0.068609 0.247929 -0.161076 0.101414 0.025189 0.052596 -0.082871 -0.047811 -0.002291 -0.165281 -0.058597 0.080212
GlobalSpecies0002 0.003080 0.072232 -0.183184 0.034501 -0.187593 -0.094254 -0.153047 -0.180350 -0.124683 -0.126844 -0.043714 -0.136480 -0.064899 -0.245487 -0.044005 0.037464 0.100985 0.164643 -0.239801 0.056136 -0.092220 0.078575 -0.118931 0.028079 0.235102 0.142645 -0.022205 -0.107545 0.025638 -0.081088 0.225079 0.004722 -0.038004 0.155344 -0.022207 -0.000548 -0.035474 0.123651 -0.026452 -0.153215 -0.002114 0.142767 -0.089732 0.205932 -0.036303 -0.016471 -0.071082 0.006632 -0.107275 0.126638 0.062945 0.054205 -0.165068 -0.013099 -0.003409 -0.022404 0.195219 0.114504 0.030926 0.159767 0.306559 -0.069946 -0.106675 0.014674 0.076369 -0.093239 -0.171910 -0.097228 -0.074647 0.124774 -0.026967 -0.010740 -0.162552 -0.150025 0.118068 0.094717 0.060180 -0.118647 0.141697 0.281865 -0.017193 -0.073930 -0.061310 0.019058 0.192518 -0.205537 -0.111474 -0.124510 0.012160 0.054962 -0.105826 -0.131851 0.154694 0.002074 -0.084476 -0.047229 -0.169553 -0.119186 -0.041416 0.066923
GlobalSpecies0003 0.279359 -0.002289 0.279138 -0.749007 0.333304 0.130970 -0.338697 0.266713 0.285767 0.336350 -0.153126 0.693230 0.430284 0.640120 -0.103142 0.236409 -0.608222 -0.342395 0.203797 -0.458578 -0.619699 0.183710 0.683866 0.132365 -0.358429 -0.182188 -0.427281 -0.383790 0.309813 -0.175838 0.324180 -0.899023 0.035550 -0.480362 0.248762 -0.265349 0.174750 -0.084176 -0.206703 0.271501 0.130692 -0.463288 -0.186391 -0.840326 -0.028908 -0.358605 0.009544 0.063266 0.435732 -0.212580 -0.382375 0.375095 -0.221778 -0.147341 -0.219402 -0.093276 0.451840 -0.218858 0.057535 0.431945 0.031714 0.208693 -0.049735 -0.317324 0.171305 -0.228242 0.204385 -0.434216 0.361975 -0.010076 0.032542 0.141153 0.234765 0.195287 -0.204883 -0.358793 0.102285 0.347598 -0.072591 0.183306 0.425863 0.249252 0.296442 -0.300700 -0.297471 0.843349 0.203847 -0.408157 -0.526423 0.234857 0.254878 0.268543 0.198171 -0.073210 -0.014970 0.274792 0.010246 0.144515 -0.048892 0.121372
GlobalSpecies0004 0.019050 0.149529 0.141107 0.190040 0.152321 0.003710 0.018534 -0.135075 -0.099321 0.075437 0.168622 0.061784 -0.085573 -0.106598 0.052186 -0.023350 -0.038144 0.007550 -0.059045 -0.175273 0.010668 -0.101133 0.156754 0.016875 -0.154000 -0.172447 0.116125 -0.147147 -0.094101 -0.010170 -0.221998 -0.023001 -0.153638 0.181262 -0.002017 0.057470 0.043779 0.016370 -0.117859 -0.042291 0.113431 -0.198496 0.037178 -0.118811 0.386905 0.122882 0.108930 -0.306289 -0.018949 0.094107 0.262503 -0.030960 -0.112868 0.052820 0.041968 0.099035 0.023275 0.122607 0.065372 0.063716 -0.147803 0.213781 -0.167626 0.039685 0.061439 -0.076678 -0.183207 0.079701 -0.037531 -0.053586 -0.032374 -0.040428 0.147508 0.029824 0.080610 0.196967 -0.073329 -0.022215 -0.044000 -0.068217 0.116538 0.067702 -0.049880 -0.186823 -0.248419 0.191510 -0.038641 0.127617 0.221314 -0.152165 0.165320 0.011233 0.053463 -0.311654 0.014519 0.083746 -0.163292 0.178300 0.174438 -0.307357
GlobalSpecies0005 -0.271783 0.012877 -0.246390 0.066725 -0.335793 0.274630 0.073509 0.139548 0.045813 0.131239 -0.289799 -0.123008 0.031401 -0.087741 0.135841 -0.248260 -0.180032 -0.027908 0.084659 0.197673 0.049163 -0.052599 0.100485 -0.039676 0.062607 -0.289888 -0.058895 0.001176 0.184547 0.082041 -0.238353 -0.114725 0.195660 0.106045 -0.045493 -0.221596 0.027684 0.057675 0.007415 -0.091678 -0.052918 -0.195822 -0.058637 -0.063390 -0.177004 -0.203125 -0.222248 0.178514 -0.025196 -0.080937 0.063939 0.042799 -0.177571 -0.146445 -0.124906 0.023072 -0.041102 0.082410 -0.175276 -0.051315 -0.060461 -0.132398 0.038937 0.074176 -0.100382 0.116399 -0.109101 0.259319 -0.020345 -0.271227 -0.356561 0.043953 -0.129828 0.319742 -0.216607 0.196182 0.015399 -0.146668 0.094357 -0.080032 -0.052495 -0.000209 0.127354 0.248464 0.171298 0.233945 -0.138435 0.074863 0.138641 -0.055736 0.086070 0.029761 0.014136 -0.112816 -0.037031 -0.393383 -0.154784 -0.361194 0.034459 -0.152315
GlobalSpecies0006 -0.418084 0.027815 0.055600 0.031719 0.166517 0.061197 -0.163679 0.100276 -0.119042 0.228517 -0.135280 0.041620 0.167594 0.240625 0.317233 -0.163658 -0.322471 -0.048486 0.127470 0.266922 0.132847 -0.376255 0.146317 0.079630 -0.244561 -0.268096 0.075017 0.045595 -0.349187 0.210519 -0.364334 -0.086841 0.247991 0.029507 -0.065781 -0.021626 0.195616 -0.078148 -0.144776 0.091364 -0.221612 -0.490367 -0.043050 -0.389815 0.046867 0.016947 -0.245392 -0.058550 -0.021060 -0.012041 0.032950 0.175299 -0.134289 -0.100384 0.136223 -0.207118 0.142684 -0.037308 -0.175289 -0.207578 0.196343 -0.017312 0.075673 0.222427 -0.112454 0.227307 -0.205122 0.255633 0.031341 -0.487906 -0.406083 0.132788 -0.042402 0.223170 -0.281983 0.311398 -0.308226 0.157874 0.180958 -0.078656 -0.038297 -0.102929 0.036339 -0.271769 -0.048650 0.454571 0.016473 0.215375 0.113571 0.146245 0.077150 -0.018570 -0.077530 0.197992 0.028013 -0.396068 -0.089746 -0.312816 -0.103311 -0.015649
GlobalSpecies0007 0.219085 0.247086 0.151602 -0.242139 0.322300 0.078295 0.265963 0.034933 0.175324 -0.018556 0.163241 -0.112334 0.109725 0.246196 0.116623 0.035577 0.046224 -0.162520 -0.062415 -0.276807 0.076479 -0.077336 0.015194 -0.247417 -0.054587 -0.445848 0.053416 -0.014231 -0.182605 0.093650 -0.543174 -0.197330 -0.295155 -0.092591 -0.198325 0.122887 0.088338 -0.151724 -0.293700 -0.129944 0.021251 -0.341180 0.081942 -0.164406 0.239733 0.159581 0.338747 -0.339873 -0.105586 -0.063954 -0.127439 0.020898 -0.036101 0.053107 0.111380 -0.098326 0.162008 -0.053862 -0.126126 -0.168411 -0.266972 0.161091 -0.113149 -0.016205 0.018640 0.041995 -0.312456 0.206802 -0.110365 0.119151 0.037470 -0.018874 0.196288 -0.082421 0.016039 0.240911 -0.159363 -0.007120 -0.214034 -0.065012 0.192791 0.229624 0.107913 -0.114015 -0.304187 0.321474 -0.050895 0.047304 0.246347 0.005050 0.017755 -0.014009 0.007711 0.043290 0.133640 -0.056677 0.047042 0.360040 0.176126 0.083912
GlobalSpecies0008 0.247052 -0.149810 -0.345225 0.053630 -0.054988 -0.152951 0.146499 -0.235506 -0.166969 -0.536558 0.064990 -0.156049 -0.367059 -0.063414 0.172778 0.237202 0.349045 0.004405 -0.162110 -0.300387 0.085554 0.113977 -0.358776 -0.073207 0.608296 0.038122 -0.518658 -0.209482 -0.041111 -0.365023 0.056479 0.036314 0.235851 0.241280 -0.199934 -0.043764 0.059760 0.298393 0.221912 -0.442378 0.067017 0.528873 0.133232 0.239679 -0.099352 0.346800 -0.052714 -0.056225 -0.110942 -0.003977 -0.137598 -0.242584 0.138697 0.081624 -0.229401 -0.316375 0.107028 0.306369 0.007084 -0.071291 -0.404277 -0.125074 0.464597 -0.041597 0.205876 0.201844 0.136452 0.091761 -0.158046 0.062418 -0.026358 0.081627 -0.247190 -0.066036 0.137291 -0.033086 -0.104766 -0.104183 0.115809 0.182641 -0.099039 0.051583 -0.182932 0.333121 0.078319 -0.138360 0.092387 0.152154 0.051941 0.084536 -0.610830 0.143991 -0.161909 -0.134430 -0.169311 -0.061763 -0.094789 -0.170084 0.067845 0.546811
GlobalSpecies0009 -0.407639 -0.183258 0.096142 0.410781 0.021851 -0.124355 0.178679 0.022188 -0.059452 0.307616 0.106873 0.254866 -0.054993 0.056839 0.403167 0.243051 -0.240417 -0.201739 0.057162 -0.193368 0.206869 0.002965 0.109595 -0.066162 -0.229604 0.235837 0.206079 0.321161 -0.288728 0.278888 -0.065005 0.038788 0.031045 -0.008447 0.170262 0.170287 -0.224887 -0.239676 -0.239034 0.301452 -0.271293 0.033936 0.151332 -0.421880 0.012018 -0.090217 -0.198379 -0.212228 0.354870 -0.117619 -0.476824 -0.035632 0.252462 0.161041 0.058950 0.010156 0.315760 -0.677043 0.100753 -0.031500 -0.174380 -0.010552 -0.102587 0.007490 -0.214920 0.139770 0.050617 -0.339504 -0.001555 -0.151778 0.125229 0.247299 0.223472 -0.109186 -0.366612 -0.159817 0.161894 -0.125601 -0.529165 0.169447 0.021989 -0.138033 0.173163 -0.252727 0.038124 0.279485 0.083958 -0.035024 -0.169255 0.203203 0.372389 -0.268209 0.111195 0.047041 0.343548 0.123524 0.169360 0.226588 0.030749 -0.504932
GlobalSpecies0010 -0.034517 -0.264292 0.140603 0.059182 0.055947 -0.034588 0.053687 -0.028633 0.051554 0.074140 0.101788 0.127203 0.042074 -0.019702 -0.067562 -0.182771 0.104584 0.113931 0.004534 0.116112 0.048944 -0.041415 0.117505 -0.020772 0.110402 -0.113675 0.109178 -0.062271 -0.205037 -0.010978 0.034477 0.135188 -0.087513 -0.291080 -0.014647 -0.074441 0.201277 -0.006399 0.048744 0.154703 0.109778 0.070790 0.022286 0.106294 -0.094886 -0.093685 0.161763 0.114126 -0.019638 0.110594 0.107471 -0.063921 0.174420 0.155245 0.060352 -0.264117 -0.087272 0.028959 -0.137201 0.025678 0.075014 0.133125 0.159951 -0.045047 0.025690 -0.306270 -0.000843 0.079959 0.013125 0.000295 0.045962 -0.048410 0.061010 0.056088 0.152837 -0.011567 -0.006762 -0.238990 -0.036872 -0.267944 -0.047515 -0.037100 -0.203821 0.159486 0.060827 -0.043912 -0.081413 0.162234 -0.076109 -0.267217 0.008844 -0.041757 0.071183 -0.098985 -0.095392 0.205579 -0.099720 0.081884 -0.301505 0.032572
GlobalSpecies0011 0.016091 0.567570 0.036779 0.009463 0.186084 0.121562 -0.834168 0.441227 0.092450 0.073677 0.048367 0.301692 0.252183 -0.119318 -0.488132 0.397760 -0.483737 -0.322145 0.527324 0.199724 -0.664335 -0.228004 0.877658 -0.377052 -0.461331 -0.260567 -0.423065 0.109640 -0.401753 0.542160 -0.019667 0.300300 0.020578 -0.372026 -0.048472 -0.262217 0.572833 -0.001737 -0.430940 0.405103 -0.252520 -0.130499 0.267586 -0.257962 -0.097305 -0.331917 0.078358 -0.028356 0.196676 -0.411129 -0.110048 -0.160879 0.605555 -0.186624 0.123689 0.812749 -0.335442 -0.016460 0.212768 -0.079161 0.274471 -0.144994 -0.785247 -0.267295 -0.904626 0.082111 0.326558 -0.548460 -0.121515 0.214157 0.077585 0.292298 0.051660 0.497983 0.142796 0.328285 -0.541450 0.287085 -0.807142 -0.027582 -0.139560 -0.037511 -0.419076 -0.191183 0.232662 0.547203 -0.045042 -0.259979 -0.339969 -0.036802 -0.331002 -0.253041 -0.047724 0.442723 0.431481 -0.143731 0.791218 0.343743 0.249381 0.477420
GlobalSpecies0012 -0.208355 0.111606 -0.213610 0.070091 0.114785 -0.288942 -0.371903 0.129055 -0.117708 0.315049 0.191258 0.050701 -0.019049 0.351422 -0.451729 0.015351 -0.461428 -0.178571 0.305966 0.133560 -0.007964 -0.154522 0.253089 0.135206 -0.512462 -0.127996 0.269475 0.042960 -0.083262 -0.249739 -0.262050 0.204173 -0.108267 -0.145804 0.017845 -0.338678 -0.274045 -0.486364 -0.383758 0.145517 -0.218947 -0.408316 -0.003159 -0.406095 0.366391 -0.194032 0.030050 0.229280 0.543897 -0.262359 -0.332935 -0.106327 0.038885 -0.076267 0.023425 0.238850 0.458006 -0.355569 0.206298 0.201619 -0.204108 -0.021383 -0.301729 -0.125761 -0.543172 0.338772 0.034327 -0.291106 -0.174108 -0.289684 0.451943 -0.117189 0.226276 -0.339520 -0.327360 0.100475 -0.243979 0.685219 -0.028489 0.192708 -0.146803 0.083107 0.228441 -0.150257 -0.029621 0.311311 0.121459 -0.227769 -0.318393 0.009699 -0.000374 -0.069003 -0.154242 -0.361702 0.007533 -0.084201 0.559665 0.524630 -0.068143 0.003313
GlobalSpecies0013 0.009079 0.263214 -0.055274 -0.017152 -0.090019 -0.131658 -0.062297 -0.145550 0.012502 0.033174 -0.145754 -0.130587 0.078644 0.006319 -0.004383 -0.091058 -0.036716 -0.043239 -0.245483 -0.129403 -0.055295 -0.029653 -0.038353 0.044721 -0.053600 -0.070745 -0.016857 -0.043791 0.020589 -0.066505 -0.066487 0.071536 -0.146852 0.135191 -0.107912 -0.167774 0.015207 0.012145 0.065853 -0.008408 -0.076871 0.175660 0.110684 -0.079712 -0.066074 -0.133999 0.300390 0.125943 0.054489 -0.135756 0.035186 -0.072611 0.039214 0.032314 -0.059568 -0.212858 0.076202 0.067823 0.083758 0.009400 -0.111625 -0.124863 0.027834 0.026896 0.136776 0.180901 -0.113304 0.141821 -0.039379 0.058244 -0.026840 -0.033163 -0.091082 -0.065166 0.003939 -0.049962 0.031041 0.150460 -0.147790 0.122615 -0.054848 0.069071 0.149762 -0.208566 0.014528 -0.189623 -0.273799 0.036771 0.128433 -0.092273 -0.098247 0.021781 0.107637 -0.026888 -0.095117 0.006662 0.190755 0.080962 0.080893 0.124671
GlobalSpecies0014 0.288874 -0.014067 0.428241 0.036976 -0.023064 0.000903 -0.000968 0.273787 0.095503 -0.025469 0.021904 -0.009077 0.139419 0.013020 -0.073975 0.103298 -0.039308 -0.097487 0.068876 0.515408 -0.242778 0.321412 0.041954 -0.098122 -0.089729 -0.049599 0.046352 0.117412 0.190093 0.430902 0.101395 -0.195893 0.036610 0.218068 -0.263550 0.011273 -0.080433 0.087889 -0.123243 0.184107 0.039620 -0.300173 -0.197231 0.156882 0.300152 0.189956 -0.203281 -0.003002 -0.068779 0.232283 0.160548 0.277845 -0.099462 0.010521 0.143552 0.260408 0.161632 -0.157489 -0.281004 -0.051583 -0.100075 -0.082833 -0.276250 0.208614 -0.185715 0.011351 0.013831 0.266789 -0.120760 0.071810 0.092821 0.139811 0.012932 0.102694 -0.174374 -0.146482 -0.017134 0.390663 -0.082985 0.121122 0.031431 -0.152311 0.123450 -0.066068 -0.280276 -0.236192 0.000357 0.079407 -0.273655 -0.223673 -0.053841 0.009295 -0.024263 0.261622 -0.204039 0.145343 0.169199 -0.137982 -0.076053 -0.155550
GlobalSpecies0015 0.191437 -0.219460 -0.100410 -0.016609 -0.286568 -0.130133 0.218886 0.173234 -0.082826 -0.319820 -0.103645 -0.034460 0.011261 -0.085198 0.137251 0.119311 0.289049 0.157077 0.081210 0.457816 -0.095767 0.198885 -0.261289 -0.074793 0.218829 0.205810 -0.200482 -0.011141 0.323262 0.048527 0.314304 0.122233 0.101822 0.115588 -0.235854 0.091944 -0.127044 0.345417 0.165151 -0.166042 0.208776 -0.009090 -0.123347 0.184224 -0.065544 0.130082 -0.232829 0.115227 -0.260404 0.210040 0.049641 0.127935 -0.107603 0.193999 0.008413 0.186215 0.231075 0.066184 0.078415 -0.063142 0.025681 -0.166404 0.117307 0.073017 0.048889 -0.090790 0.051806 -0.107367 -0.160022 -0.000927 0.138709 0.141416 -0.278308 -0.151103 -0.053977 -0.091895 -0.095045 0.010591 0.124265 0.290470 0.059176 0.010199 0.011945 0.276322 -0.130055 -0.499382 -0.069098 -0.046447 -0.204006 -0.106694 -0.283443 0.015177 0.013394 0.183240 -0.283107 0.128561 -0.228597 -0.432510 0.043661 0.085114
GlobalSpecies0016 -0.156663 -0.067596 -0.085858 0.263268 0.013050 0.195642 -0.012085 -0.138939 0.070605 0.128529 -0.017918 -0.063737 -0.071758 -0.170399 0.146744 -0.084936 0.036213 -0.041245 -0.178392 0.030720 0.072365 -0.052541 0.018605 0.042485 0.005403 -0.097598 0.107983 -0.021318 -0.071988 -0.050812 0.047721 0.108906 -0.040407 -0.105139 0.106949 -0.150098 0.102831 -0.027392 0.042974 -0.038067 0.062114 -0.039852 0.092431 0.159313 0.085915 0.259767 -0.037105 0.011894 0.018178 0.073645 0.175578 -0.047836 -0.034432 -0.230882 0.085156 0.056401 -0.036641 -0.076416 -0.102000 0.102569 0.141236 -0.116456 -0.222402 -0.008884 0.079566 -0.057307 0.022583 0.045744 0.077774 -0.039660 -0.133800 -0.027338 -0.104975 0.060815 0.145015 0.033749 0.000950 -0.145997 0.185528 0.003290 0.051524 -0.125743 -0.027445 -0.151833 0.160117 -0.101547 -0.090846 0.010682 0.138842 -0.082652 0.215610 -0.087612 0.111884 -0.081768 -0.118397 -0.126599 -0.391767 -0.161904 -0.131655 0.019906
GlobalSpecies0017 0.008467 -0.077732 -0.317285 0.010007 -0.153060 -0.040577 0.228471 -0.133222 0.023962 -0.176848 0.033776 -0.221693 -0.207161 -0.202435 0.101576 0.065009 0.281462 0.074777 -0.104961 0.008116 -0.088269 -0.013169 -0.382989 0.043160 0.293660 0.162438 -0.176732 -0.148944 0.039150 -0.159563 0.084682 0.031985 0.011644 0.027084 -0.138034 -0.034827 -0.043663 0.090421 0.097388 -0.221963 0.106467 0.208140 0.027079 0.284509 -0.023742 0.155930 -0.124192 0.051746 -0.124944 0.052828 0.155156 -0.023597 0.010444 0.009236 -0.045593 -0.054069 -0.000311 0.197112 -0.123793 -0.018409 0.035706 -0.110777 0.270011 0.073009 0.117756 -0.045712 0.130458 -0.027196 0.010539 -0.031155 -0.059714 -0.018328 -0.290617 -0.089357 0.155928 -0.062520 -0.011879 -0.121670 0.225924 -0.054371 -0.121134 -0.120123 -0.177512 0.104616 -0.003501 -0.207099 -0.001769 -0.019926 0.031733 0.000015 -0.197568 -0.014028 -0.137073 -0.062368 -0.154587 0.008845 -0.199779 -0.168657 -0.031669 0.159580
GlobalSpecies0018 0.065041 0.414805 0.019917 0.068483 0.007286 -0.157497 0.030407 -0.056588 0.025504 0.022127 0.151706 -0.043404 0.106686 0.155034 -0.187625 -0.294789 -0.134126 -0.034981 -0.261171 -0.159480 -0.017274 0.234861 0.385465 0.113922 -0.228493 -0.095815 -0.189082 0.010435 -0.152973 0.078519 -0.155749 -0.006139 -0.186602 0.188845 -0.180060 -0.046732 0.100868 0.162291 -0.276071 0.014155 -0.184917 0.059156 0.090757 -0.155178 0.146333 -0.065165 0.167648 0.210640 0.106615 0.021241 0.009698 -0.287183 0.029788 -0.036630 0.167382 0.112446 0.203639 -0.186039 -0.227453 -0.052841 -0.450153 -0.041181 -0.092171 -0.125457 -0.111498 0.280621 -0.072248 0.341586 -0.275669 -0.144772 0.225361 0.399098 -0.267802 -0.122001 -0.074851 0.071908 -0.012662 0.264994 -0.201970 0.086534 -0.273580 -0.127078 0.254266 -0.059510 0.211386 0.185632 0.084999 -0.168722 0.175968 -0.224167 -0.076503 0.060520 0.084818 -0.051344 0.255555 -0.027661 0.132406 0.230660 0.205803 0.017658
GlobalSpecies0019 0.193236 -0.029222 0.134621 0.167140 -0.030543 0.156500 0.138830 -0.061431 0.099692 0.120398 0.278668 0.122536 -0.038344 0.047566 0.006630 -0.073694 0.094714 0.090218 0.026657 -0.185942 -0.012006 0.021540 -0.043075 0.077415 0.072535 -0.167433 -0.147025 -0.085288 -0.102830 -0.125107 -0.096720 0.109587 0.025914 -0.047881 0.122799 -0.249462 0.036439 -0.005026 0.137319 -0.127237 -0.070277 0.013273 -0.059169 0.026932 0.226550 0.296475 0.219072 0.061974 -0.031788 0.055693 -0.035490 -0.096395 0.099405 -0.028200 0.084450 -0.078416 -0.068782 -0.055943 0.020757 0.096910 -0.032753 0.221097 0.211475 -0.076296 0.055221 -0.057576 0.085566 0.407007 0.161264 -0.033607 0.081128 -0.099041 -0.037642 0.147083 0.054281 -0.056536 -0.059218 0.024785 -0.064121 -0.152875 0.150871 -0.016661 -0.168356 -0.075265 0.105498 0.004808 0.060323 0.056980 0.065748 -0.331317 0.117315 0.099387 0.019006 -0.210647 -0.189817 0.036249 -0.047886 0.203988 -0.128295 0.184406
GlobalSpecies0020 0.139568 0.157014 0.252107 -0.018652 0.078895 -0.051285 -0.058011 -0.060501 0.073598 -0.131073 0.144760 0.101240 0.015208 0.154392 -0.179288 -0.247599 -0.317042 -0.020741 0.002873 -0.199835 -0.045377 -0.356061 0.605957 -0.113397 -0.417885 -0.531449 0.066292 0.090581 -0.123402 0.156478 -0.267670 -0.150578 -0.142103 -0.433450 0.099671 -0.115435 0.130521 -0.014763 -0.393280 0.277520 -0.172956 -0.404317 0.011710 0.186796 0.415146 0.037019 -0.010939 -0.225326 0.022224 -0.226584 -0.076371 -0.267475 0.047233 -0.071009 -0.069344 -0.037873 -0.497724 -0.049436 0.025689 -0.165057 -0.377800 -0.035933 -0.181498 -0.263592 -0.569629 -0.088093 -0.072449 0.131776 -0.014386 0.029491 -0.132922 0.216657 0.069420 -0.142149 0.115634 -0.186841 0.386177 0.070133 -0.158135 0.128943 0.048467 0.130812 0.430035 -0.405235 -0.108304 0.015738 0.338958 -0.272705 0.011928 -0.046266 -0.167439 -0.042716 -0.071716 -0.032602 0.422851 0.107095 -0.099963 -0.062694 -0.064051 -0.121740
GlobalSpecies0021 -0.204013 -0.111189 -0.462785 0.142970 -0.152150 0.073877 -0.020402 -0.131951 -0.165169 -0.169257 -0.111554 -0.181630 -0.202785 -0.207033 0.159098 0.040289 0.213462 0.034921 -0.080673 0.053194 -0.019389 -0.018242 -0.161917 -0.005843 0.202046 0.101062 -0.158982 -0.025926 0.066125 -0.244351 0.116045 0.052542 0.274720 0.091956 -0.089520 0.014298 -0.044275 0.074004 0.066344 -0.223950 0.064816 0.178089 -0.004815 0.256097 -0.203385 0.186310 -0.187459 0.055576 -0.171647 -0.064599 0.127732 -0.034680 -0.137589 -0.176215 -0.033163 0.115905 -0.066136 0.096603 -0.107017 -0.027166 0.140972 -0.228078 0.222027 -0.005268 0.114971 -0.006495 -0.013108 -0.108732 -0.078315 0.034946 -0.245438 0.011213 -0.136779 -0.030813 0.231907 -0.071344 -0.021364 -0.154362 0.289774 0.025910 -0.045370 -0.162611 -0.219299 0.185446 0.210487 -0.021329 -0.064621 0.107583 0.108058 0.114634 -0.083266 -0.097292 0.063121 -0.043299 -0.185257 -0.309763 -0.281999 -0.377318 0.003405 0.099219
GlobalSpecies0022 -0.068184 -0.172811 -0.067714 -0.061933 -0.032351 -0.129675 0.198455 -0.089881 0.051095 -0.102267 -0.030415 -0.101120 -0.006650 0.015467 0.022074 -0.033074 0.273934 0.020116 -0.005759 0.032261 0.060501 -0.125206 -0.182429 0.015118 0.155394 0.063097 0.224184 -0.169312 -0.118067 -0.195438 0.174496 0.198257 -0.087780 0.016601 -0.136496 0.005795 0.004312 -0.029686 0.048880 -0.054062 0.128013 0.223448 0.049772 0.269758 -0.148306 -0.119172 0.156865 0.013411 -0.216911 0.055433 0.062764 -0.095164 0.061212 0.120527 -0.040344 -0.140787 -0.139947 0.116955 -0.035126 -0.100338 0.127459 -0.052833 0.302935 0.026783 0.186074 -0.042265 0.052385 -0.033317 -0.054856 0.110241 0.036829 -0.021706 0.022733 -0.054481 0.127685 -0.032929 0.012152 -0.204525 0.139824 -0.249037 -0.087519 0.128461 -0.119137 0.229038 -0.070443 -0.230605 -0.224445 0.170416 0.108721 -0.065809 -0.093912 0.043425 -0.018575 -0.101822 -0.195518 0.186610 -0.142477 -0.078492 -0.174577 0.128202
GlobalSpecies0023 -0.214987 0.477592 0.018491 -0.283003 0.462638 -0.247956 -0.795698 0.503232 -0.245247 0.599525 -0.114207 -0.099711 0.394157 0.043984 -0.181903 0.243296 -0.368128 -0.731950 0.893619 -0.619254 -0.497765 0.247140 0.644397 -0.018973 -0.607192 -0.129332 0.170220 0.343811 0.098534 0.641704 -0.226980 -0.023473 0.083341 -0.188156 -0.178306 -0.169028 0.479152 0.033781 -0.521926 0.037375 0.087039 -0.220889 0.150847 -0.316008 0.086933 -0.009976 -0.599055 0.198852 0.336146 -0.320244 -0.430399 0.096377 0.876726 -0.352251 0.329393 0.241415 0.088557 -0.190264 0.148431 -0.138368 -0.597622 0.370427 -0.890192 0.358575 -0.627958 -0.248325 -0.012295 -0.290516 -0.117657 0.029957 0.327420 0.558139 -0.350946 0.642911 -0.097608 0.522619 -0.611467 0.391758 -0.424358 0.264491 0.293688 0.463881 0.381791 -0.732844 0.160881 0.648586 -0.089846 -0.390881 -0.465715 0.457945 -0.399281 -0.312484 -0.220668 0.155006 0.187260 0.570177 0.634981 -0.172551 -0.271049 0.063127
GlobalSpecies0024 0.019965 0.453190 0.127217 -0.333819 -0.027019 -0.096263 -0.297063 -0.043423 0.157941 0.237206 0.222039 -0.270398 0.236437 0.157035 -0.127487 -0.181094 -0.105209 -0.072516 -0.154876 -0.251341 -0.072681 0.132597 0.013964 0.089784 -0.153192 -0.354166 -0.126809 0.027351 -0.001046 0.362621 -0.202854 -0.164293 0.011786 0.053907 0.108986 0.083393 -0.027687 -0.105942 -0.227070 -0.308448 -0.202627 0.085945 -0.058344 -0.336417 -0.017261 0.275451 -0.165534 0.198033 0.402331 -0.284757 0.131034 0.043126 0.188020 0.031807 0.178070 -0.455733 0.292823 -0.264206 -0.041033 0.347671 -0.233011 0.096288 -0.299031 -0.098670 -0.226101 0.159648 -0.021229 0.076169 -0.119056 -0.162476 0.032176 0.238069 -0.125328 0.257088 0.048530 0.113712 -0.296593 0.300864 -0.207516 0.183097 -0.149998 0.074496 0.230582 -0.302239 0.369680 0.274807 0.007468 -0.118143 0.082713 -0.009481 0.130301 0.008252 0.122150 -0.078505 0.211281 0.074869 0.370609 0.369226 0.067121 0.240199
GlobalSpecies0025 -0.004883 0.253775 -0.100599 0.186070 -0.103469 -0.292515 -0.340263 0.371965 0.117327 0.003363 0.051453 0.040145 0.130765 -0.017699 -0.232126 0.020525 -0.670271 -0.372299 0.014387 -0.048048 0.218706 -0.225989 -0.007438 -0.026667 -0.560372 -0.135093 0.260779 0.167499 -0.266865 0.037550 -0.035719 0.089776 -0.177669 -0.019185 -0.016061 -0.096194 0.052722 0.029409 0.001047 0.436881 -0.174587 -0.297379 -0.342539 -0.359601 0.103783 -0.373185 -0.256905 -0.126564 0.198613 0.114198 -0.096675 0.138679 0.042879 -0.051823 0.105756 0.143016 0.079744 -0.260509 0.151372 -0.154334 -0.295962 0.053624 -0.360400 -0.296684 -0.216696 -0.048715 -0.120689 0.247555 0.162221 -0.034657 0.204500 0.007744 0.033365 -0.281269 -0.531575 0.084114 0.452427 0.307428 -0.065411 -0.004778 -0.151321 -0.226650 0.449131 0.121168 0.034942 0.224275 0.234498 -0.329583 -0.364183 0.113074 -0.183957 -0.103182 -0.246686 0.169110 0.151939 0.298937 -0.037493 -0.065267 -0.074795 -0.096884
GlobalSpecies0026 -0.027381 -0.124287 0.069455 -0.037305 -0.018115 -0.110731 0.140906 -0.041020 -0.102505 -0.032791 -0.074052 -0.009886 0.026227 0.053289 0.055160 -0.043715 0.066545 0.073619 -0.020984 -0.068713 0.107570 -0.126749 -0.097603 -0.032740 0.113033 -0.022271 0.127511 -0.111869 -0.101886 -0.222954 0.049650 0.331134 -0.156747 0.065244 0.024165 0.099330 0.000059 0.048563 0.087059 -0.249530 0.194193 0.142271 0.100067 0.133817 -0.100962 -0.002595 0.141823 0.113974 -0.275508 0.087976 0.169697 -0.119344 0.070646 0.010625 0.054319 0.014251 -0.239550 0.032138 0.192132 -0.015283 0.260411 0.102806 0.154807 -0.037315 0.193644 -0.046761 0.046961 0.032158 0.003275 0.110443 -0.026162 0.014067 0.146702 0.016701 0.079164 -0.152227 -0.042763 -0.175332 -0.052194 -0.048421 0.066477 0.219047 -0.020804 0.147226 -0.028610 -0.252566 -0.138660 0.174532 0.097530 -0.117000 0.057175 -0.220205 0.026950 -0.062690 -0.226272 0.178280 -0.172986 0.062369 -0.216139 0.051883
GlobalSpecies0027 -0.061842 0.105641 -0.134592 -0.071905 -0.065377 -0.078836 0.250338 0.005230 0.079260 -0.058884 -0.065346 -0.221404 -0.078671 -0.009739 0.068656 -0.002170 0.162364 -0.013611 -0.058832 -0.103304 0.009959 -0.055165 -0.316265 0.087029 0.204279 0.059647 -0.098347 -0.085490 -0.024249 -0.109989 0.026576 0.015362 -0.101835 0.062574 -0.078704 -0.011391 0.010471 0.002739 0.142207 -0.139562 0.147809 0.111473 0.172921 0.129520 -0.028536 0.010779 0.013886 0.052075 -0.163107 -0.154542 0.211643 -0.043396 -0.044364 -0.007090 -0.102216 -0.167148 -0.053949 0.198842 -0.141423 -0.159295 -0.067726 -0.062654 0.214861 0.002242 0.149981 0.041952 0.104544 0.161570 -0.033220 0.092876 -0.065807 -0.046239 -0.073679 -0.016147 0.056357 -0.025491 -0.099456 -0.129263 0.032226 -0.091518 -0.034428 -0.033338 -0.043188 0.098479 0.005356 -0.083857 0.056868 0.097009 0.125998 -0.048694 -0.104429 0.102637 0.032726 -0.072907 -0.207881 0.006888 -0.059962 0.015693 -0.024745 0.170220
GlobalSpecies0028 -0.084664 0.068704 -0.132910 0.022607 -0.050632 -0.119945 0.232098 0.005415 0.000924 -0.023159 -0.017833 -0.009963 -0.160238 -0.152721 0.127479 0.108806 0.044969 0.017724 -0.083706 -0.011571 0.023605 -0.080319 -0.263083 0.117497 0.160105 0.173050 -0.099864 -0.065141 -0.030124 -0.079205 -0.056965 -0.000908 -0.128648 -0.052708 0.015508 -0.079757 -0.122554 -0.163851 0.056864 0.067207 -0.087152 0.061612 0.014467 0.211289 0.020037 -0.063948 -0.124821 0.091196 -0.055800 -0.055452 0.093197 -0.135555 0.006381 0.135803 -0.103942 -0.144452 -0.041567 0.159218 -0.135171 -0.048114 -0.129514 -0.038788 0.168458 0.078655 -0.067005 0.019711 0.016403 -0.076743 -0.050794 -0.101657 -0.165127 0.037365 0.007536 0.038581 -0.044443 0.094277 0.027290 -0.180120 -0.057502 -0.156509 -0.158444 -0.179697 -0.099540 0.037301 0.011245 0.063772 0.126447 0.061947 0.124816 -0.070029 0.085469 0.148670 -0.004241 0.039855 -0.075185 -0.048220 0.022719 0.118760 -0.134191 0.083110
GlobalSpecies0029 -0.215900 -0.094828 -0.284525 -0.107536 -0.069149 -0.047811 0.197358 0.025009 -0.159669 -0.091331 -0.226755 -0.212279 -0.067251 0.011133 0.269035 -0.066691 0.056031 0.052983 0.044520 -0.001640 0.061229 -0.169866 -0.239855 0.076310 0.122171 0.037101 0.010407 -0.023396 -0.033791 -0.237445 -0.026122 0.072272 0.042107 0.174145 -0.170091 -0.006115 -0.131013 -0.027928 0.111790 -0.203628 0.145713 0.004369 0.176629 0.248213 -0.163519 -0.062752 -0.070254 0.180543 -0.322861 -0.171156 0.113496 -0.059155 -0.107878 -0.236186 -0.035277 -0.039963 -0.105730 0.099984 -0.036746 -0.208210 0.131458 -0.258416 0.163566 0.123870 0.136973 0.014823 0.053961 0.014756 -0.078080 0.081710 -0.327738 -0.005106 0.016835 -0.038558 0.057314 0.012909 -0.103661 -0.083969 0.043385 -0.062701 0.038139 0.096517 0.010423 0.115836 0.054305 -0.142011 -0.100515 0.189567 0.101897 0.108803 0.016335 0.016445 0.011559 0.007921 -0.187972 -0.065596 -0.176268 -0.203221 0.029816 -0.031748
GlobalSpecies0030 -0.061777 -0.365747 -0.170189 -0.027310 -0.020985 -0.111887 0.164834 -0.105560 0.056441 -0.177828 0.014925 -0.126384 0.013523 0.043675 0.000414 -0.145384 0.404952 -0.058181 0.079598 0.104539 -0.037252 -0.154829 -0.232410 0.004561 0.510610 0.270258 0.069304 -0.181619 0.000529 -0.035970 0.246845 0.158150 0.068895 -0.046433 -0.185553 0.194966 0.094782 -0.048715 0.146250 0.107277 0.083300 0.380666 0.029847 0.143777 -0.206887 -0.065839 0.004051 -0.070581 -0.065508 0.207912 -0.018874 0.020461 0.062972 0.288806 -0.096978 -0.272587 0.037835 0.281002 -0.234650 -0.080321 0.080622 -0.100944 0.413716 0.100481 0.217162 -0.015573 -0.004561 -0.135502 -0.246758 0.011706 0.093660 0.054417 0.048496 -0.026364 0.140166 0.052247 -0.152186 -0.224318 0.290177 -0.156634 -0.384029 -0.081155 -0.281558 0.397453 0.077209 -0.106939 -0.014389 0.048580 0.144830 0.152706 -0.311466 0.189563 -0.052130 -0.028647 -0.122114 0.053614 -0.070715 -0.262964 -0.303610 0.168580
GlobalSpecies0031 0.043530 0.106906 0.034547 -0.127236 -0.060898 -0.047710 0.061691 -0.101699 0.046585 0.066218 -0.026448 0.019073 -0.033978 -0.012503 -0.087666 -0.065367 0.039324 0.146796 -0.180516 -0.061499 -0.063003 -0.069652 0.013876 0.064692 -0.087272 0.052628 0.026166 -0.050861 -0.011932 -0.059951 0.106496 -0.042115 -0.164242 0.133648 -0.026327 -0.134176 0.025333 -0.033881 0.050273 -0.051435 0.162304 0.088375 -0.091292 0.012340 -0.125480 -0.017868 -0.004065 0.091148 0.098075 0.073832 0.092121 0.188190 -0.179181 0.101172 0.109123 0.061860 0.024884 0.144629 0.113699 0.096773 0.060808 0.127223 -0.175733 0.026017 0.029922 -0.176286 -0.056806 0.063151 0.096017 0.102249 -0.068165 -0.059593 -0.012263 -0.098531 0.005277 -0.087924 0.054360 0.039126 0.038236 0.024582 0.061286 0.119121 0.222618 -0.170731 0.016797 -0.072843 -0.126745 0.003561 0.076153 0.046288 0.144385 -0.128972 0.031104 -0.070923 -0.030046 0.098566 -0.136921 0.080620 0.025260 -0.069175
GlobalSpecies0032 -0.100775 -0.076794 -0.009031 0.189607 -0.074931 -0.060815 0.100509 0.060999 -0.040888 0.138494 0.066525 0.206317 -0.157704 -0.087378 -0.015026 0.069078 -0.152855 -0.016082 0.043732 0.037042 0.174709 0.015272 -0.023610 -0.115770 0.040157 0.249242 0.014260 0.220034 0.040333 -0.180665 -0.190288 0.199275 -0.045605 -0.033583 0.036268 -0.074982 -0.076858 -0.180579 0.158938 0.106666 -0.066633 0.238300 -0.057151 0.116676 -0.085353 0.012433 0.100176 0.161879 0.017184 0.091695 0.043678 -0.100358 0.056087 0.205323 -0.026085 -0.033872 -0.095548 -0.205518 0.222695 -0.003064 0.107968 0.129778 0.019531 -0.176080 0.060487 -0.022809 0.023302 -0.161914 0.184647 0.094290 0.133887 0.210835 0.101433 0.032052 -0.150924 -0.169154 0.096272 -0.389793 0.002200 -0.124686 0.150347 -0.080390 0.019114 0.207600 -0.069771 0.028484 0.037016 0.127160 -0.103336 -0.349596 0.271666 0.029533 0.157980 -0.048388 -0.088693 0.003396 -0.026932 0.068399 -0.245472 0.030715
GlobalSpecies0033 -0.301619 0.082390 0.279005 0.067573 0.270973 -0.143787 0.068701 0.315657 -0.124674 0.480133 0.027692 0.008230 0.142629 -0.047498 0.251996 -0.138457 -0.228262 -0.428842 0.123529 -0.255753 0.129044 -0.088550 0.237560 -0.098825 -0.427918 0.040642 -0.045584 -0.225343 0.048153 0.265284 -0.096846 0.087154 0.085593 0.139987 0.149294 -0.202527 -0.000110 0.271199 -0.507908 0.389034 -0.254336 -0.803236 -0.186203 -0.231842 0.030458 -0.191128 -0.237642 -0.110327 0.400871 -0.126430 -0.253173 0.324915 0.047765 -0.021450 0.110211 0.377143 -0.375790 0.006248 -0.136691 -0.140540 -0.444175 0.237817 -0.250730 0.437051 -0.363241 0.018576 -0.221009 0.136151 0.344187 -0.107211 -0.041615 0.079869 -0.038296 0.018811 -0.353008 0.070261 -0.149530 0.206771 -0.009123 0.235011 0.109604 -0.108867 0.102071 -0.540267 -0.230368 -0.072354 -0.075779 -0.073951 -0.299201 -0.403054 0.441197 0.045487 -0.435093 -0.284699 0.267283 0.122682 0.365022 -0.387902 0.477861 -0.061431
GlobalSpecies0034 -0.173557 0.143896 0.221652 0.003572 -0.029709 0.164501 -0.004944 -0.388451 0.153504 -0.283678 0.129384 0.330404 0.169983 0.020388 -0.118559 -0.065149 0.121731 0.029109 0.146735 0.255330 0.017413 -0.000729 0.449365 0.046426 -0.125777 -0.056372 0.563915 -0.035480 0.223986 0.497204 -0.116517 0.002201 -0.053064 -0.354991 0.131633 0.150032 0.252945 0.103592 0.077092 0.208848 -0.292169 -0.573616 -0.050884 -0.115505 0.491237 -0.244847 -0.100741 -0.256296 0.370323 -0.020308 0.090929 0.443268 0.140210 -0.110076 0.110331 0.212063 -0.013124 0.042406 0.003598 -0.123355 -0.113551 0.022657 -0.331468 0.480541 -0.314225 -0.088585 0.227693 0.071775 0.207741 -0.165695 0.379208 0.007349 0.051481 0.001096 -0.415051 0.201089 -0.202238 0.339090 -0.273175 -0.261273 -0.028462 -0.027142 -0.035778 -0.340909 0.078766 0.108269 -0.148175 -0.291153 0.103689 0.602935 0.126183 -0.213901 -0.326516 0.008677 0.185499 0.001431 0.225741 0.095254 0.545124 0.083583
GlobalSpecies0035 0.280673 -0.080356 -0.395864 -0.105636 -0.236626 -0.282510 -0.226602 0.038043 -0.216015 -0.029710 -0.086879 -0.052862 0.063216 0.044854 -0.073255 -0.132662 0.086189 0.147214 -0.156873 0.021623 -0.212572 -0.096684 -0.081998 0.097185 0.305576 0.067752 -0.290697 0.021478 -0.194179 -0.231146 0.260146 0.323216 0.146532 0.213812 -0.185990 -0.050912 0.070640 0.145191 -0.009389 0.014974 0.007362 0.355790 0.064739 0.161907 -0.213805 -0.102393 0.100000 0.076522 -0.321411 0.048381 -0.200501 -0.025045 -0.134431 0.029795 -0.180355 -0.205140 0.116001 0.054052 0.015283 0.092529 0.179322 -0.172387 0.099599 0.035681 0.178874 0.055843 -0.070165 -0.267815 -0.233778 0.074283 -0.000483 0.076090 -0.006849 -0.062246 0.080246 0.150487 0.140946 0.119519 -0.001330 0.280168 -0.012064 0.130121 -0.015478 0.195267 0.287911 -0.192595 -0.092659 0.075680 0.025671 0.181935 -0.229631 0.187148 0.245007 -0.014523 -0.182391 -0.216761 0.063039 -0.125156 0.026748 0.178589
GlobalSpecies0036 -0.067478 -0.192271 -0.308189 -0.154543 -0.161899 -0.150350 0.295205 0.077959 -0.066453 -0.185570 -0.135984 -0.191346 -0.045276 -0.075186 0.155681 0.016609 0.306585 0.072086 0.046785 0.107687 0.037690 0.033474 -0.452760 0.128349 0.311632 0.217062 -0.131715 -0.146978 0.081940 -0.110619 0.156068 0.213506 0.014596 0.039211 -0.221602 0.050719 -0.125873 0.139824 0.144680 -0.105854 0.181691 0.097881 -0.006555 0.345624 -0.048551 0.053843 -0.181449 0.146676 -0.254962 -0.024035 0.173717 0.040141 -0.013819 -0.040618 -0.080953 -0.016836 -0.075669 0.242379 -0.024305 -0.143185 0.096561 -0.181083 0.348088 0.149970 0.173586 -0.113886 0.202830 -0.194342 -0.024535 -0.004229 -0.051899 0.071209 -0.227311 -0.190673 0.125524 -0.100835 0.003991 -0.179303 0.180677 -0.027408 -0.134455 0.001974 -0.049039 0.303790 -0.035876 -0.289386 -0.086211 0.134082 -0.001609 0.124196 -0.214072 0.033555 -0.189086 -0.016227 -0.272746 0.030226 -0.174283 -0.376292 -0.047421 0.184391
GlobalSpecies0037 0.142779 -0.357560 0.079953 0.030578 -0.290425 -0.122604 0.183992 0.048744 -0.044849 -0.079103 0.059653 0.112226 0.006062 -0.152747 0.063937 -0.095670 0.122962 0.138626 0.006805 0.181653 -0.014327 0.149720 -0.257700 0.025106 0.187178 0.128141 -0.068704 -0.059288 0.121475 -0.017207 0.137446 0.361159 0.091181 -0.025258 -0.033455 -0.058373 -0.084244 0.229410 0.188852 -0.208626 0.203344 0.080570 -0.107642 0.214623 0.042769 0.064954 -0.132745 0.261542 -0.267822 0.236330 0.165293 -0.017052 0.089042 0.132004 0.126158 0.136194 -0.009047 -0.074461 0.259277 0.027830 0.122236 0.026555 0.193892 -0.036527 0.039100 -0.202332 0.179695 0.063468 0.062791 -0.010675 0.176798 0.048263 -0.152805 -0.007009 0.001840 -0.086712 0.007320 -0.027089 0.081601 0.037486 0.082297 0.115226 -0.116750 0.151077 0.081088 -0.282907 -0.085429 -0.030034 -0.091027 -0.174993 -0.044289 -0.043075 0.011579 -0.033221 -0.278998 0.227582 -0.325880 -0.169147 -0.131391 0.016352
GlobalSpecies0038 -0.068098 -0.147620 -0.310686 -0.180578 -0.207050 -0.098455 0.221250 0.095931 -0.208073 -0.212717 -0.240822 -0.205893 -0.038245 -0.055303 0.273011 0.049944 0.205833 0.126197 0.064481 0.107935 0.089696 0.054722 -0.422247 0.083993 0.236911 0.136165 -0.167192 -0.115604 0.108709 -0.123514 0.069483 0.156145 0.085038 0.166807 -0.243925 0.005592 -0.180273 0.182781 0.178477 -0.278834 0.111064 -0.005306 0.041544 0.315256 -0.081339 0.060029 -0.212484 0.214825 -0.308772 -0.075562 0.140811 0.024097 -0.055588 -0.106901 -0.079043 0.043945 -0.105630 0.180365 0.072574 -0.174899 0.116184 -0.262306 0.308888 0.138542 0.146662 -0.015409 0.173217 -0.150827 -0.018501 -0.009244 -0.127101 0.077519 -0.177099 -0.217194 0.132812 -0.108262 -0.008868 -0.127674 0.113175 0.072797 -0.008930 0.119826 -0.037408 0.290417 0.006331 -0.268573 -0.075437 0.122773 0.026454 0.071608 -0.183719 0.015317 -0.131094 0.062505 -0.301946 -0.074961 -0.212835 -0.363281 0.019887 0.092676
GlobalSpecies0039 -0.084412 -0.100860 -0.154511 -0.183172 -0.066560 -0.004784 0.028023 -0.018329 -0.145619 -0.294866 -0.232050 -0.225528 -0.029418 0.151505 0.191600 0.092176 0.204318 0.000925 0.078884 -0.063131 0.198234 -0.089892 -0.203357 -0.050542 0.064895 -0.058918 0.193634 -0.113349 0.032178 -0.155597 0.228395 0.250194 -0.036490 0.420065 -0.249609 0.135303 -0.051288 -0.115527 0.112114 -0.192396 0.110787 0.191861 0.124426 0.089057 -0.139750 -0.119477 0.138921 0.072863 -0.410843 -0.098339 0.073057 0.095753 0.034582 -0.087624 -0.116672 0.036829 -0.043237 0.063948 0.098620 -0.168881 0.081954 -0.193755 0.211781 -0.067616 0.341467 0.105104 -0.011919 -0.120998 -0.240268 0.281497 0.077754 0.013250 0.172556 -0.013568 -0.078416 -0.209263 -0.068975 -0.111050 0.002474 0.074935 0.049407 0.368626 0.026668 0.377682 -0.001569 -0.274199 -0.215397 0.291417 0.134028 -0.046187 -0.091872 0.091418 0.026132 0.042296 -0.203368 0.083358 -0.137880 -0.114781 0.081459 0.063058
GlobalSpecies0040 -0.008855 -0.095728 -0.362746 -0.074636 -0.164057 -0.162588 0.071333 -0.003670 -0.057972 -0.066854 -0.112073 -0.205513 0.018501 -0.025063 0.005034 -0.134269 0.235086 0.080562 -0.058122 0.087319 -0.045059 -0.112385 -0.293264 0.082124 0.270268 0.172304 -0.088023 -0.112868 -0.065044 -0.152920 0.173411 0.168368 0.077005 -0.063894 -0.076846 -0.023941 0.010254 0.062995 0.118957 0.012365 0.029471 0.184200 0.030553 0.215337 -0.159072 -0.035593 -0.076673 0.132404 -0.145196 0.015958 0.013168 -0.032759 -0.138743 0.054025 -0.115758 -0.238483 -0.093020 0.217619 -0.124199 -0.071185 0.117820 -0.204404 0.332107 0.144441 0.146450 0.007596 0.097847 -0.121771 -0.140539 -0.011521 -0.138001 0.041397 -0.105866 -0.111563 0.176003 -0.001721 0.024486 -0.113628 0.124664 -0.033595 -0.170943 -0.100113 -0.037714 0.163361 0.255443 -0.136571 -0.015457 0.071207 0.090729 0.142919 -0.170313 0.100089 -0.048388 0.043400 -0.211892 -0.184492 -0.082517 -0.232088 -0.127029 0.205802
GlobalSpecies0041 -0.045303 -0.015218 -0.042286 0.204412 0.049301 0.034057 0.237507 -0.021853 -0.059850 -0.060784 -0.017772 -0.076100 -0.242511 -0.047400 0.162156 0.315014 0.085663 0.109929 -0.191889 -0.186859 0.124025 -0.000381 -0.241153 -0.141395 -0.041251 0.166974 -0.281633 0.108431 -0.011135 -0.157790 -0.185177 -0.031079 0.024183 0.115991 0.104583 -0.062101 0.050434 -0.133671 0.031125 -0.033090 -0.208231 0.127682 0.085505 0.108504 -0.070266 -0.013178 -0.024399 -0.030561 0.064578 0.029015 -0.055675 -0.171244 0.135018 0.212679 -0.155513 -0.179026 0.006726 0.039908 0.041988 -0.111078 -0.279139 0.020326 0.180821 0.031755 0.078701 0.132988 -0.110846 0.033616 -0.061006 -0.104326 0.054760 0.044507 -0.227318 0.012185 -0.127598 0.124302 0.044144 -0.125741 -0.149517 0.101413 0.056241 -0.057659 -0.135168 0.059457 -0.103781 -0.058417 0.140309 0.018804 0.128298 -0.222514 -0.002546 0.198777 0.242330 -0.004635 -0.097299 -0.116388 0.064299 0.209385 0.045825 0.090632
GlobalSpecies0042 0.115030 0.238667 0.133515 -0.073581 0.061027 0.153874 0.070150 0.066334 0.300825 -0.026438 0.042047 -0.220030 0.399481 0.192268 0.137272 -0.306382 -0.052610 -0.195239 0.295279 0.021967 -0.162372 0.093527 -0.002749 -0.150145 -0.115070 -0.090403 -0.142415 -0.172909 -0.221509 0.205318 -0.131882 0.113641 -0.189388 -0.029328 0.124308 0.107504 0.078761 0.185257 -0.388625 0.069821 -0.304055 -0.629678 -0.232575 -0.131309 0.329977 -0.061327 0.135893 0.047675 -0.136098 -0.195893 -0.078783 0.150289 -0.144496 -0.131411 0.121782 0.067980 0.094503 -0.389929 -0.229848 0.121136 0.074212 0.032326 0.037745 0.077578 -0.127880 -0.019764 -0.137767 -0.149227 0.008028 -0.180983 0.083253 -0.193628 -0.081114 -0.117957 -0.024579 -0.111943 0.240768 0.073044 -0.071356 -0.107882 0.029501 -0.321390 0.169572 -0.229758 -0.141604 0.358539 0.068789 -0.338379 -0.021132 0.132464 0.262235 0.092911 -0.194639 0.197855 0.357126 -0.044842 0.009728 0.111497 0.139506 0.027841
GlobalSpecies0043 0.305820 0.113951 -0.214139 0.121312 -0.226556 -0.111795 -0.171416 0.023076 0.019295 0.229799 0.209202 0.004600 0.250630 0.023516 -0.274103 -0.301127 -0.162189 0.199367 -0.239429 -0.019717 -0.138132 -0.127953 0.201477 0.034748 0.077202 -0.202624 -0.131784 -0.120256 -0.115736 -0.146591 0.065982 0.155108 0.096308 0.126018 -0.006810 -0.227277 0.068640 -0.176286 -0.216376 0.314479 -0.073690 0.121092 0.022495 -0.076480 0.062356 -0.251668 0.024364 0.021778 -0.256285 0.049766 -0.232913 -0.157520 -0.097686 0.067247 -0.153992 -0.003415 0.116855 -0.071941 -0.072418 0.294485 0.059590 0.044931 -0.108394 -0.041880 0.078579 -0.046656 -0.141859 -0.051861 -0.079269 -0.019133 0.026141 0.158738 0.051407 0.179582 0.091076 0.255961 0.134993 0.145279 -0.260750 0.098533 0.095264 -0.001815 0.057956 0.226246 0.102532 -0.065328 -0.166465 -0.016646 0.163870 0.133156 -0.027600 0.367855 0.336574 -0.012286 -0.043211 -0.167975 0.119215 -0.036237 0.282633 0.056739
GlobalSpecies0044 -0.318970 0.242731 0.383230 -0.812286 0.514298 0.016156 -0.731086 0.537505 0.036986 0.697475 0.045720 0.301547 0.288625 0.734083 0.077835 -0.066259 -0.671707 -0.809829 0.739501 -0.270775 -0.648936 0.222837 0.568018 0.224530 -0.338138 0.276997 -0.036791 0.010892 -0.086484 0.098507 -0.255054 -0.449771 -0.129404 -0.336751 -0.123174 -0.061219 0.449561 0.087520 -0.305821 0.369431 -0.143947 -0.166839 0.202864 0.040214 -0.043510 0.213658 -0.070441 -0.098003 0.866017 0.116933 -0.465070 0.247933 0.121672 -0.314524 0.071017 -0.642250 -0.022998 -0.292336 -0.335145 -0.513810 -0.202761 0.091146 -0.457664 0.551356 -0.158107 0.095698 -0.264112 -0.309760 0.423290 0.150582 0.474669 0.142020 0.094067 0.030289 -0.066482 0.459717 -0.114694 0.220329 -0.132695 0.017986 0.135030 -0.202725 0.113324 -0.504850 -0.382400 0.757168 -0.109455 0.159744 -0.639186 -0.004751 0.498244 -0.588019 -0.214833 -0.174616 0.100874 0.204198 0.584471 0.090385 -0.097287 0.302102
GlobalSpecies0045 -0.070518 0.069405 -0.124805 -0.079426 -0.174947 -0.078381 0.059936 -0.015579 -0.129388 -0.211564 -0.069259 -0.177366 -0.128325 -0.191244 0.123599 0.130167 0.278983 0.156885 -0.152722 0.060962 0.102059 0.076587 -0.254295 -0.041489 0.160977 0.156700 -0.026896 -0.085266 0.127149 -0.102537 0.192442 0.066679 -0.000809 0.204591 -0.291229 0.120315 -0.159302 0.051951 0.134779 -0.215724 0.197613 0.105582 -0.004440 0.170539 -0.064108 0.105108 -0.012231 0.005860 -0.162019 0.037502 0.148327 0.084463 0.009060 -0.087117 -0.004327 0.135009 0.080293 0.128539 0.048775 -0.001582 0.238212 -0.165821 0.040066 -0.038707 0.118112 -0.119719 -0.065859 -0.082879 -0.101097 0.228793 -0.046062 0.024205 -0.107486 -0.267868 0.214333 -0.095585 -0.011301 -0.145463 0.174591 0.102782 0.043144 0.113711 -0.109341 0.127944 0.032560 -0.319871 -0.111924 0.071601 0.082874 -0.050486 -0.149123 -0.084192 0.082378 0.001448 -0.159789 0.186544 -0.254623 -0.228549 0.010690 -0.108191
GlobalSpecies0046 -0.161377 0.041153 0.150078 0.010147 0.126729 0.193918 0.025681 0.057002 0.103279 -0.161399 0.372505 0.095176 0.099823 0.238094 -0.140239 -0.066949 -0.076907 -0.314239 -0.221160 -0.241459 -0.164501 0.205572 0.186994 0.180692 -0.015684 -0.106759 -0.034178 -0.204099 -0.176798 0.226970 0.100746 -0.154707 -0.214554 0.063777 -0.004607 -0.101076 -0.056322 0.100344 -0.234770 -0.046589 0.011490 -0.119580 -0.047833 -0.227438 0.238360 0.086449 0.098289 -0.084473 0.295439 -0.061013 0.119351 -0.113789 0.096976 0.062643 0.069462 -0.347961 0.235131 0.093043 -0.240839 0.185338 -0.476745 -0.044839 0.032112 -0.040287 0.058738 -0.061301 -0.095470 0.025200 -0.192515 -0.435668 0.334991 -0.129674 0.185461 -0.034442 0.039813 -0.101746 -0.152180 0.115197 -0.081147 -0.257243 -0.167606 -0.199036 -0.067070 -0.277754 -0.271215 0.400667 0.356395 -0.036644 0.093773 -0.125360 0.121649 0.016131 0.291259 -0.084546 -0.173160 0.052539 0.222073 0.365924 -0.008169 0.153361
GlobalSpecies0047 0.124520 -0.294221 -0.031899 -0.080790 -0.191480 -0.127028 0.207804 0.000125 0.087389 -0.129247 0.062304 -0.050112 -0.016062 -0.141422 0.027820 -0.101879 0.335919 0.104752 0.000794 0.172720 -0.005276 0.043932 -0.237960 0.036875 0.271030 0.249943 0.044470 -0.127650 0.133231 0.016303 0.167109 0.298838 -0.084078 -0.062105 -0.091335 -0.014260 -0.037928 0.122405 0.194003 -0.017607 0.161991 0.104651 -0.063763 0.202622 0.044904 -0.032503 -0.077724 0.146875 -0.139761 0.215410 0.161798 0.042074 0.100041 0.205063 0.012910 0.004947 -0.048880 0.150296 0.122570 -0.029553 0.129400 0.026319 0.182937 0.103547 0.110604 -0.187491 0.186753 -0.023814 -0.000684 -0.013284 0.178083 0.051366 -0.127095 -0.091125 0.071396 -0.131243 -0.023897 -0.100096 0.200779 -0.108880 -0.102915 -0.062489 -0.141142 0.208085 0.015457 -0.323302 -0.089402 -0.030211 -0.020742 -0.050422 -0.175234 0.045433 -0.119229 0.030297 -0.176917 0.214060 -0.223579 -0.154681 -0.177311 0.047829
GlobalSpecies0048 0.080328 -0.077840 -0.097056 -0.081394 -0.071777 -0.032332 0.114519 -0.141977 -0.030872 -0.239721 -0.049973 -0.028717 -0.259939 -0.064110 0.050499 -0.014982 0.156823 0.127508 -0.157161 -0.159637 0.109158 -0.101833 -0.257004 0.086578 0.181609 0.042242 -0.099205 0.099938 -0.047916 -0.118915 0.078988 0.068639 -0.060309 0.104415 -0.045004 0.021491 -0.093171 0.048432 0.175725 -0.262383 0.150375 0.306406 0.133755 0.254233 -0.057432 0.048775 0.070629 0.012673 -0.178671 -0.044904 0.119001 -0.071364 -0.044200 0.050726 -0.066133 -0.147583 -0.164539 0.143666 0.151939 -0.164247 -0.088485 0.089077 0.210908 0.003347 0.294117 -0.000564 0.153191 0.048632 -0.035317 0.096961 0.019709 -0.078288 -0.058447 -0.013455 0.096786 -0.031476 -0.002719 -0.077503 0.107979 -0.066492 0.065741 0.225472 -0.079395 0.077176 -0.014532 -0.084979 0.028962 0.077003 0.189768 -0.024014 -0.207621 0.024257 -0.028606 -0.020164 -0.178812 0.068897 -0.064430 0.056215 -0.120976 0.105220
GlobalSpecies0049 -0.183251 -0.032852 -0.040602 0.210173 -0.102047 0.032899 0.055845 -0.029578 -0.224025 0.111468 -0.055964 0.042039 -0.137576 -0.094751 0.059370 0.256540 0.020967 0.019341 -0.000397 0.139196 0.251692 0.085916 -0.276759 -0.198581 0.017924 0.239042 0.057656 0.319621 -0.014327 -0.135686 -0.000823 0.202720 0.143914 0.067458 0.016548 0.127443 -0.101786 -0.298539 0.279984 0.250773 -0.214229 0.197338 -0.031266 0.121344 -0.243733 -0.051195 -0.140746 0.055350 0.111528 0.148547 -0.251583 -0.024899 -0.010800 0.213740 -0.087065 -0.193136 0.000687 -0.313134 0.177335 -0.123259 -0.094569 0.020325 -0.031748 0.000417 -0.092467 0.072588 -0.141767 -0.277842 0.019704 0.008118 -0.036546 0.020843 0.076863 -0.033198 -0.202991 -0.163041 0.150687 -0.384670 -0.146875 0.043127 0.035540 -0.194528 0.059920 0.296695 0.029201 -0.086852 0.060226 0.088979 -0.106823 -0.057792 0.175345 0.205907 0.147883 0.023230 -0.023366 -0.085435 0.059529 0.188790 0.058917 -0.076256
GlobalSpecies0050 0.175192 0.110327 0.516262 -0.041707 -0.295317 -0.015887 -0.086721 0.354617 -0.167638 -0.423986 0.054892 0.054508 0.245624 0.108348 -0.096680 0.145183 -0.169377 -0.297968 0.093335 0.394696 -0.280831 0.036142 0.293880 0.147171 -0.190139 -0.473734 0.120755 -0.083514 0.539325 0.393083 -0.489503 -0.078603 -0.118421 -0.170088 0.033194 0.217983 0.185365 0.215615 -0.078274 0.230227 -0.111983 -0.757769 -0.094853 -0.201289 -0.133903 -0.247842 -0.622346 -0.096835 0.020218 0.275449 0.040461 0.341085 0.190381 -0.028542 -0.076962 0.057240 0.205164 -0.451548 0.181737 -0.065189 -0.014374 0.110769 -0.193549 -0.268762 0.085950 -0.189440 -0.024206 0.489024 -0.147680 0.112084 0.158536 0.015185 0.100732 -0.053656 -0.221908 0.198612 -0.092876 0.308401 -0.067489 0.247933 0.236990 -0.100910 0.007262 -0.159518 -0.325000 0.025798 0.135184 -0.180598 -0.164615 0.084914 -0.010312 -0.187395 -0.021864 0.013569 0.229293 0.000602 0.070576 -0.178124 0.488908 -0.186500
GlobalSpecies0051 -0.358408 0.416262 0.643392 0.048798 0.310109 0.376214 -0.237137 0.241265 0.487926 0.161616 -0.128937 0.193626 -0.047476 0.331454 -0.343638 0.090138 -0.607237 -0.669419 1.049793 0.118867 0.076916 -0.196883 -0.102589 0.259291 -0.604301 -0.613388 -0.190219 -0.167596 -0.049046 0.693828 -1.043351 0.035615 -0.055723 -0.459329 0.033306 0.043099 0.765407 0.297044 -0.339719 -0.152891 0.292930 -0.117665 0.385923 -0.486943 0.145321 0.393532 0.055258 0.043399 0.541699 -0.080670 0.214317 0.134631 0.501979 -0.122268 0.336062 0.470882 0.009975 -0.322533 0.306010 0.314245 -0.320168 0.157379 -0.518845 -0.454774 -0.123198 0.067195 0.249893 0.018622 0.131698 0.077413 0.395645 0.101928 -0.588021 0.195454 0.200621 0.334430 -0.344822 0.657072 0.213989 0.182468 -0.035102 -0.058408 0.293433 -0.427374 -0.223693 0.431679 -0.047107 -0.212683 -0.352819 0.140516 -0.324428 -0.305706 -0.265923 0.029616 0.356795 0.087974 0.265505 0.341456 0.143499 0.105110
GlobalSpecies0052 0.495907 0.263342 -0.008803 0.092698 0.030031 -0.177485 -0.505959 0.068624 0.144604 0.383609 0.203997 0.002371 0.019165 -0.007134 -0.033599 -0.307184 -0.207306 -0.551462 0.522238 -0.079780 -0.159657 -0.308432 0.341114 0.396607 -0.610730 -0.376564 -0.115119 -0.113742 -0.182297 0.240545 0.206357 0.020239 0.189889 -0.128411 0.163632 -0.182481 0.374646 -0.087117 -0.291039 0.261051 -0.578704 -0.123506 -0.144661 -0.530304 0.057136 -0.020545 -0.008420 -0.076998 -0.262940 -0.131721 -0.645861 0.066737 0.157686 0.168498 0.022968 0.045705 -0.372317 -0.174357 -0.072084 0.291933 0.370195 0.287839 -0.608837 0.261793 -0.202772 0.089587 0.182970 -0.097790 0.103768 -0.096345 -0.096119 -0.076555 0.218893 -0.044428 0.166714 0.086070 0.170956 0.572278 -0.327969 0.431374 -0.000951 -0.033756 -0.088966 -0.109845 0.257103 -0.123242 0.045268 -0.127004 -0.000758 0.497145 0.092732 0.218141 -0.324450 0.060473 0.377522 0.105064 0.607588 0.336124 0.305382 0.078875
GlobalSpecies0053 0.120976 0.021574 0.301109 0.032689 -0.107967 -0.003155 -0.024634 0.094242 0.356017 0.001358 -0.023828 -0.060903 -0.143465 -0.089840 0.272097 0.215553 0.010972 -0.019181 -0.211842 -0.083181 -0.091769 0.158703 0.032477 0.131962 0.037072 -0.142868 -0.239983 -0.009523 0.126630 0.139480 -0.004036 -0.076338 -0.165952 0.057384 0.083779 -0.109865 -0.163121 0.249443 0.111497 -0.220768 0.042089 -0.130069 0.034258 -0.034546 0.200639 0.152858 -0.176018 0.028765 -0.061930 0.141046 0.064872 0.093344 0.111477 0.064510 -0.097400 -0.104924 0.268453 -0.049150 -0.143127 -0.092238 -0.415170 -0.053260 0.026838 0.016114 0.071412 0.056210 -0.077002 0.372767 -0.163047 -0.030537 0.159359 -0.012197 -0.082404 -0.056875 -0.014676 0.069886 -0.091564 0.059497 -0.116243 0.171869 -0.049480 -0.045979 0.013572 -0.098298 -0.026285 -0.119181 -0.056745 -0.115646 -0.038045 -0.134014 -0.121872 -0.015212 0.061376 -0.044586 0.073875 0.101572 0.024013 0.110641 0.075768 -0.097396
GlobalSpecies0054 0.000156 0.107925 -0.296500 -0.018434 -0.161346 -0.022204 0.151445 0.041924 -0.065610 -0.029098 -0.207525 -0.210754 0.030782 0.066844 0.131526 -0.049683 0.052996 0.107634 -0.025933 0.067769 -0.015849 -0.096995 -0.085873 0.092282 0.162907 0.009722 -0.062326 0.051848 -0.041119 -0.143343 0.147338 0.124374 -0.038766 0.195623 -0.129161 -0.063159 -0.000330 0.048465 -0.033541 -0.082044 0.026872 0.020546 -0.009910 0.135306 0.007556 -0.066797 -0.031379 0.264528 -0.239896 -0.073245 0.064907 -0.028811 -0.226909 -0.110982 -0.081268 -0.116686 -0.060005 -0.064283 -0.123934 0.091273 0.085648 -0.118240 0.084830 0.056683 0.074015 -0.018464 0.019338 -0.100165 -0.034885 0.007817 -0.154269 -0.052968 -0.075436 0.047255 0.060998 -0.032881 0.065636 -0.032570 0.008836 0.044223 -0.067767 0.058401 0.054183 0.083590 0.177750 -0.068217 -0.138630 0.087774 0.002157 0.064433 0.062747 -0.012447 0.093941 0.136672 -0.228636 -0.188757 -0.018836 -0.118939 0.021913 0.237167
GlobalSpecies0055 -0.072573 -0.181300 -0.120396 0.054251 -0.038324 0.016008 0.180325 0.048605 0.059401 0.179296 0.029750 -0.081145 -0.008636 -0.075413 0.098757 -0.149686 0.055373 0.040489 0.056813 0.021991 -0.039379 -0.112438 -0.146535 0.090315 0.151929 0.056369 -0.031633 0.029926 -0.180183 -0.138658 -0.024888 0.177858 0.056308 -0.163108 0.055761 -0.165010 0.044964 -0.015759 0.074535 0.021928 0.083471 0.045146 0.075090 0.022088 0.028043 -0.040491 0.034877 0.171320 -0.225136 -0.007709 0.277132 -0.001825 -0.032690 0.038747 0.164982 -0.114554 -0.084225 0.042078 -0.110477 -0.118939 0.169663 -0.017241 0.150718 0.037544 0.108480 -0.013796 0.125840 0.083635 0.055298 -0.031390 -0.212534 -0.028179 -0.077899 0.131635 0.151037 -0.041088 0.011255 -0.186434 0.075316 -0.278079 -0.097026 -0.138381 -0.104410 0.148252 0.191213 0.002672 -0.117278 0.098467 -0.044654 -0.029549 0.039791 0.033144 -0.113650 -0.047431 -0.223923 0.003593 -0.101643 -0.078370 -0.150636 0.126607
GlobalSpecies0056 -0.166413 0.429040 -0.348483 -0.445099 0.167579 -0.081232 0.098834 0.154432 0.056107 0.247094 0.073711 0.354146 0.045331 -0.166858 -0.357811 -0.064258 -0.341009 -0.480800 0.362244 0.116821 0.661960 0.074657 -0.278139 -0.543120 -0.419344 0.005620 0.409486 0.609683 -0.509439 0.312267 -0.403220 0.117556 0.336922 -0.145100 0.011366 0.111133 0.256417 0.000170 -0.201262 0.256963 -0.227780 -0.430495 -0.134756 -0.099365 -0.089673 -0.212128 0.143295 -0.052300 0.433252 -0.272377 -0.610300 0.270281 0.089517 -0.031606 0.167010 0.114515 0.073876 -0.922753 -0.154148 -0.473549 0.142229 0.463565 -0.278612 -0.006465 -0.280914 0.012015 -0.212584 -0.248875 0.384235 0.245241 0.180013 -0.299266 0.219674 -0.119416 -0.435365 -0.051270 -0.297317 0.417966 -0.357856 0.038227 0.199079 -0.149859 0.292751 0.073666 -0.046353 0.992574 0.216846 -0.111764 -0.230569 -0.023988 0.064754 -0.047867 -0.329450 0.531213 0.769354 0.171653 0.265665 0.245316 0.357972 -0.114575
GlobalSpecies0057 0.582025 0.433074 0.102642 0.053886 0.011140 -0.222167 -0.316798 0.095278 -0.093244 0.256090 0.188692 0.081953 0.501196 0.236568 -0.398079 -0.137483 -0.259706 -0.124483 -0.166864 0.278722 0.200066 0.119997 0.267148 0.190068 0.100283 -0.169371 0.143626 -0.047796 -0.408111 0.237520 -0.136642 0.083174 0.170328 -0.289554 0.416147 -0.027280 -0.112273 -0.100314 -0.318481 0.191189 -0.014916 -0.414020 -0.147437 -0.068758 -0.030345 0.158225 0.162888 -0.161688 -0.161524 -0.117757 -0.013033 -0.208360 0.108637 -0.251205 0.097798 -0.322885 0.372802 -0.003810 -0.090307 0.224682 0.253131 0.049075 -0.469920 -0.145737 0.224901 0.331254 -0.267508 0.068371 -0.351821 -0.202551 0.267308 -0.045167 0.473462 0.337644 0.010529 0.235104 0.288250 0.241554 -0.191712 0.335372 -0.032806 -0.002031 0.300086 -0.027024 0.169959 0.087742 -0.026409 -0.039566 0.042674 0.218098 0.039796 0.173685 0.112636 0.059332 0.040728 -0.189385 0.142729 -0.063097 0.059910 0.029027
GlobalSpecies0058 -0.381241 0.118558 0.186898 0.119654 0.043211 0.175321 0.143894 -0.077309 -0.221284 0.177195 0.113042 0.179599 0.248586 0.081234 -0.085200 0.031466 -0.168189 -0.204820 0.153567 -0.240226 -0.268872 0.033436 0.137279 0.050019 -0.303915 -0.150199 -0.136346 0.027106 0.182399 0.026891 -0.063889 -0.296954 0.213100 -0.116090 0.296264 0.227548 0.146100 0.009430 -0.123327 0.109765 0.054571 -0.202377 -0.150956 -0.210974 0.090126 0.205084 -0.121186 -0.306861 -0.118011 -0.028919 0.191600 0.048714 -0.212645 -0.384045 -0.018711 0.250947 -0.094516 0.052124 -0.166596 -0.084909 0.132750 -0.240706 -0.252139 -0.025260 -0.146400 0.133766 -0.346916 0.198732 -0.062772 -0.029358 -0.193791 -0.177993 -0.025068 0.226706 -0.118396 -0.092029 0.127412 0.050716 -0.089559 -0.188901 -0.057291 -0.138973 -0.034770 -0.130143 -0.026305 0.290630 0.112339 -0.017575 0.099221 0.164669 0.071085 0.053128 0.363897 -0.137674 -0.029646 -0.076262 -0.244624 -0.078844 0.058757 -0.176571
GlobalSpecies0059 0.274159 -0.160813 0.290882 0.092732 0.071356 0.029523 -0.140148 0.117307 0.176969 0.149181 0.031862 0.182432 -0.057111 0.182415 0.222364 -0.235486 -0.252212 -0.093855 -0.062565 -0.071423 0.085747 0.002870 0.130689 0.113088 -0.156304 0.043132 -0.060284 0.153386 -0.054655 0.303686 -0.086620 0.016965 0.003850 -0.138183 0.159170 -0.009988 -0.139215 0.105231 -0.047587 0.089069 0.187716 -0.163676 -0.134514 -0.142857 -0.000887 0.165323 -0.012505 0.144846 -0.021723 -0.050595 0.123066 0.080574 0.091282 0.056099 0.192506 0.189459 -0.119127 0.037697 0.136522 0.035176 -0.160253 0.113370 -0.026661 -0.159564 0.125253 -0.323478 -0.021325 0.175377 0.153983 0.033355 0.223276 -0.075185 0.124419 0.030090 -0.057313 0.030656 0.159029 0.091680 -0.041011 -0.048089 0.164288 0.104989 0.034957 -0.479195 -0.070600 -0.098680 -0.041900 0.010430 -0.129948 -0.041468 0.290872 -0.079650 -0.069443 0.193638 0.064304 0.146476 -0.033928 -0.204634 -0.175269 -0.273395
GlobalSpecies0060 -0.009365 0.024265 0.408797 -0.007688 0.469400 0.258126 0.276910 0.107192 -0.191163 -0.106851 0.388104 -0.247471 0.404089 0.171771 -0.277181 0.259499 -0.265419 -0.600807 0.347253 -0.368609 0.035420 -0.210576 -0.058593 0.062829 -0.365424 -0.226947 -0.061795 -0.355215 -0.110025 0.329043 -0.450227 0.034166 -0.237888 0.016028 -0.008228 0.060932 0.145614 -0.137193 -0.201294 0.457150 -0.437290 -0.489080 -0.146826 -0.505832 0.529054 -0.090712 0.143863 -0.309589 0.501058 0.096423 -0.355273 0.109506 0.172039 -0.213333 0.206205 0.052983 0.102294 -0.461501 0.035900 0.281434 -0.298811 0.141873 -0.102660 -0.069379 -0.138336 0.086928 0.007450 -0.128301 0.081190 -0.130622 -0.181362 -0.244311 0.143216 0.024070 -0.039005 -0.158848 0.353557 0.359434 -0.051428 -0.202498 0.013740 -0.194573 0.072329 -0.293178 -0.263384 0.424988 0.355106 -0.432249 -0.231150 0.204049 0.002740 0.297198 -0.436097 -0.081521 0.291283 0.157254 0.252386 0.612687 0.170054 0.127600
GlobalSpecies0061 0.245569 0.178328 0.001716 0.141918 -0.064409 -0.140344 -0.352668 -0.047981 -0.230426 0.170528 0.064102 0.251011 0.199708 0.117319 -0.048716 -0.182330 -0.378405 0.121319 0.107489 -0.119873 -0.294707 -0.278074 0.098251 0.022570 -0.084376 -0.157739 -0.040596 -0.015237 -0.241223 -0.039899 0.110517 0.076017 0.111977 0.000768 0.195538 0.025037 -0.131222 -0.026886 -0.272982 0.303356 -0.211896 -0.094658 0.132690 -0.216439 0.204396 -0.184998 0.199837 -0.222014 -0.110408 -0.202776 0.034267 0.048868 0.060904 -0.134610 -0.021249 -0.092397 0.253205 0.127098 -0.125524 0.272903 0.265000 -0.170553 -0.205704 0.137393 0.000886 0.259205 0.015939 -0.079330 -0.154860 -0.062472 0.073446 -0.092930 0.290047 0.007328 -0.383116 0.535251 0.071426 0.216066 -0.551964 0.473448 -0.093143 0.285278 0.068682 -0.159443 0.308434 -0.112020 0.118768 -0.072437 -0.056784 0.022778 0.013231 0.268617 0.106513 -0.230408 0.070887 0.071853 0.266758 -0.064811 0.234238 -0.056730
GlobalSpecies0062 0.035759 -0.112665 -0.069893 -0.030523 -0.121493 -0.064844 0.001020 -0.165797 -0.021239 -0.094556 -0.090236 -0.021686 -0.107084 0.004651 0.122523 -0.115390 0.087317 0.250803 -0.144672 0.064992 -0.037405 -0.097698 -0.095204 0.148006 0.208111 0.120077 -0.051468 0.013167 -0.045549 -0.098962 0.111494 0.117230 -0.051101 -0.082269 0.034780 -0.038243 -0.014638 0.062562 0.104101 0.023777 -0.017351 0.224604 0.085778 0.194285 -0.086575 -0.041250 -0.062140 0.164593 -0.133577 0.013638 0.146560 0.037828 -0.143552 0.058777 -0.087133 -0.194713 -0.236105 0.167354 0.015252 -0.019157 0.074149 -0.038221 0.247832 -0.026804 0.127770 -0.062185 0.173113 -0.076447 0.070122 0.003645 -0.126662 -0.000760 -0.110276 -0.056762 0.107554 0.020026 0.075309 -0.125145 0.128441 -0.095820 -0.085310 -0.006539 -0.022314 0.001671 0.146891 -0.154938 -0.040181 0.035265 0.026897 0.076205 -0.074629 0.102287 -0.062210 0.058477 -0.138300 -0.194202 -0.109173 -0.160488 -0.145504 0.125728
GlobalSpecies0063 0.037256 -0.008125 -0.072456 0.209491 0.051811 0.188182 0.128060 0.257105 -0.151285 0.175261 0.000621 0.067070 0.028686 -0.102325 -0.020965 -0.137246 -0.130314 -0.038570 0.010066 0.127026 -0.008403 0.329874 -0.194568 -0.027555 -0.217154 0.000956 -0.000532 0.111430 0.146924 0.137259 -0.048836 0.006182 0.060139 -0.124615 -0.040377 -0.112840 -0.129217 -0.167768 -0.109755 0.099847 -0.070950 -0.295266 -0.103002 0.049580 -0.050846 -0.062169 -0.281019 0.170495 -0.148779 -0.110943 0.033902 -0.034641 -0.001922 0.022075 -0.079663 -0.022574 -0.107641 -0.016114 -0.102074 -0.055636 -0.095251 -0.036245 -0.083940 0.217735 -0.094683 -0.128239 0.040774 0.035554 -0.052534 -0.227076 -0.099591 -0.126306 -0.294213 0.053243 -0.112012 0.066302 0.039490 -0.138840 -0.265295 0.048184 0.060711 -0.214618 0.065965 -0.064034 -0.149521 0.051506 0.034649 0.045978 -0.087509 -0.026392 0.261354 0.015215 0.025629 0.056728 0.060830 -0.099633 -0.128947 -0.077887 0.074462 -0.298922
GlobalSpecies0064 0.177191 -0.021883 -0.012134 -0.090698 -0.217402 -0.112443 -0.072165 0.083687 0.119759 0.087342 -0.054957 -0.107023 0.005335 -0.078784 0.019947 -0.116406 0.248840 0.062121 -0.075085 0.264739 -0.132235 -0.019085 -0.027962 0.098699 0.096709 0.121645 0.011045 -0.050222 -0.056089 0.038283 0.205990 0.163898 -0.114157 0.022432 -0.078915 -0.070449 0.002211 0.062317 0.026529 0.178829 0.023815 -0.095065 -0.048531 -0.035342 0.024634 -0.135610 -0.023155 0.072239 -0.103837 0.162204 0.123582 0.161059 -0.044594 0.159730 -0.069080 -0.025441 0.164978 0.067958 -0.037104 0.059918 0.065428 -0.062706 0.139619 0.143511 0.152678 0.003200 -0.035253 -0.083736 -0.023292 -0.013159 0.262374 -0.086835 -0.146367 -0.134549 0.044509 0.052190 0.069853 0.036104 0.066161 0.036398 -0.180473 -0.083041 -0.034691 -0.013996 0.174410 -0.260813 -0.109022 0.009595 0.098357 -0.038558 -0.101679 0.093807 0.077229 0.027509 -0.089575 0.078695 0.111764 -0.068561 0.044004 0.073620
GlobalSpecies0065 -0.260667 -0.267230 -0.433399 0.014993 -0.233533 0.241715 0.069771 0.044883 -0.181111 -0.076530 -0.278769 -0.129614 -0.019334 -0.002059 0.201796 -0.132446 0.000022 0.001225 0.022046 0.085054 -0.083920 -0.118719 -0.054956 0.046071 0.058862 -0.072006 -0.072429 0.022724 0.023507 -0.192448 -0.019999 0.087958 0.217279 0.178266 -0.017183 -0.190956 -0.059600 -0.005834 0.120683 -0.283412 0.046384 0.030263 0.127827 0.266132 -0.237550 -0.017792 -0.246235 0.167700 -0.127838 -0.171015 0.060925 0.021447 -0.172069 -0.127391 0.003050 -0.049633 -0.108559 0.124738 -0.193472 -0.180600 0.082770 -0.256680 0.193130 0.163022 -0.015984 0.122365 -0.057512 0.049620 0.026740 -0.161860 -0.318535 0.027664 -0.075868 0.245252 0.004393 0.060770 -0.104458 -0.061599 0.088279 -0.122951 -0.028566 -0.092997 -0.054118 0.398001 0.201930 0.064292 -0.035482 0.166273 0.181306 0.058004 0.032553 0.090264 0.065941 -0.032458 -0.257667 -0.380474 -0.293373 -0.327618 0.086209 0.074955
GlobalSpecies0066 0.208991 -0.274522 -0.073013 -0.108458 -0.153818 0.034570 0.072735 -0.008254 0.105645 -0.288844 -0.129718 -0.048688 -0.232491 -0.175044 0.063712 -0.026239 0.209775 0.294020 0.063763 0.176427 0.043807 0.134709 -0.133816 0.110430 0.210996 0.308902 -0.195319 0.110181 0.225087 0.053923 0.296808 -0.012440 0.056324 0.108654 -0.036796 0.200656 -0.232112 0.204954 0.267349 -0.110403 0.080108 0.227160 -0.099784 0.200481 -0.148525 -0.023482 -0.152442 0.115563 -0.184166 0.073247 0.089795 0.082749 -0.209668 0.136960 0.081982 0.080695 -0.068314 0.209178 0.284995 -0.069769 -0.112925 -0.016479 0.091200 -0.015385 0.124193 -0.064824 0.215173 -0.131936 -0.105072 -0.041138 -0.050320 0.059987 -0.206579 -0.122149 0.087235 -0.044058 0.043480 -0.038714 0.239158 0.154576 0.039192 0.136695 -0.094473 0.105499 -0.045816 -0.386205 0.016341 -0.146491 -0.059934 0.140172 -0.220787 0.073712 -0.131975 0.143099 -0.069110 -0.017796 -0.099173 -0.311137 -0.045369 0.054690
GlobalSpecies0067 -0.092994 -0.032159 -0.124276 0.088707 0.101896 0.244697 -0.032007 0.540141 0.097197 0.110719 0.281195 -0.137878 0.182014 -0.030504 0.217286 0.028922 -0.097009 -0.153222 0.138382 0.262751 -0.305452 0.361761 0.269879 -0.155907 -0.058172 -0.226800 -0.066403 -0.148084 0.211946 0.327141 0.023011 -0.274268 0.039022 -0.052664 0.027755 -0.350567 -0.038686 -0.214417 -0.330008 0.172252 -0.065037 -0.464087 0.089449 -0.212471 0.063477 -0.274742 -0.397259 0.098332 -0.157614 -0.123066 0.199299 -0.080474 0.071048 0.110138 -0.045680 0.329519 0.073329 0.148527 0.122458 0.161893 0.013186 -0.084467 0.130704 -0.097261 -0.400927 -0.227921 0.009642 0.140658 0.087919 -0.263367 -0.140928 0.021939 -0.113492 0.002476 -0.035155 0.100324 0.124651 -0.010322 -0.286079 -0.189811 -0.004544 0.120766 -0.033626 -0.113164 0.007924 0.258787 -0.034663 0.028461 -0.068184 -0.201094 0.217977 -0.032320 -0.156370 0.003424 -0.205416 -0.124445 -0.045947 -0.208650 0.366230 -0.091498
GlobalSpecies0068 0.232355 -0.329545 -0.188569 -0.031017 -0.032879 -0.169849 0.175670 -0.245559 -0.072229 -0.353596 0.036921 0.023399 -0.360147 -0.056420 0.080283 0.017653 0.262819 0.186212 -0.081003 -0.149347 0.148451 0.080080 -0.208468 0.108192 0.435768 0.204492 -0.339794 -0.014999 -0.089863 -0.278715 0.066401 0.104967 0.137633 -0.017651 -0.036457 0.025304 0.035388 0.255199 0.294873 -0.290734 0.165207 0.505373 0.071206 0.324571 -0.123463 0.236023 -0.008927 0.040589 -0.127727 0.054876 0.016772 -0.185443 0.039459 0.074270 0.017516 -0.121640 -0.192343 0.246298 0.304986 -0.049943 -0.178865 0.034729 0.446091 -0.094870 0.284410 -0.033028 0.363879 -0.079240 0.016835 0.062547 -0.096495 0.077169 -0.164751 -0.133409 0.263710 -0.052980 0.029792 -0.147121 0.261932 -0.038823 0.008634 0.183033 -0.193640 0.130265 0.063560 -0.230056 0.031861 0.087866 0.007712 0.089767 -0.368257 0.074240 -0.202354 -0.091151 -0.181033 -0.037525 -0.168869 -0.242257 -0.178645 0.319406
GlobalSpecies0069 -0.303518 0.199007 0.010139 0.334795 -0.083745 0.010661 -0.029119 0.007893 -0.022928 -0.019390 0.049710 -0.046945 -0.167447 -0.247959 0.047848 0.333892 -0.042323 -0.193659 -0.128853 0.038996 0.233679 0.021190 0.099031 0.068673 -0.001524 0.179009 0.087906 0.154741 -0.088030 0.104582 0.049005 -0.044744 -0.061423 0.095315 0.100547 0.149287 -0.102113 -0.139910 -0.085468 0.137376 -0.128668 0.057430 -0.065379 -0.072612 -0.114267 0.104888 0.117153 -0.086343 0.073492 0.148474 -0.047394 -0.156590 -0.008968 -0.206685 -0.016290 0.147404 0.087616 -0.217962 -0.038243 -0.025045 0.225623 -0.167296 -0.266905 -0.265662 -0.055555 -0.085671 -0.281199 -0.001776 0.030558 0.023465 -0.064982 0.097063 0.033110 -0.006900 0.042603 -0.036623 0.003881 -0.078627 0.040729 -0.036530 0.046856 -0.108170 -0.283986 -0.121116 -0.006243 -0.018319 0.022156 0.037188 0.092992 0.036729 0.134808 -0.156877 0.367834 -0.095327 0.118773 0.010491 -0.039756 0.148805 0.015401 -0.177317
GlobalSpecies0070 -0.117927 -0.173742 -0.313036 -0.170150 -0.111439 -0.021199 0.130079 -0.007723 -0.223374 -0.182838 -0.264207 -0.195202 -0.097338 -0.001059 0.271827 -0.008018 0.169266 0.039867 0.056428 0.005484 0.117060 -0.059848 -0.320338 0.056161 0.271298 0.012812 -0.064374 -0.116874 -0.033607 -0.272095 0.112107 0.106844 0.110913 0.217630 -0.189699 0.039314 -0.143430 0.067889 0.152851 -0.283776 0.117517 0.089754 0.145131 0.231472 -0.230322 -0.016521 -0.100023 0.147527 -0.293434 -0.162846 0.106333 -0.038727 -0.100929 -0.159025 -0.106850 -0.066559 -0.163628 0.209982 -0.022636 -0.118120 0.107242 -0.258623 0.310590 0.131326 0.235237 0.104746 0.113943 -0.163889 -0.071319 0.015146 -0.211052 -0.014210 0.016812 -0.107283 0.146010 -0.070789 -0.062322 -0.237078 0.095836 -0.038219 -0.027526 0.137514 -0.061828 0.326509 0.049025 -0.117243 -0.095743 0.280906 0.141885 0.128180 -0.118487 0.067954 -0.061379 0.003448 -0.255283 -0.110077 -0.146523 -0.287204 -0.012087 0.166763
GlobalSpecies0071 -0.060468 -0.084747 -0.074777 0.250236 0.051547 0.090759 0.096149 -0.042755 -0.209918 0.229522 -0.153531 0.026283 -0.035112 0.013563 0.024195 0.134731 0.006865 -0.017144 -0.018641 0.144736 0.044429 0.163864 -0.095281 -0.406810 0.078064 0.076678 0.107430 0.300451 -0.031177 -0.151665 -0.169965 0.080750 0.106244 -0.056643 -0.119585 0.129067 -0.095406 -0.317611 0.075368 0.203349 -0.341047 -0.033730 -0.083700 0.140276 -0.220452 -0.117952 -0.068685 -0.019728 0.160933 0.201654 -0.349715 -0.068992 0.029610 0.442210 -0.170961 -0.067826 -0.064165 -0.286853 0.185002 -0.005837 -0.105580 0.202566 -0.057647 -0.035285 -0.293037 0.194679 -0.284636 -0.162355 0.071435 -0.009965 -0.056203 -0.276358 0.289779 -0.160645 -0.543593 -0.173434 0.107067 -0.246970 -0.121131 0.003669 -0.080162 -0.076950 0.145879 -0.069046 -0.296897 -0.097489 -0.091650 0.142225 -0.226641 -0.040993 0.354512 -0.023817 0.327439 -0.017878 0.160977 -0.256927 0.044238 0.162656 0.171942 -0.110778
GlobalSpecies0072 -0.101912 -0.094284 -0.165467 -0.168743 -0.084394 0.019453 0.011031 0.032851 -0.085569 -0.318877 -0.254341 -0.203286 -0.087831 0.120917 0.120424 0.026017 0.181319 0.013723 0.032149 -0.008708 0.156936 -0.037211 -0.234180 -0.083340 0.104934 -0.138048 0.165088 -0.125241 0.084388 -0.220143 0.221660 0.224877 -0.024284 0.380788 -0.182232 0.215149 -0.103230 0.014264 0.089128 -0.258859 0.109475 0.199382 0.198841 0.187699 -0.223081 -0.098375 0.183595 -0.000417 -0.367325 -0.076462 0.029832 -0.003022 0.022874 -0.053932 -0.148351 -0.039423 -0.181811 0.057500 0.032279 -0.174211 0.179153 -0.152781 0.087507 0.035893 0.283871 0.119934 -0.130813 -0.063620 -0.123897 0.198047 0.016379 -0.066090 0.212927 -0.169090 0.049708 -0.183255 -0.143378 -0.111488 -0.026256 0.030189 0.050959 0.253958 -0.011322 0.370837 0.009186 -0.298837 -0.190065 0.262894 0.121648 0.006652 -0.088741 0.021222 0.116095 0.065298 -0.154858 0.181047 -0.021890 -0.079775 0.052174 0.058346
GlobalSpecies0073 0.159592 -0.133012 0.014310 0.185644 -0.047478 -0.082702 0.124013 -0.155679 -0.017780 -0.092118 0.097049 -0.017682 -0.144433 -0.019738 0.171205 -0.011939 0.045299 0.135695 -0.156919 -0.149628 0.086656 -0.054151 -0.091514 0.010775 0.139237 -0.073783 -0.261636 -0.040188 -0.093643 -0.221708 -0.145037 0.138069 0.005438 0.048271 0.058152 -0.128620 0.154378 0.095775 0.098334 -0.199386 0.076059 0.265194 0.004969 0.048238 0.068512 0.187132 0.095461 0.108688 -0.041347 0.061022 0.126532 -0.125278 0.235555 0.177801 0.020531 -0.175533 0.011893 -0.032686 0.084585 0.036150 -0.135855 0.169550 0.203576 -0.098758 0.251819 -0.022048 0.149523 0.310881 0.029868 0.049741 0.009145 -0.029591 -0.090578 0.178035 0.031608 0.042713 -0.012374 -0.094289 0.009263 -0.132056 0.044061 0.041802 -0.157403 0.047635 0.016140 -0.024552 -0.070240 -0.054613 0.116280 -0.290735 -0.103180 -0.023205 0.039835 -0.173496 -0.200585 0.106964 -0.114054 0.084637 -0.145283 0.142895
GlobalSpecies0074 0.187305 0.011212 -0.177919 -0.129501 -0.135737 -0.043641 -0.078843 -0.135735 -0.113702 -0.125567 -0.142707 -0.021830 -0.043528 0.007809 -0.042338 -0.076728 0.029988 0.201595 -0.159768 -0.069862 -0.118180 -0.007795 -0.086243 0.100403 0.179464 0.048069 -0.085547 0.107842 0.002361 -0.124362 0.239591 0.020332 -0.063638 0.140945 -0.101659 0.118239 -0.098319 -0.016044 0.119070 -0.087690 0.068700 0.407447 -0.019250 0.083839 -0.140692 -0.169060 0.122587 0.005327 -0.251447 -0.007059 0.066793 0.003748 -0.221266 -0.046826 -0.004161 -0.098411 -0.130172 0.105843 0.193625 0.001543 -0.017709 -0.108266 0.106063 0.015399 0.217016 0.020318 0.063023 -0.207551 -0.048204 0.040245 -0.071446 -0.030093 -0.039864 -0.043458 0.136661 -0.027075 0.082853 -0.018639 -0.011001 0.055329 0.006533 0.218949 0.061353 0.073162 0.108945 -0.102852 -0.133052 0.012931 0.053933 0.121136 -0.096459 0.063261 0.089596 0.045741 -0.131188 -0.042375 0.163986 -0.033395 -0.102233 0.164685
GlobalSpecies0075 0.239549 -0.235733 0.036096 0.022602 -0.062780 0.119273 -0.196387 -0.174276 0.119358 -0.215821 -0.011584 0.067737 -0.345299 -0.062098 0.081808 -0.348139 0.056310 0.402049 0.087344 0.163536 0.140639 -0.097604 0.255241 0.080810 0.179019 -0.027625 -0.068679 0.172526 -0.011379 0.189088 0.171985 -0.175541 0.032579 -0.007733 0.014798 0.215911 -0.111110 0.006004 0.204131 -0.027284 -0.025262 0.280983 0.010276 0.092986 -0.263663 -0.184608 0.052453 0.036526 -0.071102 -0.056348 -0.005415 0.068153 -0.299191 0.128730 0.024033 0.069756 0.030311 0.141822 0.124770 -0.011966 -0.269988 0.099758 0.000395 0.049363 0.019568 0.155944 0.104150 0.054860 -0.197110 -0.064225 -0.142871 0.069671 0.006387 0.091319 0.014143 0.031104 0.132174 0.036632 0.067363 0.089171 0.132499 0.170371 0.021168 0.137953 -0.035663 -0.135446 0.077994 -0.121089 0.140283 0.144134 -0.022315 0.079709 -0.042311 0.104923 0.188585 -0.305745 -0.029168 -0.086218 0.026134 -0.220136
GlobalSpecies0076 0.250446 -0.263545 -0.135670 0.012307 -0.164276 -0.238545 0.259943 -0.058338 -0.008505 -0.291486 0.019909 -0.011973 -0.198355 -0.166136 0.122175 0.078516 0.255170 0.123993 -0.106230 -0.031423 0.076381 0.145205 -0.338919 0.037585 0.374145 0.190479 -0.353624 -0.123408 0.070160 -0.173881 0.031226 0.243499 0.051967 0.017090 -0.098995 -0.084636 -0.017133 0.337553 0.205102 -0.363895 0.223293 0.266869 -0.032978 0.308331 0.049655 0.315621 -0.104786 0.162428 -0.200447 0.141101 0.093990 -0.116741 0.193355 0.140340 -0.036319 0.007006 -0.035231 0.144175 0.188384 0.001313 -0.065052 -0.009616 0.359455 -0.001621 0.187436 -0.091008 0.303050 0.011449 0.025508 0.029467 0.114285 0.143855 -0.234485 -0.138812 0.140713 -0.063620 -0.028838 -0.112093 0.174468 0.089882 0.013531 0.089360 -0.122784 0.224057 -0.060217 -0.336684 -0.017842 0.029419 -0.057242 -0.106193 -0.355805 -0.011017 -0.137417 -0.086317 -0.220170 0.070900 -0.254115 -0.187569 -0.129167 0.271251
GlobalSpecies0077 0.111752 -0.169071 -0.118063 -0.133200 -0.201493 -0.034438 0.141340 0.037861 0.153418 -0.178712 -0.037018 -0.154826 0.011746 -0.148930 0.117307 -0.032613 0.389264 0.035735 0.058769 0.281186 -0.095368 0.048478 -0.326286 0.022155 0.307771 0.227058 -0.013663 -0.162193 0.159881 0.153120 0.223498 0.190739 -0.069672 -0.039023 -0.239757 0.096698 -0.088226 0.042286 0.159096 0.032351 0.065334 0.160117 -0.054383 0.160887 -0.070026 -0.016141 -0.107015 0.054310 -0.131718 0.190491 0.166581 0.089098 0.100720 0.310671 -0.048539 -0.103600 0.098503 0.178823 -0.012845 -0.059827 0.079350 -0.103116 0.203463 0.094426 0.010778 -0.172504 0.091196 -0.126704 -0.145385 -0.018320 0.144355 0.075120 -0.181370 -0.086822 0.073255 -0.018418 -0.022837 -0.120154 0.199344 -0.049429 -0.228604 -0.095085 -0.154716 0.269997 -0.054040 -0.336370 -0.082814 -0.063350 -0.007470 0.011493 -0.286414 0.087945 -0.083461 0.062271 -0.112598 0.179079 -0.195633 -0.235313 -0.114383 0.085713
GlobalSpecies0078 -0.185385 -0.048460 -0.152581 0.176033 -0.095471 -0.026957 0.082747 0.002262 -0.251264 0.031480 -0.231749 0.014563 -0.171027 -0.154620 0.104762 0.273339 0.037647 0.033409 0.047725 0.174940 0.281708 0.139130 -0.248948 -0.132878 0.237312 0.340589 -0.024236 0.231831 0.015745 -0.188355 0.144144 0.201605 0.100504 0.109811 -0.062919 0.198218 -0.106856 -0.139476 0.306198 0.166660 -0.173482 0.277028 0.012456 0.196033 -0.415799 -0.102048 -0.145206 0.089114 0.127738 0.086978 -0.158084 -0.112194 0.044259 0.241628 -0.171551 -0.170671 0.018829 -0.253262 0.120093 -0.096838 -0.053080 -0.013434 0.035009 -0.013106 -0.070536 0.120303 -0.072000 -0.340948 0.023204 -0.004209 -0.039211 0.085507 0.150395 -0.015683 -0.235502 -0.177501 0.072586 -0.459445 -0.013163 0.084747 0.014923 -0.145271 -0.041022 0.325105 -0.055002 -0.160056 0.099988 0.113921 -0.180681 -0.054580 0.081785 0.134267 0.183235 -0.069883 -0.117631 -0.154518 0.059089 0.130627 -0.109118 0.086454
GlobalSpecies0079 -0.002514 0.029605 -0.013221 0.025725 0.051867 -0.000298 0.001975 -0.101036 0.024664 -0.022176 -0.002164 0.121494 0.074952 0.169851 0.082516 -0.235117 -0.094846 0.142610 -0.006527 0.060846 0.011472 0.014599 0.079045 0.085129 -0.144270 -0.049195 0.037680 0.015211 0.104898 0.055205 0.206782 -0.237327 -0.137218 0.162017 -0.146773 0.357632 -0.205158 0.044971 -0.082050 -0.025940 0.003608 0.019148 -0.011675 0.021387 0.037012 -0.207996 0.211034 -0.063567 -0.100428 -0.143910 -0.111975 0.015649 -0.258681 -0.105023 0.045330 0.230037 -0.070823 -0.058540 0.049844 -0.164397 -0.206347 -0.034267 0.063355 -0.008557 0.036223 0.040563 -0.173425 0.231477 -0.037066 0.044102 -0.059679 -0.195282 0.184370 0.048968 -0.096120 0.116584 0.053713 0.108079 -0.053394 -0.264492 0.114292 0.476147 0.129304 -0.124499 -0.068129 0.174495 -0.079130 -0.006525 0.061265 0.120710 0.227678 -0.035074 0.001744 0.067285 0.101663 0.108770 0.145581 -0.017980 -0.067763 -0.227923
GlobalSpecies0080 0.069319 0.272028 0.356669 -0.146850 0.122608 -0.036126 0.206781 -0.076341 -0.022759 0.176692 0.273746 -0.010074 0.111221 0.051397 -0.167433 -0.075976 -0.262243 -0.229419 -0.117277 -0.062610 0.066723 -0.174569 0.071847 0.115512 -0.235228 -0.053562 0.115412 0.204340 -0.132229 0.101683 -0.348839 -0.020546 -0.015231 -0.114960 0.133804 -0.312848 0.084064 -0.001664 -0.066062 0.161312 -0.096469 -0.401434 0.026777 -0.241243 0.169861 0.144915 0.066809 -0.022036 0.234269 -0.058489 0.120870 0.124010 -0.096594 0.079162 0.168100 -0.261866 0.113667 -0.224527 -0.190519 0.024858 -0.194849 -0.009360 -0.082867 0.241157 0.158525 0.043145 0.131317 0.107176 0.198864 -0.153083 -0.072590 -0.118385 0.029416 -0.136049 0.020675 0.263896 0.089556 -0.085526 -0.196306 0.066684 -0.059596 -0.038396 0.058777 -0.111613 -0.053013 0.181965 0.187993 0.067953 0.010083 0.124725 0.273250 0.098508 -0.181275 -0.005958 -0.010122 0.096497 0.066183 0.100596 0.047450 -0.025001
GlobalSpecies0081 0.009010 -0.288172 0.542695 0.120784 0.190731 0.021872 -0.127957 -0.060648 -0.034966 0.182613 0.304941 0.087593 0.215197 0.229050 0.023426 -0.162249 -0.339917 0.068106 -0.036537 0.042631 0.023508 0.051971 0.497326 -0.172723 0.054749 -0.347873 0.133891 -0.232846 -0.094644 0.009303 -0.009742 0.363261 -0.116781 0.031480 0.297297 0.060595 0.300519 0.115544 -0.146659 0.031770 0.006460 -0.097412 -0.092457 0.063062 0.372795 0.218179 0.123029 -0.003441 0.093868 -0.020550 0.036277 0.093157 0.046074 0.049784 0.080689 0.100192 -0.189610 -0.238310 -0.051896 0.165552 0.098655 0.318224 0.148120 -0.013481 0.038601 0.022933 -0.003129 0.057262 0.094953 -0.025293 0.098018 0.038535 0.190212 0.366171 0.107338 0.064627 -0.027882 -0.277823 -0.168163 -0.062863 0.134271 0.056480 -0.003031 0.190079 -0.095110 0.183650 -0.146072 0.012768 0.000457 -0.354569 0.331847 -0.129480 0.070463 -0.359592 -0.096449 -0.192034 0.036364 -0.087294 -0.347097 -0.061339
GlobalSpecies0082 0.177542 -0.357915 0.007816 -0.013213 -0.003734 0.166342 -0.098593 -0.193196 0.134693 -0.215413 -0.009544 0.017982 -0.278564 -0.057698 0.026574 -0.191171 0.076770 0.272706 0.017704 0.028827 0.043338 0.019616 0.225405 -0.020452 0.175810 0.090128 -0.129508 0.119051 0.038853 0.005207 0.247849 -0.247338 0.106079 0.104591 0.127723 0.262159 -0.043007 0.080063 0.114221 -0.018140 0.008268 0.234437 -0.114133 -0.016929 -0.251060 -0.287233 0.065397 -0.022565 -0.070899 -0.108377 0.022247 0.087889 -0.427880 0.117520 0.162678 0.071867 -0.012552 0.225997 0.278992 -0.067583 -0.232092 0.095951 0.179808 -0.135527 0.258477 0.191104 0.037774 0.042762 -0.124002 0.014200 -0.185262 -0.065565 0.066854 0.035960 -0.010091 -0.025753 0.131168 -0.088862 0.174234 -0.024548 0.088060 0.114782 -0.080200 0.126973 -0.034077 -0.118176 0.061767 0.063809 0.062532 0.209193 -0.072690 0.232734 0.170221 0.103514 0.083944 -0.232790 -0.034747 -0.172740 -0.108020 0.062891
GlobalSpecies0083 0.029290 -0.192495 0.080752 -0.063777 0.104790 0.098943 0.051799 -0.126682 0.235842 -0.132562 0.025252 0.052963 -0.098304 0.065784 0.002716 -0.224222 0.177807 0.099549 0.017087 0.161088 0.030921 -0.155715 0.159368 0.139916 0.063696 0.154815 -0.044588 0.029154 0.001050 0.061411 0.275663 -0.111395 0.075320 -0.047961 0.055562 0.055606 -0.044859 -0.202615 0.052440 0.204677 -0.118221 0.166112 -0.036440 -0.023854 -0.095340 -0.245572 0.145807 -0.013168 -0.115446 -0.031506 0.016198 0.118214 -0.096370 0.265625 0.090510 -0.143461 0.086692 0.222096 0.038068 -0.086007 -0.001939 -0.031968 0.037097 0.058523 0.099463 -0.062780 0.063476 0.031878 -0.056997 0.026077 -0.072636 -0.079021 -0.039293 0.111092 0.051547 0.096939 0.015790 -0.008378 0.252070 -0.152034 -0.307093 0.084679 -0.177839 0.080944 0.077629 -0.018822 -0.026415 -0.040139 0.123969 -0.017654 0.012414 0.104870 -0.101303 0.068954 -0.004082 0.071997 0.032420 0.095791 -0.038485 0.070844
GlobalSpecies0084 0.013685 0.110314 -0.150380 0.038852 -0.077079 -0.146117 -0.090758 -0.142692 0.023764 0.010270 -0.045252 -0.144698 0.005048 -0.139599 -0.084661 0.002593 0.161993 0.040513 -0.192761 -0.052629 -0.129630 -0.191515 -0.109402 -0.021708 0.147046 0.114643 0.050494 -0.182481 -0.102461 -0.090913 0.226100 -0.030571 0.053357 0.031633 -0.077685 -0.072937 0.030883 0.034169 0.016435 -0.033397 0.009813 0.188112 -0.028413 0.051070 -0.174232 -0.109416 0.031613 -0.053774 -0.013049 0.177278 -0.013514 0.011852 -0.123374 0.137243 -0.137929 -0.092110 0.073617 0.127334 -0.098479 0.112419 0.148585 -0.021953 0.141785 0.045591 0.056458 -0.087024 -0.092073 -0.085849 -0.119736 0.072655 0.036140 -0.020279 -0.050071 -0.073727 0.064276 0.058408 0.028490 -0.095083 0.167365 -0.001131 -0.044162 -0.065655 -0.106130 -0.088087 0.252032 -0.044801 -0.124235 -0.040621 0.109720 0.077609 -0.062723 0.073049 0.180181 0.014427 -0.091756 0.038045 -0.108010 -0.046323 -0.070910 -0.046277
GlobalSpecies0085 0.100465 0.077706 0.188362 0.068573 0.182024 0.084564 0.073435 0.104052 0.015630 0.028396 0.135934 0.229177 -0.114744 -0.005427 0.080370 0.173420 -0.367220 0.043799 -0.293740 -0.177247 0.259016 -0.130311 0.015536 0.005420 0.047081 -0.018652 0.016007 -0.011921 -0.114998 0.199119 -0.308713 -0.043365 -0.033011 -0.243825 0.162971 -0.206601 0.121215 -0.167858 0.060957 0.052921 -0.063437 -0.092621 0.128839 -0.010065 0.289935 0.041238 0.099155 -0.070790 0.235002 0.089394 0.092638 -0.067784 0.343755 0.118902 -0.091484 -0.099360 -0.081470 -0.080689 0.125553 -0.161140 -0.068480 0.019336 -0.233280 -0.112885 -0.039586 0.035719 0.161996 0.065116 0.323037 -0.176222 0.072855 0.165126 0.242327 0.033702 -0.135483 0.100928 -0.115972 0.007265 -0.339855 -0.095258 0.104975 -0.135359 0.185865 -0.336597 -0.140109 0.124934 0.240387 -0.007362 0.003486 -0.227622 0.182105 0.086265 0.120601 -0.011830 0.045888 0.063010 -0.033665 0.229633 -0.129668 0.091772
GlobalSpecies0086 0.086026 -0.019710 0.059921 0.138182 0.078024 0.019968 -0.208837 -0.236742 0.030636 -0.087245 0.012117 -0.059438 -0.308172 -0.155775 0.058857 -0.165692 0.106686 0.224484 -0.142449 -0.019137 0.109477 -0.058219 0.105473 0.054081 0.017559 0.076402 0.007518 -0.077709 -0.033042 -0.061316 0.198094 -0.225179 0.104648 0.045464 0.085796 0.060521 -0.217546 -0.107939 -0.008142 -0.085695 -0.004197 0.142390 -0.093922 -0.000936 -0.255794 -0.087169 -0.028495 -0.058378 -0.144478 -0.028988 0.136149 -0.019271 -0.185174 0.091052 0.095245 0.091476 0.116408 0.197758 -0.007960 0.036440 0.074469 -0.036338 0.025917 -0.133828 0.051570 -0.071054 -0.151844 0.024628 -0.112663 0.018019 -0.167314 0.044065 -0.024970 -0.023558 0.241780 0.023588 -0.103599 -0.091109 0.222689 0.116376 -0.005833 -0.065147 -0.195701 -0.151902 0.067531 -0.024249 0.018948 0.004531 0.151816 -0.006509 0.023895 0.078755 0.067319 0.020452 0.161415 0.008208 -0.093289 -0.131972 -0.027707 -0.266303
GlobalSpecies0087 -0.157008 -0.310279 -0.373380 -0.004210 -0.101350 -0.067139 0.209291 -0.044886 -0.037882 -0.216002 -0.097539 -0.208229 -0.091416 -0.058252 0.067468 -0.103641 0.313888 -0.036915 0.056605 0.049640 -0.010394 -0.121867 -0.333469 0.083228 0.410752 0.189452 -0.131360 -0.157885 -0.122680 -0.146581 0.157908 0.141066 0.183474 -0.068199 -0.161664 -0.006801 0.045567 0.007409 0.169499 -0.036700 0.029263 0.229256 0.013084 0.263331 -0.211175 0.053796 -0.132312 0.086410 -0.154759 0.047703 0.065811 0.025168 0.006387 0.068510 -0.081160 -0.187580 -0.052628 0.291947 -0.189694 -0.166598 0.129575 -0.181525 0.435594 0.048359 0.178999 0.028627 0.167840 -0.222877 -0.154066 -0.079161 -0.158682 -0.000969 -0.122999 -0.124590 0.147548 -0.030959 -0.057163 -0.262126 0.285221 -0.176233 -0.289708 -0.137586 -0.176192 0.325822 0.148891 -0.047521 -0.073080 0.185205 0.117312 0.186127 -0.245693 0.157947 -0.159397 -0.060927 -0.183169 -0.096695 -0.151483 -0.377778 -0.141520 0.205325
GlobalSpecies0088 0.051857 -0.112364 0.184894 -0.146728 -0.016146 0.182520 0.002386 -0.006238 0.401470 0.056352 0.250928 -0.037721 0.161357 0.114541 -0.299426 -0.215427 -0.069414 0.015659 -0.026247 -0.096461 -0.245277 0.217920 0.123027 -0.051426 0.100153 -0.093807 0.214392 0.017708 0.080586 0.251216 0.027625 -0.255694 -0.051002 0.015172 0.165056 0.178677 -0.094622 -0.136488 -0.076035 0.435579 -0.014321 0.044307 -0.145472 -0.066345 0.024744 -0.115968 0.204664 -0.279757 -0.083148 -0.049231 -0.151450 0.040970 -0.105330 -0.060290 -0.149675 0.130649 -0.127035 0.181796 -0.219220 0.245178 -0.037919 0.081768 -0.054793 -0.173503 -0.208737 0.123934 0.117915 0.104700 0.180836 -0.106200 -0.154349 -0.087579 0.153009 0.124045 -0.188341 -0.068370 0.043220 -0.011526 -0.029906 -0.458818 -0.347427 -0.072305 0.048160 -0.090450 -0.020649 0.249691 0.156211 -0.238681 0.146003 0.322236 0.077320 0.133118 -0.165205 0.248526 0.377980 0.091949 0.213145 0.014934 -0.191542 -0.137512
GlobalSpecies0089 -0.454123 0.202717 0.233611 0.074197 0.545769 -0.126378 -0.295373 0.011205 -0.073541 0.524313 -0.060370 0.312004 0.255941 -0.136055 -0.176085 0.304313 -0.207922 0.300042 0.411166 0.113109 0.000713 -0.072755 0.192570 0.411880 -0.434367 -0.052919 0.210799 -0.214802 0.287020 0.420892 -0.502841 -0.211461 0.120017 -0.611142 0.305458 0.197808 0.314867 -0.005774 -0.406601 0.077587 0.292421 -0.760691 0.389473 0.034937 0.265786 0.333632 -0.043022 -0.348959 0.829533 -0.299002 -0.223147 -0.157354 0.457832 -0.358711 -0.377483 0.532392 0.161932 -0.259923 -0.098317 0.092222 -0.012971 0.191410 -0.165574 0.185481 -0.485716 0.230532 -0.242662 -0.109768 0.495239 -0.514082 0.283748 0.040051 0.100287 0.246794 0.079807 0.403109 -0.562756 0.670908 0.343262 0.063133 0.582357 0.246193 0.080619 -0.430257 -0.491059 0.293674 0.448333 -0.228929 0.007958 0.551356 0.109775 -0.006061 0.163184 -0.220707 0.428000 -0.176294 0.168057 0.090420 0.162498 -0.225277
GlobalSpecies0090 -0.174608 0.306524 -0.148586 0.203983 0.002149 0.055605 0.077758 0.131456 -0.005265 -0.307585 -0.046229 0.156431 0.242891 -0.026243 -0.027605 0.359693 -0.008996 -0.190786 0.108617 -0.188393 0.100135 -0.164306 0.300761 -0.082158 -0.387278 0.041517 0.183011 0.199919 -0.295663 0.179491 -0.232963 -0.165124 -0.179398 -0.230225 0.037153 -0.019429 -0.159334 -0.170527 -0.257160 -0.009420 -0.292817 -0.480738 -0.367038 -0.222326 0.301493 -0.119269 0.186068 -0.248197 0.045245 -0.057970 -0.069265 -0.021118 0.252460 -0.212409 0.369298 0.251249 0.194218 -0.197294 0.113377 -0.353668 0.126424 0.257779 -0.433386 -0.227443 -0.196129 -0.281117 -0.131362 -0.130323 0.012961 0.008250 0.187430 -0.102000 0.082618 -0.158972 -0.247976 0.019361 0.178926 0.152001 -0.106951 0.016829 0.351830 -0.028630 0.141576 -0.210983 -0.381334 0.225604 -0.192503 -0.197469 -0.118160 0.150285 -0.074844 -0.262192 0.205471 -0.082350 0.199308 0.462679 -0.043171 0.117017 0.144129 -0.036354
GlobalSpecies0091 0.125244 -0.099272 0.385953 -0.220965 0.086741 -0.484885 -0.285746 0.010102 -0.655429 0.439436 0.339502 0.155581 0.426276 0.131064 -0.404857 -0.246141 -0.241703 -0.219268 -0.267645 0.013581 -0.019451 -0.047541 0.429306 -0.105119 -0.265792 -0.331415 0.423764 0.375132 -0.191905 0.230955 -0.533178 0.019949 0.231873 -0.780045 0.269743 -0.217601 0.486882 0.246618 -0.465385 0.362133 0.140097 -0.648845 0.076221 -0.377245 0.346260 -0.073955 -0.095950 0.003158 0.261987 -0.194084 -0.015746 0.001316 0.277852 -0.035383 -0.313012 0.247317 -0.201954 -0.262899 0.101262 0.151786 -0.311383 0.130434 -0.340615 0.185954 0.109112 0.278021 0.400163 -0.035600 -0.003999 0.372190 0.027623 0.238040 0.270392 0.233526 -0.016955 0.308286 -0.432675 0.056385 -0.489032 0.026063 -0.179357 0.107285 0.082917 -0.222756 0.345094 0.340266 0.023069 -0.046953 0.056060 0.158191 0.060505 0.068079 -0.154556 0.193137 0.381154 0.076024 0.133325 0.062364 0.036882 -0.422786
GlobalSpecies0092 0.025024 -0.256854 -0.130681 -0.066608 -0.029746 -0.063443 0.142771 -0.104723 0.185841 -0.179049 0.026480 -0.149762 0.011722 -0.036593 0.003867 -0.224782 0.426072 -0.093767 0.047307 0.116056 -0.069334 -0.144072 -0.087529 0.025734 0.525569 0.289131 0.005032 -0.171836 -0.073370 0.033497 0.294609 0.040004 0.042304 -0.059030 -0.182083 0.108708 0.044515 -0.165322 0.146757 0.153218 0.071538 0.308693 0.063139 0.176003 -0.225199 -0.158910 0.084620 -0.082636 -0.064512 0.186442 0.011246 0.049647 0.098880 0.338279 -0.145616 -0.213458 -0.052515 0.273835 -0.179422 -0.056608 0.067572 -0.014018 0.328913 0.126299 0.178138 -0.008216 -0.023601 -0.143320 -0.139663 -0.005000 0.058440 0.082233 0.001029 -0.064258 0.094043 -0.035764 -0.082531 -0.190119 0.259497 -0.250085 -0.363012 -0.173222 -0.266117 0.325251 0.048600 -0.110735 -0.076351 0.066006 0.117435 0.145912 -0.251812 0.188270 -0.077834 0.061860 -0.068661 0.148778 0.006370 -0.148268 -0.189491 0.178955
GlobalSpecies0093 0.061807 -0.025000 -0.134807 -0.065110 -0.212286 -0.229053 0.057343 0.010091 -0.073510 -0.026753 -0.034358 -0.109706 -0.070565 -0.119604 -0.019603 0.075135 0.144424 0.180013 -0.101855 0.180117 -0.041736 0.006263 -0.285801 0.080405 0.236494 0.358693 -0.045462 -0.020621 -0.044710 -0.132859 0.171058 0.162546 -0.140108 0.025301 -0.153486 0.040307 -0.093944 0.032566 0.075995 0.113143 0.013244 0.127956 -0.120823 0.204530 -0.116022 -0.156200 -0.076438 0.080782 -0.073651 0.182348 0.005325 -0.022946 -0.024436 0.137293 -0.128918 -0.138186 0.094399 0.084954 0.061635 0.017349 0.080501 -0.086166 0.196031 0.044843 0.040188 -0.106233 -0.000275 -0.285029 -0.016924 -0.025071 0.082206 0.104020 -0.196983 -0.125328 -0.016468 0.090444 0.113630 -0.213283 0.068396 -0.013333 -0.165119 -0.139884 -0.097958 0.167791 0.004845 -0.300917 0.012744 0.002228 -0.046507 0.028019 -0.091219 0.037552 0.021102 0.018647 -0.111974 0.028555 0.016054 -0.042971 -0.078736 0.071200
GlobalSpecies0094 0.120609 -0.278115 -0.095928 -0.136082 -0.028872 -0.129227 0.070479 -0.197528 -0.102907 -0.210610 -0.011986 0.016229 -0.220655 0.005601 0.060902 -0.127128 0.168859 0.243684 -0.010723 -0.032563 0.128270 0.009674 -0.151796 0.080649 0.310081 0.191254 -0.064829 0.010753 -0.040395 -0.178901 0.210797 0.156783 0.065179 0.035352 -0.019761 0.155473 -0.140184 0.113158 0.169655 -0.239133 0.177600 0.353262 0.148720 0.313788 -0.174247 0.001830 0.094132 0.087748 -0.226260 -0.002516 0.121393 -0.098749 -0.085638 0.051239 -0.009932 -0.022469 -0.331693 0.166951 0.291183 -0.097368 0.114858 0.086922 0.289117 -0.056804 0.240273 0.027925 0.244127 -0.075832 0.060961 0.085465 -0.065975 0.042579 0.003601 -0.116713 0.164664 -0.167890 0.048167 -0.136319 0.177584 -0.073440 0.084363 0.263976 -0.083826 0.112785 -0.002632 -0.273035 -0.087745 0.140740 0.023240 0.018040 -0.102927 -0.010641 -0.113726 -0.060730 -0.164995 0.057663 -0.117214 -0.188116 -0.160256 0.118221
GlobalSpecies0095 0.012066 0.191055 0.187843 -0.465029 0.354420 -0.121184 -0.105892 -0.020944 -0.282231 0.352122 -0.104899 0.098104 0.518041 -0.071396 -0.457728 0.084860 0.098385 -0.137027 0.222624 -0.352633 -0.050265 0.150541 0.377629 0.149380 -0.692407 -0.124037 0.123988 -0.073745 -0.000326 0.356051 -0.140059 -0.024997 -0.244138 -0.243656 0.018162 -0.228985 0.026961 0.350394 0.130863 0.400301 -0.706688 -0.437606 -0.342416 -0.244044 0.420490 0.224271 0.275391 0.079504 0.667450 0.125742 -0.311068 0.146476 -0.036038 -0.124212 0.295034 0.225882 0.570083 -0.188452 -0.222258 -0.532961 0.361855 -0.181228 -0.518912 -0.115373 -0.389769 -0.124636 0.034525 0.209785 0.027797 0.129310 0.041112 0.005559 0.202877 -0.515618 -0.445548 0.207552 0.014000 0.494038 -0.122259 0.536475 -0.016050 0.051811 -0.067655 -0.172171 0.173327 0.387951 0.035885 0.065318 -0.222951 0.367746 -0.264616 -0.028673 -0.175310 -0.421922 0.702326 -0.036144 -0.166441 0.362687 -0.058919 -0.359617
GlobalSpecies0096 0.156569 0.036284 -0.030982 -0.043667 -0.026421 0.059435 0.089407 -0.058904 0.172895 -0.174275 -0.071943 0.084087 -0.093999 -0.066313 0.055547 0.048532 0.128217 0.133075 -0.198407 -0.067913 -0.067096 0.111653 -0.097319 0.129298 -0.094831 0.101918 -0.099202 0.161883 0.165819 0.021721 0.041579 -0.076980 -0.018457 0.114817 -0.014380 0.011923 -0.198118 0.011689 0.097034 -0.175409 0.053132 0.051175 0.046918 0.108467 0.157919 -0.035020 0.032148 -0.048342 -0.172534 -0.091510 0.179131 0.137725 -0.022522 0.038018 -0.067902 -0.087898 0.002565 0.149577 0.010298 -0.164198 -0.158310 0.060657 0.040894 0.063913 0.079670 -0.020341 0.079390 0.208341 -0.038560 0.009992 0.121320 -0.195659 -0.105993 -0.085451 -0.058884 -0.020022 -0.002855 0.220479 -0.061779 -0.015221 0.068532 0.075398 0.017600 -0.112684 -0.118395 -0.137990 0.002222 -0.148016 0.088499 -0.069743 -0.074120 0.020766 0.024920 0.052478 -0.024086 0.144102 -0.026575 0.007674 0.182646 -0.017585
GlobalSpecies0097 -0.364101 0.080512 0.144032 0.458080 -0.057258 -0.041211 0.149437 -0.024607 0.062469 0.004325 0.143826 0.404171 0.280696 -0.086056 -0.220022 0.500847 -0.413620 -0.044645 0.199376 0.294766 0.183986 0.184271 0.034490 0.314654 -0.138050 0.205375 0.313597 -0.282229 0.295779 0.198974 -0.236489 -0.207126 0.146754 -0.202820 0.195325 -0.058640 -0.260957 -0.181977 -0.053529 0.437073 -0.264443 -0.543668 -0.098480 0.101831 0.487870 -0.153198 -0.150927 -0.014582 0.254168 0.034919 -0.128934 -0.257398 0.212038 -0.027490 -0.111211 0.305985 0.223264 -0.244011 0.027812 -0.219076 -0.339875 -0.048575 -0.585108 0.033666 -0.422097 0.257205 0.139390 -0.101111 0.107228 -0.092257 0.570238 -0.026118 0.153494 0.050737 -0.491456 0.010579 0.143421 0.147788 -0.437856 0.092563 0.045049 -0.143897 0.220484 -0.046554 -0.147560 -0.131742 -0.193521 -0.378938 -0.016677 0.271611 0.177465 -0.133440 -0.021810 0.191866 0.051059 0.233864 0.153417 0.261774 0.143458 -0.052089
GlobalSpecies0098 -0.147180 0.098257 -0.184948 -0.011497 -0.058932 -0.127219 0.005692 -0.161609 -0.255895 -0.117006 -0.157355 -0.230300 -0.202907 -0.171405 0.044722 0.248921 0.225071 0.085375 -0.074636 0.003537 0.203493 -0.045490 -0.268516 -0.127524 0.058607 0.256699 0.067286 0.001976 0.032098 -0.272497 0.115972 0.003877 0.023931 0.187651 -0.070660 0.069706 -0.040838 -0.036729 0.069124 -0.154170 0.059997 0.115395 -0.016873 0.179555 -0.209639 -0.017960 0.015902 0.028580 -0.026706 0.062243 -0.008184 -0.059858 -0.089137 0.042688 -0.106258 0.087406 -0.073985 0.024184 0.065661 -0.032182 0.164727 -0.056725 0.083581 -0.024955 0.158466 -0.028001 -0.118392 -0.221176 -0.040812 0.202724 -0.015652 -0.005903 -0.001189 -0.153827 0.108570 -0.089172 -0.012253 -0.267101 0.144587 0.014473 0.053750 0.058208 -0.167222 0.101065 0.071466 -0.141726 -0.095717 0.194143 0.093043 -0.029239 0.013205 -0.081127 0.127805 0.027278 -0.088461 0.080752 -0.128624 -0.011600 0.004361 -0.089355
GlobalSpecies0099 -0.012822 0.111295 -0.055543 0.019006 -0.070446 -0.004419 -0.043741 -0.105330 0.032209 0.064276 -0.055926 -0.010328 -0.142852 -0.109470 -0.032809 0.057096 0.048623 0.092728 -0.182104 0.043031 0.022673 -0.042669 0.022899 0.046893 0.033151 0.217845 0.053993 0.105033 -0.113052 -0.050869 0.179973 -0.093789 -0.001819 0.038043 0.126566 0.031253 -0.067686 -0.104169 -0.003817 0.056061 -0.001219 0.164732 -0.041193 0.146336 -0.140014 -0.141365 0.013102 -0.011141 0.051340 0.054086 0.055220 0.078267 -0.108341 0.206754 0.018684 -0.022628 0.019882 0.137776 0.092068 0.033221 0.086599 -0.109042 0.043627 -0.059196 0.012784 -0.066909 -0.105420 -0.119010 0.066324 -0.054584 -0.019743 -0.018635 -0.066205 -0.153233 -0.041309 0.086484 -0.000383 -0.149382 0.054133 -0.044757 -0.154192 0.003470 -0.043682 -0.180848 0.014164 -0.009558 0.128643 -0.011180 0.066045 0.061764 0.054499 -0.113871 0.131107 -0.020919 0.078941 0.000983 -0.083871 0.066924 -0.081939 -0.025050
GlobalSpecies0100 0.110964 -0.020177 0.007684 -0.066995 -0.211349 -0.218480 -0.090718 -0.021671 -0.044308 0.157052 -0.028863 0.146599 0.055912 0.012331 -0.066634 -0.123689 -0.046566 0.102469 -0.171001 -0.006310 -0.084884 -0.113592 -0.030906 0.056171 0.162157 0.024673 -0.074317 0.047914 -0.156014 -0.121037 0.033487 0.361178 -0.011835 0.009976 0.073658 -0.138472 0.083240 0.216716 0.081842 -0.093634 0.143735 0.341163 0.069466 0.036428 -0.028082 0.049614 0.059689 0.075506 -0.223792 0.206123 0.125294 -0.066344 -0.175152 0.113907 0.043209 -0.194318 -0.097159 0.061736 0.192276 0.192086 0.173648 0.007726 0.123296 -0.050619 0.115109 -0.064401 -0.009833 -0.095922 0.047778 0.120591 -0.004379 0.193822 0.002159 0.029043 0.146751 0.051779 0.040769 -0.154201 0.031144 0.061593 -0.071781 0.080629 0.075428 0.130532 0.313538 -0.155757 -0.097213 0.053244 0.032487 -0.132989 -0.076784 0.088574 0.165238 -0.050147 -0.238621 -0.085750 -0.076117 -0.048035 -0.117789 0.186427
GlobalSpecies0101 -0.080103 -0.105511 -0.338115 -0.063383 -0.035882 -0.032656 0.056589 -0.176851 -0.159498 -0.233569 -0.135384 -0.169537 -0.335289 -0.113726 0.153058 0.079252 0.282711 0.156129 -0.057584 -0.010428 0.132428 0.018396 -0.247460 0.062971 0.272844 0.219581 -0.092478 -0.038040 0.004713 -0.306637 0.117635 -0.004982 0.170044 0.096466 -0.097839 0.082528 -0.117358 0.081908 0.154849 -0.279969 0.162455 0.269373 0.060904 0.294277 -0.215733 0.082416 -0.099749 0.068161 -0.184285 -0.046371 0.171131 0.002694 -0.172785 -0.185650 0.022326 0.051215 -0.123032 0.255460 0.063682 -0.059406 0.134483 -0.166710 0.246757 0.009856 0.209130 0.014053 0.160590 -0.190669 0.033019 0.068522 -0.240654 -0.027091 -0.177602 -0.156911 0.267400 -0.059452 0.023294 -0.152096 0.314879 -0.022575 -0.015957 0.086090 -0.151545 0.148728 0.075075 -0.183478 -0.058019 0.139164 0.071432 0.216574 -0.118094 -0.047153 -0.108608 -0.043117 -0.150347 -0.173566 -0.194164 -0.314902 0.019753 0.162218
GlobalSpecies0102 -0.044149 0.121618 -0.161554 0.113905 -0.089480 0.025434 -0.069662 -0.166357 -0.043780 -0.072087 0.053726 0.056497 -0.354772 -0.198726 0.065415 0.012371 0.100008 0.282592 -0.034842 0.059173 0.147917 -0.051460 0.003943 -0.163486 0.107355 0.363241 0.002534 0.177581 0.068173 -0.064128 -0.071269 -0.066897 0.050639 0.070220 -0.013839 0.171433 -0.156353 -0.173290 0.022746 -0.002678 -0.105937 0.161856 -0.083220 0.087583 -0.143940 -0.109685 -0.011285 0.043000 0.075404 0.083516 0.043834 0.051801 -0.106283 0.091788 0.102321 0.076359 -0.065106 0.070950 0.169645 0.033619 0.006242 0.010219 -0.060489 -0.023893 0.038600 -0.021201 -0.092757 -0.092887 -0.006085 0.045164 -0.130899 0.070460 -0.071600 -0.075116 -0.057048 0.142325 0.085613 -0.167553 0.110070 -0.007114 0.016730 -0.006339 -0.161398 -0.006583 -0.036225 -0.150685 0.034047 0.028650 0.018554 0.018714 0.152936 -0.032360 0.102177 0.061890 0.227340 -0.031486 -0.058787 -0.005065 -0.117216 -0.149900
GlobalSpecies0103 0.000037 0.070339 -0.128712 0.123268 -0.181419 -0.076613 -0.080364 -0.175856 -0.049135 -0.011426 0.049423 -0.018705 -0.147480 -0.114877 -0.057513 -0.036561 0.044110 0.068162 -0.183573 0.046021 -0.100236 -0.081375 -0.023541 -0.109407 0.158541 0.106617 -0.013144 0.033671 -0.080324 -0.233356 0.173527 0.152021 -0.013443 0.047810 0.021551 -0.014573 0.121043 0.085440 0.029950 -0.156452 0.199598 0.269221 0.079513 0.037295 -0.098746 0.110875 0.017885 0.062148 -0.093426 0.183467 0.146879 -0.044796 -0.106305 -0.036552 0.005743 0.134075 -0.043862 -0.022313 0.006089 0.173342 0.262039 -0.017838 0.017959 -0.073695 0.196606 -0.032098 0.004028 -0.033434 -0.003063 0.091268 0.050726 0.011174 -0.135989 -0.054835 0.174592 -0.034438 0.016282 -0.089430 0.139025 0.042386 0.010107 -0.028935 -0.052921 -0.075041 0.203338 -0.095222 -0.047863 -0.035348 0.064283 -0.049053 -0.043676 -0.188202 0.194388 -0.105028 -0.170617 -0.024992 -0.173216 -0.087217 -0.143286 0.027197
